0.05688
0.06012
-0.02263
-0.02531
0.71768
0.19716
0.54019
0.43094
0.51938
0.87946
0.49691
0.44900
0.49692
0.45783
-0.15981
0.57497
-1.91804
-0.33671
-1.08628
-0.22887
1.02046
-0.25394
0.06023
-0.28470
0.53718
0.75769
0.64786
-0.39610
0.06542
0.20601
0.64123
0.54031
-0.19154
0.66537
0.66403
-0.26350
0.65795
0.58007
-0.10922
0.09580
-0.26045
0.66829
0.16276
0.65561
0.66207
0.66465
-0.18632
0.01520
0.06151
-0.46604
0.84562
0.60376
-0.75034
1.09514
-1.38007
-2.26245
0.61113
0.49099
0.88310
0.88148
0.77792
-2.79539
0.88443
0.65208
0.88549
-0.03757
-0.52837
-0.32588
-0.68007
0.54194
-0.44958
0.18552
0.54227
0.54395
0.17641
0.23845
0.18747
0.08524
0.39119
1.14938
-1.61920
-1.02316
0.31303
-1.62069
1.16136
-0.54205
0.17074
0.13960
0.96639
-0.53162
-0.39543
0.06002
-1.38100
-0.42667
-0.56195
-1.33257
-1.33199
-1.33257
0.05682
0.35098
-1.42045
-0.43471
-0.39342
0.24167
-0.15865
0.74906
1.07768
-0.44375
0.47769
-1.21090
0.36227
1.40075
-0.19652
-0.29074
1.01527
0.86287
-0.03676
0.06928
-0.47167
-0.78302
-1.77928
-2.15357
-0.01601
0.27545
-0.85553
0.93423
0.01839
0.04477
0.06798
-2.67506
-0.69721
-1.80821
0.20654
-2.70912
-0.88725
0.08233
0.69088
-1.85741
0.38138
0.54348
0.55824
1.03057
-0.48360
-1.08653
-1.14456
0.40760
0.06581
0.75198
-1.24073
0.35487
0.41239
-0.19877
1.63990
0.42663
-0.31426
-1.33104
-0.15990
-2.02904
0.39000
1.17720
-2.39549
0.23249
-0.27306
1.12294
0.12238
0.58842
0.08671
0.70255
-1.47840
0.18797
-1.14338
0.27920
0.69597
-1.38597
0.69412
-0.24576
0.72063
-1.14012
0.60297
0.59474
0.30530
0.68955
0.36433
-0.21592
-1.12993
-0.34927
0.82367
2.35981
-1.28450
1.53016
0.36212
-2.16183
-2.16148
-2.16494
-0.28651
-0.10400
-1.13006
1.51912
1.51767
0.54188
2.57605
-0.20741
-1.95023
-0.08572
-0.06537
-0.11936
-1.09514
-1.11415
-1.00520
-0.70782
1.68488
0.15205
-1.08880
-1.09070
1.69341
1.68722
-1.08710
0.58753
-1.07257
1.67616
-1.07846
1.32442
0.62472
-1.08629
0.46712
-1.09370
1.69063
-1.09199
0.53476
0.54536
-1.08240
-1.00072
-0.15278
2.60368
-1.09281
-1.08382
0.75819
-1.07771
-1.08142
-0.74305
-1.40398
-0.46982
-0.47124
-1.39411
-1.41164
1.91817
-1.38283
-1.39217
-1.38777
-1.26844
-1.40335
2.28436
0.45266
-1.39708
-1.39329
-1.39904
0.14089
-1.39701
-1.39889
-0.35035
-1.38542
-1.38728
-1.40185
-0.47883
-1.39464
-1.40078
1.47524
0.14230
-1.39916
-1.39127
-1.14360
1.33479
-0.03574
-2.06396
-2.49422
-0.03684
1.69416
-2.00308
-2.00370
1.69426
-0.10043
0.54089
0.01880
0.53179
0.54053
-0.31540
-0.28591
-2.22140
-0.37101
-0.11973
-1.81063
-1.23834
-1.25088
-0.88211
-0.88146
-0.39056
0.63049
0.12021
-1.22955
-0.41650
-0.05821
0.35823
0.47482
0.35965
0.33707
1.25767
0.34284
1.26011
-0.23130
-1.18232
0.41423
-0.60335
1.05298
0.44086
-1.72179
0.84815
-0.07683
0.60445
-0.07742
-0.74541
-1.38477
0.87650
-0.44702
-0.41988
0.87200
-0.96375
0.25478
-0.03443
-1.88764
-0.03569
0.05541
-1.75329
0.36360
0.35416
-2.31773
-0.62691
1.04353
-0.80273
0.12156
0.69350
1.01447
0.53747
-2.65259
-1.98673
0.21996
-1.66053
1.10557
0.99917
-0.90394
0.10485
-0.90278
1.53327
0.60892
-2.16104
0.05267
0.20923
-0.18016
0.84169
0.07984
-0.41438
0.44549
-2.66140
-0.35239
0.87588
1.01817
-2.34190
0.52752
0.52319
0.52215
-2.22473
0.15759
0.28831
-0.42036
0.28249
0.10409
1.19781
0.54994
0.61722
0.05691
-0.31282
-0.39134
-0.34886
-0.20738
-0.28727
0.56192
0.27583
-0.28474
0.60002
0.60544
0.63095
0.42596
0.71315
-0.30628
0.51670
0.17826
0.37062
-1.38313
-0.60281
-0.14513
0.77354
-0.15027
0.50842
-1.06853
0.77722
-1.06930
0.77518
-0.14027
-0.14699
0.19835
0.61230
0.82677
1.06681
-0.96186
-0.96512
-0.96221
-0.00964
0.60708
-0.94009
0.33697
0.36982
0.35134
0.48409
1.38951
-2.30786
-0.54598
0.77261
-1.94562
-1.99501
1.70204
-1.99115
0.77689
0.77765
-0.04111
0.37652
0.52350
0.49544
0.58653
0.29098
0.70765
0.03752
0.62777
-0.08912
-1.09915
-0.09367
-0.50251
0.75726
-0.17350
0.13959
0.76267
0.73977
-2.01507
0.51523
-1.06523
-1.38437
0.63102
0.41734
-2.14624
0.57331
-0.29925
0.01803
-1.22941
-0.29475
-0.43714
0.85988
0.15785
-2.64225
1.07416
-0.13278
0.15155
1.20233
-0.03209
-1.22609
0.89856
0.54387
-1.30191
1.47004
-1.29747
0.05714
0.25643
-0.15295
-2.77324
0.91580
0.42949
0.05104
0.16957
0.62749
0.21396
-2.76917
0.12269
-0.29469
-1.56166
0.78857
-0.13071
-1.38723
0.44232
0.50458
0.50042
0.51167
-0.35843
-2.47655
0.04673
0.05703
-0.91346
0.54961
-0.11853
-0.37559
-0.70914
-0.20039
0.54536
0.78749
-1.06001
-0.16320
-2.90255
0.36691
-0.39467
0.41608
0.41610
0.31056
0.52646
0.00332
0.11900
0.25467
0.19183
0.19110
-0.04821
0.76346
-0.41705
0.01889
-0.20720
-1.75390
0.53419
0.08582
-1.38176
-0.36524
-0.30967
0.55884
0.07750
-2.56085
0.20277
1.12041
1.11939
0.20635
1.13095
0.20253
1.12471
-2.55250
-2.55758
1.12225
1.12485
-1.63410
1.11931
1.11584
1.11489
1.11862
0.20392
1.11980
-1.52690
1.12284
0.21423
-2.55030
1.11912
1.11081
1.11449
1.11940
1.11956
-2.56052
1.11917
-2.55967
1.12110
1.12059
0.20077
-0.71928
1.12030
1.12226
1.12475
0.96799
-2.55725
1.12188
1.12438
1.11535
1.11721
-2.56619
1.12130
1.13051
-2.56775
-2.55413
1.12667
1.11639
0.21129
1.11751
1.11706
1.11472
1.11828
1.11321
1.11490
-1.63990
1.12566
1.11971
1.12043
1.11016
1.12072
1.11698
0.20146
1.11905
0.20276
1.11192
1.12431
1.12107
0.21016
1.11692
1.11177
1.12897
-0.71769
1.12402
1.11759
1.11696
0.20477
0.19918
1.11969
-2.55781
1.12270
1.12800
-2.55017
1.11989
1.12038
0.19933
0.20904
0.19914
1.11561
1.12238
-0.72164
1.12807
-0.91169
-1.63907
1.12317
-2.57187
1.11783
-1.63715
-2.55783
-2.56905
-2.56024
1.12460
0.12788
1.11777
0.20259
-0.72147
2.05183
-1.54054
-0.86375
0.93724
-0.70419
-1.79106
0.82823
-0.04572
0.27993
0.26837
-0.25571
0.61171
-1.09415
0.75485
-1.09463
0.03260
-0.55233
0.62077
-2.16916
0.62037
-0.90268
0.64142
0.48285
0.54100
-0.01608
0.55209
0.05854
0.25795
0.59543
0.05549
0.51485
-0.54432
-0.43777
0.38418
0.61849
0.24605
-1.90247
0.38554
0.15076
0.42279
0.35297
-0.38961
-0.54111
-0.02148
0.38893
0.23954
0.38184
-2.37914
-1.38460
-2.37814
0.38888
-0.53332
-0.34233
0.67031
-0.53766
0.37759
-3.30514
-2.59480
-0.13277
-2.60094
-0.69158
0.67152
0.53920
0.16905
-1.66402
-1.66838
0.16818
-0.74971
0.16750
-0.34383
0.16965
0.33140
1.03478
0.54290
-2.79685
-0.53118
0.21723
0.59013
0.65822
0.44666
0.51469
1.50659
0.22887
-1.12101
0.68777
-0.84112
0.03157
-0.92952
0.86687
0.86977
-1.86520
0.85818
-0.01515
-0.00192
1.04435
-0.80523
-0.35821
-2.21535
-1.28932
-2.22193
-1.38128
-0.42201
0.05903
0.18288
0.05916
-0.03706
0.43092
0.43304
0.43096
-2.59133
-0.91102
-1.55315
-0.14596
-0.16697
1.02965
0.70884
0.54295
-0.94468
0.28497
-1.38131
-1.77439
-0.59335
-0.96143
0.89714
-0.05914
1.04083
-0.95091
-1.86589
-0.02066
-0.62298
1.80867
1.81137
-1.86153
-0.67756
-1.72026
0.24049
-1.13034
-0.95439
-1.87839
-1.82445
-0.02469
-1.25006
0.07664
0.21434
0.53347
0.31628
-0.60940
0.01241
0.43829
-1.41134
-1.41326
-1.41091
-1.41329
-1.41205
-1.41180
0.13119
0.38554
-0.16187
-1.35049
-1.35000
0.56969
0.42793
0.12011
-0.64298
0.35898
0.25056
-0.13121
0.53227
-0.96466
-0.56164
-1.55538
-2.42026
-0.02154
0.88909
0.42322
-1.40236
1.91776
-1.13221
-0.57687
0.06210
0.79695
0.61638
-1.29265
0.05577
-0.07099
-2.20034
0.42118
-0.08964
0.53518
-1.38633
-1.57051
-0.04529
-0.08414
-0.09903
-0.88016
-0.21080
-0.95022
-0.73002
0.81794
-0.10474
0.53991
0.31349
0.12229
0.81413
-0.11362
0.64442
-0.10418
0.81662
-0.09757
0.54521
-1.89358
-0.01118
-0.10776
-1.93499
-1.01416
0.36866
0.77536
-0.11310
0.81548
0.63550
0.25243
-0.09606
-0.95582
-0.10707
0.81076
-0.11092
0.08302
-0.42367
1.01203
-0.10981
0.70718
0.63771
-0.13877
0.81329
0.81181
0.60241
-0.15360
1.14213
0.21328
-1.46612
0.16592
1.61739
0.27576
1.09142
-0.75645
-0.12002
0.16773
-1.90424
0.39977
-0.90459
0.39509
-1.11526
0.72851
0.13253
-1.11699
0.02398
0.73845
-0.12008
1.13443
0.21312
-0.62990
0.29982
-1.55128
-0.70626
-3.18365
-0.78004
0.54457
-0.00912
-0.53047
-0.88708
0.13128
-1.71774
-0.11005
0.05748
-0.24092
0.35008
-2.99841
-2.70761
0.66833
0.66882
0.22008
0.60558
0.68382
0.67877
-0.20090
0.67178
0.38276
-0.23277
-0.22798
-0.75914
0.67607
0.63137
0.05510
-0.33168
-0.25017
-1.32786
0.08582
0.27237
-0.17670
-0.42068
1.49714
-1.26885
-2.19520
0.57360
1.50093
-2.19376
1.49319
0.00043
-0.04966
0.64653
0.41800
-2.81316
2.15909
-1.09807
1.26053
-0.40474
-0.68155
0.14427
-1.37715
-0.61697
-2.27525
-1.53279
1.42655
-1.38747
-0.14018
-2.31902
1.38200
0.45517
-2.31541
-2.32321
-1.39427
0.23505
0.34507
-0.45686
0.09853
0.58406
0.62652
0.58325
0.57967
0.58179
-0.85576
0.66766
-1.80987
0.04936
0.96129
0.53107
0.53084
-0.42610
0.50108
0.27506
0.48467
0.47613
-0.31438
-0.44464
0.47933
0.22169
0.00480
-2.59301
-0.30258
-0.23004
-2.34680
0.12212
-0.57297
0.51128
0.47352
-1.75313
-0.67294
0.81204
0.80429
-1.01892
-1.94591
-0.03609
-2.87390
0.81375
-0.31921
0.81684
0.81391
0.82192
-0.11032
-1.95018
-0.89789
-1.94588
0.80660
0.81329
-1.95447
0.73977
0.81554
-2.87606
-0.53490
-2.87313
0.80848
0.77268
1.07293
0.82024
-0.26107
-0.16779
-1.09286
-1.26035
-1.29400
-0.68417
-0.55835
-0.32396
-0.07133
0.10537
-1.45984
0.78574
1.22818
-0.12409
-1.96296
-2.88843
0.71221
-1.80369
0.78146
-1.29351
0.32288
0.63970
-0.32340
-0.12756
0.38243
0.52023
0.52031
0.51974
0.52005
-0.06592
0.54149
-0.28951
0.26304
-0.04856
0.63179
-2.68218
0.60670
1.00788
1.01603
-2.68780
1.01776
-1.74565
1.02515
-0.45124
1.00141
1.00294
0.99987
0.08655
0.51615
0.11064
0.77309
1.00479
-0.98677
1.01106
-0.82248
-1.10546
1.00906
1.02710
1.00564
0.10353
-2.65048
0.11380
1.50127
-2.67379
0.87658
0.09409
-0.52437
-1.97315
0.78962
-0.42492
0.31917
0.81034
-1.38719
-0.25217
0.27768
-1.21504
-1.57572
1.20123
0.47982
1.09594
1.18053
0.48402
-0.21071
0.07546
0.50290
0.95738
0.95844
-2.71984
0.96091
0.96078
0.96359
0.96944
0.03771
0.96103
-2.72127
0.95859
0.95879
0.43066
-0.41218
1.65832
-1.05489
-1.12811
-1.11948
0.72272
-1.11312
-0.75642
0.05492
0.47517
0.53730
-0.23318
-0.88731
0.72143
0.88436
0.74095
-2.80656
0.53540
0.41007
-0.31756
0.32185
0.24017
0.27059
0.32396
-1.77524
-1.77677
-1.76618
1.92386
-1.78133
0.83672
-1.76759
1.63946
0.81595
0.88436
-0.16153
-0.96934
0.88019
0.88364
0.06704
0.43770
-0.21931
-0.44013
-0.11138
-1.25439
-0.57291
0.60151
0.58796
-0.90620
0.24636
0.83003
1.03054
-0.05905
-0.98211
-1.91228
1.21181
1.20541
0.88481
-1.89325
1.75459
-1.89293
-1.90593
1.75992
-1.90857
-0.96220
-1.63116
-0.07835
0.05781
-0.41925
0.64255
-0.57761
1.27257
-1.49351
-2.40528
0.29088
1.27448
-0.32059
-0.13653
0.36172
-2.41046
-0.01322
-1.39383
-0.27914
0.93009
-0.02552
-2.44182
-0.09901
0.41333
-2.63330
0.71350
-0.78147
0.58606
-0.13248
-1.11828
0.72796
0.65628
-0.19537
0.73050
0.68327
0.58968
0.71988
0.18917
0.72455
0.71907
0.72188
0.72328
-2.96540
0.01406
0.89755
0.16590
-0.59164
0.16636
0.05287
0.56796
-1.04792
0.20475
-0.22695
0.38390
0.82984
-1.69127
0.84363
0.62796
0.84265
0.80170
-1.90924
0.44238
0.84295
0.53664
-0.82449
-0.26148
-0.17102
0.29714
-0.61559
-0.87964
1.19244
0.69535
-0.22934
0.69484
0.47321
0.05136
0.50884
-0.00010
-0.19750
0.68940
-1.13350
-0.20850
-0.21334
0.65873
0.53754
0.67698
0.71823
0.60755
-0.51585
0.55299
-1.34040
0.71513
0.71133
0.18864
-0.21452
-0.20814
-1.13653
-0.21055
-0.20795
-0.21028
0.71276
-1.13170
1.16169
-2.15751
-0.03866
-0.96195
-1.88560
-1.88459
0.88569
1.59659
-1.70923
0.63850
0.73586
0.12396
0.50387
-0.31334
0.26873
0.63540
-1.53618
0.22665
1.24426
-0.33296
-0.04473
1.35980
0.52968
0.52956
-0.07654
-0.26768
-0.76145
-0.28042
0.58971
0.05666
-0.59746
-0.84208
-0.84359
-0.42594
0.48600
-1.42164
0.91261
0.91075
-0.93439
-0.00959
0.19526
0.05683
-0.15331
0.70678
0.33025
-1.22109
-0.42204
0.13103
-0.06129
0.14469
-1.46153
0.11209
0.13028
0.45460
1.99560
1.30667
-0.23501
0.17669
0.30960
0.59581
-1.28957
0.55697
0.54786
0.32620
1.14778
-1.63118
-1.63213
2.13460
-1.38605
0.45256
-0.65338
0.62372
-1.75732
-0.90265
0.17060
0.16346
-0.29840
-1.03062
1.09407
0.15943
-0.62825
-0.33901
0.04522
-0.06806
-0.14351
0.53234
-1.07625
-0.13695
-1.31653
-1.07886
-0.15668
0.41102
0.35484
-0.78080
0.13508
-0.95884
0.13364
0.46605
-1.37964
0.53377
-1.40498
0.96693
0.07745
0.54063
-2.99850
0.69910
-1.13537
-0.19043
0.71921
-1.08247
0.72039
-0.22616
-0.83400
1.25198
0.32419
-1.31469
-1.73910
-1.38171
-0.02644
0.45689
-0.07190
0.76043
-1.86407
0.47789
1.08972
-0.75979
-0.42001
1.32062
-1.45542
-1.45485
-1.45353
-1.45406
-1.44738
-0.09950
-1.45369
-1.45564
-0.17634
-1.55885
-1.55898
1.21900
-1.56031
0.55816
-0.23199
0.55462
-0.36784
0.55899
-0.37023
0.10684
1.91468
1.17184
-0.09177
0.22886
-1.75805
-0.85251
0.14802
1.88985
0.98777
1.79743
-0.85430
0.02545
-0.91191
0.78779
0.54229
-0.83769
0.07455
-0.84448
0.01869
0.17407
0.49410
0.72572
0.82886
0.98968
-1.75576
-1.69665
1.90134
2.07522
0.56947
-1.14250
1.00651
-0.61787
-0.67652
0.08627
-1.75505
0.92292
-1.76116
-1.76414
-0.85050
-0.19013
-1.75850
-1.79084
-1.76188
0.08729
-0.83548
1.47938
-1.75507
-1.77377
-0.28920
-0.98069
0.06915
-0.64494
-0.85038
-1.75718
-1.71173
0.88274
0.41946
1.90695
0.00299
-0.75046
1.01759
-1.77463
0.70855
-0.65061
-1.77312
-1.41267
-0.66045
1.88748
1.91239
-1.75910
-1.77923
0.63662
1.08116
-1.46167
-1.69009
-0.84872
-0.40689
-1.76546
-1.14056
-0.85663
1.92730
-0.58952
-1.76613
0.11182
-0.84653
-1.65163
-1.75633
-1.77364
-1.76329
-0.79203
-0.35024
0.53692
1.13862
1.13460
0.24862
0.31409
0.11302
-1.35844
0.29628
0.28294
0.27846
0.80571
0.05747
-0.88957
-0.75196
0.28535
-1.03148
-2.91854
-0.42868
-0.21656
-1.12064
0.16296
-0.42470
-1.55577
-1.55200
1.22466
-1.54911
-0.42446
-0.62588
-1.55101
-0.22261
-1.88691
1.18431
0.26263
0.02407
-0.54947
-0.66202
0.26412
1.18174
-0.28530
1.18415
0.33953
-0.61538
1.18935
-0.66010
0.67767
0.53237
0.18801
-0.21081
-1.38348
-0.24795
-1.00880
0.03864
-0.01777
0.78593
0.68213
0.53983
-0.42114
-0.47817
1.18820
-2.35207
0.72259
0.34893
0.85543
-2.47647
0.53489
0.77004
0.75309
-0.46777
-3.31663
0.33235
0.33205
0.21120
1.02829
-1.14274
-1.35381
-1.35431
-1.57582
-1.57597
0.28817
-0.50296
0.06202
0.37208
0.53296
0.25608
0.43845
0.82454
0.74433
-0.28927
0.71694
0.77632
0.76604
0.78766
0.72265
0.78605
0.68329
0.26248
-0.10892
-0.81835
-0.18351
0.68893
-2.90111
0.62009
-1.97726
0.94994
0.53926
0.78452
0.79867
0.78829
-1.97867
0.78189
0.77794
0.60493
-0.01912
-0.08196
0.27309
-0.54373
-0.33651
0.62396
0.76671
-2.04378
0.00520
1.50804
0.57908
-0.33934
0.57934
0.63760
0.58426
-1.46899
0.37337
-0.14795
1.98807
0.59699
-0.42907
0.55922
-0.04533
-1.38702
0.90408
-0.22213
0.58428
-2.17152
-2.17019
1.49490
-1.25109
0.57793
-2.34399
1.49939
1.01925
-2.17419
-1.25012
1.50955
-1.38247
0.59524
-2.18141
1.50571
0.53977
-1.58379
-1.21663
1.20462
0.07179
0.43985
0.33302
-1.61884
0.04000
-0.81714
0.53587
-2.19009
0.37161
-1.26948
-2.18067
-2.18829
0.57978
1.50868
0.54052
0.05500
-1.20155
-1.38763
0.18458
-0.24648
-1.02452
-1.14275
-0.13057
-2.07877
0.68687
-2.08087
0.61923
-1.35826
-0.12180
1.59214
0.69064
-2.08106
0.48353
-1.31549
-1.31500
-2.22365
0.50407
0.54502
-0.37779
0.37916
0.54860
0.32244
-0.36501
0.08648
-0.82460
1.64472
-2.06497
-1.49377
-2.06330
-0.84888
-2.06775
0.64697
0.70091
-0.01756
0.87678
0.90414
-1.38387
0.90487
0.27843
1.28838
0.62263
0.59711
0.82674
0.53175
0.85654
-0.23735
0.32072
0.25472
0.53072
0.10196
0.54292
-1.36524
0.79930
0.67430
-0.30591
-0.04408
-3.26368
-0.02684
0.47038
0.56247
0.68363
-0.27277
-0.51330
-1.60974
-2.42839
0.20613
-1.61464
1.78138
-0.99452
-1.92036
-0.44054
0.52778
0.70287
-0.19910
0.55929
0.70589
0.70879
-0.02854
-0.99314
-2.99434
-2.98951
0.70325
1.74706
0.71421
0.05922
-2.00964
-0.23643
-1.17474
1.15979
0.13068
0.59429
0.89764
1.60379
-2.08391
-2.09191
0.05458
0.53720
0.68451
0.26710
0.67518
1.61723
-2.08091
-2.01139
0.70175
0.54001
-2.08768
-0.24095
-2.07766
1.58834
1.58642
0.67658
-0.24060
-2.08719
-1.16805
-0.38409
-1.93145
-0.19630
1.49847
0.42654
1.13573
1.27524
1.49829
0.27596
1.03325
0.60356
1.48543
-0.63699
0.91487
-1.12443
0.77785
-2.56599
0.18769
0.94415
1.10333
-2.55764
0.73972
-0.02323
0.18234
-0.71702
1.11536
-0.76430
0.19539
-0.01045
0.88013
0.00155
-0.50016
-1.23805
1.76736
-1.91181
-0.25216
0.45898
-1.10269
0.20338
-0.60397
0.22954
0.20215
0.56542
0.19489
0.31844
-2.46843
-1.43142
-1.58609
0.26463
0.05056
-1.58793
0.06165
0.06181
0.61136
0.55639
-1.61702
-0.69099
2.51968
-1.08313
0.71471
-0.00258
-1.07853
-0.74184
0.77014
-0.90138
-0.71792
0.20914
0.57690
-0.75500
0.25982
-0.21086
0.18443
0.14380
0.21272
-0.02078
-1.38465
-0.90162
-0.21231
-1.12274
-2.06999
-2.06031
-1.12186
-2.03081
-2.05962
-2.07196
0.70297
0.47338
-1.38274
0.00850
0.61030
0.39545
-2.35876
0.06684
-1.47053
0.40487
0.59075
-1.90846
1.77117
1.79638
-1.88285
-1.89286
-0.04766
-1.89664
-1.90716
-1.89716
-0.91679
-1.89117
-1.88997
-1.89374
0.84893
-1.89995
-1.89372
0.86668
-1.38193
0.64247
-0.03328
-1.88634
-1.90156
-1.89000
-0.05561
-0.03562
-0.97213
1.35950
1.17697
0.69511
-1.88596
-1.89754
-0.88270
-1.88109
-1.89712
0.86431
-0.43821
-1.88564
-1.88087
-0.97763
-1.67618
0.05028
-2.42954
-2.44074
-1.51503
-0.20936
0.31479
1.23743
1.13971
1.17178
1.25218
-2.43726
-2.43422
-2.43906
0.78948
1.24940
-0.09858
0.70275
0.72791
0.41643
0.37880
0.40324
0.71224
-0.23249
-0.90824
0.38147
-0.54298
0.39445
0.40733
0.37179
0.03813
0.53481
0.74127
0.13864
-0.57332
0.23308
0.69555
0.18193
0.05451
-0.44929
-0.57688
0.02621
-1.80545
0.96991
-1.80527
0.96672
-0.87621
0.93302
0.40532
0.53819
0.47940
0.46662
0.47179
0.12503
-0.58106
0.77050
0.46662
-0.40936
0.45830
-0.24637
0.14888
0.34030
0.70480
-0.45301
0.47632
0.45929
0.41632
0.21930
0.28032
0.46427
0.46791
-2.28878
0.24741
-3.20791
-1.34973
0.47920
0.28975
0.41543
0.02526
0.16007
-0.01803
0.47591
0.12377
0.47335
-0.45248
0.08506
-0.45005
0.26192
0.47212
-0.71059
0.46739
0.46150
-0.32294
-3.19806
-1.34414
-2.28107
-0.45463
0.47168
0.46870
0.48404
-0.43738
-0.07863
-1.39029
0.46465
0.48024
-3.04002
0.09090
0.45660
0.46666
0.23448
0.47020
0.46999
-0.44491
-0.15593
0.46394
-0.17058
0.48765
-1.37088
-1.36779
0.23996
-2.27564
0.32968
0.36940
0.46271
0.46761
0.48632
-0.23989
-1.38910
0.46928
0.47916
0.19297
-1.47662
0.28408
0.24271
0.41321
0.51324
0.47111
0.46192
0.47324
0.47181
-0.07097
0.47506
0.67070
-3.19945
-0.14529
-0.06153
0.73326
-0.15399
0.47184
0.35186
-0.11786
-0.64968
-0.45651
0.45246
0.47503
-0.45270
0.02110
0.09554
0.45733
0.34665
0.47582
-0.84481
0.32182
0.47053
-0.15458
-0.04578
0.04978
-0.04834
-0.39494
-0.04513
-0.06700
-0.04442
-0.25263
-0.97170
-0.36668
0.05775
0.23923
0.46982
1.16131
-0.71679
0.85209
0.85384
-1.92053
-1.92167
-0.13792
0.78568
0.91528
0.53234
0.31858
-0.03724
-1.87286
-0.02610
0.80115
-0.02446
1.40373
0.81413
0.01003
-0.01860
0.90228
-0.02414
-0.18572
0.90060
0.61772
-0.95020
1.41264
-0.02884
0.90427
-0.02298
-1.95334
-2.13899
-1.95225
1.74242
-0.07205
-0.07204
0.85317
-0.01659
-0.28067
1.46598
-1.12229
0.89277
0.52202
-0.50139
0.42195
0.42669
0.15371
0.47414
1.11028
0.31635
-0.28158
1.19804
-0.41232
-1.02319
0.06109
-2.54385
1.14423
-1.29618
-1.62529
-2.54976
1.14301
0.00437
0.19965
-0.13155
-1.17757
1.13328
-1.62722
0.76265
1.14184
1.39631
0.21956
0.21805
0.22011
0.23322
-0.70451
-2.54887
0.22610
-2.07488
1.14731
-2.55474
1.09725
1.13999
0.59514
-0.79831
-1.08388
-0.15863
1.31827
1.32205
1.31994
0.40943
-2.35730
-2.36005
-0.29005
0.21891
0.54377
0.42938
1.01641
-2.92478
-0.10952
0.46288
-0.30630
-0.30665
0.42985
0.60980
-0.47248
1.00713
-0.83817
1.02290
0.81660
-0.76115
1.01660
1.30939
0.10203
1.00673
-1.33198
0.98522
1.01785
-1.38476
1.01133
1.01181
1.01284
0.11871
1.01166
-0.29032
1.04526
0.35790
0.14273
1.06361
0.21630
1.44813
-2.22398
-2.23122
1.37810
-0.96638
-0.04007
-1.35289
0.29629
-0.48978
0.09468
0.31970
-0.90496
-1.24823
2.44992
-0.94877
0.19052
2.48147
0.53457
-1.24718
-1.12883
-1.24788
-0.40083
0.88049
-0.40144
-0.54463
0.47275
0.53756
0.12775
-0.31817
-2.00753
0.66298
0.22596
1.12680
-1.61681
0.94753
0.28847
-2.38698
1.30729
-1.24985
-1.86040
-0.62770
1.62462
-0.90580
0.83082
0.84538
0.85591
0.81836
-0.73521
-2.82626
-1.92355
-2.83890
0.55726
0.55001
-1.01636
0.76553
0.41376
-1.38715
-1.87992
0.65698
-1.88270
-1.88180
0.89815
-0.96255
-1.87558
1.07141
1.98792
-0.27394
-0.76691
0.04096
-0.92178
0.00386
0.31101
-1.93512
-0.07328
0.84273
-1.01109
-1.93542
0.16725
0.25209
0.48230
0.25520
0.55263
-2.22237
1.47277
0.05837
-0.40741
-1.38522
0.47398
0.54582
0.43463
0.38225
0.14878
-0.47038
-0.58866
0.15673
-0.76028
-0.36827
-0.83725
-0.63732
0.15365
0.07382
-1.29502
1.07291
0.17228
1.08271
0.14984
-0.66967
-2.36606
1.07367
0.49230
-2.61223
1.07096
1.07929
1.07899
1.08948
1.07701
0.17207
-0.89785
-0.38352
-0.26003
-2.73941
-1.81748
0.94291
0.92702
0.81068
-0.90103
0.02132
0.44371
-0.35976
-0.18026
0.74470
-0.17633
-1.03743
-2.02114
0.74587
1.73921
-0.69560
0.58538
0.71843
0.11251
0.53338
0.38138
0.10654
-0.77184
-0.87753
-0.06767
0.39076
1.65894
-0.42083
0.53448
-0.08546
1.17770
-0.11909
1.16829
-0.45303
0.72862
-0.67136
-1.57178
0.29809
-0.13004
-0.60266
-0.03363
-0.32884
-0.06223
0.24948
-1.09375
0.64553
-0.42483
-0.36547
-1.30715
-1.30719
-0.37840
-1.30589
-1.30565
-1.30493
-1.23692
-1.30683
-1.30649
-2.02544
1.58446
-2.01668
-1.18772
1.66366
0.78573
-1.08690
-0.67731
0.56321
-1.60442
-0.67706
0.48468
0.54528
0.28307
-0.04785
-0.53888
-0.64845
-0.42264
-2.64136
0.91416
1.04295
-1.38443
-1.38165
0.61217
-1.10445
1.61052
-0.98427
1.79880
-1.89521
-0.97450
-1.90258
-1.89556
1.77730
0.05890
0.06654
-0.45600
-2.72031
0.60015
0.53170
0.06254
0.21956
0.15616
0.36691
0.47466
-2.31146
-0.15267
0.46583
0.46603
-0.05460
-0.43934
-2.29358
-3.21616
0.46688
-0.45283
-0.72827
0.53439
0.82869
1.22762
-0.02314
0.06286
-0.20232
-0.31339
0.10594
0.37657
-0.20835
-1.28166
0.08602
0.08843
0.33591
0.93141
0.05618
-0.18993
-1.83127
0.10386
-0.90498
-2.75580
0.05332
-0.14245
0.94548
0.94142
0.02197
-0.15533
0.26115
0.84003
0.95005
0.93895
0.75057
0.76012
0.75688
-1.08859
0.75105
0.44962
-2.01009
0.26337
-0.35904
0.47916
0.54700
-0.18061
0.40154
0.26911
0.13227
0.95438
0.59245
1.60367
0.10583
-1.92959
-1.94153
0.31262
-2.20273
0.31628
0.53957
0.91735
-2.47710
-1.48764
-1.50000
2.01458
0.17037
0.17346
-0.98371
-0.43327
0.67044
0.28836
-0.46248
0.50976
0.30220
-0.35322
0.05594
-0.82818
1.37008
-1.40339
0.16083
-0.00998
0.26763
1.05511
0.13326
0.38127
1.05357
-0.03344
0.05801
0.19211
-0.73132
-2.58053
-0.79611
0.12707
1.11400
0.19259
0.53474
1.11639
1.11576
0.56556
0.44984
0.05561
0.44559
0.44344
-0.44815
0.16979
0.38655
0.51574
0.64237
-0.26678
0.35380
0.50931
0.51084
0.50507
0.44034
0.37646
0.44873
0.03218
0.75928
0.16188
0.16206
-0.00969
-0.42082
0.50859
0.50784
-0.42107
0.50533
0.52152
1.26652
0.68768
0.11982
0.69921
0.97973
0.59931
-1.70252
-1.70294
2.00126
-1.70147
-1.70129
1.98978
0.22386
-1.70219
1.19598
-1.70209
-0.77579
-0.21991
-2.38481
0.33577
1.12052
1.11723
0.77077
-0.42014
-1.01281
0.15740
-2.63772
0.24066
1.30234
-0.71469
0.39805
1.19155
-0.86447
-2.33880
0.34259
1.22145
0.46964
-1.19624
-0.05020
1.24259
1.28125
0.39334
1.30523
1.30066
-2.35179
0.41290
-0.09803
0.04302
-1.33414
-1.33482
-1.33506
0.32602
-2.19110
0.55280
0.20708
0.28232
-0.88945
-1.05758
-0.89033
-0.44111
0.38941
0.50024
0.26524
0.54569
0.12990
-1.72174
0.31499
1.31587
0.46648
0.56520
0.79282
0.96323
0.53749
-1.74888
1.03033
-0.36939
-0.16775
1.56730
0.59259
0.48265
0.60296
1.16903
-0.93053
1.60406
0.36911
0.21680
-1.12981
-0.66355
0.51236
1.12894
-1.42307
-0.21003
-1.13900
0.53466
0.70973
-1.14851
1.59169
-2.07272
-0.24682
0.78738
1.21020
-0.13339
-2.08216
-0.22118
0.68700
1.61181
-0.38181
-2.08137
1.57627
-2.07726
2.99792
0.68707
-0.48692
-0.04282
-2.10834
1.46685
0.04285
-0.12329
0.49960
0.50363
0.50460
0.50424
0.50434
-0.32011
0.76627
0.50504
0.07249
0.09675
0.55432
-2.56497
-0.74405
0.71951
1.10802
0.18450
0.20001
-2.57045
-2.14520
-1.96355
0.05852
0.80858
0.05471
0.05470
0.05638
0.36658
-0.13830
-0.27514
0.55030
-0.42073
0.97356
0.05567
1.97361
-1.72459
-1.72030
0.53925
1.19213
-1.87308
0.90077
0.57909
-0.94742
-0.94314
0.40616
0.26664
0.06011
-0.79838
-0.01325
-0.12377
1.11306
-0.11530
-0.12023
0.61943
-0.11236
0.80604
-0.06538
0.79936
0.80378
0.77950
0.78181
-0.11352
-0.11548
-0.48011
-0.11055
-2.88205
-1.08477
-0.11820
-1.04181
0.81120
0.26874
0.70708
-0.11658
0.80734
2.98308
0.80796
0.56126
-1.96221
-0.73115
-1.04456
-0.11519
-1.05029
-0.97457
-0.65587
-0.78860
-2.14019
-1.08500
-0.41741
0.44921
0.62330
-2.13832
-0.29608
0.41166
0.63660
0.39527
0.61768
0.64278
0.63552
0.24356
-0.22163
0.70173
0.70151
-0.21367
-1.34965
-1.34968
0.54706
-2.76236
-1.73556
-1.73525
1.95669
0.53827
-1.37902
-0.90145
0.53776
0.67142
0.17768
1.04719
-1.67007
-0.55687
0.46178
-0.48461
-0.55721
1.27995
1.28899
0.02952
-1.47593
-1.47886
0.06195
0.83747
0.26314
1.00471
0.18073
0.77670
1.08371
0.05167
-1.40423
0.01197
-1.64000
0.32539
1.07306
0.77550
0.77460
-0.14882
-0.14959
0.30183
0.05959
-0.81872
0.28737
-0.52133
-1.09712
-0.20581
-0.20377
1.26828
-1.77103
0.07525
0.94543
0.95153
-0.20778
0.40165
0.40502
-0.14444
0.39702
-0.64253
-0.08658
0.35050
-2.42989
0.14807
0.81277
0.54182
0.09437
-0.10308
-0.03810
-0.18631
-0.14434
-2.96252
-0.00943
0.12519
-0.22624
0.16408
1.08522
0.10608
-0.18085
-0.30631
-0.17878
0.74796
0.73574
0.17585
0.73529
-2.02083
-0.18765
0.24182
0.18524
-2.94762
-2.07681
-0.36022
0.04818
0.88118
0.88130
0.88084
-0.04131
-0.11632
-1.32966
-1.32860
-1.32810
0.44992
0.05528
0.53826
-0.03006
0.49478
0.99101
-1.38530
0.64246
0.19606
0.05904
0.05904
-1.03218
-0.01679
1.96040
-1.69175
-1.42547
0.20099
0.43478
-0.90737
-0.89748
1.30237
1.79626
-1.06854
1.82686
0.40461
0.23941
0.54056
0.00428
-1.84279
0.48063
0.57565
0.54951
-0.15386
-0.25001
0.67868
-0.22137
-0.24846
-0.24794
0.67845
-0.24862
-0.40447
0.67709
0.53323
0.54530
-1.41305
-2.80451
1.87981
-0.16403
1.73549
0.08605
-0.48950
0.75274
0.54545
0.60579
-1.38081
0.59187
-0.35496
0.30743
-1.38625
-1.32258
0.62226
0.34291
-1.28339
-0.57996
0.32281
-0.34743
-1.38045
0.05408
-0.21916
0.10310
-0.01141
0.50234
-2.54762
0.32987
0.62253
-0.52968
0.84248
0.57277
-1.25185
1.40280
0.73546
0.24186
-2.01956
-1.99096
-1.99054
-1.32802
1.62726
0.99842
0.17462
-0.39670
0.53422
0.53935
0.49615
-1.40509
0.41425
0.42293
-0.48252
-1.40860
0.42470
0.41020
-3.25710
0.41860
-1.13931
-0.48768
-0.77150
0.42427
-0.44526
-2.33913
-0.11000
0.18416
-0.48088
0.58703
0.41725
0.40856
0.42632
0.42212
0.49848
-1.39150
-0.51001
0.55754
-0.10949
0.41502
0.41858
0.54291
0.58763
0.11853
1.12766
1.06996
-2.62753
0.49225
-0.90016
-1.38841
0.06841
-0.46423
0.36325
-0.53761
0.12602
0.07820
-1.02192
1.86443
0.01102
-0.26167
-2.63115
1.02004
-2.57193
1.12143
1.12182
0.44737
0.13770
1.85440
0.05689
0.88908
-1.71027
-0.07713
0.92891
-0.61474
-1.37683
-1.18864
-1.08270
-1.19003
-0.72479
-0.21649
-1.18870
-0.68904
-0.55840
-0.72475
0.35331
-0.77301
0.30616
0.41809
0.34280
0.48427
-1.33968
1.43246
-1.33961
0.51001
0.50793
-2.26732
0.49639
-0.63780
-0.24988
1.43500
0.47781
-1.33620
-2.26125
-1.34216
-2.26474
-1.34160
0.24941
-0.42467
-1.01185
1.41877
0.54355
-1.38561
1.84965
-1.84114
0.05089
-0.01056
-0.14865
0.36084
0.12300
0.53846
1.36923
1.29169
-0.14781
-1.32706
-1.32789
-1.32535
0.11437
-2.33368
-2.34433
-2.35681
1.08872
-2.27418
0.76441
1.30548
-0.72222
-0.42984
-0.49633
0.15771
1.06099
0.13344
0.82036
-0.47062
0.05889
-0.31736
-1.09418
0.15460
-0.27167
-0.12702
0.42170
0.48576
0.54093
-0.15052
-0.33005
0.58610
0.59175
0.10163
0.93457
0.60417
-0.43503
3.94653
-0.00314
-0.20843
0.37344
0.53390
0.04619
0.50412
0.06276
0.48097
0.59001
-0.31232
0.29966
-0.61380
-0.31572
-0.33358
0.59967
0.23409
1.39189
0.19961
-0.09541
-1.60620
0.21920
-0.50465
-1.27267
0.07389
-0.91115
-0.90089
0.53183
0.53201
-0.56103
-1.67842
0.45581
-0.09667
0.53117
-0.40589
0.61855
0.53469
-0.42095
-2.80121
0.20832
0.73953
0.16815
-2.78600
0.89544
0.88165
-0.04535
-0.90620
1.51670
0.58835
0.59464
-2.18121
-0.33005
0.59516
-2.18452
-0.05831
0.86701
-0.05815
0.76465
0.48523
0.81801
0.35805
0.34890
0.35194
1.24231
0.53715
-0.25372
0.34006
0.47141
0.47066
-1.58295
-0.56699
-1.35907
-0.54301
-1.91433
0.82576
-0.12433
0.81824
0.66093
-0.26280
0.66123
0.41391
1.50446
-2.71575
0.97292
0.85329
-1.78742
0.10899
0.05602
0.97186
-1.79640
0.96561
0.54916
-1.89552
0.05206
0.05229
-0.20668
1.19567
-1.24684
-0.21404
0.60405
1.67905
-1.38838
0.28699
-0.04794
0.43268
-0.99857
-1.38547
0.63428
0.63835
-2.12974
0.21043
0.20837
0.25203
0.22333
0.21798
0.22623
0.20021
0.21348
0.56539
0.21815
-2.53516
0.53773
0.02815
0.21667
-0.76577
-2.54131
-1.75959
-0.64026
0.83450
0.41773
-0.61073
0.05916
0.23672
-1.20306
0.42214
-0.86866
0.97242
0.68945
0.97294
0.97720
-0.09657
-0.39116
0.83350
0.08577
0.53750
0.05796
-0.20068
-0.48481
-0.41027
0.43834
0.44255
0.28537
-1.92754
0.83136
-0.39499
-0.31204
-1.69361
-1.69144
-1.70647
-1.69657
-1.69750
-1.48194
-0.83640
0.80151
0.12780
1.04692
1.98025
0.78747
-0.13725
-2.52595
0.59544
0.91470
0.16271
-0.68208
1.13958
1.14078
0.42040
0.06575
0.02113
1.01844
-0.28893
-2.25995
1.42604
1.41478
-2.28116
-1.36113
-0.36202
1.25808
0.18342
0.04736
0.18382
0.18247
-0.08644
-2.64157
-2.66484
0.09014
-1.73311
-0.41686
0.93021
0.11818
0.58097
-0.03063
0.30038
-0.39663
0.11265
0.30116
-2.47163
0.09903
-0.86634
0.03983
-0.23356
0.69111
0.60891
0.76590
-0.79410
-0.15442
0.77126
-1.07393
0.71539
0.24534
-0.15816
-0.16161
1.03059
0.08227
-0.36133
0.61828
0.61655
-0.30597
-1.33227
-1.33194
-0.90575
-1.33091
-0.28061
0.71449
-2.00780
-0.62344
-0.22963
0.05450
-0.00810
0.34502
0.92885
0.91988
0.05651
0.24611
0.46561
-0.16225
0.63591
-0.19023
0.53642
0.04326
-0.11712
-0.39517
0.08147
0.32532
-0.60277
0.32629
0.75158
-0.94941
1.16771
-0.34351
-0.90400
0.35678
0.52881
0.52887
0.47532
0.34244
-1.34529
0.87955
1.43190
-1.34134
-0.42252
-0.29993
-1.34614
-0.22622
-0.42222
0.56663
-1.09387
-1.34406
2.35029
1.13941
-1.38132
0.50510
0.19399
-1.34010
0.48874
-1.34945
0.58910
0.05132
0.38297
-0.19444
0.04939
0.06158
0.92581
0.80411
0.71716
0.94914
-2.73567
0.63991
0.94604
-2.16216
-0.31250
-2.74276
0.37637
-0.04330
0.88587
-1.16067
-0.84176
0.48011
0.00349
1.16523
-1.62294
-1.62535
0.19237
0.73628
0.08068
-0.70580
-0.04524
-0.10053
0.81244
0.53906
-1.35175
-1.35113
-0.58384
0.57670
0.21312
-1.62978
1.14855
0.00809
1.14482
1.14372
-0.12702
0.92390
-1.84911
0.08482
0.56554
0.54370
0.53289
1.63137
-1.46466
1.65692
-1.11662
1.09251
0.53439
-0.18300
-0.25472
0.29127
-0.41282
1.19166
1.18707
1.19024
-0.14213
1.17986
1.18288
-1.58730
1.17895
1.17516
-0.15808
0.17758
0.06088
-0.06271
-1.61127
-1.85472
0.41931
-0.19552
-0.61796
0.54932
0.53013
0.26301
1.61925
-2.07478
1.61237
-1.15188
-2.07629
1.61503
0.95413
0.99150
0.06904
0.13752
-1.42213
0.98859
-1.78135
0.53688
0.06690
0.53860
-1.02085
0.53818
-1.95874
0.79477
-1.90654
1.78548
-0.89118
-0.78543
0.45135
-0.86278
-1.36873
-0.50893
-0.86219
-0.21528
-0.07372
0.13121
-1.48727
2.21723
-1.48780
-1.48538
-1.48458
-1.48433
-1.48397
0.36271
-0.16105
0.27332
-0.20495
0.54999
-1.92928
1.76288
-0.42715
1.05192
-1.37967
0.05421
-0.00409
-0.04784
0.65179
0.65132
-0.26975
0.65595
-0.82888
0.13013
1.55734
-0.43116
-0.12978
0.54294
0.54758
0.05282
0.29516
0.24028
0.70032
-0.22416
0.70047
0.42169
0.10089
0.52445
0.52440
0.55189
-2.05918
1.27978
-0.52641
-0.74148
0.32257
0.55950
0.56614
-1.29022
0.05458
-0.07073
-0.10213
0.28660
0.98464
-0.43932
0.75087
0.22070
-0.13460
-0.10572
0.34523
0.05280
0.16085
-2.88015
0.80625
-1.96742
-0.11533
0.80359
0.69493
0.46574
-0.11372
0.80989
0.80958
0.80649
-0.11632
-0.11683
-0.11771
-0.07397
-0.11724
-0.12196
-0.33054
-0.06099
-0.78004
-0.05733
-0.07357
-0.42584
0.49746
0.27141
0.49841
0.06114
0.49776
0.49842
0.50051
0.38133
0.05388
-0.42480
-0.51209
-0.90690
0.42089
0.41954
0.42416
0.05883
0.15463
0.42170
-0.11558
0.42085
-0.07165
-0.01649
0.42287
0.43532
0.53815
-0.06720
-0.19828
-0.03120
-1.94174
0.20683
-0.27746
-0.81191
0.65160
1.23092
0.30857
0.86617
-1.38137
0.85337
-1.38990
-0.09039
-0.06849
-0.49341
-1.12051
-1.10872
-2.06770
0.03526
-1.38715
0.20014
0.17978
0.10696
-1.20030
0.05572
-1.36075
0.82484
-0.99448
0.84794
0.27077
0.45526
0.28921
-0.52096
-1.61562
2.08630
-0.68857
-1.61249
-1.61445
-1.61452
1.31581
-2.36065
-2.37371
-1.44050
0.39656
-2.35865
0.94488
0.37824
0.80211
0.02450
0.52624
0.52596
0.28395
0.95413
-0.89533
-0.57359
-0.90017
-0.89865
-0.70757
-0.21553
-0.06483
-2.58873
1.10197
0.53814
-0.96496
0.76448
-0.54195
0.75264
-2.02774
-2.03971
-0.18851
-0.85367
0.53288
0.52734
0.52749
-0.28863
-0.04051
0.83114
-0.24150
0.00076
-1.38650
0.07903
-0.12090
-0.67388
0.18941
0.53715
0.56121
-1.72572
-1.75286
1.94374
-2.04255
1.05253
-0.20930
1.13309
0.72525
-0.43114
-2.04470
1.64879
-1.91473
1.64019
-1.12040
-1.12279
-1.11273
0.72039
-2.04304
-2.03949
0.64768
0.29062
-1.11262
-1.10920
-2.03349
-2.04529
0.57086
-0.56355
-2.40157
0.06079
-0.43826
0.23996
-2.11366
1.57244
-0.42456
-2.12055
0.05668
1.19337
0.66644
-2.11752
-0.32973
-1.34563
0.41411
0.86548
-1.38508
0.23315
0.01923
0.03419
-0.93414
0.91366
0.91388
0.37722
0.17257
-0.58999
0.52329
0.43398
-0.50547
-2.35037
0.13797
0.00315
-0.23607
0.40412
0.58573
0.84228
1.90561
-0.90645
0.52666
0.52658
0.52915
0.52926
0.53332
0.03259
0.59753
0.23349
0.25925
-1.64783
-1.19237
-1.64851
0.19576
-1.63428
-1.63992
-1.65272
-1.65195
0.17321
1.37859
1.04513
-0.01588
-1.41203
-1.65328
0.94347
-0.64640
-2.12348
1.03327
1.54702
0.05297
-0.15646
-1.17985
-2.12110
0.63147
1.53850
0.99393
0.30800
0.62580
-0.29841
-0.28567
1.52672
0.48271
-0.20522
0.05581
0.01308
0.36394
-2.06733
-1.16749
-0.29384
0.01306
-2.71919
-2.72188
0.05422
-0.34001
0.51595
0.51529
0.51576
0.51527
0.51556
-0.90679
-0.57682
-0.03982
0.05729
0.02227
0.23066
0.53612
-0.00159
-0.28584
1.06139
1.06088
1.06230
1.05117
-2.61830
0.34546
2.79405
2.53199
0.05819
-0.40181
-2.88989
0.80670
-0.23031
0.58609
-0.46197
0.62756
-2.86994
0.67830
0.68564
-2.09197
0.50598
0.53317
-0.02602
-0.18556
0.93627
0.09109
0.08945
0.09075
0.08592
0.07463
1.85305
-0.32789
-0.90663
-1.07038
0.72043
-2.04623
-2.03908
-2.04369
0.48436
-2.33511
1.94762
-0.04678
0.87050
0.60766
0.28238
-0.89172
0.53707
-0.90608
0.06285
-0.09692
-1.69911
0.95081
0.27973
-1.16723
0.75164
-1.99357
0.86888
0.65404
0.65458
0.65566
0.73242
0.65459
0.16458
0.15615
-0.78701
1.06816
-1.22523
0.13537
-0.47396
0.15171
0.53689
0.05540
-0.18572
0.51344
-1.08655
0.58441
-1.27819
0.75770
0.96684
0.06096
0.38091
0.05898
0.49166
-1.14982
0.55270
0.47166
0.46959
0.48185
-0.45270
-0.34115
-0.38098
-2.18310
-0.21326
0.08061
0.44227
0.53711
0.23477
1.84011
0.48857
0.63862
0.31929
0.60118
-0.07217
0.05577
-1.38220
0.08302
0.18360
0.06930
-2.73546
-1.80864
-0.89513
-0.21979
0.02653
-0.19287
0.04328
-2.72463
-2.74752
-0.82742
-0.01857
0.22018
-0.82753
-2.78976
0.73706
0.22183
-0.33044
0.01426
-0.00432
-0.96340
0.70535
0.79467
-1.89757
0.04930
-1.69967
-2.78549
0.61470
-0.11649
-0.23440
-0.04473
-0.62084
0.42415
-0.23953
-0.32778
0.67933
-1.47518
0.67967
-3.01625
0.68262
0.33432
0.68082
-0.24283
-1.85733
-1.84908
0.49477
-1.86328
-0.59587
0.80907
-1.84940
0.67685
0.32789
0.76878
-0.13786
-0.34814
0.55069
-0.44768
-1.71675
-1.71838
1.09207
-0.79164
0.15743
0.71237
-0.43384
-0.06537
0.79177
0.35190
-0.12610
-0.27806
0.05127
0.35920
2.10805
-1.49199
0.69746
0.69838
0.68601
-1.15188
-0.34976
-0.13315
-0.74965
-1.38524
0.50889
-0.39391
-0.07613
-1.34072
1.42129
-0.45245
-0.45442
0.37103
-0.73890
-1.38289
-0.19113
0.57320
0.58149
0.43299
0.58224
0.05138
1.50953
0.58155
-0.07595
0.58279
0.54499
-0.26980
1.29139
0.57393
0.18935
0.47298
0.93179
1.81421
0.98803
0.34033
0.65890
1.05050
0.07158
-0.11974
0.35774
1.90325
0.97936
-1.79383
0.37463
0.07799
0.53580
-0.19990
0.33440
0.76999
0.15486
0.53511
-0.05555
0.76597
0.00408
-2.58573
0.58949
-0.23581
-0.69552
-1.05342
-0.91532
0.25902
0.77320
0.12089
-0.10192
-0.83003
0.83542
-1.66011
-2.27897
0.68334
-0.12225
-0.32122
-0.79654
-0.19865
0.10029
-0.22217
0.30832
0.30119
-0.16815
0.22843
0.39566
0.17781
0.38430
0.40230
-0.81458
-0.57176
-0.10721
-0.59794
-0.52294
0.39053
0.39182
0.00112
-0.11962
0.55573
0.38941
0.37913
0.08203
-1.05674
-0.27742
0.72435
0.61274
0.60583
0.61627
0.57681
0.70031
-0.14692
-0.25788
0.69435
-0.34507
-0.42225
0.50316
0.50246
-1.34681
0.35134
0.10837
0.05534
-1.17338
0.71220
0.52564
0.66671
-3.02412
-0.25493
-0.59937
-0.55540
-0.13741
0.78780
0.23490
1.15509
1.15977
1.15826
0.72665
-1.28705
-3.06847
-0.27419
0.90420
0.33166
-0.66063
0.36114
0.51619
-0.68207
-1.59450
-0.32641
-0.11894
0.36398
-0.53615
-0.42454
-0.00789
-2.55833
1.14614
-0.56466
1.77723
1.77743
0.80759
-1.46474
-0.53843
-0.42040
0.11730
0.54315
0.06058
0.54087
1.58210
-1.99737
0.11811
0.36692
-1.46754
0.09259
0.66433
1.94447
-0.30194
-0.55366
-0.61248
0.47880
1.90039
0.91798
0.59773
-3.18153
-1.33877
-0.44801
-0.72523
-0.17176
-0.62571
0.24280
-1.41651
0.25110
-0.02070
1.15944
0.24070
-0.24651
0.23919
0.21971
-0.71845
0.58575
-0.36158
0.22139
-1.09004
0.75744
-0.03446
-2.01653
0.73790
1.02402
1.02668
2.12225
0.12508
1.03360
0.54390
0.02530
0.36129
1.03099
0.90521
0.54390
0.37459
-0.41107
-0.88879
0.72188
0.84942
0.18476
-0.71090
0.21704
-0.21544
-0.33699
0.96004
0.06951
1.00698
1.00436
-0.03212
0.08718
1.00613
0.08330
0.93843
0.12781
-1.76288
0.08435
0.08404
0.00255
0.03487
1.00794
0.05161
0.05940
0.05941
-0.73294
-2.01119
-2.02364
-1.84992
0.74845
-1.46231
1.68225
-1.76881
-2.01896
-0.58024
0.74538
0.44655
0.54551
0.36015
-1.35656
0.55341
0.69374
0.11932
-1.17466
-0.24252
1.07705
1.06524
0.26991
0.31536
-1.21390
-0.83381
-0.22735
1.11213
-2.52465
0.46384
0.44176
-1.02473
-0.09476
-0.10061
-1.94579
0.53409
1.75686
0.66677
0.47398
3.05649
0.35424
0.64553
-0.44598
-0.90868
0.47189
0.06527
0.47313
0.13149
0.47022
-0.42439
-1.03561
-2.67940
-0.18563
-3.64384
-0.60331
-0.38466
-0.09668
-0.01791
-1.69927
1.07546
-1.69589
-0.76983
0.38520
1.98931
-1.69372
-1.70281
-1.09822
-0.02572
0.20582
0.60820
-2.17578
-3.10248
-0.26061
-0.32643
0.60019
-0.50466
-0.65549
0.58423
0.21947
0.19201
0.09398
0.53656
0.29911
0.14834
-0.39477
0.53754
-0.34217
-0.38431
-0.73947
-1.41863
0.98082
0.98263
-1.77846
0.06762
0.11169
0.98035
0.93681
-1.06798
0.02090
0.88510
0.18275
0.03425
-2.72383
-1.82440
0.00727
0.92194
-0.38384
0.53611
0.78337
-0.14180
-1.34898
-1.34929
0.39110
0.15755
0.28751
0.49371
0.11688
-0.43729
0.87966
-1.07453
0.08833
0.03165
0.55112
0.35515
0.05695
-0.57791
0.81430
0.81256
1.60511
0.26331
-0.04592
-0.17899
0.53557
-0.74737
-0.76615
-0.05171
1.77149
0.29968
-1.28450
1.37205
-1.40193
-0.10435
0.71388
0.77901
0.68403
-0.18885
0.49335
-0.36119
-1.39154
-1.39120
0.36439
0.54006
0.02310
1.58120
1.60602
-0.22401
-0.29704
0.05860
0.75414
0.53936
1.96894
-1.33073
-0.89184
0.23792
1.17390
1.16128
0.05876
1.52696
0.11145
1.02924
-0.09591
-0.70339
0.05199
1.17998
-0.41821
-0.32682
0.55519
0.68914
0.11480
-0.20349
0.40607
-1.43986
1.33215
0.41981
-1.44100
0.41221
-2.48940
0.12644
0.24897
-2.52850
-0.18164
-0.50320
-0.44458
0.22009
0.21933
-1.73005
-1.11042
0.06081
-0.61693
0.53542
0.12918
0.04711
0.97093
-0.28051
-0.28631
-0.87972
0.64778
-3.06041
0.61395
0.05742
0.06422
0.75095
1.69859
-1.99434
-1.99268
0.78102
-1.99345
-0.41930
-0.41290
1.42633
1.43134
-2.26852
-0.07635
-0.38770
-2.26916
-0.04899
-1.23525
0.42588
-2.29419
0.47516
-0.49661
0.58669
-0.22732
0.47566
-0.06149
-0.44492
0.47797
0.45535
0.62105
0.54283
-0.08461
-0.13549
0.78986
0.56007
-0.29148
0.63598
-1.20682
0.78890
0.63236
-3.06739
0.22412
-3.06220
0.06817
0.02930
0.44733
0.41652
-0.28049
-0.59774
-0.05334
0.17614
-1.57466
-1.74643
-0.82139
1.93782
0.10008
-0.74591
0.02891
0.30803
0.26879
0.98113
0.93530
0.98195
0.97321
-0.55875
0.58842
-2.70068
0.06159
0.29014
0.52406
0.53152
0.52340
0.05257
-0.89094
0.46116
-0.01460
0.02668
0.45796
0.05137
1.66609
-2.00626
-1.10053
0.73701
1.66408
1.58530
1.66467
-2.02566
-2.03056
0.59386
-2.01530
-2.02938
1.66653
-2.02900
1.66515
-2.01818
-2.02430
-2.01774
-2.02544
0.73432
-1.07991
1.66290
-1.97667
-2.02815
0.74793
-2.01920
-2.01258
-2.03280
-1.10200
-2.01503
-2.02586
-1.09844
-2.03424
-1.48638
-0.13575
0.05794
0.05788
-0.78596
-0.77982
1.85020
0.69543
0.33290
-1.06855
-0.04620
0.78788
0.41484
0.70677
-0.88412
-0.21883
0.31787
0.69258
0.68916
-0.21801
-0.21262
0.52951
-0.31937
0.67680
0.68281
-0.22458
0.05625
-2.97209
-0.18809
-2.96193
-0.20905
0.69896
0.69052
0.68753
0.69191
0.70110
-0.94779
0.14797
0.66599
-0.11651
0.82495
0.69465
0.71223
-0.00102
-2.02823
0.70443
-2.95871
0.69816
0.60120
-0.03496
0.68919
0.68397
0.69379
0.69633
-0.22788
0.59105
0.71147
-2.96425
0.05816
0.69485
0.69447
-0.27146
-0.99683
0.69949
-1.12558
-2.95800
-0.00157
-0.09457
-0.11500
0.68556
0.69185
0.11591
-1.14492
0.68925
-0.31602
0.24664
-1.69415
-1.69761
-1.00973
-1.01540
0.11296
0.84792
-0.85391
1.24057
0.32444
1.13536
-0.98979
1.36735
0.44318
-1.25035
0.17209
0.28247
-0.89955
-2.47840
-2.47818
1.14942
0.99691
0.28797
-0.51811
-1.70322
0.06288
1.99639
-1.70411
-1.71226
1.98444
1.06410
-1.67691
-0.78870
1.06090
-0.77756
-1.58081
-1.70821
-1.70806
-1.70610
-1.70580
-1.04581
-1.70714
-1.70545
-0.78034
-1.70930
1.98898
-0.78686
0.14110
-1.70781
-0.77826
-1.70405
-1.70683
-1.70635
-2.53135
0.69711
-0.26954
0.06442
0.06471
0.54333
0.54645
0.88070
-0.07248
0.68904
0.09124
0.43238
0.25663
-0.56266
-1.67327
0.05575
-0.42654
0.56476
0.39613
-0.76595
0.58970
0.14142
0.15696
2.25380
1.32909
1.81579
-0.42616
1.41748
0.04875
0.42042
0.63403
-1.38351
-0.67486
-1.74033
1.40048
0.41592
1.37975
-0.40259
0.93011
0.48810
1.19119
0.37110
-0.33370
-0.50094
-0.74065
2.73304
0.52171
-1.53426
-0.74575
0.04354
0.48574
1.23238
0.96164
0.56779
0.05640
0.81103
0.09189
0.53140
-0.65571
-1.79534
0.97783
0.85630
0.90018
0.17365
0.53795
-0.62118
-0.70149
0.05913
0.53911
0.10625
-1.08161
0.63704
0.19303
0.14474
0.53362
0.83715
0.83832
0.83573
0.03293
-0.75328
0.66612
-1.21073
-2.45614
-0.06538
0.80331
0.58219
1.20140
-1.57643
-1.58687
2.11185
-1.58435
-1.57604
1.74697
2.09360
2.11123
-1.58195
-1.58239
-1.57094
-1.56791
-1.58028
-1.58054
2.10568
-0.66405
1.19132
-1.57902
-1.58250
-0.22571
-1.58423
1.56808
-0.43414
-1.09113
-0.42339
0.16351
0.53733
1.33738
-1.25018
-0.50674
0.05885
-0.55168
0.04812
0.17427
-0.43474
-0.62886
-0.68610
0.20522
0.29313
0.15460
-0.17391
0.11749
0.15754
-0.90733
-0.96982
0.69084
-0.22361
-1.14360
-1.78884
-1.11839
0.17604
0.68978
0.62062
1.05849
0.42329
-0.18252
0.70953
-1.85203
-0.21487
-0.04413
-1.48274
-1.34074
-0.56229
1.29517
-1.48149
-1.48472
0.56002
0.56295
0.35923
-0.90353
-1.38623
-0.25179
0.20054
0.68258
0.36532
0.22691
0.93410
-1.43503
-0.43527
0.38942
0.67771
-1.43898
-2.36618
0.39845
0.27109
-0.14490
-0.74593
0.03118
0.21522
-1.74729
0.63809
0.12961
-1.60962
-0.82126
-1.37873
0.98565
0.53645
-0.44532
-1.37064
1.40359
0.30181
-0.42527
0.05495
0.55347
0.23870
0.18854
-0.13190
-0.74398
0.86050
-3.08646
0.59741
-2.16322
0.15749
0.43538
-0.31865
0.33518
0.82726
-0.08840
1.71618
-1.92288
0.99041
0.68248
0.70810
-0.12704
0.43082
-0.37227
0.26736
-1.67773
-0.49129
-0.23191
0.75153
-0.13904
-0.14608
-0.14341
0.11382
-0.18107
-0.49901
0.61645
0.18089
-1.22723
0.62529
0.54852
0.54009
0.53641
0.54184
0.79285
0.31948
0.30266
0.89728
-2.00100
-2.00359
0.58092
-1.38846
1.66752
0.61120
-0.66117
0.05330
0.17664
-0.07760
0.20138
-0.37108
0.15309
0.36250
-1.41354
-1.40927
-2.54867
-0.46618
-0.46037
0.36787
-0.09489
-0.48070
1.33426
-2.34352
-0.50524
1.33772
0.26903
0.60147
-1.24418
-0.31938
0.06167
0.60153
0.60183
0.60426
0.59995
0.60365
-0.32011
0.47123
0.59188
0.60243
0.60314
-0.35136
0.60239
-0.32210
0.52249
0.21379
0.62459
0.60136
-1.23655
0.60218
-0.32499
-2.15774
1.52665
0.88282
0.60633
0.59526
0.59981
0.72729
0.02625
1.22891
0.63126
0.60871
-2.07947
-0.66158
-2.14362
0.60923
1.53088
-0.29384
0.62253
-0.83697
1.52958
-0.34854
0.43153
0.46985
-0.79126
-0.27742
-2.15459
1.39060
0.05191
0.49439
0.02404
0.83490
0.23016
0.53953
0.53950
0.62020
0.60911
-0.42477
0.48231
0.60346
0.36354
0.51914
-0.43998
0.41752
0.74524
0.40672
0.74773
-0.08341
-1.03790
1.87111
2.77354
0.05382
0.53890
-0.07154
1.10214
-0.35466
-0.38110
0.18024
-0.58322
0.25647
0.54955
-1.94097
0.83118
-1.45257
-2.38631
0.91266
0.53759
-2.37574
-2.36386
0.57863
-2.35097
-2.38906
1.31965
-1.45455
-1.44789
0.06050
1.31325
-2.35276
-1.39507
-2.38097
-2.36473
-2.36186
1.16301
0.10679
-0.26062
0.35910
0.53235
0.35955
-3.32974
0.34995
0.34886
-0.42802
0.36190
-1.49247
-3.32810
-2.40241
-0.56399
0.34116
0.10398
0.83983
-0.06984
0.94249
0.53854
-0.16783
-0.50307
0.31850
-0.99272
0.55881
0.55750
0.53666
0.40158
0.54371
0.63133
0.27150
-1.22624
-1.22727
-1.22575
-1.22788
-0.30178
-1.22772
-1.22756
-2.60730
0.15842
0.65030
-2.38130
0.38561
1.30531
-0.47968
-1.38210
-1.38217
0.00512
-0.51226
-2.52842
-1.61260
0.16506
0.69703
1.65302
1.94993
0.70672
-0.50065
0.02973
-1.21879
-1.21994
1.54687
-0.11195
-1.84765
-0.03928
0.26295
0.53550
0.67146
-1.78599
-0.42399
1.16106
-0.74758
-1.66645
2.03876
0.74933
-2.01665
1.03385
0.74827
-0.17289
-2.02420
-1.09829
-2.01903
-2.01375
-2.02837
-2.01765
-1.10939
1.68076
-2.02750
-0.17211
-2.02078
-2.02492
0.74255
-0.29690
0.54041
0.54123
-2.09640
0.31793
0.80298
-0.24091
0.54266
2.15406
-0.42000
0.53908
0.47635
-0.38021
-0.87711
-1.38587
0.04337
0.04427
-0.36011
0.23050
0.51318
0.51478
-2.81065
0.47534
0.51111
0.50905
0.51435
-0.41050
0.46963
-0.40579
0.51151
-0.40397
-0.41146
0.50710
-1.33493
-0.40905
0.51335
0.50623
0.51264
0.50883
-0.52201
0.51465
0.03668
-0.40635
0.50999
0.53887
0.51098
-0.40763
-0.34714
0.51222
0.13290
-2.43414
-0.58233
-1.50755
0.33637
-0.58750
1.20219
1.25734
1.25796
-0.07219
0.20402
0.20662
0.20265
0.20407
-0.29233
0.20469
-1.64674
0.20423
0.20254
0.17293
0.20306
0.20715
0.08330
-0.75371
-0.81267
-0.21323
-0.82355
-0.55115
-0.58698
-0.07548
0.10788
-0.82181
0.10716
-0.81946
0.07623
0.34868
0.16121
0.91872
0.84153
-1.94541
-2.85813
-1.96136
0.58298
0.79842
-0.99425
0.65323
0.50529
-0.46709
0.87037
0.53886
0.51909
0.02407
0.95296
0.32442
0.79300
-0.13205
-0.01868
-0.42945
0.56329
0.11434
0.55133
0.41387
-0.32392
-0.11356
0.10662
0.59651
0.31907
-0.59713
1.07205
-0.69833
-0.60717
0.16394
1.14396
0.06738
0.36444
-2.69448
-1.76456
0.29115
0.01031
0.25449
0.29776
0.25838
-0.86894
0.64391
-0.25759
0.31383
-0.61195
0.19755
1.84257
1.23388
-0.20010
0.05651
0.53640
0.19332
0.19491
-0.09216
0.20226
0.43314
-0.12465
0.80051
-0.08487
-1.88031
1.76514
1.75248
-1.92934
0.05668
0.05150
0.55335
-0.14513
0.22604
-2.46240
0.53775
0.53732
0.36872
0.32550
0.51138
-0.10445
0.04036
1.60912
0.67469
-0.79638
0.00040
0.83318
0.84013
0.80088
0.14804
0.80570
0.54102
-2.31323
-2.14733
-0.47139
1.36228
-0.19092
1.29564
0.90314
-2.30318
-2.25297
1.42150
0.46027
-1.55311
-0.62817
0.10622
0.36704
0.37699
-0.72346
0.11189
-1.51881
-0.81899
1.77705
-1.72385
-0.41156
1.28840
-1.73117
0.89152
0.98459
-0.51371
-1.37460
-0.45647
-1.37286
-0.98203
0.41028
-0.45249
-0.16001
-0.02118
-1.85602
-1.85821
0.91889
0.53401
0.61149
-1.23977
-1.36523
-1.36530
-1.36530
0.52846
0.56777
-0.11382
0.79589
-0.01105
1.00264
0.46240
1.42065
0.52771
0.52776
0.50121
0.47242
0.47119
0.47162
0.47185
0.44024
0.47096
0.45936
0.86912
-2.76954
0.68567
-2.76063
-2.75617
0.54049
-2.75134
-2.76874
0.75311
0.89365
-0.02354
-0.13401
-0.10203
0.90335
0.05599
0.90391
-1.48067
0.54273
0.90018
-1.83989
0.91295
-1.96361
-0.03175
0.28457
-2.74662
-1.82199
-2.75409
0.96011
0.33729
0.05493
0.88741
-2.77046
0.47953
-0.02517
0.88480
-1.05569
-0.05706
0.70195
-2.27025
0.38961
0.37534
0.30145
-0.02441
1.72554
-0.08620
1.74722
1.73887
1.74951
0.86347
0.19915
1.31740
1.76057
-0.03262
1.73640
-0.98259
-0.21121
0.83154
-0.78254
0.83396
0.93071
1.03836
-2.65297
-0.09598
0.52334
0.11337
0.52341
-0.54111
-0.77982
0.15156
-0.17942
-0.91962
-1.74288
1.34829
-0.03027
-2.30599
-2.32068
0.43480
-2.25096
0.59002
-0.48148
1.00093
1.28869
0.42796
0.42564
1.08617
-0.59636
0.53718
-0.12723
0.11819
0.10840
0.45017
-0.64813
1.20122
-1.42264
-0.39333
0.28210
0.24641
-0.81824
-1.74517
-1.74267
-1.74156
-1.74332
-1.74428
-0.82357
1.95627
-1.38570
-0.82020
1.02878
-0.32717
0.05257
-0.15725
0.54023
-1.38752
0.06233
-0.02705
0.25489
-0.43170
-2.50326
-1.59117
0.81379
-0.54974
-0.65326
-2.51058
1.16156
-0.66297
-2.51120
-0.96014
-2.51716
-2.41593
0.83628
0.23737
0.25309
-0.66608
1.14519
1.15125
1.14518
1.04446
1.62767
1.62265
1.62769
1.62022
-1.13085
-2.06120
1.62978
0.71239
-1.62586
0.23232
-0.21319
-1.66364
0.17277
0.16220
-0.42513
0.86275
0.72004
-1.38854
-0.38824
-0.79464
0.21309
0.54352
-0.10821
-0.05118
-0.21719
-1.82910
0.54880
-1.38561
0.30750
-0.49560
-0.50860
0.04722
-0.49706
-0.01280
-0.12598
0.49741
0.41888
-0.49734
-0.18400
0.38233
-1.35075
-1.35026
0.27355
-1.38368
-0.57955
0.26562
-1.73848
1.94062
-0.48921
-1.74587
1.94320
-0.81232
-1.74026
-1.73921
-1.74233
-0.82163
1.95323
1.64303
-0.82263
-0.08291
0.05963
0.05961
-0.04642
0.57616
-1.55772
-1.55393
0.28993
2.13736
-0.98809
-1.55550
-1.55460
-0.20379
1.63932
0.72558
-2.04905
-2.04914
0.71943
-2.31653
-0.77175
-0.68318
-0.23730
0.21582
0.21794
0.09806
-2.28213
-0.25467
0.01976
0.44487
-0.24419
-0.36835
0.95612
0.06227
-1.16795
0.96601
0.53496
-0.34357
-2.19313
1.08903
-0.25499
-2.17891
-1.27337
0.58559
1.49394
-2.18182
-2.18695
1.50162
0.57209
0.52615
0.96080
-0.38305
1.39910
0.22424
1.40998
-1.32612
0.49288
0.09366
0.47557
1.22701
1.38802
0.36979
0.41339
0.27172
-0.82857
-0.90564
1.63140
1.15381
-0.87383
-1.09723
-0.06211
0.67634
1.39420
-2.19848
0.14027
1.20691
-0.66133
-1.37830
1.02464
0.13277
-0.82374
-1.03487
-1.75173
1.93347
0.99523
-0.81766
1.93326
-0.55547
0.84575
0.09913
-0.65490
0.27364
-1.57013
-1.57679
-1.57315
-1.57563
-1.57209
-1.57561
2.12631
-1.57841
-0.65260
-0.65622
-0.70989
-2.55519
0.21786
0.20533
-0.72771
0.11527
-0.70800
-0.51434
-0.42446
1.11217
-0.40517
0.51925
0.39709
0.51755
-0.40792
0.53960
0.67952
0.37412
-1.39285
-1.17189
-1.27724
-1.27683
-0.35060
0.49381
0.99341
-1.77222
0.62128
0.25601
0.04138
0.59223
0.94481
0.50640
0.94685
-0.33004
0.06329
-2.61109
-0.87886
0.95341
0.03805
0.95041
0.71164
0.95736
-2.61523
0.95298
0.95718
-2.70884
0.04573
0.94787
0.94957
0.91141
0.04232
0.09537
0.19737
-1.05990
1.28465
-0.34588
-0.03850
-0.58397
-0.40860
-0.40925
-2.25604
-2.25847
-2.26101
-0.42041
0.25396
-0.37815
0.50436
0.65210
-0.25470
-1.18266
0.11845
0.46445
-2.10612
1.59303
-2.11065
0.12100
-0.28078
-0.97420
-0.89856
-0.97437
-0.97392
-0.07965
-2.20144
1.30836
-0.65661
0.99711
1.04389
-1.25080
-0.86924
-0.04047
-0.40335
-0.45947
-0.36321
-0.17777
-1.39123
-2.41412
0.16795
0.27761
-2.41550
0.36525
0.15681
-0.56798
1.21366
0.28366
0.53562
-1.75123
-2.67122
-1.38293
0.76899
0.98855
1.00145
-1.47022
0.52312
-1.90002
0.79959
-0.31069
0.19415
0.52175
0.51481
0.51785
0.52590
0.05724
0.05635
-0.09722
0.05890
0.53038
0.03043
1.04330
0.80919
0.85665
-0.10787
0.25249
0.57148
0.56489
-1.17207
0.97451
-0.79272
1.01915
-0.02546
0.66560
0.21920
-0.86786
-0.06031
0.25030
-0.16315
0.54170
0.05719
0.50907
-0.13177
0.12077
1.14344
-1.53002
0.55192
0.53831
0.23539
0.19904
0.56767
1.27986
-1.50513
0.34673
-1.50332
-1.50165
0.05431
0.06318
-0.77934
-0.87689
-2.67427
-1.29646
-0.50656
0.29124
0.36488
-0.50644
-1.21790
0.23639
0.15350
1.42255
-0.88069
-2.34756
0.24030
0.05814
-1.51278
-0.44206
-2.70721
-0.39742
0.98067
0.67882
0.06753
0.98631
0.97566
0.10732
0.06206
-0.70639
-0.10434
-1.42551
-0.90539
0.63515
-1.28914
-1.96148
0.29703
0.60437
1.02463
0.09973
0.25603
0.95988
0.30213
-2.96764
0.53826
-0.09175
-0.14646
0.78020
-1.99779
-1.38360
-1.38233
-0.11797
-0.03106
-1.90637
-1.38432
0.79193
0.86724
-3.32674
-0.26165
-0.37075
-0.08796
1.86066
-0.58851
1.63721
0.42742
0.54327
0.27586
-0.02173
-1.75813
-1.49605
1.44392
0.53761
0.03195
-1.72192
1.98027
-0.04294
-1.72138
-0.85534
0.54004
-0.20222
-0.15702
-1.98437
-2.24554
-2.25073
0.54158
1.10105
-1.32749
0.26756
0.06063
0.70917
0.77909
1.59919
1.60977
-0.35299
-0.89777
-2.04825
0.41637
-2.02639
-1.32501
0.35849
-2.19225
-2.03616
1.61080
1.20604
-1.47802
-2.07329
-0.39894
-2.06017
0.61506
0.92307
-1.12585
0.55908
0.65560
-0.92506
-2.04802
1.61230
1.58886
-0.93055
0.70539
-2.01489
0.46021
-2.04037
-1.33257
-2.01709
-2.04507
-2.04925
-2.04192
-1.82903
-2.05867
1.60305
1.61279
1.62762
-1.11447
-2.05001
0.70436
0.06049
-2.03885
-2.03985
-2.04508
1.61908
-2.05680
0.53573
-2.03549
0.11309
1.28609
-1.52473
0.73286
0.77305
-0.84214
-2.03765
0.29300
0.91488
0.70900
0.71705
-2.03471
1.61767
-1.38528
0.61247
-3.18636
-0.59649
0.49013
0.04806
-0.13441
-1.38751
-0.86932
-1.38425
-0.02025
1.08549
-2.37041
0.14544
-0.14621
0.77309
0.22381
-0.14275
-0.32113
-0.14556
0.22741
-1.04642
-1.06038
1.69398
1.59524
0.77382
-1.06230
0.77048
0.77427
-0.14395
-0.15060
1.70253
-1.99629
-0.14565
1.58013
1.69887
-1.06548
0.78039
-1.98405
-1.96232
0.71965
0.24435
-1.95620
0.79794
-2.71681
0.65172
0.78680
0.79897
-0.10984
0.77410
0.78464
0.49568
-0.13666
0.37511
0.48676
0.78757
0.78575
0.78160
1.13023
0.80902
0.63583
-0.12246
-0.86621
0.78734
0.79095
-1.95059
0.91182
-2.47276
0.78576
0.78957
0.80468
0.05886
-0.70926
0.19682
-0.72952
0.18443
0.19206
-0.62391
-0.46130
-2.56658
-2.56879
0.88816
0.70339
0.53348
1.39768
0.95231
-1.34954
1.07615
1.40327
0.49056
-2.26479
-0.01848
-2.26943
0.69338
0.47191
0.21302
0.46240
0.63385
1.38729
0.47738
1.03273
-1.36890
1.38561
0.47967
0.54452
0.80427
-0.73041
-2.02723
-0.15279
0.05489
0.47103
-1.22620
0.63272
0.62341
-1.38536
-0.95848
-1.10633
-1.10614
0.06340
-1.37925
0.37816
0.08058
0.06007
1.20776
0.68831
0.26321
-1.64991
-0.73725
-1.65766
-1.42640
-2.27827
0.54200
0.76518
-2.00352
0.75857
0.76421
1.52099
-1.57831
0.76319
-0.89499
0.89937
-1.46749
-1.46781
-0.54079
-0.56003
0.02767
0.07900
0.68204
-0.15508
-1.33847
-0.71137
0.10100
0.61362
-0.27685
0.28300
0.70359
0.05443
0.02454
0.94986
0.46483
0.02890
-0.83412
0.94636
0.94231
0.95075
0.94695
0.94900
-1.62389
0.02612
-2.74819
-0.03607
0.05592
0.08824
0.06061
0.53305
0.53705
-0.35204
-1.49520
-1.49695
0.35419
-1.49834
0.51905
-0.51024
0.54777
1.42326
-0.32953
0.05924
-0.77437
-1.44948
0.75768
1.36298
-2.50711
-2.75383
0.60701
0.56896
0.60922
0.61574
-0.85188
0.61025
0.53730
-0.08987
0.15044
0.05932
0.19479
-1.64403
0.19613
0.19443
0.19478
1.05869
0.11505
0.18679
0.51532
0.51567
0.46582
-0.28072
0.21452
0.52111
0.25408
0.05902
0.28677
-2.52447
-0.19041
0.45369
0.69016
-2.28790
1.36659
1.37266
0.47338
-2.30897
-1.16783
0.51947
-0.51621
-0.57175
-0.88869
-0.98434
0.39879
0.39187
0.10459
-0.11070
0.08510
0.47161
0.42671
-3.27186
-2.42403
-2.30208
-0.32133
-0.74145
0.34844
-2.36156
-0.79365
0.41049
-0.50121
-0.52706
0.26474
-2.32548
-2.33663
0.41077
0.29549
0.16037
0.59802
-0.56878
0.07521
1.13763
-0.44917
0.27533
-0.57774
-0.16872
0.40451
-1.32764
0.22889
-0.51921
0.35057
0.41576
-1.86910
0.40131
0.25025
-0.27955
0.23553
-0.33972
0.05483
0.08063
-2.58064
0.20462
0.20329
0.21041
0.52047
-0.17347
-1.06835
0.77959
0.31119
0.77667
0.77250
-0.12217
-2.08604
-1.06763
-0.14623
0.77458
0.18446
-2.90738
0.78207
0.36645
0.53787
-0.30569
0.48065
0.42684
0.06432
0.33456
1.52812
1.07507
-2.18033
-0.37558
0.53774
0.51825
0.45550
0.14792
0.02684
0.19634
0.26670
-0.31780
-0.72592
0.23228
1.15800
-1.61588
1.15554
1.15638
-1.61069
0.53766
-0.27674
0.71867
1.11546
0.24546
-0.45185
1.61179
-0.30927
-0.41088
0.37076
0.70089
0.05848
-0.12242
0.05671
-0.23680
0.31257
1.45216
1.55134
-2.14292
0.62471
0.04704
-1.22117
0.27162
0.66468
0.66047
-1.37329
0.66171
0.66611
-3.02438
0.67679
0.66648
0.66395
0.65969
-0.42865
-0.25782
0.66778
0.66023
0.77702
0.05922
-0.90792
0.65537
0.66484
0.66632
0.66755
0.66696
0.65070
0.66282
0.66178
-0.25640
0.66303
-0.25996
-0.50303
0.65646
0.66489
0.66238
0.66440
0.66327
0.09548
0.35517
0.93683
-0.73024
-0.95294
-0.98015
0.08063
-0.22825
-0.35529
0.53979
0.53252
-0.07408
-0.80594
0.11726
-0.11853
-0.80710
-0.80869
-0.66791
-1.37340
1.25770
-2.06093
-2.06661
0.53901
-2.05768
-0.64879
-2.05909
0.72016
-2.05949
-1.56212
0.23976
1.59780
0.26563
-2.10626
-2.10681
-2.09614
-1.17706
-0.04714
-0.12173
0.80343
0.25802
-2.11046
0.65793
1.52659
-0.24104
0.54757
1.06600
0.21723
-0.42532
-0.66352
0.05283
0.53914
0.71674
1.86203
-1.78248
-0.90928
-1.79528
-1.80909
-1.80524
0.00117
-0.06881
0.29588
-0.55464
-1.82612
-1.81722
-1.82284
-1.84345
-1.70511
-1.33323
-0.27232
0.33688
0.91351
0.91950
0.50317
-1.37957
0.53872
-0.92140
1.23280
2.14997
-0.55416
0.69290
1.22676
0.73623
-1.11138
-0.57543
-0.56484
-1.19759
0.37738
0.90453
0.05179
-1.69100
0.09120
1.08005
0.07594
-0.35722
0.41975
0.39958
0.42114
0.40184
0.40908
0.37449
0.34088
0.09701
0.04019
0.34068
-2.03604
-0.35972
0.74283
1.81861
1.61004
-0.23550
-2.07801
-0.90823
0.53726
0.52425
0.52411
0.52448
1.16713
1.03565
0.25402
0.25510
-2.51686
0.83153
0.92178
1.06941
0.92289
0.92549
0.92941
0.01482
-0.86864
0.00881
-1.83701
0.05597
-1.38767
-0.44237
0.03083
0.53469
-1.58933
1.91333
1.91690
1.12529
-0.83934
-1.33533
-1.33502
0.52642
-0.47791
-0.00482
-0.32170
-0.93424
-0.01204
-1.84736
-1.84312
-1.85163
-1.84648
-0.01083
0.90734
1.80618
-1.85653
-0.92459
-1.83831
-0.35611
-0.92650
0.98616
-1.04005
-0.03280
-0.17803
0.05471
-0.01106
0.53317
-2.69615
0.11166
0.49218
-0.24364
1.14896
0.69917
0.01507
0.01710
0.93873
0.12134
0.93922
0.01550
-0.38581
-3.21806
0.44136
-1.78545
-0.02992
0.45329
-1.01452
-0.55238
-0.86000
-1.78476
1.87863
-0.86391
-1.76381
-0.86772
-1.78618
-1.44966
0.53552
-0.32019
-0.88429
1.80942
-0.29912
-0.80636
-1.85078
-0.00511
1.84099
0.02786
-0.00509
0.92978
-0.92550
-1.84284
-0.15180
0.77007
0.77125
-0.15335
-0.07010
0.55509
-0.67984
-0.90000
-2.32022
1.36616
1.36025
-0.34869
-3.04295
0.46634
0.47507
0.61268
0.53488
0.54021
0.54027
-0.87341
-0.02991
0.00320
-0.91739
-1.38974
-2.37055
0.15662
-1.45956
-1.48927
-1.59544
0.62322
-0.24467
-1.59405
-1.60161
-0.08523
1.18319
-0.91312
-1.38697
1.11907
1.12461
1.13253
-2.45898
0.21636
-2.57354
0.52352
0.05657
-1.26138
-1.26401
0.29596
0.59408
-1.26838
-1.26357
-1.25293
-1.25857
0.13269
-0.33991
-1.25846
-1.26500
-1.26046
0.59065
-1.27031
0.59494
-1.25944
-1.26379
-1.26147
-0.87850
-1.26211
-1.26085
-1.26366
-1.25771
-1.26999
2.43923
-1.26362
-0.33720
-1.26083
-1.26440
-1.27598
-0.22382
-1.26437
-1.12069
-1.26471
-1.26986
0.58956
-1.26564
-1.26209
1.47468
-1.26286
-1.26002
-0.34467
0.98979
-1.25894
-1.26399
-0.45721
-0.25120
-1.26633
-1.26785
-0.34227
1.26063
-1.26774
-1.14487
1.51752
-0.93887
-1.26256
-1.26045
-1.26511
-1.27064
-1.26585
-0.04707
-1.26606
-1.25876
-1.25610
-1.26275
-1.25440
0.54164
-1.27325
2.43865
-1.27654
-1.26231
1.86999
-1.25737
-1.26392
-1.25788
-1.26294
-1.26176
-1.42440
-1.02798
-1.26737
0.60687
-1.26763
-1.27243
-1.26233
-1.26231
-1.26192
-0.80793
-1.27115
0.29628
-1.53218
0.05399
0.42440
0.85737
0.53546
0.62939
-0.03714
0.19538
0.23966
0.01151
0.33647
0.05387
0.42466
0.44436
0.10146
0.05260
-0.55794
-0.04938
-1.39044
-0.59803
0.46037
0.18619
1.24786
1.70780
0.53367
0.53169
-0.12222
0.90487
0.16744
-1.31192
-1.38951
-2.07031
-1.43609
0.05728
0.70409
-1.34942
-1.35657
-1.71848
-0.38381
1.33193
-0.70184
0.50322
0.09649
-0.22643
-1.63898
-0.26538
0.06051
-0.55729
-0.15663
-3.17165
0.33332
-1.38007
-0.51316
0.46771
0.21318
-0.48547
0.23772
-0.73691
-1.70737
-1.31694
-0.63885
-0.16066
-0.69403
0.53475
0.54385
0.53512
-0.54017
0.60968
-0.56564
-0.92654
-0.89672
-0.44936
0.63878
0.66703
-0.24577
-1.37751
-1.04328
0.19947
-1.04728
-1.38573
-1.46094
0.04904
-0.84100
-0.42057
0.64393
-0.00944
0.12208
-0.81775
-1.93603
-0.04533
-0.90503
-0.90619
-0.52632
0.06144
0.21857
0.26007
0.08974
1.49390
0.43275
0.23108
0.09765
-0.53857
0.52255
0.55240
0.48924
-1.38738
0.67698
0.29435
0.84518
-0.00514
-1.88463
0.71531
-0.38486
-0.70523
0.58691
0.83495
0.07124
0.43433
0.19448
0.34419
0.33762
2.03007
0.46693
-0.00481
-0.85158
-0.44562
0.05697
0.79617
0.12510
0.25686
-1.38328
0.57829
-0.13794
0.05708
-1.79380
-1.48868
0.08560
0.53029
0.28527
-0.33466
-0.54236
0.91708
-0.09012
-0.32430
-0.43039
1.02131
0.04896
0.02870
-1.38875
-0.47422
0.03661
-0.11468
-1.07194
0.07732
0.24597
0.77998
0.36637
0.47734
-0.69258
-0.85370
0.63259
-0.45760
0.53464
0.52289
0.08108
-0.13070
0.50767
0.05865
0.69098
-0.09495
0.30540
0.80252
0.45009
-0.32183
-0.34898
-1.51931
0.12489
0.00129
-0.45088
-1.38923
-0.42542
0.04570
-0.79152
0.64540
2.50213
-0.89795
-0.80431
-0.78781
-0.22233
-0.21824
1.05322
-1.33461
-0.11393
1.17828
-1.41933
-1.96760
-1.01042
0.54337
1.82823
0.16032
0.44153
1.51567
0.05164
0.42210
1.27359
0.05836
-1.66623
-0.15023
0.21900
0.54047
2.38282
1.09496
0.27399
-0.10239
-0.05563
0.66566
-0.90438
-0.25648
-1.66393
0.20302
-2.48243
-0.17736
-1.99703
0.59999
0.14497
-1.00929
-0.69745
0.05663
0.38424
-0.13385
0.27513
-0.49497
-0.80646
-1.67921
0.41400
0.25770
-1.23105
-2.16353
-0.30297
-0.28364
0.53197
-0.86346
1.00612
0.20006
-0.89064
0.54449
0.58919
0.61942
-0.05067
0.11379
-0.09736
0.29133
0.22952
-0.70102
-1.48566
0.71723
-0.54274
0.19322
0.36234
0.55473
0.17874
0.53416
0.43884
-0.35806
0.05711
-2.16929
0.25506
-1.21620
-0.15608
0.56158
0.09359
0.56789
-1.63089
0.05931
-0.35772
0.53835
-1.82893
0.17163
0.72306
-0.13590
-0.90671
0.26512
0.17398
-0.30321
-0.61109
1.52735
1.59206
0.11842
0.48687
-0.90277
0.80292
-0.80387
-0.26093
1.24999
1.07345
-0.01960
1.15937
0.98332
0.36079
-1.14813
0.88495
0.06124
0.50729
2.01186
-0.07767
0.21759
0.36230
-0.64300
-1.10474
0.37268
-0.36980
1.13286
0.31534
0.47782
-2.79738
3.07217
-0.84705
0.30858
-0.13985
0.43484
-0.20768
-1.22050
0.77426
-0.22452
0.54580
0.67761
0.41996
-0.23554
-0.96449
-1.34802
0.13926
-0.06693
0.28854
0.75840
0.94145
-1.08660
-0.40695
-0.21057
-0.46281
0.52749
0.76379
-1.10122
-1.23542
-0.14424
-0.71938
-0.08189
-0.26631
1.35198
0.17239
1.41218
0.73214
0.99054
-1.39087
0.54187
0.06996
0.38654
-1.23346
-1.38880
-0.79184
-0.67191
-1.24527
-0.05356
-0.42742
-1.28743
0.29486
-1.18625
0.52427
-1.09975
-0.11413
-0.90624
0.81896
0.81969
1.40622
1.59085
-1.17801
1.85816
-0.18651
-0.50099
0.60569
-0.99754
0.31141
1.37615
-0.85325
0.26826
0.53582
-0.42629
-0.12331
-0.69450
0.94607
0.70231
0.49858
0.24559
-1.41562
-1.17282
-1.27316
0.05209
0.71248
0.54268
-0.07304
-2.07030
0.36130
-0.62787
0.48847
0.14949
-2.24520
-0.41836
0.50753
0.09773
-1.38349
-0.45683
-0.37723
-0.14197
0.53977
-0.47115
0.53512
0.05914
1.35450
-1.64026
-0.59397
-0.45545
0.54545
-1.84460
-0.61619
0.12451
0.45012
0.47311
0.53952
-0.68803
1.27094
0.78648
0.54489
0.53272
-0.56908
1.07871
0.64260
0.38934
1.52529
-0.07355
-0.79115
-2.18374
0.40929
0.05488
1.26056
1.16173
-0.16336
-0.46443
-0.61560
-0.53209
0.00275
0.15896
0.44748
-0.75653
-1.48919
1.43711
0.75895
-0.15435
-1.15703
0.05252
0.49886
1.51519
-2.87644
-1.62000
-1.73432
0.89786
0.83576
1.02809
-1.38586
0.07963
-0.52106
-0.58086
-1.38776
0.50079
0.65932
-0.78861
-0.20109
-0.63929
-1.44085
0.70238
1.07442
-0.85472
0.54084
-0.07736
0.28802
0.77501
0.99704
0.37581
-0.04701
0.05960
0.52201
0.81716
-0.90856
0.15339
0.64810
1.16087
0.05634
-0.15382
-0.78793
0.27051
0.54331
-0.13576
-1.10622
1.07893
0.14839
-0.74281
0.19839
0.81860
-0.44617
0.60169
-0.27753
-1.72969
-0.07131
-0.70338
-0.29469
0.58287
0.63537
0.44381
0.45765
0.57875
0.01202
0.37446
-0.05665
-0.02313
-0.43132
-0.84134
0.64680
0.46164
-0.90401
-1.47204
0.80295
0.54484
0.44352
-0.68486
-0.09904
0.17740
-0.26641
2.50980
0.67727
-1.36402
-1.04439
-0.90317
0.25941
0.26337
0.51753
0.52529
-0.76200
-0.41136
-1.38336
-0.77153
-1.06556
1.17869
-0.78741
-0.08626
0.24119
-0.46265
0.05574
1.42331
-1.38529
0.55770
0.65433
-0.06057
-0.05640
0.03502
-0.65581
-1.72821
0.39559
0.64511
-0.70053
0.33094
1.45899
-0.08791
-1.69246
0.44022
1.45365
-2.31559
-1.46010
-0.61468
-1.14565
-0.25821
0.53036
0.75850
-0.76080
-1.18337
-0.42479
0.03425
-1.38886
0.44114
-1.61669
-0.78663
0.09535
0.54394
0.90220
0.68199
0.62142
0.88834
0.54126
-0.68176
-1.33870
0.68641
-0.58771
-1.49739
-0.98014
0.14860
0.13438
0.34773
-2.27436
0.59641
0.13972
-0.73453
-0.43565
0.53607
-0.08771
0.49601
-1.05459
0.92738
-0.40067
-0.80604
0.17937
0.05817
0.61432
-1.87133
-0.33661
-0.03146
0.13634
0.07617
-0.08508
0.50849
-1.34005
-1.29386
0.78927
0.53499
0.91578
0.35790
-1.01866
-0.49613
-0.07083
0.32102
-0.42729
-0.01388
-0.11243
-0.33336
-1.43391
-0.45441
-0.71449
-1.92293
0.69361
0.52967
-1.01757
0.73812
-0.32432
0.23415
0.53815
-0.96833
0.46687
-0.24679
-0.55372
-1.59468
-1.20981
-1.24624
0.47133
-0.48584
0.38453
0.64027
1.08562
-0.52151
-1.61044
-2.36537
0.57140
1.35214
0.55705
0.04428
0.52074
0.44510
-0.02168
-0.72222
0.05934
0.05773
0.70006
-0.79253
0.10838
0.06695
-0.98814
0.13771
0.66132
0.05400
-1.93376
0.32554
0.86115
0.47900
0.36450
-1.41992
0.07486
2.66771
-0.98912
0.53737
-1.39148
-0.90752
0.53789
-1.03583
0.54351
0.65637
-1.29821
0.05216
0.09712
-0.61346
-1.13500
0.06244
-0.15926
0.08565
0.28946
-0.16608
0.05452
1.37694
0.69541
-1.59088
1.24826
0.96710
0.03194
0.65400
-0.20887
0.76322
0.19898
0.17151
0.08298
0.33386
-0.61710
-0.53142
0.05740
0.17211
-1.43948
0.61965
0.05883
0.53739
1.01459
0.13180
-1.38521
-0.06855
0.05512
1.08954
-0.98146
-1.34412
0.83627
0.61814
-0.40778
-0.99867
0.53509
0.27155
0.38258
0.54242
0.02818
0.24652
-1.97369
0.45258
-1.38970
0.46547
0.76129
-1.38426
0.56462
1.30386
-0.23029
-1.39006
0.40967
0.04036
-0.42936
-0.64184
0.02630
-2.26259
-0.16919
0.54142
-0.43153
0.66030
0.53255
-0.11639
0.07064
-0.90881
0.97614
0.64417
-1.24835
-0.88243
1.03353
-0.94906
-0.07052
-0.58762
-0.06219
0.00654
1.10624
-0.68910
0.68822
-1.61945
1.64887
0.70942
1.71055
-0.69840
-0.37231
-1.38489
-0.85696
0.06338
1.07346
0.03182
0.92900
-0.28590
-1.44128
-0.88730
-0.21791
0.66473
-0.76995
-0.78586
1.67854
0.05522
0.46305
0.47506
1.29910
0.05503
-0.89782
-1.78362
0.54356
0.62128
-1.09183
1.37116
1.11910
-0.44467
0.19944
-0.51264
0.18309
-0.15333
0.41421
0.60284
0.51049
-1.29439
-0.77972
0.22776
0.39995
0.03855
0.93996
0.52619
1.80566
0.06181
-0.62033
-0.04758
-0.53220
-0.76004
-0.50676
-1.38213
-0.76344
-0.26895
0.66186
-1.38504
-0.53756
0.93411
-0.91283
0.64622
1.72617
0.05487
-1.54780
0.64668
0.01698
0.23426
0.53814
0.05614
-1.51845
-0.35261
0.27692
1.42805
-0.50808
-0.92638
0.26846
-0.12566
-0.14131
-2.10398
0.05662
-0.33766
-0.50247
-0.08121
0.89912
0.13631
0.08164
-0.41792
0.75835
0.92953
0.07643
0.36228
0.46423
-0.68399
0.78248
-0.08844
0.45027
-1.43670
-0.85683
1.28792
0.94777
-0.69587
0.65411
1.26258
-0.90345
-0.17258
-0.28832
0.32943
0.53923
1.15125
1.40438
-0.22720
-0.89244
0.40983
-0.90497
-2.27690
0.54657
-1.44283
-0.41971
0.10191
-0.09085
0.61778
-2.69883
0.21964
0.23323
-1.41816
-0.14174
-0.70043
-0.67079
-0.86545
0.48514
0.54276
-0.64378
-0.12775
-1.12372
0.05323
1.09801
-0.82937
0.27448
1.61981
0.12637
0.54551
-0.12668
-0.61762
-0.91108
0.04805
0.14027
0.53747
-0.73576
-0.78768
1.85746
1.70885
-0.80370
-1.93510
0.63510
1.04395
-0.90858
0.41607
-1.25871
-0.22005
1.30734
-1.95525
0.24243
-0.62326
0.52513
-0.75589
-0.42028
0.09438
1.08347
0.40935
-0.02909
-1.13248
0.48158
0.53235
0.52794
0.98728
1.97550
-0.14077
0.36706
-0.28660
0.55087
0.52353
-0.34091
0.07994
0.52948
0.19337
0.44682
-0.27791
-2.26804
0.27847
1.17116
-0.74063
0.58724
-0.90207
0.65838
0.64405
0.53749
1.14867
-0.73934
-1.96944
-1.60101
-0.26365
-0.15708
0.32278
-1.38914
-1.58250
-1.38061
0.18927
1.11172
0.57568
2.31065
-1.38336
-0.07340
0.91577
0.39063
0.05839
-1.41898
0.21234
0.70717
-1.12584
-0.29750
0.54922
-1.93363
-0.61713
-0.01415
1.09507
0.53751
-0.62897
0.35566
0.54795
0.39103
0.18431
0.19070
0.22218
-1.38400
1.12703
-0.06461
-0.93927
-0.67046
-0.17208
-0.94745
0.05332
-0.40888
0.78394
-0.54937
-1.43376
-0.26663
-0.59918
-1.38543
-0.83140
0.13846
0.83573
0.08845
0.66863
0.48750
-0.52304
-0.55258
-0.90252
0.54873
0.54621
-0.10879
0.54232
-3.02040
0.84090
-1.16742
-0.56904
0.10674
0.05989
0.49631
0.55894
-0.90218
-2.13583
-1.70478
0.05682
0.78917
0.05224
0.82200
0.53952
0.09991
1.29937
0.00253
-1.94836
0.05588
0.09146
0.23738
0.57878
-0.60125
0.53244
0.28858
1.01676
-1.94080
0.29489
-0.63428
-0.71464
0.16918
0.53858
-1.80324
0.05126
0.00171
0.43289
-0.70044
0.41075
0.83150
0.53875
0.07621
0.05876
-0.64137
-0.47748
-0.02427
0.60686
-1.38831
0.03101
1.20270
0.04453
0.16448
0.79448
0.32755
0.23103
0.32566
0.34758
-0.88848
0.73662
0.31352
0.15761
0.61139
0.52470
-1.31248
-1.01100
-1.48012
0.36188
0.26547
-2.04827
-1.46387
-0.21874
-1.17069
0.36774
1.42818
0.58199
0.17341
-0.16362
-0.39041
1.48174
0.67570
0.10725
-0.51083
0.45270
0.37429
-0.05889
0.60261
-1.43958
-0.28563
-0.87301
-0.95964
0.87554
0.53985
0.57275
0.27060
0.01207
0.23926
0.10447
-0.07705
0.68059
0.46441
0.36961
0.36653
0.50342
0.59291
0.23411
0.39666
-1.24453
0.26609
-0.14694
-2.39390
0.55475
-0.42289
0.33787
-0.07287
-0.73614
-1.29898
0.52800
-0.00026
0.05352
0.53478
-0.66219
0.75218
-2.00714
0.67355
-0.44519
-2.22120
-0.12364
0.46474
-0.67124
-0.01206
0.53175
0.56749
0.08764
0.36316
-0.01231
0.91031
0.33762
0.08622
0.04126
0.06342
0.05476
-1.71416
-0.69573
0.52985
-0.67625
-1.36513
0.36628
-0.03439
0.27909
0.54155
-1.34212
0.56527
1.35697
0.10872
1.33959
-0.87566
0.20984
0.98689
-1.02418
-1.15333
-0.98718
1.09154
-0.05601
0.49332
-0.90019
0.53909
0.56525
-1.94074
-1.35108
0.07409
0.03393
0.53953
0.76239
0.27022
-1.42044
-0.76572
0.69830
-0.71587
0.08465
0.43907
0.52412
0.06965
-2.08420
-0.75671
-0.45029
0.78920
-1.68128
1.18516
0.54007
0.29753
-0.16713
-1.33417
-2.66636
0.34990
1.33119
0.52834
0.37498
0.48941
-1.37931
0.69951
0.53558
-0.49457
-0.34100
0.05550
-2.96649
-0.10255
0.05530
-0.53077
0.02492
0.46984
-0.30668
-0.21415
2.34803
0.87953
2.35059
0.05329
0.99569
0.54022
0.06457
-2.10505
0.49263
0.05668
-0.71882
-0.41638
1.11184
0.61574
-0.61031
0.59973
-2.84625
0.61397
0.53269
0.26338
0.45061
1.20558
-0.98390
-1.92917
0.09176
0.73696
-0.74327
0.11075
0.11239
0.05252
0.74602
0.55104
0.37636
-1.93707
0.11064
0.06274
1.69142
-0.61823
-0.87265
0.06800
0.05621
0.99655
-1.31459
0.40197
0.25376
0.42496
-0.74865
-0.40691
0.85731
-1.83761
-0.16897
0.59655
-1.01726
-0.04312
0.37271
0.41505
0.04977
0.02176
0.73032
-1.05298
0.05836
-0.42089
-1.15205
-0.42127
0.40265
0.45101
-1.38700
-0.27981
-0.26171
-1.81443
-1.23063
-0.06722
0.01081
0.17278
0.48317
-1.09857
-0.91519
0.13006
0.53769
0.07037
-1.08385
0.05498
0.53654
0.32439
-0.04941
0.18875
0.79070
-0.20734
-1.12498
1.29011
0.68822
0.53831
-1.31754
0.09698
0.91145
-0.90164
0.44289
-1.26797
0.49261
-0.90544
0.77027
-0.26202
-0.13535
0.24128
0.93167
-0.11608
0.01236
-1.39178
0.05171
-0.38770
0.72831
1.44468
0.05916
0.19300
0.52132
1.00711
-0.51139
0.89345
-0.66591
0.47935
0.50348
-0.77615
0.34968
-0.54452
0.53918
0.53380
0.74650
0.16683
-0.66837
-1.38205
0.88513
0.06095
0.99485
0.19824
1.30616
-2.76887
0.70464
-1.35987
-0.07352
0.73317
-0.30059
0.50003
0.45244
-0.52315
0.06220
-0.69373
0.53618
0.43932
-0.42267
0.58776
0.29084
-1.91263
0.99123
0.53675
0.18434
-0.12956
-0.05843
-1.95210
-1.92995
0.20539
-0.30265
0.72727
0.21671
0.53710
-0.58735
0.53477
0.53898
-0.32737
-1.20301
-1.55926
-0.14368
0.98016
-0.03754
-0.28824
-0.35629
-1.38831
0.10288
0.53359
-0.03650
0.53233
-1.09691
1.02106
1.05687
-0.51932
1.14976
-0.87184
0.79320
0.85735
0.54014
-0.84115
-0.42344
-0.88097
-0.70581
1.04846
-1.52078
0.53524
0.53441
1.27212
-0.56800
1.01269
0.53299
-1.17480
0.52210
-0.85586
1.10152
-2.87039
0.53724
0.19043
0.55363
-0.22323
0.94046
-2.02059
0.03538
-2.97586
-0.03288
0.38564
0.40253
0.25656
-0.41798
0.51126
0.52405
-0.27900
1.06868
-0.09498
-0.04521
-2.78882
-2.22403
0.13660
0.84159
0.39387
-0.21806
0.84567
-1.25516
0.26062
1.20377
0.84095
0.25618
0.98378
-0.75981
0.05742
0.06260
0.52197
0.06446
1.09339
0.83828
-0.18580
0.53789
0.72147
0.54986
0.23757
0.06031
-0.58848
-0.80324
0.20017
0.53463
-0.28941
-0.39122
0.05120
-1.19738
-0.91404
-1.14430
-1.98563
-0.98226
0.58598
-1.33522
-0.86596
-0.54786
0.09402
-1.40443
0.53998
-1.48714
0.20027
-0.49520
0.94945
0.54765
1.44100
1.29754
0.57442
0.60733
0.14261
0.24593
-0.75909
-2.09036
0.67419
0.76709
1.06850
-0.76658
0.24680
0.55870
0.01844
1.13548
0.55189
1.19143
0.78936
-0.88936
-0.31318
1.13985
0.53846
0.98892
-0.17800
0.06810
-1.34674
0.07725
0.47121
0.77623
-0.03070
-0.97688
1.04246
0.06154
1.19655
0.53542
-1.38299
0.12656
-0.04023
-0.62757
1.02626
0.31273
-1.38197
-0.45199
0.91118
2.43721
-1.31295
0.07529
-1.38489
-0.72614
0.67178
-1.12488
-1.41908
-0.13921
-1.38683
0.72545
-0.92646
-0.97826
0.67639
0.05456
-1.21145
-0.64054
3.22938
0.88457
-0.33531
0.07835
-2.41056
0.09068
1.24483
0.09678
-1.56730
-0.76360
0.72197
1.08692
-0.25807
0.59880
-0.45052
1.28144
-0.35692
-0.27757
-0.13780
-0.59405
-0.44401
-1.39221
-0.95893
0.63135
-1.97584
-1.14193
0.95732
0.60255
0.56255
0.53604
-1.37766
-1.49352
-0.96577
0.45496
-0.13105
0.09704
-1.03229
0.10984
0.67129
-0.39114
-0.60817
1.10431
-0.82541
-2.60374
-0.39468
0.21492
-0.02197
2.22158
-0.25643
0.53231
1.04887
-1.37928
-0.23148
0.98503
-0.03628
0.17312
0.52694
-0.18791
0.54002
0.03872
0.61496
0.05776
0.33676
0.99207
0.05521
0.54527
0.07684
-0.48136
0.09379
0.53395
0.05692
0.59161
1.19817
1.03143
0.43899
-0.03740
-1.22567
0.53734
-0.09165
-0.29122
-1.24677
0.05980
0.05093
1.77039
0.92018
0.10620
0.17522
0.66088
0.31030
-0.10261
0.88597
-1.51920
0.05597
-1.17897
0.06007
-1.34435
-0.90358
-0.65969
-0.12912
-0.84694
0.49742
0.53738
0.20699
-0.71482
-1.38691
-1.38817
-2.38779
0.18315
0.82439
-1.62883
-0.25319
0.53238
0.78095
0.04336
-0.01929
-0.74059
-0.35184
-0.99826
-0.48026
-0.44798
0.78847
-0.62602
0.65331
-1.38626
-0.17114
-0.01729
0.27143
-0.77042
0.27540
-0.73957
0.05524
-0.11187
-1.32514
0.44848
-0.41613
0.60028
-0.41381
0.53100
1.31564
0.05933
-2.91666
-0.53900
-1.69247
0.05071
-0.23868
-1.53287
-0.88277
0.97732
0.79407
-0.98874
0.53365
-0.68410
0.10602
-1.29194
-1.62888
0.06833
-0.61377
0.53815
-0.89264
0.45337
-1.99610
0.36142
0.05967
-0.29895
0.11415
-0.77776
0.05819
0.05067
0.05350
0.54259
0.53859
-1.40359
-1.24455
0.52755
-0.43847
0.05487
1.78523
0.08811
-0.55663
0.53834
1.12502
0.87736
0.58495
0.87716
1.48531
0.42228
-0.32603
2.04902
0.68088
-1.03323
1.36971
0.05918
0.93051
0.29694
0.45594
0.61401
0.04979
-0.20129
-0.95450
1.76728
0.53790
0.55910
-0.53215
0.12228
-0.13582
0.53799
-0.69850
0.45891
0.46983
0.05563
-0.80396
0.22759
0.05739
0.32805
0.92642
0.73902
-0.52016
0.07421
-0.14008
0.42346
-1.87975
0.99277
0.43654
0.53586
0.52899
1.00487
-0.58622
0.53663
-0.62815
-0.57912
-0.73558
0.25070
-0.58531
0.52783
-0.03471
0.81272
0.53650
0.33516
1.05959
-0.78771
-1.44441
0.22414
0.56510
0.52671
-1.39094
0.53693
-1.19397
-1.23990
1.45909
0.43984
0.64598
-1.55325
-1.55940
0.33928
0.06232
-0.05591
-0.28622
0.64074
0.68175
0.55848
-0.21152
1.05220
0.34895
-0.59903
-0.90074
0.55083
-0.11805
0.13633
0.05814
-1.38284
-0.39012
-1.73924
0.94611
-0.28258
0.54095
-0.94858
-0.01496
0.90298
-1.44118
0.55721
0.55740
-0.75366
1.06643
0.22379
-1.21387
0.41250
0.54248
-0.13841
-1.74135
-0.14039
0.10140
-0.46160
0.65765
-0.91511
0.54012
-0.97292
-0.55657
-0.91301
0.28626
-0.18954
-1.49730
-1.29144
-0.90897
-0.31760
0.48716
0.54076
0.53546
1.20713
-1.38077
-0.25718
-1.15667
-1.78632
-1.38354
-0.06231
0.54820
-0.39314
0.05754
-1.47220
-0.97162
1.77109
0.62625
0.39715
-0.28302
-1.39541
1.01127
1.14804
-1.38703
0.19970
0.01655
0.33762
1.96746
0.48474
0.03239
0.46039
0.52385
-2.27548
1.06191
0.96551
0.21128
0.69282
1.70471
-1.12112
-2.13094
-2.29688
0.81616
0.77985
0.08786
-1.31638
-1.72096
0.79465
-0.33037
0.83309
-0.77484
-0.48348
0.63132
-0.42660
0.76496
-0.56802
0.43934
0.22305
-1.95243
0.39794
0.54352
0.17888
-0.42818
-0.34042
0.57464
0.30957
0.53386
2.33374
-1.03980
-0.31416
0.93866
0.27429
0.78738
1.08390
-0.15248
0.96531
-1.02875
-0.53152
-0.35406
0.48696
-0.27039
0.04989
0.32070
-0.47128
0.55718
0.02698
-0.47828
0.14361
1.54554
-0.00676
0.95195
0.53756
-1.03697
0.40991
0.50819
0.32727
-1.93609
-0.12853
-0.04742
-0.20652
0.62737
0.52474
-0.26374
0.54329
0.52228
0.62387
0.54666
1.45405
-0.02181
1.12017
0.44038
1.01287
0.35236
0.27043
-1.16222
-1.38227
0.15256
-2.36273
0.05296
0.64319
-0.21799
-1.51075
-1.49289
-2.15326
0.99798
-1.62118
0.64295
-1.34684
0.07397
-0.55076
-0.85765
0.01094
-0.86706
0.28697
-0.22086
-0.32850
0.26838
1.05171
0.19453
0.53808
-0.27673
-0.16645
-0.85662
1.07121
1.85527
0.81332
0.89102
-2.43380
-0.12671
0.09692
-0.25120
0.48220
1.06116
-1.42680
0.96590
0.61793
0.28287
0.73362
1.22463
1.14116
1.54747
-3.02380
-2.40988
0.57226
0.47606
0.27372
0.54707
-2.50868
1.26466
0.81067
0.61986
0.15985
0.88167
0.21759
0.04295
0.77835
0.53400
-1.39626
0.56383
0.35832
0.09082
0.39444
0.41142
0.19270
0.71304
-0.27877
0.65577
-2.21040
0.61259
0.44124
-0.71780
0.66543
-2.36164
1.14397
-2.31006
-0.83351
-2.40863
1.73003
0.88835
-1.05673
0.50839
1.04157
0.77797
0.11136
0.41887
0.35077
0.74237
0.53088
1.27770
0.27282
1.32375
-1.72737
0.46025
0.09097
0.93192
0.26196
0.69259
0.52037
0.35255
0.23554
0.07738
-3.67638
0.62534
-1.26585
0.09094
1.02160
-0.38181
1.11002
1.05154
0.44120
0.76110
-0.36423
0.53211
1.00278
0.02762
0.75595
0.08942
0.56907
0.92523
0.27772
1.57227
-1.38927
-0.83496
-2.03806
-1.77655
0.25172
-0.74015
-0.09511
0.85560
0.19757
-0.81472
0.81560
0.13988
0.24284
0.98381
-0.36577
0.66850
1.28221
-0.68510
-1.87219
0.55854
0.19257
0.98411
-0.45680
-0.43328
0.78604
-0.50962
0.60641
0.63298
1.11387
-0.36543
-0.72999
0.08337
0.13644
0.00689
0.56546
0.17311
-0.99812
-0.38720
-0.17487
-0.81425
-0.57225
-0.51601
0.36278
-1.38021
0.72529
0.22229
0.94887
1.32741
-0.72401
0.16361
0.23753
0.83983
0.56150
0.39623
-2.64312
-0.19481
0.73229
-1.07971
0.18447
-1.39841
-2.66056
0.73932
1.12426
-0.04289
-0.28740
-2.21228
0.69626
0.67102
0.81701
-1.22248
-2.26726
0.50713
-1.38614
-0.62060
-1.73522
0.47785
-0.18806
0.18623
-0.40060
0.07088
0.81870
0.86599
-2.34013
0.11840
1.49305
-0.06821
-0.83655
-0.70158
-0.44328
0.44007
-0.59298
0.67594
-3.02719
0.41313
1.85743
-1.32045
0.68116
-1.76461
0.31656
-0.26882
0.63807
0.52337
0.96006
-2.29848
0.49736
0.62950
0.45609
0.05988
0.45139
0.13777
0.59801
0.86082
0.04822
-0.39798
0.95489
0.99126
-0.07455
1.02554
-0.02416
0.85768
0.06422
-2.12151
-0.40255
0.58889
-0.61629
-1.79826
-0.03106
-0.76453
-0.79329
0.54099
0.48204
-0.08895
0.51257
0.74984
-2.24474
-0.83041
-0.17721
0.00986
-0.87021
-0.99804
0.91723
0.76030
0.73646
0.33600
-3.13717
0.61605
0.98957
-1.73167
0.61864
0.63356
-1.06695
-2.87077
-0.58471
1.45345
-0.77491
1.39980
-1.44799
-0.26774
-0.07129
0.10352
1.22649
0.51651
0.21420
0.33010
0.27982
0.44119
-0.13950
0.23089
0.28328
-0.22048
0.89954
0.14594
0.33670
-0.85893
-1.32601
1.97612
-0.56318
0.16410
0.97149
0.88170
0.81533
0.09131
-0.23825
0.07488
0.06531
0.65866
1.11670
0.33521
0.15857
1.41418
0.72501
0.86999
0.35037
-1.34865
-2.51854
-0.84138
2.24437
1.55447
1.00863
1.16310
-1.36432
-0.95527
-1.23019
-1.01538
0.02415
-0.42374
-1.70964
-1.12593
-1.27498
-0.18912
-0.06603
0.05920
0.43966
-0.81745
-0.43633
0.08862
1.47565
0.41103
0.84569
0.75603
0.35606
-1.89061
-0.42196
-2.38857
0.30931
1.55505
0.07236
-2.84843
-1.53252
-2.46862
1.52778
0.80920
1.42855
-2.54822
-0.44413
0.92801
-1.65993
-0.08661
-0.44147
-2.82724
-0.24203
0.23171
0.09956
0.46443
0.54873
0.95312
0.06930
0.95324
-0.77297
0.12222
0.52435
-1.89911
-0.22329
0.56558
0.54224
0.16102
0.47770
-0.80664
0.51770
-2.61955
0.52150
-2.66246
0.39991
0.38608
-1.53653
0.00859
-0.07154
-0.33975
0.31754
0.47997
0.77970
0.25439
-3.47625
0.40692
0.06049
-2.44279
-0.20034
-0.56287
-0.39608
0.34039
0.79261
0.36941
0.23328
-2.81991
0.38075
0.84830
0.67145
0.80575
1.18844
1.04598
-1.05421
0.89826
0.03275
-1.85854
-1.68833
0.72241
0.64262
-0.17231
1.48136
-2.27951
0.20708
-1.49346
-0.41185
-3.15137
-0.42297
1.42468
0.47050
-0.16121
-0.28699
-0.10240
0.37599
0.94597
-0.21283
-0.27184
0.05528
-0.54363
-1.42998
0.11490
-0.13140
1.14527
-2.23877
-0.67260
-0.13901
1.16588
0.12460
-2.80430
0.67644
0.78884
0.34756
0.35285
-0.29312
0.96031
1.32061
-0.03824
-1.50997
-1.56154
0.45934
0.46226
1.93500
0.00319
0.06344
0.66706
0.55963
1.00503
-1.64941
1.79663
-0.48426
0.60525
0.63014
-0.44151
0.22261
1.09231
-0.49348
1.72873
-1.89484
0.66372
-0.16514
0.34129
-0.06764
1.90520
-0.02701
-1.60817
0.55929
-3.22881
-1.72353
-0.42297
0.40922
0.37279
-0.35530
1.04030
-1.61054
0.31895
0.36275
-0.35317
-0.08610
1.05280
-0.77675
1.03961
0.40722
-1.88410
0.50193
0.98521
-2.10986
-0.42386
-0.30077
-0.18535
0.05706
0.77206
-0.41935
-1.38762
1.16787
0.58918
-0.16049
-2.33657
0.29251
-1.02399
0.51712
0.16354
-1.12842
0.73892
0.54177
0.19103
0.41765
0.01199
-1.58427
0.01162
-0.68383
-0.06405
0.90500
0.81864
0.51000
-0.39717
-0.08380
0.84290
-2.12789
0.99495
0.03121
0.27766
-2.08479
0.94579
-0.55618
0.34983
-0.53826
-0.98005
1.44007
1.68945
0.79273
-0.48417
0.10508
-0.95445
0.35432
0.07148
0.41524
0.76482
-0.57164
1.16411
0.11257
0.10973
0.04905
-0.70437
-0.42457
0.06383
1.42513
1.11700
1.04781
0.24214
0.22761
0.68876
0.42231
-0.31569
0.09131
0.41053
0.78707
-0.51900
0.05539
0.14564
1.29033
1.15623
0.04667
-0.36337
-0.54724
2.12995
-2.07260
0.43953
0.63923
0.53383
-0.65698
1.38182
0.48737
0.76204
0.55794
0.29181
-1.77045
-0.54887
-0.43636
0.98543
-0.33066
0.09286
2.41937
-0.77222
0.72735
0.48357
0.75855
0.49034
1.82092
0.13549
0.17048
0.64865
0.00857
-0.13586
0.48880
0.90309
0.75157
0.40424
-0.64535
1.65560
-0.05400
0.78178
-0.40330
0.47296
-0.00016
-2.15023
-0.51197
1.28046
-0.19456
0.10328
-1.43892
-1.34621
-1.42063
0.29211
0.71976
0.48951
1.36719
0.61410
1.01734
1.68054
1.12504
-0.42399
0.19677
-0.27230
-2.19016
0.29563
-2.38038
0.80048
0.67970
-0.84463
0.09412
0.77917
-1.34777
-1.40879
1.00816
-0.58461
-1.04569
0.74107
-0.13126
0.69573
-0.43371
-0.12987
1.03518
0.05808
0.96837
0.59592
0.47556
-0.85232
0.48920
1.19570
-0.92336
0.73693
0.66137
0.74588
0.23861
0.48267
0.71634
0.22153
-0.72582
1.38111
-2.26254
-1.93036
0.23807
0.52752
0.27201
0.09029
0.25756
0.13940
-0.43872
-0.13408
1.56684
-1.63469
1.12804
0.75934
-0.44064
-1.05430
-2.57815
-1.61445
0.81563
0.49097
0.23063
1.33973
-0.13152
-0.13851
0.47062
-0.18587
0.95312
-0.68379
-0.32306
0.32413
-0.04077
0.79002
-1.54323
0.63363
-2.90859
-1.20198
0.78187
-1.16258
0.83442
0.53900
-1.84431
0.94253
0.06636
0.06412
-0.36572
-0.31513
1.05616
0.06521
1.17360
0.59192
-0.08665
-0.59280
0.41122
0.72521
0.78821
-0.87079
0.45179
-0.46635
-2.19431
1.04717
-1.36793
-0.37300
2.04567
-0.69085
-0.41350
0.06565
-0.10321
-0.16384
-0.05356
0.27326
0.99713
0.62895
0.53839
1.05180
-0.42132
0.73731
0.02836
0.01010
0.91192
-0.48620
0.59757
-1.79908
-0.26052
-2.33697
0.72772
-0.33848
0.44082
0.43889
-0.42518
-1.29789
-2.76805
-1.79561
0.14855
0.60623
0.22894
0.32041
0.04900
1.07328
1.13592
0.27520
1.02032
0.44596
0.01316
1.21916
0.94438
-0.49658
-0.51833
1.35721
0.90377
0.81613
-0.43665
0.73162
0.82820
0.18205
0.38142
-1.34076
0.23127
1.00942
0.00459
0.05012
0.83520
0.49948
0.39032
0.63078
0.63389
1.01662
0.69464
0.61124
-0.32681
-0.03037
-1.14140
0.12732
-0.08582
0.48831
0.22389
0.04026
-2.29455
0.48283
-0.64819
0.38301
-0.99057
-2.52565
0.50049
-2.02882
1.90006
0.33904
-1.13493
0.10124
0.05589
0.79250
1.09858
-0.08728
0.13494
-1.30594
0.61873
-1.79742
-0.37578
-0.73831
0.66334
-1.52089
-0.49948
0.94446
2.81650
-0.52793
0.89564
0.16201
0.74154
0.00103
0.03706
-1.67041
0.58628
-2.03631
-0.65719
0.80203
-2.00282
-1.23056
-1.84520
0.48609
0.77078
0.64361
0.03177
0.00795
-0.38543
1.10086
0.13910
0.90536
0.50281
0.12746
0.07302
0.48310
0.46363
0.53760
-0.39568
-0.97229
1.53131
-0.23285
-1.05181
0.48870
0.67270
-1.22424
0.36816
-0.53085
-1.41055
0.78837
-0.92303
1.42847
-0.68838
1.11038
-0.73293
0.54247
1.01648
-3.15394
0.11513
0.98845
0.43185
0.56406
0.72160
1.27646
0.59110
-1.68158
-1.79678
-1.18037
-0.28074
-1.11686
-0.15705
0.07077
0.52316
-0.14516
-0.02631
-0.90322
-0.74280
-0.80569
-0.67219
0.59446
0.12962
0.07134
0.09515
-0.64104
-0.43688
-0.57813
0.03965
0.42979
-1.06279
-2.60295
-1.91008
1.37607
0.72617
2.17954
0.52520
1.16516
-1.00250
0.06429
0.30235
0.42231
0.45336
0.98279
0.06129
0.92608
-2.24549
-0.92823
0.69796
0.24280
0.41579
-0.27191
-1.02753
0.30870
-0.80547
0.49015
1.09444
0.80926
0.57560
-1.43712
0.95253
0.75048
1.11946
-0.67048
0.11975
0.16526
-0.08605
0.04044
1.04749
0.51852
0.63286
1.29910
-1.13241
0.43958
0.41080
-0.84569
0.24508
-1.53596
1.06620
-1.77044
0.05999
-0.78805
0.16548
0.46245
0.30990
1.21055
1.15783
0.19706
-0.20173
1.08902
0.18008
-0.21955
0.06412
0.13762
0.41679
-0.61341
0.81204
1.12790
0.87285
0.67413
-0.06460
-0.95756
0.37068
-0.05597
-1.41608
0.57057
-1.98153
0.07129
0.43948
-0.58450
-0.23639
2.13948
2.25213
-0.08502
-0.32547
0.94547
0.45993
-1.17138
-2.69452
0.50759
-0.94018
-0.32089
0.94674
0.40590
-1.32369
0.52909
0.51707
-1.25306
0.64905
-2.76254
1.30257
1.55646
-1.81762
-1.53987
0.09221
0.99280
1.45139
1.67476
1.69465
0.71641
-0.16415
0.98008
-1.30455
0.44667
1.89244
0.99542
1.31141
-0.27630
1.89104
1.39663
-0.24252
0.95431
1.12133
0.13018
-0.21297
1.37055
-0.48303
-0.00147
-0.35277
0.36128
-0.39305
1.09903
0.05120
-2.56166
0.13136
-0.56890
0.95083
0.52200
0.12018
-0.75584
-0.39082
0.44352
0.81548
0.53854
0.63178
-0.43968
-0.39045
1.52881
1.02646
0.71585
1.57807
-0.11993
-1.18183
-1.57220
0.62196
0.27321
-0.59096
0.90443
0.09672
0.78244
-2.30655
0.54218
-0.93261
-0.94277
0.29264
0.63724
1.15117
-2.32454
-0.64231
0.72509
-0.18655
1.24982
0.14783
0.43215
0.79305
0.36908
-2.79706
-0.10417
0.50160
0.68743
-1.08469
0.40238
-3.13789
0.90374
-0.41914
0.42659
-2.61508
0.23038
-0.75831
-0.58384
-0.94569
2.42146
-1.38661
1.00949
0.78651
1.29044
1.87271
0.05348
-0.79551
-0.02969
-1.72020
0.48865
-0.80009
1.00109
0.69523
-0.82680
0.38700
1.30943
0.66790
-1.38515
0.07525
0.65380
0.54142
0.30185
0.56202
-0.09496
1.49487
-1.26303
0.72097
0.63877
0.01147
1.14455
-1.29730
0.51217
-2.34927
-1.52769
0.06380
0.94689
0.11716
0.81205
0.87356
0.56875
-2.94822
-0.30122
0.74175
-0.93311
1.30313
0.97826
-2.93628
0.39089
-3.02395
-0.09750
-1.06094
1.29581
0.06749
0.73255
-0.48121
-0.75310
0.90573
0.04988
0.23064
-0.53426
-0.63901
-0.34024
0.67921
-1.06280
0.70517
-0.41593
1.04129
0.72506
-0.53557
0.38039
-2.86126
-3.42970
-0.11295
0.52618
-0.40000
0.54862
1.66836
0.91568
0.91813
0.63299
0.43244
0.19071
-1.46542
-2.73826
0.10189
0.11137
-0.16277
0.96283
-1.73424
0.96964
0.70904
-1.71007
-0.37543
0.66772
1.35126
-0.73735
-2.48474
1.45065
-1.71539
0.53315
0.78055
1.43020
1.11650
0.45550
0.49011
0.58355
-1.46141
0.79078
-1.23321
0.15285
0.97783
0.02025
0.80419
1.08717
-2.26790
0.33063
0.07441
0.43940
0.71789
0.00973
0.69029
0.83357
-1.92870
0.94452
-0.47909
0.86795
0.41279
0.89503
0.78284
-1.96337
0.49900
-0.96406
0.71909
-0.06873
-1.81585
0.51963
-0.56150
-0.88011
-0.10391
0.54447
1.14371
-1.19399
1.34876
-1.86783
-2.02074
1.02846
0.33774
0.77026
2.22816
-0.40151
0.56131
-1.05435
-0.20418
0.71007
0.92357
0.32225
0.76100
0.49257
-0.20505
-0.13716
0.12319
1.03903
0.77745
-1.00255
-1.56807
-0.07500
0.01212
-1.38663
0.20461
-1.59970
0.53024
0.29711
0.09874
0.51449
1.01674
0.37413
1.06550
1.07366
0.98019
0.25277
0.53314
0.67619
-0.37042
1.28868
0.49036
-0.14970
2.30674
0.72424
-2.47707
2.28418
-0.06489
1.82667
0.11760
-2.85616
0.77346
0.61338
0.05883
-0.80118
1.01231
1.84796
0.81757
-0.99363
0.83346
-1.19686
-1.28145
0.49501
-0.55519
0.18262
0.12385
-3.20890
-0.33527
0.53893
0.99647
0.20236
0.57760
0.37349
0.68492
-0.74142
-0.11029
0.57176
1.27395
-0.86436
-2.18818
-0.42512
-1.20475
-0.02538
1.22949
-1.32223
1.03029
1.04929
0.08831
0.92183
-1.99187
-0.19260
0.19432
-0.76337
0.74830
-1.18007
0.55124
-0.82619
0.58715
0.56308
-0.95148
-0.63298
0.24568
0.05361
-0.92435
-0.51633
0.49638
0.68554
0.00247
-1.10851
2.28216
0.06894
0.32727
0.91278
1.23336
0.72055
-0.28694
0.96272
-1.34825
0.06739
0.53759
0.75684
0.26082
0.09062
0.84197
-0.07238
-1.80449
0.69055
0.18631
-0.65444
-0.20891
-0.31916
0.89347
0.03200
0.04095
-1.17201
-1.09014
1.16581
-1.95565
1.15783
-0.84708
0.84905
0.71009
0.89360
-0.01284
0.50735
-1.20634
-1.02701
-0.62887
0.96851
0.51095
-1.34700
-0.08090
-0.52361
-1.42191
-0.42389
-2.61480
1.74865
-1.26919
0.46851
0.16452
-0.06203
-0.77193
-0.38891
1.41949
-0.20831
1.10437
-0.14539
1.28236
0.44047
-0.02780
0.99418
0.97621
0.67767
0.98754
0.81654
-2.00865
-0.47752
1.57374
0.08082
0.34338
0.39359
-0.73543
-0.50518
1.37634
0.67362
-0.88978
0.67768
-0.69112
0.66111
0.90995
0.07462
-0.09878
0.29067
-2.00343
-0.18252
-0.90722
1.38429
-1.63583
1.29331
-0.83878
-2.11890
-0.64850
0.09353
-0.15429
-0.85131
-0.23781
-1.09829
-0.39042
0.32417
0.18768
-0.14070
1.93512
0.72257
-1.07896
-1.13781
0.10833
0.59569
0.94622
0.00625
0.78229
-0.96614
0.11386
0.67186
0.10713
0.14300
-0.09586
-1.11241
0.68727
-2.64499
-1.73978
0.64868
0.76068
0.93155
-0.48119
0.49610
0.06778
-1.47118
0.79897
-1.15705
0.06762
-0.06666
-1.60449
-0.03466
-1.29088
-0.72935
-0.29438
-2.19444
0.64994
-1.60863
-0.12567
0.03723
0.79398
-0.87980
2.11020
-0.83047
0.35477
1.32632
-0.51406
0.52885
1.13254
1.05693
-3.08572
0.09639
-1.40792
0.51916
1.03379
-0.57013
-0.91120
-2.27626
-0.42675
0.33023
0.83397
0.80311
0.02039
-0.01533
0.31147
0.84566
-0.30623
1.01846
0.98107
1.34657
0.75676
-2.69341
1.27661
0.98510
1.10941
-1.80774
-0.02356
0.14773
0.96472
-0.00936
1.09763
0.53876
-0.48589
0.18323
-1.34380
1.80345
0.63744
-0.18156
0.52354
1.26734
-0.36032
0.41914
-0.47586
-0.87721
-0.90128
-0.22069
1.07196
0.08138
-1.47472
-0.05393
0.68953
0.24720
0.26431
1.73466
0.06231
1.13181
1.10018
0.12542
-0.22074
0.22645
0.48350
-0.49608
0.41241
-0.94233
-0.26656
1.45184
0.03704
0.32475
0.62281
1.13439
-0.32509
-0.24970
0.97499
-0.47240
-0.64274
-0.68695
0.46459
-1.03975
0.13054
0.20641
0.33852
-0.34535
-0.01997
1.27415
0.91706
0.49151
0.52055
2.07275
0.06088
0.79117
1.68948
1.10565
-2.85845
0.33466
0.00056
1.74734
1.05775
1.19808
0.29176
-0.03698
-0.77145
0.26294
-0.08456
1.56268
-0.46107
1.06054
-3.17824
1.22494
0.79080
0.16134
1.43570
-0.36533
-0.47104
-0.41588
1.39929
-0.18371
0.49170
-0.43557
-0.31992
-0.54183
0.53007
-0.04908
-0.21303
-1.76521
0.19908
0.34883
0.34548
-1.30567
0.20746
-0.03538
-0.28207
1.16926
0.25690
0.70796
0.52827
-2.23951
-1.10502
0.92706
0.13965
-0.51313
1.15127
0.67229
0.70805
-0.10976
-0.37860
0.54217
-1.09934
0.81163
0.57232
0.22868
0.81757
-0.27481
0.75932
0.63948
-3.05642
0.07157
1.39914
0.72067
-1.27755
0.98729
-0.77249
-0.12367
0.54872
-0.65354
0.66593
-0.07244
0.37498
1.04718
-2.41064
-3.03028
-3.13568
-0.58609
-0.40053
-0.25732
1.05156
0.24882
0.17136
0.19935
-1.40770
0.15206
0.14186
0.75297
0.54053
0.76046
-1.82713
1.10052
-0.83337
0.45212
0.96765
0.95448
0.42201
0.53377
0.65368
-1.61887
0.80493
-0.48384
0.20577
0.81243
0.07998
-0.00118
0.21326
-0.05104
1.10916
0.78195
0.47838
0.30290
0.65561
-3.13063
-1.68204
1.30040
-1.55233
-0.79876
0.82291
0.12487
0.52278
-0.48791
0.31627
-0.12825
0.43101
-0.14311
0.34938
1.08375
0.00843
0.50986
0.18438
0.94720
0.44194
-0.20812
-0.19410
0.81120
0.93767
-0.87293
2.33198
-1.35034
1.27023
0.18797
0.41694
0.67581
-0.43968
-0.43903
1.57547
0.09963
0.40941
0.51256
1.14760
1.38114
0.21790
-0.68588
0.55852
0.94077
-2.56116
0.15342
1.53227
-1.66816
-0.21367
-0.77368
-0.29552
0.92935
-0.16842
-0.64095
0.65040
-0.01508
-0.22074
0.66026
-0.46349
-0.38768
-1.38619
0.19969
0.63852
-0.40282
0.90300
-0.67654
0.06639
0.18874
0.80483
1.56025
0.02437
1.53220
-0.64179
0.53656
-0.07061
-0.00330
-1.98816
0.53502
-0.03974
0.63856
2.08910
0.49372
0.61297
1.53594
0.71561
-1.78012
0.67245
0.83516
-0.13969
-0.55060
-0.16754
1.58035
-0.01065
0.03956
0.85393
-0.12196
0.65288
-2.42974
0.29863
0.76549
1.29831
1.06404
-0.67505
-0.43501
-0.85758
-1.24674
-1.28329
0.33036
-0.20127
0.65285
0.33704
0.89584
-2.40252
1.19192
-1.71433
0.62467
0.99142
-0.67869
0.99514
-0.60820
0.74698
-0.82957
-0.52055
0.28689
0.06507
0.44115
0.16426
0.08739
-0.87574
-0.71250
1.25469
-1.30328
0.17047
0.72542
-0.38880
-0.43139
0.53407
-0.33255
0.22873
-0.54957
0.05742
-2.75433
-0.25502
0.31506
1.68015
0.54493
0.57120
-1.36188
0.14658
0.23632
-0.37433
1.39449
1.57163
1.00543
-0.85150
0.49634
1.07468
-1.25720
-0.48139
-0.44638
-0.39329
0.65454
-0.00758
-0.61514
0.90894
-0.29076
1.47656
-1.51883
0.76585
0.31326
0.35523
-0.15729
-2.77517
1.15213
0.58668
1.30840
-1.00049
0.25977
0.38647
-0.40551
-0.37532
1.18992
0.07083
0.48432
-0.33920
0.50432
-0.00460
0.49499
0.52043
0.57559
-1.27400
-1.01854
0.81896
-2.33640
0.78710
-0.24600
0.65780
-1.88378
0.25167
-1.16657
-0.33923
-1.82580
-1.13278
0.23495
1.17052
0.78751
-1.28462
0.31719
0.22796
0.52342
1.04903
-0.33502
-0.25375
0.72287
1.18617
0.16571
-0.29078
0.67812
-0.89423
-0.96673
-0.10905
0.17758
1.50847
0.74431
-0.37913
0.79568
0.44536
0.16881
0.69066
0.28798
-1.18096
0.12628
-1.64453
1.20702
-0.92338
0.51730
0.06049
0.19319
1.72071
0.54095
0.16784
-0.53771
0.46180
0.25368
1.61326
-1.00310
-0.51014
-0.97055
-0.52154
-1.06578
0.56151
0.89762
-0.28614
-0.08180
0.72973
-0.17748
-0.15126
0.78958
0.83047
1.30364
-0.58927
0.15249
-0.17346
0.27088
-1.60330
0.12428
-1.06705
0.21250
0.91459
0.35954
-0.52553
0.78025
0.18930
0.53515
-0.72895
0.43422
0.43238
-1.03163
-0.24695
0.41727
-0.41661
0.16171
0.74915
0.34393
-0.90155
-3.12493
-0.22743
-0.65009
0.83833
0.98791
1.30916
0.08814
0.29944
0.05620
-0.54941
1.44846
0.98019
1.07878
1.00536
0.94077
0.05333
-1.21865
0.32372
1.94332
0.81031
-0.87052
-1.06724
0.46974
0.86265
-0.44458
-1.13466
-0.01949
-0.06769
-0.15809
1.35187
-1.95809
1.13899
-1.78884
-0.75153
-2.75356
0.22456
-0.40379
-0.29604
-1.75319
-2.40715
-1.07028
0.43926
-1.37124
-0.76888
-0.31010
-1.49369
-0.13154
-0.16206
0.53745
1.04070
-2.89125
0.10940
0.18477
-2.88534
-0.75113
0.47817
-0.69612
0.56679
0.76796
0.50062
1.19903
-2.48039
0.79209
-1.03002
0.51389
0.16360
1.04527
0.58634
0.13961
-0.58884
0.06090
0.12075
1.00417
0.66828
0.23866
0.46959
-0.00641
-2.57967
2.15134
1.09542
0.88087
0.36438
-0.11411
1.31237
0.83610
0.33241
-0.73289
1.17526
1.37955
-0.55073
0.39321
1.25150
0.76031
-0.08236
-0.76667
-0.15990
-2.22470
0.92681
1.12920
0.48331
-0.55208
0.93781
-0.33202
0.88482
0.07856
-0.43384
0.22044
0.81232
-2.94894
-1.22371
0.51566
0.56972
0.19611
-0.42263
1.27964
0.17587
-1.90352
1.64954
-2.51289
-2.15567
0.73207
-0.23879
-0.19473
1.39673
-0.30219
0.31162
0.99120
1.10005
-0.76914
0.23432
0.11406
1.06438
0.96663
0.64764
0.49385
1.47679
0.75399
0.43071
0.07628
-1.34262
-1.61205
0.55754
0.59883
1.86623
0.26230
0.17323
-1.65201
0.95119
0.29375
-0.36059
0.29849
0.56163
1.00286
0.37386
1.28606
-1.31491
-0.55003
1.09715
-0.27807
0.89688
-2.98298
-0.56681
0.69622
-0.52655
1.06969
0.59090
-0.49562
0.53804
-1.82202
0.05655
0.19699
-1.35389
0.21277
0.28780
-1.45430
-2.24570
-0.14471
0.58361
0.22609
0.73592
0.78920
0.02073
1.41258
0.75293
0.78926
0.57602
-0.47765
0.80946
0.54331
0.69334
-0.06084
0.22965
0.43909
-1.19775
-1.06816
-1.24083
-2.21913
0.65044
0.05015
-0.16924
0.82643
0.51265
-0.47929
-1.65056
-0.69748
1.38830
0.44663
0.83259
0.70987
0.38377
-0.59064
0.72636
0.84049
0.45024
0.50921
0.56253
0.51959
0.11883
0.02143
0.22689
0.87027
-1.08008
-0.10602
0.29624
-0.04449
-1.15883
0.07351
0.33730
-1.04595
0.38868
-1.81620
-0.44537
0.98816
-1.81763
0.61357
-0.78174
-1.75343
0.28363
0.50526
0.05669
0.66057
-0.35263
1.45095
-0.15452
0.53252
0.36120
-0.50598
-0.51553
1.30934
0.75288
-0.51116
0.25597
2.67217
0.25818
-0.57828
0.18312
0.47303
1.07729
0.31528
-0.67429
-0.11684
-0.76660
-2.57874
0.27524
0.12356
0.59392
1.20391
0.08661
0.23716
0.95109
-0.56210
1.19653
0.75176
-0.39370
-2.26242
-1.59389
-0.49976
-0.78723
0.47546
0.05259
0.64644
-1.31569
-0.12057
1.33211
-0.08549
0.01456
0.07918
-2.06786
-0.94760
1.06815
0.40742
1.28682
0.11623
-0.76813
0.43956
0.53797
0.67312
0.74984
0.25188
0.55008
-2.10585
1.08828
-2.13129
0.54160
-1.02472
-1.40975
0.75866
0.95161
0.53829
-0.71265
0.49153
0.85914
0.23500
0.79573
-0.43057
0.94885
0.44704
1.02872
0.36973
0.06818
0.40374
0.80574
0.94671
-0.87229
-0.73433
-0.13777
0.76249
0.54151
0.48075
0.40904
0.35393
0.31180
0.99445
0.49323
0.53791
-1.13485
0.46366
0.13307
0.12119
0.54252
0.45145
0.97660
1.18414
0.98911
0.56757
0.64070
1.41671
0.75802
0.91719
-0.34320
0.52999
0.22938
-0.49413
0.15883
0.02595
0.16687
1.07486
0.86331
0.27165
0.44914
-0.61264
0.21835
1.40887
0.00893
-0.08518
-0.76019
0.13639
0.67352
-0.05995
2.09664
-1.19205
-1.82838
0.92315
0.90814
-0.67700
0.98610
-0.04052
1.33080
0.27950
-0.04554
0.64423
0.56186
-2.55937
-0.84761
-0.28451
-0.10007
-1.99887
-0.32710
-0.01897
-1.29691
0.80746
1.26379
-0.75724
1.07940
0.92692
0.45828
0.85192
0.29918
0.24336
0.78696
0.22522
0.11746
-0.16919
-0.42776
0.53022
-1.69798
0.02505
0.01614
0.23843
0.76401
-0.64274
0.06302
1.49343
-0.46734
0.53833
1.05345
0.01665
0.29763
0.32054
2.62295
0.50993
-1.82754
0.33131
0.01645
0.78182
0.87731
-0.07825
-2.34306
-0.64934
0.68866
1.67696
-0.28931
0.30830
0.37789
-0.64385
0.81658
0.01448
-0.57451
-0.60283
0.02355
-0.00836
0.40240
0.43653
0.48756
0.89635
0.49369
-0.51457
-0.08215
-0.93808
0.26056
0.62598
0.15454
-0.84696
-0.75600
-0.14378
0.18704
-3.96243
0.95928
-0.27257
0.08715
-0.12710
1.55863
-0.00149
1.05068
-0.34967
0.99050
0.23511
0.77396
0.90432
0.45906
-0.44774
0.28735
-2.09865
-1.21215
0.64286
0.13637
-0.57605
-1.03306
0.48961
0.51910
-0.33274
-0.26853
0.95699
0.52096
0.23549
0.51553
1.34092
-0.88326
1.51028
-0.01493
-1.17384
-3.11186
-2.18157
-0.15140
-0.08638
0.98760
-0.68283
-2.17256
0.23158
0.82143
-0.77292
-0.22228
0.56444
-1.01668
-0.43200
0.81711
1.15301
0.74361
0.30879
-1.79437
-2.57197
-0.15400
0.23864
-0.26324
0.08999
0.52767
1.29169
0.56612
-0.18659
1.06372
-0.75137
0.56314
1.04666
0.25076
-0.48985
0.41220
-1.90210
1.07194
0.27216
0.04168
1.13266
-0.16243
1.17669
0.18286
0.63358
1.04992
0.37632
0.22173
-0.24967
-0.77374
0.25989
-3.26034
-0.17545
-0.12735
-0.72865
0.58041
-0.59965
-0.05443
-1.36639
0.95635
-1.67425
1.81157
0.97692
0.12523
-0.67693
0.95806
1.19271
1.79308
-0.08397
1.26146
0.70851
-0.55263
0.09482
0.06248
-0.42650
-2.65983
-0.31591
-0.13933
-0.67553
1.22939
-0.42404
-0.26796
-0.28717
-1.19733
0.47371
-0.23643
0.46846
0.49713
-0.08548
-0.12679
-0.32905
0.23797
0.65913
0.68940
0.64836
1.28055
-0.92567
-0.64306
-1.02536
0.43866
0.99628
0.49549
0.16671
-2.44122
0.96013
0.81077
1.60851
0.00394
1.00961
0.63541
-0.72624
0.22249
0.72850
1.37718
-1.18749
1.48133
0.79653
0.21717
0.12568
-0.01141
-0.35093
0.28310
-1.80013
0.96182
-0.29560
-0.31060
1.02441
-0.22251
0.50164
-0.85745
-0.57457
0.50220
0.34577
0.23049
0.64419
0.80779
0.94496
0.79672
-0.15421
0.67852
1.12865
0.36609
3.05655
-1.03535
0.06008
-0.27709
-0.10246
-0.27702
-1.78819
0.22713
0.44021
-1.13412
0.17827
-0.68350
-1.68212
0.07080
1.03212
-0.34703
-2.71736
0.90851
0.95790
1.04627
0.49591
0.23151
-0.14413
0.19706
-2.01927
-2.43589
0.60012
0.74170
-1.99590
-0.12335
0.76168
-2.50654
0.10232
0.22255
1.04028
0.85264
0.12836
-1.77157
-0.85893
0.06909
0.96259
0.31442
0.63637
0.53635
-0.08641
0.78599
0.68287
-0.40206
0.51517
0.35093
-0.59075
-0.07829
1.08054
-0.28771
0.13278
-0.62262
0.84410
1.00363
-0.62700
0.52725
-0.67263
-0.08005
-1.04357
-2.19400
-1.36340
1.28000
0.51595
0.45851
0.81437
1.45294
-0.98217
0.37845
0.20505
1.01454
1.14488
-2.38695
0.43575
0.15496
0.07756
0.09194
0.92898
-1.35858
0.99371
0.35311
-2.43447
0.25317
0.64937
0.05485
0.74225
0.98839
0.96027
0.65292
0.28335
1.01914
0.80374
0.71094
2.26550
-0.09723
0.13769
-0.43118
-0.51103
0.32037
-0.11022
0.84055
0.11808
-2.62510
2.06075
0.22543
0.08949
-1.78469
0.40927
0.97984
0.99398
0.33426
-0.58643
0.32235
0.53208
-1.38300
0.45816
0.81371
0.51540
0.76181
-0.43275
-1.09720
0.60652
1.08719
-0.18613
-0.27786
-1.44758
-1.04578
0.05995
0.94214
0.15770
-0.35647
-1.68183
0.89194
0.06126
1.26144
0.96100
-0.17371
-0.16027
0.30674
1.05780
-0.59185
-0.79399
0.02658
0.92483
-1.70550
1.15344
-0.39534
-0.67780
0.37653
-1.98175
-0.00673
-0.46372
-2.07280
-0.58437
0.79619
0.54228
1.19088
-0.42363
0.41192
1.09119
-0.23412
0.97472
0.78955
0.41757
0.65731
0.52237
0.36605
0.06602
0.33538
0.07267
0.74827
0.36754
0.39379
0.50575
0.77035
-0.14824
-0.69057
-1.36443
0.01449
0.34441
0.62695
0.91359
0.07136
0.13155
0.69766
0.11114
0.42069
0.44851
0.03451
0.15905
1.04570
-3.05229
0.23711
0.76033
0.10686
0.54703
1.79803
0.09684
0.77290
0.68207
0.83016
0.59639
0.20020
-0.74557
1.17122
-0.37334
1.15742
0.98175
0.07054
-0.39397
1.14177
-0.76353
0.48270
-0.37953
0.23138
-0.13777
1.48342
1.27034
-2.33934
0.48447
0.76978
0.17592
-0.49064
0.78468
-2.27738
0.69527
0.54745
1.00631
0.08522
0.34147
0.09069
0.41386
0.11916
0.80136
-1.70922
1.30384
0.16327
-1.56773
1.09245
0.80452
-0.91460
-2.73914
0.56326
-0.30030
-0.00415
0.92417
0.81870
-1.07471
-0.06455
0.83984
0.05762
1.73108
0.36013
0.86904
1.09097
-0.41482
0.13874
1.01822
1.17429
0.53199
1.43835
0.64589
-0.40564
0.55856
1.05216
-0.18326
0.82442
-3.23522
1.09906
0.78936
0.75986
0.45004
-0.88003
0.43891
1.30904
-0.15639
-0.13955
0.95694
0.24770
1.27109
0.12660
0.52594
-0.68987
0.97579
-0.13286
0.88773
0.16925
-0.37202
-0.02447
-0.55346
0.47657
-0.15619
0.87437
0.44100
0.52303
1.03943
0.22376
0.72990
0.79880
-0.73292
-0.85664
-2.41425
-2.06599
-0.86048
-1.96892
-0.00691
0.80463
0.10593
1.29316
-2.24538
0.73390
0.31519
-2.68991
-2.53219
1.01738
0.72615
1.17884
-0.10027
-0.90521
-1.83910
0.21316
-0.49550
0.51834
-0.48214
0.07206
1.34663
0.08593
1.14840
0.09476
-0.43599
0.78446
-1.41343
0.19309
0.54085
-1.33102
0.23270
-0.09531
0.99404
0.86868
0.24138
0.33093
0.29113
-1.10146
0.97380
0.18020
-0.57410
-2.88036
-0.76795
0.48672
0.33290
-0.56753
