0.19834
-1.24254
0.60773
0.62505
-0.11255
0.50660
0.05677
0.53870
0.81001
0.19766
0.05617
0.49818
0.33939
0.60554
0.03772
-0.18961
-0.06065
0.66162
0.32286
-0.30715
-0.41532
1.24377
-0.46906
0.05695
-0.19188
0.53708
0.78036
0.72431
-0.61428
-0.17132
-0.55870
0.72817
0.72832
0.38747
-0.53513
0.38167
0.37156
-0.53823
0.37898
0.17973
-0.09879
-0.55229
-0.09829
-0.52903
0.36596
-0.54091
-1.16614
0.37805
0.39039
0.18134
0.26400
-0.48460
-0.32013
-0.31892
0.26391
0.53546
-1.38752
-2.38382
-1.66317
2.03414
-1.66381
1.13178
1.23162
0.89833
-2.44832
1.23844
1.22205
-1.91843
1.24537
0.32217
0.50119
-0.75718
0.53154
0.54333
0.83329
-0.76391
1.08539
0.09301
-0.19792
-0.33546
0.55939
1.08761
1.09700
-1.67065
-0.70963
0.16273
-1.67387
1.08839
-0.57338
0.54213
0.45395
0.59905
0.94720
-0.32369
-0.14298
0.06128
0.53115
-0.42741
-0.49308
-1.46989
-1.47165
-0.54444
0.05235
0.54741
-1.38884
-0.68288
-0.41266
0.31069
-0.24571
0.18746
0.78262
-0.18908
0.73641
-1.11289
-0.58621
0.60906
1.65580
-0.40986
-0.32918
0.93583
1.05266
-0.13616
0.12013
-0.41944
-1.53441
-2.09687
-0.18646
0.30448
-0.62540
0.54761
0.28938
0.29936
-2.46225
-0.48159
-1.54275
0.83399
-2.46781
-0.60642
0.29069
0.84763
-1.55031
-0.49762
1.35214
0.80517
0.80691
1.15265
-0.12149
-0.43650
-1.38554
0.27785
0.06028
0.81129
-1.85202
-0.86342
1.71041
-0.12197
1.71970
0.37742
-1.01128
-1.28661
-1.95186
1.09662
-2.62468
-0.09857
-0.55963
0.62162
-0.07371
1.08606
0.09818
0.83763
-1.88417
0.17486
0.10021
-0.03948
0.10305
-1.38078
0.28164
0.88939
-0.95077
0.87280
0.87876
0.86356
0.16819
0.65990
0.57707
-0.02932
-0.95337
-0.43974
0.15255
2.19796
-1.48418
0.32841
0.21424
-2.77980
0.80705
-1.38046
-2.77984
-0.49382
-0.11728
-0.37489
0.82699
1.64142
-1.38816
0.11522
0.30440
0.55422
0.29656
-1.27966
-1.24865
-0.99865
2.42700
-0.93235
1.51071
-0.01770
-1.27279
-1.27074
1.35425
-1.26643
1.36913
-1.26665
1.49438
-1.26716
-1.27859
1.16181
2.06836
-1.26352
0.21776
-1.27664
1.49472
-1.26211
-0.74965
0.58720
-0.96437
-0.11645
-1.27219
-1.26793
-1.27408
-0.34957
0.57634
-1.25824
-1.26120
-1.26220
-0.89642
-1.42903
-0.50584
-1.43392
1.99604
-1.42750
-1.42842
-1.42712
0.58957
2.25916
0.41162
-1.42347
-1.42392
-1.43560
-1.43303
-1.43243
-1.43026
-0.61893
-1.43170
-1.42318
-1.42629
-0.49879
-1.42471
-1.43995
2.26526
-0.12537
-1.42757
-1.43164
-0.68748
0.59418
0.38078
-2.41249
-0.08260
1.44568
-2.24050
1.44961
1.44906
-0.29987
0.53647
-0.09385
0.54242
0.53966
-0.32776
-0.29132
-2.44242
-0.59682
-0.41518
-0.57231
-0.90064
-0.80386
-0.58226
-1.49505
-0.50930
0.35278
0.16166
-1.51165
-0.56706
-1.15959
1.25619
-0.56146
0.39060
0.47571
0.40726
0.39827
1.32294
0.40048
1.31936
-0.17364
-1.19938
0.54026
-0.86868
0.92144
0.72181
-1.85282
1.18916
-1.58648
0.28933
0.27147
0.26256
-0.76178
-1.38538
0.62524
-0.56011
0.95858
0.27476
0.56498
-0.31252
-2.16357
-0.31388
1.53653
-0.03601
-0.31545
1.47735
-0.37972
-1.29568
-0.92918
0.77840
-0.14693
0.50877
0.85251
0.05670
-2.95750
-2.20318
0.39198
-1.73387
1.03384
0.89350
-0.90520
-0.76201
0.92356
-1.85352
0.87708
0.19709
0.08853
0.65561
0.08535
0.30786
-1.38320
-0.10232
-0.04608
0.53686
0.53513
-1.99865
0.46374
0.52210
0.52143
-1.95697
0.47204
0.51852
-0.12822
0.03698
-0.08737
-0.38144
1.05779
0.82184
0.54184
0.80685
-0.07134
0.16073
-0.18220
-0.08349
0.35966
0.40814
-0.09399
0.80164
0.81923
0.54541
0.83981
0.16059
0.50309
-0.06031
1.20675
-2.23820
-0.35175
-0.15916
-0.15649
0.41913
-1.08406
0.76081
-1.08032
0.76435
0.76735
-0.15801
0.76647
-0.15742
0.76547
0.45614
0.64576
-0.39229
0.53437
-0.95453
-0.94389
0.06918
0.62859
-1.32559
0.03837
0.03456
0.08262
-0.22579
1.12188
-2.56115
-0.93549
0.83664
-2.16184
-1.93505
-1.93124
1.76926
-1.93146
0.32593
0.17393
0.45835
0.42627
0.58456
0.14237
0.38291
0.22028
0.18767
0.04210
-1.14374
-0.21709
-0.45743
0.71558
-0.21333
0.21216
-3.19823
0.75813
-0.90619
0.54186
-0.78708
-0.81453
0.37437
0.66624
-2.23006
0.48062
-0.38323
0.54675
-1.31003
0.54003
-0.38341
-0.82678
0.62649
0.66244
-2.10975
-0.46355
0.66001
0.15251
0.42097
0.05356
-0.14129
0.78352
-0.21502
0.26872
-0.27654
-2.79790
0.84690
0.01060
-0.02283
0.14856
0.09888
0.17171
-2.78761
0.06596
0.38261
-0.68978
0.40122
-0.52461
-1.38334
0.79295
0.56862
0.54409
0.39674
-0.08181
-2.70751
-0.13406
0.05809
-0.89228
0.49774
-0.23342
-0.48624
-0.88145
-0.37127
0.53648
-0.05703
0.86865
-0.98234
-0.17138
-2.83250
0.61734
-0.41922
0.33407
0.65234
0.10883
0.15403
0.54671
0.01017
0.38950
-0.05905
-0.06369
-1.76646
-1.77522
0.76299
-0.23803
-0.93550
-0.35164
-0.24654
0.57495
0.07030
-2.43492
1.23681
1.24065
0.32002
1.24366
0.31503
1.24696
-2.44244
-2.44082
1.23058
-1.50610
-2.42738
1.22962
1.22832
1.22637
1.23360
0.32574
-0.61577
1.24221
0.32814
-2.43025
1.22586
1.23293
1.24375
1.23328
1.24002
-2.43762
1.22859
1.22958
1.22320
0.31511
0.33370
-0.60439
1.23479
1.22042
1.23263
1.25052
-2.43315
-2.43925
1.21989
1.23209
1.22930
1.23074
1.24786
-2.43671
-1.51437
1.23181
1.23182
-2.43733
-2.42928
-2.43663
0.31822
1.23268
1.22827
1.22497
1.23524
1.22645
1.22567
1.23772
1.24135
-1.52615
1.22859
1.22180
1.24167
1.23502
1.24241
-2.30785
0.32079
1.23377
1.22729
1.23221
1.24559
1.23438
0.31792
1.22744
1.22848
1.23979
-0.59247
1.22479
1.23497
1.23251
1.22950
1.23049
0.31021
1.24064
-2.43799
1.22249
1.24009
1.23109
-2.42491
1.23687
1.22914
0.32259
1.22314
1.23183
1.23630
1.24236
-2.31632
-1.52440
1.24424
-2.43883
-1.50735
-2.44628
-2.42544
-2.44004
1.22633
0.31739
1.23085
0.31999
-1.36907
1.40027
0.05798
0.14566
0.53566
-0.69678
-1.09110
0.37957
-0.14587
0.41919
0.53860
0.23458
-0.28772
0.42819
-0.65936
-0.54867
-1.38543
-0.13428
-0.58299
0.32008
-2.83107
0.05243
-0.37918
0.40320
0.50790
0.54245
-0.01325
0.54808
-0.50137
0.53449
0.27393
0.05645
0.97456
-0.40880
0.41372
0.71725
0.35432
-0.05259
0.41641
0.17415
0.45666
0.75652
-1.57766
0.42029
-0.50395
-0.23765
0.41786
0.44134
0.41233
0.40869
-2.35235
0.41666
-0.50882
-1.31957
0.52239
-0.50008
-0.50178
0.41543
-2.41108
0.08725
-2.40257
-0.47856
0.73929
-1.78364
0.36354
0.35640
-0.55721
0.36036
-0.69715
0.35057
0.49788
0.53442
0.88301
-0.36329
0.27009
-0.81007
0.34501
0.40420
0.65784
0.38351
-1.37772
-0.41208
0.52843
-0.98589
0.04819
-0.70644
0.96344
1.01870
-1.75102
0.63571
0.08986
-0.21280
1.08947
-0.75661
-2.21453
-2.19284
-1.38965
-0.42051
0.07221
0.23006
-1.43997
-0.01927
0.41015
0.19929
0.31627
-2.31110
0.53342
-0.16052
-0.58556
-0.16923
-0.26566
0.51301
-0.93011
0.71975
-1.53750
-1.71823
-0.68015
0.90671
0.77353
-1.85186
-0.05797
1.07599
-1.46462
-1.86569
0.54552
1.84429
-1.77742
-0.65263
-1.69115
0.24169
-0.77058
-0.93220
-1.97588
0.15529
0.54108
-0.89924
-1.38326
0.32129
-0.60403
-0.10580
0.40824
-1.43847
-1.44239
-1.44138
-1.44169
-1.44281
0.38843
0.27606
0.51710
0.32880
0.34270
-1.35528
-1.35465
0.37029
0.33527
0.20403
-0.68004
-0.06848
0.34170
0.09559
0.53920
-0.78665
0.10935
1.03263
-2.06898
-0.81257
-0.06303
0.84698
0.06306
-1.18397
0.84177
-1.09111
-1.15005
0.13317
0.90750
0.68143
-1.02853
-1.84405
0.93181
-0.36730
-0.42907
0.19590
-0.01291
0.26072
-0.76801
-1.41033
0.02724
-0.43967
-0.02827
-0.87574
-0.61897
-0.32130
0.89756
-0.03825
0.70695
-0.09131
0.05357
0.89415
-0.03054
0.03298
-0.01991
0.89187
-0.02864
-0.02265
0.39326
-1.38672
0.24308
0.01220
-1.86520
-0.94792
0.24368
-0.73089
0.84347
-0.01658
0.88200
-1.32548
0.89201
-0.02929
0.53634
-0.03526
0.90512
-0.02809
-0.05858
-0.07687
1.39994
-0.02285
0.64619
0.59011
-0.07115
0.89173
0.89855
0.65769
-0.27472
0.87791
-1.59585
1.21337
0.19616
0.38567
0.22979
-0.71185
0.16517
0.37167
-1.36183
0.67966
-0.12367
-0.02634
0.56990
-0.19532
1.16447
1.16377
-0.67783
-1.60460
-0.21251
-3.15106
-0.72122
0.53803
-0.38856
-0.65328
-0.78168
0.11548
-1.73623
-0.11544
0.05654
-0.15517
-0.03678
-2.93500
-2.04440
0.74561
0.75811
0.06786
0.82796
0.75202
0.74831
-0.14995
0.44121
-0.16041
-0.15823
-0.90624
0.75070
0.75580
0.54034
0.75255
0.33542
-1.18041
-0.03669
0.35733
-0.23932
-0.43024
-1.15400
-2.07191
0.69209
1.60991
-2.07803
1.61074
-0.01958
-0.15907
1.10955
0.03679
-1.38649
0.96792
-0.09974
0.10789
-1.33289
0.85587
-1.33213
-1.33206
-1.33183
-0.68088
-1.60791
-1.44656
-1.60832
-1.56136
2.09132
-1.53846
-0.25138
-2.46409
1.23896
0.32053
0.31472
-2.47314
-1.54290
1.10998
0.39462
-0.33368
0.32462
1.11383
0.84958
1.05960
1.10368
1.10863
-0.42622
0.21850
-0.33407
-0.20142
-0.20295
0.53842
-0.35646
0.56881
0.56930
0.28344
0.43062
0.42953
-0.49465
0.42944
-0.15237
-0.00105
-0.21118
-0.08358
-2.34789
-2.53798
-2.60245
1.21644
-0.81504
0.35748
-2.59123
0.38958
-0.86988
0.13113
1.08155
1.08162
-1.67312
0.18739
-1.96706
1.09153
-0.64811
-0.76062
1.07402
1.08882
1.06756
1.08431
-1.69781
-1.68340
0.83681
-1.66925
1.06891
1.08558
-1.66631
0.97284
1.07963
-2.59337
-0.59950
-2.58885
1.08288
0.53991
0.10944
0.55701
-0.36168
-0.16424
-1.09013
-1.25146
-1.28681
-1.28618
-0.59358
-0.48855
-0.54500
0.04502
-1.24344
-1.11446
1.03301
1.44736
0.08791
-1.72466
-2.64778
0.05594
0.54177
-1.32901
0.34547
0.73655
0.05226
0.11622
0.46897
0.53324
0.62139
0.01942
0.53104
0.53090
0.10703
0.25196
0.03130
-0.03220
-2.79994
0.59551
0.88883
0.89346
-2.80222
0.88972
-0.18657
0.89289
0.89766
-0.02492
2.01421
0.26743
-1.87209
0.63154
0.89034
-0.20969
0.88496
-0.95506
-1.14080
0.77857
0.89087
-1.12909
-2.79120
-0.95660
-0.03257
-2.81029
0.81854
-0.03802
-0.75381
-0.91000
-1.92610
0.81696
0.83385
0.03988
0.61944
0.66395
-0.43154
-1.80649
-2.28227
0.46594
0.48835
1.32023
0.33538
0.12937
-0.75007
0.55506
0.53237
0.53192
0.53307
0.53245
0.53477
-0.39289
0.53340
0.53221
0.53134
0.53173
0.53278
0.31152
0.93524
-1.27007
-1.37407
-1.36979
0.48629
-1.36318
-0.89407
-1.37130
0.48238
0.53565
0.04412
0.06213
0.74755
0.17949
0.74493
0.51580
0.43027
0.27553
0.43585
0.57069
0.05755
0.29335
-1.75613
-1.75252
-1.76384
-1.76479
1.87524
1.92284
-1.75881
0.87827
-1.75824
0.37280
1.17894
0.53814
0.76879
0.76758
-0.21558
0.76797
0.76778
-0.04733
-0.14876
-0.44538
0.15316
0.25771
-0.22585
-0.78978
0.12833
0.54355
-0.90416
0.26135
0.53784
-0.16640
-1.09930
-2.03619
0.94623
0.74968
0.92681
-2.02989
0.73057
1.64225
-1.08649
-2.02121
1.66155
-2.01974
-0.75189
-1.74766
-1.00753
-0.22856
0.60252
-0.67391
1.17424
-1.59521
0.33823
1.17142
-0.32349
1.17623
-1.69281
0.25302
-2.52278
1.16598
0.65782
0.53559
1.41538
-0.02742
-2.31225
-0.39833
0.57802
0.82459
0.93495
0.05575
0.00523
-1.14063
0.52946
0.69554
0.63042
0.37208
0.69020
-0.17323
0.69818
0.66218
0.70764
-2.99275
0.02273
0.61859
-0.84272
-0.66514
0.17405
0.52062
0.51244
-1.14400
0.05832
-0.03586
-1.16267
-0.13543
0.99479
0.11303
1.00068
0.64894
1.01966
0.87271
-1.71256
0.08180
-0.34428
0.98289
0.94340
-0.64205
-0.16656
-0.16182
0.58757
-0.64756
-0.96512
1.39332
0.66652
-0.25755
0.66613
0.66733
0.45796
0.06194
0.23041
0.29339
0.11102
0.47373
-1.45312
-0.52192
-0.53622
0.39401
0.80835
0.39553
0.33778
-0.68493
0.34084
-0.25307
0.39384
-0.06837
-1.45450
0.22389
-0.52792
0.40048
-1.45023
0.40299
1.31239
-2.05689
-0.94757
-1.87473
-1.87064
0.89542
1.68139
-1.78236
0.56388
0.97449
0.32602
0.65802
-0.46090
0.12246
0.68234
-0.90521
-0.09248
1.15568
-0.49019
-0.02166
1.29185
0.53019
0.53013
0.09025
-0.16233
-1.16991
-2.50691
0.26089
0.83291
0.02980
-0.88176
-1.68558
0.00927
-0.75832
0.85910
-1.40906
-0.64542
0.27896
0.24535
-0.38424
-0.18745
0.58218
-0.04646
0.10224
0.37254
0.03885
0.37558
-0.77575
0.35013
0.18020
0.57903
1.74531
0.45363
0.24675
0.30901
0.59979
-1.25170
0.59454
0.54538
0.28053
0.93190
-1.83808
0.53419
-1.03136
0.55701
0.98279
-0.65092
0.63868
0.54239
-0.42501
0.63731
0.64296
-2.13500
-0.10076
-0.26669
0.64277
-0.28013
-0.90588
-0.12707
0.05857
-0.27526
1.95299
-0.18712
0.73775
0.73749
-0.18722
0.73801
0.23059
0.59502
-0.24068
0.27662
-0.76792
0.27702
-0.09827
0.53637
-1.80549
0.28082
0.26475
0.06256
-2.69374
0.86117
-0.84771
0.05501
0.99126
-0.23770
0.98999
0.06520
-0.64831
-1.57048
-1.07079
-3.20459
-0.26279
0.61093
0.34667
-0.60422
0.61694
-1.58269
0.36487
-1.56602
0.53709
-2.35176
-0.42218
1.16316
1.17554
-1.60199
-1.57676
-1.59750
-1.18757
-1.51382
-1.60430
-0.25401
-1.33968
-1.33934
-1.33872
0.75428
-0.07084
0.75348
-0.16945
0.65488
-1.61937
1.57083
0.00692
0.07980
-1.62714
-0.69145
-0.70316
-0.00185
2.06216
1.13498
0.21360
-0.68389
0.32119
-1.06265
2.05178
1.15483
0.97359
0.48721
-0.69960
-0.10533
-0.75443
-0.00340
-0.99589
-0.39769
0.44780
0.81029
0.45732
-1.62370
-1.61246
2.07100
2.37075
-0.94871
0.51904
-1.00071
1.15648
-0.43545
-0.49299
0.21233
-1.62213
1.04084
-1.59795
-1.61548
-0.70314
-0.16463
-1.61563
-1.61272
-1.62868
-1.62718
0.37526
-0.48078
-1.61417
-1.61459
-0.24440
-0.88854
0.24830
-0.72473
-0.69548
0.28039
0.74123
0.80622
-1.62567
2.06174
-0.10454
-0.77698
1.15524
-1.62758
0.60105
-0.55678
-1.60836
-1.38137
-1.62118
0.10657
2.05570
2.05522
-1.59512
-1.61049
-0.08563
0.72278
-1.41588
-1.64229
-0.92455
0.25527
-0.69939
0.14606
-1.52929
0.23999
-1.38155
0.12227
-0.71121
-1.56470
-1.62239
-1.61599
-1.61767
-1.61447
-0.61705
-1.49321
0.23100
1.53821
1.14545
0.61807
0.39135
0.35607
-1.02760
0.66014
0.65983
0.12243
0.97076
0.65967
-0.26228
0.65637
-1.34831
-0.47467
0.65543
-0.40821
-0.90821
0.52723
0.52771
0.52735
0.52757
0.52755
-1.54341
-1.54564
1.23453
-1.54594
-0.37669
-0.62134
-1.54453
-0.30888
-1.95460
1.01066
0.11025
-0.07928
0.00517
0.10715
1.01073
-0.50461
1.00845
-0.23743
-0.75415
1.02675
-0.81326
0.91499
0.24679
0.16804
-0.49583
-0.64174
-1.47432
-2.06961
-0.10113
0.16210
0.53752
0.35516
0.54050
-0.42418
-0.62649
-2.54914
0.70274
0.28894
0.77569
-2.55887
-0.69674
-1.38809
1.66379
1.54690
1.66759
-0.07185
-3.17147
0.43786
-0.24279
0.16063
-0.61412
-1.35847
-1.35864
-1.87942
-1.88618
1.81390
-0.05507
0.05663
0.05560
0.23881
0.53985
0.13997
-0.38874
0.94340
0.92480
0.73922
0.78201
0.91970
0.18636
-2.76402
0.49826
0.93338
0.90154
0.03628
0.01486
-1.83521
0.92329
0.53566
-2.75717
0.39665
-1.83237
0.64931
0.44474
0.91830
0.14445
0.02146
0.03209
0.89128
0.92121
0.71398
-0.35410
0.41437
0.34761
-0.41613
0.07785
0.73361
0.93091
-1.57869
0.66111
2.09705
0.46964
-0.45676
0.46601
0.50519
0.46511
0.26814
-0.49202
-0.56749
-0.05230
0.77497
-0.42692
0.58226
0.62991
-1.38135
0.93279
0.63731
0.05527
-2.71969
-2.72830
-1.80926
0.01747
-0.31016
0.92224
0.86958
-2.73017
-1.80178
-0.97274
0.95285
0.05353
-2.72167
0.45327
-2.54621
0.12378
0.53560
0.32539
0.30818
0.39922
-1.52174
0.00916
-0.53278
0.53545
2.02110
-1.67909
0.53579
-0.75008
-1.67734
-1.67770
-1.67445
2.01613
-1.67192
0.53906
0.70966
-0.79394
-0.81733
0.52351
-1.72137
0.12865
-0.92857
0.39642
-2.15124
0.61958
-2.14612
0.67263
0.18228
1.52448
0.62035
-2.16178
0.45010
-1.03478
-1.18495
-1.91494
-0.06404
0.61068
0.86405
0.50604
0.49070
0.25378
-0.58738
1.63782
-2.06513
-1.65308
-2.07041
-0.84383
0.64305
0.71276
0.55416
0.54117
0.54123
0.54013
0.54084
1.13861
0.36886
0.95737
0.93534
0.94517
-0.17278
0.26301
0.05110
0.63317
0.53739
0.53215
-1.30260
0.46590
1.18592
0.02010
-0.06665
-0.58500
0.46547
0.50953
0.46587
0.53717
0.73462
0.73507
-0.14954
0.28624
-1.98365
-2.84949
-2.59556
-1.97244
-0.09329
1.50966
1.50509
-1.25888
-2.17784
-0.48023
-2.06004
0.55356
-0.38443
0.42125
0.55859
0.56411
0.05587
-1.14176
-3.15737
0.54626
1.70104
-1.44492
-0.91828
-0.26398
-1.82232
1.15277
0.07433
0.63124
0.87175
1.63508
-2.05191
-1.13930
-2.05210
0.20700
-2.05854
0.72546
0.58076
0.71043
-2.05180
-1.41680
0.70074
-2.05571
-0.20182
0.73063
-2.05673
1.62712
1.64026
0.72377
-2.06035
0.72133
-1.12769
0.89266
-1.65739
-0.61562
0.46926
0.53906
0.53549
1.10627
-1.63302
-0.30881
0.86676
0.63964
1.09851
-0.72808
1.05915
-0.70069
1.25345
-2.40440
0.35909
1.03337
1.26832
0.81966
-0.03102
0.34429
-0.55508
-0.25861
0.26368
-0.11913
0.04953
-0.19040
0.28716
-0.63691
-1.38197
-0.03989
0.58856
-1.49234
0.20990
-0.69342
0.14976
0.14937
0.24828
0.09857
0.23455
-0.41995
-0.93491
0.91547
-0.42255
-0.93347
0.05638
0.05638
0.53510
1.48585
-2.20232
0.56735
-1.59153
-0.51054
1.05459
0.86783
0.16326
-1.08188
-0.82718
0.76739
-1.21254
-0.11444
0.80727
0.20354
-0.11663
1.21514
0.02992
0.69594
0.44466
0.10765
-0.19553
-1.38991
-0.69555
-0.79129
-1.27334
-2.20023
-1.27030
-2.20257
0.54547
0.97311
0.39732
0.48047
-2.51333
-0.12008
-1.39377
0.26747
0.46987
-1.71996
1.97247
1.97724
-1.70476
-1.70616
-1.71048
-0.77079
-1.70159
-0.68386
-1.71152
-1.26554
1.01708
-1.70297
-1.72149
1.06239
-1.67267
0.72171
0.33265
-1.70030
-1.71573
0.14989
-1.71328
-1.72072
0.14118
0.12535
-0.77967
-1.71195
0.05295
1.22693
0.87557
-1.70676
-1.70790
-0.66256
-1.71509
-1.68055
-0.31041
-1.72188
-1.71272
1.06549
-2.65330
-1.72130
0.74271
1.02130
0.91084
0.97505
1.02590
-3.27991
1.04585
-2.64211
-2.64679
0.99344
0.11545
0.89714
0.38816
0.37198
0.30432
0.68276
0.01007
0.13260
0.36667
-0.55533
0.39813
0.39728
0.35685
0.53358
-0.06402
-0.58592
0.71209
0.23371
-0.50259
0.13624
0.33288
0.29351
0.05362
-0.59602
-0.64065
0.06860
-2.15643
0.55867
0.61616
-1.23506
0.78650
0.45918
0.40334
0.53454
0.42202
0.40446
0.23988
0.03110
0.58812
0.42080
-0.39130
-0.46406
0.33328
-2.34247
0.02660
0.55054
-0.49345
0.40294
0.39985
0.34200
0.09577
0.11542
0.40885
0.40365
0.41068
-0.09751
-3.27326
-1.41989
0.47628
0.48511
0.38363
0.11188
0.06415
-0.11061
0.40773
0.39940
0.10068
0.40252
-0.50560
-0.50770
0.32800
-0.50559
0.20377
0.41915
-0.22123
0.41476
-0.45075
-3.25151
-0.65655
-2.35511
-0.50825
-0.90395
0.07722
-3.27412
0.41423
-0.50364
0.06288
-0.05021
0.40471
-0.35962
-0.97214
-0.50275
0.41201
0.40658
0.41466
0.42520
0.41572
0.41336
-0.28530
-0.87955
0.51291
-0.50658
0.41876
-1.42568
-1.42013
0.41260
-2.34258
0.38052
0.45734
0.41654
0.35015
-0.50752
0.09560
0.42287
0.03320
-2.30740
0.08535
0.27345
-0.45693
0.36545
0.51758
0.41719
0.41287
0.41305
0.42112
0.16323
0.42171
0.85476
-3.26082
-0.17149
0.42455
0.40814
0.41044
-0.30642
0.41592
0.32844
-0.36344
-0.50288
0.90321
0.40492
0.40618
-0.50866
-0.08043
0.07849
0.40283
0.31524
0.41433
0.11638
0.03048
0.41920
-0.05783
0.14705
0.14824
0.36251
0.15635
0.10489
0.15536
-1.38308
0.14064
-0.52172
-0.77412
-1.71247
0.05614
0.47401
1.25438
0.35282
0.71940
0.72460
-2.05046
-1.12276
-0.13902
0.78608
0.21209
0.54218
0.22936
-0.28554
-1.84743
-0.00858
0.81122
-0.65720
0.87539
0.04173
0.90071
-0.01253
-0.34831
0.90021
0.41540
-0.93262
1.22511
-0.12209
0.90059
-0.02004
-1.93608
-1.88841
-0.10948
-1.95832
1.39458
-0.12898
0.79627
-0.04955
-0.51720
1.27949
-1.21562
0.99893
0.67602
-0.37889
0.54992
0.54743
0.54861
0.54859
1.39097
0.20669
-0.02473
0.54915
-0.26081
-1.05197
-0.00660
-2.52738
1.16332
-1.47161
1.14786
-2.52861
1.16240
-0.11283
0.24246
-0.21846
-0.87470
1.15646
-1.60109
-1.38720
1.16854
1.13098
0.23718
0.25351
0.22930
0.27732
-0.69800
-2.22684
1.15091
-2.53703
1.15340
1.17198
0.45705
-0.28024
-1.97766
-1.07372
-0.14843
1.24800
0.33006
-2.43594
1.24793
0.00012
0.06081
0.55096
0.32805
-1.98230
-2.19087
0.74177
0.53837
-0.14829
-0.15365
-1.99768
0.46939
0.76525
-0.24346
-1.35302
0.46047
0.32532
-1.23859
-1.38457
0.83849
0.45334
-0.46700
0.45283
0.20117
0.51766
0.45714
-0.65194
0.45285
0.45662
0.45450
-0.05359
0.45255
-0.29060
0.53244
-0.12149
-0.77522
0.33345
1.12886
1.22349
-2.45461
-2.46575
0.83248
-1.05506
-0.12832
-0.40570
-2.09095
-0.00870
0.05631
0.05628
1.22143
0.35415
-1.26970
2.22398
-0.73705
0.62825
2.41690
0.48588
-1.28400
-0.36174
-1.28903
-1.29638
0.44454
-0.08053
0.05239
0.44245
0.27768
-0.38338
-0.04637
-0.87613
-1.38635
0.59714
0.32968
1.25518
-1.52019
0.53559
-1.19212
-2.80154
0.86222
-2.81884
-1.15778
-1.55862
-1.28481
0.08460
0.19329
0.77585
1.36566
1.36447
1.37131
0.45453
-2.30716
-2.31925
0.54684
0.54974
-0.76768
1.02470
0.55834
-1.85481
0.55532
-1.85778
-1.85674
0.91221
-0.93461
-1.86525
2.69927
0.32398
0.00014
-0.67346
0.10057
0.23960
0.08385
0.91973
-0.92802
-1.85507
0.10114
0.09937
0.14916
0.40130
0.32882
0.39550
1.32262
-2.37055
1.32048
0.05651
0.20584
-1.38678
0.44831
0.59860
0.98238
-2.71254
0.83725
0.04080
-0.52740
-0.50531
-0.72563
-0.51272
-0.80637
-0.56965
0.14021
-0.28629
1.11737
0.20709
1.10910
-0.27734
-2.45667
0.77366
-2.55994
-2.57128
1.11076
1.11198
1.12185
1.12388
-0.10031
-1.31422
-0.74833
-0.35844
-3.16412
0.53785
0.53942
0.66040
-0.50676
-0.30555
0.45860
-0.36804
-0.45656
0.46876
-0.45715
-1.37997
0.46852
-0.24811
-0.54895
0.46253
0.70181
-0.39573
0.48635
0.37896
-0.05392
-0.84608
-0.71441
-0.61564
0.39995
1.69294
0.68397
0.95983
-0.40251
0.65567
0.06922
0.23028
-1.36866
0.21755
-1.19410
0.06085
0.03463
-0.11467
0.14744
-0.50081
-1.57066
-1.17752
0.53699
-0.07235
0.25461
-1.09479
0.65342
-0.44309
-0.11806
-1.40157
-1.40193
-0.47381
-1.40346
-1.40351
-1.35162
1.37848
-1.39562
-1.40069
-2.42313
0.33666
1.20050
-2.42213
-0.02878
0.81619
-1.50137
-2.11118
-1.17040
1.04007
-2.10605
-1.16549
-0.00595
-0.75587
0.13820
0.18579
-0.59321
-0.67206
-0.70091
-2.67977
1.01222
0.90898
1.01821
-1.38737
-1.38758
0.50907
-0.99001
1.67501
-0.90881
-1.82004
-0.89430
-1.82031
-1.82378
1.87487
0.95370
-0.42125
0.11620
0.08586
-0.24957
-2.66202
0.41240
0.08298
0.21379
0.15041
0.53027
0.56190
0.38205
0.56683
0.56085
0.25150
-0.33558
-2.18383
-3.11496
0.55968
-0.34974
-0.42293
0.53593
0.62168
0.65885
0.53770
-0.36454
1.26122
0.00596
-0.29167
0.43911
0.60544
0.27997
-1.00870
-0.07574
-0.07459
0.07327
1.05299
0.17579
0.07027
-1.70910
-0.17544
-0.85153
-2.69778
0.07504
-0.08055
0.81863
0.30635
0.80419
0.87533
0.99572
0.66145
0.66152
-0.26415
-1.19030
0.66179
0.54736
0.28262
0.05650
-0.26395
0.55180
0.62557
-0.33001
0.04766
-0.13801
0.24155
0.71318
0.26961
1.14958
1.21634
0.14002
-2.47168
-2.47432
0.14347
-2.33087
0.30965
0.35723
1.56414
-2.03684
-1.51480
-1.72914
1.88035
0.03137
0.37886
0.34671
-0.42134
-0.29893
0.68941
0.25382
-0.39365
0.66776
-0.97098
0.35859
-0.41449
0.27907
2.29604
-1.25061
1.43790
-1.33300
-0.25891
-0.17591
0.58004
0.66114
-0.26096
1.05931
0.66186
-0.27979
0.14510
0.29614
-0.63985
1.21393
-2.47365
-0.54591
-2.47451
1.21198
0.29206
1.03882
1.20398
0.53766
0.36714
-0.11638
0.34408
-1.49136
0.35909
0.35996
-0.37218
-0.04766
0.31627
0.19147
1.04376
-0.21704
0.04598
0.21627
0.21104
0.21812
0.33957
0.26026
0.00902
-0.14132
0.94962
0.14317
0.21551
-0.21829
0.21164
0.21238
0.32688
0.20986
0.23724
0.64666
0.13847
0.88846
1.15198
0.87169
-1.74587
-1.74353
-1.74367
1.94747
0.13982
-1.73883
0.93241
-1.74915
-0.81911
0.11699
-2.31671
0.08867
0.28300
0.77454
-0.03851
-1.21369
0.97450
-1.79566
0.12947
-2.53897
1.07127
-0.84882
0.20604
0.60224
0.30826
-2.54839
1.01562
1.15786
0.59853
-1.46771
-0.31574
-0.22281
1.08627
0.17682
1.08298
1.12256
-2.57124
0.46670
-0.03840
-1.34615
-1.34590
-1.34595
0.27730
0.71819
0.06695
0.77624
-0.80091
-0.80080
-0.79840
-0.40591
0.46465
0.46914
0.62103
0.31652
-0.01621
0.15371
-1.69236
0.40628
1.27387
0.56876
0.62126
1.18112
0.54336
-1.38393
0.01995
-0.32359
-0.37510
1.31968
1.31691
0.53233
0.85934
0.56852
0.57865
-0.76995
1.65923
0.52918
0.26843
-1.08215
1.66521
-0.57824
0.67185
0.51007
-1.21543
-0.18889
-1.10199
-1.25214
-2.02008
0.74565
-1.10214
1.65107
-2.01459
0.41906
0.80313
0.99947
-0.17285
-2.01731
-0.16730
0.75764
1.50206
0.73659
-0.29676
0.75999
-2.01557
1.66063
-2.02785
0.73463
-2.02127
2.18797
0.66339
0.01025
-0.03407
-2.15429
1.40267
-0.15627
-0.05655
0.50323
0.48502
0.48521
0.48610
-0.43296
0.66669
0.86414
-0.04742
-0.04038
0.55163
-2.38740
-2.39476
-0.54131
1.23047
1.29953
0.37817
1.29900
0.38294
-2.24292
0.47980
0.53515
0.05649
0.05498
0.36417
0.59217
0.15700
0.43425
-0.83298
0.78991
0.05367
1.50344
-2.17750
-2.18046
1.43031
0.58232
-1.39429
0.29766
0.54114
-1.32274
0.35945
0.84972
0.05798
-0.55210
0.07644
-0.28860
0.63241
0.00672
-0.29058
0.63105
-0.29245
0.63152
-0.24798
0.62954
0.63113
0.63189
0.62895
-0.29250
-0.29342
0.35744
0.10359
-0.28436
-3.06100
-1.60270
-0.29552
-1.22126
0.04496
0.56612
0.51207
-0.29592
0.62323
-0.21392
0.62451
0.62741
-2.60277
-1.21694
-0.29559
-1.22169
0.62951
-0.29502
-1.10796
0.63495
-0.81377
0.07113
-2.04086
-0.82622
-0.56043
-2.01366
0.42872
0.73714
-2.02433
-0.17332
-0.20261
-0.94229
0.70017
0.72897
0.11049
-0.22695
0.69802
0.69836
-0.80082
-1.00628
-1.00540
0.38376
-0.84163
-0.84475
-0.85911
2.84683
0.54138
-2.79198
0.50206
0.06229
0.08129
-0.30242
0.67849
-2.10078
0.15377
0.33962
0.38589
-0.52693
-1.53357
-0.74778
0.29132
-0.93561
-2.46866
-2.46899
-0.20743
0.49405
0.27014
0.57843
-0.44502
0.83201
0.91271
-0.05224
0.83391
-1.04308
-0.32378
-0.87878
0.50419
0.58739
1.00420
1.00965
-1.76291
0.08173
1.00318
0.56905
0.06101
-0.83105
1.25757
1.36212
-1.03394
-0.15771
-0.41684
1.34411
-1.77342
0.07241
0.76690
-0.11039
0.41395
0.41150
-0.04830
0.42105
-0.52497
0.08277
0.45089
-2.32646
0.44420
0.07289
0.79378
0.09234
0.28108
0.14307
-0.43097
-0.28645
-0.21633
-3.03884
-0.13149
-0.24494
0.21652
0.13878
0.54167
-0.27743
0.62281
-0.75693
1.63778
-0.27412
0.63730
0.01320
0.63559
-2.10946
-0.27548
0.16300
0.32517
-3.03169
0.63593
1.35967
-0.36452
-0.72567
-0.18356
0.88736
0.88469
0.88517
0.02722
-1.73937
-1.73687
0.62681
0.05260
0.53541
0.12013
0.10737
0.54235
0.98480
0.10944
-0.22477
-0.93387
-0.11221
0.53647
-1.41506
-1.38181
-0.06210
-1.00107
-0.06918
-0.17920
-0.98353
0.53245
0.53244
-1.12540
1.25088
-0.04860
1.51612
0.53919
-0.30256
-0.90163
0.18492
0.46104
-0.45786
-0.09713
0.82785
0.03139
-0.09943
-0.10060
-0.09830
-0.09764
-0.26013
-0.46690
-1.22587
-2.26373
-1.85897
0.05687
1.23010
0.91560
0.53308
0.45810
0.17753
0.64914
0.45134
0.45458
0.45800
-1.38338
0.53578
-0.50173
0.41591
-1.38199
-1.29265
0.61617
0.33717
-0.88967
-0.25222
0.13001
0.22562
-2.05417
0.65153
-0.21213
0.04075
0.18627
0.19957
-3.10199
0.35125
0.48754
-0.77046
0.81377
0.10331
-0.62283
0.10477
-1.73624
0.99414
0.82421
0.29975
-1.91727
-1.91033
-1.92422
-1.91648
-1.47274
0.67607
-0.28133
0.53704
1.09290
0.24837
-1.55455
0.60045
0.60985
-0.31362
-1.21861
0.61280
0.59892
-3.06247
0.62391
-0.78068
-2.31454
0.61427
-0.36563
-2.13803
-0.13496
0.37249
-0.30045
0.56258
0.61639
-0.30726
0.61975
-0.29947
0.60860
0.60333
-0.30631
0.45633
-1.21189
-0.30764
0.32957
-0.08821
0.60085
-0.77611
0.82970
0.49540
1.28129
0.36264
0.96221
-1.38594
-0.43926
-0.97817
-1.82987
0.67047
0.05730
-0.06148
-0.90788
0.01977
0.49554
-0.72489
1.83298
-0.34598
-0.24932
-2.73637
0.70010
-2.66849
1.03499
1.02799
0.12694
0.04069
1.35215
0.10072
0.92215
-1.67796
0.57676
-0.80487
-1.23763
-1.06420
-0.59686
-1.13593
-0.15184
-1.13764
-0.35842
0.00046
-1.38432
0.05650
-1.24490
-0.26644
0.26470
0.41883
0.60566
1.68765
-0.16084
-1.08546
0.75135
0.76567
-2.00570
0.09984
-0.58736
0.69212
1.68550
0.68546
-1.07874
-1.07851
-0.44690
-0.15523
0.72785
-2.00295
0.07035
0.74883
-0.88239
0.54180
1.79682
-1.89274
0.05756
0.31968
0.16702
0.50368
-0.08323
0.27145
1.66103
1.54233
-0.07182
-1.36026
-1.35992
0.06596
-1.82514
-1.81894
1.81124
-1.84398
0.33302
-1.15438
0.05250
0.05224
-0.78616
1.28791
0.10701
0.80906
-0.38331
0.05605
-0.10512
-0.96549
0.27420
-0.09478
0.18257
0.81467
0.63727
0.80861
-0.07734
-0.11851
0.76442
0.75301
0.32088
1.06243
0.78674
-0.39851
1.86620
-0.01686
0.79189
0.55606
-0.07581
0.35337
0.78496
-1.13270
0.74864
0.79846
-0.13630
0.19635
0.79835
-0.17207
-0.12293
-0.12592
0.46094
2.81648
0.45700
0.11233
-0.02464
0.24968
-0.34154
0.06027
0.53933
-0.10248
-0.90516
-1.38590
0.52775
0.52764
-0.52459
-1.02863
0.41125
-0.97190
1.22397
-0.56692
0.46447
0.31932
0.23505
0.32177
0.32058
-2.63188
0.11388
0.60905
0.23090
-2.60075
0.98821
0.17806
1.53551
0.61938
0.61510
-2.15751
0.61346
-2.15619
0.16784
0.78862
-0.13623
0.61612
0.40982
1.00602
0.63551
-0.31156
-0.30984
0.61568
0.60872
0.88976
0.69714
0.48479
0.48477
-0.85644
-1.02811
0.86330
-1.31465
-1.38589
-0.80964
-0.05222
0.89955
-0.16891
-0.01292
-1.38751
0.25258
0.83222
1.33606
-2.85453
0.74839
-1.92581
-0.07949
0.66874
0.83320
-1.93444
0.82721
0.54766
-1.72672
0.05722
0.05722
0.05854
0.54726
-1.61783
0.14830
0.23477
1.21991
-1.38375
-1.59210
0.26412
-0.10748
-0.85237
-1.38268
0.29091
0.40170
-2.38642
0.13729
0.14852
0.18821
0.13979
0.14589
0.03308
0.14340
-2.61203
-0.77123
-0.03497
0.14362
-0.76971
0.15264
1.28315
-1.05740
0.05774
0.40023
-0.82543
0.05635
0.18873
-1.17013
0.42684
0.05782
-0.87917
0.96661
0.71473
0.96302
0.96607
0.03723
-0.35311
0.43807
0.53471
0.05848
-0.80929
-0.69567
0.16364
0.22893
0.22866
0.08484
-0.45120
0.53450
-3.32587
-0.08280
-0.29564
-1.79279
-1.80073
-1.78798
-1.79442
-1.79333
-0.87412
-0.58738
-1.19653
0.80700
0.03323
1.19982
1.89598
-1.45207
0.87352
1.51735
0.27891
-0.22878
1.60042
1.55484
0.44920
-0.36372
-0.14332
0.97832
-0.48452
-0.47493
-2.31752
1.37330
-2.32565
-1.38708
-1.99096
-0.14016
1.07489
0.11222
-0.08225
0.11397
0.11657
-0.06974
-1.81810
0.96020
-0.89258
0.63108
0.34123
0.65751
0.23730
0.47275
0.47942
-0.20938
0.48009
0.48002
0.47399
0.35863
-0.75532
-0.12427
0.02972
0.58928
0.47235
-1.37888
0.47210
-1.37884
0.47835
0.30599
-0.17625
-0.18277
0.38553
1.16713
0.20569
-0.61646
0.52699
0.52536
-0.39701
-0.39631
-1.79877
-1.79809
-0.87856
1.89753
-0.00202
1.09072
-1.38427
-0.41185
-0.33335
-0.48212
-0.33474
0.36903
0.37019
1.15130
0.41910
-0.10444
0.69643
-0.14468
0.54007
-0.03363
0.43210
-0.79806
0.05470
0.27797
-0.64380
0.56886
-0.99926
1.16983
-0.62965
-0.90380
0.24377
2.33746
1.43384
2.32384
1.97958
-0.60703
-0.11169
-1.67207
1.64271
1.08069
0.22136
0.92161
-0.55223
-1.10831
-0.38432
-0.75352
0.35300
0.16958
-1.47346
2.00756
0.54263
0.67657
0.10996
1.04029
-1.67053
0.40438
0.05777
0.26815
-0.34845
0.12352
0.14567
0.76803
0.77932
0.99073
0.72533
1.03636
-1.74164
-0.21273
-2.64216
1.94605
-0.05830
0.30837
-0.52938
-0.76084
1.00973
0.98659
0.05884
0.61196
0.40398
1.37019
-1.40326
-1.40527
0.66976
0.74518
0.09361
-0.21592
0.27259
0.03720
0.93591
0.53556
-1.35257
-1.35295
0.06167
0.18157
0.98728
-1.81661
0.95020
0.01263
0.94797
0.94828
-0.07817
0.95269
-1.82030
-1.32566
0.57419
0.54942
0.54137
-2.08962
1.47846
-1.28052
1.47387
0.51233
1.32577
-0.37263
-0.19034
0.21877
-0.44713
1.14520
0.22959
1.14036
1.15389
-0.05556
1.15183
1.14546
-1.34637
1.43024
-0.34512
-0.90944
0.02099
0.53864
0.00830
-0.17845
-2.33956
0.21999
-0.20630
-0.41139
0.54736
0.37191
1.46028
1.46131
-2.22993
1.46600
-1.30250
-2.22803
1.46106
0.68016
0.69784
-0.22719
0.21795
0.69902
-2.07638
0.53666
-0.22845
0.42299
-1.02018
0.54185
-1.38755
0.53821
0.53546
-1.18100
0.54753
0.35111
-1.10300
0.68411
-1.39484
-0.42247
0.81824
-1.32782
-1.32843
-1.32886
-1.33805
0.39716
-0.24848
0.15999
0.60472
-0.90590
-0.42250
0.89061
-2.25014
0.31844
0.36908
-0.09301
0.65517
0.65507
-0.26909
0.65670
-0.97444
0.01784
2.10049
-0.35767
-0.16822
0.52361
0.11698
-0.44406
-0.33531
0.68018
-0.24495
0.67876
0.37868
0.38179
0.41957
0.41982
0.53785
-2.12014
0.53804
-0.54315
-0.88250
1.35172
0.98876
0.90854
0.90701
-0.93991
0.05722
0.05803
0.05171
0.34561
1.05130
-0.54738
0.86053
0.38166
0.16768
-0.54609
0.27597
0.34676
0.90647
-1.85391
-0.01884
0.90791
0.91146
0.49912
-0.01186
-2.77448
0.91250
0.91448
-0.00854
0.00047
-0.00940
-0.00055
0.54166
-0.00832
-0.00677
-0.01758
-0.24454
-0.35944
-0.16660
-0.05890
-0.04533
0.92429
0.96532
1.26803
0.07265
0.87421
-0.00044
-0.02834
-1.02654
-0.24165
0.65485
0.65257
0.05725
0.61457
-0.12320
0.65675
-0.15439
0.53267
0.33707
0.65728
0.61207
0.61411
-0.31177
0.54041
-0.01917
-0.44552
-0.07740
-1.96611
0.34068
-0.59865
-1.36815
0.32711
0.51849
0.54499
-1.38645
0.81483
-1.38250
-0.03294
-0.42136
-0.76157
0.69679
-1.07736
-0.21323
1.07716
0.03232
-0.13844
-1.07737
0.05917
-1.35554
0.54084
0.54096
-0.09990
0.51522
0.19082
-0.64991
-1.54800
-1.54437
2.14599
-1.54574
-1.54567
-1.54804
1.77641
-1.91745
-1.92183
-0.99880
0.85953
-1.91485
0.54709
0.85603
1.02351
-0.02935
1.39520
-0.44754
-2.28921
1.39838
0.01666
0.84762
-0.98781
-0.50175
-0.99470
-0.99845
-0.22428
-1.37902
-1.38306
0.53448
-1.07721
0.71307
-0.69596
0.70823
-2.05481
-0.92430
0.48593
0.52982
0.52972
-0.39706
-0.34284
0.81194
-0.21380
-0.08967
-1.85735
0.91265
-0.69079
-0.19569
-0.36520
0.03186
0.54342
0.02901
-1.88566
1.80520
-2.43803
-2.44345
-0.26118
-1.00780
0.98087
0.32576
-1.03014
-2.27075
1.24425
-2.45053
1.23650
1.23514
-2.43049
-1.51696
-1.51072
1.09142
-1.53057
0.33277
-2.43707
-2.43963
0.24949
-1.51972
-1.52316
-2.43321
0.16092
-0.53499
-2.10585
0.05326
-0.43299
-0.42293
-1.11820
0.47000
0.41511
0.52098
-2.25923
-0.51280
-1.48968
0.42106
1.55640
-1.66920
0.24435
0.31121
0.03940
-0.01191
1.70164
0.39692
-0.49660
-0.36620
0.05937
0.44899
-0.47293
-2.33128
0.07311
0.43457
-0.20619
0.43444
0.29204
1.48923
1.14532
1.53521
1.17810
1.18173
-1.59157
0.52766
0.52785
0.53996
-0.41917
0.76178
0.33865
0.24024
-1.36230
-0.91477
0.47275
-1.35094
-1.36752
1.26437
-1.36920
0.91526
0.28841
-1.38013
-1.35144
0.89535
-0.84355
-2.20345
1.05376
1.45563
0.05478
-1.27694
0.50554
-1.29705
0.55225
1.45757
1.40760
1.02024
0.57549
-0.37335
0.55923
-0.37870
1.46684
0.86388
-0.74347
1.46821
-1.29831
0.51325
-0.41322
0.33363
-2.13185
-0.90939
-0.37883
-0.42218
-1.35421
-1.35404
0.05733
-0.07241
0.52433
0.52482
0.52466
-0.42520
-0.77881
-0.23881
-1.33494
0.05844
0.22967
0.35407
-0.14954
-0.52606
1.09677
1.20285
-2.49102
0.15572
0.91838
0.87454
-0.76425
-0.37607
-2.84328
0.86765
-0.14589
1.12398
1.12922
1.12154
0.97206
-2.17925
0.65831
0.66265
-2.11020
0.62576
-0.12422
0.55508
0.30037
1.41790
0.44602
0.56314
0.56685
-3.12385
-1.00024
1.76229
-0.53874
-1.22891
0.45991
-1.79843
-1.80784
-1.80467
-1.81117
0.63314
-1.80677
2.35966
0.12659
1.04470
0.93866
0.86683
-0.64944
-0.82166
0.05174
-0.24072
-1.84505
0.94993
0.33668
-1.16868
0.53746
-2.20046
0.05547
0.56434
0.56413
0.60003
0.56201
1.27795
0.35730
1.58939
0.57808
0.32006
0.53562
0.05704
-0.22733
0.62425
-1.81426
-1.81253
-1.85853
0.19944
-0.02235
0.89312
-0.03330
0.81177
-1.83073
0.73949
0.80940
0.37058
0.81351
0.22965
-0.03742
-0.06148
-1.85241
0.81010
-0.12080
0.51319
-1.74390
0.75815
0.71124
0.09949
0.04637
-0.16213
0.05587
0.12630
0.06530
0.03649
-2.73255
0.01077
-1.82119
-0.89510
-1.38735
0.01725
-0.15943
0.02549
-2.75184
-0.90577
0.26378
1.17796
-0.88610
-2.44715
1.04422
0.26767
0.14636
0.33078
1.01473
-1.86078
0.93265
1.12809
-1.54553
1.24091
-1.37417
-2.42259
-2.45587
1.01628
-0.13516
-0.42292
-0.26281
-0.30765
0.07775
-0.60146
0.41508
-0.36081
-0.96341
0.45970
0.44396
-2.51316
-0.45114
-1.73538
0.83500
-1.73318
-1.73290
-1.73941
0.84205
-1.73301
0.78246
0.30736
0.26290
-0.82878
0.02022
0.53676
-0.34653
-0.42296
-1.38245
0.53664
0.17030
-0.36056
-0.06241
0.89740
0.05757
-0.01311
0.54044
0.27719
0.47830
-1.29292
0.39504
0.40338
0.41100
-0.56024
1.34259
-0.10335
-0.24140
0.19822
-0.16006
0.22263
0.22597
0.07168
2.82493
-0.30456
-0.11153
0.57222
-0.54815
-1.38738
-0.20409
0.49793
0.49269
-0.42914
-0.42730
0.50459
0.49397
0.06186
0.64813
0.49925
-0.04464
0.50401
-0.23710
0.56941
-0.23726
2.52898
0.05619
0.20990
0.55053
0.78883
0.50102
0.78099
0.11124
0.90418
1.12315
-0.57675
0.06296
0.34515
1.37386
0.45356
0.45059
-2.32293
0.19134
-0.42935
0.53508
0.01658
0.12322
1.12670
0.11308
-0.38435
0.14568
1.13364
0.12156
0.09024
-2.69934
0.68168
0.70736
-0.20119
-0.21931
-0.99451
-1.13045
-0.72199
-0.22904
0.70654
0.53560
-0.51550
-0.49536
0.84289
-1.11177
-1.80900
-0.31088
0.11654
-0.30887
0.65278
-0.35974
0.45573
-0.22560
-0.48183
0.55247
0.07593
-0.13797
-0.41983
0.44051
0.30479
0.41811
-0.25938
-0.48096
-0.47787
0.12266
0.11513
-0.47327
0.43966
-1.38857
-0.23021
0.43758
0.44390
0.43541
-0.47224
-0.18995
-1.58829
0.26600
0.06297
0.47649
0.26758
0.09615
0.70154
0.68181
0.45846
-0.43042
0.53831
-0.40993
-0.27101
0.65818
-2.11380
0.65316
-1.18798
0.54358
0.43664
0.21619
-0.96797
0.86907
0.69519
0.88679
-2.81163
-0.04181
0.87944
-1.25219
-0.55040
-0.14073
0.78461
-1.78257
0.98843
0.85079
0.07586
-2.18491
-2.56455
-0.25680
0.88660
0.38375
0.38328
0.72360
-1.38713
-3.68842
0.13818
0.11393
0.03672
-1.31994
-0.01465
-0.39171
0.53557
-0.71563
1.73929
1.74162
0.76706
-1.66852
-0.11466
-0.04129
1.84917
-1.63126
0.91626
0.53939
0.65024
-2.43277
-0.34492
0.24588
-1.45693
-0.03257
-0.09783
1.54243
-0.19701
0.09164
-0.30378
0.91222
0.97544
0.96988
0.75136
-2.78064
-1.05955
-0.12056
-0.16509
-0.16959
-0.43726
0.48479
-1.37120
0.11688
0.50652
-1.34992
-0.20080
0.49074
0.42654
-0.83466
0.59695
-0.39019
0.22901
-0.96743
0.02470
-1.89037
0.86486
0.94083
0.92697
1.35294
0.03346
0.93143
-0.05279
0.23756
0.94237
0.78772
0.54413
0.72018
-0.23105
-0.08198
0.60425
0.64384
0.54598
-0.48532
-0.93170
0.13084
-0.30146
0.97805
0.10865
1.25396
0.33686
1.25552
1.25510
0.35794
0.32853
1.25582
0.33685
1.10615
0.48601
-1.51053
1.25553
-1.59717
0.33144
0.15662
0.46051
-0.11659
0.05720
0.05720
-0.88194
-1.85803
-1.86429
-1.78449
0.88521
-1.48249
1.82760
-1.85876
-1.85540
-0.59459
0.90361
-1.86254
0.20389
0.54333
0.35942
-1.47108
0.33212
0.61058
-0.30806
-0.19516
-1.23411
-0.23629
1.27011
0.38139
0.14946
-1.01152
-0.25589
-0.80176
1.26599
-2.43710
1.26481
-0.66369
-1.78873
-0.87698
-2.72033
1.22927
1.50043
-0.13665
0.59059
1.04550
0.32283
0.67487
-0.32688
-0.41608
0.59168
0.27868
0.58313
-0.64356
0.58727
0.59601
-0.28652
-1.18612
-2.68263
-0.05952
-3.75187
-0.97594
-0.30806
-0.73690
-0.07892
-0.24393
-1.68072
1.08945
-1.68325
-0.75792
0.41903
1.82947
-1.86428
-0.94292
0.13357
0.23623
0.65091
-2.11212
-3.04271
-0.27097
-0.27203
-0.44222
-0.33471
0.64980
0.42058
0.68998
0.16260
0.53721
-0.07726
-0.10756
-0.74193
0.18022
0.06207
-1.38761
-1.84403
-0.36572
0.14477
-2.64883
-0.79804
0.09872
0.12946
1.06756
0.08780
0.16849
0.87193
0.14893
-2.53801
-1.67674
1.08870
0.76226
0.76503
-0.16043
-1.35738
-1.35647
0.54565
0.43615
0.64027
0.53287
0.53277
0.43656
-0.00523
-0.55061
0.39644
-1.43984
0.16087
0.04612
0.54563
0.45365
0.01183
-0.49449
0.05578
0.05576
0.52875
0.54271
-0.25385
0.63399
-0.13328
0.61902
1.33396
0.19222
-1.02172
-1.13651
-0.10806
0.85501
0.74720
1.06236
-0.06034
0.79839
-0.12663
-1.34225
-0.07659
-0.42664
-1.38531
0.37263
0.54081
0.06027
2.03137
2.02236
-0.36231
-0.53091
0.06033
0.55636
0.53565
-0.42313
-2.70915
-0.64149
-1.56746
0.33926
1.20609
1.20791
0.05360
2.93892
0.10943
0.97752
0.42089
0.05704
0.56421
0.99770
-0.66295
0.62345
0.72969
0.63433
-1.21186
-0.25739
0.68965
-1.15918
0.86736
-1.16257
0.68719
-2.84014
0.02718
0.32920
-2.43347
-0.11423
-0.51945
0.18324
0.33418
-0.82723
-0.15062
0.77432
0.05975
-0.37195
0.53493
0.10429
0.05953
0.98348
-0.30482
-3.08086
-0.29383
-0.21066
-3.09194
0.56103
0.05758
-0.42230
0.47482
1.40001
-2.28899
0.47551
-0.91956
0.92747
0.92337
0.04119
-0.30626
-2.15897
0.00891
0.06202
0.75426
-2.09839
0.75910
-0.90615
0.60601
0.75403
0.75770
0.66288
-0.16996
0.75982
0.53803
0.53660
0.80131
0.53707
-0.40004
-0.14126
0.78354
0.05959
0.76855
-0.14057
0.77142
-1.06250
0.84576
0.77564
-2.89321
0.34702
-0.20000
-0.26247
0.46240
-0.13764
-0.37905
0.04079
0.06655
-0.14244
0.78222
-1.76627
0.08396
-0.84063
1.39924
0.08927
0.37990
0.18788
0.99584
1.79240
1.28519
1.28948
-0.17276
0.13993
-2.39309
0.05297
0.26236
0.31413
0.22385
0.31545
-0.62394
-1.54965
1.09383
0.17109
1.21021
1.10579
0.05693
-1.56262
1.83146
-1.87167
-0.92803
0.89384
1.81659
1.70297
1.82937
-1.85960
1.21417
-1.84165
-1.86349
1.83049
-1.85753
1.83879
-1.84835
-1.85798
-1.84846
-1.85861
0.92120
-1.85886
0.05957
-0.93236
-1.48881
-1.85362
0.90137
-0.01258
-1.85685
-1.85413
-1.85610
-0.93437
-1.86160
-1.86068
-1.31071
0.07304
0.05117
-0.97056
2.73775
0.68071
0.47027
-0.24307
-2.71786
-0.26239
0.79370
-0.06442
-0.82893
0.40427
0.66389
0.68034
-1.16189
-0.23791
-0.24826
0.17700
0.58816
0.68195
-0.24843
0.09310
-2.99799
-0.24871
-0.23229
0.67791
0.68885
0.52784
0.67144
0.68851
-0.53494
0.39563
0.25251
0.26503
0.40652
0.68167
0.66934
0.05883
-2.07705
0.67878
0.69142
-2.99543
0.67775
0.54514
-0.35254
0.67239
0.68070
0.68288
-0.24412
0.59482
0.67484
-2.98925
0.66228
-0.24065
-0.29365
0.54024
0.67853
-1.14795
-3.00933
-0.00188
0.04802
0.67750
0.66931
0.67615
0.16009
-1.15356
0.67298
0.68586
-2.07168
-3.00109
-2.11367
0.54172
0.19030
-0.78667
-1.90385
-1.14872
-1.15124
-0.24415
0.79172
-1.03482
1.61195
0.68519
1.15093
-1.12566
1.01357
0.01797
-0.81390
0.30729
0.41631
-1.38082
-0.32335
-2.50325
-2.50977
1.11897
1.15139
1.00788
0.25362
-0.57160
-0.83333
-1.76723
0.95852
1.93545
-1.76227
-1.77293
0.99477
1.94317
-1.73293
-0.83941
-0.83614
-1.63715
-1.76053
-1.75975
-1.76029
-1.76479
-1.12742
1.00989
-1.76172
-1.76560
-0.83773
-1.76437
-0.83301
0.05617
-1.76264
-1.75984
-1.76171
-1.76136
-2.54145
0.92441
0.04593
-0.12264
-0.12237
0.78810
-0.20835
0.66189
-0.36416
0.66342
-0.32270
0.77817
-0.14730
0.05684
-0.07627
1.21733
-0.21102
1.19548
1.34559
0.63148
0.50272
-0.62608
0.52736
1.63540
0.71793
1.56030
0.86598
0.05905
0.38591
-0.12815
-1.78102
0.99150
-1.82123
1.56886
0.50580
-0.21067
0.16001
0.66683
0.90575
0.03965
-0.86789
-0.51807
0.52804
-0.60127
2.89492
0.06285
-1.78437
-0.39993
-0.07064
-0.18048
0.90532
0.58004
0.36486
0.62635
0.68903
0.00997
0.20409
0.05692
-0.81723
-1.87319
0.89965
0.95865
0.95593
0.13279
0.51433
0.04487
-1.67549
0.05813
0.54320
0.22048
-0.99848
0.76348
0.14196
0.05232
-0.78552
0.53046
0.53043
0.06286
-0.79764
0.49362
0.84793
-1.69718
0.55884
-0.03132
0.48196
0.85880
0.30022
1.21392
-1.56329
-1.56400
2.14694
-1.56143
-1.56241
0.84612
-1.56193
-1.56533
-1.55932
-0.65144
-1.56333
-1.56118
-1.56358
-0.63810
-1.56118
-1.56387
-0.60905
-1.56395
1.85615
0.01691
-0.74825
-0.06933
0.28483
1.32118
-1.31956
-0.52528
0.20037
-0.51388
-0.08930
-0.33101
-0.18945
0.19715
-0.63387
0.03968
-0.01932
-0.01604
-0.32754
-0.14013
-0.01757
-0.90960
-0.09098
1.13105
0.21109
-2.41359
1.12605
-0.73220
-0.64966
1.13183
-0.07580
1.38087
0.54905
-1.23156
1.13691
-1.48027
0.21393
0.18597
-1.54031
0.31025
-1.35180
-0.61954
1.23451
-1.53553
-1.54235
0.46514
0.22523
-0.90616
-1.41580
-0.29394
-0.34027
0.22868
0.01366
-0.63260
0.64612
0.65883
-1.78726
-0.81735
0.03378
0.69021
-1.80439
-2.74315
0.26893
-0.20878
-0.40813
0.37610
-0.40897
0.76242
-1.69470
0.65449
0.15674
-1.58057
-1.67812
-0.76283
-1.38275
-2.35552
-2.36368
-0.37656
0.34598
-0.08681
2.20393
-0.58299
-0.59056
0.63995
-0.04678
0.05895
0.54925
0.11118
0.26032
-0.67100
-0.11820
0.56680
-3.18951
0.48391
-2.26870
0.09613
0.37655
-0.42122
0.04198
-0.02708
0.88670
-2.79478
0.52981
0.85514
0.71065
0.01983
0.49749
-0.31230
0.21681
-1.31592
-0.38388
0.34517
0.93850
0.02803
0.17566
0.02563
0.13147
-0.42515
-0.15767
0.53962
1.10230
-1.67020
0.17703
0.20193
1.10243
0.53474
0.53571
0.87584
0.21123
0.54223
0.60771
-2.00951
-2.01030
0.62195
-1.35921
-1.36004
0.07073
0.83318
-0.21707
0.03821
0.54206
-0.02687
0.26127
0.53252
-0.25830
0.40263
-1.38709
-1.38700
-2.35169
-0.23993
0.02334
0.38390
0.07350
-0.54663
-2.50621
1.19666
-2.51284
1.19179
-0.65959
1.18457
-0.08247
0.36325
-1.49347
-0.56424
0.15783
0.36385
0.36042
0.36001
0.35868
0.36086
-0.57126
0.32304
0.36627
0.36347
-0.79934
0.35758
-0.56503
0.41858
0.48717
0.49356
0.50627
0.34016
-0.41030
-2.27306
1.39712
0.48128
0.48566
0.47624
0.49709
0.70563
-0.32985
0.99005
0.48950
0.01963
-2.02541
-0.09411
1.39594
-2.24307
0.45190
-0.36776
1.40633
0.48401
-0.24039
1.40257
1.40008
-0.40310
0.32860
0.17016
1.40014
-1.09148
-2.26313
1.30898
0.05706
0.19906
-0.07579
0.89036
0.36371
0.53897
0.53902
0.53555
0.53566
-0.42065
0.98353
0.49427
0.07134
0.20128
0.40074
0.96868
0.49694
0.65385
0.53948
0.31105
-0.16151
2.61938
3.06074
-0.57122
-0.42708
-0.09693
1.01995
-0.34931
0.05454
0.09468
-0.48656
0.17247
0.54579
-1.74850
1.02067
-1.33023
-2.25431
0.98030
0.54163
0.19065
-2.24021
-2.24861
0.95606
-2.26436
1.42019
-1.34612
1.44562
0.05271
-2.23997
-1.89842
-2.25292
-2.25687
1.30077
0.80234
-0.61896
0.80748
0.72141
-2.87612
0.79645
0.79035
0.80166
0.51717
0.80250
-0.96177
-2.87287
-2.87720
-1.95529
-0.12519
0.81173
0.29611
0.85350
-0.05770
1.23760
-0.24517
-0.24285
-0.74794
0.54537
-0.82215
0.72530
0.73516
0.54204
0.38373
0.59236
0.89426
-0.07354
-1.20968
-1.20833
-1.20842
-1.21096
-0.28187
-1.21089
-1.21070
-1.89041
0.20828
0.70713
-2.26295
0.50139
1.42464
-0.36873
-1.38661
-1.38654
0.06048
-0.94732
-1.08464
-2.02431
-1.21921
0.38060
0.56615
-2.01773
-0.17500
1.93308
0.78514
-0.66710
0.09800
-1.51398
-1.51651
1.13185
-0.24762
-1.69938
0.15056
0.39078
0.35044
0.54216
0.98585
-1.68794
1.16936
-0.69659
-1.64820
1.98242
-1.62817
-1.63797
1.60809
1.13974
-1.63143
-1.62939
-1.02579
-1.63559
-0.71739
2.06048
-1.62521
0.20923
-1.62961
-1.62637
2.06949
-0.09890
-2.15225
0.50860
0.57767
0.53635
0.38341
2.11786
-0.45155
0.54767
0.25098
0.54287
-0.59935
0.02315
0.32784
0.32498
0.00639
-3.36384
0.32813
0.07301
0.49598
-0.15038
0.06100
0.41456
0.43126
0.42666
-0.50596
0.39636
0.41761
0.42220
-0.49461
0.43129
-0.49778
0.42062
-0.50708
0.42269
0.42215
0.42669
-0.60539
-0.42050
-0.50615
0.53529
0.42571
-0.50472
-0.42880
0.41781
0.03270
-2.36609
-1.43551
0.41003
-0.51992
1.16956
1.33519
-0.22107
0.17418
0.18159
-0.35247
0.16876
0.17260
-1.67900
0.16343
0.17358
0.16344
0.17531
0.16963
0.11730
-0.20222
-1.29421
-2.45949
-1.29407
0.35302
-1.18844
-0.28314
-1.29333
-1.29330
-1.29524
-1.29349
0.17034
2.06987
-1.56987
0.37191
0.07151
0.54469
0.55298
-2.20131
-3.13858
-2.24951
0.56623
0.06556
0.64553
0.17545
-0.14847
0.86386
0.30244
0.72031
0.50282
0.61998
0.20835
0.25279
-0.67256
-0.04552
-0.42241
-0.59607
0.45758
0.54222
0.05925
0.33510
-0.87714
-0.01825
0.32555
0.96437
0.25371
-0.69042
0.91877
-0.88058
-0.76470
0.21534
0.96816
0.08612
0.31225
-0.28306
-2.13619
0.16940
-0.13914
0.13457
-0.00388
0.13433
-0.28463
0.29071
-0.40521
0.05975
0.16299
1.93118
1.35044
-0.16171
-0.51074
0.77229
0.33662
0.31994
-0.13437
-0.59597
0.32767
0.03393
0.07218
0.95472
-0.26402
-2.11306
-2.03513
1.56307
1.56210
1.56584
0.05657
0.06135
0.53599
-0.44449
-0.36907
-2.22167
1.45881
0.77110
0.54019
0.04169
0.66688
0.00886
-0.12671
0.53357
-0.77787
0.53338
0.54122
0.01710
0.76856
0.73671
-0.05875
0.74180
0.53827
-2.24814
-2.16115
-0.42522
-2.27642
1.40474
0.61330
1.42456
-1.38606
-2.27250
1.41335
-2.26410
-2.23913
1.27392
-1.48265
-1.48330
-0.55744
-0.37539
0.36559
1.33750
0.23365
1.05059
0.23917
-1.22092
-0.68504
-1.61110
1.83738
-1.60845
-0.12174
1.47630
-0.67728
-1.60024
1.03050
1.07701
-0.58932
-1.66785
-0.74065
-1.66744
-1.66722
0.16825
-0.74291
0.48762
0.30837
-1.39428
1.38103
-1.07989
-1.32692
1.43930
-1.38834
-1.35835
-1.35837
0.24845
0.21524
-0.11010
0.60567
-0.05947
0.92560
0.42481
1.35243
1.35568
0.53800
0.53670
0.57217
-0.42547
0.49717
0.49702
0.49772
0.49665
0.48517
0.49600
-0.28028
1.03901
-2.58795
0.87164
-2.58721
-2.61737
-2.58301
0.98806
0.47331
-2.58475
1.00123
1.03897
-2.61856
1.03463
0.47729
0.28530
-2.62368
0.05696
1.06414
-0.48339
-1.70543
1.04867
-1.35226
-0.69460
1.05490
-1.65201
1.05522
-2.09275
-0.03921
1.04706
-1.69008
-2.53435
0.99851
0.84978
0.05132
1.06735
1.04163
0.02827
1.04437
-0.51619
0.63988
1.05572
-0.93985
0.31297
0.53075
0.50342
-0.03488
1.18302
1.18806
1.16480
1.17059
1.18169
0.18345
0.26785
1.15528
0.29982
1.16915
0.90338
-1.52295
-0.82907
-1.52683
0.28756
0.67753
1.18666
0.38764
0.46426
0.46241
0.46378
0.53783
0.05768
0.15796
-0.25419
-0.90531
-1.56396
1.65856
0.16798
-1.93830
-1.92212
0.82434
-1.84673
0.71106
-0.13752
1.13402
1.25382
0.79373
1.00594
-1.03887
-0.42914
0.53661
-0.31174
0.05220
0.05173
0.05151
0.21469
-0.78361
1.06592
-1.38439
-0.16194
0.26515
0.32000
-1.59688
-0.67222
-1.59864
-1.59511
-1.59745
-1.59736
-1.59541
-1.59578
-0.67022
-1.60077
2.10024
-1.38294
-0.67651
-0.13890
0.55184
0.53829
-2.00947
0.69574
-0.02126
0.24215
-0.24766
-2.49975
-1.60292
1.15569
1.05956
0.08696
-0.68575
1.15512
-0.66759
-2.51475
-2.50758
-0.87209
-2.50880
-2.41708
0.00491
0.24576
0.23241
-0.67459
1.14328
1.14498
1.11369
1.34389
1.34731
1.34057
1.33903
1.34656
-2.34638
1.33556
0.41941
-2.21579
0.14325
1.32250
-1.88060
-0.04635
-0.01909
-0.38674
0.45751
0.47310
-1.38005
-0.41249
-0.93023
0.54716
1.40325
-0.16674
-0.89868
-0.29169
-1.77321
0.88201
0.52151
-0.48362
-0.48298
-0.48510
-0.02179
-0.48150
-0.01422
-0.06098
0.35009
0.44176
-0.10738
0.23057
-1.38292
0.24115
-1.38213
0.09859
0.22290
-2.16732
1.51299
0.42779
1.50991
-1.24533
-2.16984
-2.16916
-1.25693
1.51923
1.50861
-0.71890
-0.66226
0.19431
0.05188
0.05187
-1.42980
1.17018
-2.12892
-2.13174
-2.13412
-0.28013
-0.21727
-2.13721
-2.12900
-2.13053
-0.22121
1.62416
-2.07078
0.71223
-2.62904
-0.86031
-0.59874
0.32294
0.32266
0.08983
0.32712
0.32881
0.43463
-1.71211
0.53661
-0.09526
-0.37738
0.82731
-0.39860
-0.32143
0.96100
0.06689
-1.07109
0.80384
0.23705
0.94182
-0.66263
-1.54089
0.37486
1.22514
-2.46668
1.22940
0.32072
0.17850
0.73925
0.05787
1.03363
0.16690
1.03776
0.11127
-1.72422
1.03320
-2.64995
0.11496
-1.81765
0.10515
0.11284
1.33319
0.02539
0.29265
-0.81446
-0.65121
0.38861
0.66040
0.11379
-1.63261
-2.07019
-2.09962
0.03708
0.13002
0.64123
-0.88541
-0.05683
1.06745
0.38472
-1.38505
0.63176
0.53556
-1.20313
-1.45720
-2.13154
1.55113
0.58367
-1.21129
1.55291
-0.36371
0.57940
0.24200
1.55995
-0.52361
0.13759
1.98352
-1.71423
-1.71305
-1.70874
-1.70837
1.98260
-1.71559
1.98812
-1.71412
-1.71291
-1.71228
1.98776
-1.71182
-1.71399
-0.78865
-0.78727
-0.73236
-2.59020
0.17754
-0.63490
0.17504
-0.74119
-0.52814
-0.05114
0.94698
0.16380
0.84044
1.08565
1.08861
0.09325
0.74207
0.80609
-0.15894
-1.64472
-1.86872
-1.86650
-1.88071
1.80481
0.15451
0.56824
0.10007
0.00560
0.50940
0.56668
0.92140
0.90568
0.91165
-0.25257
0.01540
-2.65573
0.91961
0.90472
-0.02094
0.89719
0.89512
0.27376
-2.50205
0.89726
-2.78024
-0.02547
0.89587
0.91247
0.86709
-0.02219
-0.00083
-2.78296
0.14547
-0.88461
1.18364
-0.57991
0.11696
-0.66577
-0.40524
-0.82108
-2.24041
-0.39943
-2.24440
-0.39882
-0.60615
-0.34550
0.57794
-0.72375
-1.52906
-0.52373
-0.29241
-2.46204
1.24662
-2.46019
-0.14325
-0.35480
-0.94441
-1.87092
-0.97751
-0.94535
0.41978
0.05966
-2.12041
1.48653
-0.54212
1.04383
1.12024
0.56934
-1.43050
0.69697
0.44905
-0.25341
-0.13497
-0.93377
-2.46291
0.32055
0.16635
0.31850
0.05784
1.08388
-0.76395
0.17711
0.54066
-2.41278
-3.34812
-0.05478
0.59331
0.32620
0.34163
-1.03243
0.88150
-1.40568
0.54243
-0.41928
0.68708
0.86303
0.89437
0.28079
0.05643
-2.69645
0.10089
0.05460
0.54694
1.60646
0.16907
0.18024
1.99438
0.09623
0.02679
0.37938
0.38287
-0.39751
-0.08645
0.80785
-0.67723
1.23052
-0.58606
-0.84846
0.57982
-0.06276
-0.98551
0.01486
0.16675
0.02187
0.53988
0.05369
0.48595
-0.86177
-0.08439
1.03927
-1.09278
1.03868
0.53735
0.45988
0.32495
0.75157
1.28628
-1.50664
0.34641
-1.50526
-1.50667
0.06080
-0.70486
-0.65358
-2.51906
-0.77381
-0.85712
0.01264
-0.31368
-0.85364
0.50560
0.21308
0.73689
-1.51387
-0.31260
0.41194
0.05742
-1.75949
-0.62179
-2.66509
-0.58569
-2.68695
0.68403
0.09988
1.00742
1.01112
0.21848
0.09601
-1.01078
0.04206
-1.41366
-0.90241
-1.00592
0.69525
-1.67030
-1.67820
1.04355
0.20598
1.41423
0.17217
0.78396
-0.41115
0.52912
0.05822
0.53758
0.24272
-1.38868
0.53605
-0.21525
0.06043
0.09010
-1.75629
1.01338
-1.75947
-1.35244
-1.35266
-1.38409
0.20610
0.30673
-2.38723
-1.48529
-1.48072
0.95912
-2.85626
0.24903
0.00700
-1.38484
0.27119
-0.36875
1.93552
-0.01570
0.54606
0.25255
0.00839
-1.69934
-1.43297
-0.78271
-2.53423
1.15902
0.08063
-0.97345
0.28982
0.36852
-0.24960
-2.23484
-2.65396
1.03431
0.70986
-1.71818
0.05546
-1.01540
-1.36113
0.81942
0.42557
-0.52534
-1.00111
-1.95414
0.58401
-1.93364
-1.60221
0.61773
-1.72695
-1.95021
1.73340
1.42928
-1.33091
-1.92678
1.75471
-0.46842
0.72734
-1.00574
0.81824
0.33188
0.46231
-0.80380
-1.95283
1.71749
1.74415
-1.36104
-0.10374
0.83262
-1.94142
0.74667
-1.95375
-0.30892
-1.95190
-1.93476
-1.93392
-1.94191
-1.94059
-1.94339
1.74358
-1.01770
-1.95254
-1.92582
-1.93494
-1.92932
-1.94458
1.75650
-1.92513
-1.76165
1.73862
-0.74698
0.07202
-1.52787
0.72562
0.86289
0.53167
-1.93132
0.43585
0.62813
0.80539
0.84825
-1.94517
-1.95497
1.73927
-2.54730
0.19560
-2.95532
0.75183
-2.94579
-0.40668
0.73037
-0.02444
0.11401
-0.19850
-0.16957
0.73344
0.72741
-0.34727
-2.36381
0.83505
0.90638
0.13238
-0.31374
-2.16294
-0.24525
-0.33779
-0.32940
-0.69165
-0.31476
-0.36370
-0.75322
-0.90137
1.84709
1.78347
0.95289
-0.89032
0.93048
0.93599
-0.90577
0.01617
-0.00915
1.86807
-1.82562
1.85561
1.85788
-0.90006
0.94530
-1.81674
-2.05068
0.72232
-0.14941
-2.03634
0.72294
-2.82544
0.17853
0.72783
-2.94811
0.68938
0.76526
-0.19138
0.70790
0.70709
0.41777
0.33761
0.43785
0.71470
0.70249
0.71374
0.43387
0.54324
-0.20532
0.33818
0.70594
-2.02561
0.88691
-2.69343
0.71023
0.70460
0.69993
0.89619
-1.87370
-0.31674
0.61032
-0.31344
0.60918
0.60592
-0.25921
1.53213
-2.16551
-2.16361
0.72338
0.76496
1.11766
0.70185
-1.57062
0.79715
1.20288
0.27832
-2.49023
-0.65683
-2.49298
0.64916
0.36809
0.32720
0.18769
0.32587
0.74903
-1.52363
1.24840
0.32429
0.53207
0.45060
-1.63823
-0.56123
-1.62348
0.17628
0.05704
-0.05513
-1.87277
0.78339
-0.02894
-0.13579
-1.03408
-1.16824
-1.16737
0.05630
-1.30765
0.52712
0.00090
0.73342
-0.35318
0.28304
-0.31731
-0.81250
-1.74340
-1.50318
-1.46842
-0.98806
0.32826
-2.29715
0.45988
0.46410
1.20205
-2.29885
-0.42254
0.53281
-1.38582
-0.01731
-0.02606
0.71293
0.76501
0.01904
-0.58427
-0.06639
0.62293
-0.25716
0.44563
0.69083
0.05704
-0.16849
0.75312
0.44373
-0.16522
-0.36987
0.76306
0.75241
0.75773
-0.15862
0.75501
0.54208
-0.13753
-2.92884
0.03057
0.05385
-0.01247
0.06032
0.53504
0.53576
-0.02041
-1.72243
-1.71914
1.05497
-0.79709
-1.82212
-0.05195
0.78539
-0.89294
-1.38786
0.53753
0.31532
0.81948
-0.76249
-1.37787
0.52260
0.95366
-2.38924
-2.73144
0.32136
0.98452
-0.13904
1.07795
0.54055
-0.07074
0.10037
0.05629
-1.81898
0.03408
0.02913
0.03036
-1.56614
0.58486
0.04759
0.03945
0.57013
0.57006
0.57333
0.53187
0.50951
-0.13691
0.26724
0.29156
0.05221
0.31013
-2.44935
-0.14307
0.71708
1.23839
-2.28769
1.39293
0.46753
0.47696
-2.28897
-0.62572
0.65661
-0.48972
-0.33572
-0.86282
-0.49986
0.39215
0.39819
0.31373
-0.16016
-0.02859
0.48704
0.42946
-3.26247
-1.43692
-0.71800
-0.06715
0.42654
0.42937
-2.35301
-0.54128
0.39969
-0.52146
-0.50123
0.40481
0.12805
-2.28116
-2.45648
0.65536
0.29836
0.25587
0.55743
-0.38395
-0.00264
0.43316
-0.14722
0.29051
0.39925
-0.27427
-0.29675
0.41266
-1.16694
0.41783
-0.51805
0.40954
0.40712
-0.89762
0.40813
1.22891
0.16410
0.33658
-0.48876
0.06142
0.30769
-2.50023
0.27419
0.09824
0.27741
0.33177
0.10414
0.82693
-1.02033
0.83236
0.24298
0.82507
0.82394
-0.06915
-1.00473
-0.09381
0.82157
0.83009
0.62475
-2.86149
0.82507
0.97675
-1.93678
0.36611
0.05945
0.40917
0.32496
0.05703
0.05703
0.20426
1.23461
0.92373
-2.12959
0.54111
0.78190
-0.14354
0.67582
0.07139
0.16220
0.32045
0.23068
0.30251
1.31226
-0.67510
0.26539
1.18815
-1.57822
1.18672
-1.57820
0.53533
-0.20196
0.12975
0.68566
-0.28543
0.20949
1.04375
-0.42463
-0.53439
0.50394
0.55722
0.05274
-0.00429
0.54217
-0.20882
-0.56029
1.49992
1.59129
-2.09776
0.66719
0.15781
-1.16777
0.79021
0.28506
0.27660
-0.57566
0.27501
0.27667
-3.41245
0.27149
0.59230
0.27858
0.27703
0.27412
0.28130
0.26948
0.42561
0.25405
-0.40706
0.27080
0.26898
-0.63817
0.27342
-0.07775
0.29352
0.26802
0.27751
-0.64372
0.26268
-0.63483
-0.78805
0.27411
0.28082
0.25839
0.28235
-0.14027
0.06786
0.19984
-1.61566
-0.88245
-0.61217
0.86259
-0.20566
1.68907
0.50352
-0.60469
-0.16713
0.76021
0.75384
-0.17123
0.13817
-0.69421
-1.56151
0.23335
-1.70932
1.98615
-1.71323
0.53479
-1.94127
-0.18010
-1.92520
0.83218
-1.55246
0.40593
1.48251
0.56977
-2.21386
-2.21144
-2.21715
-1.28721
0.27891
-0.13526
0.79007
-1.61351
-1.67526
1.08380
1.99349
0.05294
0.31496
1.50418
0.77930
-0.49789
-0.70353
0.15955
0.53574
0.80500
1.57758
-2.11792
-1.18025
-2.11364
-2.23897
-0.27998
-0.35085
0.51085
-1.55655
-2.11705
-2.10768
-2.11082
-1.98423
-1.42165
-0.40051
0.19578
0.55705
0.33228
0.57659
0.73577
-1.38560
0.54308
-0.67888
1.53040
-1.25193
-0.26892
0.01724
1.53569
0.05841
-0.51606
0.23500
-0.42070
0.05154
-1.20038
0.28460
-0.16386
2.28362
-1.57884
0.24138
1.19692
-0.65386
0.05581
0.53951
0.34323
0.33709
0.33768
0.22065
0.27590
-0.13868
0.24483
0.19732
-1.83493
-0.11063
0.94098
3.01531
-1.23955
1.34193
0.53810
0.90241
0.64037
-0.01871
0.90293
-0.01706
-2.79111
0.31236
0.72493
0.72778
0.80130
0.71989
0.72676
0.71965
-0.18495
-0.98217
-0.19789
-2.03357
-1.90132
1.77548
-0.34760
0.01307
0.53566
-1.38287
1.08314
0.07856
-0.85055
-1.49582
-1.35818
-1.35801
0.54545
-0.40639
0.13713
-0.51707
-0.79286
0.13612
-1.71696
-1.71395
-1.58229
-1.71476
0.13179
1.05639
-1.71603
-1.71761
-0.79437
-1.71092
0.04043
-0.79332
1.05604
0.33412
-1.03543
0.23161
-0.28428
0.05653
-0.14049
-0.21460
0.69267
-0.89222
-0.37436
0.23462
0.37744
-0.58611
0.06225
0.99027
-0.85267
0.69759
0.99702
-0.02372
0.06727
0.90367
0.89948
-0.24347
-3.42402
0.22233
-0.52990
0.09187
0.22680
-0.76423
-0.82945
-1.19066
-2.08358
1.56524
-1.16700
-2.35361
-1.00101
-1.78544
0.53619
-0.51924
0.26981
-0.96473
1.99677
-0.27803
0.92509
-2.12383
-0.28349
-2.12578
1.56226
-0.24050
-0.28159
0.64417
-1.21282
-0.08907
0.83559
0.83261
-0.04424
-0.06546
1.05027
2.25644
-0.90175
-2.45008
1.23555
1.23535
-0.69378
-2.19082
0.61103
0.47923
0.53702
0.53243
0.39007
0.42220
-0.73655
0.20061
0.46206
-0.39285
-0.34205
-2.12375
-0.83191
-1.20998
0.06149
-0.30014
0.53675
0.56614
-0.30112
-0.60072
-0.50143
-1.12048
1.08807
1.09021
1.01817
1.06913
0.16498
-0.44881
0.05932
-1.35153
-1.35560
-1.35481
-0.15767
0.51077
-1.34707
-1.35178
-1.35425
-1.35163
-0.43304
-1.34047
-1.34184
-1.35344
-1.26266
-1.34678
-1.35284
0.50310
-1.35424
-1.34315
-1.34933
-1.25678
-1.34240
-1.34869
-1.34643
-1.34867
-1.35256
-0.42393
-1.35137
-1.34157
-1.35048
-0.25686
-1.35297
-1.00007
-1.34725
-1.34638
-1.34662
-1.34726
-1.35042
-1.34760
-0.48093
-1.35601
-1.03097
-1.35278
-1.35664
0.45057
-1.34224
-1.34725
-0.57054
-0.18099
-1.36040
-0.42642
0.93303
-1.35405
-1.22048
1.41863
-1.34935
-1.34796
-0.99978
-1.35105
-1.34853
-1.35466
-1.35516
-1.34515
-0.03199
2.35107
-1.34237
-1.35529
-1.35936
-1.34650
-1.35007
-1.21564
2.35239
-1.43253
-1.34414
0.96576
-1.34643
-1.35468
-1.35561
-1.41416
-1.34900
-1.05357
-0.42855
0.38410
-1.34906
-1.35554
-1.36013
0.50397
-1.34500
-1.34850
-1.35701
-0.56577
-1.35684
0.27166
-1.35313
-1.35872
-1.54579
-0.07214
-0.52410
0.39443
0.53695
0.31452
0.02679
0.20399
1.07134
0.44075
-0.12193
0.05715
0.31604
0.66953
-0.13295
0.47253
0.54019
-1.38299
-0.47204
-1.05665
-0.17410
1.78501
0.53766
-0.05072
-0.08079
0.53352
0.56314
0.15039
-1.53600
-2.16245
-1.28757
0.06175
0.52812
-1.34089
0.74164
-0.02661
-1.52740
-0.68450
1.38481
-0.74928
-0.86789
0.91083
1.44326
-0.12245
-0.49318
-1.38497
-0.13906
0.06700
-0.75455
0.22577
0.15969
-1.28531
0.11530
0.63929
0.21599
-1.37692
0.26817
-2.02828
-1.21837
-1.48904
-1.32190
-1.13606
-0.18483
-0.45389
0.53918
1.10927
0.53323
0.53599
-0.52862
0.79253
-0.90833
-1.25024
-0.90100
-0.19753
0.62351
0.67336
-0.31957
-1.00984
-0.85532
-0.16025
-1.02444
-1.38513
-1.16113
-0.46835
-0.53538
-2.60690
-0.46556
0.27763
-0.37062
0.42884
-2.05844
0.00323
-0.90377
-1.95328
-0.86329
-0.82871
0.09400
0.71172
-1.38731
0.57442
0.18069
0.53878
0.53162
0.57293
0.55338
0.36392
-0.42271
0.46021
0.30554
0.60455
0.54128
-1.92122
1.06653
-0.08705
-0.76657
0.66914
0.40668
-0.08427
0.86224
0.07200
0.34999
-0.90278
1.80073
0.90333
0.53460
-0.57749
0.06055
0.26825
0.31270
0.78350
1.27391
0.29714
0.68233
-1.38717
0.39629
0.66016
0.05661
0.05602
-1.80409
-1.43721
0.29570
1.37371
0.53917
0.17347
-0.42821
-0.77001
-2.76011
0.88883
-0.23765
1.08372
0.06686
0.27245
-1.79466
-0.50677
0.04380
-0.18787
-0.37289
-1.05139
0.62900
0.53705
0.82023
0.35658
-1.18324
-1.38508
-0.67015
0.64681
0.28927
-0.19828
0.55423
0.53319
0.52736
0.58065
0.05766
0.68517
-0.20468
0.80705
0.74986
-0.22989
-1.39279
0.04479
-0.04515
-0.34721
-1.38086
-0.42692
0.04495
0.75792
2.26046
-0.81932
-0.82836
-0.95702
1.12856
-0.22802
1.12508
-1.30327
-0.31259
0.72859
-0.20319
-1.41471
0.67820
0.35588
-1.97229
0.17088
-1.08072
0.08651
0.53644
0.01310
0.20011
0.18664
2.07788
-0.01624
0.30433
1.03370
-0.87314
-1.38463
0.09753
0.82138
2.31278
1.01460
0.19415
0.04039
-0.04532
1.29090
-0.22552
-1.41774
0.16927
-2.37163
-0.11415
0.57433
0.41722
-1.00324
-0.69374
0.05756
0.33492
-0.18919
0.33017
-0.41709
-0.58666
-0.78866
-1.57462
-1.38401
0.08375
-1.43588
-1.13063
-0.14844
-0.05801
-0.86138
-0.42686
0.33959
0.53723
0.50296
0.65096
0.20003
0.12676
-0.14338
0.03623
0.49042
-0.70058
-1.48829
0.62603
-0.31542
0.08408
0.03317
0.54240
0.09673
0.54449
0.02547
-0.37363
0.12282
-1.88325
0.26800
-0.30051
-0.04267
0.57342
0.53735
0.73181
-1.34779
0.54000
0.53189
0.64894
0.05656
-0.96276
-0.05660
0.53751
0.27828
0.24236
-0.40743
0.95517
1.80002
-0.00354
0.53195
-0.90481
0.80102
-0.67525
-0.15608
0.54005
1.06408
-0.01201
0.05836
1.04566
1.11897
0.35710
-1.06252
0.90140
0.55488
0.05579
0.14483
-0.01024
0.27444
-0.65215
0.49523
-1.12268
0.39873
-0.11342
0.84253
0.69365
0.67218
-2.91158
2.97198
-0.86198
0.04114
-0.90376
-1.10571
0.82356
-0.03854
0.54528
0.88458
-0.08613
0.07400
-0.04180
0.22984
-1.36061
-0.17497
-0.11624
0.54584
0.37848
0.79838
0.73984
-1.35335
-0.91779
-0.23760
-0.50136
0.52995
0.81480
-0.86642
0.54146
-0.34223
-1.31747
-0.58225
-0.58991
1.88207
0.23062
0.05554
1.28916
-0.73663
0.32682
0.42912
0.79338
0.53928
-0.99841
-0.14600
-0.12952
0.05392
0.96651
-0.57537
-0.48722
-1.18706
0.53856
-0.42525
-1.14376
0.40799
-1.42944
0.31103
-1.58598
-0.00750
-1.17710
0.50362
0.43921
-0.90077
0.54761
-1.19322
1.91821
0.03082
0.85830
0.67748
1.46389
-0.71697
0.53813
0.53514
-0.42325
0.67804
-0.06893
-1.38242
-1.67534
0.67774
0.62038
-1.41125
-0.84257
0.05851
0.79981
0.53579
-0.02338
-1.35460
0.16314
-1.18283
0.59009
1.15622
-0.42052
-0.40898
-1.38916
0.11498
0.54005
-0.21945
0.54020
-1.03705
0.53659
-0.54805
0.98769
-1.79860
-0.41625
-0.57495
0.15938
-2.04494
-0.57094
0.53218
-0.04094
-0.70138
-0.74916
1.21443
0.91472
0.44053
0.54089
-1.14023
0.59527
0.53847
0.32495
0.75489
0.40737
-0.47364
-2.17880
0.56180
1.68696
-0.11504
0.23281
-0.63782
-0.20725
-0.11509
-0.26547
0.32647
-0.18493
-1.38853
-1.66816
2.41523
0.87040
0.83878
-1.86147
0.05771
-0.46464
1.54872
-2.87612
-1.97354
-1.69397
-1.54026
0.18539
-1.38060
-0.14636
-0.01176
-0.46829
0.69398
0.57282
0.79968
-0.96869
-0.00416
-0.91263
-1.60755
0.72038
-2.96694
1.09802
0.54206
-0.74255
-0.16995
0.32912
0.68956
1.01877
0.72607
-0.15698
0.06049
0.65979
0.85288
-0.51769
0.35493
0.70246
0.91721
0.05798
-0.26358
0.72186
-0.65443
0.26625
0.53347
-0.10402
1.29208
0.13986
-0.69719
0.26050
1.09328
-0.26227
0.50966
0.52630
-1.70541
-0.14542
0.28180
-0.72561
-0.20365
0.52165
0.73139
-0.46359
0.29616
0.34967
0.59164
0.39668
0.54459
-0.14110
-0.07751
-0.75011
-0.59722
0.05779
-0.93703
-1.47643
0.81344
-0.38026
1.01270
-1.38416
-0.22664
0.21597
2.41408
1.31062
0.10211
-1.04564
-1.88848
-0.34077
0.52537
-1.02569
-0.57745
-0.83198
-1.77079
1.11120
-0.86246
0.00526
0.10889
-0.27955
0.05760
0.88246
-1.38373
0.63520
0.08602
0.00049
-0.33062
-0.00797
0.57512
0.61042
1.41049
-0.36964
-2.11547
-0.32319
0.38551
0.60452
-0.69648
0.05411
0.49933
-1.03037
-1.69147
0.42779
1.47246
-1.34566
-0.21227
-0.56299
0.03855
1.75424
0.96116
-1.15673
-0.16244
0.02888
-1.38311
0.54951
-1.69999
-0.91393
-0.42618
0.02602
-0.28182
0.89429
0.57060
0.68182
0.53971
0.00125
-1.24270
1.40080
-0.80278
-1.79647
-0.79017
-0.02212
0.03763
0.41434
-0.14640
0.05761
-2.39436
0.52384
0.44475
1.35915
0.54544
-0.19581
-0.29827
0.71823
-0.63454
0.58503
-0.89539
0.70574
0.38544
-0.91692
0.19266
-0.15227
1.15197
-1.35410
-0.42313
0.40744
0.34981
-0.01731
-0.19861
0.53798
-1.26034
-1.36685
1.10802
0.89851
0.87095
0.14763
-0.96404
0.93446
-0.54600
0.77734
0.31159
-0.76863
-0.91350
-0.00860
0.10201
-1.42300
-0.17732
-1.50990
-2.00709
0.60515
-1.02465
0.65944
-0.28749
0.53229
-1.38658
0.46293
-0.27008
-1.55084
-1.28982
0.48900
-0.69898
-1.93291
0.12762
1.07321
-0.48083
-1.57084
-1.62882
0.58242
0.97242
0.15633
0.52358
0.54567
-0.26556
-0.45590
0.05762
0.05913
0.69640
-1.32612
0.30040
0.07076
-0.50254
0.48869
0.58627
0.70290
-0.68015
0.05612
-2.11913
0.47769
0.05549
0.40283
0.36823
-1.78907
-0.07912
-0.24143
0.92273
-2.00021
0.53427
0.23693
1.02600
-0.60929
0.69602
0.69483
-0.19826
0.37124
0.51233
0.21734
-0.50658
0.04396
0.05309
1.52446
-0.59958
-1.62850
1.35990
0.90346
0.04832
0.70424
-0.35222
0.64993
0.24075
0.09090
0.02410
0.92878
0.34103
-0.36750
-0.79148
0.27229
0.17020
-0.99820
0.45052
0.06150
0.54024
0.91759
0.53330
0.05661
0.32059
0.98909
-1.35456
1.11082
1.17392
0.84967
0.54306
-0.60939
0.53645
0.62222
0.22170
0.05256
0.55776
-0.12377
-0.86139
0.63457
-1.38713
0.53987
0.61006
-1.38852
0.50929
0.94766
-0.35083
-0.62841
0.39961
0.99622
0.56042
0.03137
-0.67070
-0.49149
-2.34272
-0.33272
0.53861
-0.14521
0.46936
1.76197
-0.27737
-1.38457
-0.90517
0.40101
0.05680
-0.90109
0.53715
0.80683
-0.90851
-0.00370
-0.56858
0.02601
-0.03111
-0.35971
0.86528
-1.68076
1.23183
-0.36174
-0.68837
-1.93193
0.53385
-0.78209
0.05653
0.86356
-0.18417
1.11390
-0.65610
-1.40975
-0.84525
-0.85864
0.06161
-0.96468
-0.79250
1.47020
0.05805
0.26881
0.67607
0.05383
0.53632
-0.90381
-1.38461
0.54769
0.60143
-1.69644
1.08720
0.64846
-0.27598
0.77138
0.09746
-0.52313
0.26997
0.45967
0.27541
0.58948
0.95675
0.97999
-0.39226
-1.38462
0.14488
1.14308
-1.38300
0.20726
0.99295
0.52776
1.72321
0.05689
0.52838
-0.11849
-0.82647
-0.11911
-1.38676
-1.13067
0.16548
0.90163
-1.38783
-0.28731
0.95438
-0.18944
0.66586
-0.07169
-1.57951
0.05628
0.06483
0.04767
0.54094
0.05562
-0.84745
-0.12142
0.79839
1.12022
-0.54676
-0.92355
-0.60295
-0.09895
-2.13084
0.33937
-0.32112
-0.72615
0.06365
0.99004
-0.90581
0.15807
-0.41366
0.60327
0.76925
0.48424
-0.38108
0.72300
-0.35108
0.55582
-0.91911
-0.85446
1.00562
0.94635
-1.38623
0.47229
-1.28041
-0.30278
-0.01853
-0.24375
0.28085
0.53558
0.13816
0.61576
-0.16658
-0.83394
0.69252
-0.90517
-2.27017
-1.44028
-1.04276
0.05631
0.07202
0.05527
-0.34921
0.39007
-2.72389
-0.03600
0.11295
-1.41690
0.05244
0.10712
-0.73318
-0.61844
-0.88859
0.48677
0.52604
0.53427
-0.47712
-0.08642
-1.43130
0.09441
0.53700
1.04876
-0.28054
0.29802
0.57475
0.51683
0.21773
0.52803
-0.81052
-0.25027
-0.46106
-2.46347
0.38985
0.13797
0.53379
-1.38296
0.54018
0.33915
0.52811
-0.69946
-2.14642
0.70830
0.78209
-0.42496
0.37721
-1.43842
1.54079
-1.95088
0.33602
-0.03600
0.47389
-0.90307
-0.42493
-0.20836
1.13761
0.40874
0.09440
-1.78543
1.17465
0.40057
0.55185
0.93067
2.01400
0.48378
0.38928
-0.24556
0.66545
-0.31425
0.08179
0.14217
0.05608
0.28818
-0.05204
-1.27078
0.15174
1.29400
-0.75864
0.12017
1.07824
-1.63756
0.39070
0.45702
0.53523
1.27279
-0.67964
-2.03038
-1.23989
0.66309
-1.38406
-1.62852
-1.38801
0.15204
0.81421
0.51221
-0.84640
1.06662
0.24239
0.05494
-1.42794
0.53482
0.82237
-1.19405
-0.78738
-0.35139
1.03589
-1.76609
-0.60710
-1.38745
1.01862
0.54116
-0.55529
0.46293
0.54566
0.47831
0.35528
0.22417
0.25812
-0.83662
0.87711
0.08335
0.53197
-0.82049
-0.14197
-0.03446
-1.08204
0.06084
-0.41421
1.47241
-0.40538
-1.27193
-0.27569
-0.94234
-1.07675
-0.18204
-0.70908
0.66516
-0.47002
0.70105
0.75689
-0.20506
-0.14926
0.54762
-0.10161
0.53568
-2.82036
0.86579
-1.39477
-0.38602
-1.41557
0.05678
0.19069
0.55050
-0.42223
-1.93657
-1.43145
0.05567
0.67961
-0.09011
0.71380
1.24132
0.24177
1.51887
-0.14621
0.67164
0.10755
1.01302
0.32021
0.20456
-0.05524
-0.59370
0.56374
0.55233
-1.84274
0.47997
-0.91227
0.01171
-1.87367
0.06237
0.16509
0.45955
-0.64421
0.50650
-0.27638
0.49864
0.54002
0.29701
0.05707
-0.61390
0.48764
0.18448
0.15596
0.28837
0.05829
1.24015
0.07182
0.09671
-0.19503
0.25412
0.66957
-0.99899
-0.60826
0.75491
0.84654
-0.19330
0.09474
-0.42447
-1.38805
0.87343
0.28578
0.11778
-1.78161
-1.59783
0.78105
-0.32449
-1.46596
0.71595
0.43256
0.91703
-0.06483
-0.11998
-1.95238
1.16443
0.53342
-0.40701
0.72185
0.39236
-0.08974
0.52510
0.27199
0.31408
-0.29652
-0.13311
-0.36433
1.15814
0.54056
0.93035
-0.11219
0.09410
0.41484
-0.44051
0.63270
0.85628
0.37832
0.53734
0.58951
0.39977
0.82990
0.17230
-1.27574
0.26892
0.08025
-2.15931
0.11200
-0.78057
0.36056
0.47835
-0.74357
-1.07968
0.21884
0.20019
-0.83965
0.53625
-0.13780
0.85968
-1.55879
0.13413
-0.73261
-2.40131
-0.27979
0.40998
-0.82546
0.12039
0.53152
0.36615
-0.44616
0.45062
0.52952
0.55641
0.97206
0.32241
0.05785
-0.20466
0.05691
-0.84855
0.53215
-0.64602
-0.74866
-0.19603
0.45748
-0.23354
1.09371
-0.24979
-0.68349
0.44995
1.27363
0.12683
1.20101
-0.79254
-0.04303
1.15261
-1.03157
-1.18483
-0.83862
0.96583
-0.14792
0.38221
-0.96690
0.53844
0.93888
-1.38290
-0.97992
0.99483
-0.01898
0.95368
0.29329
-1.41278
-1.00236
0.54269
0.78451
-0.31652
0.06840
0.42925
0.52966
0.39551
-2.18964
0.05830
0.53284
-1.47515
-0.57041
-1.11395
-0.06578
-1.65594
-2.70195
0.21172
1.75392
0.25755
2.27921
0.27371
0.72710
-1.38520
0.69170
0.53483
-1.07050
0.05377
-0.42430
3.53312
-0.17706
-0.73576
-0.01657
0.41237
-0.63678
0.09042
0.74940
0.28023
0.05436
1.09944
0.54072
0.05675
-2.28383
0.56020
0.05652
-0.42513
-0.38489
0.11705
1.01418
0.52016
0.29350
0.53762
-2.97331
0.46154
1.42583
0.27098
0.25790
0.98901
0.27170
-0.97166
-0.13932
-3.74634
0.03226
0.67075
-0.70162
0.20518
-0.27245
0.06114
0.80498
0.78117
0.54218
-1.20245
-0.74654
0.05718
1.69119
-0.81669
-0.26001
0.06293
-0.11460
1.16867
-1.88594
0.37112
0.09711
-0.54509
-0.61170
0.09022
0.61554
-2.35491
-0.10919
0.64282
-0.97754
-0.09715
0.10516
0.37974
0.24731
0.40675
0.27866
-0.07637
0.05727
-0.73881
-0.50251
0.16062
-0.28620
-0.93706
-0.51229
0.12918
-1.99755
-0.94477
-0.44673
0.46823
0.33036
-0.07312
0.05719
-0.83029
0.08103
0.56132
0.10339
-0.00551
0.05598
0.53228
0.42848
-0.09593
0.21447
0.03260
-1.90005
0.54501
0.83865
-0.35185
0.21434
-1.18992
0.93638
1.20996
-1.27805
-0.04389
1.13912
-0.89937
-0.10032
-1.20371
0.65392
-0.90281
-1.35317
0.89029
0.14597
-0.12919
0.29523
0.56467
-0.59731
-0.00038
-1.38776
-0.32600
-2.27045
-1.23041
0.44593
1.13412
0.05516
0.07230
0.52604
0.00293
0.54581
-0.54402
0.82832
-0.39477
0.66951
0.65110
0.19611
0.03096
-0.06912
0.54090
0.53993
0.23157
0.06299
0.41404
-0.67192
-1.41013
0.03620
0.27712
0.07656
0.14324
0.70361
-2.39151
0.66241
-1.38351
-0.32337
0.73874
-0.14297
0.66702
-0.36792
0.76322
-0.37922
0.05704
-0.69924
0.53668
0.53992
-0.42678
0.05876
0.20889
-2.18820
-0.42035
0.20741
-0.39142
0.05097
-1.89549
-1.66405
-0.02550
-0.36568
0.29420
0.19433
-0.05723
-0.39934
0.37408
0.33596
0.53361
-0.32334
-1.14919
-1.58757
-0.28026
1.12795
-0.29181
-0.41190
-0.46086
-1.38398
0.05363
0.90983
-0.68189
0.68275
-0.97220
1.27425
-0.19327
-1.03155
0.69367
0.80932
0.53348
-0.98995
-1.01036
-1.09778
-1.63432
1.09111
-0.54711
0.53681
-0.26818
0.67549
-1.15564
0.52761
0.80314
-0.92954
0.80082
-2.69015
1.15953
0.70026
-0.32860
0.96385
-1.48790
-0.00466
-1.09394
-2.89809
0.05930
0.61185
0.17885
0.84616
-0.42502
1.49834
0.53322
0.05480
0.61108
0.00666
-2.77142
-2.07501
0.46265
0.97962
0.57542
0.05436
0.92376
-1.37936
1.19775
0.74126
0.09408
0.98744
-0.55830
0.05754
0.05276
0.53966
0.06802
1.44817
1.34076
-0.43863
-0.46898
0.53545
0.41633
0.24292
-0.81846
0.20191
-1.07115
0.54203
0.29852
0.53738
-0.34554
-2.01161
-0.37606
-0.01506
-1.27471
-0.45576
-1.14009
-2.92642
-0.10566
-1.07351
0.65456
-1.07124
-1.29374
-0.42035
0.07126
-1.41145
0.79533
-1.48705
0.27486
-0.38064
0.95372
0.53765
1.37420
-1.71125
1.21108
0.53895
0.50347
-0.42196
0.57770
-0.01600
-0.48255
-0.81175
-2.02408
0.54450
0.55555
1.07894
-0.10030
0.45731
0.76615
-0.23649
0.60927
0.53781
0.36400
-0.90366
-0.73286
1.01197
0.53903
1.08109
-0.02535
0.59945
-1.38611
0.49206
0.26503
0.79123
-1.14681
0.94595
0.52326
0.53736
-0.67342
0.13569
-0.13736
-0.30241
1.23217
0.60814
-1.39046
-0.42417
1.16277
2.47029
-1.59695
0.27480
-0.08162
-3.17818
-0.78117
0.67224
-1.02508
-1.38759
-0.11534
0.42667
-1.38838
0.86432
-0.50363
-1.03578
0.59416
0.06209
-0.50204
-0.62343
3.54820
0.75987
-0.89708
-2.53229
0.48770
0.26356
0.42483
0.09131
-1.66584
-0.62699
-0.77081
0.78457
1.01386
-0.25061
0.66883
0.81168
-0.20074
1.08906
0.00621
-0.15282
1.23320
0.44035
-1.93795
-1.38546
-0.53255
0.58078
-2.02456
-1.00430
0.97142
0.59716
1.08897
0.01564
0.31853
-2.46172
-0.81954
0.52118
0.01752
0.17498
-0.93435
0.04787
-0.39756
-0.20769
1.27020
-0.85547
-3.03894
0.05444
-0.53483
-1.66288
-0.11642
-0.22704
-0.52416
0.68269
-1.88454
-0.17389
0.96174
0.05627
0.09133
0.85170
-0.04780
0.53499
0.74990
0.22814
0.77875
0.05767
0.15287
0.04529
0.05951
0.52838
-1.63233
-0.24053
0.25526
-1.01466
-0.84414
0.53577
0.06041
0.57930
1.84384
1.09711
0.43049
0.07817
-1.69988
-0.58242
0.53830
-0.24088
-0.16111
-1.24310
0.05331
1.68748
0.73306
-0.13022
0.18974
1.06557
-0.19716
0.82888
-0.54213
0.98017
0.05669
-0.76228
0.11342
1.00926
-1.35606
-0.90656
-0.82918
-0.88667
0.05589
-0.87425
0.53806
-0.10955
-1.38183
0.53959
0.29350
0.05368
-0.95165
-1.41711
-1.38641
-2.40521
-0.21863
0.27680
-1.95773
0.12746
0.52927
0.80080
-0.01542
-1.95006
-0.15636
-1.33338
-0.35343
-0.09637
-0.17882
0.06245
-0.68964
0.34459
-0.24582
0.18618
0.56301
-0.87263
0.41318
-0.83134
-0.51237
-0.15911
0.51745
-0.22894
0.54358
1.01939
0.05706
-2.59088
0.18405
-1.61946
0.05781
-2.53001
-0.82450
-0.54300
1.31227
-0.95784
2.21435
-0.27811
-0.42489
-1.38469
-0.76668
-0.55733
-0.70787
0.19725
-0.74991
0.45941
-2.10996
0.37854
0.05707
-0.19364
0.31269
-0.84071
0.06026
0.12013
0.54060
0.53989
-1.67816
-1.01672
0.47401
0.11893
-1.38265
0.53811
-0.80094
1.78119
0.15478
-1.08445
0.53509
0.36091
1.10664
0.50688
0.83163
1.05788
0.32490
-0.33235
1.57239
0.65485
-1.08338
1.51305
0.05269
0.86275
0.25347
0.05466
0.69285
0.05708
-0.08903
-0.90399
2.01185
0.27416
0.41757
-0.61752
-0.04994
-0.15172
0.54032
0.05659
0.57445
0.46928
0.06137
-1.59338
0.53347
0.30506
0.89402
1.56194
-0.61452
0.23259
0.83844
-1.08501
0.67265
0.33359
-1.31245
0.56150
0.29121
0.79462
-1.19672
-1.02053
0.54086
-0.76153
-0.49293
-0.99749
0.26894
-1.04509
0.74926
-0.51353
0.89107
0.53990
0.24815
1.13578
-0.44991
-1.34298
0.52761
0.34760
-1.38491
0.53256
-1.52053
-2.20894
0.76257
0.42932
0.06268
-1.54884
-1.10030
-1.05265
0.35717
-2.29318
-0.16621
0.53613
0.75159
-0.07344
1.02980
0.09842
-0.40250
0.53755
0.12422
0.34681
-0.74925
-0.48169
-1.71956
0.94932
0.53998
-1.38764
0.03271
0.91538
-1.41170
0.52364
0.50968
-0.99526
-0.20709
1.05368
0.21235
-0.57462
0.05761
0.37846
0.26449
-1.80575
0.35032
-0.10204
-0.45705
0.09891
0.12526
-0.58274
1.01438
-0.50367
0.53946
-1.14865
-0.56690
-0.43358
0.20815
-0.27819
-1.69547
-0.05853
-0.90722
-0.21696
0.48989
0.54322
0.66476
0.54755
-1.40285
-0.43409
-2.52729
-1.67082
-0.06081
0.37539
1.46137
-0.35162
0.05479
-1.35011
1.70783
0.62100
0.51726
-0.05047
-1.31101
0.92791
-2.01658
0.51851
-0.02963
0.53819
2.11648
0.06367
0.49741
0.53337
-2.49773
1.07944
-1.57638
0.74080
0.61313
0.83425
0.74155
1.04482
-2.39065
0.79562
0.80624
-0.28987
0.39388
-0.93142
-0.27309
-1.50362
0.72584
0.42831
0.09039
0.57361
0.39848
-0.59383
-0.40276
0.98159
0.52364
-0.79491
0.44110
2.00446
-0.49491
-1.71427
0.78128
-0.11236
0.98749
-1.43842
0.46879
0.67226
-0.34318
-0.34044
-0.30723
0.01344
0.31067
-0.24267
0.52507
-0.02741
-0.80681
-0.02296
1.39934
0.05379
1.00888
0.71337
-1.72118
0.37540
0.21213
1.15256
-1.38619
-0.24579
-0.14946
0.63082
0.55538
-0.15340
0.37339
0.46898
0.36065
0.47693
0.34210
1.01631
0.32251
0.85924
0.42769
0.16213
1.52187
0.09564
1.03720
0.79893
0.67378
-1.31631
-1.37843
0.17214
-2.57022
0.51246
-0.29057
1.08988
0.19107
0.80103
-1.39820
-1.62437
-2.66857
1.14751
-1.48302
0.84292
-1.87597
0.22139
-1.65088
-0.93761
0.55132
-0.27939
-0.03671
-1.23506
-1.17479
0.42453
1.01162
-0.07304
-0.33612
1.39048
-0.11474
-0.85360
0.97966
2.41837
0.92025
-2.26436
-0.24128
0.24108
-0.17137
-0.71068
0.50780
-1.49882
0.64909
0.57097
0.68543
0.84725
1.23239
1.58127
0.81993
-3.07658
-2.69359
0.80648
0.90450
0.32794
0.78658
-2.02583
1.22867
0.57922
0.24046
0.89385
0.20366
-0.12464
0.82188
2.17308
-1.24636
0.57420
-0.22101
0.31211
-1.58475
0.53440
0.27489
0.47857
-0.25848
1.39335
0.53381
0.43027
-0.83449
0.55855
-2.26336
0.37756
0.52723
-0.89264
-1.28614
0.71956
1.93209
0.40811
-1.16004
-0.99806
0.89837
0.70121
1.01118
0.81800
0.18696
0.10461
0.24674
1.09305
0.48441
1.13478
-1.62525
0.16966
0.07080
0.31878
-0.07439
0.83048
0.57526
0.30321
1.13591
0.56950
-0.04396
-2.65386
-0.40025
-1.82284
0.07062
0.97586
-0.09971
1.43545
0.93660
0.30843
1.96462
0.72950
0.35762
-1.20833
0.44738
0.54618
0.01149
0.78746
-0.22974
1.22580
1.68085
0.07896
1.60557
-1.21434
-0.79183
-1.59477
-1.22139
0.44833
-0.82572
0.00636
0.07490
0.24629
-0.97005
-0.28115
0.13271
1.15803
-0.56086
0.49163
0.67525
-0.60626
-2.30483
0.57938
-0.58651
0.51705
0.07618
0.98575
0.37288
-0.30469
0.92354
-0.43807
0.93420
1.43810
-0.78457
0.16202
0.52611
-0.17503
0.76635
0.08482
0.40985
0.16836
-0.32137
0.07061
0.04815
-0.06861
-0.79666
-0.45125
-0.62928
0.33858
-2.56274
0.71140
-0.22435
0.94566
1.32671
0.24633
-1.23259
0.53998
0.24385
0.77024
0.41387
0.57348
-2.75167
1.03663
0.06781
0.79326
0.27102
0.49762
-1.81426
-2.55306
0.75219
0.60954
0.21619
-0.08620
-1.85538
0.23866
0.76356
0.50274
-2.56119
1.09694
0.09206
-1.85951
-0.85565
-2.95709
0.67459
-0.20546
0.09500
-0.52072
-0.07954
0.91850
-2.04655
0.07851
-0.37298
-1.23680
-0.17351
-0.45466
1.13778
-0.51818
0.77395
0.07974
-3.24067
0.14713
1.85375
-1.40270
0.60340
0.06116
0.71266
-1.40546
0.13378
0.35738
-2.13161
-0.16866
0.48495
0.46958
-0.93081
0.00784
-0.18333
0.46730
0.04375
-0.44278
1.01366
1.10539
-0.52225
1.30377
-0.02063
0.45767
0.06359
-2.61433
-1.04157
0.59299
-0.52180
0.11096
-0.93377
-0.79715
0.71295
0.12643
0.35969
0.79878
-2.57457
0.53136
-0.10588
-0.33112
-0.55089
0.59777
0.38931
-0.57250
0.35516
2.01558
0.99399
-1.68245
-0.66272
0.42714
0.63676
-1.12389
-3.01314
-0.03086
-1.00504
0.41769
-0.99073
-0.14267
0.41446
-0.41971
-2.52660
-0.90502
0.95490
0.09942
0.39976
0.33751
0.47647
-0.90216
0.49362
-0.61331
0.71504
0.37179
1.09324
0.62403
0.43528
-0.75718
-0.47619
0.53541
0.35398
0.38696
1.04476
0.51368
0.93718
1.09979
0.07169
-0.28527
0.04916
0.07253
0.34101
1.06321
-0.15202
-0.18791
1.18136
-0.16967
0.95491
0.83665
-0.02662
-1.36303
-2.47119
-1.72816
2.60909
0.57075
1.22229
0.67445
1.02695
-0.99132
1.11553
-1.75846
-0.98244
-1.03649
-0.83832
0.53718
-0.64881
-1.47782
1.24060
-1.28998
-1.02885
-0.79047
0.01244
-0.54686
0.42907
-0.87390
-0.09717
0.11918
0.54317
0.72362
0.74244
-0.09252
-2.37949
0.44585
1.60729
0.94009
-2.62873
-1.56618
-2.70179
1.08585
1.59659
-1.92409
-0.38102
0.89102
1.03856
-1.62683
0.01121
-0.21069
-2.65425
0.25815
0.27983
1.47885
0.88923
0.07077
0.74683
-0.78737
-0.11265
0.13886
0.47599
-1.90984
0.46837
-0.37420
0.28220
0.23450
-0.15523
0.68794
0.09740
0.55264
-0.89933
-1.07706
0.46136
1.73345
-0.35135
-2.74793
0.72771
0.43630
0.11812
-1.61531
-0.11658
-0.54866
0.32558
1.03197
-0.78287
0.43924
-0.23783
-0.00107
-2.46573
0.43565
-0.61445
0.07392
0.09948
3.37759
0.27673
-0.07941
0.39467
0.37148
-1.00486
0.20811
-1.64965
0.37281
-0.67934
0.74633
0.67558
0.80597
1.39187
1.11831
-1.32639
1.07897
0.63489
0.19579
-1.65633
0.72344
-0.09821
0.05262
-2.27520
0.97615
-1.48040
-0.13749
-3.13358
-0.75982
1.33971
0.39809
-0.03800
-0.72558
0.63984
0.40011
0.98068
-0.46038
-0.79162
-3.02741
0.05685
-0.31579
-0.82424
-0.08071
0.44018
-0.24448
1.28771
-2.66449
-0.00727
-0.60206
-0.15009
1.20988
-0.22753
-0.08141
-1.46182
0.83619
0.70808
0.55357
0.47578
-0.34039
1.76530
1.31001
-1.51600
0.83972
-1.52768
0.49549
1.22057
0.06567
-2.28348
0.61906
0.73496
1.34610
-1.65412
0.24013
-0.56537
0.58125
0.80167
-0.14245
0.21297
0.66691
-0.09377
0.23299
2.54570
-1.23139
-0.11606
0.36222
0.01471
1.53025
-0.17977
0.85298
-3.18302
-1.10147
-0.47074
0.37692
0.31715
-0.43580
1.21214
-1.48125
0.46688
0.21634
0.24269
-0.35389
-1.01250
1.09531
-0.86915
0.95518
-1.75117
-0.35407
1.11941
-2.02282
-0.46263
0.24227
0.19486
1.14619
-0.65734
-1.38313
1.72247
0.62888
-0.36303
-2.90894
0.99707
0.49352
0.69797
0.46113
-0.89398
0.35334
-0.24662
0.31903
0.33068
-0.06906
-0.67711
-0.49315
-0.91118
-0.14459
1.00155
0.87456
0.80817
-0.32106
-0.17935
1.55058
-2.18310
0.83980
0.28198
-1.35562
0.79238
-0.58220
-0.80046
-1.10859
1.38045
1.68441
0.77393
0.24834
-1.34880
0.04300
0.37893
0.81204
-0.44807
1.22531
0.21044
-0.38616
0.09990
-0.20899
1.44682
1.42995
0.97986
-0.01133
0.36899
0.63855
0.05203
-0.77540
-0.22975
0.12853
0.54627
0.77352
0.96209
-0.80659
0.35298
1.51870
-0.14779
1.13461
0.47028
-0.02935
-0.40762
0.05817
-2.28751
0.42918
0.57892
-0.44041
1.24203
0.53214
0.71935
0.78117
0.01706
-0.14492
0.88451
-1.52239
-0.63527
-0.43366
-0.28064
0.88117
0.07225
1.86683
-0.32735
0.28435
0.67282
0.59748
0.37950
0.00899
0.16152
0.77638
-1.02116
-0.24664
0.32894
0.10630
0.71532
0.76987
-0.65187
1.70113
0.55434
0.71301
-0.36815
0.85986
0.02751
-1.95398
-0.54268
-0.16066
-0.25841
0.81390
-1.25319
-1.16771
0.39695
1.35886
0.71015
0.55531
0.80264
1.14426
0.54814
0.14044
1.75711
1.93913
-0.63778
0.07065
0.27728
-1.20742
0.54856
1.11991
-1.38235
0.81121
0.79027
0.03628
0.09807
-2.47891
-1.36098
-0.94434
-0.43967
0.83024
-0.61224
-0.41346
1.12368
-0.15233
-0.24583
0.35563
-0.50206
1.07949
-0.16949
-0.99935
-0.35260
0.62476
1.20117
-0.46826
0.63198
0.37919
0.60116
0.79681
0.36594
0.47836
0.72882
0.14511
-0.53494
1.22538
-2.28377
-2.13122
0.24212
0.62067
-0.08238
-0.11266
0.28965
0.30036
0.89139
1.40086
-0.27914
-1.34670
0.06877
0.37927
0.64808
-0.74491
-1.20677
-0.12377
0.53195
-0.90785
-2.12465
0.75451
0.46163
0.20125
0.48601
0.01749
1.00421
-0.15638
-0.10197
0.33033
-0.03882
0.98901
-0.71290
0.61948
-0.34528
-0.01573
0.62173
-1.23565
0.71550
-2.60100
-1.19395
-1.07745
0.16958
-1.71700
0.10275
0.06877
0.03928
-0.27259
1.28208
0.55334
1.22186
0.66868
-0.26023
-0.26882
0.85186
0.43143
1.36716
0.96750
0.78178
1.44850
-0.72612
-0.31187
0.93252
-0.09431
-0.67448
-0.38437
-0.21370
-0.17523
-0.34397
0.06809
-1.80150
-1.53545
0.24160
0.31967
0.98183
-0.21197
0.91101
0.87248
0.09158
-0.27166
1.70334
-0.03206
0.89636
-0.90244
-0.62349
0.89145
-1.74690
0.51518
-0.74820
-1.00766
0.82114
0.45550
-0.45463
-1.58568
-1.75078
0.46855
0.82703
-2.07779
-0.15165
0.04681
-1.68458
1.48694
0.93160
0.33189
0.99593
-0.85599
0.88741
1.22721
0.94362
-1.15011
-1.88475
-0.54145
0.98948
1.07761
1.51281
1.07752
-0.43934
0.69618
0.74055
0.09485
0.67844
-1.54574
0.25115
0.08796
-0.01462
1.34212
-0.63751
0.20116
0.44955
0.71904
1.00180
0.98737
0.53011
-0.25901
-0.06204
-1.06199
0.05186
0.20903
1.11934
0.73201
0.17341
-0.14810
0.09777
-2.70895
-0.65225
0.85258
-2.75188
0.36741
2.69914
0.55493
-1.37895
0.68721
-1.38132
-0.24953
0.95261
1.08112
0.01376
-0.06652
-0.90097
0.40478
-1.61251
-0.04823
-0.82880
0.77741
-1.60237
-1.32121
-0.62636
0.94826
0.14713
1.09108
0.35707
-0.18395
-2.11738
-0.50640
0.79714
-2.13050
-1.82614
0.67510
0.81734
-0.65384
-0.13740
1.02282
-1.24928
0.21457
0.08519
0.04323
0.67292
0.33946
0.38292
0.05613
1.90964
-0.33142
0.81908
-1.11401
0.22814
0.67379
-1.42631
0.35633
-0.19038
-1.92041
0.77158
-1.37195
1.70539
1.44039
-0.68262
0.15721
-0.42608
-0.35544
0.44136
1.65262
-1.98136
0.45937
0.98927
0.29064
0.58030
0.70683
0.24036
-1.70592
-0.90915
-0.14625
-2.07535
-0.31458
0.20958
0.28434
1.32072
-0.93357
-0.34361
-0.82461
-0.83945
0.91655
0.00854
0.18134
-0.07013
-0.31823
-0.19332
-0.62066
0.43441
0.24122
-0.97686
-3.03978
0.02606
0.68408
0.29915
0.80445
1.76356
1.64775
0.52562
0.52900
-0.18452
-0.79393
0.41642
0.96428
0.47484
0.93994
0.19605
0.45741
-0.90211
0.74435
0.30938
0.86175
-0.15826
0.74939
-0.70013
0.83371
1.01718
0.85375
0.73400
0.66990
-1.42525
-0.73498
0.74528
0.55477
0.20249
-0.47268
0.76491
-0.07181
-3.03375
0.01354
0.08889
0.79975
0.47239
0.55734
1.21517
-1.10589
0.42917
0.37992
-0.69277
1.69756
0.66195
-0.60068
0.36738
1.25733
-1.62235
-0.18841
-0.79617
0.17699
0.31908
-0.02468
0.92824
0.14245
0.03003
1.02034
0.45839
-0.26218
0.07659
-0.01823
1.83440
-0.33960
-0.41692
0.82011
0.70108
0.96338
-0.04932
-0.80183
0.44897
0.02360
-1.36753
0.26345
-2.00367
0.43006
0.93767
1.15275
-0.15844
-0.01060
0.83184
0.09640
-1.55441
-2.17912
0.49184
-0.99571
-0.90991
0.46039
0.71746
0.82236
0.54874
-1.36673
0.41632
-1.20874
1.08438
-1.84129
1.42424
1.16421
0.53325
1.71128
1.58918
0.73647
0.24821
-1.24370
1.57895
1.35464
-0.47873
-0.29376
0.37926
-0.02651
-0.28332
1.10389
0.97668
0.20814
-0.62099
1.51431
-0.43653
-0.52222
0.31755
-0.33685
0.13517
0.45790
0.19275
-0.48548
1.05299
-0.09916
-2.80965
0.14027
0.89499
0.56094
0.22596
-0.65034
-0.47687
0.30973
2.64853
0.51717
1.04822
-0.12834
1.51470
0.98287
0.71761
0.64612
-0.04179
-1.73896
-1.41705
0.68870
0.06853
-0.67771
0.59361
0.01879
-1.49118
-0.19871
0.25993
-2.77543
-0.95151
0.48929
1.28134
-2.75067
1.62524
-0.59686
0.72047
-0.09655
0.59352
0.84245
0.77916
0.35298
-0.60481
0.27615
-0.04300
0.72793
0.73289
1.02596
0.59100
-1.08257
-0.06017
-3.11997
-0.90947
-0.55886
-0.11708
-0.38298
0.35790
-1.61960
0.36539
0.95456
-0.70737
-0.56843
-0.83313
2.34072
-1.45154
1.03946
0.77495
1.51040
2.44063
1.44330
-1.81934
-0.90921
-0.16925
0.71828
0.47657
-1.67825
1.57479
-0.88440
1.34553
0.86471
-0.90271
0.30446
0.45066
0.22939
0.42059
1.13821
0.36144
-1.47124
0.42759
0.26841
1.57081
-1.13149
0.98918
0.76897
-0.07116
1.34146
-1.03655
0.90455
0.45219
-1.92749
0.65749
-1.35959
0.06412
0.94865
0.22488
0.92721
0.54949
0.57489
-2.90683
0.05707
-0.95618
-0.08043
1.39559
0.37809
0.47714
-2.50856
1.89179
-0.03950
-0.68427
0.93127
0.76605
0.36742
-0.28514
-0.06065
-0.52814
0.57658
-1.02591
0.74474
0.66630
-0.02490
0.94231
0.80330
-0.29418
0.37952
-2.64628
-1.38814
-0.11052
0.52767
0.16008
1.45448
1.71920
0.88886
0.85011
0.53146
-0.14020
-0.69809
-1.65069
-2.60175
0.50492
0.03922
-0.10762
2.10554
-1.96168
0.03557
0.24659
-1.70908
-0.87046
0.73240
0.96252
1.43926
-0.01206
-0.77986
-2.41261
1.19898
-1.69832
0.79920
0.82255
1.69968
0.47839
1.06638
0.46357
0.33842
0.59146
0.98913
-1.37143
0.53706
-0.98908
0.38078
-0.12104
0.93426
0.32169
0.65886
1.01454
-2.57100
-0.15789
0.26244
0.05480
0.42951
0.71673
-0.02689
0.73450
-0.67757
0.66589
-1.86180
0.94889
-0.49692
1.08368
0.82118
-2.25462
0.44043
-0.81970
0.54529
-0.19625
-1.82008
0.56157
-0.69418
0.29224
0.42709
-0.10277
-0.08199
1.01840
-1.08032
1.42005
-1.11852
0.91044
-0.14850
0.78479
0.02965
2.13788
0.52682
-1.07295
0.05832
0.44539
-0.15396
0.95141
0.73088
-0.22862
-0.03508
0.35867
1.00100
0.45074
-1.18040
-1.51535
-0.45559
0.18033
-1.00209
0.35901
-1.35794
0.44264
0.20251
0.09055
1.31854
0.85490
0.42281
0.99742
0.46499
0.39441
0.90178
-0.76280
-1.01988
-0.24104
-0.37587
0.60949
-1.38567
1.31642
-0.14670
1.66930
1.42493
-0.20996
-1.58713
0.22551
1.16404
0.22411
1.47768
0.01509
1.04139
-0.91831
-2.36988
0.93218
-0.72259
-1.36543
0.39033
-0.56693
0.47849
0.37385
-0.90229
0.02622
-3.34830
-0.34398
-1.09015
0.70836
0.66300
0.07004
0.75779
-0.54759
0.86773
0.17062
-0.82872
-0.10891
0.92878
0.15153
-0.70780
0.27237
-2.21604
-0.33124
-0.95423
-0.15769
0.59050
-2.66925
-1.19326
0.00195
1.05968
0.99787
-0.45346
0.98134
-1.99183
-0.07069
0.21243
0.87245
0.54700
-1.35251
-2.75673
1.03933
0.43555
-0.73185
0.44752
0.35017
1.93557
-0.90411
-0.50915
0.68780
0.08084
-0.55586
2.24551
0.22675
-0.14548
2.41201
0.77582
0.98255
-1.57038
-0.11197
-1.07223
0.60793
-0.44992
0.47898
0.78057
0.44766
-0.15582
-1.68817
1.03564
0.09859
-0.63244
-0.53425
0.65016
1.21105
0.09670
0.65220
-1.19263
-0.98105
0.96363
-2.66137
1.14077
-0.68426
0.85367
1.11687
1.40456
0.67698
-0.80293
-0.92644
-0.93349
-1.04463
0.35055
1.07870
0.77967
-0.14726
-0.90486
-0.85415
0.18859
-0.20845
-2.79100
1.86082
-0.30229
1.36918
0.45449
0.27207
0.57660
-0.65048
-2.81713
-0.75273
-0.52377
1.12261
-0.29949
1.42519
-1.87287
0.42903
-0.05130
0.87839
0.98820
0.66183
0.97379
0.13499
-0.43464
1.49114
0.12948
0.33940
0.40131
-0.71046
0.30347
0.26875
-0.93086
-0.25518
1.18232
-0.56557
1.03269
0.89955
0.23040
-0.05092
-2.02657
-0.12741
-1.37979
1.55494
-2.61673
1.39137
1.27232
-2.29719
1.12844
-0.65088
-0.07949
0.06292
-0.93830
-0.01239
0.97094
0.22598
-0.28569
0.63936
-1.10293
-1.43117
0.08634
1.21995
0.81914
-1.34854
0.73346
0.38180
-0.05831
-0.51984
0.55186
-2.76173
-1.24459
0.65053
0.82292
1.44030
0.48388
0.30832
-0.23352
-1.40346
0.77044
0.81144
-1.21373
0.80392
-1.51379
-0.09146
-1.66560
0.82655
-0.70020
-0.08609
-2.11461
0.78494
-1.79367
-0.35672
0.24569
0.54115
1.11876
-1.85999
0.99994
-0.91373
-0.23530
-0.95072
0.47559
1.12601
-0.37752
0.48009
1.14723
1.43809
0.11962
-0.14676
0.46784
-0.55383
-0.83218
-0.41692
0.79671
0.62806
0.72973
0.02819
-0.08612
0.17090
0.82609
0.45568
-0.38758
1.32015
0.26462
-2.22939
1.19376
0.90345
-1.78961
-0.04962
1.00192
0.62423
1.08509
0.53898
-0.30057
0.44266
-1.38870
0.85698
1.04346
0.29989
-0.12891
0.57492
0.95925
1.17456
0.35467
-0.76407
-0.86304
-0.61809
1.61839
0.49371
-1.56003
-0.01459
0.73983
0.10379
-0.19693
0.09248
0.29565
1.40343
1.30624
0.58469
-0.34182
0.67400
-0.25010
0.33632
0.01375
0.38151
-0.88287
-0.15477
-0.60089
1.26179
0.24877
0.76365
0.93392
1.15035
-0.30479
-1.53610
-0.54451
-0.90148
0.53177
-0.90679
0.53621
-0.66680
0.83421
0.05025
0.50643
0.35815
-0.96492
1.03739
0.79875
0.48874
0.52335
1.01063
0.07624
-1.74751
1.93842
-3.03532
0.35579
-0.07396
1.18418
0.03044
0.24760
-0.20877
-0.55276
-0.11947
0.05209
-0.41749
1.09838
-2.04317
1.29282
0.67662
1.35484
0.15297
-0.45521
-0.22685
1.26861
-0.23597
-0.73340
0.42772
0.17389
0.40390
-0.53076
0.55399
-0.48722
-0.10870
0.50518
-0.00592
0.08058
0.47664
0.86517
-0.92084
0.81298
-0.10084
-0.00072
1.12662
0.04900
0.82619
0.68391
-2.32920
1.22259
-1.06688
0.60897
0.15544
0.36593
1.24844
1.25248
-0.52057
-0.21093
-0.22302
-0.00846
-1.06533
0.58313
0.26441
-0.43535
0.75926
-0.44649
0.81541
0.71077
-2.90900
-0.08374
1.07671
1.42456
0.98561
-1.40941
-0.78636
0.21278
0.41394
0.91600
-0.65441
0.57642
-0.25312
-0.40971
-0.27054
1.63050
1.28003
-2.46529
-0.83459
-0.56609
-0.45940
-0.61895
0.41992
-0.41465
0.21493
0.14465
-1.32233
0.17274
0.11417
-0.14415
1.05610
0.60316
0.67854
-1.56207
1.10139
-0.68055
0.28233
0.93202
-1.84551
1.15844
0.39596
0.24049
0.84497
-1.03879
0.91903
-0.25472
-0.08752
1.00404
0.21299
0.94488
0.46136
0.21579
1.01681
0.49742
0.63623
0.77659
0.79007
0.76852
-3.16251
-1.42589
1.55949
-1.29518
0.80620
0.06636
0.59469
0.01341
0.29952
-0.00283
-0.10733
0.24540
-0.68815
1.07502
0.48888
0.90145
0.09587
0.98709
0.10256
-0.36900
1.03593
0.89042
-0.43065
1.58005
-0.75317
-0.85496
1.19025
0.21140
0.38633
0.59105
0.67114
-0.69943
0.70977
0.23721
0.36099
1.28055
1.38469
-0.50408
0.08473
-0.55797
-0.49679
1.19287
0.97336
-2.82189
0.08769
-2.58005
-0.35914
1.69633
-1.57614
-0.17669
-0.84190
-0.27591
1.01630
-0.27108
-0.61681
0.44568
-0.11216
-0.43510
0.57779
-0.28920
-0.22416
-1.29584
-0.48634
-0.16666
-0.08089
0.77111
-0.35153
0.61978
-0.47809
0.30900
-0.02366
0.90984
-1.33539
0.24495
-0.06804
1.74139
0.57701
-0.65457
0.52761
2.87737
-2.04807
-3.14878
0.79407
-0.08154
2.16513
0.26877
-1.47211
-3.13853
1.92043
0.49627
1.39032
-0.63679
-1.66817
1.81093
1.18585
-0.19566
-0.56816
0.52509
2.33257
-0.07076
-0.13967
0.94679
-0.55879
0.43754
-2.32084
0.42581
0.66496
1.22251
1.03593
-0.66420
-0.28147
-1.25522
-1.46675
0.23746
-0.24664
0.45412
-1.82259
0.35524
1.31472
0.34833
-2.70106
1.21601
0.03141
0.60545
-1.63459
1.09953
-0.73096
0.84531
-0.91205
0.99060
0.57045
0.79511
-0.68378
-2.08590
0.68319
-0.02322
0.42991
1.50484
0.56608
-0.94175
-0.60237
-0.83055
0.98538
-0.85677
0.00244
0.60252
-0.44834
-0.04119
0.61701
0.36119
-0.43978
-0.33326
-1.48119
-1.87061
-0.30668
0.20901
0.79618
0.48853
-1.33686
0.19566
0.24733
-0.33387
1.11154
1.71070
0.36759
0.92552
-0.43486
-0.42617
-0.48412
0.74112
0.06066
-0.42496
0.90292
-0.35847
-1.31430
1.03991
1.20873
0.38571
0.58424
-0.35596
1.14013
0.70585
1.33553
-1.13926
0.10222
-0.28649
-0.62816
1.13846
0.11338
0.23579
-0.34069
0.51662
0.17591
0.48410
0.56889
-3.05912
0.81657
-0.50598
-1.43592
0.79107
-1.84558
0.77221
-0.25385
0.67391
-1.65239
0.30346
-1.05281
0.23095
-2.78562
-1.01320
-1.12993
0.17730
1.26128
0.79427
-1.11077
0.30213
0.35878
0.99400
0.57574
-2.05955
0.64286
1.12599
-0.31803
-0.86490
0.89226
1.16220
0.52811
-0.33491
0.64419
-0.89651
-1.10589
-0.10572
1.43515
0.79801
0.91722
0.59974
0.18424
0.88573
0.54742
-1.05180
0.68462
-2.00750
-0.19385
-1.38379
0.46569
1.50192
-0.05563
1.74100
0.88910
0.15854
-0.64790
0.44025
0.29665
0.54627
-1.50966
-0.97099
-0.51750
0.60212
0.00426
-1.13024
0.41892
0.44828
-0.19302
-0.68092
-0.19126
-0.10198
0.77153
0.84832
1.39576
-0.82635
-1.31879
-0.19477
-0.45170
0.91887
-2.09613
0.38279
-2.35610
-0.00123
0.90850
0.21234
0.08421
0.09743
-0.70857
-0.10150
0.92135
0.60766
-0.27118
0.42983
0.48884
-0.66133
-0.27142
1.00037
0.66061
0.73033
-1.50526
-0.54315
-0.74339
-2.78960
-0.26148
-2.61755
-0.62490
1.02202
0.99084
-0.03515
0.19646
0.12442
-0.94295
-1.11650
1.77410
1.10021
1.40911
0.48208
1.06827
-0.42609
-0.40197
0.03985
-3.18211
1.03777
1.04450
-1.27047
-0.44440
-0.64657
-1.12680
0.77118
0.17791
-0.58636
0.89586
-0.32749
-1.12543
-0.15628
0.05735
-0.11204
1.14855
-1.62970
0.09540
-0.32063
0.21334
1.79570
-0.44701
-1.84281
-0.72079
-0.31768
0.37894
-0.98138
-2.12877
0.22431
-1.24579
-0.24505
0.03447
1.00030
-2.56044
0.00600
-2.56299
-0.76228
0.48923
0.18831
-0.82402
-1.24320
0.75932
1.20359
-0.29750
-2.40462
0.67052
-1.03901
-0.46000
0.92594
0.54111
0.40475
-0.44966
0.06504
1.19223
0.29474
0.50578
0.26856
-2.84174
1.40363
-0.39622
0.83792
0.43927
-0.00717
1.76126
0.35400
-0.22797
0.32783
0.59199
1.34041
0.21618
-0.31439
0.30137
1.09133
0.77221
0.78209
-0.69325
0.74531
-2.31761
1.08259
1.57096
-0.02950
-1.03512
0.88746
-0.29451
0.78576
0.27407
-0.18927
0.09119
-2.98590
0.56927
1.13247
0.51399
-0.76777
1.03504
-0.04933
-1.51296
0.89081
-2.01879
-0.54839
0.62868
-0.31690
0.82027
1.38364
-0.13420
0.77326
1.14585
-0.67808
0.01285
0.15770
0.35978
1.08102
1.05907
1.57226
0.82361
0.28026
0.17754
-0.07982
-1.47635
0.56108
0.62454
-0.30388
1.91380
0.61768
-0.44269
1.21461
0.98484
0.37104
0.29241
1.19389
-2.03343
0.62526
1.03871
-1.27694
2.27204
1.29496
1.04718
-0.28439
0.80829
0.21225
-3.12952
-0.75144
-0.61159
1.45116
0.63714
0.03771
1.78727
-2.58746
0.21932
-1.20816
-0.33352
0.00615
-1.22306
-2.47380
0.58395
0.08588
0.82413
0.77400
0.11475
1.45421
0.82592
0.65400
1.52627
0.81499
0.71407
-0.24564
0.69716
-1.16554
1.13596
-3.29698
0.42718
-1.74056
-0.86316
-1.32210
-1.81702
0.69995
0.09963
0.04192
0.70244
0.57512
-0.27589
-1.92628
-0.83703
0.36305
0.55104
0.45200
0.83430
0.48078
-0.56441
0.81782
1.04957
0.59388
0.05485
0.19409
-0.00764
0.02042
0.09154
1.24934
-1.11056
-0.07117
1.34096
-0.08773
-1.21747
-0.15698
0.84036
-1.41818
-0.43552
0.95726
-1.83594
0.35771
-0.77078
-1.90376
0.01655
0.23270
1.05556
0.65343
-0.00763
0.27441
-0.35061
2.06240
0.44805
0.22944
0.95759
-0.59552
-0.41675
1.34418
-0.54951
0.26418
1.66083
0.75774
-1.12493
0.33497
0.63035
-0.25480
1.16504
-0.10953
-0.98108
-0.21260
1.60116
-0.84050
-2.69769
-0.31581
0.35154
0.01268
0.40112
1.21039
0.02171
0.53151
0.98032
-0.61838
0.60557
-2.05560
-0.04029
-0.59396
-0.70927
0.70525
-0.09889
1.10774
-1.40604
-0.12680
1.48971
0.21784
1.36992
0.29143
-1.87565
-0.89053
0.65665
0.38044
0.35979
-0.83400
0.04867
0.52843
-0.28093
0.57036
0.44868
0.59198
-2.52158
1.10082
0.36945
-0.75924
-1.04112
-1.21400
0.81409
1.14682
-1.07340
-0.78459
0.32879
-1.35331
1.00764
0.23290
0.45538
-1.35633
2.21970
-0.03628
0.93086
-1.75117
0.27716
0.36262
0.50188
0.79915
1.01059
0.79371
-0.96852
-0.71519
-0.25275
0.73481
0.79946
0.17935
0.49361
0.54529
0.63687
0.28924
0.88845
0.47766
0.75950
-1.00110
0.41792
0.21350
0.00405
0.12986
-0.24875
0.81626
0.84412
0.99070
0.57407
1.26724
0.80533
0.88838
-2.57604
0.53219
-0.02670
-0.46623
0.12759
-0.04595
0.28756
0.52703
0.30221
0.47967
-0.85248
0.08698
1.27217
-0.33513
0.05495
-0.76890
0.21664
0.66761
0.35241
-0.03893
1.39721
-1.09137
0.52853
0.73476
-1.69698
-0.61296
0.18290
-1.03178
1.12323
-0.08970
1.59987
0.54821
-3.21974
0.19874
1.31684
-0.83229
0.57369
-1.38194
-0.75769
-0.20640
-0.48967
-1.92479
0.27258
-0.68344
0.24054
-1.02544
0.79828
1.36704
-0.64929
1.01191
1.05655
0.37287
0.33651
1.21724
0.51936
0.36701
0.16882
-0.06622
0.76059
-1.69935
0.19050
0.87358
0.45872
0.35819
0.54761
0.05631
-0.45090
0.34478
1.09691
0.19470
0.07478
0.25971
-0.06409
-1.31155
0.61327
-0.44503
0.69205
0.22649
-3.00640
0.65536
1.70068
-0.36441
-0.42815
0.35856
0.11084
0.87575
-0.44965
-0.41360
3.18197
0.69012
0.29563
0.38651
0.67266
0.87322
0.73125
-0.38977
-0.16903
-0.96710
0.34054
0.42453
-0.33231
-0.82596
0.16257
-0.13749
-0.07300
0.85133
-0.13453
-0.39076
1.08124
-0.01528
0.43757
0.98634
-0.50781
0.96687
0.18048
0.83130
0.26115
-0.44106
0.29660
-2.25739
-1.11471
-0.17439
-0.45003
0.27491
-1.03198
0.93479
0.59623
-0.11775
-0.76475
1.03691
0.16162
-0.16070
-0.98050
-0.00038
0.39805
1.44987
0.76491
-0.06541
1.47429
-1.18256
-1.74030
0.01065
0.96583
1.12693
-0.69395
-2.05186
0.25599
0.66489
-2.46404
-0.25633
0.45979
-1.41474
-0.02391
1.35587
1.28789
0.37458
0.16580
-1.93242
-2.39322
-0.25115
0.23136
-0.13331
-0.10008
0.91253
0.29069
0.82750
-0.25338
0.90335
0.34544
0.93211
-1.54721
0.28868
-2.05115
1.00459
0.27483
0.05482
1.04431
-0.17655
1.03583
0.21867
0.07129
1.13254
0.05442
0.09388
-0.24553
-0.78026
-1.38331
-0.55227
-0.14769
0.43001
0.64904
-0.42451
-0.23300
-1.74924
1.08396
-1.60883
1.57273
0.54545
0.49165
-0.75446
0.47817
0.97392
0.56641
1.73561
1.24615
-0.37743
0.62682
-0.77088
0.00043
0.35790
-0.45237
-0.05615
-0.47945
0.58971
-0.72238
-0.13884
-0.33572
-1.06856
0.35416
-0.28505
0.09604
0.27061
-0.37493
0.49344
-1.37893
-0.11130
-1.78523
-0.26667
0.23038
0.94114
0.67658
-1.85614
0.64949
1.18348
-1.23130
-0.61250
-0.97311
0.64812
0.47142
0.83531
0.48647
0.09821
-0.59827
-2.11303
0.99947
0.73716
-0.15150
0.51539
0.83840
0.41916
0.24972
-2.79956
0.08810
0.57081
-1.42343
0.91336
-0.52628
-0.76808
0.91926
0.22614
-0.57657
0.37304
-0.01629
-0.57564
0.55030
-0.17973
0.38241
1.21290
-0.25263
0.89593
0.33839
-0.93169
-0.45218
0.69207
0.19590
0.78685
0.05123
0.85874
0.79623
-0.04997
0.66221
0.88777
0.59855
2.93080
-1.02753
-0.66327
-0.48464
-2.15939
0.48758
-0.44516
0.42836
-1.02343
-0.91041
-1.63967
0.54123
0.69702
-0.30237
-2.66379
0.78481
1.07688
-0.02644
0.93891
0.35948
0.67508
0.53761
0.50641
-0.67316
-2.41724
1.08758
0.63594
0.76101
-2.05694
-0.36942
0.10431
0.82027
0.89403
-1.92506
-0.85956
1.14017
-0.00426
1.07687
0.28883
0.70595
0.78522
0.12767
0.67446
0.48615
0.60492
0.44809
0.47601
0.42635
-0.56786
-0.01430
0.96175
-0.29451
0.13677
-0.41030
0.76460
1.08440
-0.36203
0.55939
-0.83026
-0.26532
1.76702
-2.17143
-2.05593
1.08908
0.40179
0.27768
0.50105
-0.94613
0.52937
1.44688
-0.14826
1.29967
0.05830
0.23659
0.27438
0.07071
1.39332
-1.10656
0.96870
0.29889
-2.43121
0.08656
0.76934
0.58571
0.99463
1.00538
0.01702
1.92353
0.50534
0.85708
0.76526
0.30671
1.35609
1.63319
-0.29116
-0.03332
0.03477
-0.63671
0.40918
-0.16365
0.31283
0.06384
-2.43733
1.97294
0.36339
0.07183
-1.78297
0.09348
1.77408
1.50634
-2.49712
0.84871
0.71490
-0.44035
-0.40532
0.77982
0.53603
0.87341
0.35891
0.04622
0.55766
1.11985
0.65394
0.17765
-0.81472
-2.12500
-1.03993
-1.07527
-0.18798
0.94672
0.00031
-2.12855
0.38739
-1.73700
1.13304
-0.79506
0.60457
0.98012
0.46915
-0.18431
1.27972
1.08295
-0.33468
-0.29236
-0.57327
1.01012
-0.52913
-0.62175
0.01934
0.45698
-1.62632
1.18770
-0.48202
-0.84198
-0.12525
-1.97630
-0.29215
-1.84246
-0.47797
0.93935
1.25363
-0.55920
0.76225
0.48081
0.96609
-0.46525
0.64833
0.36446
0.37688
0.04228
0.06929
0.49303
0.23300
0.62749
-0.04584
0.41901
0.87544
0.37399
-3.01740
0.53904
1.14078
0.06154
0.87563
0.11188
0.64109
0.76018
0.67202
0.28610
0.59762
-0.32702
0.42997
0.42510
-1.36573
-1.79429
0.40148
-0.13255
1.13060
-3.08333
0.35706
0.01472
0.57509
1.32152
0.16224
0.79287
1.00133
0.30172
0.52185
0.54331
0.85521
-0.53722
1.17088
-0.33272
0.96135
0.24158
-1.36477
0.99047
0.41455
1.16499
0.64395
-1.48978
0.25160
0.61000
-0.27796
0.67628
1.03856
-0.34573
0.46089
0.15983
-1.03606
0.82048
0.07104
1.27327
-1.91219
0.59890
0.45880
-0.00755
0.83816
0.99894
0.04991
0.07223
0.56710
0.18644
0.79558
-1.54381
-0.61631
1.31490
-2.68797
0.80569
-0.73086
-1.51909
-0.42973
-0.28906
0.16225
1.16364
0.02148
0.40099
0.35701
0.24121
-1.77064
1.21885
1.08957
1.09966
0.24221
-0.01931
0.98524
1.17453
0.28737
0.09153
1.59766
0.66664
-0.53419
0.52439
1.13613
-0.16934
-2.85825
0.64356
0.49027
0.95328
-0.04015
-0.85256
0.42905
0.40460
1.75912
-0.17944
-0.06707
-0.10231
0.91836
0.29901
1.38464
0.24546
0.52804
-0.40016
-0.04544
0.85484
-0.16822
-0.33662
-0.15986
-0.84297
-0.24779
1.12981
0.47366
1.05994
0.00863
0.69571
-0.62307
-2.68323
-2.58743
-0.90734
-0.85444
-0.04665
-1.84771
-0.03380
0.99597
0.85841
0.43328
0.21118
1.31314
-0.05981
-1.36906
0.66928
-0.38134
-2.18343
1.08337
0.69756
0.90101
-2.11556
0.00566
-0.58422
-1.76451
0.13806
-0.89565
-0.55082
0.52804
1.55727
1.15321
0.39855
-0.59092
0.31199
-3.18960
0.07297
0.35527
-1.74599
0.35391
1.62193
0.23986
-0.19647
0.84710
0.33638
0.24464
-0.27293
-1.05000
0.96107
0.67411
0.17442
-0.35914
-0.45283
-0.67828
0.86592
-1.33228
-0.05786
0.68822
-0.97660
0.48463
-0.09236
0.29895
-0.07527
-0.76070
0.23456
-0.24016
-2.20383
0.54153
0.35970
-0.24029
0.88947
1.92694
-2.01825
0.60599
2.56592
-0.16303
-0.55544
1.12176
0.61898
-0.07863
0.67956
-0.99646
1.25600
0.91052
0.30761
2.58798
1.01695
1.54423
-0.11657
0.29753
0.23886
0.53388
-1.86601
1.07365
0.33921
-0.04393
1.17523
0.50637
-1.13851
-0.04903
1.19083
0.31901
1.04978
1.28800
