0.19887
-1.23443
0.61393
0.42380
-0.05919
0.40132
0.20643
-0.90765
0.64677
0.12799
0.74036
0.51225
0.36138
0.53010
0.12000
-0.14327
0.03901
-2.18644
0.36153
-1.72688
0.06901
0.02986
1.15219
-0.29632
0.05808
-0.41263
-0.40296
0.58555
0.51032
-0.20178
0.11974
-0.10317
0.52221
-0.43243
-0.35872
0.48542
0.48418
-0.43687
0.47949
0.13933
-0.07606
-0.44388
-0.03845
-0.43986
0.47142
-0.44532
-1.22509
0.47409
0.47969
0.46800
0.00274
-0.51465
0.54701
-0.22499
1.48749
-1.38052
-1.38321
-1.92891
1.64832
-1.92645
1.08285
1.23235
1.22432
0.89818
-2.43908
1.21364
-1.69636
1.22190
0.31266
-0.49114
1.21775
-0.85152
-0.81544
0.82285
-0.00053
-0.98938
0.86121
0.54080
0.02673
0.10211
-0.02452
-0.15457
0.54091
1.03159
1.02120
-1.74883
-0.96295
0.34551
-1.74226
-0.59536
0.53730
0.03388
-0.07441
0.76005
-0.56816
-0.38064
0.33653
-0.35110
-0.91227
-0.29941
-1.42547
-1.42445
-1.42411
-0.50240
0.05634
0.38813
-1.42457
-0.88002
-0.36645
0.51901
-0.07170
0.52110
0.01724
-0.18413
1.67154
-1.09993
-0.69792
-1.10198
0.40369
-0.28884
0.12684
1.00360
0.99817
-0.02420
0.11540
-0.34631
-0.39919
-1.60614
-2.03886
0.08432
0.48423
-0.71256
1.12414
-0.03976
0.23311
-2.52511
-0.54880
0.24684
-2.50990
-0.68943
0.26017
-0.03808
-1.62322
-0.93228
0.06485
0.51727
0.69497
1.19488
-0.56300
-0.75204
0.01605
0.03474
1.19953
-0.55802
0.69355
-1.34027
0.29551
1.53238
0.66794
-0.99895
0.30608
-1.52919
0.46666
0.55913
-0.65436
-0.03954
0.75273
0.36119
0.77611
0.09533
0.77325
-1.85093
0.06352
-1.02708
0.31192
0.80290
-1.09940
0.79752
-0.05292
0.80739
-1.02628
0.81046
0.79211
0.70029
0.24636
0.66224
0.61380
-0.10505
-1.02486
0.21158
0.79210
1.63312
-2.06705
0.49587
0.33912
-2.65380
0.71819
-2.53074
-2.66512
-0.12713
-0.10045
-0.81975
1.85589
0.54808
2.49287
-0.17059
-1.87582
0.09975
0.45713
-1.29468
-0.77117
-0.88971
2.34424
-1.31514
-0.16742
-1.32223
-1.33043
1.21201
-1.31879
1.06419
-1.32331
1.45328
-1.29774
-1.31381
0.64358
1.41168
0.50891
-1.31330
1.43890
-1.32875
0.75691
0.52943
-1.32078
-1.18553
-0.12291
-1.31408
-1.30864
2.35872
1.41277
-1.32042
-1.31386
-1.32324
-1.31352
1.44619
-1.32042
-1.34194
-0.41482
-0.42155
-1.34418
-1.34533
1.87853
-1.33854
-1.34046
-1.34106
-1.34522
-0.79317
-1.34578
2.34458
0.51616
-1.34527
-1.34371
-1.34155
-1.34367
-1.35038
-1.33216
-1.34525
0.01220
-1.35243
-1.34681
-1.33781
-1.34596
-0.41461
-1.34793
-1.34075
-1.33842
1.78944
-0.45051
-1.33625
-1.04740
1.35393
0.20290
-0.09308
1.37318
-2.31087
1.37608
1.37417
-0.39722
0.54095
-0.20336
0.53318
0.53851
0.05691
-0.42199
-2.65067
-0.76923
-0.32129
-1.61220
-1.25521
-1.06443
-0.58178
-1.49102
-0.27396
0.79409
-0.21628
-0.13481
-0.04467
1.72922
0.49110
0.33773
0.47722
0.36443
-0.20134
0.72323
-0.20199
0.72319
0.72319
-0.12105
-1.96944
0.74196
-1.04225
-0.12068
0.83785
1.19029
-1.58310
0.53226
0.27626
0.26525
-0.75119
-1.34881
-1.34897
0.48704
-0.65505
0.26699
1.11543
0.19313
0.59327
-0.03365
-1.88583
-0.03949
0.05357
-0.74819
0.46284
0.16839
0.49704
-0.99317
0.78403
-0.14071
0.54936
1.08034
-0.01298
-2.92857
-2.08080
-0.30236
-1.60267
1.01394
-0.90526
0.07105
-0.89776
0.79029
-0.13474
0.95035
0.17691
-0.12842
0.42212
0.21254
-0.42963
0.70097
-2.60332
-0.21195
-0.90092
0.33762
-0.08287
-1.38089
0.68433
-0.19564
-0.09723
-2.11665
0.16575
0.30373
-0.22177
-0.10818
-0.29677
0.19149
0.89482
0.54528
0.61548
0.62877
-0.29281
0.03325
-0.11198
-0.19098
-0.29884
0.55491
0.18416
-0.28807
0.63319
0.62123
0.58484
0.70777
-0.29771
0.54216
0.21995
0.45075
-0.42851
-0.20221
0.72003
-0.20951
0.45366
-1.12842
0.71612
0.71871
-0.20810
0.71536
-0.20365
0.71497
0.37014
0.60304
0.02294
0.79620
-1.03666
-1.04549
-0.23508
0.58951
-0.14423
0.06969
0.06750
0.29999
1.28293
-2.41738
-0.74383
-2.23983
-2.00250
-2.00042
1.70752
-1.99581
0.78046
0.77716
0.31856
-0.28659
0.39473
0.36934
0.59981
0.47464
0.37751
0.19993
0.49293
0.04337
-1.02829
0.00009
-0.32991
0.81866
-0.10650
-0.03793
1.12964
1.12530
-1.63253
0.62768
-0.72329
-0.90622
0.67669
0.27906
0.42264
-0.43870
0.48436
-1.36840
0.48238
-0.85345
0.48397
0.88608
0.86109
-2.17556
1.52432
0.59437
0.59698
0.55247
0.98656
-0.32990
1.95849
0.57501
-1.27005
1.49907
-1.27444
-0.21756
0.06172
-0.21956
-2.85455
0.84472
0.01505
-0.03450
0.00828
0.33412
0.51486
-2.85098
0.02341
0.41368
-0.74009
-0.55134
-1.37894
0.16500
0.46733
0.39065
0.43701
-0.06219
-2.73971
-0.11255
-0.84040
-0.20437
-0.27546
-0.62276
0.18531
0.53409
0.04998
0.97315
-0.87145
-0.40564
-2.71267
0.58667
-0.27842
0.53740
0.13011
0.73067
0.08786
0.18854
0.53822
0.05586
0.22494
0.46067
-0.42623
0.00922
-0.20279
-1.86029
-1.86082
0.68293
-0.18246
0.05755
-0.31530
-0.24039
0.60745
0.04103
-2.41834
0.33577
1.24863
0.33887
1.25335
0.32426
1.26476
-2.41317
-2.43778
1.25727
-1.49426
-2.40540
-2.42858
1.25272
1.24697
1.24721
0.32966
1.25870
-1.50573
-2.42096
0.34028
-2.42875
1.25613
1.25357
1.26004
1.25178
1.25520
1.25617
1.24154
1.24844
0.33617
0.34536
-0.57932
1.24435
1.24328
1.25735
-1.07693
-2.42317
1.24900
1.25078
1.25393
1.24794
-1.50389
1.25438
1.24855
-2.42101
-2.42640
1.26404
-2.42385
1.24737
0.33416
1.25333
1.24196
1.25560
1.24931
1.24181
1.25387
-1.50534
1.23893
1.25117
1.26303
1.25461
-2.22560
0.33052
1.24599
1.25134
0.32502
1.24590
1.24851
1.25354
1.25210
1.25339
1.25129
1.25823
1.25550
1.25334
1.25007
-2.42968
1.25814
1.25283
1.25147
-2.41623
1.24938
1.25600
0.34485
0.34526
1.24962
1.24991
-0.56158
-2.34812
1.25661
-2.42795
1.24542
-1.48868
-2.41845
-2.40587
-2.41852
1.25338
0.33653
1.26026
2.19115
-1.37863
-0.88410
0.91306
-0.53111
-1.67165
0.54389
0.11540
0.14102
0.23078
0.29783
-0.25799
0.41413
-0.89468
0.95340
-0.81694
-1.38998
0.44113
-0.44278
0.55349
0.60248
-0.81132
0.45984
0.46625
0.54033
0.05487
0.55522
-0.29627
0.26731
0.29338
0.05082
0.21870
-0.64185
-0.34449
0.28905
0.50267
0.25525
0.00192
0.29699
0.34858
-0.17837
0.39667
-0.66627
-0.64809
-0.18932
0.28141
0.37082
0.29741
-2.48296
0.28069
-2.47350
0.29553
-0.64097
-0.47895
0.67091
-0.63102
-0.64038
-3.40421
-2.57056
0.20510
-2.55630
-0.73371
0.63225
-1.96360
0.18637
-1.64037
-1.73855
0.19420
-0.37237
0.20959
0.28290
1.02682
1.99657
-1.33948
-0.44711
-1.33915
0.39118
-0.12889
0.79767
0.93645
0.90563
0.50702
1.15230
-1.62687
-1.62698
0.60610
-0.47278
0.70525
-0.86719
0.86180
0.88851
-1.84669
0.62236
0.00337
-0.27978
-0.41870
-0.43684
-2.27852
-2.28137
-1.38359
-0.04942
0.08181
-0.20001
-0.04884
0.78522
-0.70202
-1.99740
-0.90627
-1.34456
-0.02367
-0.02556
0.86039
-1.28173
0.86033
-0.83069
0.77546
-1.27166
-1.63813
-0.57756
1.02958
-0.81922
0.97782
-1.75244
-0.09067
0.67311
-1.37270
-0.82414
0.08886
-0.83640
1.94966
1.93338
-1.74002
-0.59084
-1.60681
-0.84234
0.28661
-0.32128
-0.82093
-1.31786
0.22464
-0.36640
-1.27856
-0.81899
0.05385
0.05385
0.11374
0.50396
-1.34416
-1.34787
-1.35052
-1.34982
-1.34916
-1.35111
-1.34893
-1.32764
-0.22415
-0.28408
0.61398
-0.47598
0.47907
-1.34210
-1.34287
0.35066
0.44742
0.01838
-0.62167
-0.10535
0.29015
0.31480
-0.52713
-0.81216
-1.72792
-0.81774
-1.59784
-0.04962
0.83152
0.50413
-1.17785
0.67526
-1.14082
-0.99806
0.12722
0.92615
0.95994
-1.75873
-2.21032
0.35463
-0.11788
-2.16719
0.50546
0.47049
0.27236
-0.74619
-1.28364
0.01749
-0.33759
-0.68819
-0.62703
-0.84091
0.39998
0.91489
-0.00284
0.62597
-0.45510
0.00170
-0.42269
0.90442
-0.00422
0.34877
-0.00794
0.91227
-0.00957
0.77690
-1.78641
0.06809
0.01440
-1.84652
-0.64220
0.58953
-0.71673
0.87636
0.00475
0.91401
0.69870
0.08779
0.91446
-0.01002
-0.81854
-0.00296
0.91092
-0.00379
0.04812
-0.04587
1.02714
-0.02417
1.07536
0.39671
-0.05323
0.35025
0.80749
-0.56276
0.60903
-0.25762
-1.87233
-0.09521
1.15083
0.12810
0.69959
0.24472
-0.10256
-0.95166
0.22440
-0.90441
0.40036
-1.12330
0.77654
0.23910
-0.61149
0.71031
-0.14331
0.93047
0.97659
0.06077
-1.79501
-0.69808
-1.90666
-0.58723
1.78510
-0.08366
-0.78584
-0.69548
0.11808
-1.73363
-0.08224
0.05503
-0.11750
0.46387
-2.87278
-2.45535
0.79557
0.80792
0.10644
0.79515
0.79005
0.79312
-0.10020
0.80038
0.14484
-0.11401
-0.37441
0.78803
0.56043
0.80203
0.32452
-0.11579
-1.04723
0.36778
0.26531
-0.45893
1.60523
-1.15276
-2.08709
0.68867
-2.08424
1.60130
0.02894
-0.26142
0.92146
0.40961
-2.88503
1.96376
-1.13869
0.65704
-1.00520
0.54251
-1.00362
-0.76370
-1.52400
-2.41705
-0.62957
-2.45718
-2.32113
1.25295
-1.02108
-0.36194
-1.94561
1.74526
0.81994
0.82907
-1.93807
-1.93939
-1.01778
0.06777
0.64980
-0.21626
0.30512
1.02333
0.76693
0.98837
1.02984
1.02667
-0.27932
0.28304
-2.11406
0.08681
0.66094
0.66403
0.52743
0.52766
-0.36210
0.56344
0.56523
-0.20710
0.51521
0.51212
-0.62571
0.51175
-0.41167
0.51240
-0.06854
0.02646
-0.31019
-0.65250
-2.68670
0.80858
-0.88895
0.95324
-2.85778
0.21053
-0.09449
-1.00215
0.09596
0.81377
0.81980
-1.01093
-1.94624
-0.04297
0.86070
-2.66220
0.80989
-0.32129
0.81942
0.81758
0.81758
0.82069
-0.64043
-1.94350
0.59211
-0.91178
0.82686
-1.91798
0.06309
-2.86124
-0.69443
-2.85426
0.82676
0.70450
-0.52754
0.80550
-0.38511
-0.16198
-1.08741
-1.34604
-1.37698
-1.37870
-0.45033
-1.18299
-0.86375
-0.19074
0.14035
-0.14248
-1.54429
2.01215
-0.17704
-1.98703
-2.95484
0.73478
0.54564
-1.80948
0.14841
0.71863
-0.29750
0.41369
0.55565
0.55305
0.55485
0.59008
-0.19873
0.52835
0.52802
-0.27475
0.47132
0.54586
0.66742
-2.58015
0.59935
1.09318
1.09735
-2.58874
1.09729
-1.65721
1.10129
-0.02630
0.99951
0.18235
-1.66249
0.69661
1.09760
-1.08316
1.09118
-0.73551
-1.37136
1.20198
0.19733
-2.57176
-0.73679
0.47641
-2.57152
0.17300
0.18558
-0.10610
-1.38021
-2.08678
0.67315
-0.00522
0.29860
-1.86546
0.87719
-0.20874
-1.97855
-2.06420
0.70700
0.44600
1.19999
0.92647
-0.51819
0.04617
-0.66854
0.45227
0.43688
0.40859
-3.24718
0.39935
0.40813
0.39530
0.41718
-0.50735
-3.24548
0.42269
0.42446
0.19964
-0.61271
0.72478
0.05724
-1.44516
-1.44745
0.41157
-1.44156
-1.44440
-1.12168
-1.43982
0.05465
0.50081
0.52666
0.52646
0.12866
0.05168
1.03329
1.03756
0.86953
-2.65727
0.98896
0.59049
0.33493
0.07490
0.27753
0.05007
0.86490
-1.71222
-1.70715
-1.70322
-1.70945
-1.71023
1.90822
-1.70448
0.90989
0.41809
0.96015
0.53679
0.67553
0.67477
-0.25101
0.29071
0.67405
-0.25989
0.10374
-0.28707
-0.68527
1.10552
-1.15245
-0.02734
-0.02487
0.57123
-0.90832
0.35149
0.65218
0.82799
-1.14623
-0.06607
1.36064
0.73724
-2.06903
-2.07914
-1.14280
-2.07376
1.56886
-2.06303
-0.67378
-1.79627
-0.23031
-1.03739
-0.27318
0.52824
1.33259
-1.42620
-2.34909
0.42160
1.33336
-0.00930
0.27444
0.40695
-2.34403
1.10150
1.34107
-0.31478
1.02822
-0.00870
-2.58701
-0.46987
0.75739
0.66947
-0.93951
0.39090
-0.03969
0.56876
0.42493
-0.35042
0.53185
0.54504
0.55701
-0.23698
0.56694
0.52792
-0.01864
0.55461
-0.68204
-0.42319
0.10402
0.54407
0.05682
0.54029
-0.92778
0.05921
0.28587
-2.12993
0.14261
-0.41875
0.52137
0.45734
0.52722
0.61417
-2.22398
-0.38097
0.18108
0.53420
0.54343
-0.75222
-0.27129
-0.40764
0.53911
-0.69185
-0.75161
0.65432
0.65534
-0.26854
0.65634
0.65435
0.29724
0.27288
0.41386
0.05159
-0.33758
0.72685
-0.20453
0.72289
0.71006
0.98627
0.72959
0.05155
-0.49089
0.53695
-1.28085
-0.01525
0.73104
0.72598
0.20880
-0.20604
-0.20293
-1.11744
-0.20587
-0.19966
-0.20749
0.72158
0.89872
-1.91013
0.39709
-1.45455
-1.45363
-1.45749
1.32429
-1.45822
1.71496
-1.36615
0.43037
0.92071
0.18809
0.05872
-0.82956
0.43489
1.38356
-1.53824
0.23200
1.37522
-0.20106
-0.10263
0.05325
0.53609
0.14180
-0.12769
-0.63463
-2.20449
1.24920
0.18334
-0.67357
-1.68385
-1.69509
-0.05418
0.69913
-1.42077
0.90099
0.90198
-0.94738
-0.02288
0.23691
-0.53381
-0.22213
0.28410
0.47596
-0.26755
-0.07745
0.14533
0.55078
0.14738
-1.69567
0.09549
0.04715
0.53555
0.53574
1.70068
0.43224
0.40985
0.42513
0.78167
-1.24367
0.60819
0.55113
0.53685
1.44263
-1.18681
0.53554
-0.72970
0.71407
0.10940
-1.53621
0.29869
-2.17887
-0.54188
0.23260
0.23170
-0.24592
-0.91148
1.15193
0.23283
-0.22908
0.42403
0.04940
0.05720
-0.00566
2.07739
0.69157
-2.15469
-0.23282
0.69222
0.42442
-0.40516
0.09361
-1.08073
0.09566
-0.12163
0.54130
-1.45613
0.76236
-0.16200
0.27636
0.02841
-2.74907
0.94937
-0.90085
0.05580
0.95141
-0.39001
0.95482
0.03441
-0.67991
0.13734
-1.67975
-1.43633
-2.84635
0.18387
0.49772
0.41331
-0.39879
0.49979
-2.26989
-0.71036
-0.05082
-2.21949
-0.42546
0.58733
-2.18844
0.56703
-2.18495
-1.38917
-2.17851
0.36197
-1.97179
-2.18068
-0.45241
-1.70813
-1.70616
1.06521
-0.78189
1.01256
0.52080
1.00989
0.10966
1.01638
0.10034
0.58451
0.28715
0.45325
-0.31097
-0.35950
-1.80891
-0.89959
-0.86238
0.17275
1.85894
0.96666
0.26493
-0.88553
0.04401
-1.27736
1.86317
0.95675
0.82596
0.47426
-0.20728
-0.85974
-0.08485
-1.32195
-0.02277
0.60842
0.63691
1.18710
-1.77623
-1.60818
1.85971
1.71239
-0.94956
0.93907
-1.69152
-0.18215
-0.41365
0.02429
-1.80176
0.95269
-1.78285
-1.79655
-0.89126
-0.16406
-1.79373
-1.76500
-1.79280
-1.79313
0.14949
-0.88008
-0.86902
-1.79791
-0.31172
-1.15473
0.03554
0.10848
-0.87570
-1.80631
0.54309
0.07533
1.05015
-1.79705
1.88468
-0.13441
-0.17241
0.96754
-1.81151
0.78828
-0.00112
-1.35256
-1.80033
-0.92214
1.86925
1.84859
-1.80219
-1.82782
-0.26044
0.95014
-0.89249
-1.84416
-0.90043
-1.05270
-1.82165
0.52178
-0.89009
-1.37864
0.03694
-1.20458
0.16429
-0.88543
-1.65850
-1.79180
-1.80237
-1.81541
-0.77047
-1.09630
-1.79636
-1.81873
0.54232
1.24706
0.75820
0.45034
0.34036
0.16281
-1.53649
0.31009
0.30833
0.37593
0.46566
0.30553
-0.52664
0.31562
-0.58283
-0.60432
-1.74473
-0.38286
-0.38602
-1.40001
-0.28050
-0.37710
-1.71219
-1.71147
1.07569
-1.70900
0.91729
-0.78609
-1.70842
0.21714
-2.59258
1.05584
0.14943
0.17962
-0.13437
-0.77691
1.07451
1.07501
-0.31823
1.05386
-0.26849
-0.73893
1.05445
-0.79363
0.44920
0.30080
0.14478
-0.52402
-0.72416
-0.11040
-0.93458
-1.95954
0.22285
0.03270
0.73519
0.63541
0.73460
0.54137
-0.41866
-0.75777
1.43146
-2.25726
0.61730
0.75123
0.98976
-2.24602
-0.41020
-0.70803
1.54258
1.44822
1.53085
-0.41502
-3.32702
0.34493
0.31959
0.88322
1.04803
-0.21806
-1.34256
-1.34246
-1.71039
-1.70705
1.98944
0.10798
-0.53769
0.38289
0.52967
0.11080
-0.42150
0.77566
0.75324
0.68164
-0.13718
0.62963
0.73755
-2.93843
0.36630
0.73342
0.99802
1.03495
-0.15480
-0.94576
-0.57866
0.71904
-2.93624
0.72687
-2.01942
0.87242
0.56686
0.58358
0.64423
0.74458
-0.05135
0.72669
0.10502
0.83535
0.32263
-0.23514
-0.24308
-0.45195
-0.69086
0.63418
-1.86792
0.12077
1.81455
0.32334
-0.60122
0.27503
0.32606
0.24865
-0.69951
-0.16861
1.64815
0.43336
-0.04614
0.54230
-0.09947
-1.38417
1.11748
0.80108
0.20391
-2.56265
-2.56361
1.11759
0.19701
1.11211
0.85316
-2.57501
-1.63696
1.11906
-0.72781
-0.80226
0.20842
1.11377
0.52263
-0.56056
-0.55399
1.32551
-0.03354
-0.12623
0.49520
-1.88273
0.06886
-0.87760
0.53526
1.77165
-1.93946
0.55579
-1.01750
-1.93691
-1.93205
0.83147
-1.94020
-1.94239
0.28880
0.87471
-0.30730
0.40148
-1.61198
0.23729
-1.07726
-1.17269
-1.17289
0.63533
-2.16534
0.59322
-2.16962
0.60016
-1.25385
0.01714
1.49852
0.57841
-2.17385
0.41985
-1.26562
-1.26735
-1.26967
-2.06947
0.70533
0.71163
-0.21844
0.68582
0.70726
0.27595
0.33499
0.29135
-0.57002
-1.94907
-1.36806
-1.95026
-0.87242
-1.95146
0.76327
0.82155
-0.40059
0.52234
0.52300
0.52370
0.43478
0.47920
0.82981
0.25577
0.84158
0.46916
-0.52460
0.04137
-0.16938
0.57910
0.17291
0.54151
-1.15895
1.00028
0.77313
-0.20899
-0.04212
-3.54823
-0.42485
0.13315
-0.24412
0.64983
0.53670
0.64867
-0.29740
-0.36891
-1.74276
-2.65217
-2.62858
-1.76253
-0.05762
-1.74258
1.81677
-0.95668
-1.88328
-0.70067
-1.53691
1.09348
0.22034
0.78357
0.17283
0.30313
-1.06374
-2.57893
-2.59886
1.09447
-0.13945
1.08929
-0.25458
-0.57300
0.53822
0.05439
1.44666
0.53737
-1.98538
-1.98650
-1.05933
-1.99084
0.19096
0.53649
0.77381
0.69657
0.78709
-1.99072
-1.42252
0.77644
0.78342
-1.98666
-1.99913
1.69202
1.69435
0.77464
-0.13767
-1.99266
0.77546
-1.06384
-2.29221
-0.21000
-0.32230
1.51183
0.44114
1.01542
1.28548
1.53000
0.60885
1.18927
0.60426
1.49349
-0.78728
0.89670
-1.13188
0.79180
-2.50822
0.25720
1.25154
1.16329
-2.50614
0.77375
-0.34210
-0.21203
-0.67239
1.17699
-0.24714
0.21902
-0.05852
0.52829
-0.49409
-0.45818
-1.22160
-1.38964
-0.16493
0.32195
-1.26923
0.16937
-0.67114
0.15612
0.18089
0.81761
0.22896
0.25132
-1.54346
-0.60078
-1.57907
0.27440
-0.31070
-1.57553
0.05842
0.05843
1.21877
-2.33354
0.43673
-1.67678
-1.48159
2.60027
-0.02486
-0.05566
-0.81412
-0.44435
1.03467
-1.18536
-0.51622
0.41272
0.00786
-0.56830
1.52995
-0.20706
0.05819
0.12502
0.30008
-0.08903
-0.66001
-0.25009
-1.14941
-2.07282
-2.06593
-1.14435
-2.07514
-2.05918
-2.08286
0.68551
0.24781
-1.37826
-0.06270
0.65882
0.33095
-2.44237
-0.03069
0.33326
-1.01155
0.32574
0.22356
-1.65832
2.03563
2.05068
-1.65364
-1.66006
0.18738
-1.66618
-0.73267
-1.65477
-0.71841
-1.65420
-1.66602
0.54247
-1.65534
-1.65874
1.10569
-1.62722
0.82879
0.19017
-1.65130
-1.65951
0.19494
-1.65752
-1.65736
0.19808
0.18792
-0.73336
-1.66522
0.41876
1.25688
0.51541
-1.65487
-1.65821
-0.56929
-1.65715
1.11832
-1.34077
-0.57473
-1.65736
-1.65470
-0.72987
-1.48799
1.03682
-2.46181
-1.52966
-0.42317
0.30636
1.23164
1.08501
1.06111
1.23028
-2.45745
-1.98539
1.23584
-2.45597
-2.27077
1.15978
0.54784
0.05899
1.30392
0.50709
0.41241
0.40938
0.62837
0.01450
0.41014
-0.51309
0.42833
0.42975
-0.17466
0.53373
0.04811
0.54356
-0.24144
-0.43013
0.39470
0.01391
0.17295
0.05768
-0.92338
0.05985
-0.52415
-1.93256
0.75497
-1.93125
0.84330
-0.99986
1.37485
0.32217
0.35856
0.34888
0.32333
0.32441
0.16041
-0.52378
0.18087
-0.35374
0.32524
-0.93093
0.38454
-0.16200
0.68568
-0.59408
0.31534
0.29416
-0.21815
0.07712
0.33690
0.33600
0.34765
0.18712
-3.33880
0.24192
0.43261
0.29756
-0.15317
0.00784
-0.20452
0.31575
0.32018
-0.06687
0.31549
-0.57185
0.54384
-0.59059
0.33066
0.53986
-0.00580
0.31547
0.33939
-0.38974
-3.33723
-0.31901
-2.42061
0.04294
0.28855
-3.34070
0.35662
0.32070
-0.04680
-1.50827
0.33103
-0.08893
0.81682
-0.59753
0.33157
0.35347
0.45915
1.70169
0.33977
-1.50703
0.29457
-0.75825
0.45767
-0.19967
0.33285
-2.42575
0.19751
0.28163
0.34066
0.33650
0.33440
-0.30862
0.00511
0.33211
0.35119
0.02641
-1.57487
0.17987
-0.11680
0.28865
0.33484
-0.08043
0.32166
0.33977
0.33174
0.34804
0.45678
0.33196
0.64645
-3.35106
-0.75580
0.03227
0.69995
0.33203
-0.16766
0.32401
0.24405
-0.31850
-0.71588
-0.58336
0.28798
0.31091
0.31870
-0.57851
0.11619
0.21978
0.32684
0.26012
0.32592
0.10286
0.17721
-0.00552
-0.01354
-0.01099
-0.24753
-0.00647
-0.36282
-0.00893
-1.21180
-0.01587
-0.99168
-0.93930
0.04568
0.05565
0.21731
0.19876
-0.70500
-0.50705
0.05765
0.05763
-0.13014
0.79466
0.59994
0.32504
-0.19226
-0.07091
0.75101
-1.38538
0.67076
0.21978
-0.07368
-0.07155
-0.04097
0.85065
0.54154
-0.99298
1.67242
-0.18448
0.84647
-0.07062
-3.73440
-1.42139
0.25237
0.06272
0.06262
0.15436
-0.17187
-0.97982
0.70160
0.78346
-0.28442
0.63866
0.63466
0.43837
0.63302
0.60872
0.47281
0.63660
1.14463
-0.46982
-0.66191
-0.02173
-2.48202
1.20206
-1.21025
1.21036
-1.56331
-2.48545
1.20979
-0.11573
0.27084
-0.41260
-0.12604
1.20019
-1.56273
1.21425
1.20970
1.33231
0.28220
0.27833
0.28864
0.32892
-0.63777
-2.47545
0.28414
-1.76149
1.20551
-2.48287
1.13028
1.20773
0.34526
-0.53794
-2.06301
-1.08327
-0.15776
1.30732
1.30768
1.31145
-2.37675
-2.37989
1.30853
-0.30352
0.23311
0.50986
0.32306
-3.14662
-0.19398
0.28412
-0.53841
-0.53834
0.19380
0.38363
-0.67050
0.69859
-1.14199
0.68607
0.57713
-1.02338
0.29278
0.72769
0.69749
-0.23202
0.70559
-1.58120
0.76279
0.68766
-1.19608
0.69463
0.70304
0.16183
0.70854
-0.21498
1.11186
0.35731
0.18882
0.52938
0.57691
0.52956
0.53859
0.12271
-1.08007
-0.15572
-0.09913
-1.90696
0.35460
-0.37935
-0.37839
-0.26764
0.31131
-0.90127
-1.45675
2.10493
-0.58448
-0.25022
0.36963
-1.45520
-1.21936
-1.45566
0.13182
-0.20236
0.13102
-0.21377
0.13098
0.91887
0.32167
-0.37042
-2.00054
0.66405
0.32955
1.25406
-1.50916
0.03927
-0.98588
-2.76770
0.93761
-2.77202
-1.32881
-1.94854
-0.68124
0.13148
0.35423
0.98262
1.13560
1.12916
1.30611
-0.44745
-2.54256
-1.62343
-2.53890
0.56047
0.53839
-0.53260
0.91729
0.48070
-1.38783
0.52999
-1.53130
-1.53264
1.24647
-1.53173
2.32939
0.15332
-0.42656
-0.26096
-0.23482
0.19872
0.26131
-1.90762
-0.11812
0.86152
-0.98497
-1.90958
0.08961
0.09128
0.13020
0.40709
0.48929
0.56809
-2.20137
1.48945
0.05916
0.19711
-1.38689
0.48485
0.54629
1.13654
-2.52931
1.00813
0.51452
-0.56570
-0.50690
0.39717
-0.52858
0.36496
-0.53422
0.37174
0.38772
-0.23608
-1.08885
1.29098
0.38536
1.30252
0.38302
-0.35957
-2.36973
1.30245
0.99709
-1.74635
-2.36570
1.29545
0.43983
1.29693
1.29717
-0.00035
-1.00003
-0.64695
-0.24189
-2.83036
-1.90685
0.84159
0.84471
0.77613
-0.30673
-0.00881
0.33374
-0.32415
-0.24687
0.67879
-1.17150
-2.09563
0.67931
1.72323
-0.71427
0.41659
0.73222
-0.84559
0.61879
0.36979
0.05788
-1.66998
-1.62642
-0.41297
0.61225
1.49835
0.57456
0.50411
-0.09464
1.30385
-0.14640
-1.38832
-0.56918
1.28401
-0.49005
-1.08286
0.20710
0.13747
-0.56960
0.09162
-0.63121
0.54321
0.30562
0.18275
0.61816
-0.45453
-0.38159
-1.40851
-0.48265
-0.48290
-1.40768
-1.40689
-1.40807
-0.42098
-1.40530
-1.40795
-2.27895
0.49826
1.32775
-2.27147
1.41555
1.20132
-0.43152
-1.35092
-1.33979
-2.25837
1.02455
-1.32559
-0.48886
0.53464
0.37651
-0.43132
-0.40051
-0.70319
-2.69776
0.98843
0.88374
0.98846
-1.42385
0.50555
-1.14272
1.57185
-0.97142
1.68731
-2.00293
-1.07980
-1.99302
-2.00151
1.68587
0.76427
-0.42262
0.40355
0.17110
-0.29960
-2.37487
0.50332
0.53690
0.42607
0.40482
0.32392
0.38224
-2.23593
-0.17334
0.49724
0.50171
0.50403
0.00963
-0.40956
-2.22432
-3.16598
0.20191
-0.40049
-0.36916
0.54254
0.94828
0.47256
0.72333
-0.33247
-0.66394
0.28188
0.26870
-0.42760
0.65643
-0.01926
-0.14028
-0.14065
-0.04237
0.79722
-0.35306
-1.97506
0.10043
-0.71806
-2.55866
-2.56830
0.19568
-0.04731
1.12704
1.12697
0.20291
0.60141
1.12601
2.47367
0.84192
1.12059
0.94249
0.93863
0.01816
-0.90868
0.94191
0.82484
-1.83320
0.25513
0.05164
-1.39108
0.56372
0.49343
-0.13513
0.27938
0.04508
0.15570
0.73314
0.42559
0.53537
1.48735
0.29394
-2.18468
-2.18557
0.23043
-2.28978
0.39112
1.21160
-2.25172
-1.89866
-1.59366
1.95452
0.10107
0.32473
0.29972
-0.78558
-0.24849
0.79524
-0.14664
-0.13417
0.37205
-0.57062
1.23593
-0.48968
0.28308
2.31103
-1.16984
1.40212
-1.36801
-0.19978
-0.21049
0.26700
-0.20956
0.19365
0.72186
0.71241
-0.08559
0.14509
0.33622
-0.57341
1.26573
-2.41497
-0.10638
-2.22845
1.26855
0.33844
1.10675
1.26298
0.55142
0.46206
0.00712
0.29345
0.37156
0.37115
-0.37376
0.28167
0.37020
0.32156
0.61872
-0.60026
0.14759
0.51805
0.51997
0.51493
0.05287
0.53705
0.31926
0.22253
0.80579
0.41271
0.17988
-0.43788
-0.40515
-0.42453
-0.40698
0.52067
0.41430
1.13584
0.53699
0.67862
0.26576
0.93613
1.22110
1.03233
-1.75505
-1.75196
1.94994
-1.75453
1.93897
0.19697
1.41555
-1.74996
-0.82870
0.29736
-2.36784
0.28876
1.00522
0.86821
0.84698
-0.14900
-1.04518
0.13567
-2.63916
0.22929
-2.95515
0.72843
-0.58133
-0.19398
0.33523
-1.68226
-2.96179
0.71607
0.82957
0.50851
0.49722
0.01334
-1.23709
0.73034
-0.17192
0.72656
0.73651
-0.06559
-2.94890
-0.98405
-1.32425
-1.32354
-1.32169
0.25511
-2.22956
0.47418
0.54546
0.28998
-1.51441
-0.52226
-0.17621
0.18645
0.08894
-0.22107
0.13870
-1.71423
0.53765
1.10157
0.31022
0.91363
0.88913
1.05189
-1.93589
1.75356
-2.42831
0.35589
-0.46090
-0.10455
1.57669
0.42063
0.14391
0.75931
1.60397
-1.04244
1.62855
0.69215
0.16377
-1.10628
-1.11207
1.63178
-0.30553
0.60882
1.13089
-1.23805
-1.11041
-1.29972
-2.01892
0.71369
1.61778
-2.01133
0.21815
0.78811
1.04402
-0.12132
-2.03056
-0.19581
0.73598
1.46385
-2.02812
-0.35484
0.71420
1.62132
2.08243
0.67860
0.03857
-0.02266
-2.11519
1.49514
-0.14288
-0.12870
0.30164
0.38076
0.38051
-0.88947
0.74628
0.79211
-0.04327
-0.00197
0.55965
-2.35243
-1.44402
-0.51666
0.95417
1.32441
0.43017
-2.33959
-2.34356
-2.04927
-1.98699
0.78499
0.78806
0.06109
0.05705
0.34942
-0.20877
-0.20025
-0.95379
-0.96993
0.06043
1.62858
-2.06596
-2.06803
-2.06980
1.51012
0.53478
-2.35041
-0.11691
0.45146
0.53777
-1.42612
0.41675
0.27862
-0.44250
0.05504
-0.12479
0.63497
0.56892
-0.11157
0.79927
-0.11185
0.80692
-0.05610
0.80007
0.80556
0.80177
0.77918
0.80970
-0.10605
-0.10930
0.59136
-0.18790
-0.11665
-2.88529
-1.59665
-1.03710
0.43137
0.08499
0.75520
-0.11937
1.05616
0.80966
0.79095
-1.95476
-0.12625
-1.02756
-1.04120
0.82923
-0.10039
-0.97396
0.81175
-0.67986
0.13129
-1.98108
-1.49731
-0.26010
-1.99108
0.37187
0.76988
-1.98869
0.05474
0.01018
0.78474
-0.65045
0.76869
0.77934
0.76473
-0.21864
-0.00410
0.80607
0.80386
0.80600
-0.77327
-0.93766
-0.94001
0.25873
0.05746
-1.74176
-1.73982
1.95447
-2.68970
-0.23388
0.00220
-0.11105
-0.86827
1.31997
-1.45418
-0.35210
0.64694
0.64849
-0.49864
-0.56809
1.17083
0.15353
-1.48480
0.06677
0.35101
0.32641
0.84381
-0.47632
0.92640
0.53405
0.54224
0.06433
0.16792
-0.72762
0.53102
0.70380
1.00380
1.00812
-1.76559
0.08399
0.08359
1.00673
0.33135
0.05540
-0.74205
0.73923
0.81436
-1.02638
-0.12448
-0.24635
1.36470
-0.01092
0.87066
-0.01365
0.84412
-0.11814
0.50325
0.11888
0.50218
0.50135
-0.69577
-0.06139
0.13495
0.13392
0.05072
0.74543
0.58267
0.81659
-0.20422
-0.32159
-0.17572
-0.19480
-0.04673
-0.09731
0.69656
-0.53696
0.43454
-0.19565
-0.33548
-0.03237
-0.21895
0.71979
0.71095
0.30339
0.71071
0.69247
-2.04013
-0.20888
-0.25838
-0.00836
-2.95531
0.71771
-2.27679
1.41641
-0.54862
-0.32791
0.00510
0.96065
0.96358
0.96020
0.04176
0.08382
-1.66325
-1.66566
-1.66679
0.54103
0.05542
0.54036
0.11325
0.23610
0.56150
0.89939
0.20696
0.05299
-0.42391
-0.86232
-0.15684
0.53072
-1.42299
-1.70962
1.94473
0.35777
-0.41735
-0.04367
-0.15433
-0.48716
0.54151
-0.62802
0.52620
-0.25270
0.52562
0.54180
-0.17107
-0.23667
0.07936
0.53366
0.00284
-0.39378
0.53216
-0.39429
-0.52658
0.53464
-0.29690
-1.21521
-0.76837
1.35398
1.19567
-1.15971
1.28916
-0.04000
0.69313
0.60996
-2.90098
0.76400
0.76845
0.59301
-0.36360
0.43350
-1.38551
-1.43784
0.48065
0.22755
-0.85860
0.20772
0.12224
-0.19027
0.22774
-0.67747
-0.25125
0.03863
-0.02862
0.39983
0.15238
0.52123
-0.04334
0.88939
1.13535
0.14782
1.12782
-0.71239
1.84660
0.92062
0.66942
-1.83375
-1.83463
-1.83285
-1.82439
-1.26045
1.84243
0.28787
0.19238
0.53259
1.40179
0.56876
-1.04679
0.67337
0.67152
-0.24147
-1.17059
0.67203
0.67885
-3.02048
-0.24122
-2.54287
0.67352
-0.26618
-2.09253
-0.08319
-0.41256
-0.24939
0.69764
0.67968
-0.24909
0.67761
0.66426
-0.24353
0.43310
-0.24702
0.55510
-0.06053
0.67448
-1.31551
0.24808
0.11735
0.86156
-0.05769
0.64678
-2.70420
0.42792
-1.20834
0.20291
-0.49800
0.33204
-0.48717
-0.51192
-0.49191
-0.72710
1.81277
0.35517
0.07579
-2.77285
0.89876
-2.57673
1.08590
0.25001
0.10632
1.44139
0.15460
0.94282
-1.70824
-0.07881
0.76191
-0.67808
-1.01622
-1.04334
-0.96651
-1.04287
-0.58093
-0.09489
-0.01998
0.21160
-0.33946
0.53859
0.53858
-0.41779
0.07551
0.30225
0.32226
0.45531
1.53310
-0.30845
-1.22304
0.49557
0.62031
-2.14922
0.61670
0.31102
1.54603
0.56766
-2.15943
-1.22533
-2.14781
-1.21939
-0.66517
-0.29999
0.54573
1.54285
0.61881
-1.37865
0.53467
1.81034
-1.87779
0.05687
0.04116
-0.32328
0.43156
0.40739
1.71191
1.58503
0.08003
-1.32266
-1.32198
-1.32084
-0.30003
-2.24602
-2.26977
1.73666
-2.08992
0.84487
1.40927
-1.15295
-0.74340
0.29515
0.08133
0.12896
-0.75511
0.05589
-0.22288
-1.01332
0.13229
-0.14774
-0.07124
0.43114
0.60953
0.48353
-1.00683
-0.23868
0.54485
1.36164
0.27502
1.42684
-0.31333
0.66493
-0.04031
0.45218
0.68719
-0.14108
0.16411
0.60908
-1.97876
0.91074
0.67673
-0.23711
0.49974
0.68484
0.08281
-0.23223
-0.24357
0.67673
0.01625
1.42699
0.30910
-0.11502
-0.73313
0.09634
-0.45741
0.05622
0.54103
0.00649
-0.90118
-0.86478
0.52127
0.52145
-0.18218
-1.64231
0.19788
0.19034
0.54298
0.68149
0.33559
0.19758
0.30260
-2.67003
0.24474
0.94487
0.68596
-2.63280
1.01831
0.98262
0.13672
-0.86864
1.39547
0.46975
-0.45386
0.47030
-2.30591
-0.04584
0.87722
-0.04591
1.13887
0.62362
0.81355
0.91401
0.22223
0.22689
0.21396
1.14484
-0.59895
0.16932
0.53015
0.10709
-2.97204
-1.41534
-0.44968
-1.79620
1.18636
-2.49038
0.11591
-0.05373
0.87544
0.19506
-0.49647
0.42791
-1.38353
0.26236
0.78749
1.29251
0.18732
0.10720
-1.96089
-0.04312
0.65453
-1.96580
0.54920
-2.48593
0.05719
0.05719
-0.04310
1.51935
-1.59785
0.16653
0.25174
0.68451
-0.16793
-0.34659
-0.87160
0.55633
0.55373
-2.21941
0.38460
0.37508
0.39981
0.36641
0.36983
0.38142
0.23850
0.05588
-2.38741
-0.55148
0.53567
0.38214
-1.78409
-2.41061
1.68485
-0.75559
0.82156
0.41313
-0.81289
0.13019
0.19328
-1.22036
0.29052
0.06337
-0.93089
0.81136
0.72214
0.92276
0.92230
-0.11761
-0.14054
0.59001
0.54160
0.05747
-0.80609
0.21727
0.89319
0.34612
-2.08640
0.53754
-2.79291
-0.07906
-0.37612
-1.80829
-1.82790
-1.84944
-1.84027
-1.83469
-0.91459
-1.46924
0.75839
0.68108
1.16388
1.88295
0.53761
-0.12103
0.58580
1.73063
1.35807
1.48141
-0.03691
0.08002
0.98644
-0.33803
-0.42994
-2.28065
1.40931
1.40804
-2.27785
-1.36174
-0.39360
0.55455
-1.38550
0.53784
0.10458
-2.60134
-2.59306
0.13614
-1.69519
-0.42512
1.18294
0.40164
0.70321
0.09035
0.45999
0.44951
-0.05725
0.25366
0.45799
-2.31350
0.45257
0.52100
-0.46894
-0.09604
-0.18228
0.74322
0.60286
0.72869
-0.78644
-0.19652
0.72172
-1.12470
0.77870
0.53643
0.28507
-0.26903
0.30008
0.47398
0.10395
-0.06972
0.86775
-0.05749
-0.05853
-1.76559
-1.76608
-0.84873
1.93447
-1.96692
1.01888
-1.38105
-0.57603
-0.32503
-0.35360
0.43073
0.68272
0.05787
0.24356
0.23073
-0.14472
0.64477
-0.18661
0.53953
0.53239
-0.02562
-0.15812
-0.64799
0.27833
0.71116
-1.31463
0.71559
-0.83861
-0.90659
0.28413
2.46291
1.54125
2.44618
0.55090
-1.22466
0.05657
-1.59976
1.54714
-1.60349
1.00589
-0.64360
0.31544
-0.34809
-0.67934
0.03926
0.24695
-0.99902
-1.60385
2.08905
-0.16823
0.82413
0.24467
-0.04175
-1.59766
1.04563
-1.59271
0.53385
0.60479
0.04828
0.34803
-0.46046
-0.19818
-0.14991
0.70951
0.62028
0.77998
0.72397
-2.91808
0.50736
0.69368
0.72821
-2.02355
-1.00682
-2.95031
1.11397
-0.26314
0.65618
-0.65474
-1.03962
0.24590
0.01589
1.18112
-1.59254
-1.58978
0.12612
0.57121
0.39969
-0.46149
-0.08779
-0.01756
0.80837
0.77724
-1.34669
-1.34718
-0.52076
0.73719
0.32438
-1.53000
1.24883
0.17683
1.24766
-0.02944
0.96111
-1.81588
-1.25090
0.56618
0.55262
0.53809
1.69141
-1.42654
-1.06111
1.03565
0.53123
1.65800
-0.43455
0.29149
-0.40230
1.19567
0.28900
1.20405
1.20423
-0.20816
1.20313
1.19714
-1.86140
0.90891
0.86202
-0.10778
0.15268
0.11924
0.53245
0.37174
-0.05560
-2.53108
-0.16488
0.01739
-0.39864
0.54966
1.87161
0.22567
1.43240
-2.25537
1.43181
-1.32612
1.43482
1.28985
0.96100
0.03881
0.16964
0.03890
0.96613
0.96351
0.03979
0.96448
-1.02649
0.54105
0.05605
-2.27478
1.41784
1.41997
-0.79678
-0.74098
0.34400
-0.65986
-1.10894
-0.34521
-0.66431
-0.77164
0.05353
0.32455
-1.29152
-1.29196
-1.29047
-1.29290
-1.28989
-1.29209
-1.29184
-0.83654
-0.05646
0.17560
0.05299
0.74195
-1.90229
-0.98137
1.78705
-0.42865
1.00590
-2.19747
0.42846
0.47206
-0.05116
0.51292
0.12988
0.51423
-0.83274
0.13831
2.72708
-0.34729
-0.00206
-0.18744
0.73783
0.04117
-0.23828
-0.16508
0.53345
0.53356
1.23678
-0.28749
-0.02970
-0.79402
-1.89908
1.57020
-0.26474
-0.48814
1.54230
0.34821
0.73061
0.73139
-0.16212
-0.06721
-0.09602
-0.20555
0.62012
-0.60546
0.85927
0.02531
0.04914
-0.28217
-0.13468
0.78963
0.21873
0.10389
-2.89832
0.79013
-1.98461
-0.13697
0.78836
0.77910
0.64174
0.19578
-2.90289
0.78468
0.78299
0.79435
-0.13540
-0.12797
-0.14963
-0.04413
-0.12325
-0.12625
-0.31846
-0.07145
-0.75312
-0.07349
0.53741
-0.24246
0.49316
0.19112
0.44131
0.49888
0.49331
0.50145
0.17563
-0.39354
0.53856
-1.35744
-0.47874
0.62275
0.62827
0.62361
-0.30035
0.05448
0.61510
0.22913
0.62388
-0.02299
0.62283
0.36355
0.30003
0.62851
0.45796
0.46299
-0.45616
0.53279
0.14127
0.10500
-2.83550
-0.01807
-0.61049
-1.53652
1.21254
0.20552
0.80556
-1.38504
0.81487
-0.30617
0.52314
-0.53616
0.64207
0.63624
-1.09182
-0.35159
-1.38172
0.19938
0.30152
0.06246
-1.36397
-1.21014
0.90007
-0.91912
-0.19847
-0.02491
0.15923
-0.85194
-1.55900
-1.56568
2.13871
-0.63914
-1.55999
-1.56171
-1.56201
1.32007
-2.34611
-2.35445
0.41119
-2.35587
0.92872
0.40265
0.54781
0.21953
0.61032
-2.15434
1.53445
0.58067
-1.29272
-1.08994
-1.29405
-1.29210
0.55269
-0.21540
-0.12187
-2.66142
1.03467
0.53468
-0.90822
0.74455
-0.47203
0.83330
-2.02848
-0.09027
-0.63862
0.61880
0.52512
0.52476
-0.22725
-0.21920
0.73538
-0.18567
-0.22336
-1.83240
0.94440
0.29733
0.43641
-1.71315
0.20969
0.53143
0.53902
-1.33925
-1.34003
-2.47712
0.46483
-1.44455
0.80089
0.25938
-0.11815
-2.22244
1.18296
-1.95560
1.19699
-2.48547
-1.57403
1.02516
-1.57784
0.25400
-2.50802
-2.51024
0.18713
0.68629
-1.58317
-1.58249
-2.49100
-2.51030
0.20903
-0.35593
-2.26150
0.06098
0.06096
-0.43869
0.64527
1.95278
-0.26907
-1.73590
0.95370
0.74260
1.02924
-1.73147
-0.38571
-1.38725
0.36195
0.72264
-1.60967
0.36404
0.34880
0.02107
0.52832
0.52656
0.52670
0.26656
-0.29173
-0.53955
0.88246
0.27711
-0.68655
-2.54179
0.04865
-0.11945
-0.68825
0.22950
0.29970
0.75493
1.26625
1.78890
-0.90223
0.51986
0.51954
0.51952
0.52133
0.52156
0.54298
-0.10250
0.64600
0.46948
-1.65079
-1.25590
-1.66107
0.18671
-1.65351
-0.72262
-1.65398
-1.65568
-1.65913
-1.67402
1.35523
0.77870
0.06398
-2.07639
1.60164
0.69995
-2.06628
1.28425
1.60183
0.05492
-1.13703
-0.53850
-1.14389
-2.08636
0.68282
1.08331
0.82490
0.68526
0.69913
1.59494
0.45639
-0.22717
1.60517
-1.16755
0.68344
0.07274
0.36537
-2.00643
0.37957
-0.23602
-0.45356
-1.38284
0.05701
-0.15569
0.51786
0.51800
0.51694
0.51712
0.51773
-0.72461
0.35198
-0.49246
-0.19384
-1.38132
0.06016
0.29147
0.30662
-0.11995
-0.16699
-0.72249
1.02848
1.12427
-2.55810
1.10883
0.30070
2.95188
2.94388
-0.36297
-0.08545
-2.49889
1.18767
-0.18108
0.93390
-0.16475
0.93802
-1.80506
0.06007
0.06014
0.42462
0.10559
0.09358
0.55540
0.53873
0.31965
0.32763
0.32735
0.18694
-1.56070
1.21693
-1.55700
-1.56041
-1.12760
0.46308
-1.67499
-1.67436
-1.67428
-1.67480
0.88749
-2.95576
1.61978
-0.00671
-0.16174
0.05579
0.53082
0.05952
0.04202
-0.89931
0.67000
0.37452
-1.24508
0.80086
-1.95461
0.85087
0.52106
0.52102
0.82778
0.52112
-0.91085
0.97988
-1.25801
0.04311
-1.22610
0.23037
0.06218
-0.31012
0.50062
-1.36905
-1.19615
0.46330
-1.16725
1.25792
0.11739
-0.72339
-0.14083
-0.79508
0.52742
-0.93059
0.54626
0.52121
0.46304
0.52058
0.01347
0.53541
-0.33728
-2.13579
-0.21871
-0.30422
0.29641
-2.03781
0.16507
0.88428
0.51876
0.36401
0.60698
0.59412
0.00995
0.95424
-1.81656
0.07599
0.31644
0.00250
-2.63476
1.05419
-1.72081
-0.79991
0.13293
0.12760
-0.13835
0.12989
-2.64652
-2.63798
-0.21101
0.05599
0.25772
0.14778
-2.66478
0.88155
0.30462
0.02014
0.12863
0.76915
-1.16243
0.84404
0.99540
-1.76195
0.16786
-1.54873
-2.66305
0.95147
-0.16276
-0.42969
-0.19962
-0.25144
0.22368
-0.45764
-0.38707
0.50040
-1.09852
0.60061
-3.19900
0.50221
0.58442
-0.08328
-2.00838
0.33477
-2.00439
-2.01057
-2.00784
0.67759
0.75584
0.80837
0.46378
0.50204
0.43073
-0.53466
0.54199
-0.25082
-0.43011
-1.71801
-1.72350
1.04993
-0.79768
-0.00476
-0.16139
0.08066
-0.01629
-0.06697
0.53760
0.27951
0.37342
1.86046
-1.82867
0.65701
0.64651
-1.18995
-0.26671
0.30710
0.01159
-1.24104
-0.07802
-0.04620
0.44003
-0.40865
2.36871
-0.86657
-0.00201
0.45078
-1.14765
-3.16566
-0.56212
-0.12942
0.60353
0.62734
0.36678
0.37436
0.62190
0.45873
0.65841
0.63325
-0.15230
-0.39277
0.48243
-0.39078
1.08953
0.47105
-0.27996
0.01959
0.83401
-0.30113
0.71270
0.78965
0.77761
1.08973
0.24257
-0.22277
0.45829
1.96878
1.03554
-1.72488
0.59881
0.43679
0.53932
-0.28071
0.10694
1.31340
0.22460
-0.08955
0.41302
0.45740
0.35254
0.57548
-0.28274
-0.32466
-0.93728
-1.25375
1.09713
-0.14288
0.69947
0.42470
-0.39659
-0.52227
0.56898
-1.15787
-1.95902
-0.04064
0.17021
-0.43685
0.27006
-0.53624
0.45466
-0.33402
0.43344
-0.12750
-0.12081
0.22505
0.47785
0.25215
0.47347
-0.09512
-0.51199
-0.44075
0.29339
0.27344
-0.44702
0.47136
0.47219
0.46376
-0.13663
0.70516
0.43403
0.47200
-0.03571
-1.31911
0.45476
0.34784
0.63816
0.45428
0.45234
0.44670
0.73725
0.12170
0.62652
-0.32842
0.62702
-0.26107
0.66816
-2.11068
-1.18244
0.52650
-1.30402
0.48139
-0.71869
1.04406
0.24323
1.12774
-2.56109
0.21210
1.12638
-1.11405
-0.48274
-0.14209
0.78323
-1.48993
0.34385
1.25519
1.26208
1.25464
0.66814
-1.04828
-3.28782
-0.52948
0.37548
0.42991
0.38025
0.72748
0.39202
-0.88815
-1.38502
-0.52712
0.47183
-1.33640
-0.02293
0.30788
-2.42170
1.17746
-0.82315
0.95649
0.08042
-1.84464
-0.92050
-0.09331
-0.22336
0.54558
0.35044
0.65286
-2.55469
0.10119
0.16392
-1.51137
0.37668
0.65484
2.05123
-0.24380
-0.22840
-0.53125
0.57848
0.76283
0.66338
0.65536
-3.12346
-0.90528
-0.01822
-0.25044
0.02107
-0.38958
0.09392
-1.43735
0.01230
1.30759
0.39910
-1.45845
-0.18336
0.39069
0.35863
-0.97610
0.13682
-1.42822
1.30614
-1.06336
0.78393
-0.01529
0.85900
0.03914
1.13828
0.21000
1.10871
-1.29156
-0.23455
0.43322
0.85794
0.54786
0.31442
-0.50748
-0.26207
0.55105
0.55410
0.53359
0.02311
-0.97483
0.07644
-0.11711
-0.21463
0.54258
0.53543
1.40966
0.49332
1.41116
0.27087
0.50063
1.41952
0.48415
0.75792
0.51761
-1.33617
1.40891
-1.66404
0.48803
0.04477
0.63583
-0.17127
0.06210
0.06195
-1.07123
-1.88385
-1.87889
-1.88557
0.86379
-0.52208
1.82453
-1.88349
-0.03300
0.89258
-1.87715
0.71519
0.54657
-0.16259
-0.54323
0.31342
0.51446
-0.39420
-0.21253
-1.31959
-0.33303
1.42836
1.40131
0.50880
0.32057
-0.91568
-0.99270
0.31552
1.43112
-2.19670
-1.39179
-0.95175
-0.48232
0.44368
0.44384
-1.40456
1.18181
1.58062
0.56483
0.86579
1.16796
0.60315
0.66996
-0.05593
-0.16165
0.85152
-0.77704
0.87223
-0.31180
0.86502
0.86637
-0.97826
-0.24491
-1.31618
-2.80000
-0.22529
-1.33819
-0.10156
0.41329
0.08542
0.96097
-1.40840
-1.41151
-1.41127
-0.48356
0.52721
0.59148
-2.32111
-2.35512
-0.65427
0.14469
0.17187
0.70325
-2.07289
-2.99217
-0.14428
0.70323
-0.70847
-0.32413
0.69997
0.33110
0.75379
0.13248
0.16094
-0.38537
0.05975
0.05970
0.53925
-1.64172
0.49177
0.49738
-2.27292
0.25543
0.76818
-1.10947
-0.14102
0.61385
-0.13876
-0.14847
-2.90563
-2.27912
-0.15950
0.76191
0.38300
0.54040
0.30444
-0.51414
-1.34559
-1.34642
-0.17791
0.10632
0.72491
1.03504
1.22159
0.33905
-0.01398
-0.48784
1.44361
0.03535
0.05930
0.55180
0.46142
0.12327
-1.39209
0.05871
0.05872
1.80304
0.35862
-0.17217
-0.43171
-0.98529
-0.75522
-0.28915
0.05741
0.05793
-1.28335
1.38291
-1.38880
-0.22659
1.13418
0.57442
1.37923
0.06015
0.54330
-0.32272
-1.16652
0.40273
-1.09065
0.05912
0.54452
0.17486
1.53047
1.53351
-0.46874
0.47579
0.05526
0.94519
0.54489
-2.77624
-0.63569
-1.56397
0.21605
1.21383
0.04782
0.54062
0.13356
1.00126
-0.04027
-0.64761
0.47076
0.66963
0.68604
0.33912
0.45546
0.12960
-1.39015
-0.46116
-1.23540
1.53708
0.74913
-1.23821
0.61417
-2.45162
0.45819
0.82972
-1.93968
-0.21766
-0.23811
0.82467
0.82465
-2.07567
-0.14569
0.77959
0.05351
-0.40148
0.54260
0.10293
0.14020
0.97937
-0.06708
-2.84805
0.31026
-0.89668
0.85033
-2.83469
0.79144
0.05785
-0.20054
0.47191
1.38987
-2.29551
0.46999
-0.03983
-0.03780
-1.89008
-0.06759
-0.44666
-2.33029
-0.06231
-0.56543
0.55338
-2.18920
-0.90696
0.41920
0.05000
0.54566
0.46209
0.53735
0.28117
0.66934
0.54443
-0.14960
0.18277
0.70864
0.79628
-0.11763
0.79684
-1.04385
1.03458
-2.87317
0.11046
-2.86970
-0.09742
0.19837
0.60929
0.49971
-0.11600
-0.65953
0.21327
0.04271
0.05919
0.54146
-1.73156
0.11925
-0.80685
0.53643
0.22163
0.46879
-0.21855
1.21279
1.56156
1.21089
-0.30171
0.56668
-2.47661
0.09164
0.52318
0.52360
-0.07000
0.52330
0.02486
-0.88350
0.48826
0.12154
0.04815
1.25647
0.05683
0.05683
-1.66696
1.67765
-1.08069
1.67583
1.60587
1.67828
0.67030
-1.99374
-1.99748
-2.00705
-2.00815
-1.99200
-2.01139
-2.00872
0.76472
-2.00105
0.74932
-1.06868
1.68353
-0.40279
-2.00571
0.76925
-1.98272
-2.00781
-1.99728
-1.08690
-2.00244
-1.08567
-1.22427
0.34959
0.05545
0.05561
-0.69702
-0.69892
0.45254
-0.26715
-1.57458
0.09297
0.62601
0.38599
0.64094
-0.98862
-0.27444
0.46224
0.64297
0.65151
0.64213
-1.17943
-0.27697
-0.27219
0.57819
0.59817
0.64890
0.43313
-3.02038
-0.27422
-0.26844
0.64431
0.64405
0.53689
0.64526
0.64557
-0.38599
0.33956
0.67586
-0.05058
0.42323
0.64567
0.63624
0.09065
-2.10941
0.63838
0.64816
-3.02584
0.57546
0.21522
0.64668
0.63001
0.63868
-0.27847
0.63283
0.65301
0.35045
0.64533
0.63724
-0.25879
-0.24208
0.63967
-1.17891
-0.25708
-3.03102
-0.29108
0.00533
-0.24278
0.64731
0.09239
-1.17662
0.63668
0.63871
0.64584
-2.10209
-3.03177
-1.38864
-0.19411
0.28212
-1.43493
-1.48290
-0.75711
0.04455
0.27104
0.98966
-0.70174
0.65904
2.01926
1.13699
-0.74572
1.12095
0.09794
0.77156
-0.48237
1.07522
-0.77464
-0.61030
-2.33346
-2.34111
1.27371
1.35047
0.26244
0.43603
-0.56345
-0.99181
-1.92525
0.77327
1.76668
1.77596
-1.93100
1.77032
0.84274
1.78556
-1.87496
-1.00456
0.84842
-0.99488
-1.92132
-1.91996
-1.92213
-1.24943
0.85578
-1.91968
-1.91716
-0.99677
-1.92078
1.78299
-0.99723
-0.06638
-1.92303
-0.99689
-1.91944
-1.92283
-1.92318
-1.92050
-2.60314
0.68022
-0.29944
0.05575
0.05576
0.05729
0.60420
-0.49458
0.30414
-0.43487
-0.43977
0.05936
-1.57821
0.05769
0.54369
1.01135
0.13666
1.25327
0.34507
0.44278
-0.18140
0.40812
0.17471
0.37581
1.89458
-0.42128
1.11721
0.18829
0.34902
-0.35517
-2.80511
-0.50004
-1.44987
0.55120
1.55915
-0.25779
1.37233
0.64992
0.88325
0.01261
-0.92098
-0.47194
0.42148
0.06343
0.27944
-0.56832
-2.23358
-0.53137
-0.20715
-0.20852
1.09927
0.73090
0.31095
0.34422
0.38539
0.47523
0.28618
0.05711
-0.89565
-1.80647
0.97183
0.53261
0.94090
0.11337
0.52753
0.15085
-1.70229
0.55052
-0.04062
-1.05029
0.71055
0.18049
0.05506
-0.82257
0.83961
0.83781
-0.07325
-0.28571
0.51971
1.74489
-0.81074
-1.75822
0.82358
0.77584
1.74209
0.16972
-1.75856
-1.76127
-1.75826
-1.76852
1.69410
1.91938
1.92655
-1.75182
-1.76810
1.92606
-1.75333
-0.83134
-1.75311
-1.75358
-1.77033
1.91552
-0.83848
0.98988
1.92721
-1.76048
-1.76248
-1.76106
-0.43623
-1.76251
1.54838
-1.75776
-0.04374
-0.78129
0.10655
0.10304
1.42792
-1.22555
0.20068
-0.39020
-0.10350
0.26661
-0.34267
-0.47294
-0.69054
0.00634
0.02616
0.02343
-0.23246
-0.14082
0.02538
-0.90339
-0.08089
-0.31143
0.84493
-0.07670
-0.98914
-2.11811
0.83437
-0.98079
0.18000
-0.41227
1.37837
0.32386
-0.59178
-1.76786
-0.09720
0.48800
-1.48098
-1.48180
0.36873
-1.28506
-0.56025
1.29163
-1.48349
-1.47547
0.54215
0.53798
0.64698
-0.90654
-1.38836
-0.10119
-0.77252
0.47946
0.06678
0.07032
0.70346
0.68080
-0.74358
0.06639
-1.76217
-2.68655
0.07531
0.26746
-0.01185
-0.16826
-0.88708
0.54449
-1.64463
0.69201
0.20728
-1.54776
-1.64225
-0.72266
-1.38676
-2.49310
-2.49257
1.20820
-0.04669
0.48867
0.00042
-0.00296
0.56746
0.53564
0.53597
0.55578
0.00768
-0.42547
0.51803
-2.83398
-1.90730
-0.05438
0.86432
0.69683
-0.05962
0.39720
-0.05476
-1.64863
0.19709
-0.72747
1.11494
-2.57785
0.64484
0.80794
0.79533
0.00011
-0.18033
0.05864
0.07403
-1.11714
-0.50342
-0.68531
0.92810
0.02561
0.10620
0.01793
0.32193
-0.03017
0.02098
0.00734
0.93203
0.00613
0.09321
0.89034
0.06312
0.54508
0.84345
-0.16237
-0.03212
0.54395
-1.80797
-1.80613
1.00114
-1.34397
-1.34417
0.92963
0.49519
-0.43766
0.30927
0.12555
-0.15493
0.11247
0.07550
0.01484
0.35966
-1.38626
-1.38616
-2.40311
-0.23421
0.14958
-0.13592
-0.14198
-2.47263
1.21477
-2.47251
1.21047
-0.62453
-0.10596
0.40344
-0.52398
0.12902
0.40512
0.40637
0.41274
0.40661
-0.52103
0.39528
0.54536
0.40339
0.40559
-0.55430
0.40519
-0.51892
0.40189
0.67184
0.67379
0.65909
-1.16284
0.44668
-0.53198
-2.09560
1.58741
0.39826
0.67311
0.67431
0.66069
0.67140
1.18217
0.85206
1.22884
0.66545
0.24812
-2.00444
-0.64096
0.61464
1.60168
-0.36101
1.58249
0.66426
-0.19978
1.58434
1.58620
-0.33504
0.70386
0.42274
-1.09718
-0.20139
-2.09422
1.51242
0.05000
0.36266
0.13174
0.98025
0.44989
0.54404
0.54457
0.54657
-0.42571
0.79439
0.77575
0.20828
0.75559
-0.12847
-0.13109
0.91206
0.69856
0.42574
0.54219
0.25532
-0.02293
0.26182
1.06705
-0.78339
-0.09113
0.06225
0.73143
-0.18135
0.24368
0.04654
-1.92370
-1.18897
-2.13047
1.59703
0.17657
-2.11604
-2.11507
0.63999
-2.13280
1.58761
-1.18778
-1.17904
-1.97332
1.58147
-2.11185
-1.43603
-2.09963
-2.13029
0.05211
-1.38893
-0.10470
0.56016
0.50891
0.54102
0.57949
0.55033
0.50359
-0.46807
0.55832
-1.13491
-3.10793
-3.12846
-2.20050
-0.79014
0.77133
-0.15382
0.07457
0.22789
-0.12459
-0.16102
0.60435
-0.52902
0.36188
-0.94670
0.61297
0.60471
0.53747
0.39007
0.63324
-0.00622
-0.53163
-1.04632
-1.04704
-1.05357
-0.12269
-1.04928
-1.04856
-2.19087
-0.43894
0.36175
0.27861
1.19778
-0.39911
-1.38424
-1.38430
-0.51975
-0.83783
-0.73973
-1.65950
-1.85791
0.09951
1.67633
-0.73589
-0.06459
2.11626
0.62878
-0.42797
0.13862
-1.77895
-1.78716
0.53990
-0.18037
-1.38869
-0.42652
0.43127
0.39943
0.53873
0.94245
-1.71671
-0.42686
0.08226
0.11793
2.22694
-1.89748
-1.90655
1.05197
0.87285
-0.04368
-1.89958
-0.97185
-1.89845
-1.70665
-0.96952
-1.90010
1.79548
-1.89356
-1.89853
-1.90921
1.79033
0.09413
0.53963
0.53373
0.55185
0.55297
0.56025
2.09532
-0.40011
0.55843
0.64939
-0.09133
-0.70152
-0.09177
0.22897
-0.20351
-3.45975
0.22195
0.24103
0.58217
0.21131
-2.77584
0.41622
0.44807
0.44998
0.44871
0.24718
-0.47219
0.44921
0.44561
0.45033
-0.47541
0.45317
-1.39561
-0.47489
0.44791
0.44203
0.45000
-0.58331
0.45292
-0.11377
-0.47602
0.45183
0.46027
0.44983
-0.47261
-0.38199
0.44986
-2.56055
-0.71146
-1.64608
-0.71618
1.03456
1.12480
-0.07334
0.29633
0.29929
0.30025
0.29852
0.29408
-0.43266
0.29957
0.30118
-1.55067
0.29811
0.05392
0.29653
0.29838
0.22275
-0.77636
-1.49538
-1.23945
0.40269
-0.81796
-0.24572
-0.31329
-1.24000
-1.23907
-1.24167
-0.07952
1.50346
0.58299
-2.18717
0.51020
0.24534
1.21401
0.87034
-1.50071
-2.40958
-1.48744
0.39654
-0.75887
0.79130
0.09241
0.67086
0.79607
0.60570
0.65080
0.53796
0.58004
0.17022
0.33380
-0.59169
0.17660
-0.42955
-0.70302
0.56960
0.05309
0.05130
0.01519
0.28762
0.81670
1.32064
0.38608
-0.54259
0.53677
-0.52040
-0.45014
0.33978
1.33313
-0.09558
0.48536
-2.53256
0.22456
-1.61242
0.26925
-0.81627
0.30477
0.18556
0.30474
-0.46689
-0.02084
0.31766
-0.60741
0.62973
-0.28815
-0.64192
-1.38849
-0.21266
-0.48087
0.71353
0.22489
-0.09214
-0.70974
-0.00190
0.53770
0.00446
-1.84605
-1.81293
1.85055
1.84993
-1.84756
0.05792
0.05791
0.05892
0.54042
-0.10358
-0.12359
-2.19997
0.86109
0.10956
0.49637
-0.14594
-0.11552
2.35099
1.45718
0.16017
-0.42096
0.43398
0.43701
0.55520
0.53706
-2.19753
-1.56149
-0.35644
-2.22457
1.44204
0.54031
1.35726
1.47678
-2.21714
1.47572
-2.19236
-2.30424
1.39217
0.43642
-1.34449
-1.34393
-0.18109
0.00406
1.17362
-1.04317
1.37154
0.29895
-1.29706
-0.60602
-1.54307
1.74666
-1.55563
-0.14014
1.60757
-1.55421
0.72705
1.22488
1.22308
-0.54714
-1.61336
-0.69443
-1.61508
-0.20571
-1.61671
0.21631
-0.69099
-0.32222
-0.20917
-1.41058
-1.41228
1.36725
-1.21396
0.34084
-1.50563
1.26103
-1.38850
-1.38867
0.32866
0.16372
0.16507
0.56968
0.53726
-0.66523
-0.37913
0.48672
0.52395
0.52370
0.55107
-0.42499
0.51351
0.51350
0.51342
0.51326
0.51378
0.29971
0.51297
-0.99604
-2.50714
0.98227
-2.49442
-2.50753
1.10783
0.48935
-2.50637
1.02721
1.16763
0.24756
0.28027
-2.48680
-2.50262
0.81056
1.17323
0.38158
1.17896
-1.04479
-0.59104
1.16024
1.17626
-2.50278
0.81851
-0.54172
-2.49552
-1.55752
-2.49263
1.15266
0.92850
0.05309
1.16553
-2.50104
1.16109
-0.60740
1.16065
1.16394
-0.01467
0.67737
2.03110
0.02750
-0.00479
0.75134
-0.06094
1.27555
-0.56185
1.27958
1.28836
1.26867
0.36549
0.24298
0.35987
0.35453
1.28191
-0.42944
-0.73308
0.36477
0.75052
0.35822
0.72015
0.81574
0.32325
0.37252
0.47640
0.47716
-0.79896
-0.74784
-0.48837
-0.26165
-0.87679
-1.83964
1.64583
0.36943
1.67388
-1.97950
0.74751
-0.90203
0.46181
-0.15564
1.21478
0.54159
0.75444
0.75603
1.53435
-1.05880
-0.54127
0.53488
-1.19860
0.41302
0.37749
0.41312
-0.23237
-1.03309
0.81583
-1.38214
-0.12236
0.26353
0.10310
-1.54789
-0.62525
-1.54122
-1.54463
-1.54507
-1.54290
-1.54788
-1.55112
-1.55261
2.15380
-1.39385
-0.62822
-1.54978
1.22867
-0.41593
-0.15741
0.53288
-1.82696
0.94607
0.03476
0.31111
-0.11840
1.23914
-2.43368
-1.52578
1.19980
0.81280
-0.00655
-0.59300
-2.45848
1.23165
-2.42175
-2.43721
-1.01161
-2.44107
-0.90530
0.00615
0.30420
-0.60584
1.15420
1.82371
1.82704
1.83110
-0.92931
-1.84337
-1.86105
1.83109
-1.51194
0.20972
1.53946
-1.88619
-0.03542
-0.19394
0.84645
0.53774
-1.38104
-0.40231
-0.67837
0.30040
0.25136
0.24831
0.01314
-0.10931
-1.78948
0.54987
-0.03894
0.39028
-0.39006
-0.05213
-0.58367
-0.07232
0.02492
0.74961
0.35445
-0.58206
0.34678
-0.20445
-0.21860
-1.34241
-1.33982
0.27128
-1.38198
-0.45721
0.22416
0.46567
1.41645
0.24244
1.43288
-1.33575
-2.26524
-2.27266
-2.27059
0.90949
-1.88000
-0.55595
0.04654
0.05198
-0.16462
-0.27636
-2.14626
-2.14607
-0.29977
1.54407
0.34357
-2.14807
-0.19690
1.64242
0.72381
-2.04697
-2.05135
0.73059
-2.79417
-1.39213
-1.05188
-0.12349
-0.42371
-0.12052
-0.12051
1.55487
-1.03861
-0.42470
-0.16499
-0.64309
0.78336
-0.36404
-0.43536
0.97487
0.09248
-1.18137
0.82722
0.55295
-0.60952
-2.46597
0.89909
-0.73483
-1.54765
0.60019
1.22745
-2.46106
-2.46791
0.37514
0.17623
0.70052
0.04976
1.45526
0.28374
1.48398
0.52892
-1.24939
1.42954
-2.20141
0.56854
-0.77061
0.53944
0.54570
1.79916
1.43067
0.29282
0.24335
0.05750
-0.78070
0.81744
1.23663
0.52731
-0.91975
-1.50678
-1.49520
0.26435
0.44191
1.18477
-1.52720
-0.14442
-1.53837
1.77230
0.01281
-1.38415
0.69380
-0.21518
-1.14739
-1.41588
-2.06634
1.62289
0.52239
-0.64229
0.43669
0.23278
1.60832
-0.33725
-0.06595
1.78809
-1.89314
-1.89365
-1.90883
1.78441
-1.90925
1.78397
-0.97560
-0.98569
-0.69267
0.23262
0.23487
0.23177
0.03537
0.17168
-0.11925
-0.02301
0.41287
-0.23478
0.68955
-0.42244
0.68864
0.68824
-0.25650
0.79548
-0.43430
-0.74592
-1.46731
-1.56636
-0.64646
2.12907
0.75309
1.02694
-1.73774
0.73695
0.18050
0.13760
0.90704
1.05541
-1.74083
1.06528
1.06100
0.14537
1.06119
-0.09944
0.21965
-2.48284
-0.80896
1.05375
0.14579
1.05246
1.06149
0.24358
1.06044
-2.39542
1.05147
-2.61238
0.15095
1.05171
1.03854
0.14052
0.13462
0.77337
-0.37066
-1.38537
-0.42423
0.14928
-0.21355
-2.12628
-0.28848
-0.28970
-0.52111
-0.29865
0.62672
0.45027
-0.85776
-1.70720
0.76714
-0.41529
-2.62744
-2.62843
0.54499
-0.76298
-0.86228
-1.20804
-0.86206
-0.86210
0.05954
0.05831
-2.18340
1.39007
-0.09689
0.53482
0.84810
-0.06304
0.26419
0.10174
-1.23132
-0.19891
0.07027
-1.19194
-2.53526
0.14018
0.18156
0.18813
1.16635
-0.59813
1.16665
0.25250
0.53297
-2.06214
-3.00056
0.38569
0.74727
-0.25328
0.23169
-1.62314
0.28757
-0.46442
0.45204
0.19788
0.19727
0.19427
0.20759
0.24974
0.06613
-2.57069
0.12768
0.05639
0.54145
0.33730
0.79932
-0.92761
0.90278
-0.59459
0.43138
0.48894
0.48081
-1.37176
-0.13236
0.77412
-0.74231
1.04435
-0.20866
-0.65988
0.66516
0.19199
-1.02031
-0.21720
0.18943
0.08152
0.05613
0.25490
0.04494
0.31954
0.41140
-1.02751
0.92867
0.54282
0.29119
0.23201
0.47267
1.24819
-1.35941
-1.35985
-1.35894
0.05339
0.05836
-0.77464
-0.91693
-2.38649
-1.45630
-0.53425
-0.62258
0.16633
0.17178
-0.62434
-0.42225
0.01375
0.03911
1.16384
-1.46534
-0.40092
-0.28855
2.16004
-1.50069
-0.80164
-2.45739
-0.36983
-2.46872
1.05552
0.28601
1.21607
0.28565
0.27665
-0.82374
0.03706
-1.38075
-0.90202
-0.94781
0.74366
0.52007
-0.43221
0.14159
0.74283
0.24448
0.05870
1.09451
-1.74840
0.04843
0.52958
0.30542
-1.38561
0.53672
-0.32692
0.06165
-1.63928
1.13616
-1.63786
-1.34752
-1.34761
-1.38989
0.49925
0.27592
-2.49782
-1.56024
0.93654
-3.11002
-0.00807
-0.21883
0.22010
-1.37885
-1.38002
0.74972
0.54700
0.26872
-0.03354
-1.73856
-1.80144
-0.41698
-0.42145
-1.01548
-1.94767
0.48052
-1.93968
-1.75327
0.80982
-0.04307
0.79575
-1.91695
-2.59697
1.06089
0.68119
0.27717
-0.88078
-1.18681
0.95233
0.56762
1.87522
1.87154
-0.49168
-0.88319
-1.79338
0.34108
-1.79750
-1.66968
0.48503
-2.13570
-1.80007
1.87246
1.62092
-1.62763
-1.79891
-0.08796
-1.78964
-0.47013
1.01317
0.96314
0.39256
0.90094
-0.72872
-1.79848
1.89518
1.86184
-1.60896
0.03415
0.95814
0.96140
-1.05459
-1.78271
-1.77672
-1.78131
-1.76279
-1.04006
1.88021
1.88334
-0.88515
-1.80927
-1.88431
-1.77800
-1.78504
-1.80246
-1.77313
1.88026
-1.78150
1.85985
-1.78630
-0.59247
1.14122
-1.26254
0.86390
1.00436
-0.33813
-1.79532
-0.03952
0.91750
0.95374
0.96355
-0.36405
-0.77265
0.72393
-3.13586
0.55961
-0.42621
0.56531
0.22829
0.03365
-0.36396
-0.51533
0.56172
0.55704
-0.18174
-2.42910
0.70106
0.84171
0.89045
0.03609
-0.13719
0.30059
-0.14158
-0.12256
-0.20244
-0.13535
-0.51675
-0.02933
-1.13338
1.62623
1.53923
0.71083
-1.13381
0.71842
0.71756
-1.13070
-0.20451
-0.14768
1.63930
-2.05325
-0.21369
1.51764
1.63472
-1.13677
0.72104
-2.05224
-2.12417
0.61795
-0.18555
-2.12523
0.64837
-2.91046
-0.16699
0.62539
0.62693
0.65161
-0.29015
0.63200
0.62754
0.62693
0.36555
-0.28575
0.25460
0.39405
0.63487
0.62677
0.63478
1.00640
0.63261
0.55685
-0.32939
0.63731
0.63019
0.85890
-2.57371
0.55634
0.72710
0.63773
-1.38647
-0.84596
0.10823
-0.81791
0.07682
-0.72769
-0.03188
-2.67424
0.82099
0.59659
1.01795
1.15028
0.70732
-1.59404
0.88902
1.13401
0.21641
-2.52373
-0.40547
0.57052
0.55537
0.09239
-0.23144
1.01051
0.09648
0.71711
1.01036
0.54891
0.81475
-1.30679
0.06871
-1.29911
0.56272
0.04948
0.57516
-1.92392
0.64250
-0.05695
-0.58379
-0.96143
-1.09622
0.53241
-1.32731
0.51766
-0.09291
0.99154
0.23874
-0.42013
-0.34233
-1.77021
-1.76712
-1.68119
0.52194
0.52208
0.04054
-2.28063
0.48035
0.49318
1.28471
-2.28472
0.48444
-0.91716
0.89540
-1.38247
-0.07352
0.30601
0.07614
-0.42577
0.03802
0.10128
0.86639
-0.04596
0.53319
0.69329
0.05475
-0.36884
0.55178
-0.09703
-0.37298
-0.33487
0.54394
0.54360
0.53696
0.53854
-0.37740
0.55182
0.53657
0.04783
-3.13970
-0.33160
0.06421
0.14605
0.06326
0.53730
0.54085
-0.21636
-1.62537
-1.62286
1.15563
-1.62134
-0.70057
0.22907
-1.62440
0.31001
-0.46934
0.65814
-1.17827
-1.39257
1.72160
0.06581
0.32997
0.56706
0.05577
-1.65159
0.36623
0.82455
-3.16994
0.95532
0.89146
0.95648
0.95586
-0.19765
0.95978
0.53040
-0.04431
0.40727
0.21701
0.22606
0.25089
0.23394
-1.35472
0.47321
-0.07227
0.25195
0.57980
0.57440
0.56604
0.51557
-0.13867
0.40442
0.57365
0.64208
0.44787
-2.12542
0.58629
-0.40646
-2.08649
1.59121
1.59565
0.67344
0.67430
-2.08746
-0.50243
0.66208
-0.50441
-0.45499
-1.05054
-0.85164
0.43586
0.41606
0.28571
-0.18367
0.39145
1.00322
-3.26912
-1.35896
-1.38763
0.23330
0.13780
0.48159
-2.36134
-0.58815
0.41318
-0.51493
-0.50356
0.19055
-2.26721
-2.41762
0.30206
0.23600
0.52799
-0.15071
0.10401
0.80795
-0.06450
0.33315
0.41394
-0.21957
-0.28889
0.40904
-0.83245
0.23572
-0.51836
0.40771
0.40790
0.54037
-0.83709
0.40361
0.16423
0.19640
0.66802
-0.33536
0.05454
0.55888
-2.23016
0.19276
0.55091
0.55686
0.15609
0.09384
0.83213
-0.06892
0.82246
0.05270
-2.06021
-1.01812
-0.09714
0.82701
0.83317
-2.86690
0.01237
-1.94187
0.66431
0.40669
0.32087
0.05505
0.05505
0.69264
-1.92839
1.67305
-1.80472
-0.38577
0.77909
-0.14620
0.25509
0.23547
-0.43973
0.27043
-0.49867
-0.14283
0.73067
0.05650
0.21308
1.13104
-1.63503
1.13346
1.13786
-1.63132
0.53828
-0.06776
0.35313
0.76982
-0.50720
0.24687
-0.45527
-0.60367
0.32646
0.52834
0.05929
0.01974
0.78951
-0.13520
0.05702
-0.67594
1.30523
1.36480
-2.33181
0.44587
0.65190
-1.40563
0.37691
0.81248
0.83289
0.51228
0.81996
0.82905
-2.83877
1.00765
0.82714
0.82871
0.83655
0.66457
-0.08377
0.83838
0.83681
0.38428
0.73373
-1.56569
0.83167
0.82176
0.83463
-0.09336
0.82972
-1.37851
0.80529
0.82617
-0.08442
0.84088
-0.08580
-0.10317
0.83448
0.82954
0.81568
0.83345
0.82735
0.82419
0.28680
0.51824
0.53553
-2.35699
-0.78356
-0.69735
0.74059
-0.30467
1.39742
0.54336
0.51063
-0.48178
-1.37995
-0.19335
-0.56459
-1.37231
1.40901
1.42144
-2.27902
0.53898
-1.89788
-1.82400
0.95426
-0.96147
0.13434
1.80012
-1.87321
-1.88257
-0.95758
-0.00197
-0.13217
0.79176
-0.63846
-2.14281
0.63145
1.37710
-0.28981
0.32175
0.53916
1.37698
0.71847
-0.56092
-0.69315
0.03780
0.53404
0.80315
1.77526
-1.38518
-0.95304
-1.85332
-1.99495
-0.04486
-0.11496
0.41995
-0.78006
-1.88343
-1.85924
-1.86669
-1.86637
-1.71793
-1.72871
-0.87355
0.23832
0.74090
0.47828
0.74155
0.40444
-1.38474
0.53575
-0.99338
2.15448
-1.54442
2.15929
0.53621
1.22456
0.65532
-1.35383
0.72707
-0.70459
0.05709
-1.20103
-0.04231
0.52366
0.05525
-1.63849
0.13377
1.13571
-0.71441
0.13248
0.55492
-0.17616
-0.20062
-0.17394
-1.03211
0.26651
-0.09349
0.04833
0.01442
0.04609
-1.92831
-0.08165
0.63403
1.59723
-0.23298
-2.08471
-1.22318
1.32458
0.05700
0.52378
0.52424
0.52416
0.62246
0.41623
0.62084
-0.30422
0.17922
0.77554
0.68269
0.69168
-0.23667
-1.04109
-0.23557
-2.08281
0.05145
0.54079
-0.47498
0.02179
0.53830
-1.56842
1.93536
1.90174
0.80700
-0.08647
-0.87900
-1.51067
-1.42075
-1.43177
0.56797
-1.38553
0.60220
1.52566
-0.30960
-1.23085
-1.13407
-1.24276
0.59974
2.45218
-1.23606
-0.31602
-1.23964
-0.46684
-0.31089
0.05570
-1.43271
0.02427
0.61054
0.05129
-0.10008
-0.20753
0.70238
-2.39456
-0.33113
0.78277
-1.17663
0.10845
-0.13336
0.79356
-1.05740
0.44223
0.79313
-0.00843
-0.00840
0.91597
0.07038
0.91702
-0.25451
-3.37299
-0.81572
-0.59734
0.30991
-0.15818
-1.23326
-1.24417
-2.16410
-1.23623
1.53280
-1.24267
-1.03091
-2.15528
-1.81197
0.53338
-0.84505
-0.13708
0.55512
0.54238
-0.22032
0.63603
-2.42823
-0.57720
1.25430
-0.51554
-0.58662
0.34015
-1.51500
-2.42724
-0.11032
0.81423
0.81245
-0.05733
-0.01419
0.48255
-1.19119
-0.90662
-2.02905
1.58348
1.58577
-0.26807
-2.73370
-1.81810
0.66136
-0.10253
0.70805
0.54513
0.05865
0.53130
-0.56668
0.00983
-0.00814
-0.86349
0.54072
-1.39061
-1.86889
-0.57144
0.09850
0.05292
-1.53104
-0.47192
-0.25662
-1.55029
0.53135
-0.77888
1.25607
-0.39632
-0.96587
1.51829
0.05505
1.51590
-1.87190
0.59592
-2.18343
-0.55784
-1.26617
-1.25498
-1.27497
-0.09747
0.58969
-1.25956
-1.26070
-1.26203
-1.26329
-1.27048
-0.34031
-1.26816
-1.26508
-0.90498
-1.26784
-1.26059
-1.27044
0.58657
-1.26336
-1.26338
-1.26198
-1.18097
-1.25035
-1.26230
-1.26279
-1.26465
2.42173
-0.34719
-1.25860
-1.25370
-1.38293
-0.27924
-1.26333
-0.15757
-1.26301
-1.26073
-1.27052
0.59804
-0.52125
-1.26014
-0.43085
-1.26167
0.77726
-1.26302
-1.24035
-0.12186
-0.28657
-1.26773
-1.25599
-0.32863
-1.26746
-1.19670
1.50849
-1.25813
-1.26552
-0.99300
-1.26190
-1.26742
-1.26057
-1.26538
0.15911
-1.28390
-1.26851
-1.26430
-1.27093
-1.26151
0.54309
-1.27359
2.43693
-1.38050
-1.27030
0.78801
-1.25781
-1.25584
-1.27136
-1.26438
-1.36604
-1.24971
-0.97047
-1.27819
0.37605
-1.26497
-1.26472
-1.26683
0.58221
-1.26902
-0.61846
0.06137
-1.26969
-2.03778
-0.07406
-0.52875
0.66363
0.84440
-0.90132
0.41432
0.21438
0.23096
0.57107
0.69695
-0.00408
0.37804
0.05603
0.55568
0.62184
0.24706
-0.48447
-1.38999
-0.77072
-0.13035
1.74653
0.20316
0.53484
-0.00673
0.53834
1.08599
0.34944
-1.25961
-2.23844
-0.89670
-2.27826
-1.32806
0.05776
-1.34527
-0.86134
-1.37128
0.55416
-0.35019
-0.82096
-0.67070
0.94671
-0.79089
-0.82030
0.13694
1.37668
0.01192
-0.42574
-2.08046
0.10036
0.09054
-1.20997
-0.94798
-3.32505
0.04246
0.31107
-0.62463
0.06578
0.21727
0.21631
-0.88241
0.52726
0.14645
-1.07738
-1.30873
-1.41916
-0.65422
0.21580
-0.34927
0.53470
0.54246
0.53713
-0.42544
1.09232
-0.54207
-1.24908
-0.71670
0.67016
0.67365
0.33617
-0.72479
-1.55012
-0.15084
-1.04024
-1.42068
-1.19144
-0.70956
-0.82720
-0.75839
0.96257
0.27364
-0.40097
0.38969
-1.47887
-0.12821
-0.90371
-0.91121
0.27030
-0.91325
0.25219
0.72615
0.50181
0.00941
0.30645
0.72283
1.10786
-1.38962
0.41091
1.20563
0.44437
0.59967
0.51732
0.34704
0.73076
0.31180
-1.77589
1.04664
-0.23689
-0.69956
0.73074
0.19773
-0.04045
0.23207
-0.10207
1.74385
0.95924
0.59976
-0.53058
-2.07594
-0.49219
0.31219
1.26287
0.24714
0.71464
-1.39157
0.70934
0.61418
0.10905
-1.86664
-1.51188
-0.06729
0.86470
0.54156
0.11192
-0.48799
-1.47720
0.85268
0.05824
-1.03716
-0.42120
1.01346
0.14202
0.26518
-0.55007
0.07308
-0.19261
-1.22940
0.10475
0.53176
0.86393
0.76220
0.34874
-0.89627
-1.38052
-1.18992
0.53943
-0.43433
-0.26274
0.53532
0.08311
0.51990
0.37689
-0.14116
0.77878
0.84585
-0.06680
-1.42999
0.66697
0.23570
-1.10751
0.12362
-0.42873
-0.37206
-1.38692
0.16710
-0.75943
2.02782
-0.90270
-0.92688
-1.43032
-1.02289
-1.38481
0.06017
0.92516
-1.40929
0.34670
1.47164
-0.33130
-1.42687
0.69409
-0.29868
0.20994
-0.18039
1.69449
2.05918
0.20774
0.40331
1.94880
-0.00363
0.15812
1.74506
-0.43902
-0.20212
-0.26918
0.80813
2.22366
1.01860
0.16364
0.37796
0.22558
1.34157
-0.90456
-0.26011
-1.70475
0.65217
-2.44406
0.08253
-2.01205
-0.77911
0.22480
-1.00481
-0.73036
0.05908
0.23130
-0.12496
0.56375
-0.62174
-0.82434
-1.47202
0.17132
0.27379
-1.07228
-1.80304
-0.06239
-0.75383
0.03091
-0.83232
1.20321
0.77583
-0.57672
0.54781
0.52239
0.57121
0.19114
0.09848
0.26144
0.24656
0.20604
-0.70450
-1.38667
1.05506
-0.61541
0.41720
0.51438
0.31054
0.54718
0.34908
-0.84666
-0.05332
-1.39029
0.48038
-0.63478
0.11556
0.59474
0.69730
0.78453
-1.31146
0.05953
-0.35741
0.54878
0.93960
-0.01886
0.65606
0.14671
-1.02050
0.15190
0.53886
0.38074
0.01362
-0.54041
1.89791
1.07010
0.12945
0.06183
0.50233
-0.90065
0.70426
-0.56459
-0.27419
1.31176
1.04733
0.16446
1.09924
0.54130
-1.27897
0.93635
0.53536
1.91572
0.05489
-0.14717
0.50467
0.34123
-0.39929
0.53653
-1.58695
0.41439
-0.13582
0.78535
-0.27524
1.17573
0.37158
-2.46024
2.90319
-1.29947
0.15469
-0.29034
-0.21691
-0.20328
-1.37770
0.76193
0.21651
0.53955
0.64142
-0.45184
-0.15583
-0.01603
0.38469
-1.34832
0.14725
-0.10510
0.59974
0.49357
0.59898
0.94098
0.53990
-0.93478
-0.37946
-0.53405
0.52414
0.53880
-1.41023
0.54010
-0.52326
-0.14389
-0.13506
-0.60233
0.63836
0.06955
0.05690
1.04879
-0.85577
0.37485
0.63883
1.01776
1.14509
0.53435
-1.30938
0.30083
-0.14020
0.04651
-1.03133
0.75882
-0.96047
-0.39419
-0.15676
1.17734
-0.42197
-0.46602
0.56491
-1.02638
0.02116
-0.35203
0.45282
-0.87968
0.60651
0.73284
2.58168
1.53785
-1.02933
3.42304
0.00798
-0.30652
-0.96252
0.69055
1.23383
0.29970
0.53427
-0.42877
0.79672
-0.38842
-1.97398
-1.49242
0.84274
0.71707
0.11651
-0.60770
-1.42689
-1.00507
-1.23166
0.74702
0.54598
0.05647
-1.33883
0.36965
-0.83030
0.74264
-0.09672
-2.10073
-0.76302
0.52397
0.32394
-1.38634
-0.08895
-0.77014
0.19602
0.54039
-0.72469
0.76712
0.94445
-1.60623
-0.40492
-0.46222
0.32353
-2.08359
-0.79073
0.55387
0.21940
-0.13129
0.26078
-0.33808
1.09592
0.49524
0.53413
-0.67370
1.09165
0.98063
0.53894
0.41897
1.38189
-0.02351
-0.82567
-2.01627
-0.03480
1.27977
0.65391
0.53742
0.53828
-0.72544
-0.45621
-0.56868
-0.13205
0.16402
0.56232
0.43358
-1.38087
-1.56903
1.36231
0.84134
-1.20850
-1.16779
0.05572
-0.32446
1.66708
-2.99689
-1.96424
-1.99352
-1.56558
0.62636
0.75419
1.08999
-0.13164
-0.50692
-0.61071
-1.39225
0.80385
-1.08351
-0.18621
0.05512
-1.96000
0.67895
-2.48150
1.08992
0.54192
-0.83256
0.53616
-0.10957
0.26096
1.25004
0.74383
1.01141
0.05643
0.05426
-0.73819
0.79295
1.12000
0.05850
-0.12290
1.43298
0.05649
0.26014
-0.16135
-1.06733
1.21578
0.19227
0.65923
0.05159
0.60717
-0.62818
0.42168
-0.23474
-2.06182
-0.18703
0.41951
-0.70425
-0.28491
0.56528
0.70922
0.69566
0.39509
0.33432
-0.09760
0.54595
0.53705
-0.70873
-0.83673
0.54097
0.54621
-0.90770
-1.35739
0.68451
-0.01434
0.64602
-0.67091
-0.21892
0.97969
0.24906
2.63283
0.19434
-2.02064
0.14451
-0.07344
0.51387
-1.20703
-0.55872
-1.38268
-1.22416
-1.49193
0.97305
-0.79269
0.00189
0.31977
-0.46226
0.05494
0.86011
-1.38362
0.55953
-0.06535
-0.36561
-0.29749
-0.26408
0.24350
0.71910
1.33442
-0.60259
-1.76935
-0.27975
0.39048
0.39738
-0.51048
0.34393
1.54528
-0.23329
-0.98571
-1.84737
0.45700
-2.24628
-1.35475
-0.34527
-0.39797
0.49838
0.54101
0.66813
-0.41610
-1.34445
-0.16173
0.06736
-1.34535
0.56302
-1.57534
-0.68021
-0.42481
-0.27033
-0.36321
0.53874
0.68539
0.67005
0.55623
0.51973
0.53311
-0.13781
-0.58944
-1.18099
-0.76046
-2.15391
-0.71842
0.24523
-0.13428
0.11604
-0.12467
0.06247
-1.37943
0.51192
0.58043
-2.89632
0.55022
-0.47858
-0.39291
0.69792
-0.40105
0.91234
-0.99872
0.76311
-0.57392
0.29371
-1.57739
-0.26255
-0.15449
1.14599
-1.37969
-0.37244
0.26883
-0.03910
-0.21957
0.52371
-1.27867
-1.38184
0.71718
0.55417
0.53866
0.07835
-0.96220
0.78254
-0.50418
0.04469
-0.67631
-0.01962
0.37567
-1.44476
-0.44372
-0.52676
-2.30228
0.90732
-1.02905
0.53799
-0.08910
0.14094
-0.74217
-0.22318
-0.23559
-0.57847
-1.58585
-1.18921
-0.95724
0.34834
-0.53018
-1.71179
0.38953
0.13420
1.06297
-0.54287
-1.61281
-2.27810
0.71213
0.34771
0.33503
0.12384
0.51494
-0.33318
-0.72980
0.05302
0.05706
0.70960
-0.66581
0.94754
0.06098
-0.60053
0.54086
0.69008
0.64715
-0.13508
-2.22387
0.19323
0.07847
0.33555
0.23982
-1.86352
-0.04203
-0.13013
0.05664
-0.96206
0.08748
-1.52904
1.14467
-1.30223
0.39395
0.65685
-1.26238
0.01790
-0.96532
0.53340
0.04978
-0.47650
0.37589
0.03438
-0.19772
0.05871
1.39874
-0.16535
-1.66774
1.23435
0.90934
0.10890
0.56460
-0.14499
0.96271
0.27898
0.09619
-0.54428
1.22720
0.31903
-0.37317
1.28258
0.10295
0.05690
-1.06166
0.49102
0.05868
0.53529
0.90286
0.69173
-0.07710
0.06112
0.93519
0.26888
-1.34607
-0.97352
0.72250
1.14987
0.53414
0.51603
0.53384
0.86555
0.53558
0.54100
-0.06370
0.40395
-1.90960
-1.29515
0.31216
0.46772
-1.38500
0.65734
0.90820
0.13420
-0.14405
0.39906
0.99142
-0.16683
-1.14354
-0.82034
-0.15799
-0.28448
0.54305
-0.45010
0.38171
0.18615
0.13094
-0.61934
0.85342
0.66085
-0.34432
1.50919
0.81805
-0.87486
0.25496
-0.57156
-0.05410
0.01405
1.11076
-0.49305
0.72439
-1.75420
1.10355
0.53708
-0.60775
-0.50433
-1.39185
0.54098
-0.81255
0.05724
1.06953
0.39528
0.65161
-0.73903
-1.44612
-0.50177
-0.39209
0.91928
0.05822
0.39543
0.69137
0.05792
0.53461
0.11566
-0.90779
-1.84023
0.55385
0.27729
-1.14648
1.13712
0.86834
0.53256
0.79305
0.03008
-0.38342
0.16720
-0.09337
0.17721
0.54549
0.49769
1.40566
-0.55241
-0.16572
0.18101
0.65290
-1.38698
0.29899
0.52623
0.05692
-0.77712
-0.13616
-1.03756
-2.44012
0.40682
0.93722
0.64755
-0.46233
0.72102
-0.69346
0.65212
1.75497
-0.03574
-1.53126
0.75779
0.05074
0.13469
0.24367
0.53404
0.05664
-0.89226
-0.89054
0.36832
1.11334
-0.47223
-0.78070
0.53804
-0.39768
-0.16256
0.16038
-0.40698
-0.46485
0.53780
0.06053
-0.15337
-0.57275
0.62097
0.55129
0.20206
0.31636
0.47070
-0.69284
0.53921
-0.20886
0.18272
-0.95748
-0.86253
2.63712
0.96509
-1.38946
0.66674
1.33448
-1.40646
-1.35459
-0.14202
-0.10107
0.32265
0.62212
1.08311
-0.17238
-0.48176
0.84539
-0.90238
-2.33843
-1.56684
-1.19957
0.54180
-0.43547
0.06626
0.34882
-1.03284
-0.12759
0.73519
1.47016
0.29153
0.22734
-1.42257
-0.21739
-0.58069
-0.91455
0.48453
0.52279
0.53755
1.45887
-0.61133
-0.13213
-0.82906
-0.01551
0.54320
0.67824
-0.06229
0.06084
-0.20966
0.52560
-0.92246
-0.08930
-0.40458
-2.27796
0.07143
0.13745
0.53454
0.05805
-0.40262
1.76761
-0.08506
1.70961
-0.72345
-2.09563
0.72158
0.94844
-0.85071
-1.06969
-1.47382
1.01318
-2.07225
0.16579
-0.04239
0.35074
-0.80098
-0.41878
-0.39195
1.11256
0.56130
-0.03311
-1.95638
0.31929
0.99156
1.55804
0.30745
0.54202
-0.96088
1.17794
1.73078
-0.54778
0.55152
0.31719
0.19055
0.32997
0.26808
-1.09072
0.24330
1.20724
0.57173
0.53709
-1.35507
0.46599
0.60314
0.54285
0.93064
0.33489
-1.72633
-1.21368
-0.25792
-0.10179
0.35129
-1.38547
-1.53839
0.38796
0.55250
0.53435
-1.38879
-0.07186
0.84463
0.44771
-1.49757
0.10812
1.04449
-1.17784
-0.28732
-0.50000
0.50862
-1.48022
-0.61082
0.05154
1.22197
0.54097
-0.58961
0.34152
0.55034
0.33837
0.34065
0.25623
0.28741
-0.88446
-0.20247
-0.08229
-1.42964
-0.07097
-0.11717
-0.98260
0.05324
-0.40789
0.42958
-0.98246
-1.39215
-0.21410
0.00848
-1.15502
-0.21554
-0.83548
0.54872
1.01366
-0.04028
0.87549
0.75947
-0.37061
-0.90674
0.55529
0.55377
-0.23547
0.53266
-2.84119
0.58327
-1.07680
-0.58863
-1.38767
0.05710
0.30638
0.55699
-1.10400
-2.18608
-1.38919
0.05395
0.83112
-0.12988
0.75411
1.28520
1.70772
-0.05486
-2.04793
0.42986
0.81245
-0.06816
-0.10164
0.18282
0.05409
0.76690
0.69361
0.76024
-1.18100
0.32208
-1.04723
-0.43843
1.12274
0.54483
0.05459
-0.90966
0.50797
-0.75613
0.55393
1.13386
2.23592
-0.09988
0.13843
-0.54228
0.56407
-0.31418
0.95356
0.53743
-0.89872
0.03809
1.11395
0.10400
0.02113
0.30607
0.04384
0.27979
0.71749
-0.62773
0.60323
0.10012
-0.16863
0.90687
-0.41732
-0.98949
-1.56277
0.11708
-0.17881
-1.71476
-1.65080
0.77536
-0.23734
-0.87891
0.37847
1.34040
0.74037
0.14773
-0.39228
-1.44748
1.08874
0.57874
0.07495
-0.46081
0.37219
0.56511
0.33339
0.33183
-1.98492
0.28147
-0.45186
-1.02750
-1.02302
0.45255
0.53632
0.69346
-0.28503
-0.27124
0.49593
0.45786
-0.44378
-2.20928
0.60127
0.63382
0.14216
0.43630
0.57617
0.42217
0.45979
-0.09084
-1.29001
0.27181
-0.27125
-2.47427
0.69647
-0.77468
-0.20126
0.08392
-0.87789
0.19979
0.34060
0.53006
-0.03063
0.66080
-2.17080
0.56101
-0.90369
-2.44925
-0.25596
0.97785
-0.74373
-0.09546
0.52778
0.66897
-0.01587
0.52248
0.54205
0.13680
1.05437
0.22476
0.53306
-0.38575
0.05223
-1.59748
-0.83126
0.52891
0.27791
-0.56556
-0.18565
0.56044
-0.42490
-0.34930
-0.17899
-1.40000
0.12619
1.42994
0.25597
1.55017
-1.39265
-0.20704
-1.34700
-1.29415
-0.24685
0.82809
-0.09279
0.37826
-0.91757
-0.94871
0.05445
-1.15351
0.60497
0.26450
0.53524
0.67092
0.68773
-1.42343
-1.39868
-0.00785
0.79056
-1.17605
0.08362
0.05475
0.45645
0.52362
0.55037
-1.37842
0.05543
-0.59530
0.70291
-1.57006
1.35952
0.35661
0.05669
0.05615
-1.37120
-2.58284
-0.13129
0.80170
0.48114
2.04154
0.25094
0.51527
0.53112
-0.43881
-1.21209
0.05884
0.53049
3.60301
-0.17390
0.53502
0.00614
0.63705
-0.53762
-0.37034
0.23477
0.27683
0.06060
1.41887
0.53305
0.05621
-2.07757
0.28614
0.05623
-0.62669
-0.35315
-0.82648
1.09332
0.66179
-1.21464
0.56380
0.53830
-2.72224
0.78249
0.92255
0.32283
0.91714
0.05492
-0.99349
0.57975
-0.68578
0.31571
-0.16816
0.92235
0.55170
0.51663
-1.93916
0.01337
-1.30835
0.05727
1.61393
-0.69725
-0.36656
-1.10500
0.05854
0.89571
-2.13289
0.37694
0.13912
-1.38187
0.77701
-1.02267
-0.00105
-0.03792
-2.04829
-0.31987
0.64660
-0.81009
0.04643
0.39247
0.45150
0.05832
0.56382
0.05475
-1.15984
0.05642
-0.37162
-0.42615
-0.38684
-0.22443
1.35746
0.24006
-0.53353
0.14156
0.78028
-0.44175
-0.28993
0.36847
0.70186
0.68579
0.05699
-0.91947
0.07543
0.54810
0.22494
-0.09775
0.52467
0.45761
0.16573
0.27104
0.00343
-1.86877
0.21659
-0.38134
-0.76675
-0.90078
1.00235
0.74354
-1.38240
-0.04472
1.08940
-0.90558
0.32412
-1.27495
0.52635
-0.90243
-1.38215
0.55066
0.07941
-0.13274
0.11851
1.09665
-0.08053
-1.38375
-0.11344
-2.57521
-1.87879
0.54087
0.61107
0.07180
0.51883
0.10642
1.50077
-0.47386
0.56329
-0.37362
0.20981
-0.04803
0.13927
0.11803
1.06789
0.53056
0.24240
0.27054
0.52287
-0.93432
-1.42537
0.91378
-0.17659
1.06507
0.25550
1.02391
-2.66463
0.70226
-1.38433
-0.26025
0.24450
-0.08241
-0.19198
-0.37413
0.69568
-0.52179
0.06411
-0.81008
0.53152
0.52882
-0.42173
0.23853
0.40307
-2.83360
0.82038
-0.02738
-0.28429
-0.68588
-1.31945
0.23074
-0.55305
0.54876
0.28567
0.89154
0.26844
0.48626
0.53817
-0.33058
-0.72877
-1.78474
-0.01270
1.18592
0.58325
-0.23057
-0.43533
-1.38621
0.97386
-1.04281
0.54368
-1.17045
0.91110
0.88996
0.08437
1.16977
-1.38182
0.65292
0.81815
0.53691
-0.96495
-0.42057
-1.22917
-0.75754
1.05079
-1.73299
0.53602
0.54191
1.20407
-0.46595
0.52354
-0.18508
0.51422
-1.13253
0.51651
0.28858
-0.92492
0.89941
0.47080
0.18151
0.64279
-0.04133
0.77662
-1.53498
-0.50733
-3.11105
-0.10386
-0.14659
0.25389
0.76529
-0.41789
1.57382
0.50706
0.06113
0.92459
-0.32412
-0.03389
-2.55743
-0.04397
0.78311
1.46875
1.05768
-0.22251
0.62011
0.51898
0.63967
-1.38202
1.23573
0.88090
1.01363
-0.87790
0.05621
0.05519
0.06174
1.18270
-0.47071
1.16746
-0.48676
-0.66595
0.56662
0.31216
-0.67169
0.22018
-1.04492
-1.41886
-0.42647
0.63727
-0.43968
-1.81564
-0.34884
-0.00496
-1.42521
-0.63404
-0.82374
-2.73313
0.99234
-1.14614
0.62458
-1.10107
-1.38199
-0.22473
0.08845
-1.38200
0.72943
-1.57522
0.57645
1.13835
0.55144
1.18479
-1.62959
1.21704
0.52454
-0.42244
1.21673
0.56091
-0.05144
1.04422
0.34045
1.10171
-0.26056
0.34174
0.64995
0.18560
0.71648
0.59725
1.70177
-2.21189
0.36233
-0.93218
-0.66251
1.52698
0.54076
0.66865
0.24783
-0.10055
0.37123
0.22890
0.79646
-1.17799
0.41201
1.21943
0.54276
-0.87624
-0.23777
-0.86259
1.15064
0.53790
-1.38947
-0.42942
0.87535
2.38301
-1.31569
0.25901
-2.82191
-0.66914
0.80946
-0.61059
-1.42784
-0.13920
0.45739
-1.38853
0.59115
-0.40586
0.15732
0.06766
0.06213
-0.54106
-0.65579
3.64422
1.25178
-1.74654
0.11310
-0.42273
-2.52761
0.70118
0.29873
1.32395
0.52803
0.06632
-1.55848
-0.62832
-0.89966
-0.58356
0.60865
0.52231
-0.16461
1.20139
-0.31820
-0.09338
0.05660
-0.17616
-1.20530
-1.38636
-0.57887
0.40734
-1.08470
-0.77529
0.86236
0.27725
1.05890
0.37102
0.30960
-2.08934
-1.15806
0.35494
-0.97444
0.34071
-0.04755
-1.64631
0.30947
-0.56439
-0.00873
0.53036
-0.94520
-2.71792
0.05580
-0.43271
-0.73170
-0.72353
0.25761
-0.25766
0.01567
0.66437
-1.58552
-0.14736
0.84033
-0.07858
0.09555
0.95246
-0.13061
0.54268
0.38163
0.88894
0.80801
0.04798
-0.00360
0.00193
0.05772
0.53419
-0.22766
-0.39275
0.25893
-0.99595
-0.89363
0.05797
0.78991
1.01457
0.45688
0.64463
-1.78189
0.16845
-0.63365
0.53283
-0.12804
-0.24854
-1.41010
0.06071
0.05575
1.71697
0.93976
-0.28366
0.22155
0.78972
-0.42518
0.18807
0.99264
-0.42546
0.05656
-2.19158
-1.16765
-0.16670
1.00873
-1.38976
-0.90695
-0.87985
-0.86915
0.06568
-0.99589
0.54606
-1.38490
0.53893
0.40147
0.05246
-1.08485
-1.42196
-1.38062
-2.42508
-0.14281
0.63427
-1.38115
0.52827
0.78431
0.04029
-2.00733
-0.05980
-1.01629
1.44839
-0.69361
-0.73808
-0.04704
0.77763
-0.86163
0.47764
-0.12788
0.28306
0.12829
0.30772
-0.65842
0.43299
-0.56693
-1.38404
0.15885
0.20882
-0.05765
0.52188
0.01443
0.52632
0.59351
0.06491
0.20957
-1.70621
-0.45175
-2.33298
-0.74734
-1.61853
1.34735
-0.88716
0.55322
-0.36144
0.12503
-1.38804
-1.96204
0.04163
0.15337
-0.89931
0.17924
0.37887
0.05935
-0.07744
0.57933
-0.50950
0.04990
0.05084
0.53834
0.53480
-1.51971
-1.11693
0.41625
-1.37794
-0.70992
-0.23939
0.61676
0.05834
0.55531
-0.88920
0.54525
0.33853
1.07809
0.94229
0.51380
0.43630
1.08508
0.49514
-0.61055
1.42650
0.63070
-1.41106
1.33900
0.05947
0.52923
0.23162
0.41577
0.69567
0.05901
-0.75444
-1.71183
1.61855
0.28166
0.76123
-0.35399
0.65720
-0.12020
0.53736
-0.14437
0.60888
0.54537
0.05481
-0.84842
0.10238
0.26088
0.05709
1.08282
1.63667
-0.33138
0.28534
-0.23803
0.22145
0.54012
0.68136
0.41578
-1.10230
0.53228
0.55408
-0.01954
0.66474
-0.37571
0.53666
-0.03704
-0.89758
-0.82604
-0.75936
0.26573
-0.36503
0.53648
-0.40170
0.97047
0.54161
0.24578
-0.86721
-0.99850
0.32401
0.64671
0.95400
-1.38577
0.53990
-1.20822
-0.93542
0.39468
0.45686
-1.08258
0.05701
-1.54521
-1.32004
-0.75513
0.35795
0.05886
-0.08520
-0.93808
0.52014
1.33922
0.58989
0.05448
0.85208
0.21642
-0.56962
-0.39273
0.05711
0.55106
0.41651
0.42530
0.06266
0.53485
-0.36584
-1.70924
0.96446
0.53734
-0.96876
0.23478
0.94586
-1.31469
0.49777
-1.55844
0.05841
1.39857
0.15978
0.07939
-0.48256
0.06300
0.45277
0.22349
-1.79458
0.34865
-0.16016
0.27452
0.12062
-0.56814
0.88129
-0.49750
0.54226
-0.71605
-0.60997
-0.19540
0.23440
-0.59457
-1.41206
-1.03416
-0.90235
-0.57160
0.21236
0.53051
0.54434
1.19965
-1.37990
-0.67231
-1.30207
-1.75039
-0.53150
-0.50442
-1.47889
1.47078
0.58390
-0.10422
2.11359
1.22999
-1.97075
0.49450
0.07476
0.27547
2.06413
0.29917
-2.56688
1.05221
1.02137
-1.69488
0.06519
0.75785
-1.29659
-1.18594
0.39833
-2.39282
0.61240
1.15046
0.28229
0.02121
1.02471
-1.17504
-1.69328
0.20798
0.67880
0.69774
-0.80265
-0.41448
-0.41799
0.87427
-0.66264
0.45702
0.16225
-0.03323
-1.60141
0.40184
0.47226
0.25681
-0.56184
-0.18001
0.90693
-0.17194
1.65132
-0.68819
-0.77509
1.07645
0.72405
1.08885
0.07076
0.24964
0.90142
-1.23627
0.62434
0.57306
-0.16435
0.69206
0.09946
-0.23443
-0.12784
0.17802
0.25238
-0.97191
0.50241
0.08209
-0.53071
0.23047
1.16068
0.20972
0.45071
0.52305
0.11413
-2.26329
-0.08713
0.07018
0.60056
0.55315
-0.04441
0.48390
0.60673
0.54991
0.56007
0.58007
0.28469
1.08757
0.07092
1.14871
0.45580
0.85110
1.70615
0.24116
1.29852
0.71671
-1.51437
-1.31362
0.16710
-2.41690
-0.27548
-0.33071
1.19763
0.20494
0.77280
-1.76554
-1.60195
-2.65303
0.99286
0.06772
-1.72910
0.58517
-1.92110
0.28632
-0.60327
-1.31713
0.20189
-0.92554
0.54689
-0.98241
-0.19909
-0.91563
-1.19927
0.10282
0.86166
0.06026
-0.83930
-0.86696
1.04114
0.35158
0.66282
1.00422
-2.37889
-0.08187
0.28090
-0.39282
0.75626
0.55734
-1.58656
0.33733
0.65805
0.57742
0.35739
0.65583
0.87180
1.38725
1.20947
1.42672
0.76109
-2.94861
-2.19787
0.33571
1.05337
0.56209
0.35856
-2.75738
-1.83845
1.03774
0.40147
0.13822
0.61555
0.33611
-2.34513
0.12208
0.53255
-1.41118
0.56778
0.29291
0.21522
0.67863
0.29285
-1.62764
0.26070
0.22667
0.40793
-0.27260
1.59861
-2.16219
0.77921
0.45603
-0.55621
0.58848
-1.88233
0.87801
0.45362
1.09292
-2.33556
-1.00068
-1.94324
0.92659
1.63589
-0.65387
0.35625
0.91691
0.86402
0.75873
0.86634
0.25270
0.52655
0.74733
0.83226
-1.64704
0.21963
0.08966
0.33359
0.40689
0.86444
0.41698
0.30394
0.87614
0.43482
0.22461
-3.06263
0.04186
-1.32453
0.09217
0.92274
-0.55838
1.05452
0.39743
0.66066
1.82445
0.87509
0.49870
-1.04571
0.58006
1.49655
0.62637
-0.16751
0.86965
0.46252
1.01890
-1.41004
-0.72721
-1.94851
0.34614
0.97354
0.00861
0.15741
-0.91227
0.66579
0.67022
0.11843
1.19113
-1.85876
0.35039
0.68327
1.15824
-0.52155
-0.63197
0.41060
0.01039
1.01192
-0.08546
-0.60747
-0.26140
0.84129
-0.51257
0.40169
1.39739
-0.27606
-0.19197
0.86877
0.09266
0.65881
0.13065
-1.39493
0.03653
0.02421
-0.10353
-1.44512
-0.82342
-0.62507
-2.49974
0.66673
0.43683
0.95977
0.77584
0.18435
-0.62367
0.18586
0.31461
0.65427
0.42652
-2.71112
0.89888
-0.34051
0.75653
-1.17786
0.05397
1.61049
-1.48003
-2.83450
0.60519
1.00249
0.22247
0.07120
-1.86994
0.29716
0.35044
0.78245
0.60279
-1.75589
-2.55342
1.01532
0.24168
-1.81943
-0.45833
-1.83748
0.68875
-0.26534
-0.57604
-0.04874
0.64590
-2.46460
0.11152
1.38213
-0.48100
-1.39153
-0.70851
-0.43054
1.16118
0.45697
-0.04778
-0.16419
0.75949
-3.11114
0.28173
1.96404
-1.29008
0.81746
-0.24919
0.33570
-0.38653
-1.54388
0.52001
0.18578
0.33976
-2.14305
-0.11576
0.67989
0.58072
-0.96911
0.21747
-0.61600
-0.02827
0.54608
0.96756
0.02908
-0.44630
1.00775
0.99104
0.66916
-0.07046
0.53424
0.08845
-2.23319
0.16517
0.39845
-0.57908
0.11060
-0.58264
-0.84813
2.09901
0.51680
0.66582
0.92324
-0.43676
-0.26015
-0.64827
-0.74819
-1.10151
0.50874
0.73678
0.54480
-1.04492
0.49893
-3.07854
0.59822
0.97682
-1.30273
-0.55534
0.53527
-1.03867
-3.01475
-1.24849
-1.24277
0.61762
-0.50898
1.37980
-1.53150
0.09939
-0.31272
-2.46842
-1.70237
1.14538
-0.41996
0.47445
0.02822
0.10526
0.33976
-0.37661
0.27813
-0.33529
0.86011
0.33795
0.14087
-0.59077
-0.38993
-0.59010
0.34884
-0.27441
0.90907
0.40941
0.45145
0.99423
0.09204
-0.07274
0.05475
0.32080
1.16676
0.16710
-0.17007
1.38866
-0.16506
0.77613
1.02414
-0.30139
-1.35369
-2.50212
-1.51423
0.55587
0.41350
1.34675
1.01504
-0.97769
-0.42644
-1.00797
0.40167
-1.48035
1.38628
-1.22211
-1.22950
-0.35257
-0.01228
-0.65875
0.45700
-0.98261
-0.20167
1.09588
-0.79606
1.20332
0.29293
-1.43554
-2.43853
0.26656
0.82646
0.09092
-2.46125
-1.76034
-2.31668
1.45793
0.52940
1.09680
-2.30471
-0.54600
1.13820
-2.09986
-0.16466
0.34354
-2.77944
0.27578
0.22342
-0.46964
1.60308
0.05764
0.80989
-0.80085
0.48290
-0.06768
0.52061
0.45955
1.00103
0.54765
0.10422
0.53449
0.51799
-0.06744
0.38181
-1.32836
0.26754
-2.78572
-0.02687
0.73329
-2.53433
0.30217
0.39665
-1.46824
0.06844
-0.18060
0.57391
-0.58192
0.54701
1.19007
0.24643
0.69202
0.49565
0.97174
0.78815
-3.36935
-0.68792
-0.00282
-0.52091
-0.57822
0.46311
0.52614
1.79053
-0.57684
0.41310
0.59840
0.29435
0.34550
-0.97018
0.23948
-0.73365
0.46041
0.49359
0.67465
0.67787
1.15666
0.93305
-1.20765
0.89599
0.83323
0.28131
-1.03892
-1.31351
0.66998
0.81996
-0.90950
0.06119
-2.34342
1.82141
0.27543
0.06635
-1.54958
0.06426
-0.79025
1.65648
0.54480
-0.04061
-0.50831
0.69208
0.31112
1.06158
0.65892
-0.37369
-0.60445
0.05963
-0.63816
-0.73930
-0.21403
0.50916
-0.09335
1.76144
-0.09732
-0.79519
-0.22413
1.17611
0.30107
0.17739
0.82738
0.55896
0.04701
0.45753
-0.16694
0.24572
0.86562
1.70287
-1.64786
-1.69935
0.57887
0.29978
1.33131
0.10327
0.09249
-1.92195
0.58110
0.69557
-1.82229
0.57856
0.56141
0.60756
-0.45267
0.16156
0.96487
-0.14851
0.06627
3.13636
-0.77547
1.89022
0.00553
0.35580
-0.07786
1.43585
-0.37148
-1.05748
0.73697
-1.41084
-1.65304
0.45134
0.52587
1.34525
-1.50147
0.41636
0.24196
0.29945
-0.35792
-0.04510
-0.91951
2.60352
-1.89721
0.54922
-2.15483
-0.59684
0.01249
0.02571
0.32601
0.99425
-0.10670
-2.09920
0.64922
0.62343
-2.71704
0.31707
-1.38533
0.31272
0.27747
0.46998
0.86545
-1.08164
0.42675
-0.30982
0.21247
0.35990
0.34051
-1.10076
-0.38816
-0.82994
-0.09042
0.75594
0.99207
-0.07542
-0.10700
1.12755
-2.37053
0.87274
0.22488
0.31502
-2.02879
0.73898
-0.63327
0.35137
-0.53569
-0.90200
1.61389
-0.35133
0.13025
-1.03279
0.46376
0.45550
-0.45898
0.38311
0.06694
-0.11977
0.23877
-0.26408
-0.85869
1.40733
0.91942
0.02680
0.12139
-0.34120
-0.12557
0.37224
0.79800
-0.51388
-0.13863
0.09056
1.70943
-0.29555
1.04119
1.23560
0.45896
-0.04913
1.92452
-2.07307
0.45633
0.61193
0.51381
-0.30463
1.36447
0.67813
0.66012
1.09885
0.52679
0.40086
-1.94045
-0.36626
-0.57449
-0.27490
-0.72410
0.08845
0.34669
0.69491
0.63451
0.00349
1.55299
0.65716
0.45192
-0.74281
-0.08900
0.47567
0.12774
0.66743
0.66701
-0.39183
1.60116
0.66543
0.81481
0.24771
0.02740
-2.26615
-0.47111
1.26472
-0.05991
-0.22643
0.49319
-1.97294
-0.62311
-1.65438
0.40333
0.51373
0.94332
0.68368
1.14354
1.49544
0.25430
1.46355
1.52798
-0.71390
0.01100
-0.20761
-1.90491
0.77395
-2.46615
0.67505
0.68282
-0.08229
0.11181
-1.75076
-1.34915
0.77206
-0.74141
0.32439
1.04491
0.58973
-0.12378
0.68506
-0.23336
-0.09293
0.13598
0.56185
-0.96857
-0.49372
0.08377
1.18588
-0.74248
0.56793
0.63568
0.33983
0.41913
-0.45225
1.36505
-2.23541
0.31279
0.70460
0.60214
0.57819
0.07111
-0.78292
-0.12252
-0.12482
1.40508
-1.57988
0.05774
0.35919
0.48896
-0.18857
-1.93691
0.75069
-1.18194
0.74440
-0.98770
-2.74499
-2.10104
0.45455
0.81543
0.00985
0.49307
0.06495
1.21917
-0.16173
-0.21952
1.10574
0.97860
-0.12876
0.29909
0.20655
-1.68763
0.72291
-2.72416
-1.35148
0.53049
-1.95310
1.68952
-0.20103
0.05856
-0.19524
-0.30089
1.13649
0.61985
1.17906
0.60181
0.36238
0.58703
0.23393
1.56731
0.74247
-0.66253
1.34700
-0.68096
-0.32344
0.98987
-1.41927
0.16853
1.39190
-0.64188
-0.40142
-0.48934
-0.10581
-0.09045
-2.10312
-0.82503
0.47697
0.58864
0.98926
0.77846
-0.20974
-0.46183
0.99007
-0.43858
0.56190
0.69542
0.08276
0.19922
0.95603
-0.57213
-0.66336
0.86497
-1.66833
-0.37673
-1.36213
-0.97715
0.82043
0.66456
0.43270
-0.60436
-1.65642
-2.52510
-1.81651
0.54264
0.82492
-0.00888
0.25374
-1.76627
0.53940
0.52736
0.57036
1.01624
-0.29306
0.73328
-1.17694
-2.73052
-0.51814
0.97977
1.12090
1.51575
0.98906
0.77369
0.81412
0.31417
0.73940
-1.42269
0.27539
-0.37339
-0.00676
0.98271
-0.08078
0.39735
-0.33909
1.01358
0.19810
0.50463
0.08068
0.03702
-1.26992
-0.00114
-0.07363
-0.00641
0.51344
0.16782
0.42948
-0.12173
0.17734
-2.20990
-2.53388
0.68934
-0.39383
-0.09018
-1.02920
0.34019
-1.99296
1.36995
-1.52210
0.34706
-1.25652
0.35542
0.43036
-0.38477
0.19684
0.51541
0.09198
-0.71665
0.32066
-2.04411
-1.14610
-0.59844
1.02222
-1.54453
1.42595
0.91473
0.19366
0.65434
0.58372
0.10239
-0.15595
-1.61926
1.14910
-2.05020
0.43526
0.68488
0.70645
-1.34585
-1.91986
1.15430
-0.21830
-0.36962
-1.05752
0.26576
0.95324
0.76344
0.12569
-0.06737
0.69205
0.25779
-0.36396
-0.05456
1.41423
1.86980
-0.54442
0.76079
-1.11341
0.10695
-1.31512
0.34730
-0.19225
-1.89461
-0.40797
1.30601
-0.66006
0.37341
-0.09432
0.42196
1.32399
0.41553
0.97849
0.74001
0.57171
0.67486
1.25511
0.59855
-1.53076
-1.81007
-1.31534
-2.10413
-0.29792
0.42797
1.73716
-0.29520
-0.25235
-0.95665
-1.03629
-0.77351
-0.78595
0.85944
0.03414
0.09117
0.46412
-0.80267
0.06263
-0.60238
0.38094
0.62051
-1.00898
-2.41951
0.28823
2.01165
0.29456
0.75095
2.35832
1.09192
0.93070
-0.22694
-1.49740
-1.23526
0.16771
0.06112
0.41949
0.58114
0.03430
0.72895
0.33680
-2.67071
-0.99448
0.74439
0.15456
0.55897
-1.10450
-0.69528
0.81196
0.94068
0.39839
1.21546
0.85128
0.84951
-1.25678
-0.26863
0.80417
0.68902
0.18338
1.62039
0.80522
-0.01147
-0.11143
-1.48451
0.17769
0.94388
0.49394
0.67470
-1.04385
0.45608
0.45240
-0.84316
1.47428
0.17736
-1.51206
0.10129
0.62745
1.01234
-1.77258
-0.28639
-0.84517
-0.19035
0.45096
0.06231
1.36565
1.15826
0.25607
-0.15200
0.80934
0.22979
-0.22068
-0.33398
-0.02962
2.03504
-0.72497
0.54176
0.86138
1.08908
0.67546
-1.78186
-1.09788
0.05195
0.04410
-1.22971
0.29363
-1.91055
-0.04467
0.45538
-0.58589
-1.57587
-0.16626
1.14115
2.57034
-0.07435
0.26915
0.90135
0.15963
-0.42499
0.52021
-0.96201
-0.62224
0.86215
0.92819
0.75963
0.37384
-1.58168
0.55088
0.47247
-1.20190
0.14900
-1.92361
1.20743
1.50536
-1.94488
-1.36650
0.08913
1.00677
3.06985
1.59129
0.99662
0.78930
-0.10826
0.34289
-0.49527
-1.34746
0.21829
1.48214
1.20476
-1.38501
1.12904
-0.46184
2.67194
0.91336
-0.05856
-0.22384
0.74664
1.05079
-0.55945
1.34482
-0.51305
-0.46913
0.19913
0.44597
1.07431
-0.36647
0.90720
0.16244
-2.61047
0.22078
-0.57322
1.15692
0.46881
0.20298
-0.67459
-0.38355
0.11014
1.15069
2.90228
0.55729
1.14525
-0.05352
1.38433
0.90984
0.38168
0.82075
0.53578
0.00706
-1.34379
0.62320
0.38825
-1.46741
0.43606
-1.55552
0.14897
0.78924
-2.34545
-0.99387
-1.22700
0.90632
0.47181
1.25228
-2.54896
1.28284
-0.37218
0.66307
0.17247
1.14231
0.02475
0.72366
0.69610
0.34722
-0.42352
-2.19546
0.32994
-0.11511
1.23258
0.69173
0.61932
0.63717
-0.74586
0.05197
-0.88566
-0.25978
-0.16808
0.26639
-0.85196
0.34343
0.76768
-1.06418
-0.56830
-1.00991
2.60324
-1.26461
1.11261
0.79648
1.82499
1.96211
1.28622
-1.82277
-0.85112
0.51058
-0.04021
-1.60120
1.03467
-0.72785
-0.91537
1.20157
0.57593
-0.94122
0.52577
-1.71534
0.69724
0.49482
-2.04879
0.07277
1.04388
0.41949
0.77494
-1.54002
0.68943
0.10953
1.69787
-1.04280
1.05442
0.81333
0.33961
1.16977
0.88979
-2.44034
0.68462
0.21656
0.96314
0.20424
1.27462
0.56879
0.01253
0.71910
-0.99442
1.50489
1.01228
-3.02722
0.34705
-2.69308
0.23629
-1.21936
1.83691
-0.20050
-0.28789
0.18569
-0.82606
0.99133
0.26711
0.86132
0.29883
0.34872
-0.91599
0.85055
-0.43451
0.38295
-1.08004
0.20476
1.10789
-0.27696
0.39629
-2.45253
-0.75858
-0.24314
0.52604
1.60991
1.78094
0.24497
0.05248
0.15025
-1.88827
-2.88912
0.61298
0.11623
-0.06565
0.00765
0.64966
0.56863
-1.90777
0.35652
0.51569
-1.63366
-0.66893
0.31156
0.84123
1.86079
0.01339
-2.19421
1.11613
-2.43443
0.35076
1.89757
0.59300
0.91878
0.25771
0.61070
0.97493
-1.49977
0.64415
-1.04227
0.23552
0.84279
0.75870
0.14898
0.09463
0.05937
0.06111
0.67359
-0.21196
0.75041
-0.38945
1.30263
0.96376
-0.29579
-0.39814
0.89990
0.54079
0.90694
-2.01137
0.21751
-1.17438
0.69224
-0.00238
-1.80264
-0.68336
-0.60385
0.24259
0.53250
1.26272
-1.42881
0.28820
0.17359
-0.03042
2.00229
-0.51105
0.51066
-1.05059
-0.32835
0.84117
0.72639
0.16438
0.66357
0.51456
-0.24958
-0.03905
0.33918
0.86409
0.21527
-1.41595
-1.27800
0.27506
-1.23958
0.27228
0.56265
0.21569
0.11565
0.41525
0.97637
1.04182
1.10525
0.87705
1.28380
0.88213
0.53406
-1.20964
-0.76608
-0.53327
1.40327
-0.34561
2.32705
0.20145
-2.77382
2.00382
-0.10534
1.72298
1.80991
-2.72476
1.04758
0.22316
0.42920
0.42484
-0.72106
1.10486
1.63013
-0.93406
-2.10320
0.75746
-1.75451
-1.24453
0.66402
-0.57297
0.30521
0.38895
0.12769
-1.57301
0.07566
-3.10211
-0.12829
-0.00139
-1.20998
0.55108
0.94821
0.46119
0.99382
-0.44617
0.81838
0.44654
1.12271
0.79954
-0.70300
0.28831
-0.51223
-2.09438
-0.05572
-0.57423
-2.52912
-1.19827
0.29614
1.01382
0.64578
0.59957
1.02962
0.54430
0.19151
-0.78727
0.90177
-0.85118
1.01612
-1.34650
-2.73173
1.50073
-0.91675
-0.70220
0.34154
0.44141
1.85967
-1.42364
-0.17150
0.55960
0.70584
0.08702
-0.90921
2.25346
0.27626
0.14435
0.19806
1.08341
0.75426
-0.34306
-0.20136
0.95525
0.17227
0.62325
-0.18060
0.96106
-0.29556
0.81296
-1.73342
0.48751
-0.48704
0.23119
0.37573
0.17859
-0.47802
-0.61072
-1.51732
1.14071
-1.80824
1.18210
0.94543
0.75524
1.08110
-0.67186
-0.91834
-0.42324
0.36527
1.01888
0.29592
-1.38837
-0.50338
-0.64078
-0.48388
-0.25998
-2.77339
-1.21525
0.44097
0.37604
0.63179
-0.14635
-2.77432
-0.75557
-0.47410
1.09893
-0.19972
1.41103
0.26222
-2.36183
1.81974
1.09242
1.06734
0.70693
0.91681
0.84823
0.96633
-1.94344
1.21272
-0.37894
1.37954
0.31156
0.30058
-0.72804
-0.53243
1.35980
-0.13494
0.18968
0.06285
-0.73887
-0.34103
0.99965
-0.57578
0.95365
-0.11512
0.50204
-1.08217
-1.04374
-0.97333
-2.24843
1.11661
-0.40241
0.08957
-0.05913
-0.97412
-0.30577
-0.04626
0.96354
-0.41493
0.52267
-1.24900
-1.23274
0.08067
0.26685
1.12608
0.09255
0.76022
-1.03844
0.39048
0.30757
0.29476
-0.33403
-0.34121
-3.68552
-1.36041
0.77790
-2.69590
-1.71403
-0.57617
-1.40343
0.67669
0.76379
1.25472
0.38116
-0.18470
0.81227
0.67289
-1.19899
0.21453
-0.06318
0.08074
-1.26370
-0.69677
0.41585
-2.11327
1.02089
-1.61721
-0.12978
0.38144
0.78327
0.92573
-1.85046
0.92388
-0.79921
0.73442
-0.98532
0.46214
1.23978
-0.55598
0.60794
1.18052
-3.19340
0.18721
-0.24670
0.82529
0.03535
-2.22363
0.40408
0.83835
0.74507
0.11420
-0.02602
0.21599
1.21357
0.80830
-0.40062
0.97496
0.34161
1.23322
0.72880
-0.42990
1.25672
1.16257
-1.62286
0.02655
0.08690
0.95459
0.18250
1.12676
-0.35217
0.52050
-1.09075
0.58663
1.71756
0.07750
-0.26032
1.49905
0.33944
0.83241
-0.56505
-1.11221
-0.39956
0.97089
0.36532
0.17897
0.68783
0.13166
-0.15814
0.24138
0.35695
1.73469
1.06337
1.20284
0.64760
0.34585
-0.38883
-0.73401
0.16679
-0.12258
0.45414
-0.84232
0.28381
1.33604
0.30379
0.62995
0.52765
-0.57995
-0.29894
-0.66425
0.78906
-0.44859
-0.55576
0.63879
-0.47310
0.59389
-0.74355
0.60460
0.00679
0.32388
0.35593
-0.12028
0.92930
0.95030
0.51482
1.86862
0.79674
-1.81642
-0.85521
1.89889
-2.37962
1.59763
1.14551
-0.04656
0.18655
-0.62255
0.14848
-0.29526
0.65703
-0.37848
0.88740
-2.18384
1.42134
0.96159
0.02935
1.18237
-0.26836
-0.34853
-0.39400
0.90917
-0.22486
-0.76989
0.14723
0.35415
-0.83563
0.38699
-0.81831
-0.01926
-0.37404
-1.34979
0.00419
0.93466
-0.94544
0.57148
-0.00013
0.86467
1.30629
0.79397
-2.20151
0.95845
-0.84730
1.51205
-0.47114
0.09004
1.75805
0.68320
0.56974
-0.06197
-0.73484
-0.36359
0.38278
0.09171
-1.36815
1.02171
0.29806
1.00762
-0.25767
0.75056
0.72176
-0.05074
1.12562
1.41768
0.58358
-1.02815
1.09017
-0.79753
-0.17176
0.56471
0.96031
0.62048
-0.31506
-0.34267
-0.52648
-0.44236
0.79757
1.27567
-2.49567
-2.91777
-0.56777
-0.42882
-0.12048
1.13416
0.21980
-0.33001
-0.02280
0.25423
-1.28918
-0.05848
0.07974
0.81913
0.86245
0.62679
-1.92271
1.14926
-0.67706
0.41354
0.65682
-1.57325
1.24282
0.52679
0.53744
0.39223
-1.07670
0.65925
-0.46357
0.11962
0.54142
0.64031
-0.04032
-0.06882
0.32459
0.82299
0.67346
-1.39500
0.53255
0.87652
0.87144
-3.19317
-1.64255
0.93342
-1.15927
-1.03370
1.13937
0.54083
0.55952
-0.87706
0.30647
0.03662
0.24857
0.25159
-0.49047
0.95147
-0.23082
0.47360
0.99204
1.33033
0.36679
-0.17799
-0.25832
1.21660
0.99924
-0.80239
-0.56485
-0.89973
0.45315
0.47238
0.67860
-0.81745
-0.38006
1.07468
0.04481
0.41430
1.25837
1.37821
-0.56123
0.08346
-0.56987
-1.07129
1.44549
-2.59602
0.06079
-3.05022
-0.45347
0.07728
1.60226
-1.70209
-0.23823
0.78332
-0.74471
-0.38402
-0.20815
0.41678
0.79360
-0.22328
0.64035
-1.23007
-0.49212
0.06290
0.81698
-0.25438
-0.57501
0.21287
0.19356
0.82565
1.51916
-0.45612
1.49920
0.39603
-0.66826
0.51633
-1.96667
-3.24700
0.78349
0.52431
0.47453
2.08986
0.21107
-2.47264
1.85349
1.57518
-0.75897
0.79177
-1.75511
2.87298
0.75328
0.80315
0.03840
-0.57362
0.33724
1.66331
-0.30436
0.02115
0.88937
-0.52880
0.42459
0.56180
1.22501
1.05875
-0.50436
-0.11684
-0.62531
-0.97093
0.30029
-0.24391
0.50248
-2.12720
0.36062
0.77842
0.62259
-2.96356
0.99000
0.03924
0.49973
-1.83247
0.56234
1.00197
-0.86814
0.87297
-1.06188
0.92520
0.52317
0.67108
-0.88257
-2.13133
-0.04586
0.45520
0.39670
0.10378
-0.68541
1.49258
-1.24403
0.20227
0.80571
-0.40204
0.32928
0.61062
0.33435
-0.06586
0.28714
-0.75391
-1.76457
0.31242
1.62150
0.20876
-1.42168
0.14431
0.31545
-0.29693
1.42254
0.71757
1.78989
-0.97134
0.34428
1.06052
-1.01863
-0.37422
-0.36092
0.31187
0.53653
-0.40840
-0.36231
1.65760
-1.42657
0.62875
0.97824
0.50054
0.33035
-2.72434
1.13503
1.21886
0.85962
0.77885
-1.10638
0.17088
0.67551
-0.61992
-0.70963
1.23951
0.54389
0.23417
0.50894
0.69313
0.20985
0.49193
0.41825
-3.08506
0.44262
-1.34962
-1.21782
0.67273
-2.31046
0.79623
0.61869
-1.12371
0.26209
-1.26652
-0.50140
-2.71939
-1.64183
-1.12042
0.57364
0.59611
0.32213
0.34892
1.01279
0.41923
-1.99855
0.92713
-0.33061
-0.58017
0.48114
1.08100
0.21038
-0.52944
0.70708
-0.87658
0.06200
-1.83426
-0.05905
0.31325
0.62309
0.66699
0.45597
0.79973
0.43004
-0.05750
0.74976
0.35130
-0.35770
0.52020
-1.54432
-1.96161
0.10296
0.38296
-1.02647
-0.98518
0.36414
0.00422
1.38460
-0.42917
1.36743
0.73107
0.34690
-0.63136
0.47135
0.55683
0.25868
1.56483
-0.75911
-0.73169
0.63013
-0.04061
-1.11734
0.74444
0.21566
-0.20320
0.05473
-0.40212
0.24111
0.71717
-0.39275
-1.20769
-0.54552
0.78507
-1.00628
-1.03935
0.78701
-0.03765
0.79167
0.01435
0.00451
-0.47290
0.19514
0.46544
1.11999
0.45526
0.41368
-0.10620
0.04529
0.93243
0.42577
1.48021
-1.68227
-0.64690
-0.83357
-0.85695
1.08367
0.97882
1.31513
-0.77265
-0.05327
1.10363
0.05853
-0.94656
1.84465
1.22878
1.57798
1.00026
-0.12294
-0.97811
0.18490
-3.19196
0.62864
-0.14868
0.50810
1.08799
-1.51049
-0.45862
-0.76428
0.68554
-0.08425
-1.16384
-1.27835
-0.05771
-0.08075
-0.03410
1.27947
-2.07601
1.25954
-1.62973
-2.21335
0.64010
0.24329
-0.17516
0.68688
1.30551
-0.49824
-0.84494
-0.29392
-0.22807
-0.92173
-2.34407
0.22513
-0.83284
-0.09181
-0.25417
0.69495
1.01673
-2.52846
-0.63805
0.32178
-2.54138
-0.85905
0.44722
0.13915
0.32384
1.23088
-1.31573
-2.41051
0.83326
-1.15352
0.64143
0.59768
0.99091
0.70239
0.30446
-0.59260
0.09221
0.20119
-0.50692
0.50003
0.55957
-2.60182
1.25212
-0.50139
0.80174
0.52192
-0.09832
0.78180
0.59303
0.50132
-0.46222
0.29478
0.89218
1.48423
1.65010
0.50304
0.37531
-0.03452
0.29246
0.53524
-0.46735
0.70437
-2.47892
0.88842
0.82322
0.57856
-0.42451
0.99916
-0.32419
0.80237
0.25256
-0.41042
0.85761
-2.87288
0.41430
1.28080
0.49057
0.14655
-2.01659
0.95412
-2.45386
-0.49841
0.09599
-0.40260
-0.18748
0.89530
-0.46812
0.34450
0.82208
0.92553
-0.33888
0.93415
1.02121
0.53196
1.87119
-0.60922
0.14166
-0.57220
-0.05243
-1.50262
-1.18728
-0.14485
0.97326
-0.56890
1.10541
0.62547
2.11108
0.25413
0.59868
-1.84966
1.13533
1.05588
0.50055
0.07127
1.18729
-2.15897
0.58889
0.92924
-1.38305
1.04512
1.21980
0.67944
0.81880
0.45561
-3.10550
-0.64245
-0.77151
1.48196
0.34734
-0.04850
0.06086
1.44067
-1.97565
0.13671
0.00552
-1.21896
-0.54365
0.43520
-2.49400
-0.29378
0.63099
1.09022
0.79759
-0.22575
0.96948
0.84747
0.96890
1.65372
0.44105
0.66721
-1.43204
0.88105
-2.99112
-0.56672
0.34457
0.45627
-0.85449
-1.01921
-1.62388
1.01772
-0.16692
0.04001
-0.25976
0.86650
-1.79053
-0.68522
1.23473
0.05628
0.69574
0.75365
0.75110
-0.15556
1.09878
0.79140
0.42645
-0.30792
0.58103
0.29954
0.06657
0.11556
0.23492
1.15538
-0.06693
2.24764
0.77217
-0.01306
-1.20137
0.07317
0.16220
-1.20806
0.39547
-1.45452
-0.43698
0.48762
-1.60582
-1.97188
0.12521
-0.74864
-0.98714
0.20415
0.00113
0.54591
-0.35676
1.87952
-0.02303
0.58027
1.41106
-0.59528
0.03794
0.77913
0.73812
-0.47318
0.05418
0.72326
1.01063
-0.50003
-1.60017
0.01121
0.62865
1.05086
0.08920
-0.52576
-0.13574
-0.74218
-2.77201
-0.34814
0.42426
0.07192
1.00939
0.77926
1.10212
-0.57620
0.83713
0.61780
-0.45206
-1.39346
-3.06340
-0.59379
-0.79732
0.37495
0.69163
-1.29104
-0.21691
0.58144
-0.16414
0.53493
-0.49998
1.02132
0.45036
0.72249
0.33631
-0.74324
-0.20523
1.38726
1.24197
0.13352
-0.03574
0.34364
0.62807
-2.41400
1.11823
0.42197
-1.09726
-1.30801
0.75061
1.75671
0.47808
-1.59931
-0.66878
0.53080
-1.99751
0.84260
0.24161
0.79875
-0.42231
0.21403
0.78126
-1.54551
0.09392
0.35016
-0.04444
0.89233
0.68006
1.09064
0.67606
-0.86580
-0.72856
0.07439
-0.08663
0.88151
0.69168
0.09540
0.42859
0.37853
0.26137
0.55875
0.31014
1.06225
0.62259
0.79023
0.53997
1.29386
0.26479
0.89805
0.02631
-0.08640
0.79635
0.97920
0.56637
0.51974
0.90153
0.92529
0.85271
-2.53228
0.52876
0.25982
-0.39001
-0.31792
-0.04488
-0.23676
0.50072
0.06763
-1.61060
0.23599
-0.33804
0.00638
-0.35874
-0.00886
-0.89822
0.39277
0.01962
1.80484
-1.41942
0.66774
-1.88977
-0.61313
0.55554
0.94039
-0.91468
-0.02284
0.34952
-3.27778
0.18900
1.11382
0.56930
-0.59964
-0.19571
-2.50708
0.20099
-0.21746
-0.11737
-1.49409
0.67918
1.25195
-0.54437
1.43211
0.54432
0.90533
0.50989
0.16679
1.03012
0.34410
0.05616
-0.30751
1.32963
0.18330
0.75228
0.42840
0.34222
0.73247
0.06611
1.70588
-0.34212
0.25843
0.89245
0.65460
0.45580
0.37812
2.63389
0.05385
0.41439
0.13574
-1.43036
0.71788
-0.29629
0.73314
0.08429
-0.35260
1.61855
0.06124
0.28546
0.28679
0.11113
0.80182
-0.45248
0.26602
3.13113
0.59036
0.29842
0.71777
0.67742
1.04795
0.60127
-0.49335
-0.11935
-0.88632
0.52228
-0.49393
0.15425
-0.23172
0.18816
-4.03254
0.97737
-0.05708
0.07521
-0.27678
-0.13754
0.29281
0.91663
-0.38767
0.84881
0.56982
1.19642
1.05842
-0.01687
-0.44878
0.08295
-2.15562
-1.12452
0.32556
-0.45516
-0.98663
0.93757
0.64380
0.16334
-0.38245
0.35567
0.77431
-0.01800
-1.67453
-0.29829
0.35369
1.48937
0.97413
0.05175
-1.13179
-3.07251
-1.66679
0.15665
-0.16460
0.94661
1.11762
-0.67374
-2.10704
-0.69777
-0.36891
0.81204
-1.23017
-0.26333
1.15231
1.04287
0.53393
0.18530
-1.96291
-1.08291
0.25239
-0.04662
0.41487
0.69647
0.31811
-0.33841
1.04331
-0.83005
-0.75864
0.98844
-0.87640
-0.95489
0.36063
-1.80781
0.85861
0.51152
-0.03799
0.94594
-0.24948
-0.14714
0.10245
0.56367
-0.23897
-0.98109
0.14494
-0.12468
-0.74799
0.45663
-0.41774
-0.17968
-1.36756
1.01534
-1.56621
1.55396
0.62618
0.54995
-0.76280
1.17766
0.71661
1.35153
0.15561
0.39890
-0.75654
0.03593
0.08311
-0.59714
-2.67261
-0.01384
-0.72229
0.09837
-0.35208
0.50412
0.47874
-0.48851
-1.56168
0.11729
-0.23594
-2.70950
-0.62015
0.85317
0.50308
0.64059
-2.00478
0.74130
-0.91758
0.87045
0.48279
-2.41536
0.94730
0.81497
0.56994
0.78171
0.34467
-0.38057
-1.38219
0.50019
1.35094
-1.06617
1.18475
-1.12413
0.94485
0.01008
-0.20194
0.12765
-0.04304
-1.11046
-1.68987
0.16176
0.22522
1.08949
1.01283
0.19392
-0.92219
0.52940
0.45696
0.08620
0.48105
0.66506
0.97270
-0.12284
0.70987
0.97309
0.29277
2.88241
-1.16243
0.00343
-0.16419
-0.22098
-0.50250
-2.25379
0.55860
-0.31477
0.09450
0.45398
-0.61153
-1.39871
0.05168
0.82232
-0.31387
-2.96167
0.72713
0.95304
-0.00297
0.97885
0.54542
0.24118
0.48723
1.04033
-2.42092
0.80813
0.46154
0.95708
-1.05169
-0.21417
0.78609
-2.41985
0.20584
-1.38188
-0.26546
1.05863
0.97320
0.12720
-0.82703
1.08373
-0.00406
1.02324
-0.07766
0.72028
1.31085
0.03663
0.83057
0.67590
-0.54507
0.46701
0.56283
-0.04821
0.00918
1.01112
0.22037
-0.45422
0.82457
-0.14898
0.55509
2.15616
-0.53947
-0.65286
1.68407
-2.98914
1.20276
0.35060
0.60471
-0.86050
0.57406
0.05691
1.33279
-0.67933
1.26638
-2.35733
-0.01392
0.13887
0.25710
0.09127
1.21006
-1.32630
0.84493
0.31952
-2.36076
0.12834
0.44738
0.82148
0.32605
0.78215
0.97720
1.09365
0.61112
2.07306
-0.37359
1.78705
0.74638
0.76090
1.45470
-0.22547
-0.09849
-0.48195
-0.47200
0.40510
-0.45992
0.54824
0.03148
1.46523
-2.56112
2.06414
0.34163
0.08929
-1.75346
-0.28095
2.03615
0.32482
-0.62505
0.86812
0.80152
-0.49903
-0.30622
0.97004
-2.14491
0.79709
0.66389
0.34000
-0.51143
-0.98145
0.36472
1.10884
0.96747
0.08274
-0.33415
-1.43399
-0.88050
0.96371
-0.13707
-0.32375
-2.29156
0.39701
-1.96116
1.10662
-0.79223
0.75808
0.98124
0.30526
-0.91468
1.27675
1.02375
0.34635
-0.35136
0.56629
-0.79707
-0.76905
0.15302
0.27937
0.96462
-0.36254
-0.77609
-0.08194
0.53126
-0.49023
-0.28756
-0.51582
0.94158
0.64781
1.06757
-0.82640
-0.42701
0.74208
0.23516
0.11865
1.38427
0.79730
-1.10214
0.37383
-0.07994
0.05824
0.32930
0.65485
0.21936
0.82154
0.80263
0.07331
-2.99474
0.89868
0.99775
-1.41236
0.09314
1.50886
0.72842
0.68273
0.44776
-0.03633
0.41910
0.83207
0.53030
-1.38037
1.12046
-0.25869
1.18600
-2.42190
0.66818
0.45448
0.50888
1.46528
0.09461
0.65897
0.28481
0.82232
0.81339
0.47421
-0.63729
0.13240
0.95924
-0.29742
1.15979
0.90812
0.21492
-1.16988
0.88570
0.30396
-0.99252
0.68973
-0.29547
0.28065
-0.23272
0.38416
-2.44806
-0.27982
0.69014
0.91463
-0.31747
0.71241
0.34904
0.48649
0.75850
0.09010
1.12608
-2.59692
0.67486
0.00081
0.77444
0.94149
0.45565
0.43230
0.34383
0.20294
0.70602
-0.96763
-0.60350
1.11806
0.25959
-1.76950
0.67825
-2.58518
-0.66582
-0.37674
-0.16107
0.67921
0.87224
-0.85937
-0.04161
0.43855
0.07762
0.46342
-1.56655
-0.52119
0.91398
-0.46650
-0.02829
0.77012
1.06221
0.49522
-0.66155
0.65165
-0.70067
0.50182
-0.31941
0.85879
1.02769
0.26090
0.66470
0.21836
-0.93245
0.45455
0.30388
0.81173
-0.14724
-0.16075
1.11009
0.25862
1.45017
0.19388
0.52572
0.25118
1.05977
1.41189
-0.74696
-0.29632
-0.06225
-0.57239
-0.34495
1.10256
0.45518
0.26276
1.02369
-0.10613
0.68160
-1.00378
-0.86082
-2.21455
-2.48391
-1.43330
-0.11654
-1.39854
1.01386
0.10577
0.77844
0.39646
0.08835
1.10922
0.00748
-1.12462
0.69927
-0.22538
-2.36061
-2.42022
1.03453
0.69983
0.90232
-2.28063
-0.24881
-0.54182
-1.75248
-0.02228
-0.57273
0.48962
-0.47172
0.08956
0.80605
1.11741
0.23927
-0.38630
0.55754
-2.97428
0.00840
0.42112
-1.14342
0.34568
0.62386
0.69274
0.60362
0.86913
0.16625
0.30254
-0.16342
0.84643
0.68247
0.16749
0.30361
-0.45977
-2.45477
0.30633
-0.78515
0.18193
-1.27842
-0.32384
0.44305
0.45345
-0.05574
-0.56765
-0.05809
-0.80424
0.19473
-0.24027
-2.72755
0.71197
0.21312
0.99026
-0.22672
1.05857
1.00820
-1.97498
0.92462
-0.28320
-0.17572
1.11371
0.64046
-1.38158
1.01602
-0.46595
0.72999
1.24569
-0.64796
0.90846
-2.39561
0.86696
1.03246
0.53394
0.73983
