0.05113
0.06351
0.35465
0.02356
0.49218
0.20110
-0.90406
0.96272
0.47164
0.53965
0.62316
0.50841
0.69653
0.14303
-0.43597
-0.12859
0.30837
-1.94427
-0.10257
-0.36709
1.10431
0.05770
0.05483
-0.49070
0.90119
-0.50454
0.55157
0.42810
-0.08769
0.62680
0.08624
0.42029
0.42907
-0.30920
-0.24100
0.61790
0.61022
0.61790
-0.30431
0.61260
-0.23179
0.03199
-0.29912
-0.09119
-0.31128
-0.30130
-2.85082
0.62247
0.60779
0.61767
-0.32409
0.02044
0.06083
-0.50325
0.85732
0.64240
0.15394
-2.61029
-1.91061
1.61868
-1.90207
0.60013
1.17457
1.17539
0.81204
-2.47628
1.17531
-1.69200
1.18113
0.26741
-0.32728
1.16788
-0.73977
-1.17218
0.53320
1.45371
0.14828
0.53272
0.52440
0.52421
-0.06106
0.00062
0.06892
-0.23317
0.85202
0.91390
-1.85673
-0.86261
0.34119
-1.85249
0.91168
-0.36162
0.32557
0.41247
0.86322
-0.59363
-0.41060
0.31937
-0.86137
-0.71027
-0.49311
-1.42994
-1.42785
-1.43126
-0.50346
0.06265
0.46979
-1.39032
-1.05743
-0.34464
0.15729
0.77258
0.11327
-0.02092
-0.44117
1.40548
-1.36875
-0.99430
0.22348
1.40570
0.12230
0.12859
0.81888
0.99165
-0.05640
0.11885
-0.42470
-0.53834
-2.68776
0.01090
0.35393
-0.84393
0.98634
0.52524
-2.68591
-0.58786
-1.76728
0.14447
-0.84897
0.11453
0.78645
-1.76538
-1.21633
1.21224
0.52670
0.66376
1.11125
-0.32827
-0.80201
-0.90642
0.38344
0.01174
-0.66204
0.41925
1.73284
-0.08313
1.73874
1.06363
-0.25671
-1.34496
-0.07922
-1.92240
1.34148
1.08526
-1.69724
-0.30334
0.96181
0.16792
0.97349
0.07291
0.66430
-1.93867
0.41481
-1.18880
0.09180
0.66607
-1.21537
0.66449
0.06362
0.65939
-1.17695
0.65533
0.66972
0.50293
0.16152
0.54876
-0.24964
-1.17955
-0.73206
0.22935
1.98174
-1.71748
-1.38664
0.63868
-0.22434
-2.08467
-0.61584
-0.09334
-1.04461
1.57722
1.57740
0.73686
2.31441
0.59156
-1.25796
-0.14697
0.20260
-0.04960
-1.43298
-1.39063
-1.19918
2.24073
-1.26487
1.31963
0.37796
-1.43912
1.16714
-1.45280
1.20397
-1.43901
1.32266
-1.44863
-1.44601
0.05653
1.21523
-1.45100
0.40648
-1.45045
1.32482
0.53713
0.53985
-1.43971
-1.19850
-0.31731
-1.43703
2.24358
-1.43975
1.33329
-1.44412
-0.52579
0.40115
-1.44151
-1.43120
-1.44160
1.32807
-0.99717
-1.42993
-0.51042
-0.50598
-1.42641
-1.44226
1.93867
-1.42729
-1.42134
-1.42298
-1.42150
-1.42837
-1.43531
2.25075
0.42680
-1.42259
-1.41479
-1.40760
0.16400
-1.42865
-1.40823
-1.43049
-0.32622
-1.41066
-1.42761
-1.42915
-1.44063
-0.49961
-1.42699
-1.43080
1.80257
-0.47885
-1.43213
-1.41896
-0.62828
1.07403
0.62414
-2.47104
0.09192
1.51817
-2.16822
1.52938
1.52190
-0.21643
0.53490
0.11898
0.54180
-0.36310
-0.29594
-2.14031
-0.29407
-0.00854
-0.28308
-1.34242
-1.49737
-1.51443
-0.60095
-0.43349
0.12033
-0.00117
-1.72642
-0.80878
2.56640
1.04066
0.10317
0.42927
0.52993
0.40278
0.57823
1.49322
0.57532
-0.09170
-1.30179
0.57503
-1.38573
0.04271
1.39161
0.99027
-1.37508
-1.51203
0.34839
0.32538
0.34014
-0.89749
-1.34803
-1.34807
0.60663
-0.61537
-0.59998
0.91016
0.23081
0.22620
-0.54649
-2.39991
-0.55630
1.19974
0.00700
-0.37652
0.73024
0.45918
-2.03453
-1.12064
-0.60541
0.31985
0.68108
0.94617
-0.71749
-2.12287
0.26867
-1.70465
1.06784
0.97721
0.33608
-0.90863
1.51498
0.58926
-2.17832
0.20885
-0.01673
0.54694
0.00179
-0.44132
0.54277
-2.64400
-0.22889
-0.53338
0.24576
0.58117
-2.89469
0.67175
-0.90776
0.53900
-2.20896
0.27125
0.30191
0.52500
-0.02784
-0.25023
0.19067
0.46846
0.60655
0.63916
0.66213
-0.25474
-0.02559
-0.24778
-0.01376
-0.25766
0.58954
-0.01352
0.65520
0.66435
0.66833
0.53370
0.80197
-0.25903
0.26347
0.40765
1.80004
-1.89118
-0.43309
-0.22334
0.69174
-0.23136
0.35344
-1.15407
0.68863
0.68979
-0.23419
0.68635
-0.23190
0.40571
0.19226
0.35979
0.78840
-1.06794
-1.06269
-1.06872
-0.19335
0.58907
-0.21346
0.09168
0.08305
0.21887
0.02384
1.66297
-2.03271
-0.17068
-2.20276
-1.97325
-1.98184
1.71643
-1.97930
0.79661
0.80097
-0.00234
0.02707
0.55103
0.19481
0.49215
0.27624
0.58516
0.12525
0.39248
0.20119
-1.11822
-0.11858
-0.42740
0.73472
-0.18790
-0.20450
-1.91663
-0.11841
-3.05155
0.38742
-0.90851
-1.38456
0.76070
0.39869
-2.20362
0.05550
-0.35852
0.57374
-1.28451
0.57131
-0.34874
-0.89646
0.57317
1.04288
0.22701
-2.54763
-0.11171
0.22512
2.27194
0.43439
-0.88069
1.36100
0.54201
-1.30339
1.46989
-1.30685
-0.42315
-1.36973
-0.22810
-2.73012
0.01832
0.10300
0.47264
0.47871
0.02658
-2.71403
-0.00024
0.77636
-0.72380
0.36953
-0.55996
-1.38553
0.67090
0.49135
0.45151
0.33331
0.16972
-0.13153
0.05058
-0.85114
0.55800
-0.04239
-0.50113
-0.96610
-0.16963
0.54336
0.70238
-0.48199
-3.00419
0.58460
-0.65756
0.05826
0.29857
0.46755
0.05112
0.27920
0.27191
0.23035
-0.08752
0.43123
-0.42123
-0.28581
0.04939
-1.72209
-1.72597
0.86776
-0.09885
-0.86133
-0.27198
-0.07845
0.64957
0.08230
-2.36571
0.37654
1.28450
1.28873
1.29598
0.37913
1.29191
-2.37952
-2.38149
1.27987
1.28969
-2.35736
-2.38395
1.28579
1.28450
1.28960
1.29836
0.37037
-0.72188
1.29273
-2.37394
0.37704
-2.38287
1.27881
1.27998
-2.37264
1.29816
-2.38700
1.29449
1.29820
1.29119
0.37516
-0.54137
1.28432
1.29046
1.28469
1.29429
-1.31433
-2.39630
1.28580
1.28518
1.27849
1.29882
-2.38375
-1.46231
1.29539
1.29519
-2.38288
0.05891
1.31149
-2.38659
1.28688
0.36092
1.29070
1.28229
1.28902
1.30167
1.28988
1.28743
1.29268
-1.46336
1.28854
1.30092
0.18404
1.28791
1.29352
-2.15351
1.28787
1.28580
0.37478
1.29336
1.29082
1.28809
0.38604
1.28005
1.29091
-0.53982
1.28501
1.29604
1.29497
1.29477
1.28738
1.29804
0.37976
0.36456
1.29063
1.29687
-2.38966
1.28862
1.28965
0.38480
0.37356
1.29209
1.28901
-2.38020
-1.46658
1.29214
-2.38580
1.28581
-2.38729
-2.38525
-2.38731
1.29386
0.37942
1.29753
2.14923
-1.44814
-1.15152
0.46665
-0.84292
-1.30910
-0.48327
-0.11635
0.27868
-0.18351
0.52658
-0.66480
1.09246
-0.69285
-0.07304
-0.46799
0.43487
-2.68530
0.16815
-0.18873
0.31981
0.54568
-0.30595
0.54180
-0.01066
0.27642
0.26618
0.05987
0.35463
-0.59925
-0.09325
0.33007
0.60216
-0.15410
0.36922
0.32651
0.29922
0.44052
0.36649
-0.66320
0.33490
-0.60815
-0.09448
0.32523
0.57539
-2.42416
-0.10029
0.32228
-0.49461
0.47075
-0.59120
-0.59368
0.32005
-3.35712
-2.67072
0.11212
-2.68043
-0.76502
0.47805
0.53869
-1.74766
-1.75836
-1.33753
0.13494
-0.50129
0.08074
0.29888
0.53659
0.30213
-2.67961
-0.40366
-2.67963
0.28714
-0.66966
0.39416
0.41705
0.81711
0.27498
1.01087
-1.76344
-0.42583
0.67782
0.45830
0.60929
-0.52246
1.12402
1.11359
0.80084
0.01775
1.08199
-0.76852
-0.48400
-2.33199
-1.39883
-2.32679
-1.38482
-0.42380
0.05497
-0.03772
-0.06576
0.39028
0.18068
0.30800
-2.13673
-0.90315
0.44896
0.05782
0.12720
1.17954
-0.82702
0.62212
0.52190
-1.55107
-1.71317
-0.59601
0.88450
-0.95805
0.84227
-1.88227
-0.12152
1.14060
1.51708
-0.94718
-1.88271
-0.03407
-0.87422
1.80518
1.82502
-1.78073
-0.65730
-1.74670
-0.96101
-0.04495
-0.63891
-0.94953
-1.88188
-1.70640
0.39063
-1.54753
-0.32063
0.22929
0.30632
0.28452
-0.64176
-0.13998
0.46460
-1.38730
-1.38741
-1.38573
-1.38588
-1.38806
-1.35188
0.39979
-0.57818
0.50774
-0.55226
0.27810
-1.38548
0.35398
0.32179
0.52847
-0.54115
0.05829
0.09682
0.06343
-0.29197
-0.48944
0.11605
1.03941
-2.66498
-0.80940
-0.07227
0.82221
0.31785
-0.90809
0.88295
-0.78240
0.26149
0.01042
0.64875
0.26671
-0.13030
-0.58471
-0.10163
-1.37940
-0.06187
-0.36856
0.25804
-0.74212
0.51203
-0.04989
-0.08668
-0.02207
-1.14698
-0.60845
-0.88355
-0.15543
0.89685
-0.02033
0.31561
0.21476
-0.00543
0.15316
0.36815
-0.01861
0.89207
-0.02033
-0.02912
0.31719
-1.80465
-0.08349
-0.03876
-0.68321
0.43942
0.13237
0.54481
-0.01360
0.87550
0.67450
0.10283
0.88570
-0.04749
-0.81816
0.88375
-0.02398
-0.15132
-0.07815
0.91437
-0.04057
0.63693
-0.04788
-0.08001
0.70857
0.89445
0.14185
-0.36017
0.69552
-0.13402
-1.98970
-0.06713
0.73196
0.01513
0.85236
-0.98692
-0.27653
-0.06781
0.02915
0.21145
-0.90827
0.32200
-1.68538
0.03193
-0.51416
-1.68620
0.03448
0.66218
-0.30372
1.09739
1.10253
-0.73971
0.17845
-1.65565
-0.88928
-3.15865
-0.66378
0.55846
-0.92576
-0.36075
-1.12185
0.56270
-1.28639
-0.18844
0.05011
-0.20383
0.39024
-2.94616
-2.73946
0.71018
0.71696
0.12043
0.87202
0.71584
0.72087
0.05898
0.71664
-0.07326
-0.19300
-0.19864
-0.87687
0.72211
0.71629
0.23468
0.04991
-0.30855
0.36630
-1.27690
-0.02845
0.43075
-0.45751
-0.43729
-1.08807
-2.01412
0.75626
1.68205
-2.01785
1.67590
0.01097
-0.14225
1.12339
-0.15647
-1.38427
2.63692
-0.65003
0.22504
-1.10226
-1.02739
-1.10218
-1.10180
-0.93511
-0.37208
-1.30528
-0.99806
-1.28546
-1.03335
2.40204
-1.45147
-0.15960
-2.38397
1.31958
0.40513
-2.38271
-2.37738
-1.45499
1.12615
0.73423
-0.07503
0.35713
1.14441
0.41634
1.05336
1.14205
1.12602
-0.83187
0.55627
-2.10635
0.66925
0.66782
0.53762
-0.40771
0.51829
0.51743
0.41389
0.51321
0.51349
-0.41024
-0.40953
0.51452
-0.45556
-0.20722
-0.49361
-0.27559
-2.37182
-2.77277
0.13805
-0.44204
-1.83664
0.19613
-2.77426
0.31963
-1.01087
0.16194
0.90280
0.91028
-1.86184
-0.00382
0.91027
-2.04149
0.88718
-0.12196
-0.92758
0.90694
1.32969
0.91601
0.89108
0.00696
-1.86403
0.92710
-0.90119
0.90589
0.90314
0.75846
0.93380
-0.93281
-2.77423
0.90086
0.21634
0.03570
0.38541
-0.31002
-0.16884
-1.09377
-1.24719
-1.28122
-1.28134
-0.18377
-0.14589
-0.39241
-0.03598
-0.06041
-1.44459
0.78299
2.02039
-0.12842
-1.95936
-2.87064
-1.69077
0.77942
-2.21138
0.26601
0.68002
-0.43117
-0.14962
0.28538
0.53095
0.53078
0.87623
-0.03632
0.54233
-0.16550
0.53879
-0.21070
0.53001
-2.80493
0.50703
0.88772
-2.81220
0.88016
-1.87115
-0.22900
0.88674
0.88278
0.88323
-0.04029
0.55209
0.35149
-1.88299
0.53611
-0.43343
-0.95930
-1.25653
0.89061
0.99686
0.88724
-0.64121
-2.80651
-0.96152
-0.03019
-2.80490
0.59640
-0.72709
-0.85000
-1.87664
0.85492
0.85318
-0.16275
0.55569
-2.21320
0.65983
-0.35832
-1.95578
-2.21548
0.55577
0.44899
0.75392
0.87969
0.11788
0.33093
-0.89971
0.46139
0.40404
-3.23396
0.39348
0.40531
0.43076
0.40667
-0.47453
0.41530
-3.24430
0.41044
0.40795
0.40352
0.42042
0.34446
-0.65940
-1.21624
-1.33705
0.51555
-1.33702
-1.33730
-1.33551
0.20053
-1.33860
0.05567
0.49008
0.53611
-0.48930
-0.89072
0.60007
-0.00565
0.92674
0.61986
0.36856
0.82425
0.42870
0.33582
-0.49183
0.25160
-2.07507
1.60915
1.61904
0.64283
-2.07321
0.05635
1.18118
0.53521
0.62119
0.62107
-0.30670
0.20679
0.62065
0.61933
0.55216
-0.14815
-0.12885
-0.28988
0.05934
-1.04798
-0.64174
0.88234
0.56252
-0.90665
0.21780
0.80574
0.06977
-0.04766
-1.93993
-0.00190
0.80970
1.06019
-1.94360
0.84167
-1.92658
-1.90829
-0.79938
-1.65177
-0.93888
-0.12382
0.65421
-0.56441
1.28376
-1.48322
-2.40600
0.35798
1.28657
-0.18843
1.27032
0.02074
0.36561
-2.40156
1.08842
-1.38722
-0.22737
1.09016
0.01372
-2.60009
-0.56498
0.11288
-2.75247
0.61026
-0.91154
0.77209
0.05848
-0.01377
-1.03148
0.80104
0.46724
0.73659
0.65779
0.80573
-0.07631
0.44189
0.80359
-2.87092
-0.66173
0.67689
-1.02528
-0.14489
-0.17265
0.05886
0.33994
0.37977
-1.18382
0.27654
-0.81823
0.25284
1.22601
1.22478
0.61077
1.22972
0.84110
-1.52775
0.30409
1.22956
1.22005
-0.52801
-0.21116
-0.12280
0.37895
-1.00656
-0.90253
0.90425
0.66222
-0.26084
0.66266
0.66249
0.19197
0.54181
0.19821
0.07716
-0.27373
0.63648
-1.29651
-0.36731
-0.36446
0.54044
1.04284
0.54548
0.48259
-0.63325
0.42134
0.43720
-0.15445
0.55174
0.54903
-1.38602
-0.37465
-0.37132
-0.36899
-0.37918
0.54742
0.54905
0.98845
-2.65349
-0.30600
-1.22331
-2.15076
-2.15282
0.61347
1.39225
0.82568
0.23771
0.70560
-0.55994
0.73973
0.16843
1.29763
-0.25748
-0.11062
0.70753
0.52931
0.52970
0.27102
0.01646
-1.43397
-2.52951
0.24590
0.79678
0.27929
-0.73161
-1.72498
-1.73603
-0.08046
-0.79796
0.76827
-1.38645
0.80242
-0.12073
0.19892
-0.51438
-0.08775
0.67015
-0.07192
0.68685
-0.37525
0.68292
-0.70069
0.47224
0.33998
0.24435
1.31703
0.30340
0.80137
0.35482
1.11889
0.06217
0.54117
0.20489
1.39740
-1.37282
-1.27598
2.41177
-1.07595
0.39642
-0.70649
-1.52189
0.95202
-2.43583
-0.49595
0.35398
0.36387
-2.41527
-0.19399
-0.91930
1.26881
-0.02055
0.46340
0.07596
-0.11995
-0.38224
1.87367
-0.07232
0.85238
-1.48841
-0.07197
0.50962
-0.37735
-0.34350
-0.71456
0.32117
0.49335
-2.89030
0.53705
-1.38397
0.53601
0.53312
0.28204
0.04610
-2.72184
0.86400
0.04375
0.96219
-0.25173
0.96158
-0.64243
0.05553
-1.82391
-2.20036
0.53582
-0.23895
0.60169
0.48760
-0.95778
-1.48369
0.51339
-1.45811
0.53848
-2.43281
-0.42336
0.61264
-2.18546
-2.17817
0.62459
-2.14619
-2.15078
-2.13080
-2.18780
0.05719
-2.15917
-0.09715
-1.63002
-1.62935
1.14804
-0.70290
-1.62827
1.12332
0.24219
1.11649
0.20107
1.12598
0.20438
0.89224
0.41876
-0.24574
0.08141
-0.08941
-0.86316
0.24493
0.98105
1.60207
-0.85524
0.20360
0.99985
-0.97251
0.96291
0.83345
0.59565
-0.82864
0.08215
-0.83616
0.99396
0.23505
0.79517
0.48279
0.05894
0.08295
-1.77025
0.54240
1.90858
1.99625
-1.57273
0.55074
-1.54928
0.99281
-0.50198
-0.46595
0.11361
-1.78792
0.91174
-1.77714
-0.83529
-0.20218
-1.78320
-1.78454
-1.76740
-0.04974
-0.38670
-1.77855
-0.02697
-1.15394
-0.08793
-0.83781
-1.77658
-1.66640
0.94513
0.80825
-1.79039
1.91952
0.15285
-1.01409
1.01314
-1.78602
0.89215
-0.72636
-1.78069
0.54456
-1.77498
-1.05069
1.91911
1.90141
-1.77032
-1.77484
-1.78848
0.04439
1.24767
-1.38285
-1.69609
-0.85101
-0.27646
-1.77037
-1.36470
-0.85598
0.04927
-0.71228
0.07738
-1.63147
0.00030
-0.84406
-1.69292
-1.77250
-1.77488
-1.77381
0.06575
-0.94350
-1.78693
-1.77227
0.10193
1.34361
0.65018
0.34533
0.70427
0.27954
-1.17172
0.53147
-1.04452
1.30370
0.53456
-0.34832
0.53520
0.34727
-0.62507
0.53487
0.28414
-2.10144
-0.31072
-0.20838
-1.37445
-0.18179
-0.31204
-1.63144
-1.63536
-1.63908
1.01088
-0.70827
-1.63841
0.02615
-2.51286
0.87392
-0.04226
-0.16293
-0.28181
-0.95059
0.87604
0.88400
-0.79173
0.87781
-0.43764
-0.95949
0.89442
-0.95927
0.94040
0.18053
0.21845
-0.42092
-0.90472
-0.32432
-1.86995
-0.10282
0.10123
0.82037
0.72581
0.81384
0.53914
-0.42657
-0.86059
1.01739
-2.51897
0.74285
0.05013
0.78283
-2.67450
-0.83765
-0.75678
1.60556
1.59910
1.59407
-0.30361
-3.34927
0.34412
0.41680
-0.47607
0.25026
-0.68889
-1.35087
-1.35082
-1.86545
-1.86196
1.83180
-0.02375
-0.90897
0.05435
0.48311
0.53262
0.31868
0.42075
1.05861
0.87302
0.76431
0.62359
0.60605
0.85551
0.86199
0.87404
-2.80625
0.14808
0.98623
0.24926
-0.03463
-0.87211
-2.22817
0.54958
0.67417
-1.89778
0.85044
0.45181
0.87936
-0.24618
0.15003
-1.22776
0.65927
0.87211
0.74787
-0.17819
-0.05461
0.19415
-0.36633
-2.80702
-0.63919
0.87766
-1.48933
0.47710
0.66990
-0.25403
0.66995
0.36223
0.67023
-1.52230
0.19159
-0.05867
0.83944
0.33814
-0.42426
0.56368
0.33518
-1.39213
0.71323
1.03119
0.39742
-2.36815
-2.36960
1.29528
-1.47127
0.36381
1.29967
0.45170
-1.46517
1.29041
-0.53511
-0.67557
1.28939
0.38483
-2.38389
0.49620
-2.00178
-1.40286
0.59033
0.04034
0.48102
0.52206
-1.43509
0.15319
-0.55177
0.53821
-1.91907
0.61878
-1.92160
-1.91780
0.85011
-1.91995
1.76796
-1.92513
0.27793
0.86368
0.29791
0.28545
0.01070
-0.62619
-1.05686
-1.14442
-1.14465
0.55250
-2.58564
0.14450
0.28423
-0.22152
-0.65662
1.07550
0.18304
-2.59308
0.24132
-1.30493
-1.24039
-1.30870
-1.78595
0.87693
0.97542
0.05576
0.78409
0.98285
-0.36677
0.44399
0.42544
-0.45634
1.63914
-2.06224
-1.54123
-2.05852
-0.97207
-2.06280
0.70890
0.71531
-0.39078
0.53583
0.53400
-3.13523
0.53513
0.49120
0.49984
1.24726
0.49001
0.32313
0.85895
1.22435
-0.18941
0.09548
-0.13678
0.62779
0.48965
0.48956
0.65506
0.80827
-0.59703
-0.07100
-3.43189
-1.00040
0.36418
0.53122
0.53542
-0.41362
0.25205
-1.06238
-2.21021
-1.06595
-0.53701
-1.06830
-0.89998
-0.71453
-1.69583
0.89609
0.29249
0.59385
0.90487
-0.05567
0.03313
-0.87845
-2.80356
-2.81240
0.87662
-0.95613
0.89703
0.06020
-1.00956
-0.20672
-0.82262
1.06944
0.02518
0.53722
0.89621
1.54951
-2.13818
-2.13079
-0.01208
0.53974
0.65175
0.74269
0.62123
1.54928
-2.13274
-1.42297
0.62585
0.53634
-0.28926
0.62542
1.54888
1.54328
0.48597
-0.28172
-2.13027
-1.21872
0.38409
-1.78015
-0.29867
1.24015
0.40581
0.96187
0.70187
1.26750
-1.46180
0.25311
0.86794
0.76087
1.25251
-0.81485
0.99869
-0.66823
1.25942
-2.21853
0.55153
1.80466
1.47599
-2.22698
1.01655
0.39914
0.52746
-0.36968
1.47545
-0.05765
0.41446
-0.12176
0.46642
-0.60853
-0.54474
-1.29347
1.73227
-1.93890
-0.42394
0.17091
-1.40010
0.17664
-0.62334
0.35154
0.12976
0.53594
0.15435
-0.42068
-1.34905
0.15315
-1.34940
0.06116
0.06114
1.30695
1.31524
-2.37826
0.38999
-0.71742
-1.05207
2.93592
-0.14787
1.13376
-0.23168
-1.23279
-1.02463
0.61605
-1.20114
-0.52482
0.40744
0.25088
-0.51032
0.40714
-0.33065
0.35331
-0.06691
0.10526
-0.12014
-1.38821
-0.65175
-0.38374
-2.07848
-2.07434
-1.15690
-2.08731
-2.10604
-2.09823
0.67323
0.52954
-1.38596
0.49037
0.28839
0.26617
-2.51933
-0.11316
0.26430
-1.31611
0.19192
2.10507
-1.60614
0.24863
-1.60359
-0.67333
-1.59571
-1.60285
-0.67627
-1.59626
-1.44384
1.12910
-1.58947
1.17251
-1.58994
0.46367
0.32070
-1.59826
-1.60527
0.24556
-1.60021
0.25152
-0.67346
-1.60654
1.58788
0.29953
1.11081
-1.59154
-1.59087
-0.14942
-1.59251
1.17875
-1.69117
-0.33358
-1.59668
-0.67814
-1.36449
0.06165
-2.58538
-2.59378
-1.67933
0.83461
0.16541
1.08468
0.98551
1.15017
1.08790
-2.61330
1.07129
-2.59420
-1.56581
0.76840
1.07259
-0.10061
0.72860
1.11142
0.82210
0.04695
0.71220
0.41829
0.13154
-0.56151
0.38623
0.38209
-1.38036
0.54219
0.00027
-0.14490
0.75470
-0.17891
-0.65201
0.18301
0.42436
-0.06011
-0.02743
0.06330
-0.65163
-1.91826
0.73627
-1.92069
0.84306
0.53710
0.61598
0.35114
0.35703
0.35207
0.35548
0.54016
0.03403
0.17413
0.35317
-0.36300
0.35336
-0.54135
0.34864
-2.39871
-0.34357
0.74145
-0.55584
0.36644
0.36244
0.36062
-0.55451
0.07372
0.37084
0.36077
-2.40403
0.37371
0.01226
-3.30891
-1.47044
0.35750
0.22084
0.05575
0.09599
0.09127
-0.24387
0.34342
0.34978
0.04489
0.35540
-0.52919
-0.56277
0.31004
-0.56678
0.14636
0.37935
-0.51263
0.35857
0.35484
-0.37507
-3.32011
-0.33513
-2.39751
0.13591
0.01808
-3.32092
0.38016
-0.55935
0.35406
0.36751
-1.48346
0.35143
-0.52467
-1.00085
-0.00696
0.35854
0.35242
0.36058
0.34493
0.38519
0.35021
-1.47994
0.17407
-0.69101
0.41377
-0.13944
0.35414
-1.47372
-1.46330
0.36157
0.35160
0.24118
0.55005
0.35024
0.35619
-0.03729
-0.10412
0.00456
0.53404
0.13039
-2.15128
-0.13167
0.24237
0.02347
0.32578
-0.28791
0.36776
0.37108
0.35951
0.37821
0.15768
0.36888
0.30643
-3.31001
-0.45267
0.12218
0.22468
0.36485
-0.00830
0.35699
0.36700
-0.19945
-0.71448
-0.55894
0.27606
0.36111
0.35853
-0.56063
0.03797
0.12283
0.37181
0.39015
0.35090
0.03693
0.32304
-0.08992
-0.16384
-0.16401
-0.34860
-0.15423
-0.49499
-0.16438
-1.19117
-0.15890
-1.08453
-0.06494
0.05399
-0.22309
0.89113
0.70197
-0.07951
0.69639
0.70042
-2.07572
-1.15347
-0.43508
0.48636
0.38399
0.53748
0.02453
-0.21638
-1.75927
0.08789
1.01263
-0.83446
0.83172
0.96628
0.08800
1.01286
0.08890
-0.18337
0.48861
-0.83564
1.42853
0.09253
1.01175
0.09130
-1.59691
-1.52517
0.24979
-1.59211
2.09366
-0.07191
-0.07096
0.85242
-0.18194
1.13792
-0.64439
1.13605
-1.13017
0.79102
0.51892
-0.44994
0.47217
-0.90404
0.47272
0.69368
0.47177
-0.15101
0.54270
-0.47660
-0.79441
-0.05846
-2.56071
1.12492
-1.04062
1.13424
-1.63032
1.13242
-2.55057
-0.07576
0.21180
-0.07704
-1.08870
-1.63160
0.52039
1.12745
1.02473
0.21354
0.20662
0.21114
-2.54951
-2.02888
1.13761
-2.55269
1.12944
0.63006
-0.65713
-0.91053
-1.09101
-0.16515
1.22626
1.24459
1.23361
1.23857
0.31789
-2.44830
-2.42808
1.23213
-0.21133
-0.05972
0.70880
0.26879
0.97118
-0.87175
0.20891
-0.49130
-0.48935
0.12225
0.43150
-0.50025
0.75249
-0.90392
-0.42839
-0.98246
0.64995
0.73940
0.76185
-1.41653
0.83113
0.75051
-0.54970
0.74201
0.75438
0.74578
0.02955
0.75765
-0.19370
0.82497
-0.09535
-0.09548
1.08228
0.21077
0.54207
-0.98969
-0.06449
-0.24869
-2.01795
0.29942
-0.34311
-0.34639
0.38256
0.37388
-0.90256
-1.20660
2.23371
-0.76125
0.20338
2.48171
0.58771
-1.21666
-1.16925
-1.21912
-1.21117
0.12492
-0.50021
0.10955
-0.44005
0.10223
0.79317
-0.70542
0.20195
-0.38202
-1.96450
0.74057
0.22306
1.08061
-1.62066
0.71355
-0.66953
-2.67665
-2.68026
-0.85360
-1.19190
0.59098
-0.92683
-0.90472
0.59906
1.62330
1.64845
0.70171
-2.07245
-1.13953
-2.06610
0.54491
0.55241
-0.52604
0.74963
0.36180
0.70593
-1.31742
-1.31838
-1.31932
-1.31961
1.23319
2.15988
0.01532
-0.60707
0.34495
-1.23543
0.36347
0.32328
-1.63788
-0.04444
1.13627
-0.70918
-1.63966
-1.63593
0.06178
0.06163
-0.05954
0.52671
0.49739
0.39300
1.31752
-2.37588
1.32034
0.05623
0.42997
0.67796
0.65192
-2.31405
0.98554
0.37218
-0.53720
-0.47978
0.43231
-0.50033
0.49946
-0.59416
0.40724
0.42045
0.30661
-1.02748
1.33424
1.32349
0.41708
-0.01029
-2.19803
1.31917
-0.30691
-1.63501
-2.34525
1.34044
1.33408
0.41138
0.96361
0.31341
-0.33956
-0.39276
-2.80719
-1.88835
0.88617
0.88524
0.94113
-0.16412
0.53941
0.39921
0.12892
-0.21484
0.71630
-0.21002
1.64062
0.53555
-2.05881
-2.05813
0.28525
-1.72080
0.41109
0.53642
0.19209
0.67816
0.09684
0.10761
-0.21718
0.68096
-0.26592
0.79712
1.53535
0.49271
-0.14899
0.98846
0.48346
0.42585
-1.00326
-0.42738
-0.83896
-1.78423
0.11437
0.02157
-0.57805
-0.18704
-0.70809
-0.84495
0.90693
0.16842
0.23908
-1.38776
0.68676
0.15390
-0.39720
-1.39358
-1.39840
-0.46566
-1.39780
-1.39393
-1.31085
1.38373
-1.39205
-1.39520
-2.26750
1.35611
-2.25954
0.23326
0.93227
-0.41572
-1.33588
-1.33990
-1.40437
0.74518
-2.31323
-1.39286
0.23786
-0.75539
0.21703
0.12114
0.53508
-0.90694
-2.64963
1.02552
0.92377
1.02367
-1.38251
-1.38236
0.55950
-1.01117
1.61273
-1.03485
-2.15038
-1.22509
1.54774
0.62191
-0.42079
-0.18461
0.18266
-0.66508
0.44542
0.53608
-0.03706
0.13740
0.40951
-2.37791
-0.36480
0.38971
0.38493
0.37659
-0.09411
-2.37344
-3.30514
0.37901
-0.53718
-0.63343
0.53316
0.75184
0.64020
1.11824
-0.42752
-0.57769
-0.22436
-0.23115
0.41684
0.21630
-0.34493
-1.35889
-0.41180
-0.41172
0.58598
1.15262
0.25111
0.22105
-1.62190
0.24172
-0.84383
-2.69402
0.07760
-0.14536
1.00394
0.07637
-0.81852
2.17187
1.00034
0.78322
0.78352
0.77873
-1.06508
0.78155
0.49591
-1.99285
0.23781
-0.12183
0.53859
0.58260
-0.28282
-1.38658
-0.34290
0.19803
0.51665
0.22649
1.16004
1.15701
0.17640
-2.54136
0.90809
-1.86698
0.77461
1.12788
-2.38106
-1.70360
-1.46902
2.06369
0.20891
0.69316
-0.25198
-0.31301
0.24739
-0.06700
-0.17333
0.27563
0.42175
-0.26155
0.53404
2.29313
-1.29642
1.42132
-1.34776
-0.20624
-0.26674
0.67438
0.71821
-0.20656
1.28178
0.71753
0.71722
0.05623
0.12578
0.30748
1.23989
-2.45090
-0.52804
-2.23004
1.23275
0.30687
1.07130
1.23445
1.23273
0.56924
0.42131
-0.02681
0.39678
-1.44313
0.41257
0.40908
0.21731
0.22518
0.32584
0.83467
-0.92553
0.15794
0.24561
0.24634
0.24059
0.22338
0.19139
0.48938
-0.23394
0.56641
0.28425
0.23943
-0.49277
0.16623
-0.68654
0.24076
0.34784
0.53651
0.53918
0.44008
0.25302
1.85516
1.13335
-1.71248
-1.71562
1.98863
-1.71326
-1.71704
1.98335
0.21486
-1.71659
1.36620
-0.78409
0.14147
-2.74524
0.37510
1.18043
0.72582
-0.41925
-0.58757
0.46648
-2.31703
0.24756
0.95512
-0.56878
0.00561
0.05613
0.66342
-2.72707
0.54786
0.95576
0.10723
-1.64185
-0.11569
-0.27955
0.92025
0.05758
0.92872
-2.75541
-0.13460
-2.74006
-0.45669
-1.32791
-1.32727
-1.32707
0.15822
-2.36029
1.34218
0.20548
0.03158
0.72782
-0.80161
-0.80416
-0.80455
-0.44602
0.62501
0.61881
0.80027
0.62190
-0.13205
0.13133
-1.71345
0.34078
1.36289
0.51133
0.69759
0.53639
1.23698
-1.37774
-2.47223
0.30948
-0.30463
-0.63391
1.13221
1.13361
0.53764
0.75163
0.42103
1.14426
-0.86949
1.59492
0.53997
0.19925
-1.15880
-1.16213
1.60164
-0.69513
0.72394
1.11508
-1.43562
-0.24921
-1.15987
-1.87253
-2.07606
0.70043
-1.15459
1.59127
-2.06018
0.18449
0.64488
1.32534
-2.22379
-0.22058
0.67927
1.18096
-2.09916
0.71028
-0.22957
-2.05980
1.59733
-2.09328
0.67368
2.51873
0.67618
-0.07658
-0.01629
-2.00044
1.53307
-0.02031
0.25200
0.57730
0.54909
0.54673
0.54884
-0.29290
0.91878
0.82425
-0.06444
0.01577
0.55317
-2.03967
-1.12132
-0.19769
0.29832
0.71912
1.64320
0.74140
-2.03758
-2.03938
-2.45497
-2.15779
0.62223
0.05718
0.05717
0.05723
0.27257
-0.75016
0.34857
-0.11558
-0.85692
0.55051
0.07635
1.57422
-2.10151
-2.10041
-2.11645
1.47607
0.80546
-2.65085
-0.50965
0.18718
-1.71298
0.35517
-0.02901
-0.55592
-0.45129
-0.35301
0.52731
0.42699
-0.34678
0.57053
-0.34661
-0.26662
0.57297
0.57718
0.57406
0.58311
0.64724
-0.33529
-0.33813
0.58707
0.09047
-0.35433
-1.57495
-0.33941
-1.27688
-0.34221
0.15015
0.49900
-0.34566
0.53636
0.85249
0.61296
-0.81671
-1.26821
-0.33882
-1.27625
0.57818
-0.34878
-0.37352
0.59035
-0.97375
-0.75094
-1.24844
-0.47307
-2.15496
0.47952
0.62056
-2.14588
-0.30574
0.07471
0.62067
0.53574
0.61270
0.60955
0.61395
0.24769
0.27563
0.52945
0.52900
-0.44689
-0.79858
-0.80145
0.26582
-3.63104
-0.96516
-0.96040
2.74161
0.53781
-0.23915
0.04363
-0.10528
-0.29266
0.95052
-1.95763
-0.92516
0.54023
-0.37689
0.05612
0.93101
0.81964
-1.83649
0.05646
0.01468
0.42352
0.24218
0.58590
-0.12615
0.81202
0.71656
-0.07741
0.81176
0.05796
-0.18043
-0.88916
-0.27786
0.99667
0.58118
-1.49326
0.35562
1.27711
0.33885
0.05680
-0.85116
1.33617
0.95241
-1.05021
-0.26348
-0.04154
1.81841
-1.86099
-0.01463
0.87669
0.78513
-0.13415
0.52385
0.11107
0.51450
-0.40858
-0.41891
1.15653
-1.61346
1.15640
-0.08509
0.77742
-0.01946
-0.24330
-0.19789
0.01188
0.00269
0.01441
-2.72795
0.16561
-0.04944
-0.50246
-0.78389
0.56348
0.02492
0.92938
-1.05426
0.74356
-0.00953
0.91948
-0.61430
0.93703
0.91382
-1.85198
0.02866
0.01060
0.07573
0.92160
-2.09381
1.60279
-0.20751
-0.40448
0.04714
0.94511
0.94544
-0.39988
-1.33118
-1.33124
-1.33018
0.59646
0.05743
0.54052
0.53714
0.48220
1.06006
-1.38075
0.82385
0.05300
0.05814
0.05815
-1.42124
-0.03009
1.44873
-2.06876
-1.67654
1.97241
0.19690
0.20953
-0.37746
0.05593
1.22779
1.54018
-0.61140
0.68451
0.07027
0.70242
0.53910
0.04472
-2.21070
-0.13801
0.09125
0.38330
-0.17518
0.74272
0.00573
-0.17412
-0.17374
0.74857
-0.17412
-0.35323
0.74530
0.53701
-0.35223
-0.90240
-2.15740
-0.71561
2.05026
0.05630
-0.11197
2.06732
0.48157
-0.44092
0.48182
0.51781
-3.01247
0.65707
0.67061
-1.38253
0.53204
-0.35847
0.59019
-1.37962
0.29639
-0.90560
-0.91264
-0.64979
0.26691
-0.03161
-2.23436
0.43933
-0.38846
0.06078
0.02213
-0.23052
0.52541
-2.64868
0.29790
0.55066
-0.47650
0.98635
0.63568
-0.28769
0.63257
-1.21015
1.54170
0.85836
-1.84399
-1.85586
-1.85374
-1.30581
1.84679
0.60129
-0.44336
0.53440
1.17739
0.35308
-1.29358
0.55606
0.56511
-0.35179
-1.28157
0.56166
-3.12764
0.56307
-0.35469
-0.55382
0.55757
-0.35384
-2.18895
-0.02851
-0.39487
0.55393
0.57080
0.55330
-0.35674
0.56335
0.56000
-0.35732
0.43964
-1.27220
-0.33554
0.58840
0.05999
0.55788
0.55927
-1.09696
1.57639
0.14000
0.81888
-0.10048
0.47380
-2.68979
0.42885
-0.59942
-1.51016
1.11112
-0.49168
0.35694
-0.54280
0.03875
0.32024
-0.88031
1.62824
0.25002
-0.04468
-2.24893
0.90523
1.04468
0.44753
0.11925
1.24325
0.05638
1.08000
-1.59737
0.44330
-0.43970
-1.34371
-1.14051
-1.04615
-1.14931
-0.66324
-0.16904
-1.14617
-0.48681
0.10248
-1.38531
0.39132
0.42588
-0.78810
0.24173
0.05005
0.52523
0.54214
-1.20383
1.55958
-0.27608
0.63032
0.65056
-2.12970
0.63156
-0.59430
0.04603
0.58775
-1.19173
-2.12768
-1.21191
-2.13571
-1.20487
-0.07263
-0.28508
-0.06164
-2.12921
1.55182
0.62129
-1.37922
0.54012
0.54317
0.05772
0.43809
-0.27050
0.71612
0.42232
0.35712
1.65329
1.54886
-0.05540
-1.33031
-1.32785
-1.33020
0.04821
-2.45142
-2.46008
-2.46658
1.34100
-2.25935
0.78046
1.20916
-0.82150
0.05324
-0.64622
0.20774
1.27779
0.21846
-0.80591
0.06094
-0.01757
-1.15209
0.59761
-0.01430
0.20304
0.72373
0.81604
0.94306
-0.63109
-0.03845
0.88119
0.85227
0.97946
0.34441
0.71769
0.88864
-0.40529
2.07290
0.87038
0.13995
0.55867
0.04782
0.31956
-1.11000
0.52952
-0.02643
0.36103
0.87487
-0.24214
-0.02449
-0.01701
0.57838
0.15032
0.26958
-1.56906
0.51062
-0.21142
-1.84541
0.53460
0.54587
-0.90409
-1.39031
0.53736
-0.19870
-0.90043
0.59970
0.02520
0.53731
-0.54233
0.44604
0.36906
0.25405
0.34514
0.34228
-0.20094
0.20337
-0.05904
0.19465
0.20205
-0.36602
-2.17297
0.76656
0.76655
-2.00917
0.76398
-2.01347
-0.06237
0.86106
-0.06311
0.97869
0.53000
0.54102
0.85980
0.09106
0.10980
0.99348
0.96327
-0.16539
0.47257
0.44553
0.44663
-1.38648
-1.67963
-1.17172
0.94201
-1.42005
-2.73127
-0.15988
-0.14524
0.76239
0.22085
-0.59413
0.32758
-1.38167
0.40167
0.69359
0.39232
-2.98695
0.70447
0.70614
-2.06574
0.32441
0.56041
0.70140
-2.05264
0.53874
-0.95234
0.05716
0.05085
1.28883
-1.24366
-0.28911
0.60574
0.70166
-1.38239
0.09440
1.26842
-0.05831
-0.90133
-1.38789
0.34266
0.44800
-2.32989
0.35579
0.35421
0.38380
0.36421
0.36296
0.36843
0.36405
0.36948
0.17909
0.36753
-2.41283
-0.55829
-0.55790
-0.34327
0.36920
0.53534
-2.41244
0.36364
-1.81920
-0.67992
0.64816
0.28096
0.08299
0.12850
0.18912
-1.20050
0.27781
0.05944
-0.74589
1.14294
1.10429
1.10174
0.09963
0.16562
1.02542
0.73800
0.53900
0.05531
0.42188
-0.26099
0.57672
0.58274
-1.67448
1.01177
-2.51697
-0.22792
-0.32809
-1.58831
-1.59148
-1.58207
-1.58917
-1.26806
-0.86210
0.83779
0.23916
1.17163
0.54281
-1.43523
0.97511
1.02775
0.65423
1.78872
1.80676
-0.38928
-0.04651
1.68327
0.02394
-0.16567
-2.01242
1.67966
1.67927
-2.01308
-1.08417
-2.12073
-0.26842
1.34433
-0.10941
0.05605
0.05579
0.18431
-2.68036
-2.69166
0.04802
-1.80219
0.63447
0.79886
0.22838
0.52849
0.76766
0.76569
0.76229
-0.25872
0.76187
-2.00066
0.76856
0.36690
-0.77040
-0.15095
-0.15188
0.77401
0.63151
0.59158
-1.23720
0.58801
-1.26098
0.60280
0.52006
0.18006
-0.20645
0.29755
1.08229
0.09828
-0.35047
0.67573
0.67540
-0.24821
-0.24942
-1.61545
-1.61727
-0.68805
-1.61762
2.09041
-0.35165
0.99029
-1.75045
-0.42108
0.09180
-0.51330
-0.13167
0.30201
0.79437
0.78743
1.70997
0.08780
0.24941
-0.09937
0.70955
-0.13581
0.53281
-0.02245
0.32227
-0.57848
0.11773
-0.27507
0.65047
0.91278
-1.36764
0.54088
-0.93820
-0.91042
0.20748
2.55821
1.64392
0.54784
-1.12025
-0.25150
-1.69962
1.36084
1.06858
0.23829
0.93092
-0.36572
-0.99103
-0.38683
-0.76620
0.28095
0.16473
-0.97278
-1.69005
1.98965
1.20461
0.65647
0.15923
0.30119
0.51183
-1.67068
0.54076
0.58962
0.05225
-0.00331
-1.26579
0.26903
0.22206
0.73869
0.74730
0.84719
1.11709
1.17120
-1.87164
1.04910
-2.49200
-1.04329
0.07439
0.93304
-0.38811
-0.63909
1.12889
1.12624
0.80616
0.05443
0.06052
1.18260
-1.59515
-1.60123
0.18291
0.70591
0.23925
-0.46029
0.08393
-0.05472
0.79759
0.77183
-1.35152
-1.35153
0.05711
-0.47486
0.77503
0.32698
-1.50967
0.10646
1.25445
1.24609
-0.09189
0.89177
-1.88108
0.03617
0.57847
0.55311
0.53480
1.60097
-1.42389
1.59775
1.05138
0.57286
1.59333
-0.21551
-0.57653
0.17252
-0.01463
1.09247
0.17441
1.08260
-0.22686
1.73526
0.09991
-0.75277
0.02603
0.03230
0.54129
-0.29550
-1.55388
-1.82357
0.29683
-0.14612
-0.15979
0.55320
1.73381
0.18005
1.48052
1.48404
-2.20314
1.47529
-1.28069
-2.20471
1.48742
0.66666
0.42232
-0.59555
0.67960
-2.09906
0.53561
-0.24848
0.09092
0.54629
-2.11358
0.58366
0.53714
-1.06026
-1.38416
0.47985
-0.00891
-0.55194
0.02849
-0.00686
-0.96219
-0.45658
0.43984
-1.20972
-1.20925
-1.14863
-1.20684
-1.56627
-0.18417
0.20815
-0.21899
0.69207
-1.89330
-0.96635
1.80620
-0.42900
0.82620
-2.29565
0.36034
0.37691
0.36821
0.65083
0.65122
-0.27261
0.65325
-0.86075
0.12176
2.03019
-0.27347
0.01172
0.53539
0.54164
0.01969
-0.09560
-0.09206
0.77217
-0.13507
0.77185
0.62430
-0.22113
-0.06094
-0.98117
-2.01281
1.31101
-0.74746
1.43310
0.63429
0.64340
0.64311
-0.25022
-0.09865
-0.13224
0.36551
0.88270
-0.39017
0.78618
0.12632
-0.11040
-0.28625
-0.14085
0.78464
0.14281
0.22613
-2.71673
-1.79304
0.97197
0.27700
0.12149
0.04147
-2.71412
0.98390
0.96568
0.04437
0.05080
0.05594
0.10307
0.04858
0.04702
0.05078
-0.08695
0.06922
-0.36673
0.06691
0.53892
-0.20311
0.39249
0.01545
2.01869
0.05977
0.38992
0.38798
0.26477
0.09047
-0.06742
-1.18081
-0.34978
0.62773
0.62509
-0.30124
-0.26949
0.57422
0.39314
-0.07348
0.62561
0.62452
0.45748
0.62721
0.58286
0.58309
-0.34206
0.53150
0.19664
0.15280
0.06118
-1.38998
0.04254
-0.32071
-0.91119
0.60549
0.20372
-0.10814
0.47270
0.40771
-0.12082
-0.65369
1.48991
1.48411
-3.58387
-0.07899
-1.38507
0.89758
0.53973
0.28536
-0.60796
0.05408
-0.76214
0.87913
-0.92972
-0.22994
-0.06737
-0.09571
-0.89774
-1.50048
-1.50648
2.19897
-1.50410
-1.49863
-1.50618
-2.67960
-1.77037
0.08107
0.79711
0.07667
0.63129
-0.19299
0.52756
-0.39231
-2.24524
1.44900
-0.03758
0.63190
-1.22433
-0.76476
-1.21536
-1.23151
-0.95246
-0.19282
-1.38802
-1.93491
1.75069
0.53641
-1.12442
0.62436
-1.27992
0.75251
-1.99597
-0.14620
-0.60087
0.57753
0.52561
0.52547
-0.28634
0.32946
0.53721
-0.20248
-0.16137
-1.83734
0.93513
0.43709
0.58200
-0.90373
0.02071
0.54542
0.25118
-1.59934
-1.59968
-2.38608
-2.37292
-0.00821
-1.11327
-0.10235
0.36056
-0.08233
-2.34196
1.29184
-1.43073
1.29657
-1.43842
-1.47840
1.11018
-1.43961
-2.39435
-2.39693
0.24157
-0.18830
-1.45489
-2.35665
-2.38329
-2.40374
0.47122
-0.37974
-2.73552
0.05923
0.05917
-0.43434
-0.33152
-2.07481
1.61313
-0.36980
-2.07338
0.59466
1.25820
0.69054
-2.08450
-0.82640
-1.70305
0.40784
-1.58836
0.32214
0.35225
0.02545
-0.46323
1.27476
1.26893
-0.00334
0.11883
-0.66325
0.90402
0.38789
-0.55324
0.13446
-1.39133
-0.22353
0.37169
0.60071
0.91532
0.97841
1.36846
1.02859
1.02985
1.02680
-1.72979
0.54235
-0.56920
0.13446
0.92978
0.86740
-1.39106
-0.88454
-1.39636
-0.47699
-1.39944
-1.40482
-1.39581
0.44247
-1.38875
1.25023
-1.39978
0.88629
0.08215
-1.40449
0.70909
-0.65645
-2.23294
1.18036
1.42816
-1.31664
-1.33510
0.00639
-1.32726
-2.24140
0.51063
1.41526
0.90463
0.73999
0.52296
-0.40454
0.76172
-0.79985
1.41685
0.48797
-0.31784
-0.15509
-2.17397
-1.33302
0.16737
-2.74948
-2.74363
0.06211
-0.10645
0.53246
-0.86838
0.14500
-0.73521
-0.13303
-1.24516
0.05612
0.33417
0.21311
-0.24628
-0.31223
0.54686
0.61361
1.56485
-2.12101
1.55458
1.56537
-2.12392
1.14412
3.01539
2.93920
-0.32464
-0.43305
-2.80580
0.89949
-0.04811
0.76524
0.77928
-0.37059
0.79243
-2.36779
0.67932
0.67817
-2.09598
0.35680
0.24045
1.78915
1.47127
1.77921
1.80310
1.74729
-0.82323
-1.55906
1.21820
-1.55783
-1.55486
-0.16399
-1.48615
-1.48244
-1.48550
-1.48391
0.91011
-1.67048
1.69613
0.74581
0.53419
0.16560
-0.98533
0.53548
0.05611
0.05440
0.38689
-1.39435
0.81683
0.28680
-1.19679
0.60335
-2.26532
0.70307
0.62751
0.62596
0.62876
0.70177
0.98506
0.98971
1.46468
0.99103
0.98983
-1.25708
0.16545
0.53708
0.05185
-0.07550
0.50687
-1.07982
0.56929
-1.30878
0.42461
-0.07916
0.81498
-0.10361
0.74433
-1.91473
0.01237
0.75074
0.66801
0.76503
0.38378
-0.07884
-0.12571
-1.97247
-0.13604
-0.21524
0.35331
0.54078
0.63895
0.77176
0.75952
0.73203
0.71031
-0.11864
-0.22821
0.70566
-1.99361
0.09136
-0.08633
0.04934
1.01083
0.09874
-1.75803
-0.83293
-0.18683
0.08525
-0.11939
0.09802
-2.68218
-2.68571
-0.15811
0.26766
1.19957
-0.52151
-2.37419
0.53456
0.30503
0.44256
0.37401
0.56999
0.33229
0.88145
1.10310
1.28118
-1.31496
-2.34767
-2.38012
1.02459
-0.22602
-0.21382
-0.24036
-0.52002
-0.15114
-0.60528
0.35817
-0.60960
0.36992
-0.82037
0.54170
-3.31524
0.35355
0.50065
-0.83368
-0.05816
-1.66330
0.46177
-1.65559
-1.64541
0.17642
0.92956
-1.66535
0.56852
0.36788
0.44721
-0.36214
-0.53439
0.55134
-0.59461
-1.38199
1.49109
0.75608
-0.48344
0.10408
0.92898
0.79671
-0.47020
0.53960
0.05569
0.30865
-1.28622
0.76077
0.75180
0.72794
-1.08202
-0.42458
0.33195
-0.42150
-1.20566
0.27353
-0.02553
0.30825
-0.99211
1.78816
1.77269
-1.44910
-0.06202
0.02892
0.47302
-0.47269
0.54941
0.55149
0.06628
-0.36760
0.44664
0.54750
0.07148
0.84578
0.55894
-0.04526
0.49036
-0.26524
1.48677
0.55731
0.19624
0.11085
0.74161
-0.37674
1.49348
0.54618
0.62057
1.12456
-0.09748
0.12227
0.62279
1.40746
0.48320
0.48700
-2.28541
0.81457
-0.36047
-0.41016
0.45152
1.16004
0.16006
-0.37126
0.30135
1.16017
0.13619
0.91697
-1.85985
-0.21560
0.63423
-0.18420
-0.28386
-1.02517
-1.20696
-0.79438
-0.34411
0.63994
0.11780
-0.77630
-0.03951
0.74805
-0.98325
-1.55585
-0.10866
0.05613
-0.54950
0.39806
-0.37276
0.35348
-0.32576
-0.54716
0.07217
0.31899
0.71480
-0.43522
0.33790
0.36307
0.35514
-0.28390
-0.39252
-0.54380
0.21410
0.27847
-0.56994
0.35689
0.36160
0.00508
-1.16542
0.60253
0.33074
-0.57289
-0.67794
-1.34590
0.49842
0.50134
0.37967
0.50556
0.49946
0.49830
0.50012
0.64791
0.83645
0.19051
0.65642
-0.28986
0.65696
-0.30339
0.26439
1.18015
-1.58148
1.18386
-0.65888
0.43079
-0.13612
0.55250
-1.22669
0.79062
0.50142
0.63696
-3.07561
0.62755
-0.81014
-0.71676
-0.13936
0.78497
-1.53151
0.31617
1.23702
1.23724
0.68723
-1.41918
-2.81895
-0.10967
0.85654
0.72152
0.14333
1.14852
0.81698
0.49769
-0.06979
-0.07118
0.12761
0.09312
-0.39150
0.53440
0.28162
-2.46382
1.15288
-0.82808
1.59260
1.59630
0.64824
-1.35430
-0.90913
-0.71920
0.78928
0.51558
-0.13517
0.61054
-2.42010
0.23123
0.49745
-0.03775
0.88391
0.77411
1.82779
-0.00147
-0.26679
-0.48895
0.62291
0.85286
0.71652
0.62960
-3.06340
-1.59244
-0.83097
-0.16564
0.21494
-0.49981
0.00434
1.15101
-0.13310
-0.25901
0.79822
-0.13585
-1.98623
-0.42387
-0.13673
-0.11308
-1.16191
-1.12311
1.40640
-1.18756
0.65321
-0.13912
0.65013
0.84758
0.84438
-0.39231
-0.07879
0.85385
-1.47634
0.04223
0.57377
0.84214
0.16575
0.12565
0.35291
0.05763
-0.19693
0.88347
0.76554
-0.16843
-1.00582
0.05411
-0.32394
-0.42633
0.96669
0.08598
1.00852
0.08508
1.00909
1.01028
0.56179
0.08843
1.01190
1.00665
0.08781
-1.76078
1.01282
0.09137
0.09229
0.07456
0.02320
-0.07130
0.04994
-0.32580
-1.81314
-1.80979
-1.62349
0.53405
-1.49396
1.88893
-1.60862
-1.80798
-1.74282
0.96714
-1.81355
0.67779
0.54725
0.33065
-1.53044
0.53453
0.92246
-0.00609
-0.28066
-0.91481
-0.06657
0.53713
0.94325
0.96047
0.15272
-0.04722
-1.35033
-0.93045
-0.37357
0.93612
0.47455
0.29821
-1.13378
-0.20844
-0.21108
-2.05228
1.16109
1.35714
0.53700
0.45698
0.46667
0.17595
0.43370
-0.52081
-0.46991
0.45706
0.29047
0.46369
0.46029
0.01621
0.47077
-0.04295
-2.86345
0.03171
-3.57118
-0.88492
-0.53269
-0.64465
-0.37438
-0.07142
-1.42163
-1.42540
-1.42408
-0.49827
-0.42568
0.21116
0.15816
-2.82790
-0.55253
0.20332
0.10131
0.67364
-2.10833
-3.03699
0.53964
-0.25988
-0.41986
-0.39284
0.21206
0.61112
0.16758
1.62397
-0.10619
0.18062
-0.39067
0.53587
-0.32669
-0.39042
-0.76707
-1.83063
-0.72561
0.10842
-2.79014
0.02247
1.07728
-2.22086
0.05388
0.86898
0.14069
-1.79978
0.15179
1.03682
0.73240
-0.42619
-1.34785
-1.34773
0.69529
0.11013
0.18967
0.87816
1.00836
0.93015
0.28737
0.06121
0.08428
-0.09617
0.02049
0.53488
0.46530
0.31813
-0.56152
0.87963
0.87964
1.62868
0.35968
-0.29056
0.50505
-0.63804
-0.05273
-0.47309
2.47759
0.05820
-1.30477
1.36510
-1.40144
-0.11825
0.96564
0.81422
1.29204
0.04262
0.05889
-1.90530
0.46724
-0.16781
0.37463
0.53900
0.18961
2.19923
-0.26777
0.01122
0.06150
0.67549
3.75912
-2.56055
-1.25405
-0.93273
0.39579
1.29120
0.04830
2.01958
0.16619
1.02322
0.08067
-0.62739
0.46218
1.15310
-0.39052
0.43696
0.50054
0.10983
-0.20817
-1.26142
1.50992
0.68321
-2.54437
0.19469
-2.44906
0.00372
-0.31298
-0.42424
0.30396
0.29213
0.66048
-0.25186
0.67352
0.05800
-0.24430
0.53993
0.20878
0.13658
1.06147
0.04774
-2.72875
-1.01822
-0.74592
0.96960
-2.72911
0.88802
0.05737
-0.23819
0.73282
1.67815
-2.02179
-2.01866
-0.47418
1.37216
1.36411
-2.31971
-0.39774
-0.49279
-2.35579
-0.10297
-0.78708
0.06177
-2.50799
0.26004
-0.68946
0.39673
-0.41269
0.25797
0.17862
-0.66909
0.25821
0.43771
0.57313
0.53389
-0.09300
0.54097
0.68553
0.74147
0.73213
1.08514
0.74138
0.36892
-2.93082
-0.64388
0.10547
0.56489
0.54642
-0.15838
-0.52920
0.11120
0.12534
-0.13490
0.79002
-1.67405
-1.76859
-0.84946
1.92643
0.08153
-0.83877
0.98104
0.14054
0.37733
0.42904
0.68723
1.34334
0.95787
0.93995
-0.12444
0.62395
-2.72193
0.06243
0.36722
0.52773
0.08125
0.52753
-0.59985
-1.54061
1.25084
-0.05699
1.17997
0.96851
0.05498
0.05497
1.84707
-1.48324
1.83463
-1.85450
0.91435
1.76441
1.84000
-1.85478
-1.84393
0.56585
-1.85446
-1.84794
1.85067
-1.84060
-1.84700
-1.85393
-1.85063
0.90144
-1.84391
0.91464
-0.93081
-1.59567
0.91578
-1.84726
-1.84682
-1.84300
-1.84351
-1.84925
-1.29092
0.19874
0.06948
0.06908
-0.87226
-0.88792
2.62113
0.83320
0.03579
-0.09086
-1.48169
-0.25490
0.88210
0.56539
0.82488
-0.36132
-0.07915
0.64275
0.81880
-1.01396
0.77461
0.52074
0.83187
0.82889
0.31398
-2.84051
-0.08633
-0.08514
0.82794
0.82828
0.72371
0.83379
0.82951
-0.51773
0.51410
0.81826
0.82829
-0.24826
0.82002
0.82066
0.08348
0.82687
0.83481
-2.84718
0.63588
0.31778
0.83293
0.82562
0.83763
0.83217
-0.08385
0.69956
0.83120
-2.83935
0.68401
0.81456
0.82591
-0.08915
-0.24108
-1.00890
0.83796
-1.00085
0.06825
-0.23726
-2.45542
0.81344
0.83515
-0.11497
-0.99901
0.82552
-1.92170
-2.85100
-1.38541
0.30399
0.36031
-0.43339
-2.00172
0.22141
-1.29202
0.01068
0.79816
-0.39664
0.99978
0.68353
1.04253
-1.29290
0.75687
-0.09664
0.73427
0.01448
0.34044
-0.42727
-0.77738
-2.58862
-2.59554
1.04802
1.09435
0.92572
0.17818
-0.53839
-0.87471
0.96678
1.88249
1.89806
-1.80364
1.89174
0.97863
-1.76385
0.96779
-0.87058
-1.70193
-1.80038
-1.79637
-0.87560
0.97018
-1.79867
-0.87097
-1.80451
1.88791
-0.88343
0.04645
-1.79968
-1.80128
-1.79384
-1.79850
-1.80494
-2.54421
0.78953
-0.14928
-0.19927
0.71087
-0.31475
0.65776
-0.45695
0.33655
-0.35298
0.84071
0.27695
-0.53511
0.05745
-0.01841
1.19535
-0.20299
0.37333
1.62547
0.05522
0.71427
-0.37483
1.65066
0.72588
1.93661
-0.41729
1.13989
0.20138
0.41827
-0.05260
-1.37724
-0.80792
-1.60962
1.61610
0.55756
1.60335
-0.19316
-0.07247
0.69247
0.19297
-1.40636
-0.21874
0.23296
-1.54972
1.75355
-0.00397
-1.82716
-0.46756
0.19986
0.43736
1.14719
1.11872
-0.90303
0.42929
0.52293
-0.39254
0.20244
0.05387
-0.71335
-1.81834
0.95748
0.87494
0.94166
0.18300
0.51185
0.08209
-0.41908
0.54388
0.13669
0.01191
0.03731
-0.01687
-0.80941
0.55777
0.55402
-0.53381
-0.69324
0.72115
1.20529
-1.01303
0.52098
0.28088
0.53626
1.19428
0.55290
0.88700
-1.86777
-1.87166
1.80397
-1.88048
1.61039
1.80317
1.80240
-1.88079
1.80781
-1.87777
-0.95291
-1.88327
-1.87466
1.79788
-0.96304
0.88219
1.80558
-1.89333
-1.86949
-1.88147
1.45638
-1.86779
-0.00752
-0.76671
0.22250
0.04387
0.54265
1.41384
-1.11152
-0.42949
0.23070
-0.45190
-0.03684
0.19911
-0.22411
0.02502
-0.52845
0.00331
-0.18106
-0.18371
-0.34283
-0.45314
-0.18148
-0.31752
0.84231
-0.07979
-1.01279
-0.61377
0.81625
-0.99783
0.40984
0.83833
0.25140
0.71781
0.63129
-1.03610
0.83180
-1.93895
-0.08750
-0.06881
-1.46900
-1.47441
0.37980
-1.47169
-0.54539
-1.46881
-1.47086
0.29074
-0.10764
-0.90373
-1.42250
-0.22071
-0.04039
0.54275
-0.21118
0.56409
0.52702
-1.87892
-0.79781
0.67688
-1.87162
-2.80815
-0.02778
0.27573
-0.02032
-0.66310
0.11682
0.44960
-1.64901
0.89253
0.25439
-0.42314
-1.63663
-1.68948
-1.69481
1.99016
-0.13893
-0.05046
2.28415
-0.49474
0.55610
-0.32938
0.05691
0.54518
0.09452
0.30305
-0.62220
0.01268
-0.61293
0.55420
0.51143
-2.25750
-0.42355
-0.70163
0.39565
-0.41824
-0.10744
-0.42177
0.62067
-0.29102
1.56803
-2.12705
-2.15515
0.89847
0.05544
0.72503
-0.12175
-0.04811
-0.72996
0.20895
0.74766
-0.32638
-0.56369
-0.12794
0.08768
-0.12721
-0.00589
-0.11637
0.45870
1.38308
-1.39525
0.47647
-0.01478
0.53322
0.56537
0.03039
1.09539
0.71016
-1.33114
-1.33015
-1.32955
0.61930
-1.34699
-1.34607
0.63674
0.73926
0.66745
0.23916
0.53295
0.03849
0.27321
-0.14792
-0.42573
0.36364
-2.19215
-2.41648
-1.38360
-1.39972
-0.57261
-0.06481
-0.33936
-0.24743
-2.71042
1.00485
-0.85426
0.47693
0.28145
-1.54431
-0.62944
-0.23448
0.29646
0.29853
0.28607
0.28494
0.28940
0.28248
-0.62769
0.26087
0.29194
-0.72694
0.29720
-0.62999
0.08233
0.69391
0.68605
0.70049
-1.13951
0.51582
-0.21630
-2.05349
1.60779
0.85905
0.70326
0.70435
0.68043
0.69906
-0.33711
-0.23681
0.23645
0.30962
-1.84349
-0.68287
1.62619
0.28239
1.60302
-0.10834
0.70417
-0.39037
1.61350
1.61285
-0.29836
0.82588
0.19752
1.60818
-0.90827
-2.07350
1.46328
0.05843
0.24937
0.10368
1.09382
0.42769
0.53924
0.53932
0.55062
-0.42386
0.88331
0.53608
0.71212
0.74727
-0.03511
0.36985
0.98691
0.92972
0.55807
0.91706
-0.17114
-1.50219
1.17533
0.96229
-0.15289
0.53521
-0.16981
1.40135
-0.73091
-0.24668
0.48389
-0.48544
0.24121
-0.04461
-1.90597
0.84590
-1.18994
-2.15266
1.03636
-0.20949
-2.12880
-2.12249
0.52636
-2.12967
-1.21209
-1.20094
-1.96816
-2.11853
-1.55107
-2.12168
0.23067
1.37868
0.43896
0.00679
0.41475
0.29909
0.43945
-3.22961
0.40464
0.37641
-0.68529
-1.29923
-3.25502
-2.31714
-0.48841
0.40544
0.01658
0.85487
-0.06111
1.19745
0.01031
0.50336
-0.69414
0.20372
-0.93854
0.50306
0.50663
0.42599
0.68162
0.67850
0.24959
-1.12935
-1.12661
-1.12942
-1.13053
-0.20726
-1.13416
-1.13370
-1.12893
-2.14412
0.40661
0.80464
-2.37098
0.40339
-0.44933
-1.38609
-1.38609
0.06084
0.57957
-1.43799
-1.78894
0.06248
0.69797
-1.44408
-2.38345
-0.41387
1.33818
0.82685
-0.87771
0.09916
-1.68631
0.96377
-0.28218
0.53622
0.27514
0.53756
0.16575
-1.38053
-0.42197
2.24661
-0.62821
1.01441
-1.75987
1.20407
0.99343
0.08793
-0.83336
-1.75026
-1.17077
-1.74363
-1.76331
-0.83823
-1.75682
-1.76220
1.91407
-0.18369
0.53719
-2.26034
0.39399
0.21360
-0.41758
0.53254
-0.00332
0.54964
0.64666
-0.11430
-0.72850
-1.39022
0.19979
-0.03171
0.19745
-0.32253
0.17745
0.27996
-2.63602
0.39600
0.43720
0.43200
-0.48240
0.26853
-0.48199
0.43298
0.43671
0.43675
-0.48597
0.43277
-1.40909
0.43698
0.43487
0.43516
0.43591
-0.72098
0.44231
-0.05448
0.42949
0.44289
0.43472
-0.47977
-0.44245
0.43395
0.00725
-2.12252
-0.27617
-1.20563
0.64098
-0.27737
0.86877
1.56662
-0.04289
0.26323
0.26013
0.25791
0.25864
-0.34133
0.26426
0.25653
-1.58457
0.27312
0.27012
0.26266
0.25370
0.26925
0.43625
-0.31124
-1.30067
-1.06997
-1.30220
0.40691
-1.18440
-0.31940
-0.37567
-1.30396
-0.37658
-1.30382
-1.30114
0.16948
1.67679
0.76016
-1.93781
0.06661
0.23730
0.77637
1.04783
-1.86644
-2.76801
0.57039
0.85491
-1.01690
0.69040
0.12777
-0.19038
0.71152
0.21700
0.76417
0.59515
0.51211
0.12603
0.78503
-0.13865
0.06988
-0.42515
-0.56034
0.07682
0.16967
0.84402
-0.15658
0.15838
0.05496
0.64573
1.40517
0.54707
0.00330
1.26915
-0.42743
-0.31511
-0.15807
1.41318
-0.06144
0.29030
-1.83883
0.93904
-0.91500
0.38376
0.35750
0.39547
0.32126
0.39590
-0.96002
-0.30003
-0.42669
0.15113
-0.31633
-0.59463
-1.38626
-0.31593
-0.62584
0.78755
0.25089
-0.24746
-0.67099
0.25335
0.02976
0.54034
-0.37066
-2.22137
-1.38446
1.46880
1.46580
1.47154
-2.22006
0.05259
0.05255
0.05916
0.54490
-0.44026
-0.20792
-2.21426
0.79159
-0.13288
0.24104
0.12880
0.32096
-0.43512
0.05687
-0.14018
-0.66699
0.78269
0.53901
0.20407
0.53737
0.53737
0.97371
0.53738
-2.16807
-1.57351
-0.34689
1.47431
0.57510
1.52994
1.51516
-2.18806
1.50162
-2.15476
-1.93631
1.75438
0.27135
0.13959
-0.01480
0.58818
-0.45542
1.21558
0.27685
-1.53074
-0.64661
-1.58003
1.77107
-1.57428
0.01272
0.87719
-0.64432
-1.57516
1.11777
-0.65254
1.19346
1.19257
-0.46940
-0.79527
-1.72463
-1.69459
-1.72488
0.21676
-0.80225
0.44234
0.07926
-1.86735
0.90732
0.30997
-1.54199
1.23225
-1.38488
-1.38488
0.28259
0.27877
-0.06989
0.59396
-0.11001
0.71838
0.28517
1.24578
1.24564
0.53717
0.53928
0.51860
0.46665
0.46698
0.46831
0.46770
0.46692
0.44468
0.41918
-2.70976
0.21319
-2.66525
-2.67107
-2.68680
0.93290
1.16828
-2.67435
0.83592
0.98277
-2.66403
0.97390
0.31038
0.27696
-2.69006
-2.68939
0.82240
0.97246
0.11542
-1.74485
-1.54200
-0.74803
-1.74469
0.99850
-2.68918
-0.01644
0.62468
-2.67892
-2.68268
0.95391
0.78481
0.05700
0.99479
-2.71368
1.00098
-0.02197
0.06366
0.08798
-2.42706
-0.51945
1.59468
-0.20701
0.48488
0.44668
0.38801
-0.03004
1.17862
-0.64179
1.18046
1.19055
1.16680
1.17514
0.25977
0.14017
0.24003
1.20468
0.29911
1.15010
0.99101
-1.52212
-1.04294
0.29268
-1.35064
0.27681
0.54446
1.20483
0.43791
0.44637
0.45197
0.45220
0.54009
-0.63935
0.15895
0.24304
0.09368
-1.41323
1.77563
0.39225
1.79832
-1.88913
-1.88534
0.89504
-1.90092
0.82258
-0.03919
1.36184
-0.60008
0.89199
0.86829
1.20332
-0.27030
0.53761
-0.30287
0.03024
0.02812
0.03006
-0.60839
-1.31223
0.53947
-1.39035
-0.14307
0.53855
0.25097
-0.56424
-1.49333
-1.49397
-1.49548
-1.48757
-1.49409
-0.56521
-1.49806
2.20723
-1.48376
-0.56745
-1.49588
0.06449
0.06166
-0.17560
0.54073
-2.24177
0.37488
-0.12852
0.27006
0.06436
1.19997
-2.49690
0.52988
-0.64998
-2.47489
-0.64354
-2.47726
-0.67467
-2.46884
-2.39688
1.04258
0.27443
0.26261
-0.63793
1.17681
1.18106
1.10875
1.78284
1.78950
1.79644
-0.96270
-1.88372
-1.89361
1.78964
0.88310
-1.31574
0.37206
0.34760
-1.44351
0.40636
0.39190
-1.06347
0.44236
0.46912
-0.38357
-0.41922
0.54488
0.84918
1.02909
0.27381
0.04591
0.09713
0.57386
0.83242
-0.60328
-0.58381
-0.60244
-0.23615
0.08347
-0.06495
0.54186
0.31734
-0.59735
-0.07839
0.16347
-1.34520
-1.34510
0.28831
-1.39152
-0.48594
0.71259
0.43681
-1.99212
1.67775
0.31320
-1.99844
1.69884
-1.06745
-1.98918
-1.99427
-1.98467
1.30086
-1.00385
-1.46195
-0.11651
0.05589
0.05585
-0.21827
0.07430
-2.14397
1.56042
0.02704
-2.15284
-2.14277
-2.13985
-0.27325
1.56208
0.65777
-2.11820
-2.12222
0.67165
0.54330
-0.42719
-0.55126
0.35487
0.36169
-0.21051
0.35572
0.36308
1.35229
-1.29164
-0.42715
0.07491
-0.29412
0.60851
-0.27114
-0.42526
0.85530
-0.05825
-1.44086
0.93220
-0.02716
-0.58414
-2.42533
1.00969
-0.46306
-2.41858
0.35071
1.25343
-2.42192
-1.50529
-2.41412
1.24459
0.30543
0.16004
0.56078
-0.49957
1.30863
0.13626
1.31547
0.43038
1.33718
-2.27507
0.41635
-0.47477
0.46294
1.70575
1.30822
0.30352
0.27541
0.27842
-1.03649
1.78371
0.07738
1.06448
-0.65383
-0.95518
-0.95103
-0.03487
0.80914
1.64161
-2.00611
0.23108
1.38143
-0.02320
-1.38678
0.36309
0.53056
-1.48214
-2.40197
-2.40820
1.29431
0.54123
-1.48847
1.29341
0.06333
0.34074
-0.00602
-0.74123
0.08420
1.93391
-1.75830
-1.76377
-1.76231
-1.76853
1.92573
-1.76507
1.93801
-1.75998
-1.76035
-0.83662
-0.83960
-0.68212
-2.53310
0.23830
0.22867
-0.52753
0.20839
-0.67850
-0.29492
0.53379
1.52291
0.65409
-0.08838
0.65375
-0.28495
0.64636
-0.32928
-0.66866
0.53055
-2.17001
-2.16690
-1.24700
1.52229
0.68363
-1.38319
0.04860
0.09436
-0.65179
1.11587
-1.73071
1.13462
1.12157
0.22189
1.12452
-0.48745
0.22721
-2.39736
-0.96463
1.13735
1.12479
0.20871
1.11713
1.12790
0.31764
1.12093
-2.25932
1.12560
1.14614
-2.55490
0.23424
1.13744
1.07051
0.25701
-2.53587
-0.07070
-2.19953
0.98460
-1.02313
0.36192
-0.82324
-0.60817
-1.17395
-2.45888
-2.45305
-2.46109
-0.62614
0.24094
-0.49148
0.30778
0.78172
-0.06620
-1.00730
0.55353
-0.36206
-1.92649
-1.93599
0.17403
-0.09475
-1.79175
-0.91328
0.40728
0.55346
-1.05421
0.66761
-0.00944
-1.07592
-0.64849
-0.65053
-1.24184
0.28428
0.19227
-0.85093
-2.04209
0.53565
-0.11488
-2.04744
0.71644
0.11852
1.15435
-0.56964
1.15751
0.21613
0.53623
-2.98803
0.70517
0.82757
0.70620
0.70308
-1.89279
0.53418
-1.71748
0.64254
-0.12501
0.43030
0.52234
0.52453
0.51492
0.27685
0.05863
-2.53044
-0.18008
0.05522
0.54178
-0.23153
0.44711
-2.08973
-0.07103
-0.32921
0.30118
0.58586
0.58075
-1.18093
0.78560
-0.67463
1.23036
-0.28341
-0.59656
0.74783
0.16316
-1.04321
-0.12699
0.06043
0.31380
-1.17720
0.13576
-0.00253
0.45372
1.00918
-1.01583
0.54826
0.53827
0.47619
0.33735
0.40581
1.14886
-1.54203
0.31172
-1.54026
0.05894
0.06206
-0.70191
-0.88960
-2.43503
-0.71685
-0.54276
0.27596
0.30728
-0.54418
0.31246
0.16761
0.44782
-0.12061
-1.15611
0.10459
-1.50676
-0.36396
-3.14380
-0.29955
-3.14620
0.53639
0.12145
-0.38424
0.53784
0.52984
0.06257
-0.38021
-0.85754
-0.15263
-1.79089
-0.90323
-1.06594
0.66569
-0.28364
0.05365
0.70150
0.10963
1.18625
0.13148
0.05423
0.90982
-2.03039
0.05651
0.54080
0.21687
-1.37787
0.53536
0.03018
0.05787
-1.38667
-1.38551
-1.39037
0.09759
0.17510
-2.56876
-1.63934
-1.62631
0.89758
1.12124
-0.35585
1.99404
-0.52361
-1.75970
-1.76316
1.01315
0.54202
0.54807
0.27285
-0.90782
-0.89860
-1.47875
1.47127
-0.29232
-0.73376
-1.92354
1.76599
0.76204
-1.92382
-1.26761
0.31436
-0.37421
0.10339
-2.27446
-2.47498
1.20475
0.75730
-1.54179
-0.96761
-1.55391
0.82658
-0.51669
1.75850
1.75096
-0.38646
-0.99424
-1.91311
0.53550
-1.89728
-1.89158
-1.67019
-0.20494
-1.60772
-1.89508
1.74403
1.43754
-1.47359
-1.91704
-0.13471
-0.60368
0.98815
-0.99199
0.84178
0.76111
0.78321
-1.34536
-1.91913
1.75349
1.74754
-0.59541
-0.07123
0.87103
-1.91166
0.88469
-1.90671
-0.58698
-1.91088
-1.90840
-1.33931
-1.90159
1.74692
1.75877
-0.97862
-1.89669
0.82574
-1.73870
-1.89613
-1.91877
-1.91132
-1.91588
-1.90069
-1.67647
1.77042
-0.64899
1.12078
-1.74320
0.73023
1.09157
-0.61723
-1.89003
0.45922
1.70602
0.82425
0.85587
-1.91851
-1.91368
-0.99449
-0.36314
-2.64209
0.15421
-3.15816
0.59176
-3.15710
-0.41167
0.55361
-0.09879
-0.16620
-0.37022
-0.54022
0.55055
0.54630
-0.09900
-1.93405
1.75853
0.63981
-2.67362
0.53508
0.40379
-0.33058
0.59687
-2.16936
-0.06912
-0.34006
-0.32535
-0.68914
-0.32183
-0.32550
-0.22740
-0.32242
1.82429
1.74010
0.90557
-0.93971
0.90708
-0.92709
-0.00933
-0.13324
1.83743
-1.85016
-0.01173
1.75435
1.82877
-0.93088
0.90947
-1.85880
-2.19586
0.59283
-0.25326
-2.19530
0.57482
-2.98834
-0.13932
0.57695
-3.11172
0.55951
0.72078
-0.36656
0.55437
0.55982
0.38350
0.28964
0.56249
0.57007
0.55369
1.65485
0.57528
0.42600
-0.35546
-0.53572
0.55616
0.56141
0.73043
-3.12246
0.48216
0.55783
0.55680
0.05433
0.55085
-0.37286
0.51022
0.55326
-0.30848
1.47518
-2.22049
-2.22060
0.80451
0.70417
1.23616
1.38193
0.17825
-1.37439
0.97823
1.39242
0.47259
-2.28119
-0.19462
-2.28453
0.56811
0.44484
0.28139
0.29279
0.24314
1.22635
0.29996
0.71113
-1.55722
1.22009
0.29667
0.54770
0.60038
-1.51455
-0.61177
-1.51682
0.33889
0.05778
0.10275
-1.83356
0.73290
0.01609
-0.56595
-1.00731
-1.14009
-1.14092
0.54453
-1.33242
0.32670
0.02812
1.62898
-0.21962
-0.56482
-0.44108
-1.93279
-1.00542
-1.75904
-1.51393
-0.92808
0.88782
-1.88689
0.87772
0.87997
1.80042
-1.38267
0.88018
0.55041
-1.54292
-0.61697
-0.13005
-0.03378
0.00314
0.22200
-0.74478
-0.95791
-1.13784
-0.20495
0.63425
-0.25334
0.69480
0.64690
0.06376
-0.21995
0.70151
0.01120
-0.21262
-0.54582
0.70172
0.70784
-0.22540
0.71626
-1.88756
-0.16750
-2.98806
-0.18071
0.06930
0.05337
0.53976
0.53182
0.53166
-0.06421
-1.63282
-1.63395
1.14196
-1.63327
-0.70949
0.21392
-1.63315
0.03931
0.66701
-1.01627
-1.38119
0.54018
0.16030
0.76537
0.53212
0.06453
-2.25386
0.80084
1.51248
-1.93344
-2.18305
0.49528
1.14353
1.14772
1.14850
-0.02241
1.07430
0.54033
-0.01168
-0.16091
-0.14507
-0.15127
-0.15991
-0.14438
-0.15681
-1.70124
0.31957
0.10094
0.49512
0.49065
0.53784
0.45264
-0.28389
0.22485
0.59176
0.35101
0.53337
-2.17010
0.57883
0.60249
0.54907
1.02434
1.02076
0.10040
-2.65299
-0.77928
0.70634
-0.48912
-0.48250
-0.92026
-0.77253
0.45129
0.00062
0.12013
0.07094
1.04156
0.46189
-3.26589
-1.32088
-0.32220
0.36406
0.46150
0.11817
-2.33727
-2.08260
0.43350
-0.48815
-0.48264
0.37674
-2.32560
-2.32217
0.48667
0.31837
0.34038
0.89145
-0.21447
0.13072
0.36187
0.12465
0.34295
0.44017
-0.72265
-0.07872
-1.04388
0.46329
-0.49719
0.42879
0.40698
0.43880
0.43484
0.08069
0.33469
0.15960
0.48868
-0.27021
0.52378
-2.25800
0.51946
0.51707
0.51335
0.53572
0.05864
0.76204
-1.08173
0.76529
-0.39686
0.76644
0.76471
-0.12099
-2.31304
-1.08296
0.76374
0.76983
-0.01874
0.76728
0.39269
0.87063
-0.07250
0.52688
0.51044
0.05681
0.05682
0.34680
-2.31435
0.17682
0.77879
-0.14516
0.88030
0.36574
0.01511
-0.09579
0.00387
0.04859
0.41493
-1.52598
0.20276
1.12301
-1.64361
1.12738
1.12101
-1.63654
-1.35361
1.41753
0.14257
1.23937
-0.06086
0.17174
-0.67778
-0.20415
0.82298
0.05928
0.00195
0.05867
-0.20377
-0.52978
1.07050
1.14212
-2.55548
0.21918
0.35099
0.52108
0.67899
0.69466
-0.67883
0.70302
-3.00274
0.67394
0.98714
0.69273
0.69921
0.67944
-0.42471
-0.20796
0.68552
0.49476
0.64029
0.69550
0.70026
0.69023
-0.22880
0.69000
-1.38379
0.68809
0.70318
0.70189
-0.23454
-0.20966
-0.53684
0.69389
0.69281
0.68285
0.70161
0.70704
0.68794
0.10822
0.24050
1.07825
-0.77014
-2.09348
-1.12612
-0.98281
0.45004
-0.27889
2.65431
0.47472
-0.91489
-0.11357
-0.53132
-0.55005
-0.77601
-1.39847
1.78852
-1.91015
1.77768
-1.90351
-1.67612
0.18064
-1.67333
1.10031
-1.67507
-1.82897
-0.00332
1.43939
-2.26640
-1.33786
0.23715
-0.12812
0.79705
0.44574
0.60990
0.53801
-0.30956
0.37259
0.41469
0.53142
1.57419
-0.35109
-0.69188
0.06385
0.53794
0.80569
-1.55074
-0.64756
-1.56748
-1.80045
-0.90190
0.98326
0.44278
-1.57475
-1.57333
-1.56710
-1.37348
-1.38230
-0.37064
0.19230
0.82888
0.49334
0.80999
0.56872
-1.38188
0.53823
-1.84462
0.93163
-1.84687
1.85444
-0.72971
0.92504
0.93316
0.83511
-1.74193
-0.34411
-0.69198
-1.38359
-1.21149
0.49262
-0.14241
2.29328
-1.49699
0.23352
-0.57123
-0.46248
0.55436
0.15243
-0.42282
0.14660
-0.06724
0.20129
0.13880
0.54986
0.33095
0.16387
-1.67599
0.17396
1.09618
1.08571
1.61066
-0.23855
-2.08465
-1.15621
1.43570
0.05103
0.52870
0.52865
0.41738
0.09005
-0.49997
0.18302
0.64616
0.65175
0.63672
0.65025
-1.06653
-0.27684
-2.12471
0.06059
0.54061
-0.45757
0.03524
0.53566
0.51820
0.53188
0.53199
0.53831
-0.90174
-0.90723
-1.05770
-1.05694
0.48391
-0.72252
-0.02011
0.90233
-0.94676
0.01163
-1.85249
-1.84587
0.05084
-1.85272
-0.02213
1.82677
-1.84207
-1.86354
-0.92372
-1.84540
-0.68382
-0.96649
0.89409
1.14451
0.02461
-0.04552
1.56184
0.06038
-0.22827
-0.20683
0.69911
-1.27875
-0.15769
0.42013
-0.10142
-0.26866
0.12368
0.23759
-0.01583
0.90751
0.07956
0.90811
-0.01753
0.90478
0.05645
-3.25958
0.43173
-1.96102
0.04711
0.42977
0.43719
-1.18410
0.51036
-0.75704
-1.67376
-0.75141
1.98948
-0.76093
-1.56326
-1.39006
0.53598
-0.41757
0.40481
-0.81707
2.24462
0.02830
-0.77556
-1.83716
0.01432
-1.83229
0.54091
0.01655
0.21736
-0.90456
-0.01915
0.90559
0.02473
-0.00703
0.70680
-2.14840
-0.90311
-2.33360
1.36296
1.36631
-0.41817
-2.92295
-2.00532
0.51692
0.73923
0.76054
0.53901
0.28346
-0.02152
0.13467
-0.77034
-0.44157
-1.43052
-2.15092
0.19814
-1.23018
-1.32188
-1.47287
-0.58716
-0.36642
-1.47243
-1.30909
-0.62767
1.30304
-0.78909
-1.25653
1.89947
1.86742
1.73276
1.88289
-0.87820
0.97867
-1.74851
0.56227
0.05831
-1.25832
-1.26626
-0.10906
0.59730
-1.26045
-1.26417
-1.26157
-1.26639
-0.34382
-1.26310
-1.26184
-0.56462
-1.26240
-1.25952
-1.26892
0.57737
-1.26876
-0.65552
-1.25974
-1.26500
-1.26269
-1.26757
2.43275
-0.34219
-1.26180
-1.26530
-1.26796
-0.32221
-1.27283
-1.04835
-1.26315
-1.26864
-1.25997
-1.26875
0.58861
-1.26586
-0.71310
-1.26283
-1.25681
-0.56282
-1.26297
-1.26153
-0.15176
-0.11410
-0.48498
-0.43962
-1.26466
-1.26577
-0.35030
1.08799
-1.26808
-1.17893
-1.25676
-0.86990
-1.26842
-1.26793
-1.26954
-1.26680
0.49292
2.43960
-1.26037
-1.27039
-1.25565
-1.26061
-1.12115
-1.27212
2.43956
-1.38025
-1.26991
0.36677
-1.26178
-1.26540
-1.26218
-1.27071
-1.26661
-1.26741
-1.27071
-1.25889
-1.00231
-0.34339
-1.27422
0.44407
-1.26359
-1.26397
-1.26621
-1.26358
0.58870
-1.26304
-1.25730
-1.26914
-1.26235
-1.26618
-1.25828
-0.11001
-1.26282
-1.26573
-1.52992
0.06313
0.05060
0.41951
0.85020
-0.90491
0.09896
0.53599
0.09072
0.70561
0.28552
0.05641
0.05928
0.63105
0.45161
0.09912
0.05328
-0.57523
-0.95638
-0.79072
-0.09918
1.67206
0.54253
0.55098
0.10844
0.71276
0.24135
-1.22570
-1.85529
-1.08553
-2.17841
-1.33281
0.05146
0.59325
-1.38019
-0.75118
-1.38018
0.04587
-0.77990
-0.42600
1.00784
0.94207
-0.65411
0.49493
1.46209
0.04776
-0.34682
-1.88399
-0.21747
0.09863
-0.73588
-0.51412
0.07074
0.44554
-0.95606
-0.52959
0.61984
0.20249
-0.57448
0.35858
-0.50775
-0.82931
-1.19778
-1.35720
-0.91727
-0.17178
-0.49805
0.54075
0.53385
-0.51089
0.45402
-0.43354
-1.22790
-0.85062
0.01653
0.61399
0.60972
-0.52453
-0.91119
-1.42962
-0.24961
-0.91148
-1.42150
-1.24005
0.06323
-0.27718
-2.59538
0.36491
-0.22470
0.79741
-1.97679
-0.02768
-0.90034
-0.48577
-1.02223
0.14427
1.00461
0.51290
0.12883
1.36382
0.31972
0.80516
0.50041
0.00175
0.42531
0.53664
0.40142
-0.81191
0.50741
0.36836
0.67264
0.28187
-1.77301
1.01670
-0.66409
-0.71321
0.91491
0.08344
-0.02405
0.63656
0.31923
1.29732
1.88903
0.50140
-0.08018
-1.33532
-0.45744
2.32540
1.27248
0.12374
0.71578
-1.38498
0.62923
0.76615
0.08238
0.06352
-1.84828
-1.52145
0.33190
0.53229
0.36674
0.05585
-0.79381
-2.67268
-0.12667
-0.02007
-0.42620
1.26008
0.02436
0.11409
-1.84556
-0.62470
0.03180
-0.26525
-1.17756
0.41596
0.90389
1.15445
0.76594
0.27235
-1.03875
-0.74921
0.60868
0.14481
-0.18433
0.51200
0.18070
-0.14363
0.74780
0.05424
0.70066
0.01888
0.04505
0.76708
0.68981
-0.67938
-0.14224
-0.96902
-0.19811
-0.04389
-0.32044
-1.38569
-0.42363
0.13382
-0.75118
0.76901
2.17533
-0.90582
-0.73990
-0.09446
-0.18876
1.18351
-1.37759
-0.31736
1.54682
-0.14743
-1.38503
0.19384
-2.16490
0.05581
1.44060
0.00519
0.22419
-0.11977
0.74820
0.09542
0.57855
0.22742
0.63952
-1.64007
-1.39111
0.45438
0.81816
0.56361
1.09563
0.14388
0.22351
0.19435
0.92919
-0.90070
-0.18164
-1.08013
0.24068
-2.35399
-0.05486
-1.82593
0.53617
-1.48477
0.06400
0.34840
-0.27014
0.54869
-0.40975
-0.66679
-0.82230
-1.59283
-0.02572
-1.38624
-1.75966
-1.68821
-1.45624
-0.28863
-0.04216
-0.82642
1.32590
0.24659
-0.58027
0.53803
0.56137
0.56727
0.52185
0.31042
0.09714
0.19375
0.68763
-0.69371
-1.49276
0.27512
-0.45334
0.12660
0.32904
0.54459
0.16917
0.53331
0.26504
0.33400
0.22728
-1.94881
0.24953
-0.39845
0.13334
0.62346
0.66596
0.71715
-1.42412
0.05849
-0.30863
0.53954
-1.83741
0.41910
0.59571
0.66815
-0.62398
-0.05137
0.54044
0.44167
0.23966
-0.68217
1.39381
1.63851
-0.73502
0.09894
0.51085
-0.90232
0.84259
-0.76278
-0.24223
1.23242
1.02873
0.17038
0.05563
1.05675
0.92409
0.26327
-1.57096
1.21955
0.05525
0.70231
2.02795
-0.14714
-0.18163
0.31943
0.66621
-1.12197
0.40817
0.53384
-0.08363
1.10637
0.55282
-2.66007
-0.51751
0.07867
0.28518
-0.03213
-1.28045
0.76704
0.31566
0.54588
0.00089
-0.08683
-0.11231
0.04477
0.32484
-1.38405
0.24372
0.57798
0.52912
0.39176
-1.03948
-0.57316
-0.77531
0.05194
0.53447
0.89487
-1.37076
-1.50316
-0.20473
-0.15516
-0.20878
-0.80621
0.59624
0.03935
0.21806
1.37168
-0.72475
0.19998
0.53409
0.77015
0.30402
0.53860
-1.37745
0.53964
-0.15058
0.09513
-0.92214
3.02976
-0.57202
-0.54744
-1.30472
0.53716
-0.42407
-0.38582
0.26361
-1.11534
-0.09875
0.54384
-0.92245
0.72164
0.52810
0.43083
1.43102
-1.09365
1.04951
0.14928
-1.01784
0.96558
1.16809
-0.71389
0.21160
0.53650
-0.42086
0.04730
-1.93061
-1.65874
0.86033
1.16686
-0.16570
-1.41877
-0.83264
-0.90000
0.05975
0.60118
0.54303
-0.08495
-2.06440
0.15650
-1.27166
0.39640
0.22032
-1.99956
-0.42317
0.50284
-1.37838
-0.22296
-0.05733
-0.23601
0.53744
-0.77006
0.78292
-0.67266
-0.19544
-1.64680
0.05701
-0.45862
0.04620
-2.18940
-0.64950
0.54773
-0.10133
0.56582
-0.19358
0.24203
1.21753
1.16066
0.44450
0.58478
-0.09172
1.10683
0.92993
0.54022
-0.71704
-0.90899
-2.00769
0.22260
0.05390
1.23665
0.82926
-0.05945
0.21494
-0.58058
-0.52118
-0.25728
-0.44406
0.22058
0.62235
0.51195
-0.70460
-1.33160
1.52489
0.79670
1.07894
-1.42035
0.05306
-0.27684
0.42616
-2.07038
-1.55967
-1.55084
0.70232
0.93458
1.12771
-1.38230
-0.13788
-0.38755
-0.54080
-1.38455
0.56087
0.74506
0.83136
-1.06159
-0.00612
-0.65524
-1.87655
0.70094
-1.39015
0.53345
-0.80271
1.16001
0.02923
0.24416
0.87234
1.01420
0.65691
0.09801
0.05080
-0.73323
0.56221
0.68922
1.28834
0.06025
0.35973
1.11190
-0.61953
0.59235
0.72555
0.53817
-0.79345
1.23195
0.03294
-1.13811
0.19998
0.72170
1.20691
-0.12241
0.59835
0.53280
-1.94590
-0.01883
-0.89844
-0.70015
-0.19536
0.34843
0.77796
1.78715
0.66848
0.32994
0.34907
0.22235
-0.04006
0.53357
-0.81892
-0.69256
0.51314
0.23684
-0.90641
-1.54897
0.76323
0.04035
0.71122
-0.71495
-0.09695
0.37416
0.09009
2.08827
-0.43098
-1.00599
-0.90425
0.46444
-0.62226
0.52244
-0.38502
-1.44860
-1.27386
0.72934
-1.09404
0.05252
0.32713
-0.28945
0.05788
0.42035
-0.27060
-0.29639
-0.31934
-0.29590
0.19723
0.65424
0.97283
-0.63915
-0.80059
-0.27608
0.35317
-0.51763
0.22534
-0.00845
-1.38275
0.40072
-2.27134
-1.37144
-0.40104
-0.23733
-0.02147
1.77419
-0.90203
0.02847
-1.38800
0.52198
-1.61617
-0.54723
-0.42664
0.30114
-0.31397
0.53957
0.97922
0.65315
0.72869
0.54248
0.32978
-0.63084
1.08404
-0.67420
-0.44443
-1.43861
-0.43536
-0.12628
0.01818
0.30404
-0.09800
-2.53626
0.53705
0.47413
1.31844
-1.38393
0.65546
-0.12889
-0.84879
0.33259
-0.25004
0.73364
-1.12143
0.36557
-0.51867
0.79527
0.14477
0.03243
-1.33520
-0.40108
0.33674
0.05994
0.01758
-0.19171
0.50675
-1.30132
0.83632
0.84607
0.53646
-0.01174
-1.01416
0.91182
-0.15889
0.36779
-0.42818
-0.35293
-0.11609
0.23975
-1.44088
-0.29428
0.00519
-1.99758
0.41181
1.13800
-1.01045
0.71260
-0.38681
0.53925
-1.39277
-0.18192
0.42866
-0.08550
-1.63592
-1.22569
-1.35477
-0.54651
-2.15986
0.39340
0.26358
1.06630
-0.65965
-1.72395
-1.95421
-2.38019
0.52102
0.93633
0.26182
0.11458
0.52185
0.55006
-0.66955
-0.51868
0.05694
0.05688
-2.03358
0.48290
0.05064
-0.57445
0.28764
0.99440
0.71101
0.13850
-2.11104
0.47937
0.47430
0.54613
-2.01291
-0.02365
-0.13472
-1.86166
0.53784
0.64036
-1.51641
1.10015
-0.77558
0.53542
0.52616
-0.85642
0.05764
0.17107
-0.43288
0.24945
0.05615
-1.64493
-0.24607
-0.20750
0.05731
1.48799
-0.48921
-1.58620
1.03005
1.01266
0.16577
0.55055
-0.35091
-0.11021
0.29513
0.17079
0.21838
1.23157
0.22961
-0.59981
1.40462
-0.30906
0.07558
0.05835
-1.43752
0.50224
0.05668
0.53513
0.53851
0.29730
-1.38976
0.12576
0.05599
0.14177
-0.49822
-1.00399
0.87745
1.40659
-0.24654
0.34190
0.53655
0.81227
0.29981
0.53863
-0.01825
-0.29742
-2.06177
0.44267
-1.38798
0.44933
-1.39089
0.78746
0.97110
-0.07246
-0.40506
0.05332
1.03073
0.07728
-0.53672
-0.79876
-0.45397
-0.10174
0.54124
-0.24751
0.48473
2.08514
0.24476
0.15701
-1.23993
-0.00414
0.64820
-1.22623
-0.81026
0.74085
0.87247
-0.63871
-0.37906
-0.60671
-0.00195
-0.13358
-0.32556
0.55510
-1.65709
1.14969
0.65971
1.74486
-1.02268
-0.54311
-1.39128
0.53552
0.53247
0.05636
0.67272
0.35623
0.68319
-0.67049
-1.43878
-0.81783
-0.18629
0.80568
-0.92448
-1.01540
1.81111
0.05317
0.11603
0.54104
-0.90488
-1.38020
0.53828
0.28665
-1.81751
0.89679
0.80514
-0.29449
0.73618
0.94450
-0.69728
0.18531
0.05145
0.34438
0.62714
-1.38403
1.49370
-0.27086
0.03681
0.30352
0.76041
-1.38884
0.37924
1.01620
1.00345
0.05695
-0.12783
-0.51935
-0.70833
0.38479
-1.38812
-2.41031
0.15529
0.94359
-1.38262
-0.30798
0.72476
-0.81623
0.77603
0.97503
-0.03561
-1.54635
0.77380
0.05466
-0.09210
0.02515
0.53664
0.05879
-0.51662
0.12287
-0.50510
-1.15218
0.53284
-0.86092
-0.15582
0.29571
-0.64607
-0.57121
-0.21136
1.06138
0.16613
0.23246
-0.35656
0.30258
0.76067
0.26139
0.28343
0.43898
-0.49873
0.54913
-0.19854
0.39157
-1.13381
-0.87335
1.37375
0.98775
-0.95239
0.50493
0.95650
-1.26284
-0.77437
0.03888
-0.14842
0.27076
0.54283
0.10673
0.71464
1.58270
-0.59771
-0.40374
1.02906
-0.89855
-1.68250
-1.08400
0.53489
-0.41710
-0.03384
-0.76454
-0.13466
0.61891
1.46620
0.05560
0.25890
-1.41811
0.05699
-0.17990
-0.73029
-0.51709
-0.82036
0.47535
0.52212
0.54085
1.50370
-0.65013
-0.04436
-1.74927
0.08371
0.53436
-0.82902
0.26234
-0.37596
0.37454
0.52203
-0.71751
-0.45824
0.37130
0.52919
-0.54919
0.53850
1.98872
0.72087
-0.71943
0.58726
0.09491
-0.39738
0.41764
-1.56415
1.58120
1.36112
-1.98422
0.26733
-0.07832
-0.60828
0.39775
-0.82440
-0.41843
-0.24941
0.69816
0.41641
-0.02137
-1.79082
0.76910
0.74684
0.53065
1.59910
0.21489
0.28825
1.20664
1.91769
-0.36073
0.40512
0.22346
0.35334
0.26923
-0.89709
0.11157
1.03871
0.74353
1.10509
-1.49908
0.44823
0.48152
0.54415
0.95989
-1.38053
-1.75212
-1.52359
-0.45083
-0.08715
-2.57411
-0.37801
1.15046
0.73643
-0.47809
-1.38543
-0.72235
-0.19360
0.06003
-1.90071
0.13851
1.10169
-1.23862
0.03685
-0.43506
1.06043
-1.57540
-0.62854
-0.74884
1.08594
0.53923
-0.39658
0.41619
0.54978
0.37816
-0.19588
0.53843
0.30048
-0.86904
-0.34060
0.09431
0.52998
-1.14282
-0.24926
0.46476
-1.00972
0.05497
1.35452
-0.58678
-1.03703
-0.26826
-0.90524
-1.16209
-0.22075
-0.83014
-0.25434
0.93460
-0.00139
0.71122
0.47411
-0.03799
0.01663
-0.14774
0.53329
-2.47966
0.15938
-1.35891
-0.35184
0.21127
0.05199
0.23101
0.54318
-0.94271
-1.96431
-1.55887
0.05799
0.85258
-0.18593
0.82938
1.37880
0.37720
-0.51689
0.84890
-2.22877
0.40764
0.12392
0.19102
0.45855
-0.60737
0.80403
0.68529
-0.81355
-1.19036
-1.26246
-0.55002
0.42831
0.54017
0.05971
-0.35364
0.43471
-0.54592
0.43555
0.03163
2.19269
-0.04866
0.53856
0.16890
0.06226
-0.74113
-0.33321
0.25713
0.35223
-0.70860
0.02271
1.29177
0.06140
0.00365
0.25362
-0.21846
0.32653
0.30608
0.77306
-0.98233
-0.39280
0.69932
0.50720
0.15271
0.90083
0.52395
-1.18779
-1.38852
-1.04071
0.29169
0.09452
-1.29640
-0.16919
-1.46616
0.33118
1.28567
0.80264
-0.15438
-0.67620
-0.80512
1.10115
1.41950
-0.48379
0.26605
0.37354
-0.07336
0.32286
0.34554
-0.36900
-0.41001
-0.37723
0.30468
0.47869
-0.13603
-0.86683
0.36275
-0.79275
-2.11361
0.75760
0.58619
0.21093
0.40461
0.44971
-0.13937
-0.24056
0.27538
0.44942
-1.07505
0.27500
-0.24545
0.29101
-0.20190
-0.56265
-1.40594
0.94752
0.76942
0.26464
-0.14027
0.17027
-1.82975
0.43874
-0.12934
-2.35513
0.28870
1.17269
-0.57123
0.25210
0.05647
-0.27322
0.32778
0.34475
1.06871
0.46561
0.07591
0.02755
0.16630
0.06416
-2.28523
-0.86845
0.52800
-0.72150
-0.83587
0.12194
0.53852
0.06431
0.36493
-0.15219
-1.27264
0.57908
0.61686
0.30270
1.15449
-0.64866
-0.00358
-1.33088
-0.42175
-1.04496
0.28005
0.76067
0.02278
0.41696
-0.95244
-0.62763
0.54235
-1.89493
-0.98372
1.18896
0.01901
-1.42175
-0.84277
0.15899
0.19962
0.09986
0.19248
0.09361
0.54077
0.25987
-2.09484
-0.84778
-0.48152
0.70070
-1.47121
0.57315
0.63889
0.05588
-1.32109
-2.68305
0.03965
1.40523
0.31434
0.69407
0.53664
-1.24222
-0.73288
0.05261
-3.01538
3.41018
-0.18651
0.06623
-0.73058
-0.03845
0.57250
-0.52057
-0.22428
2.17072
0.77234
0.39585
0.05611
1.24359
0.53571
-0.02652
-2.25334
0.13785
0.05673
-0.59596
-0.67690
-0.33492
1.42186
0.72037
-1.01182
0.87896
-2.93647
0.57397
1.13562
0.53467
0.36069
0.93532
0.26876
-0.96183
-0.21978
-3.47056
-0.02191
0.67866
-0.74918
0.99067
0.11398
0.05168
0.54774
0.39021
-1.20997
0.16404
-0.41634
0.05908
-0.84850
-0.29601
-0.25784
0.04515
0.20612
1.16791
-1.88941
0.26046
-1.38510
0.70385
-0.39070
0.26484
-0.42016
-1.91680
-0.04241
0.62455
-0.89989
-0.10884
0.26907
0.41917
0.33759
0.50784
0.69229
-0.96400
0.05666
-0.79595
-0.41868
-0.43014
-0.49601
-0.28215
-1.39326
-0.58614
0.65926
-0.90711
-0.89343
-0.37933
-0.13051
0.55591
-0.07728
0.69624
0.06024
-1.09561
-0.89596
0.08274
0.56380
-0.02271
0.93201
-0.11597
0.53155
0.39869
0.08813
0.96139
0.11005
-1.90242
0.54362
-0.12772
-0.82677
0.96995
0.76020
0.53299
-1.40651
-0.13862
1.29689
0.27788
-1.26938
0.83418
-0.90524
-1.34712
0.58838
0.10032
-0.14439
0.13119
0.86366
-0.30690
-0.07698
-0.98637
-2.48308
-1.33609
0.52797
1.40041
0.05720
-0.07486
0.53026
0.01959
0.73711
-0.50670
0.76459
-0.38152
0.69726
0.61746
-0.47504
0.24811
-0.34993
1.13272
0.54242
0.45794
0.04281
0.38899
-1.43809
-1.42294
-0.48685
0.37772
-0.11264
1.13523
0.09537
0.95971
-2.21933
0.70441
-0.49892
-1.38691
1.21428
0.13835
-0.04841
-0.54938
0.84691
-0.60449
0.05568
-1.11430
0.53640
0.52586
-0.42357
0.14228
0.09999
0.06344
1.22557
0.54044
0.11621
-0.40629
-1.61585
0.21640
-0.50549
0.71108
0.19863
-0.09501
-0.71989
0.10396
0.57557
-0.37406
-1.20952
-1.68527
1.07336
-0.34572
-0.28095
-0.36559
-1.38444
0.05327
-0.39925
-0.23783
0.56005
-0.26430
0.94653
1.27255
-0.00756
0.53942
0.53808
-0.03988
-0.42546
-2.29630
-0.93185
1.13421
-1.52264
0.53846
1.43735
-0.40313
1.16666
-0.40231
0.54310
-1.73228
0.52553
0.33157
-0.90262
0.90383
-2.38113
0.84155
0.14648
0.66898
-0.55115
0.84465
-1.46820
-0.03763
-0.67136
-2.65629
-0.09903
0.25972
-0.02663
0.27575
-0.42228
1.49998
0.94369
1.19455
-0.41245
-2.72080
-0.88143
0.68986
0.96354
-0.42074
0.90007
0.52738
0.52838
-1.38425
1.32353
0.83152
1.01825
-0.46789
0.06143
0.05494
0.53054
0.05057
1.48760
-0.50832
1.20053
-0.48108
0.26570
0.86139
0.73570
0.36347
-0.41207
-1.02046
0.27922
0.53825
-0.44314
-2.03442
-0.74017
0.09772
-0.94056
-0.77265
-2.35384
0.59294
-1.16541
0.55547
-0.99801
-0.86965
-0.20032
0.09511
-1.38562
0.77306
-1.62516
0.34775
-0.21011
1.10594
0.53847
0.88939
-1.62789
0.53637
0.55705
0.60827
0.13822
-1.50846
-0.82332
-2.09880
0.60578
0.67085
1.07560
-0.05341
0.51299
0.81397
-0.19621
0.62868
0.62133
0.53556
0.82174
-0.76153
1.05073
0.53803
1.09617
0.53599
0.29215
0.48036
0.24397
0.53710
-0.05449
-1.24498
0.74433
0.05245
1.20208
0.53492
-0.41478
0.22715
-0.07212
-0.80804
0.70177
0.61476
-0.46604
0.58866
-1.32942
0.11978
-0.02302
-0.81951
0.80230
-0.96355
-1.42432
-0.15077
0.39954
-1.37899
0.61771
-0.64240
-0.66784
0.69584
0.05821
-0.52409
-0.56857
0.53234
0.71489
-1.44046
-0.42029
0.32390
0.45017
1.24367
0.52334
0.19322
-1.32782
-0.87595
0.75193
-0.23573
0.76267
1.07254
-0.26379
1.44089
-0.23584
-0.12932
-0.14662
-0.74660
-0.69581
-1.38373
-0.24575
0.68126
-1.96288
-0.42124
-0.96382
0.89660
0.38734
0.54186
0.41462
-2.17780
-0.54765
0.40611
-1.38732
0.97041
-0.05006
-0.46388
-0.22317
0.83865
-0.19621
-0.76941
1.00672
-0.95138
-2.99826
0.52131
-0.58617
0.40790
1.06437
-0.18161
0.85541
0.37570
-1.96489
-0.61548
0.83746
0.58648
-0.13705
0.53941
0.41107
0.53774
0.78269
0.05547
-0.05282
0.28851
0.05889
0.39310
-0.51648
0.10301
-0.90508
1.47099
0.91789
1.03974
0.67389
0.10446
-1.78628
-0.78391
0.53738
-0.25565
-0.14780
-1.20526
0.05516
0.05205
1.67200
0.93407
-0.26491
0.18903
0.70595
-0.05713
0.87998
0.09027
0.92777
-2.71985
-1.00978
0.54155
-1.01184
-0.90574
-0.75729
-0.64751
0.05760
-1.00085
0.53484
-0.09655
-1.39264
0.54028
0.09755
0.05624
-1.38384
-1.38500
-1.38014
-2.49323
-0.07257
1.47829
-0.97909
-0.32452
0.52728
0.78387
-0.91037
-2.00533
-0.09344
-0.85774
1.34934
-0.30906
-0.76641
-0.18475
-0.10947
-0.72710
0.57711
1.12723
-0.73933
0.21112
0.54056
0.49840
-0.90226
0.48675
-0.36553
0.05978
-0.46306
-1.74650
-0.10531
-0.35580
0.65035
-0.20124
0.52776
0.80337
0.05631
-2.59863
0.13305
-1.66284
-0.46947
-0.19355
-0.84970
-1.51609
-0.74835
2.16093
-0.81739
0.52497
-1.20895
-2.46665
0.11796
-0.11520
0.16981
-0.64186
0.44097
0.42329
0.05035
-0.13593
0.34614
-0.64928
0.05904
0.06086
0.53588
0.54374
-1.66506
-1.09105
0.02619
0.23395
-1.38932
0.53547
-0.70954
0.04958
-0.37426
-1.15174
0.53532
0.34713
1.37686
0.59570
0.50471
0.32338
0.08926
1.70530
0.69749
-1.27671
1.31404
0.05847
0.57967
0.26457
0.20022
0.55471
0.05729
-0.18125
-1.79972
0.28497
0.20709
-0.60655
0.43096
-0.07339
-0.40991
-0.16068
0.76197
0.15837
0.05482
-1.55082
0.05543
0.30367
0.99088
1.50518
-0.10113
0.16505
-0.35883
0.49149
-0.04124
0.87456
0.38612
0.58794
0.75216
-0.76898
-0.01504
-1.05775
-0.45575
-1.00736
0.25743
-0.33549
0.66800
0.54423
0.86842
0.53770
0.25194
1.00610
-1.17301
-1.38976
0.17180
0.46436
0.58563
-1.38862
0.53741
-0.86024
-0.87611
1.34758
0.39982
-1.09724
-1.54425
-0.41904
-1.25155
0.31693
-2.33342
-0.25040
0.15721
0.52080
0.94250
-0.19707
-0.02456
0.98786
-0.04457
-0.60481
-0.53535
0.06308
0.54673
0.65318
0.42478
0.05351
0.53503
-1.75282
0.98966
0.05234
0.53998
0.54356
0.96748
-1.74215
0.58878
0.79306
-0.93897
-0.94305
0.09054
-0.50647
-0.58646
0.05359
0.41760
0.32428
-2.87214
0.35050
-0.15776
-0.33058
0.19367
0.12801
0.64109
-0.99292
0.53967
-1.25775
-0.89066
0.13979
-0.23251
-0.48300
-0.90586
-0.36061
0.34668
0.53664
0.96502
-1.33164
-0.52836
-1.30671
-1.50843
-0.83539
0.41994
0.50970
0.05580
-1.52922
0.79309
0.46311
-0.08514
1.20487
1.23070
-1.80990
0.21219
-0.19882
0.20983
1.24517
1.01925
-1.80255
0.85491
0.35006
0.71880
0.91770
0.14221
0.05062
1.04506
-1.06457
-1.78911
0.51300
0.76501
-0.48075
0.36696
-0.89405
-0.45718
0.68125
-1.69013
0.86235
-0.54813
0.39855
0.19435
0.29233
-2.13961
0.54991
0.84991
0.20674
-0.69369
0.87758
0.07358
0.53592
2.03312
-0.64425
-0.43369
0.17275
0.85822
0.68062
-0.29151
0.14797
0.87937
-1.27267
0.58367
-0.23039
-0.15753
0.70262
-0.21785
-0.36019
0.08789
0.36816
-0.85843
0.59578
0.19166
-0.41934
-0.08306
1.60027
0.06081
0.98947
0.45156
-0.72942
0.50511
1.14327
-1.38520
-0.06945
-0.46492
0.11242
0.79739
0.58655
-0.19194
0.42376
0.80721
1.03010
0.57852
0.44928
0.02356
1.19000
0.16293
0.94939
0.40054
0.17355
0.52858
0.74569
0.56429
-1.32289
-1.41008
0.18554
-2.50739
0.05433
0.40585
0.06565
0.31419
1.04610
-1.84149
-1.81414
-2.54371
0.96075
-0.21708
-1.38416
0.81114
-0.74764
-1.15616
0.07139
-0.82667
0.26468
0.17181
-0.36626
-0.86615
-1.16892
0.59205
1.00658
-0.31865
1.69099
-0.55646
-0.17525
1.14073
2.27565
0.86756
0.93027
-2.28729
-0.06430
-0.11805
0.96294
-1.24099
0.58019
0.43515
0.47109
0.13276
0.66009
0.89752
0.85470
1.04574
0.54057
0.76506
-3.18935
0.75731
0.20156
0.54728
0.45899
-2.53501
0.94618
0.86328
0.15857
1.13445
0.19151
-2.45814
0.33177
0.76217
2.00313
-0.37001
-1.52810
0.45697
0.11620
0.14497
0.39860
-0.14896
0.65628
-2.18665
0.63449
0.39900
-0.89722
0.35194
-2.31380
1.22945
0.41769
1.11202
0.53375
-2.38188
-0.94611
-1.70468
1.01079
2.48241
0.68936
-0.88186
-0.86295
1.09984
0.03190
1.01096
0.76734
0.45809
1.02902
0.52759
1.43761
0.24596
0.69991
-1.64395
0.09214
0.64978
0.48722
0.84233
0.41968
0.18315
0.78191
0.59343
0.06022
-3.49605
0.15368
0.98126
1.87778
0.85483
0.43609
2.12115
0.37038
-1.10919
0.47445
0.74034
0.68894
-0.36192
0.28958
0.36478
0.01234
0.98171
-1.44928
-0.63693
-1.52321
-1.54811
0.50598
-0.74277
-0.24532
0.84971
0.12834
0.13560
-0.76103
0.86503
-0.31399
0.22131
0.12954
1.06979
0.75730
0.95589
-2.17944
0.42877
-0.78599
0.36397
0.13064
1.02230
-0.16332
-0.58881
0.59399
0.67525
0.16035
1.02571
-0.05538
0.84295
0.11112
0.52780
0.28607
-1.84642
-0.00888
-0.96112
-0.23282
-0.61357
-0.49273
-0.39202
0.13779
0.47253
-0.14269
1.25232
0.17432
0.58113
0.36624
0.53663
0.36088
-2.45991
0.97872
-0.17290
-0.98006
0.14805
0.56114
-1.59079
-2.40657
0.69967
0.39325
0.03028
-2.01255
0.22227
0.62616
0.68679
-2.41312
0.75768
0.15056
-1.38595
-0.98696
-1.45944
0.69954
0.10149
0.17492
-0.51841
-0.02877
0.85799
0.87671
-2.33782
0.53640
1.46822
-0.04656
-0.83168
-0.63521
-0.39787
0.95810
-2.96413
0.65794
0.97830
0.13198
-2.95730
0.46115
1.87929
-1.31150
0.73237
0.54352
0.34754
-0.78804
0.58896
-1.41587
0.53374
0.01747
0.33895
-2.20254
-0.33401
0.53035
0.38307
-0.94095
0.09218
-0.11027
-0.07387
-0.06405
0.91970
0.84361
0.16338
-0.30947
0.32204
0.98659
1.03645
-0.28206
0.95314
0.01351
0.44568
0.09412
-0.77178
0.50985
-1.75459
0.06598
-0.43442
-0.54719
2.66823
0.63529
0.82242
0.77743
0.74922
-1.87232
-0.06618
-0.56465
-0.83568
0.13572
0.97533
0.72093
1.02859
-0.36227
0.36649
-2.83684
0.97077
0.97304
-0.91016
0.61757
-1.20833
-3.12963
-0.48349
-1.31830
0.06045
-0.64954
0.92137
-1.09318
-0.22089
0.03396
-2.67779
-1.84516
1.12055
0.05532
0.40094
0.18440
0.05340
-0.00238
0.41414
-0.38258
1.27333
0.08147
0.76160
0.53944
0.33655
-1.13825
-0.40741
-0.83437
0.26926
0.24854
0.97960
0.35569
0.93873
0.94611
-0.07808
0.05242
0.10947
1.02540
0.48394
0.14881
-0.05658
0.70536
0.91804
-1.35835
-2.56978
-1.41534
1.21495
1.12024
0.69927
1.10176
-1.53209
-0.56463
-1.07227
-0.53098
0.29196
-0.77013
-1.53084
1.53681
-1.66731
-1.11607
-0.39386
0.11254
-0.67135
0.39814
-1.14646
-0.23652
0.28139
1.20383
0.60401
0.35030
0.14229
-1.41480
-0.25836
-2.42530
0.39381
1.63550
0.96067
0.12176
-2.51786
1.03512
1.36566
-2.06160
-0.27308
1.00868
-2.07154
0.01546
-0.35022
-2.70689
0.16226
-0.46792
0.50898
1.11798
0.05154
0.72389
-0.82132
0.02456
0.07834
-2.09619
0.42618
-0.74647
0.33459
0.05629
0.63803
0.62944
0.08145
0.64836
-0.39999
-1.25065
-0.34803
-2.94825
0.30435
0.54111
-2.13801
1.03488
0.32028
-2.43886
-0.20133
0.50375
0.58602
-0.56966
0.13486
-0.90100
0.49347
1.11717
0.68269
0.44634
0.69144
-3.21648
-0.21473
-2.60426
-0.13594
-0.79077
0.20958
0.41147
0.12436
3.52111
-0.54538
0.02713
0.37731
0.46853
0.34047
0.19944
-1.01983
0.43979
-0.67084
0.83270
0.60933
0.76361
1.62864
1.17552
-0.80471
0.59372
0.54556
-1.92731
-1.01600
0.79001
-0.72144
1.30656
-2.72977
2.11783
0.26770
0.01548
-1.60599
-2.98050
1.20399
0.65031
-0.93592
0.32505
0.10614
0.96860
0.78305
-0.29777
-0.62025
-3.06066
0.36376
-0.45445
-1.19421
-0.25542
-0.07071
-2.12434
-0.11566
-0.59274
-0.32667
0.00159
-0.02679
-2.67915
0.64572
0.45987
0.58091
0.43145
0.03853
0.35434
-1.62816
1.09690
-1.90228
0.38415
0.20837
1.32628
-0.14993
-2.56316
0.44435
0.83858
0.71974
-1.73296
1.78147
-0.69855
0.92184
-0.49500
-0.41243
0.23320
2.96209
-1.45827
1.12259
-0.17937
0.31290
0.06032
-0.46664
-1.12367
0.72651
-1.00835
-1.75078
0.41807
0.52923
-0.37448
1.15837
0.39375
0.03434
0.22522
-0.31278
-0.23487
-0.85446
2.16234
0.56056
-1.87814
-0.24730
0.92377
-2.61709
-0.72123
-0.00016
1.35887
-1.27537
0.84443
0.34007
-2.75770
-1.25267
0.33338
0.37914
0.27493
0.26820
-1.14063
0.38694
1.19142
0.18882
0.58129
0.12652
-0.21792
-0.69522
0.01965
0.94510
-0.88772
0.02851
0.83776
-2.07561
0.89473
0.20398
0.39898
-1.68841
0.53756
-0.78672
1.15862
-0.60154
-0.10631
1.48419
1.50974
0.82054
0.54976
0.46080
0.43280
-0.07652
0.41494
1.06704
-0.48762
0.91209
1.12186
-0.07665
-0.04669
-0.18777
-0.82329
-0.18451
0.05246
1.25279
1.12357
0.98198
0.03483
0.66205
0.41485
-0.81669
-0.35607
0.29478
0.60890
0.82134
-1.67000
0.83471
-0.39267
-0.36633
-0.17998
-0.07982
0.52852
-0.29861
1.09509
0.35165
-0.07589
-0.13462
1.21694
-1.91248
0.39639
0.53811
1.06131
1.50951
0.27645
0.73756
1.05325
0.21223
0.34819
-2.53891
-0.40957
-0.17971
0.80283
-0.37972
0.09419
1.72489
-0.64190
0.16706
0.70357
0.53388
1.66862
0.02739
0.16553
-0.08555
0.52895
-0.07093
0.63811
-0.22348
0.88072
-0.68509
1.69880
0.23625
0.64662
-0.22559
1.09084
-0.44390
-1.94771
-0.50624
-0.08710
-0.27216
1.27732
-0.42461
-1.17661
0.54801
0.79862
0.63657
0.76988
0.62335
0.73474
0.97415
0.99884
-0.74967
0.37648
-1.91500
0.42863
1.27287
0.76540
0.54881
-0.12896
0.57756
0.58740
-2.92184
-1.33734
-0.40796
1.40818
-0.58089
1.06901
0.51397
-0.22490
-0.07056
-0.40381
-0.09283
-0.95753
-0.33347
0.33388
1.19773
-0.26631
0.27851
0.41866
0.86611
0.34897
0.65465
0.67929
0.36784
1.51671
-1.61226
0.36543
0.44284
0.01656
-0.24295
0.27907
-1.73890
-0.25141
-0.09964
1.50930
-0.24060
-1.63432
0.05392
0.56018
1.14459
-1.90516
0.82723
0.75096
-0.89896
-2.75406
0.48617
0.14946
1.54468
-0.33583
-0.16005
0.60877
-0.18826
0.89984
-0.89004
-0.00689
-0.26838
0.60955
0.77531
-2.31000
0.58580
-2.89661
-1.28873
1.14960
-1.16483
1.74112
-0.58137
0.04719
-0.04555
0.98392
0.16928
0.62592
0.04026
0.23618
0.50684
0.28158
1.55644
1.15159
0.60550
-2.20348
1.08072
-0.91459
-0.40915
1.01774
0.03554
1.70592
-0.59682
-0.44098
0.59018
0.52167
0.00400
-1.90602
-1.93429
0.24738
0.95955
0.26717
-0.28493
-0.71987
0.68818
-0.41921
2.29391
0.73458
0.19360
0.06847
-0.65892
-0.71490
0.44116
-1.77371
-0.15770
-2.16807
-0.93287
0.50813
0.18955
-0.71656
-1.45225
-3.01930
0.00111
0.92077
0.40550
-2.81174
0.47438
0.07596
1.13523
1.12033
0.54860
1.46224
0.84956
1.17621
0.98969
-2.46327
-0.37208
0.97528
0.90602
1.08714
0.83307
-0.35528
0.36018
0.93728
0.17393
0.36085
-1.34275
0.32729
1.06509
-0.32559
0.09531
-0.32336
-0.08748
0.24346
0.52819
0.37891
1.47176
0.88415
0.26879
0.45269
-1.57299
0.01315
0.16719
0.63842
0.55006
0.07104
-2.11445
-2.55141
0.69300
0.61505
-2.03755
0.43108
1.52840
-1.64171
0.75015
-0.61118
0.46923
0.40635
-0.35760
0.75688
0.98774
0.00433
-0.05409
-0.56213
0.52540
-1.87662
0.20852
0.70632
-1.61413
-1.09667
1.02448
2.30927
-0.54418
0.51388
0.25357
0.88888
0.68154
0.16495
-1.65599
-2.17858
-0.36011
0.76836
-0.39067
0.84016
-1.77694
-1.30530
-1.89046
1.06707
0.23802
-0.07684
-0.50417
1.09346
0.86678
0.57621
0.03103
0.69205
0.71750
0.24296
-0.39063
-0.82397
1.45263
1.64914
0.09036
0.76720
-1.16130
-0.01174
0.60940
-1.28977
0.27036
-0.22266
-1.43831
0.82257
-2.11717
2.02440
1.16581
-0.47501
0.03416
-0.69356
0.81800
-2.19636
-0.26409
0.97255
0.40121
0.61449
0.46791
1.03325
0.59966
-1.59609
-1.85677
-0.33814
-0.02187
-0.74827
-0.39173
0.21045
0.34443
1.91694
-0.33778
-0.30732
1.32769
-0.31425
-0.59562
0.60862
0.12561
0.12052
0.30327
-0.62769
-0.72858
0.13799
0.13122
-3.00538
-1.67013
0.53734
0.33370
0.50813
0.58750
2.34616
1.38338
0.52270
0.56943
-0.10118
0.31714
-0.18979
0.38449
-0.08368
0.66313
1.67974
-0.96425
0.03914
0.63807
-0.87386
-0.63391
0.71943
-0.11971
-0.71870
1.08653
0.48576
0.92476
-1.24662
-1.24750
0.71767
0.37547
0.53937
1.05154
0.72561
0.46782
-2.86504
0.01528
-0.90121
0.06801
1.30845
0.70908
1.30954
1.18246
0.14377
-1.50818
-1.03049
0.86271
0.95307
-1.80761
-0.22746
-0.55084
-0.04675
0.38643
0.20665
1.28188
0.81498
0.10745
-0.21729
1.13021
0.20594
-0.21802
0.10805
-0.06351
1.36683
-0.83167
0.47574
1.09231
0.82790
-0.12241
-1.75418
-1.35092
0.29759
-1.68848
0.44231
-0.90337
-0.02819
0.40008
-0.72461
-1.58933
1.86317
2.03701
-0.01543
0.17708
0.53549
0.08463
-0.72657
-2.58502
0.50488
-0.71344
0.27260
1.01056
0.76468
-1.57806
0.58580
0.63990
-1.22535
0.71144
-1.41733
1.28228
-1.89201
-1.43470
1.04158
1.15865
2.03287
0.67377
-0.42035
0.26869
-0.26268
-1.35175
1.52568
1.33719
0.43478
0.54031
1.58154
0.21913
0.00126
0.53592
1.11292
0.25819
-0.29574
1.31051
-0.59440
-0.53263
0.82189
-0.19154
0.59420
-1.32513
1.04476
-0.38784
1.03557
0.08579
0.22334
0.83734
0.68259
-0.71981
-0.30384
0.96987
1.20583
0.53487
0.69499
1.42637
0.97332
0.40644
0.67901
2.00281
-0.11612
-1.55662
-1.38316
0.59431
0.10612
0.79736
0.02667
0.14495
0.90157
-2.96288
0.75192
-1.78337
0.32898
0.51079
1.26617
-2.56590
1.20267
-0.35491
0.47086
-0.00009
1.27086
0.20899
0.95208
0.57699
0.26790
-2.70611
0.09271
0.89062
0.81551
0.83192
0.81944
0.11456
-3.07365
-1.08296
-0.10673
0.66505
0.18653
-0.33627
0.60476
-1.58255
0.34429
0.70168
-0.65989
-0.59907
-1.77476
3.12500
-0.89267
1.21209
0.82464
1.40503
1.51320
-2.86912
0.02975
0.64035
0.08241
-1.55820
0.91909
-0.25238
-0.77611
0.42382
0.49869
-1.52802
0.69119
0.07542
-2.11214
0.04122
0.50312
0.29976
0.42661
-1.52089
-0.04914
1.82837
-0.48043
0.34019
0.78861
0.13176
1.21188
-1.35497
0.71309
-2.65940
0.87864
0.35097
-1.39973
0.09809
0.20491
0.85971
1.19468
0.61052
-3.02893
0.68753
-0.02756
1.21721
0.92928
-2.82749
0.37855
-2.76798
0.27429
-0.80651
1.87691
-0.10353
-0.41524
-0.66552
1.01362
0.13449
0.83754
0.32967
0.34052
-0.57650
-0.00894
-0.43435
0.80469
-1.08201
0.86944
0.65552
0.02205
1.01680
-0.65496
0.21526
-2.52483
-0.14490
0.53690
-0.98208
0.50906
1.65973
0.76321
0.57589
0.00914
-0.82005
0.06019
-1.72088
-2.81336
0.72262
0.27365
-0.06596
-0.17880
0.95377
0.60375
-1.78277
1.00052
-1.62769
-0.60186
0.84173
0.83221
1.29556
0.29897
-0.82134
-2.38465
1.18034
-1.73812
0.45931
0.76606
0.31410
1.02267
0.43612
0.11212
0.35162
0.82711
-1.47176
1.03044
0.32133
-0.11008
0.22494
0.53090
1.09171
-1.82424
0.12095
-0.66261
0.40121
0.46942
-0.13792
0.83967
-0.40485
0.97228
-1.83067
0.99156
0.85080
0.82170
0.76300
-1.85759
0.35010
-1.74397
0.64568
0.10427
-1.77447
0.42036
-0.88686
-0.86447
0.27085
-0.15676
0.53834
1.06906
-1.04940
1.67857
-0.88309
0.58423
0.49226
0.30381
2.23901
0.59228
-1.02214
-0.16839
0.62552
0.33171
0.48325
0.64725
0.20796
-0.26994
-0.07819
0.48222
1.00934
0.21323
0.84791
-0.33971
0.44138
-1.32125
0.27233
-1.33736
0.53727
0.54918
0.97672
0.81998
0.40964
-0.42105
0.79633
-1.33300
-0.73878
-0.10741
1.27986
0.05603
-0.33099
2.24150
-0.19879
1.04119
-2.09330
1.50833
0.00809
2.04308
1.38305
0.61789
-1.84662
-2.87945
1.05985
0.22622
1.36053
0.96847
0.00085
-0.71791
1.21503
1.76422
0.85435
-0.79915
-1.49629
-1.30054
0.08301
-0.64910
0.17732
0.21192
-0.52723
0.05669
-3.61081
-0.00573
0.01617
-1.02471
0.44189
1.03235
0.21279
0.59444
0.33528
-0.09294
0.72662
0.56641
-0.84197
-2.27813
-0.17530
0.62913
-0.65421
1.27018
-1.23854
0.55644
0.76680
0.08294
0.77343
-2.15924
2.21709
-0.10749
-0.75645
-0.93528
0.77848
-1.34680
-2.92743
1.19671
0.56476
-0.97254
-0.61286
0.51224
0.34247
1.67716
-1.00714
-0.45985
0.49039
0.10838
0.53109
0.17503
0.48599
1.29211
1.40802
0.75185
-0.44825
-0.14242
0.90782
-1.70111
0.04740
-1.29674
0.25930
1.00535
0.52675
0.48866
0.70076
-1.73987
0.73513
0.05511
-0.66597
0.63704
1.20424
0.06917
-0.06645
-0.78377
-1.05633
1.10825
-1.66859
-0.67116
0.85778
0.59258
1.26790
0.27115
-1.21563
-0.90263
-1.77800
0.11652
1.02886
0.20183
-1.38016
0.02752
-1.04324
-0.29427
0.15272
-0.18644
-2.59738
1.42831
-0.25486
0.51031
0.25475
0.63437
-0.35181
-2.68178
-0.73883
-0.17860
1.26218
1.06357
1.13462
-2.23911
1.88984
0.39728
1.01967
1.07035
0.94970
0.97188
0.83111
1.09000
-2.05905
1.38459
-0.48681
1.49826
0.38725
0.29624
-0.65239
-0.40284
1.52307
0.00464
0.27356
-0.01075
-0.95900
-0.23842
0.91603
-0.57847
1.05578
0.86370
0.25902
-0.09846
0.47387
-2.05649
0.12941
-1.81128
1.32147
-0.80083
0.99019
0.35228
-0.90879
-2.17006
1.27319
-0.68927
0.09183
-0.01481
-0.94749
-0.06152
-0.99737
0.20678
-0.39292
0.54010
0.98372
-0.97025
-1.42940
0.45861
1.12422
0.11090
0.76316
-1.17294
0.40700
0.16715
-2.24437
-1.19713
0.69620
-2.66745
-0.52141
-1.16935
0.67373
0.76484
1.15442
0.03607
0.18376
-0.69046
-1.57978
0.75616
0.76948
-1.10326
0.25140
0.21961
-1.58228
-0.04283
-1.65184
0.87607
-0.76050
-0.41997
-2.15914
0.70045
-2.15722
-0.61362
0.78117
1.18146
-1.73800
1.04707
-0.75353
1.60175
-0.77600
0.42317
1.06130
-0.31121
-1.80563
1.55077
1.16194
0.31961
0.55868
0.76901
-0.29712
-0.84292
-2.21440
-0.40981
0.23552
0.86378
0.69658
0.16354
-0.23508
0.27896
-0.16794
0.44325
-0.59551
0.97810
0.65332
0.75155
-2.40887
-0.41225
1.24108
0.93704
1.48208
-1.65019
0.06320
0.36929
-0.06131
0.99191
0.54004
-1.12188
1.69556
0.36032
-0.05921
0.42383
1.30212
0.38029
0.41289
-0.64704
-0.81765
0.70203
1.35487
0.47217
-1.51669
0.18545
0.81711
0.14866
0.40700
1.39711
-0.30696
1.20529
1.19306
0.47366
0.20251
0.34334
-0.33946
0.69144
-0.26192
0.27111
0.08831
0.41341
0.02667
-0.14211
1.27773
0.08041
0.22363
1.11758
1.08331
-0.68585
-0.14532
-1.74125
0.73188
-0.49655
-0.78406
-0.55756
0.57236
-0.48062
0.52997
-1.03816
-0.26325
1.49266
0.70587
0.48379
0.52214
2.13690
-0.11286
0.82315
1.99398
1.12751
-2.71232
0.12862
1.70976
1.24850
-1.13570
0.05513
-0.36373
-0.59705
0.25545
0.49537
0.94690
-0.55044
1.21773
-2.32507
1.19326
0.85245
1.21658
0.05194
1.09329
-0.10858
-0.41382
1.57673
-0.26752
-0.73095
0.07537
0.91995
0.38819
-0.68992
-2.95092
0.02886
0.13115
0.74994
-1.10245
1.04941
0.04176
-0.23676
0.95230
0.09537
0.73099
0.79018
-0.92604
0.72356
-0.50391
-0.06146
1.27407
-0.56767
0.45744
-0.09695
-1.60883
0.73679
0.43865
-0.42160
0.57814
1.03806
-0.41464
0.82636
0.58758
-2.82737
0.99248
1.38411
0.74272
-1.27626
1.36811
-0.82128
-0.03606
0.79806
-1.02385
0.52003
-0.28289
-0.24032
-0.58552
-0.16120
1.27767
1.22931
-2.48078
-0.59767
-2.97598
-2.95089
-0.60558
-0.36481
0.39893
-0.08230
0.32241
0.10214
-1.55197
0.09194
-0.00245
0.50038
0.52285
0.68708
-1.68372
1.05557
-0.31400
0.76233
0.64970
-1.58161
1.14420
0.49288
0.51271
0.72205
-1.24848
-0.54209
0.04246
0.75368
0.32067
0.06848
0.56031
0.65009
0.82570
0.87964
0.57809
-1.43013
0.58811
0.90369
-0.90707
1.25398
-1.15376
-0.44569
0.81065
0.40071
0.85413
-0.91616
-0.01113
0.15199
0.15399
0.14382
0.46341
-0.64337
0.97860
0.06569
0.94746
0.17340
1.01175
0.35086
-0.42463
-0.44941
1.16481
0.72670
0.16378
-0.84407
-0.86129
1.23578
0.25997
0.41795
0.51504
0.59696
-0.57011
1.04526
1.04322
0.14346
0.63165
0.86051
1.25493
1.25631
-0.48975
-0.60141
1.06623
1.12943
-2.78876
-2.60953
1.49653
-1.80660
0.10518
-0.70863
0.99389
-0.23766
-0.72969
0.14724
0.53992
-0.52278
-1.07394
-1.16585
-0.10374
-0.26247
0.19018
0.77759
-0.42039
0.81447
-0.43057
0.18956
0.80697
1.30842
0.47462
1.69347
0.68550
-0.74919
0.52581
-0.00858
0.03222
-2.80303
0.77432
-0.26837
1.97516
0.16727
-2.01221
1.66577
1.38023
-0.72123
0.67233
-1.72464
1.69259
0.93320
1.54142
-0.23610
-0.06066
0.91228
-0.72417
0.81922
-2.42144
0.45288
0.26258
0.58228
1.43032
1.02603
-1.57969
0.15748
-0.75442
0.05758
-1.46830
0.22672
-0.27756
0.32478
-2.38557
0.31637
0.79158
0.20745
-2.94894
1.17868
0.19014
0.35656
-1.58445
0.46095
-0.74046
-0.93646
1.05076
0.66309
0.76489
-1.39374
0.10050
0.01442
0.40178
1.51458
0.04703
-0.94901
0.14160
1.28145
-0.30222
-0.03308
0.89640
-0.41721
-0.50700
-0.15697
0.69151
-0.42944
0.34294
-0.00727
0.54831
-0.45182
-1.90019
-1.87570
0.15384
0.16974
0.95750
0.51024
0.54873
-1.80184
1.07522
0.36428
-0.31570
1.35785
0.87816
-0.94867
0.43377
1.12036
-0.91597
-0.48054
0.78847
-0.02812
-0.40603
0.86600
-0.46076
1.71856
-1.51525
0.74392
1.17980
0.28653
0.53942
-0.20610
1.34861
1.24031
0.73633
1.24061
-1.32588
0.14116
0.28393
-0.46170
1.23221
0.42977
0.64419
-0.28813
0.53228
0.00190
0.48834
0.42117
-2.89869
0.06379
-1.26619
0.77322
-2.30964
0.82142
0.33283
0.21188
-0.38444
-1.31404
-1.96481
0.53168
-1.17599
0.15836
0.34396
1.01250
0.42023
-1.50356
0.56452
-0.35454
-0.43607
1.28926
1.09746
0.31120
-0.23887
-0.85071
-1.15401
-0.09742
0.16504
0.91803
0.86184
-0.06049
0.67266
0.39563
0.07331
0.59545
0.12992
-2.09511
0.30958
-2.01731
0.28236
0.96244
-1.00236
-0.08994
0.02491
1.48180
-0.11955
0.68453
0.23750
0.05867
0.44302
0.53739
0.20659
1.88644
-1.40614
-0.16860
0.52133
0.63970
-1.01866
0.20936
0.82245
-0.14229
0.62314
0.61209
-0.01068
0.14647
0.82452
0.49248
1.21175
-0.52143
-0.80718
0.14356
-0.36971
1.47708
-2.02504
0.20355
-1.21236
-0.54230
0.76778
0.03646
-0.46514
0.63816
0.14214
-0.64942
-0.53509
0.66517
0.82273
-1.07165
0.34053
-0.23141
1.01620
0.42108
1.55755
-1.76858
-0.90734
-0.80494
-0.11532
-2.56157
-0.66089
0.85443
1.24956
-0.15942
0.17054
0.09210
-0.93687
1.00780
1.24092
0.33893
0.56930
-0.57612
-1.04266
0.33398
-3.33147
0.36050
-0.24128
1.04262
1.20988
-1.42384
-0.49630
-0.84883
-0.43032
0.67542
-0.17364
0.47880
-1.18629
-1.22876
-0.08485
-0.07395
0.15866
1.19686
-1.99284
1.08932
-1.76433
-0.75500
-2.12142
0.52852
0.14514
-0.37963
0.42260
1.43623
-0.36900
-1.59112
-2.24712
-1.47881
-0.39253
0.28002
-2.03399
-0.28954
-0.96344
-0.06819
-0.06048
1.45513
0.37515
0.16802
-3.07305
0.49441
0.54145
-0.77707
0.38832
0.15703
0.94154
-0.11363
0.85181
-1.07238
0.31400
0.26959
1.44266
0.28990
-0.64304
0.09844
1.04374
0.59492
0.36594
0.33556
0.02702
-2.85792
1.84012
0.05952
1.13160
0.22909
-0.11622
1.46405
0.06398
0.36027
0.26201
0.56886
1.43318
1.32470
-0.27559
0.40895
1.27080
-0.46324
0.61674
1.04029
-2.23631
-0.42836
-2.17913
0.63931
1.37977
0.76629
-0.42219
0.73017
0.90746
0.12204
-0.27572
0.13890
-2.90912
-1.27317
0.70428
0.20922
-0.74435
0.22788
-0.15356
-1.72493
1.01517
-2.65995
-1.37583
0.39604
0.14552
0.03593
0.70653
-0.47482
1.20792
1.00028
-0.75220
-0.04984
1.02300
0.48954
1.02305
0.31139
0.07777
-0.02422
-1.41880
-1.41487
-1.53016
1.09740
-0.64330
0.61803
0.62233
0.07905
1.13579
0.07139
-0.71965
0.27970
0.36600
1.04600
-2.62685
-0.07575
1.49960
-1.13819
0.44109
1.23653
1.32617
-0.15047
0.85200
0.70556
-3.02005
-0.39974
1.07363
1.44286
0.64953
-0.12882
-0.53455
1.34636
-2.24344
0.00138
0.07561
-1.23270
0.37814
0.35934
-0.97650
-2.43997
0.63460
0.45425
0.82245
1.51357
0.93900
0.68015
1.15532
0.38423
-0.50778
-0.06976
0.72643
-1.27915
0.78084
-2.77340
0.17463
0.34412
0.40001
-1.83538
-0.81094
-1.30754
0.03487
0.10521
0.77428
0.42176
-0.49592
-1.63941
-0.76973
0.46085
0.61475
0.76644
-0.29102
0.88601
0.39027
-0.24559
0.22422
0.46407
0.09425
0.16067
0.14862
-1.17982
-0.06963
0.42471
-0.06836
-1.10133
0.04227
1.12500
-1.70859
-1.07954
0.45061
-1.56839
-1.76152
1.30047
-0.77294
-1.71438
0.35647
0.25982
1.18699
0.50541
0.16083
-0.30193
0.76683
0.21438
0.47640
0.29873
1.03829
-0.51002
-0.22268
1.14541
0.72952
-0.50367
0.17421
1.52947
0.69813
-0.53196
-1.56577
-0.16499
0.56100
1.08655
-0.03526
-0.91982
1.54099
0.34653
0.10317
0.08710
0.83565
-0.19966
0.90875
-0.80064
0.42188
0.95118
-0.28389
-1.51803
-1.61979
-0.84594
0.29523
0.09023
0.52899
-1.31226
1.42716
0.01246
-0.01091
1.43693
-1.38478
-1.04636
1.33426
0.41870
0.74777
0.47484
-0.70995
0.31861
0.84891
0.75020
0.22943
0.08069
0.60880
-2.23048
-1.38692
0.30650
-0.76554
-1.28364
1.32156
0.84517
-1.22107
0.25898
-1.69083
1.01903
0.67486
-1.37633
1.00293
-0.10322
0.89542
-1.80619
0.09134
0.26764
0.01417
0.46198
0.75548
0.98817
-0.85484
-0.64659
-0.00036
-0.06894
0.86499
0.11930
0.60949
0.42553
0.15861
0.60378
0.28489
1.36546
0.64779
1.11452
0.09732
0.14126
0.38331
0.74290
0.16504
-0.06953
0.73925
0.64642
0.61736
0.52088
1.60157
0.75729
0.76425
-0.28923
-2.59033
0.52825
0.03131
0.44322
-0.51151
1.28323
-0.05451
0.01132
0.12878
0.81954
-0.59666
-0.72745
0.14723
-1.72634
-0.02695
-0.23926
0.18094
-0.87384
0.08322
0.61709
0.07057
0.06661
2.03107
0.53386
0.77104
-1.76966
-0.42428
0.41309
0.83958
-1.09330
-0.07478
0.14361
-3.36572
0.53281
1.24904
0.67623
-2.61477
-1.12547
-0.32153
-0.41158
-1.86162
0.62864
-1.38853
0.77358
1.34336
-0.67090
1.07566
1.42015
0.38174
0.98643
0.26410
0.26582
0.88563
0.34923
0.35420
0.05586
-0.44750
1.37554
0.16763
0.84443
0.47051
0.34130
0.70741
0.06200
1.48929
-0.54118
1.20335
-0.33112
-0.06545
0.20739
2.25131
-0.34800
0.85658
-1.77809
0.21407
-1.47443
0.57745
-0.94197
0.55571
-0.14643
-2.33513
-0.09392
0.17793
0.76751
-0.84355
0.82119
0.53124
-0.49508
-0.94793
3.04922
0.85615
-0.05758
0.51986
0.32960
0.27871
0.03038
-0.84745
0.46445
0.59733
0.41058
-0.96009
-0.70910
0.11693
-0.33083
-0.06729
-3.91145
0.57222
-0.00829
0.15890
1.66035
-0.15770
0.96772
-0.39962
0.84392
-0.07146
0.98535
0.79283
0.29017
-0.55285
-0.08857
-1.06285
0.50409
-0.05729
-0.49594
-0.66830
-1.02206
0.74238
0.79879
-0.23608
0.27721
0.65548
-0.33317
-1.17604
-0.03632
0.40228
0.96079
0.94343
0.02632
1.43040
-0.04409
-0.89714
-3.05680
-2.00923
0.15839
0.01099
1.21461
1.26588
-0.48494
-2.21129
0.32550
0.97371
-1.47288
-0.11978
0.98300
-1.47050
-0.42062
1.19838
1.36710
0.55921
0.21690
-2.04433
-2.60117
0.95722
-0.10501
0.64398
0.40738
0.66297
1.24252
0.57973
-0.43006
1.00479
0.33344
-0.91132
-1.45200
0.33015
-2.02734
0.22716
-0.02436
-0.06502
1.05107
-0.22056
-0.49570
1.17965
0.55482
-0.80617
0.46244
-2.91787
-0.16408
-0.09929
-1.16788
0.39909
0.48738
-0.61963
-0.19029
-1.52953
1.08458
-1.40168
1.46190
0.41891
0.53442
-0.74470
0.30347
0.99681
-0.06286
-0.14889
1.22771
0.76023
-0.07954
-0.01161
-0.13884
-0.71733
-2.47182
-0.25287
-0.39455
-0.41165
1.26978
-0.56609
-0.22760
-0.37246
-1.05097
0.45351
0.31250
0.15804
-0.05015
0.08409
-0.15860
-2.76412
-0.22363
0.41560
0.65827
0.36378
0.36248
-1.90995
0.52625
1.23547
-0.74117
-1.02347
0.67773
0.43662
0.89551
0.19825
-0.29874
-1.61173
0.89132
1.64025
-0.02435
1.40578
0.52329
0.20845
-2.96452
0.14320
0.39845
1.56303
-1.13813
0.99222
-0.39942
-0.76628
0.68680
-0.58826
0.21540
-0.08188
-0.36736
0.12796
-1.81022
1.07330
-0.60169
-0.13450
1.12548
1.58284
0.23167
-0.90321
-0.48967
0.50263
0.12705
0.51161
1.59147
0.57423
0.77109
-0.09144
0.94776
0.18947
-1.06401
0.02936
-0.14931
-0.73652
-0.10213
-1.91432
0.53982
0.16982
0.39784
-0.96213
0.62885
-0.68991
-1.45504
0.53905
0.81047
-0.23139
0.48535
1.01410
0.55854
0.62115
-0.17209
0.20999
1.50838
-2.46062
1.20679
0.73361
1.04144
0.73915
0.22759
-2.51949
-0.36897
-1.42158
0.45232
0.82501
0.21069
-1.86849
-0.82120
1.07407
0.02056
0.17824
0.58769
0.81909
-0.22800
0.85439
0.53378
0.52090
-0.79077
0.42498
0.26446
0.15501
0.12355
1.03084
0.21890
-0.22989
0.92622
0.65200
-0.49779
0.58644
2.20906
-0.21736
-0.86734
1.44675
0.28409
0.72477
1.57668
-0.99917
1.11603
0.27303
1.28252
-2.28097
0.55494
0.16168
0.99101
0.12052
0.09420
0.90931
0.81932
0.18024
-2.38683
0.33284
0.30209
0.78551
1.39293
0.97356
0.99162
0.03908
2.09969
0.30039
1.05553
0.65564
0.18782
1.32503
0.19518
-0.24942
-0.38509
-0.47587
0.19341
-0.35083
0.63329
0.05735
1.56051
-2.47284
2.01839
0.34241
0.09124
-1.75179
0.34437
1.71215
0.52147
-2.43044
-0.45619
0.89227
0.52306
-0.59261
0.81706
-2.13350
0.60007
0.82447
-0.19738
0.66894
-0.25651
0.50670
1.26588
0.70153
0.06442
-0.83091
-1.51326
0.43116
0.98742
0.36910
-0.37688
-2.43947
-0.78414
0.52466
1.13415
1.03564
-1.22088
1.23453
0.42260
-0.63433
1.24997
-0.45737
-0.45231
0.04254
0.20303
-0.38665
-0.60354
-2.14745
-0.02828
-0.52368
-1.26183
-0.89155
0.67218
1.16781
-1.07357
0.67730
0.68150
-0.30439
1.08386
0.82353
-0.01699
0.65541
1.02863
0.42507
-0.07085
0.04986
0.05028
0.16405
0.04068
0.58921
0.95419
0.51558
0.62268
0.18558
-2.99497
-1.54437
1.00533
-1.50432
0.00095
0.83869
-0.69749
0.62132
-1.01889
0.16791
0.60817
-2.28570
0.44798
0.34887
0.37039
-0.70725
0.19332
0.52187
-1.41351
-0.14646
-0.21542
-3.01513
0.34323
0.85944
0.08365
0.37388
1.94071
0.33945
1.05765
-0.96537
0.90746
0.96341
0.58382
0.79492
0.90893
0.30152
-0.64655
0.32933
-0.31733
0.92240
0.25613
-1.30924
0.05853
0.26886
1.06743
-0.82352
0.70168
-0.43742
0.32752
-0.33717
1.13341
1.47709
-0.10783
0.68940
0.95552
1.17344
0.24313
-0.35065
0.76614
-2.10652
0.67066
0.02853
1.40650
0.90389
-0.21273
0.09445
0.18678
0.11786
0.83762
-1.95128
-0.93905
0.22428
-1.53380
0.76900
-1.20291
-0.62076
-0.57565
-0.30018
0.64662
1.06804
-0.74872
-0.00821
0.50036
-0.15049
2.14276
0.38287
-1.22532
-0.23460
0.83525
0.88107
-0.37394
-0.06449
1.17772
1.15549
0.42101
-0.71218
1.01848
-0.35079
0.59877
1.06757
0.82028
-3.15534
0.97193
0.46717
0.86550
-0.96726
0.40038
-0.22014
-0.15570
0.89004
0.19934
1.05900
0.27650
0.52187
0.64273
0.82867
0.51958
-0.09161
-0.48411
-0.32531
1.42538
0.40036
0.27146
1.02627
-0.00584
0.61145
0.76388
-0.34355
-0.87309
-2.13625
-2.25754
-1.53190
-0.09833
-0.15955
1.05319
0.08721
0.70340
0.26208
1.25067
-0.20138
-1.07154
0.65870
-0.28337
-2.42408
0.85974
0.12666
-2.48380
-0.05882
-0.62017
-1.72784
0.34041
-0.65234
0.11684
0.75332
-0.14558
0.11902
-0.53071
0.54347
0.13089
0.30568
-3.02182
0.34216
-0.20566
0.35667
0.89432
0.26800
0.22100
-0.13583
1.00067
0.61267
0.56662
0.67356
-1.34638
0.30364
-0.78428
0.42385
-0.58624
0.46326
0.57096
0.08778
-1.06237
0.40863
-0.25945
-2.43405
0.67823
0.05691
0.70197
1.68196
-0.90594
0.29638
1.94839
-0.12324
-0.27653
1.26627
0.79394
1.26240
-0.38521
0.82102
1.21740
-0.86183
1.57390
-1.77819
0.82816
0.96227
0.51882
0.55811
1.11678
-0.01750
1.68130
-0.14428
0.37121
2.62617
-1.64452
0.59518
0.41358
-0.00091
0.99978
0.56114
-1.59300
0.17966
1.06119
0.37534
1.19323
0.20844
-0.57783
-0.32255
-1.55781
0.36783
0.11282
1.09693
0.40001
0.47091
0.46302
-0.27151
1.26395
0.38609
-0.72536
0.86060
-0.60637
0.42308
-0.83151
0.42510
0.55466
0.37591
0.12002
-0.91081
-0.33825
-0.16699
-1.55553
-0.29548
0.49961
0.63309
1.01093
