0.14137
0.35082
-0.48347
-0.34310
0.12192
0.20626
-0.05941
0.14976
0.01847
-0.08620
-0.23472
-0.45921
-0.18640
0.09045
0.11818
-0.11480
0.16176
0.30260
0.17426
0.04084
0.27985
-0.53582
0.05828
-0.89749
0.19330
0.22518
0.14008
-0.13544
0.21042
-0.13383
0.13982
-0.39775
0.01115
-0.22578
-0.05681
0.30161
-0.16413
0.10438
-0.12275
0.19752
-1.31830
0.18883
-0.03451
-0.62163
-0.33280
0.23890
0.16640
-0.44458
0.20216
-0.04347
0.21993
-0.35443
0.27213
-0.31117
-1.19637
-0.03332
-0.22104
0.04798
0.33913
-0.21024
0.22577
0.13096
0.23712
0.19666
0.07676
-0.10705
0.05880
-0.56196
0.12698
-0.24078
0.27339
0.03547
0.27681
-0.11340
0.06514
0.22712
0.17819
0.01469
-0.24878
0.12983
0.02781
0.16483
0.00185
-0.21822
-0.09556
-0.34519
-0.09910
0.06247
-0.55671
-0.16399
-0.75221
-0.69214
0.59557
-0.16501
0.10257
-0.16800
-0.11348
-0.08597
0.08000
-0.48448
0.16578
-0.03105
0.00658
0.03687
-0.04681
0.16130
-0.14325
-0.07294
0.17031
-0.24738
0.19155
-0.23896
-0.12502
0.17318
-0.05651
-0.63133
-0.84706
0.27544
0.16565
-0.00355
0.26125
0.16338
-0.14413
0.19137
-0.52237
-0.04774
0.19297
0.11438
0.19717
-0.42338
-0.11024
0.00193
-0.46120
0.20189
-0.52344
0.17266
0.20020
0.31533
0.01209
0.06706
-0.29680
-0.17291
-0.09273
0.30315
0.13065
0.15475
0.07785
0.18875
-0.07994
-0.31579
0.01625
-0.16212
-0.03291
0.19149
-0.14303
-0.62180
0.07811
0.10655
-0.14948
-0.06936
-0.21146
-0.03166
-0.68422
-0.01930
-0.60097
0.41142
0.22926
0.17289
0.18545
0.09311
0.21489
-0.04605
0.11834
-0.18533
-0.18030
-0.04392
-0.74450
0.05812
-0.34284
-0.11208
0.34700
-0.53928
0.18648
-0.09072
-0.54677
0.10904
-0.39268
-0.56976
-0.25291
-0.02073
0.11809
-0.00021
-0.33945
-0.11453
-0.07684
0.06675
-0.08609
-1.13686
-0.65063
-0.16573
-0.23101
0.08844
-0.13942
0.07998
-0.08326
-0.47285
-1.24067
-0.31999
-0.20020
0.25203
0.19491
-0.01313
0.17453
-0.08153
0.18083
-0.32444
0.05992
-0.20721
0.21810
-0.24953
0.04585
-0.13844
-0.01034
0.23112
-0.05913
-0.30490
-0.32653
-0.10933
0.22119
-0.09749
-0.20364
-0.20940
0.18284
0.19546
-0.17544
0.03671
-0.03975
-0.77916
-0.10494
0.30844
0.40742
-0.16927
-0.11748
0.06632
0.02938
-0.08820
0.14953
0.01096
-0.62716
0.16120
0.30663
-0.04365
0.18138
0.07208
0.05523
0.18834
-0.51638
-0.16754
0.07642
-0.24673
-0.25897
0.20427
-0.28219
-0.21081
0.03952
0.17560
0.09574
-0.10573
0.11911
-0.23353
-0.29965
-0.69242
0.08161
0.02080
-0.27984
0.20988
-0.07212
0.09620
0.19423
0.16807
0.14670
0.08533
-0.01667
-0.67087
-0.29858
-0.72289
0.14393
0.04426
0.20167
-0.09626
-0.13733
-0.25420
-0.43152
0.02665
0.16374
-0.05592
-0.69794
-0.12351
0.18606
-0.01784
-0.11197
-0.02630
0.28900
-0.23504
0.14187
0.47345
0.17492
0.13625
0.18855
0.13905
0.00590
-0.44809
0.17313
-0.20642
0.17934
-0.08537
0.02233
-0.14976
-0.04950
-0.04934
-0.19059
-0.37923
-0.15819
-0.10431
-0.65833
0.29881
0.44712
-0.40740
-0.16539
0.13282
0.19857
0.16824
-0.15019
-0.21298
-0.49465
0.04963
0.18788
0.18113
0.07610
-0.00606
0.29713
0.00550
-0.03624
0.33916
0.24617
0.02266
0.14104
-0.22283
0.30722
0.28536
0.28116
-1.10882
0.20916
-0.04233
0.04660
0.08056
0.12157
-0.09384
0.32479
-0.10212
0.19117
-0.58675
-0.10049
0.16820
0.02078
-0.49115
-0.29439
0.00263
0.12963
-1.17667
-0.21103
0.19311
-0.72808
-0.19880
-0.37305
0.05525
-0.20702
0.02624
-0.03983
0.08402
0.30384
0.04530
-0.34373
-0.13851
-0.24914
-0.61361
-0.07358
-0.41025
0.21901
0.10320
0.28407
-0.45976
-0.14901
-0.80954
-0.48168
-0.17862
0.16283
0.12730
-0.03616
-0.26041
-0.28979
-0.31483
0.13730
-0.27449
-0.11327
-0.19325
0.33334
0.08920
-0.27034
-0.67902
0.09157
0.19216
0.12181
-0.23857
0.25187
0.18821
0.17448
-0.13194
0.24257
-0.05079
-0.23844
-0.31405
-0.03551
0.01291
0.26921
0.25927
0.24911
0.15841
0.09278
-0.05519
-0.07490
-0.33223
0.06213
0.18951
-0.39149
0.16704
0.04396
0.08425
0.08057
-0.05160
-0.43568
0.26938
0.21412
-0.62720
0.28597
-0.21361
-0.13861
-0.20037
0.21771
-0.17054
-0.05892
-0.37522
-0.05212
-0.15343
0.14581
-0.02305
-0.35418
-0.35002
0.11091
0.15708
-0.18470
0.16333
0.01126
0.09021
-0.10128
0.14106
0.18812
-0.29213
-0.27048
0.09077
0.18195
-0.77112
-0.20261
-0.18422
-0.20219
-0.31634
-0.06688
0.33389
0.21628
-0.47077
0.07128
-0.14191
-0.72576
0.03427
-0.36211
0.04023
-0.27678
0.19579
-0.20763
-0.26723
-0.05340
-0.14931
0.23003
-0.07798
-0.02917
-0.23822
-0.18718
-0.25658
-0.58822
0.10630
0.10980
-0.09270
-0.29642
0.11928
-0.38015
-0.36472
-0.20674
-0.22861
0.21475
-0.10319
0.24949
-0.56734
-0.09027
0.34856
0.13240
-0.10637
-0.14361
-0.10695
-0.48952
-0.05804
0.02937
-0.56530
0.28179
-0.36615
0.18772
-0.54658
-0.24426
-0.24106
-0.19078
0.24727
0.02912
-0.21234
0.00689
-0.18460
-0.25023
-0.00222
-0.11456
0.00456
0.21757
-0.08404
-0.30242
-0.81357
-0.03323
-0.34449
0.24439
0.05149
-0.33712
0.13450
-0.37004
-0.21855
0.26498
0.20461
-0.05201
-0.67272
-0.58820
-0.00187
-0.10777
0.14351
-0.53507
-0.02896
-0.04196
-0.19623
0.13456
-0.47558
-0.01990
-0.16029
-0.02423
0.21374
-0.07698
0.11727
0.22339
-0.51886
0.39618
-0.08682
-0.30134
-0.16247
-0.29100
0.16808
-0.00854
-0.01109
-0.03368
-0.06702
-0.81479
-0.58166
0.42616
-0.14912
-0.33154
-0.13220
-0.29250
0.03944
0.18279
0.37783
0.04002
0.00371
-0.86332
0.09263
-0.11668
0.24852
-0.14351
-0.17637
-0.06492
-0.34841
-0.04236
0.22054
-0.07362
0.23442
-0.09570
0.17642
-0.49185
0.15678
0.14894
0.19938
0.02660
0.15198
0.10038
0.40295
-0.35960
0.01689
0.00492
-0.24800
0.20555
-0.06085
0.13023
0.15616
0.14994
-0.21034
-0.17294
-0.51726
0.19999
-0.18156
-0.79764
-0.40962
0.13625
-0.33009
0.02335
-0.23656
0.21134
0.16181
0.14520
0.07528
0.09872
-0.03550
0.13897
-1.06692
0.21306
-0.35426
-0.34537
0.02810
-0.30215
-0.06905
0.02709
0.14017
0.12779
0.22728
0.19348
-0.07754
0.01677
-0.19265
-0.38572
0.24530
-0.21280
0.00512
-0.10259
0.06770
0.24795
0.06077
0.06798
-0.70917
-0.21305
-0.20213
-0.29628
0.08360
-0.34596
-0.42236
-0.30866
-0.03360
0.27837
-0.04999
0.10338
0.13119
0.23249
-0.84010
0.06207
-1.11096
0.20936
-0.15830
0.02294
-0.16445
0.05251
-0.45029
0.35074
-0.09083
-0.54439
-0.68749
0.17710
-0.58532
0.23924
0.28137
-0.70383
0.05184
0.09154
0.08626
0.01976
-0.22887
0.18577
0.18421
-0.11859
0.06587
-0.06200
-0.28339
0.07334
-0.43108
0.18702
-0.94314
-0.31682
0.12815
0.23127
-0.24085
-0.06059
-0.12051
0.11056
-0.16091
-1.08277
-0.04250
0.27975
0.07396
-0.21461
-0.38257
0.00721
-0.26609
-0.89734
0.03731
0.18812
-0.25446
0.29382
0.07747
0.15920
-0.16223
-0.99880
0.21892
-0.08892
0.28500
0.14746
0.20333
0.38749
0.09919
0.15895
0.19235
0.06792
0.09825
0.14537
0.23921
0.20486
0.03520
0.06055
0.20458
-0.46986
-0.71936
0.04357
0.08630
0.23660
-0.32310
-0.29200
-0.00852
0.03029
-0.02874
0.22769
0.33539
-0.61055
0.08338
-0.16415
0.20702
-0.36045
-0.03776
-0.16771
-0.35836
0.05455
0.07576
0.06471
-0.12056
0.23856
0.10201
-0.40151
-0.37311
0.16539
0.09632
0.09511
-0.14231
0.05532
-0.17952
-0.21455
-0.47492
0.26492
-0.10330
-0.07086
-0.12548
0.21834
-0.01788
0.01978
-0.35951
-0.14683
0.04256
-0.20605
-0.39833
0.15957
-0.08699
0.18825
-0.69963
0.16700
-0.05480
0.28736
0.20219
0.03148
0.47338
0.17986
-0.18148
-0.16658
-0.47514
0.05835
0.04934
-0.67448
-0.40250
-0.00033
0.02864
0.00586
-0.06730
-0.67782
-0.12387
0.12383
0.07951
-0.17634
-0.08590
0.44827
-0.56598
0.21910
0.26160
0.18080
0.01850
-0.11018
0.15713
-0.03956
0.39926
0.21364
-0.45322
0.04381
0.16188
0.24119
-0.07092
-0.54584
0.25204
0.16153
-0.12869
-0.01943
-0.55392
0.51098
-0.14951
0.05241
0.19981
-0.17388
-0.19348
-0.50455
0.10663
-0.08436
-0.34779
-0.15044
-0.34771
0.32796
0.21148
0.13546
0.11815
0.19290
-0.13475
0.13007
0.08869
-0.72436
0.12349
-0.25397
-0.20712
-0.23370
-0.10705
0.14893
0.17702
0.08617
-0.09729
0.14017
-0.16323
-0.75681
-0.04367
-0.41955
0.16260
0.16267
0.15082
-0.31480
-0.06698
-0.12033
-0.23416
0.26785
-0.04104
0.12836
0.23665
-0.19256
-0.52570
-0.17109
0.15068
-0.04160
0.27314
0.08236
-0.12750
-0.05383
-0.42587
-0.05522
0.04999
-0.25260
0.17513
-0.27602
0.19414
0.29619
-0.00338
-0.53130
-0.30581
0.08369
-0.77440
0.22179
-0.26727
-0.07325
0.04150
-0.53521
0.12447
0.29899
-0.28574
-0.76343
0.18339
-0.38765
0.41030
-0.35013
-0.52090
0.16112
0.12508
0.16392
-0.30977
-0.09307
0.16058
0.22446
-0.04668
-0.02806
-0.56370
0.26313
0.02537
0.20540
0.14665
-0.85455
-0.57473
-0.24838
-0.63156
0.38663
0.18396
0.42024
-0.58174
0.29618
0.10835
-0.19253
0.02127
-0.38553
0.13346
-0.07833
-0.22952
0.06548
-0.12521
-0.60373
0.11958
0.03901
0.28889
0.00475
0.10383
0.00083
-0.37687
-0.15821
-0.20393
0.02627
-0.31624
0.00808
-0.28591
-0.40702
0.13553
-0.05620
0.04076
-0.30207
-0.79093
0.20793
-0.22047
0.27186
-0.10876
-0.03584
0.07518
-0.04810
0.28398
0.30439
-0.42469
0.59886
0.20290
0.22735
-0.26596
0.20707
0.32647
0.25783
0.16727
0.34234
0.17329
-0.21656
0.16360
0.27363
0.16697
-0.00491
0.35898
0.19429
0.19758
0.30046
0.34424
0.21144
0.19231
-1.18398
0.65246
0.49393
0.21211
0.17322
-0.17178
0.40828
0.22796
-0.02272
-0.22373
-1.13416
0.26358
0.40814
-0.43096
-0.42093
0.37767
-0.25820
-0.24871
0.43182
0.37246
0.32505
0.34735
-0.41829
0.11865
0.35941
-0.35727
0.33892
0.23039
0.13767
-1.17227
0.84493
0.15957
0.23933
0.01051
0.32777
0.27900
-0.35387
0.21158
0.17565
0.22068
0.35096
0.27793
0.18684
0.29877
0.12411
0.48780
0.18216
0.15048
-0.21604
0.13002
0.17184
-0.05388
0.33863
0.25459
-0.49188
-0.06123
-0.18037
0.16274
0.02969
0.14131
0.11872
0.74234
0.20831
0.07495
0.42473
-0.37410
-0.09650
0.18186
0.29816
-0.17846
-0.19906
0.55594
0.46219
0.54283
0.36247
-1.08143
-0.77999
-1.08223
0.00563
0.02233
-0.65770
0.10933
-0.05924
0.08326
-0.24701
-0.87883
-0.02065
-0.55153
-0.17345
0.49762
0.16405
0.48139
0.37426
-0.24666
0.42249
0.23115
0.45010
-0.35423
0.12101
-0.28072
-0.17996
0.21007
-1.71274
-1.13863
0.15741
-0.42623
-1.20532
0.35928
-1.20164
0.20098
0.13357
-0.07398
0.16226
0.51343
0.40203
0.40610
-0.26841
0.44163
0.31967
-1.13805
0.24459
0.39957
0.17012
-0.01236
0.50642
0.11346
-0.57349
-0.02736
0.11683
0.07615
0.26068
0.25690
0.40067
0.15415
0.40932
0.42251
0.64369
0.16310
-0.45806
0.54067
0.58095
0.04551
-0.10248
0.11329
0.32193
-0.18210
0.06328
-0.41982
0.90490
0.17363
0.26214
0.57981
0.36338
-0.45099
-0.25180
0.27619
0.56848
0.28546
0.21569
-0.24286
0.15891
-0.02072
0.15107
0.30538
-0.03380
0.35446
-0.38860
0.32397
0.57425
0.55845
0.27580
0.05757
0.01024
0.31857
0.32371
-0.47409
0.06923
0.00782
0.24803
-0.50047
-0.82260
0.19903
-0.00874
0.43238
0.02629
0.33482
0.00952
0.23931
-0.78731
0.27077
0.08884
-0.39351
0.32072
0.16890
0.19697
0.16382
0.31246
0.43148
0.17262
0.03986
0.07363
0.06826
0.14387
0.11358
0.32658
-0.01071
0.10880
0.16782
-0.07517
0.06142
0.34918
0.11722
0.04501
0.85033
-0.24781
0.24629
-0.08073
0.31183
0.75387
-0.02338
0.12010
-0.42636
-1.00531
0.27669
0.03485
0.72814
-0.03863
0.39820
-0.24848
-0.50368
-0.55729
-1.35309
0.30156
0.29265
0.39009
-0.39566
-0.41001
-1.20373
0.40103
-0.75945
0.08852
0.17113
0.25870
0.11634
0.20104
-0.52401
-0.28019
0.13461
0.12073
0.28163
-0.06189
-1.18075
-0.03070
0.51166
0.37016
0.57764
0.09629
-0.56472
0.82959
-0.78655
0.13758
-0.49858
0.37515
-0.08514
-1.21969
0.28051
0.03608
-0.03259
0.26648
0.23666
0.13533
-0.72081
-0.31650
-0.70596
0.32852
-0.01047
0.25440
-0.75053
-0.17174
-0.65160
-0.76160
0.08455
-0.65824
0.38636
-0.16078
-0.34749
-0.37384
0.21197
0.14803
0.39386
-0.42504
0.19980
-0.68261
-0.36816
-0.06271
0.43796
-0.10200
-0.91580
0.52665
0.45722
0.28123
0.37613
-0.50317
0.37161
-0.47630
-0.02308
0.17359
0.20264
0.40087
0.31256
-0.00857
0.44584
0.40228
0.03901
0.38280
0.14900
0.40680
0.22793
0.48526
0.29178
-0.35701
0.35473
-0.40029
-0.05807
-0.20688
-0.04322
0.18328
0.18956
0.29785
0.35574
0.38823
-0.36308
0.17058
0.38044
0.34549
0.14591
0.44508
0.18969
-0.82213
0.12197
0.25382
0.20697
0.17895
0.43339
0.53841
0.31421
0.22233
-0.27110
0.37306
-0.34844
0.21490
0.12744
-0.38319
0.12410
0.19728
-0.15509
0.27341
0.12229
-0.04880
0.55208
0.45647
-0.35884
-0.49608
0.17526
0.01027
0.46717
0.53273
0.32510
-0.87050
-0.05865
-0.49722
0.19238
0.45489
0.01306
0.50032
-0.88343
0.04287
-0.41517
0.46534
0.06761
0.10317
0.12403
0.13486
0.14343
-0.19648
0.58353
-0.43912
-0.44953
0.15678
0.27519
0.34443
0.16547
-0.54591
0.37780
-0.34988
-0.00313
0.19255
-0.31062
-0.57834
0.16827
-0.30010
-0.33051
0.28737
-0.50917
-0.01493
0.19683
0.11938
-0.61777
0.08657
0.46312
0.31252
0.39076
0.20466
0.28389
0.20432
0.15405
0.50045
0.26095
0.47944
-0.63733
0.17136
0.78038
0.73656
0.38472
0.67562
0.16317
0.25276
0.06519
0.27313
0.18373
0.37727
0.37749
0.27159
-0.12260
-0.55151
0.32994
0.33143
-0.23321
-0.10749
0.32987
-0.55021
0.26639
0.25327
0.16667
0.23287
0.49574
0.25848
-0.23028
-0.02690
0.27102
-0.30901
0.54820
-0.18552
0.20371
0.20307
0.29778
-0.20676
0.31587
0.43799
-1.04581
0.00244
0.24289
0.42366
0.35632
0.20521
0.30989
0.30997
0.40312
0.12874
-0.51922
-0.40306
-0.29197
0.06047
-0.01086
0.67749
0.83262
0.07932
-0.31231
0.12671
0.22706
0.23338
-0.46582
0.21536
0.11539
0.07020
0.31050
0.00666
0.29276
0.69233
0.31253
0.33871
0.07045
0.08368
0.54990
0.33315
0.37927
0.01016
0.42558
-0.44136
-0.16386
-0.06017
-0.43613
0.25535
0.20660
0.20630
0.20049
0.28838
-0.01516
0.64770
0.31166
-0.30252
0.81086
-0.32862
0.45006
0.44625
-0.20505
0.26884
0.30267
0.45915
0.46344
0.20625
0.05704
0.58328
0.46663
0.12512
0.45492
0.20569
0.24380
-0.38457
0.42550
-0.11021
0.18962
-0.34043
0.15962
0.35980
0.11699
0.49618
-1.21313
0.02879
-0.79580
0.24867
0.13518
0.10606
0.10334
0.33408
0.50213
-1.20181
-0.43061
0.38265
0.54124
0.60010
0.15938
0.18273
0.21002
0.16668
0.18346
-0.36792
-0.05423
-0.55769
0.09009
0.16487
0.33378
0.04617
-0.02606
0.53040
-0.05205
-0.36372
-0.39747
0.20050
-0.00415
-0.07374
-0.89604
0.28386
0.10552
-1.01106
0.03514
0.21960
0.18216
-0.13391
0.27933
0.46926
0.22499
0.16939
0.17197
0.39216
-0.08897
0.08837
0.21152
0.24750
0.02538
-0.50748
-0.56396
0.86117
0.11328
0.31672
0.01039
-0.46467
0.49833
0.15480
0.30418
-0.66316
-0.15896
0.29305
0.46509
0.53413
0.55402
-0.83651
0.06794
-0.66168
0.21441
0.33590
0.20500
-0.37012
0.33786
-0.31523
-0.46234
0.21317
0.36777
0.64621
0.18302
-0.20579
0.26148
-0.10946
-0.44057
-0.33002
0.69456
-1.47624
0.43816
0.28370
-0.16185
-1.10400
0.27527
-0.26812
0.75265
0.00881
0.05348
0.39015
-0.22054
-0.43089
-0.08964
0.28628
0.04039
0.46626
0.46235
0.22422
0.34523
0.36860
0.44715
-0.29284
0.17879
0.33569
0.12922
0.14020
0.47964
0.08273
-0.08811
0.23593
-1.03111
0.84971
0.32106
0.44939
-0.04443
-0.04510
0.26970
-0.07746
-0.28178
0.16894
-0.16808
0.68288
-0.03627
0.31347
0.32237
0.39871
-0.72123
0.80867
0.00691
0.61797
0.29483
0.40198
-0.33586
0.14029
-0.17665
0.07879
-0.20352
0.08090
0.43741
0.29129
0.31870
0.21917
-0.54686
-0.41123
-0.67194
0.53769
0.21279
-0.37162
0.39335
-0.45004
-0.58963
0.17008
-0.09961
0.22794
-0.31147
0.23039
-0.36982
0.13117
0.28687
-1.30554
0.11049
0.44551
0.00377
0.22573
-0.93189
0.14179
0.27769
-0.75545
0.30172
-0.55116
0.10009
0.43510
-0.39377
-0.35057
0.32322
0.46913
0.17401
0.43389
-0.92512
-0.17248
0.32582
0.33630
-0.38420
0.38723
0.33360
-0.11493
0.06839
-0.21500
-0.24669
-0.41758
0.21307
-0.36592
0.51855
0.29836
0.19929
-0.39643
-0.44325
0.39866
0.02025
0.22252
0.64751
0.52579
0.49891
0.11397
0.49730
-0.16411
0.38635
-0.39624
0.32745
0.20028
0.05752
0.20932
-1.18747
0.32036
0.11088
0.04372
-0.42200
-0.70249
0.19233
0.40351
0.38818
0.13244
-0.25363
-0.09653
0.22293
0.06085
0.32658
0.20759
0.07198
0.22353
0.20828
0.18332
0.15330
0.42298
-1.18626
-1.10280
0.25773
0.39224
-1.08797
0.13596
0.64846
-0.41400
0.21926
0.35748
-0.27949
0.17373
0.30713
0.65208
0.44194
-0.14234
-0.50286
-0.00974
0.40945
0.17254
0.07142
-0.95630
-0.39806
-0.30988
0.39982
0.05924
0.54298
0.01819
-0.26524
0.19463
0.14296
0.33187
-0.07367
-1.09738
-0.74883
-0.89560
0.32199
-0.03147
0.16150
-0.28518
0.36923
0.32555
0.31701
0.76811
0.19151
-0.34212
0.13097
0.13958
0.38616
0.66037
0.54265
0.20355
0.25017
-0.11812
0.26929
0.37194
0.29584
-0.23543
-0.26315
0.39606
0.81604
0.08654
-1.32305
-0.29707
-0.07068
-0.21791
0.28837
0.10827
0.14436
0.38560
0.20809
0.06330
0.23682
-1.21940
-0.33051
0.27675
0.15366
0.93698
0.29228
0.18461
0.03977
-0.73889
0.17302
0.04590
0.35787
0.19049
-0.11757
-1.22845
0.30293
0.55491
-1.22162
0.13487
0.32497
-0.63087
0.16927
0.09863
0.61430
0.34263
0.24430
-0.23406
0.52723
-0.73447
0.06331
-0.45441
0.16438
0.49319
0.60307
0.26224
0.14996
0.09864
-0.02645
0.02214
0.14783
0.24436
0.56868
-0.39432
0.28065
0.48740
0.39109
-0.51283
0.06261
0.16536
-0.03490
0.18464
-0.38182
-1.44170
-0.15875
0.36510
0.46405
0.11152
0.21346
0.24855
0.28745
-0.12300
0.40130
-0.17424
0.82425
0.22395
-0.11826
0.28618
0.06436
0.38206
0.12964
0.31073
0.12772
0.26299
0.14472
0.46381
0.17312
0.46274
0.34338
0.45023
0.39457
-0.29194
0.15094
0.09848
0.36562
-0.44323
-0.32480
0.33490
0.33096
0.20043
0.52259
0.36015
0.07098
0.45521
0.13695
-1.24265
-0.04449
0.53089
0.27742
0.35211
0.01900
0.02161
0.39621
0.26251
-0.27399
0.37086
-0.00002
-0.72912
0.13049
0.43760
-0.19632
0.44164
0.04135
-0.49436
-0.14121
-1.10502
0.18409
0.40454
0.42270
0.46350
0.37499
-0.33600
-0.23469
0.25698
-0.29974
0.28597
0.15795
0.23297
0.29494
0.24771
0.49224
0.32454
0.10633
0.18616
0.72665
0.17448
0.26482
0.42110
0.08121
0.02658
0.48851
0.17489
-0.35880
-0.34985
0.43682
0.47778
0.22894
0.24978
0.21387
0.10194
0.25472
0.33519
0.04378
-0.21351
0.17394
0.35720
0.23412
-0.27121
0.72954
0.72035
0.01270
-0.66948
0.52734
0.15121
0.34161
-0.46258
-0.00054
0.30403
0.00456
-0.08478
0.35196
0.48608
0.74080
-0.14860
-0.41922
0.25022
0.13612
-0.13779
0.28080
0.36711
0.09368
0.44176
0.14071
-0.69659
-0.45472
-0.22430
-0.12459
0.07996
0.47541
0.39892
0.33451
0.32026
0.18989
-0.28908
0.26498
0.29896
0.18911
-0.39452
-0.45571
0.14485
0.29315
0.33494
0.54250
-0.03300
0.20664
-0.14130
-0.54210
0.00220
0.33775
0.33166
-0.20597
0.44208
0.30216
-0.81402
0.41057
0.16294
0.22412
0.01193
0.13895
0.06585
0.47370
0.33989
0.05566
0.31949
0.47112
-0.73187
-0.01272
0.47745
-0.95227
0.24908
-0.29389
0.15442
0.30935
0.03520
0.05865
0.44708
0.23633
0.24642
0.33680
-0.21249
0.21728
0.17339
0.48746
0.81438
0.43778
0.14709
0.22351
-0.01178
0.40162
0.11267
0.39972
-0.51872
0.80435
0.35528
0.79147
0.33881
0.16961
0.34536
0.16944
-0.33847
0.32075
0.30952
0.36313
0.36384
-0.51264
0.23878
0.24975
0.15321
-0.05380
0.50095
-0.41428
-0.85013
-0.34235
0.29793
0.23139
-0.63318
-0.50375
0.30281
0.52375
-0.80182
-0.53678
-0.09681
0.47701
0.32047
0.30288
0.09498
0.14683
-0.51261
0.54800
0.48302
0.35502
0.17142
-0.52498
0.42742
-1.20488
0.46275
0.07136
0.34977
-0.04392
0.10467
0.29328
0.36282
0.26440
0.29490
0.43328
0.21856
0.14740
0.41509
0.43558
0.26560
0.43080
0.92873
0.17306
0.55113
0.25705
0.18880
0.32081
0.18138
-0.41370
0.05432
-0.92722
0.24502
-0.20720
0.11977
0.19583
-0.67758
0.35515
-0.28402
-1.20855
0.12380
-0.11488
0.25227
0.24524
0.25683
0.59559
0.30738
0.32769
0.13011
0.19485
-0.49656
0.01676
0.40105
0.23836
0.35004
-0.43020
0.39420
0.41240
0.21824
0.12766
0.19454
0.49494
0.47262
0.13936
-0.55786
0.34836
0.45632
0.39402
-0.11754
0.09144
-0.89013
-0.42428
0.12370
0.11362
0.44179
0.07900
-0.35710
0.44060
-0.31643
-1.22107
0.34262
0.49705
0.12617
0.24579
-0.13949
0.23123
0.41549
0.29980
0.13346
0.37684
0.34544
0.27122
0.33411
0.02635
0.21974
-0.42697
-0.70440
0.40395
-0.21377
-0.14648
-0.34887
0.65858
-0.73917
0.26891
0.23429
-0.46160
0.33918
0.20873
0.33407
0.22198
-0.23610
0.18969
0.30290
0.18471
-0.48974
0.14511
0.03713
0.48364
-0.32117
-0.12669
-0.36803
0.08361
-0.84730
0.19789
0.20328
0.14567
0.23702
-0.27207
0.11150
0.43145
0.15832
0.27173
-0.38526
0.26643
0.07703
0.37049
-0.64616
0.23341
-0.26864
0.07591
0.12487
0.40452
-1.05675
0.16110
0.47706
-0.49918
0.49532
0.35642
0.03222
0.73240
0.32666
-0.18709
0.05596
-0.23146
0.27605
0.51333
0.28098
0.22615
0.52096
0.55041
0.25254
-0.41298
0.38579
0.42349
-0.62699
-1.71793
-0.12421
0.06776
0.16537
0.30892
0.05956
0.31662
0.41071
0.44758
-0.40352
-0.15300
0.02507
0.22880
0.24543
0.10139
0.00106
0.04238
0.48260
0.19151
-0.87761
-0.95434
-0.21428
0.42524
-0.01718
0.22207
0.12174
-0.69247
0.27892
-0.73274
0.24727
0.07107
0.43937
0.12216
0.29180
0.07389
-0.38532
0.39764
0.61343
0.27019
0.78855
-0.76539
-0.42908
0.33286
-0.42913
0.34823
0.28587
0.61027
0.18729
0.30487
0.23143
0.25878
0.21655
-0.07194
-0.32281
0.14383
0.40300
0.35985
-0.03254
0.07962
0.16844
0.12561
0.17803
0.75578
-0.26698
-0.16306
0.23374
0.36201
0.14443
-0.22457
0.24304
-1.32561
0.14184
0.28773
0.26408
0.27399
0.27508
-0.60122
0.19682
-0.55299
-0.72420
0.02522
0.23879
-0.01249
0.37678
-0.37711
0.01731
0.40731
-0.32024
-0.48287
0.03057
-0.30608
0.40945
-0.34077
-0.29330
-0.14152
0.33062
0.24610
0.46739
0.29888
0.34015
0.48064
-0.57918
-0.85738
-0.15222
-0.55286
0.38283
0.38994
0.10351
-0.58394
0.17550
-0.40507
-0.31575
-0.08718
-0.30392
-0.30124
-0.40074
0.78675
0.53502
0.24347
0.03471
-0.10829
-0.69041
0.15852
0.52620
0.29852
-0.47411
0.35643
0.38459
0.40764
0.31756
0.47594
-0.00360
-0.52464
-0.30988
0.36406
0.39102
-0.42675
0.60757
0.24118
-0.70509
-0.39890
0.28947
0.14991
-0.11500
0.03413
0.14864
0.02706
0.04331
0.13673
0.37191
0.72612
0.16197
-0.42329
0.30555
0.09563
0.12105
0.05173
-0.20937
0.25369
0.26594
-0.45069
0.25146
0.37937
-0.45390
0.25532
0.37593
0.20317
0.20278
0.08125
0.47669
0.43968
0.21608
0.18583
0.14707
0.22152
0.25748
0.81668
0.12407
0.11169
0.23774
0.11657
-0.36058
0.21403
-0.35757
0.48771
0.13918
0.56474
0.15882
0.02282
0.54736
0.38196
0.02238
0.00985
0.08822
0.40454
0.33520
0.16066
0.20853
0.55799
0.44550
0.08254
-0.10253
-0.17038
0.60382
0.33508
0.17699
0.15482
0.00722
0.07750
0.04798
0.47325
-0.24483
0.59996
-0.52283
0.56233
-0.01159
-0.09603
0.21813
0.18236
0.07449
0.24368
0.27452
0.44403
0.23598
0.48558
0.18644
-0.72894
-0.16524
0.57980
0.12001
0.19528
0.26465
0.53340
0.26542
0.29885
0.00796
-0.13222
-0.25563
0.38120
0.17383
-0.19264
0.28428
-0.73429
0.14330
0.13111
0.20941
0.17841
0.18353
0.00077
-1.00218
-0.00817
-0.97233
-1.39636
0.50436
0.18054
-0.19046
-0.36341
0.00012
0.12171
0.19372
0.05214
-0.03475
0.64977
0.21229
0.11537
0.45918
0.12405
0.34596
0.81744
-1.52366
0.20807
0.52767
0.49056
0.47365
0.48590
-0.01682
0.61911
0.29332
0.33040
-0.00277
0.34669
0.16213
0.35345
0.52610
0.33465
0.36128
0.19525
0.34955
0.03434
0.14567
0.15368
0.35058
0.34631
-0.33409
0.29925
0.10702
-0.02530
-0.92429
-0.45325
-0.17149
0.21214
-0.08877
0.03061
0.15023
0.22651
0.15741
0.20914
0.09552
0.28649
0.26994
0.51500
0.44392
0.54356
-0.72766
-1.52674
-0.14127
0.27806
-0.07066
0.22929
-0.34120
-0.04711
-0.20487
-0.22831
0.54182
0.16777
0.22024
-0.40821
-0.01385
0.23000
0.28144
0.33991
0.21372
-0.20516
0.03484
0.21607
0.28954
0.09727
0.16078
0.09914
-1.02895
0.27278
-0.19672
0.17582
-0.34263
-0.37058
0.64906
0.02439
0.27971
0.10191
0.07148
-1.15408
0.36111
0.19334
0.15375
-0.66380
0.21312
-0.24609
-0.79403
0.10294
0.02705
-0.79380
0.12464
0.16580
0.26551
-0.52733
0.12686
-0.19100
0.57403
-0.52873
-0.12502
0.17795
0.44720
-0.16834
0.22245
0.28535
0.10140
-0.34276
0.09685
0.24070
0.14550
0.37941
0.13292
0.11399
0.23499
0.34282
0.46003
0.37912
0.20914
-0.24267
0.33163
0.26254
-0.03715
-0.52757
0.47302
0.12329
-0.01358
0.50855
0.16014
0.42299
0.18924
-0.02240
0.24502
-0.42791
0.50533
0.18733
-0.45667
-0.86188
-0.54420
0.22111
-1.13198
0.35323
-0.92458
0.32895
0.18319
-0.53370
-0.05202
-0.22030
0.34153
-0.45444
0.24910
-0.00803
0.35837
0.00220
0.31939
-0.74702
0.48662
0.44071
0.16412
0.15533
-0.45849
0.21741
0.46626
0.02482
-0.64892
0.08298
0.24720
-0.67672
-0.19614
-0.17520
0.32512
0.35846
-0.02525
0.16693
-0.50638
0.67658
0.36239
0.68510
0.57843
0.27248
0.39014
0.37273
0.34769
0.27180
0.02455
0.09033
0.04004
0.12741
0.41939
0.04949
0.23561
0.27709
0.44186
0.48596
0.45405
0.34150
-0.51820
0.07944
-0.32871
-0.00544
0.16345
0.09661
0.26824
0.22338
0.07182
0.55268
0.41001
0.13316
0.11627
0.39334
0.18657
0.24646
0.31190
0.07366
-0.99493
0.58023
0.21117
-0.22661
-0.43714
-0.17595
0.50853
-0.18735
0.41409
0.27988
0.16608
0.39799
0.15878
-0.94576
-0.58155
0.13097
-0.09190
0.24382
0.04692
-0.04678
0.75387
0.11082
-1.03730
0.43324
-0.37103
0.10350
-0.47706
0.09893
0.07278
-1.41044
-1.61922
0.21849
0.17320
-0.13720
0.15409
-0.51277
0.33637
-1.03601
0.03989
0.26776
-0.79366
-0.09025
0.11298
0.38035
-0.43182
-0.23694
0.17776
0.04579
0.10746
-0.35667
0.10728
-0.51197
0.30239
0.04292
-1.15798
-0.36178
0.21363
0.09175
0.21474
-0.01462
-1.01194
-0.22718
-0.54716
-0.57517
0.32973
-0.93148
0.32204
0.40205
0.10249
-0.88394
-0.39302
0.13353
0.33480
0.20165
0.03803
0.19813
0.40336
-0.37275
0.41229
0.54249
0.29724
0.52790
0.02025
0.46579
-0.31072
0.44018
0.75193
0.49290
-0.15476
-0.79923
0.37241
0.47835
-0.46751
0.12285
-0.33466
0.12502
0.12508
0.61564
0.59580
-0.70696
-0.70469
0.02580
0.41178
-0.64986
0.50720
-0.01173
0.06393
0.43279
0.15203
-0.37759
0.48807
0.08193
-0.87278
0.04004
0.77333
0.14662
-0.32719
-0.34827
0.37848
0.09429
0.59395
-0.32041
0.11224
-0.40187
0.05669
0.10390
0.10292
0.33448
-0.19512
-0.19658
0.53589
0.40282
0.66239
0.57145
-0.05942
0.58025
-0.32562
0.10352
-0.17429
0.18716
-0.03008
-0.08936
0.49637
-0.04350
0.82366
-0.60502
0.03724
0.45273
0.30991
0.58672
-0.75697
-0.70169
-0.73205
0.60680
0.02527
0.00417
-0.37553
0.26126
-0.59059
-0.02198
-0.08470
0.09539
-0.18986
0.05815
0.09770
0.39410
-0.51624
-0.25774
0.03977
0.12143
0.14869
0.59458
0.13600
0.06260
-0.10784
0.14456
-0.12015
0.21567
0.29783
0.01234
-0.27831
0.51826
0.09603
0.59362
-0.55178
0.27730
0.01651
0.39247
-0.71346
-0.92599
0.27558
-0.33893
0.18944
0.45456
0.07463
0.21318
0.26843
-0.01282
0.10943
-0.00148
0.31050
0.35330
0.26679
0.43645
0.52906
-0.49111
0.42953
0.17373
0.12762
0.20215
0.04200
0.10696
-0.85603
0.05283
0.07342
-0.30306
0.24042
-0.07945
-0.19676
-0.04961
-0.08208
0.58571
0.15595
-0.70301
0.26133
-0.87967
-0.21622
0.11124
0.15564
-1.18192
0.00699
0.18159
0.17371
0.48600
0.19738
-0.17593
-0.46502
-0.07845
0.21617
-0.08422
0.20366
0.26266
0.23610
0.10049
0.18814
0.43582
0.44269
-0.38107
0.17060
0.23546
0.40560
0.32141
0.36864
0.09623
-0.37747
0.16218
0.24174
-0.30595
0.30392
0.36466
-0.13929
0.09302
-1.16749
0.38003
0.07422
0.88693
0.05322
0.06823
-0.58028
-0.46217
-0.35877
-0.27029
0.05890
0.16810
-0.55322
0.48908
-0.88107
0.22088
-0.68240
0.83126
0.11167
0.23634
0.46636
0.29893
0.17586
0.26709
0.49009
0.24186
-0.16370
0.07208
-0.23818
0.35198
0.00086
-0.06747
0.18254
-0.18606
0.15881
0.27724
0.05102
0.17495
-0.40819
0.01604
-0.10958
-0.05060
0.28460
-0.19722
0.51291
0.05049
0.27415
0.38752
0.37541
0.44796
-0.30130
0.30217
-1.04284
0.50761
-0.04323
0.25715
-0.30514
0.14093
-0.64582
0.10043
-0.21445
0.06461
0.11009
0.00741
-0.95667
-0.45976
0.16241
-0.05729
-0.18721
0.07189
0.14394
0.30713
0.06037
0.08912
-0.56942
-0.63963
0.08229
0.22607
-0.23710
0.12433
0.35476
-0.80838
-0.05800
0.09197
-0.23294
0.48793
0.37839
0.14213
0.79434
0.10117
-0.61198
-0.25894
-0.09005
0.18423
0.07992
0.50781
-0.59894
-0.25563
0.38216
0.11382
0.13482
-0.35159
0.03297
-0.66335
-1.07962
0.18756
-0.05544
-0.05835
-0.44014
0.61067
-0.85382
0.31518
0.45072
-0.04938
0.17654
-0.21200
-0.51541
0.35860
0.24626
0.33985
0.54614
0.60997
-0.09740
-0.00145
0.40816
0.18140
0.40132
-1.54603
-0.60238
0.34720
0.57964
0.51263
0.58898
0.15071
0.07921
-0.10357
0.36834
-0.04053
0.21448
-0.06599
0.09560
0.43253
0.20557
0.87067
0.25861
0.18325
0.81245
0.29640
0.44716
-0.16881
-0.10604
0.06557
0.17954
-0.05331
-0.01969
-0.08282
0.13020
0.12797
0.63478
-0.02234
-0.50384
-0.37745
0.14973
0.39909
-0.07577
0.12454
-0.01576
-0.62213
0.46755
0.48744
-0.31107
0.35061
-0.05483
0.14244
0.13074
-0.47791
0.16306
-0.03697
0.09163
-0.36905
-0.77328
0.41381
0.20232
0.23971
0.03066
0.22887
0.35092
0.27119
0.24994
-0.17149
0.45310
0.14672
-0.00410
0.41803
0.56889
0.26992
0.17127
0.13330
0.18641
-0.36943
0.38676
0.35443
-0.12667
-0.00694
-0.76127
0.30953
0.02961
0.53099
-0.16703
0.14165
-0.08267
-0.07478
0.15800
0.66801
0.12074
0.07590
0.41570
-0.08146
0.76370
-0.07352
-0.46232
0.27741
-0.38827
-0.13792
0.34179
-0.42092
-0.71112
0.75508
-0.02335
0.16846
-0.24205
-0.08284
0.44165
0.16508
-1.08034
-0.18615
0.15730
0.10523
-0.33683
-0.27498
0.19873
0.54545
0.23401
0.36936
0.44679
0.23062
0.52620
-0.09404
0.29094
0.37525
-0.44425
0.47305
-0.08726
0.11970
0.27145
-0.33890
0.10959
-0.17223
-0.32851
-0.30877
-0.18290
-0.02702
0.31892
-0.66317
0.04346
-0.94851
-0.01044
-0.23007
0.43225
0.45796
-0.07380
0.28418
0.35252
-0.47114
0.28612
0.66399
0.03886
0.00662
-1.10636
0.42304
0.33284
-0.39668
0.06171
-0.41909
-0.39240
0.24397
0.08944
0.42200
-0.95219
0.13941
-0.58910
-0.07522
0.10337
0.24201
0.14976
0.07392
0.16957
-0.09750
-0.44505
0.09048
-0.49234
0.29460
0.08506
0.39605
0.47695
0.11006
0.27836
0.07471
-0.00910
0.42356
-0.86939
-0.41081
-0.11830
-0.00682
0.12895
0.37672
-0.64168
-0.57355
0.43186
0.40894
0.33132
0.55761
0.12890
0.31765
0.38403
-0.44964
-0.25956
-1.06457
0.07539
-0.69099
0.46301
-0.85002
0.21534
-0.50430
0.22410
-0.39095
-0.27215
-0.28543
0.30415
0.16920
-0.36446
0.23622
0.23700
0.26656
-1.00539
0.24046
0.23727
0.38975
0.27947
0.16550
0.40020
-0.49722
-0.07175
0.30286
0.25939
0.59972
-0.54690
-1.43297
-1.53627
0.28495
-0.09566
-0.38258
0.29493
0.20832
-0.92031
0.39335
0.21954
-0.12820
0.00919
-0.42734
0.16296
0.19598
0.28529
-0.00133
-0.09915
-0.55724
-0.50065
0.17405
0.17392
0.35867
0.37472
0.12728
0.10619
-0.60001
-0.18582
-0.48119
0.31234
-0.78756
0.02491
0.29291
0.45591
0.19147
0.01037
-0.69177
0.38267
0.21945
0.54901
0.45351
0.20557
0.12333
0.22589
0.43404
-0.66835
0.06745
0.07366
-0.70690
0.35816
0.12894
-0.68349
-0.03994
-0.34778
-0.09037
-0.10377
0.07645
0.48509
-0.40327
-0.43426
0.42179
0.23316
0.06232
0.28219
0.19047
-0.77568
0.11345
0.42089
-0.75861
-0.47319
0.39180
-0.55044
0.07723
0.16994
-0.08873
-0.50421
0.18974
0.63505
0.19738
-0.67555
0.31697
0.23368
0.15776
0.26354
0.62416
0.16690
0.27065
0.52567
0.33302
-0.12350
-0.75049
0.52923
0.18587
0.30853
0.18687
-0.36305
0.14422
0.28775
-0.62578
-0.32032
0.13094
0.14982
-0.34324
0.40333
0.53530
0.24167
0.38944
0.43649
0.04756
0.21105
-0.38704
0.24009
-0.38703
0.42694
0.49037
-0.37901
0.05930
0.32846
-0.67231
0.16445
0.51159
0.37600
-0.67647
0.41799
0.26133
0.26433
-0.23451
0.35255
-0.39949
-0.14043
0.06318
0.14022
0.24592
0.41638
0.23329
0.34708
0.05552
0.29985
-1.16627
0.11030
0.25149
-0.45432
-0.05527
0.01913
0.07627
0.32451
0.18895
0.46398
-0.70892
-0.47371
-1.10340
-0.59677
0.48325
-0.40501
0.12565
0.30075
-0.60528
0.28489
0.14306
0.40784
0.17030
-0.12838
0.05815
0.31019
-1.50456
0.13597
0.38090
0.37091
0.05082
0.54991
-0.24013
0.01596
0.46760
0.87694
0.08725
0.21491
0.10008
0.08990
0.34175
0.11070
0.21069
0.25753
0.01434
-0.70469
0.11248
0.05523
0.35275
0.42306
-0.01380
0.29615
-0.49566
0.16950
0.63244
0.17794
0.41914
-0.99182
-0.44063
0.30272
-0.67108
0.34863
0.51037
0.42208
-0.22844
-0.37398
-0.02372
-0.29046
-0.52154
0.61783
-0.32841
-1.20158
-0.42912
-0.16824
-0.22531
0.18009
-0.94548
0.14422
0.13088
-0.23911
-0.04955
0.06620
0.12204
-0.23379
0.29995
-0.29650
0.49450
0.34079
-0.22524
0.59604
0.13321
-0.52259
-0.37577
0.20776
-0.37335
-0.73302
0.41092
0.06032
0.10038
0.20430
-0.04548
0.47831
-1.25257
0.29350
-0.11531
-0.11126
0.14847
-0.41235
0.14425
0.00979
-0.83652
0.25444
-0.49417
0.01476
-0.85506
-0.02340
0.38509
0.17419
0.13398
-0.68385
0.15260
0.40221
0.57161
-0.11520
-0.11754
0.38637
0.07725
0.02228
0.19898
0.16661
0.54925
0.07645
0.03965
-0.22293
-0.29999
-0.84762
0.32192
0.97106
-0.00511
-0.40809
-1.56328
0.19170
0.18058
0.20648
0.02536
-0.36036
-0.31867
-0.17927
0.23188
-1.39031
0.23975
0.03953
0.46224
-0.70461
0.49795
0.19945
0.13119
-0.13987
-0.15126
0.58694
0.22568
-0.88991
-1.29553
-0.11891
0.06037
-0.28862
-0.80852
0.41009
-0.42550
-0.79341
-0.28146
0.13694
-0.45992
0.00887
-0.69008
0.34406
-0.69774
0.13760
0.44321
0.32244
0.10718
-0.41977
0.47424
-0.12807
-0.03691
0.11931
0.15208
0.12528
0.41884
0.21103
-0.41950
-0.11762
-0.06620
0.40570
-0.13264
0.15577
-0.21722
-0.72416
0.59775
0.45108
0.58614
0.17790
-1.09493
0.09126
-1.05307
-0.54987
-0.02260
0.05706
-0.28872
-0.56990
-0.67170
0.14407
-1.23426
0.56848
0.24576
-0.27011
0.04345
0.43729
-0.36181
0.16557
-0.07988
0.01796
-0.28977
0.48486
-0.14067
-0.51756
0.15293
0.26259
0.20082
-0.01588
-0.10142
0.57339
0.25653
0.13579
0.12520
-0.02960
-0.02248
0.31475
0.13507
-1.00962
0.51674
-0.55076
0.29943
-1.12317
0.39350
0.27970
0.32073
0.15762
0.28523
0.03064
0.15490
0.54330
0.61256
-0.56976
0.64809
0.17348
0.16154
0.44133
0.81120
0.23739
0.37770
0.22348
0.15867
-0.10954
-0.70377
0.01448
-0.12167
-0.71537
0.12982
-0.38484
0.29397
0.31092
0.40424
-0.21736
-0.61983
-0.56286
-0.28690
0.08108
0.38042
-0.26342
-0.31839
0.22172
0.13357
-0.91062
0.13610
0.61476
-0.30482
0.12508
-0.25917
-0.17896
-0.51708
0.34786
0.37540
0.19547
0.24656
0.07487
0.41432
0.06230
0.27221
0.31617
-0.26901
0.36679
0.29451
-1.88872
-0.36983
0.01029
0.01065
0.12359
0.36404
-0.27810
-0.28115
0.28213
-0.66076
-0.13694
-0.34971
-0.71329
0.32994
0.50144
0.00545
0.05959
0.43380
-0.46697
-0.20854
0.08093
-0.51862
0.34589
0.32994
0.22202
0.34374
0.15662
-0.03011
-1.08826
0.31599
0.11522
-0.51959
-0.85554
-0.38091
0.26409
0.10307
0.15647
-0.01537
0.24633
0.06083
0.33121
0.06877
-0.00084
-0.33251
-0.02684
0.18441
-0.53431
0.12151
-0.01521
-0.12700
0.20808
0.26894
-0.65702
0.10624
-0.42776
0.21933
-0.58156
0.14830
-0.05494
0.28089
-0.28619
0.28087
-0.38896
0.61617
-0.59838
0.10716
0.12185
0.14775
-0.14061
-0.67231
-0.05114
-0.65013
-1.32508
0.43449
0.10602
-0.81523
0.33106
0.89578
-0.77550
0.15600
0.43697
0.46877
0.28154
-0.11262
-0.31249
0.16833
-0.19249
0.04837
0.40436
0.85218
-0.54852
0.27298
0.11840
0.17837
-0.06352
-0.30748
0.05797
-0.85135
0.21117
-1.85068
-0.86695
0.47017
0.13164
-0.23212
-1.00642
0.02631
0.34795
0.09414
0.08101
0.43708
0.05282
0.10514
-0.62788
0.40540
0.14200
-0.92737
0.14899
-1.37505
-0.34210
-0.15442
-0.24786
0.72859
0.13263
-0.62719
0.30595
0.29228
-1.39394
-1.69397
-0.43251
0.12258
0.60092
0.39941
-0.63479
0.24826
-0.48024
0.14385
0.26147
0.05408
-0.81690
0.46214
0.07655
0.51017
-0.30598
-1.02705
-0.57192
-0.40804
0.23274
0.16175
-0.27775
0.06002
-0.09919
0.36685
-0.22748
0.19377
-0.26629
0.16835
-0.26298
0.05174
0.31651
-0.35683
-0.06592
0.51971
0.07359
-0.57052
0.35508
0.48224
0.15160
-0.01955
-0.35847
0.42607
-0.12775
0.57396
0.25467
0.11213
-0.88080
-0.40509
-0.27676
-1.89660
0.26828
0.04181
0.10467
-0.14094
-0.34474
0.17864
-0.46456
0.30903
-0.65697
0.51773
0.75600
-0.80157
0.51494
0.06924
0.13757
-0.72979
0.50024
0.37088
0.03825
0.25639
-0.90545
0.11551
-0.11159
0.43682
0.27403
0.28054
0.42042
0.10291
0.16240
0.10505
-0.32970
0.27789
0.12798
0.14532
-0.68039
0.88055
0.36520
0.12167
0.21946
0.32251
0.31045
0.14520
0.43684
0.01495
-0.00347
-1.17982
0.43565
0.20269
0.15437
-0.11552
0.33282
0.19161
0.12489
0.49373
-0.35503
0.27250
0.20174
0.13835
0.23085
0.67447
-0.20663
-1.18552
0.57239
0.23834
0.22826
0.28020
-0.29859
0.20966
0.12903
0.49244
0.43163
0.17676
0.00671
-0.05864
-1.11250
-0.17059
0.16279
0.01437
-0.18670
-0.14976
0.30160
-0.02563
-1.14118
0.46977
-0.50947
-0.79759
-0.02090
-0.79938
0.26873
-0.33301
-0.65758
-0.67055
0.48001
0.03197
-0.15099
0.12037
0.48078
0.23932
0.74296
-0.68570
0.34920
0.12509
0.49030
0.16395
-0.38576
-0.98682
0.13644
0.23631
-0.62285
-0.47802
0.82586
-0.32660
0.15315
-0.21114
-0.40480
0.68023
0.44490
-0.06553
-1.24224
-0.78607
0.19840
-0.30994
-0.51953
-0.35150
0.09309
0.22645
0.15193
-0.05884
-0.30012
0.31210
-0.70763
0.04869
0.44994
-0.03480
-0.01193
0.21910
-0.88154
-0.12635
-0.42612
-1.04804
-0.64518
0.55281
-0.36369
-0.48697
-0.43119
-0.17665
0.19983
0.15302
-0.61013
-0.14889
0.27300
0.76848
0.16642
0.19095
0.17730
-0.42443
-0.93122
0.27978
0.26711
-0.02374
0.02102
0.15734
0.43336
-0.57110
0.31795
-0.32836
-0.06255
0.18650
0.17516
0.44258
0.03846
0.09064
0.03252
-0.02170
-0.33255
0.16538
-0.73988
0.19218
-0.02716
-0.13784
-0.09370
0.33892
0.23474
0.20122
0.21627
-0.84557
-0.13628
0.32113
-0.15268
0.19823
0.15480
-0.10832
0.77006
0.54085
0.21024
-0.00840
0.28076
-0.41970
0.03808
-0.07917
-0.09694
-0.17443
-0.94496
0.23775
-1.41094
0.11765
0.07885
0.34014
-0.31314
-0.16398
-0.58193
0.13536
-0.07578
0.26847
-0.31479
-0.05590
0.12059
-0.30111
-0.20050
0.74227
0.00820
-0.05315
0.18263
0.02476
-0.25823
0.17352
0.13676
0.12662
-0.34166
-0.05656
0.21638
0.52152
0.01816
-0.54147
-0.89293
0.26049
-0.27401
-0.01887
-0.60765
0.22817
-0.29235
-0.21560
0.71376
0.50445
0.25967
0.16573
-0.57485
0.25863
0.65448
0.25207
0.00356
0.11426
0.14528
0.10687
0.16953
0.57655
-0.21555
0.29977
0.30464
0.03028
0.49681
0.22672
0.54932
-0.20281
-0.00575
0.52618
0.56152
-0.03530
0.52027
0.12350
0.04760
-0.95983
0.04213
-1.43850
0.20130
0.44116
0.05033
-0.80794
0.73311
-0.01784
0.09924
0.34308
0.36643
-0.39024
0.12480
0.00850
0.72958
0.66024
0.49320
-0.00299
0.22431
-0.61187
-0.24049
0.15316
-0.90825
0.40437
0.35565
-0.13817
0.09106
0.06763
-0.02881
0.47595
-0.96677
0.16773
0.39460
0.27658
-0.03060
-0.67586
0.09348
-0.17606
-0.31699
-0.24434
0.11103
0.04079
0.47955
0.39567
-0.78653
-0.39112
-1.77929
0.48320
0.23000
0.18988
-0.96477
-0.01387
0.78098
0.59137
-1.10966
-0.23001
-0.08240
0.14307
0.14988
0.64969
0.08261
-0.03334
-0.13799
0.08624
-0.45188
0.32398
-0.69193
0.40206
0.22094
0.05719
0.14918
0.29180
0.10633
-0.72984
-0.14810
0.28470
0.03909
-0.19792
-0.49070
0.48334
0.32071
0.09553
-0.10503
0.12826
-0.49760
-0.26291
0.29334
0.60234
0.19472
-0.46476
-0.46823
-0.19830
-0.32444
0.36318
0.39046
-1.39691
-0.27639
0.36120
-1.14695
0.26826
0.36243
0.22118
0.21506
-0.34626
-0.55952
0.30208
0.05009
-0.06645
-0.13652
0.03089
-0.21228
-0.93076
-1.31799
-0.15469
-0.49366
-0.75238
0.04816
-1.17603
0.26766
0.10637
0.27200
0.63667
0.61360
-1.24848
-0.70029
-0.21318
0.07213
0.36863
-0.81002
-0.98560
-0.04672
0.43538
0.55302
0.25423
0.26706
0.16579
0.15098
0.37464
0.42207
-0.00843
0.30700
-0.06044
-0.63225
0.02300
0.08589
-0.19442
-0.99775
0.04462
0.54685
-0.45104
-0.34579
0.39106
0.27163
0.53177
-0.34441
-0.09156
-0.06665
0.07770
0.30239
0.59569
0.42505
0.04399
0.05437
-0.39289
-0.60599
-0.08770
0.13198
-0.26296
-1.37205
0.10550
0.07007
0.33964
0.24435
-0.33530
-1.02909
-0.51885
0.01133
0.05295
-0.19618
-0.53631
-0.62021
0.33129
0.16100
0.38337
0.28530
0.24355
0.33172
-0.29463
-0.00956
0.22575
-0.07773
0.01516
0.25371
-0.08824
0.04581
-0.04336
0.51204
-1.21975
-0.42396
0.36926
-1.17028
-0.13935
0.15099
0.24507
0.08376
-0.54355
0.08423
0.06299
-0.27227
0.04167
-0.08702
-0.40917
0.70060
0.28449
0.17279
-0.09073
0.31467
0.22736
-0.41676
-0.83189
-0.00238
-0.27446
0.25390
0.12876
0.53928
-0.79143
-1.24108
-0.00398
0.03463
0.25924
-0.34600
0.43687
0.02105
-0.14349
-0.50465
0.10095
0.52355
-0.80047
-0.93963
0.19194
0.16994
-0.01666
0.33284
0.04764
0.09628
0.40973
-0.10548
-0.51966
0.15582
0.30914
0.00293
0.49058
0.21541
0.19108
0.25215
0.52787
-0.07696
-0.09345
0.13325
-0.19770
-0.00544
0.40415
-0.03160
-0.69111
0.06746
-0.20232
0.49086
-0.65087
0.47426
0.32467
-0.17078
0.10988
-0.57572
0.07933
0.62661
-0.07992
0.24144
-1.58184
0.20456
-0.25177
0.22095
0.63654
-1.30298
-0.14140
-0.25713
0.10809
0.46345
0.02562
-0.34692
-0.12720
-0.43229
0.48370
-0.45226
0.04227
-0.72784
-0.03732
-0.53858
0.20523
-1.67413
-0.43033
-0.31173
0.10036
-0.26394
0.21688
0.21251
-0.80330
0.38232
0.61934
0.00585
0.28374
0.22576
-0.75691
0.35807
-0.14240
0.10242
-0.32076
-0.02530
-0.59100
0.10315
-0.66055
0.19206
0.10184
0.57710
0.47152
-0.53173
-0.86268
-0.31194
-0.15013
0.22377
-0.75460
-0.04777
-0.28553
0.50285
0.17931
-0.70030
0.25752
0.10180
-0.35558
0.15795
-0.05256
0.05250
0.03505
0.24333
0.28641
-1.09676
0.10919
-0.18198
-1.54861
0.08026
0.66906
-0.59423
0.19513
0.64318
0.52662
-0.37988
0.36268
-0.18595
-0.06739
0.03028
0.24824
-0.11794
0.57386
0.00107
0.04737
0.04760
0.27587
0.28187
0.19756
0.19811
0.24647
0.43259
0.38124
-0.85371
-0.35844
-0.16037
-0.42185
0.22948
0.14764
0.12129
-0.72558
0.28002
-0.21259
0.12562
0.00567
0.49231
0.36292
0.20388
-1.51659
-0.18510
-0.45904
0.48231
-0.27006
0.07044
-0.02671
-0.31965
0.22490
0.25694
-0.36624
0.20412
0.40088
0.58894
0.35381
-0.98810
-0.17296
-0.00131
-0.91370
-1.13313
0.28646
0.30807
0.07780
-0.32162
-0.16160
0.16118
-1.37828
0.08115
-0.29583
0.11538
0.55521
-0.26557
-0.04966
0.08176
0.34227
0.12704
-0.29554
0.14159
-0.32493
0.02433
0.05370
-0.44868
-0.85686
0.47039
0.56391
0.38631
-0.29019
-0.01731
-0.12753
0.12507
0.03398
0.13190
0.57884
0.09018
-1.24349
-0.68348
0.35475
-0.87144
-0.30325
0.16132
-0.37877
0.86966
0.68072
0.49959
0.73036
-0.24315
-0.89267
0.20958
0.19567
-0.42330
0.05376
0.33162
0.24395
0.60262
0.46827
-0.60770
-1.00477
-0.15380
0.18023
0.07539
0.21896
-0.49420
-0.25462
-0.51052
-0.00309
-0.26737
0.32939
0.13251
0.03575
-1.05572
0.15604
0.07001
0.34068
0.22017
-0.47136
0.31966
-0.00050
0.25178
0.56629
0.17552
-0.38301
0.81225
-0.33494
0.60697
0.13566
-0.40556
0.02619
-0.11340
0.19709
0.11441
0.05404
-0.40145
0.17239
-0.27599
0.07430
-0.44304
-0.81812
-0.29903
0.44662
0.28759
0.10481
0.14646
0.02192
-0.05202
0.27873
0.52573
-0.22550
-0.40561
-1.18823
0.48474
0.65869
0.59276
-0.52389
-0.29303
0.31868
-0.72072
0.48768
0.13319
-0.69255
-0.59104
-0.81591
0.16754
0.33952
-0.45793
-0.44391
0.10143
0.36845
-0.42093
-0.45545
-0.91128
0.10226
0.82206
0.18172
-0.14725
-0.21084
0.42142
-0.37488
-0.24067
0.73395
-0.39565
-0.17708
-0.23895
0.63050
-0.26093
0.22066
-0.51914
0.08607
-0.16305
-0.28153
-0.47495
-0.59824
0.06461
0.06285
-0.12026
0.04084
0.04277
0.03555
0.20990
0.19369
-1.18091
0.48143
-2.34809
0.04471
0.24745
0.21053
0.26236
0.09717
0.36527
0.21873
-0.42516
-0.55946
-0.05996
-0.43097
-0.16448
-0.26968
0.27839
0.17291
0.61264
0.18832
0.41423
-0.01460
-0.11486
0.35311
0.22964
0.28627
-0.52518
-0.27069
-0.17362
-0.81356
0.13103
0.27273
-0.38895
0.07823
0.40156
-0.00671
-0.65242
0.28354
0.22492
0.59148
-0.15122
0.12194
-0.92124
-0.10654
-0.04344
0.21135
-0.63472
-0.00133
-0.41430
-0.03431
0.00750
0.21383
0.28570
0.18521
-0.34576
-0.35713
0.21850
-0.20894
0.56032
-0.60557
0.09132
-0.94617
-0.18968
0.28878
0.30035
-0.59580
0.39643
0.45449
0.14047
0.60703
0.24458
0.31521
-0.19443
0.18864
0.21277
0.05658
0.01909
-0.09216
0.53124
0.46396
0.04618
0.09881
-0.06452
0.44672
-1.10041
-0.83134
0.38663
-0.02562
0.48740
0.05504
0.28580
0.23170
0.06691
0.85741
-0.13430
0.62991
0.09842
0.38072
-0.75444
-0.36947
0.11659
0.25727
0.76991
0.31870
-0.38467
0.45664
0.29094
0.07339
-0.42353
0.03827
-0.10080
-0.28024
0.46646
0.08626
-0.25305
-0.04720
-0.14672
0.09495
0.56247
0.23395
0.38002
0.14616
0.51298
0.19838
-0.24804
0.66600
-0.52947
0.07734
0.20410
0.23074
-0.66218
0.40363
0.20172
-0.43025
0.13578
0.12033
-0.48459
0.10556
-0.00803
-0.21773
0.50947
-1.09015
-0.13653
0.20162
0.54953
-0.35964
-0.82362
-1.09900
0.47842
0.03515
-0.47111
0.27665
0.34859
0.15946
-0.75034
-0.67661
0.13969
-0.69283
-0.18090
0.55561
0.18823
-0.36967
-0.08344
0.13103
0.34762
0.04183
0.12396
-0.06430
-0.45408
0.07006
-0.45175
-0.43827
0.18221
0.34098
0.26174
0.20509
-0.01340
0.29539
-0.44670
-0.16886
-0.75508
-0.27210
0.10878
-0.45452
-0.17197
-0.67693
0.04593
0.37654
-0.04559
0.03587
-0.17079
0.10570
0.31587
0.17347
0.13600
0.07793
0.05524
0.36188
0.28040
0.13370
-0.33080
0.26738
0.31019
-0.27009
0.33002
0.24824
0.37321
-0.00189
-1.02377
0.55576
-0.01263
0.09431
-0.30566
0.56454
0.35697
-0.39888
-0.44439
-0.40385
0.14442
-0.01318
0.10484
0.25070
0.18609
-0.85490
-0.53654
0.16298
0.20892
-0.12112
-0.55582
-0.87583
-0.38153
0.03597
0.59112
-0.03298
-0.20099
0.01279
-0.09546
0.05976
0.44928
0.44079
-1.00374
-0.90797
0.12817
-0.32520
-0.11755
0.31235
-0.00496
0.07868
-0.47408
0.51887
0.51553
0.46780
0.36562
-0.01139
-0.32785
0.42521
0.01782
0.05926
0.04455
-0.17029
0.43301
0.73479
-0.89095
0.01907
0.31657
0.10493
-0.42651
0.38369
0.26381
0.43072
-0.04731
0.16359
-0.27095
-0.37501
-1.19121
0.44874
-0.06111
-0.01186
-0.34330
0.26306
0.37960
0.16878
0.23218
0.19236
0.40977
-0.97464
0.08804
0.09546
0.16357
-0.29388
0.48392
0.01675
0.17447
0.04189
-0.31120
-0.19037
0.10833
0.11931
0.24214
-0.22525
-0.84026
-0.41073
0.35892
0.07461
0.13759
0.24503
0.07588
0.13744
-0.35779
0.29473
-0.52282
0.33048
0.04611
-0.26321
-0.06806
0.25932
0.14706
-0.80335
0.16406
0.18549
0.13308
-0.26625
-0.70987
0.14973
-0.70107
0.05856
0.11012
-0.07152
-0.31421
0.11369
0.18766
-0.99125
-0.68484
0.32476
-0.15916
0.01809
0.04768
0.09792
0.18895
-0.41776
-0.34104
-1.71018
0.26714
0.59735
0.09748
0.13693
0.12768
0.80863
0.03398
-0.55670
0.29976
0.60753
-0.26504
-0.81078
0.15384
0.41391
0.34127
-0.46396
0.05266
0.22710
0.28340
0.10984
-0.13588
0.43103
0.32758
-0.14844
-0.02869
0.29579
0.19196
-0.30604
-0.39889
-0.69072
0.31225
0.02109
0.03546
-0.40074
-0.27471
0.13380
0.37544
0.12150
-0.09641
0.04789
0.18159
-0.35934
0.29873
-0.25571
0.01896
0.12456
0.10531
-0.37945
0.21513
0.67956
-0.55952
-0.36342
0.51760
-1.00212
0.03450
-0.30089
-0.37530
-0.74343
-0.25725
-0.31835
-0.11847
0.18417
0.02340
0.29234
-0.23971
0.20323
0.41518
0.51599
0.17673
0.04819
-0.63683
0.09070
0.31547
0.13753
0.03383
-1.48181
-1.44025
0.05447
0.44770
0.50457
-0.47802
0.09203
0.51779
-0.66359
0.05928
0.08873
0.24630
0.10164
-0.05872
-1.25383
-0.10214
-0.11972
-0.71356
-0.20679
0.31605
-0.47171
0.10733
-0.33799
0.02679
0.00609
0.40366
0.47464
-1.01221
0.04548
-0.02849
0.05940
-0.46177
0.68720
-0.20403
0.40466
-0.02887
-0.97224
0.08372
0.18836
0.21839
0.48611
-0.76003
0.14146
0.26221
0.42899
0.29119
0.09475
0.20474
0.38316
-0.81139
0.54749
-0.56690
0.33326
0.00570
-0.50867
0.25264
0.35789
-0.95233
0.02079
-0.01363
-1.13372
-0.27992
0.04873
0.39116
-0.20676
-0.12454
0.23254
0.51781
0.88645
0.07689
0.44853
-0.45164
0.32919
0.22977
0.00409
0.00623
-0.38667
0.14806
0.25024
-0.27098
0.39121
0.45506
-0.14183
0.37574
0.10805
0.83167
-0.09066
-0.47190
-0.10780
0.09158
0.20282
0.13410
0.01786
0.06808
-0.38442
-0.49306
0.05707
-0.12830
0.01142
-0.53522
0.06606
0.10411
0.48318
-0.39090
-1.16224
0.06132
0.07906
-0.15945
-0.02486
0.07714
0.66589
-0.05690
0.00865
-1.22339
-0.35587
0.04925
-0.14508
0.22272
0.15844
0.14427
0.26729
-0.48730
0.41590
-0.97529
-0.15515
0.00381
0.34730
-0.49514
0.80924
0.10312
0.59292
-0.02746
0.17814
-0.08191
0.07261
-0.11131
-1.47385
-0.31918
-1.35517
-0.50150
-0.05602
0.06995
-0.40885
0.07251
0.52581
0.07744
0.43022
-0.70721
0.33005
0.16260
-0.02904
0.23900
0.40851
0.36348
0.13641
-0.52048
-0.05880
0.14045
0.11565
-0.75302
0.16208
-0.45723
-0.22108
-1.54326
0.41085
0.55628
0.02154
0.14106
0.09569
0.11168
0.03254
0.46619
0.03362
0.05531
-0.00615
0.19135
0.32219
0.57828
0.08713
0.09427
0.23136
0.19937
-0.32786
-0.27525
0.18961
0.12871
0.31413
-0.20030
-0.30540
-0.20694
-0.09397
0.00044
-0.46771
0.40373
0.32356
-0.71129
-0.26248
0.81655
-0.12579
0.13431
-0.14670
-0.98609
0.50573
0.13729
-0.88795
0.03856
0.11356
0.42145
0.02511
0.43766
0.12358
-1.20460
-0.00820
0.05732
0.04486
0.18109
-0.29232
-0.34128
0.09578
0.09897
0.01215
-0.17085
0.21939
0.12836
0.66092
-0.40029
0.42974
0.35364
0.30406
-0.12317
0.27848
0.44486
-0.24728
-1.27679
0.28490
-0.80360
0.50276
0.53632
0.01637
0.03247
0.14435
0.42607
0.08077
-0.38167
0.43331
0.09581
0.39075
0.05706
0.49032
0.11953
0.06227
-0.00397
0.02015
