0.10468
-0.21809
-0.42288
-0.38312
0.06007
0.16071
-0.10561
0.07767
0.01054
-0.15681
-0.30426
-0.61972
-0.33179
0.09520
0.11813
-0.14213
0.04570
0.15027
0.21573
-0.18319
0.14924
-0.62381
0.05540
-0.46154
0.19779
0.14465
0.15163
-0.33619
0.32088
-0.22691
0.08983
-0.38390
0.08047
-0.19791
-0.03641
-0.02081
-0.09567
-0.00804
-0.19282
-0.01060
-1.08851
-0.00357
-0.10347
-0.28157
-0.18596
0.17772
0.17119
-0.47410
0.21417
0.10034
-0.04106
-0.48412
0.14979
-0.24787
-1.26067
-0.38535
-0.16718
0.05210
0.28444
-0.16519
0.17576
0.13153
0.14629
-0.04219
0.19449
-0.17346
0.04018
-0.54164
0.06177
-0.07648
0.24507
0.03863
0.19019
-0.09082
-0.26794
0.28507
0.15399
-0.12909
-0.27503
0.08944
-0.06822
0.17430
-0.00414
-0.18206
0.03356
-0.27759
-0.32519
0.00665
-0.61917
-0.14525
-0.59759
-1.10254
0.61308
-0.01563
0.03754
-0.05821
-0.15388
-0.06351
0.09608
-0.46138
0.12377
-0.49502
0.05336
0.21258
-0.05183
0.11349
-0.09147
-0.14859
-0.21502
-0.29652
0.17017
-0.31469
-0.33908
0.01006
-0.18870
-0.74629
-0.54524
-0.17304
0.19360
-0.16966
0.22675
0.01433
-0.09784
0.15986
-0.80925
0.16348
-0.03579
0.33645
-0.49216
-0.13038
-0.02250
-0.40621
0.16232
-0.55422
0.07001
0.10527
0.22940
-0.03501
-0.31934
-0.73716
-0.40312
-0.19365
-0.00425
-0.02800
-0.00213
0.21727
0.13201
0.15354
-0.12185
-0.48747
-0.05026
-0.26168
-0.05891
0.01818
-0.19313
-1.09736
0.00609
0.13702
-0.25910
-0.06869
-0.34870
-0.10168
-0.60460
-0.00704
-0.68476
0.34576
0.19037
0.15153
0.14308
0.12117
0.06675
-0.29721
0.05283
-0.19288
-0.21625
0.16540
-0.77295
-0.10598
-0.01643
-0.11188
0.32258
-0.57201
0.14394
-0.10581
-0.59671
0.05338
-0.16130
-0.42603
0.09012
-0.21639
-0.14621
0.01329
-0.28807
-0.40039
-0.07605
-0.38532
0.06299
0.20969
-0.96258
-0.81751
-0.05264
-0.43165
0.14433
-0.15762
0.03881
-0.07361
-0.61483
-1.14874
-0.20826
-0.05364
0.26929
-0.24795
0.03307
-0.08859
-0.02029
0.21324
-0.37564
-0.02522
0.09088
0.14272
-0.26717
-0.10995
-0.71312
0.10987
0.09719
-0.02413
-0.14405
-0.46557
-0.17174
0.25598
-0.08302
-0.02584
-0.27217
0.12964
0.17954
-0.07699
-0.00713
-0.17390
-0.58223
-0.08859
0.07112
0.15400
-0.26616
-0.36207
0.19182
-0.01748
-0.24597
0.18678
0.13762
-0.11530
-0.62332
0.33866
-0.30335
0.16718
-0.07793
-0.17899
0.13217
-0.21534
-0.12166
-0.00693
-0.11798
-0.32855
0.14913
-0.20852
-0.09054
-0.09637
0.17127
0.21787
-0.02994
0.02673
-0.30829
-0.77415
-0.48709
0.16272
0.05454
-0.15990
0.15617
0.01940
-0.19885
0.19818
-0.17022
0.16129
0.03613
-0.20719
-0.61117
-0.25438
-0.13510
0.20013
-0.03313
0.17779
-0.11072
-0.07905
-0.10149
-0.84935
-0.01521
0.20980
-0.06379
-0.55436
-0.11586
-0.04105
-0.03880
0.02418
-0.03101
0.07307
-0.30299
0.12214
0.61871
0.13600
0.09238
0.12548
-0.01349
0.09792
0.22078
-0.13796
-0.18970
0.01641
-0.25489
0.03724
-0.13477
-0.13342
-0.12729
-0.16731
-0.47176
-0.03659
-0.11687
-0.53198
0.20175
0.39077
-0.29772
-0.20511
-0.01098
0.13999
0.20473
-0.14927
-0.26039
-0.64420
-0.02396
0.24701
-0.05570
0.12275
-0.07073
0.18422
-0.03083
-0.12978
0.30063
0.18791
0.01961
0.15393
-0.23217
0.25067
0.21388
0.25550
-0.24925
0.13445
-0.17455
-0.45150
0.05014
0.04548
-0.19306
0.30659
-0.11190
-0.10687
-0.64232
-0.30761
0.07446
-0.13332
-0.39707
-0.36442
-0.03728
0.24205
-0.44773
-0.31346
0.16848
-0.58703
-0.11818
0.07611
0.12278
-0.15529
0.01311
0.09959
0.11227
0.28579
0.04867
-0.38924
-0.09392
-0.25603
-0.50904
-0.13113
-0.03176
0.20943
-0.01323
0.10494
-0.42252
-0.04474
-1.19896
-0.56197
-0.14373
0.13393
0.09049
-0.22996
-0.20805
-0.33644
-0.21360
0.19964
-0.10518
-0.15261
-0.07909
0.46112
0.03550
-0.25727
-0.81497
0.06698
-0.02636
0.06831
-0.12857
0.10250
0.23153
0.13366
-0.16599
0.15641
0.07479
-0.31800
-0.22063
-0.00000
0.06842
0.23671
0.21751
0.21331
0.08405
0.18798
-0.06824
0.02679
-0.26980
-0.29393
0.16921
-0.26254
0.08624
-0.08998
0.09901
0.14489
-0.10244
-0.15800
0.14946
0.21822
-0.49794
0.52810
-0.12672
-0.10300
-0.00391
0.14379
0.00935
-0.31696
-0.41889
-0.14237
-0.25296
0.08562
0.14150
-0.47011
-0.38325
0.06839
0.10936
-0.00413
0.11977
-0.09015
-0.02958
-0.19260
0.14188
0.17267
-0.28328
-0.33214
0.09257
-0.41294
-0.59798
-0.11084
-0.12552
-0.05021
-0.11377
-0.04383
0.28573
-0.21592
-0.34189
0.08393
-0.12923
-0.78488
0.18969
-0.33277
-0.06571
-0.21661
0.17852
-0.13318
-0.06898
-0.10887
-0.06903
0.04968
-0.17491
-0.43339
-0.15944
-0.26100
-0.31110
-0.81568
0.10199
0.16282
0.00448
-0.23224
0.11495
-0.39355
-0.37813
0.00431
-0.23931
0.11704
-0.13061
-0.27444
-0.43656
-0.10845
0.27514
0.10641
-0.11589
-0.14382
-0.14627
-0.44570
-0.01870
0.04319
-0.55398
0.22351
-0.24645
0.16542
-0.48171
-0.07589
-0.23446
-0.44533
0.24605
-0.25639
-0.27361
-0.01088
-0.19848
-0.41960
0.09947
-0.20092
0.07003
0.20974
-0.01272
-0.43397
-0.79765
-0.03503
-0.35508
0.19790
0.00512
-0.30956
0.19763
-0.34526
-0.22563
0.23634
0.45640
-0.17299
-0.69043
-0.51830
0.22383
-0.31775
-0.05736
-0.39492
-0.10382
-0.05891
-0.03888
-0.18051
-0.55610
-0.04666
-0.00909
-0.33185
0.21705
-0.05923
-0.40596
0.11567
-0.55443
0.47499
-0.18642
-0.32098
-0.35943
-0.31093
-0.24296
-0.28198
0.00125
-0.08069
-0.03555
-0.79724
-0.73385
0.19362
0.05009
-0.38173
-0.16788
-0.14198
0.02028
0.13693
0.36443
0.04180
0.00401
-0.73950
-0.05400
-0.19043
0.13297
-0.13422
-0.13032
-0.03409
-0.19689
-0.10922
0.11204
-0.24030
0.16045
-0.00241
0.08407
-0.42513
-0.05946
0.11239
0.17697
-0.31543
0.01270
0.18165
0.27347
-0.26860
-0.32948
0.03067
-0.20863
0.18844
0.04932
0.15270
0.14226
0.16902
-0.14589
-0.25256
-0.26709
0.14935
-0.04433
-0.84945
-0.31023
0.29777
-0.38534
-0.45915
-0.21877
0.16872
-0.03923
0.19032
-0.08576
0.11311
-0.08770
0.10952
-1.14220
0.15218
-0.28885
-0.26401
0.09781
-0.48062
-0.23548
-0.18065
0.05039
-0.01942
0.25388
-0.06861
-0.14046
0.03929
-0.27797
-0.57774
0.07763
0.00521
0.05613
-0.25873
0.13440
0.09117
0.00388
0.11844
-0.45329
-0.07482
-0.24817
-0.18421
0.04872
-0.33070
-0.44118
-0.31195
0.02924
0.25910
-0.10520
0.05682
0.04030
0.14965
-0.60199
-0.02319
-1.25604
0.08643
-0.15816
0.02913
-0.31812
0.08907
-0.50487
0.04311
0.08028
-0.10121
-0.73830
0.31880
-0.52547
0.30421
0.41719
-0.53382
0.09618
0.08079
-0.02184
-0.25819
-0.36664
0.13959
-0.70266
-0.12744
-0.02514
0.06746
-0.31455
0.05980
-0.39720
-0.13903
-0.44862
-0.10925
-0.06448
0.31012
-0.17833
-0.09161
-0.17642
0.07360
-0.22902
-1.04464
-0.08779
0.34662
-0.12729
-0.15700
-0.61051
0.09999
-0.20981
-0.79588
-0.11233
0.12957
-0.13515
0.12686
-0.06068
0.16294
-0.32529
-0.90565
0.20409
-0.44721
0.32639
-0.35567
0.24513
0.35237
0.10733
-0.11062
0.03248
0.18186
0.14948
0.17572
-0.10351
0.00523
-0.07881
-0.09826
-0.31502
-0.74402
0.01436
-0.00217
0.14596
-0.43860
-0.29309
-0.03518
0.00141
-0.06698
-0.00189
0.29701
-0.39605
0.00335
0.00170
0.18957
-0.39149
0.05720
-0.12619
-0.34068
-0.00094
0.05033
0.12358
-0.27527
-0.31729
0.02151
-0.44540
-0.39888
0.01909
-0.11536
0.15399
0.10428
0.12077
-0.13882
-0.07331
-0.39466
0.21635
0.06402
-0.07588
-0.28167
0.12578
0.03007
-0.10095
-0.41528
-0.23095
-0.03914
-0.07462
-0.58556
0.15975
-0.10168
0.11884
-0.37942
0.17453
-0.08116
0.10864
0.19301
0.17066
0.18793
0.16366
-0.58809
-0.37622
0.18427
-0.02400
0.12849
0.03026
-0.40141
-0.56214
-0.07822
-0.17902
-0.19604
-0.41293
-0.11991
-0.60323
0.10417
0.08671
-0.19910
-0.07629
0.08402
0.11308
0.14578
0.12066
0.27859
0.02627
-0.25071
0.12849
0.05805
0.33962
0.18938
-0.42673
0.01401
0.06632
0.16313
-0.69003
-0.74086
0.20464
0.08640
-0.14474
-0.02829
-0.64882
-0.71833
0.02355
0.04275
-0.06363
0.17545
-0.54545
-0.28087
0.28305
-0.07419
-0.31736
0.15996
-0.25094
0.14251
0.05081
0.17996
0.13353
-0.26004
-0.26902
0.00785
-0.00118
-0.87704
0.10921
-0.15377
-0.36476
-0.12160
-0.24652
0.14246
0.43849
0.06729
-0.07557
0.05585
-0.16438
-0.39233
-0.03636
-0.31270
0.01327
0.12524
0.26210
-0.28590
-0.04192
-0.27192
-0.16364
0.19323
-0.45268
0.16349
0.20542
-0.41028
-0.85034
-0.11101
0.12932
-0.27611
0.15096
0.10691
-0.10250
0.01034
-0.64033
-0.25698
0.06116
-0.25880
0.09715
-0.47034
0.17319
-0.91748
-0.01651
-0.35894
-0.16639
0.07217
-0.97195
0.10727
-0.51107
0.15461
-0.12458
-0.49298
0.12431
0.35307
-0.11237
-0.82915
0.14016
-0.25072
0.29121
-0.17713
-0.21908
0.02841
0.06380
-0.01539
-0.23055
0.10676
0.29294
0.18203
-0.22812
-0.03888
-0.70590
0.21653
0.01827
-0.21561
0.17462
-1.08469
-0.46794
-0.09518
-0.81298
0.26936
0.14389
0.28109
-0.51625
0.16650
0.24970
-1.03577
-0.06606
-0.29236
-0.02860
0.18700
0.14723
0.18061
-0.27411
-0.57259
0.03795
0.11457
0.14545
-0.29799
0.01156
0.05424
-0.04348
-0.34625
-0.14113
-0.22775
0.00058
-0.38764
-0.02653
-0.29653
-0.15318
0.03775
-0.21299
0.14634
-0.23790
-0.86089
0.16691
-0.28057
0.33767
-0.06401
-0.00601
0.10748
-0.13784
0.32664
-0.53320
0.56107
0.27167
0.18878
-0.23505
-0.23503
0.21168
0.37635
0.20245
0.12613
0.44653
0.26537
0.31722
-0.08373
-0.29308
0.17042
0.25945
0.20346
0.16418
0.27953
0.21441
0.20687
0.25448
0.18780
0.22812
-1.17191
0.48425
0.25132
0.21277
-0.06513
0.26468
0.07247
-0.27094
-1.16442
0.28339
-0.37889
0.30049
-0.31833
-0.02179
0.41687
0.34804
-0.42292
0.25105
0.46919
-0.44960
0.29263
0.08616
-1.08526
0.85839
0.32786
-0.02671
0.33446
0.19825
0.16876
0.16434
0.20938
0.25744
0.16606
0.32345
0.19889
0.30256
0.11357
0.47555
0.14928
0.18676
-0.26817
0.16242
0.17094
-0.14676
-0.07840
0.01460
-0.04936
0.11478
0.20503
0.73892
-0.04462
0.26853
0.11616
0.36744
-0.41460
0.00613
-0.18473
0.11073
0.27558
0.17066
-0.04571
-0.18737
0.49898
0.46556
0.54892
-0.97656
-0.73941
-1.08528
0.08002
-0.61486
-0.00698
-0.43841
-0.32856
0.07262
-0.27443
-0.10154
-0.59478
-0.16675
0.47350
0.22287
0.44717
0.35469
0.04114
0.37864
0.15584
0.67409
-0.36861
0.22402
-0.42437
0.26935
-1.71794
-1.22631
-1.49720
0.32169
0.19933
-1.75847
-1.07182
0.33530
-1.12826
0.09907
0.44622
0.11324
0.08603
0.37567
0.30695
0.29945
0.37943
0.52698
0.47643
-1.11275
0.17997
0.30556
-0.37223
0.19156
0.03987
0.25006
0.13145
0.05997
0.00896
0.05455
-0.02326
0.50984
0.20373
0.04839
0.32715
0.14612
-0.02852
0.33265
0.25928
0.64485
0.23584
0.42654
0.51017
-0.01945
-0.02852
0.12825
-0.29495
0.21387
-0.41921
0.82682
0.13430
-0.57097
0.34114
0.37394
-0.38436
0.23805
0.33473
0.24338
0.26546
0.41408
0.49360
0.17318
0.06742
0.12958
0.07446
0.16706
0.25888
-0.05586
0.29294
-0.45566
0.30652
0.13125
0.51742
0.24134
0.08719
0.28394
0.33207
0.37334
-0.33963
0.00991
0.03257
0.29912
-0.13458
0.43312
-0.84698
-0.22647
0.17553
0.18784
0.13817
0.39409
0.06439
0.18383
0.00813
0.15897
0.04921
0.23453
-0.01980
-0.17361
0.38974
0.11741
0.30453
0.13820
0.25343
0.27267
0.24290
0.32008
0.09681
-0.11516
0.00774
-0.02133
0.25853
0.24631
0.22899
0.20728
0.14311
-0.06148
0.00721
0.22988
-0.36461
-0.02926
-0.12901
-0.33757
-0.37314
-0.07843
0.48491
0.68038
0.03438
0.07635
-0.48427
-1.02843
0.21401
0.10302
0.24267
0.45975
-0.44387
0.42131
0.12888
-0.22750
-1.34307
0.14509
0.28994
0.24074
-0.34351
0.31791
-0.72522
0.04712
0.13987
0.12681
0.18259
0.22816
-0.36517
0.45072
0.12228
0.08990
0.07852
-0.12413
-1.30696
0.52218
0.19275
0.59779
0.11889
0.74638
-0.67214
0.14964
-0.41230
0.33651
-0.55280
0.27051
0.00472
0.03320
0.20094
0.27974
0.44493
-0.61498
-0.28579
-0.44499
-0.34159
0.03774
0.37661
-0.83444
0.22472
-0.78313
0.09151
0.08359
0.17958
-0.63435
0.37318
-0.06985
0.08426
-0.42590
0.30664
0.12048
0.26771
-0.38691
0.37564
0.12335
-0.69458
-0.36294
-0.13973
0.25067
0.40745
-0.99095
0.69562
0.65778
0.53914
0.23650
0.34602
0.30569
0.43045
-0.90280
-0.57895
-0.44612
-0.07988
0.33993
0.16829
0.38901
0.29821
0.09993
0.38851
0.30771
-0.05068
0.26724
0.28814
0.10028
0.78463
0.24060
-0.26461
0.48873
-0.29877
0.08086
-0.17084
-0.06954
0.07028
0.20388
0.34470
0.27709
0.39843
-0.43332
0.21278
0.28121
0.39418
0.13170
0.40209
0.11756
-0.91284
0.07978
0.35747
0.20029
0.02031
0.04617
0.43404
0.45094
0.32084
0.29720
-0.19602
-0.31961
0.34178
0.27332
-0.44824
0.04867
-0.41033
0.35824
-0.02119
-0.06602
0.26635
0.50164
0.46885
-0.31975
-0.00485
0.53839
0.83843
0.22630
-1.08795
-0.13645
0.12519
-0.42151
0.33496
-0.09921
0.08909
0.12035
-0.02863
0.50659
0.11066
0.09975
0.16305
0.15850
0.00961
-0.07187
0.50969
-0.42697
0.45314
0.23808
0.37059
-0.08467
-0.61883
0.33213
-0.39762
-0.01347
0.09930
-0.65762
-0.69061
0.51822
0.11071
-0.15349
-0.30259
-0.27053
0.23103
-0.46263
-0.12636
0.07470
-0.46369
0.20647
0.03619
0.27266
-0.13455
0.19425
-0.71926
0.37169
0.26875
0.13222
0.06802
0.38583
0.35069
0.44616
-0.63365
0.25016
0.70706
0.27507
0.33495
0.04634
-0.28916
0.23190
0.34488
-0.03657
-0.71647
-0.65228
0.48176
0.39259
0.46574
-0.04716
-0.09000
0.37545
-0.68842
0.30337
0.30636
-0.65896
0.21251
0.18099
0.34714
0.30941
-0.16502
0.11421
0.24363
-0.20999
0.47872
-0.13339
0.12993
0.22516
0.27867
-0.49459
0.25181
0.47160
-0.30885
0.01463
0.38297
-0.03975
0.26384
0.23049
0.32937
0.24681
0.16017
0.15279
0.50357
0.03883
-0.40663
-0.34017
0.77813
0.05576
0.42165
-0.04681
0.72441
0.44326
0.20525
-0.76508
0.26828
0.24099
0.21143
0.10825
0.10194
0.26708
0.40895
0.57573
0.41689
0.20721
-0.40793
0.05857
-0.03091
0.21919
0.10242
0.35149
0.40876
0.08095
0.24853
-0.48677
-0.43296
-0.03222
-0.07321
-0.42267
0.38864
0.22107
0.12037
0.17201
0.30736
0.01360
0.51575
0.13387
0.08265
-0.39211
0.81638
-0.28688
0.41115
0.43184
0.15806
0.03364
0.28492
0.44926
0.44632
0.29985
0.15425
0.61427
0.43553
0.28155
-0.38466
0.42613
0.29448
0.23830
-0.16898
0.55531
0.01419
-1.19129
0.41476
-0.07541
0.11155
0.35429
0.03284
0.47350
-1.27069
0.10519
-0.71357
0.08599
0.10152
0.43404
-0.21534
0.44305
-1.00841
-0.37102
0.31331
0.47567
0.57035
-0.38693
0.16548
0.19340
0.15464
-0.38947
0.02376
-0.04914
-0.36528
0.10281
0.01745
0.37917
0.09306
-0.05332
-0.21592
-0.38755
-0.09772
0.35965
-0.04773
0.50299
-0.54987
0.31390
-0.74806
-0.21177
0.25491
-0.94568
0.05994
0.21574
0.05423
0.22562
0.45562
0.26385
0.20811
0.13982
0.17096
0.17635
0.01258
-0.42416
0.70521
0.15460
0.28460
-0.05092
0.28711
-0.58560
0.29865
0.16379
0.32600
-0.63462
-0.13625
0.29890
0.38445
0.47778
0.46226
-0.89380
-0.08136
-0.76651
0.17213
0.28829
0.17804
-0.73396
-0.32540
0.30020
0.26861
-0.26610
-0.41909
0.13038
-0.29432
0.19228
-0.06176
-0.32733
0.01037
0.48173
-1.29160
0.42284
0.20405
-0.12949
-1.11660
0.18882
-0.38768
0.28186
0.64817
-0.03144
0.09544
0.23888
-0.16984
0.09622
-0.29388
0.07012
0.19022
-0.01316
0.37259
0.32809
0.14833
0.37327
0.45023
-0.43598
0.15884
0.32823
0.25691
0.11142
-0.28523
0.22762
-0.13907
0.22211
-0.87460
0.85603
0.25776
0.42008
0.01821
-0.34640
0.19718
-0.08260
-0.22831
0.14470
-0.22412
0.08314
0.31365
0.52796
-0.67227
0.78098
0.07379
-0.00926
0.47457
0.30185
0.38300
-0.26939
0.11656
0.04801
-0.14653
0.22715
-0.36679
0.05862
-0.05881
0.32986
0.29937
0.25798
0.25087
0.09732
-0.26117
-0.45085
-0.23137
-1.30447
0.37423
0.21767
-0.32808
0.26131
-0.48604
-0.48729
0.15650
-0.04779
-0.25498
0.37693
0.16212
0.20581
-0.36645
0.21629
0.26600
-1.03292
0.06543
0.62554
0.05590
0.55238
-0.04163
0.67443
-0.94649
0.03751
0.22127
-0.38638
0.09440
-0.38837
0.38676
-0.51608
0.17728
0.09202
-0.41457
-0.35744
0.40613
-1.27394
0.50432
0.25500
0.51163
-1.21672
-0.20255
0.28139
0.32567
-0.33696
0.26806
0.36615
-0.99431
0.81682
0.49436
0.45508
-0.16666
-0.24871
0.43166
-0.34504
0.43851
0.29012
0.11901
-0.43353
-0.42509
0.33472
0.16866
0.32217
0.44357
0.36117
0.37803
0.11053
0.56487
0.47865
-0.05199
0.39517
-0.51408
0.20738
0.14054
0.14445
0.19292
-0.80492
0.09799
-0.55332
0.04917
-0.05089
-0.26632
-0.70340
0.13423
0.25449
0.31335
0.21982
0.16182
0.01061
0.50159
-0.40471
0.18773
0.71486
0.22588
0.27206
0.13451
0.13134
0.30614
-0.86506
0.37393
0.28687
-0.79017
0.03105
0.53019
0.48292
0.20715
0.45121
0.32313
-0.26752
-0.09420
0.24484
0.28413
-0.68868
-0.12423
-0.54526
-0.19853
0.30157
0.14432
-0.23140
0.03331
0.33277
0.09622
0.56324
0.17062
-0.22887
0.26538
0.10038
0.14759
-0.38063
-0.70976
-0.55575
0.25597
-0.09073
0.17276
-0.34984
0.40846
0.36378
-0.00033
0.19954
0.77307
0.12761
-0.53303
0.09980
0.11372
0.40014
0.39711
0.33771
0.24958
0.36567
-0.30164
-0.17852
0.35450
0.07891
-1.08847
-0.41722
-0.06440
-0.10478
0.24810
-1.21513
0.10531
0.13468
0.30837
0.17604
0.12343
0.25139
-1.30176
-0.39548
-0.03842
0.26470
0.19626
0.12431
-0.19892
-0.81400
0.20842
0.00576
0.42850
0.13210
0.16686
-1.09969
0.12866
-1.46953
0.04827
-0.27760
-0.62006
0.24446
0.22506
0.53214
0.31522
0.59234
-0.31977
0.08982
-0.71314
-0.00188
0.46431
-0.34587
0.54139
0.50261
0.25914
0.14815
0.14753
-0.11700
0.00148
0.14991
-0.00755
0.13865
0.77798
0.36260
0.47162
0.08879
0.17263
-0.23481
0.11883
-0.39200
-1.39383
-0.14173
0.25584
0.46373
0.01928
-0.01926
0.22592
0.20825
0.30736
-0.22707
0.39947
0.17442
0.76603
0.19572
0.09818
0.06719
0.27416
0.13031
0.08213
0.43967
0.18824
0.24673
0.09255
0.24237
0.19865
0.19543
0.16342
0.37020
0.24911
0.33434
0.06977
0.31343
0.04371
0.19404
0.45473
-0.27155
-0.38328
0.37434
0.09936
0.47749
0.07636
0.47621
0.35543
0.37215
-0.04212
0.31801
0.46131
0.26364
0.25034
0.20103
0.20523
0.24412
0.31672
-0.35830
0.39841
0.12723
-0.29461
-0.02117
0.48418
-0.08988
0.40742
0.05215
-0.37240
-0.03678
-1.02151
0.07079
0.71795
0.33015
0.41953
0.49410
-0.05494
-0.41582
0.25184
0.14380
0.18309
0.23106
-0.51917
0.18780
0.38422
0.32289
0.43916
0.18113
-0.18873
0.00201
0.43457
0.28429
0.31607
0.43137
0.31714
-0.02318
0.29388
0.29240
-0.67098
-0.28820
0.43557
0.39241
0.25647
0.24450
-0.03328
0.11790
0.28938
0.33715
-0.01024
0.38506
0.63964
0.66638
-1.03598
0.50453
0.10163
0.30625
-0.66021
0.02923
0.23254
0.39961
-0.39008
-0.66188
0.34672
0.28815
0.31582
0.45460
0.72195
0.35559
0.32130
-0.38605
0.30527
0.07637
0.22923
0.73657
0.39941
0.04062
-0.76366
-0.10996
-0.07495
0.05635
0.04171
0.39619
0.31952
0.32986
0.36269
-0.38926
0.36656
0.17284
-0.44615
0.18167
-0.48487
0.34396
0.35654
0.48189
0.23586
0.44408
0.28745
-0.23865
-0.61077
-0.11848
0.30711
0.34462
-0.49156
0.16691
0.24566
0.42304
0.42272
-0.00450
0.13376
0.09234
0.08526
0.23256
0.20441
-0.00274
0.12972
0.44832
-0.03186
0.40266
0.24692
0.21564
-0.43922
0.20849
0.28525
0.06444
0.25581
0.19715
0.10971
0.24839
-0.17942
0.39083
0.11380
0.49843
0.64583
0.41552
-0.29062
0.19426
0.22841
0.04629
0.69218
0.38858
0.31197
-0.16840
0.31565
-0.09878
0.71086
0.43952
0.65350
0.37561
-0.03095
0.32960
0.11303
0.09567
0.23918
0.29521
-0.49046
0.14134
0.21555
0.02297
-0.09668
0.09862
-0.67054
0.41714
-0.03490
-0.58124
-0.08570
0.03329
0.24268
-0.68040
-0.64029
0.34073
0.58006
-0.67058
-0.41452
0.02218
0.23052
0.18611
-0.47414
0.37581
0.43294
0.21291
0.15417
0.04594
0.40419
-0.97239
0.41802
0.00488
0.33242
0.07421
0.13215
-0.09612
0.47724
0.40950
0.25439
0.27604
0.45042
-0.17697
0.09634
0.23736
0.37994
0.31718
0.31721
0.19678
0.27751
0.59027
0.25983
0.21125
0.05686
-1.14617
0.32217
0.36125
-0.44557
0.02147
-0.79629
-0.29540
0.25136
0.21428
0.22119
-0.54925
0.38157
-0.39011
0.15953
-1.02454
0.16755
-0.09824
0.23361
0.36155
0.48035
0.40781
0.45568
-0.34404
0.19044
0.18476
-0.44183
0.24087
0.34515
0.36528
0.28169
0.09317
0.22922
0.15350
0.37517
0.14860
-0.41951
-0.38017
0.16484
0.58930
-0.08633
0.08694
-0.87768
-0.98484
-0.36499
0.11177
0.15852
0.10873
0.43024
0.12551
-0.23894
0.39411
0.12631
0.11258
-1.24262
0.48677
0.15685
0.15466
0.19644
0.23434
0.28233
0.27897
0.33662
0.17150
0.33354
0.37148
0.20296
0.22807
-0.20602
0.35507
-0.10173
-0.15230
-0.87889
0.72466
-1.03057
0.32472
0.24141
0.31359
-0.39905
0.25962
0.23500
0.17562
0.21461
0.13374
-1.15201
-0.27672
0.39653
0.22900
0.19269
-0.06407
0.02602
0.23944
-0.27958
0.16337
-0.19943
-0.37551
-0.09108
-0.90943
0.14815
0.21289
0.24517
-0.12587
0.03714
0.29542
0.12674
0.01758
-0.43226
0.37784
-0.27637
-0.15888
-0.62512
0.14557
-0.24429
0.07185
0.24407
-1.10272
0.47593
-0.45242
0.43841
0.05017
0.77951
0.33381
-0.07073
0.04936
-0.84133
0.35138
0.71254
0.53040
0.25930
0.43013
0.25511
0.46188
0.49904
0.19739
0.36987
0.31331
-0.57846
-1.73156
0.24215
0.18724
-0.27044
-0.01256
0.23306
0.04648
0.23386
0.43987
0.14060
-0.26583
-0.35406
-0.10289
0.21124
0.17892
-0.06347
0.09246
0.48223
0.28503
0.32127
-1.09413
-0.26982
0.23443
0.10640
-0.61480
-0.93296
0.10712
0.13539
0.51444
0.13624
0.21744
0.13679
0.43100
-0.36064
0.42712
0.64482
0.28052
0.77667
-0.03764
0.30233
-0.71649
0.33620
0.36676
0.31187
-0.08321
0.29169
0.19685
0.27788
0.01256
-0.33536
0.25999
0.30015
-0.52141
-0.40726
0.11175
0.09474
0.26314
0.66874
-0.49357
-0.05427
0.31129
0.33869
0.12775
-0.23424
0.05384
0.01636
-1.16805
0.29229
0.27634
0.10546
0.34204
-0.29062
-0.62428
0.09609
-0.47093
-0.42459
-0.00710
0.28275
-0.26583
0.46792
-0.35550
-0.14710
0.00628
0.37772
-0.67339
-0.46434
-0.30808
-0.28531
-0.07415
0.37280
0.22489
0.49516
0.38180
0.41016
0.52589
-0.58199
0.21770
-0.70786
0.12422
0.21291
0.18525
-0.48097
0.15973
-0.10423
-0.17769
-0.34564
-0.36385
0.61978
0.41905
0.19056
0.03559
-0.27183
-0.18114
0.13073
0.49960
0.34446
0.33088
0.29031
0.23441
0.32411
0.45688
-0.45421
-0.42252
0.28728
0.28710
-0.40283
0.36854
0.21243
-0.69393
0.36345
-0.43335
0.46950
0.08943
-0.10351
-0.04205
0.13605
0.81275
-0.10589
0.37218
-0.01909
0.06908
0.28388
0.68822
0.19435
-0.38508
0.27455
0.14882
0.11674
0.00002
-0.25229
0.25740
0.27603
-0.42975
0.20233
0.34186
-0.33311
0.24610
0.27844
0.28449
0.17756
0.16456
0.11614
0.31635
0.40611
0.14843
0.15849
0.18041
0.18892
0.79252
0.09289
-0.40108
0.09882
0.06644
-0.46068
0.19292
-0.40435
0.14271
0.55889
0.11530
0.15072
0.43041
0.22317
-0.13592
-0.08230
0.05707
0.40392
0.24702
0.05777
0.28787
0.07125
0.50952
0.65987
0.37463
0.09336
0.04935
-0.20687
-0.59029
0.17510
0.57539
-0.04367
0.28328
0.14759
0.02515
-0.00661
0.13329
-0.24698
0.43846
0.34233
-0.96703
0.55165
0.28034
-0.04967
0.08607
0.11592
0.42364
0.25295
0.26686
0.37702
0.41609
0.21037
0.43494
0.32936
-0.56642
0.31142
0.24268
0.33799
0.07633
0.21644
0.32665
0.14034
0.17431
0.67333
0.44264
0.00175
0.24781
0.24245
0.39996
-0.25002
-0.42079
0.30890
0.21019
0.57737
0.23976
-0.55127
0.13197
0.07431
0.19361
0.19531
0.17957
0.09701
-0.98634
0.15963
-0.94741
0.01601
0.45695
0.17142
0.10130
-0.37754
0.01033
0.20284
-0.27622
0.35551
0.20528
0.46747
0.12818
0.31140
0.17527
0.17270
0.34437
0.45548
0.26835
0.35372
-0.50811
0.60985
0.30491
0.27895
0.33056
-0.06943
0.26927
0.31166
0.38876
0.26661
0.22879
0.19568
0.33624
-0.01554
0.13093
0.19116
0.46587
0.41330
-0.47777
0.35306
-0.03424
-0.00809
-0.57346
0.12936
0.25833
-0.07822
-0.08973
0.10563
0.15738
0.18855
0.19650
0.20128
0.10335
0.44502
0.39465
-0.73311
-0.21923
0.02237
-0.29268
-0.11761
0.16041
-0.14108
0.36412
0.23172
0.18002
-0.23443
-0.06602
0.29761
0.40843
-0.01960
0.37367
0.13815
-0.39010
0.04613
0.11428
0.26852
0.03917
0.22410
-1.07390
-0.24838
0.11193
-0.30969
0.04175
-0.48771
0.40599
0.10003
-0.42539
0.24008
0.01273
0.09928
-1.07794
0.27278
0.33502
0.17812
-0.49286
-0.77477
0.15275
-0.12018
-0.71997
0.23847
0.03293
-0.34580
0.08552
0.28366
-0.49348
0.27312
0.02224
0.11098
0.33467
-0.03588
0.37093
0.12282
-0.96045
-0.35586
0.24463
0.44216
-0.15030
0.23418
-0.64662
0.34499
0.15462
0.28719
0.15089
0.48669
0.10967
0.37005
0.04690
0.52296
0.32865
0.26078
-0.19203
0.32772
0.29312
0.00210
-0.02841
-0.39042
0.32330
0.08193
0.07880
0.15287
0.23448
0.42086
-0.21185
0.22722
-0.34254
-0.54223
0.55054
0.00597
-0.42830
-0.70752
-0.45118
0.15864
0.24341
-1.23532
0.12732
0.13482
-0.34865
-0.42395
-0.20990
0.37795
-0.24234
-0.83200
0.07622
0.29884
0.11790
0.44756
0.15636
0.44253
0.60120
0.09293
0.16867
-0.34287
0.13019
0.41752
0.45325
0.02131
-0.62189
-0.02088
0.34291
-0.56799
-0.14155
0.39761
-0.05751
0.13427
-0.40948
0.75139
0.06077
0.74270
0.56836
0.26780
0.21868
0.41604
0.29040
0.26186
0.27326
0.07933
0.03628
0.08350
-0.00334
0.46672
0.14605
0.26568
0.25473
0.46588
0.50526
0.33477
-0.51891
0.06623
0.14675
-0.06640
-0.14349
0.10184
0.32177
0.26260
0.06518
0.52411
0.19096
0.06921
0.42248
0.17128
0.23772
0.26216
0.06486
-1.02321
0.45434
0.24918
-0.49351
-0.38006
-0.19423
0.62626
-0.29382
0.19275
-0.11578
0.39611
0.15247
0.23210
-0.82467
0.12129
-0.39928
0.12261
-0.00578
-0.68978
0.21776
-0.02161
-0.08997
0.49521
0.12426
-0.97910
0.36240
-0.50174
0.10614
-0.35865
0.13405
0.13029
-0.26126
0.05200
-1.41736
-1.79785
0.18502
0.31864
-0.10108
0.21516
-0.54244
-0.91172
0.28893
-0.63954
-0.13345
0.11405
0.34355
-0.38730
-0.29501
0.19962
0.13535
0.15185
-0.39133
0.00523
-0.30523
0.20077
0.04214
-1.08428
-0.37042
0.26923
0.13127
0.48283
-0.56394
-0.67350
0.30783
-0.87823
0.29070
-0.84302
-0.33860
-1.39795
0.14149
0.35176
0.20831
0.57607
-0.44337
0.28801
0.43776
0.15104
0.54127
-0.04493
0.43511
-0.21962
0.30805
0.55999
0.08910
-0.26456
-0.71585
0.37127
-0.29096
-0.03422
-0.19398
0.10303
0.49689
0.32493
0.57765
-0.65922
-0.67710
-0.34262
0.42000
-0.51232
0.06248
0.17871
0.45784
0.24793
-0.13362
0.56352
0.15777
-0.83024
-0.05615
0.73526
0.09224
-0.22983
0.47827
-0.31021
0.43536
0.36268
0.12168
0.67187
0.10396
0.11489
-0.43729
-0.06971
0.17716
0.13528
0.13294
-0.10377
0.63559
0.37809
0.60197
0.54687
0.00488
-0.06575
0.63839
0.86045
-0.09894
0.50343
0.51940
-0.05161
0.27496
-0.04749
0.76175
0.55413
-0.06751
0.37881
0.47449
0.63228
-0.67858
-0.64554
-0.60500
0.57608
0.11442
-0.01065
-0.44505
0.25174
-0.62966
-0.01525
-0.06125
0.12918
-0.06481
-0.07089
0.37047
-0.63267
-0.31948
0.07817
0.01807
-0.00519
0.64457
0.23331
-0.04440
-0.09465
-0.53419
0.27383
-0.05017
0.25983
-0.39581
0.44216
0.10675
0.45931
0.41841
0.31039
0.32181
-0.75439
-0.98849
0.23548
-0.45383
0.17695
0.39710
0.22365
0.04852
0.27616
0.45033
0.09045
0.13667
-0.16636
0.29806
0.32098
0.29477
0.45111
-0.50487
0.11451
0.19641
-0.05029
0.19397
-0.77919
0.26618
0.01593
-0.33215
0.11745
-0.27953
-0.01966
-0.29491
-0.07235
-0.19725
0.06459
-0.50636
0.30932
-0.86146
-0.26779
0.11120
0.13663
-0.22344
0.08969
0.22814
0.41592
0.25246
-0.10280
-0.19877
-0.02154
0.30674
-0.05345
0.17393
0.07194
0.18896
0.14450
0.32368
0.31962
-0.09072
0.38543
0.13183
0.21144
0.21951
0.16696
-0.27168
0.21017
0.29087
-0.25630
0.12035
-0.35395
-0.99667
0.27395
0.64533
0.03817
-0.56850
-0.48039
-0.74446
0.15601
-0.44855
0.30446
0.14321
0.11883
0.06459
0.23160
0.36173
-0.29196
0.19551
0.24716
-0.17889
0.43680
0.27452
-0.09324
0.13917
-0.27886
0.34379
0.22162
0.07944
0.32449
0.25111
-0.08999
0.12524
0.27570
-0.03340
-0.71123
0.13576
-0.43072
0.02106
-0.09104
0.02764
0.27474
-0.29668
0.07939
-0.25104
0.41474
0.06318
0.24327
-0.41342
0.41208
-0.18808
0.30053
-0.62014
0.10553
-0.59420
0.59952
-0.02754
-0.08702
0.31969
0.04290
0.19167
-0.57904
-0.07572
-0.36340
0.65473
-0.01024
0.13841
-0.05458
-1.02904
-0.44275
0.18862
-0.00113
-0.16265
0.19382
-0.11441
0.08682
-0.41356
-0.62782
0.11256
0.21548
-0.25448
0.14941
0.35614
-0.77582
-0.08503
0.12492
-0.20948
0.57931
0.36410
0.09915
0.64737
-0.20338
-0.13096
0.28794
0.20942
0.13140
0.33445
-0.69116
-0.38713
0.11572
0.21367
0.09708
-0.37508
0.06026
-0.64999
0.23580
-0.06154
-0.04608
0.21378
0.13449
0.22302
0.46176
-0.40695
0.53214
0.51934
0.10025
0.33020
-0.33303
-0.42177
0.33077
0.17566
0.18804
0.42618
0.18123
0.51203
-0.15831
0.33800
0.24003
0.27035
-0.42662
-1.38959
0.32457
0.48841
0.41617
0.68844
0.18027
0.11384
-0.20813
0.14296
0.12188
-0.03382
0.17510
0.39878
0.05999
0.51541
0.24470
0.72821
0.66421
0.28119
0.79376
0.17573
0.72834
-0.01172
0.09548
0.09756
0.01724
-0.11139
-0.10975
0.11015
0.19448
0.64260
0.23757
-0.09044
-0.43463
-0.11891
0.20205
0.12450
-0.07960
0.10107
0.05456
-0.79308
0.55216
0.32054
-0.22000
0.33026
-0.26511
0.07739
-0.63404
0.16344
0.14008
-0.31899
-0.95221
0.52982
0.27615
-0.25612
0.19153
-0.19776
0.38736
0.26997
-0.17320
0.25663
0.37093
0.07418
0.00131
0.50875
0.30668
0.60086
0.25322
0.15746
-0.14627
0.33245
0.33385
0.16755
0.25120
-0.69244
0.08470
0.44772
0.31195
-0.00231
-0.01933
0.17191
-0.16076
-0.09190
0.29104
0.17290
0.01816
0.08681
0.77959
-0.14745
-0.34356
0.23489
0.09007
-0.05869
0.16428
-0.41241
-0.45486
0.63004
0.20471
0.27930
0.21478
0.57634
0.15755
-0.22951
0.49638
0.07333
-0.35013
-0.32056
0.57294
0.16362
0.36188
0.33987
0.25317
0.51477
-0.03787
0.24387
0.34331
-0.38100
0.06079
-0.24197
0.26468
-0.65187
0.09934
-0.20791
0.16426
0.11180
-0.33959
-0.39065
-0.22688
-0.03330
0.26309
-0.54561
0.00003
-0.12756
0.35931
-0.10630
0.26603
0.37699
-0.37108
0.46138
0.72021
0.01348
0.39914
-0.00374
0.55290
0.15603
-0.90325
-0.25038
0.18974
-0.32737
-0.34798
0.21580
0.35653
-0.86937
0.11998
-0.56191
-0.33304
0.17290
0.15647
0.29313
0.10140
0.24796
0.04873
0.04890
-0.36892
-0.29591
0.16499
-0.43397
0.18209
0.34511
0.28691
0.04430
0.32227
0.02875
-0.01290
0.18001
-0.81103
0.11817
0.16975
-0.01396
0.18933
0.31442
-0.79920
-0.51746
0.39185
0.31656
-0.17255
0.42492
0.14981
-1.16612
0.15194
-0.58653
0.47731
-0.80272
0.21831
-0.76704
0.32187
-0.22946
-0.16220
-0.08690
0.16826
-0.41666
-0.07269
0.24437
0.26768
0.03784
-1.19529
0.27886
0.18513
0.32166
0.31377
-0.04892
-0.04779
0.54311
-0.02777
-0.12913
-0.81254
0.29696
0.14187
0.38422
-1.12317
0.25280
0.38600
-0.36611
0.21035
0.38244
0.28008
-0.24984
-0.36288
0.27325
-0.84532
0.36407
0.16546
0.44836
0.30652
-0.11776
0.10282
-0.44137
0.14640
0.38424
0.35073
0.25424
0.03905
0.25352
-0.13130
-0.57255
-0.59835
0.20984
0.14174
-0.04052
0.26579
0.02034
-0.04193
0.21892
-0.53919
-0.17953
-0.47541
-0.25289
0.26143
0.61690
0.17129
-0.20329
-0.48158
0.12553
0.25270
0.24021
0.47540
0.46686
0.11975
0.14045
0.26908
0.05823
-0.68964
0.13216
0.10785
-0.67170
0.30267
-0.31915
-0.18442
0.13200
-0.24165
0.61379
0.13812
0.46310
-0.08571
0.39913
0.05692
0.25626
0.24842
0.36099
0.28890
-0.97860
0.12334
-0.62324
0.26963
0.32950
-0.77103
-0.73666
0.28165
-0.54818
0.29402
0.21027
-0.37447
0.36320
0.53747
-0.71854
0.01130
0.30018
0.07673
0.36182
0.45087
0.14771
-1.44030
0.24334
0.41899
0.26655
-0.77753
-0.84313
0.49396
0.11427
0.27446
-0.79001
0.14381
0.29970
0.27489
0.12584
0.01658
-0.06784
-0.32044
0.48872
0.25266
0.46578
0.21162
-0.06495
0.69793
0.04498
0.17589
-0.40175
0.23707
-0.45055
0.05443
0.41781
-0.31208
0.11908
-0.27952
0.30245
-0.61646
0.14146
0.41478
0.31539
-0.33237
0.24913
0.37903
-0.17007
0.29185
-0.45329
0.12609
-0.11815
0.46120
0.20585
0.34808
0.07815
0.42003
-1.08680
-0.11162
0.09429
0.16146
-0.66825
0.17495
0.03099
0.25796
0.29619
0.43106
0.52638
-0.80301
-0.50290
-1.17000
-0.37151
0.48663
0.11286
0.36505
-0.54911
0.33450
0.35246
0.14446
0.53133
0.16666
0.59636
-0.09090
0.00865
0.17542
-0.52433
0.22079
0.27130
0.24171
0.01520
0.12369
0.47819
-0.18473
0.07674
0.57366
0.59523
0.07534
0.29012
0.05307
0.07313
0.43170
-0.18567
0.15004
-0.74127
0.16620
-0.03180
0.24159
0.34340
-0.08736
0.23595
0.26485
-0.07441
-0.26804
0.12148
0.64222
0.16531
0.32571
-0.38516
-0.77426
0.44094
0.47558
0.29538
-0.10085
0.59498
-0.34014
-0.26079
0.29304
-0.64376
0.42247
0.46846
-0.34448
-0.35540
-0.18504
-0.03794
-0.22111
-0.68650
-0.39414
-0.08975
-0.15721
-0.48024
0.00335
-0.26887
0.33458
-0.10727
0.49691
0.24781
-0.42858
0.38460
0.12973
-0.47248
-0.05524
-0.27260
0.32360
0.10710
-0.56227
-0.28877
-0.38728
0.07273
-0.10291
0.42702
0.24138
0.38240
-1.27824
0.16808
-0.17205
-0.15113
0.03097
-0.07256
-0.38231
-0.04101
0.07476
-0.93887
0.11254
-0.32924
-0.11869
-0.73076
-0.09954
0.29701
0.17253
0.18292
0.39011
0.43286
-0.24173
-0.17209
0.43336
0.06059
0.12472
0.08635
0.55479
-0.09367
0.01758
-0.12993
-0.07906
-0.31750
0.00691
1.05290
-0.01497
0.00298
-0.25188
-1.68410
0.17286
0.20618
-0.12682
0.06950
-0.19821
-0.12819
0.22984
-0.13035
0.02055
0.51545
0.16621
0.49699
0.18571
0.14070
-0.13930
-0.09555
0.43497
0.26292
0.35696
-0.98143
0.11042
-1.41262
0.39594
0.04095
0.09638
-0.79055
0.37439
-0.43743
-0.89300
-0.09754
0.23104
0.05928
0.03438
-0.85859
0.32326
-0.81727
-0.12493
-0.46019
0.02541
0.13554
0.34434
0.12125
-0.34914
0.34521
-0.16018
0.07080
0.43196
0.36745
-0.39764
-0.04431
-0.27756
-0.00709
-0.02496
-0.30783
-0.56017
0.45792
0.42138
0.67638
0.22190
-1.00026
-0.09252
-0.49817
-0.65428
0.11035
0.17756
-0.41739
-0.26902
-0.60035
-0.71009
-1.13214
-1.16961
0.57856
0.34405
0.16423
0.14205
0.49908
-0.32156
0.09379
0.07061
-0.42661
-0.58118
0.57279
-0.27059
-0.42343
0.17551
0.26733
0.14289
-0.11134
0.46085
0.23188
0.13480
0.18097
-0.39830
0.33582
0.26455
0.07125
-0.99826
0.36842
0.22006
-0.75255
-1.11644
0.41557
0.23775
0.20872
0.01618
0.11860
0.44579
-0.48734
0.68600
0.26509
-0.01256
0.34033
0.40644
0.43421
0.70218
0.32808
0.34833
0.14104
0.17785
0.43485
-0.76913
-0.00691
-0.14040
-0.56331
-0.02588
0.11595
0.17649
0.28821
0.27115
0.17841
-0.47356
-0.27717
-0.59907
-0.97226
0.15835
0.29628
-0.26057
-0.35218
0.53227
0.25466
-0.84987
0.21427
0.48282
0.01632
-0.41581
0.16118
-0.21976
0.37037
-0.49254
0.35088
0.15019
0.18102
-0.00190
0.21232
0.31189
0.12440
0.36178
0.40838
-0.23491
0.20565
-0.28961
0.06910
0.01706
0.04719
0.37096
-1.18416
-0.63476
0.33196
-0.09993
-0.10207
-0.75161
0.33754
0.45032
-0.01513
0.43777
-0.18567
-0.28548
-0.36194
0.35040
0.24604
0.38189
0.27783
0.18177
0.38279
-0.02204
-0.46529
0.18764
0.15166
0.12129
-0.54838
-0.58866
0.13260
-0.26863
0.21386
-0.30629
0.04025
0.01074
-0.75728
0.18685
-0.14052
0.09256
0.02301
-0.26755
-0.11529
-0.01631
0.17010
-0.05310
-0.13153
0.12089
0.23432
-0.69187
0.00295
-0.49303
0.31913
-0.57880
0.12169
-0.31985
0.29860
-0.16962
0.26900
-0.00090
0.64367
-0.60282
-0.04578
-0.13908
0.32260
-0.43712
0.02500
-0.59798
-0.11558
0.35561
0.18219
-0.80060
0.43688
0.78045
-0.52804
0.42423
0.31593
-0.10444
-0.17660
0.15824
-0.16831
-0.00178
0.11719
0.35759
0.74684
-0.72375
0.23212
-0.07607
0.19297
0.14547
-0.19576
-0.89016
-0.62974
0.19124
-1.67974
-0.78132
0.15835
-0.26912
-0.91784
-0.00684
0.30866
0.12565
0.09669
-0.81380
0.14152
0.21522
-0.78390
0.14315
-1.34476
-0.33028
-0.72607
-0.18491
0.55665
-0.11297
0.08615
-0.87432
0.26094
0.23246
-0.86359
-1.34514
-0.29644
0.15888
0.51397
-1.11740
0.19674
0.04378
-0.79189
0.41313
-0.16350
0.41895
-0.05294
-0.66426
-1.14551
-0.78455
-0.28375
-0.02240
-0.48774
-0.47250
-0.65921
0.07934
0.28726
-0.28743
0.20120
0.12502
-0.03486
-0.10338
0.21456
0.71870
-0.26946
-0.05375
0.24256
-0.41283
0.20332
0.11478
0.12506
-0.54518
0.61132
0.14417
0.02377
-0.12552
0.25730
0.38458
-1.23188
-0.31492
0.63467
0.23076
0.14104
-0.54952
-0.43921
-0.23436
0.40779
0.02617
0.07807
-0.32563
-0.42036
0.28049
0.19562
0.22874
-0.73949
0.42750
0.62162
0.36074
0.67267
-0.89172
-0.39658
0.41567
0.05371
0.11086
0.45817
-0.74982
0.43045
-0.69673
0.19916
0.03594
-0.85822
0.14446
-0.08872
0.40534
0.29251
0.17577
0.04888
0.13151
0.07166
-0.60974
0.15640
0.03853
0.10632
0.19290
-0.95450
0.69953
0.42575
-0.57830
0.16094
0.51456
0.31958
0.24041
0.38475
-0.41248
0.07833
-1.18211
-0.08120
0.08936
0.14943
0.08465
0.36784
-0.27028
0.09424
0.18785
0.17342
0.25172
0.14237
-0.44759
0.17749
0.50139
0.14906
0.77066
0.22762
0.18799
0.33067
-0.37055
0.05417
0.43604
0.44741
0.20146
0.13833
-0.12483
0.22339
-0.04488
-0.93118
-0.14971
0.21679
0.02235
-0.10793
-0.32577
0.21026
0.22118
0.02135
0.02925
-1.02821
-0.57039
-0.17653
0.01983
-1.07651
0.26123
-0.24091
-0.79325
0.43924
0.12834
-0.06268
0.18956
0.35931
0.22568
0.75999
-0.42747
0.12078
0.18318
0.39035
0.15411
-0.28273
-0.86528
0.23620
-0.78863
-0.22414
0.78483
-0.40692
0.34739
-0.12706
-0.43830
0.39539
0.34421
-0.18137
-1.15907
0.11530
-0.28325
-0.51323
-0.25030
0.06310
0.16746
-0.91932
-0.22307
0.21030
-0.62484
-0.02103
0.42996
0.27196
0.03358
0.31448
0.08741
-0.86450
-0.27560
-1.12126
-0.33889
-0.53042
-0.74999
-0.24811
0.20890
-0.15346
0.03944
-0.28137
-0.03039
0.46813
0.14348
0.19801
-0.04854
-0.31382
-0.81001
0.38755
0.21297
0.08711
-0.02125
0.22097
0.37851
0.12205
-1.03113
-0.19040
0.14755
0.17573
0.46070
0.07358
0.13316
0.06840
-0.43276
0.09087
-0.58779
-0.19984
-0.15781
0.13788
0.27757
0.47641
0.34131
0.18238
-1.00194
0.34150
-0.21055
0.26805
0.26420
-0.06175
0.44573
0.46856
0.12334
0.01376
-0.22019
-0.59064
-0.25971
-0.78486
-0.10422
0.04353
0.76141
-1.26156
-0.02084
0.13468
0.25325
0.20694
-0.35907
-0.27442
-0.53504
0.16288
-0.02258
0.19953
-0.35888
-1.05477
0.03556
-0.60189
-0.16112
0.77008
0.07863
0.12142
0.05569
0.09043
-0.55593
0.15700
0.32751
0.15926
-0.36823
-0.06433
-0.28860
0.29551
0.50010
-0.63987
-0.86120
0.27955
-0.31590
-0.18897
-0.65509
0.21819
-0.11566
0.93345
0.27086
0.09766
-0.02120
0.11830
-0.49921
0.21899
0.24533
0.05458
0.11710
-1.01297
0.01917
0.10870
0.61405
-0.17811
0.25236
0.42891
0.14109
0.43849
0.08773
-0.34967
-0.68451
-0.23582
-0.08564
0.48110
0.21336
-0.18780
0.40667
0.09213
-0.12150
-1.21452
0.21718
-1.22605
0.27525
0.48238
0.14281
-0.78325
0.52876
0.20508
-0.05816
0.14664
0.35538
0.10619
0.25983
-0.19328
0.67794
0.71207
-0.15343
0.47114
0.14029
0.05925
0.01630
0.17081
-1.02032
0.41171
0.34225
-0.10258
-0.01906
-0.05566
0.13237
-0.11516
0.37893
-0.61075
0.19999
-0.06665
-0.41875
0.11789
-0.01045
-0.45481
-0.35998
-0.00239
0.08631
-0.24978
-0.29217
-1.79003
0.29759
0.08036
-0.06745
0.29514
0.30098
0.21325
0.43553
0.60149
-0.17967
-0.06473
0.07361
0.17457
0.67065
0.03439
-0.30361
-0.04765
-0.21491
-0.45188
-0.96090
0.34788
0.20544
-0.04932
0.09999
0.25077
0.05838
-0.08049
0.26873
-0.10996
-0.37966
0.48112
-0.46761
0.04359
0.18293
0.08629
-0.01013
0.05570
-0.63660
-0.25779
0.25323
0.35954
0.15590
-0.04834
-0.39157
-0.25741
-0.54763
0.28924
0.39847
-1.16054
-0.02057
-1.13133
0.43615
0.07835
0.22771
0.09992
-0.42626
0.39699
0.11984
-0.11773
-0.05355
-0.03275
-0.26749
-0.98458
-1.01306
-0.02019
-0.49288
-0.77265
-0.04143
-1.05481
0.27591
0.02930
0.03426
0.29991
0.57038
0.52380
-0.68514
-0.21093
0.10773
-0.77794
-0.55706
-0.09954
0.40861
0.37546
0.26148
0.17080
0.28148
0.13782
0.37471
0.39720
-0.13842
0.34947
0.20984
-0.00692
0.14376
-0.59619
0.04034
0.08724
-0.33444
-0.90679
0.11337
0.37684
-0.34849
-0.19543
-0.01397
0.52532
-0.62677
0.11657
0.25496
-0.12639
0.33978
0.45439
0.39524
0.13273
0.40641
0.08803
-0.49284
-0.14448
-0.13724
0.03279
-1.08011
-0.12676
0.13359
0.23613
-0.01351
0.08503
-0.99732
-0.38218
0.04677
-0.41937
0.17670
-0.30872
-0.38370
-0.43980
0.49375
-0.13219
0.16031
0.06660
0.16153
0.05859
-0.44746
-0.02083
0.30790
-0.04667
0.13196
-0.07030
0.62170
-0.07283
0.44797
-1.05075
-0.56470
0.13974
-1.06280
-0.05640
0.08769
-0.12880
-0.28760
0.32328
-0.35939
-0.17337
0.25541
-0.46440
0.49659
0.65818
-0.09167
0.48155
-0.38185
0.78358
0.23579
-0.13378
-0.06141
0.18370
-0.45468
-1.01207
-0.12451
0.27213
-0.02116
0.53322
-0.00089
-0.71880
-1.40157
-0.33108
-0.46306
0.17482
-0.43685
0.50588
0.43224
-0.01630
-0.06334
0.18262
-0.36595
-0.77249
0.24085
0.22574
0.49467
-0.97036
0.11704
-0.68740
0.37168
0.11420
0.37940
0.13355
0.07701
0.33566
-0.22826
-0.81232
0.32266
0.14867
0.13056
0.12338
0.65504
0.19233
0.06051
0.19737
0.32257
-0.02008
0.21439
0.53146
-0.32376
0.09637
0.54502
0.14875
-0.41606
-0.36476
-0.33165
0.37806
-0.63043
0.38610
-0.17712
0.04444
0.31913
0.70293
0.24708
-1.31411
0.19259
-0.03075
0.28144
0.52967
-1.13040
-0.10088
-0.26042
0.32803
0.16224
-0.44983
-0.06216
-0.54743
-0.38674
-0.14599
-0.82282
-0.02634
-0.05461
0.12910
-1.58222
-0.29120
-0.28192
-0.47056
-0.32155
0.13058
0.22442
-0.95040
0.38026
-0.48137
0.21171
0.12060
-0.26196
-0.75926
0.25549
0.01420
0.16393
-0.22220
-0.01829
-0.52589
0.23423
-0.56891
-0.28583
0.14950
-0.08248
0.43858
-0.10444
-0.77474
-0.32602
0.20267
-0.92337
-0.19522
-0.34052
0.49115
0.13165
-0.46768
0.36808
0.09508
-0.64757
0.06678
0.29064
-0.29580
-0.14726
-0.02321
0.12810
0.29222
0.33535
0.08231
-1.08763
0.05649
0.24302
-0.45526
0.69419
-0.66112
0.07584
0.46838
0.12344
-0.03328
-0.33312
0.27844
-0.36319
-0.26779
0.53480
0.03266
0.02980
-0.10105
0.33281
0.07269
0.12803
0.28433
0.14669
0.27717
0.36373
-0.90996
0.04663
-0.39237
-0.13684
0.16328
0.25228
0.04418
0.12758
-0.70310
-0.02945
-0.06536
0.01672
0.42617
0.38358
0.19209
-1.58343
-0.53942
-0.81274
-0.27327
0.12772
-1.03294
0.40493
-0.90262
0.19376
0.30463
0.53804
0.16818
0.14939
-1.04781
-0.19160
0.10072
-0.40388
-1.31410
0.34452
-0.06031
-0.39303
-1.16601
-0.17498
-0.22185
0.28053
-1.42840
-0.39742
0.15631
0.55376
-0.33194
-0.21125
0.13711
0.15732
0.14534
0.30882
-0.17623
0.41791
-0.08952
-0.39601
-0.88153
0.33594
0.47736
0.08055
-0.34384
0.15589
-0.02813
0.13972
-0.14329
0.12489
0.36971
-0.03368
0.10399
0.19162
-0.24727
-0.72445
-0.72272
0.11583
-0.27681
0.12631
-0.65407
0.66714
0.17458
0.62988
0.31452
-0.42153
-1.36171
0.30345
0.10183
-0.36883
0.05498
0.12819
0.69928
0.09552
0.31185
-0.31470
-0.82307
-0.23316
0.17554
-0.37132
-0.04936
-0.41373
-0.03549
0.12911
-0.22211
0.21452
0.14844
0.40263
-0.69581
0.25865
0.16221
-0.54944
0.29080
0.23300
-0.00113
0.20684
0.10555
-0.41290
0.44398
-0.50168
0.19550
0.64282
-0.38938
0.02415
-0.09312
0.14309
-0.10500
0.17202
-0.08288
0.14437
-0.29204
0.12258
0.12731
0.09363
-0.36019
-0.24383
0.25084
0.38743
0.12266
-0.28091
0.05333
0.12122
-0.05187
0.31637
0.56118
-0.32455
-0.43475
-0.34668
0.06162
0.49149
0.53119
-0.56639
-0.39914
0.27140
0.08366
-0.75605
0.42522
0.12503
-0.47606
-0.50469
-0.99837
0.17750
0.16942
-0.63998
-0.36222
-0.49278
0.18555
0.30158
-0.39795
-0.69341
-0.88996
0.39471
0.10606
-0.26107
0.14665
0.18835
-0.13444
0.25561
0.39148
-0.31433
0.70473
0.07369
-0.29717
-0.24339
0.61373
-0.34530
0.12337
-0.42999
-0.27273
-0.07315
-0.70404
-0.10602
-0.06012
-0.00980
-0.21005
-0.03057
0.01184
-0.36824
0.33992
0.35631
0.30013
-1.95510
0.05409
0.15627
0.15378
-0.11360
0.24294
0.00070
0.12115
0.13862
0.17080
-0.41760
-0.39149
0.30211
-0.20328
0.26177
0.18422
0.59076
0.18141
0.47657
-0.12119
-0.10378
0.24814
-0.05248
-0.61328
-0.51329
-0.85132
-0.26272
-0.30094
0.35208
0.22784
0.03498
0.30160
0.05284
-0.83961
0.07020
0.18435
-0.10169
0.40523
-0.97427
-0.19935
-0.05669
-0.76366
-0.34664
-0.07539
-0.46770
-0.02325
0.27297
0.37010
0.19362
1.15470
-0.47153
-0.16866
-0.21579
0.66350
-0.71295
0.12332
-0.94158
-0.04783
0.01596
0.24422
-0.62938
0.38200
0.45151
0.17928
0.53110
0.22371
-0.36159
-0.05512
-0.35140
-0.38644
0.45622
-0.13902
0.03814
0.18720
0.13607
-0.08777
0.53317
0.36674
0.33788
0.16726
0.26685
0.15720
-0.40536
-0.10634
0.23346
0.33429
0.05792
0.08608
-0.56849
0.31665
0.09878
0.40763
0.04368
0.36424
0.09701
0.13109
0.12067
0.83159
-0.82902
-0.24351
0.53485
0.43190
-0.82364
-0.16960
-0.12049
0.24509
-0.36883
0.16598
0.29126
-0.35386
0.35970
0.02649
-0.23230
-0.47015
-1.41147
-0.33936
-0.13574
-0.18547
0.16810
0.61071
-0.26505
0.08799
0.08405
-0.11732
-0.53555
0.14315
0.55611
0.16274
-0.34434
0.34410
0.14833
0.18948
-0.13731
0.10069
-0.48141
0.13061
0.07732
0.22877
-0.52540
0.57582
0.07296
-0.37096
0.10915
-0.38969
0.08255
0.09335
-0.22492
-0.27025
0.53785
-0.89053
0.07619
0.14389
-0.15495
-0.75342
-1.26163
0.12658
0.34059
-0.01601
-0.34766
0.26662
0.14694
-0.73686
0.28841
0.22592
0.44986
-0.95876
0.59634
-0.29933
0.56954
-0.33299
0.30749
-0.51298
0.04542
0.16780
-0.07327
0.23661
-0.07070
0.39421
-0.36100
0.26858
-0.34498
-0.31817
0.11431
0.27298
0.17000
-0.75926
0.21491
0.14286
0.18948
0.08210
-0.42415
-0.97399
-0.73684
0.08128
-0.48794
0.08514
-0.63468
0.30685
-0.07205
0.04133
-0.18136
0.12665
0.45464
0.12369
0.30002
0.04707
0.11587
0.08793
-0.04484
-0.08319
0.17497
0.44543
0.18976
-0.41917
0.24481
0.30063
0.30363
0.34633
0.19502
0.51142
0.08013
0.12806
0.15976
0.02155
-0.19980
0.55293
0.05720
0.47982
-0.28341
-0.55094
-0.38171
-0.17859
0.28348
0.16142
0.32174
0.19730
-0.35761
0.19649
0.20128
-1.52480
0.06529
0.63483
-0.31809
0.00313
-0.36427
0.13954
0.45867
0.37768
0.10021
-0.99719
0.16240
-0.29711
-0.62604
0.21456
-0.08437
-0.15725
0.52504
0.52331
0.44124
0.25052
0.05137
-0.30894
0.18898
0.13512
0.02956
0.14320
0.39138
-0.94985
0.00508
0.24393
0.33002
-0.00915
-0.27276
0.35891
0.34225
0.28183
-0.27781
0.24487
-0.33584
0.08175
-0.96461
0.10671
0.20305
0.50517
-0.18528
0.16035
0.15062
0.23256
0.30913
-0.18373
-0.38891
0.15386
-0.33123
0.48637
0.22413
0.30262
-0.29060
0.52638
0.09811
0.11269
0.08115
-0.48021
-0.39257
0.04598
-0.15639
0.11977
-0.19471
-0.81991
-0.40687
0.10375
0.10398
0.13652
0.12460
0.20395
0.13283
0.10544
0.09182
-0.33136
0.18521
0.09653
-0.50019
0.15856
-0.02884
-0.17350
-0.21616
0.36382
0.30043
0.15785
0.53625
0.18417
-0.70238
-0.70189
0.12129
0.10523
-0.14785
-0.28683
0.24375
0.06350
0.33909
0.30308
0.21488
-0.01116
0.27318
-0.02829
0.84202
0.05762
0.02946
0.13315
0.39294
0.37460
-0.52440
0.40800
-0.49810
0.25436
0.16894
-1.65026
0.27939
0.53130
0.38041
0.17477
-0.02980
0.08391
0.08751
1.04243
0.05806
-0.65342
0.57438
0.00642
0.27070
-0.81023
0.34427
0.35142
-0.58683
-0.01670
0.23686
0.40271
0.09434
0.30295
-0.18080
0.01989
-0.13312
0.24616
0.45906
-0.19785
0.21136
-0.42066
-0.41244
-0.96082
-0.05107
0.08545
0.01399
-0.15360
-0.04058
0.11761
0.23249
0.10063
-0.54455
0.02814
0.11021
-0.39521
0.20785
0.00165
0.15399
0.02833
0.44469
-0.87446
-0.37270
0.32650
0.32426
-0.50988
0.46735
-0.99356
0.11726
0.39863
0.10730
-0.04299
-0.25437
-0.40786
-0.79655
-0.15406
-0.09021
0.32312
0.07443
-0.15295
0.30011
-0.12107
0.37470
0.57610
0.14029
0.08611
-0.67508
0.13930
0.15910
0.10614
0.00732
-1.21135
-0.36779
-0.07439
0.39538
-0.05051
0.50969
-0.04438
0.59171
0.14082
-0.52625
0.16172
0.05459
0.16049
-0.01686
0.29814
-1.45381
-0.03798
-0.81862
-0.16623
0.11364
-0.51574
0.13984
-0.49874
0.03661
0.05194
0.38143
0.34795
-0.11641
-0.02623
-0.38619
-0.17799
0.42196
-0.03050
-1.06608
0.10456
0.15351
0.19283
0.62703
-0.55678
0.13050
0.24023
0.24483
0.08381
0.06157
0.00787
0.32094
-0.77993
-0.50374
0.04460
-0.56661
0.22377
0.32703
-0.87100
0.09731
-0.08238
-1.09225
-0.02561
0.04416
0.36619
-0.74838
-0.25518
-0.05021
0.52380
0.61646
0.38514
-0.43187
-0.23264
0.11794
0.03015
0.12898
-0.64644
-0.65807
-0.35149
0.33651
-0.63607
0.37284
-0.08737
0.13494
0.10280
0.09079
-0.20500
-0.04604
0.04602
0.07558
0.09399
0.09260
-0.32021
-0.36550
0.09294
0.07623
-0.14385
0.11840
-0.42377
0.18760
0.44045
0.46293
-0.30949
-1.10053
0.02296
0.07873
-0.15574
0.46715
0.00917
0.05887
-0.76633
-0.08582
0.01075
0.13185
-0.87703
-0.25713
-0.09739
-0.02676
0.27461
0.16204
-0.25042
0.03535
0.13233
-0.28380
0.41325
-0.80364
0.16990
-0.16094
-0.30586
0.32874
-0.52558
-0.80477
-0.01617
0.09549
0.45284
0.18095
0.23821
0.05318
0.04740
0.05884
0.11368
-0.04129
-1.10100
0.09661
-0.69293
-0.26805
-0.05545
0.13370
-0.48443
0.07310
0.57467
0.52556
0.35564
-0.67148
0.23065
-0.23622
0.01751
0.04167
0.17869
0.32826
0.12731
0.05380
0.25292
0.15277
0.31304
-0.87198
-0.50357
-0.09253
-1.34621
0.38674
0.44839
0.04602
-0.45566
0.13629
-0.14635
0.29431
0.00873
0.07865
0.04992
0.28891
0.03525
0.67278
0.06787
0.20250
0.12868
0.32802
0.14912
-0.06392
-0.27403
0.13357
0.20372
0.06911
0.25729
-0.32503
-0.05835
-0.07905
-0.36527
0.22795
0.27705
-0.70018
-0.17340
0.77084
-0.11074
0.37515
-0.16680
-0.92214
0.40530
0.15005
-0.77630
0.19597
0.02412
0.12912
0.42446
0.02025
-1.09455
0.16427
-0.16430
-0.30628
-0.26644
0.27894
0.11167
-0.05283
0.26551
0.69419
0.38775
-0.98423
0.33091
0.32565
-0.71248
-0.06649
-0.05961
0.38390
-1.31419
0.30113
0.08862
-0.66281
0.13108
0.10745
0.60280
-0.03417
0.46179
0.04227
-0.00698
0.12665
0.34682
-0.37291
0.41569
0.09174
0.34848
0.41436
0.29091
0.52489
-0.02403
0.16110
0.03290
0.15438
0.07632
