0.03301
0.13845
-0.76020
0.05804
0.11866
0.17776
-0.09543
0.09813
0.01631
-0.09431
-0.20386
-0.59141
-0.33857
0.17396
0.15343
-0.04633
0.18956
0.33789
0.29167
-0.12746
0.23149
-0.53541
-0.02277
-0.82763
0.21395
0.15018
0.15800
-0.32649
0.21090
-0.21884
0.12458
-0.29301
0.00933
-0.25372
-0.00680
0.23240
-0.27879
0.37922
-0.17947
0.08969
-1.23236
0.04471
-0.11779
-0.56626
-0.12904
0.19388
0.19767
-0.46402
0.24062
-0.06633
-0.03427
-0.48524
0.25023
-0.14881
-1.06470
-0.20016
-0.04928
0.08133
0.17080
-0.18906
0.19200
0.09929
0.17989
0.06398
0.11867
-0.10840
0.16437
-0.04842
0.06947
-0.02097
0.27494
0.05838
0.29073
0.17335
-0.20974
0.22262
0.10426
-0.04073
-0.22035
-0.03576
-0.02327
0.15016
-0.00085
-0.10445
0.00084
-0.29571
-0.17896
0.11391
-0.43963
0.07060
-0.77745
-0.66849
0.73383
-0.05074
-0.16104
-0.04041
-0.22094
-0.08004
0.00662
-0.50216
0.11759
-0.37567
0.00378
-0.00509
-0.06046
0.10738
-0.52869
-0.02123
-0.38556
-0.09401
0.32183
-0.31854
-0.44788
0.00205
-0.09406
-0.59437
-0.50740
-0.32277
0.22216
-0.16416
0.26316
0.12100
0.01492
0.10194
-0.36844
-0.63847
0.19876
0.01429
0.07009
-0.30626
-0.09998
0.06013
-0.25981
-0.01274
-0.54907
-0.15185
0.18774
0.34263
-0.04749
-0.33256
-0.41726
-0.42329
-0.18836
-0.11355
0.23768
0.05971
0.17014
0.00289
0.04019
-0.06522
-0.48057
-0.03563
-0.17006
-0.19209
0.07897
-0.22274
-0.75339
0.07212
0.12953
0.00612
-0.23809
-0.16656
-0.09391
-0.48890
0.01187
-0.63881
0.23808
-0.47799
0.18673
0.16825
0.07168
0.12616
-0.33535
0.04453
-0.20089
-0.20632
0.09647
-0.75516
0.14309
-0.39125
-0.08334
0.33906
-0.44754
0.16204
-0.19713
-0.37978
-0.00331
-0.19542
-0.05879
-0.40815
-0.25017
-0.14813
-0.01113
-0.07488
-0.36101
0.00684
-0.00740
0.05089
0.02568
-0.92734
-0.67863
-0.14851
-0.24000
0.20436
-0.15971
0.13804
0.08825
-0.55607
-1.22028
-0.23045
-0.03141
0.33600
-0.42132
0.06276
-0.11714
-0.11046
0.15818
-0.35163
-0.06864
-0.22974
0.14925
-0.03913
0.07729
-0.48927
0.01201
0.16213
-0.01986
-0.22662
-0.34531
-0.08947
0.21410
-0.08175
-0.18624
-0.04324
0.17220
0.21333
-0.16847
0.00446
-0.09352
-0.58020
-0.28662
0.33312
-0.13379
-0.15347
-0.27262
0.16213
-0.08827
-0.16665
0.10538
0.02416
-0.30341
-0.67896
0.30075
-0.12057
0.18421
-0.03755
-0.13256
0.19461
-0.41987
-0.11549
-0.07966
-0.09686
-0.34109
0.15588
-0.36969
0.09976
0.08453
0.16504
0.07223
-0.05771
0.12712
-0.19476
-0.27294
-0.62425
0.09669
0.03697
-0.31777
0.20232
-0.00006
-0.14342
0.22670
-0.10196
0.23679
0.11880
-0.02924
-0.36561
-0.12676
-0.61099
0.33420
-0.01102
0.18107
-0.10061
-0.08561
-0.10471
-0.57286
0.15152
0.25843
0.05862
-0.62316
-0.17086
-0.09508
-0.03111
-0.06176
-0.07110
0.29000
-0.04477
0.16739
0.48251
0.11302
0.12634
0.19385
0.10900
0.14341
-0.31808
-0.06024
0.04045
0.20273
-0.16992
0.12264
-0.12752
-0.07699
-0.08809
-0.28934
-0.03369
0.06032
-0.03269
-0.73740
0.25357
0.46390
-0.23057
-0.21034
0.06583
0.13266
0.14672
-0.18581
-0.14986
-0.70678
0.02462
0.20679
0.06275
0.09434
-0.05865
0.15339
-0.03288
-0.46152
0.18449
0.20362
0.08682
0.16308
-0.13966
0.11592
0.24906
0.26636
-0.48100
0.21446
-0.04712
-0.27188
0.06699
0.06711
0.11914
0.18912
-0.05663
0.28822
-0.52338
-0.15135
0.13395
-0.13553
-0.51496
-0.26631
0.01426
0.29445
-0.51566
-0.18889
0.18513
-0.92233
-0.18419
-0.49598
0.09561
-0.03698
0.05426
0.12064
0.05825
0.25811
0.04629
-0.16532
-0.03909
-0.19981
-0.55422
-0.08420
-0.23889
0.21336
0.19354
0.21831
-0.46215
-0.02190
-0.96762
-0.82629
-0.15058
0.16402
0.12858
-0.24884
-0.25897
-0.30921
-0.22412
0.18669
-0.17037
-0.24500
-0.14537
0.39982
-0.04884
-0.33109
-0.72789
0.19227
0.17206
-0.03111
-0.09006
0.24762
0.34001
0.16758
-0.15169
0.22018
0.03377
0.13033
-0.64927
0.05008
0.02259
0.18094
0.24738
0.28994
0.09901
0.23102
-0.10135
-0.06368
-0.32137
-0.07872
0.16264
-0.08870
-0.00910
-0.12452
0.13524
-0.23590
-0.29533
0.23581
0.21012
-0.21723
0.65455
-0.07178
-0.16371
-0.14254
0.19758
-0.12058
-0.24557
-0.35954
-0.03831
-0.14215
0.14071
-0.15366
0.19196
-0.47526
0.03979
0.13167
0.01279
0.22421
0.02080
-0.02686
-0.18471
0.14748
0.17143
-0.50788
-0.31281
0.10574
-0.34021
-0.63443
-0.22311
-0.17600
-0.21719
-0.43226
-0.12958
0.24171
-0.12433
-0.39846
0.04692
-0.34158
-0.60481
0.05212
-0.31356
-0.01089
-0.21006
0.21173
-0.06066
-0.05149
0.34818
0.12896
0.13317
-0.07516
-0.30660
-0.35398
-0.12440
0.05585
-0.55799
0.16307
0.07846
0.23455
-0.27502
0.11509
-0.34851
-0.34245
0.07944
-0.15865
0.16289
-0.20872
0.33896
-0.52500
-0.10420
0.20208
-0.10054
-0.09148
0.14133
-0.09932
-0.34026
-0.01063
0.07049
-0.45304
0.22675
-0.27761
0.30400
-0.68048
-0.10927
-0.13290
-0.20291
0.23952
-0.09316
-0.67235
-0.00404
-0.09445
-0.40730
0.06252
-0.11664
0.15522
0.19371
0.00493
-0.57887
-0.64670
0.09685
-0.27464
0.21709
-0.02048
-0.34524
0.04056
0.00325
-0.02047
0.24841
0.34224
-0.11908
-0.45820
-0.52500
-0.10450
-0.10746
0.05430
-0.40638
-0.07150
-0.10115
-0.10882
-0.18353
-0.34093
-0.04791
-0.07925
-0.00410
0.22803
-0.09527
-0.35533
0.09392
-0.82443
0.26828
-0.15082
-0.16732
-0.31265
-0.47110
0.02671
-0.25218
-0.06340
0.15417
-0.04746
-0.53668
-0.61187
0.59189
0.05485
-0.32463
-0.20566
-0.20604
-0.03918
0.20913
0.42205
0.08050
-0.10348
-0.14736
0.04025
-0.19206
0.24992
-0.20093
-0.04695
-0.01703
-0.05498
-0.11559
0.18963
-0.09439
0.07673
0.04851
0.07734
-0.37787
-0.05547
0.19711
0.17445
-0.73570
0.10845
-0.04930
0.31986
-0.27544
-0.37953
0.05391
-0.24337
-0.15096
0.00146
0.13633
0.34105
0.20482
-0.13924
-0.37571
-0.34848
0.19899
0.10203
-0.93147
-0.24735
0.15732
-0.23351
-0.60601
0.09678
0.19900
-0.12210
0.20763
0.06236
0.37139
-0.06385
0.01053
-1.43520
0.16853
-0.52672
-0.12683
-0.17445
-0.36981
0.16254
-0.15415
0.09303
0.04129
0.14040
-0.14552
-0.16129
0.03287
-0.31465
-0.67847
0.28573
-0.07035
-0.14740
-0.27454
0.08494
0.25791
0.17514
0.03339
-0.68957
-0.11556
0.12868
-0.20578
0.03597
-0.21959
-0.46750
-0.36367
-0.26898
0.25271
0.09150
0.02730
0.15286
0.14005
-0.65071
0.04718
-1.10467
0.16025
-0.04100
0.11992
-0.32379
-0.11668
-0.05815
0.18970
-0.21558
-0.13508
-0.48961
0.25910
-0.47260
0.34301
0.28308
-0.42455
0.14441
0.12314
0.07758
-0.19949
-0.45796
0.18456
-0.79282
-0.10268
0.06084
-0.10513
-0.51559
0.10239
-0.38794
-0.10902
-0.39116
-0.25349
-0.08468
0.42426
-0.20186
0.02745
-0.15295
0.19576
-0.12361
-0.71131
0.05180
0.43769
-0.07993
-0.21297
-0.28664
0.11224
-0.15220
-1.16404
-0.04172
0.19630
-0.15460
-0.08832
-0.01574
0.18412
-0.22396
-1.05997
0.19511
-0.07769
0.28734
-0.32775
0.36111
0.36096
0.06334
0.12681
0.08596
0.19018
0.16156
0.19477
0.19011
-0.06902
0.05997
0.02702
0.16514
-0.33340
-0.63535
0.02287
0.07375
0.17674
-0.35193
-0.22492
0.04031
0.01925
0.01265
0.14777
0.29583
-0.35701
-0.03537
-0.04081
0.18324
-0.21795
-0.02524
-0.03033
-0.45856
0.03559
0.04265
0.17989
-0.31237
-0.00204
0.15523
-0.34273
-0.27147
0.04270
-0.09604
0.15650
0.21592
-0.02708
-0.38218
-0.00382
-0.23094
0.29293
-0.02918
-0.07396
-0.21809
0.17499
0.11116
0.07191
-0.19779
-0.25032
0.02426
-0.19240
-0.19037
0.25126
-0.11981
0.16704
-0.25427
0.10306
-0.08632
-0.02695
0.19042
-0.02906
0.21655
0.20237
-0.07648
0.16477
-0.59881
-0.00148
-0.21205
0.03931
0.05764
-0.43393
-0.03546
0.05481
-0.00360
0.00396
-0.37795
-0.21638
-0.47092
0.18241
-0.03236
-0.25357
-0.10466
0.31771
-0.35772
0.18612
0.09626
0.05852
0.03648
-0.09658
0.17449
-0.03705
0.42205
0.31197
-0.45583
0.00158
0.07102
0.12846
-0.54897
-0.51402
0.16274
0.09058
-0.29694
-0.04345
-0.70701
-0.66671
-0.27045
0.14671
-0.06161
-0.28932
-0.38914
-0.27424
0.06900
-0.10404
-0.20143
-0.25235
-0.36585
0.27759
0.01178
0.15524
0.11855
-0.21961
-0.05851
0.15788
-0.75219
0.08591
-0.29900
-0.37572
-0.23295
-0.07556
0.10405
0.13641
0.14218
-0.07002
-0.00141
-0.03620
-0.40971
0.02976
-0.14051
0.02370
0.11141
0.20245
-0.33598
0.10468
-0.27839
-0.34155
0.28605
-0.05948
0.17667
0.20847
-0.30817
-0.66147
-0.06731
0.18458
-0.26974
0.26958
0.07926
0.03403
0.07646
-0.61450
-0.07751
-0.33011
0.11273
-0.30604
0.20929
-0.22072
0.14505
-0.26034
0.08405
0.16392
-0.78171
0.27190
-0.51830
-0.26733
-0.34703
-0.58622
0.16306
0.54341
-0.18179
-0.82739
0.13261
-0.64263
0.18717
0.04368
-0.20148
0.03020
0.15446
0.09688
-0.27305
-0.24158
-0.00332
0.17934
-0.20025
-0.06166
-0.82357
0.28125
0.10464
-0.12947
0.22511
-1.01086
-0.41797
-0.44219
-0.63508
0.19353
0.09924
0.49066
-0.48510
0.02566
0.15596
-0.86539
0.01284
-0.41115
0.13835
0.10701
-0.21962
0.15452
0.13792
-0.53645
0.14143
0.04093
-0.02409
-0.30877
0.05359
0.02677
0.10602
-0.32429
-0.26928
-0.08329
0.06842
-0.49502
0.02661
-0.33466
-0.32878
0.12929
-0.09491
0.15961
-0.25487
-0.38978
0.18598
-0.29851
0.27455
-0.17724
-0.00398
0.15637
-0.24738
0.34319
0.16731
0.04382
0.51800
0.17779
-0.31592
-0.31874
0.21545
0.38721
0.17404
0.18003
0.18371
0.22963
-0.29478
0.18840
0.49716
0.12029
0.19399
0.22862
0.17944
0.42720
0.30387
0.20245
0.20751
0.48645
0.53783
0.20987
0.18175
-0.14792
0.30446
0.22555
0.08275
-1.25538
0.17590
0.35809
0.31180
-0.38833
0.40541
0.03668
0.42684
0.33496
0.39597
-0.40768
0.39435
0.46448
-0.28806
0.30100
0.03109
0.84051
0.21696
0.24766
-0.11779
0.40941
0.30405
-0.32537
0.15718
0.16109
0.24317
0.15379
0.30693
0.31469
0.25386
0.57309
0.14982
-0.33598
0.22572
0.17831
-0.06569
0.43649
-0.05519
-0.05554
0.07667
0.28737
0.18171
0.10745
-0.53519
0.62687
-0.07806
0.22577
0.13516
0.31930
-0.38044
-0.34578
0.20004
0.18454
-0.12475
-0.25262
0.54333
0.44938
-1.05683
-0.75424
-1.01352
0.11487
0.07153
-0.63220
0.06174
0.11143
-0.28735
-0.54112
0.13194
-0.23475
-0.82589
0.14152
-0.84031
0.58119
0.24720
0.57196
0.28423
0.27263
0.14977
0.53594
-0.39393
0.15584
-0.50283
0.28928
-1.58079
-1.15482
0.05458
0.24044
-0.52360
-1.90389
-1.12074
0.39376
-1.13863
0.15457
0.04996
0.08231
0.65182
0.41369
0.32847
0.34673
0.27062
-0.28321
0.42948
0.33648
-1.03783
0.17732
0.40113
0.04008
0.26610
0.08725
0.03452
0.54377
0.26836
-0.02540
0.03020
0.19889
-0.02136
0.48475
0.01669
0.21388
0.40746
0.32440
0.18698
0.33875
0.32656
0.68315
0.59560
0.14980
-0.22587
0.55304
-0.13186
-0.04282
0.16942
-0.41575
0.10627
-0.33320
0.84759
0.35780
-0.61040
0.27954
0.35828
-0.43687
-0.17674
0.29178
0.50371
0.49257
0.10804
0.06374
0.16252
0.02925
0.06001
0.18357
0.01959
0.36192
-0.41373
0.36377
0.06056
0.52544
0.50199
0.12880
0.17901
0.24432
0.38422
0.24508
0.07837
-0.21677
0.44736
0.17646
-0.00364
-0.40973
0.14446
0.10527
0.06693
0.21640
0.02486
0.21844
0.01252
-1.08216
-0.69965
0.17238
0.14429
-0.36601
0.39125
0.09963
0.24627
0.13432
0.31609
0.41142
0.00334
-0.52709
-0.01497
0.07016
0.34713
0.26905
0.30016
-0.10565
0.20190
-0.09773
0.05372
0.35043
-0.14019
-0.10417
0.03930
-0.53064
-0.21219
-0.24684
-0.07249
0.33480
0.53225
-0.05946
0.04098
-0.43769
-0.96742
0.26746
-0.30235
0.28566
-0.41333
0.32662
-0.54168
-1.72048
0.28794
0.26196
0.35537
-0.42589
-1.14961
0.44747
-0.70823
-0.03092
0.21195
0.21457
0.12393
-0.61492
0.65970
-0.07320
0.10586
0.05887
-0.30040
0.05457
0.19428
0.18233
0.62719
0.14032
-0.73253
0.18137
-0.50662
0.32539
-0.50299
-1.39497
0.25239
-0.04862
-0.00968
0.29320
0.35149
-0.88430
0.00124
-0.37967
0.62032
0.20281
0.09788
-0.81185
-0.27812
0.13619
-0.40571
-0.85622
0.08896
0.12036
-0.66006
0.37256
-0.57967
-0.41012
-0.37736
0.01990
0.37374
0.04286
-0.82819
0.09814
0.21820
0.44512
-0.06026
0.66325
0.65929
0.66052
0.21584
0.49479
0.27581
0.65922
-0.47122
-0.61937
-0.27318
-0.02336
0.34994
0.36538
0.12189
0.45115
0.39450
0.03557
0.32982
0.22801
0.31751
0.50200
0.24434
-0.69532
-0.30817
0.42475
-0.14124
0.19525
0.20191
0.39786
0.39337
0.38647
0.32694
0.01974
0.15371
-0.94913
0.08849
0.27493
0.21949
-0.33932
0.09351
-0.47198
0.42715
0.55912
0.44479
0.21746
-0.22973
-0.37623
0.30619
0.12892
-0.39623
-0.46377
0.31870
-0.17183
-0.19087
0.06763
0.57299
-0.42047
-0.62172
0.14229
-0.01563
0.42738
0.95548
0.72081
0.28852
-0.44320
-0.99514
-0.01842
-0.42380
0.27492
0.38084
0.10505
0.30759
-0.05878
-0.65331
-0.34182
0.49050
0.16216
0.13160
0.12644
0.01639
-0.00272
0.26580
-0.44801
0.41910
0.29329
0.38896
0.19003
0.29282
0.32445
-0.44981
0.10864
-0.50490
-0.21675
-0.40137
0.47271
0.08084
-0.33171
0.40021
0.05710
0.00030
0.34710
-0.97271
0.11126
0.08984
0.05552
0.18684
0.26869
0.28672
0.15474
0.33498
0.23441
0.19317
0.31553
0.29979
0.45485
-0.61683
0.19308
0.56167
0.72053
0.33645
0.73480
0.20710
0.22651
0.04988
0.32030
0.13269
-0.12158
0.42127
0.33250
0.01328
-0.06392
-0.51269
0.37524
0.35876
0.41712
-0.25138
0.20186
0.36175
-0.18988
0.21153
-0.73118
0.08475
0.19299
0.27813
0.31282
-0.20705
-0.00290
0.22591
-0.29574
0.43305
-0.05752
0.10137
0.03575
-0.42894
0.34965
0.49436
0.07861
-0.02181
0.36818
0.55409
-0.06504
0.14119
0.38942
0.08824
0.20932
0.28759
0.26859
-0.28783
0.34426
-0.39645
-0.25401
0.79548
-0.00533
0.59701
-0.09458
0.16960
0.73060
0.34106
0.14739
-0.72468
0.39011
0.25478
-0.40756
0.22732
0.12174
0.07123
0.09006
0.27950
0.60013
0.27847
0.29820
0.32888
-0.43562
-0.03118
0.06259
0.35933
-0.16920
0.02018
0.13925
0.25432
0.49438
-0.05781
0.39229
-0.36550
0.48168
-0.10339
-0.12650
0.09425
-0.48124
0.27748
0.12155
0.21786
0.17086
0.25782
0.05453
0.40861
0.39419
0.13718
-0.34225
0.63426
-0.36573
0.65620
0.11210
0.47824
0.21132
0.56275
0.41611
0.29494
0.14726
0.58306
0.40810
0.37706
0.13317
-0.34707
0.51736
0.25532
0.20736
-0.00296
0.47047
0.02884
-1.51583
0.31169
-0.36402
0.13337
0.38599
0.03409
0.36301
-1.27737
-0.01933
0.11246
0.18455
0.13135
0.27397
-0.08799
0.43990
-0.45452
0.37188
0.42717
-0.43117
0.17889
0.21823
-0.37008
-0.05232
0.33603
-0.32874
0.00580
0.13576
0.12839
0.17775
0.09871
-0.11938
0.60485
-0.19016
0.39415
-0.07566
-0.55586
-0.51894
0.32585
-0.79951
-0.06153
0.25422
-1.04806
-0.00373
0.04746
-0.09187
0.25700
-0.49532
0.57136
0.12818
0.17519
0.39218
0.06582
0.21939
0.14991
0.19541
0.12848
-0.82881
-0.56249
0.18388
0.24330
0.24892
-0.08410
0.47251
0.14895
-0.49051
0.21897
0.40893
0.48515
0.59075
0.13777
0.33501
-0.86464
0.19127
0.30641
0.27387
-0.75367
-0.37361
0.37432
-0.40404
-0.52723
0.28588
0.17420
0.18853
0.05671
0.13301
0.22708
-0.03779
0.01743
-0.26506
0.10468
-1.19868
0.33670
0.17890
-0.17218
-0.77060
0.08560
0.24340
0.64260
0.07671
0.28220
-0.32796
-0.38729
-0.02368
0.21937
0.24926
0.33823
0.22303
0.42238
-0.35532
0.31626
0.30709
0.31355
-0.16624
0.13382
-0.06214
0.21014
-1.20708
0.70442
0.19725
0.46468
-0.02490
-0.25604
0.27227
-0.08526
-0.14553
0.27604
-0.18937
0.70417
0.02330
0.38062
0.34101
0.38649
-0.58701
0.65500
0.00625
0.12761
0.51535
0.16703
0.39683
-0.19489
0.11529
-0.06631
0.21177
-0.05216
0.15886
-0.21394
-0.27099
0.29810
0.41243
0.30508
0.12265
-0.23726
-0.41670
-0.95490
0.49950
0.16952
0.05653
0.32257
-0.46398
-0.03050
0.23627
-0.14223
0.05833
-0.30952
0.17391
0.26514
-0.45102
0.21178
0.25188
0.07980
0.67543
0.19011
0.63304
0.06178
0.15657
0.53547
-0.99515
0.01661
0.22814
-0.80959
0.04912
0.19499
0.47564
-0.45181
0.13828
-0.43417
-0.40439
0.39429
-1.15742
0.55128
0.16242
0.31326
-1.02593
0.43085
-0.15141
0.39128
0.24243
-0.37931
0.28101
-0.08203
0.72174
0.46486
0.06230
-0.16672
0.13706
-0.37000
0.33753
-0.37892
0.47118
0.35406
0.06843
-0.62258
0.29347
0.06287
0.02864
0.68423
0.37656
0.39145
0.13925
0.55630
0.49596
0.14520
-0.06171
0.40301
-0.57357
0.14739
0.33332
0.38464
0.27056
-0.95644
0.09673
-0.63203
-0.16186
0.14209
0.21417
-0.72888
0.18622
0.32824
0.30061
0.19238
0.14233
-0.10752
-0.00543
0.15953
0.51543
0.24938
0.68136
0.26886
0.41858
0.22768
0.31590
0.30836
-0.92728
-0.89654
-0.00697
0.55548
0.46851
0.14740
-0.36283
-0.11050
0.24346
0.56383
0.48346
-0.57952
0.02753
-0.48529
-0.04077
0.10064
0.08412
-0.76308
0.19798
0.32953
-0.07402
0.48662
-0.19760
0.04038
0.26580
0.31290
0.20929
-0.36559
-0.69848
-0.62679
0.33124
-0.00139
0.20710
-0.80058
0.39519
0.39486
-0.00742
0.33065
0.71896
0.21316
0.09732
-0.36236
0.22875
0.14064
0.25352
0.39872
0.07658
0.19425
0.57345
-0.17622
0.26402
0.43350
-0.09314
-0.12035
-0.20220
0.45223
0.97166
0.10750
-1.26703
-0.38535
0.04807
-0.34816
0.26128
-1.08332
0.08486
0.17459
0.37758
0.03430
0.28652
-1.30560
-0.00642
0.27404
0.17002
0.79584
0.33828
0.11490
0.41915
-0.94768
0.33337
0.12294
0.42773
0.27183
0.28822
-1.34197
0.13318
0.37461
0.03890
0.38141
-0.34854
-0.66864
0.11462
0.16975
0.58397
0.22640
0.15858
-0.20625
0.02899
-0.78190
0.44842
-0.54538
0.16167
0.63657
0.17168
0.32756
0.17268
0.08897
-0.15974
0.23116
0.07610
0.08227
0.30062
0.66276
-0.48892
0.23223
0.49404
0.34506
-0.49545
0.03098
0.21834
0.31494
-0.32678
-1.23669
-0.13191
0.29318
0.46890
0.18677
0.07972
0.17137
0.20402
0.29210
-0.14305
0.49137
-0.14147
0.65016
0.36847
-0.15208
0.04846
0.26990
0.15267
0.03965
0.35157
0.22488
0.27829
0.08813
0.28998
0.37765
-0.06765
-0.01837
0.48069
0.26335
0.17722
-0.61511
-0.48789
0.13366
0.01134
0.30246
0.63203
-0.25207
-0.37294
0.23174
0.15375
0.47038
0.40101
0.09660
0.50734
0.27416
0.32231
-0.72542
-0.19291
0.44014
0.35359
0.32897
0.35493
0.23114
0.28418
0.23588
-0.02599
-0.69064
0.31559
0.01460
-0.23136
-0.02851
0.39783
-0.63324
0.31840
0.17694
-0.04747
-0.88337
0.21527
0.56384
0.53932
0.35526
0.49361
0.12261
-0.03297
-0.33141
0.23866
0.14789
-0.37914
0.43556
0.37019
0.21111
0.31266
0.39923
0.25045
0.45933
0.03815
-0.04497
-0.04943
0.69784
0.08148
0.21968
0.39181
0.14398
0.02553
0.33117
0.08519
-0.49801
-0.29236
0.55477
0.11355
0.18102
-0.05048
0.06123
0.26692
0.37471
0.12959
0.29813
-0.69628
0.59105
0.82392
0.12780
0.00121
-0.65741
0.54856
0.13761
0.41549
-0.60761
0.12681
0.35371
0.40747
-0.31697
-0.64548
0.32355
0.28756
0.27387
0.56472
0.79760
0.01811
-0.47417
0.41852
0.01020
0.31362
0.75309
0.10763
0.36164
0.13132
-0.85174
-0.11758
-0.32722
-0.15961
0.34790
0.00887
0.32350
0.34979
0.36177
0.09970
-0.37479
0.38709
0.42870
0.19161
-0.48374
-0.01586
-0.40037
0.07088
-0.02284
0.26833
0.44379
-0.28774
0.62672
0.29920
-0.10623
-0.77892
-0.02565
0.32707
0.33672
-0.42792
0.32490
0.36260
0.02479
-0.80188
0.32132
0.39461
0.46327
0.25252
0.00484
0.08922
0.20804
0.48865
0.21531
-0.13295
0.14962
0.70270
-0.78496
0.11634
-0.11293
-0.89660
-0.36049
0.15844
0.26019
0.20347
0.30431
0.26309
0.07336
0.30130
-0.07466
0.33490
-0.18445
0.64970
0.47832
0.10154
0.17833
0.25976
-0.55009
-0.04851
0.70663
0.36386
0.25676
0.05286
-0.20791
0.82884
0.41189
0.56353
0.31926
-0.06231
0.41415
0.10922
-0.39213
0.14070
0.32110
0.33107
0.01591
0.18292
0.31248
0.14939
-0.26012
0.22575
-0.63953
0.56034
0.43061
0.30963
-0.60329
-0.32813
0.40781
0.36397
0.17058
-0.65365
-0.71379
-0.47022
0.05024
0.64624
0.56966
0.26681
0.08210
0.19721
-0.49171
0.48300
0.61227
0.17321
0.13126
0.33966
0.09655
0.34757
-1.06517
0.38931
-0.04854
0.35200
0.41949
0.08413
0.08071
0.08700
0.37923
0.07349
-0.37907
0.62091
-0.19884
0.17432
0.33846
0.50418
0.35386
0.31043
0.74724
0.14935
0.40639
0.29856
0.31536
0.13054
0.22832
-1.15646
0.37916
0.21148
-0.48193
-0.79282
0.38274
-0.27243
0.15053
0.61189
0.03290
-0.33902
0.42275
-0.70348
0.29567
-1.24663
0.06582
-0.34381
-0.58051
0.33194
0.22874
0.37115
0.35991
0.37051
-0.33310
0.18040
-0.01160
-0.44588
-0.01157
0.05709
0.27044
0.28634
-0.43836
0.55256
0.28958
0.65556
0.02985
0.23717
0.16715
0.47500
0.34186
0.11365
-0.43859
-0.44474
0.37084
-0.32156
0.51474
0.45266
0.08400
-1.33576
-0.74664
-0.35052
0.08284
-0.83015
0.28806
0.02041
-0.36814
0.34505
0.07231
0.12895
-0.18736
-1.10518
0.36699
0.43746
0.28705
0.10947
0.18709
0.41889
0.19726
0.18155
0.32420
0.41657
0.21847
0.31400
0.15291
0.20693
-0.35119
-0.75105
0.36488
-0.11418
-0.04690
-0.60233
0.65395
-0.46588
0.37727
0.31170
0.24921
0.25407
0.31888
0.17723
0.16588
-1.03737
-0.31609
0.34437
0.30471
0.02802
0.22005
-0.38521
-0.75235
-0.31457
0.15922
-0.11728
-0.33184
-0.30113
-0.73173
0.27391
0.19799
0.25483
-0.03552
0.17111
0.16462
0.40023
-0.03478
-0.15251
-0.58284
0.28338
-0.03388
0.03364
0.02604
0.27812
0.14768
0.43015
-0.07417
0.44684
-0.23179
0.12562
0.62020
0.27400
-0.42102
-0.36063
0.26852
0.47475
0.30876
0.43583
0.22683
0.51698
0.43752
0.20741
0.31600
-0.61354
-1.51815
0.24313
0.14930
-0.13756
0.29746
0.18357
-0.11192
0.26672
0.51377
0.17354
-0.35183
-0.55472
-0.00202
0.20516
0.23407
-0.00568
0.58944
-0.82391
-1.04411
-0.34128
0.67666
0.10706
0.45757
0.14504
-0.64619
0.32444
-1.11971
0.19280
0.02772
0.31927
0.29906
0.14433
0.49261
-0.52970
0.16178
0.22111
0.54294
0.06980
0.29778
-0.59532
-0.36835
0.30508
-0.35118
0.37575
0.23381
0.15272
0.48744
0.22161
0.30048
-0.03309
0.27868
0.10168
0.32895
0.37440
-0.08996
-0.23067
-0.07140
0.21326
0.09000
0.26139
0.82089
-0.35425
-0.01689
0.37455
0.29347
0.47710
-0.40403
-1.20100
0.13701
0.37956
0.45122
0.29433
-0.25763
-0.07783
0.10693
-0.73140
-0.40312
0.01400
0.18983
-0.25155
0.16596
0.04058
-0.11354
-0.11871
-0.01346
-0.41764
0.45986
0.36391
-0.27785
-0.13670
0.42767
0.55252
0.25441
0.41962
-0.74905
-0.86437
-0.22668
-0.32758
0.35387
0.24052
0.16681
-0.56115
0.15315
0.01171
-0.30104
-0.38258
-0.44744
0.73073
0.36893
0.26983
0.04835
-0.22558
-0.14703
-0.79907
0.65261
0.17561
0.47313
0.31276
-0.49232
0.37192
0.32875
0.23298
0.31929
0.52819
-0.48770
-0.48514
-0.23619
0.36894
0.32580
-0.43073
0.58319
0.23274
-0.57138
0.33290
-0.50982
0.26753
0.10749
-0.01216
-0.23077
0.17439
0.68316
0.02195
0.21567
-0.35262
0.31280
0.13176
0.07398
0.04801
-0.22179
0.15645
0.18242
0.20610
0.38202
-0.40025
0.23447
0.24214
0.36125
0.19146
0.16468
-0.06842
0.50577
0.36862
0.19148
0.16257
0.20313
0.34857
0.16956
-0.12573
0.28070
0.17820
-0.48159
0.00476
0.37535
-0.00731
0.60474
0.15624
-0.14338
-0.13834
-0.00258
0.43137
-0.01414
0.38272
0.22052
0.51966
0.57438
0.27168
0.39676
0.20233
-0.23307
-0.15980
-0.62377
0.06234
0.47503
-0.09717
0.12825
0.04695
-0.26648
0.19295
0.02824
-0.01469
0.10559
0.47866
-0.23592
0.46857
-0.25471
0.52844
0.03492
-0.70035
0.27734
0.17223
0.54778
0.07969
-0.01029
0.27073
0.58630
0.22907
0.54301
0.04955
-0.35577
0.22818
0.48177
0.10835
0.24891
0.33170
0.33242
0.20796
0.37538
0.59310
0.55674
0.53993
0.27202
0.17516
0.35822
-0.31383
-0.19135
-0.06245
0.15448
0.22171
0.17994
0.16813
-0.84552
0.09954
-0.88300
0.00532
0.41182
0.16992
-0.00177
-0.41412
0.12061
0.04164
0.45882
0.34728
0.38645
0.20342
0.17022
0.45589
0.11890
-0.68749
0.23365
0.91626
-1.59446
0.32681
0.39627
0.33681
0.43517
0.14189
0.54928
0.33687
0.33540
0.05767
0.36843
-0.05067
0.25679
0.20686
0.37285
0.55462
0.33538
0.09325
0.17587
0.22340
0.11203
0.42104
0.47953
-0.46887
0.38147
0.10889
-0.06582
-0.13384
-0.46731
0.07807
0.38922
0.15007
-0.08614
0.02207
0.05853
0.22139
0.14421
0.41529
0.36501
0.50890
-0.58684
-0.08201
-0.24144
-0.31183
-0.35408
0.21021
-0.13962
-0.12541
0.40881
0.25495
0.15543
-0.26206
0.46661
0.37209
0.22266
-0.07329
-0.00766
0.21147
-0.07594
0.18699
0.04278
-1.05146
0.22326
0.18486
-0.40372
0.04513
-0.13642
0.10757
-0.44093
0.20856
0.42095
-0.15530
-0.03736
-1.07733
0.09685
0.30258
0.06437
-0.43795
-0.59200
-0.36889
0.05293
0.11325
0.13082
0.13807
0.16520
0.34184
0.33265
-0.37998
0.07994
0.10345
0.38278
-0.09463
0.32162
-0.17380
-0.98664
0.16324
0.49229
-0.09812
0.15169
0.22703
-0.62899
0.17950
-0.35536
0.19897
0.39674
0.32555
0.12056
0.36244
0.12220
0.25590
0.42829
0.25488
0.34843
0.22036
-0.29331
0.44949
0.30428
-0.26479
-0.40628
0.48051
0.12690
0.19312
0.57556
0.16540
0.27197
0.45130
0.20649
0.02279
0.23666
-0.38130
0.51430
0.27086
-0.44956
-0.71269
-0.39869
0.28822
-1.07993
0.21908
0.13563
0.22164
0.25208
-0.59080
0.51548
-0.20126
0.35206
0.07489
-0.64256
0.09708
0.11670
0.28674
0.10681
0.37319
0.13492
0.53476
0.49617
0.13200
0.14918
0.19295
-0.34776
0.14024
0.30846
0.45241
0.45698
0.03712
-0.64839
0.02287
0.34937
-0.64012
-0.22380
-0.10081
0.56469
0.29567
0.04307
-0.04805
-0.65268
0.68876
0.29096
0.55092
0.66067
0.17086
0.27304
0.34352
0.32660
0.29297
0.23308
0.00035
-0.00212
-0.06344
0.47553
0.24174
0.26288
0.47234
0.44747
0.48144
0.31576
-0.42264
0.12339
-0.37276
-0.07310
0.05938
0.11002
0.38499
0.34214
0.07734
0.47442
0.41354
0.11957
0.24120
0.17524
0.46646
0.03341
-1.07032
0.19629
-0.39962
-0.36446
-0.20344
0.51122
-0.44158
0.11729
0.36405
0.25373
0.33526
0.35220
-0.84713
0.16175
-0.46698
0.18773
-0.10527
-0.66177
0.16175
-0.11726
0.52763
-0.99195
0.27113
-0.79309
-0.07104
-0.41583
0.13750
-0.23298
0.15761
-1.38041
-1.57800
0.34833
0.19343
-0.04816
0.05018
0.30243
-0.58814
0.25880
0.21964
-0.12951
0.05002
-0.40161
-0.44648
0.16690
0.02873
0.26417
0.09395
0.05212
-0.12710
-0.41540
0.36713
0.17429
-0.98490
-0.40818
0.14820
0.12672
0.13400
0.49651
-1.01351
-0.31477
-0.45642
0.35532
-0.95185
0.35403
0.30181
0.11617
-0.96264
-0.38374
-1.66456
0.14832
0.25130
0.24771
0.03329
0.18589
0.56321
-0.38744
0.14454
0.54299
0.18946
0.40400
-0.04033
0.08399
0.48105
-0.06058
0.39740
0.60700
0.05979
-0.33413
-0.77185
0.36630
0.52050
-0.36502
-0.06991
0.16693
0.07430
0.09324
0.53564
0.51913
0.66589
0.46373
-0.96373
0.11340
0.33092
-0.82562
0.43597
0.51410
0.21843
0.40876
0.18221
-0.14575
0.40663
0.16115
-0.99248
-0.01725
0.85311
0.03045
-0.39319
0.65172
-0.37102
0.29269
0.64030
-0.33284
0.17413
-0.13961
0.14294
0.16100
0.36802
0.01661
-0.10153
0.07510
0.47457
0.32581
0.50639
0.49232
-0.23975
-0.22311
-0.59796
0.67304
0.61273
-0.03591
0.01899
-0.00644
0.44428
-0.24604
0.58778
0.70907
-0.64499
-0.42778
0.07609
0.36304
0.38011
0.50592
-0.93953
-0.90599
0.49114
0.20011
0.06781
-0.39704
0.44264
-0.27132
-0.19145
-0.17640
0.05289
0.11944
0.39792
-0.45715
-0.28039
-0.03072
0.22328
0.01579
-0.04861
-0.43214
0.14570
-0.22474
0.17310
0.38030
-0.01491
-0.67793
-0.45136
0.61533
0.08746
0.27899
-0.36008
0.32367
-0.02034
0.33661
-0.81467
-0.99840
0.27571
-0.43652
0.31550
0.57287
0.21863
0.03614
0.06180
0.31934
-0.00856
-0.15959
0.13755
0.31845
0.28604
0.48320
-0.45328
0.54366
0.15628
0.18750
0.12414
-0.09968
-0.05408
-0.95885
0.06764
0.06315
-0.27487
0.11899
-0.24366
0.10013
-0.14017
0.05811
-0.03546
-0.80231
0.35258
-0.84609
-0.22224
0.11248
-0.28983
0.03992
0.20383
0.24420
0.22248
-0.49041
-0.13000
0.32998
0.07020
0.22274
0.33688
0.44607
-0.05403
-0.16240
0.26741
0.22720
0.19112
0.43559
0.37507
0.31984
0.12249
-0.33616
0.49242
-0.18113
0.22449
0.39514
-0.19805
0.05859
-1.09310
0.26125
-0.08322
-0.02492
-0.48816
-0.49440
0.10403
-0.94002
-0.37062
0.05043
0.19378
-0.02943
-0.43900
0.44420
-0.95113
0.18230
-0.89284
0.10879
0.73880
0.11113
0.18062
0.45929
-0.36801
0.26442
0.24717
-0.40726
0.38789
0.25672
-0.12226
0.17039
-0.33858
0.35733
-0.33433
0.05344
0.11414
0.10413
0.29365
-0.30302
0.11005
0.29077
0.09741
-0.59303
-0.55864
-0.17966
-0.19721
-0.03934
0.26197
-0.26075
-0.43795
0.31514
0.07951
0.25980
-0.31070
0.57647
0.32455
-0.57969
-0.01129
0.30728
-0.82957
0.42240
-0.26455
0.20020
-0.31889
0.13251
0.34256
-0.60381
-0.10123
-0.28631
0.52580
0.28521
-0.04997
0.08511
0.07429
-1.03420
0.10321
-0.12314
-0.09286
-0.24849
0.14775
0.29631
-0.08978
-0.53644
0.04999
0.14303
0.45403
-0.80243
-0.12580
0.18973
-0.09495
0.49233
0.38291
0.19667
0.12774
0.36804
-0.08424
0.23927
0.00287
0.36639
-0.57233
-0.02994
0.12319
0.20218
0.13076
-0.59285
0.21256
-0.23116
-0.39486
0.16069
-0.41215
0.34042
0.34183
0.45483
-0.66590
0.42912
0.03816
0.04838
-0.27040
-0.39399
0.32823
0.28475
0.21761
0.61877
0.28956
0.33454
-0.08519
0.02530
0.21903
0.58378
-1.48596
-0.45198
0.50462
0.18509
0.59469
0.25875
-0.09326
0.18029
0.08011
0.27213
0.08190
-0.01761
0.42037
0.10302
0.80621
0.50421
0.18220
0.73551
0.37207
0.63228
-0.11177
-0.06301
-0.01044
0.39107
0.11246
0.00103
-0.22342
-0.12117
0.09465
0.50715
0.35941
0.08542
-0.43359
-0.19854
0.17599
0.11966
-0.03927
0.10366
0.03510
-0.80321
0.54318
0.33199
-0.22995
0.25968
0.00622
0.10552
0.23616
-0.83132
0.18603
-0.09019
-0.32352
-0.85731
0.59572
0.17837
0.29920
0.27307
-0.28431
0.43765
0.14584
-0.10135
0.10373
0.22406
-0.11678
0.47723
0.01752
0.53857
0.32660
0.50623
0.25539
0.18221
0.30257
0.17854
0.08566
-0.71232
0.30261
0.47528
0.00105
0.06736
-0.17494
-0.07571
0.32133
0.63138
0.19272
0.10548
-0.08000
-0.02788
0.68188
-0.27709
-0.31723
-0.36767
-0.16709
0.12626
-0.60866
0.64108
-0.36935
0.02179
0.10568
-0.28093
-0.06306
0.37946
-1.09753
-0.11418
0.17329
0.51512
0.00593
0.25785
-0.53577
0.26730
0.39829
-0.65356
0.49899
0.27210
-0.19512
0.13428
-0.45092
0.09449
0.28972
-0.11661
0.12688
-0.14087
-0.27359
-0.14380
-0.00418
0.32302
-0.62427
0.08019
0.16074
-0.13489
0.30251
0.03538
0.23776
0.39366
-0.38248
0.40913
0.58563
-0.06170
0.37839
0.00306
-1.18327
0.52028
0.34685
-1.12422
-0.23178
0.32636
-0.41216
0.14119
0.42645
-0.96410
0.27352
-0.57281
-0.07504
0.10743
0.23845
0.27781
0.24928
0.01174
0.10530
-0.07985
-0.23993
0.16958
0.32562
-0.54233
-0.19434
-0.01669
0.27604
0.28397
0.23277
-0.07190
-0.10799
0.24550
-0.34783
-0.08808
-0.01459
-0.08121
0.14172
-0.98766
-0.57900
0.34894
0.29885
0.35648
0.45114
-0.13593
0.37253
0.31966
-0.35492
0.13765
-0.30743
-1.01818
-0.01847
-0.72251
0.32049
-0.85930
0.09274
-0.63329
0.18204
-0.38864
-0.28647
-0.25777
-0.08935
0.19701
-0.48970
-0.08095
0.25146
0.27099
0.25404
-1.21162
0.28209
0.39275
0.19657
-0.19314
0.19287
0.44148
-0.58398
0.14278
-0.81988
0.35749
0.32771
-0.54379
-1.26218
-1.37763
0.23698
-0.24056
-0.40992
0.82578
0.35250
0.46406
0.30209
-0.32464
-0.33851
0.18052
-0.74321
0.33937
0.18242
0.37889
0.29756
-0.33658
0.10284
-0.35581
0.23444
0.35879
0.35539
0.34752
0.21987
-0.38076
-0.54684
-0.22294
0.32670
-0.18246
0.02572
0.19094
0.03879
-0.58250
-0.08032
-0.42332
0.41755
-0.78074
-0.21337
0.41048
0.13386
0.10615
-0.20271
0.20442
0.36802
0.02001
0.57699
0.73300
0.26501
0.12657
0.22080
-0.57746
0.12809
0.30034
0.01259
0.39813
0.10087
-0.38505
-0.15387
-0.09786
-0.00502
0.50372
-0.50567
0.00653
-0.46354
0.48576
0.15652
-1.57482
0.41779
0.27971
0.27049
0.35910
-1.06165
0.17566
0.23501
-0.83330
0.25681
0.23196
-0.79210
-0.86390
0.18645
-0.56178
0.28683
0.22797
-0.17783
-0.18610
-0.41343
0.41868
0.54185
-0.08185
0.40142
0.13936
0.33123
0.48946
0.19609
0.29761
0.46234
0.31186
-0.16274
-0.68296
0.53866
-0.05665
0.05762
-0.80447
0.20583
-0.35534
0.39477
0.27307
0.06804
0.05582
0.08370
-0.39979
0.48268
0.37191
0.27875
0.10308
0.79515
0.04129
0.29745
-0.35774
0.23095
-0.35324
0.33122
0.51596
-0.38178
-0.29093
0.30915
-0.67254
0.20927
0.48069
0.33936
0.46399
-0.34177
0.32743
0.18982
0.30886
-0.16517
0.42769
-0.37364
0.10907
0.13365
0.28149
0.36169
0.15009
0.25343
-0.02012
-1.14392
0.13929
0.15958
-0.64359
-0.00888
0.20254
-0.07750
0.21954
0.48821
0.41417
-0.98425
-1.11426
-0.35089
0.52217
0.14696
-0.49271
0.29337
0.15486
-0.48104
0.35005
0.34780
0.41497
0.07764
-0.00065
-0.19945
0.27661
-0.06059
0.10322
0.16055
0.34303
0.03696
0.10539
0.17155
0.44642
-0.42363
0.03981
0.41639
0.59234
0.31752
0.26266
0.01021
0.28233
-0.13294
0.23409
0.28539
0.72317
0.14836
-0.66821
0.23118
0.02475
0.23080
0.46942
-0.42819
0.29216
0.26327
-0.03388
0.17559
0.52006
0.18957
-0.06199
0.52311
0.25895
-0.80070
0.37690
0.44341
0.44300
0.61184
-0.55528
-0.25621
-0.16648
0.34355
-0.28465
-0.64699
0.31292
0.64510
-0.30154
-1.26011
-0.06060
0.73182
-0.36181
-0.15837
0.34587
-0.75743
0.20700
0.12358
-0.25344
-0.07327
0.02056
-0.44164
0.14373
-0.18366
0.28968
-0.17255
0.45101
0.35673
0.05948
0.16289
-0.52153
0.27787
-0.56421
0.35282
0.44642
-0.38869
-0.35723
0.40469
0.16149
0.17400
0.00414
0.49521
0.29338
0.31411
-1.24135
0.21353
-0.25078
-0.26284
0.11644
-0.01346
0.11046
-0.40599
0.11165
-0.00943
-0.92352
0.24966
-0.32647
-1.09359
-0.13355
0.31194
0.18892
0.07753
-0.70543
0.20721
0.40672
0.31126
-0.29236
-0.12618
-0.26397
0.00298
-0.04997
0.19299
0.12604
0.48917
0.07506
-0.28235
0.09325
1.12363
0.11146
-0.35694
-0.52959
0.08539
0.18609
-0.17655
0.01696
-0.41435
-0.26444
-0.30746
0.32695
-1.53244
-0.06528
0.07624
-0.00511
-0.07272
0.67040
0.09648
0.36252
-0.07001
-0.30759
0.56926
0.32635
0.22002
-0.90657
0.04233
-1.28932
0.30227
0.11004
0.25635
0.11899
-0.75107
0.42234
-0.86388
-0.21024
0.23147
-0.51630
0.02145
-0.73006
0.32894
-0.86166
0.08927
-0.40536
0.04380
0.31544
0.26082
-0.42639
0.47116
-0.33735
0.10470
0.13880
0.09160
0.35908
0.42260
0.02031
-0.37949
-0.26644
0.14117
-0.21588
-0.66894
0.32303
0.51778
0.28853
0.64326
0.19073
-0.91579
-0.24265
-0.45672
-0.59712
-0.47117
0.13455
0.05261
0.04282
-0.40829
-0.36639
-0.55000
-0.67503
-1.17952
-1.17607
0.58098
0.42321
0.07140
0.08545
0.41255
-0.36690
0.07189
0.04661
0.01745
-0.37161
-0.52834
0.51482
-0.15224
-0.43173
0.18301
0.25385
0.19375
-0.11724
-0.07953
0.37040
0.36701
0.13457
0.30642
-0.40630
-0.31329
0.15215
-0.92927
-0.46354
0.26274
-0.38940
0.33436
0.45926
0.33507
0.24167
0.10056
0.14844
0.50401
-0.57014
0.63893
0.35039
0.06598
0.32084
0.35504
0.34266
0.26643
0.36825
0.28301
0.26505
0.34020
-0.76373
-0.02058
-0.36285
0.00322
0.09216
0.10366
0.12182
0.40596
0.13194
-0.27324
-0.58906
-0.41416
0.14208
0.44362
-0.63047
0.26264
0.24262
-0.80765
0.22205
-0.19855
0.10822
-0.37571
0.17010
-0.25413
-0.17840
-0.30534
0.24677
0.37336
0.20635
0.28528
0.24379
0.46578
0.25630
0.35845
0.44071
0.33440
0.19405
-0.04470
-0.00388
-0.18737
-0.96925
0.55210
-0.11685
-0.22814
-0.67251
0.25984
0.58102
-0.10648
-0.01600
0.42793
-0.39535
-0.26361
0.11830
0.40230
0.33899
0.38391
0.37554
0.31809
0.12332
0.35633
-0.24705
0.16209
-0.50327
-0.80316
-0.14798
0.27473
0.17670
-0.35045
-0.05955
0.07188
0.15317
-0.51775
0.17903
-0.24962
0.36190
0.03429
-0.85708
-0.33709
0.06286
0.13293
0.19099
0.05803
-0.20412
0.09083
0.28637
-0.62378
-0.09313
-0.89068
0.13128
-0.58554
-0.24529
0.21445
-0.29578
0.23940
0.22437
0.02329
0.57329
-0.61480
0.00191
0.23920
0.29612
-0.06629
-0.48017
0.10819
-0.62498
0.13672
-1.54224
0.71509
0.15047
-0.79395
0.36507
0.69627
-0.73574
0.19817
0.21370
0.45213
-0.12204
-0.42621
-0.10248
0.03851
0.35262
0.62748
0.22889
0.22460
0.14674
-0.11642
0.14027
0.23297
-0.08734
-0.44045
0.03762
-0.81196
-1.67270
-0.81888
-0.49125
-0.32975
-0.99110
0.14618
0.41484
0.11958
-0.12199
0.38470
-0.97824
-0.04294
-1.02133
0.16308
-1.68613
-0.29090
-0.10401
-0.35395
0.62231
0.03583
-0.86473
0.32649
0.27512
-0.90082
-1.21884
0.13029
0.51982
0.34598
0.32306
-1.33555
-0.61667
0.17158
0.24805
0.02956
-0.78297
0.47705
0.01427
0.54121
0.11016
-1.16233
-0.33687
0.12447
-0.43193
-0.62532
-0.09694
-0.10985
0.28465
-0.33740
0.17855
-0.18513
-0.04165
0.25541
-0.18344
-0.34070
-0.31521
0.04628
-0.33948
-0.01674
0.44113
0.23270
0.15031
-0.55846
0.51949
0.13976
0.14001
0.26869
0.30496
-0.43133
0.70032
0.18462
-1.00588
-0.26811
-1.74462
0.49778
0.08461
0.29015
0.06127
0.11552
-0.37173
0.34712
0.15995
-0.34359
0.28449
0.37413
0.31855
0.57121
0.73492
-0.99026
-0.50592
0.59480
0.09187
0.15568
0.31346
-0.70612
0.57694
-0.70930
0.12713
0.05253
0.25866
-0.70440
0.07324
-0.07222
0.44482
0.34226
0.18558
0.30506
-0.54643
0.01481
0.14383
-0.67941
0.26583
0.03099
0.14139
0.15446
-1.02920
0.90016
-0.36540
0.12725
0.24929
0.15842
0.42469
-0.43655
-1.33222
0.29096
-0.04677
0.17493
0.23145
0.35684
-0.38346
0.29266
0.04584
0.39827
-0.48880
0.19865
0.19909
0.03569
0.19408
-0.41898
-1.11937
0.27228
0.62315
0.30862
0.23118
0.24309
0.31773
0.16439
0.17336
-0.23828
-0.11806
-0.61062
-1.07646
-0.10658
0.28930
0.26817
0.05640
-1.07483
0.51487
-0.40555
-0.87046
-0.82940
0.27813
-0.71219
-0.82698
-0.00041
-0.16396
0.15493
0.59598
0.40413
0.13950
0.13317
0.48115
-0.42023
-0.96451
0.14002
0.32398
-0.51808
0.48090
0.91675
-0.23625
0.01365
-0.15667
-0.43282
0.32824
0.44074
-0.18970
-1.16935
0.17307
-0.23679
-0.43221
-0.13770
0.02762
0.10026
0.27935
0.05651
-0.30987
0.11633
-0.59217
0.06773
0.05177
0.38518
0.14962
0.09304
-0.88391
-0.45697
-0.98956
-0.58010
0.54159
0.24703
-0.26166
-0.57248
-0.07314
0.18555
-0.05817
-0.25466
-0.16622
0.25473
0.63904
0.20406
0.07334
-0.34798
-0.92422
0.23046
0.25404
0.14950
0.28097
0.10472
-0.01364
0.39898
-0.57192
0.23161
-0.37251
0.08449
0.03091
0.30463
0.07033
0.00394
-0.41621
0.18365
-0.87311
0.37681
-0.10669
0.02918
0.40824
0.08891
0.35369
-0.62413
0.19943
-0.22360
0.06561
0.45667
-0.29531
0.49132
0.17968
-0.86974
0.29509
0.28243
-0.27632
0.55866
-0.12703
-0.14332
-1.21389
0.06484
0.72500
0.15612
0.02149
0.28573
0.26808
-0.26982
-0.42225
-0.50839
0.09909
0.34891
-1.08547
0.34281
-0.44908
-0.24802
0.80963
0.06003
-0.02062
-0.66784
0.13275
0.10619
-0.24877
-0.33612
-0.43080
0.15775
0.45991
0.04486
-0.70814
-1.31372
0.26681
-0.28860
-0.00190
-0.27535
-0.64864
0.34539
-0.39015
-0.26014
0.58041
0.14984
-0.20264
0.19703
-0.53538
0.23626
0.24460
0.11045
0.08511
-1.29201
0.16778
-0.07080
0.13290
-0.27260
0.21416
0.32027
0.05398
0.33405
0.12912
-0.32944
-0.59220
-0.09874
0.11270
0.46380
0.29312
0.02653
-1.33750
0.23986
-1.29264
0.25255
0.50895
-0.87626
0.56334
0.08684
0.08629
0.07816
0.40250
0.38078
0.05201
-0.38992
0.28055
-0.04466
0.70764
0.52541
-0.06940
0.57919
0.08008
0.10750
-0.59972
-0.30853
-0.96675
0.31999
0.36018
-0.11667
0.09343
-0.11405
-0.93752
0.15243
0.50542
-0.03704
-0.55811
0.27009
0.06392
-0.50628
-0.40921
0.16967
0.32880
-0.29808
-1.31607
0.38417
0.53228
-0.12786
0.12953
0.60336
0.64990
-1.06559
-0.27268
-0.06365
0.11661
0.54453
0.09496
-0.25867
0.24928
-0.04650
-0.34538
-0.73660
0.03725
0.25232
0.21223
-0.66469
-0.30335
0.21209
-0.03906
-0.10036
-0.38716
0.52305
-0.00039
0.36674
0.03540
0.29007
0.12047
0.00609
-0.05418
-0.03061
0.00706
0.30068
0.24653
0.15599
-0.42992
-0.16045
-0.31517
0.35616
0.34971
-1.28670
-0.18207
0.23048
-0.90223
0.26707
0.45673
0.17077
0.18117
-0.39077
-0.54233
0.28461
-0.08400
-0.07869
0.04651
-0.05770
-0.97906
-0.81988
-0.07155
-0.47485
-0.76332
-0.91615
0.28590
0.00488
0.20187
0.35831
-1.33272
-0.30801
0.17990
0.25588
-0.68464
-0.44059
-0.20157
0.43319
0.64411
0.27969
-0.53728
0.15727
0.28465
0.13437
0.40116
0.36439
-0.31073
0.26191
0.23860
-0.00301
0.18238
-0.43730
0.13060
0.05375
-0.32466
-0.99755
0.05076
0.40522
-0.32162
-0.41172
0.38730
-0.14187
0.32075
0.13055
0.14081
-0.16151
0.13432
0.21964
0.15637
0.56749
-0.11367
0.17399
-0.04337
-0.78288
-0.18620
0.14707
-0.25006
-1.32859
0.30080
0.26336
0.26947
0.33187
-1.11586
-0.51486
-0.20068
-0.50041
-0.18668
0.26479
0.16024
-0.16239
0.24734
0.36216
-0.77576
-0.09522
0.22988
0.28190
-0.10701
0.62693
0.06886
-0.04826
-0.10762
0.50312
-1.17281
-0.07551
0.34823
-0.07656
0.15095
-0.05441
-0.13791
0.60128
-0.42400
-0.06877
0.11426
-0.07827
-0.35768
-0.16203
0.65417
0.61458
-0.29178
0.57963
0.28889
0.19553
-0.12797
0.48912
0.35214
-0.49452
-0.85443
0.14106
-0.46631
0.22630
0.16526
0.58319
-0.04721
-0.63285
-1.26112
0.01627
-0.32697
0.16033
-0.34424
0.37068
0.59953
0.09233
0.34046
-0.11636
0.13963
-0.42758
-0.44954
-0.02189
0.05280
-1.12795
-0.02610
-0.91175
0.35204
-0.08176
0.42024
-0.11175
0.49383
-0.04930
0.09953
0.37880
-0.41656
-0.69594
0.38999
0.10715
0.03509
0.53330
0.17407
0.22997
0.35881
-0.25518
-0.03961
0.39432
-0.47469
0.00549
0.49075
0.10740
-0.65388
-0.27081
-0.59016
-0.47137
0.43688
-0.66531
0.53221
0.29142
-0.14750
-0.53719
-0.01064
-0.10186
0.28118
0.21792
-0.06997
0.00735
0.11605
0.57141
-1.52517
-0.18605
-0.28378
0.05285
0.21944
-0.07945
-0.29659
0.39663
-0.07715
-0.82501
-0.09352
0.35801
0.13016
-1.66554
-0.18256
-0.29985
-0.28469
-0.06162
-0.82315
0.38700
0.48336
-0.08746
-0.35355
0.34066
0.26893
-0.27648
-0.77214
0.41808
0.05986
0.12714
-0.13346
0.08673
-0.65950
0.10162
-0.48572
-0.30516
0.14889
-0.13973
0.54173
0.66122
-0.00517
-0.95250
-0.45853
0.35564
0.24629
-0.84250
-0.00319
-0.28041
0.45558
-0.84168
0.32773
0.01157
-0.76860
0.14543
0.10288
-0.23469
-0.31430
0.01131
0.17962
0.32181
0.10617
-0.32336
0.07957
-0.09568
-0.98635
0.09635
0.45929
-0.48557
0.05073
0.52283
-0.41214
0.39018
-0.16175
-0.82636
0.40539
-0.45961
-0.24229
0.53387
-0.06036
0.00425
-0.17965
0.18508
0.25047
0.16730
0.32010
0.15557
-0.83656
0.09992
-0.24595
0.17602
0.13229
0.15454
0.16722
-0.44960
0.01044
-0.11180
0.14074
-0.04495
0.58275
0.38004
0.08282
-0.85654
0.45503
-0.33939
0.33499
0.13696
-1.14369
-0.12804
0.22471
-1.45989
0.16200
0.34395
0.15995
0.50169
0.21751
0.02579
-0.80926
-0.20121
-0.00501
-1.21397
-1.53167
-0.00259
0.24951
-0.41533
-1.42953
0.41772
-0.27135
0.20484
-1.40869
0.25735
-0.37678
0.09325
0.53529
-0.30253
-0.19385
0.15405
0.14064
-0.44501
0.12048
-0.20919
0.33256
-0.10875
0.03767
-0.45431
-0.92868
0.13951
0.39855
-0.22698
0.13392
0.27878
0.05394
-0.08134
0.25439
0.43588
-0.00503
0.23201
0.55467
0.07661
-0.24363
-0.80382
0.27205
-0.91127
-0.47832
0.13693
-0.42841
0.73482
0.10764
0.46793
0.69529
0.37339
-0.57468
0.30683
0.15750
-0.46036
0.08309
0.35810
0.28851
0.57248
0.05837
0.33655
-0.45067
-0.74465
-0.27140
0.27446
0.23300
-0.38859
-0.00885
-0.50362
-0.08431
0.19403
0.34914
0.07686
-0.06729
-0.80682
0.34526
-0.76671
0.26007
-0.79062
0.40047
0.17516
-0.03152
0.40960
0.66439
0.12706
-0.27459
0.56855
-0.17908
0.20423
0.69414
0.13657
0.04907
0.19279
-0.01728
0.07923
0.10804
0.15812
-0.32075
-0.02141
-0.22980
0.11110
0.02599
-0.49021
-0.83756
0.13036
0.18239
0.32383
0.13862
0.07007
0.13552
-0.06307
0.25687
0.55873
-0.30495
-0.43537
-1.15675
0.08383
0.54830
0.72902
0.49297
-0.38095
-0.41418
-0.63121
0.43057
-0.06588
0.16517
-0.64344
-0.33348
-0.85668
0.18498
-0.50979
-0.38453
0.17896
-0.41071
0.29076
-0.55015
-0.82194
0.40885
0.16158
-0.48141
0.78720
-0.83063
-0.33390
-0.30014
0.44348
-0.41480
-0.46719
0.76777
-0.11570
-0.25028
-0.11054
0.22891
0.58535
-0.37051
0.15490
-0.39916
-0.47380
-0.66853
-0.63289
-0.13322
-0.28623
0.04385
-0.09596
0.10756
0.39785
0.38097
-1.11739
0.35383
-2.22016
0.61333
0.16804
0.12827
-0.06436
0.04870
0.16294
0.21835
-0.32809
-0.94715
0.49432
-0.36333
-0.11691
-0.22889
0.14855
0.18400
0.65851
0.16905
0.44482
-0.06674
-0.12373
0.20716
-0.05647
-0.00377
-0.52738
-0.57638
-0.47557
-0.18210
-0.74531
0.39830
-0.43891
-0.05946
0.27057
0.52647
0.22354
0.31539
0.61450
0.41892
-0.77248
-0.16702
-0.12399
0.00421
-0.15740
-0.39644
0.12011
0.27377
0.33143
0.13310
-0.45456
-0.58373
0.02551
-0.26188
-0.62512
0.10139
-0.96355
-0.06598
-0.23584
0.37810
0.55804
0.15858
0.68747
0.45127
-0.41349
-0.13904
0.31183
-0.41478
-0.07353
0.19092
0.12282
0.04577
0.02124
-0.12329
0.36721
0.35364
0.32791
-0.02006
0.17519
-0.28929
-0.08257
0.28058
0.02292
-0.96073
0.14912
0.32540
0.12830
0.53325
0.04539
0.00326
0.21610
0.21229
0.12190
0.82667
-0.71537
-0.25136
0.52429
0.10303
-0.77139
-0.23129
-0.14312
0.33301
0.10194
0.29293
-0.22214
-1.44218
0.28540
0.37446
0.06654
0.50013
-0.25869
-0.46415
-1.56970
-0.54790
-0.11778
0.65108
-0.17979
0.48114
0.12231
-0.22982
-0.06219
-0.11451
-0.54746
0.03447
0.16170
0.30543
0.11257
0.18258
-0.05065
-0.38531
0.14025
0.25095
-0.50244
0.40093
0.20172
0.11412
0.15625
-0.24582
0.12629
0.05157
-0.01314
0.62404
-1.12546
0.07271
0.30810
0.64716
-0.76030
-0.18558
-1.09713
0.15158
-0.67443
0.26794
0.32412
0.14163
-0.66791
-0.53341
0.09471
0.23116
0.40305
0.24800
0.52317
-0.61095
0.32044
-0.63763
-0.18311
0.16924
0.02695
0.00187
0.15778
-0.00848
0.27607
-0.39789
0.16966
-0.31262
0.13598
0.28660
0.24008
-0.84762
0.20449
-0.02574
0.18667
0.05838
-0.46368
-0.85541
-0.71110
-0.30270
0.18102
-0.62232
-0.02043
0.16253
0.34506
-0.15222
0.02577
-0.20481
0.12229
0.19059
0.19851
0.16850
0.14220
0.04837
0.32401
0.24498
-0.15458
-0.25373
0.01472
0.45329
0.28715
-0.23635
0.12190
0.25647
-0.04164
0.31503
0.34736
0.36922
0.27776
-0.97578
0.51680
-0.13815
0.04575
0.14958
-0.04510
-0.24233
0.68280
0.17210
0.30120
-0.33474
-1.02953
-0.42972
-0.14197
-0.04781
0.17830
0.14496
-0.01746
0.26539
-0.87503
-0.50750
0.33439
-0.15617
-0.57989
-1.17103
-0.18334
0.01689
0.02378
-0.23947
-0.19321
-0.07978
0.44427
0.48790
0.09896
-0.87039
-0.89124
0.10014
-0.05147
-0.11466
0.31477
0.08893
-0.13755
0.36267
0.57078
0.44993
0.54673
0.03387
-0.34998
0.20142
0.03834
0.01603
0.02724
0.01219
0.50325
-0.78758
0.00931
0.18063
0.28276
0.16272
0.15958
-0.29920
0.29171
0.23642
0.32954
0.17941
-0.42822
-0.40151
0.08292
-0.96439
0.17743
0.19631
0.43257
0.04801
0.17493
-0.11880
-0.25852
0.18968
0.37362
0.64299
0.20179
-0.36150
0.34968
-1.17120
0.15066
0.20647
0.35709
-0.31236
0.45109
0.07127
0.05272
0.01373
-0.16932
-0.17764
0.17900
-0.05645
0.07929
0.16216
-0.28197
-0.07774
-0.46780
0.15445
0.31788
0.05761
0.29323
0.11284
0.11681
0.06395
-0.23301
0.18706
0.22818
0.35266
-0.13610
-0.19305
-0.04184
-0.00349
-0.70046
0.14857
0.17732
0.65051
0.29530
0.10445
-0.28366
-0.80409
0.11303
0.03184
0.06944
0.02441
0.37135
0.13111
0.15927
0.32978
-1.05347
0.35592
0.29736
-0.60894
0.46540
-0.11666
0.72142
-0.06486
0.00020
0.43160
0.08125
0.56494
0.52053
-0.43762
0.10947
-1.47102
0.20174
0.42016
0.40785
0.14532
-0.05646
0.15301
0.19414
0.71741
0.00873
-0.16542
0.20908
0.67798
0.15501
0.27234
-0.82503
0.16788
0.32306
0.37782
-0.59359
0.08044
0.49240
0.18826
0.28554
-0.35392
0.01312
0.29581
0.29651
0.55646
0.11211
0.21202
-0.47073
-1.16073
0.09812
-0.09116
0.11572
0.12198
-0.10693
-0.26343
-0.20394
0.07907
0.14926
-0.31375
0.00501
0.22237
-0.40296
0.18339
-0.44339
0.14688
0.11041
0.27785
0.36982
-0.86814
0.16224
-0.33889
-0.45598
0.47619
0.14433
0.29463
0.68100
0.11030
-0.02093
-0.02683
-0.36235
-0.36065
-0.08393
0.27648
0.00835
-0.07705
0.09771
-0.30375
0.02296
0.23663
0.35652
0.24549
0.05170
-0.74592
0.10578
0.37891
0.06594
-1.47586
-0.57643
-0.14814
-0.05067
0.55471
-0.12480
-0.00185
0.49009
0.07391
-0.61684
0.11523
0.16592
0.20203
-0.20847
0.25259
-1.31671
-0.73001
-0.87835
-0.28467
0.63440
0.16266
-0.46605
-0.00573
0.36118
-1.11570
0.41421
0.04520
0.00050
-0.54948
0.49834
-0.34378
0.34680
-0.15771
0.24853
0.12731
-0.27138
0.23609
0.52246
-0.65750
0.10519
0.45584
0.19791
0.13407
0.10324
0.18830
0.33076
-0.14261
0.63201
-0.50226
0.69452
0.07346
-0.55032
0.20363
0.30219
-0.84795
-0.00051
-0.03058
-1.24031
-0.06315
-0.02423
-0.00490
0.34809
-0.34939
-0.71692
-0.35053
-0.00595
0.12758
0.45042
0.04279
0.36357
-0.32362
-0.04761
-0.05916
-0.43500
0.10012
-0.56643
-1.11802
-0.25543
0.30518
-0.65135
0.35063
-0.18841
0.28190
-0.00698
0.76444
-0.39487
-0.55177
-0.23244
0.15978
-0.49741
0.12345
0.13032
-0.00383
0.08029
-0.42745
-0.62929
0.16198
0.12895
0.03789
-0.44334
0.10121
0.17327
0.26683
0.39838
-0.36872
-1.20659
-0.00997
0.01615
-0.06483
0.01740
0.06068
0.49400
0.02934
0.19137
-0.83061
-0.09908
0.07475
0.29608
-1.54330
-0.47658
-0.05490
-0.04900
0.31488
-0.04644
0.15617
0.16224
-0.26076
0.07784
0.12334
-0.39672
0.35006
0.29785
-0.09383
-0.48570
0.37112
-0.30610
0.77831
0.08843
0.28363
0.51938
0.02705
0.17832
-0.00192
-0.07503
-0.04981
0.14342
-0.01704
-1.26545
-0.06695
-1.54876
0.11047
0.07932
0.04469
-0.54799
0.01332
0.47040
0.30885
-0.67106
-0.25761
-0.18995
0.17522
0.12817
0.13679
0.21473
0.30249
0.37120
0.15265
-0.49512
0.11442
0.16426
-0.71668
0.10794
0.18770
0.00162
-1.46155
0.40528
0.09893
0.17949
-0.53821
0.10873
0.39450
-0.08425
0.14160
0.01748
0.27576
0.06623
0.14369
0.24222
0.33797
0.51918
0.07164
0.28960
0.02311
0.23343
0.15400
-0.42014
0.01250
0.23146
0.16059
0.15006
-0.07016
0.01698
-0.44818
0.12550
0.28748
-0.61574
-0.34703
-0.09074
0.10886
0.48561
0.21143
-1.06643
0.36966
0.14909
0.19368
-0.01122
0.26542
0.39147
0.01446
0.38044
0.40524
0.14489
-1.09362
-0.01652
0.03135
-0.26883
-0.45740
0.28317
-0.01953
-0.14595
0.30220
0.07080
0.62449
-0.46313
0.38028
0.23356
-0.01000
-0.64155
-0.15287
-0.18942
0.29569
0.34960
-0.33447
-1.51350
0.28419
0.08979
0.15011
0.48998
0.10341
0.48067
0.01982
0.13169
0.36693
-0.35603
0.10152
0.37954
0.36621
0.24515
0.55861
0.32731
0.06934
0.05851
0.00333
0.11428
