0.10125
0.25751
-0.61845
-0.18252
-0.00410
0.19553
-0.19229
0.17119
-0.14999
-0.39698
-0.37982
-0.61676
0.12261
0.11695
-0.18494
0.20103
0.16339
0.21996
-0.15142
0.24236
-0.53229
-0.00357
-0.94386
0.12684
0.26478
0.15791
-0.10490
0.20243
-0.10054
-0.01753
-0.41624
-0.03195
-0.38309
-0.16087
-0.01172
-0.22481
0.08346
-0.06248
0.09232
-1.29413
0.13303
-0.05382
-0.33753
-0.18269
0.18819
0.16029
-0.47625
0.14618
-0.03525
-0.03941
-0.41002
0.05573
-0.23863
-1.29693
-0.08588
-0.09403
0.21181
0.34549
-0.18672
0.21972
0.12519
0.16927
-0.09741
0.14915
-0.08346
0.08250
-0.43892
0.17746
-0.29753
0.27477
0.01751
0.21975
0.14192
-0.17208
0.31440
0.08293
-0.02561
-0.17087
0.03339
-0.11672
0.12807
0.02531
-0.17477
-0.06435
-0.30896
-0.05941
0.23166
-0.51852
-0.21713
-0.72966
-0.72985
0.61362
-0.01177
0.08352
-0.03614
-0.17834
-0.04470
0.13227
-0.55446
0.31418
-0.24712
0.04277
-0.02349
-0.04457
0.12066
0.09274
-0.00145
-0.16482
-0.08715
0.26390
-0.33872
-0.44738
0.02978
-0.00303
-0.80125
-0.71106
-0.06460
0.19803
-0.18670
0.20214
0.09802
-0.34721
0.12254
-0.57549
-0.93085
0.19123
0.08342
0.16707
-0.47166
-0.09851
0.05201
-0.46745
0.14946
-0.55686
-0.16748
0.16895
0.28371
-0.05360
-0.26820
-0.30611
-0.32363
-0.23971
-0.05280
0.19261
0.22824
0.18044
0.19663
0.14984
-0.15432
-0.49418
-0.16358
-0.15519
-0.30845
0.05051
-0.30626
-0.52755
0.00923
0.11441
0.01075
-0.31473
-0.05400
-0.08060
-0.60688
-0.08112
-0.60512
0.28559
-0.29539
0.18380
0.06808
0.09200
0.05981
-0.19604
0.05066
-0.23610
-0.25634
0.10741
-0.77032
0.13700
-0.27353
-0.14576
0.36585
-0.30767
0.17360
-0.10867
-0.70752
0.04392
-0.19951
-0.38030
0.15318
-0.36562
-0.08678
0.03133
0.15864
-0.33397
-0.06821
-0.24416
0.00784
0.00938
-0.95366
-0.66148
-0.20203
-0.27337
-0.00078
-0.24120
0.11348
0.00401
-0.62195
-1.38884
-0.24311
-0.06856
0.25297
-0.28435
-0.04503
0.03348
-0.21731
0.16344
-0.27350
-0.01697
-0.11240
0.19636
-0.25012
-0.10596
-0.02549
-0.05564
0.18979
-0.16825
-0.21071
-0.30452
-0.26807
0.26738
-0.13531
-0.11630
-0.19517
0.16533
0.18412
-0.20419
0.04164
-0.25502
-0.57401
-0.11914
0.26632
0.18470
-0.26540
-0.19518
0.19419
-0.00752
-0.01599
0.16240
0.18440
-0.37691
-0.82998
0.24147
0.37260
0.12539
0.03009
-0.16651
-0.05501
-0.39484
-0.11529
-0.01588
-0.23154
-0.20273
0.29542
-0.28752
-0.08599
0.13206
0.15086
0.10925
0.02368
-0.01876
-0.25770
-0.76615
-0.57434
0.18533
0.10115
-0.38612
0.22662
0.00545
-0.31781
0.21810
-0.15721
0.21055
0.11353
-0.04834
-0.80646
-0.06638
-0.26394
0.19404
-0.04096
0.13228
-0.13374
-0.06520
-0.22188
-0.47608
0.02967
0.15555
0.00894
-0.45594
-0.04712
-0.12242
-0.02249
-0.18636
-0.07135
0.25855
-0.28544
0.19154
0.51621
0.02189
0.13506
0.10613
-0.22876
-0.82194
-0.22445
-0.01822
0.18144
-0.23558
-0.05321
-0.12608
-0.09820
-0.09509
-0.26486
-0.74306
0.04736
-0.25478
-0.86448
0.25782
0.48019
-0.32521
-0.17016
0.01955
0.08043
0.24394
-0.06785
-0.21977
-0.50072
-0.03283
0.23417
0.13909
0.07778
-0.08404
0.19920
0.08424
-0.27742
0.28132
0.19095
0.12557
0.24126
-0.34441
0.11481
0.21850
0.24497
-0.87511
0.19872
-0.11584
-0.32009
0.02628
0.16945
0.17246
0.29478
-0.17150
-0.18756
-0.59431
-0.08211
0.05342
-0.13883
-0.40460
-0.16730
0.00637
0.07905
-0.56257
0.19850
0.18761
-0.61968
-0.07939
-0.43487
0.02125
-0.18094
0.09679
0.08109
0.01750
0.28345
0.08967
-0.27391
-0.10455
-0.23638
-0.52664
-0.06451
-0.21642
0.22529
0.13350
0.14561
-0.40681
-0.29988
-0.85231
-1.28634
-0.14243
0.14899
-0.01115
-0.08245
-0.39308
-0.30456
0.21189
-0.15967
-0.23945
-0.21290
0.47641
0.13179
-0.30569
-0.62328
0.08823
0.21886
0.05417
-0.25221
0.27006
0.28149
0.18546
-0.21668
0.24033
-0.04108
-0.37996
-0.36746
0.02576
0.02546
0.22837
0.23144
0.24632
0.12712
-0.01648
-0.18060
-0.08858
-0.20016
0.06098
0.16220
-0.35806
-0.16013
-0.20287
0.14322
0.05470
-0.15062
-0.30391
0.13518
0.15080
-0.56056
0.56946
0.15780
-0.04070
0.07324
0.19499
-0.17291
-0.36930
-0.41832
-0.10626
0.12282
0.14567
-0.16380
-0.77617
-0.03652
0.08526
0.13851
-0.22086
0.14497
-0.14983
0.02755
-0.20366
0.16566
0.19362
-0.38473
-0.23917
0.11832
-0.35167
-0.70205
-0.23980
0.03126
-0.23179
-0.27774
-0.06766
0.33954
-0.28046
-0.55697
0.05449
-0.27626
-0.83537
0.07495
0.15516
0.02854
-0.29905
0.14865
-0.26617
-0.23036
-0.04361
-0.03583
0.26557
-0.13956
0.02504
-0.12666
-0.09363
-0.37596
-0.85847
0.09127
0.15651
0.03994
-0.26283
0.12243
-0.44265
-0.34742
-0.12135
-0.21857
0.11027
-0.12987
-0.20748
-0.37860
-0.09426
0.17418
0.10693
-0.20033
0.11306
-0.21904
-0.33659
-0.02434
0.07436
-0.44458
0.28575
-0.16349
0.10380
-0.43679
-0.17832
-0.23956
-0.39355
0.23354
0.23452
-0.26223
-0.16186
-0.14948
-0.38765
0.05088
-0.05189
0.12774
0.21222
-0.00906
-0.53802
-0.40999
0.18579
0.21743
0.21828
-0.03219
0.01222
0.13519
-0.49165
-0.35042
0.28089
0.36012
-0.04363
-0.40078
-0.60364
-0.18929
-0.41436
-0.02131
-0.31900
-0.25505
0.00545
-0.22095
0.07135
-0.31316
0.05637
0.01024
-0.35530
0.22661
-0.09361
-0.22034
0.12464
-0.50249
0.33269
-0.19938
-0.17321
-0.33672
-0.31605
-0.13531
-0.38351
-0.02333
-0.09626
-0.12111
-0.77513
-0.81664
0.40907
0.00977
-0.28361
-0.56025
-0.28930
-0.06832
0.16435
0.26021
0.02298
0.01685
-0.78307
0.02526
-0.15783
0.23096
-0.27340
-0.09838
-0.03279
-0.03393
0.02251
0.15620
-0.11162
0.14235
-0.05358
0.07406
-0.50346
0.17432
0.02753
0.20067
-0.99652
0.02669
-0.19709
0.25918
-0.25288
-0.29464
-0.01159
-0.09445
0.05450
-0.02763
0.08412
0.23074
0.25625
-0.10723
-0.15637
-0.29415
0.18817
-0.07656
-0.79926
-0.27504
-0.01277
-0.02577
-0.52612
-0.33429
0.08399
0.01656
0.04878
0.01403
0.34765
0.06788
0.07875
-0.94042
0.13070
-0.37984
-0.30474
-0.07068
0.18977
-0.01358
0.04212
0.17317
-0.00566
0.20586
-0.12921
-0.13867
0.10393
-0.29034
-0.47479
0.03274
-0.06753
-0.03989
-0.31595
0.02158
0.14683
0.04959
0.09406
-0.70101
-0.16444
-0.28894
-0.16531
0.00858
-0.00798
-0.53583
-0.16762
-0.20256
0.19073
0.01137
0.08424
0.09806
0.21023
-0.56370
0.02373
-1.01115
0.11571
-0.08560
-0.05514
-0.24062
0.12628
-0.53722
0.02885
-0.10010
0.09229
-0.86852
0.40240
-0.52634
0.21304
0.41937
-0.51733
0.07292
0.04753
-0.13259
-0.63001
0.20404
-0.77372
-0.15247
-0.08259
0.00603
-0.31414
0.04394
-0.55087
-0.18334
-0.53167
-0.40652
-0.03444
0.24984
0.04860
0.06194
-0.06252
0.04163
-0.14791
-0.94858
0.03082
0.43377
-0.05048
-0.21895
-0.41659
0.00781
-0.18702
-1.18262
-0.01777
0.20023
0.00489
0.00073
-0.12230
0.14083
-0.25591
-1.30948
0.22214
0.21324
0.34413
-0.39743
0.03173
0.31297
0.07648
0.16224
0.16333
0.23675
0.26568
0.14693
0.21042
0.09000
-0.08905
0.09668
-0.22015
-0.93728
0.06018
0.07084
0.33733
-0.31883
-0.22254
0.01739
0.08435
0.07289
0.24464
0.30421
-0.26665
0.07827
-0.05331
0.17091
-0.34200
0.05187
-0.07890
-0.41771
-0.19911
0.05334
0.14704
-0.24114
-0.22256
0.09554
-0.36533
-0.32999
0.03649
-0.14082
0.10429
0.16998
0.06101
-0.31311
-0.11539
-0.43012
0.07595
0.00766
-0.10171
-0.12777
0.15096
0.06855
-0.07437
-0.47825
-0.29515
0.03081
-0.17724
-0.42206
0.19374
-0.09727
0.18211
-0.14994
0.15375
-0.12784
0.08812
0.15804
0.14063
0.23112
0.18624
0.08264
0.02054
-0.68406
0.00230
-0.04571
0.08373
-0.35599
-0.50090
-0.04253
-0.02229
-0.04222
-0.12261
-0.72467
-0.26223
-0.53115
0.11544
0.00672
-0.14370
-0.10317
0.15547
0.07205
0.22719
-0.00832
-0.07390
-0.03108
-0.01866
0.15662
0.07269
0.25417
0.04071
-0.52967
0.11327
0.06883
0.16499
-0.56247
-0.59928
0.11442
0.13132
-0.10339
-0.00937
-0.51359
-1.28642
-0.11976
0.10243
-0.10399
-0.21668
-0.28066
-0.03223
0.07810
-0.05787
-0.19231
-0.27630
-0.33335
0.13729
0.17578
0.12138
-0.13325
-0.23918
-0.09017
-0.08532
-0.73137
0.09211
-0.12259
-0.20053
-0.17308
-0.20649
0.03597
0.15674
0.05503
-0.10262
0.05565
-0.20900
-0.54594
-0.05106
-0.20176
0.04829
0.15839
0.18851
-0.32110
-0.27684
-0.20061
-0.19601
0.27106
-0.40130
0.13400
0.15432
-0.29526
-0.68545
-0.21892
0.12872
-0.20861
0.20741
0.10193
-0.09913
-0.28612
-0.42674
-0.00007
0.12002
-0.25313
0.12034
-0.29851
0.11974
0.21236
-0.10131
-0.44010
-0.19945
0.08520
-1.23735
0.13914
-0.45339
0.11911
0.05157
-0.54151
0.15075
0.48830
-0.12988
-0.89311
0.23650
-0.06655
0.34770
-0.25867
-0.43208
0.03922
0.21252
0.09350
-0.25481
-0.25359
0.00267
0.20906
-0.23777
0.06835
-0.89139
0.36369
-0.02944
0.12321
0.19745
-0.79340
-0.53886
0.13258
-0.48288
0.33567
0.15953
0.07136
-0.42764
0.01803
0.15417
-0.17063
0.00576
-0.30607
0.10682
0.10905
-0.30874
-0.02629
0.01957
-0.71098
0.08956
0.00247
0.08260
-0.34911
-0.11237
0.06614
0.12286
-0.25341
-0.01927
-0.24859
0.10033
-0.63986
0.03114
-0.34609
-0.50346
0.07398
0.09383
0.13337
-0.14653
-0.81594
0.19443
-0.25223
0.34494
0.02906
-0.14478
0.22909
-0.32109
0.18430
-0.34835
0.43798
0.20443
0.16769
-0.24838
-0.27380
0.38278
0.17369
0.09736
0.40524
0.18085
0.35860
-0.23328
0.16502
0.42047
0.08930
0.12092
0.24602
0.41059
0.13406
0.12228
0.32258
0.33911
0.14516
0.11743
-1.06553
0.60895
0.47102
-0.09273
0.32446
0.19663
0.00701
-0.23038
-1.19849
0.29841
0.29624
0.28151
-0.45607
0.08559
0.49699
0.39617
0.46790
0.10889
0.30038
-0.30371
0.09647
0.06934
-1.13248
0.71042
0.17650
0.29842
-0.05159
0.41438
0.16634
-0.35733
0.18054
0.17541
0.23052
0.40023
0.19598
0.48782
0.17938
0.33344
0.08558
0.37735
0.17711
0.16755
-0.29844
0.21883
0.20327
0.05856
-0.07949
0.09204
0.15483
0.22008
0.07529
0.63719
-0.11288
0.27973
0.05166
0.36881
-0.33033
0.03091
0.22468
0.22660
-0.10049
-0.10245
0.45172
0.41625
0.43821
0.46195
-1.02204
-0.70762
-1.11431
0.01289
0.14195
-0.64414
0.14549
0.03739
-0.46185
0.08448
-0.82310
-0.08758
0.17137
-0.60648
-0.20406
0.41394
0.15699
0.56782
0.31130
-0.06965
0.37088
0.15164
-0.50812
0.13251
-0.08861
0.21158
-1.70616
-1.17193
-1.60193
0.09471
0.14992
-0.58915
-1.22379
-1.18861
0.38245
-0.00341
0.14127
0.59465
0.40866
0.36399
0.38184
0.40093
0.43231
0.37658
-0.98146
0.41913
0.23879
0.33571
-0.38847
0.05431
0.46184
0.10530
0.50239
0.11277
0.16979
-0.02935
0.40415
0.16680
0.20524
0.37002
0.16606
-0.06358
0.37250
0.35246
0.70835
0.41861
0.11213
-0.57692
0.58546
0.45397
-0.45764
0.06759
0.30817
-0.45380
0.01742
0.27508
0.82423
0.29231
-0.65267
0.45840
0.35722
-0.35806
-0.21044
0.38882
0.38311
0.33253
0.53331
0.31921
0.15092
0.03760
0.19798
0.07147
0.09184
0.21746
-0.08734
-0.34972
0.22368
0.42661
0.59176
0.39644
0.00871
0.32752
0.33241
-0.39792
0.09010
0.20770
-0.10467
0.45808
-0.66695
0.20549
-0.00900
-0.22457
0.18891
0.18607
0.11463
0.04114
0.17781
-0.55488
-0.65578
0.08477
0.13015
-0.33230
0.25756
0.15910
0.24974
0.17257
0.34336
0.47017
0.18256
0.10510
-0.27723
0.10213
0.07347
0.28549
0.18575
0.31310
-0.06342
0.12053
0.21716
-0.09264
0.03018
0.36194
-0.20135
0.12224
-0.00904
-0.38898
-0.12205
0.39911
0.71861
-0.08308
0.10094
-0.48800
-1.11102
0.20864
0.03308
0.67370
-0.04990
0.27879
0.60497
-0.30734
-0.25476
0.38246
0.13208
-0.72572
0.26688
0.28934
0.29451
0.35989
-0.47976
-0.46052
0.47304
-0.74042
0.16212
0.22062
0.09921
0.18127
-0.57855
-0.24325
0.78525
0.10697
-0.01059
0.34820
-0.16496
-1.17321
0.09976
0.68031
0.60911
0.11183
-0.43760
0.82639
-0.62369
0.14922
0.15256
-0.46453
0.33274
-0.61894
-1.14956
0.27280
-0.34677
0.11021
0.28890
0.18730
0.59127
0.19627
-0.13167
-0.03923
-0.67717
-0.05430
0.34535
-0.73556
-0.43083
0.23119
-0.85589
0.13964
0.14807
0.17924
-0.64402
0.25209
0.28466
0.01955
-0.42031
0.09204
0.40328
-0.39791
0.39894
0.16992
-0.79838
-0.07221
-0.03415
-0.11607
-0.99990
0.42522
0.45319
0.63332
0.20222
0.28932
0.43978
0.72291
0.33622
0.41865
0.23678
0.35677
0.18007
-0.05375
0.39932
0.28924
0.30497
0.37859
0.31088
0.21676
0.63911
0.08068
-0.74396
-0.26724
0.42412
-0.21769
0.21298
-0.10810
-0.21788
0.23762
0.20365
0.09056
0.25629
0.41147
-0.37548
0.24720
0.39585
0.39397
-0.01073
0.11661
-0.88290
0.14679
0.27202
0.16488
-0.30495
0.04027
-0.78071
0.44731
0.57239
0.23456
0.19842
-0.20651
-0.36465
0.31969
0.12705
-0.42603
-0.29335
0.26943
-0.07046
0.02219
0.27561
0.11795
-0.14146
0.55137
0.29592
-0.49236
-0.44756
-0.13160
0.60569
0.68517
0.34584
0.74593
0.25371
-0.95711
-0.22531
0.13607
-0.44959
0.39053
0.59266
0.26746
-0.69479
-0.06992
-0.43001
0.50118
0.06264
0.12487
0.09680
0.07209
-0.20837
0.56178
-0.37689
-0.72241
-0.03167
-0.76971
0.29142
0.37195
-0.43760
0.03774
0.10659
-0.73549
-0.19877
-0.56454
0.40235
0.10695
-0.36896
-0.40242
0.34740
-0.29460
0.13753
-0.35804
-0.08190
0.10390
0.10643
0.16903
0.16559
0.30969
0.08429
0.31155
-0.79715
0.31753
0.28359
0.32156
0.26347
0.05481
0.29008
0.32740
0.42728
-0.64263
0.28317
0.27447
0.67112
0.20999
0.38192
0.08110
0.22296
0.15889
-0.10054
0.31227
0.31640
-0.03704
0.25040
-0.65269
0.27341
0.33807
0.41015
0.01436
-0.12792
0.26664
0.25936
-0.62832
0.16174
0.33862
0.33137
-0.16669
-0.11121
-0.20518
0.29677
-0.01309
0.14365
0.16665
0.29346
-0.37006
0.25870
0.39570
-0.44181
0.32894
0.32229
-0.96199
0.47629
-0.19204
0.29017
0.31274
0.14893
0.19626
0.57110
0.19574
0.50326
0.30410
-0.38001
-0.31067
-0.27860
-0.04271
-0.06320
0.88468
0.48635
0.16442
-0.54696
0.29671
-0.36131
0.18671
0.11674
-0.01396
0.08191
0.38940
0.48578
0.30837
0.40309
0.25794
-0.36324
0.12318
-0.12390
-0.03167
0.01471
0.18320
0.45265
0.07113
0.50685
-0.35250
0.29405
-0.15968
0.08005
-0.09068
-0.39047
0.42539
0.23417
0.27903
0.14561
-0.11354
0.02586
-0.16984
0.33258
-0.38814
0.50807
0.49249
0.05207
0.29465
0.45740
0.42144
0.52648
0.42959
0.41760
0.12532
-0.24242
0.12789
0.17992
-0.14036
-0.16563
-1.50179
0.20849
0.16952
0.37839
0.06743
0.46965
-1.28542
0.10879
-0.75996
0.23693
0.18670
0.13048
-0.14393
0.30323
-0.19753
0.42270
-1.18516
-0.45030
0.29975
-0.54032
0.20627
0.24199
0.30450
0.20733
0.18317
-0.40417
0.03942
0.24549
-0.23071
0.13097
0.09808
0.04120
-0.11231
0.33933
0.07670
0.38879
0.54068
-0.25181
-0.83451
0.40205
-0.15350
-0.23295
0.33145
-0.53335
0.37649
-0.82359
-0.05829
0.28466
-1.05185
-0.06723
0.15742
0.26375
0.00917
0.15809
-0.60552
0.33258
0.20317
0.22463
0.26342
0.13855
0.11691
0.25068
0.25680
0.17771
-0.66206
-0.49988
0.84198
0.15968
0.24673
-0.01504
0.38569
-0.60953
0.41395
0.12858
0.13572
-0.66726
-0.18623
0.16903
0.28844
0.45055
0.35323
0.10725
0.12693
0.12727
0.36265
0.16690
-0.70340
-0.34620
0.35847
-0.32381
-0.46038
0.31053
0.11801
0.62585
0.17451
-0.35073
0.31221
-0.09216
-0.27625
0.25116
0.45239
-1.23435
0.41355
0.36134
-1.10689
0.24177
-0.37749
0.21579
0.79085
0.09568
0.33114
-0.29664
0.07193
-0.31607
-0.14016
0.01339
0.40858
0.25708
0.33918
0.14160
0.37468
0.34582
0.35266
0.27628
-0.66900
0.14719
-0.05576
0.26097
-1.02459
0.80091
0.26316
0.40765
-0.01531
-0.14916
0.07820
-0.40705
0.26942
-0.40353
0.68661
0.26969
0.08699
0.43353
-0.69680
0.16746
0.06234
0.58483
0.33603
0.32558
-0.32664
0.01923
0.26366
0.03482
0.20089
-0.04935
-0.08126
0.34648
0.19931
0.39943
0.28818
0.15134
-0.22265
-0.35699
-0.70514
0.15624
0.17932
-0.44403
0.30853
-0.53833
-0.53727
0.08174
-0.33350
-0.15651
-0.04812
0.19943
0.34967
0.12862
0.10525
0.71951
-0.02838
0.11315
0.32074
-1.00624
0.11268
0.22038
-0.54111
0.09650
-0.43898
0.76670
0.31888
-0.49485
0.22491
-0.42491
-0.31203
0.44721
-1.19894
0.47106
0.22892
0.45678
0.43376
-0.18620
0.38447
-0.10139
0.45372
0.29210
-0.33724
0.30161
0.31407
-0.09746
0.71633
0.03290
-0.14223
-0.26352
0.31148
-0.33660
0.28242
0.29551
0.27197
-0.42962
0.29132
0.05620
0.61448
0.39457
0.47332
0.32463
0.13027
0.43614
0.21520
-0.06460
0.36261
0.29934
0.17446
-0.29610
0.28666
-1.06463
0.12205
0.18867
0.02486
0.14102
0.13067
0.18485
0.36223
0.36906
0.12515
0.14088
-0.35864
0.15153
-0.00808
0.60764
-0.36222
0.71500
0.42734
0.18067
0.20167
0.42159
-1.01345
0.31916
0.45935
-0.01559
0.66230
0.35044
-1.03898
0.32046
0.35321
-0.38313
0.17549
0.40352
-0.26896
0.09870
0.26458
0.38792
-0.65045
-0.45523
-0.03950
0.41863
0.12093
0.16714
-0.84879
-0.20318
-0.04617
0.39672
-0.17512
0.56511
0.12253
-0.32398
0.27491
0.25124
0.29831
-0.29417
-1.09161
-0.74801
-0.60134
0.23510
0.17699
0.29775
0.29624
0.37091
0.00426
0.26031
0.78997
0.07981
-0.48942
0.37621
0.08517
0.49385
0.25554
0.03596
0.43104
0.30230
0.40969
-0.23717
-0.23627
0.41960
0.71459
0.08237
-1.16054
-0.36539
-0.30139
-0.21480
-1.14558
0.28086
0.15789
0.06420
0.22696
-1.32698
-0.32368
-0.01940
0.40219
0.85997
0.35260
0.06775
-0.95277
0.27844
-0.01744
0.58911
0.27733
0.21434
-0.01966
-1.35625
0.26543
0.51276
-1.00593
0.04497
0.23229
-0.35877
-0.65082
0.06590
0.16663
0.43989
0.12795
0.34461
-0.29693
0.37260
-1.01757
-0.02945
0.24730
-0.46916
0.13876
0.28456
0.43878
0.25970
0.32068
0.07326
0.11068
-0.07529
0.18758
0.10502
0.09860
-0.01883
0.27739
0.25524
0.34457
0.39540
-0.31477
0.03377
0.16623
-0.29809
0.29258
-0.25255
-1.39895
-0.09554
0.28810
0.44933
0.08249
0.39049
0.18269
0.20015
0.33445
-0.24563
0.41442
-0.20753
0.73707
0.21656
-0.06570
0.08131
0.24365
0.09467
0.05318
0.35659
0.24055
0.29002
0.27136
0.10693
0.29591
0.38855
0.31302
0.35417
0.45989
-0.26208
0.09113
0.06665
0.24195
-0.24472
0.41785
-0.35419
0.22847
0.33518
0.23447
0.58487
0.31818
0.06432
0.15441
-1.09567
-0.08862
0.36879
0.38822
0.31529
0.09152
0.15380
0.20786
-0.07743
-0.30803
0.38235
-0.83773
-0.00072
0.42938
-0.17364
0.40582
0.21098
-0.98355
0.03189
0.22147
0.39797
0.45738
0.13169
0.05557
-0.26620
0.01255
-0.00546
0.27523
-0.40833
0.14313
0.26086
0.24607
0.44082
0.35141
0.19117
-0.01671
-0.18519
0.57973
0.21030
0.39318
0.48549
0.25652
0.10564
0.32765
0.12530
-0.61276
-0.26470
0.36744
0.49207
0.10903
0.11565
-0.03665
0.01269
0.26246
0.36714
-0.05586
-0.21051
0.32569
0.26347
-0.20864
0.65927
0.78996
0.07669
0.08460
-1.01232
0.47394
0.27515
0.30312
0.30361
0.31642
-0.20456
-0.61459
0.30918
0.20292
0.38188
0.38873
0.83680
0.27108
0.34714
-0.48835
0.46734
-0.19466
-0.30178
0.33004
0.73637
0.09967
-0.02841
-0.81020
-0.37606
-0.17094
0.39928
0.06082
0.46250
0.23801
0.39619
0.20845
-0.39434
0.35071
0.27799
0.13278
-0.28079
0.08951
0.04304
0.15227
0.35994
0.23779
0.44937
0.12316
0.55893
0.31532
-0.22813
-0.39637
0.30055
-0.39968
0.34100
-0.22991
0.44944
0.01203
-0.79106
0.35251
0.36768
0.27277
-0.01508
0.32664
0.25297
0.13539
0.15333
-0.01895
0.14406
0.62867
-0.57193
0.11354
-0.02482
-1.01223
0.27678
0.20888
-0.37643
0.31511
0.07130
-0.00041
0.28069
0.41683
0.21068
0.09500
0.32709
-0.14071
0.38950
0.11158
0.36816
0.67869
0.38425
0.09746
0.29195
0.23123
-0.39593
0.09049
0.78893
0.35692
0.32657
-0.25201
0.35940
-0.15575
0.79136
0.48531
0.83962
0.36451
-0.13978
0.39913
0.10128
-0.18451
0.35079
0.29420
0.23665
-0.75998
0.17792
0.27736
0.31226
-0.12011
-0.57687
0.52548
0.31030
-0.12768
-0.69207
0.38718
0.21556
-0.40710
0.36949
0.59834
-0.77129
-0.51220
0.11970
0.43083
0.28494
0.24491
-0.47039
0.60391
0.48634
0.23780
0.17060
-1.01964
0.14056
0.38237
-1.05538
0.42584
0.02425
0.13056
0.07590
0.48165
0.39651
0.14018
-0.41197
0.27505
0.21252
0.17636
0.40140
0.36598
0.40071
0.90972
0.27221
0.28377
0.56242
0.43533
0.12213
0.14003
-1.18979
0.40196
-0.39632
0.00163
-0.82031
-0.40492
0.22494
0.37233
0.08284
0.21124
-0.75139
-0.38717
0.22180
-1.24421
0.10246
-0.13672
0.37677
0.23556
0.23427
0.55225
0.53824
0.50429
-0.35510
0.15731
0.16316
-0.05308
-0.04406
0.48660
0.29274
0.43449
-0.89987
0.50037
0.31327
0.63396
0.27131
0.10070
0.23406
0.21943
0.41621
0.36740
0.18608
-0.64629
0.19879
-0.34537
-0.06013
-0.71198
-1.16200
0.06728
0.08783
0.08055
0.02130
-0.17228
0.38802
0.14267
0.15342
-0.18362
-1.16223
0.36384
0.49668
0.08235
0.15301
0.19510
0.32850
0.24549
0.24981
0.41478
0.23810
0.36034
0.01240
0.15128
-0.35408
-0.56515
0.25831
-0.21988
0.01267
-0.51503
0.67656
0.09247
0.17201
0.27306
-0.54836
0.26411
0.34212
0.13877
0.27586
0.08482
-0.49244
-0.20458
0.27724
0.26429
-0.17053
0.12099
0.10509
-0.43596
-0.29254
-0.03873
-0.14322
0.07679
-0.73269
0.06984
0.27490
0.33807
0.04510
-0.17031
0.43317
0.18803
0.16472
-0.45425
0.06471
0.39220
-0.65343
-0.10962
0.06588
-1.11439
0.21037
0.44083
-0.39652
0.12395
0.31244
0.00180
0.65479
0.27697
-0.19896
0.09583
-0.90631
0.34287
0.63534
0.53536
0.29962
0.39457
0.24405
0.44708
0.48873
0.10383
0.26195
0.39096
-0.55713
-1.64246
0.34558
-0.02322
-0.25447
0.43105
0.17804
0.09890
0.24245
0.44731
0.23306
-0.26745
-0.37302
0.29740
0.28663
0.09377
0.04642
-0.06388
0.44650
0.16449
-0.76853
0.33674
-0.91854
-0.17972
0.57308
0.00099
0.47356
0.14299
-0.39572
0.38041
-1.07847
0.16093
0.01460
0.47160
0.32400
0.13037
0.36057
0.13789
0.16559
-0.52101
0.31444
0.50756
0.66634
0.04557
0.33949
-0.69085
-0.41758
-0.39444
0.35123
0.37232
0.30123
0.10221
0.37696
0.21747
0.23713
0.22156
0.15695
0.10148
0.33153
-0.69046
-0.37206
-0.08972
0.12593
0.15673
0.26068
-0.24777
-0.11949
0.45594
0.34192
0.08596
0.00490
0.08886
-1.32920
0.09856
0.35661
0.34217
0.30673
-0.60581
0.19080
-0.33014
-0.72273
-0.36565
-0.02644
0.17037
-0.02992
0.42933
-0.36841
0.02000
-0.09990
0.36997
-0.27343
-0.23855
-0.03562
-0.27558
0.33620
-0.22346
-0.05398
-0.41673
0.38160
0.40970
0.34746
0.40948
-0.40989
-0.70348
-0.67883
0.13118
-0.35863
0.36853
0.33097
0.20602
-0.56709
0.18787
-0.31241
-0.09673
-0.09035
-0.23986
-0.48072
-0.36034
0.19742
0.50747
0.18394
-0.03185
-0.27688
-0.62504
0.67331
0.06477
0.40937
0.26376
-0.44571
0.35798
0.40766
0.38500
0.19418
0.42903
0.42137
0.03154
-0.31353
-0.39655
-0.23141
0.38128
0.38619
0.37380
-0.47015
0.56028
0.23368
-0.68983
0.28982
-0.39167
0.09687
-0.09126
0.00629
0.10633
0.90122
-0.07423
0.28340
0.04042
0.06543
0.56512
0.23664
-0.41539
0.18189
0.00207
0.12731
0.29441
0.31283
-0.40969
0.25708
0.38987
-0.38105
0.22390
0.29665
0.41583
0.17568
0.16972
-0.11515
0.41406
0.35030
0.23707
0.16198
0.15794
0.17962
0.20368
0.85222
0.26249
-0.23037
0.18184
0.12027
-0.42396
0.23289
-0.45513
0.27697
0.12874
0.02004
0.15040
0.49449
0.19986
-0.10184
0.20857
0.31451
0.26359
0.13245
0.33217
0.21127
0.65144
0.75245
-0.20942
0.04752
0.15707
-0.06591
-0.64515
0.43453
-0.08454
0.17608
0.10366
0.01372
0.18744
0.06991
0.04060
0.12655
0.52284
-0.26162
0.45325
0.50194
-0.65840
0.57036
0.27698
-0.25581
0.11419
0.39111
-0.03059
0.32278
0.28894
0.46342
0.28726
0.39913
0.38920
0.19734
-0.01018
-0.35406
0.48121
0.60313
0.13350
0.24739
0.19064
0.27293
0.40156
0.54842
0.46007
0.33362
0.23757
0.50241
0.36336
-0.29517
-0.22510
0.41515
-0.10703
0.04753
-0.66522
0.08465
0.14684
0.09749
-0.25757
-1.22836
0.38638
0.13484
-0.02802
-0.47068
0.21494
0.32946
0.05269
0.43110
0.30932
0.44442
0.13208
0.16974
0.12912
-0.65278
0.27598
0.72799
-1.45801
0.21240
0.34111
0.39141
0.40377
0.41587
-0.59283
0.57830
0.32823
0.17475
0.05591
0.29624
0.01402
0.25334
0.25833
0.33008
0.32498
0.12931
0.31485
0.08619
0.14216
0.41594
0.39596
-0.45914
0.31038
0.11802
0.01062
-0.71498
-0.30720
0.34270
-0.16712
0.10927
0.13933
0.14850
0.20321
0.09957
0.23976
0.44189
0.38644
0.48658
-0.63224
-1.47571
-0.16580
0.18152
0.10435
-0.26320
0.25627
0.13266
-0.32954
-0.11760
0.15915
0.39237
-0.13129
0.32528
0.11010
0.08644
0.14014
0.04812
-1.12705
0.18782
-0.24884
0.20021
0.13607
-0.46468
0.50053
0.12011
-0.60439
0.26310
-0.12761
0.01092
-1.16804
0.30973
0.19204
-0.44892
0.29169
-0.29202
-0.89677
0.09538
-0.00314
-0.58351
0.17247
0.19498
0.29594
-0.38638
0.01392
0.33230
-0.07877
0.40766
-0.28660
-0.96692
-0.04755
0.24558
0.46269
-0.23499
0.16578
0.23850
-0.56411
0.29531
-0.49099
0.02768
0.23578
0.15726
0.34125
0.09577
0.08230
0.24670
0.43014
0.61304
0.36921
0.16748
-0.21655
0.32547
0.30615
0.16768
-0.16845
-0.60493
0.58875
0.13429
0.48267
0.10947
0.15844
0.33002
0.28935
0.21332
-0.44984
-0.47944
0.56289
0.17289
-0.69909
-0.53297
0.19551
-0.98330
-1.34194
0.13445
-0.19644
0.15450
-0.13304
-0.29089
0.34510
-0.38357
0.29815
0.10370
0.22552
-0.81804
0.47932
0.09291
0.09704
-0.40041
0.01193
0.23967
0.36943
0.04353
-1.02796
0.13055
0.26550
-0.59973
-0.18227
0.09059
0.44874
-0.05756
0.15259
-0.52578
0.66426
0.29011
0.52350
0.71481
0.16582
0.31381
0.28234
0.25224
0.27488
0.12341
0.10236
0.17717
0.53487
0.01585
0.20542
0.35371
0.49658
0.56398
0.22619
-0.55679
0.05504
0.11740
-0.29871
-0.07258
0.30663
0.36723
0.31885
0.08543
0.44370
0.32441
0.08524
0.08787
0.35914
0.07506
0.29137
0.33685
-0.48086
0.28584
-0.38369
-0.26872
0.60020
-0.42859
0.20011
-0.09491
0.39356
0.35786
0.42441
-0.78139
0.17452
-0.51538
0.13688
0.01622
-0.66921
0.32916
0.04500
0.66927
0.20026
-1.07185
0.42543
-0.75877
-0.00443
-0.36925
0.02478
0.12563
-0.16447
0.10339
-1.43636
-1.61974
0.18211
0.14207
-0.12602
0.13460
0.33209
-0.87837
0.08747
0.34839
-0.68557
-0.45131
0.08102
-0.38758
-0.26258
0.20385
-0.05069
0.28477
-0.09142
-0.33816
0.03418
-0.10602
-0.50500
0.27025
0.04526
-1.05944
0.24845
0.14353
0.17173
0.62670
-1.08812
-0.34901
-0.51930
0.19399
-1.13846
0.37435
0.01989
-0.85474
-0.42100
-1.60698
0.07129
0.40218
0.09083
0.18345
0.20970
0.51479
-0.64384
0.21941
0.54443
-0.02804
0.05175
0.36579
-0.17147
0.37417
0.16827
-0.67974
0.25987
0.38575
-0.46117
-0.30047
0.14964
0.14132
0.50332
0.47666
0.74343
0.33740
-0.70829
0.03894
0.37782
0.06837
0.09247
0.25100
0.23070
0.61394
0.14471
-1.10578
-0.20723
0.80673
0.16209
-0.31802
0.36191
-0.38341
0.36166
0.65252
-0.19397
0.10398
0.10102
0.04092
0.12903
0.08688
0.26676
0.07638
-0.21503
-0.68871
0.29702
0.51361
0.51050
-0.12310
0.68032
0.12026
-0.01983
0.40114
0.41551
0.06776
-0.02502
0.37191
0.69744
0.86403
-0.78143
-0.42028
0.07160
0.36451
0.37589
-0.84969
0.41109
0.14895
0.08555
-0.32407
0.47942
-0.07550
0.08012
-0.25206
0.45263
0.38423
-0.31753
-0.26194
0.14647
-0.02378
0.09985
0.41404
0.06331
-0.05632
-0.47345
0.21443
0.04766
0.25734
0.25549
0.08923
-0.55987
-0.90389
0.69579
0.12986
-0.55305
0.29004
-0.03563
0.35916
-0.76212
-1.00443
0.04690
0.34948
0.30861
0.18077
0.15995
0.44520
0.32160
-0.18550
0.36295
-0.01264
0.31729
0.28063
0.22144
0.34651
0.48246
-0.43077
0.45642
0.14755
0.15930
0.08637
0.06816
0.03329
-0.79068
0.19277
-0.00732
-0.22518
0.22927
-0.20436
0.01741
-0.20836
-0.01338
-0.22989
0.51417
0.12756
0.29309
-1.05738
0.15196
-0.31048
-1.13318
0.08803
0.14360
0.23492
0.53541
0.15703
-0.27595
-0.37288
-0.01433
-0.06346
0.09932
0.28164
0.09694
0.39585
0.33449
0.01708
0.13572
0.22475
0.13440
0.19405
0.39713
0.06015
0.34623
0.16101
-0.41473
0.14253
0.29682
-0.29747
0.21080
0.23679
-0.04077
-0.04585
-1.14240
0.25648
-0.00346
0.37567
0.00804
0.06043
-0.35806
-0.30629
0.10378
-0.82749
-0.34038
0.13035
-0.10640
-0.43042
0.55893
-0.75664
0.24468
-0.78764
0.16320
0.76121
-0.01524
0.07035
-0.05438
0.25973
0.32113
0.20487
-0.13602
0.42166
0.27642
-0.04482
0.15044
0.16739
-0.29670
0.19331
0.14858
0.03425
-0.05400
0.27978
-0.19124
0.19749
0.28338
0.04422
-0.65404
-0.26778
-0.05685
-0.00539
0.01572
0.20878
-0.23788
-0.07553
-0.36478
0.11327
-0.08664
0.25813
-0.39048
0.46574
-0.18069
0.28557
0.32010
-0.65141
-0.07637
0.15512
-0.73567
0.47373
0.05374
0.50784
0.25394
-0.14457
-0.37275
0.63290
0.34379
0.06495
0.12646
0.02631
-1.08814
-0.41403
-0.01391
-0.11710
-0.14992
0.19313
0.24849
-0.01967
0.12076
-0.31072
-0.63591
0.26160
-0.12514
0.08852
0.39668
-0.86208
0.14693
0.27852
0.14223
0.76775
0.13935
-0.17991
0.06472
0.20822
0.10570
0.43383
-0.59894
0.01882
0.37997
0.14231
0.14440
0.06043
-0.35224
0.05973
-1.20938
0.27186
0.09582
0.07775
0.18971
-0.44549
0.29767
0.58689
-0.62652
0.55977
0.50875
0.38291
0.60145
0.19325
-0.41165
-0.41459
0.23150
0.25186
0.12020
0.55573
0.16858
0.58654
-0.06839
0.10281
0.41739
0.22505
0.31987
-0.41128
-0.48844
0.28626
0.54991
0.39162
0.08064
0.67313
0.08488
0.15077
-0.11945
0.71494
0.49076
0.03924
0.14514
0.32186
0.52103
0.17790
0.24289
0.78386
0.67574
-0.03187
-0.17796
-0.00341
0.15897
-0.38332
0.13969
0.12805
0.18997
-0.48500
-0.06525
0.16163
0.13637
0.30167
-0.04354
0.04227
0.03100
0.44382
0.35998
0.25805
-0.02937
0.04175
0.06962
-0.71817
0.13640
-0.03287
-0.29799
-0.87044
0.55806
0.25525
0.18876
-0.20673
0.26095
-0.26016
0.30955
0.22599
-0.18401
-0.01886
0.40502
0.04026
-0.10557
0.67213
0.41355
0.44752
0.23675
0.19102
0.14115
0.18992
-0.32063
0.09731
0.06073
-0.74158
0.22658
0.24069
-0.34231
-0.01121
0.09922
0.01474
0.18428
0.68794
0.05578
-0.08572
0.81912
-0.05885
-0.51676
0.22176
0.22529
0.36112
-0.51134
-0.44132
0.64421
-0.39797
0.03076
0.03019
-0.30791
-0.38185
0.32664
0.24580
0.14534
-0.18332
0.30268
0.14021
-0.36837
0.25073
0.60310
0.27815
0.36738
0.24248
0.27483
0.46010
0.16114
0.26680
0.29560
0.49689
0.18518
-0.42380
0.25731
-0.40747
0.14777
0.15388
-0.12695
0.09387
-0.22702
-0.13525
0.04342
-0.05352
0.17246
-0.51612
-0.09817
-0.88183
-0.21834
0.35754
0.41300
-0.00628
0.17452
0.47995
-0.33766
0.27813
0.54954
0.05543
0.35061
-0.01620
-1.07327
0.40441
0.23962
-1.02217
-0.28736
0.33302
-0.48428
0.01366
0.41111
-0.89536
-0.59456
-0.10049
0.06830
0.19791
0.21156
0.20888
0.20546
-0.02398
-0.34763
0.30947
-0.47909
-0.23810
0.09474
-0.05126
0.11590
0.22566
0.00095
0.19458
-1.06451
0.14106
0.03477
0.38587
-0.68701
-0.61444
0.35182
0.30019
0.40382
0.18665
0.38051
0.18735
-0.43767
0.13128
-0.29668
-1.04148
0.00195
-0.70348
0.25877
-0.78751
0.27754
-0.87860
0.40051
-0.34157
-0.34429
-0.39289
0.04545
0.17006
-0.46337
-0.03508
0.25049
0.27942
0.22280
-1.07138
0.25225
0.23764
0.24146
0.31196
-0.15942
0.43336
-0.48203
0.12618
-0.88692
0.31438
0.13686
0.57323
-1.45103
-1.04804
-0.20812
-0.45087
0.81893
0.17453
0.33101
-0.06621
-0.25498
0.13261
-0.80975
0.33525
0.20480
0.39556
0.34294
-0.07871
0.21233
-0.28864
0.20607
0.30839
0.25619
0.25221
-0.05023
-0.58553
-0.80695
0.17775
0.12051
0.36433
0.16726
-0.14740
0.21355
0.05478
-0.56166
-0.08110
-0.48037
0.47487
-0.78700
-0.31834
0.34311
0.62008
0.11510
0.07874
-0.10643
0.18388
0.30653
0.17699
0.30317
0.54483
0.16144
0.10334
0.22105
0.15232
-0.69108
0.15829
0.22787
0.32575
-0.28965
-0.05818
0.29344
0.31106
-0.14216
-0.53886
-0.15499
0.62854
-0.33048
-0.34015
0.45862
0.15578
0.25589
0.25016
0.45590
-1.04490
0.21010
0.19172
-0.09424
-0.78725
0.27583
-0.57306
0.34551
0.25045
-0.02427
0.37621
0.50099
-0.11539
-0.66170
0.33535
-1.56409
0.27266
0.44985
0.43576
-0.57871
-0.82889
0.49534
0.00834
0.43474
0.17814
-0.30335
0.31081
-0.60784
0.16377
0.04572
0.01636
-0.67206
0.41241
0.29674
0.41368
0.40944
0.10885
0.85228
-0.18868
0.32681
-0.45006
0.26219
-0.28210
0.32109
-0.04273
0.40960
-0.24953
0.28646
-0.56239
0.19240
0.41566
0.24442
0.38827
0.14012
0.30148
0.06927
-0.26944
0.25688
-0.38419
0.11233
0.06171
0.45474
0.27924
0.23858
0.39256
0.34767
0.08811
0.40564
0.07286
0.22083
0.00263
0.42075
0.30824
0.50769
-0.99627
-0.46264
-1.04782
-0.30047
0.50343
0.16601
-0.51472
0.40249
0.36784
0.09782
-0.53326
0.37326
0.27470
0.52527
0.29946
-0.03587
-0.03764
0.00654
0.30978
-0.46471
0.30533
0.38966
0.03877
0.06466
0.09908
0.36950
0.12069
0.18941
0.26343
0.18493
0.13768
0.31293
-0.25389
0.20645
0.79522
0.38542
-0.57398
0.15654
0.00242
0.46038
0.38848
-0.40795
0.24330
0.24558
-0.03923
0.66833
0.16740
0.49782
-0.76427
0.31153
-0.62523
0.38703
0.33711
0.40818
0.14341
0.75657
-0.53742
-0.31829
-0.12412
0.35924
0.42524
-0.78826
0.36539
0.21944
-1.20309
-0.30279
-0.24213
0.66358
-0.19105
-0.16907
-0.12538
0.42717
0.14269
-0.23486
-0.02108
-0.02425
-0.38846
0.05850
-0.13726
0.37201
-0.14356
0.53645
0.39053
-0.26720
0.30468
-0.44116
0.18873
-0.48099
0.42221
-0.16133
-0.46968
-0.33480
-0.75396
0.43182
-0.49077
0.09023
0.05246
0.52015
-0.03076
0.25587
0.28081
-1.25688
0.15493
-0.20438
0.06645
-0.05364
0.18826
-0.45081
0.03112
0.02853
-0.94039
0.11529
-0.47956
-0.20124
-0.77629
-0.03149
0.27807
0.17355
-0.15626
-0.78878
0.42999
0.52334
0.00775
-0.60928
0.04006
0.08777
0.17091
0.13528
0.55974
0.09452
-0.04265
-0.16288
-0.32362
-0.88429
0.06165
-0.01463
-0.24765
-1.82434
0.21614
0.12007
-0.13738
0.08697
-0.16055
-0.21257
-0.03215
0.28969
-1.41973
0.15857
0.10014
0.04326
0.52890
-0.59388
0.49304
0.16561
0.30997
-0.08867
-0.12672
0.58210
0.41665
0.51718
-1.03328
0.05818
-1.26382
0.35288
0.21585
0.05377
-0.87777
0.35956
0.02097
0.25498
0.11873
0.05151
-0.75953
0.37432
-0.76824
0.07361
-0.71935
0.12158
0.10063
0.38173
0.11258
0.18413
-0.40100
0.41439
-0.11740
0.07568
-0.01467
0.19417
0.11329
0.32970
0.47404
-0.42882
0.13569
-0.08110
0.43101
0.26097
-0.69226
0.19250
0.34691
0.32221
0.59266
0.14124
-1.08549
-0.32636
-0.78192
-0.31568
0.16184
0.28054
0.16492
-0.37489
-0.05599
-0.58547
-1.24619
0.09535
0.52166
0.36119
0.15116
0.08089
-0.03176
0.66835
0.21900
0.00009
-0.05666
-0.40016
-0.48564
0.27723
-0.01625
-0.47290
0.12714
0.26502
0.12210
-0.17941
0.57469
0.18163
0.13811
-0.42954
-0.13896
0.20249
-1.02760
0.36517
-0.53262
0.25326
-0.51926
-1.05254
0.36650
0.36477
0.22785
0.30882
0.19370
0.08856
0.62529
0.68048
-0.45153
0.63985
0.31721
-0.05878
0.36632
0.42355
0.26297
0.71610
0.28373
0.34820
0.14919
0.15781
0.06802
-0.02112
-0.65414
0.10583
0.18243
-0.29338
0.04964
0.41044
0.50153
-0.46156
-0.35998
-0.60123
0.11252
0.33859
-0.24712
-0.25557
0.37097
0.55273
0.18860
0.31915
0.09324
-0.40181
0.10184
0.18418
0.50081
-0.43028
0.27446
0.43939
0.15601
0.11134
0.10889
0.14201
0.51978
0.03711
0.38110
0.45082
-0.25449
0.21347
0.25080
-1.02832
-0.28182
-0.07373
0.11181
0.13069
-0.35671
0.24600
-1.01973
-0.32038
-0.21416
0.15571
-0.48302
0.45414
-0.04872
-0.32343
-0.78475
0.21397
0.51804
0.45505
-0.26198
-0.32955
-0.38317
0.07491
-0.43724
0.43599
0.44435
0.12454
-0.64335
0.41710
-0.10343
0.30899
0.16688
-0.76770
-0.83809
0.13757
-0.11280
0.15335
-0.35370
0.15710
0.14984
-0.72777
0.13612
-0.02041
0.33948
0.13966
0.00233
-0.63335
-0.00343
0.15301
0.06465
0.15648
0.03117
-0.15327
0.14629
-0.75487
0.02714
-0.45353
0.12003
-0.09543
0.31344
-0.22809
0.28402
-0.31185
0.64502
-0.69161
-0.05543
0.03101
0.15980
-0.01869
0.32651
0.05128
-0.60096
0.08519
0.06352
-0.72852
0.28911
0.74417
-0.50577
0.16420
0.32740
0.36487
0.02044
-0.46287
0.13976
-0.07491
0.31314
0.77674
-0.67934
0.24733
0.08815
-0.05420
0.24976
-0.69197
-0.68931
0.22840
-1.76017
-0.77483
0.47955
-0.55366
-0.27540
-1.22392
0.07748
0.21196
0.16207
0.06637
0.39205
0.23415
-0.75154
0.17097
0.36807
-0.04266
-1.34694
-0.31737
-0.39551
-0.33399
0.15446
-0.68852
0.31961
0.25699
-0.84216
-1.26494
-0.29125
0.15293
0.40853
0.26254
-0.47000
0.29618
0.11207
-0.73931
0.44241
0.13526
0.54395
0.00592
-0.69829
-1.09576
-0.51294
-0.37565
0.33424
0.11835
-0.72542
-0.28452
-0.52928
0.08184
0.07378
-0.28534
0.27517
0.08003
0.16939
-0.72830
0.24525
-0.13592
-0.31642
-0.21563
0.26704
-0.37082
0.10500
0.56573
0.15420
0.07040
0.41797
0.65592
0.13343
0.03909
-0.30221
0.25495
-0.14329
0.68496
0.35933
0.09348
-0.49181
-0.43633
-0.35741
-1.70253
0.67488
0.15802
0.06256
0.13134
-0.38120
-0.38758
0.13921
-0.31962
0.29434
-0.74175
0.59920
0.66702
0.47948
-1.08760
-0.48862
0.48101
0.02566
0.13130
0.30252
-0.65465
0.46141
-0.69340
0.17305
-0.05205
0.25729
-0.76748
0.12425
0.00482
0.40335
0.25078
0.25290
0.06370
0.29564
0.34880
-0.38305
0.05668
0.12073
-0.95496
0.08692
0.10202
0.12950
0.70327
0.32265
-0.53575
-0.22591
0.14301
0.32791
0.58007
0.50704
-0.37869
-1.11977
0.28277
0.18179
0.10941
-0.04913
-0.27443
0.10056
0.13380
0.15793
0.24362
0.18151
0.25946
0.09255
0.49268
-0.28196
0.20662
0.46982
0.27995
0.13137
0.25843
-0.30398
0.13879
0.12793
0.51765
0.11023
-0.11863
0.32993
0.10053
-0.72683
-0.76907
0.11894
-0.17995
-0.11429
-0.18658
0.07852
0.35596
0.10139
-0.09098
-1.04803
-0.52086
-0.91664
-0.76603
0.26574
-0.31569
-0.65371
-0.73935
0.16391
-0.15552
0.15631
0.41574
0.22311
0.12205
0.49034
0.11678
-0.21920
-0.99729
0.31845
-0.33200
0.64764
0.70574
-0.39184
0.23934
-0.14612
-1.00956
0.54895
0.47918
-0.03200
-1.15710
-0.59321
0.19055
-0.49108
-0.43121
0.01182
0.06520
0.01371
-0.05365
-0.84689
-0.21240
0.23991
-0.77525
0.02678
0.33389
0.03875
0.22841
-0.41831
-1.00806
-0.37612
0.58076
0.25007
-0.42657
-0.62243
-0.07041
0.23454
0.02565
-0.44842
-0.35886
0.03448
0.66517
0.13088
0.11718
0.18389
-0.34097
-0.96555
0.22410
0.25303
-0.05118
0.35886
0.10767
0.15586
0.27059
-0.58799
0.22446
-1.06526
0.07589
0.16944
0.42441
0.09680
0.15310
0.06992
0.00806
-0.37671
0.14308
-0.92296
0.42158
-0.44424
0.14827
0.06671
0.35544
0.11667
0.47644
0.10406
-0.66399
-0.05394
0.18483
-0.27304
0.05371
0.18385
0.35184
0.05333
-0.99267
0.02907
0.26731
-0.72776
0.18595
-0.06341
-0.05564
-0.27280
-1.18525
0.18890
0.76943
-1.37714
0.06084
0.24284
0.09187
0.24069
-0.35000
-0.27594
-0.50784
0.13694
0.03635
-0.38970
-1.16206
0.33223
-0.32272
-0.10284
0.74320
0.08544
0.02278
0.10304
0.04688
-0.48645
0.12364
0.21690
0.12788
-0.32710
-0.09586
-0.27399
0.17323
0.34689
0.04251
-0.66141
-1.15956
0.28475
-0.45483
-0.16687
-0.69511
0.46034
-0.42787
-0.20685
0.83432
0.46201
0.62711
-0.19231
0.19982
-0.63958
0.31202
0.71704
0.28504
-0.08015
0.11403
-1.32316
0.02295
0.19648
0.66811
-0.19665
0.42852
0.08148
0.54687
0.12467
-0.35603
0.60370
-0.52296
0.06632
0.61144
-0.04654
0.42754
0.09444
-0.05094
-0.70615
0.05275
-1.35321
0.21202
0.37865
0.23170
-0.94485
0.52803
0.09044
0.05658
-0.38201
0.16749
0.03090
0.80798
0.69091
-0.08053
0.51796
0.08108
0.06592
-0.60680
-0.18607
0.12316
-1.11198
0.36226
0.34401
-0.06308
0.08077
0.09424
-0.01825
-0.06419
0.48588
-0.95509
0.40308
-0.15356
-0.74140
0.10287
-0.06142
-0.44927
-0.27455
0.13018
-0.10086
0.03533
0.26878
0.27865
-1.01177
-0.29911
-1.46098
0.30666
0.16229
0.40003
0.09656
0.60005
-0.98552
0.48130
0.51767
0.60186
-1.21815
-0.35804
0.02267
0.09830
0.16165
0.67336
0.04142
0.38183
-0.44320
-0.05147
-0.65873
0.20810
0.27750
0.09282
0.03223
0.12021
0.21684
0.13508
-0.80083
-0.05416
0.15995
0.05782
-0.18223
-0.37428
-0.07282
0.28422
0.12325
0.03516
0.06861
-0.06378
-0.29445
0.43983
0.19237
0.00048
-0.44464
-0.20228
-0.47855
0.43058
-1.16524
-0.26504
0.33960
-1.05845
0.25261
0.47780
0.13738
0.15710
-0.28165
0.13325
-0.60866
0.20505
0.05910
0.10144
-0.03366
0.02094
-0.23564
-1.22795
-0.50053
-0.56906
-1.08379
-0.00455
0.73505
0.28408
-0.32497
0.10634
0.27527
-0.87677
-0.93272
-0.04019
0.30164
0.56651
0.24384
-0.65620
0.33114
0.13520
0.40514
0.41046
0.37142
0.19330
0.06765
0.24550
-0.40082
-0.04238
0.09688
-0.26476
-0.82164
0.09334
0.36916
-0.16289
-0.38795
0.42266
-0.10899
0.29199
-0.33625
0.28569
-0.03494
0.01837
0.38072
0.09408
0.56498
-0.10730
0.12463
-0.41800
-0.61189
-0.02256
-0.11558
-0.28911
-1.20096
-0.17578
0.14405
0.04561
0.31009
0.02866
0.28668
-0.97490
-0.48048
0.13001
-0.25705
0.07408
0.11018
-0.64209
-0.24938
0.37545
0.24209
-0.46088
0.12604
0.38071
0.40553
-0.10481
0.32927
0.00093
0.08349
0.16846
0.60383
0.02149
0.02852
0.07605
0.67249
-1.23253
-0.18950
0.24435
-0.17137
0.11390
0.07546
-0.25919
0.49015
-0.39320
0.03423
0.26413
-0.26459
0.39261
0.71415
-0.05840
-0.19659
0.59619
0.32516
0.13893
-0.13338
0.23781
0.34864
-0.15090
-1.00669
0.05532
-0.36746
0.25400
0.01040
0.49467
0.03811
-0.64220
-1.01276
0.11363
0.10263
0.32455
0.08590
0.13001
-0.09439
0.18359
-0.51246
0.04334
0.18826
-0.91989
0.08127
-0.80002
0.29043
0.34758
0.02589
-0.23209
0.61655
0.01065
0.35964
-0.23362
-0.76249
0.06949
0.11967
0.04025
0.50202
-0.37872
0.02162
0.09975
0.42997
-0.00252
0.09170
0.42955
-0.12124
-0.08889
0.55735
0.16778
-0.62986
-0.30084
0.13611
0.03784
-0.36965
0.42988
-0.70173
0.53323
0.17773
-0.16303
0.17654
-0.55173
0.10369
0.21758
0.62631
-0.02140
0.26537
0.13423
0.00155
-0.15651
0.19036
0.65345
-1.29074
-0.12610
-0.02520
0.06493
-0.37769
-0.04202
-0.46898
-0.48321
0.01917
-0.80118
0.00563
-0.97604
0.10271
-1.51853
-0.31944
-0.25308
0.16657
0.22564
-0.74630
0.35671
0.44253
0.09697
-0.40397
0.21034
0.30653
-0.28721
0.35490
-0.11985
0.11347
-0.23411
-0.03094
-0.34781
0.25531
-0.79340
-0.34441
0.14169
-0.03713
0.49052
0.52844
-0.65574
-0.28398
-0.17751
-0.84073
-0.12036
-0.39909
0.54372
0.12174
-0.44614
0.35566
-0.50703
-0.50067
-0.42080
0.12831
0.24221
0.28631
0.11990
0.08845
-1.40051
-0.00100
-0.40868
-1.57544
0.08974
0.61874
-0.52060
0.23434
0.48088
0.63685
-0.40704
0.33407
-0.77044
0.20589
-0.01974
-0.21358
0.48753
0.04563
0.00184
-0.12211
0.21660
0.66754
0.16813
0.32050
0.39348
0.39003
0.28791
-0.96525
0.03795
-0.34997
-0.17155
-0.40998
0.22452
0.16332
0.11513
0.13182
-0.58129
-0.23357
-0.14685
0.16053
-0.07673
0.29424
0.21207
-1.50252
-0.25140
-0.54695
-0.91886
0.62143
0.14759
0.13549
-1.02716
0.15231
0.20505
-1.23554
0.15447
0.30187
0.31941
-0.97454
-0.20804
0.00291
-0.82992
0.60333
-1.53441
-0.17940
-0.28683
-0.20898
-0.37224
0.18893
-1.39975
0.17616
-0.36103
0.20171
0.63261
-0.47935
0.04012
0.19028
0.24650
-0.42624
-0.10696
0.42927
-0.17559
0.05110
-0.39410
-0.96621
0.30991
-0.21275
0.02541
-0.04367
-0.07516
0.06176
0.31612
0.07973
0.22933
0.67061
0.07240
-0.98496
-0.78418
0.29807
-0.90469
-0.50726
0.12924
-0.64750
0.76113
0.12730
0.54689
0.38670
0.36169
-0.20869
-0.96788
0.35867
0.21643
0.11474
0.21936
0.51242
0.43885
-0.40812
-0.79726
-0.11061
0.08510
0.27323
-0.22904
-0.43490
0.23012
-0.33478
0.40527
0.09764
0.09445
-0.96525
0.23484
0.13777
0.24905
0.14443
-0.51351
0.18553
-0.06577
-0.22431
0.25159
0.20548
-0.46016
0.13796
-0.56595
0.26157
0.63865
-0.39238
0.06208
-0.08805
0.22464
0.02948
0.09410
-0.21113
0.14100
-0.42071
0.19868
-0.20913
0.25185
0.12355
-0.53751
-0.73590
-0.35855
0.40715
0.14835
0.19511
-0.29764
0.11109
-0.05241
0.30185
0.62120
-0.49296
-1.22397
0.54170
0.46386
-0.43472
-0.37089
-0.59111
0.31039
0.04742
0.46945
0.15375
-0.50657
-0.74326
0.41514
-0.76975
-0.40426
-0.45889
0.11594
-0.45188
-0.56969
-0.83184
0.37853
0.10441
-0.28762
0.32963
-0.18658
-0.11826
-0.20570
0.41557
-0.39341
-0.23995
0.79188
0.05067
-0.29805
-0.07762
-0.21504
-0.38008
0.18187
-0.19204
0.08925
-0.31969
-0.47253
-0.49215
-0.06817
0.00456
-0.32643
0.02393
0.00782
0.15208
-0.19696
0.18820
0.34167
-1.07026
0.43623
-2.11641
0.57842
0.05793
0.18741
0.21081
-0.09612
0.27259
0.05685
0.27777
0.16940
-0.43432
-0.54419
0.24429
-0.38645
-0.19472
0.01952
0.17797
0.22463
0.55284
0.48062
-0.06448
0.43344
0.28351
0.05985
-0.67652
-0.54786
-0.60600
-0.33137
-0.15210
-0.84076
0.43418
0.28258
-0.37913
0.01642
0.40280
0.02850
-0.44533
0.21581
0.23563
0.57213
-0.04182
-1.00991
-0.21504
-0.27793
0.26153
-0.68054
-0.41205
-0.03251
-0.43614
-0.03644
0.15380
0.32998
0.15905
1.01908
-0.38310
-0.43743
0.23461
-0.09967
0.58961
-0.61701
0.02117
-0.99478
-0.11953
0.25276
-0.41562
0.30604
0.52846
0.21747
0.63699
-0.42242
-0.04873
-0.10276
-0.36873
0.40870
-0.14140
0.23182
0.11359
0.09107
0.07177
0.03548
-0.06869
0.38779
0.44200
0.23063
-0.31881
-0.08646
0.22841
0.39674
0.07201
-0.86959
0.13944
-0.82683
0.32326
0.14082
0.03032
0.16417
0.18708
0.16395
0.12564
0.63884
-0.63731
-0.13561
0.84702
0.13521
0.33361
-0.83365
-0.32090
0.11288
0.18914
-0.33601
0.30674
-1.49768
0.39148
0.09191
0.67718
-0.23139
-0.38904
-1.33620
-0.48730
-0.09037
0.63077
-0.20773
0.44916
-0.36434
0.09481
0.08089
-0.13366
-0.49473
0.00120
0.52119
0.16696
-0.31654
0.26479
0.11766
0.44784
-0.11841
0.03332
-0.49625
0.10739
0.09190
0.47464
-0.52453
0.37020
0.02418
-0.38876
0.08859
0.14290
0.09922
-0.51744
0.05507
0.57483
-0.86420
0.27655
0.14832
0.52303
-1.03352
0.11275
-0.83027
-0.96740
0.15307
0.53651
0.00608
-0.36330
0.23818
0.26686
0.10899
-1.01840
-0.49877
0.11185
0.17006
0.45590
-0.72424
0.24299
-0.21330
0.56311
-0.43656
0.37501
-0.07321
0.08155
0.12225
0.54422
0.10524
0.00779
0.47417
0.35549
-0.27093
-0.37319
0.13497
0.51816
0.24536
-0.89991
0.26555
-0.04571
0.15258
0.32182
-0.37730
-1.08720
-0.69236
0.10816
-0.55766
-0.10179
0.39763
0.02878
0.01727
0.04459
0.06346
0.32334
0.18433
0.22675
0.15314
0.18262
0.08742
0.27113
0.26424
-0.10065
0.08339
0.33726
0.22926
0.15123
0.27843
0.32111
0.47125
0.16540
-0.77536
0.42162
0.08499
0.08604
-0.02059
-0.27094
0.12094
0.28605
-0.40585
-0.36586
0.09515
-0.12582
0.09288
0.16114
0.32411
-0.02550
0.10404
-0.48303
0.18756
0.28626
-0.68232
-1.24134
-0.24819
0.53037
0.04615
0.22569
-0.14514
-0.22970
0.07079
0.42103
0.25424
0.10639
-1.06640
-0.89781
0.14289
-0.34327
-0.25236
0.24639
-0.16352
0.09421
-0.51537
0.47475
0.53216
0.05922
-0.50174
0.47103
0.25654
-0.00920
0.08269
0.73802
-0.99433
0.08594
0.29033
0.21931
0.19789
-0.20543
0.29233
-0.01233
0.22501
-0.46937
0.12246
-1.01191
0.12526
0.06409
0.46791
-0.09814
0.07377
-0.05719
-0.37165
0.32069
0.25579
0.06359
-0.53814
0.13091
0.53026
0.24555
-0.33593
0.52484
0.08002
0.06719
-0.40290
-0.35148
0.17245
-0.16703
0.09174
-0.74798
-0.40147
0.08065
0.33664
0.14325
0.12061
0.28079
0.16103
-0.35289
0.29211
0.19267
-0.47378
-0.02098
-0.12766
0.28695
-0.75556
0.04620
0.07979
0.55429
0.23913
0.11056
-0.15263
-0.86581
0.13020
-0.72151
0.08096
-0.01735
-0.28658
0.30784
0.08372
0.12793
0.39300
-0.91408
0.35000
-0.61244
0.38927
-0.10766
0.79417
0.12106
0.38704
0.52706
0.39106
-0.47530
-0.40743
0.41700
-0.38533
0.20639
0.01732
0.25658
0.68818
0.01620
0.04403
0.06902
0.11591
0.83176
-0.58420
0.22995
0.12027
0.07394
0.27842
0.55073
-0.52508
0.09842
0.15592
0.29997
0.12146
0.11996
-0.25710
0.00311
-0.10586
0.39969
0.23838
-0.58813
0.45442
-0.12399
0.13711
-0.26976
-0.41103
-0.54957
0.25019
0.06077
0.10240
0.11940
-0.04659
-0.28151
-0.09281
0.09529
0.28550
0.04655
-0.18145
0.00771
0.07622
0.27677
-0.02325
0.12607
0.15594
0.40074
-0.54543
-0.35229
0.55568
-0.01760
-0.46373
-0.82844
0.02577
0.07442
0.54215
0.13950
0.01501
-0.75594
-0.10623
-0.31417
-0.19878
0.24636
0.08638
-0.08264
0.43291
-0.30122
0.15466
0.42487
0.13658
0.04335
-0.57487
0.14267
0.38090
0.13591
0.06794
-1.33972
-1.29403
0.01583
0.42672
-0.15460
0.03996
0.20100
-0.51815
0.05774
0.17965
0.09059
0.10205
0.14841
0.41427
-0.73260
-0.08979
-0.65525
-0.70689
-0.15857
0.45937
0.06426
-0.57636
0.13936
-0.50736
0.10693
0.07154
0.13950
-0.74157
-0.00302
0.02600
0.09231
-0.60976
0.60584
-0.17947
0.43054
-0.01709
-0.83665
0.09015
-0.14204
0.57377
-0.64834
0.41728
-0.07405
0.28223
0.11888
0.12456
0.24989
-0.26395
0.52653
-0.45249
0.07426
-0.47272
0.27155
-0.73097
-0.05014
-1.20614
0.25501
-0.14358
0.45267
-0.75370
-0.39318
-0.00838
0.00967
0.63945
0.91942
0.08080
0.40800
-0.42755
0.18520
-0.40227
0.05537
0.01847
-0.42648
0.11838
-1.13265
-0.42030
0.36859
-0.66200
0.38316
-0.04052
0.29358
0.07150
-0.04169
0.81176
0.06028
-0.54091
-0.01058
0.13784
0.17837
0.10539
0.15578
0.09357
-0.34935
-0.28306
0.16270
0.07792
-0.05090
0.04845
-0.45875
0.09428
0.14517
-0.38417
0.11924
-0.03387
0.10058
0.07539
0.15497
-0.72005
-0.03698
0.12340
0.07224
-1.19013
-0.32082
-0.17841
-0.00423
0.11293
0.16411
-0.17495
0.10105
-0.45320
0.44908
-0.69846
0.10577
-0.18305
-0.32830
0.46730
-0.15770
-0.89043
0.69672
0.07303
0.45490
0.13231
0.01988
-0.00577
0.05927
0.09704
-0.02520
-0.08168
-0.83350
-0.31385
0.08608
0.08333
-0.37764
0.01231
0.51394
0.26933
0.32149
-0.69369
0.27365
-0.13054
0.02630
0.17016
0.08351
0.15247
0.13163
0.28053
0.24495
0.26408
0.06119
0.13215
-0.42570
0.04832
0.16453
0.23234
0.08642
-0.26657
-0.12956
-1.24057
0.42313
0.11427
0.12859
-0.80674
0.07237
0.03404
0.04007
0.01206
0.22316
0.28139
0.57636
0.29066
0.05880
0.25872
0.06792
-0.39516
0.20210
-0.15477
0.19214
0.22584
0.16909
0.36218
-0.21797
-0.07639
-0.01268
0.08808
0.22227
0.32735
-0.69726
0.77783
0.00134
0.14523
0.40158
0.09876
-0.92089
0.11906
-0.85501
0.08655
0.16909
0.22162
0.37034
0.02693
0.47693
0.12118
-1.17607
0.10177
-0.00919
0.04226
0.28285
-0.32452
-0.29244
0.09076
0.07937
0.21898
-0.10521
0.62935
-0.17786
0.49805
-1.03099
0.37516
0.26965
-0.15843
0.04910
0.20641
-0.27182
-1.34965
0.29563
0.09693
-0.72784
0.15121
0.12268
0.48685
0.42427
0.06806
-0.02762
0.09138
0.03812
-0.40835
0.41516
0.10121
0.35917
0.18611
0.21524
0.04863
0.13590
0.12750
0.15884
