0.09756
-0.42333
-0.58716
-0.32381
0.08477
0.22212
-0.03134
0.04924
-0.11599
0.08361
-0.32754
-0.69963
-0.34153
0.06776
0.17689
0.01511
0.19079
0.36319
0.11230
0.00914
0.26244
-0.73924
0.05500
-0.57110
0.21400
0.32084
0.15733
0.20657
0.25020
-0.19569
0.04315
-0.30525
0.05472
-0.19995
0.04353
0.20605
-0.12173
0.05505
-0.10485
0.20768
-1.01909
0.04883
0.06078
-0.68830
-0.15810
0.22660
0.21289
-0.42736
0.17755
-0.01302
-0.02682
-0.81961
0.22882
-0.08655
-1.08181
-0.29305
0.05225
0.21257
0.46978
-0.23153
0.17827
0.05871
0.24155
0.16014
0.19628
0.01173
0.19386
-0.41261
0.18033
-0.20839
0.25263
-0.01727
0.25115
0.15012
-0.53717
0.28928
0.11943
-0.13902
-0.25565
-0.11312
0.01185
0.14521
-0.05482
-0.14477
0.11457
-0.29837
-0.13725
0.23231
-0.68028
0.03197
-0.73232
-0.85472
0.80566
-0.13431
0.12875
-0.10468
-0.18533
-0.16628
0.14716
-0.41551
0.13608
-0.36146
-0.07779
0.08393
-0.09458
0.17786
-0.16560
-0.09484
-0.14894
-0.02527
0.35986
-0.36768
-0.40577
0.20083
0.04885
-0.61830
-0.34310
-0.18104
0.20284
-0.01418
0.22901
0.19164
0.03270
0.15469
-0.16140
-0.92532
0.25287
0.00336
0.18583
-0.43722
-0.21404
-0.00047
-0.35751
0.04091
-0.57877
0.15089
0.20562
0.34886
0.01627
-0.15217
-0.52236
-0.43597
-0.19995
0.16066
0.23643
0.05605
0.30234
0.29254
0.15844
0.19543
-0.03674
-0.16926
-0.23473
0.09786
0.05843
-0.70191
0.09762
0.10406
-0.09519
-0.24480
-0.00585
-0.15279
-0.38623
-0.09185
-0.75530
0.30685
-0.56072
0.19970
0.15406
0.08727
0.19301
-0.19106
0.13850
-0.16189
-0.22420
0.13868
-0.76865
-0.00375
-0.27076
-0.07977
0.29624
-0.27307
0.20730
-0.57749
0.20877
-0.14104
-0.28826
0.20213
-0.28400
0.20278
-0.00993
-0.35346
-0.32266
0.02774
0.13221
0.06988
0.04673
-1.10145
-0.65964
-0.32368
-0.18682
0.20085
-0.06206
0.03946
0.01446
-0.38659
-1.08883
-0.18175
-0.02616
0.42533
-0.23863
0.01617
0.01976
-0.17401
0.18433
-0.43034
-0.04674
0.04326
0.31317
-0.19450
0.16713
-0.41993
0.09725
0.20164
0.00736
-0.22295
-0.35183
0.20574
-0.05269
-0.06672
-0.21032
0.20474
-0.33373
0.11399
0.04883
-0.55755
-0.10711
0.36920
-0.07835
0.17560
-0.30787
0.19422
-0.08054
-0.10261
0.21006
0.13685
-0.52424
0.13348
0.29678
-0.22121
0.03161
0.08512
-0.13230
0.09951
-0.21829
-0.14240
0.11942
-0.06037
-0.10419
0.10395
-0.27261
-0.03740
0.11259
0.17837
0.28755
0.02208
-0.04404
-0.06243
-0.36870
0.12753
0.03523
0.12443
-0.39205
0.23786
-0.07263
-0.23041
0.23653
-0.13904
0.24693
0.03722
-0.04790
-0.70412
-0.26815
-0.21167
0.34750
0.11658
0.21929
-0.17155
-0.07464
-0.22731
-0.39400
0.07578
0.34870
0.13275
-0.54930
-0.10378
0.20541
0.01666
-0.17153
-0.09838
0.27465
-0.23001
0.16042
0.74200
0.06962
-0.00155
0.19220
0.11791
-0.00865
0.35042
-0.02991
0.16921
0.19894
-0.06000
0.14476
-0.16718
-0.04308
-0.01799
-0.16166
-0.40427
0.33467
-0.03599
-0.55259
0.31789
0.46160
-0.29256
-0.03505
0.09817
0.11761
0.28553
-0.30131
-0.18286
-0.42264
-0.04481
0.19026
-0.12287
0.12524
0.03451
0.26937
0.01877
-0.36078
-0.09963
0.24022
0.09416
0.16051
0.02865
0.06053
0.24538
0.13204
-0.81777
0.22325
-0.05822
0.00126
0.09140
0.05547
-0.07654
0.36684
0.03095
0.24673
-0.67855
-0.10080
0.08591
-0.06781
-0.28817
-0.36151
0.16690
0.28707
-0.77812
-0.20772
0.19041
-0.49900
-0.15334
0.12057
0.04100
0.04538
0.12790
-0.01148
0.11782
0.37751
0.13382
-0.38650
-0.04382
-0.26502
-0.53507
0.01037
-0.18633
0.21484
0.03988
0.19818
-0.25954
-0.05368
-1.12308
-0.44941
-0.16192
0.19199
0.13092
0.00478
-0.28193
-0.33499
-0.23052
0.24693
-0.14355
-0.12264
-0.13827
0.51050
0.14139
-0.17741
-0.49692
0.10159
0.22619
0.00295
-0.24616
0.24789
0.29570
0.18506
-0.06351
0.24092
0.08234
-0.17421
-1.19325
0.15659
-0.04794
0.35427
0.25885
0.30871
0.08430
0.22413
-0.02298
-0.04543
-0.10085
-0.28490
0.22027
-0.33674
-0.02441
-0.19421
0.08959
0.15001
-0.07551
0.10270
0.30647
0.10609
-0.30375
0.55373
-0.25328
-0.08501
-0.11269
0.20978
-0.13822
-0.46282
-0.37590
-0.05249
-0.06999
0.13011
-0.11436
-0.26012
-0.56814
0.10927
0.18427
0.17793
0.15048
-0.05371
0.16816
-0.07571
0.17272
0.12261
-0.35747
-0.27898
0.16685
-0.25754
-0.59786
-0.32341
0.08484
-0.32686
-0.13629
-0.11794
0.33568
-0.22237
-0.26853
0.04849
-0.25616
-0.83187
0.13511
-0.35432
0.04470
-0.31585
0.22619
-0.22009
-0.21864
-0.00930
0.02424
0.15359
0.02063
-0.51432
-0.19344
0.11892
-0.12732
-0.83414
0.13893
0.19089
0.06988
-0.34614
0.15428
-0.35041
-0.27946
-0.09804
-0.27954
0.18071
-0.09499
-0.07909
-0.47487
-0.12423
0.39391
0.24207
-0.19354
-0.05080
-0.16644
-0.40935
0.04336
0.02591
-0.59471
0.22528
-0.28130
0.27037
-0.57937
-0.12831
-0.58447
-0.41100
0.24668
0.05965
-0.19658
0.13458
-0.08870
-0.08223
0.07862
-0.06078
0.06900
0.21136
-0.05265
-0.76376
-0.68903
-0.03949
-0.38019
0.24523
-0.06752
-0.34283
0.11666
-0.28189
-0.59980
0.21592
0.41086
0.00174
-0.03252
-0.43413
0.09731
-0.01522
0.09095
-0.19211
-0.10123
-0.01120
-0.18320
-0.10492
-0.51598
-0.08538
-0.14148
-0.10858
0.24900
-0.09834
-0.30018
0.17468
-0.29309
0.45053
-0.13168
-0.10453
-0.26551
-0.34577
-0.15007
-0.37293
0.21808
-0.05254
-0.06266
-0.76357
-0.48617
0.53325
0.04652
-0.30329
-0.38980
-0.13965
0.01020
0.21437
0.24273
0.05069
0.00725
-0.83543
-0.07988
-0.07486
0.12149
-0.22129
-0.10416
0.17812
-0.10506
-0.06650
0.23799
-0.00199
0.27887
0.07475
0.16876
-0.41268
-0.10211
0.18138
0.20396
-0.21857
0.08815
0.12529
0.36428
-0.32532
-0.14616
-0.04968
-0.07776
-0.03602
0.01326
0.14275
0.23950
0.18068
-0.12932
-0.04075
-0.59086
0.24247
-0.20434
-0.68840
-0.23254
0.21314
-0.33365
-0.58556
0.03574
0.11631
0.04586
0.16595
0.00905
0.28892
0.00829
0.15172
-0.98426
0.05469
-0.35159
-0.24226
0.09719
-0.36456
0.22713
-0.04061
0.22034
-0.00001
0.18121
-0.03959
0.22812
0.09852
-0.21085
-0.30123
0.12522
-0.09612
-0.05611
-0.06501
0.12782
0.27417
0.13789
-0.05376
-0.73863
-0.08274
-0.24704
-0.11214
0.07868
-0.19192
-0.41132
-0.24754
-0.36329
0.20994
-0.03678
-0.01180
0.31727
0.10094
-0.60967
0.07077
-1.04169
0.05490
-0.04491
-0.07440
-0.14243
0.53901
-0.73598
0.18860
0.13416
-0.25291
-0.42655
0.30603
-0.44608
0.27294
0.42037
-0.35596
0.07698
0.17787
0.04749
0.01212
0.33922
0.24603
-0.64045
-0.26780
0.02786
-0.01505
-0.35144
0.11545
-0.25877
-0.25474
-0.50255
-0.39990
-0.23524
0.21178
-0.15397
0.22533
-0.15478
0.26296
-0.22518
-1.08177
0.00012
0.45376
0.03114
-0.16883
0.23451
0.22939
-0.28260
-1.18450
-0.12863
0.21280
-0.34241
-0.21784
0.00570
0.21256
-0.25572
-1.03525
0.19900
0.02701
0.39746
-0.30707
0.18044
0.30160
0.10088
-0.00709
0.02540
0.30416
0.23826
0.20057
0.22774
-0.23013
0.06459
0.02604
0.22061
-0.36148
-0.71364
-0.03047
0.05949
0.33504
-0.41755
-0.12185
-0.04786
0.03554
0.03757
0.08943
0.34718
-0.26369
0.09076
-0.26174
0.18931
-0.37929
0.04891
-0.00879
-0.34545
-0.08317
0.14673
0.18236
-0.11001
-0.30990
0.05933
-0.55212
-0.26128
0.14654
0.06878
0.10039
-0.03432
0.18760
-0.35170
0.07407
-0.39394
0.29878
0.29140
0.09189
-0.12997
0.20818
0.13946
-0.06684
-0.10939
-0.25553
0.13792
-0.18011
-0.31139
0.22738
0.21685
0.26051
0.19674
-0.09832
0.14430
0.24216
0.02646
0.26566
0.24260
-0.07564
0.15981
-0.75948
0.08904
0.04679
0.03167
-0.37205
-0.67858
0.08887
0.06713
0.10260
-0.18948
-0.39004
-0.14898
-0.39268
0.21887
-0.01865
-0.08840
-0.13477
0.11847
-0.28437
0.23048
0.25413
0.25629
0.05626
-0.12163
0.18945
0.00302
0.37973
0.07261
-0.56425
0.08626
0.16135
0.20495
-0.54407
-0.52493
0.22809
0.19684
-0.08212
-0.03166
-0.89726
0.11522
-0.17267
0.01156
-0.00909
-0.01202
-0.46460
-0.32207
0.18616
-0.13669
-0.27243
-0.12549
-0.39079
0.18870
0.12134
0.18853
0.13240
-0.11449
-0.13900
0.17656
0.20865
-0.64666
0.06928
-0.33903
-0.14362
-0.16656
-0.15894
0.15860
0.12410
0.07630
-0.17484
0.02654
-0.01781
-0.51292
-0.01063
-0.21244
0.16903
0.21880
0.29001
-0.24552
0.02983
-0.22503
-0.12615
0.21146
-0.17515
0.20927
0.25383
-0.22737
-0.90509
-0.04873
0.22352
-0.10187
0.34366
0.11666
-0.07220
0.03457
-0.36610
-0.09220
0.11537
-0.27518
0.21576
-0.34438
0.19339
-0.19101
0.05436
-0.23142
-0.17635
0.02148
-1.15369
0.25155
-0.54039
-0.09356
-0.24625
-0.67131
0.19792
0.45380
-0.21041
-0.93616
0.14102
0.03919
0.41698
-0.10623
-0.53344
0.13646
0.22172
0.08080
-0.27226
-0.02504
-0.09932
0.21893
-0.30021
0.01637
-0.81303
0.26818
0.04576
-0.28736
0.22476
-0.32437
-0.55306
-0.28241
-0.57030
0.33675
0.11154
0.19195
-0.44353
0.12653
0.18886
-0.88730
-0.02885
-0.35750
0.09226
0.30229
-0.19402
0.13862
-0.01326
-0.85210
0.05445
0.15510
0.19989
-0.18940
0.01277
0.13460
0.09722
-0.24175
-0.00750
-0.13264
0.04524
-0.47887
0.00051
-0.20157
-0.56676
0.17368
-0.03938
0.28252
-0.28344
-0.85335
0.23929
-0.27615
0.33230
-0.09393
-0.00736
0.09080
-0.17744
0.23606
0.19392
-0.46577
0.46058
0.33041
0.16177
-0.28262
0.26393
0.39429
0.21560
0.17013
0.51866
0.10920
0.34773
-0.01682
-0.33251
0.20351
0.60728
0.18441
0.18246
0.22129
0.15650
0.19631
0.23844
0.27073
0.18595
0.16222
-1.12471
0.72512
0.46687
0.19055
-0.04915
0.35928
0.13502
0.04620
-0.18197
-1.25536
0.19052
0.36776
0.34573
-0.37647
-0.38005
0.35228
-0.29260
0.08096
0.55779
0.40368
0.36871
0.51164
0.50996
-0.35296
0.28673
-0.10735
-1.29466
0.67776
0.14759
0.12932
0.03285
0.30721
0.15668
0.18171
0.18702
0.24320
0.36732
0.18210
0.25602
0.15176
0.21731
0.12869
0.47020
0.18338
0.16862
-0.33044
0.18390
0.17143
-0.04605
0.35797
0.08401
0.01128
0.24842
0.30184
0.20777
0.17773
-0.11203
0.25368
0.10704
0.45335
-0.37149
0.06900
0.12762
0.27227
0.26519
0.02339
-0.11169
0.46245
0.39108
0.49524
0.34250
-0.86855
-1.00433
-0.10740
0.18144
-0.64855
0.18798
0.02862
-0.40969
-0.57789
0.06876
-0.80698
0.01438
-0.62516
-0.26867
0.58240
0.24720
0.56393
0.41004
0.01583
0.26177
0.05701
0.65143
-0.35123
0.02600
-0.48537
-0.03217
0.21340
-1.70723
-1.09771
-1.62962
0.13922
0.17829
-0.75223
-1.91730
-1.12074
0.38393
-1.15679
0.15444
0.54230
0.13977
0.57352
0.46516
0.42422
0.48820
-0.27689
0.30084
-1.14435
0.33192
0.42871
0.25669
0.38680
-0.48943
0.16952
0.01683
0.23129
0.61421
0.08718
0.16225
0.55829
0.08902
0.03423
0.37804
0.32082
0.27177
0.39530
0.73287
0.55683
-0.26848
0.65547
0.53471
0.10265
-0.24298
0.25185
-0.19551
0.19757
-0.56636
0.74533
0.13545
-0.64044
0.45271
0.35553
-0.44444
-0.22670
0.36646
0.34226
0.62942
0.19978
0.21016
0.17054
0.11510
0.09853
0.09616
0.23057
-0.11307
0.41864
-0.47217
0.35713
0.12283
0.50387
0.57468
0.06437
0.20216
0.38566
0.49702
0.18115
0.11783
-0.06717
0.30082
-0.27854
0.44875
-0.90546
0.33453
0.00135
-0.25084
0.19421
0.24417
0.24239
0.06273
0.16445
-0.68458
-0.64890
0.31564
0.15078
-0.66057
0.52470
0.07714
0.29817
0.16347
0.30018
0.34554
0.29614
0.28651
0.01904
-0.43417
-0.00149
-0.02905
0.23941
0.13262
0.34163
-0.06368
0.32347
0.25228
0.19654
-0.03096
0.34675
-0.16455
-0.01569
0.68449
-0.06701
-0.33076
-0.21226
0.24073
0.69096
0.05830
0.09022
-0.47871
-1.07559
0.30153
0.16508
0.65753
-0.08126
0.29623
-0.25257
-0.58450
0.34608
0.09925
-0.59352
-1.56928
0.28769
0.22864
0.33119
0.42017
-0.42256
-1.12954
0.43164
0.17380
0.31017
0.18879
0.20712
-0.75844
-0.21856
0.66885
0.09591
0.25074
-0.08585
-1.11782
0.15847
0.50404
0.41529
0.67123
-0.52992
0.80917
-0.69283
0.18339
0.13107
0.14863
0.35887
-0.36503
-1.06439
0.36571
0.08679
0.25283
0.37296
0.42409
0.17209
-0.80325
-0.14619
-0.74552
-0.44025
0.06902
0.18126
-0.75005
-0.28451
0.15562
-0.63242
-0.79314
0.17273
0.17953
0.16938
0.11481
-0.45940
-0.44589
-0.40810
-0.22776
0.41743
0.33941
0.13338
-0.78871
0.04620
-0.03010
0.27307
0.51078
-1.13997
0.63079
0.64372
0.58155
0.35706
0.42004
0.48888
0.60966
-0.86721
0.39421
-0.25709
0.30258
0.21561
0.41327
0.34298
-0.06576
0.48529
0.42446
-0.09034
0.36341
0.22519
0.35781
0.62963
0.25572
-0.35943
-0.17175
0.11527
-0.12598
0.26001
0.21521
0.49780
0.48057
-0.38095
0.23932
0.39950
0.48117
-0.02273
0.48928
0.11401
-0.87977
0.13612
0.30366
0.29226
-0.24825
0.10174
-0.47979
0.32650
0.61852
-0.21476
0.32393
0.38738
-0.34170
0.22993
0.19455
-0.35365
-0.33418
0.23284
-0.03438
-0.07269
0.25165
0.19696
-0.05822
0.68595
0.51415
-0.34572
0.32482
0.02860
0.55238
0.71059
0.60574
0.34932
0.34793
-0.44437
-0.23187
0.19934
-0.48213
0.35105
0.43179
0.00970
0.49327
-0.60093
-0.40148
0.52937
0.13144
0.19504
0.12307
0.14326
-0.11518
0.28272
-0.43478
-0.73009
0.52670
0.44574
0.09377
-0.63304
-0.36313
0.16338
0.08588
-0.56685
-0.48009
-0.64809
0.18459
-0.37901
-0.04862
0.22144
-0.52953
-0.02699
0.34326
0.09151
-1.01928
0.16706
0.10700
0.22477
0.37684
0.37041
-0.77091
0.36134
0.35072
0.29581
-0.09107
0.36072
0.40326
0.24757
-0.64724
0.23340
0.72848
0.45184
0.85440
0.13136
0.52553
0.10604
0.30204
0.15161
-0.01369
0.39484
0.34995
0.41735
-0.24250
-0.61736
0.30951
0.48445
0.60799
0.16852
-0.01206
0.61357
-0.66138
0.27550
0.27833
-0.63293
0.10540
0.47893
0.32381
0.10799
0.24794
-0.25453
0.44819
0.17419
0.25507
0.09971
0.33550
-0.43593
0.38282
-0.23068
0.41067
0.44727
-0.94710
0.43029
0.22030
0.11813
0.22895
0.29764
0.27868
0.17221
0.39893
-0.46101
0.79817
0.00935
0.79740
0.04432
-0.07303
0.88417
0.45401
0.16821
-0.62066
0.19450
0.22582
0.29870
0.11905
0.41261
0.39646
0.21201
0.15905
-0.45094
-0.01670
-0.03796
0.25303
-0.05333
0.20671
0.40429
0.44738
0.34271
0.65995
-0.01340
-0.38911
0.32741
0.11375
0.20491
0.07006
0.34015
-0.19970
0.36577
0.36833
0.73365
-0.40510
0.49026
0.09149
0.36179
0.40837
0.45380
0.18620
0.16098
0.55902
0.55198
0.25748
-0.33417
-0.21105
0.45576
-1.57081
0.28599
-0.16273
0.14180
0.44529
0.44915
-1.25514
0.05472
-0.77634
-0.01086
0.04635
0.15289
0.23931
0.41750
-0.14569
0.43443
-1.13001
-0.36315
0.30739
0.54572
-0.40387
0.15771
0.13693
0.29462
0.15078
0.01956
-0.06097
0.12530
0.13722
0.12688
-0.23560
0.69354
-0.06225
-0.38994
0.58078
0.00362
-0.56910
0.27756
-0.49285
-0.19486
0.15029
-1.10071
0.02712
0.35380
0.30783
-0.09912
0.19729
0.44153
0.20905
0.14562
0.22674
-0.11481
0.14280
0.12350
0.23068
0.18080
-0.60929
0.26087
0.30030
0.15881
-0.40420
0.35710
0.16053
0.12661
0.34137
-0.64962
-0.07723
0.35623
0.34998
0.33265
0.57717
-0.79957
0.09496
-0.80630
0.11369
0.32944
0.10700
-0.77176
-0.72213
0.35484
-0.33376
-0.53867
-0.00672
0.69319
-0.27538
0.19704
-0.07779
-0.21183
-0.38009
0.51968
0.28804
-0.12604
-1.13037
0.05824
-0.29554
0.28339
0.68855
0.10875
0.30630
-0.22661
0.10620
-0.38081
-0.14411
0.04396
0.39829
0.47892
0.29533
0.33521
0.50792
-0.33330
0.17534
0.33755
0.34563
0.23375
-0.33213
0.15495
-0.03596
0.24908
-0.98601
0.22600
0.41523
-0.06864
-0.21107
0.23470
-0.15684
-0.37875
0.30039
-0.23525
0.84047
0.02995
0.41415
0.57608
0.32295
-0.72974
0.73455
-0.11772
0.20637
0.60528
0.30700
0.50658
-0.30907
0.16193
0.32214
-0.21747
0.20619
-0.38055
0.26420
-0.00421
0.35873
0.35673
0.28342
0.14874
-0.22412
-0.56171
-0.49912
-0.99461
0.34632
0.18057
-0.05067
0.30960
-0.68765
-0.62539
0.20746
-0.36318
-0.05423
0.47954
0.12562
0.32338
-0.54099
0.35465
0.19368
0.07507
0.70662
-0.01125
0.48428
0.38555
-0.89772
0.02042
0.29365
-0.75720
0.00780
-0.51068
0.20767
0.51385
0.17145
-0.42353
-0.72657
0.55125
0.56207
0.18201
0.57155
-0.95528
0.45332
0.35374
0.30363
-0.40423
0.29476
-1.15801
0.75208
0.73300
-0.09340
0.30076
-0.30558
0.22217
0.57862
0.32306
0.02774
-0.36445
-0.49824
0.47060
0.07748
0.23981
0.76677
0.42983
0.16135
0.56650
0.43120
0.21964
-0.00100
0.38162
-0.53730
0.20199
-0.05511
0.27657
-0.77737
0.16569
-0.60071
0.01968
0.17709
-0.17056
0.45224
0.28137
0.16806
-0.19403
0.01231
0.09984
0.69213
0.27163
0.50359
0.02121
0.13208
0.12095
0.34395
-1.01476
0.11998
0.22230
-0.97649
0.62454
0.43466
-1.07059
0.43815
0.40382
0.17017
0.27146
-0.02747
0.27371
0.65393
-0.75743
-0.15800
-0.48194
-0.15836
0.38552
0.27573
0.00604
-1.07335
0.28082
-0.02231
0.46190
-0.31275
0.52256
0.23051
-0.07656
0.25124
0.11002
0.29390
-1.10973
-0.55004
-0.74349
-0.09764
0.20228
0.32825
0.34554
0.29771
-0.01120
0.18504
0.72400
0.16228
0.06380
-0.23809
0.18922
0.11343
0.56139
0.29269
0.04035
-0.42933
0.41616
-0.01333
-0.15859
-0.27644
0.17821
0.17041
-1.30956
-0.35513
-0.18424
0.79185
0.37867
0.19374
0.13338
0.18773
-1.15319
-0.30919
0.13413
0.10857
0.80330
0.13501
0.13948
0.51860
-0.82415
0.24094
0.09810
0.39907
0.14150
0.20088
-0.04702
0.33006
0.45474
-1.36146
-0.20389
0.33747
-0.69568
0.35552
0.22554
0.18151
0.12942
0.14135
-0.00207
-0.19962
-0.70612
-0.00512
0.51360
-0.48474
0.13720
0.64882
0.49407
0.20866
0.42776
0.14353
0.05845
-0.01187
0.03860
0.17854
-0.03652
0.23040
0.67045
0.28590
0.49227
0.51165
0.06437
0.15876
-0.35398
0.20370
-0.45116
-1.47525
-0.13635
0.27478
0.42951
0.14632
0.01299
0.24388
0.19345
0.32400
0.18395
0.38761
-0.01437
0.67279
0.26371
-0.01272
0.09078
0.25869
0.10688
0.05360
0.19688
0.16573
0.22949
0.22731
0.40758
0.12300
0.44435
-0.06153
0.53368
0.10452
-0.17874
0.10666
0.15591
0.41610
0.61613
-0.48124
0.52920
0.25577
0.40226
0.21257
0.52147
0.36211
0.21541
0.18361
0.36616
-0.87083
0.01050
0.43289
0.37871
0.19010
0.35831
0.25148
0.01299
-0.29053
-0.00256
-0.91158
0.47336
-0.07674
0.44419
0.17753
-0.42126
0.13871
-1.07537
0.23700
0.77021
0.40762
0.44574
0.41152
-0.10316
-0.22056
-0.24623
0.42419
-0.13738
-0.34457
0.30169
0.31484
-0.51368
0.18500
0.16764
0.37591
0.08796
-0.04085
0.02080
0.85136
0.12888
0.27421
0.20504
0.35953
0.37885
0.14721
-0.31434
0.42883
0.60478
0.31291
0.14943
0.22585
0.09202
0.26851
0.25201
-0.13988
0.26541
0.14915
0.34389
0.64967
0.67515
-0.14292
-0.64957
0.58745
0.23494
-0.69955
0.12170
0.37379
0.41785
0.11905
-0.65104
0.43241
0.41190
0.04664
0.31268
0.52392
0.71444
-0.21920
0.46738
-0.41774
0.32944
-0.00350
-0.32033
0.38559
0.80353
0.44815
-0.72709
-0.17874
-0.21721
-0.02189
0.36210
0.03794
0.34659
0.34345
0.14926
-0.39599
0.31185
0.19183
-0.34794
0.19560
-0.41280
0.12656
0.47430
0.52063
0.39263
0.63600
0.22753
0.00392
-0.34217
0.08230
0.40647
0.31291
-0.42850
0.44646
-0.15745
0.34797
0.17156
-0.71225
0.34295
0.47137
-0.07394
0.14754
0.19048
0.01941
0.58550
0.22295
0.02236
0.28954
-0.65345
0.03955
0.00429
-1.02779
0.25499
0.15858
0.32355
-0.01798
-0.00296
0.27217
0.36597
0.21559
0.07962
0.30066
-0.21189
0.48128
0.30160
0.71119
0.51782
0.00934
0.26781
0.21020
0.70335
0.42090
0.41052
-0.82968
-0.33033
0.76925
0.38248
0.66110
0.33317
-0.12937
0.43612
-0.29520
0.29658
0.32597
0.18571
0.36037
0.35922
0.02798
0.17900
0.68694
0.18136
-0.04403
0.10809
0.41239
-0.86960
-0.41347
0.33496
0.13719
-0.69275
0.25381
0.48565
-0.78022
-0.51236
0.06040
0.72754
0.28763
0.06418
0.14697
-0.50634
0.48419
0.41096
0.39200
0.17689
-0.58130
0.11021
0.14535
0.43957
-0.85874
0.44851
0.11948
0.32762
-0.04477
0.41476
0.67370
0.44849
0.27320
0.26210
0.43872
-0.00157
0.10828
0.39615
0.42551
0.78290
0.14048
0.37745
0.56608
0.41961
0.11699
0.19359
0.26702
0.07000
-0.44160
0.05762
-0.75094
0.20997
-0.20579
0.23042
0.14676
-0.63741
0.33991
-0.33775
0.25747
0.13515
-0.20596
-0.63203
0.28851
0.20291
0.41287
0.59728
0.46072
-0.38065
0.15965
0.10951
-0.03555
-0.47412
-0.23896
0.29262
0.31797
0.30099
-0.47805
0.51351
0.31086
0.64761
0.24230
0.06709
0.19571
0.10853
0.53026
0.45635
0.14007
-0.86483
-0.36359
0.24371
-0.29404
0.55494
0.51952
-0.25914
0.16454
-1.46134
-0.83654
-0.54968
0.12501
0.19159
0.19074
0.48124
-0.43574
0.50987
0.12864
0.14957
-0.04975
-1.10677
0.47974
0.28854
0.10602
0.49280
0.24060
0.21623
0.30321
0.41861
0.24574
0.24116
-0.39302
-0.79214
0.40873
-0.01802
-0.21557
-0.53179
0.77714
-0.51891
0.38732
0.32646
0.33656
-0.39269
0.26740
0.56128
0.21578
0.19320
-0.86232
-0.31510
0.31503
0.26016
0.19244
-0.43031
-0.39203
-0.60190
-0.14638
-0.04356
-0.34752
0.06566
-0.76243
0.31535
0.18961
0.16764
0.27552
0.15609
0.36300
0.15308
0.40196
-0.54993
0.26949
0.30811
0.26245
-0.61163
0.32882
-0.02079
-1.07163
-0.07593
0.24191
-0.63255
0.49305
-0.27199
0.48289
0.19225
0.68559
0.30211
-0.27396
-0.31923
0.35731
0.72426
0.54393
0.35345
0.54088
0.37618
0.30696
-0.36152
0.46860
0.39341
-0.78897
-1.73857
0.36156
0.07386
-0.21018
0.28853
0.23419
-0.12097
0.25338
0.40368
0.18513
-0.26321
-0.41644
-0.12077
0.25116
0.27433
0.42073
0.07982
-0.03457
0.44348
0.08939
-0.91691
0.24387
-0.95317
-0.33981
0.41368
0.02721
0.41370
0.15654
-0.61509
-0.98651
0.16785
0.11195
0.49648
0.19454
0.31033
0.15539
0.29852
-0.56147
0.21851
0.55914
0.35344
0.70357
0.11266
0.36655
-0.77682
-0.54031
0.28691
0.23082
0.28064
0.20750
0.28440
0.19227
0.26009
-0.01871
-0.29297
0.26396
0.13700
0.40237
0.38199
-0.12348
-0.28878
0.00401
0.07860
0.13000
0.17132
0.74998
-0.41351
-0.09775
0.22913
0.34225
0.15066
-0.21891
0.16719
0.06686
-1.56834
0.08389
0.26156
0.32935
0.09396
0.42450
-0.68056
0.24179
-0.86734
-0.81734
-0.38954
-0.19530
-0.08337
-0.27571
0.40828
-0.44133
-0.02227
-0.19643
0.08866
-0.42383
-0.25346
-0.24841
0.30876
-0.24172
-0.00525
0.33039
0.23525
0.48679
0.36973
0.47820
-0.49977
-0.71090
-0.37323
-0.37874
0.38029
0.26693
0.08926
-0.60788
-0.40124
-0.16110
-0.15985
-0.36257
-0.36204
0.73950
0.56138
0.19155
0.06581
-0.27062
-0.10553
0.69669
0.36076
0.62253
0.29802
0.32862
0.37777
0.15367
0.37036
0.56446
0.02021
-0.45751
-0.34079
-0.25986
0.34894
0.42084
-0.31883
0.59262
0.26045
-0.74200
0.24964
0.35563
0.14902
-0.17939
0.08152
0.04619
0.01176
0.47912
-0.01399
0.22490
0.40995
0.76556
0.05658
-0.39678
0.19583
0.17572
0.06679
-0.23851
0.30048
0.24533
-0.42596
0.27735
-0.24926
0.29076
0.39940
0.33958
0.17932
0.14396
0.12861
0.39135
0.36026
0.25885
0.19382
0.17802
0.17965
0.19507
0.72041
0.21826
-0.12019
0.21477
0.16373
-0.59350
0.12486
-0.43683
0.39795
0.05590
0.10721
0.10418
0.15669
-0.15366
0.25803
0.13844
0.24392
0.22239
0.41886
0.02515
0.27151
0.18702
-0.20346
-0.60447
0.15039
0.62434
-0.00146
0.23407
0.16314
0.23129
-0.33623
0.20876
0.10614
0.00462
0.34873
-0.24120
0.48128
0.60305
-0.62747
0.62144
0.16056
-0.66340
0.22351
0.17244
0.46995
0.00205
0.36454
0.38198
0.43533
0.25268
0.42495
0.17009
0.18450
-0.24070
0.32264
0.48464
0.17169
0.24670
0.25040
0.40919
0.24052
0.42208
0.78106
0.62439
0.20153
0.26979
0.20381
0.34510
-0.29878
-0.36103
0.19028
0.21008
-0.37755
0.18910
0.21055
0.15215
0.25406
0.20405
0.17959
-1.00662
0.23175
-0.97889
-1.29912
0.47129
-0.01863
-0.42054
0.12083
0.08590
0.48598
0.38033
0.63909
0.15375
0.15373
0.42472
0.11223
-0.65067
0.75396
-1.75233
0.16033
0.30006
0.17098
0.40574
-0.42620
0.63931
0.43317
0.36933
0.08734
0.45745
-0.09128
0.31101
0.26847
0.32226
0.32185
0.28732
0.21821
0.26796
0.14726
-0.41741
0.16221
0.48462
0.36294
-0.52174
0.28670
0.13980
0.34635
-0.58538
-0.38238
0.13590
0.44257
0.14111
-0.07907
0.02045
0.15985
0.18830
0.19663
0.18400
0.23490
0.25944
0.56871
0.63926
0.35762
0.58908
-0.74498
-1.55815
-0.15207
0.16772
-0.12913
0.20270
-0.38932
-0.09864
0.17661
-0.13934
-0.18502
0.46927
0.25601
0.15303
-0.21107
-0.10254
0.37675
0.45856
-0.10849
0.25430
0.16210
-0.04605
-0.00584
0.17593
0.26563
0.06620
0.17332
0.09096
-0.90376
0.19973
-0.03593
0.12304
0.15966
-0.24823
0.15738
0.03670
0.12303
0.31671
0.00454
0.02005
-1.13739
0.07736
0.54708
0.25138
-0.47155
-0.55080
0.34587
-0.45138
-0.57594
0.28309
0.05322
-0.80855
0.18955
0.25018
0.32204
-0.40777
0.43273
-0.02389
-0.01098
0.50598
0.00639
0.21661
0.45898
-0.11978
0.16607
0.20969
0.34161
0.12927
-0.36625
0.22182
0.43987
0.12837
0.30121
0.07747
0.27438
0.50351
0.46879
0.17984
-0.28938
0.26800
-0.07253
-0.63428
0.57225
0.11015
0.08103
0.49989
0.09035
0.20699
0.32948
0.17100
-0.28313
0.27172
-0.24243
-0.52684
0.60718
0.21339
-0.50835
0.05993
-0.56648
0.22655
-1.07551
0.30567
-1.25739
0.08703
-0.07514
0.15861
-0.84549
-0.14959
-0.13349
0.33063
-0.02966
-0.84407
0.14530
0.21080
0.08304
0.30639
0.67113
0.34201
0.14133
0.17279
0.25503
0.32960
0.45858
0.54925
-0.72131
-0.01109
0.26377
-0.69023
-0.05800
-0.02635
0.37684
-0.02777
0.06674
-0.49328
0.71305
0.39229
0.54347
0.67041
0.22805
0.32827
0.37848
0.39840
0.24809
0.08868
0.08874
0.11450
0.54544
0.25697
0.28481
0.34351
0.53515
0.50482
0.51115
0.24249
-0.43773
0.08587
0.15535
-0.33932
-0.13663
0.37991
0.19248
0.36535
0.34529
0.05559
0.60754
0.15349
0.17677
0.15046
0.28682
0.46742
0.06975
-0.92130
0.58978
0.19130
-0.41914
0.16279
-0.04705
0.60737
-0.45585
0.21971
-0.14156
0.28539
0.16644
0.35065
-0.91471
0.15027
-0.42131
0.20713
-0.70076
0.19245
-0.04064
0.13169
-1.03064
0.40031
-0.70281
-0.04753
-0.56031
0.15295
0.06736
0.09278
-1.39298
-1.59666
0.32649
0.14599
-0.16737
0.27831
-0.55337
0.12512
-0.88330
0.03933
0.27452
-0.75198
-0.42351
0.13352
0.48671
-0.43177
-0.18973
-0.07582
0.22981
0.04085
0.01682
-0.78317
-0.48541
0.41560
-0.50195
0.28808
0.26081
0.14454
0.45527
-1.03699
-0.23845
-0.47347
-0.52864
0.40420
-0.95527
0.25432
0.12530
0.13698
-0.88354
-0.52803
-1.58037
0.23602
0.22209
0.02229
0.12352
0.68672
-0.42914
0.27308
0.32958
0.41575
-0.01714
0.03837
0.40683
-0.28131
0.43127
0.70603
0.17350
-0.89546
0.26188
0.25230
-0.51612
0.02077
-0.75522
0.13855
0.40329
0.54822
0.70007
-0.89194
-0.88607
0.05575
0.43374
-0.77705
0.54651
-0.11571
0.23568
0.14676
-0.05983
0.47616
0.13315
-0.94185
0.70114
0.04103
-0.17371
0.50521
-0.18710
0.12895
0.33939
0.33202
0.65583
-0.40085
0.19464
0.18502
-0.44033
0.09118
0.26048
0.13550
0.42372
0.08364
-0.25651
0.53964
0.52113
0.59769
0.58848
-0.16742
-0.17108
0.56672
-0.59937
-0.07579
0.51435
0.62824
0.04071
-0.02630
0.45045
0.77256
0.95739
-0.60582
-0.36658
0.13587
0.46729
0.41780
0.58268
-0.90542
-0.89791
0.55925
0.08890
-0.48861
0.22506
-0.79106
-0.17917
-0.17107
0.11908
-0.20825
0.07333
0.51331
-0.67028
-0.29740
0.03243
0.00452
0.56028
0.24167
-0.00709
0.34371
-0.17715
0.15749
0.32072
0.05934
-0.32003
0.20298
-0.94759
0.38616
0.07586
-1.14951
0.28033
-0.37229
0.19186
0.40662
0.25247
0.41135
0.07345
0.25228
-0.09047
0.29055
0.25123
0.36543
-0.57146
0.50404
0.17861
0.16628
0.45949
0.25206
0.10908
-0.96124
0.07059
0.06392
-0.32705
0.00062
-0.16541
-0.02786
-0.31820
0.11042
0.34795
-0.89123
-0.14229
0.11751
0.15757
-0.25750
-1.15181
0.03525
0.15299
0.45399
-0.23324
-0.25189
0.03996
0.31586
0.14775
0.20167
0.22106
0.14303
0.36213
0.52496
-0.36274
-0.24641
0.22713
0.21965
0.22380
0.46257
0.17967
0.38656
0.29423
-0.22741
0.13129
0.46096
-0.30402
0.26931
-0.14634
-0.10048
0.08536
-0.94860
0.41519
0.04114
0.34132
0.04005
-0.59205
-0.44703
-0.35609
0.11746
-0.85837
-0.34201
0.13189
0.17004
-0.12653
-0.38745
0.55644
-0.88524
0.31390
-0.75993
0.11414
-0.06255
0.20640
0.40502
-0.05386
0.25084
0.22360
0.25528
-0.04110
0.17675
0.06665
-0.24814
0.24021
-0.21644
0.15444
0.18416
0.01911
0.31187
-0.11917
0.19159
0.24412
0.04159
-0.82558
0.16897
-0.69926
-0.18963
-0.15843
0.04995
0.30074
-0.21519
-0.00958
0.28724
0.05936
0.25375
-0.32436
-0.10131
0.25063
0.38280
-0.42397
-0.01940
0.19007
0.62232
0.00986
0.30484
0.61789
0.15938
-0.65425
-0.02566
-0.35178
0.62258
0.02510
-0.06670
0.15289
0.01805
-1.14112
-0.44370
0.56316
-0.11657
-0.03606
0.20338
0.34794
-0.17714
0.03687
-0.60267
0.23130
0.27433
-0.12544
0.14737
0.40529
-0.88050
-0.13268
0.20542
-0.12782
0.15731
0.16583
0.15714
0.75265
0.23780
-0.29915
0.26720
0.05892
0.17914
0.43273
-0.60979
-0.27494
0.17309
0.48999
0.08064
0.12087
0.17594
-0.38329
-0.08974
-0.64190
0.24547
-0.06760
-0.14500
0.18397
-0.40228
0.26224
0.29695
0.54115
-0.51366
0.52375
0.46070
0.45851
0.10941
0.13130
-0.44420
0.22306
0.30040
0.24651
0.61280
0.26755
-0.19702
0.46164
0.23384
-0.54859
0.49023
0.71495
0.51172
0.17741
0.82010
0.12126
0.02065
-0.00981
0.28601
0.25365
0.17951
0.04228
0.13078
0.59624
0.12730
0.45787
0.29494
0.21936
0.78542
0.71585
0.00014
0.00538
0.06941
0.14756
0.04023
-0.36671
-0.14523
-0.29522
0.16087
0.08916
0.31911
-0.08519
-0.57238
-0.32658
0.13928
0.32388
-0.00039
0.12576
-0.02134
0.42045
0.36671
0.38628
-0.20607
0.35483
-0.11269
0.10142
0.22372
-0.67959
0.15003
0.02009
0.11881
-0.29385
-0.82872
0.72334
-0.30527
0.36225
-0.31175
0.35317
0.41222
-0.25407
0.45836
0.07805
-0.01300
0.63441
0.42472
0.27047
0.31245
0.03113
0.17878
-0.35834
0.38254
0.16560
-0.95752
0.29383
0.29898
0.36974
-0.21009
0.03306
0.16828
-0.09583
-0.07428
0.21153
0.59775
0.18834
0.12046
-0.11321
0.05542
0.75350
-0.09414
0.34007
-0.34153
0.23208
-0.45441
0.29350
-0.57548
-0.38598
0.74844
0.03989
0.36978
-0.06800
0.40611
0.30736
0.13029
-1.15403
0.01178
0.11350
-0.42534
-0.99369
0.69638
0.19619
0.41451
0.40615
0.27278
0.59328
-0.41419
0.26556
0.55880
-0.45430
0.47688
0.31840
-0.26915
0.20986
-0.10641
0.19397
0.29197
-0.08847
0.17324
-0.25787
-0.35884
0.13033
-0.04023
0.25189
-0.57953
-0.13521
-0.95541
-0.16882
0.37016
0.38347
-0.24405
0.04442
0.38431
-0.43333
0.35924
0.40981
0.05305
-1.24772
0.34016
0.19825
-1.26475
-0.25127
-0.38875
0.39532
0.13027
0.37702
0.16633
-0.56534
-0.19982
0.13532
0.24569
0.18876
0.12537
0.07996
0.18078
-0.11033
-0.21952
0.13239
0.29175
-0.58323
-0.17615
0.21125
0.32740
0.38679
0.12334
-0.02620
0.30111
-0.91156
-0.37979
-0.18124
-0.00940
0.14177
0.17045
-0.91484
-0.62697
0.45649
0.43956
0.40696
0.40221
-0.12130
0.45861
0.23245
0.15768
-0.26067
-1.04244
-0.75278
0.28380
0.34295
-0.79316
0.39195
-0.41451
-0.22527
0.16007
0.06014
0.19216
-0.65606
-0.05577
0.27359
0.24949
0.38394
-0.95551
0.24765
0.28523
0.33194
0.29385
-0.30000
0.25292
-0.65922
-0.16052
-0.84008
0.25033
0.26255
-0.56056
-1.21315
-1.19478
0.26421
-0.19339
-0.39383
0.19913
0.52125
0.20702
-0.22064
-0.40437
0.34919
0.36114
0.39239
0.12778
-0.27296
0.11157
-0.32845
0.19413
0.31376
0.15915
0.32436
0.25809
0.15539
-0.05623
-0.11184
-0.55978
0.02754
0.19319
0.08404
0.35933
0.36967
0.09701
0.17530
-0.10374
-0.51302
0.36494
-0.38066
0.40744
0.62218
0.12060
-0.14202
-0.47084
0.18117
0.36891
0.12706
0.62391
0.52456
0.24461
0.23926
0.50558
-0.73363
0.10525
0.00465
0.48264
-0.76807
-0.08777
0.27370
0.08152
-0.37602
0.03319
-0.08398
0.45484
-0.36695
0.02045
-0.50375
0.15901
-1.70219
0.50797
0.20054
0.28336
-1.42028
0.19486
0.21634
0.07482
-0.63755
-0.45455
-0.59341
0.18655
0.37894
-0.11482
-0.19249
0.52585
0.59410
0.04698
-0.85187
0.35897
0.40218
0.10656
0.34074
0.16029
0.25100
0.48857
0.44631
-0.86102
-0.82918
0.13383
0.27567
-1.00012
0.20560
-0.83017
0.09212
0.19008
-0.13365
-0.82670
0.09691
0.57557
0.23506
-0.06073
1.15349
0.14161
0.32521
-0.44093
0.27652
-0.38164
0.53453
-0.02976
-0.20417
-0.28981
0.44255
-0.68450
0.15067
0.51914
0.37636
0.36426
-0.36887
0.21338
0.39661
-0.40971
0.35333
-0.33083
0.07757
0.53673
0.40063
0.40950
0.41727
0.36845
0.05639
0.39710
-1.23824
0.07390
0.12284
0.17158
-0.77624
-0.00139
0.07288
0.27282
0.63119
-0.66672
-0.53937
-1.22947
0.49388
0.13914
0.26612
-0.62872
0.42232
-0.52960
0.03925
0.59283
0.48592
0.05052
-0.22891
0.03516
0.34016
0.18770
0.20383
0.34285
0.27146
-0.00242
0.14642
0.48477
0.08721
0.37178
0.84744
0.30254
0.23269
0.17276
0.41510
-0.09181
0.31730
0.24632
0.75776
-0.75068
0.19152
-0.27569
0.37255
0.50034
-0.34888
0.24023
-0.08854
-0.31433
0.16551
0.48502
-0.17721
0.61701
-1.02017
-0.37196
0.25682
0.23441
0.55909
-0.07602
-0.72289
-0.13243
0.16243
0.56323
-0.37130
-0.61176
0.25238
0.54997
-0.38188
-0.28301
-0.52662
-0.17065
0.78842
-0.27811
-0.49790
0.31419
-0.69086
0.21253
0.13790
-0.90159
-0.14329
-0.06697
-0.04915
-0.38193
0.14316
0.45167
-0.30568
0.46555
-0.42154
0.34453
-0.63138
0.47527
-0.40717
0.01254
-0.84976
0.46451
-0.46801
0.13224
0.12048
0.34864
0.24651
0.53381
-0.71213
0.24883
-0.26211
0.13642
0.17588
0.36005
-0.00344
-0.92756
0.29270
-0.96234
0.07303
-0.02840
-0.21795
0.21683
0.58274
0.54501
-0.11625
0.12293
0.12340
0.49815
-0.05244
-0.25872
-0.25121
-0.23163
0.02828
1.12522
-1.64855
0.17652
-0.03121
0.02099
-0.42736
-0.21265
0.29233
-1.47663
-0.40247
0.15388
0.03228
0.64451
0.11177
0.52625
0.25104
0.13401
0.67993
0.20111
0.34990
-1.08491
0.01135
-1.71754
0.12132
0.18506
0.06821
-1.02956
0.26904
-0.44380
-1.02460
-0.29024
0.72541
-0.03453
-0.77335
0.39938
-0.85947
-0.33385
-0.63364
0.07638
0.28185
0.28760
0.21748
-0.37126
0.46126
-0.28227
0.16601
0.15275
-0.08326
0.53203
-0.34679
-0.23760
-0.15320
0.27148
-0.11296
0.02241
-0.49347
0.26023
0.47539
0.36613
0.64856
-0.95759
-0.22206
-0.51008
-0.59616
-0.30351
0.14585
0.06860
0.36548
-0.42075
-0.27177
-0.56470
-1.59477
0.21472
0.18886
-0.22691
0.08512
0.58193
-0.54233
0.11946
-0.07546
-0.46624
-0.72300
0.46760
0.02405
-0.49326
0.21519
0.22800
0.19226
-0.19089
-0.08509
0.57518
0.10299
0.22765
-0.63498
-0.26464
0.36734
0.20060
-0.96631
0.45377
-0.43671
0.22957
-0.38520
0.18815
0.31503
0.28207
0.17937
0.25559
0.05458
0.17015
0.56073
-0.23392
0.80140
0.20984
-0.06206
0.30484
0.39723
0.27841
0.24878
0.51241
0.19879
0.35007
0.03944
-0.70769
-0.25786
0.19809
-0.43594
0.13386
0.33216
0.48128
-0.42972
0.61428
-0.41560
0.11798
-0.17012
-0.32038
0.38272
0.29287
-0.86538
0.22226
0.48234
0.08303
-0.48112
0.17360
0.22905
-0.07141
-0.46370
0.25554
0.18045
0.18762
0.09148
0.24805
0.54811
0.34735
0.20108
0.51633
-0.30526
0.21152
0.21229
0.24877
-0.39224
0.02811
0.03488
0.11023
-0.18943
0.27125
-1.12090
-0.22820
-0.42016
0.22148
-0.50977
0.52186
-0.18218
-0.63170
-0.88464
0.55987
-0.01145
0.04324
0.47277
-0.19123
-0.46900
-0.27769
0.09668
0.39625
0.35923
0.50217
0.22995
0.18611
0.18737
0.17916
-0.60851
-0.01696
0.36020
0.18683
-0.50820
-0.84157
-0.13249
0.27200
0.20107
0.03386
0.10160
0.15274
-0.71070
0.22487
-0.02710
0.20539
0.07563
-0.04063
-0.60265
0.02790
-0.09780
0.10084
0.12355
0.04262
-0.26510
0.16429
0.26314
-0.61122
-0.80167
0.23881
-0.63339
0.12089
-0.09135
0.07716
-0.30612
0.26548
-0.24044
-0.57525
0.24501
0.16142
-0.15888
-0.40917
0.12848
-0.64262
0.11284
-1.46518
0.70552
-0.81971
0.34218
0.75419
-0.48587
-0.06344
0.42576
0.48886
0.32916
-0.08445
0.07594
-0.20083
0.02317
-0.02515
0.55160
0.66662
-0.63843
0.24619
0.16362
-0.09792
0.17541
0.16648
-0.49743
0.05847
-1.08415
0.27587
-1.83915
-0.67718
0.55544
-0.29478
-0.36276
-0.08798
0.06871
0.46191
0.06910
-0.04356
0.41559
-0.00082
0.08034
0.16070
-0.80360
0.14354
-1.49217
-0.29665
-0.08949
-0.35341
0.50931
-0.05627
0.10304
-0.53412
0.28485
0.25072
-0.65212
-1.16356
-0.37271
0.06255
0.49718
0.47386
-0.78542
0.30907
0.14746
0.03996
0.07263
-0.17495
-0.75939
-1.18356
-0.49232
-0.18412
-0.40800
-0.32052
0.17479
-0.26514
0.11372
-0.30400
0.14540
0.14249
-0.65042
0.29935
-0.14983
0.69750
-0.28799
-0.14922
0.13488
0.09024
0.61547
0.26345
0.06596
-0.57978
0.45791
0.43360
0.14366
0.06261
-0.54392
0.21427
0.36423
-1.19788
-0.18952
0.65469
0.10042
0.33283
-0.42564
-0.25045
-1.89121
0.55273
0.28477
0.05817
0.15272
-0.37707
-0.37080
0.40641
-0.85155
0.45509
0.70545
0.58240
0.78884
-1.12197
-0.37053
0.55901
0.04543
0.39768
0.56888
-0.64358
-0.05768
0.03189
0.36827
-1.01425
0.11108
-0.12107
0.39263
0.26133
0.20053
0.14094
0.32784
-0.71598
-0.06387
0.17140
0.15506
-0.56525
0.21497
0.01637
-0.98692
0.73084
0.32266
-0.58036
-0.43066
0.41770
0.43039
0.39068
-0.54320
0.01114
-1.21824
0.42247
-0.24599
0.29797
0.32355
0.26888
0.21776
-0.28234
0.26392
0.17449
-0.34532
-0.21430
0.17127
0.55963
-0.22664
-0.95009
0.29106
0.45557
0.29364
0.27288
-0.27472
0.15461
0.52892
0.50767
0.20590
0.38013
-0.21140
0.39896
0.04975
-0.40068
-0.80602
0.22966
-0.16215
-0.03332
-0.15217
0.09091
0.33099
0.02003
-0.11819
-1.09993
0.55983
-0.29963
-0.75400
-0.00177
-1.19737
0.24686
-0.71296
-0.65838
-0.84857
-0.03088
-0.27603
0.16048
0.37345
-0.01030
0.65460
0.37134
0.19345
0.01059
-0.28546
-0.98742
0.14728
0.27613
-0.63982
0.22924
0.61654
0.82265
-0.48397
0.26114
-0.19100
-0.59349
0.63718
0.39429
-0.32773
-1.37136
-0.69897
0.13743
-0.18696
-0.61287
-0.08669
0.07323
0.13073
0.07580
-1.03853
-0.21277
0.14860
-0.51901
0.26184
0.27512
0.09016
0.17810
-0.85420
-0.25762
-0.42967
-1.02564
-0.66042
0.18657
-0.95993
-0.36506
-0.63291
-0.11520
0.20035
0.08068
-0.37148
-0.26094
0.20649
0.15637
-0.35036
-0.98856
0.25304
0.29836
0.02611
0.37941
0.11606
0.26021
-0.06119
-1.06041
-0.03255
0.18639
0.17733
0.20669
0.02358
-0.02392
-0.28081
0.16517
-0.92793
0.25335
-0.09917
0.11423
0.05415
0.33780
0.35540
0.06980
-0.83298
0.35313
-0.17413
0.14051
0.36355
0.25401
0.58818
0.46513
0.20259
-0.10890
0.33046
-0.44550
0.49604
-0.08846
-0.09782
-0.16253
-0.06557
0.36025
0.76623
0.13697
-0.03145
0.11969
0.10529
0.25776
-0.34881
-0.37375
-0.56580
0.12322
0.11347
-0.35553
-1.31120
-0.08821
-0.60307
-0.10448
0.90121
-0.22223
0.00615
0.11247
-0.12761
-0.33507
0.31193
-0.27391
0.12660
-0.27081
0.31113
0.52100
-0.52147
0.01311
-0.36242
-0.15541
-0.14338
-0.62033
0.37447
-0.40098
0.66450
0.46780
0.17807
-0.08848
0.14108
-0.60941
0.68114
-0.01833
0.10049
0.15468
-1.57478
0.13586
0.03635
0.63480
-0.27366
0.24652
0.41441
0.03269
0.50677
0.11504
-0.91035
-0.30275
0.03460
0.58332
0.55096
-0.10682
0.53922
-0.04332
-1.14431
0.18412
0.26107
0.46682
0.19884
-0.97319
0.53758
0.10019
0.09991
0.30383
0.13376
-0.07170
0.21645
0.01601
0.80161
0.06610
0.54944
0.14410
0.12288
0.04541
-0.58092
-0.14154
0.14622
-0.98929
0.28773
0.30542
-0.08206
0.00544
0.06248
-0.00877
0.47718
-1.11963
0.12182
0.28089
-0.12673
-0.70630
0.22222
-0.16259
-0.41604
-0.24122
0.12705
-0.01584
0.03212
0.34342
0.42873
0.14187
-0.07707
-0.21712
-1.80914
0.42016
0.17324
0.42670
0.05686
0.56057
-0.02833
0.19221
0.54980
0.67241
-0.33726
0.44500
0.17509
0.12121
0.61495
-0.03755
0.22619
-0.15505
-0.69586
0.23631
-0.80595
0.18824
0.18824
0.23147
0.12880
-0.17296
0.18802
0.05323
-0.04293
-0.37745
0.45750
0.32979
-0.00397
0.35402
-0.00795
0.13030
-0.51177
-0.26024
0.29413
0.39175
-0.20581
-0.44547
-0.20399
-0.39430
0.39007
0.42632
-0.15422
0.17915
-1.05354
0.46853
0.13925
0.41255
0.00802
-0.47694
0.02389
-0.08249
-0.02267
-0.16704
-1.10021
-0.34480
-0.50454
-0.17204
0.07834
-0.94071
0.27557
0.00564
0.06171
0.21321
0.59748
0.20058
-0.72908
-0.35022
0.14173
0.41529
-0.87284
-0.50173
0.54322
0.57937
0.24970
-0.61940
0.27255
0.22100
0.13432
0.47411
0.43077
-0.01462
0.17554
0.30163
0.07472
0.20116
-0.78151
0.01311
0.13198
-0.32173
-1.28539
0.09730
0.47885
-0.43304
-0.27634
0.11753
-0.16566
0.28926
-0.67212
-0.27914
-0.08688
0.35914
0.35272
0.16700
0.54782
0.08293
0.11857
-0.51623
-0.58482
-0.26666
0.02035
-0.20181
-1.27471
-0.17629
0.15410
0.09692
0.24715
0.17414
0.20363
-1.13413
-0.47484
-0.02299
-0.41836
0.15024
-0.45365
-0.40824
-0.30549
0.14509
0.30678
0.32022
0.16394
0.25791
0.32457
-0.33440
-0.12124
0.37886
0.16646
0.29183
0.09757
0.06357
-0.15686
-1.26028
-0.46632
0.35591
-0.99347
-0.11285
0.13619
0.21115
-0.18290
-0.39135
0.27285
0.21258
-0.07444
-0.25902
-0.08051
0.77198
0.46088
-0.24485
0.36186
0.09384
-0.15984
0.53968
0.24320
-0.32213
-1.09549
0.03799
-0.69635
0.39307
0.09758
0.31136
-0.00718
-0.68235
-1.14446
0.15233
-0.62702
0.23553
0.47919
0.08951
0.25127
-0.11457
0.18228
-0.40072
-0.32983
-0.03870
0.11476
0.41555
-0.90461
-1.25894
0.25688
-0.07987
0.38301
-0.12411
0.42309
0.08414
-0.47872
-0.46131
0.38180
0.18372
0.10510
0.00723
0.60956
-0.37973
0.21461
0.06777
0.15828
0.08798
-0.07014
0.58869
-0.37091
0.00036
0.42613
0.16916
-0.69062
-0.33538
-0.35043
0.41692
-0.71108
0.72500
0.44848
-0.20287
0.12643
-0.57063
0.11090
0.31451
0.74788
0.06312
0.26046
-1.40281
0.19483
-0.20497
0.33165
0.58932
-1.85384
-0.16641
-0.21663
-0.05896
0.35109
0.06779
-0.37598
0.36616
-0.39351
-0.03063
-0.80442
-0.07302
-0.67152
0.15106
-1.70236
-0.19762
-0.32435
-0.10084
-0.29776
0.21214
0.18982
-0.95597
0.47614
-0.13506
-0.40092
0.33223
0.25987
-0.22153
0.18641
-0.00118
0.15440
-0.13960
-0.21016
0.12932
-0.69079
-0.20952
0.19852
0.16778
0.52544
-0.37556
-0.90121
-0.33800
0.36495
0.19858
0.46826
0.14981
-0.43264
0.36424
-0.04898
-0.43093
-0.55816
0.26827
0.17035
-0.62753
0.06175
0.03872
0.18289
0.20846
-0.04511
0.21318
-0.01019
0.26801
-0.84623
0.11849
0.75092
-0.40609
0.68698
0.46956
0.13105
-0.76674
0.25584
-0.00889
-0.23702
0.56582
-0.12706
-0.12006
0.06528
0.17499
0.14942
0.28479
-0.93220
0.22050
-0.16795
-0.34505
0.20284
0.14174
0.15003
-0.68121
-0.07640
-0.21109
0.16052
0.56285
0.27189
0.12530
-1.60117
-0.16734
-0.46268
0.50285
-0.26717
-0.08994
-1.36240
-0.02297
0.20114
-1.10532
0.23929
0.40289
0.04742
-0.18483
-0.06117
-0.84771
0.47362
-0.57883
0.03409
-0.15710
0.41276
-0.24894
-0.94995
-0.85041
-0.37126
0.38823
-1.29234
0.06491
0.52722
-0.28338
-0.21708
0.15530
0.22516
0.28262
0.18007
-0.28088
0.47595
-0.07927
0.00527
-0.45581
-0.88019
0.57051
0.48964
0.34359
-0.22516
0.17582
0.14579
-0.11688
-0.11221
0.11051
0.34423
0.03892
0.27505
0.68503
0.11541
-0.10817
-0.74442
-0.25154
0.16018
-0.04460
0.80525
0.11653
0.60895
0.69426
0.37212
-0.48649
-0.14017
0.41764
0.17662
-0.46818
0.28290
0.07082
0.13532
0.25453
0.56511
0.06049
0.56838
-0.60791
-0.77718
-0.27305
0.23820
0.12326
0.27623
-0.39013
-0.15156
-0.38652
-0.07056
0.15187
-0.36492
0.09321
-1.00049
0.30063
0.10829
0.37929
0.17442
-0.53219
-0.12746
0.16822
0.53978
0.10334
-0.34068
0.59990
-0.45471
0.18731
0.66877
0.12309
-0.38331
0.02480
-0.11999
0.11904
-0.00845
0.33452
0.19486
-0.42215
0.09147
0.13584
-0.52794
-0.78384
-0.24182
0.46533
0.47517
0.14667
0.17138
-0.36350
0.07038
-0.05374
0.26087
-0.29512
-0.55274
-1.21893
-0.00894
0.49075
0.49898
-0.78242
-0.44974
-0.68893
-0.14534
-0.67474
0.28546
0.17012
-0.88363
-0.14975
-0.65310
0.22879
0.55855
-0.66741
-0.44259
0.14853
-0.45511
0.31660
0.37348
-0.44360
0.22488
-0.90980
0.34559
0.15874
0.75834
-0.66532
-0.19809
0.44694
-0.28520
-0.20777
0.79746
-0.12438
-0.26616
-0.13660
-0.24627
-0.45726
0.20698
-0.51256
0.09359
0.06819
-0.40544
-0.64794
-0.63714
-0.00059
-0.17838
0.04965
0.00511
-0.03400
0.31610
0.10170
0.27687
0.22644
-1.11890
-2.06171
0.16247
0.21891
0.23944
-0.09072
0.26183
0.08394
0.10037
0.30958
-0.57845
0.19956
-0.34956
-0.24468
-0.12139
0.22704
0.16469
0.61982
0.20367
0.46767
-0.05734
0.38544
0.26610
-0.00341
0.19993
-0.51259
-0.35844
-0.28865
-0.03121
-0.76710
0.44207
0.33410
-0.39507
0.03853
0.45021
-0.00189
0.47920
0.15410
0.27124
0.40237
-0.13765
-0.28678
-0.90127
-0.17614
-0.12793
0.16912
-0.51462
-0.29367
-0.05509
-0.40033
0.01118
0.29047
0.16308
1.06720
-0.32492
-0.41337
0.30719
-0.33191
-0.61245
-0.03005
-0.03870
0.20317
-0.56187
0.56196
0.54954
0.08612
0.58422
0.12819
-0.47899
-0.15312
-0.15098
-0.37641
-0.43307
0.16185
0.17537
0.16458
0.00514
0.01324
0.06216
0.60724
0.45623
0.03408
0.26023
0.13393
-0.20444
0.33036
0.55663
0.04525
-1.06231
0.18089
-1.10714
0.31453
0.05440
0.59119
0.21894
0.24628
0.14796
0.15529
0.19309
0.81064
-0.90204
-0.26023
0.79475
-0.79882
-0.34114
0.08006
0.17446
0.34803
0.17016
-0.28901
-1.26142
0.50921
0.38520
-0.06133
0.57539
-0.22810
-0.53850
-1.49748
-1.05273
-0.10850
-0.27525
0.38684
0.17129
-0.26731
0.30215
-0.16841
-0.60008
0.05631
0.21784
0.18953
0.57329
0.12649
-0.06919
0.56339
0.00640
-0.75505
0.18213
0.22676
-0.48375
0.32833
-0.36081
0.11283
-0.57347
-0.06843
0.06662
-0.33753
-0.06877
0.62138
-0.73893
-0.02105
0.49453
-0.91887
-0.31702
-0.89341
0.14151
0.60182
-0.04145
-0.61747
0.32416
0.37788
0.14420
-0.82565
-0.41684
0.12439
-0.89429
0.61073
-0.12387
0.15986
0.38290
-0.35715
0.02641
0.15585
0.09801
0.01100
0.12575
0.37558
-0.47945
0.23795
-0.44583
0.13468
0.48600
0.24373
-0.81558
0.28502
-0.03000
0.19853
0.33262
-0.45728
-0.89626
-0.32622
-0.46158
-0.06618
-0.87715
0.33069
-0.38785
0.18166
0.31213
0.15507
0.18689
-0.00686
0.31804
0.24412
0.19995
-0.36210
0.33668
0.15853
-0.23367
0.13387
0.02313
-0.07175
0.29966
0.35687
0.56477
0.34394
-0.74567
0.51981
-0.07196
0.14470
0.19003
-0.03717
-0.30884
0.68838
0.10193
-0.41047
-0.69201
0.11310
-0.01968
0.19940
0.14240
0.45540
-0.08683
0.17277
-0.92393
0.32572
-0.05748
-0.74052
-1.43056
-0.08666
-0.00707
0.42472
-0.01859
-0.26904
-0.18336
-0.42015
0.10799
0.53903
0.37074
0.15260
-1.07162
-1.29856
0.12798
-0.57540
-0.37042
0.16242
-0.13547
0.20076
0.47031
0.44455
0.50017
0.57174
0.26439
0.03119
-0.35269
0.40552
0.22411
0.04505
0.00681
-0.29798
0.16140
-1.00550
0.01851
0.41682
0.36868
0.01718
0.16727
-0.36801
0.34955
0.22214
0.35651
-0.11961
-0.39273
0.15155
-1.34085
0.15433
-0.02805
0.10786
0.05523
-0.27035
0.30158
0.18493
0.20300
-0.46003
0.12474
-1.18836
-0.07819
0.37242
0.41091
-0.33373
0.62551
0.03267
0.11661
0.05909
-0.30480
-0.32066
0.10808
-0.12770
0.11218
0.20519
-0.14537
-1.24592
-0.35990
0.10719
0.19756
0.34833
0.15392
0.14118
0.13897
0.22425
-0.81706
0.42042
0.03296
-0.23274
-0.07370
0.12401
-0.87451
-0.15624
0.16333
0.39959
0.13278
-0.24612
0.13215
-0.74343
0.16867
0.07137
0.44037
0.10572
0.17574
-1.06740
0.32343
0.30046
-0.64974
-0.03229
0.02484
0.36778
0.09353
0.19037
-0.50036
-0.39419
0.47955
-0.37660
-1.63968
0.16896
0.67140
0.38646
0.14201
0.00214
0.19624
0.20750
0.68419
-0.73339
0.62705
0.05587
0.24805
0.09330
0.37473
0.39319
-0.01137
0.28814
0.18574
0.45778
-0.25744
0.08836
0.47650
0.22673
-0.72561
0.42479
-0.14275
0.29608
0.14625
-0.34982
-0.34485
-1.07160
-0.04409
-0.08137
0.13959
0.01139
0.00347
-0.12948
0.07722
0.25618
-0.24031
0.31151
-0.34421
0.26295
-0.36898
0.12476
0.07691
0.46173
-0.65088
0.25315
0.45739
-0.65301
-0.46886
-0.99728
0.18863
0.50193
0.15685
-0.07168
-0.73584
-0.25869
0.23221
-0.10416
0.22078
-0.17715
-0.04849
0.12189
0.48510
0.18287
0.01949
-0.66071
0.33439
0.16619
0.02060
-1.40945
-1.41234
-0.01968
0.49608
-0.03287
0.55707
-0.21150
-0.10472
0.55308
-0.67376
-0.19503
0.18504
-0.13408
0.10749
0.41734
-1.50102
-0.03763
-0.71812
0.06375
-0.23087
0.42859
0.00004
-0.55454
0.19249
-0.47499
0.03102
-0.02444
0.46130
0.30069
-0.96677
0.07546
0.15242
-0.54755
-0.30618
0.45581
-0.11345
0.24239
-0.84862
0.01307
0.15099
-0.08427
0.56525
-0.65339
0.10663
0.42731
0.35675
0.19739
0.15960
0.00342
-0.33687
-0.49994
0.42542
-0.47059
0.27611
0.31009
-0.98438
-0.02734
-1.19739
-0.16831
0.03988
-0.13864
0.43802
-0.39032
-0.76662
-0.29920
-0.08858
0.48586
0.57259
0.03362
0.48728
-0.38986
0.39790
-0.48294
0.10996
0.09598
-0.71184
-1.22899
-0.31777
0.30994
-0.67285
0.29366
0.11742
0.30804
-0.05569
0.75226
0.12962
-0.78145
-0.04253
-0.59917
0.11203
0.16961
0.17869
0.00685
-0.32140
-0.32498
0.13264
0.18336
-0.09582
0.03626
-0.40342
0.03780
0.11475
0.22074
0.60035
0.44813
-0.41425
-1.14130
0.18606
-0.11464
0.05662
0.51097
0.00110
0.19064
-0.72236
-0.13751
0.05147
0.16101
-1.03626
-0.28806
0.02891
-0.10111
0.42485
-0.07483
0.13153
-0.27929
0.04991
-0.32586
0.42816
-0.80138
0.07298
-0.14005
-0.38273
0.09283
-0.71175
-0.91342
0.78125
0.03569
0.29477
0.46016
0.26136
0.26149
-0.06070
0.05101
0.10121
-0.06397
-1.56758
0.00260
0.01755
-0.28439
0.01649
0.05648
-0.49491
0.25757
0.44378
-0.67236
-0.28096
0.18861
0.17900
0.16222
0.26934
0.33036
0.15313
-0.48973
0.39153
0.23255
-0.57006
-0.52966
-0.22975
-1.32772
0.48415
0.49795
0.18015
-1.02278
0.16147
0.28905
0.11620
-0.06225
0.13939
0.30899
0.59320
0.04702
0.30212
0.12009
0.28296
0.16729
-0.38809
0.01470
-0.25834
0.18250
0.42325
0.12145
0.44380
-0.24575
-0.42352
-0.00125
0.09801
-0.36713
0.19075
0.36608
-0.76198
-0.30912
0.74305
-0.07033
0.11493
-0.35758
0.40174
0.11476
-0.85659
0.16998
-0.00435
0.29168
0.08075
0.21572
0.18287
-0.51227
0.08664
-0.00760
0.13997
0.25366
-0.38273
-0.50218
0.11487
0.25760
0.04225
-0.22656
0.31785
0.10354
0.66668
-0.21762
0.40906
-1.25684
0.35033
-0.01685
-0.66160
0.32408
0.42897
-0.28540
-1.34080
0.37241
0.13051
-0.75727
0.11970
0.17142
0.54806
0.13364
0.51354
-0.00500
-0.03869
0.08805
0.01578
-0.39725
0.43532
0.11621
0.24153
0.43643
0.49827
0.12194
0.04703
0.13520
0.04880
