0.15163
-0.12598
-0.43532
-0.11331
0.12405
0.20301
-0.00299
0.09251
-0.04243
-0.07639
-0.33087
-0.64655
-0.13678
0.10143
0.12774
0.00972
0.19536
0.36582
0.17896
0.03957
0.15600
-0.70226
0.09547
-0.50284
0.22735
0.29123
0.17047
-0.20790
0.36863
-0.18829
0.00146
-0.22203
0.05982
-0.13046
0.01589
0.05704
-0.15966
-0.04757
-0.00111
0.21346
-1.16519
0.03985
-0.00274
-0.79961
-0.19177
0.26486
0.21355
-0.32193
0.30065
0.09106
0.24240
-0.41231
0.28717
-0.10372
-1.19223
-0.28562
-0.05452
0.20709
0.36308
-0.12031
0.24880
0.24689
0.20273
0.05530
0.22347
0.00416
0.13548
-0.30282
0.14401
-0.27190
0.23680
0.11027
0.16178
0.17854
-0.21926
0.37686
0.11885
-0.07259
-0.25850
-0.12178
0.01027
0.12329
0.00563
0.03769
0.02301
-0.24500
-0.23830
0.27044
-0.51954
-0.02453
-0.65937
-1.03260
0.65638
-0.19444
0.04456
-0.20756
-0.12942
0.00139
0.04435
-0.51433
0.22079
-0.26937
0.06553
0.14917
-0.08791
0.14536
-0.11420
-0.05832
0.13543
-0.03218
0.39876
-0.18463
-0.47438
0.21349
-0.06641
-0.65070
-0.38689
-0.02655
0.24591
0.20198
0.20869
-0.00757
0.08771
-0.33315
-0.66164
0.22367
0.04862
0.07467
-0.41511
-0.00120
0.05577
-0.18058
-0.03114
-0.83738
0.00991
0.24909
0.33148
0.07356
-0.36848
-0.27702
-0.42250
-0.20130
0.07400
0.13575
-0.10491
0.21962
0.10903
0.08455
-0.17982
-0.32953
0.02793
-0.12309
-0.22128
0.12146
-0.30105
-0.76237
0.12765
0.12092
-0.18720
-0.09960
-0.08374
-0.13884
-0.43530
0.08591
-0.51912
0.31644
-0.26692
0.17201
0.22198
0.08639
0.22095
-0.32840
0.07780
-0.21107
-0.16291
-0.10696
-0.87035
0.11427
-0.42638
-0.13407
0.29127
-0.17595
0.20960
-0.10975
-0.70169
0.04312
-0.26740
-0.25061
-0.82056
-0.33939
0.03777
0.10089
-0.42586
-0.38306
-0.08376
0.28027
0.07499
-0.13934
-0.99349
-0.75416
-0.13223
-0.38768
0.21848
0.00783
0.11026
0.04154
-0.51026
-1.15141
-0.47160
-0.02478
0.46725
-0.14168
0.05917
-0.09350
-0.28225
0.24334
-0.29372
0.03716
-0.26488
0.32852
0.10212
-0.04005
-0.62993
0.06347
0.21478
-0.33271
-0.22132
-0.34617
-0.19150
0.22539
0.03068
0.17110
-0.05553
0.23267
0.15077
0.05137
0.13193
0.00893
-0.64486
-0.21022
0.22166
0.44093
0.18363
-0.16214
0.20834
-0.05302
-0.06242
0.14897
0.18295
-0.19468
0.22298
0.31178
-0.20399
0.17325
0.12325
-0.23282
0.17483
-0.32489
-0.26427
0.00656
-0.04581
-0.22728
0.30940
-0.19395
-0.22618
0.07384
0.19459
0.29854
0.06629
0.18965
-0.20437
-0.26649
0.15171
0.01429
0.12342
-0.27203
0.20802
-0.00888
-0.22734
0.23752
-0.01774
0.22348
0.04786
-0.22828
-0.73105
-0.22277
-0.44735
0.06718
0.07566
0.24813
-0.14762
-0.08645
-0.24422
-0.46351
0.07923
0.08497
0.11196
-0.48166
-0.12669
0.00503
0.02585
-0.20779
0.10107
0.34564
-0.13973
0.13510
0.61194
0.20810
0.26012
0.23354
0.14076
0.17477
-0.38640
-0.06572
0.05267
0.24570
-0.18102
0.13042
-0.11289
-0.12531
-0.06530
-0.11695
-0.51632
0.32234
-0.12095
-0.68769
0.24091
0.61477
-0.22656
-0.19022
0.13206
0.18776
0.25962
-0.18766
-0.18852
-0.43692
0.07964
0.11804
0.05294
0.09465
-0.05975
0.15731
0.11368
0.15449
0.25390
0.32770
0.14827
0.16816
-0.08328
0.17191
0.29569
0.23089
-0.84218
0.25210
-0.07998
-0.09941
0.10016
0.19491
-0.12530
0.26897
0.08331
-0.15101
-0.56835
-0.20656
0.09124
-0.00167
-0.47601
-0.22748
0.12546
0.19853
-0.87119
-0.01312
0.24509
-0.53717
-0.24861
-0.72868
0.02810
0.01776
-0.03683
0.05354
0.08736
0.18095
0.02023
-0.37502
-0.02043
-0.21528
-0.49577
-0.01524
-0.32859
0.23835
0.15803
0.33070
-0.39723
0.00404
-1.00345
-0.74225
-0.18947
0.18672
0.00425
-0.07962
-0.15615
-0.28001
-0.25599
0.16063
-0.09594
-0.04166
-0.12221
0.52478
0.19467
-0.43603
-0.44530
0.13294
0.08737
-0.02713
-0.19578
0.31961
0.24459
0.16801
-0.28734
0.21694
0.18551
-0.24789
-0.29523
0.09484
0.05998
0.20752
0.22244
0.34661
0.14554
0.25120
-0.16620
-0.11415
-0.32977
-0.18581
0.24378
-0.35098
0.11161
-0.09089
0.08377
0.09711
-0.08113
-0.14864
0.24738
0.13610
-0.68315
0.63594
0.24486
-0.19390
-0.14958
0.23824
-0.30388
-0.38571
-0.31781
0.05958
-0.20564
0.13896
0.18124
-0.76500
-0.38276
-0.04899
0.16355
-0.02457
0.17888
-0.10015
0.05800
-0.03231
0.18523
0.22863
-0.38057
-0.27540
0.18306
-0.41696
-0.56472
-0.34516
-0.08434
-0.25796
-0.42118
-0.13674
0.26409
0.22946
-0.35712
0.19277
-0.13831
-0.69648
0.06400
-0.29790
-0.03019
-0.09250
0.22855
-0.21084
-0.16151
0.23168
-0.19553
0.25062
0.05688
-0.17588
-0.29330
-0.20432
-0.21760
-0.54843
0.12084
0.20910
0.14129
-0.31236
0.14882
-0.34673
-0.32692
0.13708
-0.38130
0.12314
-0.26530
-0.09886
-0.40506
-0.14711
0.35864
0.16538
-0.05416
-0.07133
-0.02530
-0.34199
-0.11953
0.11936
-0.36712
0.23114
-0.15823
0.29332
-0.54916
0.00123
-0.06990
-0.25082
0.23995
-0.03381
0.06020
0.09790
-0.13841
-0.15105
0.07136
-0.18241
0.11458
0.22530
0.13158
-0.57098
-0.72850
0.09867
-0.28507
0.25668
-0.06193
-0.45122
0.11317
-0.39228
-0.35387
0.22160
0.57931
-0.01486
-0.41602
-0.41518
0.37541
0.04537
0.04524
-0.24990
0.08494
-0.01123
-0.24217
0.12829
-0.93270
0.11982
-0.09300
0.00571
0.25741
-0.09360
-0.15530
0.21721
-0.44617
0.37336
-0.15873
-0.11474
0.00383
-0.35202
-0.03601
-0.33392
-0.07144
0.00576
-0.08770
-0.61328
-0.77988
0.60376
-0.00175
-0.23985
-0.17917
-0.14649
0.14849
0.23083
0.36039
0.00493
0.08949
-0.95528
0.05130
-0.09249
0.20394
-0.04284
-0.08700
0.16532
-0.22713
-0.05548
0.21186
-0.04343
0.26960
0.01017
0.08080
-0.44078
-0.08429
0.23373
0.24086
-0.23290
0.08534
-0.13201
0.35995
-0.32206
-0.42964
0.06082
-0.07319
0.00591
-0.04565
0.07804
0.16159
0.24517
-0.32761
-0.23604
-0.10609
0.23560
-0.22999
-0.89251
0.03670
0.14563
-0.14924
-0.33901
-0.07495
0.18145
0.09665
0.06267
0.09385
0.26622
-0.11766
0.17802
-0.96318
0.20257
-0.65564
-0.25002
0.00323
-0.35089
-0.05600
0.06760
-0.06202
0.09410
0.30927
-0.07284
-0.11064
0.01226
-0.27348
-0.28400
0.17595
-0.03729
0.25860
-0.31349
0.05258
0.24811
0.18885
0.16162
-0.89356
-0.06925
-0.22529
-0.41324
0.05508
-0.22934
-0.46919
-0.33933
-0.18556
0.24289
0.00751
0.05140
0.19613
0.16840
-0.65369
0.06268
-0.89688
0.20651
-0.02232
-0.06227
-0.32585
0.31596
-0.47513
0.05157
0.02359
-0.22920
-0.29421
0.41850
-0.46702
0.33572
0.21746
-0.43777
0.18261
0.15895
0.13976
-0.08152
-0.53356
0.26262
0.22149
-0.12853
0.01812
0.04260
-0.47415
0.11142
-0.01162
-0.10086
-0.27093
-0.21609
-0.01680
0.22211
-0.13852
0.06284
-0.24207
0.20093
-0.05781
-1.20764
0.02588
0.28085
0.06395
-0.17320
-0.46594
0.11277
-0.28652
-1.12703
-0.12232
0.24262
-0.23730
0.20345
-0.01410
0.15764
-0.18590
-1.10168
0.18044
-0.24077
0.19518
-0.16478
0.20994
0.41528
0.11891
0.18497
0.10550
0.33580
0.26819
0.20709
0.17565
0.23879
0.08175
0.09604
0.15521
-0.17436
-0.56624
0.15462
0.13485
0.14340
-0.31344
-0.01361
-0.05643
0.09455
-0.10853
0.17901
0.31704
0.16218
0.06722
-0.00139
0.24349
-0.39079
0.01139
-0.07272
-0.53943
0.17632
0.03037
0.19185
-0.12040
-0.30667
0.28565
-0.39352
-0.31069
0.13340
-0.01787
0.20732
-0.14969
0.08369
-0.39799
-0.07795
-0.64291
0.32574
-0.06214
-0.01880
-0.12608
0.24281
0.00825
-0.09472
-0.33379
-0.18451
0.01021
-0.22184
-0.27766
0.21506
-0.53251
0.12715
0.36331
0.22009
-0.08207
0.14255
0.20436
0.13023
0.21551
0.19783
0.00324
-0.03601
-0.79226
0.06567
-0.00758
0.11984
-0.31103
-0.84710
0.04397
0.21522
-0.06620
0.02402
0.21032
-0.13797
-0.15062
0.15359
0.06897
-0.11156
-0.09522
0.46749
0.18252
0.22256
0.15226
0.40068
0.05179
0.10925
0.19315
-0.03833
0.38220
0.18451
-0.41084
0.02370
0.03708
0.15221
-0.48982
-0.52106
0.28335
0.21806
-0.44668
0.01114
-0.69949
0.29857
-0.13855
0.11047
-0.06720
0.02415
-0.35738
0.03038
0.10214
-0.02322
-0.33701
-0.04763
-0.21188
0.18747
0.26801
0.21811
0.09626
-0.08757
-0.30216
0.06345
0.20901
-0.63708
0.04863
-0.15534
-0.07244
-0.19857
-0.26612
0.06766
0.32624
0.21030
-0.16789
0.10294
-0.10321
-0.12072
-0.02521
-0.05898
-0.01117
0.16058
0.30890
-0.34886
-0.05844
-0.12659
-0.28396
0.27901
-0.27397
0.17454
0.31891
-0.39571
-0.80457
-0.06913
0.23379
-0.28057
0.25647
0.10076
-0.13461
-0.08255
-0.42110
0.06260
0.05584
-0.20517
0.18462
-0.20275
0.13144
-0.22088
0.09684
-0.24974
-0.14940
0.18481
-1.02415
0.21705
-0.25442
-0.23084
0.00845
-0.54801
0.22881
0.52844
-0.16371
-0.70705
0.18100
-0.42177
0.20612
0.18316
0.02631
0.14257
0.04780
-0.27631
-0.10476
0.03452
0.23220
-0.19563
0.16942
-0.57116
0.22980
0.05287
-0.22083
0.22939
-0.42966
0.20521
-0.23640
-0.49373
0.40944
0.32194
0.08162
-0.44056
0.06156
0.21937
-0.94978
0.06636
-0.40323
0.15227
0.17811
-0.40589
0.10483
-0.04011
-0.47134
0.10326
0.06197
0.25178
-0.12657
0.05193
0.15375
0.13495
-0.31480
-0.11689
-0.13800
0.03926
-0.31390
0.08498
-0.41329
-0.56050
0.12209
-0.21203
0.19160
-0.25465
-0.71113
0.22269
-0.22531
0.19322
-0.08516
0.15659
0.25923
-0.09483
0.13804
0.21062
-0.49379
0.39661
0.27142
0.20539
-0.29908
0.17347
0.20603
0.19778
0.36765
-0.08972
0.11682
-0.09945
-0.20943
0.23180
0.41342
0.22816
0.19049
0.26733
0.23934
0.43009
0.23859
0.25593
0.42797
0.35245
0.25462
0.23428
-1.22918
0.52555
0.51998
0.25344
-0.07003
0.33386
0.08590
0.05512
0.26022
0.33920
0.34343
-0.39456
-0.40234
0.33950
-0.20117
-0.27609
0.37642
0.36500
0.40568
0.43643
-0.36675
0.62355
-0.47687
0.22954
0.36017
-0.01868
0.72375
0.09941
0.32308
-0.06169
0.35329
0.18086
0.11946
0.11819
0.24292
0.36089
0.11781
0.27308
0.11833
0.82936
0.15130
0.16671
-0.44568
0.23644
0.41324
0.31476
-0.07163
-0.05431
-0.04955
0.12810
0.19083
-0.33168
0.85925
-0.07991
0.17333
0.15987
0.38770
-0.40157
0.04062
0.24522
0.28785
0.25936
-0.09776
-0.25148
0.61476
0.37531
0.60355
-1.11868
-0.88850
0.11484
-0.01376
-0.64208
0.16870
-0.02780
-0.29011
-0.55883
0.11954
-0.17532
0.25622
-0.47724
-0.20612
0.59896
0.12751
0.65525
0.32519
0.29885
0.10220
0.03366
0.58342
0.27406
-0.36124
0.24511
-1.84581
-1.12943
-1.76736
0.07627
0.25514
-0.49484
-1.15165
0.31087
-1.13751
0.19000
0.07129
0.06503
0.50559
0.37831
0.30770
0.48465
0.51023
0.33117
-1.16743
0.54263
0.41725
-0.46057
0.15262
-0.08005
0.46881
-0.00923
0.04471
-0.03972
0.53582
0.11177
0.62273
0.25525
0.35267
0.21514
0.37042
0.31544
0.09038
-0.47626
0.42904
-0.08164
-0.24706
0.12406
0.27497
-0.33395
0.03348
0.24905
0.89657
0.15770
-0.61263
0.52556
0.36003
-0.20391
0.35877
0.33181
0.23089
0.01734
0.14290
0.13398
0.10791
0.24337
0.33718
-0.49105
0.34740
0.14000
0.63502
0.20362
0.33193
0.29537
0.41533
-0.47967
-0.14527
0.05659
0.37751
-0.31068
0.20428
-0.87458
-0.25093
0.15648
0.52465
0.33359
0.05089
0.22679
-0.62047
-0.79204
0.29859
0.17273
-0.27914
0.20892
0.26367
0.14115
0.29982
0.24087
0.21187
0.06206
-0.18656
0.02979
0.37375
0.25251
0.26729
-0.10430
0.28145
-0.07917
0.00414
0.33633
-0.12143
-0.20710
0.14138
-0.20319
-0.38988
-0.29218
-0.17236
0.20348
0.53628
0.00432
0.09986
-0.45313
-0.99085
0.28887
0.13211
0.61624
-0.30576
0.21466
0.55479
-0.42004
-0.32380
0.39302
0.14793
-0.20010
0.23079
0.28993
0.38355
-0.36330
-1.14270
0.49502
-0.81480
0.02718
0.23140
0.06291
0.13140
0.33341
-0.74014
-0.20673
0.68407
0.15205
0.16400
0.15101
-0.08136
-1.29686
0.58197
0.12148
-0.53229
-0.63734
0.14875
0.17478
-0.43993
0.25069
-0.51895
-1.03943
0.31322
-0.25228
-0.04146
0.22861
0.28616
0.11278
-0.73258
-0.08827
-0.46526
-0.02571
0.13908
0.36796
-0.61691
-0.30489
0.16481
-0.85059
-0.85248
0.12587
0.16495
0.38794
-0.10104
-0.42927
-0.46953
0.30036
-0.23385
0.41839
-0.36411
0.30243
0.14182
-0.76492
-0.09390
-0.04753
-1.06811
0.77859
0.60391
0.37558
0.21995
0.44318
0.54449
-0.55584
-0.71554
0.36600
-0.28064
0.11099
0.25781
0.40012
0.32207
0.07986
0.41249
0.35950
-0.10146
0.32971
0.17512
0.25891
0.40754
-0.25681
0.23544
-0.22396
-0.13992
0.30480
0.24073
0.24478
0.30297
0.38936
0.28423
0.39464
0.42000
0.14172
0.42250
0.19427
-0.93449
0.31130
0.28275
-0.31029
0.13835
-0.39953
0.20694
0.51667
0.28857
-0.16594
0.35678
0.32101
0.19938
0.17892
-0.45717
0.34487
-0.12675
-0.19416
0.43034
0.49955
-0.47638
-0.49695
-0.15719
0.45976
0.90731
0.51250
0.61323
0.20266
-0.35360
-1.25147
-0.32498
0.22372
-0.30077
0.47227
0.56487
-0.01635
0.47027
0.03424
-0.53941
0.50461
0.21402
0.13753
0.14992
0.11816
-0.42760
0.48223
0.27378
0.41241
0.12670
-0.72419
0.24484
0.36906
-0.40780
0.01963
0.19182
-0.61857
-0.52492
-0.84801
0.60853
0.07534
-0.32698
-0.10141
0.26167
-0.16273
0.21839
-0.54342
-0.08586
0.19946
-1.05118
0.16771
0.14636
0.22350
-0.14423
0.38367
0.18259
0.36562
0.25703
0.05818
0.29169
0.35390
0.49267
-0.61741
0.22525
0.58494
0.78209
0.31052
0.71403
0.15315
0.51662
0.03714
0.35469
0.15475
0.16301
0.40806
0.32160
-0.05940
-0.13577
-0.62862
0.35503
0.32309
0.46453
-0.01302
0.02809
0.52973
-0.64168
0.28320
0.37439
-0.72090
0.12361
0.26808
0.35973
0.32642
0.00448
0.27750
-0.25420
0.44843
-0.17638
0.16944
0.25304
0.33007
-0.44656
0.47138
-0.39097
0.45070
-0.96797
0.51949
-0.11375
0.17900
0.29992
0.41251
0.21154
0.16790
0.31503
0.39019
0.24745
-0.34942
0.61620
0.03714
0.71125
0.01503
0.26202
0.83585
0.76046
0.41902
0.18204
-0.70460
0.31150
0.26335
-0.51819
0.21094
0.23655
0.07994
0.20086
0.25904
0.45740
0.25509
-0.50396
-0.02014
-0.07268
-0.10925
0.28184
0.19538
0.31135
0.40479
0.06354
0.44325
-0.13082
0.07443
-0.03093
-0.51476
0.25981
0.20608
0.10977
0.20439
0.26188
-0.15062
0.48822
0.44263
0.12613
-0.21025
0.32527
-0.27089
0.66438
0.51061
0.12012
0.40281
0.45971
0.43800
0.43196
0.04949
0.09196
0.65651
0.02536
-0.45260
0.45911
0.25931
0.26964
-0.34921
0.56721
0.01951
-1.71021
-0.29565
0.07085
0.43015
0.51369
-1.42563
0.25513
-0.63208
-0.05009
0.15431
0.34573
0.42389
-0.15353
0.40731
-1.17501
-0.38464
0.54000
0.80160
-0.62494
0.15051
0.12861
0.23052
0.14587
0.14448
-0.48739
-0.34301
0.16256
-0.00991
0.40087
0.11838
0.04680
0.55584
-0.23014
-0.52534
-0.25576
0.24360
-0.54748
0.37323
-0.81006
0.39317
-0.90891
-0.12062
0.17154
-1.03949
0.12239
0.47830
-0.11528
-0.51456
0.54355
0.16409
0.16806
0.34574
0.13151
0.12443
0.18259
0.12702
0.20518
-0.59336
-0.57119
0.24512
0.25854
0.03769
-0.44728
0.38401
0.17082
0.23380
-0.70105
-0.14624
0.31023
0.50473
0.46644
0.53878
-0.80000
0.06433
-0.78250
0.23405
0.35377
0.15629
-0.49979
0.39355
-0.38835
-0.47719
0.23050
0.19113
0.11986
-0.25769
0.27089
-0.09768
-0.25280
0.51256
-1.28118
0.39058
0.31288
-0.00097
-1.11651
0.05091
-0.27687
0.34232
0.76645
-0.06254
0.15857
0.42810
-0.49776
0.09903
-0.37516
-0.11897
0.21336
0.03382
0.44248
0.48159
0.24809
0.16496
0.32231
0.53557
0.17149
0.36955
0.37900
0.32179
-0.22168
0.37961
-0.06197
0.32981
-1.04294
0.85093
0.36130
0.13378
-0.08489
0.26995
-0.14057
-0.22076
0.30853
-0.26596
0.69504
0.12951
0.25963
0.26954
0.62758
-0.64471
0.70465
0.03794
0.12071
0.63562
0.26510
0.47434
-0.24602
0.11516
0.01590
0.21106
0.06741
0.24403
-0.28862
0.17231
-0.07435
0.27535
0.35053
0.39211
0.33508
0.20820
-0.17696
-0.47716
-0.49148
-0.70602
0.69434
0.17723
-0.38591
0.35495
-0.56444
0.16664
0.20388
-0.28745
-0.08224
-0.18048
0.16365
0.32512
0.37531
0.27348
-1.22906
0.13817
0.73451
0.06207
0.53442
0.44862
-1.06724
0.34980
-0.78058
0.17491
-0.52323
0.08818
0.47622
-0.55406
0.33828
0.14888
-0.29324
-0.60771
0.47677
-1.36006
0.18860
0.36471
-1.25805
0.63948
-0.10816
0.36084
0.28911
-0.39882
0.31241
0.36514
0.10128
0.67451
0.09516
-0.47349
-0.46400
-0.39472
0.27978
-0.42329
0.44686
-0.32849
-0.58441
0.37173
0.20217
0.46951
0.39843
0.32214
0.16183
0.45831
0.45797
0.33293
-0.06927
0.40567
-0.57451
0.26848
0.20163
-0.29090
0.29432
-1.07570
-0.61240
0.02014
0.04375
0.15977
-0.36823
-0.87585
0.22751
0.33290
0.38074
0.18525
-0.03625
-0.01968
0.21110
-0.04514
0.45597
-0.39388
0.29002
0.80066
0.49558
0.31427
0.27437
0.27918
0.15947
0.42841
-1.10207
0.37357
0.41846
-0.75078
-0.14490
0.42195
0.30143
-1.10890
0.28996
0.39860
0.14064
0.44358
-0.40785
0.17593
0.22136
0.43268
-0.63524
0.00306
-0.08190
0.37053
0.07689
0.07253
-1.06759
0.23661
0.33463
-0.08351
0.48258
0.15433
-0.20753
0.17407
0.24472
0.22290
-0.01205
-1.10347
-0.81118
0.39150
0.11507
-0.99384
0.37361
0.38755
-0.04824
0.34416
0.78412
-0.31446
0.12846
0.13469
0.70548
0.44827
0.18133
0.54645
-0.28859
0.22460
0.45405
-0.09264
-0.13017
-0.25589
0.40946
0.29844
-1.41512
-0.35224
-0.25538
-0.26428
0.72079
-1.32734
0.09613
0.15086
0.29800
0.18292
0.19988
0.33879
-1.04654
-0.36012
-0.09630
0.20618
0.20352
0.35629
0.13658
0.05788
-0.69552
0.37926
0.17172
0.27776
0.19220
0.30562
-0.05908
-1.24326
0.23271
-1.13242
0.01337
0.24405
-0.39551
-0.66906
0.06176
0.17714
0.53474
0.28667
-0.00283
-0.40321
-0.28521
-0.81978
-0.05000
0.49115
-0.46237
0.38614
0.36963
0.25605
0.39875
0.17161
0.14155
-0.07741
0.15398
0.17395
0.08897
0.31538
0.69646
-0.38578
0.42741
0.46923
-0.42774
0.04363
0.23181
0.16784
-0.43589
-1.39888
-0.09514
0.43158
0.49332
0.04232
-0.03843
0.21571
0.21977
0.35255
0.20990
-0.07872
0.83062
0.04977
-0.01608
0.09291
0.26807
0.14690
0.02695
0.46589
0.29818
0.25907
0.13350
0.27839
0.18104
0.06688
0.62334
0.22821
0.17492
-0.47780
-0.06363
0.14105
0.15310
0.35008
-0.34085
0.55906
-0.35526
0.38163
0.04684
0.64977
0.35947
0.15025
0.30036
0.01113
0.49948
0.45858
0.35186
0.24920
0.49131
0.15691
-0.01645
-0.45693
0.46048
-0.04949
-0.68765
-0.08394
-0.54154
0.36732
-0.16401
-0.40545
-1.04882
0.21982
0.41744
0.45838
0.43491
0.03265
-0.27276
0.14278
0.07596
0.29034
0.26646
-0.45976
0.22495
0.43739
0.43740
0.48253
0.26930
0.08312
0.05188
0.59370
0.23301
0.29089
0.21460
-0.01230
0.37233
0.09856
-0.36363
-0.32983
0.60684
0.22445
0.26376
0.26696
0.03086
0.22399
0.34619
0.28797
0.37636
0.80765
0.83531
0.02483
0.09672
-1.46156
0.53584
0.16353
0.41802
-0.74340
0.10140
0.40938
0.54371
-0.40006
-0.05555
0.20954
0.04527
0.48837
0.74613
-0.18882
0.45962
-0.41523
0.50450
0.04853
-0.34055
0.24481
0.28901
0.10538
0.16425
-0.82042
-0.18385
-0.27218
-0.14759
0.31599
-0.00621
0.42241
0.37873
0.33606
0.36768
0.39638
0.13455
-0.50626
0.10358
0.37054
0.35988
0.00908
0.58700
0.36353
-0.04286
-0.43631
-0.06781
-0.47058
0.45544
0.13952
-0.94350
0.41975
0.17562
0.16458
0.13717
0.05566
0.17583
0.22895
0.19999
0.22037
0.63724
-0.69094
0.00448
0.14206
-0.98308
0.27591
0.26097
-0.31921
0.15891
0.31524
0.06814
0.05809
0.29285
0.39857
0.27486
0.26536
0.37223
-0.18915
0.41018
0.13204
0.45040
0.78771
0.44949
0.15759
0.24002
0.29290
-0.38607
0.09671
0.80112
0.37399
0.29980
-0.33409
0.32464
-0.12855
0.34008
0.78570
0.19237
-0.30904
0.29011
-0.25481
0.26611
0.19146
0.27539
0.31876
-0.50150
0.44824
0.28582
0.13219
-0.19999
0.16263
0.48969
0.35518
-0.31910
-0.70321
-0.28195
0.33457
-0.00610
0.21049
-0.75978
0.09689
0.52215
-0.86012
0.06601
0.68511
0.51737
0.28639
0.11618
-0.49080
0.59301
0.48998
0.39448
0.09399
-1.06004
0.37385
0.17462
0.42799
-1.07799
0.43194
0.33424
0.34132
0.16510
0.04835
0.61135
0.47849
0.25822
-0.41280
0.37887
-0.21461
0.09358
0.36125
0.31931
0.37643
0.33303
0.81067
0.24577
0.24375
0.47720
0.29213
0.19982
0.47424
-1.25050
0.17761
-0.44302
-0.01303
-0.80711
0.32963
-0.30998
0.22933
0.13953
-0.86245
0.22483
-0.45809
-1.37872
0.10408
-0.14542
0.19200
0.24673
0.45568
0.62903
0.27928
-0.44306
0.14154
0.20236
0.69625
-0.44019
-0.05333
0.27883
0.27495
0.20851
-0.58206
0.59446
0.55105
0.35538
0.20055
0.44505
0.15985
-0.53750
0.23465
-0.38724
0.47393
0.32842
0.09506
0.11040
-1.37841
-0.92633
-0.41762
0.10064
-0.87833
0.37433
0.19858
-0.25762
0.42055
0.11431
0.10423
-0.13473
-1.41346
0.30575
0.54766
0.14472
0.28246
-0.17846
0.25871
0.46906
0.32705
0.36626
0.22718
0.39270
0.18488
0.35178
-0.45938
-0.66353
0.40201
-0.28613
-0.21096
-0.45205
-0.86835
0.29559
0.29721
0.31214
-0.41501
0.35949
0.20157
0.34498
-0.16861
-0.87437
-0.30752
0.35313
0.36428
0.25112
-0.05250
-0.12047
0.60429
-0.48055
-0.07318
-0.49200
0.08472
-0.69558
0.34415
0.26613
0.34102
0.25019
-0.19020
0.15603
0.38118
0.18021
-0.00085
-0.37187
0.44150
0.27990
-0.80054
-0.64903
0.30373
0.00005
0.10371
-1.09077
0.05101
0.24936
-0.69521
0.38351
-0.19991
0.13409
0.74871
0.25293
-0.05571
0.25083
-0.26230
0.16922
0.78274
0.42877
0.25258
0.22883
0.62328
0.50805
-0.34918
0.35384
0.32531
-0.59269
-1.76662
-0.05139
0.04583
-0.32385
0.50139
0.24706
-0.06561
0.24660
0.58648
-0.09441
-0.41723
-0.16105
-0.07748
0.30935
0.19111
0.09761
-0.03654
0.53201
-1.02126
0.38532
-1.07513
-0.41181
0.45524
-0.12661
0.40953
-0.51902
-1.20014
0.18782
0.04654
0.50187
0.24828
0.13795
0.11343
0.44412
-0.51306
0.21263
0.41805
0.31381
0.76906
0.06799
0.37093
-0.39915
0.39015
-0.40349
0.38055
0.03028
0.25792
0.23789
0.17826
0.18344
-0.01607
-0.31753
0.26831
0.17301
0.40187
0.35402
-0.16190
0.26583
0.13730
0.23388
-0.49332
-0.02316
0.45158
0.18890
-0.17137
0.14602
0.08377
-1.23046
0.10991
0.27588
0.33524
0.09238
0.20166
-0.71161
0.19693
-0.86013
-0.35650
0.06614
0.21225
-0.41094
0.36831
-0.37881
-0.00533
-0.11113
-0.13607
0.01341
-0.30189
0.45318
-0.33911
0.41790
-0.23974
-0.36601
-0.39082
0.42671
0.24399
0.33126
0.41730
-0.35693
-0.18077
-0.59967
0.25348
0.29401
-0.54834
-0.34523
-0.41205
-0.14706
-0.42701
0.86092
0.46870
0.24754
-0.06359
-0.68542
0.20583
0.42272
0.24303
-0.47775
0.44661
0.39611
0.29236
0.42928
0.09175
-0.36437
0.19999
0.38210
0.35085
-0.40174
0.60917
0.28474
-0.66244
0.10907
-0.33577
0.46524
0.11500
0.02025
0.14659
0.14255
0.00451
0.60788
-0.17229
0.20271
0.54132
0.74680
0.21844
-0.27038
0.31117
0.16087
0.13534
0.15259
0.16248
0.21788
0.32299
0.15764
0.21837
0.15515
-0.06854
0.38498
0.38285
0.26722
0.13867
0.11847
0.11545
0.31237
0.83462
0.23879
-0.20006
0.08608
0.17659
0.07470
0.21574
-0.42189
0.43707
0.54113
-0.03461
0.57426
0.02249
-0.45227
-0.09040
0.44154
0.08016
0.12617
0.45361
0.18449
0.55395
0.62906
-0.02967
0.20170
0.18526
-0.26843
0.01006
-0.59652
0.21044
0.64523
-0.09137
0.18321
-0.02179
-0.40203
0.21454
0.04750
0.03687
0.06965
-0.23436
0.45612
0.36750
-0.42963
0.50674
0.25185
-0.71289
0.13947
0.17762
0.48474
0.08574
0.30721
0.30960
0.40848
0.28520
0.39714
0.34538
0.11948
-0.78373
0.15650
-0.54172
0.31616
0.54817
0.13731
0.25782
0.39789
0.22957
0.41699
0.29175
0.25372
0.28414
0.34926
-0.25740
-0.34531
0.37732
0.22628
0.69816
0.25559
-0.59708
0.13347
0.14115
0.25228
0.22433
0.21561
-1.05962
0.13281
-0.91896
-1.22002
0.32124
0.22195
0.17876
0.07053
0.24039
0.04284
0.43143
0.27514
0.50650
0.23027
0.33897
0.16071
0.36973
0.86386
-1.50739
0.30307
0.41983
0.40511
0.31913
-0.46459
0.62540
0.36562
0.29502
0.14569
0.29153
-0.01426
0.32185
0.19319
0.33015
0.59001
0.26944
0.41004
-0.26744
0.15056
0.53275
0.41043
-0.64779
0.22718
-0.07083
-0.77175
0.30531
0.53639
0.12228
-0.50399
0.08157
0.24811
0.22090
0.24322
0.13820
0.28208
0.24904
0.42332
0.27356
0.51802
-0.65532
-1.68217
-0.09086
0.29756
-0.03940
0.25758
-0.36031
0.03190
-0.14287
0.29698
0.18528
-0.22293
-0.06203
0.49780
0.43747
-0.07093
0.44495
0.20968
-0.17438
0.19832
0.27660
0.08135
0.24052
0.16262
-1.10582
-0.30861
0.25871
-0.28270
0.20087
-0.39725
0.39793
0.11394
-0.73747
0.28622
0.34869
-0.13987
-1.17922
0.51514
0.37288
0.12706
-0.86087
0.32275
-0.16321
-1.35732
0.27316
-0.03065
-0.22140
0.15647
0.10564
0.36541
0.34759
-0.54750
0.34133
0.00864
0.11965
-0.04358
0.21628
-0.07818
-1.08635
-0.15562
0.24766
0.39817
-0.06901
0.25609
-0.88343
0.34647
0.16394
0.27156
0.18893
0.32034
0.11076
0.32212
0.25513
0.41982
0.36475
0.32431
0.45654
0.43825
-0.15371
-0.05215
-0.41158
0.07332
0.11427
0.49747
0.23791
0.32256
0.21849
0.24073
-0.39479
0.52957
0.03152
-0.62602
-0.46965
0.13393
0.04223
0.24667
0.26333
-0.44785
-0.42246
0.16362
0.33797
-0.34635
-0.99045
0.08576
0.16917
0.25696
0.11671
0.24035
-0.86037
0.58408
0.45339
0.12636
0.09564
-0.39524
0.29468
0.53970
0.47972
-0.02140
-0.58386
-0.02416
0.19411
-0.67212
-0.31473
-0.05518
0.30907
0.04478
0.14596
-0.48453
0.76324
0.38965
0.55019
0.73733
0.25250
0.27916
0.37249
0.35483
0.23972
0.25456
0.08906
0.09912
0.07316
0.16537
0.46198
0.08874
0.27625
0.49786
0.48111
0.48251
0.39183
-0.66456
0.15565
0.13791
0.03441
0.00126
0.13926
0.29497
0.28717
0.16535
0.47335
0.14193
0.50737
0.18323
0.25131
0.51802
0.06312
-1.21565
0.53160
-0.31194
-0.48352
0.22970
0.54294
-0.44055
0.46054
0.27607
0.19160
0.44232
-1.01045
0.14293
-0.43515
0.14872
-0.16046
-0.67644
0.20629
-0.02220
0.62787
-1.02782
0.41705
-0.68502
0.09026
-0.50851
0.22083
0.06316
-0.12068
0.16758
-1.44781
-1.89943
0.18810
0.16168
-0.20561
0.34055
-0.56974
0.06765
-0.81816
0.07196
0.25738
-0.73206
0.08603
0.32098
-0.48992
-0.11580
0.12494
0.02935
0.13670
-0.00104
-0.29782
-0.51259
0.45011
0.14318
-1.05641
-0.40754
0.28084
-0.02819
0.11924
0.47399
-1.27655
-0.25110
-0.71069
0.35471
-1.06801
0.42269
0.13848
-0.94401
-0.30508
-1.59510
0.16156
0.23500
0.32552
0.18207
0.59104
-0.39808
0.20889
0.52505
-0.03056
-0.04076
0.38658
-0.29195
0.51498
0.80975
0.51148
0.44112
0.41894
-0.02545
-0.40983
0.12451
0.14350
0.48653
0.55290
-0.68191
-0.75636
0.19948
0.32715
-0.94269
0.24002
0.27809
0.21152
0.38445
0.01388
0.42963
0.16540
-1.04587
-0.06874
0.10041
0.55917
0.20052
0.39010
0.29851
0.71652
-0.32890
0.15856
0.16793
-0.32046
-0.06787
0.20741
0.20286
0.35391
0.12962
-0.15921
-0.26628
0.65998
0.34311
0.57179
0.64320
0.01255
-0.01026
0.64882
-0.28631
-0.15595
0.39755
0.72107
-0.02645
0.45032
-0.47549
0.71464
0.97622
-0.35621
0.09866
0.42958
0.31385
0.64250
-0.69722
-0.75577
0.67457
0.25895
0.06803
-0.48884
-0.64991
0.01972
-0.07357
0.11826
-0.18858
0.01173
0.38343
-0.32138
-0.23613
0.08341
-0.09682
0.19394
0.62639
-0.01808
-0.19842
-0.60255
0.17777
-0.09757
0.18912
0.23716
0.05354
-0.40259
-0.27014
0.18097
0.43670
-0.89934
0.40478
0.16663
0.31706
-0.82487
-1.10221
0.27567
0.12002
0.43147
0.19460
0.15954
0.18215
0.43190
-0.09684
0.18275
-0.07151
0.38725
0.34774
0.38939
0.46891
-0.49234
0.37539
0.12369
0.16246
0.27800
0.09643
0.13561
-0.91219
0.04846
-0.02478
-0.24638
0.24961
-0.04722
0.00905
-0.27956
0.03120
-0.24868
0.08734
0.21251
0.31402
-0.83448
0.20735
-0.29249
-1.11151
0.05807
0.17896
0.12218
-0.16837
-0.07917
0.43678
-0.29790
0.30930
0.25723
0.23423
0.23622
0.23704
0.41378
0.53277
0.06577
0.35216
0.23382
0.25936
0.44544
0.36281
0.30696
0.21086
-0.40186
0.12181
0.35964
-0.29298
0.31403
0.34240
0.09505
0.07270
0.12700
-1.19498
0.47180
-0.01508
0.07200
-0.35840
0.17595
-1.05334
-0.31735
0.16706
-0.08638
-0.46627
-0.64230
0.20109
-0.90040
0.14880
0.80253
0.12122
0.25810
0.24530
-0.01748
0.27097
0.25516
-0.23715
0.24502
-0.08307
0.11975
0.05661
-0.23991
-0.53105
0.28804
0.15601
0.29810
-0.15554
0.22125
0.28844
0.12522
-0.42393
0.01915
-0.07354
-0.22215
0.13590
-0.33662
0.33074
0.06831
0.27427
0.37968
-0.16445
0.32412
0.19938
-0.44166
-0.47112
0.53072
-0.02974
-0.15550
0.13926
0.41999
-0.59476
-0.40111
0.55050
0.19336
-0.06807
-1.27866
0.16578
-0.10368
-0.20669
-0.13673
0.12184
-0.47212
0.13670
-0.45760
0.17895
0.17863
-0.17860
0.12049
0.40765
-0.90341
-0.01604
0.20044
-0.16787
0.22631
0.30499
0.06986
0.74994
0.34565
-0.60804
-0.39993
-0.11449
0.30919
-0.07358
0.25931
0.27705
-0.64163
-0.22679
0.08054
0.51960
0.16181
0.16594
-0.35262
0.01853
-0.64271
-1.33888
0.31279
0.04903
-0.07184
-0.10122
0.18964
-0.39273
0.35185
0.36713
0.72481
-0.67362
0.41263
0.49803
0.47393
0.53907
0.07605
0.20497
-0.14835
-0.48031
0.40519
0.39579
0.20886
0.64493
0.44077
-0.11588
0.26842
0.55693
-0.45580
-1.44875
-0.59207
0.53768
0.58362
0.52250
0.13994
0.70813
0.18373
0.11867
-0.07935
0.33405
0.41672
0.07194
0.21402
0.06238
0.20650
0.17562
0.86764
0.58165
0.19924
0.19807
0.80367
0.29359
0.46524
-0.05528
-0.01479
0.03971
0.07777
-0.02181
-0.50178
-0.13070
-0.16429
0.12988
0.29756
0.25446
-0.20426
-0.48502
0.14897
0.22756
0.18687
-0.01960
-0.89987
0.58647
-0.26970
0.36215
-0.16629
0.32586
0.15184
-0.06347
0.09884
-0.38195
-0.86522
0.47656
0.36149
-0.26188
0.28561
-0.49621
0.49787
0.25796
-0.02584
0.17168
0.31549
-0.17634
0.49945
0.61115
0.41888
0.68633
0.21413
0.28123
0.16671
0.14278
-0.52476
0.39204
0.35375
0.29049
0.10647
-0.83009
0.09354
0.25247
0.23806
-0.18486
0.02705
0.23333
0.07545
0.36289
0.76178
0.05106
0.02193
0.72070
-0.34562
-0.45102
0.24333
-0.09888
0.34466
-0.62314
-0.47465
-0.38892
0.07778
0.19668
-0.42429
0.18916
0.35335
0.43836
0.15153
-1.21053
-0.05415
0.29559
0.18153
-0.38479
0.44251
0.21295
0.44535
0.16604
0.41288
0.55051
-0.00489
0.27929
0.48490
-0.51240
0.33791
-0.27634
0.17375
-0.39190
0.16034
0.42534
-0.11476
0.18229
-0.44269
-0.50308
-0.26795
0.27602
-0.55310
-0.08667
0.11785
0.05984
0.37698
0.42387
-0.17217
0.17155
0.51940
-0.68056
0.26113
0.68035
-0.04538
0.26296
0.06994
-1.07064
0.31683
0.11978
-0.85757
-0.21319
0.24598
-0.36841
-0.40137
0.30139
0.44250
0.17599
-0.59332
-0.23657
0.16573
0.19556
0.31354
0.19509
0.12606
0.09787
-0.24481
0.19210
0.40158
-0.49030
0.15954
0.03155
0.33823
0.36276
0.30154
-0.02206
-1.07962
-0.38832
0.21313
-0.06518
0.12818
-0.62268
-0.54575
0.38105
0.40917
0.39802
0.42518
-0.08002
0.44816
0.30034
0.17739
-0.81437
0.24651
-0.49129
0.17496
0.14991
0.32345
-0.41261
-0.42472
-0.26535
0.24269
0.15708
-0.83614
-0.38600
0.25346
0.48722
-1.06317
0.27006
0.27947
0.24811
-0.41467
0.06047
-0.09491
-0.91402
0.10818
-0.55957
-1.15611
-0.18199
-0.40881
0.76247
0.41199
0.34975
-0.16040
0.42984
-0.77831
0.32125
0.14988
0.49257
0.30305
0.12548
0.20461
0.28845
0.40830
0.34097
0.23247
-0.42861
-0.03167
-0.59035
-0.32522
0.20053
0.07720
-0.26537
0.05850
0.08986
0.08368
-0.55908
-0.06915
-0.51898
0.18443
-0.23703
0.45751
0.14771
0.03887
-0.39593
-0.75309
0.17782
0.34719
0.22018
0.22026
0.62295
0.50232
0.15793
0.09703
0.24176
0.46701
-0.61524
0.25846
0.12322
-0.60714
0.29800
-0.28707
0.01391
0.32373
0.33608
0.42685
-0.04383
0.06836
-0.34543
-0.05161
-0.38939
0.11160
-1.69994
0.67985
0.26245
0.12468
0.26631
-1.04500
0.32396
0.12242
0.65105
-0.50387
0.43755
0.36766
0.19851
-0.09904
-0.51256
0.42302
0.57613
-0.02358
0.31988
0.23472
0.10558
0.38478
0.45941
0.14914
-1.80749
0.16518
0.49055
-0.34911
-0.89027
0.46422
0.07426
0.28865
-0.83466
0.18995
0.26754
-0.86579
0.06954
0.03615
0.30527
-0.31916
0.46106
0.41175
0.47281
0.17913
0.03397
0.86586
-0.02682
0.39993
-0.38309
0.53340
0.07889
0.44574
-0.42542
-0.03394
-0.34226
0.31944
-0.64943
0.19085
0.47132
0.26841
0.44687
0.19123
0.54294
0.21895
0.38207
-0.43998
0.42556
-0.37528
-0.01660
0.04938
0.61273
0.24017
0.30057
0.39069
0.43026
-0.10716
-0.72992
0.03542
0.18796
0.10289
0.47312
0.38808
0.62059
0.76869
-0.55043
-0.64284
0.13203
0.37482
-0.50724
0.39103
0.42110
0.17947
-0.41493
0.11048
0.43601
0.24903
-0.32889
0.04835
-0.67829
-0.44785
0.45405
0.29788
-0.02464
0.12522
0.17173
0.51512
-0.28757
0.15832
0.64022
0.24102
0.20868
0.12329
0.04759
-0.16847
0.28615
0.23291
0.85802
0.44385
-0.73210
0.20440
0.14415
0.33657
0.35859
-0.63750
0.27786
0.26082
-0.13558
-0.42908
0.17323
0.62532
0.15087
-0.15330
0.64595
-1.14424
-0.43768
0.25627
-0.97375
0.27033
0.44559
-0.08434
0.59216
-0.27729
-0.49833
-0.31783
0.31905
0.41585
-0.28491
-0.70453
0.33031
-0.45416
-1.10774
-0.32261
0.82663
-0.17675
0.35308
-0.78427
0.15256
-0.70898
-0.12009
0.10384
0.13714
-0.11111
0.40988
-0.11524
0.45590
0.46473
-0.04072
0.59300
0.15953
-0.57413
0.34897
-0.41449
0.35724
0.20857
-0.47154
-0.42425
-0.79277
0.37009
-0.41863
0.19715
0.10969
0.09300
0.56022
0.04677
0.20097
0.43547
-1.26734
-0.09959
-0.16160
0.10526
0.08504
0.25623
-0.39509
-0.15846
0.21511
-1.07644
0.37009
-0.54059
-0.21777
-0.70894
-0.29023
0.24512
0.12955
0.08371
0.28611
-0.28683
-0.36439
0.13303
0.17954
0.61092
-0.04182
-0.20705
-0.05233
-0.86889
0.03497
1.10100
0.08762
0.07765
-0.30394
-1.68251
0.16912
0.22243
0.11482
-0.00544
-0.22345
0.00194
0.27501
-1.35150
-0.21851
0.19257
0.62878
-0.70807
0.16002
0.47227
0.24131
0.27647
-0.10407
0.50136
0.35045
0.34662
-1.01850
0.09545
-1.41551
0.27953
0.13934
0.27215
0.42971
-0.83181
0.44609
-1.02138
-0.22155
0.14053
-0.52581
0.03367
-1.21307
0.39444
-0.78415
-0.86098
0.14660
0.06219
0.48120
0.24151
-0.39164
0.43420
-0.14146
0.05306
0.09227
0.17041
0.08162
0.37585
-0.43101
-0.10890
-0.56810
0.07625
0.21839
-0.27068
-0.62827
0.21803
0.24617
0.37151
0.19870
-1.13520
-0.37454
-0.36608
-0.59466
0.16492
0.33092
0.10120
-0.38164
-0.35366
-1.20119
0.15821
-1.41740
0.56647
0.32866
0.22785
-0.04384
-0.00236
0.53382
-0.46038
0.03631
0.03733
0.13544
-0.41998
-0.48816
0.17409
-0.18066
-0.47815
0.20901
0.27377
0.10778
-0.10797
-0.09501
0.61512
0.42654
0.15302
0.16780
-0.34223
-0.52877
0.41209
0.16602
-0.98183
0.56245
-0.76611
0.25575
-1.08515
0.17369
0.42336
0.24584
0.28294
-0.07038
0.52938
0.72555
-0.36293
0.13527
0.46307
0.44445
0.56279
0.25518
0.42677
0.24790
0.15635
0.39338
-0.07324
-0.15366
0.04922
0.21065
0.22889
-0.33646
0.25854
0.45648
-0.34479
-0.57988
-0.59783
-0.26606
0.16861
0.38926
-0.08832
0.32156
0.25827
-0.84716
0.22846
0.08595
-0.49041
0.00652
0.32133
-0.65990
0.15976
0.41079
0.19238
0.15983
-0.09198
0.38513
0.07130
0.34334
0.38482
-0.25330
0.30314
0.23849
0.24174
-1.67146
-0.39387
0.14400
-0.27144
0.34054
-1.26885
-0.32555
0.29617
0.20847
-0.00648
-0.27303
-0.64156
0.25477
-0.04773
0.04420
0.42442
-0.50593
-0.32253
0.10351
-0.50175
0.19540
0.61270
0.18681
0.16603
0.13789
-0.56984
-0.08421
0.20607
-0.48060
0.15030
-0.09441
0.24854
0.14685
-0.01115
0.05993
0.12539
-0.78406
0.15667
-0.02259
0.34639
0.09740
-0.40742
-0.03218
0.21649
-0.06283
0.15903
-0.04769
-0.22834
0.14536
0.22902
-0.68452
0.06096
-0.55892
0.27826
-0.53486
0.16929
-0.22466
0.05054
-0.24922
0.25004
-0.33603
0.56009
-0.58734
0.16321
0.23538
0.03260
-0.18479
0.29069
0.04230
-0.67996
-0.15453
-1.62319
0.61450
0.14854
-0.70715
0.85742
-0.62631
0.13893
0.36885
0.41996
0.31262
-0.01969
-0.57441
0.17518
-0.05553
0.13938
0.37273
0.76381
0.26479
0.27760
0.12723
0.01143
0.16552
0.16283
-0.15708
-0.03182
0.03354
-0.88698
0.18692
-1.73104
-0.84393
0.48941
-0.27686
-0.20415
-1.13627
0.08831
0.33316
-0.00040
0.37351
0.16537
0.02440
-0.70677
0.05784
-0.11018
0.15351
-1.10102
-0.33046
-0.18093
-0.45326
0.52261
-0.11667
0.14722
-0.33351
0.38337
-0.59346
-1.54270
-0.38830
0.19938
0.59337
0.42210
-0.56410
0.26947
-0.34970
0.13183
0.28243
0.33766
0.12235
-0.69109
-0.97034
-0.63756
-0.29849
0.26951
-0.63826
-0.17884
0.12793
-0.22580
0.22904
0.07901
-0.23649
0.83936
-0.07797
0.27967
-0.40939
0.15242
0.48117
0.18769
-0.58551
0.40013
0.14489
0.03727
0.24010
-1.08480
-0.01297
0.80722
0.20012
0.24897
-0.54952
-0.31180
-0.34766
-1.94832
0.06937
0.26497
0.14662
-0.40215
-0.43892
0.30488
0.16515
-0.31612
-0.82394
0.78196
-1.21781
0.55411
0.11871
0.38872
-0.80180
-0.66197
0.00119
-0.73064
0.13767
0.02662
0.37427
0.28837
0.21085
0.14303
0.44382
0.59427
-0.45737
0.05320
0.11052
0.13268
-0.78413
0.25078
0.18695
0.17619
0.78912
0.38026
-0.53607
-0.45825
0.23830
0.18868
0.29726
0.33424
-0.38744
0.06071
-1.22897
0.39331
-0.09342
0.17728
0.28361
0.20230
0.03804
-0.37943
0.14761
0.11384
-0.46245
0.17761
-0.17785
-0.05898
0.52776
-0.29795
0.13474
0.27523
-0.39659
0.24916
0.21374
0.60322
0.53242
0.23397
0.04290
-0.25876
0.36901
0.50302
-0.64413
0.22124
-0.13822
-0.36350
0.16585
0.07975
-0.08626
-1.05337
-0.26228
-0.12895
0.03900
-0.95637
0.23378
-0.62363
-0.62430
-0.72406
0.52375
0.09182
-0.08734
0.17747
0.49964
0.18430
0.71118
0.28436
0.31559
0.18282
0.41475
-0.22164
0.16672
0.30394
-0.68374
0.12384
0.38409
0.81042
-0.34202
0.03695
0.12418
-0.52960
0.65720
0.35171
0.06500
-1.26389
-0.78386
0.18630
0.20776
-0.49122
-0.58669
0.03583
-0.04073
0.06851
-0.95520
-0.04899
-0.44589
0.15147
-0.66158
0.16204
0.30393
0.40488
0.15386
0.19967
0.09176
-0.82242
-0.40112
-0.44297
-1.19548
-0.44160
0.71542
-0.37017
-0.49089
-0.09287
0.10233
0.04862
0.07328
0.28496
0.77516
0.11514
0.14244
-0.16108
-0.44365
-0.90851
0.24812
0.25894
0.15993
0.38479
0.00421
0.08181
-0.57255
0.30139
-0.02967
-1.18365
0.02811
0.15222
0.13956
0.37982
0.11603
0.00473
0.03668
-0.35361
0.10193
-0.86523
0.36668
-0.04106
-0.10631
0.01110
0.32830
0.18659
0.14932
0.26920
0.16961
-0.65932
0.62562
-0.29240
-0.28224
0.80202
0.07936
0.35688
-0.49439
0.10598
-0.03103
-0.11395
-0.91823
-0.16242
0.30956
0.79498
-1.45216
0.37398
-0.02496
0.30993
0.14044
0.09264
0.20908
-0.34730
-1.64972
0.25826
-0.45638
-0.22867
0.81743
-0.10351
0.11207
0.14168
0.04161
-0.50940
0.16252
0.46307
0.13062
-0.22575
-0.45513
0.21328
0.16918
0.05660
-0.69837
-0.94409
-0.28128
-0.10755
-0.25194
-0.53534
0.38087
-0.39557
-0.43528
0.93821
0.53215
0.12770
-0.23345
0.16585
-0.70447
0.42902
0.78697
0.22278
-0.06971
0.08016
0.13688
-1.54537
0.07173
0.14865
0.71396
-0.46558
0.25562
0.43123
0.06984
0.40598
0.18663
-0.28215
-0.45355
-0.34729
0.02007
0.29597
-0.08164
0.49630
0.29715
0.18158
-0.88264
0.36560
0.19693
0.38393
0.09905
-1.29823
0.51048
0.04135
0.08157
-0.44996
0.04330
0.54540
0.77258
-0.07122
0.14642
0.01707
0.20342
-0.13954
0.16074
-1.03843
0.31041
0.15395
-0.01262
0.17750
-0.00237
-0.05692
-0.09066
0.37145
-0.51567
0.11378
0.45655
0.26476
-0.22849
-0.76325
0.12092
-0.09559
-0.49872
-0.40469
0.14283
-0.03851
0.04118
0.38981
0.45835
0.08645
-1.62650
0.30390
0.40896
0.21454
0.54437
-0.19170
-0.27448
0.57962
-1.20785
-0.34944
-0.14301
0.12545
0.14763
0.61884
-0.09697
0.51610
-0.43347
-0.14817
-0.18471
0.27982
-0.69322
0.36565
0.19950
0.18237
0.14283
0.27529
0.07856
0.40355
0.27213
-0.04584
-0.26595
-0.46922
0.41609
-0.16177
0.29585
0.05361
0.28800
0.12085
0.15134
0.01446
-0.38248
-0.20862
0.22091
0.39865
0.12411
0.01703
-0.58383
-0.17117
-0.38052
0.40134
0.38899
-1.39713
-0.25268
0.20023
-1.09269
0.25496
0.27871
-0.10509
0.15461
-0.21359
0.01310
-0.67076
0.33261
-0.00655
-0.08865
-0.16874
-1.15223
-0.17089
-0.72704
-0.00180
-0.97281
0.26395
0.01855
-0.00607
0.75131
-0.19261
0.11816
-0.92206
-0.45950
-0.15567
0.37782
0.67339
0.20387
0.13344
0.43186
0.39366
0.03811
0.32264
-0.09715
0.26729
-0.70705
0.06549
-0.13770
-1.03664
0.00471
0.38204
-0.45912
-0.35842
0.38023
0.63024
-0.62368
0.11877
0.59528
-0.13076
-0.11276
0.06617
0.36200
0.31630
0.39173
0.13214
0.47453
-0.00003
0.13592
-0.61155
-0.70592
-0.11621
0.09971
-0.18002
-1.26999
-0.13261
0.13682
0.28387
0.27015
0.13073
0.28215
-0.71406
-0.33779
0.12086
-0.43846
0.15939
-0.66457
-0.26724
0.24990
-0.10163
-0.23411
0.21119
0.12726
0.23574
0.36591
-0.34004
-0.03487
-0.01873
0.01755
0.20096
-0.04290
0.83409
0.18398
-0.17005
0.57081
-1.25465
-0.33539
0.26860
-0.94089
0.24061
0.19438
-0.21413
0.59566
-0.25255
-0.11574
0.17434
-0.11681
-0.44473
-0.04113
0.71576
0.00987
0.53908
-0.31721
0.81084
0.23046
0.13666
-0.27034
0.23873
-0.39733
-1.05188
0.22237
-0.53195
0.14481
0.15800
0.40702
-0.14340
-0.82855
-0.96979
-0.31310
0.25408
-0.39558
0.11326
0.51148
-0.03983
0.21239
-0.00164
0.22653
-0.42546
-0.49179
-0.15057
0.09918
0.52244
-0.95348
0.01104
-0.92626
0.34749
-0.14107
0.22438
0.06543
0.58941
0.16492
0.35045
-0.15649
-0.46010
-0.38436
0.20522
0.11063
0.02198
0.53228
-0.45080
0.20635
0.05520
0.22553
-0.03206
0.05406
0.52829
-0.43110
0.39073
0.18434
-0.73540
-0.11810
-0.39085
-0.23226
0.53438
-0.77067
0.62549
0.44934
-0.14815
0.10918
0.06065
0.34317
0.23061
-1.34769
0.12363
-0.21867
-0.07718
0.06169
0.54287
-1.94486
-0.18653
-0.16237
0.14997
0.46894
0.02649
-0.34618
-0.04371
-0.42033
-0.07868
-0.92099
-0.05385
-0.67682
-1.69601
-0.48975
0.18278
-0.22612
0.11482
-0.93030
0.37530
-0.15121
-0.40873
0.25327
-0.41647
-0.95855
0.33096
-0.16872
0.04722
-0.05542
0.05846
-0.42048
0.15122
-0.66587
-0.24866
0.13174
0.06860
0.51755
0.53835
-0.39021
-0.41684
-0.29556
0.30753
-1.01627
-0.18053
0.50531
-0.67078
0.32318
0.10784
-0.66361
-0.26793
0.29764
0.13402
-0.19766
0.10855
0.07327
0.09843
0.30523
-0.02374
0.16032
-0.48792
0.01521
0.39424
-1.01656
0.72921
-0.64224
0.11562
0.52504
0.52612
-0.46355
0.33297
-0.19426
-0.81254
0.31942
-0.03556
0.57775
0.10478
-0.01710
0.29045
0.42298
0.18505
0.38998
0.25624
0.11039
0.28138
0.35777
-1.08841
0.14256
-0.15925
-0.44492
0.13256
0.18065
0.15545
-0.77062
0.48860
-0.11663
0.13534
-0.04971
0.56016
0.20590
-0.18850
-0.90231
-0.35461
0.27529
-0.05109
-0.97300
0.65168
0.61158
-1.29231
0.26802
0.35959
0.64526
0.34085
-0.96576
-0.19803
0.04457
-0.89679
0.52261
-0.66882
0.01124
0.03220
0.23623
-1.11459
-0.77560
-0.45250
0.18634
-1.63295
0.11026
0.51678
-0.32910
-0.22780
0.15793
0.36664
0.19684
-0.45426
0.32818
-0.05928
0.42658
-0.15467
0.00627
-0.47100
-1.06489
0.49959
0.54262
0.25946
-0.28375
0.05858
-0.19915
-0.00961
0.19454
0.49351
0.05359
0.28184
0.64517
-0.13081
-0.71214
-0.90580
0.30684
-0.79607
0.17039
-0.21777
0.90265
0.66769
0.63056
0.21498
-0.90262
0.34969
0.18668
-0.54497
0.07811
0.23177
0.55363
0.17188
0.37426
-0.76320
-0.27502
0.13984
0.25325
-0.91501
0.02607
0.24241
-0.39673
0.49564
0.18256
0.09937
-0.89167
0.29363
-0.64514
0.31632
-0.65234
0.31280
0.21523
-0.12043
0.40883
0.57319
-0.04714
-0.54730
0.64806
-0.50125
0.78949
0.15492
-0.40993
-0.00685
0.18831
0.12403
-0.12995
-0.61106
0.15676
-0.21748
0.19733
0.06784
-0.50403
-0.84695
-0.50718
0.26634
0.26600
0.14555
-0.49760
0.14215
0.11809
0.00528
0.32463
-0.47441
-0.44181
-1.20951
0.04201
0.55973
0.58815
0.54648
-0.30436
-0.42239
-0.69759
-0.17553
-0.64074
0.47449
0.12811
-0.59040
-0.52727
-0.89540
0.19327
0.29522
-0.91554
-0.11306
0.12385
0.34674
0.14384
0.23179
0.31751
0.20046
-0.25740
-0.70621
-0.52909
-0.22019
0.39903
-0.40355
-0.65094
0.73486
-0.42611
0.00725
-0.32391
0.82309
-0.31922
0.21448
-0.44717
-0.01529
-0.23671
-0.90937
-0.60868
0.03550
0.14184
-0.21278
0.15534
0.05747
0.29616
0.15152
0.42835
-1.23211
0.40842
-2.08729
0.62401
0.09140
0.15818
0.15107
-0.02431
0.02972
0.13030
0.14478
0.15013
-0.39182
-0.56410
0.27740
-0.46183
-0.14249
0.08085
0.23414
0.14279
0.65461
0.56106
-0.06382
-0.05069
0.42150
0.31255
0.00497
0.13120
-0.76201
-0.44793
-0.30943
-0.12717
-0.88488
0.27912
0.25600
-0.40471
0.48710
0.08743
-0.57101
0.19622
0.29632
0.65655
0.11003
-0.75520
-0.43051
-0.00081
0.24141
-0.76328
-0.43870
-0.18396
-0.21463
-0.00187
0.17555
1.07284
-0.31829
-0.52535
0.20556
-0.39289
-0.58339
-0.09042
-1.00629
-0.07145
0.33493
0.30712
-0.61426
0.39564
0.08097
-0.46158
0.01809
-0.06630
0.18344
0.22112
0.17220
-0.02464
-0.03961
0.70971
0.18816
0.12520
-0.37481
-0.12456
0.27734
0.35403
0.05263
-1.03012
0.21057
-0.78916
0.33304
0.12299
0.60608
0.06725
0.23996
0.35553
0.13038
0.78280
-0.82782
-0.26374
0.67237
0.13556
0.40040
-0.88013
-0.37185
0.27593
0.78835
0.14240
0.40465
-0.29467
-1.44860
0.40793
0.29925
0.02876
-0.23758
-0.43792
-0.62712
0.01668
0.74207
-0.06026
0.37938
0.18867
-0.30562
0.19585
0.11281
-0.15676
-0.45305
0.15233
0.44845
0.18675
-0.41604
0.12940
0.56047
-0.22217
0.00744
-0.50247
0.12282
0.22103
0.54514
-0.54577
0.06485
-0.38582
0.17946
0.12064
0.11999
-0.33355
0.11293
0.10213
-0.15899
-0.07471
0.63080
-1.17158
0.32092
0.21079
0.63206
-0.38896
-0.91340
-0.97012
0.15970
-0.16074
0.23982
0.15083
-0.77275
-0.45515
0.12773
0.28258
0.50541
-0.92050
0.57112
0.54681
-0.42391
0.03838
-0.03066
0.14012
0.12847
0.02138
-0.20956
0.24457
-0.46621
0.17673
-0.38351
0.16234
0.31616
0.31034
0.23227
0.11730
0.18672
0.23832
-0.43115
-0.88865
-0.80086
-0.34052
0.13531
-0.45939
-0.13725
-0.72864
0.18676
0.40884
0.00393
0.03796
-0.19915
0.14477
0.32698
0.19742
0.22500
0.13934
0.16076
0.11290
0.29051
0.27197
0.12164
-0.01847
0.21105
0.22047
-0.67285
0.12685
0.23834
-0.03265
0.26290
0.38736
0.37862
0.13524
0.30553
-0.20945
0.06740
0.17973
-0.03055
-0.27837
-0.28907
-0.37874
-0.02828
0.15277
0.13381
0.25254
-0.16880
0.31517
-1.00721
0.17017
0.24716
0.01060
-0.75159
-1.33138
0.04079
0.59441
-0.00644
-0.26990
-0.13001
-0.13476
0.09768
0.38163
0.08849
-1.00720
0.14523
-0.33144
0.04147
0.16147
0.05517
0.05554
-0.70840
0.51792
0.58828
0.63358
0.65508
0.21825
0.06468
-0.33518
0.39721
0.26558
0.06254
0.11832
0.03716
-0.34958
0.07183
0.61065
-0.93298
0.38452
0.39125
-0.01342
0.16777
-0.36299
0.38694
0.24637
-0.72023
-0.44505
0.15290
-1.16685
0.18732
0.19847
-0.08483
0.11977
-0.08747
-0.45944
0.59719
0.22018
0.27692
-0.52350
0.20374
-0.26831
0.48112
-0.40329
0.53789
0.01913
0.14512
0.04465
0.04673
-0.02028
0.11819
0.07588
-0.42299
-0.67841
-0.41294
0.17091
0.13793
0.16316
0.24327
0.12171
0.06922
-0.35208
0.27814
0.26562
0.16980
-0.10772
-0.40018
-0.02657
0.14270
0.23999
0.12958
0.61618
0.17469
-0.80193
0.13440
0.01918
0.21656
-0.01966
0.53495
0.08248
0.19115
0.19868
-1.12069
0.24155
-0.41057
0.42072
-0.08376
0.71319
0.08831
0.08260
0.52626
0.17115
0.55800
0.13577
-0.49705
-0.40661
-1.49092
0.73295
0.36413
0.13132
0.00677
0.15725
0.17058
0.81721
-0.12892
0.09683
0.13065
0.16997
-0.87445
0.05036
0.24593
0.33882
-0.60060
0.04977
0.21001
0.16105
0.43701
-0.20297
0.04640
0.02160
0.38381
0.22829
0.45632
-0.23080
0.45212
0.34228
-0.37907
-0.40290
-0.84972
0.18981
-0.21149
0.12685
-0.07444
-0.13525
0.09062
0.15767
0.24315
0.16547
-0.14238
0.01669
0.13066
-0.49034
0.24154
-0.29550
0.05040
0.13798
0.06971
0.39230
-0.57399
-0.41650
0.20891
0.68424
-0.20280
-0.41153
0.66056
0.16275
0.17482
0.52342
0.14487
-0.02073
0.05066
-0.37985
-0.73148
-0.34014
-0.44762
-0.22740
0.12899
-0.08447
-0.27542
0.01419
0.43264
0.52727
0.18190
-0.85276
0.27511
0.12633
0.04897
-1.38837
-1.29065
-0.08689
0.46702
0.01688
0.61834
-0.12289
0.46321
0.15729
-0.63914
-0.08067
0.03501
0.14089
0.06935
0.42495
-1.21291
0.10537
-0.76892
-0.60624
-0.29278
0.54331
0.13650
-0.61741
0.12918
-0.38166
-0.03669
0.08532
0.46850
0.41416
-1.11102
0.09665
0.02317
0.16503
-0.52535
0.68387
-0.20269
0.38792
-0.09827
0.18999
-1.18380
-0.08576
0.51870
0.50465
-0.74196
0.15036
0.41044
0.31957
0.25499
0.13188
0.15031
0.32583
-0.15226
-0.51943
0.37367
0.11276
-0.04261
0.29385
0.29109
-0.84077
-0.02502
-1.05033
-0.09800
-0.00571
0.46736
-0.39520
-0.80051
-0.27727
-0.06694
0.34181
0.74438
0.07829
0.38552
-0.27127
0.23205
-0.12347
0.05147
0.20418
-0.37762
0.18085
-0.68582
0.19010
0.38726
-0.56553
0.32304
0.14784
0.36286
0.06864
-0.06265
0.78800
-0.03434
-0.50598
0.05974
0.10044
0.14271
0.03860
-0.37906
-0.23733
0.18821
0.11956
-0.01267
0.04431
-0.49527
0.01507
0.13943
0.13953
0.43642
-0.44399
-1.30147
0.10305
-0.09256
0.17101
0.08554
0.05211
0.20413
-0.82155
-0.21451
0.00343
-1.25051
-0.35569
-0.44580
0.45302
-0.09249
0.19566
0.22423
-0.23842
0.05828
0.23326
-0.50527
0.45903
-0.81332
0.11303
-0.21913
-0.14953
0.13167
-0.41056
-0.84577
0.81984
0.09204
0.18963
0.27262
0.71137
-0.02976
0.02113
0.05256
0.13569
-0.00067
0.03914
0.11400
-0.33296
0.05627
0.09927
-0.49956
0.02440
0.49056
0.46644
0.41272
-0.66121
0.27392
-0.26662
-0.00573
0.10988
0.13622
0.16015
0.24612
0.24585
0.06976
-0.56787
0.34241
0.15637
-0.34040
-0.24096
0.39664
0.03042
0.14359
-0.01461
0.03790
0.47238
0.07995
0.15476
0.15754
0.27673
0.40802
0.39279
0.03306
0.14003
0.08806
0.13064
-0.42048
0.20544
-0.33564
0.19637
0.26463
0.16177
0.45610
-0.35865
-0.36261
-0.03848
-0.02205
0.03333
-0.47717
0.30484
-0.69460
0.77244
0.11596
0.44500
-0.12895
0.37395
0.19326
-0.88371
0.12548
0.02745
0.22931
0.44155
0.41751
0.22464
0.16214
-0.57567
0.01142
0.14417
0.08104
0.25871
-0.38407
-0.44148
0.15102
0.44076
0.09135
-0.14184
0.32369
0.85441
-0.19618
0.39087
-1.17699
0.25452
-0.16182
-0.29236
0.29582
-0.28187
-1.58066
0.24982
0.11852
-0.80528
0.18140
0.13007
0.06570
0.05656
0.07434
0.13169
0.41044
0.01424
-0.40341
0.40086
0.15734
0.44130
0.41372
0.34902
0.56610
0.23982
0.14700
0.10339
