0.14880
-0.13154
-0.63423
-0.22650
0.06551
0.20265
-0.05378
0.19411
0.01736
-0.02532
-0.28526
-0.60791
-0.14500
0.13942
0.07781
-0.13048
0.15803
0.32990
0.22700
-0.12470
0.23553
-0.34973
-0.01397
-0.65123
0.20433
0.16162
0.16819
-0.35569
0.33473
-0.21687
0.06330
-0.26169
-0.04552
-0.23645
-0.11032
-0.00783
-0.15211
0.09175
-0.13562
0.17329
-1.12421
0.08709
-0.06975
-0.51620
-0.15445
0.24906
0.07402
-0.32639
0.15952
-0.03051
-0.00464
0.11883
0.15534
-0.28204
-1.13100
-0.25734
-0.20060
0.15252
0.35653
-0.16212
0.21273
0.13142
0.22402
0.07195
0.23592
-0.02188
0.00337
-0.61321
0.02256
-0.29928
0.26206
0.09183
0.23719
0.08054
-0.25542
0.35656
0.06481
0.02964
-0.21979
-0.13551
-0.05293
0.13292
0.03348
-0.19123
-0.03032
-0.26628
-0.14700
0.04337
-0.58347
-0.11801
-0.74944
-0.64254
0.52504
-0.00125
0.14516
-0.11259
-0.19197
0.04914
0.07178
0.01792
0.20438
-0.49510
0.01927
0.00774
-0.10644
0.21444
0.07449
-0.12241
-0.50476
-0.01968
0.06648
-0.25886
-0.47628
-0.06833
-0.23389
-0.73374
0.07254
-0.03394
0.13504
-0.34094
0.19685
0.11496
-0.11922
0.08686
-0.44481
-0.80863
0.15957
0.08969
0.03824
-0.44567
-0.00959
0.01861
-0.50973
0.16118
-0.60074
0.05944
0.16255
0.29809
0.00315
0.09408
0.04989
-0.41328
-0.24231
0.07085
0.09705
0.12546
0.26669
0.11803
0.17145
-0.08676
-0.40496
0.02331
-0.51725
-0.41330
0.16493
0.03064
-0.77856
0.04735
0.14677
0.06036
-0.28435
-0.06619
-0.07833
-0.31068
-0.06794
-0.61175
0.31868
0.20719
0.19484
0.21909
0.12510
0.15481
-0.28295
0.15869
-0.17909
-0.21767
0.03659
-0.79107
0.06650
-0.38060
-0.14164
0.25449
-0.65887
0.16476
-0.14651
-0.58238
0.07094
-0.11841
-0.24363
-0.59708
-0.19630
-0.06628
-0.01232
-0.32312
-0.30029
-0.23983
0.14461
0.00911
0.09535
-1.12856
-0.99842
-0.11968
-0.26268
0.19335
-0.10450
0.06865
0.02248
-0.65562
-1.04405
-0.27169
-0.00751
0.39140
-0.26998
0.02409
-0.01812
-0.17784
0.15527
-0.32245
0.00275
0.13657
0.06834
-0.25672
-0.10477
-0.60391
0.09220
0.24228
-0.07377
-0.23793
-0.37104
-0.10193
0.25405
0.11987
-0.30054
-0.32030
0.20586
0.08387
-0.29153
0.01109
-0.09896
-0.52829
-0.03701
0.19218
-0.10277
-0.11963
-0.61311
0.23512
-0.02620
-0.11168
0.17000
0.09730
-0.47494
-0.78263
0.30684
-0.11812
0.08087
-0.02951
-0.11289
0.13353
-0.27664
-0.12482
0.04119
-0.15648
-0.40508
0.23056
-0.35583
-0.15822
0.08813
0.09609
0.08731
0.05366
0.11507
-0.19657
-0.41907
0.15671
0.08556
0.06242
-0.35924
0.19607
0.07434
-0.41502
0.19789
-0.31885
0.22094
0.04479
0.00788
0.01602
-0.35034
-0.38790
0.24950
0.06392
0.18100
-0.05752
-0.14415
-0.25616
-0.32011
-0.01645
0.34979
0.02329
-0.41744
-0.07606
0.22024
-0.15731
-0.11540
-0.19478
0.10963
-0.43708
0.17023
0.27740
0.14258
0.13885
0.19838
0.00493
0.00707
-0.92981
-0.11726
0.04173
0.20493
-0.12170
0.00566
-0.16177
-0.03547
0.00874
-0.28753
-0.57748
-0.05275
-0.07768
-0.70820
0.15958
0.42155
-0.31470
-0.10142
-0.28848
0.10843
0.16128
-0.16160
-0.14622
-0.79742
0.03747
0.15366
0.12890
0.05759
-0.18079
0.24744
0.06028
-0.57682
0.36970
0.16052
0.03236
0.17439
-0.16912
0.11798
0.28342
0.27787
-0.35660
0.14585
-0.16130
-0.27676
0.02954
0.10357
-0.15141
0.28972
0.00163
-0.26444
-0.55798
-0.50499
0.14119
-0.13196
-0.08547
-0.30193
0.02704
0.14285
-0.68531
-0.16737
0.18999
-0.43375
-0.13986
-0.48256
0.02347
-0.15329
0.03957
0.00589
0.09034
0.12433
0.05913
-0.38667
-0.07668
-0.16125
-0.60498
-0.09402
-0.23648
0.17300
0.09836
0.19613
-0.47854
-0.04571
-1.07422
-0.60857
-0.19104
-0.01288
0.05818
-0.05426
-0.23360
-0.64832
-0.29622
0.18051
-0.14084
-0.10804
-0.14508
0.46803
0.05093
-0.28590
-0.46866
0.06936
0.19905
0.02465
-0.02689
0.20936
0.11978
0.22532
-0.20932
0.19659
0.02799
-0.10019
-0.79175
0.13903
0.03508
0.26056
0.18447
0.01958
0.05620
0.14933
0.04813
0.04886
-0.26885
-0.09090
0.21808
-0.33117
0.18565
-0.16581
-0.04441
0.09667
-0.11118
-0.22450
0.17655
0.17809
-0.52153
0.54375
-0.32928
-0.22230
-0.16864
0.23011
-0.19294
-0.19979
-0.21837
-0.12603
-0.11548
0.07517
-0.10113
0.18089
-0.55056
0.08280
0.14671
-0.00247
0.14687
-0.02127
0.14131
-0.21498
0.15625
0.18970
-0.34237
-0.40686
0.08647
-0.34143
-0.66927
0.24402
-0.06109
-0.13713
-0.23951
-0.15804
0.35831
-0.20882
-0.41242
0.04133
-0.15365
-0.67718
0.14765
-0.32650
-0.02199
-0.08556
0.18343
-0.20358
-0.24000
0.23874
-0.00910
-0.01131
0.04490
-0.56553
-0.15349
-0.20290
-0.48229
-0.65138
0.07915
0.03916
0.08122
-0.24722
0.08937
-0.52542
-0.28598
0.03374
-0.36381
0.22957
-0.11043
-0.17818
-0.46304
-0.10481
0.38450
0.27878
-0.17755
-0.06382
-0.15413
-0.43338
0.00851
0.06539
-0.43679
0.27972
-0.43002
0.22767
-0.53245
-0.05070
-0.27959
-0.13538
0.23335
0.01040
-0.25698
0.07413
-0.02725
-0.23049
0.11660
-0.06746
0.11226
0.21536
-0.04233
-0.62559
-0.60328
-0.02940
0.19431
0.23492
-0.04344
-0.27247
0.10442
-0.30227
-0.22725
0.19258
0.21252
-0.17151
-0.61491
-0.65919
0.04370
-0.32811
0.11088
-0.29124
-0.11426
-0.07200
-0.10434
-0.24278
-0.45491
0.03691
-0.19421
0.04488
0.22297
-0.05223
-0.37434
0.17407
-0.15735
0.39917
-0.11650
-0.19494
-0.17425
-0.39321
-0.00753
-0.41746
-0.03500
-0.05563
-0.07352
-0.71889
0.16032
0.49461
0.03778
-0.24088
-0.20792
-0.16418
-0.00324
0.14963
0.29555
-0.00425
0.09317
-0.87178
0.04701
-0.17694
0.15552
-0.23151
-0.17912
-0.06204
-0.12534
-0.06240
0.19930
-0.03877
-0.01127
-0.16686
0.13385
-0.39152
-0.04177
0.21216
0.14983
-0.37219
0.06577
0.25373
0.26171
-0.37101
-0.31976
0.09945
-0.10442
-0.00634
0.19462
0.10396
0.13943
0.11295
0.10007
-0.00756
0.20181
0.18744
-0.13541
-0.76143
-0.29505
0.03800
-0.27024
0.02819
-0.17186
0.19430
-0.29032
0.05428
-0.01262
0.52240
0.12137
0.15077
-0.99734
0.11773
-0.32119
-0.21611
-0.10289
-0.22668
0.16496
0.00036
-0.13983
0.02896
0.28184
-0.11504
0.04623
0.00918
-0.15793
-0.51798
0.15246
-0.06274
0.00549
-0.16719
0.06683
0.28484
-0.10070
0.03659
-0.92472
-0.18428
-0.40702
-0.25255
0.15358
-0.16890
-0.45713
-0.29099
-0.24119
0.24147
-0.07049
0.01336
0.17960
0.27568
-0.81485
0.13783
-1.01632
0.03026
-0.18883
0.03658
-0.17889
0.13678
-0.50238
0.11689
0.28167
-0.28263
-0.50621
0.41210
-0.46067
0.21680
0.40959
-0.28264
0.16746
0.06537
0.05396
-0.15846
-0.24229
0.15250
-0.57509
-0.12476
0.08683
-0.05428
-0.26785
0.09020
-0.24527
0.14716
-0.51139
-0.13477
-0.23590
0.14934
-0.24541
0.09053
-0.27252
0.17399
-0.17759
-1.10101
0.34833
-0.02033
-0.15724
-0.36248
0.04872
-0.26407
-1.05026
0.03109
0.20254
-0.27163
0.17922
-0.01106
0.19475
-0.16564
-1.00698
0.22230
-0.01992
0.20676
0.13116
0.40216
0.32126
0.02853
0.04471
0.17669
0.27461
0.25634
0.18980
0.18434
-0.00310
-0.18700
0.02340
0.06104
-0.31677
-0.91332
-0.01820
0.10787
0.38767
-0.34105
-0.13051
-0.09867
0.00020
-0.07971
-0.03081
0.20462
-0.35349
0.13022
-0.07787
0.20299
-0.33017
0.16226
-0.02303
-0.24476
0.12797
0.07546
0.13502
-0.11125
0.06564
0.13121
-0.46878
-0.30799
0.18516
-0.08338
-0.01732
-0.10351
-0.06539
-0.41945
0.01454
-0.32155
0.03301
0.08267
-0.06488
-0.24288
0.13012
0.05193
-0.08174
-0.41728
-0.41562
0.02631
-0.12511
-0.41578
0.21233
-0.31733
0.13029
-0.30973
0.14789
-0.06054
-0.00195
0.16207
0.24853
0.17382
0.19843
-0.09237
-0.17436
0.14544
0.02781
0.00692
0.23208
-0.45801
-0.49164
0.02910
-0.03793
-0.02504
-0.21242
-0.60499
-0.14605
-0.53565
0.17184
0.11876
-0.24819
-0.10887
0.40164
-0.35882
0.24461
0.24022
0.19552
-0.01669
-0.15372
0.17887
-0.04353
0.34633
0.12400
-0.57389
0.06002
0.09861
0.19710
-0.51524
-0.54103
0.24818
0.14113
0.33315
-0.13405
-0.66435
-0.93548
-0.14349
0.10951
0.07663
-0.00077
-0.47314
-0.23681
0.15352
-0.09820
-0.32526
-0.29627
-0.30063
0.33050
0.04612
0.20435
0.10260
-0.19232
-0.13440
0.14020
0.17098
-0.74588
0.14427
-0.19348
-0.01067
-0.16942
-0.22184
0.01345
0.32849
0.02930
-0.06341
0.13473
-0.07529
0.00292
0.03991
-0.29101
0.12833
-0.00999
0.20369
-0.25608
-0.10703
-0.13200
-0.21014
0.25628
-0.36001
0.18406
0.14004
-0.18804
-0.93007
-0.03286
0.21889
-0.28972
0.22373
0.14661
-0.12247
0.04678
-0.49566
0.25504
0.08743
-0.20683
0.20203
-0.14210
0.15632
-0.19372
0.07127
-0.20564
-0.29863
0.16520
-1.09800
0.29212
-0.65223
-0.19369
-0.10576
-0.51309
0.14681
0.55523
-0.05889
-0.70646
0.26034
-0.04430
0.03299
-0.07865
-0.17564
0.02487
0.11742
0.11630
-0.21645
-0.11385
0.06866
0.19963
-0.21661
0.01571
-0.55575
0.22693
0.04075
-0.23256
0.20035
-1.12068
-0.50936
-0.08955
-0.38729
0.12981
0.04635
0.22301
-0.38244
0.02919
0.14128
-0.98381
-0.08875
-0.42008
0.14288
0.09264
0.10645
0.05019
-0.08683
-0.86991
0.07952
-0.00591
0.19473
-0.25217
-0.01042
0.08867
0.03548
-0.32940
-0.01791
-0.25134
0.02572
-0.36867
-0.02046
-0.40825
-0.57297
0.02394
-0.10231
0.17497
-0.34273
-0.66977
0.21095
-0.14502
0.23583
-0.11980
-0.01756
0.12761
-0.26099
0.26516
0.24171
-0.48580
0.47124
0.17635
-0.25386
-0.25500
0.18243
0.21153
0.23458
0.13349
0.42411
0.26784
0.29821
-0.11856
-0.25074
0.21058
0.29950
0.19245
0.17580
0.39442
0.19919
0.16838
0.40497
0.22020
0.14535
-1.21098
0.47769
0.65701
0.16602
0.18177
-0.11382
0.39351
0.11307
0.02914
-1.43981
0.15352
0.37521
0.31338
-0.29790
0.34026
-0.41133
0.11240
0.47551
0.41879
0.34432
0.47919
-0.34200
0.46527
-0.38488
0.30397
0.26477
0.12952
0.76989
0.22727
0.08419
-0.07935
0.50049
0.18340
0.25707
0.15477
0.16147
0.32950
0.18818
0.26329
0.14584
0.17898
-0.02997
0.55497
0.13716
-0.36239
0.20039
0.12261
-0.08462
0.13928
0.29672
0.16752
-0.00166
-0.11117
0.18413
0.20822
0.12501
-0.52955
0.71116
-0.22817
0.26581
0.46823
0.09009
0.10617
0.23864
0.22701
-0.09138
0.42072
0.36317
0.51248
0.34785
-1.10621
-0.87856
-1.14925
-0.01704
0.11442
-0.04730
-0.39585
-0.50288
0.08925
-0.17187
-0.90321
0.01790
0.25834
-0.83868
-0.35885
0.60572
0.18913
0.54481
0.36549
0.57263
0.05359
0.38517
-0.34539
0.16210
-0.56974
-0.15930
0.26461
-1.75215
-1.39591
0.12745
0.17486
-0.49189
-1.75129
-1.07561
0.33800
0.09751
0.43171
-0.03069
0.12629
0.46909
0.36464
0.40072
0.35111
0.41369
0.47171
0.35754
-1.14192
0.20494
0.35315
0.14864
0.11768
0.57967
0.16284
0.01864
0.12106
0.06138
0.49655
0.10980
0.31803
0.09442
-0.22572
0.33802
0.37613
0.65456
0.60449
0.14458
-0.61499
0.64557
0.55096
0.06603
0.09042
0.22724
0.22683
0.12258
-0.53106
0.76418
0.14486
0.28446
0.34789
0.29756
-0.50050
-0.46823
0.38684
0.33638
0.56624
0.32203
0.08505
0.28998
0.17442
0.05682
0.18791
0.20241
0.31529
-0.44328
0.33991
0.20157
0.52033
0.44188
0.01128
0.19695
0.33154
0.43723
-0.42559
0.30517
0.37595
0.08120
-0.40971
0.49764
-0.80451
0.18604
-0.38404
-0.24128
0.20566
0.17987
0.50078
0.00601
0.21489
0.13716
-0.96807
-0.57397
0.34882
-0.39555
0.10298
0.26018
0.11954
0.09399
0.47374
0.21119
0.07472
-0.30065
-0.07059
0.03969
0.15473
-0.06641
0.24495
0.18664
0.03063
-0.01803
0.37415
-0.11872
-0.13934
-0.03040
-0.19119
-0.34647
-0.40790
-0.10529
0.29600
0.73457
-0.35459
0.13070
-0.51764
-0.89304
0.18817
0.12882
0.37697
0.04117
0.20504
0.62508
-0.34343
-0.33231
0.10318
-0.38219
-1.59309
0.39377
0.39823
0.25029
-0.30222
-1.11045
0.39647
-0.77943
0.22699
0.16733
0.17202
-0.22103
0.10116
0.20487
0.03607
0.40495
0.34618
0.16093
-0.52945
-0.78184
0.17021
0.21953
-0.26617
0.38500
-0.46485
-1.03673
0.16137
-0.52937
-0.01572
0.27582
0.29996
0.38291
0.14897
-0.25500
-0.27578
-0.67610
-0.48979
-0.09241
0.20028
0.39058
-0.49173
0.22162
-1.03563
-0.86273
0.15249
0.13259
0.21538
-0.68544
0.35635
-0.16187
-0.05539
-0.39171
0.29504
0.38747
-0.40432
0.13239
-0.71675
-0.14457
0.05703
0.31376
0.34381
-0.14604
-1.10637
0.44355
0.56205
0.60054
0.26679
0.39137
0.69090
0.60442
-0.66226
-0.34819
-0.19089
0.27444
0.33679
0.31706
-0.06165
0.49646
0.24634
0.14711
0.36257
0.33518
0.31985
0.20580
0.48954
0.07328
-0.19003
-0.01058
-0.12867
0.24192
0.19364
0.10985
0.43521
-0.29274
0.21107
0.47337
-0.05418
0.43674
0.16927
-0.89696
0.11906
0.38201
0.27938
0.07749
0.13060
0.37492
0.57064
0.35332
0.24648
-0.35949
0.35441
0.38960
-0.31896
0.24218
0.14044
-0.32842
-0.08536
0.21468
-0.22287
0.24787
0.09159
-0.17690
0.51529
0.35801
-0.29831
-0.26680
0.05648
0.53978
0.84242
0.47082
0.26719
-0.27555
-1.03145
-0.12172
0.16149
-0.42643
0.39288
0.41368
0.08047
-0.06346
-0.35063
0.00498
-0.37559
0.47953
0.08940
0.17834
0.16750
0.16330
0.00956
-0.01215
0.57499
-0.33417
-0.63290
0.39574
0.21200
0.43809
0.18006
-0.70112
0.34131
-0.35723
0.01083
0.15850
-0.80888
-0.31822
-0.61982
0.38656
0.09051
0.05251
0.20731
-0.22890
0.17253
-0.49475
-0.00706
0.12966
-0.57928
0.11818
0.07160
0.30375
0.17790
0.11065
-0.63910
0.19333
0.24023
-0.17490
0.09277
0.24403
0.46374
-0.69852
0.19770
0.73475
0.35011
0.45556
0.14330
0.29609
0.02802
0.37305
0.24426
0.19389
0.37924
0.30650
-0.20127
-0.58976
0.33901
0.42276
0.38373
-0.25487
-0.00928
-0.68820
0.22864
0.26392
0.26068
0.15707
0.15014
0.35176
-0.28159
0.12520
0.28233
-0.28650
0.46663
-0.07510
0.23382
0.19951
0.26225
-0.49197
0.29849
0.43386
-0.16948
0.36950
0.47712
-0.79585
0.57541
-0.01024
0.19130
0.24185
0.38928
0.16960
0.22881
0.12309
-0.03086
0.10149
-0.47219
0.04541
0.54768
0.02373
-0.10953
0.74506
0.26018
-0.58768
0.09304
0.32613
0.37376
0.23196
0.15306
0.10908
0.29725
0.51575
0.39216
0.30402
0.23273
-0.47110
0.01693
-0.11611
0.46382
0.22494
0.16750
0.26481
0.37192
0.16107
0.48822
-0.48762
0.58136
-0.21112
-0.04961
-0.03436
-0.50619
0.35828
0.20531
0.28387
-0.14627
0.45630
0.33720
0.10141
0.43179
0.32981
-0.16330
0.49410
0.45212
0.13511
0.23458
0.42747
0.24267
0.23644
0.20339
0.49760
0.49904
0.30221
0.21805
-0.40651
0.23445
0.35590
0.09253
0.53346
-0.05401
-1.58655
0.39554
-0.12979
0.03274
0.37137
0.12971
0.32974
-1.21129
-0.00310
-0.57409
0.27731
0.20282
0.13403
0.26485
0.37265
-0.23475
0.43872
-1.06663
-0.38603
0.56558
0.16385
0.17531
0.15148
0.19675
0.15152
-0.43512
0.02336
0.33316
-0.27813
0.11183
0.27539
0.09898
-0.05460
0.54103
0.02505
0.37808
-0.29136
0.35699
-0.58316
0.41345
0.19730
-1.01582
0.35243
0.04787
0.29038
-0.50927
0.38767
0.21326
0.26078
0.13286
0.08754
0.11133
0.16991
0.16587
0.12846
-0.52456
-0.42006
0.11597
0.13697
-0.03144
-0.44606
0.45935
0.27550
-0.65969
-0.07292
0.30051
0.35052
0.41518
0.40553
-0.93076
-0.07374
0.27855
0.12125
-0.49728
0.34273
-0.36665
0.28175
0.05629
0.14961
0.13572
-0.29553
-0.02755
-0.35415
0.17542
-1.25432
0.46082
-0.16604
-1.08004
0.24524
0.20316
0.07485
0.13700
-0.16858
0.07936
-0.32091
-0.08982
0.20628
0.31793
0.35060
0.34633
0.23516
0.46272
0.16618
0.31955
0.22061
0.33327
-0.63480
-0.00259
-0.11816
0.26396
-0.93337
0.86952
0.36976
0.45656
0.16552
-0.24244
0.26975
-0.12468
-0.24383
0.34056
0.67386
0.35780
0.03319
0.38239
0.28760
0.08971
0.13947
0.31378
0.46301
-0.21998
0.10637
0.08983
0.30806
0.06318
0.26162
-0.33102
0.08006
-0.10474
0.28807
0.27515
0.21354
-0.20645
-0.62835
-0.58787
-0.71197
0.65736
0.19141
-0.15228
0.24167
-0.48902
0.14156
-0.34854
0.18113
0.02122
0.32756
-0.41060
0.40808
0.19496
-1.25055
0.06872
0.73841
0.02716
0.02699
0.20240
0.51877
-0.97532
-0.01029
0.30358
-0.38599
0.27339
-0.39365
0.15176
0.46477
-0.46738
0.30916
-0.42613
-0.39880
-1.27674
0.16910
0.10566
0.53818
0.40699
-1.16656
-0.19387
0.26201
-0.31647
0.35669
0.30344
-1.05375
0.66290
0.75812
0.43693
-0.53807
-0.24381
-0.39217
0.12967
-0.31515
0.59251
0.19707
-0.35617
-0.36913
0.37868
0.03389
0.42355
0.69105
0.45178
0.14628
0.60802
0.42562
-0.12496
0.22397
-0.53499
0.21625
0.41508
0.11351
0.32897
-0.80387
0.06017
0.11697
0.14235
-0.17362
-0.69870
0.34851
0.30451
0.19331
0.19341
0.00459
-0.12449
0.21574
0.60110
-0.39602
0.23532
0.65496
0.41726
0.15800
0.38892
0.17075
0.43324
-1.04952
0.31840
0.37455
-1.08403
0.13784
0.06115
0.38762
-1.13816
0.40376
-0.36855
0.22539
0.35752
0.00543
0.10192
0.30335
0.45233
0.54789
-0.71012
-0.13216
-0.38956
-0.01145
0.17825
0.05983
-0.88006
-0.12645
0.05895
0.36043
-0.12241
0.52711
0.08204
-0.49403
0.15992
0.37334
0.10197
-0.30704
-1.20555
-0.62719
-0.55812
-0.12086
0.18977
-0.82878
0.49508
0.26702
-0.12455
0.36251
0.76065
0.18484
0.21467
-0.41046
0.12442
0.18462
0.36686
0.12399
0.32787
0.17374
0.31344
-0.22096
0.31527
0.44705
0.00632
-0.25147
-0.19532
0.51477
0.59584
0.11888
-1.13461
-0.16799
0.00511
0.21106
-1.13302
0.05961
0.17927
0.17838
0.11569
0.13396
-1.09808
-0.38730
0.10195
0.32085
0.16942
0.02134
-0.86273
0.39934
0.06105
0.26216
0.35284
0.17180
0.06798
-1.18386
0.24952
0.43387
-1.36588
-0.11658
0.40135
-0.37092
-0.67936
0.17197
0.14301
0.48125
0.17063
0.17545
-0.28680
-0.10654
-0.75225
-0.45712
0.13836
0.26353
0.47105
0.33866
0.17877
-0.12548
0.11007
0.02060
0.17423
0.30734
0.67476
-0.53247
0.34989
-0.40355
0.09718
0.15922
-0.30919
0.31464
-0.39483
-1.36213
-0.12613
0.41034
0.47545
0.00457
0.30294
0.22360
0.31721
0.13394
0.41447
-0.13350
0.23233
-0.08087
-0.00167
0.22771
0.12370
0.31417
0.10698
0.22085
0.26485
0.23926
0.38922
0.62995
0.20549
0.44168
0.41679
-0.33627
0.08609
0.00009
0.21299
0.43201
-0.25434
-0.31605
0.28041
0.38293
0.04200
0.50941
0.14555
0.22923
0.26029
-0.85605
0.34533
0.53946
0.30751
0.30251
0.29950
0.35743
0.32261
-0.20959
-0.59554
-0.02912
-0.75146
0.54701
-0.12678
0.48889
0.16288
-0.27248
-1.01497
0.21077
0.63721
0.46053
0.50010
0.25175
-0.02161
-0.23035
0.34445
0.04159
0.19665
0.32099
0.18375
0.31458
0.34990
0.35853
0.46168
0.22462
0.14159
-0.05790
0.54503
0.27503
0.31777
0.51718
0.30889
-0.22120
0.04703
0.20693
-0.68580
-0.22030
0.54432
0.22066
-0.02153
0.16333
0.12461
0.39719
-0.24704
0.19267
0.35374
-0.15722
0.73674
0.69193
0.25106
-1.04031
0.66255
0.37982
0.00675
0.29721
0.38165
-0.02361
-0.13811
0.28183
0.33614
0.35970
0.60649
0.08182
0.43112
-0.48567
0.27229
-0.08863
-0.35816
0.33059
0.70462
0.00958
0.44244
0.14898
-0.63629
-0.21774
-0.05254
-0.09605
0.33157
0.00570
0.49821
0.34893
0.29244
-0.33641
0.34350
0.36640
-0.37084
0.04538
-0.47169
0.10136
0.05741
0.34330
0.62265
0.03024
0.50486
0.29385
-0.29535
-0.44605
0.32678
-0.50878
-0.22392
0.40675
0.15279
-0.94111
0.28626
0.48181
0.08787
0.24461
0.13745
0.08817
0.56329
0.23229
-0.02985
0.27611
0.51354
0.35445
0.11092
-0.91073
0.31515
0.28384
-0.30207
0.15010
0.31527
-0.00448
0.04028
0.29299
0.39398
0.27011
0.20220
0.13973
-0.28068
0.52492
0.07658
0.44614
0.71947
0.14093
0.24937
0.12360
-0.45656
0.02128
0.74543
0.41794
0.32865
-0.21835
0.37624
-0.18416
0.75530
0.23526
0.65166
0.33076
-0.41641
0.40488
0.10770
-0.31936
0.22495
0.14075
0.20364
0.40827
0.07880
0.17397
0.14942
-0.06910
0.17103
-0.63599
0.33586
0.29572
-0.17827
-0.30295
0.18085
-0.01420
0.14028
0.16155
0.38156
0.27954
-0.53848
0.62908
0.45686
0.09976
0.24470
0.14306
-0.37915
0.25935
0.46329
0.26471
0.31555
-0.02150
0.14157
0.48770
-1.17636
0.45302
0.04410
0.32489
0.45320
0.06991
-0.01966
0.50262
0.46567
0.11345
0.20793
0.30129
0.32892
0.07385
0.19044
0.16180
0.35361
0.76156
0.05131
0.33148
0.27515
0.16610
0.23440
-1.22042
0.39645
0.30342
-0.53619
0.07680
-0.72993
0.56801
-0.35524
0.10959
0.54392
0.13975
0.17176
-0.72057
0.39832
-0.35298
0.27567
-1.41958
0.30088
-0.21345
-0.51719
0.23972
0.22195
0.43859
0.50213
0.53044
0.24303
-0.28988
0.13147
0.24229
-0.75133
-0.16103
0.26845
0.30588
0.44424
-0.47874
0.56950
0.73295
0.22095
-0.02654
0.22391
0.17749
0.52651
0.18488
-0.72870
-0.34847
-0.29290
0.51737
0.54710
-0.30280
-1.33102
-0.86817
-0.40968
0.14269
0.06085
0.43525
0.17221
-0.17593
0.14544
0.09293
-0.09084
-1.19740
0.45659
0.54706
0.16040
0.21887
0.06558
0.49074
0.44107
0.21186
0.41627
0.27426
0.22436
0.34760
0.23199
0.22930
-0.41808
-0.73241
0.42015
-0.10112
-0.22011
-0.50892
0.73784
-0.49389
0.25002
0.31960
0.22359
0.13697
-0.86692
-0.24559
0.24001
0.26815
0.19914
0.14642
0.35412
-0.01222
-0.45901
-0.33406
-0.12678
-0.21060
0.02630
-0.71237
0.19953
0.09521
0.11754
0.13679
0.34103
0.17470
-0.08681
-0.31911
0.38255
-0.04946
-0.09529
0.23681
0.24560
0.18427
0.09940
0.37405
-1.07519
-0.02428
0.26214
-0.53703
0.39521
-0.42981
0.17986
0.31730
-0.20829
0.20431
-0.25399
0.33090
0.62401
0.59784
0.30652
0.45848
0.26841
0.62321
0.36152
0.17737
-0.31316
0.35235
0.37293
-0.66526
-1.74184
0.30016
0.15995
-0.15713
0.29498
0.25101
-0.06145
0.23480
0.56973
0.03786
-0.38235
-0.38201
-0.00786
0.28455
0.20716
-0.09774
0.02444
0.56289
0.33947
-0.77860
0.38026
-0.91129
-0.36912
0.13329
0.48574
0.16496
-0.52032
-1.16755
0.32520
-0.01604
0.45156
0.06794
0.14005
0.25683
0.08898
-0.53417
0.28334
0.36924
0.09398
0.29833
-0.69542
0.39827
-0.36425
0.39669
0.32207
0.26884
0.33516
0.17657
0.19961
0.23137
-0.30942
0.19277
0.13488
0.31169
0.32260
-0.61523
-0.19292
-0.00379
0.18805
0.14986
0.74636
-0.45846
-0.20647
0.26195
0.37222
0.12983
-0.19972
0.37789
-0.04472
-1.21265
0.22703
0.11008
0.42541
-0.33484
-0.60945
-0.53266
-0.36058
-0.04309
0.28628
-0.51974
0.46125
-0.30455
-0.21990
-0.19708
-0.32044
-0.39546
0.07999
-0.28077
-0.08632
0.39092
0.22307
0.41685
0.33759
0.41494
-0.45702
-0.59705
-0.78634
-0.13577
-0.59507
0.31128
0.29744
0.23371
-0.39901
-0.22026
-0.03861
-0.24513
-0.33607
-0.42092
0.31249
0.55938
0.08096
-0.00286
-0.13787
-0.17575
0.69274
0.16588
0.47648
0.36394
-0.56004
0.41682
0.38810
0.30688
0.33288
0.50524
0.02877
-0.39608
-0.35967
-0.29250
0.37040
0.40865
0.31279
0.54349
-0.71534
0.32864
-0.38638
0.37323
-0.12622
0.06330
-0.38501
-0.08071
0.32859
-0.36378
0.21297
0.69823
0.16733
-0.33565
0.12305
-0.40424
0.20509
0.28693
-0.40435
0.26648
0.39321
-0.36847
0.26031
0.51347
0.20449
0.20406
0.18278
0.16417
0.37875
0.39515
0.24558
0.13477
0.15911
0.10770
0.13967
0.26643
0.81508
0.18252
-0.09143
0.16127
0.12839
-0.44210
0.11551
0.34618
0.08713
0.15843
0.55024
0.11424
-0.00850
0.03207
-0.17921
0.30022
0.18334
0.04991
0.39591
0.23910
0.66103
0.16795
0.33161
0.14335
-0.10002
-0.64849
0.24175
0.58679
-0.19236
0.24927
-0.03392
-0.46268
0.22356
0.04587
0.13329
0.31885
0.48039
0.57985
-0.28633
0.09018
-0.70885
0.23856
0.19966
0.40080
0.24411
0.33272
0.30797
0.42561
0.29479
0.58559
0.22139
-0.61946
-0.00996
-0.29070
0.28438
0.51232
0.05467
0.34610
0.34111
0.26468
0.49766
0.59508
0.21069
0.21844
0.27816
0.39168
-0.40273
0.36450
0.21209
-0.08643
0.04803
-0.66247
0.10607
0.09168
0.28230
0.21280
0.19870
0.10672
-0.89551
0.20461
-0.98509
-1.27375
0.41775
0.19263
0.06143
0.14284
0.47871
0.09451
0.51485
0.12112
0.19092
0.12371
0.41553
0.73261
-1.61790
0.16904
0.40602
0.36560
0.42865
0.28846
0.66794
0.37498
0.35902
0.16656
0.33994
0.07055
0.27756
0.26748
0.57486
0.29981
0.28814
0.14417
0.24954
-0.35801
0.25667
0.43255
0.20285
-0.31893
0.27346
0.11353
-0.06206
-0.48498
0.10624
0.16395
-0.13382
0.17036
0.17829
0.21226
0.07753
0.18518
0.37313
0.38585
0.42211
-0.69933
-1.61576
-0.13040
0.21612
-0.23189
-0.24517
0.22057
-0.29819
0.27965
0.21941
-0.15938
-0.03191
0.22896
-0.02736
0.38295
0.19723
-0.16843
0.13234
0.19545
0.31676
0.17326
0.08242
-0.93159
0.29354
-0.24610
0.14722
-0.35764
0.16330
-0.26710
0.64817
0.15357
-0.93000
0.21539
-0.05107
-0.00540
-1.20334
0.28902
0.20717
0.17533
-0.53539
0.25529
-0.51007
-0.64567
0.16484
0.00152
0.33094
0.19564
0.02674
0.26890
-0.44332
-0.01715
0.09190
0.40532
-0.15478
0.54216
-0.19750
-0.93745
-0.35249
0.01823
0.42136
-0.11945
0.19422
0.20327
-0.73734
0.32096
0.29857
-0.33474
0.30638
-0.05787
0.27686
0.03432
0.24638
0.06630
0.21743
0.38758
0.24824
-0.31060
0.37354
0.29152
-0.00324
-0.03694
-0.52323
0.68932
0.07004
0.59016
0.00947
0.23089
0.36107
0.24312
-0.26942
-0.42514
0.55939
0.18377
-0.57535
-0.70260
-0.64287
0.28104
-1.12131
0.19883
-1.06079
0.02321
0.23019
-0.45735
-0.01655
0.15894
0.38175
-0.25145
-0.69497
0.23640
0.20749
0.24783
0.05489
0.29311
0.12292
0.49825
0.58641
0.12165
0.14737
-0.37870
0.23813
0.41873
0.00805
-0.66093
0.12284
0.24450
-0.59316
-0.28947
0.08418
0.49421
0.31785
0.09453
0.18058
-0.26355
0.64292
0.36903
0.76578
0.66326
0.29096
0.30871
0.21302
0.01074
0.05342
0.05665
0.09395
0.44555
0.27497
0.33718
0.44348
0.44221
0.41961
0.32903
-0.58833
0.13555
0.11800
-0.38645
-0.06905
0.28055
0.27087
0.51948
0.13179
0.09688
0.23961
0.14009
0.38764
0.08411
-0.41747
0.53183
-0.31923
-0.37848
0.16048
0.56614
-0.40258
0.18269
-0.01928
0.48574
0.24903
0.07225
0.22205
-0.90126
-0.43058
-0.14431
-0.70921
0.37546
0.15939
0.56028
0.22487
-1.03444
-0.43467
0.05640
0.12315
0.10299
-0.33313
0.16449
-1.43014
-1.67962
0.19853
-0.17609
0.23792
-0.63971
0.09069
0.10987
0.26353
-0.58260
-0.21911
-0.42556
-0.16223
0.15407
-0.09542
0.28104
0.08917
-0.36706
0.35194
-0.51518
0.15998
0.00398
-1.04461
-0.38972
0.21997
-0.01537
0.15279
0.30260
-1.08882
-0.27489
-0.49074
-0.52929
0.24401
-0.98298
0.38645
0.31373
0.09689
-0.41198
-1.72079
0.03644
0.16022
0.24546
-0.02603
0.16896
0.51988
0.45555
0.20649
0.51550
-0.00595
0.01656
0.44999
-0.18263
0.39467
0.71748
0.43579
0.36746
-0.22608
0.00648
-0.81353
0.11058
0.53473
0.44532
0.68571
0.50369
-0.70915
0.12326
0.42359
-0.72105
0.49930
0.53061
-0.11994
0.17250
0.44501
0.25918
-0.10611
0.45802
0.09695
-0.97520
-0.28353
0.69776
0.33993
0.53955
-0.39813
0.35170
0.29420
-0.21601
0.12554
0.18033
-0.32080
0.02510
0.04110
0.10577
0.25911
0.16119
-0.13099
0.48022
0.35529
0.72968
0.52449
-0.09325
0.53596
0.99759
0.10610
-0.18978
0.25656
0.53227
-0.12582
0.39121
0.69860
0.64854
-0.33036
0.11678
0.30895
-0.73648
-0.65812
-0.69627
0.55809
0.07072
0.19371
-0.51044
0.15490
-0.71049
-0.06975
-0.07476
0.18660
-0.08625
-0.03824
0.28063
0.39707
0.22284
0.09852
0.00779
0.52378
0.18785
0.00542
-0.16853
0.26804
-0.22469
0.21167
0.33650
0.02543
-0.51663
0.30414
0.14148
0.50410
-0.94307
0.28966
0.09921
0.37288
-0.40521
0.08878
0.28074
0.10382
0.14742
0.38280
-0.09337
-0.14606
0.16262
-0.05550
0.26540
0.19271
0.24829
0.36963
0.44629
0.43950
0.19778
0.05639
0.04139
-0.02319
0.30135
-0.96002
0.17649
0.09356
-0.31605
0.08623
-0.23529
-0.00098
-0.10376
0.02223
-0.70934
0.29311
-0.85478
-0.22694
0.15132
-1.14030
0.17573
0.46072
0.22593
-0.31877
-0.27611
-0.24666
0.22726
0.02577
0.33081
0.15408
0.13150
0.15223
0.39124
0.37473
-0.11988
0.09703
0.26484
0.16967
0.18762
0.47224
0.36601
0.30568
-0.39146
0.33683
-0.17812
0.18648
0.34415
-0.15162
-0.16238
0.00212
-1.11743
0.45042
0.00409
-0.01738
0.03044
-0.56269
-0.52579
-0.34705
0.13690
-0.89310
-0.49920
-0.47333
0.55136
-0.92093
0.23802
-0.72248
0.15578
0.71816
0.15544
0.41624
-0.05227
0.23738
0.18676
-0.16080
0.40834
0.20430
-0.10628
-0.15681
0.27778
-0.36817
0.15573
0.11289
0.50768
-0.07947
0.15628
0.21148
0.13122
-0.69861
-0.48370
-0.11242
0.00693
-0.00832
0.28615
-0.31035
0.05537
-0.37331
0.39460
0.23464
-0.32670
0.31483
-0.16263
0.18936
0.31929
-0.34949
0.01970
0.28902
-0.69831
0.59111
-0.06652
-0.04527
0.36715
-0.22602
0.14830
0.35803
-0.65219
-0.14429
-0.41159
0.47178
-0.13406
0.09897
-0.06070
-1.12377
-0.45304
0.25238
-0.22467
0.03460
-0.10079
0.15384
0.29024
-0.13038
0.07097
-0.55209
-0.61721
0.14223
-0.23066
0.14151
0.47939
-0.76690
0.11282
-0.24649
0.48143
0.40406
0.25381
0.77954
0.13637
-0.60833
-0.17983
-0.04580
0.24896
0.06602
0.22139
0.52661
0.13595
-0.20278
0.19354
0.62422
0.11705
0.16894
-0.40640
0.01752
-0.59196
-1.15804
0.22264
0.18040
0.00943
0.17843
-0.33464
0.07525
0.16270
0.56577
-0.45661
0.39472
0.44842
0.43999
0.30004
-0.49491
0.31299
0.26000
0.58522
0.44692
-0.05038
0.02961
0.42276
0.14868
0.45406
-1.40179
-0.54508
0.44970
0.54752
0.11412
0.61204
0.08736
0.20781
-0.03761
0.19953
0.00551
0.16111
-0.17842
0.16043
0.54042
0.11659
0.80393
0.41401
0.26339
0.18279
0.68625
0.36320
0.69560
-0.12663
0.00147
0.01463
-0.51246
-0.08532
-0.12883
0.12282
0.56652
0.27152
-0.20632
-0.57927
0.15469
0.21867
0.16048
-0.10559
0.12099
0.02785
-0.60494
0.45929
0.32360
0.44420
0.01003
0.11580
0.21686
-0.64329
-0.02028
-0.25399
-0.82802
0.37045
-0.24800
0.24095
0.07955
0.33119
0.06394
0.17485
0.41779
0.11723
0.11054
0.39949
0.40717
0.59916
0.33105
0.27047
0.25712
0.05455
-0.92820
0.29862
0.18296
0.24665
-0.11127
0.01686
0.19026
-0.18544
0.01544
0.27419
0.73232
-0.01142
-0.28925
0.00124
0.74450
-0.39365
-0.42727
0.14768
-0.36685
0.29189
-0.15677
0.31932
-0.61872
-0.50951
0.02665
0.13052
-0.35977
-0.39224
0.32016
-1.08663
0.08078
0.37706
0.17844
0.23905
0.25637
0.49915
0.14884
0.35252
0.34526
-0.68436
0.23561
0.33219
-0.37388
0.46080
0.31838
-0.21841
0.07659
-0.41042
0.17304
0.28044
-0.32689
0.16771
-0.16516
-0.20772
-0.33196
0.15942
-0.05419
0.18593
-0.38510
-0.00327
-0.96613
0.20996
-0.28446
0.42728
0.38821
-0.09259
0.23644
0.41604
-0.43488
0.23225
0.33308
0.04936
-1.16544
0.41562
0.19105
-1.12572
-0.12525
0.19707
-0.40664
0.10764
-0.90911
0.17754
-0.13356
0.14953
0.19238
0.07772
0.03836
-0.19217
0.12238
0.24756
-0.52397
0.01517
-0.03286
0.34651
0.62429
0.06430
0.27841
-0.04405
0.27399
-0.44397
-0.00919
0.42154
-0.70606
-0.62869
0.31885
0.32765
0.33700
-0.11815
0.48172
0.30762
-0.41305
0.16474
-0.18905
-1.06388
0.07016
-0.77302
0.42937
-0.63992
0.32361
-0.46832
0.42985
-0.36905
-0.27281
-0.42990
0.13833
-0.38150
-0.02925
0.41873
-1.12218
0.23407
0.23100
0.35138
0.40379
-0.20268
0.20123
0.44307
-0.53801
-0.15541
-0.90823
0.31932
-1.33716
-1.27988
0.24881
-0.33406
-0.35959
0.78443
0.28794
0.48958
0.32453
-0.21534
-0.38461
0.25734
-1.05566
0.28379
0.17430
0.33723
0.35371
-0.16536
-0.21291
-0.34692
0.23325
0.27425
0.26155
0.32508
0.13058
-0.45141
-0.14499
-0.61028
-0.77302
0.15150
0.14317
0.38191
0.06120
0.12408
0.16794
0.14624
-0.19730
-0.37136
0.20036
-0.90441
0.35437
0.63990
0.15314
0.09969
-0.61923
0.07016
-0.03850
0.38425
0.51836
0.42726
0.12202
0.22653
0.31924
-0.66947
0.11862
0.07575
-0.61707
0.37343
-0.35454
0.24446
0.21210
0.08879
-0.44663
-0.01241
-0.20864
0.07573
0.42982
-0.36044
-0.00563
-0.41310
0.44618
-1.53689
0.41089
0.24747
0.17037
0.23747
-1.19879
0.30766
0.41201
-0.52809
-0.81408
0.27129
0.36170
0.28154
-0.10245
-0.23624
-0.35277
0.15791
0.57228
-0.06377
-0.80287
0.40465
0.31271
0.15407
0.35667
0.19487
-1.56999
0.35850
0.39229
0.26845
-0.49516
-0.64766
0.60307
0.41362
0.17225
-0.29084
0.34792
0.22880
-0.00838
0.08102
-0.23294
-0.46789
0.31082
0.48022
0.38281
0.12486
1.01958
0.03979
0.23468
-0.34064
0.23097
0.39325
0.01370
0.40847
-0.35058
0.10944
-0.40698
0.52406
0.17061
0.50585
0.27653
0.45065
-0.62058
0.50414
0.13762
0.40163
0.45157
0.04756
0.31549
0.29002
0.26622
0.20592
0.51190
0.02025
0.37812
-1.08487
0.14084
0.07778
-0.59599
-0.03868
0.21599
0.35705
0.13842
0.57738
0.34365
-1.03780
-0.51648
-0.95838
0.42695
0.21370
0.30026
-0.41227
0.31325
0.42147
0.12052
-0.64952
0.57531
0.14360
0.48432
0.29311
-0.37481
-0.06177
0.01805
-0.90488
0.11064
0.39799
0.18487
0.07311
0.17782
0.10777
0.21361
-0.25611
0.01040
0.38624
0.56266
0.12943
0.00499
0.09820
0.33454
-0.08092
0.20316
0.23559
0.71450
0.07636
-0.73817
0.19045
0.11273
0.23987
0.45112
-0.59612
0.22210
0.20334
0.00301
-0.33777
0.16416
0.09912
-0.06285
-0.99684
-0.15614
0.21996
0.37105
0.60132
-0.06745
0.75376
-0.04706
0.35774
-0.22429
0.22530
0.50807
0.26071
-1.13697
-0.24235
0.08961
0.72907
-0.16490
-0.10878
-0.99411
-0.66129
-0.24463
-0.20412
0.13445
-0.49368
0.12584
0.18417
0.07912
0.50415
0.13962
0.17082
-0.71861
-0.01789
-0.38808
0.31720
0.09930
-0.28076
-0.85504
0.47554
-0.40829
0.12136
0.13655
-0.09006
0.31993
-0.03291
0.45651
-1.26432
0.29795
-0.21189
-0.19804
0.15969
0.10460
0.11282
-0.40743
0.15744
0.06745
0.14607
-0.34371
0.01162
-0.26473
0.14867
-0.32252
-0.58592
0.35105
0.51331
-0.34701
-0.11248
-0.60180
0.08073
0.31073
0.13649
0.11356
0.41798
-0.40166
0.00582
-0.29335
-0.04423
-0.18193
-0.80029
1.09359
0.00877
-0.31670
-1.62343
0.19920
0.17217
0.23316
0.04574
-0.17492
-0.20843
-0.12713
0.31912
-1.34803
-0.02670
0.15411
0.06576
0.46262
0.11193
0.60869
0.18402
0.16403
-0.06992
-0.12221
0.35236
0.56722
-1.37975
-1.26282
0.25038
-0.12706
0.11434
0.12416
-0.77639
0.29762
-0.29584
-0.86946
-0.13594
0.34196
-0.41805
0.10587
-0.79745
0.42877
-0.84018
0.09727
0.53227
0.17121
0.10451
-0.39634
-0.25892
0.04860
-0.05314
0.19247
-0.27671
0.45030
-0.31645
0.13808
-0.24004
0.35144
-0.01646
0.17524
-0.16194
-0.75575
0.34250
0.42677
0.19690
-1.03855
-0.23263
-0.36651
-0.62369
-0.33024
0.10725
0.07528
0.16689
-0.37756
-0.25416
-0.61504
-0.73874
-1.22468
0.10998
-1.21748
0.42855
0.06129
0.08289
0.35216
0.00332
0.00060
-0.40264
-0.81732
0.36552
0.12315
0.12333
0.19940
0.14266
-0.12047
-0.02950
0.58778
0.13646
0.18620
-0.52481
-0.20439
0.13102
-0.91108
0.49400
-0.68513
0.25928
-0.73307
-1.14491
0.32242
0.38197
0.41512
0.12020
0.25400
0.17117
0.08155
0.45500
0.51816
-0.69544
0.27937
0.15620
0.50625
0.52041
0.32988
0.57809
0.28966
0.45065
0.19191
0.00273
-0.19543
0.05017
0.13270
-0.39533
0.35051
0.30890
0.46105
-0.31293
-0.30502
-0.62944
0.08579
0.36079
0.00063
-0.30299
0.31705
0.32260
-0.73396
0.16928
0.36996
0.05992
-0.39828
0.18305
-0.11106
0.38550
0.15237
0.18531
0.45088
0.19274
0.04981
0.39009
0.10041
0.29063
0.54126
-0.21865
0.31294
0.27175
0.23466
-1.03718
-0.39000
-0.13677
-0.11643
-0.98073
-0.39536
-0.26737
0.16144
0.68847
-0.09630
-0.04346
-0.78697
0.33912
0.59149
0.03147
0.18911
-0.28883
-0.53253
-0.18985
0.11656
-0.47061
0.27237
0.43207
0.23264
0.27753
0.10204
0.29349
-0.01202
-0.47408
-0.19031
0.43826
0.15767
0.12210
-0.54824
-0.80689
0.15938
-0.20564
0.20221
0.17811
-0.42388
-0.07110
-0.70595
0.23322
-0.05398
0.22334
-0.07863
-0.05182
0.00289
0.13112
0.06356
0.17936
0.08783
-0.23187
0.17351
0.19081
0.14479
-0.52206
0.15120
-0.50513
0.14343
-0.26612
0.08442
-0.19880
0.22191
0.22413
-0.33191
-0.48211
0.09610
0.20255
0.13459
-0.09327
-0.47902
0.07721
-0.65002
0.04374
-1.52134
0.13128
0.08969
-0.80040
0.39633
0.83041
-0.47679
0.13669
0.47902
0.42678
-0.08795
0.11668
0.32680
-0.25659
-0.12711
0.33255
0.64120
-0.51273
0.20570
0.16347
-0.11704
-0.07793
0.16557
-0.08162
-1.07739
0.12139
-0.88821
0.25316
-1.81581
-0.75232
0.54575
0.24499
-0.35867
-1.25339
0.04451
0.24999
0.38573
-0.84463
0.44593
0.21154
-0.93770
0.14156
-1.46983
-0.18426
-0.32220
0.68101
0.02401
0.19694
-0.94447
-0.65992
-1.26710
-0.46538
0.15809
0.61481
0.32158
-0.52173
0.21405
-0.47187
0.16744
-0.04028
-0.85151
0.03924
0.52025
-0.09071
-0.68393
-1.11965
-0.43408
-0.18665
0.19970
0.17666
-1.07590
-0.30772
-0.61457
0.04418
-0.03790
0.41539
-0.24321
0.19534
0.06077
0.23460
-0.22731
0.70197
-0.22449
0.23733
-0.32500
-0.22467
0.46181
0.19250
-0.58846
0.27183
0.56900
0.12696
0.07400
-0.38598
0.27596
0.23965
-0.31711
0.65079
0.13233
0.08202
0.12297
-0.38757
-0.38105
-1.82609
0.58601
0.11183
0.21779
0.05794
0.06062
-0.35346
-0.31671
0.34380
0.25132
-0.30820
0.40095
0.34942
0.45570
0.74390
0.73092
-1.00145
-0.37512
0.59495
0.00222
0.07297
-0.73309
0.59611
-0.66478
0.18580
-0.01666
0.42592
-0.92839
0.13864
-0.14711
0.44828
0.27897
0.19246
0.32224
0.31699
0.31630
0.08047
0.23126
-0.72577
0.28436
0.16121
0.12965
-1.01114
0.78068
0.48587
-0.32002
0.18466
0.30668
0.34639
0.09646
0.32532
-0.05054
0.12650
-1.01550
0.36994
-0.07636
0.18813
0.19447
0.17006
0.24210
-0.42050
0.14721
0.11120
0.16822
-0.34508
0.18204
0.13133
-0.12156
0.15205
-0.23159
0.23095
0.53079
0.27984
0.24386
0.31521
-0.37741
0.19472
0.17857
0.58491
0.52835
0.15997
-0.00225
-0.12194
0.44241
-0.64764
-0.06712
0.27732
0.29470
0.05963
-0.09931
0.47336
-0.78368
-0.63606
0.11876
0.21261
-0.64673
-0.84212
0.39243
-0.04353
-0.07494
0.14951
0.43946
0.11522
0.71839
-0.37193
0.29136
0.43104
-0.21754
-1.00306
0.13833
0.23826
-0.59987
0.05657
0.72697
0.87935
-0.33965
0.21859
0.11454
-0.54545
0.59311
0.55906
-0.30275
-1.22315
-0.66188
0.27565
-0.47974
-0.35667
-0.08513
0.21379
0.10498
-0.93016
-0.10640
-0.20939
0.16921
-0.69141
0.09339
0.28731
0.53950
-0.02649
0.21952
0.01874
-0.94394
-0.33766
-0.49795
-1.11945
-0.39593
0.45700
-1.05237
0.06481
-0.22675
0.26579
-0.01249
-0.01723
-0.17058
0.20121
0.66768
0.27604
-0.04860
-0.33962
-1.07149
0.22877
-0.01413
0.38576
-0.09313
0.35283
-0.58529
-0.24749
0.00463
0.15526
0.11807
0.36751
0.03451
0.10271
0.06518
-0.00522
-0.41616
0.11515
-0.89095
0.20581
-0.05585
-0.06397
0.10989
0.29289
0.38658
0.13910
-0.51988
0.25174
-0.37200
0.23347
0.31644
-0.03510
0.33686
0.44809
0.20872
-0.87974
-0.07998
0.30993
-0.42473
0.24809
-0.18409
-0.11331
-0.01126
-0.99409
0.74011
-1.41416
0.18893
0.23678
0.28350
-0.39944
-0.26669
0.10023
0.05618
0.16499
-0.42985
0.26689
-0.56945
-0.09605
0.68682
-0.15748
0.07761
0.04134
-0.48303
0.23494
0.40014
0.15538
-0.40473
-0.02778
0.09381
0.15757
0.60876
-0.66414
-1.26479
0.23226
-0.34021
-0.02208
-0.23187
-0.80027
0.22068
-0.38791
0.81077
0.11895
-0.25197
-0.59783
0.67123
0.23973
-0.03101
0.08145
-1.53247
0.10559
0.59714
0.30927
0.42840
0.11779
0.48172
0.15445
-0.27996
-0.54208
0.28982
0.05605
0.42152
0.39182
0.10808
-0.19862
-1.22973
-0.09057
-1.28660
0.23479
0.42507
0.08350
-0.84208
0.20171
0.07955
0.14298
0.27061
0.40611
-0.25576
0.22167
0.74214
0.71193
0.06405
-0.05112
0.10775
-0.53621
-0.30061
0.15601
-1.09987
0.29756
0.30003
0.17230
0.07077
-0.13789
-0.11056
0.57981
-0.94716
0.15627
0.21183
-0.10299
-0.53495
0.18781
-0.44314
-0.34426
0.12270
-0.10626
0.01851
0.40470
0.34488
-0.42876
-0.38403
-1.64343
0.15276
0.12514
0.27831
0.18774
0.56088
-0.04933
0.25552
0.74049
0.66444
-1.10051
-0.16734
-0.13671
0.15331
0.58399
0.01161
-0.21710
-0.14467
-0.13657
-0.75898
0.27783
-0.66861
0.37482
0.12533
0.14413
0.02774
0.23168
0.11970
-0.16175
0.19396
-0.00303
-0.06385
-0.51806
0.39122
0.00355
0.23211
0.09122
0.15484
0.03122
-0.49595
-0.32679
0.55150
0.20269
-0.03895
-0.35615
-0.35535
0.48572
-0.25704
0.15281
-1.13465
0.23798
0.48188
0.18940
-1.05459
0.01684
-0.50822
0.29496
0.00273
-0.10198
-0.12323
-0.01050
-0.02919
-1.33992
-0.15314
-0.48746
-0.57379
0.00519
-1.05005
0.22232
0.03838
0.11061
0.19647
0.62338
0.52399
-1.20971
-0.76539
-0.24974
0.25369
-0.70819
-0.60896
-0.13833
0.43287
0.68733
0.20520
0.12785
0.15537
-0.21876
0.28096
0.28424
0.16581
0.20523
-0.65018
-0.18619
-1.01024
-0.05883
0.38057
-0.40690
-0.33644
0.29873
-0.26097
0.22911
0.43380
-0.29101
0.13565
0.48006
-0.13527
-0.14445
0.08355
0.60364
0.32413
0.06713
0.55189
0.06716
0.15551
-0.56693
-0.90157
-0.11094
-0.21110
-0.18913
-0.32813
0.07628
0.12101
0.19677
0.32198
-1.12624
-0.26555
-0.32065
0.08803
-0.21316
-0.40069
-0.39401
0.11493
-0.01415
-0.30959
0.27237
0.13964
0.29117
0.50105
-0.34102
-0.09600
0.26609
0.01568
0.23088
-0.19867
0.69950
-0.03557
-0.14525
0.51313
-0.47646
-1.02329
0.12367
-0.04013
-0.27600
0.47347
-0.48087
-0.13226
0.29286
-0.06705
-0.34728
0.44934
0.58068
-0.13405
-0.13498
0.68109
0.23760
0.24675
-0.24980
0.30194
0.32512
-0.26961
-1.06525
0.03582
-0.54703
0.15771
0.02039
0.45802
0.04130
-1.05860
0.15839
-0.26921
-0.44155
0.31057
0.46189
-0.09054
0.34459
-0.12114
-0.42063
0.09223
0.52161
-0.05669
0.07512
0.33809
-0.01114
-0.00942
0.32551
0.03747
0.00456
0.39059
-0.01746
-0.36783
-0.77094
0.33315
0.14639
0.04732
0.32097
-0.42368
0.25065
0.05426
0.09797
0.24556
0.19097
0.09062
0.05150
-0.31854
0.16912
0.41549
0.16092
-0.77197
-0.22691
-0.43557
0.04155
-0.27606
0.35109
-0.65965
0.40263
-0.23280
0.15527
-0.54127
0.09795
0.38597
0.61776
-0.13393
0.18714
-1.43120
0.24951
-0.13131
-0.07901
0.24953
0.60036
-0.13779
-0.18017
0.01003
0.32500
-0.41072
-0.09863
-0.40041
0.51061
-0.01472
-0.81545
-0.16368
-0.86905
0.21782
-1.48889
-0.54252
-0.28252
-0.41459
-0.25624
0.19479
-0.85561
0.36112
0.49070
-0.04046
-0.33604
0.25578
-0.27502
-0.87705
0.28986
0.33625
0.05187
-0.00786
0.01346
-0.67356
0.03478
-0.83490
-0.25427
0.22947
0.05015
0.71797
-0.58849
-0.90722
-0.42658
0.38641
0.23367
-0.88614
-0.10501
-0.36443
0.52454
0.09830
-0.72447
0.38014
0.01605
-0.38573
0.13406
0.46368
-0.42773
0.01292
-0.17788
0.29192
-0.03224
0.08152
-1.26687
0.10076
-0.17240
-0.88460
0.11600
0.70058
-0.98925
0.61240
0.16548
0.36061
-0.07829
-0.73761
0.13355
-0.04364
-0.67940
0.57762
-0.10511
0.01725
0.23997
0.06918
0.27268
0.11512
0.04932
0.24094
0.35542
-1.02253
0.19462
-0.32048
-0.24600
-0.31456
0.23608
0.19325
0.15279
0.12013
-0.83617
0.11254
-0.14571
0.14941
0.08609
0.34479
0.15315
-1.56313
0.00241
-0.66201
-0.99353
0.33647
-0.21380
0.21215
0.01226
-0.03937
0.37722
-1.16408
0.21917
0.42073
0.15999
0.43159
0.05636
-0.86507
-0.31718
-0.01520
-0.89495
0.61164
-1.35780
-0.35042
-0.14221
0.35267
-0.36572
-1.10255
-0.11200
-0.28418
0.08706
-1.34015
0.02909
-0.36323
0.07240
0.48153
0.04975
-0.12798
0.11634
0.39305
0.18491
-0.40367
-0.23043
0.44318
-0.08332
0.07578
-0.44330
-0.61225
0.52814
0.42677
-0.21825
0.14508
-0.01611
-0.03043
-0.11804
0.21244
0.34266
0.07624
0.29595
0.06711
-0.24245
-0.65570
0.25402
-0.92080
-0.29129
0.12104
-0.23310
0.72111
0.13529
0.50089
-0.21655
-0.99698
0.18732
0.15487
-0.49361
0.21629
0.08399
0.39444
0.59205
0.16213
0.38079
-0.55680
-0.66178
0.08166
0.30799
-0.36949
-0.28235
-0.41210
-0.12799
0.13553
-0.37766
0.44712
0.18466
0.07782
-0.79191
0.32278
-0.78840
0.22807
-0.56631
0.36888
0.25342
0.37566
0.58637
0.01233
-0.37103
0.56710
-0.49274
0.17600
0.61965
0.13362
-0.31029
0.03376
-0.12802
0.12062
-0.00032
0.11444
-0.26150
0.09531
-0.45820
-0.01022
-0.17357
0.11516
0.06814
-0.47968
-0.79930
-0.28725
0.33357
0.49982
0.10541
-0.38075
-0.03416
0.11172
-0.12732
0.29377
0.44152
-0.38866
-0.41817
-1.10455
0.00519
0.57510
0.63513
0.69857
-0.71969
-0.38788
-0.59045
0.39831
-0.74742
0.44057
0.11794
-0.55547
0.02161
-0.60004
0.20799
0.32298
-0.43984
0.05810
0.27455
0.24263
-0.47975
0.18191
-0.92815
0.34433
-0.08782
0.16083
-0.32012
-0.12433
0.19588
-0.10838
0.03692
-0.28316
-0.10582
-0.17296
-0.17376
0.15131
-0.53150
0.07509
0.02907
-0.35926
-0.74091
-0.45173
0.03951
0.03314
-0.17838
0.08181
-0.07206
0.00302
0.28419
0.15632
0.28669
0.29574
-1.08054
0.12110
-2.13227
0.49364
0.08292
-0.10050
0.19580
0.17012
0.09670
0.28348
0.26436
-0.38028
0.06477
-0.36577
-0.00390
0.31830
0.23681
0.66413
0.26162
0.41466
-0.04169
-0.10763
0.28171
0.05165
-0.59889
-0.57661
-0.56922
-0.20720
-0.17739
-0.82385
0.33057
0.26543
-0.28066
0.02697
0.42682
-0.63265
0.27331
0.23911
0.69640
-0.19873
0.11489
-0.71695
-0.11476
-0.16703
-0.61335
-0.23169
-0.07514
-0.40337
0.10493
0.35741
0.32197
0.15406
0.89918
-0.42721
-0.82775
0.23137
-0.14953
-0.44153
0.16472
-0.16371
0.08875
0.38244
-0.52017
0.39201
0.59376
0.65762
0.39296
-0.12546
0.34313
-0.33548
-0.18285
0.11972
0.15500
0.09574
0.04287
-0.15083
0.49208
0.41773
0.34753
-0.37824
-0.07482
0.27141
0.42531
0.11135
-1.01042
0.20377
-0.82716
0.32151
0.18359
0.59809
0.03586
0.57340
0.28453
0.09908
0.81720
-0.68418
-0.30869
0.73007
0.12523
0.47800
-0.23264
-0.13016
0.13154
0.43904
-0.00015
0.11152
-0.19869
-1.59303
0.13500
0.31719
0.42416
-0.22615
-1.47553
-0.63250
0.64583
0.17640
0.46493
0.09841
0.53584
-0.30645
0.10371
0.12053
-0.16412
-0.22612
0.45720
0.07013
0.42495
0.14534
0.22961
-0.02369
0.56925
0.05285
-0.32329
0.11676
0.17309
0.41460
-0.64636
-0.32528
0.05418
0.12088
-0.19821
-0.00193
-0.38368
0.63867
-1.16135
-0.01726
0.23405
0.55241
-0.65388
-0.51138
-0.81791
0.16525
0.15265
-0.24998
0.35459
0.38212
-0.71979
-0.46128
0.12616
0.17679
0.50270
-0.95972
0.59088
0.00756
0.57135
-0.79367
0.35907
-0.35490
0.05608
0.11802
0.13872
-0.05544
0.13093
0.42977
-0.50756
0.29569
-0.29506
0.09208
0.48805
0.30917
-0.83733
0.06007
0.19821
-0.46950
-0.82874
-0.21562
0.14962
-0.47502
-0.02885
-0.74326
-0.07970
0.07118
-0.11461
0.12166
0.25698
0.16281
0.15177
0.15950
0.07919
0.00198
0.37364
0.00824
-0.11298
0.09887
0.20244
-0.32892
0.10632
0.29627
-0.22767
0.27673
0.40732
0.38873
0.41289
0.48937
-0.18051
0.11868
0.16551
-0.33948
0.63630
0.16082
0.30689
-0.44810
-0.37399
0.08570
0.13067
0.49028
0.00445
0.16208
-0.98345
-0.68804
0.31784
-0.12106
-0.56339
-1.05128
-0.12377
0.05095
0.46136
0.12652
-0.22144
-0.15395
-0.47260
0.10218
0.35297
-1.11703
-0.89028
0.15874
-0.17844
0.37440
0.24222
0.01970
0.04397
-0.48009
0.39279
0.47969
0.34563
-0.29055
0.43498
0.12444
0.02024
-0.06760
0.02052
-0.26576
0.16393
0.37241
0.05912
0.10378
-0.34712
0.39385
0.16685
-0.01757
-0.34733
-0.46633
-1.07297
0.13392
-0.05368
0.59810
0.04139
0.14119
-0.02867
-0.35268
0.12908
0.30722
0.14180
-0.12295
-0.36160
0.36268
-1.19931
0.09511
0.16885
0.24930
-0.24755
0.59194
0.01574
0.03205
-0.37318
-0.67877
0.09883
-0.09602
0.21119
0.23748
-0.41755
-0.17523
-0.32013
0.14654
0.31657
0.15357
0.32539
0.08152
0.15752
-0.03006
0.39902
0.11204
-0.51681
0.25626
-0.18434
-0.31583
0.09568
0.36027
0.13139
-0.76751
0.21841
0.15912
0.55909
0.23237
0.08969
-0.31806
0.11721
-0.63677
0.00877
0.13019
0.01654
-0.24797
0.39815
0.14199
0.15248
0.32549
0.47824
0.28763
-0.08870
-0.15278
0.73966
0.15968
0.04858
0.17609
0.13662
0.51144
0.44090
0.47124
-0.38755
0.20284
0.20521
-1.35284
0.30463
0.52668
0.21735
0.05332
0.15387
0.15943
0.58793
0.07573
-0.57397
0.20354
0.68396
0.15648
0.17847
-0.88376
0.16717
0.11079
0.21876
-0.46857
0.14244
0.11230
0.39737
0.13779
0.32945
-0.31551
-0.03780
0.49614
0.21132
-0.58537
-0.21419
0.03974
0.27470
-0.17432
-0.31882
-1.07847
0.21549
0.08804
0.09349
-0.06139
-0.05685
0.13760
0.39725
0.12812
-0.19888
0.02490
0.06330
-0.33054
0.20683
-0.38675
-0.00496
0.07919
0.26947
0.47676
-0.33857
0.30406
0.43756
-0.94496
-0.45459
-0.98366
0.09758
0.66674
0.03586
-0.11732
-0.33539
-0.76481
-0.26654
-0.40544
-0.14963
0.22886
0.06252
-0.13475
0.07857
-0.01405
0.00485
0.06247
0.64712
0.19624
0.04670
-0.61437
0.11923
0.29500
0.11883
0.08684
-1.59055
-1.41782
-0.12020
0.53639
0.06557
-0.23109
0.51525
0.17853
-0.17517
0.13884
0.36800
0.16136
0.16126
0.11792
0.39815
-1.22128
-0.04862
-0.67954
-0.74209
-0.00907
0.07157
-0.50397
0.15769
-0.55018
0.05550
0.03202
0.48370
0.34976
-0.91778
0.29532
0.06649
-1.12074
0.74422
0.00642
0.50922
-0.06420
0.21809
-0.82641
0.08025
0.09987
-0.04179
0.36396
0.50726
-0.65604
0.13876
0.01705
0.28276
0.12723
0.12293
0.14794
0.39787
-0.22544
0.67148
-0.69470
0.28886
0.03254
-0.43764
0.26575
-0.90873
-0.06534
-1.03269
-0.05224
0.22130
-0.02369
0.52518
-0.37484
-0.73553
0.03574
-0.12298
0.26402
0.66279
0.77362
0.06598
0.49253
-0.32911
0.35749
-0.02340
0.07321
0.04888
-0.37042
-1.07646
0.21818
-0.20397
0.41577
0.29698
-0.10349
0.35893
-0.04719
0.77309
-0.55549
-0.47725
-0.02185
0.09520
0.10329
0.14970
0.05971
0.01831
-0.26284
0.12638
-0.13440
-0.01970
0.14688
0.15019
0.31005
0.57166
0.32147
-0.36339
-1.12778
0.06171
0.02973
-0.10278
0.12869
0.03155
0.24825
0.17298
0.02064
-1.40214
-0.39575
0.31092
-0.07469
0.14562
-0.07483
0.19045
0.24267
-0.24451
0.05076
-0.49695
-0.65339
0.12084
-0.07211
-0.15512
0.40915
-0.41752
-0.81903
0.73545
-0.05851
0.28937
0.19300
0.18589
0.25086
-0.01485
0.06999
0.12743
-0.06714
0.08801
0.08413
-0.11398
0.00976
-0.56345
0.02922
0.58199
0.64523
0.41142
-0.55404
0.30008
-0.28852
-0.27532
0.14498
0.17707
0.15357
0.41504
0.45369
0.10196
-0.46158
0.12993
0.14986
0.37703
-0.67813
0.12519
-0.37010
-0.47917
-1.41638
0.45463
0.51471
0.13771
0.15937
-0.54099
0.21760
0.44438
0.06823
0.14630
0.06447
0.35770
0.26585
0.56286
0.04651
0.13400
0.24287
-0.33134
0.36969
-0.25758
0.13777
0.36161
0.30846
0.17095
-0.29442
-0.17807
-0.41783
0.27983
0.50791
-0.62351
0.78565
0.09727
0.15028
-0.40374
-0.96460
0.46806
0.12571
-0.89269
0.08850
0.12478
0.17941
0.48654
0.11693
0.33958
0.12937
-0.99579
0.13923
0.01538
-0.41769
0.10289
0.34535
0.02275
-0.06582
0.24222
0.11388
0.72311
-0.34934
0.44399
-1.24066
0.36682
-0.59975
-0.08372
0.03599
0.19674
0.53309
-0.20447
0.38069
0.11738
-0.72467
0.16079
0.00288
0.63034
0.00716
0.16719
0.13912
0.46315
0.10176
-0.34865
0.47438
0.08662
0.40893
0.45459
0.31095
0.65825
0.10098
0.04623
0.14577
0.08011
