0.08143
-0.16650
-0.79442
-0.19480
0.01813
0.14701
-0.20591
0.10394
0.01833
-0.09371
-0.44527
-0.53965
-0.15380
0.08671
0.09492
-0.17004
0.00568
0.19405
0.14061
-0.11162
0.16819
-0.47937
0.05850
-0.46604
0.17495
0.17754
0.13479
-0.32389
0.37875
-0.08592
0.08241
-0.38461
-0.02770
-0.25425
-0.02129
0.16771
-0.18946
0.02521
-0.11124
0.04505
-1.15793
-0.07748
-0.17238
-0.76399
-0.24219
0.22706
0.14005
-0.60639
0.08157
0.03544
-0.07554
-0.36806
0.07721
-0.24956
-1.29187
-0.36262
-0.33765
-0.01428
0.24376
-0.30698
0.16291
0.01898
0.11777
-0.14279
0.17884
-0.09180
0.11016
-0.35833
0.08473
-0.51975
0.28375
0.09150
0.13063
0.01758
-0.49119
0.28138
0.04700
-0.00738
-0.29480
-0.01460
-0.10865
0.19794
0.07146
-0.10248
-0.15194
-0.26118
-0.22409
0.31369
-0.48786
0.00164
-1.08133
-0.53157
0.58456
-0.15132
-0.15117
-0.05640
-0.16130
-0.01039
0.06444
-0.74809
0.07281
-0.22628
-0.03057
-0.00192
-0.07248
0.14621
-0.22748
-0.22686
0.16423
-0.15987
0.19695
-0.46559
-0.14472
-0.08959
-0.28655
-0.56120
-0.95219
-0.11006
0.09579
-0.15323
0.23558
-0.04025
-0.14145
-0.02930
-0.50217
-0.15753
0.13130
-0.02560
0.10387
-0.26594
-0.12261
-0.12816
-0.20539
0.14826
-0.70859
0.00647
0.12826
0.22770
0.02454
-0.45646
-0.48850
-0.57063
-0.22731
-0.13948
-0.07046
-0.13281
0.14564
0.14941
0.04103
-0.15967
-0.43186
-0.13647
-0.17199
-0.51553
0.00678
-0.09310
-0.68492
0.03927
0.09352
-0.23176
-0.33552
-0.14695
-0.06969
-0.00945
-0.04392
-0.96285
0.15998
-0.52575
0.19964
0.17169
0.11013
0.15345
-0.23178
0.07375
-0.20584
-0.25308
-0.00499
-0.76038
0.14085
-0.35738
-0.05277
0.33649
-0.14212
0.11836
-0.07324
0.03809
0.12359
-0.33613
-0.48301
-0.29146
-0.10113
-0.08070
-0.24499
-0.41283
-0.21045
0.04099
-0.01175
-0.33157
-1.14665
-0.88602
-0.25515
-0.32866
0.10117
-0.26386
0.02382
0.02828
-0.61797
-1.27311
-0.18627
-0.22007
0.23457
-0.25716
-0.11335
-0.08160
-0.16873
0.18399
-0.38457
0.06364
-0.14358
0.08585
-0.28594
-0.14848
-0.49621
-0.10131
0.10730
-0.20086
-0.24814
-0.41883
-0.16120
0.17710
0.18361
-0.14297
-0.21577
0.15237
-0.05120
-0.11799
0.05802
-0.16299
-0.72432
-0.37579
0.16978
0.15813
0.08777
-0.23178
0.10425
-0.02292
-0.06572
0.14282
0.06652
-0.26386
0.06280
0.27534
-0.00462
0.19282
-0.06062
-0.23111
0.14100
-0.33948
-0.13000
0.03182
0.03458
-0.26105
0.07271
-0.36005
-0.08804
-0.00983
0.14645
0.14302
-0.10313
0.09485
-0.07727
-0.35628
-0.62258
0.08545
-0.15195
-0.47762
0.09933
-0.05480
-0.21590
0.12817
0.08281
0.16563
0.06242
-0.10593
-0.84056
-0.24152
-0.82158
0.25429
0.00043
0.16179
-0.34695
-0.20672
-0.21029
-0.57939
-0.02968
0.10987
0.03724
-0.48743
-0.35866
-0.35473
-0.07781
-0.17124
0.01707
0.04248
-0.48037
0.08626
0.29865
0.06598
-0.01621
0.07417
-0.01036
-0.02664
-0.86346
-0.12640
-0.41668
0.12298
-0.20498
-0.03487
-0.09268
-0.16540
-0.09579
-0.29846
-0.71723
0.11257
-0.00751
-1.03909
0.17003
0.28727
-0.34400
-0.17515
0.03946
0.04645
0.03328
-0.01765
-0.19935
-0.71961
-0.04007
0.10693
0.05064
0.08340
-0.20188
0.25361
0.00033
-0.20504
0.17075
0.22200
0.01969
0.05125
-0.25700
0.05625
0.20084
0.28852
-0.88802
0.14591
-0.12700
-0.34783
0.04648
0.17007
-0.15084
0.27189
-0.06852
-0.27534
-0.74518
-0.28287
-0.01645
-0.12718
-0.57267
-0.23416
-0.10958
0.06936
-0.93544
-0.41546
0.14089
-0.53998
0.04826
0.03961
0.01595
-0.03064
0.01260
-0.11888
-0.06135
0.20841
0.01692
-0.34845
-0.11415
-0.23728
-0.65723
-0.12794
-0.22398
0.13873
0.09884
0.27258
-0.80136
-0.25234
-0.88405
-0.68340
-0.23272
0.09223
-0.04369
-0.04759
-0.27702
-0.44429
-0.26762
0.12332
-0.13168
-0.35799
-0.04744
0.24252
0.11618
-0.22612
-0.73964
-0.10606
-0.14226
-0.06948
-0.35120
0.16126
0.26509
0.10766
-0.25501
0.12082
-0.14594
-0.14071
-0.57326
0.12535
-0.03997
0.23139
0.16765
0.33323
0.01099
0.19944
-0.14622
-0.10509
-0.47953
-0.02662
0.15620
-0.38882
0.07132
-0.23342
-0.01774
0.02937
-0.13732
-0.22348
0.19687
0.13558
-0.46260
0.33765
-0.23695
-0.18843
-0.24366
0.10627
-0.18580
-0.24583
-0.36615
-0.10981
-0.26069
0.07041
-0.05053
-0.62988
-0.24890
0.02253
0.13338
-0.03901
0.11000
-0.05428
-0.01442
-0.25461
0.10087
0.13799
-0.30913
0.13515
0.12134
-0.54500
-0.70845
-0.34920
-0.07615
-0.46342
-0.33220
-0.08669
0.23244
-0.29698
-0.32706
0.00554
-0.25477
-0.75816
0.12093
-0.38620
-0.02466
-0.41474
0.17502
-0.18742
-0.15532
-0.02837
-0.26937
0.02338
-0.27359
0.00328
-0.43896
0.13450
-0.24384
-0.67122
0.14065
0.11217
0.07709
-0.29490
0.05888
-0.48108
-0.17142
0.02052
-0.14343
0.06388
-0.15275
-0.39585
-0.58281
-0.05597
0.15910
0.14525
-0.16522
-0.12217
-0.11009
-0.47094
-0.03169
0.02806
-0.48720
0.20657
-0.17378
0.19104
-0.70015
-0.30102
-0.21099
-0.39667
0.23504
-0.06711
0.18032
-0.01935
-0.17825
-0.33914
0.14554
-0.05168
0.10998
0.21582
-0.06809
-0.82386
-0.63583
-0.02311
-0.31877
0.18190
-0.10286
-0.45295
0.09346
-0.46113
-0.22292
0.11487
0.34732
-0.05863
-0.63787
-0.54235
-0.02928
-0.41736
0.02910
-0.52092
-0.00318
-0.04701
-0.18554
-0.13469
-0.58952
-0.12575
-0.03693
-0.07012
0.25733
-0.10314
-0.23605
0.06538
-0.46656
0.34802
-0.09555
-0.10971
-0.20759
-0.32510
-0.08944
-0.31915
0.12220
-0.13118
-0.14359
-0.89513
-0.56642
0.38429
-0.02268
-0.36650
-0.30938
-0.21474
0.01942
0.09356
0.27412
0.17788
0.09220
-1.01380
0.01652
-0.35796
0.12357
-0.32468
-0.19178
0.01667
-0.03042
-0.08479
0.10707
-0.17165
0.24019
-0.28281
0.04369
-0.40263
-0.07724
0.02637
0.14395
-0.58498
0.10544
-0.15067
0.31211
-0.22710
-0.37340
-0.02571
-0.18841
-0.04580
-0.10222
0.07903
0.20335
-0.33270
-0.25864
-0.27115
0.14729
0.20258
-1.02234
-0.03509
0.16462
-0.16175
-0.42337
-0.15390
0.06465
-0.16722
0.07649
-0.06832
0.29566
-0.01292
0.05459
-1.14090
0.16051
-0.58131
-0.31377
-0.18504
-0.68777
-0.08002
-0.05376
0.14316
0.01472
0.33975
-0.13350
-0.28498
0.00377
-0.34014
-0.56901
-0.01762
-0.15912
0.03866
-0.38354
0.01749
0.14784
0.03050
0.09676
-0.74240
-0.19201
-0.25392
-0.17457
-0.02932
-0.27224
-0.43512
-0.30261
-0.34001
0.19338
-0.16198
0.06469
0.03461
-0.07286
0.09341
0.10992
-1.08579
0.00769
-0.13445
-0.12461
-0.12624
0.10672
-0.48751
0.11965
0.09829
-0.41439
-0.49684
0.29492
-0.53244
0.03930
0.16560
-0.66436
-0.01226
0.06902
-0.01640
-0.16106
-0.42161
0.12533
0.06945
-0.22502
-0.00312
-0.06695
-0.43096
-0.03293
-0.45014
-0.17672
-0.78667
-0.20877
-0.15534
0.15884
-0.29170
-0.00435
-0.22334
0.04159
-0.16639
-0.85285
-0.18012
0.30119
-0.07867
-0.17932
-0.42378
0.06806
-0.24998
-1.03928
0.05319
0.11530
-0.17334
-0.14482
-0.01944
0.11831
-0.32166
-1.16032
0.23399
-0.24236
-0.14539
-0.36712
0.02548
0.30319
0.02451
0.02131
0.20152
0.27616
0.05701
0.09656
0.16420
-0.14910
-0.25982
0.03666
0.11388
-0.21933
-0.66722
0.11054
0.05132
0.24906
-0.26870
-0.36035
-0.09297
-0.02541
-0.03093
0.21926
0.20536
-0.59048
0.02471
-0.27215
0.16203
-0.20540
-0.09159
-0.10733
-0.31719
-0.43842
0.02635
0.05044
-0.25055
-0.40588
0.13271
-0.54200
-0.33696
0.02419
-0.24996
0.08808
-0.05248
0.01459
-0.65004
-0.04740
-0.37185
0.16815
0.15703
-0.15837
-0.44064
0.10298
0.11305
-0.06228
-0.20129
-0.41138
0.00151
-0.10318
-0.32238
0.12334
-0.33237
0.12292
-0.20308
0.04962
-0.09287
-0.03044
0.15801
0.11292
0.24776
0.08040
-0.24262
-0.15074
-0.49015
0.14400
-0.10985
0.11173
-0.22785
-0.82129
0.06804
-0.00857
0.03552
-0.34768
-0.69333
-0.17314
-0.63625
0.09181
0.02707
-0.33334
-0.05826
0.14740
-0.50218
0.13610
0.14742
0.10095
-0.01873
-0.20590
0.10787
-0.18052
0.24800
0.04957
-0.41009
0.03949
-0.04685
0.04719
-0.62916
-0.50252
0.22424
-0.00090
-0.35355
0.00022
-0.50591
0.22287
-0.19494
-0.06066
-0.20126
-0.14605
-0.49989
0.01442
0.21828
-0.11648
-0.29447
-0.28734
-0.17589
0.26962
0.03808
0.20360
0.12230
-0.14894
-0.26622
0.07312
0.02726
-0.61533
0.09754
-0.20287
-0.36417
-0.16135
-0.15488
0.02537
0.03609
-0.01881
-0.09220
-0.03855
-0.13045
-0.52175
-0.03548
-0.27372
0.01774
0.11251
0.01252
-0.24691
-0.13230
-0.36436
-0.34436
0.09091
-0.12845
0.14539
0.14637
-0.26276
-0.73379
-0.10528
0.18815
-0.21720
0.17039
0.08044
-0.22145
-0.10397
-0.41587
0.01485
0.06286
-0.06447
0.09326
-0.43272
0.01177
0.15426
0.04093
-0.25324
-0.22482
-0.00963
-1.01128
0.12004
0.02750
-0.20021
-0.09127
-0.67714
0.11970
0.40485
0.05393
-0.01815
0.06566
-0.35203
0.23090
-0.19612
-0.77328
-0.03040
0.14734
-0.00024
-0.31449
-0.19348
0.17788
0.16561
-0.32212
-0.17311
-0.87704
0.17842
-0.00304
-0.36164
0.08899
-0.93731
-0.63838
-0.38121
-0.49264
-0.20594
-0.03246
0.29544
-0.54328
0.03240
0.24358
-0.97052
-0.00287
-0.26000
0.09067
0.01076
-0.32900
0.11435
-0.05537
-0.52127
-0.00134
0.05770
-0.03469
-0.44809
-0.12339
0.13679
0.08887
-0.16541
-0.22917
-0.16090
0.03469
-0.63732
-0.07649
-0.33782
-0.53565
0.05242
-0.23207
0.07926
-0.32936
-0.88065
0.12358
-0.28252
0.25864
-0.07939
-0.11376
0.14048
-0.37467
0.41675
0.24158
-0.38140
0.42349
0.10177
-0.26994
-0.27901
0.16762
0.37718
0.16251
0.15088
0.58112
0.22981
-0.09565
-0.25172
0.19306
0.35495
0.20253
0.15543
0.11155
0.19429
0.36565
0.19440
0.42842
0.34554
0.15206
-1.24469
0.60574
0.62423
0.22668
0.19803
-0.16200
0.12440
0.05317
0.05245
-0.08771
-1.23231
0.21915
0.29004
0.32016
0.36143
-0.33742
-0.31416
0.33139
-0.24717
0.09335
0.38128
0.39190
0.47044
-0.33294
0.24877
0.30842
-0.40855
0.20193
0.27612
-0.34293
-1.06914
0.63195
0.16629
0.11192
0.39905
0.12724
0.11607
0.15556
0.14259
0.26200
0.09318
0.30136
-0.00445
0.57978
0.14380
0.09987
-0.33695
0.21638
0.15378
0.22431
0.34618
-0.11545
-0.04603
-0.12249
0.10897
0.23723
0.13828
-0.57355
0.73088
0.13996
-0.01184
0.39824
-0.33743
0.15918
-0.06607
0.15231
0.13922
0.21649
-0.07848
-0.18574
0.32822
0.40470
0.46149
0.41025
-1.00298
-0.72830
-0.85740
-0.59000
0.06679
0.09840
-0.36769
-0.18465
0.11190
-0.25625
-0.83100
-0.03678
0.11495
-0.58595
0.47331
0.21693
0.40695
0.42144
0.05285
0.37834
-0.04947
-0.33635
0.14771
-0.15195
0.17679
-1.85306
-1.02270
-1.45815
0.31333
-1.62683
-0.97297
0.30381
-0.99415
0.44816
0.11712
0.04088
0.50520
0.25015
0.29685
0.35552
-0.29379
0.35449
-1.00382
0.23461
0.40347
0.15936
0.38062
-0.31248
0.05685
0.00081
0.39214
-0.04167
0.11010
0.16288
0.00652
0.41197
0.00334
0.35200
0.02272
0.33239
0.78946
0.35802
0.09974
-0.60581
0.44521
0.38502
-0.01483
-0.23439
0.27560
0.23998
-0.01550
-0.57274
0.79592
0.18908
0.32181
0.33278
-0.41190
-0.15899
0.34546
0.36147
0.34440
0.13044
0.09792
0.05524
0.19769
0.33502
-0.44744
0.33720
0.06903
0.44559
0.43251
0.19883
0.23519
0.31024
0.48916
-0.36898
0.19898
0.38226
0.26194
-0.36226
-0.80753
-0.00495
-0.26539
0.15160
0.26725
0.22518
-0.05102
0.17469
-0.05967
0.27401
-0.78538
0.29763
-0.00080
-0.38791
0.23130
0.21014
0.12605
0.28545
0.49537
0.21316
0.19322
0.15081
-0.42836
0.02834
0.04014
0.27226
0.19213
0.22444
-0.22712
0.21875
0.13710
-0.10493
0.06959
0.33365
0.00262
-0.03296
-0.39512
-0.02532
-0.27081
-0.36472
-0.26704
0.47239
0.48250
-0.04160
0.08856
-0.45348
-0.88172
0.12098
0.09430
0.81814
-0.08478
0.22136
0.45597
-0.28760
-0.36909
0.22577
-0.54622
-1.36691
0.16346
0.26175
0.28349
0.43493
-0.32363
-0.27997
-0.99197
0.55983
-0.59302
0.04593
0.17953
0.11015
0.04483
0.15513
-0.30167
-0.21543
0.48573
0.13703
0.27391
-0.12262
-1.13596
-0.06420
0.47520
0.29588
0.62047
0.11422
-0.47329
0.67270
0.06939
-0.31035
0.31127
-0.56006
-1.33637
0.10772
-0.29608
-0.08905
0.19820
0.28982
0.50461
0.10902
-0.77245
-0.44421
-0.65558
0.18808
0.15047
0.24425
-0.56660
-0.28872
0.21996
-0.42320
0.10593
-0.66410
0.27257
0.22376
-0.29052
-0.47023
0.20993
0.07229
-0.33503
0.30927
0.08722
-0.61392
-0.27116
-0.17379
-0.01608
0.32432
-0.18343
-1.07190
0.55817
0.71302
0.23937
0.46117
0.42829
0.52746
-0.59484
-0.57592
-0.08597
0.30157
0.01713
0.36286
0.36165
0.02266
0.33090
0.33050
0.40777
0.18698
0.51547
0.27077
-0.71550
0.47221
0.15766
-0.20916
-0.07964
0.26206
0.13620
0.35503
0.39976
0.40844
-0.38525
0.23894
0.39075
0.43917
0.40414
0.05133
-0.82841
0.08481
0.24690
-0.08523
-0.00810
-0.46637
0.27511
0.51381
0.48967
0.24083
-0.31034
0.38419
0.39787
-0.34390
0.11330
0.11304
-0.52161
0.21820
-0.08920
-0.02181
0.13568
-0.17796
0.55030
0.41802
-0.34002
-0.45546
0.14298
0.05340
0.54119
0.74017
0.29854
0.56938
0.10122
-0.35707
-0.97008
-0.37147
0.05919
0.44040
-0.08851
0.40093
0.02105
-0.57823
-0.35508
0.50072
0.08018
0.09787
0.18164
0.14225
0.10347
0.23913
0.50462
-0.32254
-0.59687
0.39506
0.26813
0.42578
0.08163
-0.47455
0.29777
0.33266
-0.03163
0.06891
-0.80579
0.13884
-0.65792
0.28629
0.03207
0.02830
0.23214
-0.28891
0.22795
-0.42201
-0.10246
0.14324
0.14036
-0.92853
0.11050
0.08109
0.15387
0.41765
-0.58116
0.35033
0.16595
0.03036
0.30072
0.37165
0.40917
-0.63280
0.21105
0.62873
0.67466
0.33758
0.18590
0.40421
0.04177
0.23266
0.16986
0.26838
0.06513
-0.49671
-0.61700
0.38247
0.32840
0.31667
0.17187
-0.08846
0.37536
-0.21018
0.24896
-0.76091
0.14335
0.32575
-0.24465
0.04403
-0.28909
0.01987
0.22871
0.30994
-0.42422
0.31819
-0.18752
0.07724
0.50459
0.43147
-0.30049
0.07701
0.30960
0.34819
0.17930
0.26559
0.28294
-0.10215
0.39269
-0.46615
0.01162
0.55086
-0.26211
-0.12208
0.55135
0.19767
-0.63106
0.29467
-0.41839
0.18826
0.18197
0.10469
0.36789
0.05940
0.26044
0.49630
0.16231
0.40194
0.15271
0.01749
-0.03354
-0.03288
0.20528
0.34991
0.29656
0.25882
0.50288
-0.45638
0.44850
-0.37060
0.10497
-0.07367
-0.32462
0.40786
0.13856
0.15579
0.17012
0.09122
0.36820
0.40290
0.11657
-0.22083
0.60035
-0.34345
0.59921
0.34585
0.42324
0.34946
0.52498
-0.06708
-0.10138
0.08183
0.48311
0.48999
0.07980
-0.36858
0.43207
0.22727
-0.37177
0.54049
-0.03091
-1.44369
0.30738
-0.10182
0.31706
0.09376
0.53485
-1.07490
0.24812
-0.02680
0.09632
0.20513
-0.19483
0.38681
-0.95809
-0.24881
0.42505
0.42608
0.38843
-0.29614
0.13122
0.10707
0.11439
0.09799
0.16645
-0.46240
0.08632
0.24179
-0.29967
0.16596
0.09196
0.12030
0.42357
0.03807
-0.04809
0.52037
-0.06432
-0.42627
-0.28821
0.39027
-0.06089
-0.53939
0.28237
-0.75515
-0.67339
0.10062
0.09671
0.16937
0.17091
-0.02704
0.17419
-0.48949
0.35983
0.23973
0.15276
0.27049
0.16968
0.09254
0.17740
0.17399
-0.51993
0.71479
0.15477
0.23179
0.00344
0.45397
-0.44147
0.39849
0.13859
0.16732
0.45038
-0.66514
-0.18588
0.26669
0.50922
0.44752
0.60056
-0.87053
-0.06720
-0.62768
0.15826
0.32453
-0.83753
-0.29355
0.34586
-0.32646
-0.37554
0.36517
-0.02741
0.06676
0.04906
-0.22168
-0.03801
-0.26084
-0.31608
0.50353
0.41218
0.29055
0.12380
-1.01403
0.04572
-0.46272
0.26734
0.63970
0.06248
0.28253
-0.25699
0.14715
0.00816
0.01774
0.16569
-0.00221
0.36257
0.33747
0.19735
0.29806
0.43710
-0.32073
0.12258
0.30076
0.08769
-0.64817
0.08504
-0.17872
0.02585
-0.91364
0.65679
0.22596
0.42497
0.02738
-0.15217
-0.06125
-0.27260
0.31395
-0.23688
0.62153
0.09459
0.31874
0.32071
0.21457
-0.66523
0.69663
-0.00125
0.14881
0.63931
0.20841
0.55391
-0.17889
0.12295
0.05619
0.16404
-0.03502
0.21354
-0.39847
0.12538
-0.06975
0.24078
0.30430
-0.16506
-0.46853
-0.41585
-0.65387
0.35761
0.17848
-0.29070
0.24732
-0.54810
-0.65409
0.12448
-0.17071
0.19544
-0.15145
0.25499
0.21954
-0.44082
0.33583
0.26481
-1.29106
0.11929
0.08736
0.51949
0.16233
0.42779
-0.96673
0.02905
0.24179
-0.57949
0.02379
0.71772
0.35930
0.30709
0.17399
-0.27336
0.41546
0.11942
0.16612
0.27273
-1.14921
0.30721
-0.30222
0.38512
0.07150
-0.36443
0.32000
0.32455
-0.17597
0.71390
0.15324
-0.14537
-0.28750
-0.30163
0.29744
-0.33278
0.30715
0.22547
0.12611
-0.30078
-0.33848
0.24350
0.04555
0.27134
0.70356
0.42870
0.45082
0.32173
0.20447
0.48940
0.39054
-0.13397
0.24146
-0.63237
0.29227
0.29683
-0.29488
0.22136
-0.79048
0.08251
-0.66712
0.01608
-0.20721
0.07751
-0.17613
0.17443
0.27797
0.33776
0.09888
-0.10927
-0.01419
0.19171
0.07432
0.62386
-0.35392
0.63682
0.34080
0.12957
0.25929
0.39451
0.09392
0.40127
0.49335
0.39973
-0.77079
-0.01332
0.56824
0.22702
-1.04645
0.07220
0.57507
0.19741
0.40489
-0.18336
0.05223
0.17989
0.41936
0.02379
-0.32999
0.07373
0.39810
0.01026
-0.72054
-0.14886
-0.04822
0.39589
0.00179
0.36561
0.10961
-0.41074
0.27051
0.08857
-0.35989
-1.06723
-0.62226
-0.98969
0.30100
-0.08480
0.15360
0.20224
0.42682
0.37444
0.00130
0.33835
0.50069
0.18366
0.11611
-0.37437
0.12539
0.12359
0.37554
0.47016
0.27697
0.01806
0.49191
-0.32962
0.21285
0.37358
-0.07513
-0.15793
0.34433
0.55515
0.07779
-0.31400
0.44232
-0.26315
0.28319
-1.05316
0.13489
0.29627
0.23960
0.03548
0.12061
-1.17347
-0.02857
0.22385
0.09349
0.74677
0.20561
0.15896
0.03107
-0.94181
0.29765
0.10821
0.40612
0.15919
0.16065
0.16709
-1.12065
0.15690
0.51330
-1.18877
-0.05980
0.29321
-0.30660
0.08877
0.11658
0.25186
0.21126
0.23266
-0.31399
0.23734
-0.65186
0.42125
0.30957
0.37866
0.21896
0.20308
0.14056
-0.01809
-0.05333
0.08295
0.11965
0.04393
0.04025
0.19420
0.27772
-0.38094
0.14901
0.39009
0.26475
-0.63347
-0.01384
-0.26508
0.10828
-0.34411
-1.35943
-0.12679
0.13124
0.44830
0.11243
0.06239
0.21105
0.23326
-0.15729
-0.32948
0.74589
0.26803
-0.09922
0.03195
0.25019
0.17688
0.39759
0.28154
0.09651
0.13578
0.40799
0.14409
0.58077
0.43541
0.33621
0.05756
-0.27727
0.15556
-0.02878
0.24287
0.40662
-0.20525
0.53693
-0.29338
0.24477
0.54388
0.19152
0.61142
0.16092
0.46805
0.21256
0.31349
-0.86916
0.03765
0.34044
0.29885
0.25504
0.09327
0.17218
0.22996
0.08672
-0.36015
0.44219
-0.05083
-1.03639
0.38506
-0.14460
0.33272
0.08738
0.07782
-1.08834
0.02664
0.75160
0.25426
0.38659
0.39250
-0.06970
0.04909
-0.24918
0.39163
-0.01860
-0.18178
0.23908
0.20375
-0.43278
0.12022
0.26459
0.15117
0.38726
0.00705
-0.06203
-0.05353
0.54371
0.14799
0.27078
0.44008
0.17285
-0.04209
0.44505
0.21953
-0.54302
-0.27463
0.55861
0.45831
0.30951
0.16687
0.04759
0.43405
-0.00270
-0.18821
0.31699
0.33937
-0.53242
0.74058
0.68957
0.05176
0.10115
-1.08424
0.51861
0.19217
0.38849
-0.63562
0.15410
0.33182
0.05794
0.21696
0.31608
-0.00917
0.53611
0.80268
-0.18342
0.37589
-0.43088
0.48627
-0.06593
0.57505
0.43348
0.06524
-0.10209
-0.29037
-0.02960
0.27497
0.23069
0.31310
0.34900
0.19863
-0.37429
0.39409
0.35756
0.19421
-0.27113
0.05244
-0.43250
-0.04094
0.09155
0.31259
0.29391
0.59866
-0.29006
0.60971
0.32945
-0.29075
-0.02441
0.37117
0.29822
-0.12229
0.75472
-1.01212
0.25797
-0.11993
-0.00767
0.00007
0.22104
0.45509
0.18859
0.31921
0.35307
0.48923
0.08011
0.14823
-0.85015
0.34862
0.19773
-0.29236
0.11386
0.20885
0.00745
0.06513
0.07434
0.43106
0.22389
0.16389
-0.06628
0.05100
0.48075
0.62113
0.42123
0.16726
0.28460
0.21159
-0.57365
0.12010
0.72214
0.34836
0.29025
0.05948
0.33285
-0.19099
0.75577
0.28105
0.61495
-0.44596
0.36314
0.16221
-0.27952
0.15389
0.15628
0.26655
0.32074
-0.44954
0.14434
0.33973
0.37230
-0.12630
-0.61147
0.41175
0.30283
0.21557
-0.62660
-0.21717
0.11292
0.28029
-0.58580
-0.08406
0.40857
0.45870
-0.57041
0.65258
0.16469
0.01872
0.22056
-0.43202
0.45772
0.38339
0.16982
-0.50979
0.29312
0.42338
-0.93007
0.38035
-0.06750
0.36006
0.34239
0.00302
0.09510
-0.11435
0.47403
0.37545
0.40396
0.28750
0.38636
-0.19727
0.07979
0.20394
0.38479
0.36541
0.39571
0.17809
0.34793
0.54520
0.24010
0.13776
0.05435
-1.07262
0.09650
-0.47783
-0.00621
-0.35130
0.20845
0.08419
0.18620
-0.62972
0.30023
-0.39169
0.19469
-1.02059
0.12203
-0.57798
0.08991
0.16163
0.29440
0.30785
0.39457
0.22721
-0.31843
0.09600
0.24519
0.00226
-0.44014
-0.18225
0.43342
0.24534
0.32485
0.12689
0.41831
0.28552
0.41967
0.12618
0.16096
0.11209
0.37430
0.39802
0.06932
-0.67564
-0.36156
-0.27278
0.43035
0.49528
-0.03458
0.03553
-1.20096
-0.65913
-0.29092
0.05449
0.15382
-0.68311
0.39290
-0.21777
0.41444
0.00851
-0.02457
-0.16691
-1.14699
0.29473
0.40768
-0.01248
0.20525
0.11108
0.28532
0.45650
0.27486
0.25472
0.34900
0.18867
0.39884
0.16050
0.19936
-0.36168
-0.71389
0.38564
-0.10816
-0.07640
-0.50510
-0.64290
0.32644
0.28577
0.25331
0.29777
0.12172
-0.43602
-0.33269
0.24302
0.25911
0.28561
0.08049
-0.02677
0.16435
0.01171
-0.48670
-0.31724
-0.18937
-0.21383
-0.02858
0.28293
0.11738
0.30987
0.14731
0.14901
-0.04337
-0.38240
0.33123
-0.19977
-0.40801
-0.61445
0.26830
-0.13375
0.08859
0.35990
0.07501
0.39705
-0.39440
0.04079
0.36587
0.68561
0.26030
-0.53151
0.07031
-0.19198
0.29498
0.62668
0.23757
0.46102
0.19459
0.55920
0.48713
0.23352
-0.32455
0.36587
0.33888
-0.59291
0.23909
0.02272
0.04599
-0.02205
0.14348
0.11320
0.27896
0.18597
0.22477
0.04859
-0.47082
-0.15126
0.12809
0.42868
0.12685
-0.08339
0.09245
0.47496
0.33097
-0.96112
-0.56766
0.58736
-0.01196
0.37993
0.07837
-0.49764
0.10300
-0.95702
0.20830
0.03011
0.40588
0.33725
0.12173
0.26335
-0.47133
0.22616
0.55920
0.51973
0.30235
-0.73969
-0.36085
-0.32933
0.37808
0.37406
0.23301
0.30257
0.17069
0.17812
0.22082
-0.27544
0.16889
0.04107
0.35384
0.30716
-0.15814
-0.18155
-0.01040
0.16393
-0.40470
-0.00761
0.37046
0.34839
0.12488
0.48415
-0.14459
-1.22510
0.26510
0.16066
0.31662
-0.25267
-0.50164
-0.29019
-0.61099
-0.29146
-0.02525
0.30584
-0.23478
0.38227
-0.42660
0.14077
-0.00502
0.32007
0.36912
-0.33318
-0.16590
0.39290
-0.12523
-0.13690
-0.09531
0.19880
0.45876
0.32169
0.40691
-0.29046
-0.61260
-0.02717
-0.64565
0.15190
0.22262
-0.46339
0.09758
-0.34273
-0.23118
0.03897
-0.21236
-0.41975
0.25184
0.51925
0.25672
-0.00502
-0.19922
-0.20848
-0.78638
-0.02809
0.28464
-0.33742
0.39904
0.43831
0.33829
0.26047
-0.47695
-0.31605
-0.25173
0.38685
0.32429
0.33436
-0.36167
0.25084
0.18421
-0.23601
0.44694
0.08042
-0.01279
-0.00445
0.24167
0.62904
-0.06626
-0.13172
0.21871
0.35040
0.67959
0.19406
-0.28988
0.17466
0.14800
0.05733
-0.16901
0.20389
0.11053
0.19640
0.35537
-0.32716
0.19585
0.38183
0.13338
0.19965
0.12724
0.05872
0.59098
0.37689
0.17579
0.14772
0.13420
0.13619
0.75972
0.16260
-0.42259
0.14738
0.08498
-0.63009
0.03164
-0.21757
0.31935
0.01709
0.02917
0.55185
0.02473
0.55299
0.24222
0.05026
-0.17460
0.09204
0.24672
0.19578
0.11072
0.39201
0.13015
0.41943
-0.08587
0.18193
-0.13667
-0.63514
0.20913
-0.12397
0.07010
-0.40892
0.12171
0.05653
0.35025
-0.20976
0.47920
0.39815
-0.99417
0.50049
-0.01156
-0.22399
0.00516
0.12692
0.35754
0.01856
0.34329
0.43211
0.39336
0.17051
0.24107
0.12657
-0.71502
-0.07790
0.27885
0.40504
0.40192
0.10862
0.28446
0.34697
0.50204
0.46560
-0.28277
0.27441
0.28722
-0.24194
-0.27780
0.35533
0.19683
-0.08096
0.04565
0.04177
0.30345
0.17305
0.24148
0.04866
-1.01394
-0.07399
-0.81762
-1.83666
0.34042
0.22378
-0.26706
0.18767
0.35673
0.32178
0.27484
0.23762
0.21543
0.13166
-0.64323
0.24089
0.74604
-1.56707
0.17673
0.29053
0.48057
0.40073
0.30134
0.14926
0.77697
0.38064
0.31972
0.12965
0.36589
0.52766
0.20559
0.22222
0.43616
0.08489
0.14481
-0.27543
0.13914
0.38554
0.45873
-0.41136
0.17187
0.10848
-0.08536
-0.96721
-0.32774
-0.07364
0.34469
0.12338
-0.11897
0.17710
0.19043
0.17703
0.06754
0.19660
0.28381
0.48726
0.57128
0.46029
0.37403
-0.66188
-1.31059
-0.12623
0.29102
-0.23322
0.13408
-0.35284
0.01287
-0.19089
0.45808
0.22273
0.18121
-0.16685
-0.02120
0.05995
0.41568
0.17967
-0.23404
0.11839
0.10059
0.14689
0.06994
-1.07448
-0.15010
0.17209
0.54850
-0.49655
0.04980
0.27994
0.02478
-1.03383
0.20655
0.47136
0.17975
-0.30941
-0.46421
-0.48422
0.15766
-0.65636
0.10187
0.28454
0.26513
-0.47347
0.38462
0.12019
0.27203
-0.10901
0.44752
-0.02824
-0.94202
-0.46386
0.15450
0.49187
-0.15225
0.18728
-0.58786
0.28757
-0.32180
0.11485
0.02279
0.24906
0.35164
0.04300
0.20364
0.47785
0.41298
0.18247
-0.22208
0.19293
-0.04860
0.63856
0.06081
0.02247
0.51497
0.22622
0.15639
0.36997
0.19228
-0.03154
0.19413
-0.41031
0.44053
0.20770
-0.71888
-0.49175
0.28054
-1.02319
0.20996
-1.35084
0.13355
0.18014
0.30105
-0.30282
-0.10822
-0.16766
0.36127
-0.15504
-0.80290
0.17422
0.15861
0.28145
0.05747
0.30030
-0.77186
0.32101
0.08743
0.06958
0.07436
0.57386
0.62712
-0.03204
0.11526
-0.10884
0.18595
-0.49932
-0.20453
-0.10654
0.42004
0.33803
-0.10643
0.14233
-0.34644
0.83066
0.31708
0.12321
0.61826
0.26803
0.32729
0.31514
0.28382
0.26213
0.04032
0.00679
0.05665
0.36979
0.10979
0.25329
0.16360
0.41814
0.38816
0.43152
0.25658
-0.32174
0.03126
0.18478
-0.41536
-0.05730
0.09237
0.34258
0.37472
0.02915
0.35774
0.11984
0.09805
0.09082
0.33572
0.07158
-1.01449
0.43229
0.14071
-0.06694
-0.37783
0.18262
-0.18450
0.50597
0.18821
0.41356
0.28254
0.12060
0.39716
-0.81619
0.08087
0.09612
-0.70067
0.10590
0.02649
-0.00453
0.45645
-0.81945
0.04447
-0.49698
0.06606
-0.19721
0.13654
-1.37625
-1.58177
0.15976
0.09403
-0.16988
0.04696
-0.62895
0.06228
-0.61442
0.05288
0.18482
-0.77138
-0.33887
0.40295
-0.44422
-0.56314
0.17912
-0.04622
0.24531
0.11494
-0.26856
0.05332
-0.32463
-0.45513
0.31298
0.10301
-1.00249
-0.36779
0.12392
-0.02493
0.40318
-0.93820
-0.44130
-0.39915
-0.49727
0.38387
-0.86919
0.37359
0.29244
0.10585
-0.89687
-0.42096
-1.42305
0.13503
0.24314
-0.00040
0.17191
0.60138
-0.36153
0.20956
0.49707
0.47268
0.05600
0.47325
-0.22171
0.43953
-0.07651
-0.08547
-0.61516
0.47492
-0.32117
-0.82171
0.13556
0.49140
0.68714
-0.81197
-0.81291
0.13072
0.28198
-0.53778
0.03872
0.23102
0.41084
0.50791
-0.85572
-0.26670
0.63035
0.05883
-0.22920
0.52379
-0.29530
0.12860
0.27894
0.33980
0.67042
-0.34225
0.16810
-0.23614
0.02510
0.08025
0.07786
0.34148
0.10658
-0.60665
0.66186
0.67866
0.60860
-0.08060
0.60231
-0.29248
-0.05557
0.58379
0.13415
0.05380
0.33373
-0.17574
-0.73842
-0.43036
0.07088
0.39710
0.20360
0.57450
-0.80451
-0.83637
-0.36178
0.38238
-0.31692
-0.12338
-0.08260
0.11792
0.00784
0.36420
-0.47615
-0.21342
0.07468
0.02226
0.03749
0.60181
-0.11725
-0.04162
-0.64942
0.21898
-0.10490
0.14364
0.32744
0.06873
-0.63163
-0.32791
0.01183
0.26934
-0.89839
0.09891
-0.76063
0.28864
-0.28578
0.13422
0.39978
-0.03596
0.14440
0.17153
0.06952
-0.28827
0.25952
0.02468
0.25714
0.24643
0.20195
0.31233
0.59976
-0.46056
0.47610
0.10933
0.17614
0.33721
0.12934
-0.72478
-0.12110
-0.03203
-0.30100
0.00150
-0.23137
-0.06444
0.20847
-0.52016
0.31681
-0.98162
-0.26818
0.08316
0.07155
-1.00482
-0.05862
0.21849
0.17440
0.13593
-0.15980
-0.57947
0.31024
-0.12151
0.10558
0.21598
0.21250
0.15968
0.44443
-0.07407
-0.20979
0.20846
0.18624
0.17367
0.42026
0.34467
0.15342
-0.31241
0.14106
0.53446
-0.22090
0.18926
0.36495
-0.12208
-0.15461
-1.08263
0.19872
0.08171
0.20050
0.00749
-0.45972
-0.28770
0.14594
-0.78501
-0.28086
0.12560
0.19577
-0.03530
0.40078
-0.75427
0.20981
-0.67504
0.12184
0.73211
0.09963
0.12001
0.59665
-0.06078
0.28645
0.30904
0.42422
0.28764
-0.31335
0.12025
-0.00563
-0.28095
0.32534
-0.28120
0.13328
-0.08633
0.14856
0.19295
0.17677
0.24113
0.00557
-0.78543
0.11419
-0.44969
-0.00743
-0.20489
0.06295
0.22537
-0.19235
0.00203
-0.40759
0.27970
0.02396
0.27433
0.00985
0.31908
-0.02408
0.24985
-0.25913
0.62969
0.07483
-0.02780
0.24277
0.86159
0.16616
0.34291
-0.66307
-0.18964
-0.23430
0.69893
-0.04304
0.04908
-0.05795
-0.90293
0.08745
-0.22611
-0.09100
0.02604
0.16715
0.12239
-0.20444
-0.05335
-0.45716
-0.58094
0.08026
0.21890
0.40136
-0.69118
0.04589
0.19443
-0.22623
0.32819
0.25745
0.24017
0.73660
-0.63336
-0.29925
-0.06703
0.13204
0.17362
0.38302
-0.12029
0.49144
0.07562
0.14703
-0.22462
-1.12295
0.22655
0.02631
-0.01673
-0.01657
0.11845
-0.22444
0.32196
0.53491
-0.59864
0.49271
0.55653
0.54174
0.44362
0.11059
-0.50304
0.34344
0.01734
0.21747
0.41741
0.16068
0.57714
-0.16990
0.08745
0.42510
0.20174
0.41368
-0.39323
-1.47103
-0.64034
0.41933
0.53641
0.19498
0.64354
0.16576
0.02018
0.02126
0.33113
0.12724
0.08962
0.22976
0.84158
0.34129
0.19258
0.18652
0.75358
0.60329
-0.06815
-0.00652
-0.12310
0.30362
0.05934
-0.13948
-0.35338
-0.10172
-0.04939
0.16241
0.12519
0.65755
0.24985
-0.14343
-0.63298
-0.18140
0.18082
0.09516
0.26326
-0.14188
0.09546
-0.09196
0.31621
0.36880
0.31207
-0.28964
0.20940
-0.13922
0.05269
0.26218
-0.55562
0.12899
0.10017
-0.28876
-0.66062
0.06831
0.33669
-0.27782
0.29656
-0.34074
0.42652
0.21802
0.00916
-0.08619
0.46548
-0.01212
0.51165
0.40634
0.60945
0.27372
0.24086
0.14319
0.14471
-0.30947
0.36421
0.01624
-0.65286
0.08593
0.43442
-0.03344
0.25594
-0.36697
-0.04802
0.18901
0.20364
-0.05492
-0.06550
-0.06056
0.76231
-0.04093
0.17404
-0.32306
0.31727
-0.16559
0.30475
0.64772
-0.35951
0.74528
-0.29711
0.08964
-0.37516
-0.08967
0.29983
0.17580
0.13590
-1.04017
-0.15630
0.26576
0.15297
-0.50293
0.11868
0.46816
0.00850
0.39268
0.25932
0.49815
-0.59728
0.26863
0.42750
-0.39295
0.35744
0.14854
-0.21532
-0.27351
-0.28643
0.01669
0.33578
0.22948
0.09596
-0.19145
-0.29809
-0.17815
-0.07977
0.16673
-0.60554
-0.90719
0.02227
0.07366
0.41349
-0.15218
0.16644
0.19424
-0.34515
0.23862
0.51944
0.11228
0.29098
0.15052
-1.01593
0.39338
0.18081
-0.97665
-0.12044
0.28002
-0.29179
-0.38386
0.37649
0.07896
0.45626
-0.81229
-0.50637
-0.26382
0.12179
0.32397
0.22816
0.35916
0.06749
0.14912
-0.16386
0.15169
0.29885
-0.52584
-0.13337
0.21079
-0.00514
0.33021
0.04995
-0.09157
0.27874
-0.88882
-0.45255
-0.05191
0.06396
-0.11034
0.10309
0.17731
-0.68319
0.35705
0.47127
0.36069
0.47350
-0.22440
-0.40740
0.14496
-0.26693
-0.90095
0.08547
-0.60608
0.24053
-0.58671
0.21357
-0.65742
0.29369
-0.18414
-0.13965
0.15813
0.12037
-0.35528
-0.34225
0.26105
0.25647
0.19664
-0.07847
0.28058
0.26979
0.29975
0.41394
0.04359
0.48693
-0.00403
0.14449
-0.82505
0.34593
0.49346
-0.55314
-0.94681
-1.18106
0.26848
-0.15800
-0.23964
0.81978
0.40042
0.35772
-0.04866
0.39447
0.28089
0.13597
0.37610
0.44844
-0.13973
0.14649
0.21350
0.41873
0.04658
0.00346
-0.55390
-0.50925
-0.08556
0.15316
0.14205
0.31701
0.07768
-0.00461
0.14785
0.22034
-0.06957
-0.49234
0.30160
-0.75949
-0.25910
0.11077
-0.56906
0.10630
0.32196
-0.31514
0.12144
0.55793
0.30210
0.18909
0.02457
0.17392
0.07145
-0.61428
0.38044
0.15833
0.34233
-0.34186
0.05880
0.06235
-0.39491
-0.47925
-0.03545
0.16923
-0.31104
-0.38959
0.08244
-1.53109
0.48270
0.15890
-0.03202
-1.03340
0.15190
0.21731
-0.77197
0.25854
0.17884
-0.83280
0.09723
0.22822
-0.52477
0.32841
0.32173
0.05496
-0.03160
0.23619
0.71173
-0.06466
-0.61997
0.36324
0.07668
0.11251
0.28916
0.38265
0.16740
0.20167
0.54453
-0.47508
-1.05295
0.54345
0.34391
-0.74909
0.15585
-0.26100
0.25974
-0.89300
-0.19034
0.05833
0.22796
-0.56206
0.51800
0.21174
0.26491
0.33177
-0.04971
0.65299
-0.02952
0.33762
-0.27917
-0.36126
0.42271
0.08077
0.48424
-0.13000
0.33530
-0.72963
0.12072
0.38480
0.25328
0.41061
0.10045
0.26076
-0.13849
0.29409
0.02786
0.24509
0.45611
0.26522
0.22694
0.38218
0.24852
0.05426
0.26158
-1.03578
-0.09857
0.09600
-0.53593
0.04451
0.01283
0.06023
0.28496
0.49914
0.53871
-0.95479
-0.41463
-1.11270
0.41180
0.16988
0.32164
-0.53242
0.34219
0.22821
0.17250
-0.59429
0.36306
-0.04579
0.21770
-0.33732
-0.02668
0.03476
0.20491
-0.43440
-0.34108
0.28936
0.30070
-0.04404
0.13479
0.60341
-0.27038
0.04066
0.51802
0.45030
0.28265
0.17994
0.12495
0.08153
-0.23478
0.23222
0.28916
0.78252
0.37415
-0.55990
0.12037
0.01841
0.49301
0.58929
-0.59028
0.24949
0.27339
-0.29835
0.07192
0.64461
0.12030
-0.05738
0.54316
-0.76414
-0.13816
0.29538
-0.71791
0.28624
0.54482
0.49299
-0.15260
-0.27855
-0.21027
-0.13879
0.16733
0.27594
-0.25386
-0.52590
0.36808
0.19313
-1.47717
-0.03387
0.68956
-0.14867
-0.44348
0.23905
-0.84605
0.17720
0.02491
-0.81240
-0.26652
-0.19661
-0.01796
-0.40800
0.13563
-0.46781
0.13460
0.04061
0.43270
0.16235
-0.36350
0.38890
0.10461
-0.04062
0.29625
-0.71744
0.48520
-0.38541
-0.37203
-0.67157
0.05447
0.03511
0.61252
-0.03627
0.24594
0.26048
-1.10698
0.22477
-0.08458
-0.13478
0.07386
0.06301
0.13027
-0.39774
0.06746
0.10164
0.21188
-0.44912
0.12986
0.28924
0.05529
0.56798
0.29109
0.32086
-0.12037
-0.20575
0.12506
0.15000
0.03263
0.33807
-0.16794
0.05804
-0.16013
-0.22275
-0.79485
0.07581
0.98405
0.04628
-1.63747
0.13261
0.14751
0.23288
0.03563
-0.20260
-0.23737
-0.10825
0.15774
-1.32540
0.16206
0.10893
-0.04866
0.43680
0.00474
0.11846
0.59267
0.48958
0.30084
-0.15180
0.53389
0.22273
0.19527
-0.45830
0.03977
-1.28053
0.13589
-0.06861
0.20130
0.11207
-0.77298
0.21875
-0.33870
-0.83133
-0.27916
0.23646
0.26228
0.05496
-0.96488
0.33875
-0.67499
0.09127
-0.43497
0.12454
0.32493
0.29345
0.16864
0.45204
-0.08572
0.08022
0.02427
0.18399
0.05949
-0.26472
0.45725
-0.37661
0.10098
0.39998
-0.18073
0.22086
-0.16799
-0.76598
0.13180
0.08260
0.23534
-1.12921
-0.42832
-0.37167
-0.58170
0.09993
0.05181
0.06976
-0.28709
-0.24197
-0.54858
-0.71794
-0.99629
0.12301
-1.15370
0.42311
0.15569
0.04417
0.05298
0.36431
0.12444
-0.05104
0.09054
-0.38488
-0.48397
0.46911
0.05531
-0.35904
0.14783
0.27124
0.09934
-0.14754
0.44249
0.20674
0.18451
-0.39440
-0.16384
0.27648
0.12703
-0.89097
0.47703
-0.43194
0.27099
-0.97554
0.55722
0.33081
0.12892
0.27146
0.20867
0.08055
0.53151
0.59882
-0.81879
0.62552
0.33529
0.34959
0.44832
0.15275
0.74792
0.47400
0.26960
0.20932
0.21192
0.26717
-0.70207
-0.03160
-0.06770
-0.74428
0.16620
0.14689
-0.28718
0.23169
0.32990
0.56654
0.55510
-0.57172
-0.42039
0.25912
-0.10402
0.24062
0.31364
0.09980
0.12368
-0.50820
0.16236
-0.23003
-0.12302
-0.43564
0.15283
0.15410
0.26353
0.03954
-0.04084
0.27199
0.11891
0.35991
0.43783
-0.09373
0.27591
0.17807
0.27730
-1.07381
-0.45725
0.00087
0.07009
-0.14598
0.34338
-0.25188
0.21309
-0.49161
-0.04018
-0.28333
-0.72867
0.29503
0.38171
0.04608
0.06729
0.38886
-0.30279
-0.34430
-0.37642
0.07532
-0.42114
0.27430
0.35377
0.15760
0.31504
0.00171
-1.07899
0.33630
-0.06698
0.18813
0.20614
-0.76740
-0.65370
0.19692
-0.10047
0.19290
-0.00041
0.03224
0.15234
-0.57876
0.16351
-0.14396
0.09442
0.09921
-0.64034
0.00677
-0.00338
0.07778
0.16479
0.12200
-0.08035
0.18869
0.24781
-0.74379
0.00866
-0.32754
0.23886
-0.55928
0.16345
-0.15272
-0.30158
0.27224
0.26941
-0.21578
-0.44546
-0.06097
0.16125
0.17311
-0.01294
-0.65074
0.06622
-0.58919
0.26069
0.57590
0.11144
-0.68670
0.40373
0.53675
-0.51218
0.25828
0.26747
0.28133
-0.14424
-0.22912
0.22562
-0.06973
-0.09039
0.05729
0.25450
0.70164
0.18984
0.10370
-0.08613
0.19227
0.12982
-0.13683
-0.81345
0.01756
-0.71134
0.10921
-1.71342
-0.75276
0.50008
-0.25592
-0.23484
-0.91744
0.32237
0.05635
0.25143
0.30522
-0.08334
-0.55053
0.13965
0.31671
-0.99039
0.15218
-1.14764
-0.27214
-0.75343
-0.29339
0.56311
-0.05506
0.09123
-0.90856
0.29713
0.24418
-0.60587
-1.14202
-0.36642
0.14861
0.30054
0.33893
-0.74427
-0.55474
0.15476
0.05375
0.05420
-0.07413
-0.61589
-1.16118
-0.77445
-0.18543
0.28841
-0.54474
-0.22577
-0.60397
0.17106
-0.28901
0.38608
-0.24995
0.15437
0.07563
-0.06994
0.23053
-0.24508
0.75861
-0.26835
-0.24876
0.23902
-0.42534
0.10942
0.46947
0.25386
0.12243
-0.55012
0.59589
0.10645
0.08735
-0.35701
0.24838
0.42817
-0.99883
-0.14089
0.58530
0.18005
-0.50754
-0.33375
-0.38953
-1.68617
0.06866
0.21277
-0.00177
0.05444
-0.41019
-0.43236
0.33146
-0.37898
0.18837
-0.65249
0.47388
0.52685
0.64677
0.52767
0.73013
-0.81214
-0.28351
0.46095
0.05886
0.15167
-0.75356
-0.10110
0.13896
-1.05929
0.04029
-0.06311
0.27865
0.17194
0.18456
0.24627
0.24744
-0.01862
0.01160
-0.90510
0.16057
0.06910
0.12613
0.34350
-0.57534
-0.31227
0.07724
0.36632
0.19096
0.25850
0.40563
-0.32011
0.04522
-1.17390
0.21447
-0.29594
0.14106
0.05477
0.23228
0.37851
-0.21552
0.09668
-0.06924
0.20991
0.26971
-0.33278
0.26050
0.13459
-0.23010
0.23190
0.45201
-0.98127
0.28282
0.15532
0.29200
-0.26995
0.13406
0.12755
0.47837
0.06930
-0.12656
-0.09877
0.35013
-1.05477
0.18797
-0.03661
-0.11548
-0.19003
0.16536
0.21117
-0.09984
-0.90993
0.38335
-0.57403
0.10430
0.04622
-0.83291
0.01937
-0.55212
-0.73736
-0.00773
-0.20925
0.17211
0.12956
0.58300
-0.92322
0.22988
0.14201
0.16341
-0.31636
-0.94011
0.15503
-0.52245
0.25787
0.50273
0.74999
-0.46442
0.11564
-0.14460
-0.79171
0.62543
0.46459
-0.22180
-1.13640
0.07447
-0.28710
-0.41777
-0.30745
-0.11878
0.02940
0.09604
-0.06872
-0.24640
0.25145
-0.69545
-0.01566
0.04703
0.12610
0.18713
0.02527
-0.83608
-1.04825
-0.58963
0.74126
-0.81774
-0.24594
-0.79992
-0.27108
0.18683
0.10104
-0.35740
-0.23838
0.06817
0.51692
0.11013
0.10395
-0.04463
-0.98751
0.18605
-0.09179
0.23653
0.14837
0.32581
-0.55894
0.16973
-0.04196
-0.89126
-0.02575
0.15890
0.31276
0.04790
0.12857
0.07892
0.05061
-0.29191
0.15227
-0.76356
0.38791
-0.18220
0.22647
0.04790
0.41707
0.36231
0.05558
0.08184
-0.74345
-0.00436
0.31636
-0.41920
0.10511
0.09866
-0.20241
0.36553
0.15780
-0.66994
0.28192
0.15924
-0.40737
0.55989
-0.07437
-0.07663
-0.13614
-0.10590
0.29606
0.16267
0.04155
0.12297
0.19590
0.25621
-0.39490
-0.35264
-0.54514
0.11826
0.08357
0.19991
-0.37403
-1.19265
-0.32443
-0.57703
0.69059
0.50442
0.08028
0.11313
-0.76734
0.13637
0.38709
0.13947
-0.29991
-0.35627
-0.30351
0.31447
0.51359
-0.73154
0.02222
-0.39135
-0.21662
-0.57245
0.45399
-0.40113
-0.21223
0.85587
0.42965
0.71745
-0.30880
0.11778
-0.59999
0.24445
0.30819
-0.05534
0.08813
-1.58140
0.12964
0.57416
0.18677
0.61665
0.06276
0.50656
0.05863
-0.35945
0.60214
-0.22002
0.06788
0.53320
-0.04998
0.27266
0.30275
0.12497
-1.14306
0.16847
-1.23718
0.24755
0.07966
-1.25783
0.54867
0.13942
0.11263
0.29511
0.40359
0.04629
-0.19679
0.12280
-0.24919
0.53981
0.77994
-0.19522
0.50107
0.11229
0.11674
-0.74088
-0.31364
-0.77433
0.37360
0.29035
-0.10724
0.16533
-0.04500
-0.02142
0.42030
-0.94822
0.15520
0.32415
0.26904
-0.10772
-0.31366
0.23955
-0.02702
-0.41098
-0.26045
0.13277
0.15056
0.34516
0.32717
0.05365
-0.02420
-0.30515
-1.20267
0.23151
0.07524
0.23816
0.43860
-0.21797
0.23321
0.53707
-1.09407
-0.23273
0.22374
0.01190
0.17802
0.45397
-0.05429
0.03202
-0.36517
-0.09025
-0.54409
0.25827
-0.72829
0.30098
0.10392
0.16366
0.19161
0.11176
-0.70011
0.18034
-0.15493
0.28687
0.54993
-0.04306
0.36033
0.03020
0.38382
0.04102
-0.01195
-0.59365
-0.40476
0.35855
0.22563
0.01627
-0.33250
-0.24686
0.28011
0.42266
-1.17061
-0.17300
0.24504
-1.16688
0.22864
0.34728
0.18400
0.16303
-0.26983
-0.60712
0.40864
0.01887
-0.10800
-0.30146
-0.01206
-0.14900
-1.36560
-0.28483
-0.55779
-0.84775
0.09752
0.15219
0.41245
-1.27811
-0.68017
-0.25166
0.10845
0.32045
-0.80969
-0.54263
0.38773
0.57438
0.24763
-0.57288
0.24862
0.20165
0.07282
0.22752
-0.54047
-0.14094
0.09994
-0.29393
-0.80636
0.02672
0.32113
-0.32554
-0.39573
0.24098
-0.23567
0.27719
0.39452
0.14814
0.06730
-0.06745
-0.02061
0.21464
0.22405
0.29237
0.14810
-0.00697
0.17234
-0.41748
-0.59312
0.03090
0.09686
-1.24676
-0.23878
0.10078
0.17652
0.14227
-0.06930
0.29211
-1.15411
-0.59139
0.04385
0.10912
-0.16777
-0.65432
-0.47086
0.20369
0.15436
-0.12948
0.17034
0.22295
0.11036
-0.26124
0.20473
0.27844
0.04756
0.10480
0.16229
-0.17710
0.69333
0.11802
0.06102
-0.02434
0.38367
-1.14528
-0.24343
0.46877
-0.90556
-0.00755
0.07080
0.02587
0.24598
0.39444
-0.52867
0.27274
0.21486
-0.02123
-0.50848
0.12745
0.58912
-0.08695
-0.36544
0.21005
0.15003
-0.14248
0.28833
-0.25954
-0.99943
0.12722
-0.55075
0.24613
-0.09550
0.42322
-0.50902
-0.60644
0.16039
0.22030
-0.33067
0.30382
0.46616
0.03646
0.26749
-0.04752
0.15471
-0.41555
-0.44957
-0.05464
0.15736
0.41092
0.02139
-0.94155
0.26863
-0.00694
0.35475
0.05943
-0.12282
0.40245
-0.08142
0.16233
0.30665
-0.11294
-0.46189
-0.50300
0.09451
0.24464
0.12112
-0.02530
0.59855
-0.40773
0.19281
0.21880
0.16147
0.31179
0.00622
0.12340
-0.34115
-0.00397
0.27759
0.10446
-0.67748
-0.23361
-0.21642
-0.27885
0.33965
-0.30117
0.58597
0.35081
-0.27053
0.07522
-0.01637
0.09639
0.71826
-0.00819
0.26321
-1.46807
-0.01157
-0.21040
-0.16727
0.22990
0.69769
-0.12400
-0.31313
0.41134
0.12805
-0.32427
-0.08648
-0.35558
0.35197
-0.26710
0.04923
-0.70545
-0.05146
-0.74402
0.10622
-1.56990
-0.23250
0.17614
-0.13908
0.16922
-0.71989
0.27668
0.55002
-0.00042
-0.28453
0.20801
0.27946
-0.22117
-0.78844
0.30866
-0.19417
0.01704
-0.18473
-0.00395
-0.44122
0.38228
-0.80123
-0.50479
0.20316
-0.00801
0.53759
-0.67702
-0.88043
-0.31944
0.39600
0.14415
-0.92105
-0.12170
0.04808
-0.80509
0.33540
-0.06840
-0.59624
0.12581
-0.18082
-0.21838
0.03599
0.27657
0.03809
-1.13257
0.09097
-0.11752
-0.93929
0.09469
0.73472
-0.98802
0.11539
0.49111
0.55541
0.17876
0.33404
-0.13206
-0.38940
0.25122
0.19563
0.49504
0.06197
0.00934
-0.05622
0.24030
-0.03003
0.17696
0.03374
0.19822
-0.84303
0.15306
-0.19732
-0.37900
0.16257
0.16829
0.14695
-0.59180
-0.20142
-0.19358
0.11944
0.01628
0.14142
-1.50024
-0.18077
-0.47065
0.41756
-0.24585
0.18323
0.10885
-0.91568
0.26624
0.31001
-1.11471
0.24270
0.09770
0.04737
-0.97077
-0.22644
0.24342
-1.06064
0.50929
-1.25924
-0.20318
0.01704
0.32532
-0.21574
-0.90867
-0.34251
-0.27782
0.02921
-1.45312
0.16330
-0.36961
0.12617
0.02393
-0.12027
0.15276
0.40470
-0.36426
-0.18653
0.43996
-0.04814
-0.04282
-0.45722
-0.50181
0.41505
0.27482
0.05833
0.15790
-0.13683
0.19090
0.28593
0.07371
0.24096
0.51767
-0.23747
-0.88979
0.25633
-0.84305
-0.43256
0.09483
-0.52106
0.79257
0.05323
0.36559
-0.92335
0.36621
0.05572
-0.38892
0.27253
-0.01067
0.35230
0.51270
0.01940
-0.51901
-0.70192
-0.22100
0.15573
0.11772
0.26430
0.01193
-0.09963
-0.28476
-0.13886
0.18184
-0.43597
0.25444
0.04917
0.16358
-0.89746
-0.08505
-0.70035
0.26082
0.12809
-0.52473
0.19317
0.21384
-0.19754
0.38623
0.64211
0.13094
-0.72909
0.28699
-0.64200
0.26523
0.63292
0.14604
-0.33981
0.03298
-0.11215
0.12383
-0.00317
-0.18660
-0.51065
0.12079
-0.22700
-0.01797
-0.43364
-0.74389
0.07084
0.20783
0.42396
0.09026
0.13887
0.08179
0.07600
-0.05820
0.28081
0.48132
-0.39883
-0.25395
-0.38487
0.45707
0.00359
-0.37781
-0.47316
0.39708
-0.66545
0.31662
0.14189
-0.38983
-0.23846
-0.70403
0.15999
0.30846
-0.52682
-0.31197
0.18916
-0.47574
0.23683
0.09807
-0.54398
-0.81134
0.14801
0.27791
-0.46227
-0.17350
0.21338
-0.37458
-0.41328
0.74902
-0.42539
-0.06351
-0.18095
0.59103
0.01767
0.12334
-0.40590
0.06546
0.10448
-0.27545
-0.77114
-0.59057
0.05268
0.00221
-0.24986
0.07013
0.02886
-0.01508
0.12703
0.13322
0.34509
0.20332
-0.96027
0.23954
-2.21282
0.12658
0.14852
0.10340
-0.13946
0.28738
-0.06905
0.09531
0.38433
0.13964
-0.55133
-0.00953
-0.30706
-0.31766
0.21768
0.10416
0.58035
0.13450
0.37115
0.48668
-0.19512
-0.15407
0.19809
0.13827
-0.60470
-0.48893
-0.24215
-0.30483
-0.02640
-0.80458
0.39147
0.19682
-0.32897
0.03066
0.32241
0.07669
0.07191
0.48220
-0.04380
-0.06036
-0.81914
-0.32607
0.23203
-0.70106
-0.41367
-0.02471
-0.25425
-0.10868
0.30517
0.77598
-0.31246
-0.28800
-0.37186
0.55261
-0.57952
0.10345
-0.87207
-0.13393
0.16797
0.23923
-0.41943
0.24067
0.50181
0.26771
0.64589
0.21396
-0.34167
-0.14417
-0.11942
-0.34340
-0.16517
0.10599
0.12678
0.01601
0.04064
-0.11795
0.49541
0.42492
0.32590
-0.00431
0.25699
0.16689
-0.41130
0.02204
0.23060
0.43763
0.04131
-0.82394
0.13432
-0.55956
0.33518
0.09523
0.51152
0.01168
0.68048
0.25507
0.17183
0.11623
-0.20719
0.68747
0.09425
0.42505
-0.84633
-0.25127
0.27171
0.80641
0.35319
-0.31439
-1.34035
0.23941
-0.08812
0.36321
-0.26257
-0.31151
-1.29105
-0.58232
0.62826
-0.11338
0.24087
0.16431
0.72018
-0.25687
0.05396
0.07324
-0.11534
-0.47981
0.17824
0.51193
0.22711
0.27608
0.13805
0.45410
0.13513
-0.12335
0.60107
-0.51535
0.17274
0.24532
0.36369
0.38784
-0.36211
0.09734
0.04236
0.15271
-0.46716
-0.02625
0.04744
-0.17206
-0.21669
0.63709
-0.94558
0.11473
0.14400
0.35312
-0.72456
-0.30380
-0.71053
-1.16746
0.11688
0.51037
0.04218
-0.52983
0.37371
0.26257
0.17835
0.22685
-0.34585
0.16595
0.37965
0.32146
-0.81538
0.61920
-0.15301
0.66920
-0.62172
0.33696
-0.38136
-0.19000
0.38511
-0.06726
0.14376
-0.20431
0.38194
-0.37985
0.11640
-0.23362
0.22708
-0.89731
-0.02847
0.51252
-0.26233
-0.58304
-0.72625
-0.24494
0.09543
-0.52199
-0.49109
0.42312
-0.04444
-0.05385
0.06918
0.09681
0.08675
0.12023
0.10152
0.10411
0.09139
0.26764
-0.06337
-0.23796
0.21837
0.34223
0.29522
-0.26118
0.17212
0.24731
-0.21579
0.36268
0.42610
0.41208
-0.03045
-0.84584
0.42691
-0.04691
0.16647
0.06810
-0.27171
0.60887
-0.38976
-0.54758
0.18231
0.12921
0.08716
-0.14254
0.28279
-0.56079
0.11791
-0.08234
-0.65677
-1.33995
0.13074
0.43463
0.00871
0.24144
-0.26563
0.30674
0.31881
0.12304
-0.90945
-0.79363
-0.39983
-0.54330
0.16234
-0.13233
0.04027
-0.46677
0.35653
0.59325
0.58985
0.53852
0.22979
-0.00718
-0.33781
0.35122
0.28084
-0.02415
0.04645
-0.30995
0.50381
0.65310
-0.76188
0.29038
0.09594
0.22562
-0.30898
0.38136
0.16747
0.26737
-0.12460
0.29731
-0.36577
-0.43006
0.07135
-0.99945
0.07231
0.59402
-0.18214
0.10868
0.15748
-0.26864
0.21483
0.24096
0.26791
-0.00554
-0.43609
-0.29463
0.41786
-1.05427
0.13687
0.04743
0.22194
-0.38105
0.43600
-0.05670
0.08932
-0.00357
-0.40025
-0.36982
0.10823
-0.32176
-0.79272
-0.32618
0.10011
0.33696
0.00692
0.16164
0.29000
0.16883
-0.37612
0.29554
0.14394
-0.41207
0.33040
0.04732
-0.28282
-0.03020
0.28596
0.12435
-0.76550
0.27571
0.17567
0.52318
0.30182
0.16615
-0.31223
-0.71998
-0.69066
0.04502
0.18087
-0.04489
-0.39404
0.38954
0.12050
0.19974
0.43214
0.26745
0.06059
-0.80777
0.16243
-0.11027
0.22179
0.00418
0.12180
0.42614
0.42948
-0.61347
-0.28958
0.39819
-0.35951
0.10838
0.15461
-1.39566
0.33798
0.59782
0.37723
0.12361
-0.04016
0.11286
0.19742
0.70523
0.01364
-0.48317
0.17189
0.65190
-0.20936
0.33283
-0.72812
0.12133
0.22024
0.32549
0.07321
0.11293
0.41239
0.34272
-0.18098
-0.10419
0.26633
-0.35321
0.39680
-0.07894
-0.37146
-0.35665
-0.88219
0.16891
0.00559
0.10898
-0.06201
-0.06720
0.09173
0.16332
-0.07176
0.06614
0.21216
0.10920
-0.27301
0.09168
0.16735
0.42447
0.08782
-0.36121
0.28269
0.34624
-0.41494
-0.30402
0.35002
-0.80248
0.06294
0.72006
0.08737
-0.02200
-0.05445
-0.37759
-0.64229
-0.34919
-0.19446
0.37360
0.07497
-0.15614
0.38599
-0.24587
0.14109
0.52371
0.19528
0.04593
-0.62448
0.04140
0.34610
0.09482
0.08521
-1.46713
-1.47055
0.09287
0.27910
0.00298
0.48580
-0.28717
-0.15446
0.49773
0.19579
-0.67303
0.22244
0.16537
0.14346
-1.37838
-0.63683
-0.72010
-0.24716
0.42996
0.08819
-0.47677
0.11398
-0.73956
0.04609
0.34875
0.23967
-0.84733
0.37113
-0.19007
-0.54274
0.62757
-0.31652
0.38852
0.16381
-0.89442
0.01699
0.12965
-0.02014
0.23881
0.55034
0.11048
0.00039
0.25523
0.08871
0.19063
0.28901
0.70724
-0.03247
0.42158
-0.02000
-0.43416
0.19845
0.35302
-0.82296
0.11526
-0.08317
-1.25131
-0.11709
0.08636
-0.01532
0.36735
-0.35147
0.01272
-0.05955
0.22457
0.43959
0.67093
0.13842
0.26788
-0.13896
0.00084
0.10094
-0.38895
0.04151
-1.03981
-0.34361
0.40633
-0.43913
0.36554
-0.02359
0.08456
0.06266
0.11746
0.70513
-0.17993
-0.13156
0.15682
-0.48428
0.12470
0.10285
0.09107
0.02786
-0.19628
-0.37550
0.14411
0.11051
-0.02840
0.05239
-0.34640
-0.01721
0.11293
0.48271
0.29198
-0.40978
-1.00135
0.00838
-0.00200
-0.15002
0.10103
0.06403
0.51441
0.03950
0.05241
-0.75650
-0.13264
0.06141
-1.05125
-0.27348
-0.20458
-0.06512
0.37583
-0.11095
0.17117
0.08771
-0.26345
0.11969
0.09396
-0.71907
0.35949
-0.81190
0.10428
-0.33191
0.05666
-0.53548
0.66973
0.07867
0.38827
-0.01880
0.20758
-0.04578
-0.03356
0.01391
0.10398
-0.08997
-0.00418
-0.02345
-0.23424
-0.03635
0.04011
-0.37107
0.02098
0.44388
0.56267
0.50896
-0.68885
0.18518
-0.20906
0.05736
0.11878
0.17918
0.20931
0.22272
0.14758
0.17327
-0.43994
0.12088
0.44532
-0.57265
-0.54049
0.16629
-1.52622
0.42277
0.49729
0.18681
0.13653
-0.37453
0.33222
0.36490
0.07346
0.16127
0.30421
0.03016
0.13096
0.36597
0.24065
0.61922
0.13975
0.13478
0.13982
0.31653
0.23223
-0.35822
0.36032
-0.23176
0.13560
0.17023
0.11691
0.39891
-0.40164
-0.34476
-0.02143
0.01595
-0.31540
0.22503
0.44144
-0.39577
0.67957
0.05963
0.35254
-0.04254
0.36052
0.07084
-0.74579
0.17641
0.01110
0.11327
0.44457
-0.01774
0.34911
0.11772
-1.07893
0.04909
0.02068
0.11036
-0.36638
-0.33875
0.16988
0.38901
-0.21795
0.16113
0.71367
-0.08743
0.37939
-1.00093
0.37029
0.26437
0.05102
-0.60236
-0.14508
0.19731
0.43959
-0.23488
-1.21414
0.05524
-0.59925
0.18917
0.07838
0.44958
0.38840
0.09085
-0.09163
0.11334
-0.06904
0.38985
0.16019
0.29306
0.41120
0.30820
0.08186
0.10686
0.10535
