0.03395
-0.27600
-0.45991
-0.33096
0.04085
0.11515
-0.00524
0.06386
-0.04956
-0.03704
-0.33818
-0.64185
-0.52282
0.14717
0.10021
0.02133
-0.02710
0.23136
0.08290
0.00755
0.23381
-0.71182
-0.00686
-0.93316
0.19999
0.11921
0.11890
-0.36560
0.23359
-0.24524
-0.10541
-0.39108
0.04195
0.02979
-0.00076
0.00480
-0.13882
0.09741
-0.12945
0.00825
-1.25404
-0.00042
-0.09518
0.29038
-0.40023
0.18201
0.10641
-0.42715
0.16755
-0.12894
0.14930
-0.74074
0.09663
-0.35277
-1.41468
-0.38394
-0.22818
0.04695
0.16809
-0.15516
0.16468
0.04763
0.16187
-0.06794
0.27297
-0.21506
0.06413
-0.12242
-0.04568
-0.40938
0.35102
-0.15303
0.18636
0.14406
-0.32287
0.08637
0.14319
0.06509
-0.29645
-0.16728
-0.07002
0.10035
0.03076
-0.04207
-0.08963
-0.54409
-0.41327
0.19326
-0.60705
-0.21470
-0.75343
-0.92464
0.62446
0.10199
-0.00133
-0.08046
-0.16214
-0.11232
0.10640
-0.37239
0.12776
-0.15288
-0.09335
-0.06197
-0.16833
0.13489
-0.13270
-0.13020
-0.22250
-0.15082
0.10507
-0.04177
-0.34591
0.13744
-0.18166
-0.59415
-0.48293
0.29230
0.04571
-0.22000
0.13890
-0.08761
-0.11493
0.12317
-0.58553
0.13313
-0.09687
-0.00661
-0.51596
-0.24935
-0.25248
-0.20576
-0.02896
-0.48441
0.10861
0.12760
0.10160
-0.06915
-0.26867
-0.49742
-0.44805
-0.21770
-0.03056
-0.08807
0.05390
0.13908
0.15898
0.01776
-0.21462
-0.41665
-0.21399
-0.31022
-0.19676
0.05273
-0.22001
-0.80120
-0.10524
0.05865
-0.09171
-0.19514
-0.20905
-0.07555
-0.52528
-0.01581
-1.02136
0.21477
-0.27723
0.15883
0.17695
0.03154
0.06720
0.11434
0.03949
-0.15684
-0.18428
0.13898
-1.05403
0.13173
-0.69086
-0.20105
0.36860
-0.32701
0.18000
-0.21358
-0.67728
-0.05870
-0.26453
-0.09310
0.08152
-0.34777
-0.14702
0.01149
-0.64129
-0.36050
-0.27666
0.11080
0.04454
-0.30165
-0.99804
-0.75246
-0.19430
-0.34918
0.15945
-0.07732
-0.04221
-0.01337
-0.50691
-1.06242
-0.25426
-0.17582
0.07940
-0.27334
0.05936
-0.03222
-0.23383
0.13560
-0.39296
0.02017
-0.31546
0.11289
-0.05070
-0.09554
-0.64740
0.03178
0.13660
-0.26562
-0.21580
-0.30800
-0.34260
0.23704
-0.03324
-0.03982
-0.37531
0.11545
0.04503
-0.14064
-0.11579
-0.16650
-0.56541
-0.14851
0.18215
0.01574
-0.14173
-0.41962
0.14425
-0.05036
-0.35873
0.11943
-0.06306
-0.32671
-0.65829
0.27054
0.40059
-0.00195
-0.00760
-0.09893
0.18383
-0.43169
-0.16099
-0.04070
0.09485
-0.21658
0.07490
-0.16481
-0.18491
-0.00008
0.15820
0.07980
0.03741
0.00829
-0.44859
-0.41909
-0.48068
-0.03738
-0.06155
-0.55938
0.11859
-0.05549
-0.31182
0.18349
-0.36557
0.12699
0.10356
-0.17872
-0.72002
-0.29741
-0.45560
0.18030
-0.08132
0.11574
-0.29587
-0.08996
-0.12644
-0.27614
0.03828
0.18456
0.04513
-0.54476
-0.09935
-0.10253
-0.11832
0.04137
-0.04164
0.19601
-0.26280
0.07494
0.52205
0.05811
-0.09959
0.14882
-0.05110
0.06015
-0.38514
-0.07923
-0.21448
0.11380
-0.22730
-0.05521
-0.11362
-0.11589
-0.13607
-0.04993
-0.63984
-0.00986
-0.20081
-0.65310
0.18480
0.39184
-0.29076
-0.18683
0.14454
0.08849
-0.04104
-0.15988
-0.24593
-0.61742
-0.04215
0.05613
0.12856
0.06551
-0.11254
0.01222
0.04103
-0.30401
0.16330
0.16532
0.07786
-0.04775
-0.21085
0.18053
0.08841
0.24671
-0.53998
0.12145
-0.20604
-0.32886
0.01649
0.12571
-0.18495
0.23914
0.00690
-0.09526
-0.48546
-0.22900
0.08895
-0.12936
-0.51760
-0.61021
0.05090
0.14401
-0.81045
-0.15836
0.13728
-0.77630
-0.26825
-0.26791
0.02263
-0.23072
-0.02344
-0.10964
0.02898
0.14050
0.08377
-0.45838
-0.18560
-0.21774
-0.63818
-0.08536
-0.26309
0.18904
0.11921
0.15144
-0.64559
-0.12649
-1.07141
-0.97251
-0.14947
0.11779
0.06470
-0.17792
-0.44312
-0.49240
-0.34972
0.18164
-0.25402
-0.22555
-0.15530
0.34436
-0.01427
-0.31197
-0.53031
-0.07609
0.19589
0.01983
-0.29724
0.06227
0.39473
0.08024
-0.14316
0.07427
-0.07486
-0.34056
-0.38251
0.03086
-0.08952
0.13599
0.12414
0.22979
-0.05555
0.13613
0.05053
-0.07549
-0.28872
-0.36829
0.14634
-0.38044
0.19391
-0.11286
0.01394
-0.02047
-0.09154
-0.34375
0.05232
0.06099
-0.56699
0.66980
-0.25132
-0.11984
-0.00975
0.10051
-0.17109
-0.33031
-0.23593
-0.15497
-0.30959
0.04839
0.14793
-0.31880
-0.35996
0.06109
0.05422
0.14743
0.14765
-0.08778
0.01262
-0.22244
0.08709
0.18840
-0.35804
-0.49507
0.09782
-0.37119
-0.71751
0.01237
-0.23896
-0.18094
-0.40789
-0.05159
0.25459
0.12354
-0.35623
0.02679
-0.38600
-0.90538
0.13502
-0.47389
-0.04908
-0.23583
0.12419
-0.30513
-0.07511
-0.01729
-0.03160
0.07233
-0.14590
-0.37767
-0.20329
-0.15530
0.08880
-0.79870
0.09356
0.19374
0.08869
-0.37821
0.05289
-0.32850
-0.41889
-0.02444
-0.21509
0.07963
-0.31993
-0.32172
-0.82990
-0.06198
0.29200
-0.02776
-0.14216
-0.01819
-0.20202
-0.31625
-0.12244
0.04169
-0.49043
0.28025
-0.36969
0.27999
-0.76813
-0.27317
0.21958
-0.31243
0.22359
-0.06282
-0.52890
0.10773
-0.05598
-0.29696
0.07677
-0.02149
-0.04134
0.20571
-0.09459
-0.62231
-0.78789
-0.11999
0.15793
0.23409
-0.01260
-0.40828
0.04794
-0.64878
-0.18628
0.20128
0.33660
-0.10258
-0.69159
-0.58085
-0.08700
-0.20082
-0.11924
-0.34108
-0.11428
-0.19074
-0.10781
-0.21859
-0.22103
0.09555
-0.23478
-0.18309
0.19307
-0.08992
-0.34007
0.09836
-0.61506
0.33814
-0.22952
-0.24372
-0.39479
-0.47088
0.16027
0.05435
0.02073
-0.12699
-0.09576
-0.85082
-0.77577
0.35521
-0.03791
-0.30359
-0.32924
-0.31005
-0.07558
0.21976
0.34270
0.01893
0.00072
-0.95421
-0.03006
-0.27453
0.11013
-0.20116
-0.14442
0.07183
-0.24367
-0.16909
0.19249
-0.05278
0.10954
-0.19047
0.10539
-0.43694
-0.18087
0.11284
0.12685
0.03812
0.02336
0.12729
0.05750
-0.26404
-0.49977
-0.05711
-0.19945
0.06617
-0.01947
0.06459
0.11077
0.23918
-0.43306
-0.17719
-0.32456
0.15492
-0.07654
-1.10446
-0.47811
0.15265
-0.28263
-0.43542
-0.33107
0.08046
-0.03856
-0.00383
0.06295
0.43119
0.02854
0.10936
-1.39314
0.06489
-0.63462
-0.36521
-0.05143
-0.47229
-0.08891
-0.07680
0.04296
-0.01824
0.24212
-0.13874
-0.21057
0.01377
-0.23141
-0.67592
-0.01101
-0.10536
0.30066
-0.29532
0.02686
0.21339
0.02031
0.07472
-1.03923
-0.23536
-0.30694
-0.18148
-0.15808
-0.10810
-0.60649
-0.28605
-0.07975
0.18646
-0.01306
-0.02306
0.16879
0.03271
-0.41788
-0.02753
-0.85423
0.08229
-0.12177
-0.03929
-0.32911
0.18326
-0.54849
0.21216
0.14701
-0.34950
-0.64069
0.25379
-0.42186
0.25484
0.19062
-0.43843
-0.11377
0.14951
0.02962
-0.23708
-0.03357
0.10417
-0.48386
-0.21749
-0.06251
0.10060
-0.32102
0.01925
-0.25658
0.12543
-0.46550
-0.46054
0.14025
0.31947
-0.43851
0.04470
-0.30935
0.07337
-0.17530
-1.13771
-0.11525
0.34739
-0.03647
-0.18691
-0.73115
0.13048
-0.28714
-0.99686
-0.24744
0.14341
-0.23429
-0.04774
-0.05226
0.05428
-0.26158
-1.01716
0.18180
-0.19264
0.12326
-0.38832
0.18486
0.12073
-0.00519
0.09976
0.10195
0.26329
0.03344
0.09845
0.17911
-0.11286
-0.12828
0.12689
-0.05159
-0.26671
-0.78792
0.05818
0.10069
0.36508
-0.38610
-0.38155
-0.11700
0.15915
0.09855
0.23369
0.22267
-0.50641
-0.09576
-0.22301
0.16318
-0.21109
-0.03834
-0.11359
-0.20726
-0.02702
0.05875
0.06870
-0.40879
0.04970
0.03323
-0.36634
-0.13039
0.09972
-0.08967
-0.00576
-0.01231
-0.08768
-0.38520
-0.09414
-0.32300
-0.00598
-0.13728
0.01579
-0.36137
0.12376
0.04516
-0.09559
-0.59616
-0.26153
0.08151
-0.02815
-0.26639
0.09838
-0.16504
0.09593
-0.28496
0.04580
-0.08273
0.06996
0.18768
0.04429
0.46006
0.14601
-0.41570
-0.47579
-0.38640
-0.01280
-0.36185
0.10463
-0.39148
-0.55716
-0.06657
0.05323
-0.03014
0.03470
-0.32296
-0.15369
-0.45873
0.14440
0.04687
-0.34384
-0.02844
0.07571
-0.37927
0.16204
0.07775
0.17603
-0.09015
-0.18482
0.12875
-0.06514
0.27351
0.08634
-0.25411
0.07665
0.00050
0.08947
-0.04220
-0.65150
0.18066
0.13077
-0.33594
-0.05190
-0.39391
-0.56232
-0.40679
-0.03773
0.02264
-0.16953
-0.41083
-0.11232
0.18208
-0.03877
-0.26778
-0.34473
-0.19377
0.06609
-0.00983
0.14624
0.08409
-0.18342
-0.27277
0.00534
0.01671
-0.93697
0.07792
-0.23564
-0.17690
-0.14926
0.06051
0.10289
0.20107
-0.06814
-0.17505
0.07240
-0.14114
-0.55023
-0.01694
-0.25837
0.03401
0.16017
-0.04432
-0.30593
-0.04414
-0.16372
-0.31172
0.27120
-0.08895
0.12428
0.03680
-0.25867
-0.75142
-0.08967
0.08593
-0.12440
0.15854
0.03339
-0.23565
-0.10354
-0.49579
0.14592
0.02247
-0.33078
0.07157
-0.32272
0.10676
-0.39052
-0.03161
-0.33393
-0.38355
0.13644
-0.86811
0.18652
-0.60084
-0.15925
-0.13772
-0.85892
0.13986
0.10440
-0.23227
-0.71103
0.13528
-0.15200
0.24817
0.04354
-0.02116
0.10663
0.07721
-0.37882
0.14627
-0.08121
0.11738
-0.17177
0.10798
-0.88569
0.18867
0.08762
-0.34955
0.17549
-0.89008
-0.46918
-0.61461
-0.62329
0.07569
0.14648
0.22568
-0.61284
0.12303
-0.84322
-0.04382
-0.51081
-0.02645
-0.07477
-0.16598
0.07756
-0.06882
-0.60051
0.09887
0.08516
0.06047
-0.25521
-0.01386
-0.01067
0.05274
-0.41570
-0.36782
-0.22504
0.01596
-0.45670
-0.03970
-0.45100
-0.15419
0.02344
-0.10492
0.20479
-0.29595
-0.80525
0.13583
-0.19521
0.18496
0.10102
-0.05097
0.06954
-0.19757
0.27924
0.27771
-0.28295
0.47741
0.08473
0.21540
-0.27833
0.40677
0.12279
0.10556
0.24829
0.11018
-0.05978
-0.22074
0.20609
0.52277
0.21538
0.18870
0.03581
0.19587
0.27330
0.17781
0.33363
0.30668
0.16542
-1.20883
0.54576
0.25316
0.18930
0.23408
0.36856
0.15224
-0.22302
-1.13746
0.13383
0.45888
0.42420
0.37142
-0.39033
-0.30344
0.40707
-0.40429
0.05615
0.51026
0.30583
0.32278
0.28572
0.25426
0.59571
0.28620
0.08466
0.81103
0.10966
0.19043
-0.01605
0.28670
0.32091
0.20261
0.17692
0.13750
0.18508
0.20748
0.18569
0.25851
0.13996
0.29182
-0.01825
0.57715
0.17200
-0.34802
0.19441
0.18659
-0.09650
0.39351
-0.06310
0.04687
-0.06335
0.11847
-0.02063
-0.39480
0.72332
0.27015
0.07921
0.30634
0.10916
-0.15860
0.06579
0.22447
-0.22636
0.37626
0.36104
0.54260
-0.77295
-0.09133
0.06282
-0.00057
-0.33321
0.09010
-0.17988
-0.04760
-0.64464
0.54007
0.19807
0.41241
0.37685
0.34798
0.36900
-0.00689
0.34034
-0.27272
-0.24636
-0.04733
0.18434
-1.67107
-1.06495
-1.37397
0.09722
0.17692
-0.71816
-1.72580
-1.03383
0.06747
0.44499
0.06760
0.17307
0.40876
0.41581
0.31016
0.25891
0.65562
0.44811
0.42187
-0.98395
0.21073
0.28994
-0.36632
0.08787
-0.08159
0.36148
0.23335
0.01011
0.02127
0.14332
-0.03351
0.63628
0.19429
0.14350
0.32846
0.36394
0.17779
-0.10473
0.36008
0.56747
0.07766
-0.34999
0.49300
0.51888
-0.07460
-0.18971
0.21871
0.03347
-0.38709
0.10692
-0.32697
0.15409
0.12718
0.36099
-0.42344
-0.28683
0.26311
0.28013
0.49703
0.32005
0.20032
0.23925
0.16099
-0.00109
0.07969
0.20553
0.02606
0.37451
-0.40779
0.33282
0.50372
0.31126
0.35439
0.43301
-0.24678
0.30982
0.19668
-0.01163
0.31340
-0.11402
0.46296
-0.77688
0.22848
-0.21085
0.21804
0.24741
0.16860
-0.09602
0.09618
0.12302
-0.65386
-0.68150
0.18465
0.16313
-0.34254
0.10720
0.36268
0.09818
0.31696
0.40177
0.24676
0.27515
0.23124
0.08050
-0.04663
0.25517
0.27759
0.28121
0.00046
0.20218
0.12653
-0.03525
0.05126
0.21760
-0.71461
-0.19170
-0.38817
0.07768
-0.34817
0.27801
0.54538
-0.10857
0.15286
-0.46824
-0.94557
0.30177
0.10312
0.47925
0.04502
0.28780
0.47623
-0.18370
-0.47790
0.36189
-0.08034
-0.54608
-1.42257
0.27516
0.24863
0.19550
0.33830
-0.41091
-0.36247
-1.06282
0.55334
-0.61694
0.04092
0.20281
0.17121
0.23366
-0.87610
-0.18049
0.34433
0.01622
0.09174
0.18738
-1.33209
0.07531
0.31568
0.29949
0.12458
-0.50180
0.82093
-0.79520
0.15680
0.19244
-0.08544
0.33241
-0.53300
0.23068
0.07461
-0.02477
0.27351
0.26095
0.44156
0.14768
-0.80193
-0.15886
-0.67995
0.18495
0.01209
0.32022
-1.36396
-0.22136
0.16267
-0.49988
-0.80775
0.18141
-0.69147
0.13603
0.45380
-0.20965
-0.25666
0.15845
0.42079
0.29890
-0.38102
0.31030
0.14200
-0.66775
-0.21149
-0.03405
0.07468
0.18830
-0.20185
-0.92681
0.52990
0.25933
0.65973
0.42139
0.47618
-0.63806
-0.82789
0.32850
-0.04477
0.19143
0.32117
-0.12675
0.40193
0.36117
0.00598
0.39841
0.08774
0.19341
0.04567
-0.64649
0.38933
-0.18603
-0.14026
0.07493
0.36992
0.33590
0.07690
0.35126
0.39635
-0.05001
0.36324
0.09948
-1.01258
0.08169
0.32476
0.20997
-0.42656
-0.43996
0.39303
0.53733
0.25553
-0.16956
0.35922
0.33089
-0.27249
0.24089
0.22339
-0.50165
0.26989
-0.16168
-0.09248
0.25771
0.11657
0.20719
0.01560
-0.24291
-0.35099
0.13588
0.01602
0.59689
-0.30917
-0.86762
-0.10479
0.20467
-0.44082
0.23721
0.50185
0.33199
0.24448
-0.02498
-0.88264
-0.28579
0.52704
0.08730
0.08406
0.12339
0.11062
-0.06265
0.60568
-0.66469
0.18302
0.24166
0.41291
-0.16790
-0.43492
0.22803
0.30602
-0.34810
-0.05491
0.04707
-0.61502
0.37152
-0.55919
-0.18452
0.28538
-0.24164
0.05289
-0.41268
-0.19227
0.00726
0.21240
0.09048
0.36218
0.20336
0.26571
-0.66039
0.33317
0.33755
0.15106
-0.01636
0.30230
0.29833
0.34520
-0.64017
0.08723
0.78804
0.23805
0.50103
0.21513
0.34471
0.15242
0.23197
-0.03802
0.33621
0.34124
0.15770
0.24613
-0.55922
0.38040
0.28106
0.01948
-0.19296
-0.52439
0.28003
0.21521
0.09208
0.16791
0.28086
0.33085
-0.10040
0.06010
-0.32303
0.48382
-0.06732
0.20677
0.31257
-0.39313
0.27989
0.12284
0.28761
0.45796
-0.83921
-0.08135
0.29402
0.28976
0.28865
0.20964
0.05057
0.12670
0.34724
0.29654
-0.45520
-0.29370
0.69572
0.09525
0.60235
-0.00891
-0.05707
0.64790
0.77878
0.42015
0.20808
-0.63391
0.17432
0.28820
0.16789
-0.43021
0.08219
0.13412
0.35559
0.08086
0.42762
0.42456
0.47624
0.18185
0.09151
-0.02086
0.37959
-0.09682
0.26247
0.40645
0.40559
0.11033
0.40880
-0.52194
0.43610
-0.00515
0.04097
-0.45115
0.47529
0.18305
0.19795
-0.09813
0.26156
0.13986
0.09529
-0.40618
0.31517
-0.16626
0.37708
0.46614
0.09187
0.30728
0.21803
0.39670
0.30181
0.25713
0.46444
0.44552
0.44155
0.06407
-0.31567
0.34533
0.35108
0.35825
0.04074
0.42488
-1.64914
0.19930
-0.18736
0.38268
0.05486
-1.23057
-0.01378
-0.76937
0.07674
0.07802
0.02171
0.39840
-0.12058
0.38032
-1.00164
-0.24931
0.38934
0.35297
0.17090
0.15827
0.17470
0.19774
-0.64828
0.07987
0.22645
-0.43024
0.01246
0.09346
0.10308
0.12238
0.28395
0.13390
0.06997
0.17844
-0.33063
0.35382
0.14550
-0.47276
0.34852
-0.71030
-0.63018
-0.34254
0.08347
0.31576
0.18253
-0.06499
0.21598
-0.66022
0.20563
0.19530
0.12044
0.12364
0.09730
0.23886
0.17655
-0.58496
0.91505
0.14206
0.21797
0.03990
-0.54358
0.30911
0.16330
0.21207
-0.65416
-0.61318
0.27042
0.41625
0.31738
0.45446
-0.73947
0.32942
-1.00004
0.19525
0.10610
-0.44144
0.37947
-0.21362
-0.42045
0.19186
0.06894
0.71107
0.11027
-0.29862
0.22859
-0.25422
-0.23944
0.17618
0.41549
-0.11649
-1.01388
0.03338
-0.52863
0.63296
-0.13576
0.07495
0.23237
-0.16327
0.08525
-0.31112
-0.10884
0.24564
0.03625
0.35934
0.45708
0.21230
0.35360
0.16115
-0.29566
0.08118
0.35176
0.13758
0.27912
0.19208
-0.23822
0.09942
-0.82001
0.47404
-0.17844
-0.25598
0.12943
-0.08685
-0.23826
0.19047
0.64710
0.00247
0.32076
0.30718
0.55860
-0.65736
0.78770
0.15508
0.11484
0.66705
0.24631
0.48974
-0.20073
0.08132
0.17823
0.22823
0.09536
0.21036
-0.29501
-0.05196
-0.05512
0.28245
0.37321
0.36664
0.20791
0.15597
-0.32809
-0.56143
-0.50164
-0.65172
0.15379
0.15790
-0.19590
0.24302
-0.35424
-0.70865
0.11191
-0.18865
-0.04309
-0.24650
0.21026
0.19335
0.25823
0.12562
-1.47535
0.00062
0.66199
-0.01616
0.17225
-0.00411
0.17442
-0.92803
0.08079
0.19151
-0.79620
0.10453
-0.39521
0.25495
0.02884
-0.56492
0.30122
0.06020
-0.16618
-0.39043
0.48693
-1.39257
0.50182
0.16258
0.36684
0.40439
-1.18973
0.32536
-0.22929
0.36241
0.10353
-0.21525
0.13736
0.36692
-0.22391
0.69003
0.73136
0.42953
0.27312
-0.46887
-0.43736
0.30771
-0.20817
-0.38016
0.34625
-0.02118
0.19955
0.66604
0.35493
0.49519
0.32461
0.44819
0.32249
0.14985
-0.04976
0.25076
-0.77397
0.14832
0.31677
0.30922
0.15072
-0.99981
0.08065
-0.53844
0.22422
0.18241
0.09866
-0.20893
-0.58880
0.17596
0.41731
0.35933
0.07536
0.02488
0.00818
-0.01649
0.02241
0.48054
-0.44516
0.24686
0.74028
0.27832
0.48253
0.10100
0.24617
0.11793
0.40452
-0.92195
0.42364
0.41538
-1.04949
0.05468
0.42454
0.30848
-1.11832
0.54139
-0.37105
0.14868
0.28240
-0.24017
0.00083
0.19836
0.56048
0.38887
-0.61008
-0.20546
-0.46785
-0.07690
0.39753
0.14595
0.11078
-0.75026
-0.28329
-0.17813
0.36984
-0.03472
0.55789
0.10813
-0.35839
0.28699
0.33975
-0.30492
-1.05140
-0.42170
-0.62361
0.24895
0.05812
0.13443
-0.22769
0.39630
0.35712
0.00367
0.25716
0.79446
0.17369
0.05885
-0.47371
-0.12057
0.34755
0.54391
0.06908
-0.15714
0.40155
-0.13960
0.33879
0.33540
-0.10518
-0.13784
-0.15235
0.05557
0.09546
-1.02840
0.03294
-0.20265
0.27482
-0.98950
0.12857
0.13655
0.36913
0.23337
0.11577
0.30035
-1.33851
-0.41350
0.17170
0.15374
0.75314
0.28521
0.13644
0.07052
-0.77196
0.28054
0.09302
0.41085
0.23781
0.28228
0.05016
-1.10670
0.03620
0.44047
-1.05540
-0.12191
-0.28930
0.24625
-0.03117
0.04820
0.29305
0.21287
-0.03904
0.16929
-0.72077
0.07463
-0.42361
0.11539
0.28079
0.28400
0.13527
-0.00265
0.27055
0.08693
0.06872
0.04372
0.15945
0.16865
-0.47874
0.21176
0.23997
-0.44648
-0.02784
0.13413
0.02046
0.29325
-0.38222
-1.37215
-0.17346
0.28657
0.41109
0.22645
0.14677
0.14883
0.30299
-0.11740
0.32305
-0.23540
0.80428
0.15266
-0.41182
0.26967
0.28115
-0.02144
0.18673
0.27527
0.09016
0.14408
0.38092
0.11460
0.53260
0.27527
0.03805
-0.32515
0.25913
-0.05851
0.56714
-0.24886
0.47652
0.43073
0.17509
0.35243
0.36006
0.08916
-0.88791
-0.07917
0.29563
0.42755
0.33245
0.23851
0.20931
0.06805
0.00714
-0.39108
0.34552
-0.03221
-0.73053
0.03222
0.54301
-0.31902
0.10125
-0.33924
0.07088
-1.02670
0.20007
0.73486
0.27347
0.36417
0.05288
-0.29965
0.03845
-0.01719
-0.21761
0.07837
0.24530
-0.48489
0.17442
0.21785
0.31851
0.49554
0.15625
-0.14565
0.14956
0.20658
0.53209
0.23021
-0.22917
0.20565
0.19679
-0.66044
-0.24955
0.56452
0.17414
-0.22089
0.02514
0.22063
0.30424
0.00849
-0.12690
0.19427
0.22286
-0.47104
0.73571
0.66331
-0.02080
0.12450
-1.37772
0.37421
0.03385
0.28169
-0.59890
0.06631
0.38065
0.36099
-0.11915
0.26310
0.34040
0.21108
0.41214
0.71209
-0.23820
0.30735
-0.44117
0.54785
0.12739
-0.26522
0.30725
0.73419
0.10875
0.46566
-0.81746
-0.23319
-0.14338
0.29111
-0.04850
0.36903
0.22693
0.32291
0.10059
-0.35827
0.28364
0.30612
0.18809
-0.32722
0.05445
0.23146
0.32822
0.53008
-0.07195
0.43820
0.33226
-0.41358
-0.65803
-0.06667
0.30817
0.25446
-0.49923
0.21867
-0.10845
-0.02320
-0.67471
0.27014
0.32915
0.32450
0.08849
0.21936
0.15015
0.38053
0.43965
0.18735
0.56371
0.22810
0.55852
0.12794
0.48605
-0.90475
0.30442
0.21243
-0.16955
0.24512
0.32181
0.21142
0.36305
0.20710
0.16241
0.28775
-0.20516
0.33506
0.50132
0.49642
0.71241
0.38832
-0.14945
0.15598
0.02792
-0.44254
0.09224
0.39777
-0.06571
0.01432
0.73350
0.37729
0.57796
0.33745
-0.07924
0.41315
-0.30029
0.21661
0.21875
0.09304
0.32843
-0.45033
0.21007
0.32229
0.13452
-0.14469
0.07254
-0.59449
0.47125
-0.10071
-0.56974
0.37097
0.21713
0.14330
-0.71840
-0.88257
0.27815
-0.67815
-0.38993
-0.01004
0.53759
0.40735
0.10887
0.25429
0.13124
-0.50264
0.41378
0.36083
0.38736
0.18799
-0.51815
0.25439
0.33733
-0.97655
0.34159
-0.02326
0.16981
0.28081
0.06467
0.05882
0.54546
0.47138
0.36429
0.17961
0.50698
0.32010
0.08005
0.24714
0.48206
0.31291
0.71501
0.19956
0.27263
0.15849
0.07469
0.30486
0.38378
-0.41166
-0.83001
0.31374
-0.32334
0.22358
0.12881
0.17485
0.16438
-0.59926
0.11945
0.21561
-1.26699
0.18516
-0.65008
0.26699
0.20347
0.33508
0.53217
0.37641
0.21587
-0.29764
0.11021
0.15751
0.00009
-0.75565
-0.18582
0.22510
0.24062
0.22732
-0.73987
0.48304
0.73018
0.23530
0.10176
0.14469
0.48054
0.34051
0.09863
-0.76063
-0.40192
0.30002
-0.35150
0.58107
-0.28819
0.00139
-1.31873
0.05384
0.65697
0.33663
0.15340
-0.25045
0.31173
-0.00008
0.00091
-0.11448
-1.22809
0.48666
0.14081
-0.10155
0.16553
0.43327
0.20145
0.27190
0.07547
0.25520
0.34656
0.14616
0.24438
-0.57587
0.33159
0.06839
-0.10380
-0.35145
-0.60464
0.33416
0.26926
0.22103
-0.49697
0.31869
0.24198
0.14363
0.20230
-0.82811
0.37431
0.34834
0.29631
0.22716
-0.07113
-1.07640
-0.26845
0.05191
-0.15202
-0.34131
-0.01454
-0.79211
0.22644
0.22604
0.29880
0.10596
-0.06036
0.15271
0.27256
0.16219
0.31858
-0.36565
0.30918
0.02394
-0.20657
-0.63161
0.18176
-0.05425
0.07919
0.13013
0.28072
-0.91003
0.06877
0.45942
-0.53970
0.31113
0.42989
0.07563
0.63066
0.24097
0.08443
0.16817
-0.73122
0.25289
0.76108
0.60172
0.30528
0.44121
0.23412
0.49226
0.55943
0.43362
-0.25750
0.38214
-0.63875
-1.62935
0.27686
0.09534
-0.21556
0.19216
0.22890
0.48581
0.28349
0.58424
0.12286
0.04062
-0.38620
-0.05571
0.13738
0.32220
0.11442
-0.04167
0.06518
0.32522
-0.77116
0.24286
-0.76913
-0.54798
0.51383
-0.01815
0.41144
0.04921
-0.54390
0.17028
-0.81912
0.08425
0.38439
0.08987
0.10074
0.35076
0.13697
0.42540
-0.49419
0.45340
0.26806
0.77146
0.06444
0.33051
0.30588
0.31107
0.29819
0.36222
0.14624
0.27581
0.25814
0.24484
-0.04344
-0.20251
0.19156
0.08175
0.28731
-0.55015
-0.34923
0.07248
0.13028
0.11946
0.78985
-0.42193
-0.17159
0.29370
0.28857
0.15613
-0.17629
0.15384
0.08322
0.18028
0.23748
0.24305
0.39902
0.25829
-0.28248
-0.61951
0.19864
-0.62115
-0.37402
0.04625
0.26648
-0.31743
0.43196
-0.43284
0.04387
-0.11707
0.00183
-0.44768
-0.18929
-0.23088
-0.19521
-0.19391
0.33053
0.25467
0.36984
0.40525
-0.47390
-0.57495
-0.62585
-0.01345
-0.40270
0.22887
0.13845
-0.50306
0.19827
-0.19057
-0.05026
-0.18201
-0.40487
-0.24673
0.66720
0.22199
-0.06343
-0.19775
-0.74355
0.66664
0.18227
0.22629
-0.43160
0.35996
0.38210
0.35284
0.27761
0.32493
0.36026
-0.04524
-0.52144
-0.39859
-0.24238
0.25746
0.47621
-0.37055
0.37800
0.08581
-0.72560
0.25353
-0.35842
0.08104
-0.12359
-0.00955
-0.08262
0.66651
-0.19044
0.23569
-0.15417
0.12365
0.19967
0.14746
0.07495
0.12395
0.03164
-0.23732
0.25387
-0.35642
0.13593
0.24132
-0.31401
0.30979
0.40689
0.14889
-0.00595
0.46304
0.34289
0.15345
0.18083
0.16574
0.76967
0.14903
-0.25271
-0.09738
0.07620
-0.61074
0.18839
0.34564
0.21931
0.13752
0.40763
0.07327
0.15260
0.39568
0.12435
-0.16818
-0.21324
0.20518
0.31892
0.04344
0.07708
0.30074
0.17928
0.57928
-0.01288
0.43451
0.06077
-0.23093
-0.02322
-0.71270
0.09738
0.61736
-0.02422
0.27235
0.30543
-0.31237
0.15678
0.15768
-0.01364
0.07349
0.31369
-0.24746
0.46890
0.50380
-0.57448
0.49151
0.16863
-0.31994
-0.13712
0.17945
0.47941
0.03128
0.40544
0.29459
0.51237
0.28588
0.33859
0.16147
-0.42639
-0.24054
0.27098
0.41728
0.20995
0.20940
0.28544
0.04745
0.30514
0.48547
0.47855
0.24255
0.22202
0.27964
-0.27257
0.08406
0.21407
-0.16131
-0.00567
0.04511
0.02417
0.22287
0.15945
0.21424
0.02077
-0.13462
-0.85031
-1.19885
0.37900
0.16532
-0.21260
-0.33643
0.20800
0.21000
0.18116
0.40954
0.33515
0.40237
0.30089
0.11775
0.40969
-0.72614
0.24654
0.84909
0.16084
0.11227
0.36948
0.34178
0.37945
0.05913
0.69003
0.27891
0.12543
-0.08495
0.25380
-0.03420
0.27416
0.20234
0.39605
0.48736
-0.17732
0.21573
0.18862
0.35165
0.02269
0.20780
-0.32964
0.17341
0.28024
0.32887
-0.40000
0.35098
0.02906
-0.00136
-0.63979
-0.40791
-0.01747
0.30430
-0.21094
0.17794
0.21759
0.24260
0.17722
0.23457
0.19552
0.51286
0.50595
0.35791
0.50646
-1.42329
-0.08916
0.17719
-0.25324
0.24484
-0.28223
-0.13538
0.21579
-0.09024
-0.12320
0.42110
0.18336
0.18074
-0.21857
-0.02403
0.30921
0.41871
-0.03719
0.24795
0.09551
0.18638
0.21533
0.15069
0.04777
0.21586
-0.09691
0.08647
-0.31195
0.19614
0.49239
0.12090
-0.36869
0.18177
0.26432
0.16947
-0.02528
-1.13354
0.32870
0.40641
-0.43148
-0.59774
0.25486
-0.19686
-1.10167
0.27401
0.02135
-0.40237
0.03213
0.11990
0.28332
0.30463
-0.43721
0.31012
0.04944
0.37391
0.48769
-0.14870
-0.80252
-0.00495
0.24143
0.44042
-0.12105
0.12595
0.17234
-0.70171
0.13235
-0.30604
0.33826
0.31008
0.49041
0.17914
0.32018
0.17228
0.03200
0.17239
0.29259
0.14699
0.39424
0.32520
-0.21931
0.30018
0.16298
0.04573
0.01155
-0.59973
0.08345
0.04324
0.49923
0.09345
0.19889
0.45523
0.15410
-0.03975
0.18457
-0.27096
0.55328
0.17535
-0.29102
-0.71877
-0.41799
0.18741
-1.31188
0.19031
-1.03807
0.09661
-0.19310
0.17896
-0.39237
-0.13679
-0.15233
0.49646
-0.19699
-0.77200
0.15035
0.15166
0.14943
0.10730
0.29955
-0.78859
0.55309
0.64612
0.07905
0.05147
-0.46145
0.06695
0.30662
0.20072
0.49845
0.01252
-0.04215
-0.13843
0.20956
-0.56829
-0.06629
-0.17660
0.33490
-0.00545
0.08520
-0.38415
0.75315
0.34636
0.53738
0.66733
0.33957
0.29564
0.37177
0.36927
0.23854
0.08486
0.01905
0.09856
0.35100
0.07774
0.13034
0.20944
0.33162
0.39839
0.39015
0.18439
0.15638
-0.44941
-0.02195
0.27570
0.07294
0.31068
0.29476
0.04875
0.53545
0.36490
0.09768
0.10629
0.16637
0.21087
0.27278
0.27211
0.05479
-0.38044
0.55319
0.09560
-0.32923
-0.34989
0.17707
-0.11111
-0.36506
0.14330
-0.00955
0.35608
0.27933
0.37055
0.38025
-0.90984
0.09777
-0.55605
0.18636
0.03495
-0.72812
0.08224
-0.00955
-0.18128
0.15664
-1.04640
-0.78993
0.09544
-0.36925
0.12930
0.08788
-0.24413
0.16517
-1.35381
0.17788
0.26111
-0.13239
0.19992
-0.54264
0.13483
-0.30825
0.12822
0.15617
-0.65281
-0.17232
-0.39293
0.16897
0.05534
-0.34839
0.02589
-0.11766
-0.37759
0.22300
0.14991
-1.12906
-0.46203
0.21180
0.02229
0.16030
0.44319
-0.67849
-0.70546
0.24777
0.32737
0.21065
0.11046
-0.76090
-0.29738
0.08159
0.24441
0.20204
0.17399
0.57311
-0.33948
0.23422
0.60957
0.31568
0.54596
0.06448
-0.03178
0.41080
-0.23729
0.33736
0.69490
0.02637
-0.25569
-0.82083
0.20848
-0.37944
0.11732
-0.49824
0.07652
0.09605
0.54334
0.41609
0.78555
0.52186
-0.59208
0.25821
-0.65396
0.44942
0.44561
-0.11059
0.20384
0.35649
0.14362
-0.12322
0.46131
0.15416
-1.07177
-0.04286
0.72174
0.06043
-1.18538
-0.26049
0.27426
0.18379
0.67107
-0.23778
0.16268
0.08573
-0.40140
0.24815
0.04512
0.15129
0.32261
0.07595
-0.16356
-0.25234
0.51458
0.63413
0.69566
0.02677
0.01553
0.77497
0.07261
-0.06712
0.46019
0.58796
-0.15408
-0.02852
-0.24573
0.65832
0.01853
-0.60523
-0.65416
-0.62876
0.22645
-0.01461
-0.38274
0.17203
-0.49575
-0.06081
0.00923
-0.01731
0.29342
0.18746
-0.32839
0.14454
0.03702
0.58746
0.22616
-0.05315
-0.15974
-0.53326
0.26927
-0.27790
0.17157
-0.92492
0.53153
0.14504
0.36999
-0.54942
0.39132
-1.10374
-0.34068
0.12183
0.47215
0.12959
0.07509
0.13706
0.26343
-0.10350
-0.19725
0.23509
-0.21161
0.30144
0.27217
0.18596
0.32304
0.10249
-0.48681
0.45841
0.11400
0.18871
0.14665
-0.00746
0.11381
-0.91716
0.13038
-0.03735
-0.20223
0.09504
-0.40797
0.06977
-0.30006
-0.25601
0.16556
0.20117
-0.68056
0.38784
-1.04784
-0.14249
0.11828
0.15802
-0.29639
0.04439
0.18882
0.44553
-0.39428
-0.25119
-0.04697
0.33720
0.04936
0.10945
0.24095
0.15659
0.22007
0.15698
0.41486
-0.02354
0.32025
0.20314
0.17430
0.37506
0.14740
0.28574
0.21205
-0.23086
0.35795
-0.20586
-0.12396
-0.14018
0.09879
-0.90893
0.29430
0.04493
0.03680
0.09714
-0.58280
-0.43864
-0.33402
0.12824
-0.38031
0.07174
0.15271
0.50880
-0.77784
0.09337
-0.67468
0.15625
0.08359
0.28643
-0.25542
0.40382
-0.08326
-0.20715
0.24500
-0.34544
0.18757
0.17422
0.21195
0.11493
0.12674
0.13157
-0.66743
0.14057
-0.26063
0.08990
0.30720
0.08107
0.24120
-0.25957
0.13156
-0.26852
0.32434
-0.35702
0.41641
-0.10263
0.18697
0.37638
-0.32122
0.01942
-0.81227
0.56360
-0.01868
0.29213
-0.44993
0.21503
-0.14881
0.47728
0.31974
-0.00024
0.21012
-0.00293
-0.44265
0.19112
0.04196
-0.09566
0.16811
-0.48180
-0.61718
0.12636
0.21749
-0.09057
0.14042
0.38457
-0.68729
0.11497
-0.15631
0.38389
0.38109
-0.11728
0.78424
0.12813
-0.64515
-0.06306
-0.37962
0.15129
-0.00325
0.22877
0.33064
-0.69618
-0.28775
0.40880
0.13526
0.02520
0.12366
-0.26831
0.06983
-0.59394
-1.11823
0.15996
0.03286
0.19703
-0.38645
0.06325
0.52712
-0.94180
0.39802
0.54347
0.32490
0.52826
0.02246
0.29703
-0.21625
-0.49163
0.16488
0.21794
0.14039
0.42941
0.16422
0.50265
-0.10118
0.03552
0.36288
0.14188
-0.45723
0.34292
0.37954
0.48198
0.14427
0.56836
0.14249
0.20257
0.02434
0.23241
0.33725
-0.04215
0.18721
-0.01014
-0.01031
0.44866
0.19283
0.64726
0.40873
0.16842
0.12545
0.72367
0.28261
0.68291
-0.08931
0.06415
-0.02331
-0.38559
-0.00279
-0.17143
0.07447
0.13338
0.44950
0.12202
0.01008
-0.23653
0.25422
0.26003
-0.02544
0.09662
-0.03571
-0.64545
0.32623
0.30266
-0.17051
0.13316
-0.14461
0.02783
0.20045
0.12942
0.07318
0.03296
-0.23323
-0.67337
0.37562
0.25675
0.18650
-0.29188
0.28653
-0.10046
0.43401
0.36737
0.00610
0.16330
0.12520
-0.10885
0.37131
0.08805
-0.08303
0.39991
0.49227
0.28603
0.19752
0.20954
0.14562
0.38948
0.38495
0.25249
-0.00896
0.22043
0.22444
0.47503
-0.12171
-0.18493
0.09774
0.08342
-0.00553
0.27675
0.57891
0.10774
0.04963
-0.14777
0.04617
-0.14229
-0.35469
0.16716
0.40015
-0.06940
0.30177
-0.42786
-0.56537
0.66309
-0.46049
-0.21728
0.13916
-0.27304
-0.17272
0.16464
0.30844
0.09470
-1.12246
0.06109
0.25338
0.11670
-0.42714
-0.46811
0.20402
0.36406
0.32976
0.30059
0.37426
0.26753
0.40170
-0.90047
0.16967
-0.24439
0.40445
0.16887
0.13994
-0.11951
0.11098
0.19282
-0.27263
0.12063
0.12498
-0.28752
-0.32256
-0.38883
0.00282
0.21812
-0.52167
0.01982
-0.75158
0.09207
0.15666
0.39178
-0.15799
0.42398
0.39486
-0.25564
0.23234
0.50452
0.17041
0.06235
0.44886
0.21080
-0.15885
-0.30667
0.19530
0.14509
0.42574
-0.87143
0.21552
-0.54461
-0.37068
0.17365
0.20036
0.31693
0.08638
0.28503
0.05325
0.06843
-0.34349
-0.32172
0.16254
0.22563
-0.42504
-0.13943
0.15782
0.01033
0.34185
0.36856
0.03984
0.31609
0.02221
-0.02645
0.28958
-0.97919
-0.56446
0.04209
0.01381
0.10580
0.19545
-0.96635
-0.52390
0.26605
0.33506
0.45096
0.35855
-0.05988
0.17006
-0.43094
0.15003
-0.27221
0.16946
-0.70696
0.35683
-0.75561
0.18843
-0.79544
0.39996
-0.29705
-0.37713
-0.22861
0.01682
0.12927
-0.30305
-0.12051
0.27516
0.35387
-1.03172
0.21606
0.42087
0.06029
-0.31392
0.19027
0.30508
-0.12062
-0.70042
0.26806
0.23994
0.44423
-0.52909
-1.30998
-1.19997
0.21516
-0.27178
-0.31224
0.71728
0.20328
0.26821
0.28810
-0.23446
-0.24566
-0.79184
0.32378
0.45933
-0.22741
-0.20777
-0.25519
0.20271
0.33111
0.18481
0.16181
-0.38646
-0.09103
-0.57454
-0.59163
0.25386
0.16873
0.07338
0.35905
0.00445
0.11324
0.16299
-0.09400
-0.44542
0.34439
-0.77966
-0.32061
0.21118
0.42717
0.13432
0.04576
0.14595
0.36971
0.20366
0.42686
0.61778
0.29534
0.09278
0.28046
0.15936
-0.68738
0.24859
0.13304
0.30963
-0.44359
-0.06838
0.23587
0.08520
-0.17797
0.00919
-0.17445
-0.38656
0.50223
0.10906
-1.58276
0.39951
0.14650
0.16916
0.29804
-1.27647
0.19307
0.20385
-0.80878
0.14807
-0.29633
-0.63058
-0.33489
0.24603
-0.52598
0.31348
0.10198
-0.17439
-0.15857
-0.33993
0.44591
0.17629
0.13385
0.32150
0.48042
0.10661
-1.37090
0.19716
0.48838
-0.86390
0.07070
0.49430
-0.08396
0.14606
-0.69516
0.17410
-0.42387
0.23264
-0.88232
0.15915
0.16574
-0.20298
0.50469
0.27404
0.35399
0.28136
0.71197
-0.29272
0.16456
-0.01904
0.49803
-0.20085
-0.40230
0.15833
-0.60486
0.12389
0.41407
0.29046
0.31132
-0.15403
0.35412
0.28029
0.27480
0.36937
-0.34705
0.08101
-0.05489
0.36701
0.37875
0.36865
0.07994
0.25407
0.05088
-0.16220
0.07829
0.04096
-0.59452
0.34689
0.18814
0.24381
0.43099
0.39807
-0.93287
-1.13061
0.16108
0.24947
0.27568
0.11803
-0.75707
0.31011
0.19694
0.02628
-0.02326
0.15587
-0.00870
0.15529
-0.57566
0.71935
0.30728
0.26460
0.14482
0.09032
0.44208
-0.19555
0.02251
0.28215
0.09682
0.15444
0.14197
0.31286
0.27958
0.17113
0.27584
0.05245
0.20697
-0.05048
0.42393
0.36871
-0.02783
0.27649
-0.01681
0.16041
0.54213
0.15740
-0.15938
0.38807
-0.20895
0.28187
-0.82151
0.26098
0.40692
0.47555
0.55723
-0.34705
0.41985
-0.42201
0.21675
0.55068
-0.44345
-1.17446
-0.33092
-0.13460
0.67521
-0.18072
-0.25984
0.35342
-0.83312
0.08568
-0.73989
-0.11630
0.05025
-0.48113
0.08102
0.14252
0.12829
0.43640
0.21459
-0.52016
0.37373
0.04620
-0.84123
0.22598
-0.43884
0.30361
0.03894
-0.41660
-0.30027
-0.70670
0.44749
-0.38798
0.10050
0.19340
0.37648
-0.05764
0.24837
0.41948
-1.20140
0.09269
-0.15198
-0.10920
0.06831
0.17521
0.19308
-0.37388
0.21300
0.02872
-0.38513
-0.16824
-0.70843
0.17257
0.43667
0.13275
0.12631
-0.50208
0.24719
-0.02516
-0.18355
0.09314
0.09750
0.52090
0.05685
-0.00173
-0.07029
-0.14217
-0.77379
0.10813
1.00160
0.06211
0.02755
-0.01597
-1.78830
0.04396
0.08107
-0.22126
0.07362
-0.22159
-0.25276
-0.14473
0.12835
-1.23336
0.17305
0.51064
-0.64069
0.20485
0.12350
0.15157
-0.05331
-0.06595
0.50002
0.24905
-1.02579
-1.49336
0.14018
0.16526
0.18475
-0.70207
0.35710
-0.37405
0.12359
0.25893
-0.95520
0.19320
0.06412
-0.52051
0.04466
0.12268
0.50472
0.33179
0.13522
0.44901
0.10521
0.13705
0.15091
0.11312
0.44411
-0.32329
0.07118
-0.40520
0.42791
0.26754
0.12976
-0.65873
0.30053
0.64661
-0.77425
-0.02652
-0.41577
-0.65541
-0.20025
0.11218
0.04050
0.03284
-0.28295
-0.52714
-0.43102
-1.26276
0.12078
0.56540
0.20868
0.11468
0.58032
-0.50724
0.09931
-0.05570
0.02793
-0.47653
-0.94126
-0.08034
-0.35002
0.12143
0.23436
0.09807
-0.15050
0.41526
0.08768
0.09209
-0.66403
0.36213
0.26352
0.16449
-0.81454
-0.48941
-0.46577
-1.04503
0.32332
0.39709
0.10683
0.15326
0.07111
0.32706
-0.45512
0.61129
0.33967
0.10463
0.32832
0.27723
0.15958
0.29950
0.14204
0.36414
-0.60789
-0.05456
-0.08330
-0.09824
0.04909
0.13498
0.00449
0.19849
0.14651
-0.98298
-0.41484
-0.47625
0.07802
0.30575
0.22983
0.47209
0.34335
0.39747
0.07568
-0.32383
0.10814
-0.11908
-0.17683
-0.71719
0.24370
0.23970
0.17425
0.16200
0.00737
0.02468
0.22024
0.18084
0.47711
0.23957
-0.20100
0.15161
0.25629
-1.00979
-0.34602
0.13024
0.05890
-0.22906
-1.35755
-0.24487
-0.24718
0.25532
-0.28083
0.61539
-0.02220
-0.30134
-0.73360
0.19969
-0.01319
-0.04084
0.38760
-0.37311
-0.47919
-0.49446
-0.43826
0.34283
0.25557
0.04172
0.11244
0.16693
0.26350
-0.20786
0.21226
0.12307
0.04487
0.47368
-0.71756
0.18607
-0.34270
0.25616
0.09542
-0.26325
-0.06670
0.10196
0.15894
-0.20286
0.14764
0.31900
-0.00689
0.03476
-0.00464
0.02641
0.22352
0.09208
0.05111
-0.14642
0.00780
0.24401
-0.59028
-0.32025
0.21153
-0.56880
0.05313
-0.50634
0.14050
-0.13137
0.26771
-0.34779
0.40483
-0.53771
0.11015
0.26881
0.20650
-0.03212
-0.33454
0.08197
-0.60082
-0.04557
0.60862
0.09132
-0.54601
0.29842
0.72215
-0.43364
0.49059
0.31888
0.31150
-0.47662
0.15840
-0.43282
-0.00620
0.18304
0.44689
0.65834
0.20332
0.28133
0.13758
-0.08553
-0.02319
0.12440
-0.21617
-1.15880
-0.01759
-0.52952
0.11542
-1.71005
-0.67985
0.41100
-0.31216
-0.40273
-0.96248
-0.04262
0.38327
0.06024
-0.17471
0.37512
0.10330
-0.74909
0.08409
0.12572
-0.77837
0.10997
-1.36573
-0.17472
-0.22555
-0.26096
0.59327
0.05951
-0.01193
-0.81247
0.26566
-0.45106
-1.06875
-0.41499
0.16456
0.39694
0.23366
-0.81089
-0.31659
0.12462
0.28614
0.12834
-0.81281
0.03990
0.40458
0.10066
-0.92881
-0.75407
-0.26152
0.26136
0.13975
-0.40108
-0.22234
-0.57829
0.07555
0.09692
0.27826
-0.27892
-0.20845
-0.14853
0.68083
-0.10504
-0.08698
0.21873
-0.35840
0.20893
0.38367
0.17779
0.10272
-0.52215
0.46169
0.67058
0.10879
-0.26654
0.09806
0.33103
-1.13114
-0.54093
0.62195
0.16015
0.29966
-0.79839
-0.38194
-1.62067
0.53947
0.22114
-0.03731
0.10082
-0.34771
-0.36499
0.29040
0.13933
-0.21848
0.23056
-0.67820
0.42730
0.62528
0.43753
0.78081
-0.70808
-0.46891
0.49174
0.06139
0.21002
-0.58532
0.42890
-0.60446
0.11602
0.10141
0.16995
-0.96802
0.06670
0.00394
0.40854
0.26581
0.33548
0.17162
0.24914
0.29571
-0.38190
0.10709
0.01847
-0.87644
0.20524
0.10107
0.12069
0.18391
-1.02098
0.80804
0.39402
-0.53066
-0.41966
0.11641
0.20130
0.41417
0.25989
0.44150
-0.06683
-0.00109
-1.15376
0.35899
0.04490
0.20736
0.14627
-0.02031
0.17434
0.21031
0.14686
0.35483
-0.44387
0.24610
0.16283
0.06439
0.53714
-0.30872
-1.10002
0.21305
0.54084
0.20662
0.09521
0.26352
-0.18454
0.19237
0.11443
0.45483
0.16734
-0.05263
-0.25277
0.29708
0.02313
0.16605
-0.97725
0.09062
-0.05729
-0.22820
0.06631
0.17763
0.22378
-0.09295
-1.21760
-0.50663
-0.67467
0.07659
-0.85241
0.23363
-0.37365
-0.71714
0.12145
0.15686
0.40966
0.33986
0.67090
-0.42136
0.08298
0.12386
0.47076
0.24511
-0.93634
0.16750
0.23521
-0.77260
0.21367
0.71406
-0.20404
0.21439
0.16131
0.02667
0.52783
0.46044
-0.54635
-1.23628
-0.64361
0.20521
-0.35108
-0.56461
0.14911
0.21070
0.00677
-0.82082
-0.29791
0.39132
-0.94702
0.07233
0.35131
0.24849
-0.00045
0.19767
0.06671
-0.71376
-0.37024
-0.95188
-0.38879
0.41480
0.25587
-0.29561
-0.45381
-0.22884
0.14390
-0.03715
0.06196
-0.31311
0.24643
0.43162
0.11317
0.18463
-0.07178
-0.33690
-0.95341
0.26754
-0.06513
0.34830
-0.03876
-0.02964
0.17616
-0.51741
0.20686
-0.04296
0.32721
0.14580
0.07641
0.41466
-0.01465
-0.01628
0.14060
0.03944
-0.34696
0.12766
-0.86831
0.31430
-0.12223
-0.07347
-0.04796
0.25373
0.30335
0.25606
0.13994
-1.02516
-0.11476
0.22374
-0.14513
0.28745
0.24365
-0.66763
0.21199
-0.45967
0.09240
0.01310
-0.04626
-1.29704
0.22765
-1.26458
0.12713
0.15338
0.25627
0.06555
0.33630
-0.35580
-0.12743
-0.47412
0.18156
0.05690
0.27601
-0.37085
-1.16613
0.27654
-0.49512
-0.25249
0.62063
-0.20016
-0.06679
0.13024
-0.10101
-0.53203
0.13058
0.22814
0.11126
-0.26731
0.09054
-0.28545
0.24110
0.48339
0.07322
-0.71640
-1.00348
0.29471
-0.32797
-0.13644
-0.16875
0.29712
-0.28372
-0.22481
-0.08882
-0.15291
0.16984
-0.32930
0.39143
0.26692
-0.05429
-0.01873
0.07265
-1.30124
0.09277
0.27298
0.56523
0.22551
0.50847
0.11251
0.42620
-0.29707
-0.51598
-0.21793
0.19160
0.25811
-0.07549
0.43801
0.19666
-0.28176
-1.42871
0.12878
-1.29892
0.26596
0.16565
-1.10802
0.43407
0.19808
0.41968
0.06058
-0.37525
0.14063
0.48456
0.65834
0.45131
-0.25472
0.46288
0.16626
-0.00684
0.06859
-0.59548
-0.22412
0.12163
-0.77455
0.33440
0.28859
-0.09188
0.11582
0.12786
-0.13739
-0.17921
0.43247
-0.97115
0.11797
0.06177
0.18891
-0.51872
-0.37396
-0.21218
0.15634
-0.06298
0.21893
0.26166
0.39706
0.04137
-0.88508
-0.22065
-1.55051
0.19929
0.08649
0.55786
0.21761
0.45212
-0.75799
0.09794
0.74226
0.68688
-0.43495
-0.06271
0.14040
0.10221
0.61752
-0.07705
-0.28381
-0.20282
-0.07002
-0.43343
0.36022
0.03326
0.07169
0.29594
0.23670
-0.71633
-0.19379
0.25726
-0.03680
-0.49836
-0.41649
0.49886
-0.48275
0.23921
0.01746
0.30636
0.12509
0.03744
0.15284
-0.45763
0.01630
0.07534
0.52278
0.27772
-0.20683
0.23177
0.35337
-1.14459
0.29861
-1.04635
0.28949
0.23138
0.11383
0.15560
-0.47183
0.08599
-0.52104
0.29593
0.10741
-0.29243
0.04321
-0.64189
-0.76402
0.00886
-0.87849
0.07352
-0.81816
0.04873
0.19959
-0.68346
-0.18698
0.07660
0.20545
-0.75381
-0.33314
-0.04984
0.36358
0.46666
0.25834
0.16907
0.18561
0.16808
0.38780
0.35963
-0.01081
0.27548
0.03165
0.25917
-0.60909
0.00126
0.11189
-0.26820
-0.81203
0.02316
-0.28154
-0.16037
-0.05777
0.53543
-0.23794
0.06332
0.53003
-0.09777
-0.07270
0.05309
0.20044
0.47386
0.33991
0.12795
0.44389
0.09235
0.08333
-0.45793
-0.76499
-0.10673
-0.21822
-0.19391
-1.10128
-0.23445
0.10491
0.27887
0.10747
0.08710
0.25019
-0.95574
-0.26351
-0.14464
0.12562
-0.43667
-0.38655
0.24587
0.17684
-0.13504
0.20108
0.14119
0.12223
0.10822
-0.31258
-0.26949
0.22719
0.14460
-0.07223
0.07612
-0.13939
0.63732
0.09331
0.02687
-0.08153
-1.01341
-0.19312
0.23109
-0.97172
-0.11854
0.11434
0.03168
-0.18397
0.59083
-0.41741
-0.01751
0.21069
-0.01616
-0.36528
0.14854
0.63707
-0.02933
0.50576
-0.47960
0.63852
0.26589
-0.09648
0.30733
0.21705
-0.35952
-1.08417
0.11870
-0.53978
0.17725
-0.12785
0.42094
0.03343
-1.06199
0.12101
-0.32940
0.29387
-0.37189
0.26953
0.50215
-0.01220
0.24032
0.00440
0.12425
-0.36158
-0.55689
0.10874
0.71342
-0.01397
-0.92309
0.35754
0.29269
0.06063
-0.17472
0.12531
0.08386
0.49132
-0.30735
-0.50734
0.25407
0.12726
0.05142
0.36095
-0.12101
0.17877
0.12139
0.17724
0.23270
-0.25605
-0.09326
0.62390
-0.39350
0.07543
0.51213
0.16334
-0.58236
0.18191
0.07255
-0.41019
0.45881
-0.67724
0.41036
-0.50922
0.04331
0.68158
-0.09770
0.25986
-1.33465
-0.02770
-0.05396
0.60392
-0.20919
-0.17208
0.10050
0.36102
-0.30129
-0.08191
-0.41631
0.48683
-0.19890
-0.68549
-0.15621
-0.63850
0.06437
-1.64242
-0.19587
-0.27384
-0.21243
0.16235
0.17322
-0.64372
0.47066
0.38144
-0.01935
-0.36768
0.33082
0.23654
-0.69194
-0.20436
0.08568
-0.16586
-0.00515
-0.32944
0.30228
-0.62956
0.15101
-0.00714
0.47140
0.48864
-0.69309
-0.79499
-0.20270
0.39803
0.41310
0.05463
0.36401
0.01335
0.05148
0.28354
0.11240
-0.50338
-0.18666
0.06959
0.17264
0.24836
0.26004
0.12834
-0.95965
0.02503
-0.26454
-0.97929
0.07394
0.42283
-0.29222
0.11508
0.58761
-1.02035
-0.11135
-0.30568
0.31348
-0.36303
-0.36519
0.33055
0.34562
-0.02308
-0.02164
0.42438
0.11670
0.27706
0.26787
-0.03249
0.39204
-0.86536
-0.19103
-0.37051
0.13620
0.07657
0.07646
0.13513
-0.69397
0.10145
-0.08355
0.08277
0.34741
0.27679
-1.27223
-0.09627
-0.55594
0.44830
-0.29004
0.10113
0.13535
-0.29370
0.27085
0.18210
-1.00229
0.20542
0.36516
0.29213
0.45173
0.34532
-0.02678
-0.84388
0.13646
-1.20897
0.50744
-1.31055
0.01523
-0.10293
0.20043
-0.21206
-0.68405
0.15698
-1.61062
0.17302
-0.22291
0.28242
0.47697
-0.52828
-0.29090
0.08074
0.24431
0.29200
-0.29180
0.26537
-0.03452
0.04046
0.11946
-0.25682
-0.97667
-0.05150
0.62882
0.30642
-0.21215
0.05002
0.10705
-0.06230
-0.05817
0.13684
0.26021
0.13237
0.30244
0.51547
0.01788
-0.77220
-0.93602
0.30616
-0.76639
-0.29340
0.16686
-0.35758
0.72207
0.17010
0.53248
0.50311
-0.37332
-1.02886
0.24811
0.15645
0.27107
-0.00127
0.50113
-0.89817
0.11723
-0.37820
-0.01656
-0.07268
0.11207
-0.34562
0.25196
0.09150
-0.80187
0.19675
-0.58621
0.30627
0.07809
-0.50153
0.11284
-0.05529
-0.03449
0.27104
0.57088
0.13432
-0.20797
0.35056
-0.36740
0.26560
0.61847
0.09888
-0.37441
0.04070
-0.07075
0.12917
-0.09617
-0.05631
-0.37270
0.23138
-0.14461
0.12223
-0.02393
-0.45906
-0.72894
-0.29200
0.43851
0.33737
0.22397
0.14249
-0.36453
0.19521
0.10393
-0.02467
0.22409
-0.30829
-0.36797
-1.42938
0.09059
0.53769
0.55521
-0.25082
-0.42698
0.13572
0.12402
-0.66207
0.42928
0.11147
-0.45171
-0.44213
-0.78701
0.19768
-0.61465
-0.36505
0.06024
-0.39285
0.11908
0.35404
-0.49279
-0.64102
0.39697
0.24500
-0.36243
-0.04745
-0.41257
0.50015
-0.36973
-0.20851
0.80705
0.02114
-0.31225
-0.05344
0.61606
-0.48604
-0.13927
-0.19310
-0.46535
-0.47505
-0.02930
-0.01588
-0.03913
-0.13421
0.07303
0.06793
-0.14194
0.19548
0.09986
0.24174
0.09350
-0.78911
0.28216
-2.18474
0.05701
0.22067
0.26514
0.05441
0.08197
0.08424
0.23717
-0.82823
-0.04281
-0.29636
-0.17290
-0.27884
0.13213
0.15176
0.61937
0.13378
0.45872
-0.05638
-0.04548
0.03254
-0.54205
-0.52475
-0.46381
-0.11603
-0.46748
0.42238
-0.39025
0.13329
0.33604
-0.44037
0.36606
0.34984
0.50715
-0.16293
0.15430
-0.84363
-0.30838
0.04927
-0.72879
-0.06966
-0.37699
-0.02553
0.25601
0.17358
0.21115
0.08347
1.14466
0.10067
-0.23315
0.54087
-0.70478
0.12133
-0.10086
0.22547
0.26968
-0.69489
0.43365
0.43717
0.16470
-0.45282
-0.03296
-0.05031
-0.41507
0.36664
0.09413
0.16900
0.07665
0.18403
-0.01376
0.53569
0.47938
0.10297
0.24778
-0.30609
0.02581
0.29796
0.49687
0.14654
-1.01509
0.15436
-0.65058
0.35228
0.06888
0.42749
0.11147
0.27178
0.29897
0.08092
0.08404
0.79974
-0.55023
-0.26729
0.55635
-0.85837
-0.22619
0.19874
0.42252
0.13938
0.22667
-0.27729
0.24237
0.00152
0.35397
-0.22828
-0.32785
-0.46187
-0.02562
0.62837
-0.13222
0.40510
0.09639
0.57067
-0.21606
0.05750
0.17107
-0.12290
-0.44494
0.16237
0.52294
0.09445
-0.43095
0.01986
0.48971
0.20189
-0.16785
0.48626
0.09550
-0.38497
0.09280
0.29032
0.47312
-0.27501
0.36971
0.10866
0.04723
0.09946
-0.22578
0.12343
-0.14285
0.63096
-0.85902
-0.00257
0.29409
0.52403
0.11033
-0.76777
-1.12811
0.12040
0.40834
0.07411
-0.85468
0.25343
0.12251
-0.72189
-0.48847
0.11010
0.06048
0.44514
-0.72749
-0.73414
-0.34338
0.10613
0.01985
-0.07775
0.28601
-0.38839
0.07930
-0.26095
-0.29436
0.11668
0.25171
0.30341
0.20167
0.10178
-0.32656
-0.71931
-0.55460
-0.29274
-0.53673
-0.64209
0.07186
0.31805
-0.02044
0.08652
0.01272
0.03711
0.20048
0.18703
0.11219
0.06316
0.22301
-0.04198
-0.24813
0.02184
0.38937
0.20404
-0.21809
0.09739
-0.03717
0.26981
0.37585
0.17962
-0.94786
0.51402
-0.10624
0.05773
0.01162
-0.11433
0.09600
0.24306
0.04346
-0.06430
0.09003
0.13254
0.37165
-0.14000
-0.84824
-0.60663
0.14667
0.03944
-0.51857
-1.13729
-0.16607
0.09182
0.03695
-0.14181
-0.17745
-0.18258
0.13309
0.40048
0.25817
0.01849
-0.94699
-0.87833
0.11056
-0.01285
-0.04779
0.32855
0.04841
0.01676
-0.52096
0.53621
0.48037
0.43604
0.39117
0.29678
0.05067
0.35649
0.02844
-0.00219
-0.18048
0.32584
0.42498
-0.81168
0.11926
0.29099
-0.00677
0.23948
-0.21568
0.34983
0.11298
0.19664
-0.36163
-0.45117
0.07688
-1.24741
0.11195
0.18908
-0.05178
0.11815
-0.09045
0.24900
0.27758
0.07791
-0.52991
0.21125
-0.48067
0.44206
-1.11053
0.15589
0.26754
0.32575
-0.43042
0.45141
0.09312
0.09957
0.03507
-0.20284
-0.06790
0.14345
-0.10689
0.13908
0.19040
-0.81452
-0.46250
0.09939
0.23665
0.09858
0.03827
0.33506
0.06990
0.09076
0.14846
-0.30474
0.38995
0.10191
0.03753
-0.42052
-0.05633
0.12128
0.50409
0.11480
0.55818
0.01825
0.09498
-0.12553
-0.84130
0.08891
-0.54769
-0.01339
0.12100
-0.11527
-0.29628
0.28021
0.04330
0.12374
-0.99747
0.38199
0.43681
-0.73243
-0.10049
0.09300
0.37058
0.11381
0.44628
0.51705
-0.46553
-0.30249
0.31471
-0.39016
0.14221
0.12674
-1.51034
0.65541
0.34159
0.13554
0.05504
0.10197
0.13003
0.71224
0.06655
-0.45960
0.30322
0.60219
-0.07986
0.20876
-0.78562
0.07412
0.07383
0.37787
-0.59798
0.21650
0.35622
0.33985
0.06259
0.22774
-0.43383
0.47319
-0.21803
0.23074
0.24844
-0.37544
-0.46671
-0.93076
0.24014
-0.08602
0.08306
0.15155
-0.14622
-0.24970
0.04627
0.11473
0.32266
-0.03570
0.12894
0.06714
-0.27117
0.29143
-0.31280
-0.03582
0.13634
0.17659
-0.65308
0.27109
0.45986
-0.40786
-0.40785
0.49994
-0.96216
0.08887
0.53752
-0.36223
-0.37419
-0.65982
-0.28020
-0.28707
0.07211
0.28872
0.01933
0.20691
-0.13730
0.02213
0.27342
0.38561
0.22886
0.17933
0.01856
-0.78130
0.10662
0.10729
0.07613
-1.44092
-1.34293
-0.12690
0.38783
-0.01480
0.49677
-0.29337
0.05233
0.52399
0.25323
-0.58838
0.03879
0.04989
0.15495
-0.06618
0.21562
-1.28888
0.01004
-0.68813
-0.62960
-0.06556
0.44325
0.04474
0.13586
-0.23859
0.12653
0.05631
0.35703
-0.91735
0.07117
0.13251
-1.11074
0.65290
0.15525
0.41200
-0.10838
-0.01645
0.08483
-0.02189
0.57950
-0.64960
0.13401
0.48923
0.32128
0.28374
0.05540
0.14057
0.38273
-0.27934
0.59025
-0.50094
0.47604
0.12267
-0.52292
0.28076
0.38594
-0.95158
0.10412
-0.01076
-1.18758
-0.08195
-0.06856
0.37111
-0.55708
-0.37772
-0.04867
0.08244
0.63510
0.68484
0.37201
-0.32328
0.39196
-0.07182
0.14158
0.23611
-0.39296
0.09945
-0.73818
-1.07388
-0.33388
0.29262
0.41959
-0.09184
0.08325
0.05856
-0.02442
-0.27938
0.06565
0.14075
-0.33150
0.13728
0.06816
0.13714
-0.28125
-0.39861
0.08794
0.03786
0.02475
0.05588
-0.39961
0.01418
0.14658
0.20764
-0.99802
-0.05905
0.07586
-0.12477
0.12840
0.09548
0.64849
0.10318
-0.10812
0.07217
0.27436
-1.19207
-0.25265
-0.22276
-0.07847
0.27232
-0.04302
0.13889
0.13271
-0.47438
0.33521
0.13040
-0.20958
-0.23332
0.33136
0.11230
-0.74943
0.17208
0.22427
-0.04040
-0.08340
-0.06194
-1.28400
-0.16677
0.12731
0.13753
-0.25553
0.03882
0.03147
-0.44326
-0.01921
0.59833
0.23742
0.35527
-0.55790
0.32920
-0.24139
0.11028
0.16773
0.01845
0.19664
0.35482
0.33333
0.08123
0.06236
-0.38128
0.21251
0.09405
0.26146
-0.66593
0.07755
-0.41485
-0.24605
-1.37948
0.30547
0.34637
-0.00577
0.13894
-1.05885
0.04307
0.58095
0.05340
0.12473
0.22693
0.13148
0.17163
0.44225
0.35529
0.47652
0.16395
0.17118
0.11100
0.19164
0.43525
-0.28684
0.06755
0.01798
0.12491
0.39531
-0.27902
-0.01132
0.03819
-0.11773
-0.47436
0.23133
0.08628
-0.70478
-0.01446
0.05884
-0.03272
0.07932
-0.63099
0.08420
0.30724
0.09699
0.31497
0.26490
0.05441
-0.97283
0.21114
0.05836
0.16613
0.21195
-0.38033
0.09354
0.30034
-0.15712
0.03943
0.66875
-0.35257
0.33055
-1.08501
0.45369
0.15900
-0.73900
-0.19336
-0.04853
0.23044
0.26076
-0.12771
-1.15208
0.17840
-0.61860
0.49749
-0.06046
0.36020
0.03383
0.06321
0.05564
0.07986
-0.37067
0.06078
0.28692
0.32626
0.21073
0.06152
0.10588
0.00982
0.10038
