-0.05180
-0.45000
-0.37744
-0.01130
0.07858
0.09560
-0.00411
0.13046
0.01109
-0.06040
-0.16378
-0.55535
-0.12377
0.05911
0.13465
-0.07060
0.14096
0.39267
0.21396
-0.05572
0.29218
-0.63937
0.09603
-0.76594
0.15086
0.18759
0.16340
-0.44889
0.16689
-0.29463
0.14581
-0.23471
-0.04832
-0.25292
-0.04135
0.02938
-0.30429
0.08418
-0.10823
0.16767
-1.20009
0.03647
-0.09033
-0.11028
-0.13839
0.22259
0.17955
-0.49826
0.25875
0.03257
-0.00059
-0.33004
0.23270
-0.25641
-1.28547
-0.18792
-0.23878
0.07347
0.47651
-0.12547
0.21629
0.04015
0.04656
-0.09717
0.13380
-0.04616
0.14511
-0.43451
0.09283
-0.46065
0.27499
-0.01605
0.19961
-0.03504
-0.50915
0.15865
0.18098
0.02412
-0.20688
0.13944
-0.01948
0.12274
0.02147
-0.09490
-0.01427
-0.39480
-0.49070
0.04341
-0.55268
-0.08636
-0.71583
-0.59830
0.65045
0.02933
0.08184
-0.04120
-0.18431
0.15569
0.12213
-0.64205
0.18001
-0.01346
-0.03533
-0.08548
-0.08101
0.19947
0.01071
-0.19945
-0.04789
0.04657
0.14287
-0.32446
-0.60775
-0.00735
-0.09195
-0.52570
-0.50567
0.03597
0.16486
-0.20224
0.21848
0.18659
-0.00038
0.15039
-0.33841
-0.77289
0.03537
-0.12585
0.03257
-0.43499
-0.12654
-0.21732
-0.35980
0.11237
-0.73523
-0.02934
0.13258
0.21421
-0.06953
-0.28811
-0.47231
-0.37448
-0.22255
-0.07927
0.01519
0.05344
0.14332
0.04409
0.13639
0.12182
-0.05943
-0.05670
-0.15442
-0.39617
0.18979
0.12102
-0.36667
0.09928
0.06521
0.03988
-0.24556
-0.13696
-0.12294
-0.42436
-0.08829
-0.68109
0.20372
-0.47638
0.18234
0.15932
0.05204
0.16440
-0.23674
0.17085
-0.14096
-0.14012
0.15062
-0.73088
0.11567
-0.51039
-0.16348
0.30864
-0.34483
0.19125
-0.12602
-0.52412
0.03136
-0.16535
-0.24098
-0.44043
-0.24530
-0.05453
0.04108
0.02461
-0.36842
-0.23709
-0.22228
0.04844
0.20747
-0.94985
-0.60908
-0.21881
0.03378
0.16983
-0.04834
0.08818
-0.00279
-0.64294
-1.12599
-0.18517
-0.04932
0.34987
-0.26719
0.04514
-0.06264
-0.24915
0.14606
-0.48373
0.02484
-0.18288
0.08209
-0.26008
0.10908
-0.42706
-0.05964
0.15639
-0.21337
-0.19644
-0.29531
-0.11519
0.28527
-0.09647
-0.19983
-0.24251
0.19878
0.19327
-0.09604
-0.32421
-0.17734
-0.90733
-0.04103
0.12354
-0.05203
-0.31844
-0.48179
0.16937
-0.07599
-0.09118
0.17793
0.18165
-0.17695
-0.99445
0.26115
0.26964
-0.04995
-0.07670
-0.26014
0.02763
-0.40664
-0.21644
-0.02577
-0.12750
-0.33410
0.09247
-0.35365
-0.17587
0.07498
0.21465
0.16996
-0.03096
0.07949
-0.24895
-0.37949
-0.14236
0.20217
0.09887
-0.44364
0.17468
-0.07997
-0.20708
0.19943
-0.23670
0.18977
0.07498
-0.06066
-0.32797
-0.12088
-0.54295
0.14600
-0.14623
0.20831
-0.20291
-0.21668
0.04013
-0.44283
0.12181
0.12703
-0.03821
-0.47781
-0.14511
-0.01082
-0.25445
-0.04206
0.11514
0.19996
-0.19905
0.12862
0.40810
0.17679
0.06631
0.14732
-0.00086
0.10961
-0.43640
-0.19831
-0.02578
0.16519
-0.29034
0.02234
-0.20874
-0.15999
-0.04795
-0.22106
-0.58125
0.17863
-0.24339
-0.89348
0.22030
0.54113
-0.27074
-0.17011
0.02691
0.05587
0.18353
-0.17063
-0.24720
-0.40828
0.01323
0.25386
-0.02462
0.11940
-0.11261
0.15502
0.09427
0.17927
0.08444
0.18017
-0.03085
0.00769
-0.10409
0.07528
0.28002
0.12447
-0.64160
0.16028
-0.07552
-0.26132
0.07902
0.15337
-0.23373
0.28641
-0.02558
0.23693
-0.67374
-0.22389
0.12964
-0.11128
-0.34049
-0.09355
0.19258
-0.50960
-0.21463
0.15143
-0.50494
-0.05172
-0.52023
0.03446
-0.03249
0.04071
-0.10011
0.08654
0.13472
0.03759
-0.21210
-0.10608
-0.16643
-0.53145
-0.11822
-0.33573
0.21792
0.13846
0.14516
-0.32771
-0.27898
-0.69529
-0.50363
-0.18783
0.12494
-0.00497
-0.16504
-0.36119
-0.47987
-0.23323
0.10388
-0.08453
-0.07115
-0.10437
0.32498
0.07092
-0.02711
-0.71551
0.07545
0.00468
-0.05675
-0.27588
0.21891
0.26081
0.17146
0.04650
0.29877
0.02128
-0.29190
-0.60157
-0.05151
-0.09615
0.31703
0.14317
0.35214
0.05250
0.14592
-0.13247
-0.07012
-0.42163
-0.11943
0.14010
-0.42125
0.05345
-0.17228
-0.09524
0.09645
-0.09632
-0.16610
0.09985
0.27233
-0.38760
0.63740
-0.31417
-0.19961
0.14496
0.20337
-0.14724
-0.23314
-0.27015
-0.03507
-0.18513
0.13230
0.16321
-0.27660
-0.26995
0.08272
0.13539
-0.15262
0.20522
-0.04942
0.01794
-0.24398
0.16027
0.14454
-0.32717
0.10919
0.10749
-0.40316
-0.41884
-0.10956
-0.13286
0.20140
-0.13899
-0.08744
0.36668
0.16235
-0.51838
0.07433
-0.22387
-0.70617
-0.01975
-0.32062
-0.02375
-0.26365
0.16315
-0.22660
-0.17238
0.08178
-0.20797
-0.09842
0.03613
-0.46791
-0.41575
-0.09490
-0.30043
-0.61686
0.09866
0.14180
0.10923
-0.34929
0.09018
-0.40618
-0.39476
0.22535
-0.18855
0.12265
-0.27791
-0.66256
-0.51797
-0.06435
0.33364
0.13285
-0.10644
-0.00908
-0.10087
-0.32888
0.00942
0.02644
-0.46665
0.22615
-0.23798
0.28571
-0.53422
-0.27647
-0.07781
-0.24393
0.24114
-0.01979
-0.22707
0.01731
-0.10379
-0.29199
0.21801
-0.16269
0.12729
0.22303
-0.05961
-0.94974
-0.32034
0.18598
-0.42895
0.28626
-0.02776
-0.80500
0.11252
-0.26855
-0.24311
0.17757
0.38253
-0.12512
-0.73543
-0.60204
0.06802
-0.20197
0.07521
-0.38660
-0.06833
-0.09239
-0.25788
-0.12509
-0.52768
-0.11578
-0.18705
0.03226
0.20582
-0.08678
-0.23067
0.16343
-0.52621
0.39173
-0.14394
-0.23190
-0.15325
-0.43231
-0.02094
-0.35956
-0.06597
-0.00484
-0.18287
-0.79879
-0.54850
0.46287
-0.01470
-0.34764
-0.49831
-0.29323
-0.10444
0.18708
0.42114
0.05412
0.02135
-1.15531
-0.02193
-0.20270
0.21026
-0.18374
-0.15371
0.09995
-0.06123
-0.03640
0.18726
-0.27525
0.15520
-0.01192
0.15317
-0.37329
-0.22048
0.24299
0.16844
0.14936
0.17091
-0.05901
0.19551
-0.39722
-0.41813
0.01383
-0.31859
0.02640
0.04541
0.09843
0.10991
0.15122
-0.12055
-0.21249
-0.20796
0.21503
-0.19168
-0.79720
-0.35830
0.37955
-0.36054
0.16630
0.12142
-0.11408
0.11748
-0.05501
0.21729
-0.11128
0.12508
-0.82045
0.19979
-0.20780
-0.34381
0.01452
-0.40323
-0.00563
0.09394
0.10370
-0.07891
0.24071
-0.20801
-0.01008
-0.04521
-0.19738
-0.44926
0.24846
-0.08764
0.04833
-0.20910
0.04139
0.19238
0.09139
0.24882
-0.74072
-0.24382
-0.20854
-0.10594
-0.06508
-0.33009
-0.33282
-0.23215
-0.41729
0.23477
0.03713
0.01156
0.26804
0.12883
-0.77667
0.00719
-1.18220
0.00165
-0.11428
-0.08777
-0.19664
-0.16783
-0.69597
-0.06570
0.12544
0.00787
-0.22138
0.40670
-0.41163
0.26784
0.35543
-0.69814
0.07907
0.21528
0.06722
-0.22204
-0.10971
0.20138
-0.61805
-0.33390
0.05354
0.08318
-0.30681
0.10518
-0.04319
-0.17316
-0.57351
-0.36131
-0.24685
0.17447
-0.31389
-0.03817
-0.21377
0.00687
-0.23593
-1.06789
0.18050
0.30026
-0.18000
-0.16569
-0.26921
0.04597
-0.18922
-0.96839
0.05293
0.13632
-0.27587
0.21910
-0.07970
0.16495
-0.24947
-1.17626
0.19638
-0.02556
0.29508
0.12237
0.25881
0.25949
0.05461
0.06191
0.16922
0.32690
0.19845
0.18393
0.17566
-0.25456
0.01543
-0.06123
0.12285
-0.26406
-0.84010
0.01217
0.07374
0.49551
-0.43981
-0.48504
-0.09068
-0.07353
-0.07215
0.15843
0.35034
-0.43852
0.15189
-0.09486
0.16974
-0.23511
-0.06997
-0.07853
-0.27602
0.11169
0.03426
0.13226
-0.21949
0.12268
0.08147
-0.32741
-0.28420
0.05898
-0.00682
0.14413
-0.09921
0.04210
-0.80578
-0.10783
-0.45478
0.26723
-0.34872
-0.04771
-0.28901
0.18150
0.19115
-0.08057
-0.60824
-0.22725
-0.06563
-0.22785
-0.21196
0.14156
0.00565
0.15071
0.00923
0.14080
-0.11973
0.08383
0.21474
0.33984
0.25777
0.19899
-0.12893
-0.13408
-0.10739
-0.02519
0.19338
-0.74058
-0.45343
0.05274
-0.02049
-0.06194
-0.32774
-0.40955
-0.16618
-0.27116
0.07159
0.17023
-0.34817
-0.19641
0.48253
0.12956
0.20285
0.25648
0.17023
0.06085
-0.16236
0.15874
-0.01280
0.16323
0.04033
-0.47908
0.06356
0.06359
0.20956
0.05056
-0.52857
0.11824
0.14408
0.33994
-0.02816
-0.73220
0.10808
-0.18364
0.00529
-0.06358
-0.24013
-0.14550
-0.47925
0.09001
-0.11792
-0.27364
0.20715
-0.05494
0.05894
0.06219
0.17771
0.07080
-0.15830
-0.24764
0.03927
-0.00434
-0.79619
0.10419
-0.29868
-0.48000
-0.17156
-0.30200
-0.03880
-0.00356
0.04648
-0.02878
0.10891
-0.01497
-0.29643
-0.00714
-0.38770
0.17451
0.12300
0.21282
-0.27928
0.08995
-0.40636
-0.17702
0.17688
-0.60640
0.16180
0.13211
-0.26054
-0.64664
-0.09639
0.22290
-0.20483
0.34726
0.08443
-0.12757
0.01656
-0.40609
0.21825
0.08930
-0.32924
0.10473
-0.27746
0.14510
-0.28254
0.12181
-0.19496
-0.18117
0.16203
-1.03231
0.25798
-0.42076
-0.16664
-0.10512
-0.56896
0.19818
0.55424
-0.02675
-0.74360
0.24644
-0.36504
0.33405
-0.17218
-0.15878
0.05350
0.17476
0.16175
-0.38721
-0.04806
0.06990
0.19301
-0.62086
0.02591
-1.09392
0.18643
0.04141
-0.34009
0.14573
-0.79631
-0.54566
0.03728
-0.54084
0.19296
0.32792
0.32475
-0.47409
-0.04727
0.11409
-0.43751
-0.03103
-0.30797
0.05689
-0.01918
-0.17426
-0.01322
-0.09355
-0.71897
0.01439
0.13894
0.27374
-0.28542
0.02206
0.07734
0.15814
-0.36362
-0.26119
-0.27656
-0.03947
-0.28705
0.01007
-0.32402
-0.41957
0.00119
0.17895
0.20368
-0.30637
-0.60467
0.16898
-0.20430
0.25765
-0.18538
-0.19827
0.22169
-0.17640
0.41669
0.27505
-0.41051
0.48268
0.26233
0.17900
-0.28925
-0.33682
0.23588
0.29607
0.10596
0.40515
0.58353
0.06006
-0.24273
0.38018
0.21017
0.03962
0.21148
0.37907
0.36020
0.15954
0.18352
-1.09784
0.59023
0.56675
0.21441
0.20524
-0.05525
0.30505
0.22737
0.04033
-0.13597
-1.08206
0.25124
0.36503
0.35417
0.28855
-0.35067
-0.29260
-0.25967
0.07569
0.43271
0.37632
0.35400
0.44836
0.25409
-0.48130
0.25338
0.18808
-1.11140
0.35274
0.24847
0.30036
0.04742
0.37667
0.20906
0.24191
0.20662
0.22404
0.09610
0.42698
0.32196
0.17974
0.26383
-0.11444
0.55118
0.20809
-0.30076
0.18596
0.20479
-0.08422
0.09530
0.40626
0.00266
-0.00594
0.07253
0.21010
0.12429
-0.49149
0.69292
0.06660
0.35190
-0.33665
0.14554
-0.08809
0.08920
0.22044
-0.06561
0.55232
0.24814
-0.70850
-0.97489
0.02937
0.11791
-0.63382
0.07285
0.07173
-0.36995
-0.37079
0.12611
-0.27631
0.02232
0.24557
-0.45327
0.62217
0.20551
0.02947
0.24581
0.11642
0.78925
-0.31855
0.44963
-0.54186
-0.00935
0.25715
-1.14369
-1.50317
-0.41934
-1.74049
-1.01245
0.34374
-0.99084
0.26568
0.50691
-0.06912
0.37569
0.25759
0.31306
0.35784
0.33862
0.25710
0.43937
0.39934
0.20675
0.42828
0.14736
0.04196
0.57971
0.13218
-0.53969
0.02074
0.18425
0.01216
0.35825
0.17427
0.34579
0.38529
0.12021
-0.25903
0.29071
0.38957
0.70137
0.52205
0.14911
-0.45172
0.60642
0.35223
-0.02256
-0.06143
0.10345
0.25821
-0.35099
-0.07151
0.02412
0.76781
0.41065
-0.42892
-0.24420
0.34391
0.33360
0.29729
0.51389
0.35990
0.20951
-0.15678
0.09519
0.08176
0.09428
0.05387
0.27689
0.37025
0.05557
0.50973
0.40298
0.28736
0.06154
-0.01439
0.32095
0.34854
-0.43485
-0.13343
0.17261
0.34592
-0.71114
0.25510
-0.25379
-0.38270
0.19055
0.00177
0.24660
0.06040
0.18619
-1.03298
-0.96013
0.30384
0.02002
-0.36465
0.38825
0.03787
0.17237
0.42638
0.10712
0.16275
0.06812
-0.37424
-0.18165
0.05932
0.22902
0.22864
0.27978
-0.09358
0.30348
0.25976
-0.02175
0.12049
0.33330
-0.09757
-0.07154
-0.43469
0.03656
0.23170
-0.21768
-0.09483
0.30986
0.69023
0.15005
0.14362
-0.45826
-1.04067
0.15094
0.12034
0.47782
-0.07745
0.15814
-0.29794
0.08942
0.37510
0.09001
-0.68378
0.33675
0.27613
0.36285
-0.32793
-1.06794
0.39135
-0.79294
0.02687
0.18995
-0.02368
0.15994
0.14105
-0.58761
-0.23962
0.77846
0.08215
-0.00823
0.41790
0.10328
0.55220
0.39824
0.66831
0.07982
-0.56652
-0.77969
0.30701
0.15136
-0.22894
0.33342
0.03983
-1.39085
0.24900
-0.28911
-0.09098
0.24616
0.28792
0.54317
0.19187
-0.76253
-0.39401
-0.65403
-0.40709
0.08452
0.05630
-1.04554
-0.30135
0.19510
-0.45701
0.11294
0.22095
-0.64177
0.37157
-0.09380
0.00436
-0.25545
0.16225
0.07245
0.37258
0.05936
-0.72349
-0.49245
-0.11929
0.25234
0.38603
-0.19618
-1.03099
0.49870
0.38996
0.39295
0.42553
-0.32178
-0.70972
0.39008
-0.35586
0.09345
0.17333
0.41478
0.33642
-0.16087
0.44882
0.36078
0.12490
0.40268
0.12922
0.24669
0.15718
-0.66519
-0.32536
0.37758
-0.08944
0.17448
-0.23251
0.18004
0.29362
0.40345
0.23574
0.42431
0.40033
0.17739
-0.83992
0.09504
0.36686
0.26837
-0.04551
-0.49638
0.24806
0.65394
0.39314
0.13154
-0.30580
-0.35790
0.42808
0.37197
-0.36729
0.11437
0.09572
-0.36945
-0.53011
0.16852
-0.18368
0.20639
0.52692
0.28791
-0.29820
-0.32543
0.16647
0.08219
0.50784
0.76934
0.46063
0.24639
-0.25006
-1.15938
0.11623
0.21596
-0.44383
0.44315
0.43165
-0.06478
-0.02509
-0.28518
-0.01511
-0.34807
0.48773
0.14969
0.16307
0.10982
-0.21884
0.52126
-0.42293
-0.63503
0.27717
0.02215
-0.57363
0.28750
0.32578
-0.40020
0.00387
0.04527
-0.51559
-0.29353
-0.67397
-0.00663
-0.42901
-0.45709
0.29821
-0.21389
0.15564
0.05206
-0.00377
0.07755
-0.54377
0.18430
0.07278
0.12398
0.07385
-0.79549
0.34644
0.17974
0.35248
0.28211
0.00121
0.33854
0.30295
0.47016
-0.61367
0.23199
0.64611
0.72523
0.15553
0.38662
0.29337
0.19750
-0.12297
0.25224
0.30859
-0.07503
-0.10208
-0.55085
0.26388
0.26007
0.40439
-0.26213
0.11450
0.37614
-0.24275
0.07487
0.23752
-0.73091
0.19634
0.26867
0.30857
0.25564
-0.24012
-0.03149
0.21666
-0.29345
-0.09040
0.14029
0.17431
0.30503
-0.42364
0.32076
0.30417
0.09707
0.30018
0.44027
-0.88187
0.40984
-0.06873
0.27284
0.24420
0.33072
0.22358
0.21161
-0.11363
0.34293
-0.41692
-0.33388
0.74364
0.03997
0.68289
0.02809
0.05326
0.68038
0.71601
0.35828
0.12919
-0.40313
0.19489
-0.44821
0.25670
-0.10622
0.11632
0.30080
0.06474
0.28147
0.55955
0.30854
0.38161
-0.44155
0.04999
-0.14110
0.30429
0.17622
0.33873
0.39697
-0.06036
0.45665
-0.45195
0.40283
-0.24618
-0.12005
-0.36679
0.36767
0.13802
0.22709
0.26710
0.29702
0.05462
0.45660
0.49920
0.06947
0.30856
0.65505
-0.23941
0.60278
0.52698
0.09231
0.46770
0.32880
0.09385
0.37843
0.06246
0.63440
0.44513
0.35703
0.12033
-0.28857
0.33172
-0.10071
0.45514
-1.57205
0.24889
-0.16240
-0.05013
0.47432
0.52282
-0.18969
-0.62175
0.09167
0.08264
0.09732
0.06099
-0.21023
0.35824
-1.08214
-0.36387
0.40707
0.44255
-0.41204
0.22623
0.19795
0.18549
0.18412
-0.43155
0.04470
0.15950
-0.31208
0.14442
0.17064
0.44279
0.03074
0.03435
0.62127
-0.07469
-0.45329
-0.29098
0.42392
0.01744
-0.37610
0.51384
-0.72066
0.35047
0.32378
0.26927
-0.02748
0.19263
-0.24141
0.32153
-0.39346
0.21915
0.17972
0.25150
-0.14831
0.27510
0.11466
0.12860
0.33125
0.12780
-0.78838
-0.57683
0.76693
0.08222
0.24399
0.30064
-0.09665
0.43997
0.18856
0.42421
-0.62279
-0.52051
0.18998
0.41347
0.39426
0.42177
-0.82970
0.06110
-0.68659
0.22597
0.12272
0.08681
-0.80658
-0.28281
0.33575
-0.39637
-0.39899
0.22527
0.27529
0.12265
0.08247
-0.27322
0.25016
-0.05603
-0.45467
-0.26377
0.55831
-1.24608
0.34592
0.18467
-0.20637
-0.73016
0.16433
-0.38687
0.31056
0.78612
-0.12855
0.08304
0.14756
-0.16805
0.08699
-0.29830
0.03001
0.15853
0.25081
0.41989
0.36739
0.39491
0.18250
0.21540
0.39251
-0.35166
0.17913
0.36203
0.31307
0.30361
-0.25811
0.07739
-0.18292
0.21817
-0.93246
0.77325
0.29787
0.36338
0.02801
-0.13335
0.25313
0.15354
-0.33862
0.21839
-0.19816
0.71083
0.07780
0.41890
0.35654
0.55474
-0.66503
0.76163
0.16082
0.10742
0.53347
0.28309
0.49477
-0.19181
0.08099
0.25684
-0.02331
0.28816
-0.31354
0.30617
0.24097
0.12709
0.44035
0.26990
0.16044
-0.30988
-0.43325
-0.69282
0.46287
0.03045
-0.31428
0.28926
-0.35851
-0.67248
0.16305
-0.13054
0.06907
-0.15686
0.16815
0.26735
-0.32080
0.22878
-1.30549
0.07847
0.78457
-0.00223
0.64627
0.17983
0.53663
-1.14094
-0.08546
-0.89214
0.14472
-0.42224
-0.09417
0.36161
-0.50871
0.13790
-0.29687
0.43981
-1.29572
0.71657
0.21665
0.40453
0.42360
-0.96817
-0.31170
0.37411
0.04902
-0.40836
0.42262
0.27980
0.36601
0.76531
0.11849
-0.62163
-0.61670
-0.34615
0.46179
0.45606
0.28298
-0.35869
0.39093
-0.02263
0.21348
0.69833
0.39054
0.60164
0.29140
0.13131
0.47696
-0.01206
0.27996
-0.46639
0.21077
0.31226
0.13008
0.20745
-0.91078
0.13884
-0.53342
0.01344
0.15029
-0.24194
0.24149
0.35663
0.14086
0.16812
-0.00812
-0.07408
0.35747
0.02279
0.37266
-0.36335
0.19921
0.39126
0.09361
0.13784
0.42388
-1.08382
0.40022
0.35687
-1.04937
-0.03102
0.32904
-1.14752
-0.34998
0.17169
0.36718
-0.22238
0.07413
0.28112
0.56989
0.45417
-0.71777
0.06159
-0.52862
-0.01551
0.39188
0.06500
0.03092
-0.90002
-0.23055
-0.30413
0.45042
-0.03467
0.53923
0.06213
-0.80977
0.32012
0.24831
0.24582
-0.42613
-1.15441
-0.67708
-0.91308
0.41889
-0.09712
-0.29367
0.33301
0.42362
0.22427
0.18940
-0.38977
0.23340
0.14538
0.40366
0.61412
0.30771
0.13947
0.29356
-0.17331
0.23842
0.36551
0.40514
-0.13617
-0.26528
0.46713
0.62337
0.45388
-0.01072
0.40816
-1.22073
0.02517
0.41649
0.22433
0.12916
0.17190
-1.25393
-0.40665
-0.07837
0.17090
0.82018
0.38594
-0.03206
-0.89576
0.22879
0.08280
0.40098
0.31309
0.28266
0.10099
-0.90498
0.14371
0.35074
-0.09631
0.28574
-0.27153
-0.61995
-0.33715
0.11550
0.52411
0.18392
0.28240
-0.22735
0.09093
-1.14487
-0.44313
0.14923
0.13839
0.43285
0.26549
0.42670
0.16931
0.09317
-0.02993
0.10253
0.12332
0.10286
0.05981
0.24677
0.04121
0.13100
0.37611
0.34345
0.11322
0.18472
-0.26001
-0.25996
-1.43550
-0.19259
0.41542
0.47472
0.09074
0.17018
0.04978
0.25201
0.31202
0.16947
0.25745
-0.12753
0.65295
0.22257
0.16138
0.13812
0.25600
0.13444
0.02188
0.08604
0.23859
0.10293
0.09198
0.33604
0.36585
0.29603
0.47727
0.03649
0.32483
0.11563
-0.20938
0.09495
-0.01533
0.30900
0.17899
-0.23940
0.44415
-0.36274
0.10878
0.56931
0.40080
-0.11710
0.45684
0.23647
-0.88621
0.01705
0.14711
0.42223
0.30641
0.32647
0.10629
0.10868
0.30394
0.18745
-0.41712
0.44415
-0.84561
0.26712
-0.10723
0.41813
-0.05783
-0.28547
-0.05364
-1.03136
0.24936
0.77353
0.36231
0.38944
-0.07773
-0.00801
-0.23253
0.19324
-0.03557
0.14191
0.33925
-0.45184
0.10914
0.40954
0.39909
0.25821
-0.17202
-0.01872
0.63051
0.06140
0.44829
0.15085
0.36684
0.31268
0.08314
-0.76583
0.46722
0.55665
0.23372
0.27342
-0.04051
0.13942
0.30777
0.40882
0.04607
-0.18283
0.13363
0.35428
0.29078
0.35837
0.77683
0.67609
0.04325
0.17713
-0.66583
0.47642
0.16300
0.41842
-0.59877
0.15478
0.26826
0.19110
0.06161
-0.16495
0.21179
0.43521
0.53214
0.73019
-0.53157
0.34470
-0.44042
0.61624
-0.01239
-0.32270
0.32854
0.52880
0.14248
0.37480
-0.02906
-0.67427
-0.12929
-0.32217
-0.18837
0.27618
0.03742
0.37931
0.33817
0.36931
0.35655
0.15858
-0.29233
0.31507
0.28105
0.20746
-0.35491
0.12988
-0.43950
-0.00834
0.20967
0.33340
0.30385
0.49214
-0.17085
0.48604
0.31507
-0.61652
-0.08995
0.35774
0.31214
-0.48850
0.24966
-0.16654
0.18666
-0.95336
0.35950
0.36979
0.26019
0.22135
0.18519
0.16226
0.00819
0.50412
0.24142
-0.01074
0.24445
0.52368
-0.74274
-0.10325
0.43598
0.33526
-0.26635
0.17055
0.16331
0.06593
0.03581
0.41518
0.26027
0.13680
0.33614
-0.29920
0.33782
0.06135
0.32575
0.79773
0.14978
0.12441
-0.61687
-0.04876
0.32615
-0.21504
0.30952
-0.31691
0.73820
0.33222
0.45979
0.09842
-0.13215
0.34429
0.10657
-0.30584
0.29288
0.12103
0.28525
0.47019
-0.55320
0.21899
0.25378
0.15855
0.10986
0.22623
-0.66855
0.66188
0.47340
-0.06396
-0.65899
-0.24802
0.33137
0.05052
0.12720
-0.83588
-0.55428
0.38990
0.71130
-0.78121
-0.55918
-0.00566
0.57588
0.31256
0.21579
0.15448
0.03179
-0.43270
0.51571
0.31623
-1.06993
0.39729
0.12792
0.33425
-0.99015
0.57570
-0.13793
0.06731
0.11804
0.08463
0.07912
0.61503
0.46328
0.34476
-0.36088
-0.14877
0.10807
0.44613
0.49893
0.20117
0.71625
0.24555
0.24956
0.60150
0.21148
0.17247
-1.14594
0.37311
0.29074
-0.43027
-0.73566
-0.23138
0.22310
0.33546
0.19728
-0.74568
0.36571
-0.48694
-1.22898
0.12931
-0.14979
0.38046
0.20727
0.48477
0.44611
0.38662
0.16745
-0.28055
0.10803
0.64938
-0.01154
-0.37873
-0.11605
0.20469
0.39174
0.30512
-0.50983
0.57147
0.66120
0.34299
0.04800
0.26865
0.21659
0.39657
0.32725
0.14101
-0.50639
-0.01584
-0.27798
0.44849
-0.00032
-1.39010
-0.92003
-0.41758
0.20499
-0.75425
-0.54287
0.42831
0.04918
0.10612
-0.22015
-1.25061
-0.09936
0.50254
0.11266
0.21838
-0.08879
0.21180
0.48360
0.29312
0.21405
0.21726
0.08543
0.29244
0.16629
0.21984
0.05175
-0.80702
0.17776
-0.38092
-0.58945
0.19006
0.71496
-0.51545
0.33089
0.33446
0.33070
0.28357
0.32390
0.20441
0.14450
-0.05124
-0.96299
0.13921
0.16408
0.31376
0.30149
-0.11810
0.19236
-0.31574
-0.38742
-0.31892
0.13144
-0.18898
-0.39744
0.30969
-0.95664
0.18014
0.11654
0.23968
-0.09444
0.24282
0.22172
0.34504
-0.34950
-0.00894
-0.17580
-0.61969
-0.04711
0.12816
0.29977
-0.03016
0.43865
-0.52014
0.59328
-0.24156
0.20748
0.80163
0.27595
-0.33243
0.09494
-0.15972
0.29641
0.76130
0.58870
0.17442
0.26448
0.45768
0.47943
0.26770
-0.43777
0.29363
0.36836
-0.54792
-1.84794
0.06477
-0.27214
0.34186
0.23405
0.54110
0.27511
0.41907
0.13670
-0.26233
-0.25036
-0.23509
0.14231
0.30565
0.12097
-0.03206
0.01001
0.39893
0.34101
-0.90342
-1.00512
-0.35757
0.49161
0.09492
0.47134
0.12802
-0.49658
0.24297
-0.76461
0.29361
0.04112
0.48560
0.13828
0.07725
0.29219
0.03847
0.28805
-0.45579
0.17338
0.78836
0.17573
0.29925
-0.65914
-0.37968
0.35761
-0.40298
0.39967
0.41910
0.62916
0.29023
0.25596
0.26339
0.32222
-0.07765
-0.29952
0.10545
0.08777
-0.17273
-0.44670
0.03108
0.18910
0.18720
0.23871
0.77055
-0.31177
-0.28125
0.35396
0.23546
0.05183
-0.23381
-0.01392
0.34579
-1.30143
0.07191
0.29830
0.29084
0.19201
0.34798
-0.21202
-0.58985
-0.74628
-0.40486
-0.12555
0.24885
-0.25438
0.25476
-0.33113
0.02707
-0.22664
-0.10039
-0.04397
-0.31337
0.03220
-0.23686
0.31388
-0.07977
-0.12354
0.30078
0.24877
0.51429
0.33860
0.42436
-0.85032
-0.57814
-0.69964
-0.06202
-0.78405
0.30160
0.19582
0.21136
-0.59466
0.20528
-0.36175
-0.21308
-0.17563
-0.34086
-0.34567
0.25508
0.40122
0.18237
-0.05239
-0.30830
-0.78773
0.76841
0.18599
0.41309
0.35118
0.46714
0.36134
0.32293
0.30857
0.43820
0.04781
-0.50336
-0.34505
-0.32372
0.35030
0.35479
0.33417
-0.33446
0.78740
0.24656
-0.30535
0.12837
-0.15121
0.08075
0.19531
0.79596
-0.04261
0.40991
0.23611
0.49264
0.75026
-0.28263
0.50781
0.08228
0.04961
-0.02328
-0.21403
0.29180
-0.34370
0.15737
0.24735
-0.37290
0.24870
0.17381
0.47133
0.15270
0.20027
0.11494
0.34043
0.36613
0.00710
0.20511
0.18557
0.20414
0.16656
0.79003
0.24960
0.25613
0.11650
0.12538
-0.44818
0.14867
-0.34231
0.13768
0.10149
0.49669
0.05425
0.52208
-0.16645
-0.21932
0.06721
0.15015
0.05040
0.09050
0.37020
0.18634
0.43397
0.18945
0.17300
0.09831
-0.15495
-0.66230
0.06573
0.70115
0.32425
0.15971
-0.05311
-0.39597
0.10994
0.03572
-0.03249
0.53573
-0.24353
0.59980
-0.12996
0.61657
0.13767
-0.08336
0.13507
0.21630
0.09076
0.29306
0.30150
0.18989
0.27085
0.28025
0.16738
-0.81759
0.16300
-0.17910
0.39075
0.58397
0.04629
0.23613
0.36649
0.42974
0.39735
0.64115
0.58647
0.38462
0.24614
0.28190
0.36029
-0.26627
-0.28112
0.34805
0.19009
-0.05753
0.19874
-0.55668
0.09680
0.17065
0.21696
0.22779
-1.01369
-0.05493
-0.96144
0.44725
0.25845
-0.28899
-0.32530
0.02047
0.02499
0.49208
0.00328
0.47294
0.29847
0.10516
0.11174
0.40366
-0.67975
0.40710
-1.59922
0.21500
0.31781
0.37321
0.42499
0.42164
-0.41112
0.41050
0.14361
0.26753
0.08224
0.35938
0.24452
0.33010
0.29825
0.41841
0.06965
0.18983
-0.28398
0.19946
0.20830
0.22490
-0.44088
0.40481
0.04739
-0.07090
-0.61401
-0.34441
0.00981
0.27083
0.18911
-0.06299
0.22091
0.21568
0.17553
0.11479
0.21361
0.18109
0.53373
0.47196
0.32257
0.46582
-0.66244
-1.46883
-0.14913
0.13438
-0.26744
0.29559
-0.30115
-0.09736
0.21436
-0.13910
-0.15200
0.27595
0.25534
-0.25922
-0.08979
0.18696
-0.08639
0.37151
0.19303
-0.14700
0.22404
0.17374
0.23525
0.08319
-0.94055
0.23617
-0.40972
0.02670
-0.23586
0.52678
0.10868
-0.52374
0.18681
-0.07362
-0.02362
-1.16627
0.06512
0.69446
0.37947
-0.40536
-0.62579
0.24467
-0.69639
0.21254
0.04490
0.29337
0.10128
0.18397
0.35672
0.04968
0.16251
-0.04949
0.39033
-0.60628
-0.89941
-0.01980
0.29665
-0.10755
0.21986
-0.67275
0.36554
0.34675
0.26388
0.27009
0.08014
0.18821
0.37615
0.20763
0.49847
0.42858
0.22666
0.40666
0.24293
0.11521
-0.09482
-0.33086
0.13529
0.05846
0.54740
0.09333
0.22837
0.20031
0.21416
0.15757
0.22583
-0.13896
-0.49134
0.59464
0.12346
-0.59206
0.04447
-0.44865
0.19145
-1.09914
0.15776
0.07155
0.13602
0.15850
-0.44848
-0.10337
-0.23173
0.36124
-0.17984
-0.83234
0.14880
0.17569
-0.00048
0.42828
-0.71762
0.62428
0.55295
0.08837
0.13021
0.13966
-0.36233
0.15870
0.40177
0.41510
0.09140
-0.64926
0.01823
0.21636
0.04017
-0.09102
0.52818
0.46381
-0.01256
0.18682
-0.31420
0.77833
0.30774
0.74610
0.70440
0.23577
0.38277
0.36425
0.39722
0.26101
0.09433
0.13663
0.04522
0.15021
0.42960
-0.04776
0.29864
0.16352
0.42469
0.44298
0.07503
0.09916
-0.32748
0.00878
0.19522
0.25840
0.30033
0.12937
0.79536
0.43076
0.15377
0.13788
-0.01147
0.18826
0.25619
-0.00618
-0.98431
0.49851
0.17126
-0.44754
-0.34741
0.19889
0.53590
0.17092
-0.07093
0.18935
0.36006
0.26203
-0.85083
0.11320
-0.39846
0.16621
0.03347
-0.66784
0.33726
-0.02425
0.76668
-0.87637
-0.57808
-0.11324
-0.40080
0.14012
0.20022
-0.29195
-0.09190
-1.39578
0.14713
0.23886
-0.01998
-0.03592
-0.65327
0.27596
-0.80178
0.07789
0.21550
-0.69432
-0.20394
0.06683
0.42541
-0.24155
0.22029
0.13347
0.20899
0.11071
-0.30755
-0.03469
-0.27540
-0.48895
0.08467
-1.11881
-0.35944
0.14834
0.22934
0.19402
0.42123
-1.20238
0.41199
0.10292
0.02013
-0.97325
-0.39999
0.15982
0.20900
0.22537
0.05198
0.60498
-0.41159
0.30700
0.59346
0.13691
0.53758
0.11750
0.04518
0.42246
-0.17053
0.45263
0.21082
0.29502
0.28947
-0.41718
-0.00403
-0.37016
0.12355
0.13756
0.57083
0.57159
0.79457
-0.52806
-0.53674
0.27299
-0.61402
0.48826
-0.01827
0.33086
0.09038
0.45407
0.13877
-1.01335
-0.04667
0.73869
-1.09278
0.46958
-0.22414
0.30342
0.36599
0.81538
0.12696
0.09990
-0.30250
0.00866
0.08652
0.15062
0.02699
-0.58093
0.43122
0.14677
0.14967
0.83107
-0.51183
-0.10706
0.51850
0.06940
-0.04201
0.53860
-0.10237
0.76858
-0.42750
0.02256
0.39009
0.09519
-0.57189
-0.51831
-0.57503
0.84472
0.16359
0.20860
-0.52580
0.15756
0.10885
0.05341
0.33950
0.40285
-0.48914
-0.27190
0.06347
0.01154
0.22481
-0.07016
-0.60225
0.22668
-0.18664
0.26714
0.28709
-0.00923
-0.63912
0.07854
0.35412
0.02640
0.20946
0.07339
0.34162
-0.98332
0.26345
-0.02254
-0.07493
-0.02755
0.02963
0.37819
-0.02044
-0.07850
0.27375
0.04985
0.30476
0.17868
0.24357
0.42764
-0.45356
0.40674
0.16557
0.28668
0.19449
0.10707
0.22941
-0.69486
0.18981
0.10277
-0.17354
0.19499
-0.18527
0.03008
-0.20110
0.00217
-0.19463
0.04045
0.24077
-0.69307
0.31945
-0.75830
0.15000
0.11994
-1.09214
0.04710
0.24282
0.29807
0.32944
-0.12362
-0.45735
-0.10305
0.15239
-0.06684
0.08060
0.13581
0.21912
0.23298
0.44366
0.39978
-0.13420
0.09381
0.21163
0.38174
0.37205
0.03456
-0.23466
0.18206
0.22799
-0.17628
-0.16872
0.15668
-0.96713
0.32312
0.04491
0.49321
0.01339
-0.58049
0.15602
-0.83240
0.14059
0.14822
-0.48665
-0.44833
0.50711
-0.80088
0.22883
-1.03957
0.77869
-0.04739
0.19553
0.38864
0.27029
0.31537
0.27465
0.42802
0.24512
-0.29023
-0.22344
0.29532
-0.26121
0.26734
0.00671
-0.01882
-0.17003
0.12002
0.22514
0.15522
-0.72078
0.18885
-0.61303
-0.16373
-0.17472
-0.10396
0.26681
-0.24228
0.15152
-0.32227
0.52930
0.09946
0.25646
-0.32283
0.37332
0.30983
-0.34161
0.03277
0.41997
-0.69054
0.57337
0.02594
-0.06130
0.11326
-0.14589
0.18862
0.31444
-0.70167
-0.09456
-0.31435
0.52853
-0.25156
0.11403
0.00183
-0.43092
0.45417
0.03001
-0.17629
-0.07494
0.16713
-0.10934
0.11615
-0.45979
-0.62263
0.33123
-0.20460
0.59293
-0.62651
-0.00283
-0.13589
0.25404
0.31563
0.19477
0.70570
0.26473
-0.61625
-0.18591
-0.06889
0.18490
0.13283
0.17188
0.43883
-0.47160
-0.45534
0.43607
0.15271
0.13669
0.15090
-0.31854
0.00771
-0.62372
-1.40486
0.29888
0.04813
-0.08056
-0.00729
-0.38427
0.27346
0.56257
-0.45085
0.45482
0.30173
0.45889
0.47314
-0.04246
0.12728
-0.21246
-0.47413
0.32822
0.29159
0.34190
0.24735
-0.16251
0.37648
0.31288
0.30623
-0.34931
-0.59943
0.25793
0.52667
0.46199
0.08700
0.66930
0.04693
-0.03808
-0.27360
0.54555
-0.00395
0.19538
0.08907
0.05295
0.44612
0.14712
0.78512
0.35186
0.21911
0.71800
0.32189
0.70637
-0.08532
-0.07040
0.36076
0.13469
-0.46019
-0.23611
0.12530
0.51348
0.28525
-0.18998
-0.43602
-0.09869
0.23690
0.24719
0.19779
-0.08746
-0.00016
-0.89611
0.42060
0.39713
-0.14400
-0.03977
0.05760
0.09379
0.18806
-0.94028
0.57878
0.30614
-0.12369
0.25310
-0.15613
0.50151
0.30970
0.10963
0.14870
0.23482
-0.09419
0.45396
0.04080
0.03998
0.44785
0.72329
0.25878
0.19072
0.36759
0.35135
0.05205
0.11777
-0.64827
0.23006
0.24116
0.34738
-0.14608
-0.13774
-0.35666
0.00514
0.41385
0.80331
0.17855
0.08559
-0.29567
0.04005
0.69288
-0.51288
-0.43623
0.27015
-0.30870
0.46766
-0.09063
0.27138
-0.43900
-0.35493
0.17795
-0.44888
-0.06508
0.34988
0.28098
0.14066
-1.12424
-0.06915
0.25261
0.16099
-0.46666
0.38987
0.12793
0.57441
0.18237
0.37084
0.43697
0.26604
-0.48567
0.27214
0.33630
-0.33451
0.41872
0.20836
0.18855
-0.24022
0.21604
-0.07561
0.11703
-0.14484
0.13182
-0.09043
0.17345
0.08185
0.02265
-0.91098
0.10289
-0.20509
0.43871
0.43770
0.26489
0.37104
-0.37988
0.51948
0.01427
0.31221
-0.01327
-0.84753
0.44366
0.33235
-0.29105
0.12694
-0.33488
-0.38037
0.26339
0.15160
0.41789
-0.87422
0.20785
-0.54484
-0.29593
0.06817
0.16119
0.11774
0.09041
0.18408
0.01651
-0.25536
-0.45505
0.02543
0.40223
0.34291
0.24739
0.01487
-0.04293
0.11672
-0.81861
-0.39583
-0.35173
0.08208
-0.07432
0.04353
0.40842
-0.74997
-0.54806
0.37938
0.30937
0.35800
0.40314
0.00594
0.39063
0.19821
-0.36231
0.13881
-0.25226
-1.22444
0.10390
-0.60389
0.47301
0.16468
-0.76286
0.35446
-0.29282
-0.30790
-0.37701
-0.05184
0.10074
-0.49837
-0.18698
0.28309
0.28925
0.38840
-0.90913
0.23054
0.31774
0.26442
-0.20698
0.56019
-0.02015
-0.08423
-0.85084
0.36113
0.18564
0.55197
-1.27243
-1.31862
0.29320
-0.24646
-0.29950
0.27553
0.24689
0.22208
-0.19115
-0.36138
0.33863
-0.55517
0.39544
0.22754
0.37244
0.01123
-0.27391
0.24309
0.24467
0.38486
0.30159
0.08928
0.25873
-0.19474
-0.56122
-0.46228
0.24696
0.08623
0.41329
-0.04792
0.02493
0.27034
0.25507
-0.57200
-0.29410
-0.54000
0.40170
-0.75382
-0.16861
0.37998
0.51154
0.14565
0.14895
-0.17881
0.06106
0.31493
0.31358
0.22165
0.65511
0.45418
0.16460
0.06638
0.25149
0.38626
-0.65921
0.23138
0.18400
-0.76623
0.42147
-0.42766
-0.19043
0.31606
-0.43977
0.09482
-0.25780
0.43583
-0.36020
-0.02183
-0.40874
0.62480
0.13400
-1.65038
0.44501
0.24148
0.32157
-1.00603
0.17124
0.21781
-0.73175
0.21162
0.30566
-0.77322
-0.72009
0.30733
-0.53678
0.37503
0.33018
-0.18938
-0.51931
0.28579
0.45085
0.03005
-0.83652
0.25131
0.10155
0.41364
0.55292
0.14563
-1.71703
0.23934
0.47364
-0.75956
-0.62124
0.53916
-0.08308
0.14901
-0.84711
0.16062
-0.99764
0.07223
0.09373
-0.09428
-0.31524
0.38970
0.43422
0.49655
0.33951
-0.10540
0.69794
0.24536
-0.32723
0.16827
-0.23550
0.10872
0.37127
-0.26262
-0.20935
0.20020
-0.74815
0.10962
0.47123
0.30793
0.35949
-0.40638
0.49302
-0.43045
0.00805
-0.07433
0.23306
0.41111
0.22393
0.27949
0.35887
-1.15222
-0.13529
0.09638
0.15643
-0.66370
0.11500
0.20503
-0.07183
0.27773
0.23361
0.45634
-0.63957
-1.17724
-0.38978
0.46352
0.18669
0.33798
-0.40926
0.38060
0.40067
0.02985
-0.71390
0.33441
0.19893
0.43030
0.41940
-0.23207
0.05783
-0.00898
-0.70219
-0.36029
0.29341
0.04219
0.09648
0.44955
-0.30842
0.10858
0.57307
0.25523
0.28258
0.26750
0.04267
0.38459
0.24951
0.18496
0.27576
0.70251
0.06504
-0.53289
0.13240
0.11766
0.40940
0.40651
-0.29761
0.45289
0.10406
0.00846
0.44025
-0.92841
-0.40083
0.24810
0.34426
0.51664
0.51747
-0.00588
0.61447
-0.41501
-0.33868
0.53990
-0.29986
-0.50843
0.35858
0.66826
0.29608
-1.06986
-0.29317
-0.05760
-0.26067
-0.11289
0.30703
-0.82241
0.20061
0.15758
-0.34000
-0.04569
-0.06775
-0.39032
0.09290
-0.16316
0.13295
0.49261
-0.25734
0.52390
-0.53364
0.27729
-0.59445
0.34669
0.04175
-0.25001
0.44522
-0.38137
0.01317
0.09537
0.57065
0.04926
0.05063
0.34338
-0.41606
0.09114
-0.26211
0.10219
0.09848
-0.05338
-0.46073
-0.01982
0.08506
-0.94060
0.10938
-0.42133
-0.22523
-0.78726
-0.06340
0.19295
0.21516
0.52890
-0.53540
0.18840
0.44010
0.36611
-0.28130
-0.03582
-0.21203
0.04834
0.21239
0.12261
0.55545
-0.05030
0.01970
-0.26136
-0.12945
-0.17851
-0.82756
0.16589
0.98937
0.05105
-0.37721
-1.44343
0.23849
0.14834
0.22204
-0.10752
0.02288
-0.24235
-0.04971
0.13743
-1.20551
-0.03050
0.05619
0.04258
0.39700
-0.10255
0.06524
0.55629
0.23321
0.29593
-0.05996
-0.08729
0.61402
0.29196
0.51831
-1.02767
0.09839
-1.33185
0.20772
0.11198
0.07216
-0.06094
-0.78182
0.32106
-0.33566
-0.78210
-0.03857
0.21774
0.21495
0.11323
-0.72365
0.34637
-0.73659
0.06286
0.09420
-0.01893
0.51854
0.27130
0.16846
-0.40683
-0.25476
0.08161
0.10400
0.12477
0.40836
-0.05073
-0.11391
0.34972
-0.00528
-0.27367
-0.60037
0.09128
0.39247
0.40953
0.21244
-1.03041
-0.13151
-0.56120
-0.81495
0.08311
-0.01994
-0.30680
-0.30544
-0.56513
-0.64995
-1.14451
0.10892
-1.25157
0.16317
0.20144
0.00977
-0.03016
0.45785
0.18675
0.11583
0.11370
-0.28392
-0.66918
0.42116
0.09914
-0.45307
0.10102
0.29057
0.15319
-0.02944
0.58696
0.28590
0.07421
-0.55742
-0.32404
0.30225
0.08992
0.35195
-0.58595
0.25484
-0.65125
0.41947
0.50616
0.19753
0.29535
0.21532
0.47705
0.69299
0.05856
0.28963
0.39456
0.31472
0.71099
0.33467
0.41118
0.15726
0.15725
0.15030
-0.66169
-0.00665
-0.19331
-0.72938
0.23750
0.17126
-0.30637
0.26836
0.74661
-0.26361
-0.48744
-0.57046
-0.21786
0.08609
-0.09717
-0.35385
0.30414
0.27042
-0.76719
0.03329
0.12645
-0.37484
0.16118
0.39939
-0.62234
0.31207
0.18320
0.23340
-0.05401
0.13107
0.32651
0.04016
0.35973
0.42597
-0.19758
0.22114
0.21443
0.24412
-1.04933
-0.34166
-0.10166
0.10255
-0.08650
-0.30051
0.54581
-1.24508
-0.35044
0.14546
-0.59680
0.57890
-0.53500
-0.82941
0.40105
0.53300
0.02945
-0.00375
0.22580
-0.25777
-0.55760
-0.29479
0.13821
-0.52107
0.38256
0.31593
0.56214
0.27616
0.21358
0.04229
0.21253
0.31976
-0.09709
0.16539
0.13835
-0.50352
0.14332
-0.05170
-0.27506
0.11593
0.18660
-0.80156
0.19611
-0.31412
0.34145
0.02456
-0.47562
-0.00831
0.09326
0.07942
0.14094
0.04812
-0.26902
0.32414
-0.50501
0.06524
-0.30139
0.27372
-0.63030
0.02535
-0.38700
0.33619
-0.39670
0.29101
0.26908
-0.34647
0.49173
0.05747
0.28888
0.00294
-0.12463
-0.38121
0.16416
0.10315
-1.38056
0.44679
0.14686
-0.79298
0.29780
0.79748
-0.63190
0.09446
0.36132
0.49870
0.32444
-0.03110
-0.23272
0.18605
0.20418
0.42408
0.81356
-1.59230
0.24511
0.10498
0.01835
0.22072
0.14239
0.02104
-0.51712
-0.60472
0.25104
-1.94565
-0.68333
-0.26908
-0.33758
-0.98215
0.08787
-0.01897
-0.02382
0.36636
0.12642
-0.09167
-0.69924
0.51990
0.33286
-0.88166
-1.30551
-0.25138
-0.35882
0.60093
-0.01523
0.18614
-0.58110
0.03184
0.25362
-0.91826
-1.31565
-0.44980
-0.04100
0.62498
0.34616
0.21908
-0.84023
0.22993
0.24622
0.06309
0.29750
0.36987
0.04277
0.51672
-0.68320
-1.13345
-0.47010
0.26764
0.11099
-1.00279
-0.22422
-0.48615
-0.01070
-0.10697
0.33165
-0.34094
0.15464
0.14005
0.05412
0.05716
0.23080
-0.22913
0.74921
-0.14759
-0.19238
0.20922
-0.08167
0.07963
0.52772
0.14777
0.11470
-0.55649
0.42182
0.61907
0.04376
-0.16920
0.35142
-1.13656
-0.11299
0.70467
0.20385
0.13141
-0.58672
-0.49885
0.50634
0.11929
0.19220
0.01189
0.11777
-0.27285
0.44002
0.19497
0.49572
-0.87278
0.35334
0.31426
0.56518
0.58999
0.77590
-1.09321
-0.32990
0.47576
-0.02109
0.08908
0.22174
-0.74481
0.49562
-0.11588
0.02287
0.44329
-0.95412
0.10420
0.01924
0.43988
0.23864
0.21180
0.13420
0.31171
0.27544
0.00195
0.12878
0.13081
-0.89491
0.21427
0.12007
0.12819
-0.78965
-0.37506
0.10097
0.14321
0.31482
0.12844
0.46260
-0.43387
0.08918
-1.12682
0.35837
-0.08787
0.26281
0.17294
0.15585
0.17006
-0.30289
0.08876
0.10241
0.09314
0.28691
0.16646
0.27416
0.07649
0.48613
-0.99808
0.55741
0.22473
0.07549
-0.29935
0.18170
0.13854
0.52389
0.20546
0.12135
-0.15214
0.42796
-0.06991
-0.51908
-0.31524
0.24533
-0.12282
-0.05582
-0.41107
0.23197
0.13252
0.03786
-1.24090
0.39693
-0.67967
-0.54687
0.00258
-0.95588
0.25099
0.03977
-0.72265
0.43728
0.03303
-0.17260
0.07010
0.33043
-0.05597
0.73460
-0.35899
0.35425
0.18172
0.40811
0.10468
-0.24671
-0.98792
0.11536
0.08091
-0.72711
-0.35250
0.90700
-0.42011
0.14444
-0.23288
-0.55502
0.40477
0.36035
-0.27828
-1.16933
-0.64415
0.17211
0.10863
-0.30166
-0.52573
-0.21367
0.19864
-0.06145
-0.94723
0.03086
-0.28326
0.16313
-0.50761
0.22788
0.33923
0.49895
0.14416
-0.02538
-0.80080
-0.24138
-0.42704
-1.10385
-0.47274
0.50305
-0.40950
-0.31476
-0.85500
-0.24677
0.14310
0.05182
-0.19893
-0.13862
0.12713
0.11703
0.15989
-0.08140
-0.34242
-0.95580
0.40121
-0.06352
0.35395
0.04738
0.24360
-0.56890
0.18142
0.19691
-0.00207
0.14962
0.06210
0.14386
0.06575
0.13097
-0.00622
0.01433
-0.39045
0.14404
0.20553
-0.06468
0.25923
0.07219
0.26904
0.21023
0.22867
0.24360
-0.85474
0.01113
0.49722
-0.15121
-0.29981
0.18940
0.56323
0.21554
-1.05375
0.06495
0.30398
-0.26731
0.11773
-0.06598
-0.00498
-0.15176
-0.89122
-0.08554
0.19588
0.74628
-1.17712
0.11380
0.01985
0.25133
0.23601
0.23696
-0.42500
-0.32224
-0.45832
0.13460
0.14602
0.22070
-0.17294
-0.25609
0.05467
-0.57497
-0.25902
0.69571
0.47603
0.10474
0.16843
-0.49696
0.18049
-0.70603
-0.14179
0.16792
0.21494
0.47155
-0.02544
-0.66263
-1.03293
0.26282
-0.32455
-0.04664
-0.28322
-0.25815
0.22383
-0.16180
0.55590
0.50644
0.38780
0.11935
-0.53558
0.25983
0.71244
0.10151
-1.14131
0.03907
-0.14368
0.34543
-0.15368
0.17967
0.54961
0.03956
0.35362
0.09800
-0.50134
-0.62901
0.03168
0.55010
0.38369
-0.07373
0.37730
0.22810
-0.15621
-1.10762
0.38581
-1.31245
0.24780
0.36757
-1.06652
0.56471
0.21394
0.14066
0.14412
0.25276
0.29651
0.10325
0.06359
0.15883
-0.10230
0.77775
-0.19503
0.56459
0.11471
0.04157
0.03208
-0.62483
-0.24978
0.13129
-1.02337
0.36901
0.28524
-0.04300
-0.07721
-0.11336
-0.98427
0.04574
0.34571
-0.03756
-0.57195
0.09332
0.00790
-0.54976
-0.30000
0.04222
-0.05874
-0.05692
0.43599
0.14635
-0.33255
-1.51285
0.37653
0.32652
-0.06930
0.51168
-0.18146
0.40639
0.73425
0.69022
-1.02291
-0.47256
-0.10414
0.10135
0.07585
0.70732
-0.01698
0.51365
0.36999
-0.23221
-0.50050
0.20517
-0.84912
0.44600
0.16913
0.13367
0.08061
0.18739
-0.62260
-0.01590
0.27835
-0.12479
-0.40461
0.35197
-0.14467
0.36245
0.27984
0.13958
0.13370
0.06923
-0.53642
-0.32868
0.23080
0.31250
0.33346
0.24179
-0.41371
-0.31973
0.26923
0.35337
-1.13161
-0.21505
0.23577
-0.83865
0.23924
0.35312
0.09757
0.21475
-0.38461
-0.06444
-0.79446
0.46023
0.09192
-0.02933
-0.06822
-0.01270
-0.13658
-0.95621
-1.08996
-0.13275
-0.49468
-0.83106
0.02295
-1.00618
0.32176
0.04434
-0.01447
0.17841
0.66196
0.33898
-0.74766
-0.27361
0.14030
0.35720
-0.72533
-0.61718
0.51037
0.49524
0.27133
0.22691
0.35574
0.44195
-0.17144
0.22419
0.22044
-0.01777
-0.56021
-0.09084
-0.24668
0.05083
0.39166
-0.28650
-0.34914
0.34561
0.36199
0.16367
0.07521
-0.28961
-0.29198
0.02854
0.26293
0.41432
0.09900
0.46807
0.40951
0.11173
-0.53397
-0.39207
-0.25126
-0.06737
-0.24940
-1.38076
-0.32684
0.08225
0.15884
0.17243
0.07533
0.22660
-0.87615
-0.43473
0.05729
-0.33999
0.13757
-0.29132
-0.61143
-0.53802
0.19177
0.15575
-0.27519
0.18496
0.16171
0.35619
0.39028
-0.12236
0.24552
0.05161
0.00313
0.23766
-0.25356
-0.01327
-0.14167
0.45462
-0.31520
0.31749
-1.04827
-0.05923
0.12632
0.46662
-0.12301
0.50835
-0.41042
0.36150
0.23817
0.02261
0.42914
0.67236
0.44534
0.22852
0.16125
-0.01579
0.33833
0.30109
-0.21290
-1.00716
-0.72798
0.26884
0.19976
0.44806
0.12639
-0.71387
-1.36313
0.21782
-0.03665
0.07864
-0.36949
0.42268
0.07529
0.40888
-0.07384
0.20312
-0.37291
-0.50667
0.06018
0.16144
0.59594
-1.00328
-1.09761
0.20565
0.11027
0.31443
0.06122
-0.10517
0.02677
0.07464
-0.09719
-0.57421
-0.68903
0.42378
0.27781
0.14714
0.70494
0.15082
0.14072
0.04702
-0.16717
0.10320
0.74586
-0.37412
0.06482
0.07007
-0.68616
-0.23088
-0.42339
-0.00603
-0.55573
0.45820
-0.53473
0.55281
0.11050
-0.21084
0.11535
-0.52795
0.68946
-1.49792
0.16113
-0.00686
-0.10123
0.34093
0.62961
-1.19578
-0.19328
-0.28345
0.21476
0.12307
0.01714
-0.36599
0.44297
-0.33987
-0.08037
-0.76713
-0.11613
0.22931
0.13252
-0.43430
0.11921
-0.29737
0.19396
0.22381
-0.81166
0.44024
0.58288
-0.42411
0.32438
0.20639
-0.30970
-0.78161
0.30346
-0.18269
0.10520
-0.14636
-0.05098
-0.49504
0.19406
-0.60096
-0.30416
0.21622
-0.03106
0.53188
0.53290
-0.59154
-0.80445
-0.31372
0.07968
0.37266
-0.83730
0.04506
-0.32138
0.49943
0.12685
-0.74951
0.28121
-0.59909
-0.47364
0.22152
0.17175
-0.23754
-0.37559
0.04196
0.09215
0.40010
0.19046
0.07309
-1.31720
0.01623
-0.13753
-0.93312
0.76244
-0.95918
0.02198
0.45878
0.49958
-0.28691
0.41367
-0.67527
0.04083
-0.05869
-0.29544
0.51821
-0.27490
-0.00052
-0.15047
0.19361
0.07707
0.17735
0.19244
0.04747
0.20064
-0.84068
0.14227
-0.31801
-0.44429
0.14449
0.14998
-0.62740
-0.14868
-0.14639
0.07274
-0.02894
0.43258
0.34652
0.21778
-1.48640
-0.15866
0.38665
-0.30301
0.11514
0.22144
-1.03189
0.14138
0.33365
-1.25821
0.31222
0.25164
0.35873
0.38304
-0.01395
-0.02281
-1.16155
0.58110
-1.27533
0.27099
-0.09808
0.38597
-0.83920
-0.31289
-0.24315
0.08931
-1.34107
0.25260
-0.36112
0.16758
-0.33039
-0.10424
0.12468
0.36266
0.29998
-0.32754
0.21440
-0.11310
-0.07325
-0.02548
-0.46687
-0.60988
0.18286
0.54015
0.38065
-0.22644
0.16036
0.08739
-0.11856
-0.05195
0.27812
0.43819
0.02200
0.59292
-0.10226
-0.20408
-0.68413
0.24577
-0.81937
-0.27218
0.14641
-0.13502
0.73122
0.15948
0.50206
0.49309
0.49817
-0.29617
0.33879
0.19707
-0.44149
0.26161
-0.03410
0.46198
0.61948
-0.04025
0.40615
-0.35122
-0.90366
-0.23467
0.35902
0.16606
0.24564
-0.37523
-0.17005
-0.31750
0.21152
0.17601
-0.36160
0.35130
0.01867
-1.02893
0.17862
-0.77840
0.31053
0.14918
-0.68793
0.12402
0.15103
-0.16158
0.41327
0.49859
0.13655
-0.46888
0.70761
-0.50544
0.22170
0.65743
-0.37262
-0.00227
0.08408
0.14676
0.13604
-0.22211
0.01168
-0.29865
0.16626
-0.38951
-0.80408
-0.28745
0.35840
0.07803
0.12377
0.08415
0.08176
0.01759
0.34598
0.33996
-0.34608
-1.44964
0.61172
0.66254
0.54956
0.28726
-0.39997
-0.77807
-0.70554
0.39612
0.20772
-0.50029
-0.41480
-0.64859
0.31686
-0.47906
0.10096
-0.42461
0.29301
-0.50343
-0.10981
-0.94952
0.19436
0.11036
-0.10988
0.20683
-0.34502
-0.16521
-0.49625
0.44662
-0.24894
-0.36229
0.74998
0.12912
-0.35332
0.22380
-0.38709
0.20206
-0.19290
-0.06383
-0.04389
-0.69268
-0.60352
0.07333
0.07972
-0.12088
-0.04424
-0.09150
0.05792
0.40914
-0.11269
0.27670
0.12180
0.37925
-2.19896
0.60085
0.00549
0.17515
0.21140
0.25858
0.02742
0.11780
0.15859
0.17513
-0.49640
-0.66175
-0.19478
-0.24665
0.24892
0.15164
0.73858
0.22619
0.43455
0.01662
-0.06593
0.15691
-0.02970
0.14440
-0.64199
-0.60998
-0.29715
-0.78988
0.26320
0.34169
-0.41508
0.01798
0.31548
0.05310
-0.72206
0.26107
0.34873
0.53236
0.12570
-0.84735
0.00142
-0.12759
0.14726
-0.15961
-0.32392
-0.16696
-0.47306
0.11705
0.09979
0.23697
0.37869
0.19850
0.90741
-0.37222
0.06816
-0.32515
-0.63340
0.09077
-1.00523
-0.06561
0.28751
0.05129
-0.69359
0.43900
0.50456
0.37904
0.65476
0.31486
0.02298
-0.24630
-0.40593
0.35992
0.00590
0.22117
0.16708
-0.01095
0.01018
0.04006
0.46041
0.30256
0.32651
0.10778
-0.30951
-0.21131
0.42083
0.02023
-0.95935
0.12778
-0.75215
0.28585
0.01709
0.01640
0.29843
0.30550
0.16832
0.10092
0.78262
-0.69347
-0.27491
0.66231
0.09749
0.44076
-0.78839
-0.21433
-0.13817
0.20280
0.32798
0.16152
0.38962
-0.28870
-1.35876
0.40629
0.05629
0.01650
0.50969
-0.25352
-0.33722
-0.56709
0.01374
0.64124
-0.24743
0.49494
0.14458
0.06627
0.07179
-0.10943
-0.51800
-0.11102
0.42011
0.08245
-0.38560
0.09187
0.43919
0.20799
-0.17061
0.46872
-0.51704
0.16858
0.13095
0.53854
-0.61826
0.46337
-0.42530
0.11220
0.09866
0.16807
-0.34109
0.16667
0.04714
-0.31115
-0.06126
0.58694
-0.98705
0.26476
0.19506
0.34427
-0.80546
-0.29119
-0.85165
-1.04256
0.16764
0.01242
-0.70958
0.13812
0.18827
0.18484
-1.01427
-0.60671
0.15155
0.33180
0.62890
-0.09898
0.52331
-1.00183
0.31838
-0.38235
0.28438
-0.03429
0.30679
-0.48286
0.11178
-0.27867
-0.32538
0.12113
0.26567
0.26000
-0.71128
0.25519
0.35032
0.21817
-0.47422
-0.15395
-0.73855
-0.22657
-0.47254
-0.14274
-0.73729
0.43256
-0.05571
0.09420
-0.42175
0.09259
0.28918
0.13856
0.17449
0.14490
0.08783
0.26363
-0.03769
-0.18915
0.03920
0.50637
0.35304
-0.21431
0.15701
0.38819
0.38036
0.42416
0.14242
-0.76921
0.30919
0.11275
-0.33547
0.24446
-0.34697
-0.96788
-0.41495
-0.05893
0.23779
0.39799
-0.05668
0.19720
-0.91736
-0.46369
0.17338
0.22295
-0.04214
-0.61601
-1.31008
-0.06086
-0.02110
0.38405
0.09271
-0.03057
-0.07692
0.14780
0.44381
0.34830
0.15526
-0.93290
-0.86601
-0.11354
-0.26348
-0.10900
-0.12798
-0.49197
0.42119
0.46332
0.39963
0.03779
-0.32028
0.32468
0.26731
-0.03271
0.02059
-0.27320
0.54272
-0.77600
0.00258
0.39391
0.10327
-0.11081
0.36398
0.24079
0.37305
-0.02538
-0.40417
-0.40024
0.11951
-1.08589
0.17211
0.32717
-0.01230
0.09684
0.24083
-0.41706
0.45863
0.24697
0.13384
0.45983
-0.65607
0.20090
-0.25995
0.35567
0.12297
0.32712
0.19247
-0.34516
0.65930
0.00991
0.13245
0.01532
-0.06451
-0.34762
0.18442
-0.19387
0.13664
0.20887
-0.27268
-0.91662
-0.42177
0.34209
0.16912
0.17884
0.28451
0.18111
0.13227
0.01957
-0.31140
0.19165
0.20558
0.10333
0.00324
-0.11904
0.15502
0.17752
-0.69913
0.10543
0.22778
0.02553
0.12044
-0.31060
-0.75868
-0.79696
0.02917
0.11890
0.41540
0.14239
0.38668
-0.98500
0.41807
0.31577
-0.50631
0.20907
-0.07081
0.72941
0.01346
0.00790
0.50629
0.55116
0.37281
-0.51873
0.31241
0.08525
0.18703
-1.55683
0.22008
0.67445
0.34891
0.32082
0.07663
0.17772
0.09503
0.85453
0.01737
-0.58803
0.29081
0.16324
0.14942
-0.74685
0.31547
0.06520
0.05226
0.13161
0.18149
0.16502
-0.36393
-0.02737
-0.06289
-0.50193
0.42140
-0.23264
0.40457
0.07464
-0.57765
-0.38717
-0.95302
0.23480
-0.23613
0.03657
-0.26051
-0.31653
-0.07867
0.15582
-0.00968
0.03021
0.01922
-0.25118
0.31555
0.10409
-0.27231
0.33879
-0.41978
0.20063
0.39989
-0.60048
-0.31675
0.48688
-0.94962
0.14681
0.12599
-0.06869
-0.25758
-0.78731
-0.31845
-0.15365
0.18059
-0.12678
0.34371
-0.05238
0.04332
0.19973
0.41483
0.54002
-1.00233
0.05284
0.33126
-1.38567
-1.39348
0.22183
0.45407
0.16290
-0.42397
0.01323
0.50228
0.31568
-0.62980
-0.04395
0.17668
0.06957
0.11940
0.19111
0.43096
-1.06990
-0.60480
-0.55568
-0.24302
0.50788
0.13222
-0.54678
-0.55746
0.04264
0.39266
0.26095
-0.95063
0.40105
0.01469
-0.53019
0.73041
-0.09283
-0.00300
0.21524
-0.72170
0.01360
-0.10451
0.31411
0.47845
-0.78894
0.09530
0.40371
0.30351
0.09766
0.43853
-0.35733
0.73096
-0.57771
0.53483
0.03283
-0.55716
0.21896
-0.89461
0.06299
0.03914
-1.10143
0.12068
0.12577
-0.00634
0.40956
-0.35563
-0.70480
0.04694
0.23063
0.62643
0.65407
0.12465
0.41815
0.30216
-0.15269
0.04968
0.03032
-0.42170
-0.05840
-0.71278
-0.34898
0.39601
-0.59128
0.42025
-0.11542
0.33217
0.04875
0.08757
0.79780
-0.31157
-0.47252
-0.10247
0.10596
-0.50375
0.09573
0.13937
0.10862
-0.01819
-0.23142
0.12381
-0.03211
0.03473
-0.00474
0.14384
0.08562
0.41808
-0.31999
-1.05044
0.16559
-0.10027
0.01431
0.03845
0.49228
0.01834
0.20374
-0.79042
-0.07785
-0.00322
-0.86300
-0.26787
-0.19979
0.37818
0.03394
0.19576
-0.16146
0.05868
-0.41807
0.40281
0.09451
-0.11770
-0.51061
0.46345
-0.52544
-1.04330
0.71946
0.09488
0.19370
0.09493
0.55709
-0.01247
0.29661
0.09466
-0.03425
0.07351
0.19043
0.08130
-1.15754
-0.29225
-0.63532
0.10692
0.01353
0.12361
-0.90494
-0.02443
0.61030
0.51819
0.19461
0.32426
-0.18777
0.15443
0.20437
0.28900
0.10291
0.06469
0.40258
0.13146
0.17746
-0.37932
0.17688
0.31195
-0.71580
0.10820
-0.38690
-0.40719
-1.48354
0.37753
0.14688
0.10660
0.33707
0.02413
0.07585
-0.02053
0.43527
0.26417
0.36184
0.34009
0.58500
-0.04683
0.16421
-0.02773
0.24809
0.22851
-0.39021
0.50513
0.24474
0.17616
-0.23591
-0.45621
-0.02344
-0.07061
-0.32343
0.24534
0.27426
-0.66847
0.74960
0.01093
0.11854
0.24329
-0.20508
-1.05311
0.35694
0.12399
-0.78125
0.13657
0.05083
0.10764
0.40460
0.34897
0.31668
0.08753
-0.02438
0.00712
-0.08913
0.12120
-0.37792
0.13816
0.29072
-0.21321
0.29525
-0.18732
0.30502
-1.00554
0.32370
-0.03081
-0.67525
-0.12846
0.01739
0.25568
0.39614
-0.16162
-1.23640
0.33678
0.17318
-0.52376
0.15817
0.06337
0.62727
0.00218
0.48965
-0.00089
0.34312
0.02857
-0.41466
0.34307
0.04342
0.32342
0.38951
0.30038
0.16839
0.01543
-0.00215
0.12956
0.10312
