0.00324
-0.00153
0.04163
-0.01145
0.01425
-0.01197
-0.01424
-0.01690
0.00502
-0.01211
-0.01351
-0.01540
-0.01123
0.04378
0.00195
-0.01303
0.01693
-0.01133
0.02887
-0.01478
0.02002
-0.00869
-0.00100
-0.03640
0.06059
-0.01088
-0.01190
-0.00642
-0.01595
-0.01004
-0.00853
-0.00570
-0.01262
0.03549
0.01065
0.02328
0.00518
-0.01302
0.01152
-0.00270
-0.00855
0.05178
0.03874
-0.01323
-0.01307
0.01935
0.11652
0.00468
0.00471
0.01045
-0.00965
-0.00263
0.05045
0.03592
0.03036
-0.01174
-0.02211
-0.01021
-0.00831
-0.01161
-0.01431
-0.00640
-0.01082
-0.00592
-0.02092
0.05106
-0.00422
-0.01576
-0.00380
-0.00922
-0.01617
0.04863
-0.01596
-0.01249
-0.00347
-0.01784
-0.01052
-0.00514
-0.01476
-0.00549
0.01364
-0.01053
-0.00789
-0.01259
0.02742
0.00546
-0.01728
-0.03115
0.01343
-0.03798
-0.00859
-0.01401
-0.01148
0.04779
0.00945
-0.01146
-0.01092
-0.01112
-0.01062
-0.00622
0.00180
-0.01675
-0.01076
0.04215
-0.01180
-0.01094
0.00652
0.05275
-0.01440
0.01926
-0.01030
-0.00852
-0.01417
-0.01506
-0.01544
-0.00503
0.00403
0.00761
0.01031
0.00207
-0.01082
-0.01432
-0.01290
-0.01381
-0.01237
0.00270
0.00291
-0.01071
-0.01001
-0.00024
0.00031
0.00776
0.07236
-0.01580
-0.01880
-0.01028
-0.01561
-0.00148
-0.01398
-0.01491
0.02381
0.00805
-0.01233
-0.01346
-0.01117
-0.00189
0.01888
-0.03799
-0.01831
0.00756
0.06355
-0.00239
-0.00594
0.00223
0.00754
0.09345
-0.01392
0.09161
-0.02026
0.02344
0.00703
0.03122
0.01473
-0.01409
0.01465
0.24259
0.13557
-0.00763
-0.01808
0.02553
-0.01554
-0.00936
-0.01260
-0.01159
0.03929
-0.01235
-0.02080
-0.00857
0.00637
-0.01789
0.01848
0.02394
-0.01028
-0.00261
-0.03576
-0.01100
0.09487
0.04677
-0.00843
-0.01739
-0.01790
-0.01282
-0.00416
-0.05688
0.00507
0.01101
-0.01062
0.00856
0.01319
-0.00938
-0.00848
-0.01441
-0.02120
0.00716
-0.01293
0.02249
-0.02035
-0.04808
-0.02503
-0.01991
0.06696
0.00616
-0.01216
-0.01044
-0.01205
-0.00800
-0.01155
-0.00879
-0.01543
-0.01385
0.00465
-0.01378
0.02006
0.06766
-0.00137
-0.01119
0.02394
-0.01683
-0.01610
0.01010
0.00223
-0.01521
-0.01251
-0.01488
-0.01310
-0.01107
-0.00949
-0.01183
0.01772
-0.00234
0.02579
-0.01271
-0.00906
-0.01022
-0.00314
0.02381
-0.01551
0.03510
-0.00893
-0.01467
-0.01345
0.03932
-0.02606
-0.01137
-0.00966
-0.01982
-0.05147
0.01758
-0.01401
-0.00307
-0.01168
-0.02408
-0.01484
-0.00200
-0.00987
-0.01019
-0.00502
-0.02192
-0.00776
-0.01105
-0.01202
0.06223
-0.02916
0.00450
-0.01157
0.00277
-0.01186
-0.01081
-0.00756
-0.01949
-0.01111
-0.01434
0.07628
-0.03176
0.00172
-0.01172
0.00346
-0.01844
0.01390
-0.02906
0.00105
-0.01392
-0.02795
-0.01109
-0.01696
-0.01104
0.01391
0.11177
0.02224
0.03620
0.00265
-0.01280
-0.02213
0.00630
0.02491
-0.00771
0.01801
-0.01740
-0.01643
-0.01619
0.07173
0.00019
0.01803
-0.01503
-0.01400
0.10856
-0.01167
0.00435
-0.02110
-0.01217
-0.01244
-0.02790
0.02797
0.02964
0.00232
-0.01486
-0.01053
-0.01445
-0.01288
-0.01088
-0.00734
-0.01461
-0.01298
-0.00896
-0.01634
-0.04444
-0.01807
-0.01054
-0.01865
-0.06450
-0.01307
0.03633
-0.01109
-0.01336
-0.00346
0.06628
-0.01417
-0.01028
-0.01423
-0.01225
-0.01125
-0.00448
0.03615
0.01327
-0.01232
-0.00952
-0.00476
0.00047
-0.01402
-0.01144
-0.01833
0.01205
-0.01013
0.13487
-0.01062
-0.01230
-0.01813
-0.01108
-0.01327
-0.02867
-0.01537
-0.01613
0.00080
-0.00835
-0.00425
-0.01283
0.00207
-0.01236
-0.01201
-0.01332
-0.01136
-0.01730
-0.00775
0.10079
-0.01634
0.01134
0.03313
-0.01035
0.26697
0.01709
-0.00263
-0.00858
-0.01043
-0.01312
0.00334
-0.01163
-0.03156
-0.01132
-0.01609
-0.01368
0.01305
0.01031
-0.01380
0.01961
-0.04930
-0.00704
-0.01345
0.00323
-0.01157
-0.01207
-0.00306
0.00359
-0.00983
-0.01444
-0.01292
-0.01283
-0.00710
-0.01624
-0.00305
0.00794
-0.01309
0.00062
0.01978
-0.01023
-0.01571
0.00304
-0.00393
-0.00537
-0.01036
-0.01675
-0.00841
0.05337
0.06458
-0.01589
-0.01664
-0.00515
-0.03281
-0.01331
-0.01160
0.01292
-0.01197
0.01120
-0.01446
-0.00814
0.31488
-0.00963
-0.01684
-0.01055
-0.01199
0.03284
0.00422
-0.01248
-0.01267
-0.01161
-0.01545
-0.01050
-0.01366
-0.04038
-0.01390
0.00699
-0.01011
-0.01234
-0.00450
-0.01329
-0.01375
-0.00373
0.03195
-0.01165
-0.00777
-0.00823
-0.01059
0.01299
-0.00814
-0.03552
0.08515
0.01952
-0.01263
-0.01259
-0.01023
-0.01176
0.01456
-0.01434
-0.01374
-0.01239
0.00753
0.03471
-0.00993
-0.03907
-0.01254
0.00040
0.01384
-0.00810
-0.01229
-0.00873
-0.01299
0.04561
-0.00430
-0.00889
0.01285
-0.03192
-0.01551
0.02177
-0.01084
-0.01125
-0.02439
-0.01946
0.03741
0.00816
-0.00859
-0.00912
-0.00571
0.04033
-0.01664
-0.01357
-0.01013
-0.01257
0.12618
-0.01235
-0.01044
-0.03758
-0.01436
0.05273
0.00754
-0.01747
-0.01125
-0.01329
-0.00928
-0.01214
-0.00171
-0.01112
0.00477
-0.01359
-0.01393
-0.00804
-0.01412
-0.01254
-0.01674
-0.01919
0.05311
-0.01407
-0.01433
-0.01277
-0.01259
-0.01256
-0.00075
0.00419
-0.01106
-0.01584
-0.02184
-0.01413
0.01235
-0.00641
-0.00250
-0.01432
0.08706
-0.08472
0.08573
-0.01345
-0.03984
0.09015
0.01453
-0.01853
-0.01331
0.00078
-0.01400
0.02334
-0.00950
0.01914
-0.01143
-0.00779
0.04267
0.04394
-0.01061
0.06304
-0.02649
-0.00788
0.01676
-0.01621
-0.00182
-0.01445
-0.01586
0.11439
0.04753
-0.00978
-0.02111
-0.01107
-0.03255
-0.00955
-0.01102
-0.01370
-0.00268
0.02908
-0.01465
0.05673
0.08774
-0.01070
-0.01414
0.01949
-0.00995
-0.01605
-0.01254
-0.01155
-0.00992
-0.02293
0.00322
-0.00088
-0.02986
-0.01471
0.07867
-0.01014
0.01443
-0.01179
-0.01409
-0.01754
0.05707
-0.00965
-0.01585
-0.00963
0.01041
-0.01228
0.02752
-0.00932
-0.01990
-0.00999
0.01624
-0.00744
-0.00248
0.08422
-0.01085
0.00239
-0.01976
-0.01338
-0.00817
-0.00924
-0.00458
0.03588
-0.00992
-0.00693
-0.00040
-0.01119
-0.01046
-0.01613
-0.00248
-0.01209
0.00432
-0.01407
-0.00817
0.00080
0.02636
-0.01029
0.02000
0.09600
0.05194
-0.01752
-0.00817
0.00826
-0.01395
-0.01443
-0.00143
-0.01242
-0.01252
-0.03411
-0.01220
-0.01441
-0.01148
-0.00815
-0.00179
0.02979
0.07442
0.01551
-0.01066
-0.01036
0.03058
-0.01470
-0.01894
-0.01100
0.01572
-0.01484
-0.00412
-0.01261
-0.01267
-0.01297
-0.01449
-0.01377
0.00035
-0.01266
0.00020
-0.00939
0.02951
-0.00985
-0.01741
-0.01795
0.02865
-0.01556
-0.01248
-0.00466
-0.00295
-0.00229
-0.01181
0.00416
-0.00761
0.03023
0.01361
-0.01299
-0.01721
0.01295
-0.01612
-0.01170
-0.01167
-0.00389
-0.01004
-0.01253
-0.01610
-0.03024
-0.00475
-0.01234
-0.01493
-0.01618
0.01620
-0.01184
-0.00964
-0.00260
-0.01184
-0.01475
-0.01248
-0.01000
-0.01802
0.02133
-0.01119
-0.01025
-0.00900
-0.02129
-0.00767
-0.00219
-0.01242
0.04553
-0.01045
0.06661
-0.00950
-0.00945
0.01257
-0.00210
-0.00247
-0.01461
-0.01339
-0.01112
0.04752
-0.02217
0.02892
-0.01392
-0.01293
-0.01172
-0.02561
-0.01537
-0.01164
-0.01180
0.01270
0.04454
-0.01632
-0.01465
-0.01478
-0.01935
-0.01261
-0.01411
-0.01251
-0.00941
-0.01357
0.00391
-0.01583
-0.00623
-0.01018
-0.01609
-0.00977
-0.01643
-0.01156
-0.01416
-0.01014
-0.01444
-0.00233
-0.01103
0.15622
-0.01551
-0.00131
0.03143
-0.01198
-0.00965
0.00689
-0.01297
-0.00525
-0.01988
-0.00774
0.03343
-0.02101
-0.01123
-0.00778
0.01542
-0.01213
-0.01785
-0.00457
-0.01390
0.00745
-0.01859
-0.02198
0.00482
0.05947
-0.01115
0.02795
-0.01455
-0.01117
-0.00687
-0.01113
-0.00101
-0.00964
-0.00638
0.05242
0.00892
-0.01111
-0.01604
-0.01155
-0.00951
0.00313
-0.01402
0.03896
0.05507
0.00448
-0.01563
-0.01358
-0.00099
0.01832
0.01897
-0.01234
-0.01413
0.01797
-0.01599
-0.00940
-0.01497
-0.01551
-0.07584
0.00719
-0.00875
-0.01395
-0.05070
-0.01025
-0.00523
0.01040
-0.01734
-0.01096
-0.01283
-0.00372
-0.01331
0.04930
0.00355
-0.00050
-0.01047
-0.00498
0.01296
0.00155
-0.01208
-0.00182
-0.01316
0.00549
0.00330
0.00417
-0.01483
-0.01131
-0.01208
-0.01968
-0.00691
-0.00936
-0.02128
-0.00294
-0.02238
0.00263
-0.00023
0.05538
-0.00148
0.01958
0.01924
-0.00878
-0.00144
-0.01306
-0.01363
-0.00735
0.00777
-0.00898
-0.01341
-0.01360
-0.00195
0.00589
0.01973
0.00192
-0.01066
-0.01390
-0.00944
0.00499
-0.01560
-0.00011
-0.01137
-0.00265
-0.01248
-0.00295
-0.04308
-0.01054
-0.01350
-0.01980
0.02880
0.00670
-0.00976
-0.00805
-0.01392
-0.01239
-0.00962
0.00987
-0.00673
0.02206
-0.01250
-0.01401
0.01231
-0.04886
-0.01305
-0.01148
-0.01390
0.01572
0.06172
-0.01075
-0.01235
0.01881
-0.01750
-0.06641
-0.00758
0.01625
0.03416
0.00741
-0.01278
0.01545
-0.01093
0.03211
-0.01295
-0.01357
-0.01007
-0.01164
0.02363
-0.01272
-0.01099
-0.02018
-0.01804
-0.01087
-0.00908
-0.01349
-0.01758
-0.01512
0.05700
-0.01271
-0.01258
-0.03594
-0.01183
0.00331
-0.00983
-0.01780
-0.00774
0.06697
-0.01616
-0.01141
0.05179
-0.01167
-0.01327
-0.00779
-0.01626
-0.01269
-0.00978
-0.01456
0.03666
-0.01175
-0.01182
-0.01226
-0.01191
-0.01548
-0.01172
0.00778
-0.00169
-0.00291
-0.00784
-0.01322
-0.01432
-0.01720
-0.01550
0.01772
-0.01819
0.14221
-0.01203
0.00398
-0.01310
0.02086
-0.01913
0.02216
0.00516
0.00484
-0.00645
0.00541
0.00146
-0.00116
0.02709
0.03040
0.00337
0.01684
0.00267
0.00064
-0.00566
-0.00933
-0.01083
0.09285
0.00755
-0.01525
-0.03567
-0.00136
0.00009
-0.00868
-0.00697
-0.00690
-0.00536
-0.00403
0.00645
-0.00331
0.01156
-0.01008
-0.00349
0.00320
0.00384
-0.01092
0.01326
0.01163
0.00139
-0.01018
-0.01865
-0.00746
0.00543
0.00254
-0.00118
0.01344
-0.00502
-0.01095
-0.00722
0.02577
-0.00816
0.00441
-0.07028
0.01276
0.00222
-0.00149
0.01943
0.00221
-0.00556
-0.00015
-0.00396
-0.00927
0.02109
0.01586
-0.00561
0.01734
-0.00046
-0.00268
-0.00657
0.05856
-0.00386
0.00852
-0.00161
-0.00206
0.02262
-0.00009
0.11168
-0.00376
0.00433
-0.00746
0.00667
0.00445
-0.00961
-0.01007
-0.04743
0.00101
-0.00209
-0.01470
0.00947
0.01039
-0.00061
0.00325
-0.00163
-0.00841
0.00540
-0.01809
-0.00350
-0.01042
0.00761
-0.01047
-0.00109
-0.00076
0.00391
0.00571
0.00075
0.01735
-0.00404
-0.00624
-0.00832
0.00903
-0.00835
0.00056
0.01851
-0.00705
-0.00020
0.00262
-0.00424
-0.00312
-0.02210
-0.00135
-0.01148
-0.00499
-0.01129
-0.01093
-0.01551
-0.01122
0.00079
-0.00856
0.01690
0.00058
-0.00796
-0.43369
-0.00467
0.02196
-0.01654
-0.00314
-0.00312
0.01535
0.33773
-0.01649
-0.00604
0.00694
-0.02600
-0.00331
-0.00533
-0.01305
-0.04739
-0.01663
-0.00716
0.00643
0.05224
0.00370
-0.00435
0.05471
-0.00479
0.00097
0.00491
0.00613
-0.00096
-0.00397
-0.03255
0.00078
0.00903
-0.00985
-0.02673
0.04757
0.00203
-0.00425
0.00010
0.00681
-0.00740
0.01347
-0.00540
0.00337
0.02303
-0.00803
0.00341
-0.00088
-0.00366
0.04295
-0.00090
-0.01299
-0.00279
0.00728
0.01438
0.00642
-0.00953
-0.00994
-0.00085
-0.00085
-0.00818
-0.00585
-0.00486
0.00143
-0.00175
-0.00592
-0.00941
-0.00577
-0.00036
0.01408
-0.00430
-0.00883
-0.01400
-0.01116
-0.02227
0.00207
-0.00187
0.02323
-0.00278
-0.05215
-0.01575
0.02794
0.03022
-0.00753
-0.00338
-0.00398
-0.01155
-0.00291
-0.00766
0.01601
0.00654
0.04066
0.00006
0.00136
-0.00969
0.01315
-0.00332
-0.00467
-0.00385
0.00838
-0.00554
0.01542
-0.00120
-0.02156
-0.00548
-0.00695
0.00136
-0.00151
-0.01153
0.00431
-0.01266
-0.00531
-0.00453
0.00370
0.01977
-0.01041
0.00071
0.00640
0.00547
0.02588
-0.00237
-0.00711
0.00167
0.00413
0.01051
-0.04415
0.00778
-0.00392
0.00373
0.01049
0.01312
-0.00131
-0.01851
0.00676
0.02184
0.00473
-0.00618
0.05297
0.00280
-0.00005
-0.02453
0.02536
0.00468
0.00053
-0.01189
0.01604
0.00565
-0.00674
-0.01129
-0.00885
0.00310
0.00425
-0.00175
-0.00254
-0.05304
-0.00582
0.00451
-0.02178
0.00360
0.00705
-0.00432
-0.00332
0.00579
0.00197
0.00538
-0.00529
0.00437
-0.00351
-0.00426
0.08702
-0.00241
0.00036
0.03679
0.00514
-0.00022
-0.00277
0.00152
-0.00525
0.01947
-0.00075
-0.00822
-0.00859
-0.01455
-0.00732
-0.00323
-0.00237
0.00312
-0.01405
0.00517
-0.00009
-0.00948
-0.00402
0.14596
0.00241
-0.00299
0.02438
0.00008
0.09512
-0.00279
-0.00605
-0.00109
-0.00790
0.00127
0.15459
-0.02913
0.00073
0.00174
0.00380
-0.00515
-0.01256
-0.00681
0.02529
0.02558
-0.00466
0.00053
-0.01440
0.00826
0.00191
0.00068
0.00176
-0.00775
-0.00193
-0.00538
0.00450
-0.00461
-0.00482
-0.00916
-0.00032
0.00260
-0.00404
0.00599
-0.00800
-0.04772
0.03085
-0.00677
-0.02599
-0.00590
0.21576
0.00320
-0.00162
-0.00076
-0.00147
0.00011
-0.00444
0.00455
0.00298
0.30859
0.00045
-0.01698
-0.00233
0.00010
0.00195
-0.00075
-0.00316
-0.00379
0.00098
-0.00070
0.00733
-0.03534
-0.01999
0.00879
0.01800
0.00337
0.00228
-0.01575
0.15753
-0.02273
0.00377
-0.00859
-0.00433
0.00795
-0.00819
-0.00658
-0.01152
0.00694
-0.00935
0.00336
0.00476
-0.00603
-0.04258
0.00178
-0.00999
0.00417
-0.01333
-0.00415
-0.00287
0.00828
0.00477
-0.00154
0.00455
-0.00465
-0.00546
-0.00307
0.02227
-0.00732
-0.00070
-0.00421
0.00322
0.02586
0.00734
0.00236
0.13033
-0.00030
-0.00752
0.00538
-0.00028
0.00462
-0.00145
-0.00866
-0.03104
0.00471
0.00330
-0.02202
0.00349
-0.00264
-0.01309
-0.04181
-0.00117
0.19958
-0.00905
-0.00719
-0.00935
0.00757
-0.02319
0.00002
-0.00779
0.00316
-0.00984
-0.01372
0.06228
0.00248
-0.00437
0.28045
-0.00445
0.01323
-0.01748
0.00922
-0.00271
-0.00438
0.00435
0.01038
-0.00848
0.00090
-0.00054
0.33212
0.00458
-0.00416
0.00844
-0.00069
0.00433
0.00389
-0.03105
0.04729
0.00740
0.00160
-0.00228
-0.00067
0.00184
0.00504
-0.02089
-0.01418
-0.00850
0.00266
0.00353
-0.00589
-0.00768
0.00518
0.00200
0.04834
0.00346
-0.01424
0.00163
-0.00833
-0.01272
-0.00038
0.00370
0.00357
0.00070
0.00279
-0.00215
0.01589
0.00355
0.00385
0.00545
0.00838
-0.00969
-0.00374
0.32426
0.01542
0.00151
-0.01449
0.02078
0.03066
-0.02447
0.02823
-0.01179
-0.00118
-0.02466
0.02845
-0.00723
-0.00303
-0.02915
-0.00148
0.00896
-0.01798
-0.01290
0.01026
0.01595
-0.00320
0.16364
-0.02207
0.00284
0.00490
0.00345
0.00389
0.08774
-0.00155
-0.01492
0.00462
0.01216
0.00014
-0.01625
0.00120
0.00911
0.00680
0.00142
0.02140
0.00385
0.02383
0.01058
0.00486
0.00520
-0.01389
0.00235
0.00508
-0.00860
-0.00775
-0.00463
0.00349
0.00437
-0.01784
0.00458
0.00082
0.01373
-0.09038
-0.00420
0.00173
0.00539
0.00472
-0.00583
0.01321
0.02622
0.00263
-0.00243
-0.00303
-0.00062
-0.00079
0.01034
0.02482
-0.00006
0.01053
-0.00439
-0.01605
0.00890
0.00500
0.00852
-0.00748
0.00242
0.00493
-0.03916
-0.00065
0.00103
0.00356
0.00411
0.00273
0.00487
-0.00881
-0.00272
-0.00450
0.20673
0.00377
0.00055
-0.04786
0.00302
0.02539
-0.02389
0.00764
0.01044
0.00096
-0.00239
0.01460
-0.00753
-0.00174
-0.00537
0.01734
-0.00465
0.02688
0.00302
0.04568
0.00275
-0.00448
0.02244
0.01103
0.04719
0.01035
0.00531
0.00216
-0.01024
0.00002
-0.05776
0.00042
0.01042
0.00281
0.00327
0.00369
-0.01510
-0.02516
-0.00381
0.00258
0.00292
0.01090
-0.00282
0.00501
0.00338
0.00366
0.00307
0.00649
0.01367
-0.00839
-0.00570
0.00370
0.03384
0.00477
0.00697
0.00711
-0.00053
0.01380
-0.00788
0.09447
-0.00717
0.00222
-0.00938
0.00880
-0.01705
0.04119
0.00341
0.02865
0.00190
0.00312
0.00421
0.00557
-0.00411
-0.00042
-0.02152
-0.00527
-0.00018
-0.00670
0.00284
0.00315
-0.00193
0.00382
0.00383
-0.01079
0.00261
0.00099
0.00392
0.00351
0.01426
-0.01033
-0.02474
0.00384
0.00545
0.08325
-0.00719
0.01013
0.00623
-0.00485
0.00425
0.00373
-0.00286
0.00391
-0.00468
0.01176
0.00306
-0.00017
0.00244
-0.01396
0.00415
0.00433
0.00323
-0.00958
0.00399
0.00202
0.00297
0.00335
0.00413
0.00960
0.00601
0.01152
-0.01309
0.00477
0.00651
-0.00159
0.00903
-0.00006
0.09033
0.00483
0.00525
0.00179
0.00323
-0.00586
0.00019
-0.03795
0.00630
0.00454
-0.01187
0.08780
-0.00045
0.08185
-0.00642
0.00368
0.00262
0.00103
0.00958
0.00956
0.00323
0.00641
-0.01736
0.00048
-0.00977
0.00514
0.00327
0.00543
-0.00297
0.00190
0.00310
0.00824
0.00197
0.00418
-0.00915
0.00130
-0.00912
-0.00220
0.11708
0.00343
0.00359
0.00406
0.00584
0.00476
-0.00237
-0.01556
0.00390
0.00412
0.00299
0.01625
0.00592
0.00454
-0.01025
0.08497
0.00706
-0.00784
0.00403
0.00282
0.00102
-0.00563
-0.02171
-0.00286
0.00413
0.00880
-0.03176
0.00567
-0.03001
0.00318
0.00664
-0.00101
-0.02295
0.00113
0.00607
0.00365
0.22648
0.44859
0.00260
0.00151
0.00563
0.00529
0.00578
-0.00128
0.00453
0.00521
0.00278
0.00531
0.00471
0.00414
-0.00070
0.00321
0.01711
-0.00777
0.00320
-0.00199
-0.00558
-0.01477
0.00523
0.00978
-0.01386
0.07949
0.00312
0.00178
0.00551
-0.00706
0.03566
0.02841
0.01297
0.00274
0.00467
0.00211
0.03849
-0.00568
-0.04113
-0.00524
0.00311
0.00482
-0.02695
-0.00895
-0.00344
0.00287
0.00615
0.17952
-0.00372
-0.00348
0.00328
0.00400
-0.00986
0.00246
0.00196
0.00394
0.00488
0.00380
0.00298
0.00651
0.00331
0.00290
0.00288
-0.00546
-0.00437
0.00150
-0.01337
0.00111
0.00133
0.00569
0.00516
0.00368
0.00312
-0.00092
0.00440
0.00466
0.00362
0.00418
0.00415
0.00811
0.00407
-0.00016
-0.00045
0.00237
0.00674
0.00259
-0.00694
0.00575
0.00579
-0.01077
0.00251
0.00383
0.00129
0.00369
0.00336
-0.00456
-0.00571
-0.00412
0.00190
-0.00461
0.30301
0.00357
0.00377
0.00275
-0.01427
0.00582
0.00441
0.00480
-0.00456
0.00391
0.00309
-0.00059
0.00463
-0.02284
0.00532
0.00385
0.00022
0.00307
0.00489
0.00662
0.01986
-0.00920
0.00314
-0.00570
0.00478
0.00435
0.01575
0.00186
0.00604
0.00320
-0.07495
0.00244
0.03859
0.00413
0.01525
0.00039
0.06074
0.31964
0.00516
0.00392
-0.37723
-0.00901
0.00089
0.00221
0.00428
0.00425
0.00411
0.00292
0.00138
0.00347
0.00247
0.00432
0.00532
0.00401
-0.23139
0.00344
0.00325
0.00354
-0.00553
0.00436
0.00365
0.00440
0.00527
0.00457
0.00519
0.00340
0.00258
0.00326
0.00281
-0.00829
0.00315
-0.00258
0.00340
0.04900
0.00097
0.00223
-0.01300
-0.00266
0.00118
0.00472
-0.01161
0.03794
-0.02417
0.00033
0.00211
0.34680
-0.09358
0.00851
0.00916
0.00284
0.07089
0.00368
0.00538
0.00441
0.00375
0.00250
0.06093
0.00313
-0.01583
0.00322
0.00788
0.00348
-0.00171
0.00512
0.00548
0.00340
0.00993
-0.03733
-0.00422
-0.06488
0.00342
0.00440
0.00401
0.03341
0.00309
-0.00729
-0.41654
0.00386
0.00387
0.00409
-0.00012
0.00280
0.00015
0.00276
-0.02694
0.00370
0.00498
-0.09098
0.00394
0.27148
0.00980
-0.00564
0.05588
0.00674
0.00331
0.00441
0.00400
0.01526
0.00453
-0.00154
0.00411
0.00349
0.00172
0.00122
0.00346
-0.00246
0.00444
0.00311
0.00327
0.00185
0.00441
0.00272
0.00423
-0.02816
0.00468
0.00184
-0.00988
0.03057
0.01196
-0.00682
0.00343
0.00359
0.00374
0.01850
0.00302
0.00300
0.00973
-0.00199
0.00732
0.00305
-0.02517
0.00384
0.27942
0.00457
0.00180
0.00387
-0.01544
0.00423
0.00274
0.00395
0.00181
0.00488
0.00279
0.00417
0.00396
0.00584
0.00703
0.00353
0.00545
-0.00886
-0.02320
0.00508
0.01781
0.04045
0.00822
0.00384
0.00590
0.00623
0.00282
-0.00664
-0.18463
0.01047
0.00038
0.00427
-0.01303
0.00388
0.00503
0.00389
0.00259
-0.02334
0.00664
0.00197
-0.00062
0.00175
0.01262
0.00332
-0.01530
0.07923
-0.00016
-0.00719
0.00245
-0.02120
0.00221
-0.00623
-0.00776
0.00196
0.00564
0.02125
-0.00803
0.00646
0.00939
-0.01522
-0.03411
-0.00989
-0.00472
0.00340
0.01520
0.00485
-0.01150
0.00401
-0.01377
0.00330
0.00310
0.00459
-0.00014
0.01032
0.03374
0.00121
-0.01168
0.01329
0.00368
-0.00252
0.00175
-0.00623
0.02504
-0.00053
-0.00307
0.07100
0.00156
0.05430
-0.01174
-0.00554
0.00234
0.00079
0.00307
-0.00699
0.00476
-0.00432
-0.08402
-0.00560
0.00430
0.00180
0.00055
-0.00476
0.00579
0.01314
-0.00438
0.00923
-0.00012
0.00347
0.00505
0.00514
0.04749
0.05213
-0.00194
0.00591
0.00902
0.00469
0.03440
0.00514
0.00081
0.00127
0.27811
-0.01046
0.02153
-0.12067
-0.02070
0.00330
-0.02283
-0.02406
0.00292
-0.00855
0.01374
0.00500
-0.03072
0.00335
0.00363
0.30057
-0.00838
0.00044
0.03660
0.00360
0.00318
0.00080
-0.00075
-0.01767
-0.02592
0.01245
0.00392
0.00380
-0.01187
0.00447
0.00009
-0.02078
0.00467
0.00336
-0.00625
0.00343
-0.02218
0.00273
0.00634
0.00301
0.00086
0.00767
0.01047
0.00582
-0.01179
0.01063
-0.01425
0.00386
0.00088
0.00385
0.00688
0.00554
0.01556
0.00251
0.03105
0.00088
0.00419
0.00557
-0.00274
-0.00115
0.00049
0.00199
0.00383
0.00222
-0.00643
-0.01656
-0.01914
-0.01188
0.01088
0.00086
0.00353
0.00330
-0.03673
0.00333
0.01323
-0.01985
0.00575
-0.00144
0.00297
0.00420
0.00226
0.01348
0.00886
0.08481
0.00423
0.00589
-0.00020
0.00433
0.00125
0.00074
-0.00546
0.17900
0.00357
0.01514
0.00419
0.00520
0.00409
-0.01409
0.01301
0.00436
-0.01217
0.00381
0.01929
0.03903
0.01412
0.00331
-0.00418
0.00369
0.00351
0.00299
0.00527
-0.01922
0.00357
0.00482
-0.00966
-0.41500
0.00976
0.00593
-0.03091
0.02050
-0.02599
0.00416
-0.00889
-0.00634
0.00376
0.00289
0.00458
0.00285
0.00540
-0.01821
0.00379
0.03093
0.00185
0.00432
0.02027
-0.00162
0.00506
-0.00087
-0.03126
0.00494
0.00614
0.00317
0.00481
0.00446
-0.01806
0.00268
0.00440
-0.00162
0.00361
0.00493
0.00144
0.00504
0.00489
0.00258
0.01685
0.01741
0.00815
0.00523
0.00471
0.00201
0.00330
-0.41590
0.00922
0.00515
-0.01060
0.00163
-0.32828
0.00314
0.00226
0.00777
0.00250
0.17065
0.00466
0.00322
0.00115
0.00374
0.00343
-0.00140
0.00530
0.00318
0.00349
-0.01374
0.00235
0.00280
0.00347
0.00251
0.00473
0.00267
0.00486
-0.00232
0.00841
-0.00107
0.01184
0.00299
0.01449
0.00289
0.00986
0.00368
0.00555
-0.00945
-0.00869
0.03015
0.00403
0.00800
-0.03417
0.00251
0.00164
0.00462
0.00962
0.00369
0.00549
0.00318
0.03328
0.05859
-0.00406
0.00463
0.01307
0.01522
-0.05326
0.00372
0.00146
0.00470
-0.00279
0.00533
-0.00913
-0.01059
0.00260
0.02901
-0.01260
0.00273
0.00254
-0.01040
0.00078
0.00521
0.09168
0.00432
0.00345
0.00303
0.00737
0.00019
-0.00616
0.00341
0.00430
0.00449
0.00466
-0.00247
0.00756
0.00342
0.00813
0.00310
0.00357
-0.00431
0.00333
0.03589
0.00412
0.00500
-0.01340
0.01150
0.00311
0.00453
0.00527
0.00246
-0.01132
0.00554
-0.03997
-0.00559
0.00664
-0.00529
0.00262
0.00704
0.00238
0.01753
-0.00999
-0.00205
-0.00654
0.00179
0.00352
0.01011
0.00050
-0.00254
0.01036
-0.45819
-0.01404
-0.00083
-0.00497
0.00112
0.00404
0.01627
0.32584
0.00499
0.00596
0.00121
0.00520
-0.03701
0.00499
-0.00527
0.00653
0.00514
0.00720
0.00491
0.00260
0.00443
0.25850
-0.00332
0.00354
-0.00449
0.00339
0.00244
0.14448
0.01285
0.00341
0.00461
0.00267
0.00148
0.00288
0.00381
0.00313
-0.00376
0.00323
-0.00924
0.00171
-0.00428
0.00275
0.00265
0.00202
-0.00577
0.00321
0.03229
0.00567
0.00130
0.00733
0.00344
-0.00013
0.10471
0.00241
0.00255
0.00509
-0.00417
0.00311
0.03349
0.00343
0.00152
0.00293
0.00415
-0.00957
-0.00920
0.00452
0.00296
0.00273
0.00349
-0.00326
0.01894
0.01202
0.00320
0.01505
0.00504
-0.00183
0.00333
0.00162
0.01765
0.00198
0.00689
-0.00139
0.00296
-0.00415
-0.01049
-0.02751
0.00707
0.00200
0.05182
-0.03523
0.00286
0.01199
-0.00180
0.00696
0.00808
0.00166
0.32154
0.00099
0.10236
0.00333
0.00440
-0.00040
-0.01314
0.01121
0.00563
0.00341
0.00198
0.00303
0.00287
-0.00056
0.00325
0.00728
0.00452
0.01471
-0.00018
0.00280
0.00743
0.00342
-0.03045
0.03244
0.00303
0.00214
0.00308
0.00576
0.00469
0.33741
-0.04950
-0.00925
-0.00710
0.00375
-0.00905
0.00318
0.00231
0.00357
0.00434
0.01465
-0.01437
-0.00167
0.00350
0.00377
0.00284
0.00283
0.00710
-0.00325
0.00487
0.00417
-0.00815
0.00064
-0.00439
0.00568
-0.17241
0.00147
0.00481
0.00272
0.01670
0.00746
0.00437
0.00671
-0.14361
0.00311
0.00375
0.00433
0.00337
0.00477
-0.00229
0.00242
0.00329
0.00253
0.00349
0.01491
0.00362
-0.00019
0.00177
0.29797
0.00948
0.00440
0.00336
-0.00222
0.00255
0.00318
0.01935
0.00252
0.07604
-0.00916
0.00480
0.00405
0.00368
0.00326
0.02062
0.00310
0.01483
0.00411
0.00239
0.00549
0.00351
0.00239
0.00365
0.00311
-0.00032
0.00459
0.00182
0.00404
0.00182
0.00465
-0.00572
0.00529
0.00339
0.00284
0.00294
0.00663
0.00406
0.00391
0.00397
0.00433
0.00071
0.00336
0.01336
0.00524
0.00384
0.00865
0.00820
0.00492
0.13243
0.02460
0.00119
0.04339
0.00003
0.00554
-0.01827
0.01103
0.00040
0.00012
-0.00274
-0.00629
0.00359
0.00386
0.00470
0.00365
0.00372
0.01491
-0.00425
0.01797
0.01002
0.00000
0.00388
0.00224
0.00460
0.01207
0.00370
0.00297
0.00375
0.00470
-0.00409
-0.00280
0.00400
0.00450
0.00624
-0.01334
-0.00094
-0.00018
0.00140
-0.01569
0.00486
0.00126
0.00773
0.00463
0.00172
-0.00768
-0.00596
0.00357
0.00148
0.01877
0.00308
0.00040
0.00183
0.01176
0.01200
0.00380
0.01297
-0.00032
0.00530
0.00479
0.00185
-0.01795
0.00136
0.00121
0.00120
0.00454
0.00329
-0.00521
0.00435
0.00347
0.00472
0.00569
0.00339
0.00203
-0.01042
-0.00783
0.00591
0.00431
-0.00120
-0.00004
0.00574
-0.04388
0.00258
0.00348
0.01875
0.00282
-0.00353
0.00323
-0.01239
0.00051
-0.01004
0.01496
0.00270
0.00399
0.00391
0.03968
-0.02574
0.00980
0.01776
-0.00817
0.00119
0.01425
-0.00908
-0.00125
-0.01198
-0.00532
0.00037
-0.10313
-0.00686
0.00580
0.00393
-0.00477
0.00748
-0.00977
0.00935
-0.01162
0.06262
-0.00480
0.00022
-0.01083
-0.00120
0.00527
0.01151
0.00239
0.00246
0.00350
0.00492
-0.01060
0.00524
0.00763
-0.00046
0.00454
0.00547
0.00447
0.00258
0.05682
-0.00008
-0.00898
-0.01403
0.00236
0.02824
0.02943
-0.00680
-0.43514
0.00375
0.00293
-0.00360
0.00196
0.00268
0.00321
0.00274
0.00084
0.00341
0.01265
0.00268
-0.00286
0.00110
0.16397
-0.01189
0.00466
0.01009
-0.01088
-0.01679
0.00668
-0.00638
0.00427
-0.01552
0.00329
0.00222
-0.00595
-0.00878
0.13951
-0.00596
0.00426
0.00431
0.00515
0.00409
0.00084
0.01024
0.00527
0.00267
0.00300
-0.01540
0.04350
0.00685
-0.01064
-0.00298
0.00389
0.02242
-0.02106
-0.00924
-0.01155
0.00455
-0.29243
-0.00502
0.00468
-0.01372
-0.00003
-0.00136
0.00255
0.00371
0.00445
0.00549
-0.01756
-0.00345
0.00335
-0.00079
-0.01040
0.00280
0.00436
0.00296
-0.00108
0.00318
0.02449
-0.02037
-0.00927
-0.01101
0.00587
-0.34177
-0.00764
-0.00399
-0.00188
-0.01214
-0.01215
0.00060
0.00170
-0.00143
0.00516
0.00405
-0.00053
0.01093
0.02815
0.00411
-0.00138
-0.00126
-0.01066
0.00312
0.00308
-0.00861
0.00324
0.00122
0.00338
0.00415
0.00393
0.00300
-0.01266
-0.01069
0.00575
0.25431
0.01091
0.01282
0.00218
-0.00921
0.00883
-0.00670
-0.00479
-0.00662
-0.00510
0.01628
-0.00167
0.00259
0.00265
-0.00344
0.00949
-0.00352
-0.01102
0.02299
-0.00151
0.03396
0.05168
-0.00258
0.01415
0.06473
0.00063
0.01208
0.01201
0.03972
0.00621
0.03061
-0.01206
0.00476
-0.00572
-0.00261
-0.00269
0.01008
-0.01657
0.01299
-0.00972
0.00875
-0.00871
-0.00526
-0.00052
0.00054
0.00667
-0.00302
0.01327
0.00178
0.00213
0.00154
-0.00249
0.00137
0.00595
0.00366
-0.00312
0.02539
-0.00136
0.00529
0.00104
0.08452
0.00898
0.00462
0.00414
0.00933
-0.02630
0.01119
0.00229
-0.00116
0.00763
0.00882
-0.00037
0.00335
0.09315
0.01533
0.12433
0.04769
-0.00688
0.00071
0.01318
0.01887
-0.00771
-0.00839
0.00149
0.01075
-0.00861
-0.02378
-0.00165
-0.06255
0.00684
0.00643
-0.11004
-0.00516
-0.00513
-0.00137
0.00535
-0.00897
0.14981
-0.00771
0.00591
-0.00773
-0.00551
-0.01602
0.00268
0.03979
-0.00177
0.00250
-0.00303
0.00154
-0.00586
0.16275
0.00511
-0.00393
-0.00582
0.03204
0.00427
-0.00617
0.00521
0.01329
-0.00081
-0.00657
-0.00451
0.00442
-0.00596
-0.00063
0.00401
0.00433
0.00398
0.00318
0.01914
0.00272
0.00434
-0.01829
-0.01534
-0.00517
-0.00440
-0.00291
-0.01278
-0.00606
0.09910
0.00395
0.00189
-0.00289
-0.00691
-0.00047
0.00515
0.00353
-0.00344
0.01030
-0.00850
0.01321
-0.01431
0.02404
0.00912
-0.04990
-0.00076
0.00221
0.00321
0.00585
-0.00968
-0.00027
-0.07533
-0.00192
0.00236
0.01280
-0.00267
0.01407
-0.01243
0.00727
-0.00884
-0.04162
-0.04875
0.00863
0.00225
-0.13767
-0.00752
0.03988
0.01410
0.00824
-0.00140
-0.01472
0.03942
-0.01026
0.00320
0.00526
0.02143
0.00264
0.00941
0.00242
-0.00014
-0.00332
0.00106
-0.00536
-0.00448
0.00428
0.10652
0.10300
0.00648
-0.04126
0.01233
0.02874
-0.00611
-0.00357
0.00556
0.00365
0.23348
0.00415
-0.00505
0.07561
-0.00071
-0.01786
-0.01120
0.00221
0.00013
0.01318
-0.02473
-0.01044
-0.00643
-0.00567
0.01179
0.00961
0.00466
-0.00039
0.00040
0.00635
-0.04939
0.00881
0.00426
0.00472
0.00286
-0.00885
0.38246
0.02897
-0.00085
0.00093
-0.00702
0.02014
0.00045
-0.00140
-0.00155
-0.03317
0.00018
0.00213
-0.00018
-0.00577
0.00566
-0.00379
0.01137
-0.00343
0.00642
0.00333
0.39215
0.05411
-0.01621
0.00452
0.00408
-0.00230
0.00494
-0.00718
-0.00887
0.00562
0.05529
0.01342
0.00935
-0.01178
-0.00097
-0.01442
0.00382
0.00455
0.02399
-0.00205
-0.01192
0.00434
0.00418
0.33647
0.00882
0.00155
0.00133
-0.00814
0.00379
-0.00245
0.01600
-0.00171
-0.01198
0.00499
0.03032
0.00069
0.00315
0.00603
0.01534
-0.00883
0.03419
0.01928
-0.01053
0.09367
-0.00078
-0.01487
-0.00600
0.00443
0.27374
0.00455
0.07967
-0.02250
0.01064
0.00262
0.00454
0.02008
0.41208
0.01054
-0.00884
0.05067
0.00152
0.11741
-0.00398
0.00233
-0.02406
0.00839
0.00419
0.00750
0.00446
-0.02277
0.00299
0.00908
0.01080
0.01516
-0.03614
0.02230
0.00759
0.01089
0.23354
-0.00028
-0.01609
0.00981
0.17999
0.43536
0.01137
-0.00592
-0.01445
0.01066
0.31027
-0.00615
-0.34785
-0.01040
0.00159
-0.01600
-0.00345
0.00816
-0.06131
0.01147
-0.00935
0.00764
-0.01149
-0.00900
0.01123
0.00830
-0.00349
-0.00693
0.00146
-0.00154
0.00464
-0.32991
0.03452
0.03562
0.00848
0.00771
0.01526
0.01283
0.01966
-0.00838
-0.00818
0.02552
-0.00406
0.00925
-0.00518
-0.00517
0.19718
-0.00931
-0.00016
-0.00582
-0.00354
-0.01406
0.02776
-0.01059
0.01001
-0.00696
0.00290
0.05968
-0.00792
-0.00563
0.00263
0.00343
0.00338
0.00450
-0.00343
-0.00805
0.00508
-0.00208
0.01508
-0.00384
-0.01664
-0.00169
-0.00824
-0.00120
-0.00785
-0.00627
-0.00096
0.05107
0.00139
0.00970
0.04291
-0.00801
0.00537
0.00370
0.01688
0.01073
0.00701
0.00478
-0.02357
0.00266
0.01687
-0.00430
-0.00017
-0.01232
-0.00189
0.01228
-0.00483
-0.01166
0.00171
-0.00308
-0.00452
-0.01258
-0.00225
-0.03160
-0.00274
0.00182
0.12332
-0.00478
-0.00242
-0.00592
-0.00646
-0.01490
-0.01422
0.00731
0.00101
0.01767
-0.01709
0.01526
0.00370
-0.00881
0.01072
-0.00093
-0.00386
-0.00316
0.05220
0.01353
0.00173
-0.01541
-0.00175
0.01622
-0.00791
0.00483
-0.00250
0.00419
-0.01455
0.00267
0.02042
0.00007
-0.00102
0.01249
-0.00178
0.00161
-0.00743
-0.00023
-0.01156
0.00380
-0.00654
0.00745
-0.00142
0.00411
-0.00510
-0.00534
-0.00279
0.18328
0.01463
0.00588
-0.00203
-0.01765
-0.00486
0.00237
0.01054
-0.00515
0.00424
-0.00791
-0.00874
-0.00687
0.00069
0.01325
-0.00463
0.00188
0.01233
-0.00232
-0.00798
-0.00589
0.00706
-0.00612
0.01111
-0.00496
0.01137
-0.00053
-0.00249
-0.01499
-0.02560
0.00431
-0.01341
0.01552
0.01293
0.00345
0.01320
-0.01032
0.01737
-0.00660
0.03548
-0.00016
0.00673
0.00182
-0.01128
-0.00318
-0.00838
-0.00449
0.00312
0.00172
-0.01105
-0.00591
0.00135
0.00454
-0.00410
-0.00364
-0.02166
-0.00049
-0.01855
-0.01241
-0.00175
-0.00089
0.01007
-0.01274
0.00013
-0.00064
0.00149
0.00336
-0.00572
0.00209
0.02260
-0.00086
0.00396
-0.00255
0.00063
-0.01296
-0.00617
0.01466
0.01369
-0.00421
-0.00798
-0.01847
0.01554
-0.00221
-0.01533
0.04549
0.00254
-0.00010
0.00914
0.00466
0.00207
0.00354
-0.00189
-0.00670
-0.00997
0.00299
-0.00715
-0.00698
0.00740
-0.00234
-0.00036
0.00428
0.00381
0.01740
-0.00359
-0.00055
-0.00664
0.02967
-0.00753
-0.00975
-0.00753
-0.00372
-0.01863
-0.00174
-0.00234
0.00693
-0.00973
-0.00497
-0.00959
0.03571
-0.00286
-0.00589
0.01981
-0.00855
0.01001
0.01162
0.00068
0.00159
0.00481
-0.00295
0.03288
-0.00728
-0.01694
-0.00737
-0.00485
-0.01054
-0.00509
-0.00476
-0.00157
-0.02152
-0.39843
0.03302
-0.00559
-0.01054
-0.00112
-0.01437
-0.00055
0.00483
0.00183
-0.00712
-0.00292
-0.00542
-0.01012
0.00230
-0.00422
-0.00662
-0.00677
0.01890
0.00439
0.00042
-0.01126
-0.01243
-0.00472
-0.02103
-0.02313
-0.00319
-0.00337
-0.00755
-0.00647
-0.02187
0.05280
-0.00433
0.01097
-0.00247
0.00350
-0.10846
0.00247
0.04067
-0.01001
0.13351
0.00829
0.00817
0.00552
0.01381
0.00181
0.00043
0.02117
-0.07468
0.00158
0.02353
0.00519
0.02381
-0.00536
0.01387
-0.00562
-0.00214
-0.00558
-0.00220
-0.00608
-0.00589
-0.00035
-0.00763
-0.01418
0.00386
0.02643
0.00554
0.00205
-0.00650
0.00727
-0.00883
0.00397
0.00263
0.00325
0.02086
-0.00203
0.02429
-0.00571
0.00566
0.00111
0.00776
0.00169
-0.00620
0.00156
0.02514
-0.00275
0.00188
0.00252
0.00173
-0.01145
0.03035
0.02711
-0.00413
0.00279
-0.00464
-0.00382
-0.00069
0.00491
-0.00880
-0.00545
-0.01146
0.01417
-0.01024
-0.00471
-0.00609
0.00355
0.00181
0.03196
0.01170
0.21279
0.00837
0.01914
-0.00642
0.00112
0.01942
0.00042
-0.00824
0.02392
0.00997
-0.01237
-0.00684
-0.00317
0.03367
-0.00532
-0.00344
0.00287
0.00447
0.01563
-0.00544
0.03950
0.00957
0.00998
0.00855
-0.00423
0.00331
-0.00823
-0.00190
-0.00366
0.00974
-0.00612
0.02423
-0.00975
-0.07291
0.00325
-0.00443
-0.00317
0.00937
0.00042
-0.00105
-0.00610
0.37984
-0.00039
-0.00743
0.01506
0.35043
0.01985
-0.00065
0.00485
0.05196
0.00001
-0.00566
-0.00441
-0.00354
0.01419
0.30024
0.00322
-0.01054
0.25348
0.01169
0.00550
0.00733
-0.00369
-0.00732
0.00103
-0.00740
0.00546
0.01901
-0.01857
-0.01683
-0.00054
-0.02638
-0.00520
-0.00206
-0.00470
0.00180
0.02013
-0.01153
-0.01127
-0.00599
-0.00118
0.00555
-0.03440
0.01060
0.00315
-0.02667
0.34336
0.02207
0.00955
0.01029
0.00503
0.00813
0.00784
0.00082
0.32477
-0.00805
-0.00594
-0.01584
0.30205
0.01258
-0.00802
-0.01658
0.02635
-0.00548
0.00701
0.00229
-0.00626
-0.00412
-0.00367
-0.00378
0.02376
-0.01291
-0.00296
0.00853
-0.00573
0.01066
-0.00700
0.01606
0.00839
-0.00360
0.03410
0.00558
-0.00612
-0.00070
-0.00182
-0.00907
0.01726
-0.01149
-0.00913
0.00242
-0.04645
-0.01480
0.01043
0.01030
-0.02987
0.00837
0.00793
-0.00734
0.00956
