-0.01292
-0.01558
0.02564
-0.01271
-0.00366
-0.01388
-0.01587
-0.01873
0.00448
-0.01416
-0.01307
-0.01928
-0.01083
0.06757
-0.00759
-0.01307
0.03786
-0.01163
0.02198
-0.01258
0.00796
-0.01227
0.08768
-0.03331
0.08014
-0.00585
-0.01261
-0.01120
-0.01308
-0.01042
-0.01106
0.00164
-0.01571
0.01460
0.03200
0.05591
0.04624
-0.01363
-0.00267
0.01512
-0.01016
0.09691
0.03395
-0.00988
-0.01500
0.02656
-0.01497
-0.01660
0.00935
0.01773
-0.00820
0.00270
0.03000
0.01180
-0.02134
-0.01463
-0.01894
-0.01221
-0.01774
-0.01194
-0.01192
-0.00992
-0.01288
-0.00839
0.06632
0.05018
-0.01540
-0.01150
-0.00466
-0.01200
-0.01003
0.08827
-0.01315
-0.01815
-0.01047
-0.00279
-0.01293
-0.00802
-0.02779
-0.01893
-0.01584
-0.01508
0.00463
-0.01507
0.00377
0.01810
-0.01763
-0.04360
0.01501
-0.01567
-0.00826
-0.01392
-0.01386
0.01164
-0.01132
-0.01300
-0.01252
-0.00933
-0.01650
-0.00621
0.03096
-0.01338
0.00755
0.06002
-0.01129
0.02020
-0.00196
0.01966
-0.01106
0.04230
-0.01534
-0.01125
-0.01012
-0.01087
-0.01766
-0.00726
-0.01025
0.00453
0.00826
-0.00842
0.01812
-0.01413
-0.01489
-0.00514
-0.01081
-0.01413
-0.00349
0.00145
-0.01226
-0.01059
-0.02366
0.01611
0.02934
-0.01312
-0.01514
-0.01722
-0.01785
0.00210
-0.01126
-0.01408
0.00460
0.04372
-0.01307
-0.01233
0.00204
-0.01692
0.02108
0.00303
-0.00418
0.00872
0.06430
-0.01599
-0.01627
-0.00529
0.00382
0.06543
-0.01730
0.05196
-0.01500
-0.03144
-0.00142
0.11860
-0.01456
-0.00592
0.05920
0.04147
0.15224
-0.00912
-0.01854
0.02578
-0.01451
-0.00981
-0.01376
-0.01505
0.05671
-0.01090
-0.01794
-0.00855
-0.01623
-0.01502
-0.00175
0.05199
-0.00993
0.01752
-0.09462
-0.01419
0.18834
0.07340
-0.01049
-0.01390
-0.00322
-0.01461
0.00300
-0.01416
-0.01312
-0.01234
-0.00943
0.00910
0.01282
-0.00869
-0.00773
-0.01517
-0.01612
0.01922
-0.01497
0.06185
-0.02019
-0.03149
-0.02472
-0.01270
-0.01382
0.00082
-0.01412
-0.01101
-0.01283
-0.00783
-0.01491
-0.00864
-0.01627
-0.02219
0.01229
-0.01257
-0.00420
0.04097
-0.01610
-0.00878
0.03206
0.00383
-0.00654
0.06631
-0.00832
-0.01993
-0.01608
-0.01192
-0.01517
-0.01038
-0.01244
-0.01212
0.00295
-0.01015
-0.00878
-0.01284
-0.07472
-0.01127
0.00690
0.02107
-0.01181
0.02068
-0.01134
-0.01025
-0.01411
-0.00455
-0.03306
-0.01199
-0.01375
-0.00607
-0.02529
0.01705
-0.00467
-0.02098
-0.01439
-0.02804
-0.01901
-0.00472
-0.01522
-0.00619
-0.00956
-0.01030
-0.00161
0.00677
-0.01672
0.00489
0.15756
-0.01960
0.00813
-0.01093
-0.00141
-0.00109
-0.01480
-0.00791
-0.01877
-0.00803
-0.01496
0.04053
-0.01217
-0.01438
0.02298
-0.01405
0.04846
-0.01494
0.00119
-0.01542
-0.01874
-0.01007
-0.01436
-0.01930
-0.00076
0.08740
0.04947
-0.01753
-0.00051
-0.01429
-0.04161
0.02929
0.08463
0.00226
-0.00564
-0.01311
-0.01468
-0.01185
0.04942
-0.01191
-0.01357
-0.01143
-0.01533
0.08328
-0.00996
-0.00047
-0.02289
-0.01774
-0.01518
-0.05046
-0.01001
0.04023
0.00037
-0.01607
-0.01213
-0.01537
-0.01330
-0.01317
-0.00346
-0.00049
-0.01523
-0.01345
-0.01436
-0.05485
-0.00593
-0.00919
-0.01331
-0.05666
-0.01339
0.01972
-0.01465
-0.01296
-0.00954
0.16466
-0.01358
-0.01142
-0.01170
-0.01019
-0.01465
-0.01415
0.01086
-0.01232
-0.01133
-0.01265
0.00564
0.00457
-0.01203
-0.01246
-0.01518
-0.01041
-0.01467
0.14135
-0.01137
-0.01320
-0.02664
-0.01106
-0.01379
-0.02356
-0.01153
-0.01308
-0.02448
-0.00754
0.02821
-0.01187
0.01019
-0.01221
-0.01174
-0.01256
-0.00282
-0.01164
-0.01063
0.05979
-0.01851
-0.00631
0.00015
-0.01476
0.10942
-0.00049
-0.01285
-0.01130
0.00186
-0.01554
-0.00710
-0.01527
-0.04887
-0.00942
-0.02102
-0.01141
0.05782
0.02415
-0.01246
0.02463
-0.04771
-0.02108
-0.01422
-0.00075
0.00189
-0.01234
-0.00212
0.00048
-0.01261
-0.01105
-0.01515
-0.01422
-0.00375
-0.01398
-0.00845
-0.01319
-0.01023
0.00367
0.04685
-0.01297
-0.01491
-0.00503
0.01112
-0.00377
-0.01167
-0.02114
-0.01187
0.04354
0.08849
-0.01367
0.01595
0.04114
-0.01323
-0.01127
-0.01011
0.01868
-0.01448
-0.00244
-0.01017
-0.01247
0.17780
-0.01386
-0.01781
-0.01163
-0.01226
0.00309
0.00690
-0.01453
-0.01502
-0.01367
-0.01588
0.00850
-0.01904
-0.00944
-0.01270
0.00842
-0.01241
-0.01056
-0.01030
-0.01181
-0.01420
-0.00473
0.02765
-0.01203
-0.01471
-0.01199
-0.01114
0.00128
-0.00998
-0.01932
0.00443
0.00326
-0.01081
-0.01394
-0.01448
-0.02024
0.01307
-0.01159
-0.01317
-0.01290
0.00433
0.01014
-0.01074
-0.04936
-0.01410
0.01122
0.00507
-0.00671
-0.01112
-0.01125
-0.01115
0.08508
-0.00405
-0.01178
0.00220
-0.01775
-0.01295
0.03847
-0.00756
-0.01634
-0.01886
-0.00900
0.07111
-0.00797
-0.00273
-0.01358
0.01095
0.00414
-0.01241
-0.00667
-0.01200
-0.01358
0.07246
-0.04307
-0.00943
-0.03112
-0.02703
0.05632
-0.00028
-0.00755
-0.00682
-0.01669
-0.01053
-0.01220
0.01196
0.08490
0.00237
-0.01267
-0.01352
0.00104
-0.02030
-0.01611
-0.01493
-0.01926
0.06807
-0.01116
-0.01103
-0.01492
-0.01444
-0.02571
-0.01205
0.00296
-0.01248
-0.01236
-0.02164
-0.00283
0.02343
-0.00667
-0.00551
-0.01330
0.00855
-0.05477
0.12687
-0.02194
-0.03628
0.09110
0.03476
-0.02872
-0.01439
-0.00570
-0.01008
0.04381
-0.01287
0.00544
-0.00937
-0.01370
0.04713
-0.00280
-0.01292
0.05742
-0.01445
-0.01591
0.01495
-0.01644
-0.00590
-0.02345
-0.01893
0.07496
0.02126
-0.01280
-0.02035
0.04464
-0.01106
-0.01074
-0.01116
0.00023
0.01544
-0.01459
0.05729
0.06845
-0.01194
-0.01436
0.02206
-0.01223
-0.02033
-0.01269
-0.00924
-0.01364
-0.01185
-0.00973
-0.00492
-0.01488
-0.00656
0.03003
-0.00583
-0.02196
-0.01419
-0.01116
-0.01709
0.05397
-0.00825
-0.01401
-0.01126
0.02386
0.00933
0.03690
-0.00938
-0.01607
-0.01111
0.00662
-0.00942
-0.01272
0.00307
-0.01027
0.00283
-0.00754
-0.02034
-0.01521
-0.01099
-0.00310
-0.00999
-0.00694
-0.00593
-0.00166
-0.01238
-0.01375
-0.01140
-0.00337
-0.01315
-0.00125
-0.01016
-0.01095
0.00433
0.02871
-0.01726
-0.00091
0.08772
-0.02088
-0.01173
-0.01195
0.00154
-0.01142
-0.01053
-0.00557
-0.01052
-0.01563
-0.03599
-0.01528
-0.01430
-0.01251
0.01845
0.00411
0.04044
0.05956
0.04062
0.01392
-0.01430
0.02534
-0.01607
-0.00982
-0.01983
0.02384
-0.01540
-0.00840
-0.01243
-0.01313
-0.01416
-0.01137
-0.01340
0.01981
-0.01415
-0.01268
-0.02541
0.05866
0.03196
-0.02013
-0.01319
0.02868
-0.01203
-0.01173
0.02775
-0.00831
0.00131
-0.01242
0.00248
-0.00188
0.02935
0.01073
-0.00297
-0.01648
0.00607
-0.01383
-0.00586
-0.01473
-0.01032
-0.01346
-0.01136
0.00725
-0.01288
-0.01038
-0.01099
0.00456
0.00742
-0.01146
-0.01918
-0.00526
-0.01106
0.00188
-0.01021
-0.01042
-0.06069
0.01142
-0.01213
-0.00950
-0.00530
-0.01550
-0.01310
-0.01013
-0.01298
0.06907
-0.00680
0.00651
-0.01250
-0.01608
-0.00526
-0.01663
-0.00068
-0.01573
-0.01195
-0.01313
0.04095
0.00424
0.02767
-0.01131
-0.01245
-0.01173
-0.02857
-0.01293
-0.01464
-0.01399
-0.00293
0.01354
-0.02337
-0.01027
-0.04263
-0.01117
-0.01507
-0.01663
-0.01500
-0.01777
-0.01230
-0.00926
-0.01367
0.01113
0.01459
-0.01432
0.00146
-0.01836
-0.01255
-0.02525
-0.01421
-0.01316
0.03115
-0.01317
0.07607
-0.01317
0.00012
0.04256
-0.00591
-0.01438
0.01245
-0.01245
-0.01264
-0.01349
-0.00529
-0.01070
-0.02251
-0.01489
-0.01406
0.00775
-0.01392
-0.01581
0.01807
-0.01359
-0.00010
-0.01400
-0.01507
-0.01181
0.04517
-0.01193
0.02295
0.02785
-0.01203
-0.01875
-0.01686
0.01855
-0.01209
-0.01111
0.04078
0.02286
-0.01013
-0.01769
-0.01399
-0.00943
0.00070
-0.01168
-0.01291
0.06993
0.00372
-0.01291
-0.01695
0.00414
-0.01379
0.02881
-0.01302
-0.00683
0.00826
-0.01661
-0.01209
-0.02240
-0.01319
-0.02061
0.01510
-0.01233
-0.00418
-0.06215
-0.01342
0.00106
-0.00394
-0.01390
0.00590
-0.01229
0.02827
-0.01805
0.06512
0.01408
0.00274
-0.02135
0.00114
-0.01400
-0.00546
-0.01060
-0.00317
-0.01121
-0.00965
0.01512
0.00659
-0.01156
-0.01008
-0.01715
-0.01032
-0.01349
-0.00835
-0.02519
-0.00112
-0.02190
0.00818
0.03041
-0.00714
0.01286
0.01440
0.01763
-0.01500
0.00520
-0.01038
-0.01349
-0.01262
0.01418
-0.00912
0.01106
-0.01769
-0.01085
0.04407
0.01143
0.00513
-0.01187
-0.01391
-0.01100
-0.00459
-0.01365
-0.01214
-0.01188
-0.01037
-0.00080
-0.02668
-0.01384
-0.01144
-0.02322
0.04596
0.01109
-0.01405
-0.00992
-0.01117
-0.01423
-0.00920
0.01292
-0.00312
0.01274
-0.01250
-0.00781
-0.02564
0.00661
-0.01737
-0.01246
-0.01225
0.00043
0.03947
-0.01135
0.00764
0.01907
-0.01840
-0.06034
0.02025
0.04957
0.02114
0.00968
-0.01382
-0.02229
-0.01161
0.01976
-0.00638
-0.01853
-0.00987
-0.01095
0.00316
-0.01219
0.00062
-0.02153
-0.00975
-0.01056
-0.01062
-0.00957
-0.01306
-0.01069
0.05427
-0.01457
-0.01325
-0.03551
-0.01367
-0.06615
-0.02978
-0.01408
0.00378
0.06751
0.01482
-0.01216
0.08264
-0.00846
-0.01668
-0.01049
-0.01643
-0.01310
0.02757
-0.01349
0.03352
-0.01410
-0.01459
-0.01341
-0.01231
-0.01348
0.01247
0.00281
0.00117
-0.00984
-0.01564
-0.00781
-0.00918
-0.01096
-0.02070
0.06657
-0.01006
0.07994
-0.01164
0.00523
-0.01461
0.05288
-0.01507
0.02303
0.00398
-0.00552
0.00355
0.00606
-0.00430
0.00826
0.00315
0.01658
0.00764
0.01434
-0.00594
0.03031
-0.00921
-0.00282
0.12812
-0.01052
-0.01743
-0.00231
0.01728
-0.01514
-0.00777
-0.01227
-0.00758
-0.00312
-0.00364
-0.01734
0.14115
-0.01261
-0.00078
-0.00105
0.01279
0.00267
-0.01084
0.01976
0.01171
-0.01518
-0.01625
0.00619
-0.00629
0.02204
0.00413
-0.00173
0.00438
-0.00373
-0.00715
-0.00494
0.00148
-0.00748
0.00363
-0.08898
0.01398
-0.01281
0.00130
0.00579
0.00505
0.00919
0.00662
-0.00686
-0.00398
-0.00837
-0.00918
-0.00257
-0.00758
-0.00699
0.01556
-0.00269
-0.00206
-0.00099
-0.00922
0.05866
-0.00368
0.01003
-0.00307
-0.00733
-0.00059
0.06943
0.00276
0.01085
-0.00727
0.01204
-0.00703
-0.01259
-0.03185
-0.01089
-0.01028
0.00184
0.00515
0.00844
0.00650
-0.00419
-0.00613
-0.00241
-0.01839
-0.00133
-0.00151
-0.01158
0.00255
0.00052
0.00036
-0.00851
0.00080
-0.00379
-0.00306
-0.00097
0.01508
-0.00718
0.00349
-0.00596
-0.00271
0.00936
-0.00931
0.00162
0.00359
-0.00216
-0.00116
-0.00937
-0.00702
-0.00457
-0.00653
-0.01116
-0.01363
-0.01729
-0.00313
0.00370
-0.02536
0.01245
0.01453
0.00814
-0.00664
-0.41472
-0.01248
0.02567
-0.00372
-0.00140
0.41421
-0.03444
0.01251
0.00862
-0.01871
-0.00508
0.00123
-0.00723
-0.00640
-0.04046
-0.00795
-0.00508
0.00621
0.05526
0.01458
-0.00038
-0.00167
0.06135
-0.00313
-0.00407
-0.00131
0.00442
-0.00204
0.00649
0.00922
0.00019
-0.00110
-0.00747
-0.01030
-0.02362
0.06390
-0.00928
0.00518
0.00814
0.00341
-0.00247
0.04485
-0.00822
0.00256
0.01875
0.00897
-0.00769
0.00420
-0.00627
-0.00368
0.03739
-0.00635
-0.01327
-0.01027
0.00837
0.02675
0.00382
-0.01003
-0.00866
-0.00364
-0.01270
-0.01047
-0.00568
-0.00509
0.01247
0.00121
-0.01525
-0.00158
-0.00807
-0.01571
-0.00041
0.02108
-0.00399
-0.00617
-0.00673
-0.01902
-0.02736
0.00440
-0.00249
0.00893
-0.00265
-0.03721
-0.01713
0.02640
0.03983
-0.00569
-0.00554
-0.00355
-0.00907
-0.00733
-0.00690
0.01900
0.01974
0.01166
0.01939
0.00384
-0.00795
0.00716
-0.00166
0.01575
-0.00331
0.01819
-0.00119
-0.02265
0.02137
0.01862
-0.02933
-0.00968
-0.00587
0.00745
-0.00622
-0.00994
0.00525
0.00162
-0.00663
-0.00836
0.00242
0.04272
0.01604
-0.02848
-0.00201
0.00176
0.01080
-0.01942
-0.02579
0.00528
-0.00922
0.01487
0.00762
-0.00048
-0.00977
-0.00194
0.00632
0.01402
-0.00331
-0.00108
0.00184
0.00314
-0.01251
0.00209
-0.00313
0.05205
0.00110
-0.02347
0.00098
0.00411
-0.00699
-0.00108
-0.00256
0.00135
-0.00846
0.00539
-0.00166
0.00164
0.00337
0.00062
-0.00548
-0.02575
0.00583
0.00180
-0.01009
0.01136
0.00512
0.00633
-0.00113
-0.00699
0.02856
0.00450
0.00291
-0.00175
-0.00309
0.00292
0.01359
0.00229
0.02306
-0.00059
0.00022
0.01074
0.02238
0.00140
-0.00230
-0.01079
0.04258
0.02534
0.00727
-0.04594
-0.00625
-0.00365
0.01032
-0.01759
-0.00732
0.00748
-0.01600
0.00774
0.00488
0.00268
-0.00295
0.01004
0.15011
0.00145
-0.00792
0.16728
-0.00267
0.30753
0.00340
-0.00004
-0.00283
-0.01018
-0.00055
-0.01111
0.00024
-0.00410
-0.00199
0.01593
-0.00523
-0.01133
0.01358
0.02057
-0.00553
0.00304
0.00536
0.03513
-0.02559
-0.01031
-0.00042
0.00190
0.00588
-0.00538
0.05101
-0.00290
0.00378
-0.00097
-0.00238
-0.01128
0.00717
0.00192
-0.00539
-0.00327
-0.00855
-0.04677
0.02978
0.00087
-0.02718
-0.00467
0.22576
0.00114
-0.00330
0.03247
-0.00131
0.00663
-0.00414
0.00216
-0.04158
-0.00014
0.13706
0.00331
-0.01382
-0.00453
0.00123
-0.00209
0.00456
0.00669
0.00016
0.00487
-0.00393
-0.00024
-0.03560
-0.01817
0.02225
0.00332
0.00939
0.00104
-0.00977
0.23718
-0.01234
0.00461
-0.01034
-0.00513
-0.00126
-0.00579
-0.01306
-0.00833
0.01108
-0.00864
0.00692
-0.01434
-0.02871
0.00472
-0.00338
0.00358
-0.00601
0.00402
-0.00829
-0.00532
-0.00323
-0.00017
-0.00962
0.07509
0.00373
-0.00384
-0.00294
0.07288
-0.00386
0.00085
-0.00173
0.00250
0.00731
0.01553
0.19515
-0.00169
-0.00468
0.00210
0.00944
0.00118
-0.00183
-0.00191
-0.07237
0.00047
0.02273
-0.02682
0.00379
-0.00273
-0.01062
-0.03130
-0.00012
0.21219
0.00698
-0.01517
-0.00305
-0.00108
0.00262
-0.02339
-0.00363
-0.00162
0.00180
-0.02710
0.01730
-0.01929
0.05057
-0.00488
0.19340
-0.00572
0.00685
-0.01964
0.00711
-0.00800
0.00230
0.00308
-0.00450
-0.00182
-0.00675
0.00743
-0.00706
0.39398
0.01751
-0.00567
0.00775
0.00038
0.00549
-0.00357
-0.02862
-0.00411
-0.00005
0.00165
0.00367
0.24764
0.00927
-0.00371
0.00113
0.00193
-0.00828
-0.00618
-0.01686
0.00335
-0.00806
0.00001
0.00381
0.01137
0.00262
-0.02321
0.00298
-0.00560
-0.00890
0.00609
0.00159
-0.00788
-0.00009
0.00282
-0.00501
0.00613
0.00877
0.00328
0.00681
0.00514
-0.00460
-0.00171
0.00662
0.34333
0.01163
0.00100
-0.01710
-0.00184
0.02688
-0.01434
0.00333
-0.01212
-0.00183
-0.02017
0.00331
-0.00625
-0.00231
-0.00975
-0.00248
0.01599
-0.01272
-0.00104
0.00744
0.00424
-0.00018
-0.01378
-0.00396
-0.01527
-0.01534
0.00373
0.00312
0.09232
-0.00195
-0.02933
-0.00364
-0.00098
0.00568
0.00527
0.02239
-0.02161
-0.00033
0.01191
0.00826
0.00446
0.01143
0.00437
0.01950
0.00683
0.00868
-0.02133
-0.00329
-0.00019
-0.00659
-0.00704
-0.00304
0.00434
-0.01403
0.00127
0.00853
0.01628
-0.09180
-0.00393
-0.09880
0.00186
0.00194
-0.00170
0.00233
0.01290
-0.00112
0.00315
-0.01032
0.00306
0.00092
0.00186
0.00553
0.01975
0.00151
-0.00670
-0.01677
0.00822
0.00748
-0.00385
0.00333
-0.02467
0.00357
0.00590
0.00199
0.00473
-0.00278
0.00616
-0.02240
-0.07187
0.00388
0.24443
0.00717
0.00241
0.00195
0.01232
0.00269
0.00135
-0.00532
0.00401
-0.00730
0.00222
-0.00163
-0.00078
-0.00407
-0.00516
-0.02919
0.00018
0.02293
0.00348
0.04139
0.00143
0.01343
-0.00357
0.02899
0.00290
-0.00474
0.00063
0.00350
0.00369
-0.01173
0.01364
-0.08523
0.00002
0.04688
0.00292
0.01849
0.00569
0.00256
0.00414
-0.02158
-0.00322
0.00442
0.00421
0.01766
-0.00378
-0.00206
0.00380
0.00049
0.00101
0.00830
-0.00529
-0.01154
0.00369
0.00211
-0.00015
0.00223
0.00308
-0.00577
0.00013
-0.02362
0.25953
0.00563
-0.00467
0.02901
0.00279
0.00932
-0.00621
0.00266
-0.00316
0.02338
0.00173
0.00986
0.00885
0.00422
0.00207
0.00248
0.00471
0.00089
0.00148
-0.01798
-0.00381
0.00518
-0.00422
0.00351
0.00339
0.00647
-0.00301
0.00250
0.00425
-0.01813
0.00401
0.01974
0.03655
0.00773
0.00520
0.00284
0.00589
-0.12394
-0.01711
-0.00611
0.00463
0.00534
-0.00744
0.01760
-0.00219
-0.00718
0.00285
0.00515
0.00712
0.02407
0.00242
-0.00986
0.00927
0.00310
0.00419
0.01211
0.00503
0.00297
-0.00874
0.00379
0.00206
0.01273
0.00416
0.19897
0.00545
0.00472
0.00105
0.00476
-0.00915
0.01180
-0.00340
0.02845
0.00227
-0.00607
0.00439
0.00484
0.00746
0.00482
-0.00184
-0.00369
-0.02304
0.00320
0.00360
-0.02273
0.08093
0.00275
0.03482
-0.00946
0.00422
0.00555
0.00807
0.07189
0.00346
0.01118
-0.00556
-0.00881
0.00356
0.02360
0.00436
0.00199
0.01573
0.00370
-0.00432
0.00212
-0.00845
-0.00321
0.28781
0.00171
0.00447
0.00491
0.00334
0.00188
0.00343
-0.00642
-0.03167
0.00321
0.00112
0.00009
0.00516
0.00345
-0.00170
0.00186
-0.00252
0.00322
0.05648
0.00318
-0.01291
-0.02402
0.00554
-0.00046
-0.00617
-0.02599
-0.00197
0.00640
-0.02149
0.00411
0.01044
0.04319
-0.00901
-0.02083
0.00411
0.00477
0.00356
0.28988
0.45182
0.00384
0.00237
0.00802
0.00274
0.00506
-0.00566
-0.00459
0.00225
0.00217
0.00165
0.00673
0.00470
0.00524
-0.00013
0.00340
0.00746
-0.01353
0.00662
-0.01026
0.00642
-0.01582
0.00521
0.24440
-0.00045
-0.00951
0.06225
0.00409
0.00364
-0.01147
0.01006
0.00250
0.00469
0.00625
0.00258
0.00310
0.00297
-0.00382
-0.00560
0.00486
-0.02634
0.00370
0.00694
-0.03565
0.00877
-0.00326
0.00067
0.00592
-0.00445
0.00720
0.00604
0.00336
-0.00345
-0.01090
0.00366
0.00429
0.00198
0.05409
0.00291
0.00384
0.00423
0.00348
0.00479
0.00518
-0.01714
-0.01523
0.00594
0.00534
0.00117
0.00158
-0.00757
0.00377
0.00527
0.00263
0.00196
0.00135
0.00035
0.00540
0.00359
0.00462
0.01483
0.00263
0.00148
0.00585
0.00772
0.00295
0.00464
0.00504
-0.00562
0.00612
-0.00895
0.00387
0.00160
0.00349
0.00472
-0.00929
-0.00130
-0.00629
0.00381
-0.00718
-0.00210
0.20949
0.00144
0.00504
0.01113
0.00191
0.00232
-0.00225
0.00306
0.00416
0.00427
-0.00414
0.00246
0.00398
0.00459
0.01028
0.00517
0.00428
-0.00484
0.00280
0.00972
0.00371
0.00385
0.00461
0.00383
0.00057
-0.10828
0.00404
0.00142
0.00096
-0.00116
0.00490
0.02536
0.00654
-0.00351
0.03588
0.00345
0.00452
-0.00784
0.00273
0.01407
0.00404
0.00147
0.00301
-0.01350
0.00281
0.00534
0.00447
0.00375
0.00224
0.00815
0.00441
0.00545
0.00121
0.00513
0.00400
0.00442
-0.00581
0.00584
0.00243
0.00311
0.00686
0.00217
0.00297
0.00476
0.00249
0.00179
0.00280
0.00189
-0.00798
0.00492
0.02370
0.00101
-0.00238
-0.02003
0.00615
-0.01652
-0.04132
-0.00075
0.00058
0.00305
0.41257
0.00948
-0.08911
0.00318
0.00603
0.09360
0.00269
0.00397
0.00347
0.01957
0.06149
0.00440
-0.00315
-0.00282
0.00342
0.00197
0.00273
0.00121
0.02746
-0.00853
-0.01078
0.00304
0.00792
0.00307
0.00294
0.01647
-0.02602
0.00477
0.00347
-0.00383
0.00432
-0.00161
0.00296
0.00130
-0.01133
0.00263
0.10605
0.00935
-0.00496
0.00230
0.02312
0.00258
0.00388
0.00275
0.00387
0.00091
0.00317
0.00414
0.00601
0.00227
0.00261
0.00208
-0.00387
0.00262
0.00303
-0.00949
0.02405
-0.00015
0.00252
0.00322
0.00090
-0.03533
0.00336
0.00280
-0.01186
0.03980
0.01518
0.00611
-0.00174
0.00266
0.00144
-0.01469
0.00208
0.00119
0.00928
-0.00144
0.00748
0.00435
0.00350
-0.01824
0.00465
0.26247
0.00066
0.00245
0.00343
-0.00817
0.00342
0.00128
0.00394
0.00318
0.00298
0.00186
0.00814
0.00220
0.00477
-0.00721
-0.02382
-0.00610
0.00312
0.00541
0.03323
0.00459
0.00413
0.00403
0.00465
0.02492
-0.28979
-0.00087
0.02489
0.00246
-0.02350
0.00417
0.00430
0.00240
0.00316
0.00530
-0.00784
-0.00034
0.00960
0.00289
0.10228
-0.00397
0.00187
-0.01203
0.00394
-0.00299
-0.00630
-0.00123
0.01033
-0.00654
0.00826
-0.01199
-0.06666
0.03748
-0.01234
0.00315
0.02425
-0.00473
0.00336
-0.02903
0.00220
0.00026
-0.00138
-0.00402
0.01473
0.07662
-0.01195
-0.00586
0.00298
0.03455
-0.00365
0.00284
-0.00319
0.03658
-0.00702
0.02379
0.01295
-0.00471
-0.00508
0.00268
0.26294
-0.01714
-0.00418
0.01216
0.00265
-0.00296
-0.00205
-0.00757
-0.08001
0.00278
0.00633
0.00100
-0.00925
0.00811
0.00256
0.02944
-0.00183
-0.01209
-0.00300
0.00947
0.10448
0.05900
0.00371
0.00732
0.00436
0.02319
0.00947
0.01231
0.30587
0.00673
-0.08682
-0.02361
0.00339
-0.02310
-0.02735
-0.00382
0.00651
0.00746
0.00225
-0.03118
0.00485
0.00347
0.35219
0.00085
-0.00524
0.01224
0.00327
0.00650
-0.01785
0.01366
0.01898
-0.01407
-0.02132
0.00331
0.00644
0.00641
-0.00499
0.00405
-0.00220
-0.01627
0.24693
-0.00317
0.00254
0.00293
0.00354
-0.00454
0.00189
-0.03723
0.00120
0.00443
0.00316
-0.02210
0.03564
-0.00916
0.00291
-0.00132
-0.00221
-0.02699
0.00088
0.00458
0.00396
0.02788
0.00088
0.00395
0.00325
0.00285
0.00656
0.00507
-0.00442
-0.00465
0.00371
0.00473
0.00373
-0.00253
-0.00232
-0.00935
-0.00139
0.00417
0.00167
0.00376
-0.00573
0.00495
0.00462
0.00905
0.00173
0.03088
0.00348
-0.00076
0.01104
0.00402
0.00578
0.00255
0.00369
0.00723
0.03319
0.00414
0.00306
0.00882
0.00557
-0.00053
0.02912
-0.00457
0.28553
0.01229
0.00269
0.00275
-0.00067
-0.01545
0.00222
-0.00554
0.00118
0.02989
0.00267
-0.00525
0.00286
0.00156
0.00406
-0.02481
0.00138
-0.00548
-0.35700
0.00680
0.00453
0.00298
-0.02789
-0.01747
0.00212
-0.00297
-0.00737
0.00332
0.00267
0.00564
0.00228
0.00418
-0.00352
-0.01215
-0.01912
0.00231
-0.00216
0.00056
0.00663
0.00038
0.00461
0.00274
0.00214
-0.00239
0.00206
0.00276
0.00339
0.00215
0.00358
0.00482
0.00129
0.01332
0.00310
-0.00081
0.00585
-0.00234
0.00335
0.01236
-0.00196
0.00347
0.00166
0.00538
-0.44626
0.00277
-0.00109
0.00261
0.00015
-0.39948
0.01829
0.00368
0.00359
0.00533
0.20341
0.00244
0.00193
0.02045
0.00342
0.00211
-0.00419
0.00352
0.00545
0.00259
0.00007
0.00668
-0.00586
0.00960
0.00788
0.00377
0.00425
0.00359
0.00269
-0.00613
-0.00214
0.00199
0.02314
0.00343
-0.00148
0.00367
0.00304
0.01148
-0.01089
-0.00457
0.06670
0.00503
0.00077
0.00930
0.00408
0.00379
0.00360
0.04793
0.00547
0.00374
0.00288
0.00300
0.04870
-0.00514
0.00435
0.01807
0.00611
-0.05486
0.00340
0.00493
0.00040
0.00207
0.00436
0.00337
-0.00500
-0.03604
0.00519
0.00109
-0.01742
-0.00422
-0.00930
0.00980
0.00143
0.01729
0.00627
0.00394
0.01231
0.01534
-0.00394
0.00356
0.00411
-0.02001
0.00266
0.00256
0.00223
0.00124
0.00509
0.00526
-0.01559
0.00219
-0.00898
0.00271
0.03966
0.00313
0.00298
-0.01551
0.00431
0.00354
0.00345
0.02246
-0.02044
0.00441
0.00296
-0.03932
-0.00751
0.00350
0.00197
-0.00308
0.00343
0.01265
0.00231
0.00349
-0.00604
0.00513
0.00294
0.00303
0.00072
-0.02206
0.00353
0.00830
-0.01109
0.00424
-0.00480
-0.00907
0.00140
0.00424
-0.00436
0.24667
-0.00142
0.00209
-0.01524
0.00260
0.00163
-0.00952
0.00455
0.00419
0.00539
0.00407
0.00413
0.26186
0.00331
-0.00555
0.00637
-0.00853
0.00311
0.00628
0.10864
0.02322
0.00177
0.00390
0.00319
0.00115
0.00602
0.00433
-0.01748
0.00251
0.00267
0.00351
0.00496
0.00355
-0.00783
0.00365
-0.00958
-0.01072
0.00071
0.00253
0.00238
-0.01019
0.00326
0.09974
0.00489
0.00195
0.00083
0.00476
0.00323
-0.00174
0.06370
0.00372
0.00370
-0.01188
0.00410
0.00380
0.00119
0.00260
-0.01907
-0.00846
-0.00861
0.00318
0.00228
0.00377
0.00899
0.00158
0.00556
0.01166
0.00832
0.00048
-0.01808
0.00115
-0.01001
0.00377
0.00274
0.01078
-0.01106
0.00181
-0.00249
-0.00858
-0.01860
0.21051
0.11856
0.00765
0.06287
-0.05300
0.00519
0.00394
0.00772
0.01526
0.00542
0.00817
-0.00315
0.00162
0.03063
0.00373
0.00104
0.00369
0.00376
0.00484
0.00061
0.00322
-0.00078
0.00335
0.00276
-0.00120
0.00040
-0.00322
0.00394
0.00604
-0.00662
0.00339
0.32950
-0.01041
0.00240
0.00370
0.00486
-0.02763
0.03568
0.00597
0.00160
0.00472
0.01088
0.35333
-0.03039
-0.01580
-0.01477
0.00829
0.00448
0.00359
0.00234
0.00356
0.00468
0.00137
-0.02015
0.00577
-0.00794
0.00664
0.00459
0.00461
0.00135
0.00651
0.00132
0.00470
0.00916
0.00630
-0.00584
0.00171
-0.30744
-0.00371
-0.00149
0.00323
0.00066
0.00218
0.00381
-0.08612
0.00372
0.00596
0.00363
0.00138
0.00285
-0.01558
0.00703
0.00476
0.00577
0.00409
0.00302
0.00494
-0.00538
0.00427
-0.00234
0.00057
0.26461
0.01272
0.00443
0.00363
-0.00318
0.00677
-0.00189
0.00752
0.00466
0.00425
0.08970
0.00094
0.00404
0.00367
0.00192
-0.00077
0.00224
0.00400
0.00635
0.00314
0.00267
0.00333
0.00459
0.00469
0.01057
0.00345
0.00379
0.00197
0.00363
0.00308
0.00379
-0.00631
0.00511
0.00421
0.00246
0.00463
0.01362
0.00127
0.00328
0.02266
0.00276
0.01943
0.00390
-0.02521
0.00357
0.00569
0.00376
0.00377
-0.00056
0.00176
0.00292
0.10607
0.00216
0.03677
0.00053
0.00541
-0.01218
0.00816
0.00116
-0.00540
-0.00323
-0.00650
0.00505
0.00396
0.00354
0.00579
0.02937
-0.00223
0.00308
0.08633
-0.02669
0.00652
0.00316
0.00577
-0.00345
0.00500
0.00225
-0.02708
-0.00289
0.00540
0.00601
0.00340
-0.00575
0.00512
-0.00011
0.00669
0.00961
-0.00419
0.00631
0.00321
0.01229
0.00205
-0.01818
-0.02289
0.00228
-0.00019
0.00295
0.00285
-0.00024
0.00902
0.00289
0.01356
-0.01347
0.00540
-0.00199
-0.00479
0.00288
0.00184
-0.00315
0.00552
0.00114
0.03043
0.00382
0.00332
0.00371
0.00348
0.00406
0.01106
-0.00791
-0.00629
-0.00682
0.00147
0.00277
-0.00115
-0.00435
0.00567
-0.06540
0.00331
0.00284
0.00802
-0.00209
0.00137
-0.01889
0.00418
-0.00886
0.01579
0.00466
0.00320
0.05293
-0.01736
0.02788
0.01445
0.00247
0.01096
-0.00083
-0.01586
0.00140
0.00981
-0.00672
0.00515
-0.09803
0.00791
0.00258
-0.00417
0.02546
0.00558
-0.00813
0.01326
0.00439
-0.03165
0.08698
-0.00129
0.00093
0.08331
-0.00691
0.00309
0.00691
0.00401
0.00346
0.00298
0.00328
0.00561
-0.00852
0.00710
0.04758
-0.00295
0.00380
0.00354
0.04140
-0.00848
-0.01963
-0.01355
0.00314
0.02057
0.01977
-0.00342
-0.34866
0.01285
0.00073
-0.00562
0.12990
0.00215
0.00525
0.00076
0.00301
0.01300
0.01298
-0.01405
0.00668
-0.01201
0.01278
0.00338
-0.00052
0.00185
-0.01556
-0.01017
0.01881
-0.00586
0.00305
-0.01085
0.00344
0.00322
-0.00462
-0.00061
0.00555
0.09754
-0.00808
0.00131
0.00492
0.13462
0.00334
0.00347
0.00122
0.00112
0.00479
0.00462
0.00456
0.00583
-0.01703
0.02462
0.00645
-0.02427
-0.00087
0.01566
0.00802
-0.03397
-0.00949
-0.01485
0.01056
-0.24266
-0.00175
0.00353
0.01291
-0.01211
-0.00219
0.00419
0.00212
0.00737
0.00320
0.00312
-0.00459
0.00421
-0.00168
-0.01203
0.00402
0.00428
0.00264
0.00058
0.01037
-0.00322
-0.00104
-0.00262
0.00416
-0.19619
-0.01004
-0.01403
0.00921
-0.01639
0.03022
0.02788
-0.00943
-0.00141
-0.02252
0.00378
0.00038
0.00418
0.01382
0.00151
0.00353
-0.00651
0.02836
0.00321
0.00224
0.00548
-0.00659
0.00360
-0.00195
0.00438
0.00478
0.00183
0.00245
-0.02164
-0.00680
0.00332
0.29945
0.01397
0.02121
0.00395
0.00289
0.00079
0.00270
-0.00456
-0.00349
-0.00162
-0.00476
0.00113
-0.01287
0.00476
-0.00187
0.00973
-0.00439
-0.00430
0.01137
0.00965
-0.00370
0.08858
0.00548
0.00752
0.04953
0.00257
0.00107
0.02275
0.01034
0.00080
-0.03300
0.09958
-0.00305
0.02401
-0.00727
0.01725
0.00643
-0.00641
0.01045
-0.01311
0.00376
-0.01228
0.00522
0.00944
-0.00479
-0.00124
-0.00014
0.00472
-0.00133
0.02146
0.00261
-0.00172
-0.00266
0.00342
0.00742
-0.01111
-0.04365
0.01292
0.00787
0.00315
0.05305
0.00650
0.00721
0.00238
0.00222
0.00791
-0.03022
0.01671
0.00323
-0.00209
0.00726
-0.01736
-0.00170
0.00388
0.10513
0.02593
0.10958
0.02061
-0.00541
-0.00613
0.01181
-0.00498
-0.00760
0.01645
0.00160
-0.00341
0.00121
-0.03664
0.00698
0.00609
-0.07477
0.00909
-0.01203
0.00672
0.00295
-0.00536
0.21789
-0.00110
0.00174
-0.00967
-0.00894
-0.00159
0.00364
0.05581
-0.00780
0.00398
-0.01188
0.00240
-0.00832
0.19263
0.00975
-0.00921
-0.00486
0.00281
0.00412
0.00448
0.00479
0.00378
0.00036
0.00741
-0.00555
-0.00641
-0.00837
-0.00360
0.00368
0.00374
-0.00391
0.00269
0.00346
0.01182
0.00384
0.00669
0.01485
-0.01184
-0.00651
-0.00717
-0.01418
-0.00750
-0.01025
-0.00747
0.12500
-0.00554
0.00157
0.00179
-0.00395
0.00192
0.00510
0.00592
-0.00310
0.00464
0.02202
-0.01575
0.00931
-0.02440
0.01113
0.01878
-0.06366
0.00040
0.00104
0.00454
0.00868
-0.00756
-0.00220
-0.04567
0.00015
-0.00483
0.00938
-0.00277
0.01297
-0.01496
0.01723
-0.02629
-0.02942
-0.03141
-0.00715
-0.07605
-0.00460
0.04569
0.01105
-0.00316
-0.02613
0.05996
0.02397
0.00294
0.00596
-0.01246
0.00384
0.00643
0.00116
-0.00771
-0.00200
0.00112
-0.00350
-0.00372
-0.00343
0.10195
0.09773
0.17566
-0.05757
-0.00342
0.00443
0.06320
0.02059
-0.02077
0.00090
-0.00853
0.00451
0.06657
0.00994
0.08533
0.00402
-0.00000
0.00667
-0.02706
0.00448
-0.00387
-0.00869
0.00817
0.00318
0.00416
0.00277
0.00602
-0.00019
-0.01595
0.02559
0.00461
0.00573
-0.00855
0.00469
0.01127
0.00154
0.00122
0.01437
0.00187
-0.00133
0.00049
-0.01313
0.01415
0.00480
-0.00122
-0.00811
0.00407
-0.01225
0.01306
0.00283
0.00488
0.00021
-0.00083
0.26550
-0.02947
0.01538
-0.03242
0.00562
0.00524
0.00849
0.00131
0.00781
-0.00770
-0.00437
0.08189
0.05502
0.01974
-0.01294
-0.00059
-0.01694
-0.00079
0.00617
0.00159
-0.00592
-0.02170
0.00139
0.00500
0.31646
0.00005
-0.00075
-0.00218
-0.00760
0.00339
-0.00576
-0.00030
0.00061
-0.00950
0.00535
0.00558
-0.00589
0.00670
0.00168
0.00465
-0.01737
0.02775
-0.01409
0.04832
0.00336
0.06791
0.00160
-0.00937
-0.00473
0.00395
0.00305
0.00450
0.00507
0.07740
-0.00926
0.00927
-0.00952
0.00400
0.01547
0.01769
-0.00300
0.42027
0.01944
0.00465
0.06478
0.00999
0.08726
0.00137
0.00486
-0.01710
0.00226
0.01341
-0.00038
0.00079
0.00289
0.01007
0.02503
-0.00603
0.02727
0.01418
-0.00653
0.00334
0.00278
-0.01262
0.00762
0.30568
0.44043
0.00478
-0.00142
-0.02579
0.00959
0.30192
-0.00498
-0.40395
-0.00840
0.00251
0.00285
-0.01117
-0.00515
-0.00730
-0.04464
0.00713
-0.01237
0.00165
-0.00416
-0.00883
-0.00891
0.03561
0.01650
-0.00074
-0.00404
-0.00036
-0.00228
-0.40266
0.06193
-0.00438
0.01287
0.02478
-0.00154
0.00512
-0.00578
-0.01709
0.01365
-0.00525
0.00764
-0.00486
-0.00761
-0.01000
-0.01833
-0.00475
-0.00148
-0.02203
0.01091
-0.00716
0.02977
-0.00923
0.06114
-0.00835
0.01767
0.00166
0.00296
0.00239
0.00403
-0.00779
-0.00531
0.00431
-0.00308
0.02601
0.00722
-0.01867
0.00736
-0.00156
-0.00941
-0.00272
0.00494
-0.00823
-0.00214
0.07065
-0.00015
0.01273
0.00603
0.04334
0.01745
-0.01428
0.00392
0.02890
-0.00225
0.00002
0.00484
-0.02304
0.00286
0.01430
0.00848
-0.01008
0.01572
-0.01225
0.00058
0.00185
0.00034
-0.01213
-0.00176
-0.02696
-0.00492
-0.01447
-0.00591
-0.06238
-0.00387
0.00065
0.03363
0.01286
-0.00387
-0.00437
-0.00644
-0.00439
-0.01681
0.00313
0.00595
0.01117
-0.00633
0.01905
0.01096
-0.01469
0.01524
-0.00245
-0.00013
0.00620
0.02771
0.01005
0.00300
-0.01823
-0.01619
0.00488
0.00423
0.00937
-0.01682
-0.01942
-0.01682
0.01481
0.04099
0.00237
0.02013
0.00706
0.00406
-0.00370
0.00016
-0.01221
-0.00826
-0.00561
0.02070
-0.00300
0.00313
-0.01286
0.01515
0.02269
-0.00193
0.21986
0.02662
-0.00024
0.00079
-0.01508
-0.00134
0.00506
0.00599
0.02005
0.00504
-0.00344
-0.01006
0.00533
0.00680
-0.00471
0.04306
0.01781
-0.00292
-0.00604
0.00356
-0.01537
-0.00494
0.01270
0.00671
0.02087
0.01844
0.00285
-0.01243
-0.01305
0.00293
0.00032
-0.00106
0.00014
0.00776
-0.00654
0.01162
-0.00997
0.00315
0.00322
-0.00146
0.02206
-0.01234
-0.01014
-0.00099
-0.00594
-0.00435
-0.00769
0.00218
-0.01070
-0.00749
0.00029
-0.00330
-0.00221
-0.01335
-0.00237
0.01169
-0.00261
-0.00682
-0.00427
0.00235
0.00131
0.02195
-0.00651
0.00260
0.00357
-0.00328
0.00403
0.00035
0.00483
-0.00006
0.00231
0.00058
-0.00114
-0.01426
0.00446
-0.00271
0.00667
-0.01268
-0.00585
-0.00654
-0.00495
-0.02095
0.04972
0.01594
0.00174
0.01704
0.00506
0.00600
0.00342
0.01336
-0.00349
-0.00947
0.00503
-0.03375
-0.00933
-0.01019
-0.00214
0.00493
0.00212
0.01496
-0.00267
-0.00500
-0.00472
0.01036
-0.00668
-0.00172
-0.00831
-0.00317
-0.03036
-0.00072
-0.00081
0.00782
-0.00880
-0.00440
-0.01620
-0.00498
0.05964
-0.00116
-0.04212
0.00298
0.01570
-0.00452
-0.00200
-0.00650
0.02350
0.00512
-0.01212
0.00167
0.00519
0.00080
0.10377
-0.00626
-0.00408
-0.01047
-0.00834
0.03904
-0.00667
-0.00962
-0.00218
0.00052
-0.01979
-0.39832
0.00187
0.00666
-0.00852
-0.00073
-0.00359
0.00550
0.00325
0.01108
-0.00388
-0.00717
-0.00101
-0.01195
0.00478
-0.00420
-0.01135
-0.00399
-0.00021
0.00250
0.00125
-0.00410
-0.00341
-0.05354
-0.01933
-0.01102
0.00313
-0.03989
0.00267
0.01982
0.01799
-0.01236
0.00433
-0.00172
0.00503
-0.00322
0.00526
0.00687
0.00314
-0.00264
0.00176
-0.00898
0.08443
0.00239
0.02024
0.01572
0.00331
0.00691
0.01233
-0.01231
0.00366
0.03587
0.00605
0.01230
-0.00763
-0.00857
0.00174
-0.00973
-0.00189
-0.00872
-0.00684
-0.00394
-0.00704
-0.01181
0.00344
0.01700
0.03076
-0.00602
-0.00124
-0.00791
-0.00675
0.00322
0.00522
0.01304
-0.00549
-0.00313
0.00442
0.00048
0.04479
0.02428
-0.00447
-0.00369
0.00740
-0.00043
0.01286
-0.00156
-0.00723
-0.00355
0.00262
-0.00552
-0.01627
-0.04890
0.02978
-0.00748
-0.00162
-0.00819
-0.00889
-0.01262
-0.00476
0.00170
-0.00047
0.02870
0.01687
0.08652
0.01638
-0.03781
-0.00388
-0.01813
0.00520
-0.00186
-0.01252
0.07073
0.00520
-0.01130
-0.00826
-0.00648
0.02431
-0.00712
-0.00029
-0.00360
0.00271
0.01504
-0.00753
0.02657
0.00957
0.00143
-0.01268
0.01152
-0.00737
-0.42623
0.02362
-0.00397
-0.00090
0.00408
0.01712
-0.00109
-0.00368
-0.06405
0.00078
-0.00505
-0.00368
0.01846
0.02321
0.00138
-0.01224
0.24750
0.00091
-0.00931
-0.01918
0.02425
0.32615
0.00532
-0.00563
-0.00771
-0.01216
-0.00380
0.01142
-0.00599
-0.01283
0.00590
0.35042
-0.00109
0.32967
0.00405
0.00194
-0.00792
0.02408
0.02295
0.00954
-0.00090
-0.00527
0.00044
0.01354
-0.00004
0.00967
0.01443
-0.00846
-0.00324
-0.00903
-0.00739
0.01700
0.00183
-0.00841
0.00198
-0.02393
0.00255
-0.00140
0.00293
0.00116
-0.06578
0.01457
-0.27165
0.34987
0.02970
0.01290
0.00319
-0.00874
-0.00419
0.01176
-0.00101
0.36888
-0.01085
-0.02721
-0.01199
-0.03371
0.25547
0.00326
-0.00260
-0.01419
0.03944
-0.00322
-0.01461
-0.00169
-0.00578
-0.00401
-0.00937
-0.00761
-0.00743
-0.02204
-0.00329
0.00905
-0.00185
0.04363
-0.00434
-0.00916
0.00767
0.01084
-0.00106
-0.00033
0.03088
-0.00741
0.00152
0.00282
-0.00140
0.00887
-0.00025
-0.01721
-0.00749
0.01137
-0.00288
-0.01665
0.00738
0.01449
-0.02033
-0.01711
-0.00897
0.02258
