0.10817
0.14031
-0.27509
-0.76814
0.02435
0.48582
-0.50484
0.28882
-0.50057
0.38873
0.13985
0.04381
-0.36596
0.36346
0.32867
0.05620
0.22391
0.18834
-0.15259
0.65085
0.71412
-0.13726
0.37095
-0.16069
-0.68357
-1.05292
-0.09456
-0.42334
-0.76017
-0.06969
0.06451
-0.24497
0.46839
-0.20934
0.73605
0.60015
-1.29855
0.33341
-0.58694
0.00463
-0.21268
-0.36519
0.05861
-0.76735
0.33957
0.56943
0.39953
0.80688
0.48944
-0.29009
0.30393
0.36799
0.59133
0.32341
-0.96912
-0.63826
-1.24332
0.39452
-0.07617
-0.28787
0.07879
0.37578
0.17673
-0.20993
-0.15585
0.21176
0.98717
-0.06783
0.47329
0.49291
0.52474
0.16093
-0.32837
-0.00193
0.07839
-0.35357
-0.53554
0.15337
-0.47504
-0.10212
0.00524
0.59958
0.83067
0.99638
-0.42410
-0.04840
0.40395
0.55716
-0.13950
-0.10657
-0.09032
0.01411
0.27507
-0.08926
-0.06912
-0.07014
-0.19777
0.01794
0.62965
0.24622
-0.00968
0.05179
0.06085
-0.02719
0.35931
0.09135
0.41333
0.23336
-1.02262
-0.58786
-0.27824
-0.31852
0.07050
0.12102
0.12687
-0.10207
0.03046
0.31774
0.32461
-0.90235
-0.48962
-0.51638
0.69511
-0.08080
-0.77551
-0.39559
0.65547
-0.04516
0.18209
-0.41446
-0.04588
0.24067
0.13801
0.25697
-0.10209
0.27552
0.21157
0.52699
-0.11133
0.14158
0.31337
-0.34577
-0.06629
-0.22284
0.11834
0.28222
0.12078
0.15188
-0.06381
-0.09803
0.34616
-0.52622
-0.47051
0.36770
0.59356
-0.52690
0.51738
0.05698
-1.07833
-0.02201
0.09514
-0.25672
-0.43860
0.36042
0.10162
-0.02748
-0.63885
0.70619
1.00675
0.11089
-0.77673
-0.21709
-0.56200
-0.66256
-0.63720
0.14167
-0.00832
-0.58111
-0.68376
0.40728
0.57904
0.31452
-0.07962
0.03971
-0.03411
0.51022
-0.05260
0.44938
0.12097
-0.06219
0.69413
-0.24151
-0.05346
-0.26811
0.14790
-0.68908
0.39639
0.33955
-0.11607
-0.79075
0.94648
0.42838
0.28550
0.24271
0.21327
-0.12264
-0.30576
-0.41041
-0.41806
0.23293
0.35560
-0.39596
0.00932
0.63810
-0.53087
-0.21820
0.19576
0.12153
0.28487
-0.08552
0.21330
-0.01384
0.59182
0.63246
0.18558
0.45983
0.07367
-0.22316
-0.62654
-0.23124
-0.49915
-0.33026
-0.23934
0.11887
-0.11935
-0.12739
0.63433
0.58216
0.09941
-0.09006
-0.23715
0.17360
-0.47663
0.00862
-0.46772
-0.26741
-0.18299
0.40939
-0.34940
-0.02521
0.06732
0.13066
-0.69414
0.21700
-0.41928
-0.32759
-0.25125
0.07432
0.08368
-0.13497
-0.42401
0.47908
0.33149
-0.36276
-0.06117
-0.49438
-0.11093
-0.73171
-0.37048
0.15844
0.96071
0.21810
0.18397
0.44055
-0.07744
-0.78976
-0.20452
-0.62734
0.48689
0.18910
0.55851
0.58877
-0.34477
-0.48557
-0.21841
-0.15583
0.05815
0.48276
0.12501
-0.44023
-0.39363
-0.11524
-0.73623
0.00290
0.11652
-0.29010
0.25638
-0.20959
-0.75322
-0.67507
-0.53585
-0.29582
-0.15852
-0.35419
-0.07632
-0.55076
0.11375
-0.95453
-0.28392
0.17803
0.49690
-0.87958
-0.11282
-0.35588
-0.82274
0.29363
-0.03115
0.10107
-0.33391
0.55849
0.48848
0.09678
0.29661
-0.44654
-0.79550
0.30280
0.55242
0.13714
-0.35486
0.17348
0.31037
0.01103
0.47234
0.42069
0.63861
0.07231
0.65607
0.19787
0.19884
-0.48155
-0.11806
0.21869
0.55866
0.04710
-0.34971
0.56919
0.57945
0.14469
-0.47723
0.37735
-0.34904
-1.46226
-0.34153
0.31856
0.39829
0.23440
0.03368
0.30884
0.24919
-0.14770
0.11711
0.35669
0.19083
-0.35551
0.42229
0.28053
0.03823
0.59977
0.56332
-0.33656
-0.62441
0.34665
0.65488
0.23559
0.34580
-0.32562
0.07364
-0.28852
0.19841
-0.10739
-0.72595
0.30601
-0.46194
-0.32000
-0.30766
0.04308
0.34144
0.81939
0.25313
0.58854
-0.24736
-0.09470
-0.10365
0.26031
-0.16315
-0.19614
0.58283
-0.54190
0.05864
0.47007
0.14421
0.55005
0.15626
-0.12749
0.05770
0.01732
0.02912
-0.19876
0.07836
-0.31461
0.31245
-0.27979
0.30765
0.09771
0.50828
-0.33909
-0.00944
0.71077
-0.75259
-0.48997
-0.42225
-0.32389
-0.08861
0.80173
0.32216
0.31399
0.24401
-0.09019
-0.19434
-0.03068
0.04813
-0.01737
-0.66227
-0.67073
0.19533
0.66012
0.38132
0.11343
0.14345
0.43521
-0.56632
0.40623
0.25572
0.27257
0.04735
-0.07758
-0.32683
0.23535
-1.58231
0.50576
0.52604
0.13009
-0.00114
-1.36043
0.03570
-0.58658
-0.47031
-0.04603
0.30448
0.29178
0.08986
0.29503
-0.03487
-0.40651
0.30099
0.63171
0.09589
-0.38049
0.10554
0.10829
0.04957
0.52923
-0.60484
-0.68713
0.31348
-0.38327
0.31638
-0.38968
-0.82149
0.02318
0.43046
-0.02021
-0.00663
-0.62927
-0.03762
0.04726
0.25384
-0.14537
0.13453
0.08287
-0.17126
0.33954
-0.81367
-0.11466
0.03009
0.46086
0.29848
-0.51035
0.37321
0.28066
-0.53830
0.20748
0.22714
-0.12289
-0.09510
0.00872
0.43295
-0.13030
0.05951
0.35760
0.78179
-0.13509
0.54743
0.20732
0.36021
-0.29618
0.02882
0.07037
0.05574
-0.97598
0.82370
0.17919
0.39736
0.47871
0.12176
0.22631
-0.12786
0.13753
-0.25134
-0.45168
-0.39242
0.29669
0.27763
0.39293
-0.01207
0.42796
0.45929
0.66662
-0.10789
0.22908
-0.16582
-0.31320
-0.09622
-0.17179
0.23065
-0.33881
-0.07623
0.30473
0.48353
0.31569
-0.14504
0.25762
-0.86815
0.18603
-0.21087
-0.92073
-0.03218
-0.09206
-0.23525
0.48503
-0.33840
0.01013
0.13295
0.51026
0.02341
0.13298
0.03127
-0.33930
0.71921
0.06130
-0.08619
0.45096
0.09924
0.33225
0.18042
-0.26621
0.12921
-0.67102
0.18137
-0.10212
-0.44754
0.34571
-0.08073
0.15359
-0.06918
0.19194
0.83202
0.18255
0.35910
0.31010
0.90648
0.18663
0.40538
0.06240
-0.07905
-0.17056
0.52627
-0.04826
-0.94527
0.67177
-0.06160
-0.40197
0.45067
-0.37384
-0.38296
-0.13385
0.01613
-0.05960
0.04856
0.31338
0.13489
-0.04527
-0.09322
-0.25861
0.08714
0.04138
0.14314
0.97961
-0.05547
0.40883
-0.07765
-0.05743
0.16786
-0.44674
0.53162
0.18283
-0.60652
-0.56776
0.08827
0.27094
0.36239
-0.26233
-0.53780
0.29044
0.33869
0.29847
-0.05963
0.37093
-0.15354
0.08509
-0.48835
-0.12314
-0.67367
0.23013
-0.14688
0.26801
-0.93047
-0.26157
-0.36164
0.32274
0.04287
0.17498
-0.47772
0.24805
-0.00271
0.00700
0.46832
-0.34326
-2.04369
0.39504
0.01126
0.06883
0.33765
0.29820
-0.54133
0.76071
0.49547
0.19151
0.01098
0.22830
-0.11262
0.07840
-0.26007
0.21309
0.25996
0.27639
-1.36180
0.81399
0.88400
-0.10129
0.40413
0.15766
0.61840
-0.25090
0.19427
-0.14464
0.47542
-0.03064
-0.16360
-0.33570
0.61802
0.34421
0.13872
-0.01856
0.13337
-0.25843
0.02043
-0.29133
0.38313
-0.03788
0.42502
0.49684
0.22806
0.00618
0.24921
-0.38251
0.43022
-0.19203
0.36666
0.02250
-0.10738
0.25220
0.52096
0.42576
0.57328
0.75034
0.10597
0.63811
0.44588
-0.19097
-0.37508
0.66983
-0.16266
0.11203
-0.32606
0.16513
0.15148
0.06352
-0.89425
0.10209
-0.06831
0.53016
0.27610
0.31665
0.53294
0.07248
0.04304
0.16345
0.24199
0.34874
0.14599
-2.00603
0.56445
0.32385
0.01346
0.44025
-0.03525
-0.16184
0.10888
0.67625
-0.25313
-0.56353
0.25400
0.40632
0.49582
0.23210
-0.10405
-0.25550
0.41949
-0.35191
-0.35803
0.11584
-0.49277
0.01782
0.40708
0.46049
-0.24957
0.09128
0.18738
0.54976
0.45631
0.29228
0.51091
-0.30094
0.18088
-0.21869
-0.24582
0.12383
-0.63338
-0.18021
0.27075
-0.51999
0.51452
-0.50760
0.61954
0.47551
0.32556
0.13107
-0.47705
0.10483
0.16783
-0.44125
0.15573
0.23448
0.66161
0.15166
0.12485
-0.28994
0.09590
-0.09445
0.34003
0.27794
0.08601
-0.01566
-0.69216
0.19719
-1.46951
-0.07636
0.38266
0.34454
0.53227
0.18932
0.66725
0.30157
-0.80285
0.39513
0.19698
0.66271
-0.25283
0.31257
-0.22407
0.19376
0.18102
-0.01704
0.40109
0.28973
0.76779
0.20255
-0.10600
-0.54686
-0.34928
0.71525
-0.11242
-0.31519
-0.68877
0.18215
0.31126
-0.41232
-0.29836
0.28488
-0.03787
0.68799
-0.03359
-0.40998
0.11181
0.46625
0.25618
0.42849
-0.14902
0.00803
0.37614
0.02288
0.59338
0.46427
-0.69471
-0.26562
0.11184
-0.39421
-0.57601
0.24655
0.24142
-0.13575
-0.93893
0.06724
-0.20076
0.43511
-0.32344
-0.35900
0.01039
-0.26518
-1.62289
-0.19015
-0.28099
-0.75037
0.48608
0.07398
0.12812
-0.58532
0.55002
0.16744
-0.03655
0.38317
-0.33292
-0.35125
0.66398
0.27363
0.69250
0.99499
0.52988
0.11574
0.31040
-0.68688
0.31775
-0.40433
-0.15684
0.06038
0.30761
0.36702
-0.37350
-0.27343
0.15039
-0.19649
-0.60684
-0.54938
0.22900
0.26438
0.19562
0.08159
-0.17917
0.32657
-1.33925
-0.37393
-0.38579
0.17071
0.12169
0.23397
-0.48941
0.22134
-0.10790
0.15222
-1.22469
-0.19193
0.29647
0.03374
-0.01739
0.29654
0.54309
-0.11023
0.89633
-0.21758
-0.33391
0.61638
0.10642
0.38084
-0.48851
0.37130
-0.06273
-0.30315
0.13139
0.07185
-0.28984
0.27516
0.46194
-0.28996
-0.61835
0.37106
-0.05670
0.32156
-0.62537
-0.72213
-0.05194
0.14856
-0.75158
-0.46481
-0.35507
0.29494
-0.27418
0.13739
0.68525
-0.11610
-0.12342
-0.09438
-0.28422
-0.29258
0.47394
-0.07568
0.46771
-0.37375
-0.23338
0.66055
0.20948
0.27131
-0.15509
-0.28572
0.26394
-0.07301
0.16026
0.63131
-0.23426
-0.63817
-0.10482
0.73043
0.23427
0.17690
0.46191
0.26185
-0.15925
0.70160
0.50159
-0.33562
-0.44228
-1.00083
-0.40921
-1.09097
-0.54462
0.12810
0.14248
0.02524
-0.17511
0.54343
0.00046
0.20528
0.01646
0.62347
0.07681
-0.18477
0.06545
0.20699
-0.79005
-0.15748
-0.42255
0.18854
-0.13668
0.52742
-0.20274
-0.45006
0.55726
0.41565
0.36122
-0.19997
0.13610
-0.09960
-0.51642
0.12134
-0.69116
-0.24344
0.12909
0.22371
0.61373
-0.29317
-0.21539
0.18784
0.38962
-0.27048
0.16202
0.54158
-0.74619
-0.17172
0.20137
-0.31569
-0.00205
-0.32210
0.34977
-0.24772
0.59464
0.39337
0.49254
-0.47385
-0.04238
0.14666
-0.01201
-0.43451
-0.84160
0.20869
0.30462
0.06494
0.26301
0.62646
-0.18533
0.39952
-0.09504
0.39083
-0.17822
-0.60590
0.67189
-0.00237
0.13602
-0.33670
0.60771
0.26124
0.14270
0.01252
-0.58381
-0.55858
-0.27526
0.24452
-0.07098
0.72316
0.23098
0.05737
-0.81694
0.31132
0.86287
-0.37243
0.50362
0.78592
0.14759
0.62245
0.29286
0.39531
0.19155
-0.05909
0.25444
-0.64847
-0.99881
0.03020
0.00046
-0.09916
-0.52181
-0.53701
0.61282
-0.07685
-0.00811
-0.02700
0.41241
0.34887
-0.17910
0.53005
0.48082
0.21926
-0.25518
0.42475
0.39295
0.25120
-0.33674
-0.24054
0.47343
-0.13078
0.44711
0.30107
0.04595
0.20142
0.40658
-0.47674
0.44769
0.49034
0.26997
0.44124
-0.40842
-0.12489
0.41839
0.03483
0.00133
0.89390
0.42068
-0.54999
-0.12362
-0.88437
0.07217
0.14191
-0.05566
0.08364
0.21971
0.10837
-0.39677
0.46643
-0.26657
0.51798
0.09796
-0.01069
0.69987
-0.07844
-1.26623
-0.15014
-0.06115
0.44539
-0.08485
0.49832
0.57848
0.13803
0.47163
-0.68244
-0.78321
0.32301
-0.03940
0.19570
0.12100
-0.03794
-0.01021
-0.22735
-0.30216
-0.04308
0.34005
0.12206
0.44747
0.13167
-0.23058
0.10872
0.08633
0.27005
-0.11450
-0.50971
0.17128
-0.05745
0.82829
0.02239
0.08273
-0.30577
0.44974
0.27613
-0.26000
-0.36395
0.78382
0.52957
0.15220
0.11708
-0.18242
0.03464
-0.11572
0.13425
0.48735
-0.10509
0.31674
-0.45389
0.24441
0.19232
0.07144
0.05204
-0.59955
-0.31544
0.17163
-0.26186
0.19336
0.25494
-0.78374
0.06504
-1.34627
-0.15764
-0.43643
0.01584
0.37980
-0.27638
-0.00632
0.23062
-0.43243
-0.23002
0.18036
0.75827
0.13758
-0.12470
-0.53652
0.34435
-0.33270
-0.50265
0.56063
-1.34438
0.42929
0.63732
0.12763
-0.09751
0.64066
0.09557
0.57288
-0.25454
-0.09510
-0.26383
-0.07016
0.11408
0.16646
0.48884
-0.01924
0.15522
-0.25812
-0.39801
0.33871
0.49965
-0.45352
0.29224
0.00093
-0.75651
0.00723
0.21670
-0.27354
0.15994
-0.15161
0.58682
0.23531
0.13220
0.16460
0.23236
0.16727
0.28240
0.25839
0.21241
-0.71393
0.24459
-0.11221
0.01512
-0.12863
-0.07716
0.54592
-0.37108
0.34565
0.35700
-0.99543
0.64572
-0.13352
-0.06812
0.09409
0.30811
-0.40272
0.32064
0.46110
-0.17182
-0.09817
-0.57456
-0.05001
0.49921
0.38296
-0.02939
0.37637
-0.01981
0.12851
0.37913
-0.13573
-0.62452
0.37471
0.59685
0.31715
0.09841
0.23629
-0.10767
0.54642
0.78290
0.13566
-0.22432
-0.19016
0.18914
0.66503
-0.67653
-0.41538
0.47362
-0.44924
0.09072
-0.02255
-0.18533
-0.00239
-0.71656
-0.33272
-0.54580
-0.21949
0.45857
-0.19263
-0.56182
0.30962
-0.32377
-0.33517
-0.37893
0.14480
0.24925
-0.54145
0.57960
0.38783
0.55931
-0.48846
-0.98781
0.20339
0.46515
0.30149
0.21512
0.35890
0.72500
-0.08054
-0.59541
0.00196
-0.12866
0.58554
0.09595
0.15761
0.27037
0.41301
0.51932
-0.84721
0.18621
-0.23672
-0.03114
0.30504
0.33504
0.07308
-0.11664
0.25066
-0.18956
0.02473
0.22853
-0.05902
0.07926
-0.68566
0.45146
0.31051
0.22704
-1.02518
0.86020
-0.61415
0.40641
-0.26024
-0.09679
0.25258
-0.08108
0.03283
0.34914
-0.14235
-0.97716
-1.37126
0.24245
-0.20550
0.03367
0.51537
0.65045
-0.31869
0.30515
0.43102
0.22977
-0.35331
-0.19829
0.10061
0.10000
0.62852
-0.41647
0.53225
0.66623
-0.07597
0.44452
0.03797
-0.52582
-0.88592
0.34078
0.70538
0.51683
-0.82410
0.24258
-0.00515
0.60931
-0.34764
0.33222
0.56764
0.28362
-0.51900
-0.00659
-0.05794
0.63814
0.14833
0.54741
-0.60553
0.50010
-0.39901
0.33267
0.28639
0.41129
0.19240
0.18110
-0.84275
-0.11658
-0.65908
-0.30176
0.30384
0.26857
0.89073
0.01268
-0.01549
-0.15567
-0.04291
-0.33698
-0.62332
0.70197
0.01963
-0.16083
-0.43030
-1.18210
0.08765
-0.07203
0.41032
0.78297
-0.20561
-0.08734
0.10778
0.36443
-0.21670
0.51696
-0.22146
-0.74321
-0.71519
-0.28224
0.12594
0.13546
0.33908
0.02395
-0.07518
0.72378
0.35166
0.08933
0.56814
-0.00710
0.83093
-0.28387
0.00645
-0.34033
-0.37158
0.09978
-0.90197
-0.54109
-0.06479
0.38298
0.02546
-0.12891
-0.81239
0.14856
-0.21405
0.01233
0.18969
0.04070
0.08638
0.00500
0.03038
0.16608
0.10068
0.10131
0.15186
0.01264
0.02320
0.17895
0.16211
0.04834
0.06953
0.06323
0.06502
0.01053
0.09661
0.17505
0.12139
0.07287
0.03791
0.10658
0.20142
0.19523
0.02604
0.11563
0.06860
0.15441
0.01465
0.18762
0.10594
0.11479
0.14653
0.02331
0.00966
0.17993
0.19811
0.07289
0.01798
0.06401
0.00471
0.20022
0.14317
0.10561
0.06801
0.09416
0.13390
0.12606
0.00068
0.06839
0.00846
0.05129
0.13637
0.13402
0.07981
0.03076
0.06112
0.17840
0.01352
0.17182
0.01659
0.07263
0.07048
0.12259
0.11800
0.15757
0.13029
0.06419
0.06924
0.07951
0.09482
0.01653
0.15519
0.03360
0.17181
0.18400
0.05703
0.13683
0.08193
0.15533
0.06885
0.13914
0.18733
0.04786
0.03028
0.07798
0.01045
0.00104
0.15710
0.15590
0.14946
0.08460
0.18084
0.02343
0.13696
0.15158
0.14420
0.04450
0.15802
0.13255
0.08694
0.10659
0.14919
0.04543
0.16654
0.11975
0.02323
0.11393
0.00242
0.17084
0.10069
0.04586
0.20732
0.11236
0.07868
0.18227
0.03332
0.03585
0.20155
0.01308
0.13945
0.04080
0.20341
0.18754
0.20910
0.05891
0.14685
0.12081
0.11003
0.19314
0.13506
-0.06472
-0.11707
-0.07808
-0.07315
-0.01677
-0.09609
-0.04372
0.15673
-0.02349
-0.27635
0.16366
-0.05170
0.03881
-0.56352
-0.36780
0.31376
-0.05095
0.56912
0.14986
-0.11121
-0.45656
0.08855
0.16533
0.18985
-0.52205
-0.05168
0.49650
0.23003
-0.26963
0.29609
-0.24492
-0.30185
-0.02563
0.01104
0.47110
-0.86585
-0.22903
-0.14570
0.72996
0.20603
0.27116
-0.35195
0.49838
0.72127
-0.10259
-0.78094
-0.62233
0.18070
0.04133
0.13531
-0.59241
1.04212
0.51055
0.72980
0.07710
0.51389
-0.74329
0.54134
-0.17710
0.00871
-0.25179
-0.26735
-1.02633
0.17177
-0.73863
0.18783
-0.66847
1.12087
0.55077
-0.73822
0.31181
0.39621
-0.35819
-0.04705
0.07318
-0.16525
0.45377
0.54378
-0.19687
-0.28423
0.13189
0.52295
-0.23140
-0.24513
0.08058
0.18271
0.45759
-0.34592
0.17267
0.11419
0.04883
-0.52616
-0.24812
0.57390
0.63363
0.41478
0.98172
0.21465
-0.82464
-1.07793
0.09339
0.54634
0.17255
-0.20846
0.65951
-0.18750
0.64622
-0.60844
-0.24088
0.59428
0.05765
0.22295
-1.35597
0.25483
-0.02052
-0.80269
0.60511
0.68541
-0.68745
-0.10230
-0.16036
-0.02222
-0.18746
-0.38099
0.72852
-0.40015
-0.63089
0.30496
-0.04844
0.04055
0.73475
0.30154
0.12727
-0.30016
0.51361
-0.06999
-0.35973
0.17820
-0.13484
0.13747
0.74031
-0.01846
0.39187
0.36502
-0.59795
0.48510
0.10352
-0.18854
0.33554
0.25090
0.61330
0.42275
-0.27357
0.51022
-1.20827
-0.14573
0.53931
-0.36941
-0.06285
0.58529
0.65195
-0.38689
0.31267
0.44275
-0.58018
0.45738
0.54676
-0.64819
-0.38427
-0.69837
-0.49508
-0.05096
0.47160
-1.41392
0.42625
0.11634
0.53776
-0.08319
0.04596
0.62997
0.46869
-0.24020
-0.77350
-0.00013
0.42471
0.20722
0.78698
0.70521
0.42421
0.10742
0.31972
0.33297
-0.49541
0.06445
0.47978
0.27670
-0.37816
-0.01956
0.15701
-0.57091
-0.08488
-0.05533
-0.14276
-0.24731
-0.41266
-0.31801
-0.06326
-0.19314
-0.11230
-0.41974
0.03804
-0.27714
-0.24453
0.22114
0.04147
-0.37707
-0.48314
0.54522
-0.76621
0.03463
-0.11540
0.29922
0.75368
-0.62683
0.30463
-0.68203
0.37580
-0.16674
-0.26047
-0.27251
-0.02583
-0.93501
-0.60013
-0.10721
-0.19888
-0.26967
0.30008
-0.44899
-0.32022
-0.19311
-0.18850
-0.09166
-0.34101
-0.22126
0.00571
-0.12159
-0.41742
-0.33911
-0.05304
-0.13304
-0.34109
-0.30713
0.16168
-0.04932
-0.58769
0.20133
-0.05774
-0.37901
-0.27660
0.05480
-0.84965
-0.18152
-0.05218
0.42969
-0.29764
-0.37355
-0.40120
0.36369
0.21628
-0.90038
0.00458
0.52259
-0.60249
0.19994
-0.04020
-0.44799
-0.14182
0.32471
0.55543
0.07002
0.05846
0.01349
0.45090
0.19853
-0.07966
0.16042
0.20702
0.26624
-0.34426
0.46067
0.64590
0.36060
0.29456
-0.92452
0.42308
-0.10415
0.31107
-0.12287
0.47497
0.36001
0.45519
-0.23670
0.36859
0.46554
1.14276
-0.22922
-0.09151
0.78643
0.72244
-0.18174
0.19069
-0.08010
-0.01923
-0.48508
0.11836
-0.44950
-0.75035
-0.11136
-1.62417
-0.54492
0.02946
0.44335
0.08287
0.07447
0.20839
-0.51812
-0.44539
0.77011
0.13674
0.08443
0.57239
-0.01334
0.23433
-0.51598
0.22668
0.25953
0.37143
-0.08323
0.18625
0.52953
-0.24950
-1.30597
-0.22981
0.23434
-1.06019
0.07319
-0.47064
0.22362
-0.01891
-0.11385
-0.59275
0.41097
0.44415
-1.19221
0.27820
0.37839
0.61374
0.45280
0.13935
0.28521
0.45132
0.14732
-0.04851
0.00195
-0.33175
-0.24101
0.06867
-0.37473
0.31315
0.71649
-0.92683
-1.05664
-0.66034
0.05516
-0.39165
-0.82643
-0.48734
-0.09973
-0.51188
0.43130
0.43904
0.23956
0.45114
0.09384
-0.47840
0.37063
0.07663
0.47717
0.75573
0.27943
0.14488
0.10911
-0.16593
0.46066
0.65983
0.29022
-0.51334
0.36559
-0.90193
-0.33821
0.38951
0.45820
-0.47686
0.67039
0.73655
-0.52695
0.38838
0.40430
0.30647
-0.47083
0.38074
-0.52370
-0.98373
-0.09595
0.30806
-0.16317
0.23816
-0.67996
0.25334
0.00853
0.44188
0.16075
-0.27966
-0.21276
0.04302
-0.00731
-0.11537
-0.26390
0.21729
0.04548
-0.61022
-0.07893
0.30939
0.09234
-0.20962
0.66203
0.20580
0.35642
-0.59343
-0.05174
0.00117
-0.29275
-0.83005
0.05302
0.06677
0.78889
-0.18436
0.45259
-0.21113
0.22670
-1.13397
0.38466
-0.03711
1.01479
0.53517
-0.07835
0.00245
0.05030
-0.08042
0.19925
0.00160
-0.67536
0.16115
0.26310
-0.10185
-0.05275
0.66808
-0.02502
0.27391
-0.21672
0.16066
0.50573
0.25139
0.12504
0.39519
0.38820
-0.52471
-0.52092
-0.51543
-0.35756
-0.08309
0.02205
-0.23648
-0.10515
0.22777
-0.45869
-0.22717
0.26719
0.16083
0.22479
0.35207
-0.52406
-0.05631
-0.60507
0.09626
-0.07887
-0.81604
0.32696
-0.05251
0.61646
0.29293
0.35943
0.26193
-0.21581
0.27358
0.36057
0.43399
0.40162
0.00299
-1.18164
-0.00150
0.70459
0.52866
0.10062
-0.17937
-0.57202
0.72382
-0.29772
0.14158
-0.16383
0.63649
-0.10573
-0.28471
0.24964
-0.20532
0.07466
0.00896
-0.88125
0.37538
0.35302
-0.07704
0.32868
0.48044
0.05060
-0.22026
-0.16407
0.01629
0.04969
-0.15485
-0.55804
0.37216
-0.67952
0.37308
-0.04053
-0.36227
0.37077
0.72547
0.12720
0.29353
0.11654
0.12904
-0.86536
-0.34718
0.22722
0.40739
0.29462
-0.22519
-0.94938
-0.12374
-0.03633
-0.79261
0.28517
-0.42789
-0.04904
-0.20795
-0.45175
-0.53941
-0.61988
-0.93552
-0.02434
-0.09466
-0.17913
-0.67253
-0.99341
-0.28362
-0.71034
0.07680
-0.15446
-0.69221
-0.00964
-0.51517
0.16940
-0.02098
-0.02809
-0.01027
-0.63223
-0.06432
0.03600
-0.68774
0.58616
0.11443
-0.01923
0.32055
0.05591
0.09117
0.27886
0.44038
-0.37523
-0.11036
0.28391
0.68125
0.35869
0.22546
0.34887
0.20276
0.08052
0.26111
-1.22182
-0.19411
-0.52336
0.29952
0.11550
0.06816
0.37922
0.41507
0.58294
0.24402
-0.33093
-0.33041
0.11562
0.37768
0.00583
-0.02324
-0.00230
0.37916
-0.19386
0.36441
0.07596
-0.03250
-0.18255
-0.44145
0.29500
-0.99501
0.03589
0.60254
0.56226
0.32835
-0.48530
0.01779
0.23871
0.05739
-0.19227
0.03880
0.13338
0.29845
-0.10852
-0.08787
-0.16978
0.42812
0.35766
0.19570
-0.32545
0.12638
-0.77759
-0.06024
-0.03105
-0.59899
-0.22999
-0.34768
0.20505
0.13660
-0.03289
-0.58113
-0.43400
-0.78437
-0.68383
0.75625
-0.36710
-0.48163
-1.07084
-0.13251
-0.97269
-0.85745
0.51772
-0.07077
-0.52250
0.08970
-1.52939
-0.50351
0.44220
-0.59032
-0.28564
0.48389
0.10789
-0.74639
0.12323
-0.29170
0.07070
-0.01813
-0.14139
-0.37611
0.03887
0.25539
0.27455
-0.70019
-0.78171
-1.03798
-0.85557
-0.04952
-1.18976
-0.49795
0.23074
-0.67628
0.67786
0.28097
-0.17199
0.05860
0.37914
-0.63924
-1.64069
-0.10731
-0.09696
0.67663
-0.60973
-0.29377
-0.20302
-0.41609
-0.94752
-0.95863
-0.21562
-0.28265
-0.07060
-0.38197
-0.77035
-0.48470
0.24561
-1.26208
-0.40456
-0.03018
-0.02597
0.27616
-0.92179
0.60740
-0.25711
-0.19349
-0.43519
-0.42341
-0.29211
0.36949
0.05883
-0.64418
-0.40779
-0.07640
0.03372
0.95968
0.32224
0.44919
0.39475
-0.88414
-0.29081
-0.10086
-0.32702
-0.52701
0.13518
-0.06269
-0.39855
-0.92040
0.32446
-0.13082
0.38837
0.03388
0.42049
-0.33858
-0.20927
0.13566
0.22667
0.35514
0.67275
-0.22292
-0.02947
-0.39140
-0.06231
-0.38975
-0.13720
0.85971
0.47490
0.35646
-0.57719
0.16166
0.63344
-0.64224
0.34322
-0.63783
0.41635
0.50606
-0.74087
-0.37794
0.62749
-0.41037
0.42222
-0.61018
0.43558
0.45525
-0.46025
0.47940
0.30440
0.43651
0.39404
-0.03905
-0.90126
0.22423
0.54093
-0.73186
-0.17558
0.42244
-0.15402
-0.39289
0.41309
0.09261
-0.09566
0.22741
0.25185
0.46533
-0.72787
0.57698
0.07656
0.04984
-0.22604
0.18319
0.25664
0.06592
0.38845
-0.63753
0.78971
0.29519
0.67304
0.28631
-0.16860
-0.22312
-0.08901
-0.40901
-0.59733
0.24589
-0.48479
0.80040
0.14389
0.73540
0.11791
0.86695
-0.16212
-0.62251
0.41803
-0.50927
-0.69823
0.06747
-0.21920
-0.10553
-1.00819
-0.00159
-0.11247
-0.76065
-0.63796
-0.11597
0.17285
0.61610
0.30127
-0.42859
-0.41526
0.91131
0.38679
0.33507
1.10610
-0.39837
-0.13353
-0.61592
0.07398
0.12878
-0.20259
-0.09676
-0.13592
0.15800
-0.36970
-0.33242
0.12528
-0.28429
0.09501
-0.21972
-0.31769
0.16865
-0.03172
-0.08149
0.32613
0.21739
-0.44289
-0.03784
0.42364
0.39023
-0.95161
-0.80831
-0.95388
-0.22767
-0.42133
-0.35932
-0.24920
-0.52534
-0.73704
-0.58010
-0.51246
-1.01375
-1.00216
0.31253
0.34432
-0.27112
0.42279
0.38711
-1.18925
0.23661
-0.20325
-0.73463
0.28968
-0.00348
-0.28108
0.37712
-0.39979
-0.19140
-0.60226
0.62117
0.09013
-0.19725
-0.50408
-0.26043
0.16598
0.00115
-0.26237
-0.55687
0.03689
0.43257
0.18360
-0.13078
-0.33397
-0.14164
-0.53899
0.25616
0.17896
0.04798
-0.11546
0.37806
0.07624
-0.65435
0.08744
0.50532
0.15487
-0.89945
0.02886
-0.02044
0.18001
-0.88304
-0.17375
-0.34013
-0.63383
0.41632
0.13727
-1.22510
-1.19885
0.16663
-1.17575
-0.15775
-0.63654
-0.18565
-0.10769
0.20765
0.16749
0.37948
0.11248
-0.72095
-0.00239
-0.34961
-0.39779
0.01214
-0.88581
-0.93230
-0.11863
0.12770
0.07020
0.08035
0.68477
-0.78546
-0.42668
0.23471
-0.01553
-0.41178
-1.12763
-0.86261
0.04345
0.08471
-0.00856
0.51209
-0.46293
0.15957
0.05114
0.13941
0.29643
-0.17346
-0.46263
0.50382
0.04197
-0.45349
-0.32031
0.11512
-0.24224
0.26008
-0.70606
0.08520
0.31036
-0.44689
0.15718
0.45169
0.47006
-0.37386
0.77078
0.23668
-0.24302
-0.79059
-0.12132
-0.10039
-0.31574
-0.18329
0.20491
-0.45469
-0.24339
-0.14087
-0.49567
0.14069
0.53214
0.08669
-0.18692
0.17411
-0.05523
0.73050
-0.15365
0.17411
-0.58412
0.68560
-0.02457
-0.39629
-0.31074
-0.41728
0.15425
-0.59184
-0.62091
0.21452
-0.48300
0.22831
-0.64851
0.05326
0.61631
0.73761
0.55810
-0.10971
0.17602
-0.91074
0.65590
0.37700
0.46383
0.02325
-0.20945
0.28551
0.29692
-0.62892
-0.04511
-0.25156
-0.02124
-0.75814
-1.15027
-0.10391
0.77163
0.10942
-0.76227
0.69605
-0.03814
0.67354
0.27443
0.67884
0.49679
-1.29027
-0.24052
0.01380
0.01553
-0.83240
-0.43973
-0.56334
0.35489
0.20925
-0.35760
0.18436
-0.25525
-0.22346
-0.21260
0.03518
0.37238
0.24397
-0.26138
0.25859
0.48179
-0.20468
-0.65848
0.33344
-0.19331
0.28240
-0.63450
0.06541
-1.11383
-0.23321
0.09165
-0.25941
-0.33092
0.12087
0.01693
0.46367
0.03701
-0.26865
0.50459
0.24233
0.25534
-0.41746
-0.33741
-0.93281
-0.67764
-0.87847
1.02364
0.62294
-0.59439
-0.21973
-0.03116
0.10999
0.41564
0.08238
0.49961
0.22160
-0.06909
0.27391
0.91364
-1.05548
0.31646
0.26141
-0.60388
0.39909
0.17713
0.37666
0.19107
0.81296
0.03037
0.00370
-0.06443
0.10422
0.18358
-0.03898
-0.21852
0.12703
0.19770
-0.70711
-1.00812
0.13765
-0.75990
0.26281
0.03985
0.01387
-0.22268
-0.00522
0.21200
-0.50099
0.04425
0.28317
-0.07660
0.10948
0.31153
-1.06902
0.27319
-0.91585
0.12520
-0.09318
-0.25937
-0.01303
0.18108
-0.76869
0.08763
0.22334
0.42187
-0.11729
0.01214
-0.09686
0.44107
0.03815
-0.84920
-1.15644
-0.48061
-0.56399
-0.12980
-0.65752
-0.43402
0.46639
0.07410
-0.46378
-0.20377
0.12154
0.42730
-0.29235
-1.09442
-0.56580
-0.00007
0.21799
0.55878
-0.47021
-0.80602
-0.08635
-0.24328
-0.23367
-0.19272
0.01854
0.06078
0.43357
0.43131
-0.10159
-0.35549
0.28292
-0.31978
0.25356
-0.10821
-0.41296
-1.49475
-0.70351
0.28652
0.02219
-0.06977
-0.73735
0.40963
0.16974
-0.13956
-0.32022
-0.78878
0.48295
-0.41117
-0.05242
-0.72724
-0.63394
-0.17650
-0.15776
-0.88477
0.03340
-0.14188
0.23113
0.37985
0.22904
0.06365
0.34653
-0.52443
0.68190
0.39210
-0.30765
-0.04484
0.21026
-0.62350
0.03655
0.30856
0.26969
0.27405
-0.11094
-1.01008
-0.71889
0.59974
-0.47394
-0.75573
-0.36716
0.47087
-0.50210
-0.26624
-0.67070
-0.39491
0.43546
0.53143
-0.51205
-0.78482
-0.21058
0.39508
0.29895
0.29777
-1.22400
-0.31307
-0.17169
-0.88550
-1.10259
0.14194
-0.49016
0.20566
-0.74544
0.38287
0.11477
-0.06215
0.27314
0.37631
-0.31327
0.22642
-0.11452
-0.13505
-0.55967
0.46299
-1.11488
0.31781
0.07651
-0.76767
-0.07923
0.12376
-0.27423
-0.18589
-0.00903
0.55925
-0.14778
-0.12154
0.39021
-0.77254
-0.12098
0.29195
-0.02929
0.11736
-0.13206
-0.05344
-0.05174
-0.94170
0.46316
0.22817
0.38448
0.01370
-1.43451
-0.14549
-1.27965
0.18747
-0.96628
-0.03220
0.22253
0.37230
-0.13849
0.06456
-0.69184
0.02770
0.47514
-0.58561
-0.72818
0.24428
0.16750
-0.08663
0.25409
-0.10992
-0.04828
0.12097
-0.01044
-1.08111
-0.26513
0.63903
0.32817
-0.38153
-0.19720
-0.25094
0.03929
0.37330
0.41928
-0.31137
0.41191
-0.23103
0.71744
0.10286
0.03919
0.06660
0.02314
0.04781
0.31368
0.08034
0.12861
0.19654
-0.34574
0.49367
-0.26933
0.43867
0.48519
-0.29255
0.45442
0.53831
0.68335
0.34001
0.16898
0.08199
0.22172
0.22705
0.11331
0.48891
-0.14169
0.25498
-0.36294
0.40058
-0.61027
0.41034
0.33499
-0.08992
-0.10554
0.19015
-0.35480
0.21146
0.50624
0.54590
-0.27226
-0.11224
-0.97106
0.29652
0.18913
-0.56040
0.28348
0.13884
-0.07879
-0.07637
0.37610
0.40016
-1.44949
-0.30619
0.36715
0.14096
-0.31063
-0.05568
-0.30323
0.59890
0.19862
0.47487
0.20444
0.21341
0.06319
-0.05990
-1.25449
0.21885
0.17462
-0.20526
0.26650
-0.11495
0.23909
0.57449
0.06558
-0.12190
-0.02268
-0.99253
0.27670
-0.31102
0.16125
0.03706
-0.29538
-0.54246
0.08696
-0.51882
-0.34157
0.83284
-0.37571
0.56640
-0.96080
-0.28803
-0.58839
0.11435
-0.27426
0.31002
0.22388
-0.04389
0.12867
-0.17287
-0.22280
-1.13833
0.64226
-0.36481
0.13650
0.38425
0.58867
-0.72051
-0.38067
-0.08958
-0.06038
0.57759
0.31709
0.33370
0.10617
0.32153
-0.49322
0.06884
0.12676
-0.31581
-0.46794
0.14162
0.17757
0.30619
-0.74103
0.17724
-0.38676
0.45181
0.48033
0.84393
0.40523
-0.53081
-0.16917
-0.20326
-0.05213
-0.64788
0.31912
0.24277
0.12469
-0.03380
-0.66323
-0.72515
0.47145
0.07965
-0.13958
0.39728
0.37215
0.64119
-1.13940
-0.19205
0.14555
0.33454
0.41465
0.06475
0.41874
0.62692
0.20252
-0.07782
0.14798
0.15287
-0.13292
0.10636
0.25573
-0.99076
0.30899
0.35523
0.36061
0.10765
0.40708
-0.10974
-0.16760
0.43257
0.32643
0.38554
0.35373
0.25995
0.38281
0.06307
0.57823
0.03867
0.17921
-0.68697
-0.11983
0.04271
-0.07979
-0.01604
0.33722
0.50434
-0.28401
-0.66226
-0.20557
0.31204
-0.88865
0.21897
-0.09977
0.23477
-0.36010
0.08291
0.24835
-1.26755
0.34868
-0.99134
-0.17120
0.05476
-0.74650
-0.05147
0.12987
0.22233
0.10394
-0.07122
0.10508
0.27262
0.19630
0.14508
0.19417
-0.79358
0.17185
-0.03050
0.24323
-0.87762
0.32764
-0.07380
-0.05670
0.15376
-0.35297
-0.56602
0.22086
-0.12737
-0.07250
0.31129
0.11344
0.55776
0.18305
0.52843
-0.19086
-0.16740
0.62969
0.82012
0.19480
0.26002
-0.16887
-1.51209
0.52005
-0.25507
-0.36901
0.27188
0.24882
0.13058
0.57408
-0.94979
0.17250
0.16259
-0.40911
0.20211
-0.56615
-0.11918
-0.51170
-0.16628
-0.81087
0.23807
-0.13378
-0.07557
0.25674
-0.07314
-0.85082
-0.16444
-0.94449
-0.54259
-0.50951
0.21705
-0.09843
-0.32523
0.54342
0.93323
-0.08853
0.20782
-0.45590
0.87440
-0.16462
0.21827
0.17419
-0.15328
-0.14243
-0.54070
-0.45180
0.24018
-0.14757
-0.77526
0.19686
-0.10010
-0.13230
0.59399
0.18395
0.50472
-0.17905
-0.78328
0.40079
0.54559
-0.79789
-0.85187
0.50390
-0.38089
0.54248
-0.72006
0.50673
0.62146
0.04376
0.62728
-0.40672
-1.01705
0.12246
-0.22251
0.00210
0.19785
0.33037
0.40265
0.18371
0.38930
-0.28194
-0.09366
0.35008
0.16395
-0.18781
-0.12849
0.36796
0.23375
-0.08137
0.02724
0.01689
-0.03771
-0.05808
-0.05072
-0.04160
-0.10134
0.44654
0.00646
-0.13759
-0.04896
0.19999
-0.00937
-0.11279
-0.30877
-0.04137
0.21155
-0.08516
-0.04504
0.21433
-0.38743
-0.47273
0.15115
-0.67487
-0.37590
0.26961
-0.72330
-0.12644
-0.40228
-0.49805
-0.85458
0.53013
-0.39258
0.20212
0.11057
-0.02484
-0.54183
0.17530
0.16725
0.42594
0.17952
-1.10322
0.58317
0.66944
-0.12623
-0.80119
0.50877
-0.82261
0.72833
0.14490
0.16489
0.41579
0.49356
0.46119
-0.27664
0.36932
0.17927
0.68770
0.51765
0.02751
0.28593
0.07898
0.34863
0.21965
0.33514
0.41201
0.37199
-0.60925
0.35252
0.23961
-0.84188
0.48663
-0.25768
0.20898
-0.11963
0.05641
0.04259
0.06068
-0.12743
0.55374
0.13817
-0.50950
0.13704
0.22344
0.15807
-0.15342
-0.19956
-0.14725
0.22235
-0.21627
-0.11661
-0.23782
-0.00778
0.14955
0.15699
-0.12651
-0.57906
-0.19345
0.15117
0.25454
0.14008
0.19103
-0.22935
0.42130
-0.60301
0.32492
0.06242
-0.38390
0.31763
-0.04113
0.43851
0.28424
-0.34461
0.13272
-0.95048
-0.87109
-0.71917
-0.47623
0.23244
-0.68179
0.15273
-0.14451
-0.04879
0.23499
-0.81011
0.30975
0.42168
-1.03555
-0.74868
0.63321
-0.61768
-0.61665
-0.69326
0.80814
-0.22355
-0.24216
-0.24409
-0.20311
0.42945
-0.68253
0.14364
0.09109
0.00168
-0.19983
-0.70057
0.43970
0.40026
0.44260
0.23769
0.10774
-0.06334
-0.34433
0.24476
0.22768
0.19717
0.48039
-0.04865
-0.38965
0.41417
-0.08561
-0.01946
-0.17324
0.55392
-0.30631
-0.04797
-0.38442
-0.99624
0.20366
-0.75063
-0.33328
-1.05366
0.17474
-0.81021
-0.82237
0.18866
0.38324
-0.58639
0.59692
0.38531
0.07070
-0.35087
-0.11347
-0.07923
0.59755
-0.08847
0.35829
0.17192
0.12889
-0.34094
-0.38158
-0.66030
0.28648
-0.03090
0.22934
0.24946
0.24228
-0.08171
0.20549
0.01905
0.00718
0.25596
-0.64421
-0.38842
-0.02457
0.40037
-0.50151
-0.52334
0.30572
0.53680
0.06000
0.09189
0.66973
0.04176
-1.04290
0.10299
0.43697
0.28105
0.00867
0.34235
0.05420
-0.10610
-0.22992
-0.11788
