0.23487
-0.66272
-0.17113
-0.27042
0.52772
0.16796
-0.78956
0.47201
0.22837
0.54183
0.36299
0.11942
-0.15388
-0.48920
0.18391
0.19436
0.15313
0.15742
0.13210
-0.22910
0.61623
0.73489
-0.06344
0.23333
-0.00699
-0.32541
-0.81521
-0.03269
-0.19254
-0.62226
-0.02632
0.12032
-0.19847
0.40627
-0.20763
0.69567
0.63531
-1.27893
0.35455
-0.40496
0.00280
0.46678
-0.60694
0.10195
-0.64739
0.45653
0.57221
0.33321
0.42066
0.42303
-0.40791
0.48653
0.45239
0.57990
0.30377
-0.57234
-0.64703
-1.46265
0.36624
-0.34190
-0.75248
0.04699
0.32616
0.13646
-0.20224
-0.02124
0.13722
0.90731
-0.18638
0.47258
0.57690
0.47307
0.14659
-0.21678
0.09793
0.41748
-0.35384
-0.25444
-0.43158
0.15548
-0.40527
0.03279
-0.12494
0.50328
0.84392
0.85180
-0.49513
0.35237
0.46549
0.32895
-0.02652
-0.13266
-0.10837
0.00955
0.32250
-0.07418
-0.15479
0.37750
-0.25247
-0.03847
0.62804
0.38094
-0.05529
-0.12358
-0.07655
-0.23123
0.38701
0.32060
0.45120
0.19235
-1.10975
-0.63169
-0.41949
-0.08788
0.12986
0.07781
0.11217
-0.02322
-0.06666
0.37986
0.22335
-0.71782
-0.35176
-0.35803
0.59462
0.15402
-0.62993
-0.64796
0.66555
0.18696
0.23441
-0.15770
-0.05529
0.32329
0.40152
0.24260
-0.03860
0.41058
0.04219
0.51532
-0.12668
0.04313
0.23580
-0.25185
0.11895
-0.16788
0.32876
0.27792
-0.04612
0.09194
0.05293
0.13091
0.32849
-0.58931
-0.36814
0.15453
0.67458
-0.67266
0.37936
0.08198
-0.64573
0.37560
0.18407
-0.21840
-0.54764
0.33877
0.19449
0.09419
-0.30276
0.68495
0.93192
0.34098
-0.74267
-0.18229
-0.69924
-0.61240
-0.56033
0.19093
-0.19659
-0.58290
-0.63529
0.37095
0.65491
0.27840
-0.02009
-0.05959
-0.07117
0.57921
-0.17902
0.36262
0.20501
0.04261
0.62828
-0.62544
-0.27239
-0.04883
0.28258
-0.63668
0.46490
0.34059
-0.16789
-0.80049
0.90288
0.37225
0.19145
0.17805
0.00929
-0.31764
0.15244
-0.68703
-0.34163
0.31634
0.23094
-0.20439
-0.12499
0.58186
-0.46608
0.20435
0.25907
-0.00295
0.36192
0.12572
0.33186
-0.01453
0.58332
0.60469
-0.09840
0.42261
-1.11454
-0.15927
-0.42392
-0.23555
-0.35131
-0.33684
-0.34482
0.28891
-0.11940
-0.12416
0.52158
0.60407
0.39954
-0.03258
-0.02068
0.02871
-0.35692
-0.28068
-0.16770
-0.03408
0.21901
-0.35200
0.01562
0.11522
0.26999
-0.78064
0.43039
-0.20811
-0.35821
-0.26811
0.15302
0.33155
0.04156
-0.07187
0.41240
0.18249
-0.09517
-0.09200
-0.34298
-0.15879
-0.50012
-0.06271
0.04271
0.86397
0.08009
0.24000
0.34592
0.58827
0.09448
-0.90146
-0.08162
-0.98159
0.45251
0.34503
0.48459
0.56550
-0.17637
-0.46271
0.01428
-0.13835
0.14821
0.63732
0.05504
-0.22766
-0.30317
0.10169
-0.70317
0.03586
0.16389
-0.20922
0.35580
0.03464
-0.92209
0.10854
0.03085
-0.03193
-0.21917
-0.28259
-0.07443
-0.35857
0.01953
-0.71792
-0.14534
0.71104
0.58874
-0.69231
-0.00987
-0.18632
-0.80681
0.37013
-0.04568
-0.09563
-0.02292
0.49249
0.46543
0.10305
0.46636
-0.36067
-0.79405
0.23451
0.56734
0.28157
-0.24133
0.28917
0.21046
0.51870
0.68675
0.39737
0.56461
0.16310
0.59579
0.10109
0.26601
-0.24574
-0.16081
0.25171
0.61853
0.04413
-0.29896
0.45848
0.56219
0.01872
-0.64621
0.43825
-0.27284
-1.39612
-0.13977
0.43387
0.44452
0.12671
0.17865
0.19857
0.29205
0.04267
0.12725
0.23299
0.07520
-0.22854
0.50316
0.31739
0.05514
0.71635
0.62269
-0.34645
-0.66356
0.30888
0.65502
0.06403
0.36637
-0.24231
0.05626
0.03067
0.50766
-0.00783
-0.68411
0.20902
-0.28847
-0.02436
-0.35689
0.09982
0.07539
0.68250
0.12929
0.48406
-0.21851
0.01028
-0.07823
0.44411
-0.43674
-0.55710
0.50534
-0.35672
-0.26724
0.62777
0.21126
0.50165
-0.00174
-0.01852
-0.33750
0.05971
0.22226
-0.06508
0.07154
0.15440
0.21047
-0.00241
-0.04212
0.19504
0.53459
-0.34367
-0.02624
0.79468
-0.79494
-0.13124
-0.49006
-0.34550
-0.13301
0.68108
0.30705
0.03506
0.37531
-0.09247
-0.54770
0.11140
-0.01712
0.05586
-0.61428
-0.29562
0.19456
0.62858
0.19579
0.10938
0.06169
0.32413
-0.49473
0.35765
0.31850
0.42856
0.09427
-0.02951
-0.28623
0.25793
-1.65923
0.39337
0.41184
0.03242
-0.10529
-1.20310
0.06962
-0.46130
-0.69753
0.05763
0.54071
0.27739
0.14708
0.39210
0.04142
-0.53468
0.26941
0.45037
-0.13325
-0.27338
0.33339
0.00003
0.11103
0.34302
-0.57276
-0.51431
0.37197
-0.28937
0.42048
-0.36025
-0.82182
0.17389
0.42022
0.09950
0.01903
-0.55798
0.01485
0.21618
0.28525
-0.12758
0.25626
0.08998
-0.14854
0.45103
-0.76930
-0.36738
0.13660
0.39318
0.42730
-0.24994
0.36431
0.01321
-0.11731
0.29116
0.37190
-0.08697
-0.06174
-0.00107
0.38965
-0.04947
0.07299
0.32836
0.74321
-0.03657
0.31621
0.36112
0.34590
0.24683
-0.01274
-0.10578
0.12643
-0.68944
0.60934
0.39626
0.56753
0.39671
0.37394
0.16113
0.02514
-0.05478
-0.53090
-0.40726
-0.54600
0.05878
0.34312
0.43443
-0.06424
0.39123
0.34145
0.61968
0.03216
0.11486
-0.04392
-0.41567
-0.29126
0.08211
0.13769
-0.56812
-0.19651
0.37007
0.30784
0.33936
0.07240
0.17751
-0.97336
0.02092
0.03248
-0.71036
-0.11624
0.06687
0.35166
-0.31334
0.47579
-0.17845
0.09739
0.06139
0.54827
0.12897
0.06701
0.36985
-0.28419
0.74102
0.18191
-0.12199
0.37199
0.29264
0.54278
-0.17932
0.06138
-0.48755
0.15563
-0.11638
-0.34789
0.45353
-0.24072
0.24990
-0.04209
0.04205
0.79971
0.10729
0.38123
0.30038
0.89811
0.30057
0.50014
0.15030
-0.10382
0.04486
0.75714
-0.03126
-0.75289
0.55896
0.06753
-0.36173
0.52522
-0.47033
-0.22416
-0.01530
0.06067
0.08367
0.04950
0.14120
0.12576
0.01494
0.00648
-0.43912
0.04971
0.48738
0.07010
0.88777
0.08809
0.45167
-0.03062
-0.10503
0.20089
-0.33413
0.68239
0.28997
-0.59263
0.72171
-0.85192
-0.26476
0.32089
0.11118
-0.09224
-0.16014
0.23112
0.14232
0.10941
-0.21195
0.38775
-0.23846
0.17382
0.10984
0.00768
-0.71240
0.15750
0.17636
0.40539
-0.45994
-0.16769
-0.32312
0.15905
0.01623
0.08176
-0.64722
0.20945
0.13534
0.24933
0.45141
-0.43317
-2.11093
0.35333
0.04315
0.20423
0.45974
0.25491
-0.60728
0.64082
0.49060
0.20955
0.18609
0.25733
0.00842
-0.01642
-0.09758
0.22344
0.24960
0.27974
-1.46215
0.81506
0.66023
-0.05622
0.48941
-0.01661
0.67777
-0.35166
0.18137
-0.60534
0.38856
-0.17205
-0.02122
0.18185
0.66010
0.47569
0.18515
0.21287
0.15643
-0.33340
0.25333
-0.41757
0.46013
-0.18529
0.43686
0.59467
0.39697
0.04940
0.33012
-0.21496
0.33205
-0.13192
0.43417
-0.01494
0.02653
0.23664
0.06171
0.59119
0.50369
0.70793
0.11147
0.62000
0.40616
0.29983
-0.46342
0.67045
-0.30449
0.14288
-0.29108
0.22499
0.05905
-0.13499
-0.67376
0.18279
-0.00514
0.69268
0.37238
0.29018
0.48223
0.01198
0.17138
0.21138
0.16369
0.31823
-0.48187
-1.90133
0.00839
0.31193
0.00522
0.47384
-0.12314
-0.23799
0.26486
0.48446
-0.11162
-0.59804
0.11902
0.56049
0.34127
0.22317
-0.22518
0.21749
0.82972
-0.37819
-0.21114
0.21300
-0.42273
0.09750
0.47231
0.59012
-0.24614
0.00705
0.39462
-0.06292
0.47892
0.35187
0.48953
0.21242
0.18327
-0.27116
-0.04980
0.14429
-0.53550
-0.15099
0.34692
-0.26264
0.31916
-0.21191
0.50221
0.41563
0.22465
0.20756
-0.36060
0.02891
-0.15320
-0.40083
0.09347
0.21510
0.83896
0.17256
0.19383
-0.68709
-0.12360
-0.19217
0.71942
-0.15097
-0.02058
0.12054
-0.63772
0.22169
-1.20638
-0.02090
0.39843
0.29196
0.30327
0.29810
0.72753
0.05177
-0.67969
0.60923
0.30054
0.83721
-0.45958
0.21904
-0.11982
0.16535
0.27373
-0.04865
0.25229
-0.20021
0.78201
0.22983
-0.10487
-0.76033
-0.01783
0.71349
0.08244
-0.24166
-0.73426
0.28650
0.40950
-0.39863
-0.20619
0.23390
-0.23062
0.60995
0.08720
-0.15613
0.27942
0.60007
0.23450
0.60942
-0.35957
0.07724
0.42665
0.04771
0.62216
0.51674
-0.60447
-0.21972
0.15929
-0.27944
-0.18710
-0.04306
0.19964
-0.04431
-0.59111
-0.06648
-0.20562
0.32287
-0.02029
-0.33259
0.18956
-0.03471
-1.80415
-0.09231
-0.08724
-0.87289
0.33398
0.26111
0.23944
-0.37058
0.62550
0.18404
0.10399
0.38525
-0.29144
-0.56575
0.81707
0.16341
0.66291
0.89443
0.35309
0.07669
0.31425
-0.77826
0.38007
-0.08255
-0.02273
-0.07916
0.41558
0.39744
-0.62411
-0.38595
0.22834
0.06239
-0.13777
-0.00075
0.19903
0.27686
0.29463
-0.10196
-0.09900
0.18463
-1.37152
-0.37087
-0.07726
0.12181
0.35068
-0.11314
0.28912
0.03169
0.11345
-1.04669
-0.26769
0.19341
0.13396
0.07003
0.49501
-0.23056
0.85218
-0.03419
-0.50765
0.64623
0.25513
0.41068
-0.11291
0.51975
0.09190
-0.24141
0.20351
0.14188
-0.37242
0.40916
0.38218
-0.24583
-0.28976
0.55579
-0.07031
0.42496
-0.22462
-0.64098
-0.01592
0.17099
-0.42509
-0.49206
-0.18981
0.15997
-0.18971
0.13664
0.70680
0.12531
-0.14806
-0.36092
-0.23016
-0.06467
0.43493
0.08156
0.57270
-0.39520
-0.18682
0.63830
0.16172
0.17396
-0.06778
-0.31689
0.12352
-0.09220
0.04151
0.56395
-0.19568
-0.68933
0.00568
0.77184
0.15065
0.27470
0.25382
0.11201
-0.09836
0.61309
0.69399
-0.37260
-0.44702
-1.05588
-0.33404
-0.87716
-0.63096
0.03415
0.35882
-0.07474
-0.29037
0.54329
0.16595
0.30114
0.07670
0.67213
0.22853
-0.03482
0.17886
-0.25446
-0.59638
-0.11743
-0.30241
0.17137
0.04635
0.56675
-0.25299
-0.35702
0.58540
0.39261
0.42254
-0.10874
0.25040
-0.46474
-0.65228
0.18762
0.23126
-0.00635
0.24336
0.10197
0.63554
-0.30000
-0.12699
0.24296
0.55391
-0.18843
0.43504
0.38502
-0.90942
0.08996
0.12074
-0.22144
0.01774
-0.36178
0.37751
-0.22806
0.61339
0.46827
-0.22385
-0.26210
-0.06772
0.00189
-0.35814
-0.82982
0.32473
0.37300
-0.02369
0.31458
0.53192
-0.10934
0.22759
-0.06376
0.47033
-0.10706
-0.42662
0.65341
0.05172
0.08569
-0.14568
0.52699
0.16352
0.42189
0.02033
-0.35734
-0.55100
-0.17808
0.27967
-0.10390
0.63902
0.08591
-0.34863
-0.67685
0.24208
0.83714
-0.28691
0.50248
0.68636
0.11524
0.51102
0.37076
0.18513
0.17082
0.23355
-0.45388
-0.96829
0.06099
0.17824
-0.09712
-0.97733
-0.00843
-0.64846
0.52359
0.16186
-0.02022
0.10794
0.32454
0.52305
-0.04690
0.56068
0.57755
0.18743
-0.05195
0.33515
0.18850
0.06476
-0.16030
-0.54878
0.38580
-0.08660
0.42090
0.34404
-0.01098
0.08019
0.30414
-0.34725
0.28584
0.27618
0.32755
0.57794
0.50710
-0.58164
-0.11213
0.38993
0.30753
0.22223
0.91321
0.26831
-0.37574
0.00183
-0.88240
-0.00323
0.15098
-0.02058
0.27095
0.29965
0.18312
-0.46418
0.10687
-0.14896
0.49686
0.05734
-0.12533
0.62639
-0.14222
-0.74808
0.02638
0.12866
0.31929
0.02342
0.36762
0.59377
0.32335
0.45183
-0.79081
-0.55158
0.41740
-0.23925
0.06962
-0.17297
-0.06697
-0.28060
-0.12214
-0.29294
-0.12388
0.28924
0.13765
0.35563
0.21497
-0.29026
-0.12723
-0.03231
0.57363
-0.11335
-0.53063
0.17828
0.23644
0.74343
-0.08899
0.06289
-0.10460
0.49817
0.30818
-0.10457
-0.29418
0.66212
0.26951
0.25181
0.29116
-0.35175
0.09175
-0.26800
0.06064
0.48489
-0.11088
0.28579
-0.34443
0.21899
0.45273
0.15002
0.10718
-0.66559
-0.10806
0.29352
-0.56699
0.20795
-0.16931
-0.61867
0.06970
-1.31263
-0.10368
0.00607
0.14066
0.57050
-0.02073
-0.06382
0.15586
-0.31042
-0.21299
0.53011
0.69448
0.03163
-0.38572
-0.28124
0.40792
-0.25850
-0.46515
0.19208
-1.18810
0.63817
0.49414
0.02853
-0.15012
0.64860
0.05198
0.47144
-0.06917
0.03057
0.16241
0.12749
-0.08756
0.68758
0.04345
-0.15753
-0.24492
-0.53449
0.51991
0.24890
-0.47387
0.19470
-0.01947
-0.52790
0.05782
-0.02335
-0.04563
0.18906
0.13164
0.21196
0.32285
0.15492
0.09022
0.25429
0.11790
0.25183
0.20390
0.33814
-0.86950
0.18332
0.04352
0.18455
-0.06886
0.05346
0.57262
-0.53534
0.41144
0.54424
-0.67201
0.51511
-0.15201
-0.23929
0.35352
0.22293
-0.51727
0.30315
0.47476
0.06193
-0.06457
-0.59519
0.01063
0.48644
0.69409
-0.07476
0.32446
-0.00380
-1.02208
0.32500
-0.37287
0.25249
0.35257
0.60954
0.30281
0.39245
-0.31470
-0.21405
0.49971
0.71557
0.08475
-0.57811
-0.13265
0.20192
0.46074
-0.89274
-0.33586
0.40756
-0.30191
0.06676
-0.15304
0.01958
0.09436
-0.29025
-0.03522
-0.41689
0.05638
0.31244
-0.07405
-0.29919
0.64996
-0.31659
-0.35627
-0.44033
-0.02329
0.21541
-0.28574
0.42509
0.30884
0.57987
-0.28654
-1.02889
0.58378
0.55243
0.23676
0.05170
0.34913
0.73531
-0.14485
-0.50980
0.08811
0.15189
0.56656
0.06844
0.08761
0.18855
0.24955
0.52942
-0.25874
0.30591
-0.19972
0.05567
0.32286
0.42898
0.29687
-0.00193
0.39579
0.04040
0.01116
0.22007
0.30595
0.00255
0.04187
-0.83519
0.06711
0.34884
0.27181
-1.24998
0.85791
-0.33178
0.52292
-0.11052
-0.14519
0.23329
-0.22288
0.15071
0.53652
-0.21049
-0.72067
0.35655
-0.07294
0.16421
0.04224
0.63915
-0.21441
0.19225
0.47926
0.08207
-0.31951
-0.09844
0.25788
0.18577
0.65023
-0.23076
0.55366
0.20353
0.56651
0.40719
-0.16153
-0.91730
0.35026
0.56831
0.65162
-0.69790
0.22287
0.10540
0.49703
-0.34822
0.19224
0.45947
0.18914
-0.71387
-0.02322
-0.15602
0.43103
-0.02031
0.71489
-0.76585
0.51053
-0.55474
0.55620
0.47951
0.39931
0.11553
0.16289
-0.70543
-0.08509
-0.40408
-0.40293
0.25525
0.27876
0.82054
-0.07546
-0.07353
-0.29831
-0.07531
0.60916
-0.41496
0.52447
0.15757
-0.33369
-0.19957
-1.16022
-0.08097
-0.04252
0.33766
0.66276
-0.47978
-0.07188
0.42015
-0.10138
0.60439
-0.21346
-0.35116
-0.57160
-0.47550
0.07678
0.02473
0.31287
-0.00496
0.00685
0.77218
0.24539
0.14196
0.52739
0.09438
0.75210
0.08838
0.22632
-0.20366
-0.32851
0.24550
-0.83999
-0.28557
-0.04880
0.32253
0.02924
0.29023
-0.33168
0.27698
-0.03703
0.17312
0.15452
0.09766
0.03277
0.15579
0.05605
0.05124
0.06062
0.17438
0.02032
0.16656
0.18584
0.02204
0.15730
0.18005
0.04995
0.08679
0.10160
0.18126
0.06142
0.05841
0.02565
0.19988
0.16429
0.01458
0.12131
0.02432
0.17391
0.19936
0.11622
0.04339
0.02228
0.09020
0.18379
0.11112
0.16099
0.13820
0.18928
0.20771
0.13751
0.12283
0.11932
0.03905
0.04060
0.14329
0.16105
0.18690
0.12579
0.03245
0.14169
0.15401
0.13535
0.14326
0.09676
0.00257
0.09621
0.04718
0.13483
0.08384
0.03654
0.14294
0.02762
0.08038
0.15200
0.04427
0.03963
0.01650
0.00638
0.06044
0.16892
0.15965
0.07730
0.18906
0.06085
0.03397
0.18415
0.14523
0.16332
0.05286
0.12531
0.03362
0.07699
0.14102
0.03559
0.12867
0.13862
0.02008
0.03443
0.06245
0.09410
0.01121
0.11000
0.15528
0.08948
0.04641
0.18522
0.06085
0.19137
0.15598
0.11036
0.06900
0.03681
0.02334
0.08780
0.16435
0.17935
0.13032
0.03535
0.04308
0.06657
0.13113
0.13186
0.17445
0.15672
0.08771
0.06644
0.16498
0.15118
0.20266
0.16574
0.15201
0.17145
0.17340
0.06432
0.19227
0.11227
0.18086
0.09228
0.00700
0.03477
0.08308
0.05553
0.01008
0.16507
0.03263
0.04389
0.00424
0.11912
0.12769
0.01714
-0.00016
0.17886
0.10001
-0.15573
0.21966
-0.15761
0.23639
-1.01402
-0.46918
0.45536
0.01183
0.51271
0.63964
-0.00530
-0.30424
0.02245
-0.00047
0.42729
-0.34632
0.15661
0.66430
-0.25874
-0.22480
0.42117
-0.21297
-0.59085
0.00321
0.12631
-1.00005
0.73808
-0.00345
0.63586
-0.25992
0.30733
-0.40201
0.49088
0.73072
-0.09635
-0.85093
-0.49203
0.54534
0.18154
0.29276
-0.16163
0.79903
0.21360
0.72974
-0.01059
-0.44156
-0.53749
-0.00893
0.23121
-1.06512
0.70436
-0.99731
0.05282
-0.84980
0.26560
-0.14329
1.37366
0.31463
-0.43302
0.35010
-0.04683
-0.31257
0.02149
0.12957
-0.77654
0.18335
0.13467
-0.27821
-0.25550
0.03785
0.54099
-0.35706
-0.10060
0.18096
0.35394
0.40950
-0.36986
-0.53718
0.10130
-0.11174
-0.25136
-0.33706
0.53449
0.33599
0.93046
-0.12561
0.13277
-1.43447
0.17603
0.65457
0.17320
-0.29566
0.12766
-0.21119
0.71625
-0.61691
-0.28736
0.58248
0.40847
0.11176
-1.32477
0.24031
0.30004
-0.70069
0.65094
0.73817
-0.43519
0.19271
-0.02055
-0.28449
-0.11263
-0.58593
-0.84552
0.96450
-0.30584
-0.66020
0.01662
-0.04245
0.00114
0.72448
0.29321
0.07400
-0.26475
0.71053
-0.66389
-0.34188
0.22872
0.03096
0.16023
0.39697
-0.23079
0.53483
0.42599
-0.60777
0.18485
0.17927
-0.17942
0.01982
-0.21396
0.34476
0.15918
-0.36474
0.63478
-0.91772
-0.59646
-0.23469
-0.21742
-0.09203
0.94052
-0.45901
0.37801
0.18736
-0.65551
0.46480
0.52472
-0.51875
-0.59096
-0.83055
-0.15773
-0.52524
0.34180
-1.43383
-0.03469
0.31367
0.59984
-0.81176
0.00907
0.64669
0.55225
-0.03045
-1.43155
-0.00027
0.46558
0.17301
0.59002
0.61851
0.34310
0.00023
0.48226
0.47102
0.27482
-0.49947
-0.30740
0.61609
0.17073
0.51041
-0.39621
-0.03206
0.07505
-0.57924
0.40852
-0.01572
0.07701
-0.14326
-0.39767
-0.65328
-0.20209
0.08753
-0.11393
-0.00809
-0.05332
0.11167
-0.09402
-0.01549
0.34737
0.03622
-0.04532
0.14952
0.59319
0.63932
-0.61827
-0.64410
0.25535
0.44539
0.83545
-0.41302
0.43960
-0.41533
0.43804
-0.24459
-0.00433
-0.31702
0.01772
-0.72684
-0.66204
0.05343
-0.33614
-0.07870
0.34695
-0.38230
-0.26080
-0.03143
-0.05965
-0.08776
-0.32766
-0.03284
0.10065
-0.00192
-0.24365
-0.13151
-0.16422
-0.06263
-0.13661
-0.15004
0.34145
-0.03258
-0.69379
0.10243
0.18497
-1.19369
-0.22785
-0.12087
-0.57496
-0.07936
0.09494
0.42062
-0.06359
0.21518
0.24729
-0.54759
-0.09275
0.50815
0.09188
-0.91492
0.21001
0.47093
-0.42330
0.24558
-0.44528
-0.45784
-0.23377
0.19063
0.66523
0.07572
0.02599
0.01349
0.43999
0.28716
0.44767
0.43148
0.26485
0.17603
0.07562
0.38637
0.58299
0.49693
0.35173
-0.73152
0.62258
0.11782
0.23392
-0.11524
0.39078
0.44118
0.07388
0.44272
0.64961
0.05992
-0.13092
0.71426
0.72543
-0.08087
0.41271
0.76428
-0.06228
-0.42690
-0.08658
0.15194
0.02800
-1.50538
-0.64635
-0.00128
0.37777
-0.08415
-0.03407
0.35742
-0.34091
-0.23380
0.59122
0.19457
-0.08718
0.09298
-0.02976
0.21620
-0.56676
0.41440
0.13276
0.35394
-0.04609
0.00788
0.36483
0.19747
0.29364
-0.19280
-1.27762
-0.09184
0.19716
-1.06933
-0.00298
-0.54570
0.38320
-0.21651
-0.04458
-0.16339
-0.30421
0.43135
0.45341
-0.93847
0.27022
-0.54143
0.64391
0.59935
0.20648
0.24580
0.22463
-0.07823
-0.01627
-0.21835
0.14427
-0.04720
-0.46448
0.32606
0.58286
-0.99578
-0.50754
-0.64653
-0.22327
-0.59163
0.16272
-0.55725
-0.09696
-0.49206
0.34692
0.03144
0.77871
0.08021
0.77380
0.43377
0.06991
0.29268
0.73739
0.38236
0.10597
0.24798
-0.04783
-0.55419
0.40249
0.16586
-1.16209
0.25066
-0.31641
0.22919
0.72222
0.28401
-0.12297
0.67930
0.65649
-0.67050
0.64683
-0.30391
0.09330
-0.47428
0.61836
-0.67980
-1.07301
0.08014
0.28321
-0.22866
0.30177
-0.75421
0.06334
-0.23602
0.14134
0.14900
-0.89421
0.29247
0.14086
-0.03308
0.22067
-0.44486
0.30665
-0.01337
-0.92945
0.05740
-0.08097
0.12148
-0.25379
0.51910
0.01656
0.37106
-0.63707
-0.00897
0.39236
-0.23049
-0.83388
0.10968
0.30530
0.58025
-0.02613
0.34047
-0.24598
0.47424
-1.04602
0.25502
-0.05299
0.83007
0.62626
0.39319
-0.21368
0.05546
0.03739
0.01196
0.29062
-0.49325
0.26480
-0.76773
0.36101
0.42233
-0.10439
0.14356
0.80915
-0.04982
0.07607
-0.41295
0.24726
0.53760
0.02776
0.16274
0.20488
0.16473
-0.51607
-0.66432
-0.38945
-0.20091
-0.04298
0.13569
-0.18979
0.14293
0.14171
-0.29997
-0.16187
0.10783
0.23548
0.24610
0.36752
-0.45339
0.06094
-0.66265
-0.56361
0.73571
-0.08913
-0.53218
0.41953
0.02587
0.67111
0.29499
-0.37259
0.20890
-0.06299
0.24299
0.35293
0.29812
0.42192
-0.01773
-1.08405
0.08546
0.59070
0.72197
0.22699
-0.06639
-0.15550
0.61699
-0.38205
0.09083
-0.28279
0.53302
-0.43456
-0.01541
-0.25083
-0.38364
0.13392
-0.05808
-1.21425
0.28068
0.14191
0.02881
0.78232
0.89955
0.04583
-0.17443
-0.10705
0.11044
-0.08939
0.02080
-0.51024
-0.02223
0.55296
0.05540
-0.57614
0.51291
-0.40456
0.18506
-0.20160
0.70296
0.51394
0.50268
0.30792
0.10233
-0.80831
-0.26606
0.32591
0.82601
-0.00438
-0.39082
-0.13621
-0.36444
-0.36741
-0.76813
0.30032
-0.12548
-0.16011
-0.28165
-0.25293
-0.41977
-1.04564
-0.00824
-0.02372
-0.02730
-0.71664
-1.06050
-0.28791
-0.92919
-0.10275
-0.36515
-0.75918
0.06286
-0.33765
0.15965
0.05320
-0.06661
-0.00317
-0.18420
-0.19935
0.30681
0.20707
0.23507
0.51062
0.39055
0.03988
0.23769
0.34591
0.40849
-0.32427
0.32617
0.36913
0.63258
0.34808
0.06492
0.38355
0.38395
0.06055
0.05871
-0.81052
-0.19608
-0.26621
-0.71818
0.38038
-0.06090
0.09440
0.36440
0.45446
0.66176
0.19048
-0.07732
-0.11766
0.05629
0.39488
0.10274
0.06923
0.02165
0.35255
-0.14326
0.34490
-0.05372
-0.02110
-0.21113
-0.45177
0.20472
-0.68045
-0.11939
0.58710
0.41047
0.42612
-0.27022
-0.07356
0.04303
0.37251
0.24791
0.49423
0.27463
0.19186
-0.03694
-0.09836
0.08038
-0.16055
0.25517
-0.01624
-0.36968
0.31485
-0.82851
-0.03618
-0.47318
-0.77395
-0.33634
-0.07838
-0.10324
-0.33903
-0.59140
-0.42491
-0.58491
-0.72138
0.81433
-0.52490
-0.61141
-1.22182
-0.48935
-1.10720
-0.84354
0.38845
-0.79809
-0.69254
0.12371
-1.25015
0.19372
0.31335
-0.71016
0.73259
0.51829
-0.14965
0.04614
0.13213
-0.76351
-0.39372
0.14717
0.09345
-0.10543
-0.18488
-0.24811
0.19141
0.09946
-0.55242
-1.02479
-0.86497
-0.83563
-0.12125
-1.56947
-0.30459
0.19259
-0.32836
0.48949
0.25056
0.02517
0.53893
0.33951
-0.61402
-1.73890
-0.09012
-0.11221
0.67140
-0.23895
-0.21731
-0.16975
-0.53629
-0.77586
-0.26387
-0.31983
-0.25685
0.12329
-0.69632
-0.82347
-0.69135
0.17180
-1.35964
0.41260
-0.27138
-0.03498
-0.04599
-1.08911
0.49618
-0.11041
-0.29084
-0.32828
-0.05244
-0.43100
0.31407
0.25184
-0.59687
-0.07372
0.37523
-0.21414
0.38451
0.60460
0.55099
0.53066
0.25420
0.54445
0.68117
-0.95110
-0.34957
-0.04968
-0.85898
0.13650
0.17119
-0.09321
-0.40124
-0.81440
-0.03703
0.22837
0.13323
0.41739
0.07093
0.14548
-0.48413
-0.30689
-0.02507
0.08259
-0.43352
0.21721
-0.01932
0.10953
-0.06291
-0.38343
-0.03998
-0.53722
-0.27772
0.43764
0.60455
-0.04077
-0.54428
0.12828
0.66313
-0.40865
0.58699
-0.54594
0.22499
-0.80588
-0.46081
0.50149
0.59771
-0.43991
0.34656
-0.81873
0.51102
0.57825
-0.65324
0.27221
0.10355
0.49066
0.29256
-0.18181
-0.26030
0.22381
0.44772
-0.76632
0.21356
0.48299
-0.16779
0.14947
0.64948
-0.02929
0.59422
0.30267
-0.01971
0.50216
-0.73577
0.76682
0.31631
-0.41041
0.39558
0.17104
-0.00715
0.32802
-0.71522
-0.01375
0.59950
0.04527
-0.10277
0.20387
-0.15845
-0.47213
-0.70280
0.05820
-0.44042
0.67136
-0.05582
0.88188
-0.08982
0.53027
-0.32461
-0.34556
0.34779
-0.00369
-0.63211
0.18836
-0.30653
0.01284
-0.90493
-0.07408
-0.30666
-0.53726
0.67443
-0.82906
0.30221
0.00472
0.43779
0.81613
-0.48546
-0.27315
0.72347
0.19117
0.27637
0.82269
-0.32734
-0.24488
-0.57499
-0.00814
0.26266
0.09682
-0.06572
-0.40790
-0.02857
-0.57924
-0.01243
-0.49627
-0.48351
0.21800
-1.29267
-0.04309
-0.00388
0.15551
-0.02010
0.42801
0.02028
-0.13750
-0.00586
0.54408
-0.50330
0.09167
0.16734
0.54858
-1.13406
-0.92667
-0.80154
-0.09079
0.47517
-0.46284
-0.13529
-0.64549
-0.48233
-0.63060
-0.60361
-1.20195
-1.08044
0.39519
0.25150
-0.08103
0.32681
0.48951
-0.22522
0.14309
-0.39844
-0.64240
-0.72635
-0.32617
0.67577
-0.50033
-0.25158
-0.57295
0.03421
-0.62551
0.03115
0.03369
-0.23739
-0.62147
-0.11715
0.35865
-0.18287
-0.43874
-0.18743
-0.80889
0.18651
-0.76697
0.03534
0.28338
-0.17143
-0.18950
0.39042
0.16719
-0.48660
0.10319
-0.18766
0.00607
-1.11380
-0.24568
-0.26388
-0.83568
-0.07271
0.09352
0.11813
-1.23411
-0.40847
-1.45595
0.03466
-1.24734
0.33309
-0.23065
0.28849
0.06092
0.52931
0.13552
-1.12505
-0.48715
-0.45280
-0.42808
-1.08522
-0.24133
0.13651
-0.11784
-0.07890
0.00045
-0.16405
-0.23292
0.32382
-0.07199
-0.60730
-0.98367
-0.98703
-0.13849
0.24558
0.03363
0.47779
-0.62121
0.23492
0.01629
0.00464
-0.01332
0.37032
-0.44209
0.13970
-0.26903
-0.66452
0.11451
0.14677
0.29526
-0.13396
0.23810
-0.20649
0.00472
0.27430
-0.18623
-0.05221
0.06933
0.41708
-0.55592
0.76751
0.07413
-0.21063
-0.73982
-0.09691
-0.06425
-0.33822
-0.27754
0.30137
-0.17908
-0.34638
-0.01957
-0.66897
0.25974
-0.68612
0.77553
-0.33637
0.71011
0.31370
0.04715
0.42743
-0.13505
0.33870
-0.42774
-0.20217
0.69308
0.60278
0.28671
-0.31248
-0.20952
-0.64383
0.18625
-0.04698
-0.48401
0.21980
-0.57784
0.14494
-0.60247
0.45244
0.53020
0.60423
0.51836
0.13468
0.15859
-0.96382
0.54978
0.23224
0.47793
0.21181
-0.20347
0.24213
0.26938
-0.21203
-0.17062
-0.41263
-0.23659
-0.83125
-0.82987
-0.45847
0.70329
0.15067
-0.29170
0.64646
0.35473
0.60624
0.08624
0.66223
0.42803
-0.21739
-0.00095
-0.46868
-0.28865
-0.24052
-0.20933
0.30518
-0.03905
0.13704
-0.18248
-0.43597
-0.18017
0.14460
-0.16893
0.52815
-0.16115
0.16006
0.49973
-0.32451
-0.41004
-0.17583
-0.35953
0.40655
-0.63144
-0.03518
-0.87526
0.19180
0.10766
-0.31049
-0.33395
0.13975
-0.00109
0.43840
0.45088
0.11023
-0.40008
0.86349
0.20068
0.17700
-0.76550
-0.45728
-0.84174
-1.46752
-0.83974
0.86210
0.33733
-0.95564
-0.54738
-0.25094
0.55387
0.47793
0.04599
0.51782
0.37057
-0.08960
0.18587
0.80869
-1.29538
-0.42567
0.40076
-0.50608
0.37119
0.15086
0.39224
0.46617
0.70765
-0.06495
0.04050
0.36735
0.04668
-0.09592
0.07300
0.33429
-0.72685
-0.91248
-0.01941
-1.12044
0.35847
0.41973
-0.23031
-0.01887
0.15052
0.24559
-1.32443
0.19825
-0.15381
0.37775
-1.16608
0.12381
-0.89924
0.15057
0.03217
0.09954
-0.40779
0.40374
-0.94015
-0.33553
0.64552
0.37643
0.03679
-0.10150
0.06724
-0.20218
0.17696
0.34041
-1.02865
-1.39154
-0.59549
-0.61832
-0.36139
-0.82069
-0.57070
0.36380
-0.35515
-0.66981
-0.30656
0.81509
-0.26974
0.23826
-0.38186
-1.06704
-0.74528
-0.00967
0.10262
0.34365
0.83110
-1.00150
-0.00824
-0.08905
-0.37833
-0.44282
0.59462
0.02906
0.58225
0.59709
-0.32055
-0.36625
0.20463
-0.38838
-0.07204
-0.35323
-1.28467
-1.08436
0.29074
0.01497
0.36099
-0.58228
0.35406
0.11724
-0.07903
0.04914
-0.66429
-0.23852
0.42237
-0.41903
0.39517
-0.70803
-0.49458
-0.09651
-0.13864
-0.94676
0.26721
0.05332
0.02435
0.33280
0.02738
0.15488
0.28663
-0.06657
0.52164
-0.30425
0.05202
0.08990
-0.54394
0.22258
0.27267
0.41047
-1.24465
-0.80057
0.52235
-0.83825
-0.84811
0.34339
-0.60221
-0.51592
-0.70743
-0.40535
0.50229
0.41427
0.05623
-0.63353
-1.01819
-0.21968
-0.10447
0.57382
0.33349
0.45313
0.41567
-1.32974
0.05270
-0.32578
-1.21779
-1.10872
0.25162
-0.36030
0.39954
0.58716
-0.02928
0.01575
0.56951
0.61285
-0.33338
-0.00858
-0.05802
-0.24241
-0.50234
0.47478
-1.08997
0.01609
-1.08522
-0.18029
0.23153
-0.29613
-0.11912
0.01162
0.37769
-0.09907
-0.14050
0.46244
-0.69912
-0.21114
0.23558
0.10257
0.24832
-0.08966
-0.06336
-0.13818
-1.07625
0.46304
-0.52966
0.49725
0.55432
0.00218
-0.99180
-1.47834
0.20531
-1.16491
0.22217
0.39780
-0.98920
0.36953
0.15005
0.44415
0.00217
0.20563
-0.86786
0.10703
0.42574
-0.56631
-0.71364
0.06820
0.10451
0.24778
-0.14601
-0.18094
0.24971
0.01073
-1.19173
-0.12501
0.47189
0.36064
0.36797
-0.42023
-0.15569
-0.03515
0.34677
0.34368
0.33509
-0.01013
-0.12264
-0.00211
-0.03443
-0.03393
0.15225
0.38128
-0.45414
-0.04397
0.63281
0.36466
-0.41042
0.33758
0.52395
0.73261
0.54636
0.32485
0.17924
0.29281
0.48066
0.64741
-0.15385
0.50317
-0.28616
0.61100
0.37081
0.22814
-0.15559
-0.21026
0.21083
-0.50479
0.20993
0.61706
-0.14602
0.65285
-0.51761
-1.27149
0.19473
0.20482
-0.87678
0.17414
0.18025
0.52709
-0.17426
-0.01539
0.13589
-0.12768
-0.58338
0.36357
0.54088
-2.05925
-0.57462
0.20767
-0.03891
-0.46156
-0.07281
-0.11849
-0.13609
-0.33496
0.63954
0.14575
0.60050
-0.17041
0.14153
0.31290
-0.08122
-0.17862
-0.86731
0.13403
-0.20143
0.22774
0.31813
0.58471
-0.29668
-0.46963
0.78704
0.20545
-0.05092
-0.57860
0.00889
-0.40981
-1.15807
0.24923
-0.26249
0.75004
0.13047
-0.49741
0.14252
-0.37274
-0.20425
0.62354
-0.38685
0.75962
-1.41610
0.38145
-0.55398
0.77516
0.16650
0.49293
0.27014
0.50306
-0.34493
0.79269
-0.00324
-0.04480
0.38936
-0.10811
-1.56932
0.43589
-0.42630
0.15600
-0.69272
0.33448
-1.54155
-0.67126
-0.00747
0.04812
0.48691
-1.01656
0.58236
0.69621
0.66588
0.31168
-0.53639
0.25025
-0.03028
0.31482
-0.17829
-0.12603
0.19183
0.20475
-1.13189
0.33579
-0.43901
0.61282
-0.06615
0.18531
0.39470
-0.30363
-0.27797
0.00954
-1.11093
0.24390
0.41282
0.04728
-0.28451
-0.43167
-0.23717
-0.83417
0.23476
-0.02920
0.02664
0.37900
-1.35938
0.15868
0.28389
0.34689
0.36909
-0.10725
0.34016
0.62808
0.10636
-0.01071
-0.21818
0.05551
-0.49596
-0.03446
-1.21633
-1.01500
0.62461
0.35956
0.17032
0.34742
0.05900
0.61607
-0.23512
-0.26658
0.48010
0.35627
0.38347
0.34282
0.44310
-0.29334
0.56320
0.62292
0.24415
-0.75117
-0.06767
-0.07320
-0.08395
-0.03035
0.37826
0.39112
0.00612
-0.52203
-0.49266
0.67466
0.26179
-0.01304
-1.06231
0.30115
-0.10084
0.30877
-0.28826
-0.20908
-0.03894
0.11887
0.22969
-1.61987
0.43208
-0.74582
-0.07522
0.10554
-1.00797
-0.01981
0.26031
0.41949
0.12872
0.05734
0.25610
0.31369
0.21953
0.15188
-1.07274
0.12236
-0.31227
0.13200
-0.14186
-0.23396
0.71918
-0.83447
-0.02833
0.19519
-0.30247
-0.53577
0.16648
-0.18886
-0.16289
-0.92168
0.25516
0.15811
0.51324
0.56465
-0.17359
-0.20684
0.76243
0.78771
0.20425
0.18904
-0.16878
-1.57324
-0.30512
-0.24155
0.14759
0.13442
0.84238
-0.87446
0.26574
-0.31616
0.12558
-0.46382
-0.19886
0.52503
0.50023
0.19337
-0.20949
-0.16583
0.12251
-0.07510
-0.51591
-0.20892
-0.87757
0.87515
-0.50847
-0.13416
-0.21834
-0.20089
-0.59909
0.48750
0.50909
0.82348
0.16961
-0.56690
0.87641
0.14345
-0.17197
-0.12946
-0.23811
-0.59451
-0.62160
-0.49500
-0.58054
-0.17902
-0.00427
-0.65617
0.19669
-0.20074
-0.33520
0.59287
0.21576
-0.59034
-0.02009
0.63020
0.41176
-1.07665
0.69390
-0.89119
0.61705
-0.46338
0.61830
0.66199
-0.64492
0.62984
0.57884
0.66568
-0.04129
0.45746
-0.85273
-1.05875
0.16606
-0.16250
-0.01729
0.44816
-0.50775
0.42044
0.17279
-0.15324
-0.07234
0.19839
-0.07490
0.49977
-0.14495
-0.09586
-0.16503
0.52435
0.02474
-0.05012
-0.07564
0.04651
0.05517
0.48092
-0.00670
0.38617
-0.00362
0.10600
0.25337
-0.08288
-0.26952
0.01107
-0.01866
-0.03053
-0.44735
-0.10511
0.18324
-0.35132
-1.62926
-0.28389
0.02580
-0.58089
-0.90078
0.08201
0.32059
0.32174
-0.03802
-0.39526
0.32111
-0.88377
-0.00705
0.42215
0.43478
0.40991
-1.36145
0.16593
0.55534
0.37986
-0.34723
-0.88195
0.47660
0.41839
0.84521
0.41153
0.58197
0.55062
0.47310
0.40163
-0.21377
0.07380
-0.15967
0.65575
0.13718
0.30447
0.01086
0.58375
0.35152
0.53850
0.45785
0.48275
-0.61134
0.48788
-0.68402
0.47793
0.45528
-0.13354
0.10560
0.83611
-0.20440
0.09641
0.18169
-0.53513
-0.27686
0.35633
0.47404
-0.23141
0.23692
-0.62475
0.19546
0.21654
0.12159
-0.18899
-0.22738
0.13188
-0.22096
-0.14250
-0.23391
0.09601
-0.51790
-0.18050
-1.59992
0.16917
0.11742
0.14219
-0.23567
0.45247
-0.47553
-0.57040
0.42259
0.09583
-0.30633
-0.34086
0.29826
0.58695
0.27313
-0.34742
0.16910
-0.94355
-0.81523
-0.73031
-0.41839
-0.43497
-0.23472
0.16026
-0.07267
-0.22069
-0.13168
0.13211
-0.74074
0.40038
0.45596
-0.94200
-0.51006
-0.52558
-0.76745
-0.76185
0.80102
-0.19394
-0.76283
-0.16966
-0.24895
-0.29103
0.46598
-0.63153
0.05130
-0.05881
-0.37607
-0.68246
0.42009
0.34036
-0.18509
0.34662
0.07910
0.09512
0.38180
-0.00031
-0.29866
0.34608
0.28136
0.12088
0.31990
-0.08612
0.57871
-0.09487
-0.02836
-0.03753
-0.09593
-0.28912
0.55258
0.67160
-0.17193
-0.23131
-0.85155
-0.33261
0.00231
-0.86047
-0.68413
-0.69300
0.05507
-0.49630
0.54286
0.18315
-0.52033
0.61877
0.30953
-0.16547
0.43261
-0.03665
0.40787
0.07759
0.40070
-0.75774
0.09270
-0.44821
-0.76867
0.34446
-0.03856
0.21009
0.26146
0.39261
0.35619
0.45328
0.59084
-0.05156
0.13057
0.16902
0.00513
0.10947
0.70853
-0.70758
-0.42744
0.02769
0.57243
-0.48910
-0.67968
-0.01989
0.42398
0.69076
0.12020
-0.03272
0.68750
0.16306
-0.20422
0.12498
0.39397
0.10425
-0.21272
-0.16960
-0.16518
