0.53497
-0.72760
-0.13437
-0.23331
0.52305
0.40472
-0.52756
0.68995
0.32041
0.64606
0.33147
0.12016
-0.02097
-0.55179
0.54914
0.18264
0.11641
0.13158
0.16400
-0.23546
0.53775
0.75595
-0.07422
0.50560
0.03827
-0.39366
-0.93795
-0.10401
-0.22036
-0.66026
-0.04468
0.13524
-0.41578
0.38416
-0.22560
0.75189
0.70915
-1.14138
0.38373
0.34728
0.52766
-0.36310
0.10388
-0.40889
0.43761
0.55223
0.54767
0.66090
0.39141
-0.32609
0.31575
0.46571
0.54178
0.25882
-0.42275
-0.59090
-1.23022
0.27067
-0.52683
-0.36039
0.04380
0.32181
0.01682
-0.14734
0.08343
0.21320
0.88634
-0.01177
0.47766
0.40204
0.57033
0.17214
-0.32501
0.24410
0.47620
-0.28918
-0.15095
-0.45634
0.04671
-0.35991
0.27198
-0.02148
0.46806
0.74232
0.72622
-0.48385
-0.05299
0.54622
0.21498
-0.05412
-0.13341
-0.10041
0.02190
0.31614
-0.22466
-0.18155
0.27806
-0.19169
-0.04646
0.68343
0.23678
0.02257
-0.13656
-0.01304
-0.38464
0.35391
0.59124
0.49442
0.22832
-1.06845
-0.78961
-0.31102
-0.18865
0.06618
0.12020
0.11554
-0.07806
0.03597
0.23821
0.36148
-0.78563
-0.62212
-0.49288
0.55766
0.09293
-0.60762
-0.59444
0.61747
-0.01535
0.24291
-0.15598
0.35158
0.51260
0.34772
0.19725
-0.10127
0.37394
0.42429
0.52508
0.13155
0.07854
0.25453
-0.24909
-0.04479
-0.13228
0.13245
0.14565
0.04503
0.05885
-0.19576
0.03228
0.38657
-0.44223
-0.45284
0.34573
0.69226
-0.65243
0.41389
0.10501
-0.75143
0.26550
0.11984
-0.29305
-0.14753
0.40292
0.20053
-0.12597
-0.37755
0.51008
0.90204
0.33657
-0.80260
-0.27982
-0.34889
-0.64663
-0.56130
0.13714
-0.17616
-0.56433
-0.73139
0.38100
0.66116
0.23040
-0.07354
-0.12766
-0.03789
0.50921
-0.15048
0.47479
-0.00173
0.05440
-0.61375
-0.19914
-0.19277
0.32111
-0.72722
0.46212
0.44122
-0.18488
-0.83523
0.86611
0.39438
0.29134
0.16823
0.12795
-0.16414
-0.23325
-0.60597
-0.19567
0.41106
0.33157
-0.28374
-0.20539
0.60470
-0.57295
0.41995
0.25173
0.04294
0.22320
-0.03812
0.38915
0.16854
0.44056
0.52009
0.24539
-1.13895
-0.12038
-0.53141
-0.27910
0.16536
-0.32996
-0.51398
0.18022
-0.08500
-0.11458
0.60644
0.19617
0.02483
-0.05160
0.05472
0.24299
-0.33057
0.09992
-0.48064
-0.18899
-0.12672
0.22999
-0.35944
0.04304
0.00252
0.21736
-0.76808
0.27944
-0.63840
-0.37062
0.06682
0.11916
0.28526
-0.13851
-0.19605
0.39219
0.45144
-0.20656
-0.12043
-0.22246
-0.24422
-0.62220
-0.13460
0.13161
0.89373
0.36896
0.32959
0.50189
-0.02019
-0.93918
-0.09569
-1.27996
0.68996
0.23589
0.53948
0.63570
-0.13109
-0.48734
-0.40532
-0.02235
0.18237
0.65615
0.12474
-0.30838
-0.38425
-0.18159
-0.48800
0.13505
0.27112
-0.52049
0.35477
0.10086
-0.80583
0.10279
0.14383
0.02267
-0.14310
-0.30471
-0.12446
-0.46692
0.20394
-0.75660
-0.10756
0.22283
0.53506
-0.62816
-0.00555
-0.22949
-0.84905
0.21089
0.04082
-0.06863
-0.08483
0.38917
0.52210
0.15180
0.37014
-0.18052
-0.56350
0.30247
0.56624
0.12353
-0.24000
0.31224
0.17851
0.42108
0.65157
0.39015
0.58892
0.13698
0.62368
0.01992
0.16863
-0.28546
0.03010
0.27995
0.71095
-0.01998
-0.27248
0.49975
0.54110
0.01665
-0.59127
0.25248
-0.29613
-1.19471
-0.09366
0.21493
0.46966
0.11186
0.13384
0.17446
0.22250
-0.04888
0.24332
0.13061
0.08694
-0.23414
0.49456
0.21128
0.08579
1.07318
0.61677
-0.26734
-0.70164
0.35665
0.70318
0.18330
0.34798
-0.24841
0.14887
0.03385
0.21720
-0.08497
-0.52695
0.22230
-0.21315
-0.27393
-0.27381
0.01546
0.07677
0.71727
0.13063
0.14904
-0.43824
0.09909
-0.12187
0.18572
-0.21771
-0.74987
0.60064
-0.46542
-0.07545
0.45606
-0.07169
0.54045
0.10397
0.44884
-0.22820
0.02530
0.45971
-0.15127
0.16200
-0.15666
0.13999
0.47996
0.13847
0.70877
-0.21442
-0.11872
0.69914
-0.71762
-0.09893
-0.49882
-0.44085
0.00745
0.77375
0.40942
0.10231
0.01689
-0.70064
0.43466
-0.00675
0.13900
-0.42218
-0.17176
0.19282
0.68300
0.31359
0.06949
0.11836
0.29163
-0.73014
0.16949
0.47354
0.43677
0.02714
-0.21168
-0.50162
0.25374
-1.67372
0.35393
0.41687
0.22599
-0.11368
-1.41545
0.13368
-0.37630
0.18583
0.05482
0.46689
0.42444
0.04568
0.29945
-0.02740
-0.24607
0.44076
0.67704
0.23179
-0.22895
0.16841
0.14603
0.08814
0.44552
-0.42506
-0.57808
0.42122
-0.04384
0.41001
-0.41322
-0.81346
0.13653
0.34967
0.14354
0.24840
-0.18343
0.07994
0.14179
0.25362
-0.08566
0.22932
0.04403
-0.17598
0.33751
-0.44388
-0.43475
0.81780
0.42660
-0.42513
0.39085
0.16199
-0.42885
0.19546
0.33792
-0.31099
-0.09944
0.01015
0.10754
0.48446
0.20897
0.00506
0.34835
0.83363
-0.10957
0.38293
0.26827
0.39155
-0.22971
-0.05062
-0.06224
0.02485
-1.25015
-0.74756
0.83289
0.36868
0.42999
0.48485
0.31291
0.30312
-0.02953
-0.06245
-0.23722
-0.69958
-0.51252
0.29900
0.27896
0.34402
-0.00449
0.29244
0.36776
0.59709
-0.08193
0.17373
-0.16451
-0.45168
-0.25190
-0.12732
0.34922
-0.29139
0.32394
0.46817
0.46906
0.20076
-0.07518
0.28035
-0.68221
0.06340
-0.11937
-0.77405
-0.30149
0.13517
0.30766
-0.39996
0.49332
-0.28607
0.18395
0.01980
0.39078
0.14273
-0.11221
-0.04386
-0.18326
0.75209
0.19047
0.04015
0.25300
0.34766
0.21751
-0.16954
0.16419
-0.52690
0.36354
-0.21826
-0.23219
0.44026
-0.21765
0.20830
-0.20393
0.08123
0.71753
0.19470
0.43774
0.26478
0.81628
0.22233
0.67301
0.15432
-0.01339
0.12433
0.60333
0.05433
-0.99079
0.56088
0.07730
-0.37681
0.45163
-0.55266
-0.27397
-0.02822
0.01775
0.01680
-0.04131
0.18538
0.12564
0.13646
-0.14292
-0.37656
0.14445
0.44812
0.53716
0.91418
-0.03243
0.33583
-0.06927
-0.06153
0.11708
-0.35308
0.68112
0.28591
-0.60442
0.77375
-0.76309
-0.31638
0.37024
0.29465
-0.29537
-0.07140
0.31468
0.28549
0.01841
-0.14979
0.31749
-0.13599
0.25139
-0.34694
0.02004
-0.52073
0.44507
0.03410
0.47505
-0.48840
-0.21194
-0.12915
0.08756
0.10183
0.00391
-0.52529
0.20733
0.18753
0.05742
0.33736
-0.30815
-2.20378
0.32555
0.01647
0.10518
0.46856
0.39135
-0.61161
0.70058
0.44052
0.25561
0.26578
0.15008
0.07989
-0.03335
0.24138
0.08673
0.29746
0.26535
-1.49072
0.73869
0.82371
-0.21077
0.40249
0.04580
0.73042
-0.20607
0.21246
-0.09205
0.43529
-0.01763
-0.04064
0.21086
0.68823
0.08722
0.09168
0.17041
-0.01209
0.05828
-0.46193
0.23581
-0.05490
0.48385
0.49545
0.38720
0.16162
0.27210
-0.37823
0.33978
-0.09615
0.38273
0.00787
-0.15017
0.21037
0.70856
0.56578
0.40904
0.72265
0.23277
0.60373
0.38512
0.03393
-0.46051
0.76924
-0.19183
0.24081
-0.10315
0.37620
0.18245
-0.12237
-0.70751
0.24305
0.01176
0.53296
0.33342
0.32015
0.31469
0.13009
0.16980
0.37522
0.24242
0.31692
-0.35536
-2.12370
-0.18633
0.12093
0.09832
0.45862
0.10889
-0.14732
0.07890
0.48681
-0.11369
-0.35045
0.23754
0.55573
0.46149
0.33675
-0.14956
0.16592
0.65470
-0.17321
-0.22669
0.23794
-0.29204
-0.01553
0.46363
0.57507
-0.20733
0.04470
0.35893
-0.00621
0.48358
0.42767
0.49941
0.04233
0.21549
-0.24869
-0.02590
0.10043
-0.58608
-0.19317
0.24969
-0.45271
0.50618
-0.20334
0.58683
0.53207
0.17848
0.08881
-0.22594
0.15300
-0.17678
-0.32387
0.19514
0.22753
0.70970
0.36061
0.05124
-0.47769
0.09620
0.01521
0.69721
-0.04893
0.19938
-0.09365
-0.63811
0.20045
-1.59961
0.19415
0.36711
0.13539
0.41282
0.35907
0.76520
0.31193
-0.85167
0.61587
0.33831
0.68002
0.06131
0.27303
0.03997
0.28760
0.26507
0.15573
0.18618
0.45785
0.75463
0.13158
-0.17521
-0.75196
0.04951
0.65195
-0.22958
-0.04796
-0.80246
0.17080
0.33976
-0.56226
-0.30466
0.36864
-0.19747
0.71892
-0.04154
-0.03995
0.19956
0.43306
0.22927
-0.28083
0.06340
0.48405
0.02297
0.65396
0.51618
-0.61575
0.03798
0.13904
-0.20575
-0.53323
-0.13901
0.07994
-0.08755
-0.77753
0.02415
0.01168
0.39712
-0.03907
-0.11580
0.05821
-0.11332
-1.63389
-0.15694
-0.16127
-0.67434
0.47263
0.22096
0.04722
-0.49859
0.57499
0.35301
-0.05720
0.33755
-0.33855
-0.31489
0.72012
0.20082
0.58151
0.93391
0.41851
0.13431
0.43932
-0.74342
0.31454
-0.13888
-0.02852
0.31607
0.38807
-0.52043
-0.40582
0.27176
0.00244
-0.58158
-0.31825
0.35919
0.29966
0.01611
-0.06284
-0.03845
0.21574
-1.45423
-0.33540
-0.51324
0.36338
0.52553
-0.42892
0.14646
-0.03659
0.15244
-0.95605
-0.26180
0.13284
-0.04922
0.12618
0.53821
0.49467
0.08812
0.86579
0.02964
-0.45265
0.66067
0.22491
0.29097
-0.70099
0.57284
-0.01777
-0.13640
0.16473
0.17402
-0.35430
0.37867
0.55063
-0.18406
-0.62557
0.40872
0.00073
0.36263
-0.38087
-0.50265
0.04362
0.05187
-0.50339
-0.20378
-0.18744
0.36480
-0.02318
0.18381
0.70394
0.08539
-0.15498
-0.18818
-0.31275
-0.10772
0.32351
-0.05530
0.40770
-0.46694
-0.11569
0.35729
0.14303
0.13682
-0.07541
-0.21320
0.33346
-0.02959
0.18837
0.61616
-0.23986
-0.63782
-0.08178
0.57801
0.33516
0.23696
0.15277
0.15040
-0.06025
0.68080
0.46565
-0.13860
-0.41357
-0.97217
-0.22848
-0.81229
-0.62262
-0.08007
-0.01963
-0.09143
-0.35076
0.69857
-0.04396
0.37621
0.00465
0.54792
0.23618
0.04576
0.05457
0.18568
-0.54671
-0.33017
-0.38006
0.76721
-0.16580
0.62333
-0.05513
-0.28852
0.31887
0.33314
0.34819
-0.29480
0.22143
-0.26795
-0.64300
0.24373
-0.57110
-0.06763
0.12097
0.26722
0.66065
-0.30281
-0.11006
0.16825
0.38892
-0.08037
0.22184
0.30773
-0.69415
0.07755
0.19715
-0.41667
-0.03697
-0.30469
0.29589
-0.33178
0.55668
0.49904
0.65826
-0.60997
-0.13376
-0.04289
-0.11280
-0.36125
-0.91132
0.18291
0.30189
0.00510
0.36714
0.70526
-0.02735
0.37248
-0.16414
0.35902
-0.20310
-0.29716
0.60169
-0.00223
0.18645
-0.23228
0.54263
0.13091
0.15829
0.12688
-0.33304
-0.40193
-0.17821
0.13749
-0.11977
0.59580
0.08288
-0.07728
-0.69023
0.28957
0.82124
-0.32778
0.57503
0.71267
0.10206
0.58163
0.47480
0.48183
0.26123
0.11691
0.25865
-0.38414
-0.24337
0.02942
0.22831
0.19366
-1.06496
-0.32427
-0.75246
0.76977
0.37412
-0.04667
0.20294
0.39077
0.44696
-0.24801
0.81568
0.43709
0.31521
0.18204
0.24790
0.35745
0.42079
-0.16620
-0.54867
0.45796
0.16120
0.52232
0.48270
-0.00071
0.07372
0.40046
-0.53039
0.35568
0.31043
0.60889
0.42956
-0.55736
-0.04608
0.44439
0.18047
0.03634
0.80684
0.29790
-0.52703
-0.08064
-0.97038
-0.06660
0.10380
-0.00037
0.04616
0.35209
0.09490
-0.40539
0.06730
-0.14450
0.45178
0.05009
-0.04316
0.66370
-0.22607
-0.96000
-0.04387
-0.08574
0.31136
-0.11867
0.44193
0.62880
0.33828
0.38691
-0.83627
-0.56034
0.32018
-0.10881
0.20847
-0.02577
-0.06237
-0.78175
-0.02698
-0.26005
-0.20404
0.23918
0.01513
0.34301
0.36963
-0.25683
0.00494
-0.00926
0.47390
-0.04740
-0.57880
0.20955
0.16136
0.79144
-0.12897
0.08123
-0.09356
0.64907
0.39066
-0.01925
-0.02842
0.69740
0.49475
0.36817
0.23726
-0.28607
-0.08927
-0.05980
0.11028
0.46078
-0.05593
0.25042
-0.46842
0.24663
0.41116
0.22362
0.02120
-0.66055
0.00669
-0.00938
-0.36895
0.24093
0.65507
-0.66715
0.09478
-0.17224
-0.26266
0.26418
0.49947
-0.01968
-0.01399
0.13785
-0.25448
-0.34567
0.48287
0.69606
0.26262
-0.37439
-0.29291
0.48536
-0.23811
-0.41882
0.43733
-1.10834
0.46603
0.60682
-0.01971
-0.20263
0.47724
0.27241
0.61216
-0.04151
0.07381
0.18955
0.26079
-0.01778
0.06548
0.54873
-0.37090
-0.49840
0.45057
0.38761
-0.32200
0.27228
-0.03674
-0.45607
0.00380
-0.12476
-0.14933
0.07391
-0.08693
0.59586
0.21393
0.02580
0.25618
0.20924
0.06351
0.32741
0.21227
0.33824
-0.70953
0.12663
-0.00943
0.07563
-0.11835
0.04200
0.66236
-0.43425
0.41833
0.61261
-0.82341
0.43253
-0.01019
-0.27904
0.17446
0.31637
-0.28850
0.25616
-0.00423
-0.10779
-0.43157
-0.14779
0.50131
0.65545
-0.07477
0.25430
0.21348
-0.63917
0.43580
0.04984
-0.27188
0.40385
0.59193
0.33408
0.26856
-0.25533
-0.14681
0.50996
0.61195
0.04810
-0.26464
-0.03590
0.33236
0.63297
-0.90406
-0.07112
0.48418
-0.19864
-0.03272
-0.04139
-0.32302
0.29761
-0.53710
0.08858
-0.47998
-0.19246
0.43685
-0.01824
-0.38346
0.40727
-0.33097
-0.43944
-0.35533
0.12522
0.25412
-0.30385
0.47327
0.55305
0.59954
-0.21778
-1.00009
0.25559
0.54306
0.25005
0.08005
0.35643
0.27693
-0.11251
-0.57263
0.08468
-0.00932
0.51364
0.44520
0.09983
0.12670
0.34587
0.53651
-0.78627
0.19796
-0.14770
0.42146
0.53063
0.28231
0.15858
0.33702
0.01843
0.00419
0.35691
-0.18419
0.17154
-0.68028
0.20080
0.25896
0.09042
-0.72079
0.81536
-0.27443
0.12744
-0.00141
0.01035
0.19047
-0.11030
-0.09989
0.42686
-0.28508
-0.84320
-1.34392
0.11402
-0.14871
0.08427
0.12625
0.61528
-0.30333
0.34560
0.54392
0.17788
-0.32610
-0.18602
0.23872
0.14201
0.59511
-0.40730
0.44150
0.61055
0.75447
0.49019
0.11920
-0.31343
-0.93455
0.28467
0.57111
0.77279
-0.71738
0.18541
0.04390
0.40632
-0.27707
0.23937
0.68376
0.21374
-0.50080
-0.03568
-0.15614
0.48493
-0.05671
0.52070
-0.64579
0.45167
-0.39295
0.60196
0.31815
0.40708
0.18808
0.20143
-0.31117
-0.12074
-0.38104
-0.37867
0.17760
0.32759
0.70814
-0.01724
-0.05762
-0.18746
-0.11294
0.25308
-0.30885
0.55361
0.29734
-0.11898
-0.15555
-1.11493
-0.08751
0.11332
0.39458
0.53717
-0.61054
-0.18669
0.50135
0.43089
-0.23275
0.64513
-0.07875
-0.41371
-0.53923
-0.36738
-0.07692
0.23599
0.37618
0.29064
0.00020
0.76069
0.35866
0.18170
0.56712
-0.16621
0.77471
-0.28012
0.10345
-0.34921
-0.23745
0.27725
-0.63899
-0.47502
-0.07955
0.41276
0.11607
0.12180
-0.76698
0.80058
-0.06668
0.06686
0.13228
0.09810
0.07681
0.02523
0.08860
0.09270
0.05594
0.17971
0.11811
0.09091
0.15642
0.11157
0.17271
0.19223
0.04744
0.08264
0.18721
0.08122
0.04617
0.18467
0.13989
0.02808
0.15246
0.05436
0.00107
0.15086
0.03498
0.14801
0.08893
0.02755
0.13447
0.15707
0.10572
0.20580
0.12957
0.10055
0.15627
0.09399
0.12990
0.17912
0.18328
0.14983
0.03029
0.15451
0.06139
0.06213
0.20013
0.04534
0.05931
0.03427
0.09292
0.06582
0.02241
0.14474
0.04468
0.03448
0.14530
0.19922
0.04498
0.17219
0.12112
0.19753
0.16819
0.17258
0.11040
0.01662
0.05192
0.00445
0.17316
0.12170
0.19629
0.11756
0.06611
0.19930
0.00157
0.05481
0.11948
0.07992
0.15182
0.12074
0.09671
0.20897
0.00216
0.04342
0.17382
0.08280
0.06170
0.11374
0.04721
0.19766
0.17910
0.17565
0.01852
0.09743
0.06925
0.14818
0.14714
0.07400
0.11603
0.04480
0.20722
0.05128
0.17683
0.00529
0.06601
0.16326
0.06810
0.15741
0.01214
0.00416
0.12154
0.11452
0.15831
0.07121
0.06285
0.12821
0.14806
0.05370
0.10293
0.08958
0.11064
0.18211
0.15052
0.12641
0.08417
0.10876
0.04833
0.16389
0.06030
0.10171
0.07850
0.05473
0.06502
-0.06295
0.14573
0.03761
-0.03772
0.04680
-0.05950
-0.03030
0.27767
0.06551
0.00719
0.28099
-0.10905
0.17121
-0.70969
-0.49165
0.39758
0.12512
0.49573
-0.34216
-0.29513
-0.23777
0.09664
0.13670
0.22037
-0.34127
-0.04453
0.78912
0.24038
-0.39056
0.47605
-0.19953
-0.77646
-0.00794
0.12439
0.74813
-1.10021
-0.39556
-0.27512
0.50094
0.11217
0.25903
-0.31708
0.52010
0.71691
-0.15168
-0.22234
-0.51352
0.47089
-0.01564
0.23549
-0.40717
0.86305
0.45384
0.60489
0.00675
-0.34133
-0.63403
0.46901
0.13239
0.20559
0.85450
0.06004
-0.98740
0.50566
-0.90145
0.44532
-0.30789
1.77165
0.63433
-0.46092
0.42308
-0.02480
-0.32355
-0.01000
0.10882
-0.73866
0.12790
0.10282
-0.11418
-0.38726
0.53302
0.56875
-0.45762
-0.27913
0.20687
0.33892
-0.40382
-1.03233
0.14580
0.03802
-0.31373
0.03914
0.58885
0.82830
0.50684
0.82854
0.17012
-0.63609
-1.01805
0.14796
0.62184
0.08776
0.19296
0.58488
0.13116
0.75795
-0.57946
-0.29916
0.48052
0.40327
0.18074
-1.10074
0.20826
0.24517
-1.03667
0.47202
0.57124
-0.49864
0.15166
-0.00108
-0.39877
0.14912
-0.41085
-0.12768
0.98713
-0.58609
0.15896
0.27110
-0.08271
0.00360
0.68798
0.05567
0.16511
-0.86905
0.70390
-0.09997
-0.31787
0.20522
-0.01736
0.26562
0.42710
-0.06626
0.45351
-0.73125
0.18766
0.07248
-0.23888
0.04370
0.21659
0.47698
0.16301
-0.56656
0.58965
-1.06881
-0.47743
-0.23197
-0.35871
-0.05294
0.26017
0.57099
-0.28024
0.36491
0.42471
-0.66285
0.48361
0.47299
-0.57440
0.44594
-0.29120
-0.55095
0.24670
-1.49802
-0.05259
0.21771
0.76476
-1.07917
0.06234
0.66442
0.39220
-0.28830
-1.50068
0.01041
0.44655
0.56060
0.64744
0.13562
-0.03787
0.21102
0.31700
-0.24536
-0.52337
-0.19100
0.71193
0.15925
0.45407
-0.46589
0.05932
0.09884
-0.69214
0.15569
0.03770
-0.01118
-0.09064
-0.51095
-0.48199
-0.16501
0.15305
-0.12379
-0.02878
0.03779
0.16860
-0.17760
-0.06187
0.54368
0.19960
-0.15847
-0.32067
0.02106
0.40020
-0.67661
0.25049
0.57771
0.40523
0.38246
-0.42851
0.35381
-0.04237
-0.24314
-0.28857
-0.01461
-0.73763
-0.72886
-0.00782
-0.15062
-0.05662
0.38286
-0.27745
-0.17517
0.08447
-0.05377
-0.05412
-0.22106
-0.19099
0.12395
-0.02833
-0.13132
-0.16782
-0.11450
-0.10671
-0.14543
-0.14357
0.26016
-0.05607
0.28258
0.14456
-1.17977
-0.19360
-0.13074
-0.58940
-0.00368
-0.03974
0.36261
-0.26243
0.22521
0.17563
-0.26508
-0.30168
0.38110
-1.02421
0.33031
0.53654
-0.86629
0.18567
-0.66541
-0.37834
-0.05223
0.19841
0.75213
-0.15455
-0.03792
-0.23112
0.37924
0.14068
0.16697
0.11322
0.28826
0.15112
-0.21997
0.51720
0.77385
0.50040
0.39068
-0.88362
0.61891
-0.15521
0.27833
-0.10060
0.42654
0.33862
0.35744
-0.07850
0.28902
0.48845
0.19330
-0.10400
0.63100
0.63274
-0.13655
0.40743
0.84364
0.36921
0.04011
0.16936
0.26192
0.43899
0.30420
-1.55976
-0.11421
0.33024
-0.16106
-0.59912
0.05790
-0.32861
-0.56593
0.49408
0.18817
0.05638
0.58478
-0.22514
0.32579
-0.56005
0.42197
0.12078
0.40972
-0.05774
-0.14865
0.32350
0.46637
0.33563
-0.06332
-1.81779
-0.04732
0.13629
-0.97425
0.48024
-0.43726
0.41422
-0.18933
0.07526
-0.08633
-0.45578
0.43497
0.54026
-0.66473
0.37980
-0.37339
0.61998
0.39905
0.12577
0.29751
0.26830
0.19218
0.07782
-0.10385
-0.29957
-0.12840
-0.03151
-0.33155
0.05277
-0.53062
-0.27820
-0.11839
-0.27278
-0.60773
-0.57753
-0.11534
-0.51655
0.07541
0.45916
0.15802
0.61324
-0.01541
0.03358
0.13443
-0.14573
0.45890
0.79320
0.31771
0.51880
0.29303
-0.36427
-0.65606
0.51591
0.21466
-0.54949
0.34739
-0.78301
-0.12701
0.79925
0.47849
0.38151
0.64490
0.73782
-0.37418
0.28547
0.32548
0.11847
-0.22495
0.29466
-0.62410
-0.87451
0.37916
0.32483
-0.30594
0.29114
-0.45932
-0.04905
-0.33311
0.42018
0.11869
-0.38702
0.16000
-0.05864
0.10269
-0.33658
-0.14798
-0.05653
0.01537
-1.11273
-0.08367
0.24651
-0.11010
0.02885
0.69069
0.10897
-0.14036
-0.63952
0.02078
0.23689
-0.36440
-0.94696
0.17256
0.31237
0.68701
-0.54567
0.47626
-0.15262
0.52049
-0.98426
0.14219
0.31477
0.63834
0.52965
0.38351
-0.37622
0.13902
0.00445
0.40567
-0.51181
0.19190
-0.16178
0.34126
0.45963
-0.05515
0.01413
0.27161
-0.06836
0.16180
0.59125
0.54722
-0.00830
0.20274
0.25891
0.12406
-0.55775
-0.49369
-0.00627
-0.15519
-0.02429
0.08889
-0.05727
0.07256
-0.00925
-0.22693
-0.30883
0.08156
-0.01125
0.21098
0.40688
0.02431
0.29715
-0.66863
-0.25992
0.53104
0.02647
-0.54336
0.58489
0.06696
0.69043
0.24932
-0.46192
0.24286
-0.10451
0.47122
0.33549
0.43435
-0.11883
-1.12979
0.11835
0.66117
0.09283
0.19107
-0.27544
-0.22353
0.65023
-0.31316
0.20044
-0.38675
0.63981
-0.17438
-0.05092
-0.31759
-0.28073
0.10762
-0.12654
-1.25835
0.47354
0.32394
0.09327
-0.13782
0.10817
-0.27393
0.75184
-0.06234
0.02347
-0.02152
0.06267
0.60002
-0.00328
0.01063
0.59419
-0.54994
0.14605
-0.30886
0.62828
0.78726
0.25618
0.51232
0.23038
0.18724
-0.98399
-0.32087
0.31256
0.58464
0.63741
-0.14223
-0.60538
-0.19105
-0.66682
-0.39014
-0.51562
0.29569
0.01538
-0.15192
-0.52765
-0.44908
-0.60664
-1.04415
-0.08175
-0.07541
0.00034
-0.76879
-0.98183
-0.38617
-0.47585
0.13702
-0.62046
-0.99123
-0.15702
-0.55241
0.26759
-0.04262
0.09078
-0.02666
0.06642
-0.58560
-0.08672
0.16642
-0.62954
0.36097
0.27230
0.23298
0.40753
0.10572
0.04612
0.08508
0.31803
-0.43294
0.34923
0.30570
0.28726
0.64215
0.20248
0.25116
0.39073
0.36284
0.15146
0.09674
-0.37323
-0.17123
0.27150
-0.57889
0.40096
0.08404
0.09553
0.25963
0.45506
0.20203
0.17487
-0.32495
-0.06410
0.05153
0.13915
0.16696
0.10543
-0.02788
0.24607
-0.17724
0.40889
0.25374
-0.14136
-0.32256
0.41878
-0.85339
-0.01911
0.49176
0.49251
0.34580
-0.11145
0.18848
0.19645
0.11827
-0.05101
0.16575
0.41698
0.28830
-0.12033
-0.21741
0.04931
0.32236
0.17493
0.32411
-0.06739
-0.34199
0.22606
-0.77923
-0.19125
-0.50495
-0.73419
-0.39548
-0.54608
0.16040
0.15597
-0.34274
-1.19660
-0.44607
-0.89271
-0.81637
0.75929
-0.57988
-0.93222
-0.36220
-0.25880
-0.37084
-0.76809
0.29657
-0.12257
-0.91169
0.08792
-1.53344
-0.35378
0.42375
-0.73496
0.29509
0.57742
-0.20217
0.13144
-0.75413
0.04933
-0.71380
-1.02039
0.11642
0.22388
0.17106
-0.20589
-0.33746
0.20591
0.04263
-0.67856
-1.02694
-1.05917
-1.22541
-0.12233
-1.61092
-0.72443
0.19636
-0.27844
0.56177
0.28592
-0.01723
-0.15837
0.37298
-1.01103
-1.68684
-0.08270
-0.17637
-0.46704
-0.46355
-0.26599
-0.51411
-0.77747
-0.67664
-0.14799
-0.22475
0.11343
-0.41043
-1.24542
-0.97772
0.25831
-1.35526
-0.16333
-0.15800
-0.00558
-0.01209
-0.49753
0.42100
-0.15133
-0.67304
-0.54052
-0.13893
-0.49872
0.19997
0.05245
-0.54618
-0.65519
0.37122
-0.09904
0.48224
0.74413
0.40289
0.57265
0.23608
0.70244
-0.98461
-0.13563
-0.03150
-0.80775
0.21654
0.04141
-0.07481
-0.40815
-0.89822
0.01439
0.39250
-0.14981
0.31538
0.10872
-0.55160
-0.38211
0.08172
-0.39057
0.35296
0.46016
0.57779
-0.01574
-0.42624
-0.16930
-0.48852
-0.21739
0.13052
0.55935
-0.11587
-0.53989
0.19358
0.65167
-0.32542
0.27765
-0.27153
0.26879
-0.58002
-0.51101
-0.30133
0.42809
-0.37130
0.32393
-0.73416
0.07601
0.25225
-0.76899
0.29975
0.06309
0.50980
0.36883
-0.19560
-0.22270
0.07663
0.41336
-0.86805
0.05843
0.49548
-0.10006
-0.15241
0.63691
0.06854
0.79864
0.34332
0.00023
0.47227
-0.52664
0.21087
0.00302
-0.35207
0.27995
0.32032
0.17863
0.29267
-0.74473
0.97410
0.17999
0.15573
-0.12308
-0.25514
-0.08690
-0.22001
-0.74312
0.15307
-0.42317
0.74989
0.16251
1.08458
0.57785
0.01783
0.46567
-0.26113
0.30177
-0.60322
-0.41127
0.00787
-0.08741
0.24418
-0.98392
-0.09973
-0.19889
-0.62772
0.71286
-0.63577
0.06851
0.02357
0.48660
0.96625
-0.65021
-0.42728
0.81578
0.24233
0.96833
-0.29040
-0.15391
-0.43979
0.25885
0.10233
-0.03455
0.00669
-0.47430
0.07828
-0.57377
0.09108
-0.11397
-0.43065
0.12998
-0.25612
0.20027
-0.43847
-0.00652
0.52617
0.45566
-0.04909
0.39843
0.57649
-0.44745
0.11351
0.58487
0.50498
-1.01554
-0.91468
-0.66860
0.01173
-0.34013
-0.70749
0.14464
-0.44600
-0.36786
-0.77480
-0.87966
-0.91940
-1.17136
0.46464
0.36664
-0.33078
0.43018
0.58528
-0.89927
0.15187
-0.12846
-0.55184
0.32455
-0.07071
-0.37710
0.21096
-0.44255
-0.16389
-0.54924
0.13879
-0.10259
-0.46388
-0.13986
0.23344
-0.00462
-0.64403
-0.58956
0.01010
0.42631
0.07941
-0.11045
-0.41385
0.09386
0.14923
-0.55986
0.02275
-0.10621
0.44691
-0.08600
-0.76033
0.47423
0.40935
-1.06624
-0.19929
0.01721
-1.02797
-0.43874
-0.28444
-0.60190
-0.24793
0.11575
0.19286
-1.29225
-0.43353
-1.27101
0.41825
-0.10513
-0.70521
-0.18122
-0.18801
0.29886
0.43796
0.15302
-1.35921
-0.17418
-0.46070
-0.46604
-0.25220
0.47339
0.26157
-0.01576
0.02099
0.29729
-0.09525
0.25342
-0.34047
-0.38342
-0.70577
-0.79271
-0.06404
0.22880
0.20038
-0.03140
0.27828
-0.53380
0.23455
-0.06718
0.04251
0.27371
-0.08205
-0.23164
-0.31997
0.42228
-0.63222
-0.04534
0.20811
0.22052
0.28224
-0.92075
0.16910
0.34516
-0.54381
0.33015
0.59683
0.62651
-0.78946
0.90392
-0.16172
-0.29106
-1.00027
0.44773
-0.04493
-0.98098
-0.20666
0.23643
-0.21324
-0.33439
-0.57245
0.31293
-0.56689
0.56999
-0.19715
0.22108
0.32064
0.17654
0.09318
0.43452
-0.19272
0.04797
-0.25080
0.56230
-0.00411
-0.15579
-0.15678
-1.47731
0.17786
-0.74757
0.50599
0.03280
-0.56347
0.11261
-0.37337
-0.22165
0.48910
0.67007
0.16003
-0.47641
0.20099
-1.01950
0.53281
0.67710
-0.22926
-0.20587
-0.09762
0.22518
0.32915
-0.21098
-0.09498
-0.35406
-0.15045
-0.77477
-0.88600
-0.48883
0.71821
0.05897
-0.48970
0.54940
0.45093
0.43041
0.54253
0.73116
0.54074
-1.32185
-0.80521
0.13981
0.33225
-0.55796
-0.34168
-0.89254
-0.23895
-0.02719
-0.11438
-0.03508
-0.09904
-0.19056
0.04617
0.46019
-0.09701
0.21586
0.41623
-0.68819
-0.21846
-0.45337
-0.12588
-0.37144
-0.13257
-0.75677
0.23334
-0.76166
0.33481
0.18969
0.43449
0.08019
0.49852
0.38855
0.08926
-0.67454
0.65224
0.30205
0.32695
-0.70106
-0.27401
-0.72786
-0.60890
-0.79610
1.00944
0.45547
0.87013
-0.10864
-0.21728
0.27608
0.53524
-0.03175
0.61388
0.39154
-0.00197
0.13543
0.97464
-1.41136
0.18876
0.40013
-0.71656
0.49859
0.31258
0.51351
0.47972
-0.07524
0.03419
-0.33752
0.33728
-0.02028
-0.18734
0.17269
0.62257
-0.35460
-0.07398
0.02626
-0.87086
0.35103
0.35803
-0.06817
-0.21811
0.12878
0.54160
0.26029
-1.09268
0.22380
0.07393
0.24830
-1.47947
0.09906
-0.19655
0.12029
0.15732
0.03781
-0.39048
0.21457
-0.93215
-0.32046
-0.13126
0.42004
-0.19920
-0.10444
0.04348
0.13334
0.33918
-0.56304
-0.47235
-0.69040
-0.56620
-0.43138
-0.84265
-0.67910
0.12140
-0.40032
-0.70555
0.28863
0.50086
-0.37651
0.18392
-0.42389
-1.19334
-0.74685
-0.06897
-0.01715
0.25362
0.85477
-0.06877
0.33348
-0.22923
-0.04412
0.57220
-0.07212
0.55682
0.61344
-0.30046
-0.48214
0.10147
-0.49989
0.24718
-0.05159
-0.38676
0.15113
0.51654
0.07814
0.06102
-0.99084
-0.03432
0.29698
-0.21791
-0.02457
-0.33837
0.19345
-0.34518
0.26557
0.28429
-0.47770
-0.46392
0.00211
-0.86930
-0.44004
-0.00731
-0.25027
0.67257
0.01574
0.17395
0.33054
-0.06969
0.38110
0.13308
-0.23050
0.07573
-0.30660
0.42150
-0.49442
0.07061
0.34622
0.40504
-0.17471
-1.22275
-0.68947
0.45323
-0.62878
-0.54061
-0.47987
-1.15539
-0.39423
-0.68065
-0.35886
0.59977
-0.02490
-0.53571
-0.85713
-0.19982
0.17367
0.37803
0.39189
0.44369
0.41066
-1.41809
0.46626
-0.37428
-1.27926
-1.17651
0.22567
-0.56057
0.32710
-1.40822
-0.06940
0.06607
0.51683
0.52326
-0.32888
-0.01570
0.03618
-0.08341
-0.38312
-0.12612
-0.94120
-0.18899
0.10974
-0.89685
-0.22808
0.30531
0.01048
-0.22735
-0.01320
0.57787
-0.16917
-0.06124
0.42200
-1.33026
-0.02638
0.26040
-0.03103
0.26670
-0.05918
-0.04314
-0.04026
0.49920
0.38395
0.45023
-0.02627
-0.93123
-1.42943
0.41575
-1.17455
0.29472
0.44931
-1.01279
-0.01086
0.16985
0.45603
0.01914
0.16568
-0.62924
-0.02439
0.50948
0.01235
0.10045
0.32175
-0.06909
0.33579
0.44972
0.19255
-0.98051
-0.21863
0.59191
0.43058
0.42437
0.38434
-0.39090
-0.40040
-0.01891
0.37600
0.40526
-0.33569
0.32552
-0.37046
0.81856
0.03258
-0.05604
0.12601
-0.01131
0.03617
-0.00697
0.01580
0.43988
-0.43351
0.41726
-0.02908
-0.33606
0.42486
0.38923
0.44642
-1.53366
0.73566
0.60267
0.26504
0.16848
0.34780
0.44325
0.60096
0.23259
-0.31018
0.53731
0.39869
0.25750
-0.07643
0.28836
0.19226
0.24229
0.56287
-0.13784
0.60513
0.24698
-0.43616
-0.85879
-0.06953
0.26307
0.25785
-0.83368
0.27392
0.26251
0.16802
-0.13055
0.23481
-0.03538
-0.06421
-0.43963
0.46838
0.12088
-1.82873
-0.42526
0.26194
0.10342
-0.48676
0.17051
-0.12837
-0.23849
0.55460
0.25948
0.55836
0.30174
0.12500
-0.08087
-0.12953
-0.82109
-0.06457
0.24559
-0.13941
0.35477
-0.24212
-0.44773
0.75174
0.36316
0.07085
-0.65240
-0.20574
-0.09529
0.13780
0.02868
0.94497
0.04481
-0.34079
-0.57786
0.08120
-0.49404
-0.26628
0.58662
-0.41104
-1.41347
-0.42741
0.29398
-0.59766
0.65571
0.01524
0.17581
0.12068
0.51315
-0.24334
0.70750
-0.29816
-0.19852
0.34298
-0.17055
-1.33935
0.52169
-0.26383
-0.75245
-0.62464
0.50122
0.60176
-0.44024
0.16285
-0.05844
0.66528
-0.87820
0.47049
0.71259
0.57469
-0.02443
0.36256
-0.68718
0.18881
0.05652
0.17787
-0.25681
-0.22778
0.18146
0.17956
0.25543
-0.87634
0.09053
-0.44615
0.65931
0.52357
0.43552
0.41770
0.46884
0.41551
-0.31303
-0.24426
-0.00872
0.01347
-0.28005
0.22073
0.54397
0.17744
-0.47219
-0.14715
-0.77807
0.52790
0.35329
-0.26727
0.24969
0.40956
0.68957
-1.24290
-0.27237
0.13659
0.27531
0.46125
-0.09229
0.43889
0.27717
0.16138
-0.07959
0.14878
0.21906
-0.09420
0.29698
-0.89455
-0.92987
0.68637
0.44791
0.43090
0.43294
0.14361
0.22745
0.44087
-0.11076
0.43173
0.33989
0.41449
0.33488
0.42406
0.36117
-0.27033
0.52762
0.39624
0.17911
-1.54103
-0.00465
0.22593
0.57320
-0.06114
-0.12196
-0.09693
0.51154
0.45433
-0.20860
-0.58637
0.11905
0.60694
0.35631
-0.06037
0.24531
0.23900
-0.46979
-0.36539
-0.06505
0.12033
0.21710
-1.07614
0.25213
0.47482
0.15226
0.02889
-0.93911
-0.10933
0.12524
0.28605
0.26287
-0.11341
0.23069
0.33487
0.34868
0.37159
-1.16079
0.09259
-0.27177
0.13320
-1.14957
0.62461
0.60622
0.00795
-0.31054
-0.57514
-0.24390
-0.19667
-0.90519
0.21202
0.50995
0.16031
0.48260
-0.22561
-0.19783
0.72341
0.82132
0.16288
0.18054
-0.20764
-1.68337
0.50834
-0.38571
0.14071
0.87899
-0.92849
0.17784
-0.37245
0.09574
-0.28978
-0.19925
0.51987
-0.55593
-0.17998
-0.92206
-0.20413
-0.18579
0.19831
-0.55185
-0.92943
-0.21069
-0.94116
0.08171
-0.57205
-0.57409
-0.12741
-0.20870
-0.17390
-0.60318
0.53984
0.47605
0.85472
0.15088
-0.59919
0.82451
-0.22219
0.15788
0.18853
-0.22034
-0.19299
-0.30254
-0.21560
-0.11668
-0.24830
-0.50223
0.11142
-0.20902
0.19238
0.66660
0.69869
-0.16382
0.03355
0.42666
0.52314
-0.90988
-0.91721
-0.57732
0.44656
0.47661
-0.77490
0.53763
0.43407
0.49099
0.06901
0.60252
0.13610
-1.15421
0.27517
-0.23914
0.00634
0.45658
0.05219
0.32283
-0.40690
0.34496
-0.14068
0.17758
-0.09050
0.36740
-0.05948
0.09418
0.05952
0.53960
-0.06745
-0.04011
-0.07226
0.45029
-0.08649
0.16188
0.43973
-0.02499
-0.02748
0.04667
0.29404
-0.15203
-0.06073
-0.34235
-0.05061
0.27676
-0.10552
0.21757
-0.65401
-0.60693
0.08293
-0.32790
-1.59567
-0.41453
0.50180
-0.23099
-0.23165
-0.53533
-0.90357
0.54469
-0.09907
0.33478
0.22184
-0.03072
-0.45821
0.13157
-0.80890
0.26066
0.27198
0.23963
0.24818
-1.11002
0.14170
0.64197
0.68647
-0.08077
-0.73146
-0.41560
0.84378
0.41815
0.41500
0.58905
0.47186
0.28924
-0.25308
0.11382
-0.09895
0.69138
0.17830
0.10606
0.29097
0.11959
0.54074
0.58061
0.50840
0.55047
0.42217
-0.55748
0.52491
0.26049
-0.83226
0.58274
0.49650
-0.30963
0.11033
0.88946
-0.26172
0.10575
0.02232
-0.61521
0.49149
0.43830
-0.25605
0.11071
-0.67036
0.14722
0.07269
0.10835
-0.34100
0.11146
-0.23166
-0.19558
-0.23973
0.04826
0.12152
-0.24430
-0.25046
-0.66432
0.12493
0.12782
0.11449
0.04267
-0.27185
0.44978
-0.56471
0.42865
0.10352
-0.26238
-0.32366
0.01084
-0.04735
0.63211
-0.38817
0.05905
-0.96303
-0.43688
-0.38420
-0.48752
-0.28392
-0.57674
0.24529
-0.48542
-0.29085
-0.06040
0.33978
-0.75349
0.46629
-1.30910
0.24487
-0.62176
0.39770
0.80637
-0.29089
-0.73853
-0.33684
-0.28291
-0.35352
0.44916
-0.79860
-0.05128
-0.11532
-0.10287
-0.37835
-0.84502
0.53961
0.43386
0.26699
-0.00716
0.47532
-0.11447
0.23580
0.15394
0.08532
-0.28857
0.35909
0.34948
0.06380
0.54183
-0.10307
-0.14103
-0.36267
0.61028
0.61641
-0.09252
-0.39500
0.06711
-0.14680
-0.87218
0.32818
-0.39988
-0.21267
-0.98046
-0.80755
-0.82860
0.04478
0.31929
-0.80104
0.61970
0.54759
0.38091
0.08811
-0.58649
0.59173
-0.15202
0.51789
-0.11125
0.34437
0.08018
-0.50997
0.20553
-0.23633
-0.14666
0.51702
0.32322
0.23892
0.29939
0.63338
-0.13205
0.09825
0.49934
-0.62906
-0.51011
-0.00191
0.68302
-0.72056
-0.11122
0.41729
0.03992
0.50744
0.02810
-0.88877
-0.06765
-0.59064
0.38633
0.07575
0.44778
0.22921
-0.09177
-0.20442
