0.29503
-0.66404
-0.25417
-0.24227
0.51493
0.50284
-0.63203
0.50449
-0.00812
0.33166
0.15421
-0.11138
0.05314
0.37213
0.20655
0.07922
0.24297
0.21657
-0.27647
0.49563
0.78243
-0.10311
0.51373
0.06176
-0.70316
-0.98125
-0.15789
-0.12524
-0.41002
-0.05778
0.08664
-0.18151
0.43791
-0.16308
0.77488
0.62994
-1.08708
0.43986
-0.46734
0.06279
0.70515
-0.47337
0.01184
-0.49237
0.28526
0.56293
0.34386
0.46193
0.46448
-0.47396
0.35315
0.49990
0.47741
0.19761
-0.34360
-0.63664
-1.52630
0.14075
-0.13881
-0.58962
-0.01137
0.40240
0.19243
-0.12635
-0.06892
0.13529
0.91914
-0.21227
0.50847
0.48845
0.47784
0.06872
-0.02540
0.00330
-0.29337
-0.27070
-0.45924
0.13601
-0.29926
-0.01029
0.12159
0.64326
0.81147
0.84382
-0.52489
-0.08876
0.43619
0.08848
0.02488
-0.30907
-0.14944
-0.10777
0.34386
-0.14189
0.00120
0.31095
-0.40030
-0.00188
0.56161
0.23971
0.22597
-0.11876
-0.04876
-0.23706
0.42041
0.48713
0.48551
0.09924
-1.07877
-0.52921
-0.33491
-0.06010
0.10748
0.16964
0.16032
-0.04396
0.19669
0.23547
0.17390
-0.88095
-0.26722
-0.56162
0.56205
0.00246
-0.62397
-0.65381
0.68172
-0.20731
0.30178
0.52674
-0.09041
0.02272
0.26720
0.39293
0.30323
0.11267
0.35468
-0.30674
0.52805
-0.02425
0.08243
0.28760
-0.39062
0.10053
-0.14012
0.20239
0.25196
0.09451
0.09344
-0.07573
0.14507
0.23089
-0.56257
-0.42188
0.44024
0.44310
-0.59038
0.43516
0.08549
-0.65134
0.08126
0.20806
-0.26389
-0.20282
0.31984
0.06839
-0.11001
-0.24795
0.62507
0.90635
0.44394
-0.86386
-0.38392
-0.69989
-0.72171
-0.61040
0.34054
0.11435
-0.54449
-0.43976
0.38911
0.76718
0.30052
-0.12266
-0.10411
0.11068
0.56513
-0.17116
0.39569
0.21614
0.16681
0.37605
-0.58031
0.18853
-0.19600
0.27806
-0.59853
0.34204
0.33166
-0.33349
-0.85637
0.84330
0.52369
0.19551
-0.04230
0.03593
-0.19321
0.06428
-0.51787
-0.23631
0.32314
0.32042
-0.16100
-0.16131
0.45712
-0.52205
0.30549
0.28158
0.15537
-0.07383
0.00194
0.30096
0.23454
0.50612
0.65829
0.02106
0.34222
-1.12342
-0.02726
-0.48271
-0.29946
-0.01130
-0.34482
-0.42894
0.31030
-0.18910
-0.05501
0.62353
0.34655
0.13463
-0.13131
-0.29908
0.11732
-0.01219
0.06558
-0.34099
-0.27850
-0.15018
0.19428
-0.34446
0.00238
0.21424
0.10335
-0.53084
0.36806
-0.50367
-0.36058
-0.08755
0.28678
0.25158
-0.14976
-0.24409
0.41067
0.30263
-0.10974
-0.12061
-0.06875
-0.24723
-0.62311
-0.11938
-0.00791
0.89003
0.11720
0.28166
0.31341
0.49759
0.00927
-1.02254
-0.21104
-1.05821
0.64613
0.28846
0.57049
0.53601
-0.78241
-0.33684
-0.40078
-0.32185
0.30238
0.47683
0.23261
-0.29112
-0.61037
-0.16876
-0.83101
0.04940
0.16500
-0.15043
0.29726
0.05255
-0.89669
-0.31478
-0.59565
-0.07436
-0.18097
-0.18259
0.01846
-0.31277
-0.05278
-0.83557
-0.37321
0.25294
0.62080
-0.52377
-0.01658
-0.15667
-0.80350
0.40836
0.01419
0.18629
-0.11674
0.49575
0.60379
0.27349
0.40887
-0.33062
-0.54857
0.22344
0.57239
0.29876
-0.28492
0.21653
0.21700
0.07521
0.49662
0.36443
0.69347
0.10475
0.59428
0.02228
-0.05899
-0.44021
0.02411
0.34354
0.60138
-0.01750
-0.40454
0.43022
0.52887
0.16921
-0.57765
0.36499
-0.28671
-1.10344
-0.11935
0.26578
0.40552
-0.00127
0.14053
0.21842
0.24067
0.00125
0.09834
0.29361
0.21602
-0.07202
0.58326
0.20685
-0.02149
0.33048
0.59726
-0.48138
-0.60810
0.30740
0.65395
0.46965
0.36298
0.17072
-0.03421
0.04931
0.38491
0.01218
-0.77525
0.31323
-0.19082
-0.13419
-0.25258
-0.04313
0.12137
0.67825
0.19064
0.52128
-0.49906
-0.06021
-0.06550
-0.10449
-0.38209
-0.81305
0.52465
-0.43140
-0.03402
0.55049
0.57933
-0.02907
-0.16949
-0.33173
0.10306
0.21864
-0.12377
0.28879
-0.20234
0.24028
0.20548
-0.03203
0.12118
0.78162
-0.20534
0.01513
0.68667
-0.81375
-0.30205
-0.36244
-0.34970
-0.14003
0.76255
0.36678
0.23938
0.24196
-0.05039
-0.48678
0.21800
-0.29607
0.25100
-0.46200
-0.34998
0.34795
0.70225
0.34605
-0.05196
0.12978
0.35118
-0.64642
0.28116
0.19706
0.30372
0.40565
-0.36547
-0.30323
0.34661
-1.62928
0.33662
0.52563
0.14771
-0.05040
0.09508
0.10344
-0.59744
-0.15927
0.01961
0.39088
0.31598
0.09424
0.45331
0.10724
-0.49655
0.33592
0.55575
0.22548
-0.39685
0.34509
0.12648
0.65646
0.50203
-0.46732
-0.52231
0.35048
0.09515
0.42869
-0.41770
-0.79939
0.08706
0.37050
-0.01325
0.12033
-0.67349
0.10495
0.15776
0.36499
-0.15141
0.02955
0.04914
-0.07858
0.40777
-0.78344
-0.72355
0.12322
0.49360
0.39429
-0.30632
0.36579
0.06929
-0.35159
0.13254
0.42169
-0.10949
0.00370
0.04041
0.38098
0.25568
-0.13058
0.09036
0.46402
0.55384
-0.07685
0.23339
0.28963
0.36427
-0.14800
-0.06338
-0.02380
0.16001
-1.38007
-0.72221
0.57512
0.30957
0.54865
0.42523
0.37526
0.18102
-0.00408
0.12086
-0.31251
-0.52929
-0.40351
0.17761
0.16417
0.37906
-0.04033
0.30011
0.38773
0.69529
0.05880
0.25845
0.06524
-0.43140
-0.34635
-0.00812
0.36960
-0.14153
-0.39974
0.35062
0.48119
0.26378
-0.15549
0.21474
-0.70552
0.09147
-0.17227
-0.89749
-0.06942
0.13204
0.46606
-0.42708
0.48376
-0.35830
0.09784
0.07138
0.44099
0.23387
0.11015
-0.00542
-0.42638
0.72382
0.13734
0.09024
0.30347
0.28842
0.42629
0.32741
-0.10451
0.05309
-0.75522
0.26779
-0.16651
-0.34943
0.40920
-0.42910
0.28814
-0.19482
0.01916
0.69824
0.16120
0.33957
0.83738
0.21772
0.42364
0.17139
0.03631
0.81134
-0.06835
-0.76655
0.50698
-0.07889
-0.25433
0.38104
-0.47186
-0.66336
0.01063
-0.03024
0.18190
0.09145
0.01561
0.30470
-0.00339
0.02272
-0.05747
0.07593
0.36417
0.12238
0.90319
0.06249
0.32153
-0.06702
-0.09757
-0.02535
-0.52810
0.70186
0.21063
-0.59319
0.72465
-0.86802
-0.11767
0.39476
0.20360
0.00655
-0.24464
0.24841
0.43074
0.14420
-0.04006
0.59547
-0.17674
0.16809
0.27194
-0.06074
-0.66544
0.37908
0.02447
0.31578
-0.49811
-0.22215
-0.30980
0.25155
0.25116
0.04368
-0.53801
0.09151
0.00298
0.03962
0.32048
-0.49234
-2.18074
0.34713
0.04958
0.25705
0.39178
0.24745
-0.55223
0.78439
0.46072
0.08750
0.34502
0.01699
-0.02940
0.00803
-0.08873
0.05148
0.17709
0.27301
-1.46217
0.74820
0.93997
0.35019
0.02776
0.61905
-0.18620
0.19192
-0.05534
0.43909
-0.10325
-0.14931
0.32758
0.60841
0.44562
0.06840
-0.00510
0.20543
-0.34838
0.13414
-0.36563
0.32781
-0.54595
0.54290
0.71301
0.41831
0.02848
0.28726
-0.19752
0.36757
-0.25300
0.26646
0.05169
0.05543
0.22906
0.75120
0.51326
0.43178
0.65030
0.20140
0.62753
0.41391
-0.09540
-0.54406
0.71842
-0.20810
0.13838
-0.10503
0.23662
0.11967
-0.29086
-0.80308
0.18598
-0.06961
0.66336
0.26753
0.28569
0.51171
-0.00989
0.19821
0.42671
0.17662
0.24947
-0.32812
-2.09874
-0.27615
0.23880
0.01504
0.35968
0.12193
-0.23546
0.09070
0.53389
-0.12952
-0.41798
0.14998
0.42352
0.45709
0.30851
-0.12291
0.15247
0.69324
-0.32263
-0.15247
0.17163
-0.15504
0.05349
0.39721
0.46458
-0.28946
-0.02015
0.26262
0.61433
0.46701
0.31565
0.44323
-0.04870
0.22612
-0.25949
-0.10298
0.04056
-0.63026
-0.16794
0.32751
-0.27957
0.51032
-0.27349
0.52699
0.41711
0.15543
-0.35389
0.18816
0.54680
-0.24292
0.14546
0.24875
0.90409
0.36505
0.03990
-0.28435
0.02543
-0.14666
0.65826
-0.05439
0.17203
-0.48506
0.21127
-1.32148
-0.10126
0.38145
0.32989
0.45376
0.23661
0.74374
0.26551
-0.81522
0.50449
0.24093
0.76447
-0.37918
0.21426
-0.14701
0.20135
0.16068
0.13757
0.41835
-0.22364
0.78293
0.13665
-0.12033
-0.70848
-0.07113
0.64854
-0.01952
-0.11415
-0.77080
0.24098
0.40887
-0.48442
-0.08503
0.41865
-0.07634
0.70930
0.21687
-0.05074
0.13800
0.44042
0.21770
0.49223
-0.19470
-0.01484
0.37690
0.04808
0.70776
0.55394
-0.52388
-0.03523
0.14149
-0.31069
-0.55215
0.11765
0.10610
-0.12900
-1.13011
0.00131
-0.26594
0.45180
-0.13970
-0.00289
-0.00930
-0.11550
-1.57726
-0.06979
-0.09920
-0.76706
0.37673
0.32746
0.13348
-0.36873
0.48362
0.21993
-0.05190
0.41844
-0.30762
-0.52783
0.62079
0.25442
0.62484
0.90453
0.43974
0.31192
0.50324
-0.73998
0.43836
-0.38873
-0.10196
-0.13554
0.21089
0.36558
-0.45113
-0.46625
0.22672
0.03248
-0.23402
-0.68609
0.14817
0.25401
0.16019
0.05301
-0.15882
0.20960
-1.43148
-0.05527
-0.53675
0.11873
0.14939
0.34713
-0.46541
0.34811
0.07202
0.17540
-1.21060
-0.29869
0.17661
-0.02173
0.12105
0.52618
0.51059
-0.04859
0.87252
-0.10277
-0.43180
0.59866
0.35057
0.46973
0.22530
0.36668
0.10883
-0.29226
0.22986
0.17952
-0.31262
0.50688
0.40894
-0.14786
-0.54845
0.42524
-0.24510
0.44547
-0.16598
-0.68301
0.00722
0.05140
-0.14679
-0.33974
-0.21372
0.12454
0.04665
0.16427
0.67077
0.03131
-0.07121
-0.72996
-0.31080
-0.02224
0.30925
0.03910
0.46633
-0.40482
-0.03650
0.60752
0.18820
0.13732
0.00048
-0.28434
0.01670
-0.13670
0.18650
0.75263
-0.16813
-0.72657
-0.05925
0.54940
0.17004
0.20488
0.23787
0.17220
0.11829
0.73944
0.71829
-0.27015
-0.39618
-0.97156
-0.20566
-0.98003
-0.53235
0.23393
0.06538
-0.01475
-0.31874
0.58631
0.10802
0.16695
0.07626
0.61819
0.13349
-0.19857
0.15240
-0.13776
-0.88287
-0.32798
-0.25049
0.63879
-0.35067
0.55877
-0.35749
-0.37742
0.54044
0.33314
0.30178
-0.00132
0.50266
-0.31981
-0.53056
0.28436
-0.44365
-0.24969
0.13875
0.32778
0.69898
-0.14628
-0.18133
0.17451
0.42771
-0.18531
0.01695
0.48073
-1.20438
0.06356
0.11575
-0.34368
0.00285
-0.36681
0.40679
-0.19936
0.53337
0.56157
0.45711
-0.39773
0.00763
-0.23182
0.13200
-0.39874
-0.81054
0.07383
0.29380
-0.08966
0.35978
0.56684
-0.09930
0.39745
-0.11905
0.38592
0.06959
-0.23308
0.59918
-0.11258
0.19938
-0.24978
0.50586
0.15441
0.01607
0.11508
-0.53231
-0.66265
-0.16105
0.26055
-0.23080
0.68228
0.07674
-0.15272
-0.65746
0.16886
0.75868
-0.29231
0.57471
0.69805
0.21653
0.52361
0.44364
0.16203
0.04931
0.19717
-0.56187
-0.87722
0.05576
-0.07874
-0.06005
-0.24751
-0.61564
0.37640
-0.00402
0.00897
0.14523
0.29332
0.41356
-0.02138
0.49161
0.58323
0.31733
0.01228
0.34875
0.32082
0.03886
-0.39056
-0.33698
0.39766
-0.05732
0.61437
0.40905
0.11793
0.22852
0.37031
-0.39250
0.38108
0.20739
0.35327
0.56410
0.40210
-0.38444
-0.11102
0.32733
0.34075
0.04870
0.77950
0.28228
-0.65811
-0.03131
-0.82624
0.02263
0.17620
-0.03689
-0.00450
0.22981
-0.01864
-0.37736
0.30374
-0.16142
0.50919
0.03177
0.05141
0.63979
-0.04437
-1.34346
-0.01089
0.12084
0.39955
0.02248
0.47768
0.58267
0.26020
0.44810
-0.61249
-0.34134
0.50562
0.05962
0.12143
-0.15115
0.02267
-0.37247
-0.09059
-0.19222
0.51828
0.34548
0.20833
0.32957
0.23772
-0.18180
0.05804
0.06329
0.61532
-0.07623
-0.44396
0.16444
0.26189
0.71355
-0.08460
0.02163
-0.05983
0.54937
0.40401
-0.15682
-0.11436
0.76855
0.44021
0.29096
0.15008
-0.17966
0.01156
-0.18962
0.08379
0.52948
-0.06336
0.18822
-0.49774
0.21765
0.39777
-0.01059
-0.06913
-0.57964
-0.08387
-0.36414
0.16453
0.16375
-0.61645
0.03874
-1.36736
-0.09232
0.09809
0.18505
0.44384
-0.31029
0.05484
0.19588
-0.20559
-0.39313
0.39910
0.63913
0.03095
-0.39652
-0.26834
0.38606
0.05976
-0.49316
0.33766
-1.24711
0.39013
0.56954
-0.05070
-0.02946
0.57746
0.21288
0.56196
0.06386
-0.07578
-0.56763
0.05871
0.05042
0.04968
0.13441
0.05579
-0.26433
0.38280
0.45617
-0.28123
0.18027
0.07044
-0.54514
0.05923
-0.15851
0.05549
0.13492
-0.13474
0.22919
0.24990
0.07625
0.09269
0.37447
0.01638
0.34903
0.24645
0.21745
-0.81041
0.25646
-0.05275
0.02829
-0.12586
-0.06033
0.69939
-0.34961
0.37525
0.53733
-0.69779
0.41740
-0.00621
-0.00628
0.17065
0.19453
-0.15924
0.33317
0.36732
0.13749
0.14138
-0.56194
-0.09219
0.47860
0.64171
-0.12173
0.32572
0.04163
0.44779
0.01704
0.01989
0.39498
0.56902
0.29979
0.37405
-0.59415
-0.15771
0.46468
0.68476
0.08033
-0.25454
-0.30860
0.20171
0.60739
-0.80723
-0.23845
0.44735
-0.41014
0.09994
-0.04713
-0.48814
0.17980
-0.64951
-0.05671
-0.56259
-0.13560
0.44829
-0.05386
-0.36921
0.41778
-0.53133
-0.21336
-0.46761
0.09168
0.21766
-0.32636
0.50402
0.12662
0.58589
-0.25128
-1.15616
0.49335
0.49115
0.25888
0.17920
0.37559
0.50086
-0.18496
-0.49891
-0.10463
0.03395
0.58604
0.24650
0.25647
0.14637
0.28669
0.50121
-1.08206
0.19546
-0.19056
0.07605
0.29591
0.30931
0.33562
-0.00137
0.35882
0.08253
0.06719
0.23856
0.23685
-0.11531
0.14784
-0.61849
0.07553
0.27198
0.15023
-0.95199
0.87926
-0.71426
0.19350
-0.06631
-0.12972
0.21311
-0.10044
0.05990
0.57611
-0.14892
-0.86719
-1.44625
0.11208
-0.13332
0.10496
0.50351
0.56170
0.13346
0.28053
0.49744
0.03720
-0.43242
-0.03785
0.27653
0.08908
0.64345
-0.20347
0.54217
0.50071
0.32635
0.48686
-0.08118
-0.19080
-0.78772
0.25503
0.67527
0.64655
-0.53729
0.26306
0.06995
0.49065
-0.24793
0.29591
0.63038
0.06410
-0.44992
-0.16762
-0.10646
0.17038
-0.08885
0.69224
-0.52000
0.38491
-0.41734
0.46940
0.46298
0.30682
0.25584
0.18731
-0.74633
-0.03183
-0.72962
-0.34356
0.08574
0.32925
0.73426
-0.17473
-0.10766
-0.18621
-0.09156
-0.19603
-0.57204
0.56607
0.23649
-0.05436
-0.15762
-1.25020
0.06235
0.10805
-0.08994
0.51915
-0.36472
-0.26248
0.38173
-0.30336
0.57513
-0.01195
-0.43548
-0.55775
-0.30835
0.07712
0.21301
0.38561
0.08347
0.05000
0.85385
0.27704
0.18401
0.56731
-0.04288
0.70608
-0.50069
0.10117
-0.24296
-0.30198
0.46087
-0.86236
-0.27836
-0.10378
0.39405
0.13319
0.21372
-0.80450
0.59370
-0.12897
0.15523
0.07793
0.15937
0.01428
0.13425
0.14354
0.00973
0.20571
0.08012
0.03951
0.09744
0.17108
0.10138
0.03806
0.14301
0.13225
0.20191
0.19916
0.01829
0.17901
0.05221
0.07458
0.14657
0.00150
0.02931
0.08548
0.01865
0.14733
0.14641
0.19106
0.13842
0.03726
0.10237
0.01992
0.16778
0.18498
0.03257
0.18986
0.16317
0.10785
0.10253
0.19064
0.20439
0.04059
0.06403
0.17335
0.02170
0.09960
0.12587
0.02201
0.18980
0.13750
0.12162
0.09064
0.16707
0.10562
0.05771
0.09979
0.00369
0.14225
0.14086
0.14823
0.14931
0.02898
0.16777
0.18862
0.02344
0.13003
0.15187
0.09149
0.03305
0.16170
0.05000
0.19256
0.16523
0.04022
0.02661
0.13039
0.09311
0.14894
0.18732
0.07296
0.03851
0.14153
0.13326
0.07912
0.09807
0.05907
0.15298
0.20370
0.08458
0.16490
0.08322
0.04262
0.17358
0.09209
0.16800
0.02360
0.03102
0.10128
0.08373
0.21021
0.06497
0.02190
0.18315
0.11425
0.20280
0.08885
0.16687
0.04789
0.02718
0.21103
0.06908
0.08772
0.07951
0.14747
0.13552
0.00703
0.11569
0.05870
0.03478
0.08004
0.20417
0.00370
0.17653
0.03644
0.07199
0.12969
0.10104
0.15150
0.13765
0.01400
0.05119
0.04244
-0.01718
0.12839
0.04189
-0.02250
0.09381
-0.02057
0.02026
0.15937
0.08044
-0.04150
0.31676
-0.00654
0.10238
-1.21779
-0.44421
0.02589
0.08558
0.51224
0.53320
-0.29700
-0.29533
0.07831
0.12815
-0.21257
0.26402
0.02599
0.59427
-0.07996
-0.31317
0.29595
-0.32112
-0.28000
0.01159
0.09807
0.53339
-1.05844
0.74984
-0.23421
0.56422
0.07764
0.28099
-0.27616
0.43264
0.75810
-0.13671
-0.81321
-0.81404
0.54754
-0.01921
0.24083
-0.26180
0.64544
0.46808
0.64604
0.06431
-0.14023
-0.52476
0.54868
-0.00249
0.23997
-1.01487
0.15020
-0.82893
0.29591
-0.83856
0.44615
0.55084
1.42037
0.34193
-0.39057
0.30646
-0.00011
-0.34204
0.06117
0.31423
-0.20413
0.39515
0.07344
0.02871
-0.06414
-0.10440
0.54738
-0.47307
-0.21768
0.07943
0.34547
0.28597
-0.34381
-0.57746
0.01547
0.21301
-0.43044
-0.24681
0.26812
0.08590
0.47176
0.87393
0.49364
-0.69285
-0.91655
0.16681
0.61173
0.17309
-0.25645
0.62198
-0.18532
-0.59168
-0.31216
0.35000
0.38471
0.23551
0.17395
0.34020
-0.83108
0.62696
0.68956
-0.69718
0.19674
-0.12305
-0.04784
-0.08123
0.41346
-0.83078
0.87757
-0.48500
-1.01892
0.61684
-0.19963
-0.00086
0.62204
0.09046
0.23079
-0.60750
0.52864
-0.66728
-0.24709
0.17863
0.07248
0.30087
0.48544
-0.38849
0.63353
0.31860
-0.30323
0.16992
-0.06922
-0.24209
0.18580
-0.14984
0.51345
0.08791
-0.30526
0.57273
-1.22164
0.20448
-0.22990
-0.19686
-0.06251
0.21182
0.57608
-0.34045
0.33690
0.17413
-0.59752
0.41528
0.54547
-0.45444
-0.56341
-0.83420
0.18285
-0.52923
0.28821
-1.24072
-0.02693
0.62686
0.63788
-0.82492
0.09292
0.60659
0.19431
-0.29158
-1.50090
0.07497
0.42906
0.36653
0.65605
0.63808
0.35990
0.00276
0.44456
0.08568
-0.37419
-0.44120
-0.00707
0.83458
0.05228
0.45925
-0.40726
-0.07206
0.15365
-0.63432
0.25024
0.05803
0.16028
-0.11399
-0.46647
0.32039
-0.14793
0.18308
-0.15845
0.12103
-0.04198
0.16669
-0.10816
-0.01285
0.34915
0.06667
-0.20260
-0.24004
0.18515
0.67990
-0.59373
-0.91717
0.25651
0.47484
0.80048
0.31736
0.48854
-0.37357
0.42775
-0.12285
-0.12111
-0.23786
0.15724
-0.85286
0.02405
-0.18357
-0.07950
0.35080
-0.37222
-0.14495
-0.01439
-0.01172
-0.04454
-0.19835
-0.14134
0.10622
-0.04077
-0.17374
-0.17718
-0.00752
0.03126
-0.04797
-0.21701
0.11051
0.04792
-0.49740
-0.05027
0.09785
-0.41190
-0.33310
0.04273
-0.43122
-0.27702
-0.04750
0.36397
-0.06468
0.24547
-0.44896
-0.28620
0.45225
0.00740
-0.97648
0.39143
0.17691
-0.36435
0.28915
-0.16949
-0.42641
-0.01813
0.68288
0.06881
-0.04942
0.07605
0.45381
0.32915
0.06662
0.19764
0.31911
0.10067
-0.07499
0.41519
0.64776
0.39178
0.33384
-1.09739
0.68439
0.10047
0.31516
0.02958
0.43448
0.36492
0.43574
0.21215
0.23360
0.45636
0.91300
0.24672
-0.11816
0.73642
0.76311
-0.12163
0.44829
0.73509
0.53142
-0.39255
-0.01658
-0.39166
-0.76842
0.22254
-1.67289
-0.45923
0.00540
0.46356
-0.14257
0.02929
0.34771
-0.36225
-0.24515
0.57012
0.11505
-0.15360
0.19269
-0.07170
0.19769
-0.39769
0.36416
0.16951
0.57642
0.02926
-0.18802
0.39057
0.39882
0.24296
-0.20632
-1.26383
-0.20871
0.16599
-1.01141
0.12771
-0.02796
0.41468
-0.31206
0.15320
-0.10395
-0.30121
0.35445
0.62572
-0.97225
0.28146
0.32676
0.69173
0.46622
0.21154
0.20598
0.13298
0.07206
-0.18351
0.03181
-0.36277
0.02212
0.04713
-0.40302
0.00718
0.54357
-0.95946
-0.41196
-0.49464
-0.28800
-0.52167
-0.87891
-0.51432
0.18583
-0.55611
0.05547
0.43060
0.32526
0.62550
0.02575
0.02497
0.44299
-0.02729
0.50946
0.77786
0.34307
0.49913
0.29690
0.44859
-0.62981
0.74500
0.14732
-0.36976
0.23059
-1.20199
-0.32044
0.72280
0.35739
-0.56089
0.70495
0.85158
-0.20143
0.38037
-0.29333
0.10845
-0.56296
0.20773
-0.55570
-1.00864
-0.11276
0.55228
-0.09333
0.15685
-0.69810
0.05247
-0.11706
0.23947
0.16877
-0.74855
0.16735
0.05381
-0.04484
-0.10769
-0.20880
0.36281
-0.04773
-0.65209
0.01375
0.26300
0.00242
-0.38533
0.61493
0.29862
-0.16727
-0.68168
-0.03691
0.36683
-0.39699
-0.70500
0.14544
0.11563
0.67289
-0.50878
0.56853
-0.15002
0.53370
-1.08085
0.24096
0.06896
0.77095
0.64756
0.41951
-0.35161
0.13290
-0.08671
-0.01255
0.05446
-0.47214
0.28528
-0.62741
0.75129
0.64482
0.09070
0.06929
0.71749
-0.11934
-0.16631
-0.50040
-0.00866
0.55538
-0.08539
0.35436
0.24731
0.06778
-0.18216
-0.66605
-0.26318
0.11951
-0.42470
-0.09268
-0.51903
0.35087
0.23675
-0.17546
-0.08952
0.01725
0.14366
0.21890
0.31830
-0.58607
-0.43342
-0.33220
-0.33761
0.54724
0.01012
-0.70369
0.75715
0.10533
0.74662
0.36326
-0.37624
0.25844
0.15360
0.26520
0.34718
0.21246
-0.17098
-1.15155
0.01948
0.64348
0.53003
0.13804
-0.26869
-0.30847
0.75020
-0.38251
0.10938
-0.31465
0.55100
-0.17142
-0.16378
-0.51596
-0.53489
0.04135
-0.22961
-0.50667
0.55704
0.24019
0.26571
0.64865
0.59152
-0.00203
-0.49067
0.59180
0.16484
0.02848
-0.21830
0.47987
-0.14596
-0.55902
0.44307
-0.51978
0.16844
-0.38326
0.32924
0.70063
0.26850
0.47034
0.11671
-0.10196
-0.95449
-0.34278
0.53770
0.45659
-0.32585
-0.13448
-0.26251
-0.37378
-0.23377
-0.61799
0.17709
-0.24619
-0.04418
-0.64377
-0.36865
-0.53050
-1.22722
0.11582
-0.06099
-0.14822
-0.80582
-0.96702
-0.37816
-0.63279
-0.01908
-0.65140
-0.52016
0.03539
-0.49731
0.21185
-0.05721
-0.01144
-0.02808
0.08792
-0.86267
-0.13472
-0.06426
-0.64551
0.38757
0.28484
0.07338
0.46507
0.05813
0.47503
0.25755
0.53876
-0.19600
0.09851
0.07788
0.34676
0.62353
0.38617
0.12218
0.32115
0.30084
0.10200
0.06088
-1.08230
-0.24695
0.30514
-0.62370
0.36648
0.10055
0.10617
0.35645
0.34604
0.65225
0.02503
-0.33339
-0.63808
0.09496
0.39967
0.23020
0.34278
0.01091
0.31578
-0.18875
0.37884
0.06525
0.31476
-0.20705
-0.47608
0.28303
-0.93708
-0.12170
0.56895
0.36440
0.41319
-0.13200
0.16213
0.39638
0.01633
-0.13822
0.27845
0.25655
0.49554
-0.00416
-0.35560
-0.25508
0.46471
0.26461
-0.00199
-0.28669
0.33461
-0.53032
-0.16623
-0.27523
-0.61420
-0.18088
-0.31133
0.14242
0.03218
-0.25677
-0.66131
-0.51737
-0.68100
-0.41841
0.71933
-0.41260
-0.87568
-0.96028
-0.33670
-1.45333
-0.69278
0.30099
-0.24139
-0.72460
0.24961
-1.62842
-1.02785
0.29819
-0.81331
0.15699
0.57388
-0.36839
0.14343
-0.74952
0.03460
-0.31174
0.10329
0.38996
0.15139
-0.14922
-0.31948
-0.26359
0.23405
0.16013
-0.36503
-0.94760
-0.70091
-0.88862
-0.15908
-1.56514
-0.23276
0.34467
-0.61518
0.54396
0.21812
0.21311
0.21071
0.38106
0.27231
-1.53961
-0.19366
-0.24967
-0.51253
-0.39372
-0.19539
-0.46566
-0.77648
-0.56041
-0.31225
-0.43815
-0.02356
-0.21998
-0.83923
-0.75437
0.21857
-1.40383
-0.26193
-0.23257
-0.02220
-0.26091
-1.08168
0.47862
-0.29132
-0.65925
-0.45150
-0.61223
0.03841
-0.02357
0.11865
-0.59650
-0.57363
-0.17578
0.18885
0.70045
0.39296
0.15875
0.53445
0.50159
-0.70892
-0.38326
-0.10564
-0.66994
-0.51859
-0.07342
-0.44795
-1.04112
-0.13869
0.37168
0.11633
0.28605
0.03472
0.12414
-0.48576
-0.36755
-0.07839
0.19519
0.21613
0.25069
0.32161
0.49746
0.02662
-0.41503
-0.07021
-0.48089
-0.16534
0.30711
0.55425
-0.03134
-0.60507
0.17000
0.70111
-0.62147
0.22824
-0.51855
0.26708
-0.07085
-0.84526
-0.28780
0.51534
-0.43329
0.28277
-0.90320
0.34523
0.15299
0.01052
0.17641
0.03691
0.45177
0.09201
-0.21522
-0.23342
0.28599
0.55662
-0.66882
0.61057
0.65240
0.08527
-0.18110
0.48287
-0.07174
0.25477
0.21683
-0.21371
0.59017
-0.47480
0.80509
0.31584
0.12228
-0.25828
0.08486
0.27083
0.30605
-0.58319
0.25168
-0.73860
-0.05913
0.23422
0.02618
-0.25442
-0.08330
-0.34555
-0.77789
0.13914
-0.41058
0.82461
-0.09123
0.48518
0.55401
-0.55184
0.26316
-0.52847
-0.08353
0.04273
-0.24558
0.08798
-0.00977
-0.18510
-0.11278
-0.53650
0.74153
-0.72446
-0.01082
0.07244
0.62892
1.02229
0.12632
0.28910
0.78705
0.25882
-0.00761
0.85212
-0.27478
-0.22302
-0.42840
0.26150
0.12283
-0.03384
-0.03774
-0.47487
-0.03697
-0.41672
0.20377
-0.13904
-0.28158
0.07050
-1.40523
0.23817
-0.04352
0.19929
0.22004
0.40785
-0.16222
0.46186
0.38421
-0.49060
-0.01258
-0.65276
0.37927
-1.19938
-0.94786
-0.81256
0.07794
-0.36491
-0.62938
0.00115
-0.39882
0.39764
-0.66361
-1.15120
-0.94586
-1.14993
0.34816
0.36387
-0.27695
0.51703
0.46612
-0.99311
0.18705
0.28048
-0.21408
-0.32215
-0.10142
-0.29774
0.48807
-0.38070
-0.15963
-1.24394
0.75090
0.21305
-0.60858
-0.14828
0.18454
-0.00366
-0.58137
-0.59966
-0.03756
0.15136
-0.15173
-0.39839
-0.17300
-0.61027
0.34869
0.33491
-0.12498
-0.02054
-0.10200
-0.58538
-0.17516
0.49783
0.13334
-0.69564
0.25214
0.24167
-0.98022
-0.43154
-0.26328
-0.62052
0.05879
0.16454
-1.30710
-1.13677
0.18874
-1.31916
0.40778
-0.04634
-0.66403
-0.12196
-0.08953
0.31774
0.40195
0.14905
-1.44597
-0.10628
-0.52737
-0.38560
-1.03615
-1.01261
-0.45806
0.06997
0.01437
0.00889
-0.01810
-0.90458
-0.35549
0.35350
-0.33304
-0.58954
-0.81011
-0.85716
0.26637
0.12142
-0.01177
0.38098
-0.42505
0.24336
0.03040
0.08904
0.17940
0.08148
-0.54549
0.37610
0.13770
-0.58119
0.41504
0.13384
0.30835
0.61629
0.24601
-1.04073
0.20760
0.12220
-0.15734
0.18045
0.43763
0.54342
-0.35640
0.78985
0.51817
-0.42181
-0.61288
-0.36310
0.17871
-0.38218
-0.08466
0.37788
-0.25456
-0.46233
-0.06849
-0.38333
0.24422
-0.65214
0.21645
0.27807
0.03341
0.30608
-0.07108
0.15582
0.06541
0.40503
-0.14608
0.10034
-0.43771
0.54259
-0.04496
-0.26877
-0.27763
-0.65459
0.12389
-0.80420
-0.33037
0.16218
-0.49789
0.15729
-0.38782
0.08541
0.26720
0.60156
0.57882
-0.33466
0.16104
-0.72421
-1.45663
0.30974
0.38061
0.52927
0.06186
-0.04981
0.19937
0.24005
-0.16809
-0.11163
-0.25493
-0.26153
-0.50547
-0.70986
-0.57581
0.64233
0.15383
0.12037
0.39781
0.36085
0.13112
0.80866
0.35558
-1.31811
-0.38743
0.11430
0.07216
0.10981
-0.47612
-0.37628
0.50744
0.29142
-0.28981
-0.07121
0.27816
-0.21510
-0.22543
0.03997
0.33141
0.38828
-0.19494
0.38255
0.47472
0.28219
-0.34727
-0.50502
-0.20535
0.12155
-0.22867
-0.63329
0.01789
-0.90045
-0.27122
0.10947
-0.35181
-0.34142
-0.08272
0.11380
0.41600
0.33195
-0.02991
-0.34623
0.55302
0.18906
-0.77182
-1.01698
-0.88478
0.79870
0.68844
-1.52625
-0.19341
-0.36924
0.47395
0.07592
0.54057
0.40235
-0.25941
0.14657
0.90987
-1.20837
0.15066
0.31459
-0.83240
0.47967
0.26186
0.47440
0.67168
0.57640
0.76338
-0.04207
0.03706
-0.03184
-0.14100
0.31740
-0.02765
-0.17715
0.15244
0.42897
-0.70440
-0.94142
-0.03093
-0.84788
0.35372
0.32481
-0.11716
-0.17087
0.15431
0.43406
0.15924
-1.39400
-0.03431
0.08405
0.21623
0.00309
0.30325
-1.23669
0.23619
-1.07492
0.17280
0.13183
-0.12533
-0.32338
0.24415
-0.85356
-0.26038
-0.10937
0.27058
0.01619
0.05465
0.09177
-0.29409
-0.70336
-1.31412
-0.48156
-0.66705
-0.31078
-0.72972
-0.56749
0.52545
-0.34870
-0.24898
-0.34472
0.90274
-0.21115
0.34984
-0.26514
-1.14251
-0.67936
0.01404
-0.17684
0.38094
-0.66670
-0.15755
-0.04483
-0.20335
-0.25870
0.59204
0.05551
0.69952
0.61857
-0.23942
-0.33095
-0.36470
0.09916
-0.19307
-0.22192
-1.04940
0.30809
0.00497
0.18638
-0.51686
0.32055
0.22238
-0.25378
-0.19054
-0.39432
-1.03654
0.46418
-0.51616
-0.03679
-0.60792
-0.21331
-0.11469
-0.82580
0.10602
-0.11205
0.08910
0.52007
0.05520
0.00247
0.32843
-0.30589
0.44286
-0.57014
0.11166
-0.34187
0.17428
0.40026
0.31862
0.25297
-0.18358
-0.77450
0.57727
-0.70569
-0.55337
0.54546
-1.15551
-0.73818
-0.20807
0.51788
0.44337
0.06048
-0.30420
0.04262
0.19280
0.45951
0.56779
0.47153
0.48756
-1.54476
-0.29354
-0.10686
-1.11532
-1.25901
0.14866
-0.38521
0.30077
-1.55855
0.41038
-0.00965
0.13443
0.46182
0.48019
-0.42612
0.03994
-0.15526
-0.52378
0.07028
-1.05151
-0.22502
0.11264
-0.89238
-0.30075
0.31320
0.01359
-0.23471
0.05801
0.55738
-0.09392
-0.85856
-0.50526
0.28020
-0.07051
0.20781
-0.06919
0.01829
-0.08559
-1.10282
0.46547
-0.49509
0.45846
0.09355
-0.06133
-0.92099
0.48295
-1.07160
0.24082
0.31901
-1.06617
-0.01687
0.43111
-0.12084
0.18176
-0.66128
0.21460
0.59059
-0.59293
-0.62116
0.21663
0.14063
0.18997
-0.21253
-0.21882
0.22271
-0.02765
-0.36641
0.23658
0.40680
-0.39853
0.49251
-0.40122
-0.08332
0.09068
0.36331
-0.38929
0.40567
-0.33204
0.80705
-0.07160
0.08280
-0.01587
0.03977
0.24871
0.02771
0.04859
0.43923
0.41361
0.05020
0.65669
0.33622
-0.40912
0.41002
0.47837
-1.69285
0.77349
0.54135
0.28160
0.03651
0.31677
0.28961
0.51202
0.64904
-0.08496
-0.07163
-0.05205
0.54692
0.35807
-0.12335
-0.05979
0.25353
-0.12921
0.20906
0.50473
0.55248
-0.42793
-0.07704
-1.02312
0.23035
0.11071
-0.69814
0.21413
0.19842
0.59741
-0.08518
-0.29070
0.06790
-0.04068
-0.42917
0.41138
0.47929
-1.61688
0.28088
0.11482
-0.37529
0.12643
-0.08623
-0.03825
-0.27037
0.52357
0.29930
-0.07744
0.25601
0.15568
-0.09097
-0.17396
-1.03372
0.47150
-0.03224
0.22921
-0.13372
0.25979
0.08226
-0.76238
0.74165
0.40180
-0.01724
-0.08072
-0.09514
-1.11333
0.10352
-0.25730
0.27224
0.20520
-0.39918
0.06765
0.04956
-0.61161
-0.34355
0.51684
-0.39401
0.62875
-1.44809
-0.41095
0.38195
-0.55398
0.83697
0.14646
0.36081
0.47743
0.17979
-0.20735
-0.23212
0.36871
-0.00247
0.29275
-0.12837
-1.27364
0.43680
-0.26113
-0.44503
-0.73691
0.50795
-0.73942
-0.44285
0.12744
0.01772
0.55536
-0.99280
0.46225
0.58125
0.54557
0.05938
-0.61431
0.27178
0.04486
0.31973
0.08613
0.61891
0.18129
0.25477
0.11436
-0.41545
0.45059
-0.29211
0.46496
0.09762
0.41179
-0.29950
0.18051
-0.06568
-0.84546
0.29371
0.45883
0.19118
-0.13152
-0.35521
-0.10403
-0.83390
0.51511
0.26827
-0.16131
0.21889
0.11296
0.65973
-1.27852
-0.25089
0.11304
0.21597
0.43093
0.10276
0.53677
0.73846
-0.00991
-0.29429
0.52897
0.46073
0.16504
-1.05187
0.13341
0.70397
0.44237
0.26794
0.37618
0.14601
0.47366
-0.12569
0.22358
0.33694
0.29597
0.37107
0.33684
-0.06928
0.38476
0.45842
0.08284
-1.65311
-0.17599
0.38886
-0.26405
-0.04785
0.05108
0.29640
0.59733
-0.45718
-0.62356
-0.23481
0.73820
0.26124
-0.03245
-0.09543
0.22396
-0.32317
-0.08043
-0.03229
0.21137
-1.54553
0.53755
-1.28202
-0.08547
0.09928
-0.93528
-0.00027
0.23103
0.26777
0.07442
0.31511
0.41186
0.36641
0.37336
-0.94140
0.12421
-0.08129
0.13158
0.14131
-0.10822
-0.72721
0.07223
-0.63131
0.10025
-0.27889
-1.02113
0.24081
0.10676
0.47679
0.14188
0.46722
-0.26415
-0.29155
0.46176
0.81257
0.07346
0.11219
0.11043
-0.27880
0.52093
-0.38454
-0.32989
0.12272
0.14176
0.15900
0.82638
0.07933
0.11678
-0.45818
0.04150
-0.14943
-0.30177
0.44440
-0.22767
-1.08515
0.06892
-0.25730
-0.24791
0.08034
-0.12606
-0.68756
-0.28309
-1.07475
0.87097
-0.68290
-0.67402
-0.29278
-0.71033
0.50735
0.47335
0.82315
-0.29430
0.15817
-0.63282
0.07565
-0.27814
-0.20685
-0.33601
-0.67094
-0.67064
-0.66412
-0.31998
-0.25877
-0.29946
-0.52873
0.12462
-0.24321
-0.43962
0.50203
0.09341
-0.05921
0.53283
0.37152
-0.94483
0.52119
-0.54097
0.56656
-0.49340
0.62468
-0.69540
0.53076
0.63411
0.35529
-1.13296
-1.24184
0.15249
-0.12694
0.25095
0.17674
0.34903
0.20340
0.28794
-0.34620
-0.02912
0.37169
0.08639
-0.17722
-0.13017
-0.04672
-0.05859
0.11254
-0.09467
0.03792
0.40421
-0.15096
-0.03397
-0.03814
-0.02516
-0.02666
0.44470
0.15495
-0.02554
-0.03255
0.07912
0.32299
-0.06065
-0.25785
-0.00237
0.21313
-0.05419
0.32989
-0.59437
-0.72513
0.21703
0.00011
-0.39246
0.30468
-0.74081
-0.16980
-0.54717
-0.41577
-0.88507
0.50079
-0.00937
0.35084
0.41895
-0.07037
-0.93996
-1.04345
0.14671
0.11842
0.24848
-1.37364
0.15972
0.60375
0.60132
-0.14759
0.50830
-0.51573
0.36262
0.52061
0.40916
0.31298
-0.30803
0.50705
0.06299
-0.10505
0.71766
0.01170
0.03199
0.33473
0.05366
0.46943
0.43724
0.52606
0.44211
-0.81935
0.46120
0.23741
-0.92873
0.51682
0.51062
-0.19107
0.17753
0.83816
-0.16593
0.17273
-0.53341
0.19005
-0.18247
0.37196
0.46368
-0.21179
0.20871
-0.52198
0.14425
0.17650
-0.20620
-0.16084
0.13947
-0.16479
-0.21338
-0.14653
0.11987
-0.18737
-0.54006
-0.07070
-0.91309
0.18850
0.19564
0.07646
-0.19042
0.47444
-0.51960
-0.59318
0.34422
-0.06456
-0.30132
-0.21872
0.15026
0.00828
0.37371
-0.30609
0.27830
-0.94294
-0.95048
-0.73304
-0.47604
-0.18479
-0.58450
0.30004
-0.20744
-0.07104
0.26453
-0.76029
0.53484
0.36308
-1.21877
0.50907
0.75682
-0.54783
0.57783
-0.79006
0.74726
-0.38231
-0.81116
-0.29174
-0.20777
0.48240
-0.67271
-0.02367
-0.02416
-0.08799
-0.48429
-0.80484
0.56534
0.29822
0.08809
0.35483
0.08818
-0.16808
0.36622
-0.40798
0.31268
0.56901
0.15596
0.46987
-0.06055
-0.51602
0.55363
-0.02147
-0.08260
0.60008
0.24974
-0.10335
-0.29274
-0.93708
0.18010
-0.29887
0.29353
-0.66560
-0.69351
0.43305
-0.49910
-0.70800
0.56392
0.49109
0.36673
0.14837
-0.41695
0.28167
0.01889
-0.05436
0.60005
0.38187
0.24445
0.47560
-0.60437
0.20833
-0.19441
-0.54724
-0.05483
0.37916
0.19671
0.32075
0.20791
0.33681
-0.04158
0.16457
0.13551
-0.02556
0.06725
0.46949
-0.65943
-0.47091
0.66754
-0.57260
0.16757
0.43666
0.56790
0.02495
0.56030
0.07454
-0.98026
0.26168
-0.56345
0.36087
-0.00890
0.08754
-0.20954
-0.33098
