0.48858
-0.76906
-0.15475
-0.25050
0.57960
0.49973
-0.15341
0.71009
0.47883
0.18922
0.36109
0.20789
0.02084
0.12234
0.07931
0.18387
0.06865
0.14079
0.20272
-0.21377
0.56337
0.59947
-0.10009
0.21128
-0.03229
-0.34478
-0.80112
-0.06645
-0.17470
-0.41496
-0.01664
0.13894
-0.33020
0.16890
-0.23937
0.69505
0.72961
-1.24291
0.33771
-0.41396
0.11071
0.54056
-0.36053
0.39115
-0.41387
0.37793
0.49956
0.32745
0.66500
0.51177
-0.37640
0.37069
0.46588
0.58474
0.26600
-0.35086
-0.69090
-1.25591
0.07373
-0.34484
0.07568
0.34422
0.23332
-0.14978
-0.06966
0.27887
0.90779
-0.21729
0.47708
0.57713
0.48970
0.14181
-0.43044
0.09161
-0.26988
-0.26004
-0.47170
0.19975
-0.20037
0.00554
0.04218
0.56524
0.75765
0.87463
-0.54970
-0.06091
0.40733
0.28442
0.06671
-0.09031
-0.08293
0.01913
0.47955
-0.15491
-0.02339
0.13727
-0.18501
0.04546
0.53761
0.15316
0.00908
-0.13228
-0.04783
-0.26499
0.25610
0.49113
0.43580
0.26039
-1.00002
-0.63585
-0.17407
0.14299
0.15499
0.07009
-0.19020
-0.06150
0.27530
0.22039
-0.70077
-0.45542
-0.52036
0.65423
0.15169
-0.67513
-0.41370
0.64279
-0.12003
0.22779
0.38551
-0.19746
0.01071
0.34966
0.40066
0.21517
-0.07071
0.21917
-0.06822
0.64466
0.04563
0.04265
0.16631
-0.43092
0.16328
-0.04875
0.18288
0.10458
0.12008
0.12278
-0.09691
0.16455
0.21069
-0.31526
-0.37290
0.34217
0.64283
-0.69289
0.45272
0.01931
-0.50788
0.21098
0.14828
-0.36310
-0.36604
0.37723
0.00565
-0.09595
0.11331
0.74364
0.92859
0.43018
-0.75108
-0.27622
-0.92975
-0.59724
-0.60088
0.50892
0.07390
-0.48383
-0.54440
0.32098
0.77715
0.11930
-0.01632
-0.17139
0.01777
0.53962
-0.14819
0.43666
0.08400
0.05429
0.53903
-0.34739
0.17081
-0.00474
0.34804
-0.61398
0.41863
0.46806
-0.22298
-0.82623
0.89911
0.39293
0.19978
0.24448
0.18369
-0.26596
-0.29716
-0.48373
-0.11861
0.48917
0.20428
-0.35216
-0.27571
0.43497
-0.48167
-0.40351
0.26446
0.05421
-0.15260
0.11306
0.18911
0.24162
0.50100
0.63697
0.08350
-1.08437
-0.29289
-0.42011
-0.14770
-0.18734
-0.46181
-0.34638
-0.00134
-0.13830
-0.04422
0.59211
0.28569
0.35531
-0.05444
-0.28991
0.15830
-0.38295
0.16624
-0.44602
-0.07801
-0.12553
0.25823
-0.42097
-0.09068
0.28682
0.03978
-0.59091
0.26933
-0.28925
-0.33601
-0.19870
0.28478
0.30538
-0.21636
-0.08902
0.42243
0.22961
-0.22643
0.18300
-0.28714
-0.16680
-0.54889
-0.21177
0.17551
0.87158
-0.04016
0.25930
0.31040
0.43925
-0.00196
-1.09196
-0.21470
-1.11260
0.60769
0.25267
0.43882
0.61850
-0.27590
-0.38751
-0.34011
0.03926
0.35657
0.46161
0.14916
-0.34505
-0.42753
-0.03713
-0.62154
0.19245
0.08209
-0.44494
0.28138
0.04268
-0.96242
-0.39939
-0.57903
-0.03262
-0.13249
-0.19293
0.04031
-0.66454
0.09633
-0.71869
-0.06707
0.34001
0.57861
-0.60951
0.00521
-0.22538
-0.91188
0.33680
-0.02920
-0.01259
-0.14379
0.48542
0.42446
0.20182
0.37714
-0.52474
-0.58875
0.15186
0.52375
0.19505
-0.34061
0.01202
0.09690
-0.11265
0.41226
0.36283
0.54534
0.14560
0.65619
0.13717
0.20842
-0.25605
-0.03928
0.29185
0.63961
0.01136
-0.24937
0.46505
0.59635
-0.05238
-0.46407
0.42444
-0.23830
-1.08613
0.28951
0.31653
0.34347
-0.03561
0.13841
0.34031
0.19059
0.22804
0.02566
0.24703
0.11823
-0.20795
0.03237
0.28999
-0.09882
0.78218
0.43395
-0.40834
-0.39557
0.37053
0.69590
0.23781
0.25238
-0.15068
0.04217
-0.05505
0.58302
0.00989
-0.68297
0.15185
-0.24157
-0.42851
-0.18572
0.08253
0.08055
0.69036
0.19707
0.45179
-0.47441
0.11803
0.02599
-0.26353
-0.27771
-0.60011
0.56067
-0.39066
-0.15759
0.43132
0.20931
0.51135
0.17185
0.04377
-0.31758
0.12222
0.27186
-0.02313
0.16560
-0.14078
0.13580
0.44159
0.18225
0.68937
-0.29692
-0.15351
0.79030
-0.78549
-0.43682
-0.32901
-0.25394
0.00497
0.77104
0.20774
0.13255
0.02007
-0.52331
0.11646
0.01419
0.02198
-0.49736
-0.46439
0.28062
0.67321
0.33310
0.03286
0.07759
0.35145
-0.45948
0.24380
0.30962
0.36279
0.11862
-0.27328
-0.26296
0.33814
-1.67827
0.40174
0.56931
0.15937
-0.07990
-1.35590
-0.07910
-0.58541
-0.30512
0.02808
0.42524
0.27459
0.01606
0.34283
-0.09545
-0.36815
0.33960
0.52714
0.05559
-0.24771
0.23482
0.21720
0.20252
0.40858
-0.42065
-0.49331
0.42262
-0.47118
0.34525
-0.38028
-0.92964
0.34249
0.41543
0.03292
-0.05606
-0.29006
0.07320
0.10798
0.25303
0.11672
0.18002
0.11045
-0.12419
0.43345
-0.42224
-0.21033
0.10447
0.39449
0.32139
-0.36677
0.50844
0.17623
-0.37633
0.14435
0.38303
-0.22917
-0.10333
0.09006
0.14191
0.00296
0.13982
0.44973
0.65615
-0.22679
0.19082
0.30826
0.40640
-0.56585
-0.02835
-0.22131
0.24346
-1.39544
-0.75373
0.81575
0.25581
0.56839
0.41587
0.47420
0.11762
-0.09507
0.06323
-0.24241
-0.55238
-0.41367
0.22870
0.28971
0.33916
-0.01261
0.33843
0.38248
0.60077
0.12769
0.20823
-0.04358
-0.28170
-0.25930
-0.10142
0.20549
-0.20675
-0.05299
0.43135
0.44418
0.23035
-0.12045
0.17206
-0.71930
0.11474
-0.05573
-0.56480
-0.31493
0.07819
0.48710
-0.21711
0.51624
-0.16647
0.25120
0.18618
0.46080
0.29275
0.05027
0.09426
-0.23546
0.71468
-0.21210
0.04640
0.22912
0.20398
0.24751
0.25872
-0.26950
0.06457
-0.63531
0.07744
-0.21889
-0.25805
0.50451
-0.16045
0.23781
-0.19822
0.21508
0.77714
0.22479
0.56930
0.28048
0.87571
0.23041
0.72597
0.10040
-0.09655
0.15247
0.74358
-0.13838
-0.77281
0.57682
0.01580
-0.40065
0.47063
-0.40072
-0.29972
0.07308
0.04913
0.01057
0.09568
0.14550
0.17481
0.01589
-0.07835
-0.23536
0.02105
0.39172
0.01522
0.90767
0.12292
0.32243
-0.27846
-0.00306
0.02185
-0.32970
0.62703
0.18287
-0.74196
0.73968
-0.73592
-0.29017
0.24940
0.28760
-0.26163
-0.17478
0.26825
0.25900
-0.04253
0.01587
0.48331
-0.20163
0.04623
-0.48712
-0.04380
-0.63121
0.32044
0.06150
0.41345
-0.54370
-0.24291
-0.24839
0.19495
0.20677
0.06217
-0.67923
0.24095
0.05132
0.08527
0.53785
-0.39290
-2.19621
0.38605
-0.01636
0.10789
0.46313
0.18784
-0.56342
0.67598
0.47882
-0.03885
0.29652
0.19009
-0.10044
0.01423
-0.09586
0.06273
0.22307
0.24020
-1.38962
0.65765
0.86856
-0.12713
0.45448
-0.19811
0.72594
0.01130
0.12021
-0.13399
0.38277
-0.08313
-0.12111
-0.16720
0.66316
0.41409
0.18761
0.03965
0.04672
-0.29502
0.18658
-0.49542
0.40596
0.07957
0.54824
0.51822
0.34094
-0.03261
0.17387
-0.24993
0.34316
0.00641
0.39460
-0.05804
-0.02819
0.24116
0.53692
0.54616
0.46574
0.70660
0.03867
0.64128
0.38630
-0.09926
-0.56345
0.69795
-0.33791
0.21025
-0.38952
0.29321
-0.02651
-0.32859
-0.70413
0.18247
-0.03666
0.55159
0.28118
0.29708
0.55292
0.11132
0.08212
0.20089
0.27853
0.36399
-0.23662
-2.03471
-0.42896
0.03452
0.07293
0.59979
-0.26795
-0.12524
-0.09107
0.50686
-0.19463
-0.56270
0.26767
0.53847
0.45079
0.30076
-0.19124
0.08081
0.59254
-0.35935
-0.13038
0.08642
-0.66223
0.19509
0.39763
0.60977
-0.22001
0.18512
0.29801
-0.00669
0.53627
0.32526
0.39894
0.10146
0.12509
-0.27819
0.08804
0.17591
-0.57528
-0.17510
0.14864
-0.46044
0.47364
-0.12070
0.59073
0.50937
0.19983
-0.42606
0.04148
-0.03079
-0.21921
0.14326
0.15303
0.29800
0.11829
0.03695
-0.56647
0.08196
-0.24698
0.65490
-0.10325
0.15229
-0.07179
-0.42070
0.33173
-1.08688
0.21018
0.46806
0.31548
0.46110
0.32301
0.74072
0.06393
-0.58838
0.53801
0.14502
0.74672
0.01164
0.20948
-0.05117
0.19329
0.36000
0.03319
0.43535
-0.20083
0.76124
0.02707
-0.11704
-0.67857
-0.07624
0.69398
0.16419
-0.12868
-0.56696
0.28925
0.47822
-0.48159
-0.35194
0.34586
-0.04627
0.69191
0.14517
-0.17810
0.26327
0.61637
0.48888
-0.31681
0.06117
0.34639
0.11064
0.64981
0.50216
-0.65205
-0.38596
0.17065
-0.13275
-0.33579
-0.05377
0.01123
-0.09139
-1.29822
-0.03994
-0.44031
0.37193
0.06500
-0.42243
-0.01249
0.16503
-1.69097
-0.02785
-0.18451
-0.33595
0.51760
0.26055
0.01589
-0.16786
0.58035
0.31851
-0.06575
0.37387
-0.30271
-0.20074
0.69953
0.15977
0.62394
0.91626
0.30469
0.25998
0.35558
-0.75808
0.35137
-0.16987
0.01720
-0.05590
0.32093
0.34547
-0.44515
-0.31915
0.17607
-0.05239
-0.66516
-0.39604
0.28365
0.19319
0.23690
-0.03611
-0.25311
0.29152
-1.47614
0.00540
-0.31902
0.17830
0.39010
0.41529
-0.16706
0.46306
0.04901
0.13994
-1.08840
-0.20756
0.23928
0.03238
0.14158
0.37131
0.46459
0.04880
0.88372
-0.01054
-0.45612
0.66104
0.28374
0.17288
-0.70325
0.45663
0.05016
-0.38783
0.16836
0.30727
-0.33726
0.42571
0.44101
-0.09952
-0.53455
0.44787
-0.03573
0.45581
-0.32312
-0.57751
-0.17231
0.16679
-0.54851
-0.23718
-0.22902
0.14363
-0.37975
0.21717
0.64400
0.07180
-0.10356
-0.56626
-0.29206
-0.14788
0.35371
-0.04902
0.59311
-0.48991
-0.11966
0.67814
0.11317
0.17004
-0.07325
-0.31777
0.17821
-0.04653
0.19836
0.58571
-0.15958
-0.56225
-0.10681
0.63274
0.34108
0.26115
0.22005
0.09700
-0.21270
0.69566
0.67634
-0.23134
-0.53693
-0.92646
-0.08459
-1.08658
-0.46107
0.22260
0.47436
0.05992
-0.16822
0.65503
0.02305
0.23598
0.24430
0.61410
0.10543
-0.11127
0.32603
-0.39154
-0.34504
-0.12603
-0.43671
0.08364
-0.28260
0.63619
-0.23747
-0.47570
0.27075
0.32762
0.31589
-0.36707
0.35334
-0.43850
-0.56942
0.28270
-0.12572
-0.30251
0.12568
0.30874
0.69304
-0.25155
-0.16096
0.18701
0.37355
-0.00191
0.54078
-0.88153
0.02553
0.16346
-0.30033
-0.12882
-0.29706
0.26369
-0.35200
0.60562
0.46827
0.33166
-0.64297
-0.05148
0.04777
0.00341
-0.44052
-0.91026
0.14098
0.20020
0.32047
0.52237
-0.16344
0.32807
-0.06620
0.65171
-0.13276
-0.09413
0.58904
0.10507
0.16271
-0.32670
0.53623
0.20194
0.13373
0.06438
-0.27405
-0.57450
-0.09199
0.46219
-0.17768
0.58136
0.05688
-0.17601
-0.54675
0.24338
0.90074
-0.30129
0.60526
0.62629
0.13331
0.52497
0.39391
0.14761
0.15096
0.23660
-0.86153
-0.66239
0.07565
-0.07103
-0.12376
-0.14253
-0.57728
0.58568
0.30120
0.02816
0.08704
0.35064
0.53141
-0.22441
0.54441
0.43858
0.42731
-0.09763
0.19398
0.33968
0.00013
-0.19217
-0.68485
0.35057
-0.15503
0.50872
0.60548
-0.04294
0.12524
0.41302
-0.51856
0.30350
0.20596
0.53095
0.44521
-0.38294
-0.11632
0.47490
0.20428
-0.01131
0.86576
0.40249
-0.35556
0.01588
-0.67756
-0.03421
0.11103
-0.00800
0.07878
0.23256
0.22384
-0.42398
0.30535
-0.20959
0.51222
0.06837
-0.08286
0.60874
-0.03902
-1.19905
-0.06632
0.09509
0.29600
-0.03414
0.49600
0.52876
0.19316
0.34327
-0.72970
-0.41924
0.49044
0.06896
0.06863
-0.08254
0.01012
-0.15309
0.08149
-0.22261
-0.16701
0.34130
0.07680
0.41256
0.28842
-0.15220
0.01058
0.14491
0.34567
0.08896
-0.41273
0.07382
0.22272
0.72091
-0.16381
0.07285
-0.05411
0.53527
0.31640
-0.09833
-0.25750
0.72749
0.48001
0.34032
0.12847
-0.04388
-0.01170
-0.16140
0.14544
0.53181
-0.10830
0.22929
-0.34700
0.23936
0.41693
0.40822
0.05153
-0.64787
-0.04367
0.32002
-0.58510
0.05821
0.10954
-0.61277
0.05355
-1.15328
-0.07100
-0.05493
0.17984
0.39240
-0.23214
-0.06235
0.16081
-0.25775
-0.11290
0.48370
0.72244
-0.05872
-0.39057
-0.43315
0.38181
-0.18087
-0.48555
-0.02251
-1.26990
0.32643
0.55928
0.04229
-0.08064
0.55037
0.18920
0.48772
-0.00472
0.01024
-0.54889
0.01787
0.01698
0.08162
-0.09200
0.47182
-0.42939
-0.44300
0.36965
0.52122
-0.29848
0.25326
0.01592
-0.67457
-0.07647
-0.27001
-0.35028
0.14782
-0.08115
0.56282
0.11529
-0.02784
0.13910
0.31479
-0.01965
0.33532
0.27706
0.28807
-0.60178
0.38303
0.16855
0.15590
-0.14637
0.28317
0.65438
-0.35700
0.47973
0.30380
-0.94464
0.53893
0.03803
-0.02169
0.08660
0.27464
-0.79408
0.33067
0.28920
0.04356
0.01220
0.48159
-0.20799
0.38972
0.63635
-0.10390
0.37149
0.18521
-0.77450
0.50264
-0.27774
-0.39726
0.18635
0.52737
0.30268
0.29673
-0.39627
-0.03517
0.68535
0.19498
-0.33869
-0.26869
0.21814
0.56910
-0.74657
0.03998
0.47931
-0.29681
0.31948
-0.22554
-0.27144
0.00491
-0.52190
-0.06486
-0.39904
-0.18778
0.60107
0.07632
-0.16693
0.50342
-0.23498
-0.26480
-0.36804
0.10742
0.23980
-0.20855
0.53831
0.13682
0.56991
-0.31519
-1.23111
0.35503
0.49230
0.19809
0.33277
0.42898
0.67374
-0.23095
-0.45458
0.01800
0.08695
0.59204
0.39918
0.01665
0.14862
0.36484
0.46597
-1.13035
0.19584
-0.18197
0.33229
0.28778
0.35195
0.18871
-0.24543
-0.01643
0.07712
0.26276
0.50988
-0.04639
0.16644
-0.78632
0.21048
0.19622
0.28630
-0.87314
0.82677
-0.45786
0.42854
-0.06536
-0.08646
0.32828
-0.04575
-0.03928
0.65246
-0.21950
-0.87487
0.15628
0.05013
0.24277
0.12167
0.62078
-0.33829
0.28484
0.56715
0.34405
-0.31539
-0.04783
0.37076
0.31937
0.60539
-0.12001
0.56246
0.59074
-0.46349
0.43128
-0.10464
-0.37021
-0.86487
0.34146
0.59333
0.59908
-0.47467
0.38139
0.08438
0.45123
-0.11924
0.22357
0.63783
0.05132
-0.34904
0.03743
-0.06707
0.46579
0.24825
0.66603
-0.79706
0.53085
-0.51540
0.60878
0.62036
0.42739
0.32539
0.22274
-0.63830
-0.12554
-0.54298
-0.26755
0.32228
0.35749
0.77012
0.01611
-0.05045
-0.29145
-0.02871
0.50743
-0.22133
0.56288
0.24841
-0.25216
0.03426
-1.21305
-0.05731
0.05849
0.38209
0.65612
-0.39511
-0.11185
0.52821
0.43862
-0.13872
0.00516
-0.26077
-0.51968
-0.67042
-0.33860
0.07996
0.34148
0.30815
0.03373
0.05002
0.73905
0.23452
0.62787
-0.16728
0.79693
0.10052
0.09262
-0.22269
-0.37329
0.26062
-0.67339
-0.36389
-0.15703
0.36450
0.01585
0.14507
-0.74214
0.10179
0.08054
0.12288
0.05597
0.16251
0.04827
0.17452
0.18118
0.14604
0.12151
0.20594
0.04290
0.21157
0.10824
0.05548
0.03121
0.16998
0.03400
0.06363
0.03210
0.14235
0.16939
0.19388
0.18956
0.14924
0.02562
0.20128
0.16037
0.03690
0.09246
0.08051
0.00250
0.15989
0.16517
0.14461
0.01931
0.11189
0.20679
0.12359
0.08144
0.12196
0.18026
0.17503
0.15166
0.00723
0.06160
0.03896
0.14702
0.11262
0.02464
0.18640
0.05753
0.09402
0.08486
0.01780
0.13179
0.19385
0.20000
0.07626
0.12911
0.19413
0.21169
0.08114
0.20607
0.00561
0.19225
0.03256
0.10969
0.03898
0.01390
0.11229
0.15242
0.19644
0.09726
0.03382
0.10283
0.12432
0.20191
0.02509
0.12576
0.01652
0.16727
0.01021
0.10047
0.15510
0.02793
0.16309
0.05188
0.17689
0.13150
0.10863
0.14808
0.08551
0.20466
0.05939
0.09450
0.16761
0.07792
0.02426
0.00526
0.14616
0.12785
0.12092
0.04359
0.18689
0.19111
0.00490
0.03012
0.08231
0.15049
0.05628
0.15954
0.17312
0.03958
0.09638
0.19635
0.02442
0.14425
0.04379
0.06473
0.18019
0.11998
0.05839
0.01336
0.09571
0.13640
0.02139
0.17556
0.14548
0.14392
0.12307
0.14778
0.17912
0.21039
0.01458
0.12767
-0.09017
-0.00916
0.00551
0.04774
0.06758
-0.11411
0.00179
0.15975
0.12337
-0.08415
0.33328
-0.14974
0.26546
-0.99601
-0.36797
0.43195
0.02341
0.59151
-0.25787
-0.27924
0.03367
0.18709
0.36609
-0.41239
0.20397
0.76760
-0.13711
-0.21126
0.49152
0.07359
-0.72833
-0.01807
-0.12287
0.76084
-1.07512
-0.26077
-0.08376
0.63821
0.14910
-0.08794
-0.51520
0.62065
0.80063
-0.17371
-0.95367
-0.61676
0.66027
0.03662
0.03622
-0.34710
0.71687
0.62260
0.76112
0.05036
-0.18884
-0.58058
0.54813
0.11080
0.24386
-0.53713
0.63671
-0.21319
0.13016
-1.00225
0.50905
-0.19175
1.51790
0.37423
-0.33325
0.42050
-0.11738
-0.01343
-0.02723
0.34766
-0.87696
0.41357
0.09870
-0.16011
-0.35891
0.08157
0.64236
0.08785
-0.07340
0.19378
0.36871
0.36629
-0.35780
0.20060
0.00374
0.02915
-0.49974
-0.34747
0.57729
0.58595
0.53469
0.97392
0.16527
-0.63963
-1.12556
0.16833
0.67374
0.22489
-0.25145
0.59727
-0.38478
0.65269
-0.71237
-0.28039
0.21915
0.45137
0.20369
-0.82953
0.67985
0.47437
-0.83038
0.18679
0.74764
-0.25937
0.57549
-0.05624
-0.34535
-0.14517
-0.34663
-0.08439
0.87676
-0.62685
0.20665
0.34097
0.06886
0.02129
0.55141
0.31551
0.16638
-0.25632
0.75238
-0.30207
0.21246
-0.05836
-0.13841
0.46166
-0.33286
0.36016
0.55044
-0.75032
0.64797
0.10323
-0.18992
0.09206
0.25600
0.53859
0.10722
-0.56665
0.26821
-1.11093
0.02146
-0.82625
-0.30754
0.48117
0.32667
0.97278
-0.46890
0.27907
0.41021
-0.54476
0.58845
0.52153
-0.45338
-0.05088
-0.81284
-0.15127
-0.58070
0.38386
-1.55072
0.36743
0.20684
0.70170
0.08541
0.46624
0.36786
-0.27155
-1.52234
-0.05074
0.44945
0.25590
0.79839
0.73348
0.13294
0.18604
0.50900
0.37648
-0.38474
-0.53882
-0.20867
0.65395
-0.33042
0.22028
-0.47668
0.14768
0.55969
-0.63188
0.14914
-0.03188
0.21074
-0.16168
-0.46258
-0.95766
-0.19055
0.14267
-0.05720
-0.09014
-0.03460
0.17093
-0.24414
-0.09559
0.27605
-0.01562
-0.06713
0.21447
0.59939
0.61476
-0.76536
-0.93882
0.22942
0.44673
0.38141
-0.59501
0.04075
-0.58770
0.36813
-0.11028
-0.06281
-0.22859
0.07184
-0.73095
0.00926
-0.14010
0.00225
0.38147
-0.30266
-0.27572
0.01831
-0.07370
-0.07784
-0.19346
-0.24002
0.14633
0.03945
-0.11415
-0.03272
-0.13207
0.01866
-0.11623
-0.20280
0.12653
-0.14176
0.32002
0.05831
-1.21225
-0.60667
0.07161
-0.95798
-0.03641
0.04845
0.44057
-0.03459
0.26641
0.15001
-0.07891
-0.33069
0.34599
-0.06814
-1.11854
0.24756
0.44588
-0.94517
0.30119
-0.42053
-0.28392
-0.06007
0.25084
0.63103
0.08173
-0.01655
0.08021
0.49984
0.25869
0.49132
0.19953
0.23460
0.06633
0.70403
0.47691
0.57825
0.37759
0.20301
-0.97805
0.70098
0.19845
0.30066
-0.12838
0.40808
0.51416
0.43280
0.26932
0.49474
0.26043
0.93221
0.19176
-0.08122
0.67635
0.62167
-0.10181
0.43922
0.65967
0.34556
-0.50304
0.17467
0.20451
-0.91266
-0.05093
-1.64284
-0.56548
0.70637
0.37231
-0.14309
-0.60364
0.28105
-0.41093
0.33986
0.69463
0.22397
-0.09699
0.64845
-0.02672
0.03834
-0.45779
0.19447
-0.01235
0.44536
-0.03101
-0.09809
0.41455
0.48911
0.51993
-0.15427
-0.98548
-0.32244
0.18272
-1.00074
0.43193
-0.39814
0.17430
-0.21638
0.16863
-0.36747
0.35664
0.39674
-0.59344
0.43138
-0.26987
0.30611
0.30014
0.34531
0.25738
0.42387
-0.12160
-0.04222
-0.12923
-0.31480
-0.29015
-0.05063
-0.51057
-0.07951
0.56247
-1.03642
-0.45596
-0.65205
-0.03071
-0.33148
-0.28485
-0.65168
0.16886
-0.62352
0.23922
0.37406
0.10966
0.61744
0.05949
-0.04345
0.33106
0.07781
0.13823
0.76166
0.46848
0.81191
0.22506
-0.21532
-0.82545
0.52727
0.17854
-0.22056
0.42619
-0.64865
-0.24114
0.77572
0.23031
-0.56310
0.57020
0.75719
-0.15037
0.30089
-0.26107
0.06606
-0.33574
0.29947
-0.69808
-0.73897
0.11639
0.56992
-0.11252
0.31722
-0.39801
0.01575
-0.03321
0.42670
0.16984
-0.51605
0.21530
0.01402
0.16356
0.01804
-0.38032
-0.37441
0.04573
-0.87548
-0.03409
0.52286
-0.00226
-0.00577
0.81493
-0.00578
-0.04986
-0.56870
0.00162
0.11022
-0.24498
-0.84013
0.08233
0.36784
0.66273
-0.12109
0.32775
-0.25446
0.43030
-1.10257
0.29084
0.06147
0.89405
0.61701
0.49874
-0.24565
0.09042
0.11089
-0.32064
0.30020
-0.26267
0.28837
-0.60160
0.15810
0.43628
-0.02416
-0.10950
-0.04935
0.17846
-0.41682
0.17128
0.55058
-0.05030
0.03178
-0.37176
0.20777
-0.42963
-0.63261
-0.46986
-0.30856
0.22807
0.41105
-0.47822
-0.20335
-0.00805
-0.11633
-0.11880
0.06759
0.35275
0.35877
0.32539
-0.50280
-0.10312
-0.57533
-0.19382
0.07143
0.03922
-0.70638
0.71362
0.32694
0.67429
0.27194
-0.35168
0.29475
-0.14155
-0.16774
0.35163
0.39207
0.34509
-0.04625
-1.20661
0.03151
0.58684
0.47251
0.17021
-0.05584
-0.39136
0.61881
-0.40219
0.11636
0.01455
0.57881
-0.90558
-0.10731
-0.29806
-0.29978
0.05165
0.01122
-0.46466
0.40853
0.21803
-0.04437
0.39114
0.63699
0.09144
-0.37263
0.08079
-0.08822
-0.01601
-0.09060
-0.74430
0.03465
0.57035
-0.14122
-0.56029
0.40711
-0.59308
-0.17024
-0.44648
0.41309
0.72759
0.30070
0.40332
0.19997
0.08941
-0.27905
0.58813
0.50807
0.48889
-0.16926
-0.99545
-0.21343
0.06012
-0.73486
0.25474
-0.42374
-0.07013
-0.09471
0.10747
-0.43372
-0.70158
-1.59198
0.09392
-0.14899
-0.11306
-0.63701
-1.17548
-0.14161
-0.60391
0.13191
-0.54402
-1.03451
-0.19581
-0.40958
0.23838
0.07712
0.02178
-0.00506
0.15325
-0.60576
-0.11700
0.12531
-0.28419
0.27603
0.21820
0.16572
0.36380
0.30722
0.08851
0.41459
0.45782
-0.33480
0.25830
0.26009
0.38609
0.63600
0.34435
0.07245
0.35109
0.28202
-0.08692
-0.09827
-1.08838
-0.50394
-0.19135
-0.67007
0.37731
-0.11445
0.26043
0.34240
0.41572
0.60479
0.28698
-0.38115
0.31295
0.12010
0.35223
0.21272
0.07607
0.09923
0.37483
-0.18447
0.26230
0.08351
-0.05167
-0.24147
0.34946
-1.05294
-0.10460
0.67637
0.44134
0.46744
0.02720
0.22759
0.04244
-0.13862
0.03099
0.27351
0.32481
-0.29284
-0.26263
0.54133
0.36113
0.52056
0.28247
-0.10448
-0.09928
0.26398
-0.62594
-0.16689
-0.46542
-0.52931
-0.27896
-0.26228
0.12788
-0.12867
-0.23193
-0.62783
-0.37207
-0.98750
-0.37635
0.77665
-1.30767
-1.10608
-1.08708
-0.38456
-1.13697
-0.69280
0.44109
0.32552
-0.68915
0.06089
-1.24990
-0.47583
0.27450
-0.66685
0.76221
0.43249
0.37858
0.11488
-0.74672
0.12861
-0.76679
-0.10448
0.21727
0.03825
-0.12181
-0.09561
-0.15930
0.22023
0.06662
-0.52481
-0.85718
-0.82008
-0.20244
-0.17845
-1.52951
-0.30426
0.33092
-0.71729
0.58880
0.34221
-0.07464
0.30974
0.34104
-0.49832
-1.64872
-0.18040
0.26990
0.62942
-0.60648
-0.52918
-0.30447
-0.22116
-1.10122
-0.90910
-0.12949
-0.26841
0.07466
-0.44408
-0.91963
-0.88361
0.32325
-1.41065
-0.53807
-0.08152
-0.15567
-0.05311
-1.37673
0.45185
-0.23908
-0.62096
-0.38450
-0.08206
-0.57381
0.01936
0.11561
-0.97114
-0.06565
0.89997
-0.20478
0.47765
0.68570
0.51723
0.28378
0.57379
0.45139
-0.75441
-0.15072
-0.04233
-0.51437
-0.33806
0.21031
-0.11617
-0.42681
-0.08958
-0.04122
0.40983
0.02444
0.32009
-0.04511
0.15622
-0.51765
-0.15189
-0.19307
0.16978
0.22545
0.08534
0.38004
0.32562
0.07611
-0.17667
-0.09767
-0.36889
-0.14549
0.34900
0.52913
-0.30558
-0.44275
0.27019
0.28137
-0.52768
0.25085
-0.65812
0.29104
0.65136
-0.50909
-0.22297
0.38332
-0.45734
0.33711
0.47572
0.19620
-0.79237
0.24030
0.09515
0.24651
0.44020
-0.16461
-1.10271
0.11772
0.38514
-0.73559
0.28376
0.63978
-0.14736
-0.12158
0.27378
-0.07758
0.08569
0.30331
-0.13529
0.45968
-0.71717
0.81422
0.21981
0.04363
-0.25549
0.39009
0.30441
0.17821
0.07157
0.25581
-0.71641
0.10943
0.57983
0.19023
-0.01662
-0.17417
-0.05044
-0.76135
0.12478
-0.48919
0.76078
0.02021
0.94386
0.01283
0.62613
-0.50854
0.24843
-0.53370
-0.81951
-0.15547
-0.18969
0.05535
-0.98704
-0.12008
0.05098
-0.70642
0.74261
-0.60664
0.01320
-0.00777
0.46538
0.90609
-0.45953
-0.21520
0.76693
0.27251
-0.00561
-0.31214
-0.20170
-0.43615
0.06011
0.21097
0.19959
-0.63495
0.01966
0.01674
-0.40340
-0.42353
0.24757
-0.55119
0.19815
-0.49577
0.21814
0.08869
0.32217
-0.01023
-0.15635
0.56577
0.28563
-0.47398
0.06762
0.54671
0.50623
-1.05130
-0.78566
-0.73633
-0.06350
0.31704
-0.53512
-0.06129
-0.57508
-0.15773
-0.87445
-0.81543
-1.10569
0.15370
0.30244
-0.27950
0.38827
0.43334
-0.88524
0.17486
-0.23020
-0.49351
-1.06537
-0.19473
-0.27714
0.27150
-0.43530
-0.24134
-0.66884
0.58315
0.13572
-0.31371
-0.10799
0.18320
-0.02962
-0.22199
-0.61556
-0.06830
0.26645
-0.14719
0.14283
-0.73244
0.20917
-0.59477
0.24017
-0.17516
0.41508
-0.16367
-0.74040
-0.22377
0.37354
0.27448
-0.46557
0.10350
-0.16637
-0.04743
-1.13377
-0.45681
-0.49730
-0.63287
0.00818
0.10084
0.06267
-1.34699
-1.35587
0.07339
-1.26311
0.26891
-0.25743
0.38500
0.07430
0.52311
-0.02725
-1.18862
-0.21718
-0.47035
-0.48395
-0.33739
-1.03177
-1.00263
-0.09382
0.22519
-0.10445
-0.03380
0.09236
0.55209
-0.34516
0.37819
0.39897
-0.21497
-0.61912
-0.04066
-0.91786
-0.12214
0.16982
0.19045
-0.02510
0.42775
-0.36904
0.20079
0.05503
0.11285
0.27886
0.34078
0.02806
-0.12556
0.46538
-0.52178
0.14784
0.28651
-0.00302
0.33344
-1.04305
-0.18534
0.32259
-0.41937
0.22108
0.22062
0.61093
-0.41130
0.87665
0.17085
-0.08375
-0.72667
-0.19190
0.02819
-0.77560
-0.16225
0.47568
-0.05035
-0.16413
0.00846
-0.44586
0.35051
-0.54458
0.58085
-0.20716
0.70934
0.21742
-0.08622
0.41287
0.08096
-0.24805
-0.13654
-0.19456
0.56108
-0.03621
0.19887
-0.15152
-1.68970
0.12618
-0.64912
-0.65093
0.34608
-0.49119
-0.18088
-0.27205
0.11550
0.27023
0.61609
0.58177
0.02056
0.12321
-0.69245
-0.87260
0.44287
0.42638
0.50645
-0.19437
-0.06556
0.23650
0.28683
0.42957
-0.02167
-0.34050
-0.22029
-0.77844
-0.80965
-0.11093
0.76608
-0.41417
0.15324
0.56408
0.42754
0.34439
0.06464
0.62038
0.42294
-1.30695
-0.10026
0.10544
0.25144
-0.56044
-0.36016
-0.39267
-0.00580
0.23154
-0.67419
-0.01943
-0.39078
-0.20284
-0.15624
-0.00620
-0.38643
0.31040
-0.26856
0.11465
0.30706
-0.57500
-0.38237
-0.22229
-0.24943
-0.76016
0.02252
-1.16444
-0.23237
0.15420
-0.34259
-0.36438
0.06595
0.01364
0.46824
0.32990
0.07056
0.05986
0.80538
-0.11102
0.20626
-0.65796
-0.98678
-1.33890
-0.88115
0.80903
0.96797
-0.93375
-0.08381
-0.13162
-0.19639
0.49675
-0.11601
0.58763
0.16577
-0.16486
0.21026
0.86368
-1.37550
0.06223
0.59236
-0.22285
0.50232
0.52599
0.58770
0.50881
0.55559
-0.05984
0.04891
-0.03101
-0.02341
0.44609
0.04252
-0.08139
0.15442
0.45950
-0.77794
-1.01381
0.06109
-0.77503
0.29769
0.28450
-0.10102
-0.14011
0.26021
0.35617
-0.87168
0.13505
0.13273
-0.18210
0.17253
0.47489
-1.35433
0.10862
-0.52145
0.10299
0.08265
0.08672
-0.33130
0.25894
-0.81227
-0.38938
-0.08160
0.22677
0.08059
0.07883
-0.09748
-0.13851
0.15818
0.43111
-0.84019
-0.53406
-0.52105
-0.20590
-0.39960
-0.23065
-0.64356
0.32208
-0.41378
-0.61437
-0.70258
0.59743
0.00093
0.33005
-0.47879
-0.79659
-0.66291
-0.05840
-0.01522
0.27482
-0.18003
-0.95649
-0.04928
0.26585
-0.24795
-0.64851
0.66110
-0.10209
0.59472
0.59092
-0.04538
-0.37120
0.17889
-0.41644
0.19760
-0.27851
-1.15868
-0.33548
0.47646
0.09304
0.33395
-0.47651
0.34973
0.19485
-0.19448
0.24613
-0.36149
0.47192
-0.50704
-0.53503
-0.51253
-0.21224
0.39831
-0.54076
-0.07447
-0.28252
-0.06075
0.54983
0.06394
0.12617
0.40153
-0.35358
0.75650
0.10657
-0.51090
0.11624
0.29258
-0.55359
0.04361
0.19038
0.29396
0.31468
-0.33686
-0.66341
0.58971
-0.56347
-0.70126
-0.50420
0.48403
-1.11612
-0.28478
0.41903
0.47716
-0.02509
-0.71750
-0.95875
-0.24724
0.11952
0.40427
0.38219
0.43362
-1.40978
0.51276
-0.22337
-1.25546
-1.18239
0.17308
-0.45182
-1.47172
0.51504
-0.10812
0.55973
0.52523
-0.08608
-0.18309
-0.09913
-0.38751
-0.05950
-1.04362
-0.31894
-0.84753
-0.21421
0.27861
-0.19045
-0.17745
0.03432
0.46560
-0.27355
-0.10108
-0.86779
-0.06050
0.47722
-0.02938
0.24995
-0.05516
0.13259
-0.08466
-0.94650
0.58567
-0.55198
0.45161
0.43049
0.06376
-1.31927
0.23136
-1.29854
0.24851
-1.02279
0.07771
0.29017
0.49164
0.00007
-0.15845
-0.68796
0.83871
-0.48106
-0.84141
0.24678
-0.19486
0.21411
0.09780
-1.03319
0.60055
0.26001
0.38198
-0.35318
0.37243
-0.29617
0.06871
0.37419
0.43197
-0.34221
0.42038
-0.38548
0.78800
0.08108
-0.04021
0.04588
-0.02139
0.04024
0.01624
0.04902
0.41356
-0.36626
0.42366
0.08242
-0.34432
0.29102
0.51039
-2.17822
0.59019
0.52552
0.25613
0.07745
0.35412
0.32507
0.44325
-0.03325
0.54325
-0.35838
0.66464
-0.74430
0.43280
0.29570
-0.08217
-0.11640
0.18801
-0.24607
0.58061
-0.06498
0.66941
-0.03822
-1.19046
0.25129
-0.76868
0.25729
-0.10027
-0.10028
-0.29018
0.57032
-0.07943
-0.39764
0.47104
0.62658
-1.78986
-0.43089
0.13295
-0.46742
0.02325
-0.10147
-0.08330
-0.03256
0.61463
-0.07442
0.24339
0.16290
-0.06690
-0.08052
-0.76154
0.17281
-0.06755
0.34691
-0.44895
0.36545
-0.19833
0.09746
0.52544
0.25446
0.09683
0.03828
-0.15897
0.63464
0.11449
-0.39936
-0.51261
0.17795
-0.35992
0.27195
0.50518
-0.53238
0.55110
-1.11667
-0.33943
0.35927
-0.36925
0.64736
0.11648
0.02596
0.39889
-0.48346
-0.69495
-0.05151
0.51339
-0.02892
-1.25846
0.53206
0.13888
-0.48598
-0.52398
0.23685
-0.60529
-0.49899
0.00206
-0.00991
0.67982
-1.20062
0.39982
0.65158
0.55707
-0.00997
0.38291
-0.40613
0.34599
0.04002
0.35634
-0.18939
-0.55434
0.51964
0.04967
0.24834
-1.03097
0.04134
-0.51040
0.47087
0.25327
-0.27858
0.24707
0.17386
0.35162
-0.39078
-0.26674
-0.36819
-0.08694
-0.85292
0.40407
0.21875
0.02437
-1.09652
-0.23021
0.49913
-0.13855
-0.21770
0.25908
0.35629
0.44585
-1.21821
-0.01520
0.42643
0.24664
0.35074
0.14521
0.32475
0.63484
0.00121
-0.07979
0.08937
0.12872
-0.21368
-0.01775
-1.05036
-1.25265
0.62745
0.30426
0.28040
0.38404
0.07281
0.47649
-0.14017
-0.20274
0.26716
0.41307
0.26014
0.34283
0.40197
0.24862
0.43081
0.17359
0.05883
-0.84728
-0.16125
0.12393
0.42584
-0.13823
-0.15435
-0.04257
0.25913
0.53090
-0.25023
-0.54950
0.06323
0.73717
0.20452
-0.06453
0.26958
-0.11328
0.38168
-0.32214
-0.11583
-0.04880
0.14266
0.11697
-1.57578
0.53609
-0.11795
0.12983
-1.80826
-0.00858
0.20859
0.41438
0.32573
0.11542
0.39935
0.36622
0.29352
0.26226
-0.93860
0.23711
-0.98432
0.24010
0.01355
-0.76058
-0.14485
0.17363
-0.59789
0.11116
-0.25406
-0.87115
0.33069
0.15843
0.47409
0.11113
0.43516
-0.23137
0.32404
0.72418
0.16296
-1.50808
0.48753
-0.31380
0.11644
0.14799
0.66094
-0.87627
0.15181
0.12102
-0.27893
0.18384
-0.20845
0.41428
-0.51591
-0.18003
0.43760
-0.79045
0.10996
-0.20307
-0.17213
0.11436
-0.09308
-0.15592
-0.81957
-0.10296
-0.44710
-0.54564
-0.12337
-0.22652
-0.24601
-0.51585
0.42153
0.81316
-0.18982
0.13752
-0.60891
0.77979
-0.18644
0.12312
0.07130
-0.16214
-0.16056
-0.23496
-0.51947
-0.53580
-0.51165
-0.52563
-0.01717
-0.17116
-0.68913
0.13118
-0.21872
-0.36562
0.52190
0.14138
0.71774
0.58756
0.28003
-0.99369
0.40460
0.50926
-0.79269
-0.83309
-0.47205
0.49266
0.56498
0.51000
-0.69680
0.58236
0.52943
0.53345
-0.04153
0.45368
-0.63367
-1.31573
0.17993
-0.25660
0.03635
0.19991
0.34113
0.12226
0.39099
-0.29240
-0.07914
0.48933
0.08263
-0.18294
-0.15345
0.10735
-0.18792
0.22150
0.13974
-0.09540
-0.07209
0.37809
-0.05506
-0.09406
-0.08092
0.48056
-0.03354
0.21624
0.43226
0.02659
-0.07866
-0.07949
-0.28609
-0.02761
0.19101
-0.11048
-0.09736
0.11892
-0.37421
-0.52512
0.21713
-0.36708
-1.69336
-0.48408
0.39759
-0.56910
-0.33021
-0.55477
-0.55565
-0.92403
-0.14371
0.38088
-0.37439
0.33680
-0.89767
0.26773
0.08442
0.35416
0.29526
0.34408
-1.28141
0.08600
0.65365
0.53598
-0.07237
-0.84205
0.49725
-0.39870
0.78874
0.38208
0.51400
0.58820
0.54323
-0.21258
0.47912
0.12943
-0.10843
0.50550
0.54619
0.33963
0.07008
0.56186
0.44124
0.44726
0.53588
-0.68119
0.54964
0.21842
-0.90735
0.42599
0.44226
0.73538
-0.20474
0.12393
0.12834
-0.24596
0.51673
0.49877
-0.21866
0.08668
0.14468
0.17960
0.15746
-0.22205
-0.21064
-0.26543
0.16944
-0.22641
-0.21173
-0.29020
-0.22969
0.12736
0.08249
-0.57078
-0.67795
0.09276
0.07594
0.26300
-0.22625
0.49945
-0.51033
-0.63892
0.09464
0.35142
-0.03986
0.70609
0.39612
-0.29403
0.26546
-0.70044
-0.89570
-0.44593
-0.26576
-0.65628
0.24371
-0.07233
0.04825
-0.42101
0.21272
-0.37408
0.39348
-1.21325
-0.83545
0.75541
-0.44981
0.43325
-0.81279
0.78198
-0.37808
-0.89033
-0.30854
0.57069
-0.78513
0.02499
-0.01359
-0.01146
-0.79659
0.35111
0.32977
0.23131
0.14278
0.44449
0.19041
0.13221
-0.13960
0.42073
-0.27547
0.40204
0.16598
0.27688
0.64513
-0.09656
-0.19247
-0.03263
-0.09690
-0.35783
0.57627
-0.32796
-0.33548
-1.01553
0.16039
-0.05767
-0.85089
0.41821
-0.35043
-1.01055
0.46260
-0.76217
0.11452
0.31604
-0.46700
-0.72412
0.58245
0.65268
0.25003
0.12811
0.60396
0.33546
-0.05262
0.00728
0.57617
0.39960
0.09333
-0.45579
0.33509
-0.23964
-0.28658
-0.46417
-0.12088
0.30197
0.32326
0.39948
0.36918
-0.11306
0.22678
-0.09311
0.28906
0.72874
-0.70574
-0.35882
0.03013
0.57625
-0.32869
-0.76440
-0.14799
0.41698
0.64275
0.10295
0.07819
0.28386
0.68817
0.11998
-1.15344
0.11287
-0.53348
0.04713
0.01831
-0.14195
0.05524
