0.35265
-0.65752
-0.18636
-0.86150
0.58275
0.36824
-0.29603
0.63531
0.20065
0.09947
0.33717
0.07351
0.00116
-0.02974
0.49256
0.15526
-0.00136
0.16121
0.18871
-0.16961
0.55982
0.68496
-0.07723
0.51500
0.00159
-0.60980
-0.42717
-0.13076
-0.24575
-0.52788
-0.13877
0.10746
-0.42816
0.33994
-0.24731
0.74406
0.72000
-1.26334
0.31832
-0.47346
0.23490
0.14351
-0.57626
0.05506
-0.53447
0.38954
0.56275
0.52331
0.72916
0.50261
-0.22837
0.36564
0.44034
0.45199
0.26050
-0.59984
-0.68641
-1.24408
-0.49945
-0.33438
0.10887
0.33908
0.14489
-0.25521
-0.25972
0.17865
0.90191
-0.28833
0.48027
0.40242
0.40272
0.20351
-0.34522
0.19101
0.51910
-0.35850
-0.21619
-0.34501
0.12401
-0.23230
-0.08557
-0.09533
0.50586
0.80397
0.86161
-0.52617
-0.18781
0.44303
0.32834
0.00103
-0.06775
-0.15910
0.09740
0.32102
-0.06000
0.05675
0.43109
-0.25122
0.00603
0.49117
0.23531
0.11416
-0.02585
-0.01171
0.01241
0.26615
0.62210
0.41836
0.19676
-1.16277
-0.57033
-0.39640
-0.11714
0.03163
0.24238
0.06853
-0.23363
-0.03279
0.37160
0.31363
-0.80684
-0.38949
-0.51107
0.71046
0.32761
-0.54326
-0.61215
0.65358
-0.29344
0.26555
0.44949
-0.17729
0.07252
0.28062
0.42217
0.22840
-0.01529
0.44376
0.56273
-0.07493
0.26420
0.10245
-0.43842
0.10688
-0.09808
0.15097
0.20149
0.09941
0.17806
-0.06930
0.16606
0.37738
-0.43898
-0.50377
0.52231
0.69250
-0.57927
0.47966
0.09751
-0.64197
0.01326
0.11226
-0.13141
-0.08814
0.32724
0.06275
-0.01004
-0.40799
0.61933
0.92644
0.64868
-0.81505
-0.26016
-0.66823
-0.64953
-0.66406
0.04177
0.04094
-0.56480
-0.59255
0.36327
0.68266
0.22024
-0.05745
-0.16912
0.01692
0.59831
-0.10136
0.44522
0.17928
0.16938
0.51997
-0.63822
0.04651
-0.26345
0.28878
-0.75323
0.48856
0.38389
-0.23833
-0.84524
0.88887
0.41846
0.21583
-0.00151
0.11225
-0.19597
0.16158
-0.64072
-0.32520
0.45551
0.33031
-0.12427
0.01343
0.52939
-0.60050
0.14452
0.33898
-0.08426
-0.05266
0.17915
0.32350
0.14987
0.49286
0.57757
0.01979
-1.10661
-0.07536
-0.49824
-0.13827
0.08715
-0.18060
-0.45022
0.18600
-0.09327
-0.00188
0.53240
0.07648
0.40300
-0.16850
-0.30857
0.18834
0.07132
0.24702
-0.32080
-0.13964
0.14269
0.23633
-0.20509
-0.12746
0.13308
0.10270
-0.13428
0.47898
-0.71527
-0.27878
-0.47610
0.09767
0.29442
-0.09650
-0.01724
0.39506
0.27201
-0.61847
-0.30359
-0.35750
-0.29624
-0.49022
-0.20114
0.07473
0.85976
0.18348
-0.03592
0.44973
0.47506
0.10089
-0.92154
0.08588
-0.66665
0.63803
0.27955
0.50643
0.63279
-0.06073
-0.41893
-0.58837
-0.10709
0.27683
0.47608
0.17278
-0.43522
-0.37725
-0.00241
-0.71059
0.13252
0.16240
-0.35369
0.33951
0.06754
-0.70705
0.15247
-0.44563
-0.31854
-0.37276
-0.34126
0.08710
-0.38993
0.05983
-0.74891
-0.17265
0.12409
0.49615
-0.62777
0.03358
-0.11895
-0.76890
0.37032
-0.04253
0.01435
0.01148
0.48716
0.47520
0.20565
0.52993
-0.41690
-0.51460
0.16890
0.52137
0.18756
-0.13314
0.37630
0.14889
0.39027
0.30926
0.40250
0.60669
0.15624
0.65749
0.07446
0.24729
-0.33391
-0.16789
0.34843
0.65501
-0.03228
-0.48501
0.46618
0.46286
0.18624
-0.42219
0.30560
-0.24399
-1.53211
-0.25665
0.27041
0.38762
-0.05279
0.18888
0.27660
0.02379
0.01621
0.14269
0.21604
0.10020
0.03840
0.24677
0.37420
0.09689
0.94612
0.05896
-0.25990
-0.58633
0.14597
0.67443
0.25132
0.40156
0.17943
0.01632
-0.02707
0.26014
-0.25645
-0.67179
0.21364
-0.29058
-0.58872
-0.40566
0.07434
0.24862
0.65943
0.03929
0.45599
-0.23766
-0.00844
-0.07017
-0.03123
0.00979
-0.50846
0.54743
-0.49448
-0.11660
0.42397
0.21477
0.47173
-0.09827
-0.04634
-0.20824
0.07598
0.25134
0.10498
0.13690
-0.27785
0.21900
-0.12471
0.03647
0.20902
0.66712
-0.41760
-0.06956
0.81143
-0.71682
-0.18321
-0.36973
-0.50114
-0.16507
0.74773
0.29413
0.18094
0.27296
-0.16762
-0.27745
-0.19265
-0.10190
0.09159
-0.63603
-0.45446
0.23092
0.72841
0.28368
0.03180
0.14064
0.36287
-0.70365
0.38720
0.27250
0.26614
0.15677
-0.12940
-0.43997
0.24845
-1.68616
0.39186
0.47594
0.17388
0.01899
0.17716
0.20361
-0.52367
-0.32108
-0.04363
0.74470
0.24894
0.07744
0.23968
-0.08452
-0.51307
0.43552
0.46157
0.13322
-0.65021
0.07083
0.08354
0.59888
0.28967
-0.23177
-0.54786
0.27020
0.02051
0.40965
-0.28622
-0.89930
0.01878
0.43270
0.02829
0.30086
-0.58091
0.00144
0.07260
0.36692
-0.01880
0.21412
0.04066
-0.00110
0.38247
-0.37969
0.05135
-0.03235
0.46662
-0.30107
0.36184
0.14802
-0.21350
0.30602
0.40633
-0.24127
-0.02984
0.09733
0.43668
-0.02287
0.07113
0.28473
0.85766
-0.12200
0.48011
0.30961
0.35954
-0.27262
0.05672
-0.13016
-0.02259
-1.46360
-0.98941
0.42044
0.29830
0.42281
0.49219
0.41789
0.17784
-0.05416
0.00323
-0.45792
-0.58380
-0.36840
0.23672
0.27515
0.35477
0.05957
0.35381
0.12503
0.51472
0.22897
0.22886
-0.22877
-0.37282
-0.20267
-0.03764
0.28231
-0.31067
0.23457
0.46439
0.40209
0.28412
0.02356
0.19109
-0.72280
0.18234
-0.08942
-0.72429
-0.06823
0.08618
0.45741
-0.21765
0.60258
-0.30853
0.10667
0.03751
0.49326
0.11963
0.25899
0.24326
-0.34398
0.74877
0.14156
-0.20982
0.39329
0.11392
0.47499
0.30398
-0.17711
-0.02008
-0.73070
0.15718
-0.23718
-0.14647
0.57303
-0.29421
0.32733
-0.15686
0.21950
0.84309
0.03231
0.36771
0.85929
0.15704
0.68374
0.12179
0.15259
0.79310
0.15023
-0.79734
0.62811
-0.04776
-0.38830
0.53155
-0.31948
-0.12990
0.05150
-0.02686
-0.10524
-0.05526
0.47608
0.18101
0.14461
-0.24940
-0.41805
0.08136
0.23701
0.08646
0.91066
0.09628
0.31768
0.00986
0.02892
0.02270
-0.34394
0.65366
0.24720
-0.52054
0.70174
-0.97498
-0.19343
0.51493
0.28830
-0.22197
-0.19255
0.19594
0.39643
0.06460
-0.16953
0.42428
-0.20259
0.13333
-0.42485
-0.11242
-0.73817
0.31009
-0.19762
0.48795
-0.38781
-0.35707
-0.16073
0.03691
0.16002
0.13780
-0.60143
0.27807
-0.00697
0.16713
0.44054
-0.44558
-2.14682
0.37326
0.08758
0.14267
0.41608
0.42219
-0.58734
0.69013
0.33160
0.41083
0.11255
0.13765
-0.06384
0.00709
-0.04147
0.19071
0.36831
0.21647
-1.43298
0.79433
0.88295
-0.09428
0.35927
0.42471
0.69070
-0.03391
0.07981
0.03202
0.42084
-0.10424
-0.06699
-0.13996
0.64246
0.40697
0.15238
0.01821
0.24462
-0.36635
0.26207
-0.42809
0.52633
0.12943
0.45590
0.46701
0.39970
-0.12757
0.15154
-0.17936
0.32190
0.12158
0.34131
0.05527
-0.06645
0.23553
0.17286
0.55605
0.45948
0.74369
0.28116
0.64428
0.38843
0.06819
-0.44130
0.63418
0.03396
0.24278
-0.30086
0.25593
0.04971
-0.29770
-0.72169
0.31191
-0.02265
0.62850
0.19459
0.48500
0.46733
0.10382
-0.03916
0.18381
0.21904
0.31551
-0.19737
-2.10650
-0.07319
0.28106
0.03499
0.44509
-0.02755
-0.20280
0.13900
0.52394
-0.19939
-0.45564
0.21054
0.55276
0.46531
0.12448
-0.18113
0.26421
0.68138
-0.29824
-0.21470
0.14749
-0.35287
0.15459
0.33851
0.62504
-0.45638
0.23525
0.31525
-0.07015
0.60373
0.32654
0.48612
0.14882
0.15358
-0.34504
0.01675
0.22725
-0.58556
-0.07047
0.37840
-0.35355
0.61439
-0.36374
0.64124
0.38656
0.16740
0.17768
-0.23038
0.26288
-0.07745
-0.24792
0.03097
0.27083
0.50609
0.35013
0.02137
-0.42564
0.01386
-0.19171
0.62936
-0.14272
0.17797
0.10070
-0.49571
0.19572
-1.29761
-0.01367
0.39135
0.13692
0.41765
0.34137
0.73506
0.18528
-0.46062
0.49882
0.23410
0.77734
-0.01451
0.21027
0.04903
0.10957
0.29482
0.01507
0.35707
-0.08348
0.61016
0.12679
-0.13069
-0.70990
-0.30801
0.66854
0.26797
-0.13085
-0.76107
0.14234
0.41731
-0.31602
-0.31574
0.40371
-0.22217
0.72340
0.04988
-0.09483
0.23155
0.54660
0.32361
0.58796
-0.14983
0.15399
0.35232
0.01125
0.74844
0.56529
-0.45267
-0.22981
-0.00475
-0.19061
-0.27116
0.09176
-0.10636
-0.04339
-0.77266
0.06097
-0.13531
0.38474
-0.06027
-0.27601
0.15498
-0.03725
-1.72707
-0.07870
-0.11266
-0.52919
0.49494
0.28664
0.08768
-0.65129
0.49204
0.31805
0.04730
0.38171
-0.30241
0.03933
0.59710
0.13154
0.62822
0.89836
0.41589
0.16915
0.28433
-0.82087
0.44044
-0.14321
-0.23433
0.21986
0.43483
-0.43080
-0.43016
0.25038
0.08043
-0.29169
-0.63838
0.21562
0.27736
-0.01454
0.00742
-0.14475
0.16945
-1.38251
-0.08353
-0.17827
0.26311
0.23760
0.46440
-0.41775
0.67453
-0.05615
0.21787
-1.42350
-0.16114
0.22984
-0.03414
0.31161
0.42696
0.53998
-0.12853
0.91614
-0.03282
-0.39626
0.66377
0.24729
0.27940
0.13456
0.43190
0.11553
-0.19921
0.10254
0.12870
-0.29277
0.56707
0.57489
-0.23393
-0.86594
0.31457
-0.21844
0.53641
-0.44835
-0.58559
-0.23481
0.10935
-0.37821
-0.12325
-0.15035
0.43688
0.13101
0.18008
0.71075
0.49079
-0.10083
-0.27924
-0.38249
0.01357
0.44366
-0.02987
0.50921
-1.05757
-0.09497
0.64841
0.18752
0.15900
-0.12856
-0.30203
0.54151
-0.00629
0.13277
0.67924
-0.33004
-0.58303
-0.08683
0.53861
0.20817
0.19781
0.23739
0.12728
-0.07230
0.65780
0.73090
-0.21196
-0.35600
-1.10346
-0.37412
-0.93835
-0.59302
0.14886
0.04972
-0.05915
-0.25309
0.58569
-0.02384
0.25174
0.05480
0.55751
0.04308
-0.27698
0.36414
-0.29463
-0.75582
-0.18342
-0.28382
0.03565
-0.19772
0.57359
-0.22611
-0.39652
0.55130
0.41055
0.26878
-0.14136
0.29591
-0.55579
-0.63018
0.23357
0.03252
0.16838
0.14631
0.26452
0.71150
-0.27970
-0.18847
0.17438
0.33754
-0.10052
0.38979
0.43973
-0.95610
0.14025
0.18939
-0.53050
-0.00269
-0.28747
0.37059
-0.24739
0.56614
0.46336
0.44309
-0.44722
-0.07663
-0.01983
-0.18544
-0.47138
-1.02053
0.09688
0.30200
0.01851
0.26638
0.46985
0.07077
0.32475
-0.11807
0.47291
-0.03111
-0.51004
0.57790
0.11945
0.02148
-0.38551
0.52220
0.25418
0.18840
0.13312
-0.28452
-0.29953
-0.22375
0.33309
-0.13169
0.75231
0.15340
-0.19798
-0.49756
0.11965
0.79904
-0.27816
0.66137
0.08126
0.64663
0.42004
0.25743
0.09605
0.09432
0.18519
-0.82402
-1.00458
0.02834
0.15842
-0.05264
-0.05781
-0.66048
0.35144
0.15307
0.02349
0.06878
0.16091
0.47173
-0.21359
0.55288
0.57399
0.44909
0.21178
0.39065
0.29668
0.22636
-0.29099
-0.63180
0.30933
-0.05014
0.43929
0.34408
0.11705
0.00161
0.41158
-0.53918
0.40884
0.56505
0.29552
0.33920
0.39887
-0.51527
0.02463
0.34033
0.17694
0.03110
0.85202
0.28920
-0.62113
-0.09109
-0.90937
0.09204
0.07630
0.14078
0.17246
0.28539
0.39909
-0.33932
0.21169
-0.11290
0.49404
-0.00582
-0.20179
0.59175
-0.06459
-1.06599
-0.04179
-0.20506
0.32938
-0.00353
0.45431
0.48605
0.32234
0.43432
-0.69572
-0.33847
0.54766
-0.21025
0.16650
-0.13687
0.12720
-0.70179
0.12549
-0.24537
0.18943
0.30029
0.18470
0.05261
0.09331
-0.31411
-0.10044
-0.00378
0.50240
-0.06138
-0.28481
0.11803
0.65738
0.84015
-0.33568
0.03121
-0.18612
0.51887
0.30510
-0.05709
-0.44458
0.61159
0.21334
0.24384
0.20843
-0.28037
-0.00687
-0.19142
0.10692
0.41841
0.04043
0.35915
-0.39652
0.28306
0.55507
0.19387
0.10641
-0.52292
-0.00590
0.27528
-0.25242
0.11058
0.11404
-0.61331
0.06897
-1.21642
-0.08315
-0.24674
0.24387
0.32462
0.00271
0.11619
0.16974
-0.22804
-0.22842
0.59006
0.65565
0.03702
-0.30810
-0.36506
0.46895
-0.22183
-0.44305
0.26353
-1.17100
0.39032
0.54063
0.10402
-0.09098
0.54825
0.10447
0.57263
0.01223
-0.07506
0.11579
0.13412
0.07213
0.62356
0.05791
-0.02713
-0.30922
0.32568
0.47944
-0.01986
0.16946
0.03077
-0.55272
0.11257
0.03675
-0.36068
0.18266
-0.08314
0.64841
0.12960
0.13111
0.13396
0.19514
0.18383
0.41161
0.18846
0.21814
-0.70693
0.30236
0.10248
0.08825
-0.10539
0.03566
0.56535
-0.54772
0.43229
0.28087
-0.72014
0.45278
0.04546
-0.28199
0.13858
0.25077
-0.25995
0.26317
0.09845
0.21545
-0.41318
-0.18495
0.45083
0.69111
-0.21520
0.40148
0.08391
-1.06965
0.43409
-0.29961
-0.53412
0.28027
0.59023
0.32377
0.14534
0.22383
-0.27138
0.53838
0.66992
0.20801
-0.58513
-0.12004
0.06375
0.61005
-0.71010
-0.08921
0.53421
-0.15471
0.06571
0.02227
-0.24012
0.10069
-0.82233
-0.15649
-0.40732
0.07569
0.45182
-0.14670
-0.30418
0.31524
-0.42705
-0.31936
-0.51054
0.08320
0.20813
-0.10719
0.53486
0.18276
0.54805
-0.25027
-1.22058
0.81997
0.75144
0.30308
0.11877
0.32390
0.30493
-0.23447
-0.16515
0.05236
0.23068
0.56315
0.23845
0.17024
0.14781
0.22001
0.47857
-0.94603
0.05551
-0.23260
0.11412
-0.01852
0.29283
0.32279
0.07652
0.54050
-0.08347
-0.11266
0.22679
0.26824
-0.10608
0.11203
-0.86670
0.07410
0.28336
0.20899
-0.95304
0.86335
-0.23711
0.41144
-0.31076
-0.13718
0.20569
-0.07909
-0.04383
0.77177
-0.20538
-0.74302
-1.66010
-0.05427
-0.14829
0.02250
0.37620
0.58810
-0.22617
0.36245
0.58827
0.41011
-0.28876
-0.01767
0.29574
0.28916
0.72368
-0.08382
0.57731
0.82989
0.10099
0.50746
0.09628
-0.25838
-0.78601
0.22161
0.64578
0.71937
-0.51511
0.28027
-0.01523
0.49168
-0.21573
0.22914
0.69487
0.20243
-0.44780
0.07080
-0.10668
0.44365
0.26882
0.67250
-0.48884
-0.51405
0.55673
0.50754
0.38309
0.29694
0.09957
-0.78800
-0.08670
-0.77585
-0.41693
0.25256
0.34355
0.89197
-0.07184
-0.04243
-0.21383
-0.06979
0.46157
-0.31689
0.58154
0.20853
-0.00905
-0.34336
-1.05723
0.00799
0.04676
0.37488
0.57660
-0.30903
-0.12581
0.56629
0.42444
-0.23363
0.54243
-0.26092
-0.20393
-0.86128
-0.34703
0.02538
0.17114
0.25736
-0.09619
0.00327
0.79804
0.10408
0.59216
-0.14200
0.76163
-0.17437
0.15546
-0.16576
-0.34622
0.19097
-0.59847
-0.49891
-0.12793
0.34419
0.09441
0.03059
-0.71844
0.18845
-0.14431
0.18552
0.11585
0.06933
0.03488
0.01817
0.00411
0.09462
0.01507
0.14783
0.09914
0.00026
0.08951
0.14247
0.05377
0.06169
0.10761
0.06766
0.16777
0.20284
0.02761
0.13891
0.06414
0.00130
0.12536
0.11353
0.11554
0.00899
0.13036
0.16845
0.19611
0.19316
0.20746
0.14822
0.01795
0.17485
0.17694
0.02644
0.21077
0.13003
0.05395
0.06963
0.03521
0.01965
0.18998
0.07808
0.10802
0.17581
0.07543
0.01396
0.17480
0.04595
0.08327
0.10106
0.08908
0.12206
0.16036
0.13581
0.15681
0.17726
0.08804
0.19534
0.08855
0.09888
0.20667
0.04896
0.09576
0.17960
0.12132
0.18602
0.09564
0.07250
0.06150
0.11664
0.11860
0.11213
0.05425
0.17807
0.10360
0.00153
0.03042
0.18680
0.12147
0.15240
0.01219
0.00583
0.09613
0.04027
0.07224
0.04877
0.10330
0.18263
0.14116
0.14241
0.12216
0.02419
0.03035
0.02012
0.11448
0.04312
0.04595
0.13733
0.18239
0.07392
0.12912
0.20103
0.06618
0.06907
0.20426
0.15515
0.19912
0.19001
0.15562
0.17859
0.04152
0.19713
0.01013
0.03489
0.02064
0.19253
0.06349
0.04774
0.15726
0.05680
0.16121
0.03004
0.11328
0.06896
0.07820
0.02831
0.17267
0.09572
0.16415
0.16326
0.11558
-0.09420
0.06362
0.10396
0.11717
0.15477
0.00803
0.08162
0.18890
0.01094
-0.06620
0.31746
-0.23047
0.25083
-1.20009
-0.59886
0.36764
0.12586
0.59283
0.05779
-0.13089
-0.35726
0.06265
0.12053
0.29311
-0.34556
-0.11301
0.80961
-0.52111
-0.21051
-0.10216
-0.33796
-0.77374
0.06009
-0.01068
0.74645
-1.19322
-0.32426
0.20187
0.59188
0.05456
0.31031
-0.48426
0.56827
0.70460
-0.16238
-0.92786
-0.42236
0.22089
-0.02170
0.30469
0.17230
0.65160
0.23154
0.72859
0.03139
0.25828
-0.79764
0.55868
-0.03228
-0.11721
-0.40157
0.57858
-0.18720
0.31017
-0.92137
0.50924
-0.33256
1.74143
0.29238
-0.43468
0.44305
-0.00767
-0.40954
0.11796
-0.12950
-0.77953
0.13804
-0.40735
-0.14010
-0.35875
0.11692
0.51943
-0.35510
-0.03994
0.19899
0.32753
0.39243
-0.56905
0.22567
0.22516
-0.41912
0.07538
0.51608
0.62128
0.43580
0.94801
0.15707
0.12022
-0.94300
0.16734
0.56161
0.26209
-0.22253
0.62690
-0.26038
0.75526
-0.62104
-0.60207
0.53200
0.10889
0.21342
-1.50980
0.72858
0.25419
-0.77254
0.12811
0.74847
-0.77505
0.49338
-0.04089
-0.35454
-0.03956
-0.81161
-1.17743
0.53741
0.06571
-0.70311
0.26867
-0.05211
0.07078
0.63221
0.33446
0.17790
-0.24290
0.71043
-0.66969
-0.23687
0.22362
0.06032
0.23478
0.49845
-0.19996
0.53545
0.48132
-0.40459
0.52335
0.00253
-0.55368
0.33086
-0.12705
0.40618
0.12990
-0.35054
0.24434
-0.53659
-0.29182
-0.36262
-0.20441
0.27327
-0.16847
0.93658
-0.22972
0.28688
0.42337
-0.59914
0.49356
0.28839
-0.67201
0.35334
-0.84939
-0.33586
-0.53227
0.61767
-1.47328
0.35466
0.30274
0.66546
-1.03056
0.08703
0.65920
0.42542
-0.25280
-1.46292
0.04100
0.23448
0.71290
0.73089
0.36806
-0.03426
0.48877
0.36875
-0.06425
-0.46766
-0.27714
0.87632
0.51401
0.56092
0.23286
-0.12124
0.23767
-0.71174
0.42299
0.04317
0.11300
-0.10143
-0.46208
-0.56328
-0.15506
0.05986
-0.02597
0.02850
-0.13711
0.09147
-0.06496
-0.19862
0.34694
0.07710
-0.09747
-0.39165
0.80195
0.49031
-0.76763
0.22416
0.20767
0.85987
-0.65179
0.29126
-0.66489
0.47450
-0.15483
-0.11794
-0.25514
0.15055
-0.52615
-0.79719
-0.10264
-0.31299
0.00661
0.39822
-0.29101
-0.11724
-0.00735
0.01319
0.04246
-0.30962
-0.16461
0.22840
0.00613
-0.11009
-0.04594
-0.11326
0.11372
-0.09031
-0.34306
0.21335
-0.02522
-0.32027
0.24509
0.06498
-1.19506
-0.22969
-0.09455
-0.44246
-0.01541
-0.12627
0.51661
-0.16767
0.26698
0.25508
-0.13784
-0.15680
0.45208
0.03907
0.12787
0.42139
-0.49794
0.25421
-0.12324
-0.12389
-0.03427
0.30205
0.70093
-0.15219
-0.02917
0.28764
0.47973
0.24387
0.13132
0.20628
0.26185
0.19710
-0.09994
0.50240
0.58004
0.49328
0.47612
-0.26733
0.70529
0.11759
0.19543
-0.15096
0.44403
0.36482
0.38341
-0.02678
0.45073
0.22334
1.20566
0.21544
-0.11956
0.58869
0.67398
-0.15706
0.38741
0.56504
0.49407
-0.01781
0.19534
-0.29379
-0.87242
-0.28139
-1.29690
-0.09150
-0.54066
0.31938
-0.12238
-0.12888
0.25650
-0.57997
0.45498
0.26122
-0.21977
0.53740
-0.06160
0.27641
-0.60368
0.25316
0.09017
0.35216
-0.00202
-0.08454
0.28915
0.70840
0.32700
-0.42840
-1.37786
-0.19417
0.16286
-0.96251
0.25606
0.05509
0.40293
-0.28941
-0.01739
0.01680
-0.08996
0.43645
0.45778
-0.63422
0.23386
0.39994
0.20104
0.26521
0.13819
0.25171
0.24960
0.09049
-0.03728
-0.02277
-0.29649
0.10829
-0.05554
-0.24600
0.05180
0.61179
-0.95894
-0.55124
-0.67124
-0.01467
-0.80162
-0.19534
-0.84446
-0.27663
-0.51353
0.09534
0.46438
0.04023
0.65065
0.13470
0.78478
0.54690
0.05987
0.29049
0.46488
0.47886
0.52271
0.22285
0.03062
-0.77906
0.60333
0.24294
-0.43444
0.29043
0.22424
-0.15180
0.76807
0.41463
-0.22827
0.62896
0.87003
-0.57296
-0.29422
0.08881
-0.61070
0.15400
-0.70990
-0.84617
0.06631
0.49925
0.13907
0.27195
-0.35988
0.23238
-0.30063
0.25103
0.19382
-0.73498
0.10796
0.26134
0.14554
-0.09789
-0.22115
0.36003
-0.13190
-1.06370
-0.06775
0.12174
-0.04638
-0.11052
0.45382
0.00252
-0.05971
-0.59008
0.02889
0.48994
-0.21944
-0.85281
0.15666
0.16078
0.70990
-0.16830
0.55392
0.15085
0.38927
-1.01352
0.27549
0.53270
0.89010
0.64626
-0.04713
0.00272
0.05499
-0.03077
0.24018
-0.20877
0.43235
-0.58373
0.18345
0.41839
-0.09065
0.02357
-0.07173
0.13073
-0.02161
0.20501
0.22011
0.08761
0.12427
0.18614
-0.70873
-0.47183
-0.32808
-0.02827
-0.20335
0.36200
-0.24564
-0.31614
0.22790
-0.46148
-0.30933
0.12358
0.30960
0.21300
0.26982
-0.54702
-0.09007
-0.64300
-0.22662
0.75069
-0.19778
-0.60944
0.57758
0.10576
0.66565
0.25096
0.25747
0.23844
-0.21132
0.11838
0.15029
0.39588
0.35627
-0.06845
-1.18856
0.20873
0.62864
0.55428
0.23860
-0.21200
-0.40623
0.68194
-0.40787
0.09903
0.04946
0.58373
-0.24281
0.00437
-0.27045
-0.35878
0.16311
-0.05455
-1.12812
0.40275
0.17585
-0.14894
0.61295
0.13590
-0.39132
0.22016
0.05249
0.19554
-0.59022
-0.00361
0.26176
-0.07123
-0.11250
0.58955
-0.51188
0.10578
0.60043
0.61170
0.31604
0.71771
0.34988
0.24230
-0.95498
-0.39644
0.23033
0.62293
0.66835
0.55486
-0.22234
-0.48416
-0.22216
-0.18852
-0.09782
-1.05345
0.30795
-0.24035
-0.07854
-0.15607
-0.32246
-0.48983
-1.17043
0.09456
-0.01604
-0.03997
-0.69267
-0.94155
-0.28371
-0.77033
0.11775
-0.39525
-0.88838
-0.09249
-0.42740
0.33427
0.02087
0.04774
0.01727
0.05220
-0.75994
-0.18934
0.05599
-0.47372
0.45102
0.27705
0.13933
0.31304
0.12448
0.10316
0.49625
0.32939
-0.27906
0.27550
0.36883
0.65334
0.35457
0.20008
0.41087
0.42607
0.13771
0.13461
-0.79547
-0.14000
-0.14279
-0.04455
0.38802
0.07728
0.12340
0.26366
0.39752
0.66481
0.22896
-0.39701
-0.45589
-0.00601
0.39975
0.24631
0.14293
-0.08383
0.36507
-0.18974
0.39969
-0.07802
-0.06191
-0.12052
-0.42255
0.40440
-0.76482
-0.13997
0.63357
0.36924
0.47729
-0.04499
0.30366
0.20321
-0.03027
-0.06537
0.15291
0.11599
0.26799
0.12884
-0.32806
0.13418
0.43047
0.18005
0.50505
-0.16551
-0.14472
0.23836
-0.69850
-0.20155
-0.33465
-0.61284
-0.26685
-0.36221
0.14821
0.07949
-0.32492
-0.82602
-0.78441
-0.81166
0.84964
-0.86625
-0.66735
-1.06028
-0.26648
-0.89541
-0.20062
0.36055
-0.29236
-0.77605
-0.02855
-1.33038
-0.56118
0.27664
-1.03801
0.13180
0.53826
-0.10283
0.11569
-0.74070
-0.03881
-0.78159
-0.50104
0.13853
0.20964
-0.27941
-0.01626
-0.22171
0.38325
0.04153
-0.52190
-0.42765
-0.79024
-0.19001
-0.21734
-1.59042
-0.26892
0.18193
-0.16429
0.59463
0.25918
0.10942
-0.18864
0.34548
-0.69258
-1.58905
-0.10194
-0.22334
0.54312
-0.65269
-0.29532
-0.27149
-0.55310
-1.17624
-0.78004
-0.31798
-0.27918
0.08109
-0.63575
0.08483
-0.63284
0.15199
-1.37474
-0.51838
0.01851
-0.19088
-0.07669
-1.05606
0.50468
-0.29991
-0.75381
-0.31470
-0.10633
0.02271
0.02704
0.22218
-0.50791
-0.61270
-0.15215
-0.24380
0.11150
0.75363
0.39415
0.47571
0.14886
0.38435
0.51604
-0.99185
0.12019
-0.12171
-0.97076
-0.43285
0.04808
-0.47300
-0.77400
0.51218
0.04876
0.25999
0.37461
0.26448
-0.33879
0.09035
0.11613
0.25386
0.11729
-0.16296
0.09407
-0.02559
-0.13196
0.30717
-0.27010
0.53436
0.59820
0.42535
0.10622
0.28626
0.52811
-0.67967
0.35979
-0.53899
0.22543
-0.13590
-0.76763
-0.22680
0.47900
-0.51949
0.28269
-0.69355
0.26673
0.01242
-0.64879
0.24710
0.38671
0.54511
0.35300
0.03225
-1.14313
0.14785
0.57558
-0.70309
-0.02967
0.69722
-0.12973
0.18283
0.54199
0.11160
-0.09763
0.47264
-0.00022
0.43585
-0.24250
0.23012
-0.04049
-0.45075
0.31161
0.24428
0.21744
0.15100
0.59005
-0.11981
0.48927
0.16328
-0.06969
0.07347
-0.08974
-0.29571
-0.67639
0.05284
-0.44682
0.74562
0.03266
0.96483
0.01469
0.63564
-0.27074
-0.55514
-0.49706
-0.64879
-0.00659
-0.17291
0.07924
-0.83610
-0.03556
-0.00483
-0.59890
0.62041
-0.72577
0.00959
0.46831
0.86284
-0.45426
-0.28370
0.72825
0.24472
0.40143
0.97127
-0.43591
-0.28904
-0.42321
0.25808
0.19977
0.13425
-0.02027
-0.64293
-0.17872
-0.61101
0.01335
-0.45032
-0.43812
0.06027
-0.74996
0.18305
-0.30332
0.15133
0.25323
0.43235
-0.08546
-0.17961
0.49141
0.57346
-0.76396
0.13601
-0.52469
0.36428
-1.22469
-0.94449
-0.74325
-0.08006
-0.23433
-0.14265
0.00593
-0.61709
-0.36583
-0.66242
-0.97489
-1.15365
-1.20320
0.49072
0.25104
-0.17187
0.44846
0.55133
-1.31185
0.17131
0.26643
-0.75942
-0.52665
-0.21321
-0.22635
0.57149
-0.42483
-0.03437
-0.83794
0.14741
-0.55348
-0.25224
0.15113
-0.02070
-0.16905
-0.57478
-0.23448
0.09109
-0.20920
-0.45566
0.06338
-0.73706
0.28950
-0.52577
0.06703
-0.19664
0.38770
-0.14103
-0.74602
-0.21822
0.31608
0.04136
-0.81950
0.08495
-1.05004
-0.23408
-0.23975
-0.83882
-0.02267
0.15287
-0.00581
-1.27229
-0.45758
-1.38731
0.07104
0.39522
-0.79931
-0.19059
0.44198
0.15210
0.51074
0.16829
-1.18962
-0.43439
-0.31384
-0.98591
-0.98852
0.05661
0.12266
-0.22895
0.10800
0.02457
0.52708
-0.87445
-0.17249
0.32861
-0.20379
-0.39011
-0.81483
-0.87801
0.04954
0.20015
0.18953
0.22157
0.39835
-0.45525
0.44046
0.01918
0.32359
0.34059
0.46220
-0.49143
0.50926
-0.13707
-0.84560
-0.31261
0.02798
0.31554
-0.19837
0.34704
-0.84885
0.15158
0.34994
-0.48676
0.10486
0.57347
0.51018
0.00372
0.86808
0.58589
-0.35139
-0.64086
0.52744
0.28429
-0.48185
-0.18382
0.42032
-0.32489
-0.34863
-0.07144
-0.57464
0.33166
-0.56558
0.59762
-0.13851
0.03158
0.53484
-0.43695
0.08906
0.40557
-0.35179
0.39293
-0.31098
0.62005
0.10748
-0.19718
-0.10675
-0.74233
0.18961
-0.71094
-0.38554
0.12667
-0.51320
0.13365
-0.36629
0.42400
0.54147
0.63464
0.55020
-0.00330
-0.01873
-0.95298
-0.88872
0.69628
0.04931
0.41001
0.27068
-0.27245
0.27914
-0.00864
-0.15645
0.07903
-0.30234
-0.81831
-1.11583
-0.40500
0.54413
0.08876
-0.43648
0.60820
0.41739
0.49993
0.15229
0.70053
0.38334
-1.45651
0.47365
0.09781
0.34969
-0.62158
-0.34316
-0.98321
-0.12631
0.47875
-0.65240
0.21092
-0.16522
-0.15525
-0.36961
0.06113
-0.08120
0.29900
-0.10979
0.20512
0.42782
-0.43877
-0.26540
-0.61167
-0.34113
-0.23506
-0.10948
-0.61230
0.05535
-1.10527
-0.21799
0.30070
-0.29827
-0.30153
0.20170
0.17994
0.54734
0.43312
0.02759
-0.38675
0.86942
0.26777
0.24634
-0.68732
-0.36903
-0.95189
-0.67902
-0.77604
0.76015
0.39931
-0.98748
-0.46641
-0.50997
0.14662
0.55713
-0.01708
0.56775
0.43287
0.04293
0.24393
0.89688
-1.39532
0.03447
0.48763
-0.43434
0.36361
0.18124
0.41633
0.08490
0.45235
0.79900
0.00102
-0.15597
-0.09508
-0.14618
0.28708
-0.07823
-0.11517
0.16556
0.37800
-0.64692
-1.26899
-0.02086
-0.90805
-0.05926
0.34305
-0.07984
-0.42222
0.25504
0.31121
-0.82004
-0.08862
0.00807
-0.47611
0.40072
-1.25698
0.25015
-0.72161
0.20758
0.18879
0.19720
-0.36240
0.23611
-0.82712
-0.44524
-0.11617
0.16938
0.01179
0.02532
0.04240
0.19103
0.38973
-0.31473
-1.38204
-0.52943
-0.58029
-0.37889
-0.76922
-0.63885
0.30156
-0.37005
-0.63784
0.34371
0.60775
0.01555
0.27054
-0.50067
-1.33006
-0.78773
-0.10386
0.06219
0.34057
-0.16945
-1.14583
-0.05620
-0.04967
-0.28944
0.19869
0.24280
-0.02628
0.59264
0.03562
-0.32732
-0.30804
-0.32158
0.18757
-0.20687
-0.55543
-1.32908
-0.75986
0.43519
0.04740
-0.23933
-0.66546
0.27222
0.13745
-0.24515
0.07737
-0.00811
-0.66424
0.42811
-0.40175
0.12522
-0.61738
-0.66611
-0.06805
-0.15773
-0.71379
0.07402
0.06951
0.61859
0.01004
0.17609
0.27676
-0.26967
0.19770
0.29303
0.07106
-0.37011
0.18316
-0.69145
0.10624
0.17588
0.11631
0.22085
-0.20156
-0.74084
0.56570
-0.86091
-0.99511
-0.60535
0.44350
-1.23730
-0.37888
-0.75305
-0.48064
0.40603
0.49191
0.01120
-0.78963
-1.05039
-0.09499
0.14606
0.46140
0.40623
0.48384
0.43348
-1.27725
-0.33390
-0.22636
-1.09809
-1.24699
-0.05651
-0.39968
0.31935
-1.43692
0.48455
-0.06377
0.58092
-0.03715
-0.11469
-0.08497
-0.36223
-0.12392
-1.06760
-0.42933
-0.09363
-1.29122
0.30060
0.06559
-0.11962
-0.03404
0.62448
-0.08151
-0.13167
0.39219
-0.75780
-0.03402
0.55542
-0.02628
0.06338
-0.07104
0.04118
-0.03805
0.55665
-0.64863
0.40315
0.36215
-0.17007
-1.34200
-0.06935
-0.76572
0.25031
0.44621
-1.36405
0.06134
0.22717
0.45705
0.21834
-0.60565
0.07915
0.52732
-0.59501
-0.70555
0.28288
0.20912
0.40036
-0.16058
-0.10502
0.38947
0.08484
-0.93853
-0.63657
0.58734
-0.35207
0.40320
-0.28731
-0.27006
-0.87730
0.05763
0.45015
0.41446
0.43571
-0.36266
0.79775
-0.05119
0.24426
0.09190
0.08240
0.19334
0.01100
0.42799
0.43888
0.05609
-0.33435
0.59095
0.48845
0.52423
-1.97572
0.61923
0.26885
0.30838
0.22312
0.37365
0.23280
0.41830
-0.16288
0.15307
-0.40758
0.59185
-0.75096
0.33202
0.26589
-0.13831
-0.05122
0.33722
0.47227
0.24792
0.56445
-0.06911
0.53104
-0.74019
-0.12261
0.23400
0.20076
0.26030
0.25939
-0.11445
-0.04797
-0.02283
-0.09014
-0.38818
0.38556
0.56664
-1.73512
-0.40568
0.27753
0.10204
-0.41402
0.36348
-0.07417
-0.30730
0.62556
0.25106
0.55777
-0.08310
-0.05983
-0.93499
0.45177
-0.07089
0.33223
-0.16508
0.31115
0.72045
0.13117
-0.77705
-0.12351
-1.44439
0.15609
-0.15721
1.04806
0.16524
-0.45735
-0.56709
0.23232
0.05447
-0.23792
0.64215
-0.33544
0.81311
-1.48782
-0.42256
0.57023
-0.27288
0.87725
0.25119
0.23408
0.12576
0.47988
-0.37737
0.56809
0.30482
-0.03019
0.41366
0.26786
-1.05799
0.45656
-0.19100
0.21945
-0.63912
0.30214
-1.21007
0.12787
-0.10254
0.39580
-1.02562
0.57893
0.69133
0.41980
0.10841
0.36463
-0.52930
0.38220
-0.09832
0.42083
-0.23196
-0.16911
0.31552
0.18933
-1.09797
-0.02079
-0.56628
0.50569
0.41932
-0.52980
0.42864
0.17483
0.35811
-0.39533
-0.29089
-0.40372
0.49997
-0.95980
-0.15290
0.50438
0.19031
0.00021
-0.77157
-0.03881
-1.05625
0.49701
0.33297
0.51157
0.15818
0.60790
-1.36382
-0.02643
0.07783
0.21178
0.27492
0.18719
0.31104
0.65179
0.36681
-0.11936
-0.11905
0.08420
-0.21861
0.13854
-1.11277
-1.03765
0.63148
0.35971
0.35168
0.39003
0.07619
0.51768
-0.18743
-0.24161
0.54956
0.54878
0.45218
0.52283
0.51694
-0.04909
0.52892
0.52922
0.14653
-1.72714
0.10171
0.37609
-0.14307
-0.08385
0.21619
0.23505
-0.41919
-0.52248
0.07191
-0.01580
-1.01003
0.21303
0.00463
-0.30621
-0.01431
0.11431
-1.59059
0.36033
-0.87496
-0.12522
0.18694
-0.91613
0.02676
0.23649
0.30026
0.22039
0.30713
0.34523
0.24020
0.25313
0.22835
-1.06343
0.20414
-0.11433
0.19049
-1.06345
0.08984
-0.16350
0.73852
-0.75471
-0.16488
-0.25598
-0.57734
0.12733
-0.24287
-0.92696
0.36454
0.12816
0.16227
0.43364
-0.19511
-0.25072
0.71764
0.81620
0.16500
0.10298
0.15323
-0.16609
-1.68778
0.46759
-0.25427
0.15341
0.10840
0.17759
0.90968
-0.88039
0.22435
-0.29446
0.16902
-0.49585
0.54615
-0.63270
-0.21728
0.52927
-0.91828
0.17594
-0.22292
-0.25139
0.11434
-0.24337
-0.58781
-0.20912
-0.94049
0.06100
-0.56652
-0.56132
-0.22518
-0.20937
-0.59687
0.54496
0.90508
0.13777
-0.58715
0.94674
-0.23187
0.13775
0.16252
-0.21474
0.34841
-0.22871
-0.54097
-0.55491
-0.60203
-0.03261
-0.26585
-1.21955
0.14067
0.13861
-0.21668
-0.36206
0.48771
0.13681
0.19056
0.62240
0.42107
-0.91369
0.35273
-1.00206
0.62079
-0.55249
0.53532
-0.54552
0.59677
0.46632
-0.78392
0.57846
0.54806
-0.08292
0.55942
-0.48334
-1.12830
0.19823
-0.10848
0.21282
0.20157
0.49561
0.42971
0.19452
-0.09671
-0.03862
0.38630
0.18663
-0.11132
-0.11889
0.14725
-0.12885
0.47503
-0.06733
0.15565
-0.14799
0.39257
-0.12547
-0.10990
0.43230
-0.07808
0.09570
0.40760
-0.15188
-0.17808
0.05347
0.14781
-0.13612
-0.20662
-0.39515
-0.09274
0.24656
-0.10576
0.10809
-0.42074
-0.95492
0.36602
-0.02072
-0.40976
0.48114
0.10253
-0.66537
-0.62178
0.59485
-0.18424
0.37239
-0.03963
-0.43133
0.24985
-0.98753
0.13158
0.22534
0.42826
-1.37509
0.68017
0.73340
-0.04399
-0.84929
0.67247
-0.38021
0.72447
0.59790
0.13268
0.49283
0.42955
-0.13482
0.20403
-0.03775
0.73349
0.13605
0.19648
0.29778
0.12038
0.50152
0.52629
0.44246
0.59964
0.40899
-0.59718
0.45300
0.53109
-0.17682
0.18018
0.82888
-0.20724
0.08572
0.12127
0.50523
-0.20577
0.08792
-0.51475
0.08665
0.14529
-0.21194
-0.16380
-0.18680
-0.13324
0.20894
-0.16348
-0.52290
-0.21239
-1.53365
0.13660
0.10268
0.12671
0.11018
-0.17455
0.48437
-0.54481
0.39051
0.14963
-0.26885
0.29730
-0.02558
0.56337
0.38400
-0.31645
0.24408
-0.93250
-0.40411
-0.75368
-0.05594
0.27798
-0.58618
0.22679
-0.09322
-0.15309
-0.38296
0.12607
-0.76118
0.49654
-0.98083
0.21670
0.70112
-0.61519
-0.60929
0.50241
-0.86243
-0.31263
-0.77213
-0.35894
-0.28203
-0.33302
0.41313
-0.79107
-0.12061
-0.01940
-0.01583
-0.36221
-0.72044
0.54825
0.48517
0.32928
0.09193
0.43815
0.15183
0.08656
0.18783
0.13372
-0.31129
0.27083
0.12499
0.25395
-0.09694
-0.48638
0.44276
-0.06022
-0.09272
-0.24414
0.82066
-0.26009
0.15125
-0.05212
-0.73827
0.28300
-0.29687
-0.13831
-0.93984
-0.74018
-0.77790
0.07010
0.31059
-0.52719
-0.69405
0.51405
0.46509
0.29685
0.16232
-0.52211
0.51906
-0.04064
0.52995
0.32902
0.29150
0.36760
0.14982
-0.27273
-0.25768
-0.40463
0.42115
0.40226
0.31566
0.42088
0.33210
0.68095
0.01615
0.07311
-0.11590
0.83048
-0.73237
-0.42431
-0.12120
0.54740
-0.54165
-0.75142
-0.15137
0.54616
0.76408
0.04052
-0.01275
0.26108
0.78967
-1.03615
-0.23934
0.10281
-0.68068
0.09935
0.33363
0.06218
-0.26580
-0.24407
0.06212
-0.28496
