0.08867
-0.71225
-0.07465
-0.70533
0.48538
0.38701
-0.56056
0.72926
0.17226
-0.24220
0.33571
0.04023
-0.11507
-0.38166
0.35876
0.20158
0.07895
0.21024
0.18303
-0.15702
0.54277
0.62660
-0.09786
0.18163
-0.04925
-0.43205
-0.90193
-0.03101
-0.22777
-0.52677
0.03828
0.14933
-0.33199
0.24532
-0.22683
0.72402
0.63302
-1.19311
0.30388
-0.46905
0.20842
-0.09032
-0.76323
0.12709
-0.47049
0.38796
0.48547
0.39650
0.68123
0.44634
-0.32038
0.14818
0.51809
0.57394
0.20388
-0.52268
-0.68075
-1.57974
0.42511
-0.50632
-0.49204
0.06765
0.27824
0.19684
-0.26420
-0.09801
0.15886
0.92143
-0.15855
0.47913
0.48972
0.52827
0.10382
0.16399
0.13417
0.49892
-0.35899
-0.28011
-0.58536
0.23442
-0.27300
0.00766
0.08937
0.49672
0.83626
0.83528
-0.53975
0.11968
0.56008
0.24963
-0.19211
-0.18777
-0.06548
-0.02369
0.29103
-0.24121
-0.12028
0.35159
-0.18741
0.05883
0.59283
0.22608
0.01650
-0.21840
-0.07851
-0.25956
0.38547
0.50047
0.43467
0.16429
-1.02716
-0.55663
-0.36065
-0.34130
0.12842
0.10574
0.03562
-0.02489
0.03364
0.29117
0.38021
-0.83126
-0.44294
-0.35371
0.48857
0.09466
-0.43975
-0.61572
0.69857
0.05007
0.22552
0.39300
-0.50829
-0.20776
0.19336
0.35682
0.19079
-0.10586
0.31817
-0.24588
0.53319
-0.01787
0.25023
0.28125
-0.41873
0.17013
-0.09346
0.33445
0.19699
0.00889
0.08024
-0.08173
0.04126
0.35303
-0.39599
-0.46231
0.30396
0.64282
-0.33243
0.48968
0.10408
-1.39587
0.14221
0.22876
-0.19391
-0.43452
0.31563
0.19016
-0.04205
-0.46845
0.68105
0.92574
0.35469
-0.67663
-0.26333
-0.89960
-0.78333
-0.69414
0.27693
0.18105
-0.49946
-0.36968
0.40926
0.72548
0.45253
-0.14038
-0.22661
-0.02783
0.49671
-0.04471
0.46055
0.18673
0.07159
0.56193
-0.58311
-0.12444
-0.24461
0.41550
-0.55449
0.33611
0.38990
-0.23612
-0.68685
0.90955
0.39004
0.27168
0.03152
0.07781
-0.17570
0.15905
-0.43623
-0.10322
0.40254
0.30541
-0.21337
-0.09732
0.55082
-0.49932
0.03891
0.25703
-0.01367
-0.28597
0.08629
0.35619
0.24204
0.48978
0.55720
0.03198
0.40687
-1.08857
0.02150
-0.31108
-0.27279
0.04488
-0.36165
-0.34376
0.33845
-0.08188
-0.07742
0.50787
0.34920
0.42189
-0.09281
-0.36113
0.14668
-0.33805
0.03056
-0.34809
-0.10258
-0.16012
0.18171
-0.46477
0.02250
0.09102
0.21742
-0.57316
0.31956
-0.27294
-0.41252
-0.20760
0.09607
0.24151
-0.13718
-0.24337
0.38183
0.17630
-0.24768
-0.14597
-0.34712
-0.15572
-0.62359
-0.14936
0.02341
0.83485
0.31899
0.21787
0.31743
0.51595
0.00912
-0.89818
-0.20893
-1.05232
0.67768
0.40753
0.49320
0.51523
-0.46152
-0.27671
0.02515
-0.04810
0.20964
0.46541
0.12909
-0.38934
-0.47447
-0.13541
-1.28357
0.01149
0.24606
-0.31656
0.28903
0.07354
-0.77333
0.07850
-0.48217
-0.18617
-0.04769
-0.19315
-0.03098
-0.41526
-0.08291
-0.72008
-0.14468
0.30694
0.43873
-0.60939
0.03576
-0.14791
-0.82295
0.35576
-0.00146
0.15287
-0.12252
0.47039
0.54761
0.17484
0.46120
-0.47686
-0.53640
0.12061
0.54886
0.24737
0.05149
0.43824
0.24665
-0.07334
0.43493
0.34681
0.55573
0.18341
0.53792
-0.00829
0.24712
-0.53089
-0.01223
0.24005
0.69485
-0.07908
-0.21120
0.49332
0.60018
0.29117
-0.48373
0.23027
-0.24153
-1.27465
-0.09603
0.35973
0.39685
0.07803
0.01098
0.30716
0.21794
0.06391
0.07631
0.29762
0.16034
-0.30522
0.03210
0.37441
0.10120
0.32827
0.68317
-0.44681
-0.92218
0.13636
0.80575
0.12134
0.53553
0.23136
0.01068
-0.09738
0.41576
-0.14796
-0.74006
0.17139
-0.23479
-0.08005
-0.33067
-0.18444
0.32257
0.73567
0.14538
0.06632
-0.39414
0.00168
0.02859
0.20229
-0.27692
-0.87782
0.58877
-0.46719
-0.02326
0.50763
0.18778
0.57360
-0.05013
0.16245
-0.01403
0.00343
0.33851
-0.20108
0.16253
-0.23709
0.25615
-0.14300
0.05302
0.13320
0.61766
-0.41895
-0.21502
0.56890
-0.86692
-0.22947
-0.56622
-0.23086
-0.05397
0.74110
0.30616
0.11106
-0.04768
-0.44193
0.08288
0.06211
0.15221
-0.60412
0.01940
0.29208
0.59149
0.27596
0.04736
0.10002
0.33106
-0.67218
0.29164
0.53658
0.37877
0.04192
-0.12849
-0.24447
0.33163
-1.66803
0.43372
0.50919
0.18868
-0.11944
-1.21676
0.15756
-0.57294
-0.08801
0.04515
0.50593
0.31258
0.27982
0.32003
0.10679
-0.50460
0.21526
0.58367
0.05177
-0.10222
0.15213
0.04389
0.15296
0.41396
-0.52564
-0.49350
0.33486
-0.33305
0.39031
-0.26668
-0.54470
0.41031
0.46267
0.05762
0.08313
-0.36507
0.03631
0.07417
0.29009
0.03762
0.21630
0.00661
-0.16701
0.32283
-0.76652
-0.23654
0.62533
0.48790
-0.42083
0.39542
0.03524
-0.46222
0.36015
0.39189
-0.00157
-0.09054
0.09021
0.43866
-0.00540
0.02349
0.27486
0.52216
-0.23132
0.48508
0.40929
0.30171
-0.60829
0.00085
-0.21020
-0.04776
-0.94814
0.63255
0.25007
0.43825
0.40825
0.28127
0.15950
-0.07039
0.10026
-0.45594
-0.61736
-0.46028
0.23095
0.31808
0.30229
-0.01295
0.42477
0.05819
0.49702
0.07106
0.16641
0.00446
-0.36790
-0.24855
-0.14881
0.30390
-0.30013
-0.14023
0.47550
0.52065
0.32396
-0.14414
0.22990
-0.81443
0.06437
-0.08159
-0.65578
0.51054
0.14556
-0.39438
0.49350
-0.28931
0.05444
0.01458
0.42676
0.23874
-0.01113
0.12613
-0.24176
0.74002
0.32649
0.01713
0.35540
0.36565
0.43378
0.24607
-0.18297
0.19279
-0.65454
0.23766
-0.13659
0.02326
0.34878
-0.04136
0.24816
-0.01191
0.15491
0.83342
0.21334
0.50138
0.33812
0.79865
0.17970
0.37331
0.12734
0.10183
-0.01103
0.73994
-0.14214
-0.79785
0.61741
0.04983
-0.19487
0.47300
-0.39953
0.16820
-0.04089
-0.00911
0.09260
0.10973
0.08411
0.15747
0.13700
-0.01588
-0.22697
0.15793
0.33785
0.31959
0.87713
0.06833
0.39186
-0.02697
0.02939
-0.22567
-0.39416
0.61970
0.21838
-0.38885
-0.83912
-0.51735
0.21282
0.07150
-0.13872
-0.25616
0.22674
0.34593
0.16647
0.06696
0.35326
-0.08591
0.15261
0.14829
-0.09777
-0.46223
0.26686
0.12878
0.34648
-0.51815
-0.23252
-0.32224
0.24540
0.11552
0.07479
-0.57912
0.16725
0.17367
0.08406
0.32712
-0.44019
-2.14405
0.35771
-0.22110
0.18390
0.43922
0.43116
-0.66847
0.70089
0.47086
0.18362
0.15832
0.10844
-0.10058
0.22690
-0.24692
0.14018
0.31764
0.19870
-1.50270
0.79624
0.68695
0.40304
0.67192
-0.06590
0.00475
-0.20998
0.40817
-0.06323
-0.02474
-0.16465
0.65022
0.42715
0.13867
0.05654
0.18747
-0.32426
0.13139
-0.17351
0.43834
-0.06391
0.49695
0.41254
0.13229
0.22780
-0.09054
0.32799
0.02365
0.42704
0.20212
-0.18784
0.18775
0.57466
0.47434
0.50595
0.74267
0.21345
0.59881
0.40777
-0.02373
-0.65447
0.65460
-0.07754
0.13562
-0.14352
0.26523
0.20194
0.07625
-0.76075
0.29083
-0.04666
0.59249
0.36256
0.36718
0.45436
0.08787
0.19698
0.07838
0.25101
0.30258
-0.04331
-2.08009
-0.54014
0.23807
0.10824
0.56426
0.10987
-0.27050
0.08720
0.48623
-0.07857
-0.50389
0.22901
0.44220
0.51639
0.21655
-0.14662
0.10016
0.71869
-0.29835
-0.19537
0.12295
-0.44063
0.24567
0.34339
0.66090
-0.26871
0.21456
0.26186
0.04589
0.47753
0.36783
0.55373
0.01488
0.19481
-0.35720
-0.23191
-0.09989
-0.42412
-0.09183
0.51921
-0.43744
0.51247
-0.21848
0.59939
0.43442
0.21470
0.15157
-0.26798
0.17082
0.07302
-0.11967
0.13012
0.27418
0.79924
0.45781
0.23803
-1.01810
0.14078
-0.29559
0.69539
0.07066
0.22646
0.03258
-0.62014
0.13465
-1.08555
0.20008
0.48604
0.31481
0.42058
0.28583
0.73006
0.02009
-0.60052
0.37918
0.37033
0.70793
-0.10165
0.19152
-0.01571
0.16854
0.25264
0.10030
0.47353
-0.07442
0.67352
0.32024
-0.12473
-0.81679
-0.19136
0.71027
-0.13358
-0.15558
-0.69521
0.25967
0.47292
-0.45051
-0.06654
0.33905
-0.19226
0.74019
0.25283
-0.21525
0.22871
0.46119
0.49726
-0.33211
0.09934
0.45054
-0.03395
0.67886
0.39330
-0.57215
-0.08832
0.20753
-0.24202
-0.58551
0.04570
0.16879
-0.04433
-0.89346
-0.02300
-0.08393
0.49892
0.03821
-0.29177
0.00327
-0.21966
-1.67948
0.10031
-0.13547
-1.10068
0.51026
0.28549
0.21711
-0.28914
0.60856
0.23303
-0.07317
0.25671
-0.29792
-0.32445
0.68335
0.20209
0.65682
0.92170
0.60763
0.24808
0.37089
-0.68331
0.32184
-0.22762
-0.20694
0.12277
0.34016
-0.54756
-0.47737
0.20027
-0.08556
-0.55685
-0.41230
0.17963
0.27237
0.34569
-0.07090
0.06466
0.25897
-1.40520
-0.14245
-0.36683
0.13876
-0.39612
0.37693
0.16842
0.13811
-1.00995
-0.27447
0.21906
-0.07438
-0.14137
0.39466
0.47397
-0.03028
0.87212
-0.09689
-0.40053
0.62975
0.19381
0.46432
-0.52582
0.51930
0.10801
-0.35651
0.20117
0.04610
-0.40592
0.38916
0.62095
-0.15101
-0.51485
0.45106
-0.11219
0.38515
0.11957
-0.60662
-0.25179
0.14103
-0.55459
-0.41015
-0.14976
0.27970
-0.17969
0.17057
0.66434
-0.07073
-0.15469
-0.33464
-0.30738
-0.08305
0.41006
-0.06103
0.58175
-0.40899
-0.22275
0.25001
0.24237
0.19601
-0.15170
-0.25671
-0.09078
-0.01228
0.17906
0.69038
-0.24814
-0.60544
0.05599
0.63893
0.17152
0.24278
0.52571
0.10748
-0.21287
0.79854
0.58218
-0.18653
-0.39672
-0.93775
-0.51302
-0.89917
-0.51797
0.10994
0.42677
-0.00319
-0.19587
0.57642
-0.01116
0.18592
0.46135
0.64760
-0.06988
-0.17971
0.24653
-0.17758
-0.69578
-0.21826
-0.37748
0.20893
-1.03507
0.52622
-0.16440
-0.20178
0.67558
0.40787
0.43514
-0.19414
0.39905
-0.18812
-0.65982
0.30326
-0.55375
0.21863
0.16303
0.28415
0.58308
-0.31544
-0.15683
0.04259
0.42477
-0.01381
-0.00507
0.35537
-0.97613
-0.14958
0.10864
-0.27562
-0.02660
-0.32857
0.27204
-0.32302
0.60257
0.39649
0.68421
-0.71210
-0.14161
0.07349
0.11173
-0.21109
-0.89580
0.03874
0.45333
0.07182
0.25767
0.60552
0.06480
0.43022
-0.00169
0.49223
0.08076
-0.44326
0.56572
0.10564
0.20002
-0.40128
0.55978
0.11670
0.18488
0.09507
-0.35313
-0.48859
0.33667
0.34460
-0.18117
0.61002
0.13877
-0.16066
-0.59241
0.20129
0.79379
-0.27008
0.59284
0.63540
0.18320
0.56966
0.14184
0.10673
0.23598
-0.52781
-0.68644
0.11465
0.02770
-0.00545
-1.13239
0.06203
-0.73234
0.58258
0.19619
-0.06390
0.10393
0.35595
0.59589
-0.05082
0.51310
0.50316
0.34517
-0.07156
0.31253
0.21393
0.13132
-0.26490
-0.42987
0.36202
-0.03708
0.53565
0.35156
0.07498
0.07703
0.44798
-0.38693
0.29672
0.10227
0.26611
0.54470
0.43926
-0.51152
-0.15173
0.48283
0.31539
-0.05706
0.90810
0.26571
-0.60943
-0.00311
-0.93823
-0.21323
0.16182
-0.08772
0.19390
0.21778
0.02831
-0.38044
0.26675
-0.20857
0.53030
0.03135
0.02285
0.65327
0.03338
-1.11498
-0.10971
0.10055
0.38662
0.05064
0.39959
0.56174
0.41744
0.55034
-0.83786
-0.42145
0.46832
-0.05519
0.17556
-0.09622
0.08019
-0.10721
-0.18717
-0.22870
-0.47675
0.31178
0.09467
-0.00722
0.15341
-0.19593
-0.12444
0.14367
0.54661
0.03763
-0.35246
0.17537
0.19105
0.78138
-0.19060
-0.07048
-0.14256
0.53907
0.35350
-0.13455
-0.19918
0.67686
0.48160
0.24448
0.29232
-0.16973
-0.02138
-0.14581
0.20968
0.40898
0.02061
0.36617
-0.29678
0.16151
0.48505
0.41019
-0.00099
-0.65596
-0.09241
0.26908
-0.25441
0.22453
0.17290
-0.66770
0.08065
-1.26950
-0.18327
-0.21665
0.03423
0.41679
0.25007
-0.15103
0.20897
-0.10748
-0.26404
0.50616
0.66638
0.13453
-0.43168
-0.47284
0.51676
-0.22895
-0.42032
-0.18158
-1.32589
0.38453
0.51738
0.09374
-0.03118
0.48884
0.08859
0.54750
-0.07394
-0.08012
-0.55133
-0.00200
0.12037
0.02537
0.63856
0.19172
-0.03698
-0.31989
-0.43964
0.34044
0.31378
-0.15175
0.38043
0.00055
-0.42565
0.01817
-0.05131
-0.39436
0.06980
-0.13475
0.32875
0.22595
0.06695
0.12258
0.14946
0.12318
0.26026
0.12850
0.40602
-0.73740
0.31133
-0.06889
0.14269
-0.13315
-0.00738
0.59567
-0.50094
0.44182
0.34194
-0.86092
0.43546
-0.14041
-0.18428
0.19120
0.35146
-0.35572
0.39190
0.29585
0.00167
-0.13673
-0.32412
-0.31592
0.49286
0.68988
-0.04322
0.33800
0.00902
0.38211
-0.24532
-0.35585
0.30009
0.59475
0.36083
0.29667
-0.56877
-0.12521
0.46936
0.74734
0.01964
-0.64114
-0.06992
0.27379
0.63060
-0.69080
-0.09953
0.54812
-0.40109
0.06346
-0.23609
-0.34484
0.19686
-0.41389
0.25411
-0.61443
0.07442
0.42176
-0.06985
-0.31135
0.32420
-0.34056
-0.12005
-0.42026
0.27623
0.14707
-0.40460
0.49168
0.11925
0.60641
-0.16790
-1.20134
0.39871
0.51018
0.19142
0.28736
0.34839
0.65413
-0.10990
-0.33276
0.04112
0.06012
0.56226
0.18196
0.31710
0.20473
0.20024
0.53999
-1.12737
0.16331
-0.18017
0.19935
0.37056
0.37185
0.17870
-0.05778
0.41652
0.04706
0.16860
0.17753
0.45705
-0.05534
0.09304
-0.63740
0.11931
0.32836
0.25140
-1.04868
0.80002
-0.56511
0.44357
-0.11752
-0.14050
0.28443
0.01186
0.09096
0.56829
-0.24922
0.05923
-1.59971
0.18769
0.02730
0.19674
0.34430
0.57739
-0.28774
0.04789
0.53044
0.08864
-0.44762
0.17700
0.21235
-0.04912
0.67420
-0.40188
0.64714
0.76507
0.65990
0.55452
0.18103
-0.14950
-0.60327
0.28594
0.62687
0.56352
-0.33990
0.35661
0.11526
0.47506
-0.09490
0.22312
0.59848
0.04373
-0.34890
0.10705
-0.02053
0.56900
0.13672
0.63513
-0.66905
0.53033
-0.33231
0.38190
0.37282
0.18396
0.11876
0.09999
-0.83056
-0.18710
-0.34968
-0.36587
0.24837
0.34750
0.88233
-0.06683
-0.03351
-0.14539
-0.05167
0.23339
-0.37753
0.61360
0.24555
-0.00965
0.03037
-1.09029
-0.02934
-0.00420
-0.25995
0.18436
-0.36279
-0.16350
0.45662
0.45054
-0.10681
0.41252
-0.19644
-0.50053
-0.24516
-0.40949
0.10680
0.16302
0.23407
0.05537
0.11342
0.74851
0.18377
0.08158
0.60512
-0.18204
0.77877
-0.14378
0.16935
-0.10038
-0.24754
0.11815
-0.71469
-0.50933
0.04972
0.36186
-0.01077
0.13299
-0.80978
0.24916
-0.09202
0.06850
0.05928
0.03384
0.19682
0.16180
0.19895
0.09207
0.05569
0.07799
0.18440
0.16213
0.15849
0.11130
0.20748
0.20767
0.05633
0.17677
0.02262
0.05493
0.15773
0.15073
0.05242
0.15579
0.07869
0.16613
0.13200
0.04988
0.05139
0.16418
0.06104
0.14798
0.13090
0.10457
0.07088
0.05805
0.09085
0.10131
0.19500
0.12565
0.04434
0.12910
0.00013
0.17478
0.18913
0.12525
0.14463
0.17330
0.05601
0.18836
0.09855
0.03132
0.07480
0.11098
0.10337
0.06075
0.14834
0.19980
0.01439
0.18877
0.13612
0.16244
0.17808
0.08182
0.09211
0.20478
0.00779
0.11025
0.15225
0.08787
0.15301
0.18913
0.13403
0.17278
0.07405
0.08692
0.20703
0.03399
0.16745
0.03775
0.16048
0.08040
0.03785
0.19880
0.00805
0.17442
0.15706
0.10707
0.07785
0.02089
0.07032
0.04001
0.12549
0.15586
0.11393
0.08545
0.13978
0.15503
0.07308
0.03268
0.11275
0.17373
0.01402
0.02517
0.02328
0.05896
0.20503
0.07997
0.08887
0.15445
0.08505
0.05135
0.06026
0.13167
0.09634
0.11336
0.06768
0.00878
0.17204
0.07683
0.09578
0.20421
0.09501
0.09095
0.12818
0.07605
0.05165
0.16589
0.01388
0.09873
0.09166
0.10936
0.01034
0.06772
0.06846
-0.05292
0.15257
0.08835
0.05103
0.11549
-0.09388
0.03715
0.10960
0.01393
-0.03461
0.27468
-0.21410
0.13248
-1.21334
-0.59337
0.40807
0.09617
0.50405
0.63310
-0.14477
0.07883
0.08017
0.09062
0.28072
-0.36275
-0.02456
0.78948
-0.55132
-0.30268
0.34584
-0.19198
-0.35724
0.01347
0.10444
0.76413
-1.11552
0.18715
-0.15164
0.53186
0.16119
0.30402
-0.47577
0.44032
0.72769
-0.15002
-0.87372
-0.53230
0.49610
0.14037
0.29245
-0.05168
0.52797
0.26748
0.53062
0.06753
-0.34701
-0.78234
0.09764
0.28800
-0.42419
0.08478
-0.87094
0.04007
-0.93966
0.62826
-0.28178
1.56433
0.42953
-0.45514
0.35794
-0.00919
-0.21468
-0.02806
-0.07735
-0.82446
0.10653
-0.18505
-0.42342
0.37951
0.49414
0.04631
-0.05419
0.17031
0.36908
0.34655
-0.36459
-0.63790
0.45674
0.29349
-0.34440
-0.25511
0.47793
0.50502
0.36444
0.99930
0.17732
-0.65240
-1.20153
0.12163
0.59990
0.15007
-0.33212
0.51769
-0.25537
0.76715
-0.64163
-0.32882
0.25201
0.38850
0.20140
-1.39283
0.28447
0.30736
-0.88300
0.51179
0.79855
-0.75807
0.13522
-0.03091
-0.35368
0.06542
0.32361
-0.12391
0.56944
-0.42534
-0.76227
0.04165
-0.06284
0.64877
0.27108
0.12589
-0.41623
0.62539
-0.65728
-0.34663
0.27153
-0.02338
0.23064
0.48782
-0.31840
0.28632
0.55332
-0.67986
0.55821
0.15163
0.78758
0.32442
0.40217
0.08787
0.26990
0.28653
-1.28495
-0.18714
0.72377
-0.14209
-0.23315
0.24320
0.89778
-0.25178
0.27524
0.37653
-0.54726
0.45136
0.65564
-0.49088
-0.01755
-0.28220
0.14988
-0.55762
0.59478
-1.23199
-0.02841
-0.05651
0.56078
-1.06111
0.06206
0.43686
0.38019
-0.30170
-0.04808
0.44793
0.13511
0.72115
0.66539
0.50191
0.01603
0.50454
0.31903
-0.17060
-0.56936
-0.26446
0.68397
0.34280
0.09722
-0.45642
-0.02036
-0.07035
-0.93146
0.26196
-0.10383
0.25873
-0.15322
-0.46347
-0.85332
-0.17608
0.07638
-0.14535
0.04998
-0.14613
0.06501
-0.09463
-0.11454
0.27754
0.07292
-0.05672
-0.24005
0.63554
0.64395
-0.59868
0.10004
0.30675
0.39782
0.36014
-0.45031
0.31720
-0.49564
0.48441
-0.14673
-0.06694
-0.28060
-0.02997
-0.66579
-0.67262
0.02047
-0.27542
-0.08008
0.28736
-0.17924
-0.06210
-0.01852
-0.27513
-0.01524
-0.16685
-0.18265
0.04859
0.08660
-0.19928
-0.17280
0.03438
-0.10899
-0.15061
-0.17136
0.29556
-0.05459
-0.70277
0.63122
-0.01195
-1.25222
-0.24377
-0.02437
-0.21206
-0.37030
-0.00420
0.49969
-0.16534
0.26981
0.16285
-0.35788
-0.41863
0.36365
-0.91739
0.33811
0.44714
-0.58352
0.30419
-0.34122
-0.43042
-0.10653
0.16944
0.56266
0.04444
0.06962
-0.00220
0.37419
0.32385
0.05626
0.17509
0.29703
0.08575
-0.53873
0.39050
0.53746
0.39877
0.34609
-0.87647
0.87695
0.11115
0.38202
-0.09896
0.37367
0.53435
0.31833
-0.05111
0.17459
1.01755
-0.04839
-0.12528
0.56493
0.76107
0.46504
0.73757
0.55633
-0.46143
0.29055
-0.73724
-0.95420
0.00449
-1.71632
-0.41942
-0.11443
0.32704
-0.09484
-0.03074
0.25430
-0.34636
-0.35237
0.63292
0.24544
-0.20088
0.24467
-0.16577
0.16715
-0.40494
0.03082
-0.16267
0.25519
0.12596
-0.07591
0.38332
0.41915
0.35479
-0.36663
-1.26295
-0.28298
0.21395
-1.03061
0.29012
-0.35405
0.39527
-0.19822
-0.04171
0.18348
-0.34412
0.36633
0.36013
-0.94642
0.23769
-0.44227
0.61956
0.64654
0.13930
0.29610
0.26667
0.05583
-0.06979
-0.06162
-0.31301
0.27413
0.03585
-0.45294
0.04528
0.62451
-0.93605
-0.54318
0.54529
-0.53388
-0.47519
-0.72247
-0.00631
-0.70260
-0.33503
0.46353
0.09700
0.68254
-0.05942
0.69627
0.55329
0.06918
0.48090
0.74202
0.47713
0.54743
0.21715
-0.33911
-0.63135
0.63884
0.19200
-0.40822
0.25586
-1.02457
-0.21647
0.87530
-0.02559
-0.18471
0.30766
0.79127
-0.34742
0.40487
-0.34330
0.17795
-0.44239
0.34160
-0.67535
-0.75789
0.07553
0.46942
-0.00492
0.23324
-0.44172
0.08517
-0.06041
0.32586
0.18426
-0.40681
0.19866
0.25361
0.05160
-0.05390
-0.25241
-0.06880
0.00594
-1.03470
-0.15197
0.34459
-0.03145
-0.26906
0.68601
-0.03601
-0.09935
-0.07473
-0.01878
0.68346
-0.45477
-0.92002
0.11206
0.37641
0.76404
-0.14381
0.22460
-0.21489
0.49880
-1.01189
0.28376
0.02785
0.74091
0.60458
0.32099
-0.67998
0.22323
-0.12076
0.13923
-0.13439
0.16847
-0.73564
0.66388
0.35378
0.00139
-0.09617
0.31862
0.01144
0.11490
0.04293
0.24357
0.69451
-0.06574
0.28296
0.09717
0.34413
-0.37369
-0.53647
-0.88262
-0.11750
-0.13104
0.16974
-0.23759
-0.13406
0.42953
-0.18548
-0.37818
0.17271
0.40522
0.27955
-0.45353
-0.39825
-0.53910
-0.22855
0.60559
-0.14012
-0.72842
0.40801
0.19518
0.48591
0.29251
-0.46792
0.29811
-0.14629
0.06968
0.24988
0.43445
0.29532
-0.22161
-0.91744
0.10202
0.60223
0.21899
0.19309
-0.09532
-0.45966
0.60122
-0.29919
0.05415
-0.08035
0.49902
-0.86942
-0.07616
-0.22046
-0.24206
0.04620
-0.10722
-0.64596
0.66512
0.41951
-0.32141
0.45562
0.53005
0.11025
-0.36197
0.29959
0.31841
0.14264
-0.04579
-0.57598
-0.34784
-0.00528
-0.49761
0.58414
-0.48278
0.25537
-0.35930
0.58831
0.69658
0.17363
0.64636
0.27520
0.18604
-0.81746
-0.17238
0.32927
0.58663
0.62012
0.51636
-0.13252
-0.45861
-0.13225
-0.22611
-0.22491
-0.13938
0.29387
-0.33782
-0.35713
-0.00506
-0.28021
-0.44695
-0.75787
-1.06540
0.09102
0.12741
-0.09800
-0.90667
-0.91335
-0.25637
-0.71037
0.05688
-0.57880
-0.80927
-0.05609
-0.30528
0.16106
0.07894
-0.07070
0.02886
0.17128
-0.52346
-0.13254
-0.03099
-0.63736
0.25253
0.16182
0.58713
0.20811
0.18367
0.05354
0.16392
0.62736
-0.31189
0.05389
0.09295
0.31280
0.61001
0.32632
0.22557
0.25178
0.26535
0.06478
0.07920
-1.19558
-0.26385
-0.53294
0.24234
0.06599
0.07953
0.31993
0.40017
0.55890
0.12450
-0.43657
0.10088
0.26509
0.06602
-0.05892
0.32227
-0.22149
0.35866
0.03081
-0.14962
0.33005
-0.33172
0.33462
-0.01258
-0.13900
0.55558
0.48849
0.42401
-0.14570
-0.03653
0.15750
-0.03587
0.01537
0.20114
0.24870
0.23007
-0.06000
-0.18860
-0.06098
0.28650
0.44133
0.25797
-0.19855
-0.41797
0.20245
-0.79043
-0.15129
-0.32696
-0.56870
-0.32882
-0.04745
0.11400
-0.07864
-0.21990
0.10736
-0.77796
-0.65631
-0.74934
0.79912
-0.88903
-0.83800
-0.93785
-0.48272
-0.57239
-1.20552
0.37749
0.37168
-0.42771
-0.00841
-0.76022
-0.55504
0.50777
-0.66473
0.18253
0.57590
-0.05169
0.11104
-0.76729
0.08208
-0.77002
-0.38346
0.27952
0.04745
-0.32572
-0.28236
-0.23193
0.26951
0.05478
-0.71403
-0.24883
-0.88985
-0.71006
-0.19353
-1.48686
-0.50212
0.34654
-0.73372
0.52651
0.36138
0.00115
0.05456
0.18168
-0.64026
-1.58144
-0.24243
-0.14205
0.79183
-0.62222
-0.47844
-0.27741
-0.25495
-0.73670
-0.84292
-0.18467
-0.35936
0.14263
-0.35535
-0.03029
-0.62794
0.20297
-0.95352
-0.48019
-0.26287
-0.02146
0.05049
-1.10988
0.35974
-0.21003
-0.24241
-0.09939
-0.59388
-0.67852
0.04409
0.16728
-0.50262
0.48131
-0.22865
0.21484
0.71874
0.26742
0.51448
0.16105
0.63309
0.62662
0.51571
-0.09229
-0.19356
-0.58170
0.14491
0.18078
-0.21186
-0.66717
-0.85789
0.32074
0.15143
0.24167
0.13271
-0.48357
-0.18500
-0.17812
0.08614
-0.46531
0.28623
0.50022
0.27116
-0.05380
-0.20638
-0.01050
-0.39531
-0.15294
0.22074
0.55384
0.12905
-0.44165
0.11472
0.44994
-0.70492
0.32473
-0.59373
0.29650
-0.28914
0.38583
0.44473
0.59932
-0.35274
0.37751
-0.82573
0.29796
0.24774
-0.89992
0.25813
-0.21866
0.36983
0.31909
-0.20223
-1.09442
0.17291
0.53159
-0.94823
0.33450
0.40425
-0.05363
-0.04511
0.51032
-0.20916
-0.08477
0.19725
0.00264
0.56421
-0.11986
0.16710
-0.00776
-0.20304
0.32040
0.19909
0.19435
0.21906
0.12335
-0.71516
0.14973
0.51139
0.20288
-0.05855
-0.00585
-0.07730
-0.48615
-0.76895
0.02570
0.34541
0.76343
-0.13634
0.99756
0.49161
0.72358
-0.17411
-0.60083
0.19280
-0.64136
-0.60743
-0.02029
-0.25719
-0.03750
-0.81067
-0.14575
-0.00702
-0.58326
0.70609
-0.59502
0.44092
-0.01813
0.25580
0.96787
-0.50383
-0.28457
0.84118
0.28939
-0.09694
0.98010
-0.42325
-0.12826
-0.38199
0.08284
0.16304
0.17253
-0.06883
-0.40961
-0.10399
-0.42486
-0.24408
-0.58848
-0.67616
0.15363
-0.73093
0.30770
-0.12673
0.41224
-0.12734
0.00302
-0.18047
0.38120
0.54319
-0.48655
0.01051
0.40453
0.42014
-0.89773
-0.83702
-0.52242
-0.06296
-0.17515
-0.40946
-0.00830
-0.56223
-0.31545
-0.81500
-0.63210
-1.06831
-1.10041
0.40571
0.30943
-0.26055
0.38043
0.30467
-0.85950
0.09874
-0.09133
-0.45515
-0.35789
-0.15798
-0.39923
0.69333
-0.28904
-1.02113
0.67192
0.07731
-0.20836
-0.50446
-0.18704
0.20566
-0.07354
-0.18127
-0.84731
-0.15138
0.36890
0.08242
-0.14039
-0.44538
0.20645
-0.77495
0.24890
-0.30644
0.19918
-0.13903
0.32176
-0.21633
-0.85185
0.35852
0.22405
-0.89812
-0.14732
-0.01277
-0.93979
-0.56159
-0.14772
-0.72431
-0.27101
0.11029
0.04391
-1.39754
-0.43640
-1.08577
0.08617
0.37720
-0.22258
-0.20368
-0.15723
0.38388
0.01028
0.45889
0.10324
-1.14357
-0.21105
-0.47962
-0.35387
-0.47842
-1.05286
0.28193
0.11174
0.09468
-0.17337
0.01275
0.57496
-0.51088
-0.23219
0.38591
-0.31734
-0.51562
-0.96658
-0.89130
0.28525
0.12563
0.02763
-0.00152
0.27821
-0.77084
0.22915
-0.01925
0.15724
0.16020
0.47957
-0.28332
0.14610
0.00177
-1.02552
-0.42976
0.14511
0.20007
-0.25613
0.34010
-0.77367
0.20269
0.33118
-0.72384
0.02674
0.56928
0.57406
-0.79248
0.85767
0.32818
-0.36517
-0.64953
-0.17660
-0.09975
0.02089
-0.19803
0.34423
-0.51780
0.03888
-0.02446
-0.57496
0.35057
-0.54521
0.67677
-0.09350
0.19451
0.37799
0.02874
0.36956
0.08372
0.67883
0.48578
0.40323
0.41287
0.20532
0.28419
-0.22530
-0.34835
-0.71407
0.19958
-0.16826
-0.71476
0.41426
-0.49845
-0.23629
-0.37747
-0.18207
0.53604
0.54606
0.49900
-0.09831
0.16291
-0.93852
-1.41189
0.14045
0.03529
0.47149
-0.10829
0.09436
0.20585
0.29002
-0.50042
-0.08176
-0.29627
-0.22950
-0.32471
-0.43448
0.55134
0.18408
-0.37434
0.70762
0.45734
0.34139
0.20264
0.69621
0.31251
-1.34968
-0.36107
0.16414
0.18923
-0.50549
-0.35421
-0.39356
-0.64133
0.26673
-0.20550
-0.11262
-0.16608
-0.37738
-0.15122
0.06643
-0.16589
0.34620
-0.11351
-0.02097
0.53141
-0.51948
-0.22613
-0.61222
-0.11242
0.23441
-0.21757
-0.76662
0.04409
-0.75345
-0.38433
0.25834
-0.30096
-0.28965
0.02161
0.03632
0.51191
0.46788
0.08489
-0.36126
0.83831
-0.15286
0.17855
-0.68572
-0.32923
-0.95649
-0.59271
-0.71199
0.39673
-0.77243
-0.24445
-0.27597
-0.38081
0.47201
-0.04780
0.53255
0.42322
-0.16805
0.11200
0.91515
-1.18898
0.80283
0.41389
-0.34614
0.56713
0.25867
0.44981
0.68070
0.80025
-0.04524
0.00937
-0.09745
0.34464
0.21830
-0.13290
0.06779
0.09636
-0.74975
-0.82155
0.02196
-0.79487
0.37475
0.34928
0.25271
0.18708
0.33608
-1.00143
-0.04021
-0.12725
-0.20352
0.15901
-1.11366
-0.62693
0.23728
0.12543
-0.23143
-0.19950
0.14276
-1.13419
-0.35992
-0.08223
0.16890
-0.07891
0.07949
-0.01341
-0.24533
0.20349
0.41557
-1.02711
-1.29777
-0.53710
-0.51480
-0.28619
-0.73598
-0.58266
0.39143
-0.33200
-0.56981
-0.52650
0.73689
-0.23915
0.29536
-0.29068
-1.15490
-0.68552
0.03663
0.59727
0.30231
0.03009
-0.82877
-0.15829
-0.22967
0.71198
0.17044
0.02397
0.61161
0.54399
-0.33801
-0.30625
0.24556
-0.31541
0.33773
-0.14957
-0.32051
-1.14375
-1.11098
0.19297
0.12441
0.21867
-0.92124
0.01165
0.14893
-0.02636
0.40632
-0.73983
0.44616
-0.46614
0.08250
-0.60675
-0.57327
-0.25067
-0.58257
0.23813
-0.25680
0.33713
0.51050
0.17144
-0.17099
0.39050
-0.46005
0.37717
0.29006
-0.15468
0.09302
-0.34650
0.34654
-0.66015
0.15376
0.14558
0.18401
-0.29547
-0.72746
0.32884
-0.68227
-0.60884
-0.49994
0.31190
-0.66596
-0.49364
-0.76778
-0.24290
0.41314
-0.14564
-0.79679
-1.03030
-0.33907
0.12167
0.44697
0.35409
0.36884
0.29254
-1.39774
0.22171
-0.50326
0.19722
0.27768
0.40267
-1.75360
0.49181
0.11342
0.58542
0.42463
-0.33034
0.16036
-0.10747
-0.40456
0.05130
0.40989
-0.02443
-0.88871
0.23353
-0.37930
-0.28075
0.03802
0.17544
-0.14611
0.01791
0.40764
-0.76177
-0.11800
0.44497
-0.01532
0.14867
-0.05900
-0.09267
-0.04934
-1.11273
0.29402
0.37477
0.45769
0.08130
-0.84892
-0.41266
-1.07129
0.28344
0.34634
-1.16722
0.33803
0.17644
0.47230
0.01523
0.49677
-0.45425
0.59924
-0.42554
0.18490
0.37739
0.21351
-0.24403
0.41399
-0.22638
-0.15327
0.28954
0.04422
-1.14329
-0.33410
0.37024
-0.40524
0.36235
0.40849
0.40630
-0.24538
-0.40955
0.02556
0.34301
-0.37472
0.31179
-0.37613
0.70379
0.07488
-0.02836
0.13399
0.08882
0.05874
0.26734
0.03798
0.42795
-0.37796
0.18295
0.37194
-0.29781
0.37001
0.51919
-2.07766
0.68986
0.58652
0.22169
0.17674
0.37333
0.34764
0.44575
0.57776
-0.00852
0.32359
-0.04803
0.59001
-0.64437
0.35041
0.30555
-0.01780
0.22973
0.27082
0.31396
0.54315
-0.08086
0.34480
-0.32947
-0.65817
0.07029
-0.95401
0.31411
-0.63916
0.28712
0.29829
-0.03861
-0.07863
-0.23079
0.45174
0.28115
-1.56168
-0.39303
0.22121
0.04465
-0.34581
0.18548
-0.03979
0.30920
0.58771
-0.00769
0.32431
0.14249
0.01336
-0.01292
-0.85487
0.41831
0.28597
-0.13899
0.46211
-0.34791
-0.59088
0.77840
0.31336
0.47445
-0.66380
-0.13587
-0.11360
-1.22446
0.13348
-0.16510
0.68566
0.10947
-0.37335
-0.38679
-0.32932
-0.18899
0.59572
-0.41300
0.74054
-1.45461
-0.29444
0.38148
-0.59712
0.63162
0.16674
0.45943
0.34164
0.42841
-0.28745
0.05055
-0.00022
0.36296
0.11453
-0.08215
0.40518
-0.20753
-0.77363
-0.67311
0.33436
-0.50456
0.09269
-0.09870
0.52284
-0.86634
0.34521
0.43913
-0.04363
0.33210
-0.52284
0.23495
0.01546
0.24084
-0.22133
-0.53781
0.18961
-0.05162
0.25103
-0.88087
0.05447
-0.52630
0.48677
0.30831
-0.27445
0.43446
-0.25098
-0.16792
-0.24097
-0.06276
-0.75213
0.20529
0.36504
-0.16364
-1.10714
-0.16692
-0.80094
0.47279
0.31088
-0.37387
0.24447
0.09242
0.59467
-1.37370
-0.12259
0.14767
0.23805
0.37358
0.06805
0.36536
0.36908
0.11895
-0.17722
0.43118
0.06373
-0.57762
0.17743
-1.18767
0.02581
0.58845
0.36318
0.32050
0.34509
0.02134
0.18741
-0.29145
-0.30898
0.21462
0.32521
0.20152
0.30702
-0.02872
0.40366
0.38757
0.21280
-0.74889
-0.12474
0.17760
0.33697
-0.07586
0.12082
0.00593
0.62360
-0.37937
-0.56425
-0.24826
0.71811
-1.07564
0.23824
-0.05292
0.23324
-0.26345
-0.02417
0.11905
0.07308
-1.56760
0.35176
-1.15372
-0.04594
0.04176
-1.12539
-0.04147
0.14549
0.31674
0.25232
0.37756
0.40461
0.33331
0.26837
-0.93833
0.13803
-0.12667
0.16340
-0.95453
0.73284
-0.08056
0.76022
-0.73977
-0.03870
0.25076
-0.50597
0.13237
-0.20797
-0.93297
0.40673
0.14762
0.50277
0.06770
0.45177
-0.22533
0.74123
0.72865
0.15367
0.17145
0.16582
-0.25526
-1.60147
0.45511
-0.16105
-0.26860
0.10254
0.11333
-0.90704
0.16059
-0.35373
0.18897
-0.46180
-0.22759
0.47743
-0.15861
0.53868
-0.94423
-0.22761
0.20613
-0.06142
-0.55599
-0.85675
-0.95295
0.03932
-0.55860
-0.02390
-0.22565
-0.55780
0.49708
0.47665
0.80445
0.34976
0.80209
-0.22254
0.09920
0.17488
-0.16750
-0.05575
-0.21583
-0.54548
-0.56387
-0.50692
-0.18169
-0.01058
-0.15096
-0.52607
0.08852
0.15459
-0.20033
-0.33262
0.11144
-0.54759
-0.57099
0.44067
0.05141
-1.08912
0.15735
0.44918
-0.54633
0.40677
-0.55680
0.47374
0.44236
-0.76984
0.41293
0.49401
0.48414
-0.01983
0.54415
-0.41424
-1.11639
-0.10756
0.15465
0.14051
0.33684
0.33128
0.22333
0.44215
-0.51231
-0.18814
0.36910
0.10087
-0.10290
-0.04818
0.24170
-0.20260
0.35486
-0.08230
0.14565
0.52811
-0.08566
-0.08908
-0.05848
0.01395
-0.12698
0.18323
0.48247
-0.02530
0.01835
0.30185
-0.03859
-0.10468
-0.43152
-0.01715
-0.12594
0.16808
-0.63589
-0.65162
0.44817
-0.43117
-1.59597
-0.49893
0.44642
0.04286
-0.24679
-0.52998
-0.81835
0.51745
0.07820
0.51445
0.27071
-0.10901
-0.10635
0.17206
0.18263
0.06777
0.32152
0.35723
-1.25355
0.07792
0.70377
0.75500
-0.08945
0.66166
-0.49199
0.68878
-0.18408
0.16939
0.42680
0.31352
-0.27528
0.08438
-0.02026
0.65159
0.51510
0.11927
0.19549
0.18069
0.49167
0.45451
0.50723
0.38505
0.49701
0.49876
0.31578
0.49057
-0.26312
0.16174
0.85675
-0.23326
0.10729
0.11688
-0.57718
-0.18420
0.12920
-0.18745
0.42769
0.52428
0.11691
-0.56468
0.14695
0.18422
0.14482
-0.21559
-0.17953
-0.18392
0.08879
-0.18230
-0.12494
-0.20379
0.15922
0.14802
-0.18322
-0.60939
-0.23075
-1.39048
0.08429
0.06310
0.10184
0.14281
0.40206
-0.61853
-0.50031
0.29753
0.01247
-0.25802
-0.29544
0.09175
0.10370
0.33489
-0.11946
0.20735
-0.83211
-0.72645
-0.72488
-0.09832
-0.40298
-0.33776
0.16839
-0.00251
-0.19946
-0.24793
0.24878
-0.80189
0.42259
0.50734
-1.41785
-0.59413
0.61622
-0.68708
-0.71461
0.58622
-0.84669
0.68606
-0.28650
-0.82585
-0.31823
-0.29593
-0.34417
0.47551
-0.03807
-0.03575
-0.08140
-0.73792
0.45565
0.13357
0.36422
0.15545
0.10770
0.34991
0.13091
-0.36218
-0.16174
0.47611
0.24318
0.47809
0.00679
-0.41013
0.54681
0.05980
0.06519
-0.23030
0.56160
-0.22453
-0.01429
-0.21580
0.19779
0.03008
-0.65849
0.48590
-0.13663
-0.06176
-0.88292
-0.65825
-0.46652
-0.66282
0.67793
0.63742
0.36694
0.26999
-0.46638
0.60612
0.35455
-0.03290
0.03155
0.70049
-0.03085
0.38094
0.24771
0.45153
-0.39396
0.34678
-0.36345
-0.23689
-0.04331
0.32763
0.28488
0.36872
0.29036
0.29098
0.50949
-0.08363
0.01933
0.16471
0.11434
0.56473
-0.95619
-0.58706
0.08062
0.54749
-0.32865
-0.62408
-0.05277
0.38497
0.00016
0.20816
0.57915
0.06443
0.01788
0.31221
-0.58739
0.30093
-0.02385
0.32027
0.09775
-0.29082
-0.29975
-0.15400
