0.35662
0.12089
-0.14572
-0.67414
0.42792
0.41636
-0.49785
0.43493
0.09283
0.34656
0.05649
-0.04286
-0.30376
0.43617
0.18502
-0.00432
0.11892
0.23794
-0.32929
0.65232
0.55652
-0.15327
0.34568
0.03432
-0.62497
-0.92432
-0.17390
-0.19550
-0.63561
0.00621
0.12410
-0.26582
0.45074
-0.34147
0.71730
0.66584
-1.31686
0.29849
-0.57904
0.21328
-0.06604
-0.36687
0.14895
-0.72977
0.32906
0.64616
0.47869
0.69906
0.49120
-0.37626
0.40520
0.39410
0.56319
0.29063
-0.51294
-0.69727
-1.25217
-0.16116
-0.59693
-0.06098
0.27801
0.14565
-0.23084
0.04307
0.27784
0.90396
-0.19194
0.42916
0.55586
0.50878
0.17538
0.18746
0.08278
0.56733
-0.37662
-0.15234
-0.42429
0.31274
-0.28760
-0.23930
0.09755
0.54903
0.83477
0.81525
-0.39380
-0.07785
0.44576
0.37280
0.04031
-0.27433
-0.18490
-0.03972
0.42892
-0.05667
0.02020
0.21926
-0.32433
0.06896
0.53302
0.12239
0.13013
-0.08456
0.01167
-0.29622
0.18667
0.50447
0.43095
0.10491
-1.08871
-0.72917
-0.35127
-0.30320
0.31514
0.13353
0.22420
0.07011
0.01123
0.19463
0.29857
-0.72688
-0.60813
-0.54746
0.53928
0.06326
-0.60406
-0.51587
0.59380
0.16916
0.28986
0.56153
-0.14185
-0.25095
0.35316
0.39769
0.25556
0.01330
0.32756
0.03769
0.49107
-0.10206
0.14963
0.23706
-0.31854
0.17169
-0.08133
0.23533
0.12778
0.06327
0.08217
-0.07820
0.06553
0.34864
-0.82811
-0.50347
0.34293
0.65140
-0.60413
0.45488
0.07015
-0.63626
0.21444
0.14588
-0.18460
-0.32253
0.35656
0.05416
-0.06497
0.05443
0.69461
0.88607
0.60929
-0.77864
-0.16292
-0.70326
-0.76252
-0.31661
0.22455
0.01683
-0.61307
-0.48880
0.38094
0.69640
0.28255
0.02372
-0.11517
0.02497
0.52595
-0.13706
0.41182
0.04898
0.16528
-0.49785
0.12637
-0.08316
0.33397
-0.68790
0.37400
0.51187
-0.15689
-0.81017
0.88149
0.33747
0.15245
0.19743
0.11551
-0.21731
0.43448
-0.47500
-0.08675
0.44858
0.25884
-0.46003
-0.19243
0.54103
-0.50806
0.11532
0.26991
0.00662
-0.29297
0.12920
0.32108
0.33845
0.51775
0.56632
-0.04590
-1.20326
-0.27486
-0.47415
-0.23144
-0.25397
-0.29945
-0.34678
0.00265
-0.20059
-0.01200
0.62549
0.38019
0.39225
-0.08816
-0.39523
0.18466
0.07770
-0.39979
-0.23666
-0.16901
0.23150
-0.34813
-0.00265
0.03351
0.11829
-0.71296
0.28961
-0.22706
-0.34373
-0.25852
0.07273
0.18263
-0.05123
-0.03752
0.40136
0.31155
-0.35362
-0.13298
-0.39993
-0.09454
-0.52162
-0.05451
0.01559
0.88426
0.07873
0.29495
0.36219
0.52574
-0.06893
-1.00875
0.02025
-1.12606
0.61639
0.32649
0.55154
0.53696
0.04116
-0.42855
0.18243
-0.04049
0.13980
0.55201
0.12543
-0.39023
-0.49911
-0.04827
-0.53862
0.16079
0.27944
-0.40980
0.47978
-0.09989
-0.73271
0.34494
-0.66065
-0.19152
-0.10265
-0.23138
-0.15839
-0.39853
0.28691
-0.72102
-0.13796
0.26274
0.65685
-0.70823
-0.00049
-0.16211
-0.82367
0.30420
-0.03266
0.13670
-0.09703
0.48267
0.59975
0.24742
0.43040
-0.28353
-0.61528
0.37342
0.57188
0.25014
-0.36586
0.23263
0.23203
-0.29255
0.66716
0.35067
0.45515
0.12940
0.58762
0.16228
0.24132
-0.46694
-0.12421
0.38497
0.61091
-0.05340
-0.36681
0.41161
0.58789
0.20078
-0.55192
0.42100
-0.34072
-1.42532
-0.29039
0.31246
0.40897
-0.00069
0.00497
0.11459
0.21210
0.05294
0.09163
0.23408
0.21129
-0.33523
0.07378
0.27980
0.13356
0.71245
0.53886
-0.31585
-0.63071
0.35381
0.69206
0.10855
0.40425
-0.14067
-0.00081
-0.12534
0.10708
-0.16105
-0.60432
0.31437
-0.23519
-0.09518
-0.27669
0.03040
0.14576
0.65560
0.15468
0.56899
-0.25183
0.11748
0.16339
-0.02118
-0.21413
-0.48671
0.57231
-0.43946
-0.12588
0.47158
0.55178
0.06343
-0.21555
-0.21974
0.17935
0.27827
-0.23927
0.10130
0.01562
0.24806
0.26131
0.14727
0.30435
0.73590
-0.30567
-0.12903
0.78621
-0.94871
-0.29228
-0.48952
-0.28855
0.00272
0.67119
0.36061
0.09079
-0.06561
-0.56611
-0.26591
0.04140
0.08892
-0.65794
-0.29459
0.21117
0.69337
0.32544
0.04734
0.05682
0.32054
-0.59969
0.24946
0.39132
0.36734
0.05231
-0.23372
-0.22414
0.27411
-1.68899
0.47951
0.54014
0.14349
-0.14100
0.16327
0.09874
-0.28644
-0.32926
-0.03957
0.64671
0.23045
0.19157
0.24519
-0.04298
-0.53545
0.14037
0.46664
0.01694
-0.27224
-0.03888
0.06392
-0.03801
0.39064
-0.34536
-0.46857
0.60404
-0.20860
0.31833
-0.33331
-0.89251
0.06400
0.41731
0.08183
0.39279
-0.18053
0.11853
0.02332
0.28657
-0.08547
0.17009
0.06528
-0.13693
0.40771
-0.77739
-0.34093
0.16692
0.34028
0.30247
-0.29569
0.37367
-0.05701
-0.43576
0.29355
0.25660
-0.39160
0.02414
-0.05263
0.17319
0.52374
-0.02336
0.03563
0.32361
0.53299
-0.04566
0.42094
0.37847
0.43573
-0.21676
-0.00133
-0.23511
0.20006
-1.35461
-0.80761
0.65605
0.26659
0.48679
0.34250
0.17340
0.06657
-0.12056
0.02175
-0.40352
-0.48830
-0.43414
0.13466
0.28706
0.38129
0.01531
0.53055
0.54831
0.65652
-0.02980
0.25895
-0.12863
-0.46290
-0.32718
0.05513
0.28468
-0.38266
-0.10334
0.40325
0.45828
0.30904
-0.17400
-0.50031
0.25425
-0.17783
-0.65915
0.09257
0.13796
0.30626
-0.37769
0.44579
-0.51339
0.00209
0.19621
0.48784
0.13935
0.08450
-0.20498
-0.34410
0.76916
0.55323
0.09696
0.29293
0.15228
0.39500
0.13414
-0.09146
-0.05147
-0.47565
0.10906
-0.13942
-0.26350
0.50677
-0.42222
0.14836
-0.17284
0.05800
0.86995
0.38378
0.23692
0.82541
0.12821
0.39746
0.16846
0.02003
0.70439
-0.00615
-0.68067
0.56315
0.00864
-0.44188
0.40329
-0.47109
-0.32269
0.02552
0.03570
0.18957
-0.07498
0.33001
0.31922
0.07744
-0.25319
-0.33628
0.05203
0.48420
0.02316
0.91001
0.08752
0.35250
-0.06440
-0.03071
0.06417
-0.29919
0.70412
0.19255
-0.53573
0.72925
-1.35656
-0.14274
0.30082
0.23238
-0.15825
-0.40059
0.32733
0.40030
0.28279
-0.21881
0.39480
-0.20444
0.16801
-0.37327
-0.06881
-0.98195
0.23781
0.14574
0.39256
-0.61621
-0.17628
-0.24484
0.24948
0.14289
0.07422
-0.53646
0.18750
0.20300
0.17772
0.24136
-0.30505
-2.19796
0.41571
-0.13608
0.19920
0.40672
0.19224
-0.64797
0.76486
0.43476
0.19352
0.18337
0.12408
-0.05510
-0.17542
0.07071
0.13019
0.25640
0.31006
-1.08022
0.76929
0.79383
-0.10676
0.41069
-0.00178
0.71210
-0.01572
0.10966
0.05159
0.48410
-0.06181
0.03072
-0.22554
0.67478
0.34063
0.16234
0.07661
0.12781
-0.22435
0.09072
-0.40538
0.31143
-0.10328
0.53112
0.40774
-0.03482
0.10568
-0.16466
0.32619
-0.03322
0.31214
0.12090
-0.25784
0.17330
0.47209
0.52333
0.54586
0.69483
0.26541
0.62320
0.37026
-0.08018
-0.61990
0.62776
0.02393
0.11072
-0.25873
0.30686
0.09482
-0.40988
-0.66931
0.36480
-0.03496
0.63761
0.14128
0.38228
0.49923
0.19661
0.24565
0.29372
0.11641
0.43697
-0.24516
-2.14942
-0.74668
0.30809
0.04450
0.45740
-0.24761
-0.14991
0.14043
0.58189
-0.19463
-0.54737
0.28739
0.42123
0.39114
0.34015
-0.13484
-0.01831
0.78924
-0.33607
-0.18597
0.16794
-0.42347
0.15711
0.49411
0.58519
-0.24712
0.00852
0.20706
0.48886
0.46460
0.25169
0.44682
-0.15387
0.45884
-0.24976
-0.30517
0.25578
-0.60029
-0.21511
0.32923
-0.36350
0.61899
-0.36597
0.60637
0.44022
0.14734
0.19101
-0.13406
0.04407
-0.06390
-0.22655
0.18303
0.19899
0.81254
0.22129
-0.07261
-0.45272
0.10243
-0.13395
0.59843
0.03132
0.08408
0.07595
-0.43365
0.28027
-1.01153
0.14231
0.39822
0.30312
0.49385
0.26559
0.72616
0.05837
-0.54193
0.46753
0.38520
0.82573
-0.20845
0.19516
-0.00093
0.25657
0.24634
0.10659
0.70634
-0.22139
0.69292
-0.02754
-0.12247
-0.49113
0.00409
0.63976
0.27749
-0.07896
-0.68170
0.44872
0.47360
-0.27386
-0.03398
0.40758
-0.11383
0.75260
0.06355
-0.24991
0.23730
0.47726
0.18494
0.50734
-0.19171
0.04236
0.45827
0.08750
0.69037
0.43276
-0.54079
-0.05473
0.06117
-0.14511
-0.37433
0.01885
-0.10045
-0.04617
-0.93906
-0.04089
-0.09076
0.37803
-0.02406
-0.30275
-0.00165
0.05013
-1.64013
0.15213
0.01956
-0.49387
0.42814
0.25795
0.08527
-0.27105
0.57198
0.20361
0.03629
0.37124
-0.32016
-0.26195
0.63586
0.29368
0.61834
0.89391
0.32841
0.17352
0.44622
-0.74600
0.39166
-0.18605
0.03696
-0.03671
0.26225
0.43046
-0.69341
-0.38547
0.24748
-0.05487
-0.47699
-0.49382
0.24914
0.23735
0.14196
0.12857
-0.10734
0.18337
-1.45707
-0.31827
-0.27180
0.15713
0.44760
0.26009
0.26476
0.22379
0.11909
-1.11787
-0.22560
0.19974
-0.04594
0.06402
0.52179
-0.04464
0.90819
-0.20390
-0.45904
0.63364
0.25000
0.30941
-0.47780
0.50095
0.10919
-0.29057
0.18229
0.26196
-0.31311
0.38641
0.46377
-0.06709
-0.64399
0.47030
-0.12883
0.39728
-0.37161
-0.55955
-0.17777
0.21433
-0.61306
-0.33924
-0.30366
0.30085
0.16314
0.23638
0.72762
0.00916
-0.13111
-0.39716
-0.27197
-0.22387
0.35956
0.02549
0.44956
-0.90859
0.23975
0.66124
0.20117
0.10470
-0.16775
-0.06176
0.06100
0.03873
0.09182
0.63258
-0.25848
-0.71791
-0.03531
0.77122
0.25010
0.16862
0.28679
0.18008
-0.22704
0.71042
0.68164
-0.16720
-0.44734
-1.02885
-0.30982
-0.68327
-0.61042
0.05768
-0.20533
-0.06746
-0.25176
0.58182
-0.03143
0.21833
0.08532
0.64581
-0.07047
-0.10852
0.26730
-0.26922
-0.69913
-0.14367
-0.34622
0.76271
0.11676
0.51925
-0.20998
-0.12954
0.66321
0.36482
0.41219
-0.17508
0.46079
-0.40645
-0.63767
0.11871
-0.19778
-0.02522
0.01180
0.16970
0.68022
-0.17193
-0.18348
0.27045
0.63380
-0.13347
-0.15171
0.40484
-0.71991
0.01433
0.22527
-0.54942
0.07510
-0.27063
0.34567
-0.33071
0.56407
0.39547
0.46796
-0.24173
-0.14036
0.05196
-0.05715
-0.10414
-0.72697
0.19298
0.18553
0.00182
0.30194
0.50872
-0.17095
0.46022
-0.04272
0.30286
-0.01551
-0.26912
0.52482
-0.16558
0.11698
-0.58572
0.51398
0.16304
0.08224
0.07812
-0.39489
-0.50180
-0.16437
0.23195
-0.24766
0.73020
0.10875
-0.16545
-0.57198
0.18148
0.83138
-0.19891
0.37826
0.68817
0.02074
0.49291
0.47464
0.49965
0.09616
0.12579
0.19447
-0.41874
-0.40508
0.06147
0.10854
0.20078
-0.27925
-0.69293
0.44618
0.05081
0.03986
0.02172
0.35755
0.59399
-0.06350
0.58489
0.49982
0.33212
0.25019
0.33732
0.33333
0.20775
-0.30226
-0.31541
0.31355
-0.16162
0.50866
0.48503
0.06203
-0.04164
0.40550
-0.48577
0.33105
0.43695
0.33852
0.32984
0.44117
-0.54631
-0.08495
0.44654
0.29806
-0.01517
0.85068
0.23790
-0.59458
-0.08406
-0.95373
0.11700
0.11249
0.35202
0.33377
0.04223
-0.48215
0.32400
-0.34289
0.53369
0.14695
-0.16764
0.61291
-0.01114
0.47468
0.06865
0.16391
0.46259
-0.12828
0.44582
0.58984
0.30783
0.38127
-0.83739
-0.17459
0.45335
-0.10144
0.11805
-0.14010
-0.03962
-0.32666
-0.27061
-0.14256
0.03354
0.27254
0.17063
0.63603
0.13338
-0.25622
-0.08990
0.03605
0.45758
-0.01261
-0.48277
0.25174
0.22594
0.70780
-0.13927
0.13033
-0.07253
0.50461
0.34256
-0.21547
-0.09899
0.73795
0.33951
0.36567
0.19225
-0.29027
0.03759
-0.40606
0.11511
0.41565
0.09243
0.12872
-0.19010
0.27517
0.40724
0.16581
0.00095
-0.72063
-0.05903
0.29604
-0.05799
0.10354
0.17409
-0.72949
0.10872
0.01803
-0.34520
0.10176
0.45910
-0.02387
0.01268
0.24169
-0.42342
-0.31219
0.47778
0.61458
0.08938
-0.41307
-0.26392
0.11973
-0.36886
-0.49872
0.25880
-1.10456
0.33293
0.51620
0.08911
-0.24812
0.50459
0.15083
0.43982
-0.10868
-0.01431
-0.47463
0.16155
0.07213
0.11031
0.52904
0.12100
0.43371
-0.52875
-0.48516
0.36656
0.47996
-0.32209
0.13296
-0.00855
-0.53787
0.00849
-0.13911
-0.41650
0.20657
0.10901
0.69761
0.27440
0.31933
0.04115
0.34370
0.23406
0.29088
0.20680
0.36600
0.41569
0.22349
0.02899
0.10356
0.01340
0.02826
0.59457
-0.40396
0.44967
0.41480
-0.71774
0.49992
-0.04998
-0.12644
-0.07543
0.30769
0.06159
0.39715
0.39440
-0.04587
-0.06152
-0.23746
-0.10611
0.48046
0.60862
-0.11629
0.40536
0.03966
-0.59433
0.59833
-0.15001
-0.01160
0.32222
0.54764
0.27124
0.23770
-0.42611
-0.20377
0.71691
0.16394
-0.56859
-0.48569
0.13388
0.66950
-0.76765
-0.41831
0.42866
-0.29390
-0.06127
-0.07925
-0.33135
0.25530
-0.59427
0.20614
-0.38040
-0.19440
0.33510
-0.05288
-0.40904
0.68346
-0.35020
-0.41171
-0.25722
0.09613
0.22848
-0.38023
0.49208
0.17629
0.54045
-0.21608
-1.11484
0.66548
0.30126
0.26349
0.25855
0.39308
0.85553
-0.09547
-0.51216
-0.05591
0.14507
0.48801
0.08357
0.25214
0.20379
0.20257
0.56512
-1.06456
0.17122
-0.08150
0.16472
0.24998
0.42270
0.07500
0.02625
0.46390
-0.32657
0.29891
0.36906
0.17513
-0.14313
0.08759
-0.72078
0.35921
0.31024
0.27265
-0.93030
0.78854
-0.62453
0.05293
-0.18779
-0.06692
0.26632
-0.06134
0.04103
0.49206
-0.45921
-0.77834
-1.31047
0.19436
-0.06748
0.03938
0.56172
0.65284
-0.26390
0.28095
0.44822
0.18508
-0.27869
0.01123
0.26528
0.21568
0.65844
-0.20737
0.44094
0.60570
0.05763
0.44402
0.09100
-0.27943
-0.76855
0.33262
0.61022
0.61584
-0.59998
0.34389
0.16621
0.47263
-0.52321
0.19678
0.78196
0.17591
-0.44487
0.02401
-0.07219
0.52727
0.16700
0.60733
-0.84372
0.31572
-0.45715
0.65550
0.46686
0.33951
0.14758
0.17613
-0.83648
-0.10708
-0.67828
-0.41167
0.30884
0.22181
0.84915
-0.08129
0.07138
-0.13144
-0.06235
0.05997
-0.10587
0.58410
0.09038
-0.04748
-0.29084
-1.31118
-0.14528
0.18687
0.43479
0.71974
-0.26177
-0.04655
0.52633
0.31942
-0.13002
0.03088
-0.18660
-0.11563
-0.80140
-0.35346
0.08009
0.20853
0.33653
-0.16535
0.00936
0.72717
0.28502
-0.17081
0.55248
-0.08517
0.76187
-0.00844
0.24405
-0.39652
-0.37025
0.21302
-0.29481
-0.47128
-0.08123
0.39683
0.03358
0.09256
-0.68062
0.39335
-0.04647
0.14685
0.20772
0.18490
0.20215
0.20285
0.11630
0.05325
0.10386
0.15509
0.11648
0.09647
0.13665
0.15864
0.01340
0.16886
0.06835
0.10722
0.05618
0.14820
0.05145
0.16232
0.15284
0.17082
0.11199
0.16753
0.18532
0.19626
0.02443
0.08992
0.06103
0.19035
0.00580
0.09044
0.04166
0.11761
0.13230
0.07586
0.16817
0.10948
0.06334
0.18313
0.09267
0.17529
0.05766
0.07168
0.02444
0.18479
0.05745
0.18186
0.00980
0.11309
0.00121
0.11129
0.11164
0.01735
0.12402
0.00029
0.04956
0.08470
0.09646
0.19486
0.08931
0.01515
0.14808
0.12690
0.18632
0.11564
0.00503
0.12305
0.09096
0.11178
0.18521
0.09928
0.05627
0.21112
0.16320
0.06830
0.05091
0.20150
0.01352
0.15809
0.06888
0.10223
0.08782
0.17038
0.07832
0.00161
0.18635
0.10436
0.05180
0.10859
0.12525
0.16737
0.14801
0.19606
0.06766
0.11146
0.16889
0.10016
0.18802
0.11262
0.13599
0.04922
0.18144
0.10500
0.19830
0.06070
0.15491
0.11878
0.12112
0.18681
0.04127
0.03465
0.19032
0.11084
0.07770
0.00555
0.00992
0.08688
0.19343
0.16110
0.12390
0.07227
0.20682
0.17478
0.17093
0.04716
0.20405
0.08749
0.17844
0.11869
0.11827
0.07237
0.04090
-0.00623
0.14109
0.03013
0.05616
0.19039
-0.04577
0.12263
0.13871
0.06615
-0.04242
0.19826
-0.21217
0.14703
-0.64541
-0.46472
0.38356
0.12762
0.54559
0.07866
-0.17193
-0.44467
0.10829
0.16640
0.23614
-0.29107
0.13958
0.68622
-0.18898
-0.37007
0.35619
-0.30732
-0.73830
0.01298
-0.13033
0.59292
-1.03835
0.23567
-0.10559
0.46337
0.08524
0.52558
0.41930
0.65374
0.69653
-0.13506
-0.86595
-0.45088
0.51169
0.13131
0.32105
-0.29958
0.78898
0.23560
0.59412
0.05720
-0.53903
-0.67161
0.48824
-0.02471
0.16210
-0.32494
0.09153
-0.96112
0.12235
-0.91953
0.46568
-0.70475
1.40230
0.32127
-0.80451
0.36499
0.22657
-0.42520
0.00837
0.05236
-0.73790
0.00092
0.06672
-0.36976
0.44364
0.57450
-0.39955
-0.05162
0.08159
0.22210
0.35727
-0.35124
-1.03270
0.39668
0.24418
-0.39843
-0.24134
0.47985
0.96226
0.44724
0.92114
0.15317
-0.68609
-0.50388
0.01453
0.54653
0.18349
-0.30962
0.65236
-0.29957
0.69552
0.39185
0.52147
0.42182
0.22890
0.23040
0.30261
-0.98984
0.57115
0.56257
-0.17050
-0.01894
-0.34981
-0.10190
-0.37461
-0.91485
0.58177
-0.57337
-0.65536
-0.08456
-0.18611
-0.04804
0.68129
0.27616
0.13535
-0.41202
0.65402
-0.80773
-0.33351
0.19736
0.02031
0.21322
0.67903
-0.31486
0.37835
0.44866
0.06363
0.45854
0.02746
-0.24586
0.31492
0.53519
0.45885
0.16729
-0.37039
0.47911
-0.98198
-0.42659
-0.30117
-0.06904
-0.06972
0.21437
0.50319
-0.42834
0.29117
0.40623
-0.58736
0.52227
0.48508
-0.39665
-0.64061
-0.84461
-0.14321
-0.33273
0.35372
-1.39143
0.28983
0.65273
-0.99998
0.08193
0.57905
-0.15142
-1.28901
0.02405
0.12033
0.14914
0.67163
0.69779
0.31500
-0.12369
0.45714
0.35473
0.12640
-0.51038
-0.31866
0.67242
0.45657
0.45261
-0.46080
-0.11255
0.11093
-0.65234
0.19657
-0.01161
0.09780
-0.05914
-0.45823
-0.44063
-0.20658
0.09894
-0.19403
0.07102
0.03235
0.17690
-0.19012
-0.01145
0.30002
0.03815
-0.16750
-0.39185
0.56159
0.56998
-0.78056
-1.11087
0.15952
0.41557
0.54750
-1.11159
0.09979
0.39616
0.39212
-0.00423
-0.15210
-0.29314
0.10183
-0.50675
-0.72074
-0.00785
-0.07381
-0.17608
0.40422
-0.33400
-0.24009
-0.01422
-0.00168
-0.10156
-0.18424
-0.21702
0.15972
-0.01571
-0.07705
-0.09745
-0.20684
-0.10533
-0.22502
-0.19549
0.21266
-0.01652
-0.62293
0.50203
0.03634
-1.19762
0.05470
0.01555
-0.51031
-0.28502
0.01663
0.38947
-0.13598
0.19853
0.29159
-0.31605
-0.21077
0.43379
0.13660
-0.99412
0.31570
0.58354
-0.93908
0.30987
0.13558
-0.19276
-0.05171
0.45330
0.70241
-0.00708
0.09705
-0.02618
0.43878
0.34523
0.45961
0.19209
0.21255
0.13017
-0.54809
0.41841
0.57776
0.42973
0.33079
-0.84839
0.69209
0.09783
0.06038
-0.04920
0.60650
0.41914
0.37159
0.35771
0.36589
0.53847
0.95159
0.05692
-0.04706
0.72359
0.77056
-0.12889
0.38249
0.67173
0.48562
-0.41402
0.39174
0.14437
-0.75572
0.26830
-1.32010
-0.49588
0.00208
0.44313
-0.17134
-0.56449
0.23353
-0.41428
-0.52871
0.63221
0.16319
-0.26205
0.11424
0.04269
0.25919
-0.44580
0.36115
0.12772
0.53732
0.01860
-0.00384
0.24414
0.50933
0.27410
-0.06904
-1.26795
-0.14111
0.14820
-1.07490
0.38847
-0.59582
-0.16181
-0.09313
-0.14631
-0.63200
0.40172
0.40540
-0.97462
0.27294
-0.26600
0.65968
0.71564
0.13990
0.46757
0.20065
0.03239
0.46202
-0.10812
-0.33101
0.20484
0.24449
-0.68609
0.02748
0.65955
-1.04548
-0.40334
-0.31951
-0.67087
-0.34608
-0.08626
0.17567
-0.57962
0.10699
0.26722
0.25040
0.47795
0.27708
-0.55281
0.73352
0.20121
0.27274
0.81884
0.51880
0.76437
0.27615
-0.21673
-0.75997
0.46910
0.17783
-0.55515
0.39344
-0.70290
-0.25433
0.69323
0.43117
-0.57447
0.63547
0.86310
-0.53739
0.61498
-0.26542
0.15566
-0.35029
0.24030
-0.28604
-0.82178
0.00225
0.27130
0.03801
0.25357
-0.04119
-0.14083
0.26177
0.30372
0.11913
-0.52177
0.04392
-0.03953
0.19748
-0.16808
-0.23752
0.00472
-0.76057
-0.19569
0.27483
-0.02644
-0.29937
0.69726
0.02094
-0.12115
-0.92348
0.01663
0.22537
-0.50322
-0.80395
0.09632
0.14850
0.65040
-0.11219
0.54909
-0.25830
0.55028
-0.59651
0.24616
0.63360
0.91868
0.66275
0.32611
-0.35283
-0.01100
0.06884
0.00462
0.23443
-0.14627
0.15462
-1.02632
-0.22801
0.43440
0.07743
-0.00638
0.69942
0.02108
-0.18709
-0.34855
0.09944
0.62563
-0.03985
0.28482
0.25598
0.25714
-0.24838
-0.54710
-0.58484
-0.03887
-0.30627
0.19836
-0.31802
-0.13439
0.06581
-0.34165
-0.33238
-0.37884
0.28387
0.27659
0.39306
-0.44452
-0.05923
-0.70461
-0.58064
0.50246
-0.13243
-0.61959
0.66794
0.05801
0.70423
0.18120
-0.38959
0.29267
-0.14393
-0.35995
0.32075
0.37878
0.37242
-0.07986
-0.85098
0.11995
0.58154
0.57153
0.16238
-0.13068
-0.55099
0.66140
-0.17071
0.19204
-0.14667
0.61651
-0.73545
-0.08198
-0.43387
-0.25869
-0.03155
-0.05100
-0.87357
0.29276
0.21583
0.14088
0.44961
0.02659
-0.35196
-0.18932
0.07582
0.04717
-0.07904
-0.71176
-0.06197
-0.10525
-0.59494
0.48230
-0.58014
0.33801
-0.32827
0.48679
0.71031
0.24945
0.57579
0.16810
0.13649
-0.98876
0.21468
0.22283
0.74060
0.62408
-0.13165
-0.07791
-0.15868
-0.54754
-0.30961
-0.66513
0.26605
-0.44849
-0.43417
0.03261
-0.24795
-0.29136
-0.76726
-1.06129
0.13587
-0.00008
-0.08762
-0.83616
-0.93956
-0.19015
-0.38087
0.10251
-0.53085
-0.82527
0.13597
-0.38172
0.16281
0.04452
-0.06024
-0.05357
0.04708
-0.47464
-0.24355
0.02269
0.47798
0.06899
-0.03307
0.44095
0.09178
0.10605
0.30554
0.46481
-0.29486
-0.09565
-0.02292
0.31424
0.65349
0.33064
0.13839
0.27282
0.30767
0.03691
-0.17236
-0.78939
0.26159
-0.23791
-0.54354
0.34704
0.03383
0.29094
0.22806
0.42739
0.18746
0.16479
-0.33670
-0.37680
0.11794
0.37974
0.33822
0.08727
0.01337
0.33404
-0.15396
0.35871
0.25581
-0.02820
-0.46543
0.15466
-0.85157
-0.09239
0.56677
0.42885
0.43591
0.04428
0.20239
0.18212
0.08014
-0.05223
0.27165
0.40384
0.21205
-0.03057
-0.13649
-0.09168
0.39019
0.09890
0.34800
-0.03732
-0.33961
0.41123
-0.73906
-0.11328
-0.32844
-0.72306
-0.42459
-0.35847
0.14301
-0.00029
-0.28412
-0.59157
-0.39252
-0.62930
-0.80431
0.86441
0.52782
-0.97023
-1.19134
-0.46693
-1.06460
-0.91006
0.32146
-0.17937
-0.79301
0.16659
-1.46522
-1.05499
0.43638
-0.69982
0.42137
0.47818
-0.18763
0.12512
-0.79551
0.14117
-0.27647
-0.36279
0.07948
0.08921
-0.19455
-0.10221
-0.28793
0.13390
0.01087
-0.67297
-0.56160
-0.81844
-0.22362
-1.40615
-0.26176
0.44296
-0.67339
0.56781
0.36552
-0.02589
0.23459
0.16981
0.25204
-1.67692
-0.16289
-0.14730
0.65709
-0.46433
-0.01622
-0.35526
-0.51591
-0.80575
-0.87404
-0.36465
-0.25196
0.02576
-0.45850
-0.87929
-0.60625
0.20033
-1.33289
0.07003
-0.17212
0.15377
-0.04881
-1.11380
0.40873
-0.45859
-0.66806
-0.43562
-0.39114
0.03016
0.20694
-0.34403
-0.69186
0.34704
-0.22547
0.27293
0.79203
0.37661
0.62471
0.35076
0.47483
0.04314
-0.15832
-0.63800
-1.12818
-0.00957
-0.11016
-0.50886
-0.29297
-0.06091
0.29305
-0.03854
0.12108
-0.48388
-0.20026
-0.08334
0.05205
-1.09271
0.41142
0.63705
0.31443
-0.01041
0.03859
-0.01400
-0.45626
-0.08146
0.62775
-0.03738
-0.64517
0.19008
0.54117
-0.58649
0.17799
-0.70698
0.35012
0.61899
-0.39476
-0.58488
0.46563
-0.39217
0.26549
-0.87741
0.21748
-0.23013
-0.76680
0.18251
0.58636
0.47799
0.19562
-1.15565
0.16829
0.57906
-0.53912
0.03952
0.65394
-0.13178
-0.00895
0.49530
0.03873
0.03650
0.04462
-0.02159
0.50960
-0.64754
0.83504
0.27915
0.05224
-0.20024
0.37306
0.26670
0.10932
0.04323
0.48575
-0.72808
0.96911
0.19818
0.53588
0.22203
-0.07138
0.44071
0.00022
-0.18733
-0.57347
0.12357
-0.71333
0.70820
-0.05532
0.94566
0.56313
0.10936
0.57193
-0.21549
-0.68694
0.35423
-0.66919
-0.24992
-0.17762
-0.29170
0.19182
-0.89939
0.23912
-0.11119
-0.57753
0.63709
-0.63784
0.06076
0.49971
1.06496
-0.41832
-0.30806
0.72556
0.36705
0.20847
0.21402
-0.22851
-0.75146
0.21094
0.13303
-0.03647
-0.06747
-0.63223
-0.11277
0.01861
-0.39288
0.29104
-1.07294
0.19641
-0.10698
0.20098
-0.04725
0.34924
-0.04780
-0.16539
0.10121
0.43362
-0.69211
0.27245
-0.14426
0.46964
-0.97006
-0.87531
-0.74194
-0.15541
-0.14947
-0.35124
-0.09423
-0.55600
-0.38128
-0.34996
-1.10206
-1.19383
-1.24862
-0.01775
0.32273
-0.28724
0.37120
0.45981
-0.82095
0.17252
-0.28974
-0.28725
-0.47234
-0.22705
-0.28164
0.19014
-0.46680
-0.18172
-0.59143
0.67398
0.10882
-0.30814
-0.69212
-0.23927
0.10127
-0.04547
-0.63915
-0.46518
0.10941
0.41552
0.13793
-0.24322
-0.47009
0.15873
-0.80314
0.25777
-0.61101
0.02093
-0.17339
0.47963
-0.09885
-0.74619
-0.19834
0.41820
0.17186
-0.93898
0.04605
-0.24043
0.05355
-1.04161
-0.41005
-0.20090
-0.12933
-0.07446
0.14834
-1.30728
-1.19151
-1.45466
0.40688
-0.26635
-0.73228
-0.19792
-0.13534
0.25679
0.14577
0.21361
0.10584
-1.37919
-0.11095
-0.29274
-0.35850
-1.07103
-0.10037
0.05663
-0.17604
-0.06033
0.05507
0.66004
-1.10849
-0.57904
0.26303
-0.21795
-0.50633
-0.07751
-0.81792
0.11659
0.13096
0.11479
-0.02175
0.35228
-0.28758
0.21716
-0.00291
0.16688
0.29662
0.36089
-0.45613
-0.26951
0.45944
-0.31856
0.07301
0.22142
0.35428
-0.10946
0.32232
-0.66168
0.20197
0.33366
-0.52306
0.08643
0.52563
0.44308
-0.33150
0.85736
0.23537
-0.36869
-0.66422
0.38163
-0.01850
-0.68951
-0.18270
0.29876
-0.35315
-0.26758
-0.07759
-0.41271
0.29034
-0.40865
0.60136
-0.15891
0.05088
0.27226
0.03564
0.16700
0.33442
0.07601
-0.16265
-0.07499
-0.25429
0.00851
-0.17390
-0.05267
-0.55164
0.16973
-0.65793
-0.27937
0.03623
-0.50607
0.09392
-0.01372
0.45049
0.53044
0.68742
0.56062
-0.14341
0.11781
-0.80579
0.46369
0.31145
0.00209
0.46174
0.37472
0.02538
0.40273
0.47804
-0.25896
-0.07830
-0.32273
-0.24345
-0.69318
-0.83235
-0.61277
0.75812
-0.33956
-0.57787
0.58963
0.46124
0.32587
0.20061
0.66624
0.34024
-1.32627
-0.14827
0.10395
0.36063
-0.61268
0.38097
-1.04366
0.19224
-0.24294
-0.02663
-0.10736
-0.32050
-0.08797
0.09932
-0.06923
0.44316
0.37862
0.18954
0.52918
-0.42322
0.12907
-0.44132
-0.10984
-0.58275
0.08127
-0.78700
-0.37655
0.16917
-0.32823
-0.24274
0.20648
0.08736
0.52882
0.40745
0.11174
-0.30107
0.77444
-0.00259
-0.41146
-0.97252
-0.67243
0.60140
0.32397
-1.04651
-0.37525
-0.37491
0.37017
0.05307
0.67301
0.23839
-0.07687
0.08410
0.89726
-1.09124
-0.08495
0.42450
-0.96990
0.55482
0.54802
0.15985
0.47715
0.51184
-0.03036
0.02608
0.64136
0.18470
0.17143
0.15214
0.41455
-0.58242
-0.89240
0.02918
-0.85260
0.15331
0.39661
0.01957
-0.43121
0.22560
0.27254
-1.03562
0.19941
0.13150
0.25242
0.30345
-1.14922
-1.02147
0.11822
0.23783
0.13767
-0.09353
0.13193
-0.95444
-0.37161
0.22098
-0.07603
0.01835
-0.04751
0.02349
-0.10985
0.04101
0.23454
-0.83794
-1.24364
-0.48672
-0.46826
-0.28335
-0.83742
-0.59156
0.41694
-0.29271
-0.58625
-0.60099
0.80891
-0.20353
0.34972
-0.44915
-1.08162
-0.67080
0.02402
0.04589
0.21612
-0.11233
-0.85788
-0.03817
-0.00654
-0.33025
0.05203
0.54209
-0.05233
0.55677
0.51348
-0.21753
-0.41611
0.18433
-0.39365
0.03940
-0.11049
-0.18672
-1.07487
-0.85593
0.45348
0.01527
0.22343
-0.45617
0.36434
0.22000
-0.26482
-0.26055
-0.70504
0.40610
-0.35237
0.03891
-0.81571
-0.53878
-0.01378
-0.12686
-0.58240
0.24369
-0.11592
-0.14418
0.23917
0.13568
0.15890
0.37483
-0.31635
0.45673
-0.49455
-0.38133
0.10417
-0.38969
0.28776
0.00858
0.20447
0.27451
0.25139
-0.28974
-1.15278
-0.62858
0.54562
-0.69246
-0.71725
-0.60986
0.42548
-1.00972
-0.50108
-0.29368
0.45379
0.50445
-0.00891
-0.54355
-0.81864
-0.23404
-0.05919
0.18734
0.41133
0.43848
0.44451
-1.40356
-0.03679
-0.18387
-0.20166
0.15184
-0.66595
-1.68306
0.56152
0.01961
0.01881
0.60306
0.51513
-0.36153
-0.07344
-0.19441
-0.21643
-0.53102
0.06639
-1.00941
-0.31757
0.01461
-1.07856
-0.11670
0.31948
-0.61560
-0.24996
-0.08429
0.47030
-0.09801
-0.13979
0.33401
-0.75364
-0.30738
0.02839
0.00071
-0.07993
-0.13366
0.00728
-0.02365
-1.02193
0.75220
-0.51258
0.05916
-0.04340
-0.90748
-1.20703
-0.15592
-1.22687
0.23303
0.39941
-1.08535
0.29364
0.31966
0.52454
-0.09811
0.17375
-0.86130
-0.01590
0.41360
-0.66473
-0.70066
0.30055
0.19230
-0.09769
0.41954
-0.15652
-0.11066
0.26748
0.04792
-1.07263
-0.35141
0.25477
-0.30117
0.24797
-0.31965
0.44763
-0.28320
-0.16369
0.10424
0.36620
0.38424
-0.32254
0.83448
0.08954
-0.06591
0.10003
0.03970
0.22552
-0.01959
0.42453
0.42879
0.00730
-0.32932
0.57092
0.44733
-0.31805
0.40401
0.52692
0.66265
0.45294
0.21758
-0.30299
0.31905
0.28169
0.13666
0.56413
0.12313
-0.28309
0.38855
-0.70508
0.34301
0.21341
0.09593
-0.21555
0.30270
0.58277
-0.07192
0.58933
0.26335
-0.38350
-0.67338
-0.04765
-1.05678
0.28327
0.22103
-0.69619
0.17465
0.22138
-0.08648
-0.15241
-0.40361
-0.02187
-0.05458
-0.39715
0.42986
0.54911
-1.59709
-0.39162
0.20169
0.10919
-0.46529
0.21357
-0.34672
0.52035
0.24168
0.52881
-0.12738
0.18112
-0.10108
-0.09053
-0.15775
-0.76760
-0.13040
-0.10691
0.20879
-0.02678
0.39827
-0.08316
-0.44838
0.78375
0.00240
-0.66487
0.01972
-1.21303
0.16688
-0.29353
0.67035
0.13306
-0.43819
-1.11463
0.15631
-0.37510
-0.17446
0.45704
-0.43956
-1.44333
-0.62167
0.65145
0.20498
0.17523
0.11241
0.38584
0.13188
0.52393
-0.13406
-0.79518
0.05951
0.44661
-0.01108
-1.72417
0.46022
0.10617
-0.57610
0.35206
-0.60716
-0.00514
0.49201
0.51867
0.47660
0.07410
0.43229
-0.49247
0.34461
0.08863
0.26880
-0.30043
-0.14968
0.58154
0.03129
0.27208
-0.27140
-0.06708
-0.46966
0.57663
0.38980
-0.23045
0.37040
0.12308
0.42927
-0.10158
-0.22971
-0.87044
0.28990
0.13553
-0.05983
-0.36887
-0.14044
-0.97037
0.46877
0.25246
-0.10094
0.37571
0.56719
-1.26791
0.04392
0.10924
0.23192
0.35102
0.34734
0.31108
0.61624
0.12906
-0.34758
0.06581
-0.16852
0.35470
0.29991
-1.44996
-0.97120
0.62147
0.23515
0.32457
0.37887
0.03543
0.50275
-0.21186
-0.25082
0.37571
0.36630
0.41045
0.45333
0.33139
0.09371
0.56663
0.37421
0.15106
-0.84946
-0.09785
0.17256
0.43706
-0.14034
-0.08123
0.02365
0.30740
0.50924
-0.31023
-0.59834
-0.27627
0.33414
-0.00821
-0.99882
0.26886
-0.12973
0.16969
-0.39189
-0.20043
0.04813
0.12590
0.38828
-1.66644
0.59529
0.47468
-0.26592
0.09064
0.77515
-0.02092
0.13863
0.41769
0.06507
0.35491
0.40755
-1.13074
0.16844
0.16520
0.12726
-0.20583
-0.39181
-0.04441
-0.56268
0.17518
-0.19060
-0.84853
0.29210
0.13892
0.51570
0.09813
0.49082
-0.25521
0.62708
0.74335
0.10464
0.12633
0.15633
-0.14134
-1.60077
0.46873
-0.22041
-0.30049
0.20310
0.19814
0.75157
-0.87022
0.15946
0.16927
-0.55123
0.16565
-0.45623
-0.18881
-0.55843
-0.13868
0.48134
-0.95164
0.12711
-0.21318
-0.23767
0.12516
-0.09861
-0.48496
-0.89413
-0.14154
-0.54354
-0.53641
-0.06620
-0.18507
-0.12755
-0.48714
0.47069
0.48670
0.78601
-0.10948
0.21276
-0.50717
0.89326
-0.22123
0.23453
-0.16945
-0.30507
-0.21819
-0.56108
-0.51586
-0.21723
-0.09462
-1.16170
0.12588
0.15980
-0.07790
-0.17639
0.46819
0.03687
0.36191
-0.06595
-0.92759
0.11251
-0.90327
0.49416
-0.43523
0.54769
-0.50745
0.50905
-0.69925
0.48758
0.55854
-0.11339
0.51854
-0.36824
-1.17351
0.25407
0.13324
0.31536
0.12199
0.31856
-0.46212
0.19358
-0.03093
-0.08725
0.17116
-0.11830
0.35752
0.13600
0.07714
0.41722
-0.17578
0.00437
-0.06895
-0.10858
-0.07233
0.48067
0.18325
0.38730
-0.04860
0.07213
0.28897
0.00014
-0.38886
-0.05896
0.17650
0.02552
-0.01626
0.24816
0.28113
-0.57095
0.18726
-0.45528
-1.46573
-0.34631
-0.26551
-0.62694
-0.61327
-0.92303
0.65166
-0.30116
0.26275
0.32608
-0.12368
-0.32284
0.44767
-0.99127
0.36040
-0.00140
0.25009
0.37325
-1.24263
0.20033
0.80013
0.59995
-0.04544
-0.83802
-0.37169
0.66754
-0.18378
0.46817
0.47463
0.41577
0.48594
0.08221
0.51019
0.08681
0.22156
0.06191
0.43249
0.40978
0.50684
0.36570
-0.60490
0.43929
0.26259
-0.95387
0.53265
0.47963
-0.27024
0.07237
0.86299
-0.30082
0.10585
0.13771
-0.30537
0.08654
-0.25648
0.50217
0.45438
-0.27832
0.08734
-0.66778
0.06733
0.11949
0.11284
-0.24798
-0.24547
-0.27830
-0.27304
-0.24899
-0.27182
-0.24614
0.08036
-0.20879
-0.67123
-0.26697
-0.72535
0.15933
0.04152
0.09623
-0.23873
0.44317
-0.61378
-0.59042
0.10102
-0.25926
-0.32353
0.34856
-0.02229
0.42344
0.33646
-0.34264
0.29286
-0.94265
-0.66765
-0.92278
-0.61506
-0.46313
-0.73277
0.10571
-0.62389
-0.72395
-0.34271
0.14072
-0.94589
0.57160
0.56896
-0.77026
-0.51518
0.71492
-0.61652
-0.61558
0.53606
-0.77114
-0.19133
-0.65934
-0.15643
-0.12158
-0.27622
0.50228
0.05145
-0.06498
0.03140
-0.38003
-0.75346
0.62308
0.37387
-0.24947
0.45544
0.09884
0.09710
0.31171
-0.00175
-0.14923
0.38375
0.21477
0.30372
-0.01409
-0.39124
0.58127
0.00276
0.02355
-0.05054
-0.03867
0.64578
0.23430
0.01690
-0.21270
-0.84224
0.20894
-0.64773
-0.20028
-0.00369
-0.84930
0.19675
0.49147
-0.44874
-0.65393
0.61251
0.60738
0.47068
0.22493
0.53586
0.42740
0.53157
-0.03990
0.46984
0.20626
-0.45347
0.36067
-0.21077
-0.53778
0.27945
0.36217
0.46873
0.09018
0.55478
-0.10624
0.22487
-0.03954
0.26946
0.13498
0.47251
-0.68423
-0.23304
0.51609
0.60401
0.02976
-0.01991
0.20856
0.77440
0.26383
-1.17138
-0.30013
0.28960
0.11520
0.53102
-0.18615
-0.13733
-0.28474
