0.36919
0.03436
-0.12839
-0.58439
-0.20148
0.57699
-0.75742
0.68697
0.26067
0.13960
0.28300
0.10597
-0.12494
0.62900
0.38143
0.21067
0.53650
0.10973
0.23275
-0.20130
0.66881
0.66872
-0.10903
0.09120
0.02246
-0.33533
-0.70888
0.02499
-0.18998
-0.67909
-0.10253
0.07886
0.05674
0.20840
-0.36952
0.78112
0.69148
-1.28505
0.34178
-0.49991
0.17770
-0.21007
-0.06585
-0.04591
-0.31861
0.35136
0.52168
0.40447
0.67622
0.48014
-0.32480
0.29467
0.41968
0.62555
0.22749
-0.43022
-0.74005
-1.11562
0.30184
-0.36500
-0.50672
-0.05274
0.43117
0.14555
-0.17937
0.04876
0.23021
0.92548
-0.30061
0.54653
0.50789
0.50243
0.13826
-0.46588
-0.01316
0.45836
-0.31610
-0.21193
-0.37031
0.26190
-0.37492
-0.01566
0.02866
0.55771
0.81513
0.84988
-0.39369
0.18286
0.48778
0.38817
0.08696
-0.14383
-0.12140
0.01133
0.35592
-0.07407
-0.05426
0.35124
-0.22104
0.03894
0.64288
0.22734
0.08035
-0.18148
-0.14650
-0.21629
0.32253
0.50942
0.48080
0.20989
-1.22605
-0.48036
-0.39436
-0.11589
0.14684
0.23856
0.09102
-0.10345
-0.01249
0.43877
0.16404
-0.83223
-0.53190
-0.24229
0.52486
0.03904
-0.63065
-0.48946
0.71365
-0.01339
0.12097
0.32134
-0.09058
0.11731
0.32616
0.27649
0.24870
-0.01804
0.34677
0.34350
0.47973
-0.16588
0.26757
0.25597
-0.48497
-0.01729
-0.18856
0.38394
0.13427
0.02247
0.23101
-0.15803
0.14787
0.32035
-0.72372
-0.59206
0.23292
0.61777
-0.15448
0.43089
-0.05057
-0.55950
0.24582
0.15607
-0.19340
-0.37474
0.31296
0.12499
-0.00192
-0.33549
0.65841
0.93420
0.63018
-0.68358
-0.20649
-0.49051
-0.61665
-0.66619
0.33510
0.10480
-0.56450
-0.35847
0.37337
0.67374
0.32497
-0.04512
-0.08123
0.00583
0.48545
-0.12318
0.38124
0.06484
0.16501
-0.55135
-0.02516
-0.23591
0.20265
-0.72737
0.43110
0.36530
-0.18948
-0.78648
0.84639
0.46179
0.16075
0.05705
0.10592
-0.30247
0.24606
-0.49239
0.04599
0.22986
0.22340
-0.30608
-0.19294
0.53733
-0.50700
-0.22835
0.36445
0.17058
-0.07003
-0.03312
0.54097
0.10264
0.39950
0.56171
0.15205
0.02548
0.02890
-0.51609
-0.19400
-0.28615
-0.42668
-0.40440
0.24197
-0.10087
-0.01213
0.51226
0.33759
0.45763
-0.11587
0.01089
0.11232
-0.44264
0.05544
-0.32284
-0.17625
-0.18854
0.16423
-0.54330
0.03182
0.02268
0.05978
-0.50020
0.37299
-0.13210
-0.35488
-0.01766
0.12192
0.27884
-0.10569
0.06875
0.43014
0.46749
-0.15420
0.10158
-0.39133
-0.28571
-0.53142
-0.13929
0.09469
0.83928
0.42065
0.32447
0.59859
-0.01474
-1.03772
-0.01930
-1.05261
0.54958
0.36850
0.57391
0.67129
-0.19413
-0.19303
-0.51735
0.05243
0.06401
0.54381
0.10992
-0.44649
-0.37892
-0.18690
-1.11736
0.07951
0.37797
-0.33845
0.31175
-0.08087
-0.80132
-0.36688
-0.40338
-0.15835
-0.21041
-0.29651
-0.04848
-0.44927
0.17199
-0.97136
-0.10975
0.30614
0.44619
-0.70813
-0.04809
-0.11066
-0.86784
0.33216
0.06877
0.19182
-0.03449
0.44205
0.50646
0.14641
0.26587
-0.31444
-0.64330
0.15760
0.52566
0.16480
-0.09994
0.36123
0.18781
0.05052
0.68062
0.22374
0.49969
0.16308
0.56302
0.06784
0.20099
-0.46954
-0.06982
0.33699
0.55881
-0.03676
-0.49494
0.41989
0.47735
0.08031
-0.36638
0.48911
-0.22462
-1.09221
-0.09574
0.32875
0.39843
0.07861
0.06784
0.19312
0.19488
0.04534
0.14623
0.18066
0.15136
-0.19485
0.16371
0.36847
0.07649
0.19023
0.55619
-0.43344
-0.39020
0.32819
0.69614
0.17087
0.34601
-0.20513
0.00564
-0.06768
0.05803
-0.06826
-0.66765
0.05667
-0.17438
0.19530
-0.36912
0.05011
0.17546
0.77775
0.18311
0.54711
-0.44359
0.04041
0.00395
0.03778
0.29928
-0.80484
0.59251
-0.40317
0.04867
0.42946
0.20487
0.52513
0.04089
-0.00877
-0.15276
0.18263
0.14627
-0.18254
0.26639
-0.15235
0.05599
-0.05191
-0.02915
0.72281
-0.41184
-0.02234
0.62583
-0.85095
-0.49820
-0.49787
-0.59677
-0.07378
0.74113
0.51300
0.15673
-0.04535
-0.09449
0.42396
0.06089
0.17473
-0.57273
-0.38531
0.19695
0.71499
0.26831
0.04014
-0.00358
0.31557
-0.51178
0.42688
0.41344
0.32717
0.07726
-0.16429
-0.10875
0.22326
-1.68257
0.30842
0.48804
0.22772
-0.17286
-1.29224
0.02081
-0.60904
-0.37105
0.01130
0.53001
0.34506
0.03436
0.31014
0.07594
-0.35198
0.26308
0.47622
0.24968
-0.17607
0.16996
0.22182
-0.12059
0.33296
-0.58194
-0.40135
0.28432
-0.40013
0.39901
-0.50811
-0.75053
0.30366
0.42342
0.06681
-0.01433
-0.34997
0.01549
0.30706
0.21508
-0.00592
0.31124
0.12809
-0.13212
0.42511
-0.75885
-0.57798
0.45212
0.45783
-0.38393
0.32406
-0.00211
-0.40987
0.17219
0.36198
-0.13984
-0.15203
0.03943
0.52209
0.50917
-0.03203
-0.04543
0.28392
0.60768
-0.05904
0.15868
0.36922
0.36158
-0.22160
0.05770
0.13562
0.19843
-1.48982
-0.86393
0.44585
0.22208
0.50779
0.51878
0.27549
0.33046
-0.00322
0.17594
-0.30337
-0.47505
-0.55839
0.33226
0.10363
0.34598
-0.01261
0.33749
0.17570
0.62826
0.07292
0.20657
0.04625
-0.19926
-0.22788
-0.03720
0.13834
-0.34338
0.26114
0.40382
0.49448
0.26575
-0.10513
0.25475
-0.57830
0.25799
-0.14782
-0.53310
0.03982
0.06948
-0.26062
0.44918
-0.33616
0.08856
0.06346
0.45160
0.41151
0.08645
0.31543
-0.32314
0.78145
0.08056
-0.06620
0.48100
0.10244
0.37138
0.24907
-0.42395
0.11646
-0.60365
0.22640
0.00200
-0.18041
0.44603
-0.00667
0.44748
-0.14529
-0.01651
0.79258
0.02126
0.57117
0.16707
0.82468
0.20103
0.49825
0.09920
0.10225
0.03184
0.74040
0.03742
-0.78128
0.56567
-0.14971
-0.34723
0.57785
-0.41910
-0.09092
0.02437
0.00331
0.09196
0.11145
0.15619
0.17946
0.15789
-0.29418
-0.33737
0.05468
0.28912
0.28243
0.88421
0.14985
0.36973
-0.04713
-0.05724
-0.03048
-0.47869
0.55168
0.17392
-0.63721
0.59490
-0.69034
-0.20576
0.28606
0.43965
-0.28947
-0.09841
0.24974
0.42125
0.16661
-0.19379
0.36461
-0.18464
0.13049
-0.63218
-0.08958
-0.40770
0.26892
-0.11678
0.31207
-0.52436
-0.22486
-0.25860
0.28133
0.13085
0.12343
-0.58228
0.20660
0.08787
0.18952
0.26356
-0.39834
-2.21463
0.39768
-0.02048
0.26669
0.48177
0.28779
-0.60501
0.73982
0.45094
0.32467
0.26857
0.34654
-0.07594
0.04786
0.19260
0.14849
0.25870
0.20909
-1.40718
0.69549
0.89834
0.37722
0.43509
0.71922
-0.12418
0.13506
-0.17446
0.44452
-0.00908
-0.08307
0.03933
0.61347
0.43020
0.18399
0.01667
0.15411
-0.34286
0.01791
-0.39040
0.28984
-0.19135
0.50742
0.42555
0.41422
-0.12858
0.19313
-0.26668
0.33440
-0.05000
0.38268
0.02082
-0.24068
0.23627
0.64580
0.54415
0.42083
0.65773
0.26608
0.62263
0.38484
0.04217
-0.44531
0.69008
-0.18083
0.12995
-0.43008
0.22759
0.24753
-0.21289
-1.03367
0.37352
0.01808
0.42600
0.17780
0.42413
0.48606
0.06331
0.15861
0.23566
0.18489
0.39931
-0.12012
-2.06068
-0.24503
0.17409
0.00736
0.62754
0.30431
-0.06327
0.06359
0.52446
-0.06857
-0.41782
0.17248
0.42246
0.40057
0.19670
-0.15787
0.21288
0.73428
-0.36579
-0.27216
0.09515
-0.47292
0.03733
0.49547
0.62450
-0.24962
0.03105
0.41078
0.53702
0.45603
0.28748
0.49618
-0.02295
0.39390
-0.23146
-0.12743
-0.08068
-0.52795
-0.20595
0.28624
-0.28267
0.57299
-0.33762
0.52371
0.47522
0.27474
0.17845
-0.41627
0.18421
0.62610
-0.27829
0.07527
0.18880
0.69116
0.55221
-0.14338
-0.56151
0.06337
-0.20683
0.56836
0.10666
0.11253
0.02391
-0.42594
0.15462
-1.17412
-0.02297
0.60301
0.24108
0.32920
0.20643
0.74298
0.10096
-0.99473
0.61179
0.22243
0.70362
-0.03073
0.27000
0.00149
0.10421
0.30418
0.00320
0.42737
-0.26018
0.76520
0.30545
-0.07362
-0.70491
-0.03516
0.69798
0.35034
-0.05778
-0.70477
0.30739
0.38243
-0.26299
-0.32558
0.41725
-0.05333
0.67328
0.02835
-0.00730
0.19088
0.45701
0.20143
0.56906
-0.11535
-0.12553
0.40674
-0.01742
0.79612
0.48477
-0.73304
-0.24104
0.06341
-0.23748
-0.62725
0.02080
-0.10920
0.01396
-0.87207
0.00176
-0.14713
0.37013
-0.21630
-0.23085
0.00534
-0.04609
-1.72843
-0.03932
0.13801
-0.80330
0.35506
0.30569
-0.15129
0.61315
0.16079
-0.03759
0.43263
-0.22010
-0.28725
0.65412
0.22825
0.49403
0.90497
0.44304
0.21934
0.25207
-0.72969
0.47110
0.02231
0.07551
0.02398
0.23691
0.28506
-0.44074
-0.40836
0.20145
0.05720
-0.70505
-0.50716
0.21842
0.27442
0.04909
0.14315
-0.10984
0.25949
-1.50278
-0.39120
-0.33837
0.29712
0.35807
-0.38629
0.24845
0.10427
0.13201
-1.15105
-0.15695
0.22308
0.01407
0.04074
0.52137
0.50249
-0.16445
0.88825
0.07340
-0.55471
0.60289
0.12899
0.10404
-0.58931
0.36556
0.16931
-0.38518
0.03509
0.24391
-0.32287
0.49357
0.48454
-0.23031
-0.60113
0.44557
-0.17821
0.46030
-0.35235
-0.51390
-0.32377
0.11660
-0.39618
-0.32858
-0.20372
0.58559
-0.19749
0.24513
0.73682
-0.34164
-0.10285
-0.13106
-0.18159
0.05384
0.42931
-0.13613
0.53694
-0.30036
-0.35796
0.51653
0.20123
0.13149
-0.09510
-0.21315
0.19077
-0.03931
0.03578
0.72259
-0.14716
-0.64627
-0.10230
0.55489
0.22100
0.24612
0.21965
0.08507
-0.05872
0.66356
0.65473
-0.32005
-0.55581
-1.12302
-0.14548
-1.08451
-0.68401
-0.00271
0.28706
0.06004
-0.12316
0.58184
0.29083
0.25430
0.11406
0.62006
0.12008
-0.19899
0.17374
0.19834
-0.49048
-0.22465
-0.15515
0.68198
-0.38671
0.55321
-0.24213
-0.36963
0.38401
0.26615
-0.25843
0.41767
-0.35215
-0.50903
0.19513
-0.44876
-0.04491
0.08712
0.29836
0.63800
-0.18321
-0.11234
0.16311
0.41886
-0.22366
0.13576
0.35815
-0.60417
0.04171
0.17918
-0.30732
0.12933
-0.35490
0.41966
-0.26748
0.57178
0.38121
0.43662
-0.37963
-0.20452
-0.00981
0.05129
-0.13457
-0.85671
0.17782
0.22712
0.01737
0.33862
0.53676
0.01766
0.32166
-0.12607
0.47949
-0.14138
-0.54370
0.61173
-0.00239
0.11579
-0.08626
0.54258
0.12516
0.17662
0.21486
-0.34018
-0.52860
-0.14197
0.23689
0.01986
0.61060
0.09948
-0.33661
-0.74448
0.23437
0.84622
-0.33646
0.63619
0.64487
0.08038
0.69359
0.44896
0.08376
0.22172
0.25100
-0.34181
-0.79473
0.07187
0.34757
0.02057
-1.07488
-0.21162
-0.64544
0.54889
0.29561
-0.06459
0.07296
0.28858
0.47622
-0.07932
0.53148
0.58507
0.36087
-0.10628
0.26234
0.25914
0.23781
-0.19268
-0.34658
0.36647
0.12479
0.16078
0.25914
0.15294
0.22703
0.42634
-0.46074
0.27119
0.33137
0.53789
0.47273
-0.71692
-0.14089
0.36626
0.21840
-0.05316
0.78527
0.17311
-0.51984
-0.04372
-0.83868
-0.02968
0.13178
-0.19808
0.46848
0.30443
0.24496
-0.43646
0.30206
-0.17397
0.50816
-0.02227
0.18117
0.65642
-0.15085
-1.13406
-0.03708
-0.17924
0.50733
0.00017
0.49223
0.44308
0.36877
0.49331
-0.63568
-0.35731
0.43712
-0.03012
0.18641
-0.21137
0.02419
-0.10860
-0.09039
0.00007
0.29050
0.08733
0.38803
0.38312
-0.19800
0.05128
0.09868
0.13538
0.39528
-0.23459
0.02331
0.18383
0.76876
-0.18416
-0.03152
-0.19695
0.50869
0.29460
-0.00888
-0.17540
0.64956
0.13532
0.34723
0.15262
-0.21652
-0.06092
-0.06627
0.12672
0.35010
-0.00018
0.17617
-0.30476
0.25515
0.46458
0.15086
-0.03550
-0.57011
-0.09357
0.16982
-0.31616
0.20604
0.10512
-0.48318
0.09285
-1.35159
0.02633
-0.21274
0.06948
0.46800
0.03953
-0.10058
0.20492
-0.30687
-0.16763
0.62655
0.72175
0.01109
-0.40993
-0.49412
0.53932
-0.30958
-0.38577
0.16658
-1.31252
0.30292
0.48204
0.05661
-0.01819
0.51125
0.07500
0.52344
-0.02874
-0.04591
-0.39779
0.25613
0.12433
0.37340
0.59893
0.10672
-0.03627
-0.18044
-0.49089
0.35526
0.59315
-0.27691
0.29203
0.10016
-0.48850
-0.01027
-0.09048
-0.40814
0.16926
0.05254
0.59946
0.34538
0.25122
0.18578
0.23638
0.23151
0.47143
0.19576
0.25386
-0.70361
0.27576
-0.08655
0.14612
-0.17273
-0.03533
0.57376
-0.54837
0.29719
0.39080
-0.86748
0.47093
0.15344
-0.18876
0.10760
0.35590
-0.28833
0.28455
0.30435
0.00436
-0.21038
-0.53445
-0.13077
0.38822
0.75688
-0.12287
0.35277
0.10610
-0.67104
0.38341
-0.43196
-0.61428
0.48981
0.53620
0.24768
0.29243
-0.38284
-0.22258
0.44489
0.72446
0.15952
-0.24768
-0.15436
0.17429
0.57771
-0.85348
-0.24997
0.47517
-0.26531
0.10407
-0.11432
-0.31114
0.08242
-0.56660
0.24229
-0.46866
-0.13897
0.48576
0.02740
-0.49249
0.41264
-0.40456
-0.16333
-0.36556
0.19836
0.23547
-0.12522
0.44522
0.25620
0.71394
-0.28444
-1.00647
0.28075
0.70003
0.38925
0.15770
0.39556
0.70178
-0.04896
-0.54636
0.03261
0.06158
0.59238
0.49020
0.17193
0.15272
0.17158
0.47104
-0.95489
0.19596
-0.29618
0.28421
0.34457
0.30857
0.26580
0.07396
-0.17230
-0.00407
0.19733
0.40127
-0.05304
0.16931
-0.87382
0.17013
0.24928
0.21300
-0.92676
0.86753
-0.67310
0.46116
-0.16405
-0.08778
0.26769
-0.06112
-0.23111
0.63502
0.05203
-0.85074
-1.52237
0.06295
-0.12361
0.04985
0.60740
0.62601
-0.18388
0.06228
0.54455
0.09887
-0.38717
-0.01638
0.34019
0.33798
0.61277
-0.32997
0.42171
0.77107
0.71858
0.52742
0.06057
-0.38773
-0.71562
0.27653
0.59893
0.60304
-0.65518
0.16432
0.09674
0.55791
-0.34792
0.24070
0.69944
0.25128
-0.51590
-0.06857
-0.09352
0.39175
0.30759
0.70007
-0.65136
0.50804
-0.44012
0.59495
0.41264
0.35574
0.18444
0.07258
-0.65969
-0.14676
-0.48056
-0.43096
0.14468
0.46767
0.86476
-0.07180
-0.02252
-0.24467
-0.12810
0.15313
-0.44180
0.57481
0.22584
-0.16109
0.14364
-1.07323
0.00945
0.12069
0.32966
0.61214
-0.51349
-0.11429
0.62634
0.42769
-0.17659
0.62305
-0.08718
-0.52750
-0.46271
-0.39198
0.22918
0.10272
0.23149
-0.00761
0.10320
0.74277
0.23555
0.06482
0.62304
-0.09491
0.77286
-0.07585
0.13476
-0.07295
-0.28884
0.25915
-0.80148
-0.45731
0.00023
0.35406
0.11057
0.14347
-0.71861
0.13849
-0.00530
0.19104
0.19840
0.19504
0.15594
0.18240
0.02682
0.20869
0.02671
0.02967
0.11540
0.03890
0.15874
0.06353
0.19278
0.19577
0.11285
0.12957
0.09750
0.15272
0.10755
0.15960
0.16638
0.10598
0.20434
0.12586
0.03328
0.03426
0.16531
0.11116
0.00750
0.16015
0.01992
0.12074
0.00354
0.10862
0.10486
0.09864
0.04859
0.14433
0.04698
0.03317
0.08568
0.09461
0.11423
0.18783
0.03603
0.09163
0.11745
0.04005
0.18891
0.20577
0.13028
0.08375
0.11763
0.18231
0.13202
0.10796
0.15767
0.12753
0.04635
0.15411
0.07370
0.01172
0.02738
0.13040
0.05984
0.04084
0.05371
0.06588
0.07349
0.19274
0.06078
0.11021
0.02907
0.08461
0.00056
0.01115
0.20922
0.13602
0.05218
0.15722
0.04564
0.10809
0.09686
0.03394
0.19863
0.18850
0.06981
0.20669
0.02735
0.16785
0.12762
0.03329
0.19232
0.16745
0.15714
0.11842
0.18678
0.18264
0.03959
0.20545
0.17461
0.03022
0.21038
0.05647
0.02441
0.00887
0.06269
0.15205
0.12085
0.20921
0.19189
0.01863
0.01957
0.04620
0.17918
0.14435
0.15313
0.15005
0.09058
0.05689
0.05399
0.05646
0.08783
0.03069
0.09531
0.06176
0.04855
0.09635
0.17814
0.20510
0.10386
0.15097
0.20492
0.04139
0.16524
0.07598
0.15315
0.14111
-0.01719
0.20588
0.15286
0.22338
0.01062
0.25379
-0.12140
0.26950
-1.18552
-0.20586
0.33288
0.06365
0.50147
0.08691
-0.15531
-0.39803
0.11170
0.17928
0.21219
-0.33399
0.19038
0.68296
-0.31908
-0.39459
0.66498
-0.23171
-0.65440
0.04932
0.74899
-1.01532
0.61475
0.00846
0.21353
0.12669
0.00388
-0.41376
0.50540
0.67301
-0.15988
-0.81615
-0.70650
0.46672
0.03549
0.14998
-0.36026
0.76383
0.53294
0.03133
-0.19203
-0.56717
0.54705
0.16655
0.24183
-0.92655
-0.28845
-0.83775
0.17045
-0.84255
0.50589
-0.25855
0.56148
0.28251
-0.43360
0.33549
0.24721
-0.49430
0.11796
-0.09682
-0.10314
-0.32316
-0.11251
-0.36789
-0.00937
0.63458
-0.26763
-0.03997
0.14481
0.28028
0.32515
-0.31971
-0.54866
0.07779
0.01229
-0.28258
-0.47532
0.65105
0.55430
0.49485
0.87120
0.47708
-0.58362
-0.78746
0.19641
0.58673
0.20556
-0.26111
0.61311
0.51214
-0.56951
-0.61526
0.56679
0.48430
0.21356
-1.32927
0.29004
0.17997
-0.88822
0.56980
-0.68477
0.18651
-0.06965
-0.05452
0.06716
-0.40859
-0.84201
0.85340
-0.30827
-0.73505
0.31261
-0.08215
-0.06146
0.69377
0.13492
0.06184
-0.20780
0.51354
-0.55036
-0.27282
0.22609
0.05935
-0.12888
0.74913
-0.26104
0.54255
0.46766
-0.59012
0.52142
0.13851
-0.19931
0.21521
0.56941
0.45912
0.14924
0.19192
-0.10494
-1.14744
0.17359
-0.18626
-0.32386
-0.13594
0.25464
0.86086
0.16019
0.33554
0.37320
-0.56538
0.49510
0.56456
-0.73057
-0.64320
-0.77167
-0.09701
0.37266
-0.76428
0.39709
0.05206
0.61010
-0.83968
0.12959
0.73184
0.52689
-0.38633
-1.40378
0.03926
0.45981
0.36659
0.71307
0.63453
0.32074
-0.03306
0.52510
0.39232
-0.26125
-0.49675
-0.26999
0.72371
0.26929
0.49524
-0.44635
0.04690
0.34659
-0.87280
0.18505
0.11651
0.09724
-0.05247
-0.20100
0.30262
-0.15658
0.08337
-0.03385
-0.00219
-0.07043
0.12848
-0.05476
-0.00117
0.36469
0.14127
-0.19799
-0.52379
0.58365
-0.79641
-0.70053
0.26642
0.34835
0.73209
-0.49741
0.33669
-0.54446
0.06676
0.01551
-0.11743
-0.21254
0.03163
-0.56819
-0.67542
-0.03177
-0.12210
-0.21158
0.43161
-0.41478
-0.28576
0.01614
0.00815
-0.16973
-0.14817
-0.07237
0.09644
0.03138
-0.12781
-0.12995
-0.06151
-0.19985
-0.06163
-0.26216
0.39891
-0.15178
-0.64662
0.35070
0.08912
-1.08913
-0.29267
-0.18873
-0.44736
-0.19103
0.04604
0.33377
-0.13015
-0.26517
-0.12706
0.43224
-0.87470
0.26423
0.56042
-0.87884
0.17866
-0.00262
-0.35741
-0.03218
0.15572
0.70481
-0.03841
-0.00333
0.40814
0.23258
0.52010
0.14477
0.25722
0.28674
0.07155
0.45574
0.65815
0.50905
0.39207
-0.85503
0.73281
0.01325
0.40378
-0.14785
0.37018
0.40038
0.23263
-0.11269
0.28494
0.57001
1.03108
0.14175
-0.11119
0.54312
0.68381
-0.13260
0.52873
0.39482
-0.45975
0.22794
-0.50748
-0.81643
-0.00068
-0.80497
-0.63046
0.02894
0.46085
0.08283
-0.60117
0.18736
-0.50555
0.25253
0.53210
0.01897
-0.02019
0.69998
-0.21311
0.19153
-0.78502
0.28925
-0.04958
0.40366
-0.01862
-0.18886
0.19650
0.49722
0.39138
-0.41161
-1.29542
-0.21006
0.12667
-1.07303
0.47091
-0.49533
0.39519
-0.15325
-0.09399
0.12290
-0.42116
0.38789
0.39221
-1.23431
0.20986
-0.32589
0.61448
0.47377
0.09365
0.27447
0.23146
0.16813
-0.18196
-0.08755
-0.36858
0.14319
0.00855
-0.50405
-0.05076
0.55879
-1.02789
-0.54236
-0.52042
-0.02672
-1.29759
-0.78002
-0.60961
-0.11189
-0.54283
0.07172
0.38624
0.03121
0.70364
0.26415
-0.03559
0.61173
0.12937
0.27295
0.71822
0.50538
0.46038
0.22282
-0.70210
0.48556
0.12929
-0.08178
0.48153
-0.73829
-0.24758
0.69738
0.47559
-0.20228
0.67526
0.63999
-0.88800
0.59543
-0.39560
0.09672
-0.37600
0.37293
-0.64993
-1.06099
0.04301
0.37191
-0.08621
0.26842
-0.48165
0.10538
-0.04875
0.32853
0.04885
-0.43563
0.16359
0.06371
-0.03533
-0.09196
0.00786
0.00448
-0.82112
0.14566
0.18208
0.03290
-0.53225
0.71752
0.27478
0.00119
-0.74234
0.17045
0.27144
-0.23874
-0.97890
0.13547
0.44365
0.71644
-0.22720
0.33472
0.13805
0.45074
-0.93286
0.29513
0.45534
0.87054
0.62794
0.39290
-0.44632
0.07771
0.04767
-0.00350
0.23823
-0.44461
0.45949
-0.70774
0.21684
0.39283
0.03725
0.12335
0.72005
-0.03327
0.13113
-0.47826
0.15724
0.77455
-0.04670
0.26532
0.22763
0.14584
-0.83750
-0.62550
-0.38930
-0.42368
-0.09056
0.15469
-0.11279
0.18950
0.24922
-0.33938
-0.33802
0.19682
0.28775
0.28395
0.25217
-0.49059
-0.22568
-0.70188
-0.22893
0.10457
-0.13989
-0.70326
0.60887
0.20299
0.74574
0.35020
-0.39117
0.24127
-0.20631
-0.19605
0.20566
0.38763
0.46730
-0.04382
-0.90149
0.05551
0.76539
0.59877
0.16176
-0.26919
-0.57564
0.68733
-0.36947
0.07078
-0.43880
0.55475
-1.00010
0.00814
-0.17056
0.12135
0.17377
-0.11475
-0.49362
0.36999
0.38840
0.14903
0.31581
0.67660
0.08020
-0.38545
0.28371
0.02532
0.07040
-0.11351
-0.05080
0.34454
-0.62765
0.39085
-0.10606
0.24957
-0.25818
0.45785
0.78180
0.12126
0.53426
0.15639
0.14841
-1.03173
-0.27101
0.53873
0.75149
0.42520
-0.22453
-0.57579
-0.23757
-0.02254
-0.43863
-0.54348
0.35051
-0.38134
-0.01031
-0.42096
-0.19489
-0.69606
-1.05819
-0.00402
-0.09910
-0.10631
-0.39243
-0.89290
0.01652
-0.54106
0.07742
-0.20713
-0.60340
-0.07673
-0.38191
0.21664
0.05418
0.05928
-0.00167
-0.27571
-0.14880
0.19381
-0.70248
0.17900
0.26633
0.20062
0.27056
0.07909
0.13254
0.33900
0.61016
-0.24159
0.29309
0.13337
0.31622
0.69391
0.33784
0.20069
0.30810
0.40447
-0.09481
0.07076
-1.17840
-0.16347
0.26148
-0.61820
0.41934
0.32260
0.34290
0.40598
0.39368
0.68951
0.26444
-0.62238
-0.28474
0.13583
0.40352
0.19417
-0.10295
0.05367
0.30911
-0.13561
0.40103
0.08105
-0.00358
-0.49248
-0.44663
0.10648
0.11786
-0.10889
0.60201
0.46864
0.42877
-0.15978
0.55767
0.34805
0.10217
0.17385
0.31931
-0.16488
0.18173
-0.08497
-0.40487
0.27060
0.29764
0.12065
0.10890
0.13397
-0.55659
0.33765
-0.68699
-0.19630
-0.30481
-0.53614
-0.02582
-0.34962
0.15304
0.11849
-0.30087
0.06849
-0.33682
-0.65137
-0.73952
0.65577
-0.89147
-1.05949
-0.99488
-0.38987
-0.90221
-0.84447
0.38780
0.18376
-0.78661
0.18590
-1.47933
-0.30025
0.37907
-0.70038
-0.28853
0.57595
-0.16012
-0.81189
0.10120
-0.71175
-0.16832
0.14455
0.00071
-0.02044
-0.21221
-0.14569
0.31420
0.17614
-0.72934
-0.94712
-0.58054
-1.14457
0.03829
-1.48460
-0.54514
0.30317
-0.69497
0.45828
0.39250
-0.04888
0.25173
0.35569
-0.91483
-1.66140
-0.09661
-0.09362
0.56500
-0.65397
-0.62121
-0.25951
-0.52042
-1.04314
-0.23485
-0.16183
-0.18684
0.04147
-0.34644
-0.78893
-0.77994
0.21504
-1.36827
-0.08995
-0.18851
-0.13712
-0.02187
-0.81542
0.46121
-0.32639
-0.69233
-0.39653
-0.06559
-0.36797
-0.00220
0.13818
-0.61460
-0.10794
0.32228
-0.26724
0.13724
0.84204
0.30725
0.52512
0.21693
0.48529
-0.79501
-0.43785
-0.06092
-0.73591
-0.36110
0.02678
-0.35388
-0.16195
0.22537
0.10345
0.22081
0.13269
0.18505
-0.47841
-0.28532
-0.10410
0.07175
-0.61176
0.17522
0.08837
0.46611
-0.00752
-0.12735
-0.04338
-0.43978
-0.17351
0.26062
0.44764
-0.08312
0.26933
0.24845
0.55703
-0.58445
0.27217
-0.26995
0.13253
-0.07213
-0.47956
-0.24036
0.54605
-0.39095
0.36079
-0.79265
0.43140
0.03489
-0.63184
0.19369
0.05447
0.33596
0.24150
-0.16304
-0.23193
0.13102
0.60438
-0.94026
0.26512
0.48918
0.01405
-0.09782
0.49788
-0.20616
0.15170
0.32321
-0.03905
0.46749
-0.34862
0.73572
0.15815
0.01883
-0.37596
0.03890
0.22445
0.11756
0.26654
-0.79377
0.91785
0.08837
0.52158
0.17913
-0.06287
0.46619
-0.05248
-0.60890
-0.72115
0.13024
-0.47179
0.65591
-0.10398
1.05099
0.46430
0.04091
0.49117
-0.20905
-0.33493
-0.77055
-0.57981
-0.00303
-0.10489
-0.00545
-1.22810
0.03978
0.03705
-0.71711
-0.83999
-0.14928
0.38975
0.95679
-0.48654
-0.38257
0.80199
0.31221
1.00183
-0.42279
-0.41234
0.29209
0.18962
0.04505
-0.09246
-0.59570
-0.07120
-0.02348
-0.17087
-0.48320
0.04596
-0.96496
0.29724
0.23886
0.47351
0.03833
0.29302
-0.13782
0.49489
0.46277
0.39518
0.14497
-0.32687
0.51297
-1.04774
-0.89162
-0.72957
-0.01088
-0.21604
-0.11938
-0.01159
-0.28378
0.20743
-0.21398
-0.64378
-1.01031
0.44772
0.38907
-0.30829
0.44533
0.39702
-0.83866
0.22423
0.26186
-0.20279
-0.45267
-0.16604
-0.39543
0.47548
-0.49367
-0.80599
0.65436
0.14767
-0.23770
-0.42757
-0.12070
0.04447
0.27941
-0.25880
-0.62349
-0.01235
0.37821
0.10010
-0.30868
-0.44218
-0.04289
-0.77158
0.28370
0.51957
0.23357
0.40495
-0.21971
-0.70025
-0.24049
0.47466
0.06336
-0.86292
0.02904
-0.16933
0.11083
-1.03770
-0.35541
-0.22268
-0.55457
0.15478
0.06046
-1.32352
-0.40384
-1.16839
0.32416
-0.14708
-0.69889
-0.13475
0.31452
0.47535
0.13276
-1.17796
-0.47272
-0.60909
-0.31912
-1.03622
-1.00832
-0.24805
-0.10134
-0.10517
-0.05489
-0.01799
0.66916
-0.50449
-0.51753
0.32208
-0.26795
-0.43034
-0.08937
-0.84426
-0.03298
0.21208
0.03032
0.32309
-0.51852
0.12596
0.03172
0.11879
0.16262
0.29500
-0.60108
-0.29274
-0.20582
-0.41891
0.07748
0.05168
-0.89879
0.14515
-0.64254
-0.14757
0.31851
-0.25461
0.06700
0.16026
0.42533
-0.39689
0.59736
0.45527
0.29363
-0.31939
0.05216
0.30442
-0.30810
-0.19061
0.46177
-0.35200
0.09031
-0.17420
-0.50046
0.30500
-0.51277
0.56870
-0.17478
0.71516
0.41188
0.14419
0.28554
0.10460
0.08718
-0.28624
0.04505
-0.25849
0.51262
0.05582
-0.62894
-0.07717
-0.94857
-0.20228
-0.68731
-0.37308
0.34902
-0.52102
0.05582
-0.35192
0.01460
0.58144
0.59780
0.47182
0.04676
0.24544
-1.02017
-0.88315
0.59629
0.30772
0.48053
0.27494
-0.05054
0.20628
0.24448
0.25581
0.02976
-0.31779
-0.23625
-0.50832
-0.75343
-0.42219
0.60593
0.62607
0.11391
0.63939
0.31229
0.16015
0.12646
0.77465
0.38911
-1.18585
-0.39205
0.23688
0.11520
-0.56797
-0.38913
-0.38754
-0.06938
0.22390
-0.67898
-0.04283
-0.06226
-0.06168
-0.15584
0.05548
-0.35175
0.40292
-0.35154
0.35091
0.51694
-0.48477
-0.32553
-0.52696
-0.10690
0.30806
-0.10739
0.17755
0.07154
-0.83948
-0.21349
0.15947
-0.26951
-0.27155
0.19954
0.06600
0.51948
0.39335
0.19934
-0.32011
0.85373
-0.08250
0.27181
-0.38131
-0.68247
-0.67024
-0.43576
0.46543
-0.12894
0.66576
-0.10788
-0.36858
-0.20098
0.57494
-0.03945
0.51234
0.33504
-0.07860
0.29417
0.67332
-1.53542
-0.36976
0.47647
-0.34257
0.24001
0.56105
0.27808
0.46876
0.75807
0.04352
0.57883
0.24457
-0.08349
-0.05824
0.14870
0.37588
-0.65849
-1.54936
0.01836
-0.76362
0.31561
0.00312
-0.06467
0.48484
0.27430
0.34855
0.22061
-0.72928
0.14249
-0.04486
0.38947
0.17751
0.32440
-1.27661
0.18807
-0.85301
0.03587
0.14647
0.06587
-0.36996
0.13478
-0.78633
-0.37139
-0.14422
0.13845
-0.00515
-0.16382
-0.03674
-0.22673
0.18662
0.37757
-1.06679
-1.42975
-0.59395
-0.58358
-0.84457
-0.72611
0.26478
-0.44389
-0.69790
0.30791
0.66467
-0.11815
0.17695
-0.58025
-1.25116
-0.85675
-0.06355
-0.07302
0.27106
-0.22102
-0.91365
-0.09203
-0.04592
-0.21041
-0.22197
0.41671
0.00674
0.56548
-0.31532
-0.32197
0.06051
-0.38131
0.03306
-0.18022
-0.45381
-1.03404
-0.85301
0.32365
0.09792
0.45889
0.45443
0.68720
0.09790
-0.17259
0.29794
-0.30677
-1.25998
0.48391
-0.39936
-0.37108
-0.58511
-0.30778
-0.13457
-0.63754
-0.10748
0.02396
0.24726
-0.08559
0.29363
0.44048
-0.02701
0.25471
0.36724
-0.24343
0.15732
-0.41158
0.11953
-0.52710
0.18047
0.43796
0.41943
0.41129
-1.20371
-0.68325
0.51967
-0.71669
-0.69462
-0.43648
0.48503
-0.52150
-0.64950
0.48903
0.56621
0.06506
-0.67608
-0.98359
-0.30747
-0.11449
0.07779
0.02852
0.35821
-1.57867
0.09628
-0.01001
-1.40677
0.16352
0.29392
0.50901
-1.59433
0.51231
-0.15021
0.03764
0.45194
0.45206
-0.49566
-0.03151
-0.27829
-0.84022
-0.01428
-0.99603
-0.30963
-0.11270
-0.81375
-0.10961
0.26968
-0.51510
-0.09476
0.04481
0.63300
-0.04473
0.01052
0.39316
-0.68538
0.05585
0.27514
-0.06041
0.31965
-0.13531
-0.00508
-0.09494
-1.18315
0.49945
-0.53160
0.38682
0.24750
-1.02999
-1.57750
-0.13633
-0.91033
0.33175
0.47977
-1.13483
0.46893
0.21754
0.00083
0.13097
-0.67049
0.02438
0.53979
-0.57205
0.09928
0.23170
0.28289
-0.12533
0.23689
-0.05170
-0.07237
0.51119
0.14124
-1.31082
-0.38716
0.58488
-0.41441
0.51691
-0.33578
0.42849
-0.33529
-0.28800
0.45651
0.41676
-0.42168
0.41039
-0.42295
0.80723
-0.02716
0.14198
-0.00944
0.01769
0.14548
0.02058
0.01656
0.42683
-0.31878
0.36451
0.07626
-0.31142
0.16920
0.43428
0.39892
0.55494
-1.51852
0.70214
0.24252
0.31094
0.08137
0.40327
0.32542
0.54933
0.61701
0.19722
-0.20056
0.59682
-0.73084
0.41871
0.33596
0.00704
-0.00423
0.31829
-0.13223
0.35123
0.65467
-0.06491
0.56022
-0.35358
-0.71512
-0.08413
-1.03452
0.25345
0.30511
-0.66371
0.33224
0.28365
0.31612
-0.04012
-0.04943
-0.07294
0.49385
-1.66321
-0.39955
0.09007
0.04321
-0.34228
0.22877
0.00664
-0.03461
-0.21345
0.56216
0.27229
0.73337
-0.01394
0.32473
0.22238
0.01405
-0.06498
-0.90827
0.17923
-0.05515
-0.05316
0.00306
-0.28981
0.74517
0.24828
-0.01849
-0.57213
-0.00443
-0.21357
-1.04482
0.31301
-0.21028
0.29009
0.15938
-0.45569
-0.59673
0.22393
0.17986
-0.13215
0.51163
-0.38421
0.64206
-1.38139
-0.57292
0.70875
0.15588
0.46893
0.35548
0.41782
-0.38072
0.76620
-0.09153
0.11389
0.01806
-0.05575
-0.18819
0.45942
-0.49441
-0.47265
-0.58829
-0.76350
0.02599
0.02020
0.70133
0.47990
0.39542
0.39903
0.03425
0.33696
-0.47240
0.36289
-0.02980
0.32883
-0.20153
-0.13984
0.33556
-0.03277
0.31845
-1.15163
0.12294
-0.46742
0.55454
0.46123
-0.42458
0.49921
0.21043
-0.65662
-0.26695
0.02025
-0.05362
-0.30288
0.25419
0.42320
0.15484
-0.44359
-0.18278
-0.77381
0.29811
0.09106
-0.19905
0.25712
0.43830
-1.22673
-0.11366
0.22226
0.26724
0.36853
-0.14383
0.38150
0.64128
0.14393
-0.15146
-0.04207
-0.19958
0.15374
-1.05258
-0.98935
0.39401
0.42868
0.38324
-0.11072
0.53631
-0.44007
-0.17293
0.48388
0.48204
0.37038
0.35237
0.50686
0.35542
-0.34775
0.49712
-0.07015
0.09693
0.45706
-0.15977
0.11465
0.27608
-0.20567
0.10102
0.57286
0.11810
-0.25068
-0.27836
-0.43046
0.51833
0.24008
-0.13405
-1.16957
0.26951
-0.25205
-0.65113
-0.26745
0.05409
0.10478
-1.71932
0.32081
-1.21492
-0.25427
0.18899
-0.90452
-0.08844
0.18472
0.25415
0.16863
0.25892
0.37545
0.45359
0.37115
0.32646
-1.07887
-0.08516
0.11895
-1.04807
0.64478
-0.16802
0.72537
-0.72144
0.27816
-0.22815
-0.67769
0.13382
-0.20958
-0.23216
-0.93072
0.09872
0.15596
0.46693
0.17094
0.51044
-0.21355
-0.24720
0.71667
0.86544
0.15194
0.14577
0.08142
-0.21946
-1.61738
0.52278
-0.33454
-0.27625
0.08891
0.19154
0.08703
0.82118
-0.82648
0.15335
0.11074
-0.31306
0.14474
-0.48888
0.42251
-0.18724
0.46225
-0.95913
0.17957
-0.16517
-0.19648
-0.18956
-0.60054
-0.95917
-0.22950
-0.96536
-1.15123
-0.51977
-0.55085
0.17668
-0.22898
-0.23615
-0.59071
0.45318
0.80538
-0.54405
0.86199
-0.22479
-0.19264
-0.00497
-0.27973
-0.59032
-0.55284
-0.54950
-0.56300
-0.28086
0.34406
-0.26167
-0.60948
0.13251
-0.31449
0.46002
0.12620
-0.57549
0.00078
0.35354
0.12706
-1.52014
0.45032
0.52027
-0.88588
0.56405
-0.86952
-0.47097
0.53924
0.56902
0.36483
-0.71647
0.58524
0.66194
0.52275
-0.10863
0.51538
-0.51670
-0.01162
0.16886
0.30487
0.55764
0.45731
0.46088
-0.20710
-0.03370
0.43682
0.17471
0.00235
-0.10777
-0.13973
0.41699
-0.01768
0.25492
-0.14409
0.04967
0.42735
-0.03338
-0.13024
-0.07651
-0.13318
0.12418
0.44366
-0.03057
0.11283
0.19976
-0.04263
0.03317
0.34293
-0.03814
-0.15510
0.16436
0.18773
-0.93754
-0.19950
-0.32626
-1.73314
-0.43666
0.45637
-0.58541
-0.23471
-0.63937
-0.56247
-0.90254
0.29869
0.26025
0.38903
-0.08423
-1.00593
0.11366
0.29994
-0.04981
0.39537
0.43290
0.44809
-1.26671
0.16427
0.57138
0.49678
-0.74269
0.64367
-0.41435
0.86415
0.39194
0.47175
0.48937
0.41276
-0.21184
0.41541
-0.11955
0.78236
0.50724
0.11753
0.24989
0.15608
0.50172
0.44691
0.36767
0.43038
0.59655
-0.65503
0.42378
0.16366
-0.74528
0.39501
0.44478
-0.22654
0.82272
-0.21722
0.11607
0.14007
-0.56456
-0.19090
0.11755
-0.26668
0.46714
0.09373
0.06654
-0.15969
0.12278
-0.16199
-0.24640
-0.25560
0.14077
0.12829
-0.20314
-0.52939
-0.26255
-0.78334
0.13319
0.12270
0.10519
-0.22109
0.18735
-0.58496
0.10495
-0.24536
-0.28359
0.49835
-0.01169
0.67331
-0.27494
0.13988
-0.26454
-0.72772
-0.62740
-0.24878
-0.82342
0.24498
-0.04669
-0.27977
-0.04039
0.24705
-0.43174
0.37897
0.44378
-0.96746
0.33718
0.48251
-0.48085
0.34290
-0.74787
0.73959
-0.26812
-0.75979
-0.25305
-0.31840
0.20788
-0.70476
-0.06818
-0.08353
-0.12294
-0.52564
-0.83590
0.39879
0.29942
0.28818
0.17566
0.21743
0.16734
0.14722
0.38420
0.40730
0.14415
0.37870
-0.08480
-0.44403
-0.00138
-0.06042
0.02858
-0.20477
0.64576
0.22249
-0.23333
-0.88153
0.21834
-0.01601
-0.65844
0.39879
-0.30493
-0.92123
0.39446
-0.62271
-0.70151
0.18947
-0.46708
-0.69184
0.66035
0.67711
0.38033
0.15534
-0.57884
0.69685
0.35748
-0.10522
-0.00896
-0.05068
0.39370
0.28258
0.55855
-0.45381
0.31000
-0.21347
-0.22659
-0.41563
0.21037
0.05023
0.35853
0.45947
0.51124
0.30071
0.31210
0.52479
-0.07250
0.11304
0.05855
0.70615
-0.81853
-0.46111
0.09531
0.62681
-0.54099
-0.60202
0.33047
-0.05458
0.19257
0.65910
0.10040
-1.07926
-0.12766
0.20690
-0.57832
0.17147
0.37872
0.06476
-0.38219
-0.01355
-0.28478
