0.26945
-0.72802
-0.22309
-0.57480
0.50616
0.29504
-0.08873
0.54122
0.08517
0.38233
0.03785
-0.09064
-0.24304
0.44485
0.14042
0.10961
0.29720
0.19620
-0.28647
0.62433
0.70845
-0.19553
0.32955
0.08697
-0.62738
-0.93636
-0.16641
-0.19134
-0.26856
-0.03314
0.23093
-0.14548
0.41926
-0.03861
0.69384
0.61890
-1.18874
0.27355
-0.08692
-0.21547
-0.36570
0.04573
-0.52525
0.29351
0.69400
0.46097
0.68953
0.49579
-0.38831
0.52564
0.42871
0.36642
0.30491
-0.51013
-0.76670
-1.16664
0.48901
-0.26677
-0.50014
0.05704
0.40486
0.15301
-0.25602
0.27819
0.13872
0.90617
-0.13774
0.42007
0.49786
0.52124
0.14194
-0.42909
0.13358
0.52672
-0.08534
-0.25504
-0.35096
0.19141
-0.27442
-0.31996
-0.09681
0.56043
0.82090
0.78352
-0.53755
0.02556
0.57386
0.27937
0.03571
-0.21130
-0.19763
0.00300
0.40312
-0.26479
0.02574
0.48586
-0.41474
-0.00781
0.58864
0.07877
0.11235
0.09547
-0.04037
-0.26565
0.33431
0.29224
0.48498
0.23032
-0.90451
-0.37990
-0.36804
-0.18030
0.11555
0.10965
0.05264
-0.13215
-0.13010
0.31668
0.25037
-0.70321
-0.56300
-0.29578
0.64950
0.16456
-0.73937
-0.72021
0.64569
-0.03811
0.27381
0.44719
-0.26412
0.39227
0.29217
0.41534
0.21663
-0.29499
0.37909
0.06730
0.47844
-0.21875
0.13810
0.25931
-0.26792
0.20953
-0.16171
0.26149
0.07715
0.03378
0.02806
-0.07171
-0.09700
0.43863
-0.53052
-0.53278
0.37585
0.71849
-0.66533
0.49388
0.02524
0.04639
0.16865
0.21809
-0.14586
-0.52695
0.35668
0.17348
0.01996
-0.31386
0.67044
0.89763
0.51587
-0.89270
-0.22410
-0.77357
-0.61776
-0.58329
0.10820
-0.08905
-0.59369
-0.33739
0.34614
0.69863
0.21221
-0.07080
-0.09716
0.45940
-0.10969
0.38944
0.18672
0.00226
0.62089
-0.68595
-0.12650
-0.47954
0.15026
-0.77832
0.46781
0.29774
-0.23924
-0.77536
0.90854
0.46722
0.23791
0.09907
-0.01366
-0.06643
-0.19240
-0.61372
-0.08828
0.25758
0.27655
-0.25223
-0.40234
0.53604
-0.46641
-0.26853
0.31995
-0.03250
-0.41089
0.03051
0.30877
0.23166
0.45444
0.57938
0.07200
0.26342
-1.09885
0.02857
-0.34784
-0.22729
-0.18820
-0.43160
-0.41728
0.19018
-0.09353
-0.11756
0.47344
0.42020
0.39407
0.01248
-0.28326
0.23792
-0.41201
0.18837
-0.28231
-0.21047
-0.14243
0.04743
-0.32089
-0.08668
0.01608
0.05635
-0.53195
0.31465
-0.62055
-0.30727
-0.19901
0.13172
0.09313
-0.37126
0.00731
0.37686
0.33573
-0.92989
0.00973
-0.46236
-0.18032
-0.49711
-0.14368
0.06000
0.86719
-0.18809
0.33757
0.24156
0.52661
-0.00226
-0.81810
0.02060
-1.09110
0.45671
0.37038
0.48981
0.59845
-0.79102
-0.61164
-0.03378
-0.10135
0.15447
0.45535
0.04433
-0.41527
-0.30769
-0.01275
-1.28910
0.22090
0.18428
-0.35995
0.24440
-0.10044
-0.98338
0.11916
-0.59309
-0.15398
-0.34120
-0.18721
-0.12324
-0.27675
0.02248
-0.83520
-0.01026
0.27458
0.33481
-0.54078
-0.05200
-0.18600
-0.87092
0.33032
-0.00558
0.28673
-0.06432
0.48169
0.50683
0.06681
0.23934
-0.35977
-0.60841
0.14696
0.52936
0.09506
-0.29723
0.49038
0.19198
-0.10190
0.41065
0.40500
0.63258
0.24019
0.60958
0.07052
0.14297
-0.09635
-0.02093
0.32976
0.62792
0.02530
-0.38570
0.45121
0.55861
0.18178
-0.25447
0.36926
-0.45353
-1.26802
-0.12399
0.25586
0.43266
0.02402
0.04580
0.20587
0.16131
0.33584
0.09544
0.25008
0.11455
0.02576
0.04165
0.14770
-0.09428
0.43017
0.75207
-0.38240
-0.43154
0.22244
0.72248
0.23280
0.39453
-0.33314
0.01857
-0.12305
0.41732
0.07418
-0.54973
0.14827
-0.34783
-0.04936
-0.19084
0.03200
0.34073
0.72548
0.20178
0.41356
-0.35946
-0.04572
0.02578
-0.08751
-0.21464
-0.89116
0.57506
-0.36768
-0.07179
0.57242
0.25573
0.62146
0.24700
0.21296
-0.13952
0.09286
0.25814
-0.35676
0.22665
-0.35718
0.20303
0.10720
0.08566
0.17533
0.58652
-0.47443
-0.07964
0.76659
-0.94699
-0.32485
-0.48956
-0.32816
-0.12159
0.72878
0.27016
0.13893
0.42106
-0.19677
-0.21591
0.16205
-0.00899
0.01002
-0.57227
-0.27249
0.21736
0.64467
0.22872
0.08475
0.35255
-0.69296
0.33093
0.31105
0.30142
0.22024
-0.18933
-0.16732
0.29654
-1.68043
0.40934
0.53239
0.20093
-0.16767
-1.35224
0.08852
-0.55060
-0.13267
-0.05020
0.43999
0.36023
0.18256
0.40882
0.13526
-0.48678
0.37688
0.55550
0.08056
-0.30568
0.10663
0.12194
0.08195
0.42641
-0.53116
-0.41060
0.34947
-0.38093
0.28500
-0.30193
-0.72079
-0.06980
0.43623
0.08663
-0.01209
-0.51646
-0.00952
0.19161
0.17051
-0.02681
0.17194
0.11379
-0.12568
0.37065
-0.75009
-0.75264
-0.16734
0.35362
0.38418
-0.34098
0.32187
-0.05044
-0.39972
0.18569
0.30351
-0.22429
0.01993
-0.04817
0.49289
0.40594
0.23241
0.06239
0.40353
0.78684
-0.07337
0.32189
0.40951
0.39851
-0.10268
0.00601
-0.18198
0.18327
-1.56061
-0.86810
0.70937
0.28624
0.58542
0.46246
0.21841
0.21369
-0.08256
-0.05980
-0.47976
-0.46586
-0.48415
0.36613
0.23070
0.42500
-0.12909
0.50193
0.46326
0.63243
0.09817
0.27057
0.11512
-0.45434
-0.16967
0.02043
0.26486
-0.39760
-0.17553
0.47844
0.43030
0.31280
-0.12633
0.13261
-0.67500
-0.02969
-0.12233
-0.57175
0.07717
-0.01206
0.47015
-0.23489
0.45297
-0.15393
0.35249
0.11381
0.43148
0.16293
-0.00906
0.22991
-0.25921
0.77940
0.09331
-0.04137
0.30983
0.20587
0.42323
0.09312
-0.24383
-0.09736
-0.69555
0.15655
-0.17203
-0.28569
0.40936
-0.32671
0.18699
0.04585
-0.00708
0.80584
0.23352
0.30661
0.84229
0.22961
0.35444
0.07240
-0.05584
0.15166
0.72485
0.00754
-0.80828
0.58634
0.07288
-0.42185
0.36616
-0.54611
-0.53568
-0.09337
0.00138
0.16549
0.10916
0.28110
0.22691
0.14801
-0.09953
-0.24248
0.19177
0.73811
0.38257
0.90270
0.16237
0.36386
-0.13484
0.04173
-0.01151
-0.32369
0.66023
0.18707
-0.54782
0.64238
-1.11839
-0.30870
0.33534
0.35778
-0.33907
-0.23189
0.26314
0.31484
0.00934
-0.16765
0.31839
-0.22646
0.18790
-0.51479
-0.04728
-1.21679
0.22628
-0.03081
0.44831
-0.44851
-0.15127
-0.46208
0.15675
0.10810
0.07542
-0.74315
0.29620
0.16109
0.01139
0.22706
-0.43570
-2.20670
0.38790
0.14408
0.20219
0.48710
0.42106
-0.69929
0.70420
0.47344
0.16930
0.20866
0.08605
-0.07445
-0.00128
-0.27597
0.13470
0.11349
0.30220
-1.43877
0.65726
0.94674
0.43904
0.38388
0.65833
-0.26984
0.16687
-0.16290
0.41139
-0.06693
-0.03573
-0.12523
0.55486
0.47717
0.14728
0.03533
0.10243
-0.30951
0.19985
-0.24600
0.38008
0.04532
0.66073
0.41069
-0.03809
0.11653
-0.27986
0.41372
-0.00498
0.39795
0.25814
-0.25016
0.21197
0.51246
0.49907
0.51454
0.74252
0.17035
0.58631
0.42302
-0.06179
-0.44395
0.74117
-0.20056
0.11513
-0.39318
0.26894
0.07709
0.07466
-1.03106
0.30745
0.10354
0.60473
0.27864
0.41692
0.42624
0.04103
0.16003
0.18768
0.21664
0.44052
-0.12511
-2.05627
-0.16990
0.07223
0.16662
0.43181
0.32262
-0.23886
0.08490
0.47353
-0.20222
-0.41732
0.22135
0.41564
0.44600
0.27264
-0.19966
0.31296
0.77332
-0.16855
-0.04469
0.09036
-0.46776
0.10384
0.46025
0.60433
-0.12602
0.19527
0.36613
-0.27332
0.60846
0.20591
0.41749
0.21915
-0.02917
-0.28303
-0.06548
0.20368
-0.59413
-0.25004
0.21296
-0.25708
0.48458
-0.13978
0.65918
0.49787
0.14818
0.07037
-0.29114
0.19327
0.02906
-0.24313
0.26895
0.09468
0.76235
0.28813
-0.04020
-0.13008
0.21956
-0.26123
0.74075
-0.11377
0.17092
0.05536
-0.61738
0.23056
-1.27793
-0.00076
0.32357
0.32856
0.44343
0.35456
0.75434
0.15432
-0.63034
0.58835
0.29862
0.76954
-0.06463
0.18034
-0.12316
0.19146
0.26333
0.02475
0.70038
0.01487
0.70098
0.13662
-0.17539
-0.57559
0.06254
0.65187
0.03689
-0.10544
-0.59337
0.24767
0.37789
-0.47293
-0.29163
0.40389
-0.10780
0.39097
0.00166
-0.12262
0.23547
0.53648
0.22176
0.54692
-0.13989
-0.01496
0.29593
0.08184
0.57256
0.53749
-0.61696
-0.19766
0.12863
0.08616
-0.51026
-0.01447
0.00866
-0.25178
-1.08119
0.01462
-0.21320
0.37553
-0.23604
-0.35938
0.00366
0.12488
-1.57932
0.08769
-0.18560
-0.73040
0.42933
0.27358
0.10505
-0.28101
0.63156
0.20047
0.04141
0.32154
-0.34646
-0.27627
0.60661
0.26098
0.59267
0.91163
0.42487
0.24042
0.37167
-0.69634
0.47348
-0.15358
-0.12036
-0.05486
0.28126
0.43873
-0.58857
-0.34853
0.19077
0.06582
-0.53597
-0.44633
0.23297
0.27507
0.02618
0.12898
-0.14556
0.27626
-1.34764
-0.20408
-0.37668
-0.45541
0.46409
0.24174
0.11507
-1.41611
-0.31317
0.21937
-0.08184
0.12376
0.33407
0.57580
-0.06611
0.95375
-0.21285
-0.33522
0.66509
0.39034
0.38891
-1.35283
0.44402
-0.03201
-0.16888
0.19774
0.27966
-0.37362
0.43314
0.53401
-0.22986
-0.66938
0.36366
-0.15119
0.56957
-0.38944
-0.72478
-0.04417
0.15283
-0.78344
-0.58743
-0.16824
0.09990
0.03022
0.11189
0.64410
0.49914
-0.04574
-0.60001
-0.21445
-0.08442
0.25424
0.14852
0.42652
0.87888
-0.29094
0.75973
0.21360
0.09880
-0.07375
-0.15353
0.30407
0.03580
0.12429
0.64063
-0.19085
-0.55403
-0.11486
0.73055
0.28277
0.21128
0.29062
-0.01569
-0.20356
0.72495
-0.24453
-0.32362
-0.96348
-0.36217
-0.98619
-0.68660
0.18849
0.04616
-0.00118
-0.18480
0.55787
0.22212
0.23608
0.04143
0.60815
0.15165
-0.14349
0.20193
-0.26900
-0.69670
-0.17404
-0.50550
0.02591
0.09626
0.46701
-0.27245
-0.24363
0.52648
0.43473
0.37648
-0.11006
0.33740
-0.29014
0.21905
-0.15870
-0.12236
0.18343
0.23448
0.67013
-0.25546
-0.17019
0.18265
0.48050
-0.23513
0.11178
0.33551
-0.81523
0.10179
0.12496
-0.32867
0.04733
-0.30859
0.28665
-0.31560
0.47804
0.48225
0.52930
-0.47927
0.14283
-0.11314
0.01475
-0.13019
-1.07426
0.23242
0.28134
0.14916
0.32408
0.50752
-0.12560
0.35346
-0.11675
0.42799
-0.13939
-0.34244
0.56709
-0.15409
0.14364
-0.56379
0.53300
0.18287
0.20052
0.19048
-0.36182
-0.54258
0.20585
0.35986
-0.03223
0.62518
0.04804
-0.13551
-0.55203
0.38759
0.78684
-0.23945
0.54151
0.72377
0.11033
0.44635
0.45188
0.41016
0.15137
0.00536
0.24805
-0.36610
-0.92350
0.05986
0.06483
0.01181
-1.09687
-0.09230
-0.79240
0.72244
0.15353
-0.22731
-0.00364
0.39297
0.38967
-0.23395
0.49537
0.48652
0.33584
-0.07628
0.39261
0.23221
0.01229
-0.23065
-0.57708
0.36523
-0.14881
0.47447
0.54709
0.03843
-0.23052
0.35784
-0.41834
0.35458
0.37687
0.28447
0.40372
0.37873
-0.38211
-0.05380
0.44960
0.28047
-0.02156
0.83142
0.24500
-0.58260
-0.09603
-0.87779
-0.06826
0.12539
0.21290
0.24793
-0.14807
-0.46195
0.27706
-0.08225
0.52924
0.03103
-0.06875
0.61445
-0.06742
-1.00319
-0.06816
0.07129
0.36954
0.08132
0.42544
0.60048
0.50111
0.43006
-0.71515
-0.44309
0.52506
0.12258
0.37850
-0.08434
0.08377
-0.36991
0.02265
-0.57530
0.32318
0.23286
0.52165
0.17556
-0.27589
-0.06371
0.12853
0.47893
0.06584
-0.40979
0.10659
0.23382
0.80581
-0.09180
0.09323
-0.28021
0.50047
0.35839
-0.16067
-0.18248
0.74010
0.12395
0.36294
0.19264
-0.17973
0.12506
-0.21302
0.10979
0.55288
-0.02774
0.10723
-0.42196
0.15882
0.52853
0.15959
0.11836
-0.58156
0.03119
0.34104
-0.17359
0.31155
0.23949
-0.52301
0.18624
-1.29022
-0.15647
-0.21942
0.21058
0.36821
-0.35434
-0.18210
0.20156
-0.27845
-0.23365
0.49879
0.69704
0.07895
-0.43045
-0.41255
0.49457
-0.20308
-0.42230
0.27491
-1.03388
0.53828
0.54893
0.06819
0.03335
0.64976
0.12820
0.50097
0.05566
-0.03318
-0.47223
0.05262
0.05414
0.03898
0.07513
-0.12857
-0.32473
-0.40674
0.45797
0.30205
-0.21674
0.24950
-0.00362
-0.55500
0.02640
0.06856
-0.23321
0.19962
-0.16746
0.69891
0.23834
0.11001
0.13216
0.17897
0.00049
0.48970
0.24478
0.39351
-0.62419
0.33928
-0.14638
0.16350
-0.05851
0.04570
0.50911
-0.28394
0.29290
0.26677
-0.94591
0.42001
-0.01446
-0.34812
0.08577
0.27361
-0.44403
0.32079
0.41303
0.09365
-0.07136
0.48062
0.09327
0.42133
0.73587
-0.14246
0.39549
0.03761
-0.76183
0.38046
-0.20108
-0.07956
0.35198
0.52740
0.27033
0.06340
-0.40072
-0.11663
0.40719
0.72385
0.22889
-0.45553
-0.14265
0.25168
0.57552
-0.81425
-0.45181
0.51566
-0.59246
0.06397
-0.08236
-0.22235
0.47486
-0.72946
-0.17653
-0.56423
-0.13700
0.25114
0.00429
-0.41524
0.76927
-0.36421
-0.40369
-0.38478
0.08606
0.15329
-0.22133
0.51704
0.14345
0.55041
-0.38182
-1.10366
0.46324
0.21339
0.42227
0.13755
0.42867
0.87667
-0.07137
-0.54865
-0.02193
0.13755
0.54620
0.06886
0.08538
0.19691
0.30269
0.44536
-0.84956
0.11314
-0.18209
0.30861
0.15665
0.27598
0.20559
-0.26632
0.54570
0.05030
0.06884
0.22529
0.45866
-0.03778
0.08210
-0.56483
-0.05846
0.28079
0.37259
-1.21860
0.91989
-0.27482
0.52830
-0.05933
-0.10024
0.24365
0.13391
-0.12581
0.41847
-0.18024
0.17287
-1.53123
0.21624
-0.20035
0.12881
0.45959
0.57990
-0.41080
0.10257
0.52657
0.32534
-0.41608
0.16112
0.27543
0.11451
0.68411
-0.27041
0.31289
0.70830
0.42913
0.48257
0.08284
-0.34282
-0.84332
0.21470
0.65274
0.65253
-0.78119
0.29357
0.11411
0.49501
-0.50445
0.31804
0.70444
0.31099
-0.65998
-0.05296
-0.12291
0.53135
0.24731
0.53506
-0.70303
0.47111
-0.52426
0.46705
0.32500
0.13473
0.41377
0.12543
-0.54400
-0.16246
-0.47794
-0.44528
0.21699
0.33297
0.76845
-0.04303
-0.01659
-0.17193
-0.00253
0.46396
-0.20585
0.51918
0.23187
-0.00561
-0.13098
-1.23123
-0.00542
-0.15930
0.46751
0.57838
-0.35905
-0.27471
0.67095
0.35823
-0.18048
0.58091
-0.27437
-0.35768
-0.65261
-0.29724
0.11330
0.21829
0.37737
-0.06265
0.14257
0.71506
0.18972
0.08099
0.63357
0.06632
0.80973
0.36897
0.13272
-0.19697
-0.34584
0.32618
-0.57950
-0.46045
-0.18093
0.30069
-0.01627
0.10060
-0.28513
0.02936
-0.12207
0.15305
0.14417
0.12913
0.13305
0.16973
0.17254
0.12798
0.16066
0.06699
0.13341
0.12686
0.09432
0.12073
0.15814
0.11853
0.03574
0.07489
0.07108
0.13412
0.17563
0.01295
0.14018
0.15921
0.20972
0.15571
0.15510
0.14431
0.19818
0.07471
0.19034
0.01412
0.04552
0.20680
0.14720
0.14397
0.16036
0.20116
0.00105
0.00080
0.03473
0.09701
0.06894
0.20103
0.07164
0.07915
0.15033
0.01169
0.18398
0.10722
0.16981
0.20543
0.10081
0.10266
0.01832
0.11966
0.01218
0.17160
0.18839
0.06477
0.06602
0.02601
0.09406
0.16331
0.06111
0.20572
0.05491
0.09432
0.05199
0.17303
0.16167
0.02485
0.00359
0.10352
0.12049
0.12442
0.12776
0.15016
0.11567
0.08647
0.13737
0.20285
0.14509
0.18810
0.16703
0.09395
0.17651
0.15437
0.00293
0.13992
0.10308
0.08319
0.17109
0.21101
0.12640
0.03172
0.15029
0.16116
0.12328
0.14185
0.12385
0.20104
0.05700
0.12412
0.14070
0.15138
0.15571
0.08252
0.11537
0.13703
0.00223
0.15124
0.17169
0.20161
0.15294
0.21208
0.09712
0.07468
0.13103
0.05714
0.11313
0.04647
0.08175
0.05076
0.05483
0.08939
0.15325
0.08449
0.11748
0.00057
0.05792
0.13965
0.04557
0.00647
0.11463
0.09006
0.06410
-0.04561
-0.01861
0.07144
-0.00989
0.06750
0.04682
0.21680
-0.07811
0.32970
-0.23072
0.23574
-0.66754
-0.56472
0.33842
0.06434
0.50161
-0.40127
-0.11090
-0.30080
0.57732
0.15134
-0.14882
-0.29742
-0.01011
0.75132
-0.11151
-0.21585
0.06632
-0.23525
-0.65769
0.07415
-0.06059
0.68764
-0.95326
0.16518
-0.29705
0.53636
0.15696
-0.05345
-0.33151
0.55111
0.55247
-0.13651
-0.80268
-0.05718
0.49751
0.00548
0.03986
-0.24898
0.66290
0.09862
0.72214
0.02672
-0.47887
-0.43956
0.26304
0.05433
0.21113
-0.32131
-0.42196
-0.93328
0.37115
-0.95387
0.55179
-0.16817
1.48342
0.21478
-0.45038
0.35347
-0.00280
-0.27244
0.04137
-0.16197
-0.95788
-0.05822
-0.32986
0.12851
-0.39049
-0.04344
0.44137
0.08455
-0.07277
0.15011
0.31168
0.36959
-0.28518
-0.56177
0.01894
0.16801
-0.35792
0.21950
0.47804
0.63591
0.43476
0.86148
0.56594
0.22513
-0.98278
0.21372
0.54892
-0.01425
0.05732
0.57162
-0.20146
0.62112
-0.54805
-0.68974
0.53532
0.42007
0.21531
-0.77788
0.18955
0.19195
-0.57216
0.44046
0.69283
-0.31272
0.19181
-0.11694
-0.27334
-0.06713
-0.33939
-0.84170
0.89938
-0.39690
-1.00733
0.25812
-0.04429
-0.05867
0.69652
0.32493
0.18002
-0.36319
0.69326
-0.64546
-0.50326
0.19145
0.10288
0.15281
0.30545
0.09724
0.45424
0.51603
-0.63777
0.40639
-0.12400
-0.14130
0.19382
0.61298
0.32429
-0.25116
-0.32060
0.61194
-0.47492
-0.27102
-0.15226
-0.32691
-0.20319
0.18644
0.92793
0.15301
0.38408
-0.55264
0.44981
0.63396
-0.56424
-0.00873
-0.70491
-0.10692
-0.47985
0.38884
-1.42023
-0.10751
-0.15611
0.60338
-0.84125
0.22570
0.58913
0.71441
-0.32442
-1.42896
0.08363
0.41823
0.27521
0.69207
0.68039
0.08280
0.01768
0.57306
0.27474
-0.31532
-0.48248
-0.23973
0.73430
0.15725
0.43218
-0.39572
-0.05675
0.12242
0.17760
0.10478
-0.07264
0.11747
-0.19812
-0.47958
-0.51121
-0.13637
0.12094
-0.07289
0.08067
-0.17849
0.03800
-0.15179
-0.15126
0.40208
0.12724
-0.20268
-0.41415
0.62007
0.30598
-0.85695
0.09239
0.21835
0.42713
0.34693
-0.98180
0.13728
-0.66049
0.40653
-0.09544
-0.29172
-0.20891
-0.00737
-0.74405
-0.07956
-0.07764
-0.05604
0.34498
-0.24055
-0.19680
0.04795
-0.06527
-0.08684
-0.18787
-0.11759
0.20488
0.07458
0.02241
-0.18639
-0.20382
-0.03662
-0.10550
-0.36650
0.20119
-0.07693
-0.45588
0.40766
-0.03160
-0.38954
-0.42078
-0.22118
-0.56820
-0.19783
-0.03575
0.28797
-0.13850
0.14205
0.25443
-0.22012
-0.41399
0.36679
0.01191
0.28989
0.49353
-0.45013
0.22597
-0.15743
-0.38415
-0.04510
0.16677
0.69902
0.01691
0.03219
-0.12339
0.48623
0.42862
0.20934
0.52802
0.31784
0.23056
0.04020
0.53545
0.22498
0.53049
0.41714
-0.78727
0.35054
0.06872
0.46685
-0.10063
0.36557
0.43284
0.33582
0.23839
0.34041
0.47915
1.10568
-0.02627
0.07192
0.71349
0.69849
-0.04874
0.34738
0.81008
0.47194
-0.36586
0.38170
-0.46271
-1.30807
-0.03214
-1.51917
-0.44687
-0.48309
0.71498
0.10934
0.20366
-0.43285
0.25791
0.40489
0.17196
0.03318
0.65632
-0.34300
0.19308
-0.57515
0.26273
-0.05298
0.35790
-0.08482
0.24896
0.41199
0.26009
-0.21344
-1.19845
-0.40077
0.19604
-1.08231
0.21654
-0.56674
0.38801
-0.23569
-0.07538
0.06988
-0.65695
0.40507
0.47889
-1.28997
0.29372
-0.46194
0.65718
0.42370
0.08254
0.25232
0.28904
-0.09389
-0.05099
-0.05804
-0.35265
0.18241
0.34367
-0.45218
0.15176
0.56483
-0.63931
-0.32545
-0.01983
-0.71754
-0.84132
-0.00102
-0.07774
-0.66079
0.51938
0.46402
0.25590
0.66843
0.01929
0.08447
0.45531
0.28029
0.31371
0.74355
0.39522
0.01065
0.03870
0.21176
-0.61903
0.75448
0.17031
-0.04533
0.25289
-1.02160
0.03653
0.59657
0.42143
-0.16433
0.49545
0.81672
-0.41619
0.33797
0.24093
0.23223
-0.53943
0.55466
-0.32862
-0.71945
0.41765
0.33499
-0.02164
0.31894
-0.64488
0.16678
-0.07728
0.33176
0.19774
-0.67095
-0.00331
0.44797
-0.07220
-0.33732
-0.19614
0.26489
-0.00873
-0.66549
0.04317
0.27904
-0.12084
0.00767
0.64498
-0.06647
0.42001
-0.61544
-0.25841
0.26531
-0.33593
-0.88278
0.13880
0.23119
0.45131
0.31564
0.43745
-0.16861
0.39055
-1.27149
0.22154
-0.27292
0.92003
0.69373
0.33239
-0.00762
0.00544
0.12088
-0.00753
0.29871
0.12911
0.25105
-0.61398
0.37876
0.45767
0.00251
0.01284
0.65312
0.00066
0.12389
-0.64207
0.15460
0.49956
-0.03360
0.35388
0.13354
0.27636
-0.31920
-0.27885
-0.36681
-0.14733
-0.11008
0.16408
-0.26086
0.09362
0.08849
-0.24996
-0.34987
0.54880
0.03949
0.27259
0.34953
-0.53412
-0.15527
-0.21519
0.51701
-0.15223
-0.66424
0.57226
0.21872
0.67498
0.19268
-0.36498
0.16969
0.14578
-0.10072
0.31420
0.45249
0.38727
-0.23353
-1.18366
0.00911
0.63351
0.51268
-0.07265
-0.52336
0.68906
-0.14802
-0.06237
-0.23008
0.59805
-0.87901
-0.18664
-0.37509
0.14504
-0.12987
-0.43609
0.29603
-0.02861
0.02564
0.38177
0.65958
0.16874
-0.30986
0.08281
0.08726
0.00883
-0.71385
0.17676
0.59582
-0.10752
-0.66945
0.54916
-0.67843
0.10808
-0.33046
0.76217
0.42657
0.15293
0.26415
0.16851
-0.99057
-0.18922
0.44000
0.73765
0.48705
-0.04993
-0.56023
-0.15232
-0.51926
-0.19840
-0.62542
-0.50641
-0.31486
-0.01329
-0.61239
-0.26477
0.12373
-1.00070
0.20419
-0.04060
-0.20750
-0.73910
-0.98173
-0.21687
-0.72385
0.05538
-0.49113
-0.54135
-0.01970
-0.44041
0.11397
-0.04780
-0.02566
-0.03272
-0.04017
-0.58845
0.01199
0.12687
-0.22207
0.32222
0.16037
0.07879
0.40095
0.05660
0.08653
0.49410
0.52295
-0.03516
-0.06656
0.19542
0.31747
0.66752
0.32572
0.38136
0.38886
0.12715
-0.05655
-1.04045
-0.18838
-0.16622
-0.48573
0.38941
0.07991
0.42764
0.62045
0.14931
-0.31446
-0.08140
-0.08495
0.38743
0.08717
0.12586
0.00670
0.29055
-0.16152
0.08126
-0.08974
-0.19412
-0.43359
0.26491
-0.75151
0.01890
0.62729
0.32448
0.43878
-0.09098
0.16489
0.11725
0.35110
-0.71279
0.06980
0.44422
0.12081
0.09770
-0.27099
0.04707
0.52783
0.05121
0.29758
-0.03245
-0.38407
0.26686
-0.55556
-0.15214
-0.50441
-0.51001
-0.01137
-0.36223
0.20153
0.01749
-0.24087
-0.54900
-0.42112
-0.66563
-0.73920
0.66097
-0.84454
-0.61614
-0.47949
-0.22394
-0.90198
-0.72308
0.43339
-0.14211
-0.68561
0.09867
-1.49859
-0.09090
0.39890
-0.88809
0.27942
0.53800
0.01443
0.14518
-0.83025
0.10154
-0.66310
-0.40965
0.14013
0.20599
0.11169
-0.26950
-0.09964
0.18682
0.02121
-0.65379
-0.85072
-1.01264
-0.87132
-0.15717
-1.48081
-0.30384
0.33830
-0.67062
0.47303
0.31290
0.04308
0.10073
0.14237
-0.48483
-1.68820
0.16502
-0.10862
-0.35451
-0.28219
-0.21491
-0.49272
-0.98561
-0.68690
-0.33321
-0.01345
0.11075
-0.47211
-0.75768
-1.18706
0.16322
-1.40611
-0.23469
-0.17175
-0.05455
-0.12220
-1.08566
0.41369
-0.21243
-0.28145
-0.42246
-0.07455
-0.43479
-0.12945
0.26312
-0.38081
-0.54186
0.33270
-0.03120
0.32765
0.74703
0.30436
0.59284
0.15594
0.62035
0.57305
0.54308
-0.45960
-0.24369
-0.88798
-0.49178
0.04080
-0.19973
-0.61898
-0.81668
-0.18881
0.29252
0.04933
0.30198
-0.23274
0.19253
-0.67983
-0.24607
0.06528
0.11072
-1.38619
0.33266
0.30969
0.69755
-0.22671
-0.71062
-0.02420
-0.63269
-0.29419
0.90319
0.55757
0.05133
-0.56844
0.15182
0.60572
-0.12090
0.31663
-0.62088
0.31692
-0.67207
0.46451
-0.20079
0.55387
-0.42321
0.27770
-0.82782
0.10765
0.17458
-0.66655
0.16363
0.17678
0.52157
0.38892
-0.14511
-1.09235
0.12067
0.63890
-0.80264
-0.08344
0.64945
-0.12818
-0.06488
0.60052
-0.01015
0.10800
0.21502
0.21640
0.41369
-0.42097
0.68522
0.25878
-0.06495
-0.29083
0.34680
0.21700
0.10626
1.01558
0.22145
-0.71210
-0.02049
0.39112
0.27012
-0.05277
-0.00441
-0.21191
-0.53599
-0.90594
0.09657
-0.50273
0.90326
-0.14103
1.05221
0.62769
0.01050
0.60455
-0.07450
-0.61017
0.29608
-0.27664
0.23932
-0.14119
0.08583
-0.89527
-0.02511
-0.19508
-0.55278
-0.76556
-0.01708
0.04537
0.27725
0.42143
-0.48596
-0.48827
0.68626
0.21382
0.97060
-0.54055
-0.32389
-0.38296
0.79328
0.17256
0.11037
-0.15310
-0.46856
-0.01767
-0.49902
0.12777
-0.46285
-0.47735
0.20423
-1.01421
0.14483
-0.20285
0.39416
0.20061
0.30154
0.03001
-0.20345
0.40489
0.39817
-0.62455
0.07704
-0.76191
0.48925
-1.02849
-0.91714
-0.69491
-0.16260
-0.08026
-0.14012
-0.30022
-0.45108
-0.53871
-0.71190
-1.03049
-1.19218
0.49260
0.37127
-0.14898
0.49253
0.17600
-0.85860
0.17158
-0.23071
-0.60257
-0.82514
-0.13775
-0.38134
0.25287
-0.38640
-0.13152
-1.06856
0.58681
-0.06190
-0.48275
-0.09708
0.09460
0.07067
-0.19850
-0.56603
0.08611
0.31566
-0.07061
-0.70041
0.24898
-0.29927
0.08660
-0.18449
0.35521
-0.30232
-0.70407
-0.24260
0.05424
-0.97506
0.12095
0.16913
-0.96567
-0.29076
-0.05596
-0.11603
0.43013
0.05836
0.16341
-1.20462
-0.40159
-1.07092
0.15063
-1.23121
0.33779
-0.14484
-0.14935
-0.15886
0.39875
-0.01267
0.11635
0.16817
-1.23176
-0.13147
-0.40829
-0.36976
-0.31827
-0.93966
-0.87806
0.33331
0.16829
-0.03666
-0.14632
0.04415
-0.42709
-0.17158
0.31476
-0.17812
-0.58462
-0.84382
0.11487
0.05943
-0.09749
0.24317
-0.45149
0.26088
-0.00159
0.00630
0.22971
-0.15822
-0.37554
0.08727
-0.12858
-0.59527
-0.20738
0.16428
0.24560
-0.76046
0.22587
-0.80740
0.10248
0.26071
-0.35862
-0.06158
0.15945
0.54102
-0.46107
0.76165
-0.06538
-0.27451
-0.33641
-0.02109
0.23490
-0.34665
-0.18086
0.35658
-0.34911
-0.13341
0.05580
-0.49594
0.26388
-0.51520
0.52796
-0.21189
0.27782
0.30689
0.09994
0.28959
0.12931
0.24502
-0.15851
0.09548
-0.25112
0.60702
0.24344
-0.28531
-0.34781
-0.73596
0.23156
-0.72288
-0.34266
0.25429
-0.54593
0.11838
-0.50505
0.09401
0.50021
0.64654
0.51266
-0.02170
0.02275
-0.68272
-0.92596
0.31466
0.01300
0.39824
0.25190
0.03288
0.24233
0.19106
-0.30633
-0.04823
-0.27083
-0.15472
-0.85605
-0.54682
-0.60329
0.55291
0.14604
-0.83871
0.64523
0.42015
0.26550
0.17407
0.57286
0.51350
-1.41657
-0.04448
-0.02614
0.43684
-0.83034
-0.38765
-0.44596
-0.15524
0.24899
-0.25593
-0.16762
-0.33215
0.37819
-0.35333
0.05565
-0.34270
0.54364
-0.03955
0.23886
0.47576
-0.48103
-0.25022
-0.52762
0.43820
-0.28194
-0.08276
0.09200
0.13340
-1.06882
-0.18281
0.04883
0.14411
0.12915
0.17828
0.08980
0.51561
0.54675
0.13273
-0.30567
0.83038
0.08340
-0.71694
-0.46105
-0.96106
-0.78505
0.45811
-0.12112
-1.01148
-0.22735
-0.27676
-0.28223
0.36902
-0.03403
0.45674
0.37529
-0.09391
0.19206
0.81128
0.02182
0.28948
-0.51621
0.26057
0.47224
0.40545
0.55471
0.82809
0.06093
-0.00499
-0.19531
0.41096
0.02251
-0.27033
0.02297
0.46092
-0.81954
-0.94612
0.08341
-1.10301
0.38279
0.36384
-0.15493
-0.45720
0.09458
0.40324
0.19492
-1.07385
0.36485
-0.11079
-0.20040
-1.05023
0.09832
-0.70106
0.18745
0.14142
0.03866
-0.33288
0.23093
-0.80016
-0.34340
-0.12904
0.08663
0.02918
-0.00593
0.01549
-0.27200
0.26512
0.32299
-0.83699
-1.20954
-0.49548
-0.31341
-0.31760
-0.87092
-0.59822
0.35471
-0.35272
-0.65923
-0.32897
0.62170
-0.29309
0.27238
-0.24589
-1.19028
-0.70372
0.01330
0.57326
0.27970
-0.00104
-0.96759
-0.16155
-0.15935
-0.20112
-0.06034
0.57112
-0.04194
0.51646
-0.31140
-0.28607
0.14160
-0.28389
0.18021
-0.17164
-0.42220
-1.26557
-0.94064
0.34069
-0.04567
0.30879
-0.29040
0.59184
0.08271
-0.21868
0.27337
-0.46733
-1.42868
0.49856
-0.11192
-1.21076
-0.27114
-0.00731
-0.83104
0.04239
-0.28503
0.30763
0.54190
0.01750
0.11563
0.17778
-0.39717
0.06792
0.24506
-0.38059
0.01513
-0.40450
0.11870
-0.51332
0.27496
0.25514
0.24769
-0.23804
-1.37082
-0.83870
0.67058
-0.67199
-0.59256
0.48724
-1.18346
-0.55593
-0.69066
-0.27250
0.43817
0.60994
0.05569
-1.16183
-0.24192
0.18645
0.44331
0.54061
0.42925
0.48797
-1.29316
0.01157
-0.26984
-1.16749
-1.18707
0.19354
-0.33950
-0.68262
0.48920
-0.05824
-0.34324
0.54745
0.41722
-0.04333
-0.07190
-0.15731
-0.51952
-0.04052
-0.99028
-0.19466
-0.05635
-0.90541
-0.17377
0.31996
0.01526
-0.20055
0.06597
0.30372
-0.19918
-0.14649
0.39796
0.08190
0.00641
0.17496
0.17884
0.14143
-0.13612
-0.11831
0.01679
-1.06108
0.60325
-0.60267
0.43957
-0.90428
-1.54854
-0.25185
-0.99425
0.13700
0.44336
-1.24521
0.13555
0.19555
0.40100
-0.02108
0.48520
-0.60011
0.19430
0.61682
-0.14070
-0.07222
0.20790
-0.13125
0.32633
-0.03643
-0.10899
0.32598
-1.00330
-0.62495
0.50579
-0.33749
0.25596
0.47864
-0.27665
-0.34827
-0.67351
0.08199
0.48983
0.37168
-0.29748
0.41735
-0.25160
0.81701
0.06682
0.12657
-0.00630
0.06012
0.19727
0.11533
0.22996
-0.31290
0.37256
0.03823
-0.32580
0.60448
0.41228
-0.33929
0.41464
-1.55216
0.66880
0.62849
0.30096
0.31148
0.25910
0.41688
0.50981
-0.04443
0.21318
-0.26837
0.49658
-0.74782
0.33969
-0.09339
-0.05700
0.20207
-0.11756
0.28612
0.48833
-0.11051
0.51679
0.20398
-0.42042
-0.71438
0.25952
-0.65105
0.28741
0.21858
-0.05205
-0.18283
-0.02493
-0.04921
-0.37480
0.21815
0.47805
-1.64108
-0.34294
0.21365
0.10140
-0.35004
0.20357
-0.04000
-0.07989
-0.29341
0.44305
0.25945
0.51400
0.11854
0.21661
-0.11188
-0.08312
0.20222
-0.08451
0.25804
-0.04628
0.09738
-0.20170
0.07299
0.64881
0.30106
0.21776
-0.05263
-0.84090
0.21040
-0.23926
0.54004
0.08668
-0.43303
-0.48807
0.10739
0.02026
0.35654
0.49959
-0.54705
0.57091
-1.13103
-0.62925
0.68188
0.14761
0.12203
0.38589
0.43499
-0.27461
0.59677
0.34646
-0.03182
-1.08101
-0.45549
-0.39230
-0.68613
0.38032
0.38935
-0.43866
-0.14156
-0.04121
0.46901
-1.03548
0.49521
0.41317
0.45020
0.33521
-0.56214
-0.07703
-0.30219
-0.22400
-0.13510
-0.03807
0.24088
-1.09972
0.02301
0.01187
0.51692
0.39442
0.48395
0.38904
0.80576
0.24756
-0.31511
-0.22994
0.01298
-0.35054
0.15101
0.44262
0.24712
-0.06493
-1.13660
-0.25365
-0.85832
0.58358
0.20090
-0.73986
0.23754
0.51111
0.64391
-1.68157
-0.20364
0.26299
0.14527
0.40097
0.30976
0.40266
0.66285
0.60964
-0.36419
-0.13230
0.44488
-0.25818
0.15887
0.46754
-1.11382
0.66045
0.36790
0.31812
0.38690
0.40623
0.52889
-0.22619
-0.52201
0.50765
0.43628
0.51893
0.50453
0.38757
-0.08201
0.54989
0.36856
0.32259
-1.49981
-0.10958
0.19293
0.42195
-0.13941
0.12353
0.26135
0.57624
0.02255
-0.43148
-0.46200
0.49797
-0.09731
0.08678
-0.01929
0.29124
-0.20363
-0.31651
0.10821
0.18105
0.33420
-1.79804
0.41902
-0.95997
-0.70101
0.14926
-0.86650
0.00749
0.19588
0.26845
0.06150
0.22429
0.35086
0.23806
0.22243
-1.06731
0.14340
-0.20808
0.13840
-1.00958
0.18062
-0.08883
0.71662
-0.79780
-0.02016
0.09417
-0.31422
0.10508
-0.25735
-0.17665
-0.93486
0.26636
0.18542
0.19095
0.52943
-0.24372
0.79710
0.73973
0.15579
0.15017
0.14239
-0.19731
0.51386
-0.22226
-0.28296
0.15827
0.12752
-0.98509
0.12588
0.16299
-0.44684
-0.49882
-0.18655
-0.52614
-0.18550
-0.98552
-0.21629
-0.19781
0.13443
-0.06044
-0.64912
-0.94036
-0.16292
-0.90812
-0.60786
-0.54084
-0.09446
-0.60469
0.53400
0.87870
-0.17773
0.22503
-0.60447
0.87369
-0.27732
-0.20911
-0.23451
-0.28138
-0.55706
-0.56454
-0.61364
-0.58620
-0.25167
-0.00541
-0.25983
-0.42486
0.12952
0.14524
-0.24515
0.48789
0.08961
-0.61741
-0.24351
0.60497
0.22338
-0.95733
0.03915
0.44301
-0.88046
0.42272
0.50508
-0.55200
0.47416
0.46894
0.40282
0.44222
-0.08523
0.47361
-0.61483
-1.07317
0.18805
-0.05307
0.17052
0.23274
0.40496
0.46863
0.14490
0.36833
-0.58120
0.45673
0.19405
0.01908
-0.15497
0.17690
-0.24035
0.51607
-0.13841
0.16133
0.00552
0.44426
-0.18040
-0.12320
-0.02624
-0.09813
-0.05169
0.45033
-0.07224
0.14342
0.32971
-0.04169
-0.10863
0.02258
0.36544
-0.13812
-0.00401
-0.42548
-0.03267
0.13826
0.13991
-0.64250
0.18048
-0.10501
-0.32752
0.36639
-0.33150
-0.47775
-0.60418
-0.03901
0.43397
0.39373
-0.02259
-0.06300
0.44254
0.22581
-0.01014
0.36441
0.28777
-1.23805
0.08404
0.56079
0.47014
-0.07732
-0.90613
0.44650
-0.45068
0.30064
0.28140
0.47325
0.45348
0.36831
0.48657
-0.31081
0.53948
0.15424
-0.15801
0.53881
0.40929
0.09903
0.30350
0.13423
0.37111
0.43109
0.44375
0.36750
-0.79255
0.51971
0.29265
-0.76655
-0.14008
0.13301
0.67357
-0.19996
0.17009
-0.54618
-0.20122
0.52030
0.55822
-0.20498
0.23776
-0.56857
0.08751
0.11141
-0.25033
-0.24542
-0.13054
0.11201
-0.23264
-0.22200
-0.23208
0.19701
-0.18626
-0.69905
0.13749
0.18780
0.11061
-0.26583
0.58123
-0.55845
0.36521
0.06398
-0.33839
-0.30430
0.30868
-0.07177
0.56321
0.32680
-0.33676
0.13088
-0.98074
-0.92636
-0.79847
-0.40817
-0.20652
-0.53692
0.27201
-0.06116
-0.29559
-0.00819
0.26237
-0.72726
0.22555
0.05935
-0.55655
0.53189
-0.50799
-0.56406
0.62188
0.69253
-0.18680
-0.36107
0.49411
-0.65523
-0.06974
-0.07269
-0.08666
-0.44304
-0.68032
0.38083
0.22553
0.27145
0.06633
0.54422
0.07795
0.32457
-0.30639
0.21842
0.46874
0.14997
0.41877
-0.08352
-0.49388
0.65745
0.05570
0.01621
0.02853
-0.29849
0.56897
0.13105
-0.08504
-0.19348
0.25958
0.05218
-0.73115
-0.27875
-0.02125
-1.05919
0.47806
-0.68453
-0.71682
0.16974
0.43879
-0.48429
-0.74353
0.61793
0.20355
-0.50248
0.63069
0.42006
0.03540
-0.00847
0.00572
0.41813
0.27504
-0.43511
0.26130
-0.17857
-0.26196
-0.44419
0.13975
0.02326
0.42539
0.34936
0.30185
0.53427
-0.06560
0.12518
0.18810
-0.11804
0.10421
0.30055
-0.91130
-0.53218
0.03987
-0.23162
-0.07938
-0.00069
0.13052
0.51807
0.10411
-0.92087
-0.08663
0.31787
-0.61727
0.34360
0.05453
0.16022
-0.24385
-0.19297
0.05090
-0.25806
