0.21160
-0.69341
-0.29740
-0.59875
0.57658
0.50812
-0.10846
0.78867
0.35683
-0.06083
0.29739
-0.07038
-0.07735
-0.58650
0.39729
0.16772
0.02342
0.06925
0.22789
-0.19593
0.51521
0.62399
-0.13046
0.24479
-0.06098
-0.39596
-0.61645
-0.16026
-0.21290
-0.76646
-0.09978
-0.00344
-0.22302
0.21346
-0.28439
0.65360
0.70000
-1.09103
0.37579
0.24058
0.04265
-0.46973
0.37010
-0.57149
0.48773
0.50063
0.49730
0.63497
0.47672
-0.29877
0.37852
0.45828
0.54347
0.32195
-0.37314
-0.75585
-1.10316
0.38132
-0.13830
-0.32960
0.03289
0.41905
0.17252
-0.14795
-0.16937
0.20754
0.90255
-0.09848
0.45862
0.52518
0.53657
0.03691
-0.38978
0.14459
0.44084
-0.07738
-0.20941
-0.41323
0.10856
-0.24065
-0.07963
-0.01262
0.53120
0.85589
0.76182
-0.52544
0.16869
0.42683
0.23224
0.00023
-0.10022
-0.18961
-0.03207
0.26306
-0.14551
-0.05180
0.35246
-0.30047
-0.10884
0.63274
0.20702
0.15654
0.24475
-0.10838
-0.02513
0.32266
0.38390
0.50722
0.17153
-0.83538
-0.63902
-0.31497
-0.12144
0.16204
0.06599
0.11317
0.31995
0.00027
0.27062
0.21466
-0.80121
-0.43770
-0.52847
0.74332
0.17259
-0.69393
-0.49542
0.61033
0.13288
0.26136
0.34355
-0.12167
0.01726
0.48441
0.47739
0.21456
-0.04826
0.33978
-0.00342
0.53486
-0.08866
0.18326
0.26896
-0.61662
0.05033
0.03416
0.21229
0.15399
0.06018
0.11019
-0.30223
-0.00839
0.28521
-0.44595
-0.47511
0.37633
0.72447
-0.46981
0.32887
0.07702
-0.00786
0.18760
0.27375
-0.11686
-0.35636
0.32826
0.18155
0.05959
-0.30696
0.67083
0.91520
0.46702
-0.84271
-0.16172
-0.74049
-0.51435
-0.58363
0.07788
-0.01313
-0.47919
-0.55169
0.35694
0.64442
0.21472
-0.08327
-0.10127
0.11730
0.52019
-0.02954
0.50446
0.10726
0.09705
0.71124
-0.66348
-0.23660
-0.16777
0.14686
-0.66147
0.41999
0.41263
-0.24196
-0.92289
0.83975
0.38925
0.18964
-0.01475
0.18272
-0.02735
-0.22711
-0.49398
-0.05653
0.33126
0.39991
-0.41474
-0.30855
0.55494
-0.66661
0.25488
0.34961
0.00609
-0.10480
-0.01651
0.34639
0.35230
0.08573
0.62985
0.26025
0.31289
-1.07842
-0.02544
-0.49320
-0.25052
-0.17208
-0.62530
-0.35068
0.18692
-0.13767
-0.00851
0.61811
0.21877
0.46548
-0.05754
-0.45846
0.14962
-0.87611
0.14728
-0.38577
0.02278
0.01054
0.18207
-0.01077
-0.03465
0.19335
-0.44256
0.33374
-0.55713
-0.31033
-0.14634
0.18779
0.36911
-0.15270
-0.20272
0.41830
0.24106
-0.45420
-0.12589
-0.38094
-0.29737
-0.54369
-0.24703
0.14146
0.87371
0.26830
0.15459
0.34513
0.44825
-0.08274
-0.95193
0.03727
-1.03143
0.64708
0.31225
0.58685
0.62189
-0.19200
-0.73327
-0.30307
-0.03620
0.28267
0.46649
0.15373
-0.35077
-0.33566
-0.08117
-0.63851
0.18800
0.20475
-0.26092
0.33894
-0.08539
-0.94080
0.21648
-0.43718
-0.14482
-0.14194
-0.27894
0.02260
-0.33425
0.19776
-0.62633
-0.21240
0.27973
0.48385
-0.65506
-0.02978
-0.16040
-0.85190
0.28883
0.10216
-0.07225
-0.03445
0.50792
0.46586
0.18932
0.14127
-0.18609
-0.59367
0.33410
0.55394
0.23121
-0.43879
0.07294
0.22276
0.52393
0.49796
0.33826
0.63169
0.07574
0.58969
0.12346
0.23189
-0.45613
0.01507
0.38393
0.66636
-0.02989
-0.18057
0.52451
0.74785
0.14124
-0.45468
0.42033
-0.23019
-1.10414
-0.22617
0.41949
0.50393
0.05382
0.18468
0.23028
0.14943
0.33916
0.28563
0.21788
0.18191
-0.43283
-0.06400
0.13912
0.47484
0.84889
0.47999
-0.48610
-0.32365
0.65637
0.55765
0.30197
-0.30190
0.14569
-0.07361
0.42135
0.03610
-0.64946
0.23215
-0.33638
-0.41397
-0.31264
0.22167
0.17432
0.76198
0.15886
0.50056
-0.34936
0.07324
-0.10057
0.34621
-0.53245
-0.17816
0.54417
-0.37242
-0.01867
0.55431
0.14522
0.49550
0.07934
-0.18886
-0.31134
0.14501
0.05285
-0.06798
0.04853
-0.22823
0.26006
-0.12401
0.21997
0.14339
0.65723
-0.33284
-0.07199
0.72919
-0.71669
-0.24397
-0.48841
-0.28373
-0.14094
0.72918
0.30104
0.07205
0.28649
0.07123
-0.36711
0.09480
-0.04403
0.11807
-0.50836
-0.24738
0.23219
0.65712
0.32796
0.06955
0.06175
0.37038
-0.69030
0.28509
0.22726
0.34185
0.11733
-0.18427
-0.36670
0.28858
-1.66099
0.42469
0.48747
0.11679
-0.06544
-1.58590
0.04339
-0.47891
-0.53058
0.03317
0.31978
0.20741
0.10166
0.44027
0.06044
-0.39403
0.14251
0.41363
-0.08803
-0.19359
0.10111
0.13872
-0.16747
0.49836
-0.33582
-0.35603
0.49784
-0.06049
0.36657
-0.50541
-0.67063
0.10189
0.36976
0.06727
0.06915
-0.20018
0.08708
0.15913
0.20816
0.08186
0.08675
0.05790
-0.08694
0.43231
-0.80876
-0.20089
0.18037
0.52223
0.39584
-0.36726
0.44738
0.11771
-0.12298
0.22101
0.52998
-0.32369
0.07586
0.03452
0.17590
0.49530
-0.02757
0.17158
0.40974
0.89827
-0.06046
0.25287
0.41244
0.36112
-0.27366
0.02246
-0.03019
0.40662
-0.99372
0.47409
0.28038
0.51194
0.37110
0.44955
0.14980
-0.04832
0.05769
-0.38842
-0.50809
-0.40004
0.22706
0.35617
0.32671
0.05248
0.34692
0.01743
0.62798
0.17584
0.11107
-0.09171
-0.37323
-0.27049
-0.07798
-0.03886
-0.23308
-0.11296
0.37555
0.42869
0.35148
0.10802
0.16763
-0.81983
0.13470
-0.21737
-0.55869
0.15596
0.22183
0.49783
-0.31686
0.41455
-0.13756
0.20292
0.11725
0.53526
0.09603
0.06379
-0.07994
-0.32060
0.75453
0.53254
-0.19438
0.35582
0.25141
0.48690
0.34331
0.01825
0.31256
-0.40158
0.16538
-0.06993
-0.32752
0.41110
-0.02549
0.31857
-0.05771
0.19518
0.80266
0.25542
0.48996
0.41704
0.85025
0.18242
0.51016
0.10520
-0.09113
0.05757
0.72712
0.16424
-0.92909
0.60360
0.07712
-0.36509
0.51679
-0.54164
-0.35552
0.07732
0.00099
0.15194
0.02325
0.20479
0.24555
0.10930
-0.21421
-0.23799
0.09056
0.36772
0.22119
0.91810
0.15531
0.26305
-0.14130
-0.16459
0.19810
-0.33634
0.56428
0.02815
-0.61215
0.64586
-0.88563
-0.32595
0.31847
0.25101
-0.24494
-0.18096
0.37129
0.38104
0.11428
-0.17019
0.31735
-0.28430
0.03628
-0.55362
-0.05947
-0.79663
0.31073
0.03399
0.40595
-0.81663
-0.33745
-0.31396
0.06764
-0.01223
0.13314
-0.58077
0.19338
0.12543
0.14938
0.42145
-0.50576
-2.17439
0.38242
0.05588
0.15973
0.37778
0.35290
-0.70063
0.71496
0.48628
0.38715
0.21621
0.20800
-0.06788
0.14716
0.01503
0.16157
0.19792
0.28933
-1.46494
0.66477
0.76993
-0.14791
0.01060
0.67934
-0.10741
0.20560
-0.20830
0.41894
-0.04254
-0.07788
0.09968
0.64418
0.41996
0.12977
0.05161
0.09113
-0.28556
0.05100
-0.32133
-0.11092
0.01478
0.43510
0.54297
0.47619
0.00653
0.33851
-0.11328
0.31911
-0.05970
0.39454
0.01647
-0.11852
0.26656
0.17459
0.65856
0.46730
0.74333
0.31379
0.59338
0.44922
0.31112
-0.45819
0.70772
-0.04807
0.21661
-0.23040
0.11378
0.12053
-0.39165
-1.00662
0.34534
-0.07026
0.56138
0.21435
0.30951
0.48433
0.09274
0.13852
0.24720
0.24913
0.31518
-0.13574
-2.12638
-0.55088
0.16341
0.07828
0.46472
-0.33127
-0.14830
0.12835
0.49683
-0.18910
-0.45038
0.26050
0.55551
0.45266
0.25609
-0.12649
-0.02156
0.70484
-0.21362
-0.12499
0.10788
-0.39210
0.09058
0.45872
0.59503
-0.25288
0.22157
0.28326
-0.12789
0.18540
0.14349
0.55657
-0.00486
-0.02831
-0.12083
-0.15557
0.03932
-0.62072
-0.18608
0.32475
-0.38539
0.53488
-0.33406
0.56672
0.46012
0.16605
0.07852
-0.36042
0.32695
-0.03038
-0.39376
0.20891
0.19662
0.67180
0.12592
0.09213
-0.54901
0.11158
-0.34816
0.75572
0.04817
0.08387
0.03166
-0.63677
0.11753
-1.53601
-0.12337
0.52524
0.25174
0.39225
0.38254
0.77950
0.12533
-0.67120
0.42871
0.37745
0.80794
-0.30224
0.26235
-0.10675
0.20454
0.18476
-0.10913
0.45787
-0.19407
0.75101
0.18760
-0.11471
-0.59206
-0.23911
0.64305
0.06799
-0.13373
-0.78116
0.18519
0.35099
-0.46753
-0.19955
0.33632
-0.15837
0.66829
0.10903
-0.17564
0.21266
0.52969
0.10033
0.53520
-0.15319
0.07767
0.36527
-0.01963
0.73026
0.45862
-0.62831
-0.15987
0.08881
-0.19313
-0.23951
0.12966
0.54116
-0.09424
-0.84390
-0.27119
-0.18237
0.31481
-0.19801
-0.04716
-0.03441
0.24539
-1.79299
0.16651
-0.28394
-0.60748
0.44656
0.26869
0.27584
-0.12246
0.61312
0.22096
-0.02661
0.38468
-0.38756
-0.18356
0.59578
0.17551
0.55697
0.92228
0.41508
0.17937
0.51584
-0.79263
0.28526
-0.18497
-0.05397
0.30819
0.39084
-0.57176
-0.36770
0.15284
0.03766
-0.29236
-0.20325
0.21091
0.33302
0.02151
-0.01406
0.03958
0.30419
-1.30173
-0.22794
-0.28874
0.10277
0.46324
0.51440
-0.27763
0.23891
0.04710
0.12447
-1.21765
-0.23453
0.18047
-0.01163
0.15777
0.31403
0.52466
0.01239
0.87350
-0.04273
-0.44833
0.54704
0.18918
0.20002
-0.16187
0.37323
0.03993
-0.16334
0.24931
0.12160
-0.32579
0.30238
0.50557
-0.15206
-0.78453
0.43404
-0.18554
0.51637
-0.34569
-0.78408
-0.12641
0.16646
-1.15491
-0.29283
-0.19311
0.62551
-0.25303
0.15809
0.70163
-0.16615
-0.12731
-0.34563
-0.31600
-0.00462
0.46676
-0.04792
0.56466
-0.54290
-0.10291
0.33096
0.28662
0.08483
-0.15953
-0.20226
0.30472
-0.20753
0.00567
0.67428
-0.22637
-0.73308
-0.16530
0.49818
0.25193
0.27915
0.49498
0.14002
-0.14919
0.76785
0.65942
-0.09503
-0.24389
-1.02973
-0.22042
-1.00641
-0.54372
-0.00226
-0.14167
-0.09558
-0.28494
0.62757
0.12246
0.32210
0.13471
0.58925
0.15136
0.12026
0.35000
0.20183
-0.80732
-0.08548
-0.33016
0.72099
-0.24774
0.53797
0.03274
-0.23359
0.47410
0.35857
0.28356
-0.17340
0.52238
-0.43553
-0.62201
0.10463
-0.46780
-0.07369
0.10956
0.20552
0.70569
-0.29693
-0.16285
0.10671
0.51339
-0.18339
0.16010
0.42487
-0.86097
0.09579
0.16939
-0.33587
0.13033
-0.30679
0.32157
-0.32307
0.51691
0.64237
-0.56072
-0.04403
-0.09963
-0.04695
-0.51605
-0.76083
0.11310
0.04233
0.26798
0.63724
0.03306
0.37576
0.04789
0.50129
-0.08280
-0.60380
0.60521
0.04517
0.12574
-0.43116
0.53707
0.28952
0.14896
0.05222
-0.43419
-0.21881
-0.14054
0.28509
0.07487
0.65470
0.08760
-0.03808
-0.54809
0.48801
0.79077
-0.12265
0.67415
0.72730
0.09222
0.60859
0.59044
0.15155
-0.03579
0.22313
-0.82779
-0.59727
-0.00601
0.06305
-0.01809
-1.18910
-0.32611
-0.60567
0.62625
0.22882
-0.08126
0.14640
0.43416
0.50173
-0.21962
0.53126
0.54906
0.33757
0.02577
0.30394
0.28746
0.21082
-0.08428
-0.58424
0.42541
-0.18637
0.40468
0.39088
0.17303
-0.00042
0.52400
-0.50133
0.29939
0.30299
0.26562
0.43230
0.49692
-0.54453
-0.16258
0.42115
0.18130
-0.03027
0.83698
0.30469
-0.65807
-0.10593
-0.90851
0.05345
0.15599
-0.18938
0.15825
0.22470
-0.03539
-0.39015
0.36261
-0.11472
0.49676
0.05109
0.03166
0.64341
-0.03042
-1.16580
0.00614
-0.05799
0.33381
-0.05292
0.46298
0.59616
0.26445
0.44024
-0.32103
0.43076
-0.14636
0.20839
-0.10043
-0.07689
0.05096
-0.12923
-0.37405
-0.60281
0.34106
0.18024
0.44706
0.34400
-0.26556
0.00924
0.03612
0.45219
-0.01415
-0.51433
0.26478
0.26782
0.75574
-0.10047
-0.01741
-0.28339
0.61112
0.39340
-0.18212
-0.23564
0.73792
0.25993
0.17881
0.17504
-0.07399
-0.16042
-0.30976
-0.05289
0.42164
-0.07654
0.23664
-0.25235
0.28060
0.33770
-0.05708
-0.03588
-0.60198
-0.08773
0.24935
-0.33541
0.16042
0.43115
-0.56175
0.14792
-0.03130
-0.04068
0.17192
0.47262
-0.06247
0.00912
0.20029
-0.27758
-0.23599
0.60840
0.72778
0.20293
-0.13958
-0.34375
0.52079
-0.19252
-0.57003
0.21314
-0.88422
0.41024
0.44216
0.01690
-0.18864
0.61573
0.02885
0.55987
0.05204
-0.03195
-0.44428
0.05963
-0.05613
-0.10118
0.58162
-0.01417
0.03549
-0.37239
-0.50112
0.43901
0.32613
-0.05042
0.21809
0.05212
-0.44270
-0.02670
-0.00501
0.02971
0.24454
-0.14175
0.46071
0.35219
0.14815
0.13696
0.18048
0.18153
0.33637
0.22861
0.33271
-0.67909
0.40571
-0.07189
0.12531
-0.09397
0.04891
0.53780
-0.30466
0.33340
0.41021
-0.93251
0.48663
-0.04380
-0.25700
0.15330
0.26435
-0.46266
0.29930
0.47484
0.05416
-0.07160
-0.36213
0.01616
0.47227
0.71539
-0.20434
0.36982
-0.04909
0.49456
0.41218
-0.15816
-0.68552
0.35687
0.58814
0.26747
0.36927
0.16134
-0.10246
0.47982
0.69481
0.13849
-0.46753
-0.28784
0.09284
0.63021
-0.36604
-0.48581
0.56024
-0.50671
0.04048
0.00631
-0.35557
0.29019
-0.67282
-0.05781
-0.55885
-0.04814
0.29253
-0.04696
-0.25370
0.51593
0.46059
-0.20432
-0.32133
0.11090
0.25483
-0.04395
0.53554
0.17005
0.63022
-0.11373
-0.58931
0.48614
0.29322
0.33888
0.31665
0.40975
0.50377
-0.08148
-0.54786
-0.05750
0.00236
0.60788
0.06930
0.00288
0.13442
0.15788
0.51164
-1.34053
0.18498
-0.12859
0.27892
0.28422
0.24032
0.28515
0.01809
0.44710
0.05774
0.10488
0.36817
-0.21655
0.08839
-0.90640
0.12080
0.46693
0.18290
-0.65615
0.83356
-0.54410
0.46165
-0.04113
-0.00947
0.24182
-0.20261
-0.14386
0.31699
-0.12208
-0.95326
-1.60965
0.07091
-0.11050
0.19809
0.34353
0.61095
-0.39934
0.28526
0.53308
0.10771
-0.28171
0.12623
0.38507
0.09635
0.66564
-0.50214
0.52902
0.69771
0.04392
0.46276
0.11731
-0.20757
-0.85454
0.21777
0.69694
0.52162
-0.52710
0.22092
0.07154
0.53126
-0.25077
0.25276
0.70523
0.08279
-0.60196
-0.14397
-0.00586
0.48655
0.04804
0.55896
-0.60612
0.45348
-0.42522
0.43746
0.42341
0.42123
0.38661
0.07204
-0.77559
-0.12514
-0.57817
-0.41190
0.23424
0.37495
0.72686
-0.04617
-0.02079
-0.20266
-0.07991
0.21427
-0.05713
0.62395
0.18473
-0.21419
-0.19591
-1.32208
-0.09015
0.14894
0.35082
0.46796
-0.41324
-0.07929
0.57718
0.37144
-0.23828
0.62595
-0.00344
-0.46354
-0.62372
-0.53710
-0.09709
0.12612
0.21866
0.02298
0.16287
0.74863
0.32235
0.09477
0.65332
-0.04397
0.77375
-0.10994
0.10456
-0.29661
-0.36182
0.16929
-0.79496
-0.52984
-0.03471
0.31176
0.05179
0.02098
-0.21691
0.27482
0.03298
0.18683
0.19096
0.13152
0.01754
0.05812
0.14791
0.16597
0.15387
0.16064
0.16103
0.07241
0.07925
0.14297
0.15086
0.19714
0.06934
0.09960
0.19304
0.00084
0.11646
0.08444
0.15485
0.09445
0.11561
0.01927
0.16531
0.19017
0.17269
0.04645
0.02845
0.05092
0.03964
0.02173
0.19188
0.19702
0.19217
0.00128
0.07772
0.10457
0.20700
0.11096
0.12549
0.12073
0.14512
0.09130
0.19371
0.17116
0.03638
0.18884
0.13591
0.12470
0.16565
0.15353
0.14638
0.01363
0.06300
0.18519
0.16205
0.18765
0.14962
0.18474
0.03600
0.01321
0.18418
0.04525
0.14506
0.15520
0.18695
0.11764
0.20947
0.09459
0.01096
0.02322
0.20485
0.04657
0.08042
0.00443
0.09584
0.16542
0.07642
0.06326
0.14040
0.10981
0.09337
0.16330
0.06690
0.04782
0.05263
0.02984
0.00347
0.08842
0.15585
0.04429
0.09520
0.17671
0.10501
0.07694
0.00262
0.08244
0.09161
0.03144
0.02085
0.15399
0.20031
0.07468
0.16532
0.17748
0.16012
0.09796
0.07866
0.05044
0.01854
0.12942
0.16623
0.08388
0.14700
0.19982
0.19727
0.17664
0.12429
0.00050
0.11647
0.07617
0.02180
0.06194
0.09562
0.07336
0.12939
0.00160
0.02216
0.14659
0.18780
0.00050
0.13198
-0.02037
0.03842
-0.08693
0.11522
0.11806
-0.20333
-0.00697
0.09909
0.22825
-0.04520
0.23368
-0.22816
0.19022
-0.63738
-0.43717
0.42114
0.01879
0.51841
-0.35129
-0.18762
-0.68759
0.06822
0.18372
0.28072
-0.32708
0.13023
0.76220
-0.30345
-0.51882
0.37753
-0.18988
-0.72662
-0.09527
-0.00830
0.79303
-1.17375
0.19045
-0.06645
0.50162
0.01660
0.36938
-0.08384
0.69236
0.69470
-0.17755
-0.87948
-0.58191
0.61072
0.01934
0.27771
-0.38429
0.63397
0.51719
0.78804
0.06614
-0.60664
-0.55693
0.56170
0.23079
-0.12310
-1.05113
0.19037
-0.75959
-0.07881
-0.88715
0.53767
0.63598
1.44348
0.39803
-0.36578
0.43104
0.03714
-0.44934
0.04676
0.10767
-0.74585
0.17273
0.08322
-0.11300
-0.37502
0.65091
0.64457
-0.31518
-0.27180
0.15778
0.39883
0.34170
-0.34686
-0.96766
0.02455
0.34772
-0.44933
-0.26087
0.49667
0.54492
0.44737
0.90968
0.20185
-0.85498
0.18199
0.46230
0.06813
-0.22936
0.16671
-0.36738
0.76227
-0.64866
0.52278
0.07859
0.20838
-1.47863
0.27090
0.30557
-0.91751
0.54594
-0.66407
0.17542
-0.17149
-0.33744
-0.20395
-0.05796
0.72429
-0.39671
-0.74972
0.31480
-0.04406
-0.04287
0.76454
0.10237
0.17910
-0.31290
0.78560
-0.88509
-0.23818
0.25456
0.02882
0.23773
0.25477
-0.18813
0.21807
0.61364
-0.27528
0.51528
-0.11300
-0.25388
0.34933
0.32728
0.55494
0.16607
-0.57471
-0.12776
-0.94902
-0.20329
-0.37565
-0.18268
0.24271
-0.06443
0.90654
-0.24355
0.31947
0.15133
-0.55151
0.54752
0.22913
-0.61851
-0.07323
-0.89995
-0.18477
-0.39267
0.44789
-1.48366
-0.00922
0.03047
0.61065
-0.97334
0.08750
0.51921
0.40336
-0.26900
-1.44195
0.12678
0.30588
0.74871
0.86502
0.14647
-0.04135
0.53351
0.50650
0.30231
-0.45367
0.00690
0.58760
0.15385
0.46083
-0.38642
-0.00318
0.23563
-0.58330
0.44892
-0.01956
0.15766
-0.13298
-0.41509
-0.56669
-0.22615
0.07737
0.04101
0.01269
-0.18250
0.14669
-0.11875
-0.09319
0.38960
0.11615
-0.14315
-0.58772
0.16324
0.64411
-0.67853
0.14655
0.86311
-0.58609
0.48572
-0.99237
0.52663
-0.05483
-0.07159
-0.18657
0.05170
-0.70518
0.07075
-0.21774
-0.14609
0.21293
-0.30052
-0.27850
-0.03271
-0.07422
-0.03196
-0.20573
-0.19069
0.18741
0.05035
-0.07038
-0.09843
0.05330
-0.10318
-0.18654
-0.17309
0.38463
-0.10851
-0.53193
0.33318
0.15164
-1.07392
0.02712
-0.14242
-0.77227
-0.12036
0.23445
0.51295
0.13048
0.35844
0.28732
-0.28014
-0.22318
0.36632
-0.00703
-1.07906
0.31530
0.48407
-0.68639
0.29861
-0.28815
-0.36655
-0.07585
0.33222
0.69423
-0.06847
-0.02368
0.50483
0.25874
0.09426
0.35729
0.27719
0.14394
0.66306
0.43987
0.51715
0.43945
0.48585
-0.65626
0.64553
0.07394
0.13219
-0.06790
0.49795
0.32522
0.34020
0.07851
0.53927
0.55888
1.21799
-0.12555
-0.09855
0.66113
0.62352
0.00610
0.38754
0.75669
0.31635
-0.02671
0.02765
0.25710
-0.84608
-0.00508
-1.46123
-0.34255
0.65497
0.30566
-0.15002
-0.07944
0.33656
-0.31122
-0.30699
0.52151
0.31662
0.09809
0.57729
0.01854
0.27072
-0.67000
0.27998
0.03417
0.23924
-0.12771
-0.11701
0.32483
0.51225
0.29708
-0.35664
-1.16702
-0.25627
0.14935
-0.97754
0.21045
0.07691
0.35040
-0.23911
-0.09155
0.02745
-0.41659
0.42553
0.37168
-0.80761
0.31211
-0.33092
0.66857
0.49917
0.20735
0.27774
0.14923
0.10092
-0.08715
-0.11342
-0.27223
-0.03206
0.03178
-0.39431
-0.22058
0.59085
-0.92675
-0.57346
-0.17786
-0.00984
-0.24474
-0.30580
-0.58895
-0.30175
-0.44416
-0.14167
0.45592
0.11192
0.57996
0.08373
0.11038
0.34182
-0.02871
0.57517
0.79288
0.43339
0.50284
0.31311
-0.19345
-0.58880
0.51935
0.18875
-0.96776
0.39965
-0.23977
-0.09035
0.69974
0.12275
-0.13596
0.62127
0.79372
-0.51458
0.40068
-0.19198
0.11329
-0.30020
0.71060
-0.64631
-0.94978
0.39567
0.32233
-0.02663
0.29977
-0.32115
0.52466
0.06208
0.24375
0.22918
-0.68168
0.07339
0.15587
-0.00081
-0.02055
-0.21360
-0.07846
0.03383
-0.77269
-0.08263
0.22908
-0.09969
-0.28411
0.51305
0.10314
0.11672
-0.07771
-0.01536
0.30014
-0.30965
-0.58238
0.09545
-0.08803
0.72445
-0.07460
0.52334
-0.10319
0.53681
-0.92641
0.06851
0.66627
0.73043
0.42080
-0.17246
0.21961
0.12312
0.00845
0.37310
-0.31105
0.12710
-1.14215
0.48456
0.36666
0.08824
0.09079
0.68595
-0.04856
-0.42841
0.24328
0.67116
0.23723
0.33236
0.25379
0.08479
-0.52196
-0.52208
-0.45467
-0.38693
-0.17262
0.06898
-0.34751
-0.21549
0.13160
-0.19460
-0.32458
0.06105
0.36427
0.36731
0.34283
-0.40486
-0.15244
-0.28658
-0.22539
0.60844
-0.07955
-0.62402
0.53057
0.08022
0.61130
0.32448
-0.33908
0.31410
-0.09478
-0.08997
0.51089
0.29817
0.42673
-0.24548
-1.22465
-0.02588
0.47877
0.39969
0.18600
-0.05638
-0.34806
0.67058
-0.35943
0.04884
-0.38611
0.55888
-0.14852
-0.16393
-0.32779
-0.35058
0.10181
-0.04929
-1.00769
0.50784
-0.11878
0.67888
0.48496
0.17846
-0.42704
-0.06780
0.20120
0.04784
-0.01368
-0.58295
-0.22004
0.52522
-0.52891
0.46893
-0.48232
0.14127
-0.17200
0.46882
0.83918
0.16322
0.43758
0.31069
-0.01855
-0.82317
-0.35518
0.57234
0.65976
-0.18273
-0.45021
-0.14873
-0.23240
-0.16871
-0.71070
-0.34535
-0.23219
-0.04049
-0.28179
-0.47250
-0.76028
-1.37192
0.06170
-0.09556
-0.16205
-0.41899
-1.06407
-0.36490
-0.63885
0.11213
-0.22272
-0.72355
0.13462
-0.36955
0.31438
-0.00700
-0.00098
-0.07069
-0.58745
-0.08699
-0.16102
-0.49609
0.48898
0.03805
0.16267
0.39502
0.08018
0.16325
0.39947
0.44313
-0.41379
0.23302
0.35718
0.65060
0.41746
0.26838
0.38824
0.40090
0.14742
0.28894
-1.16265
-0.12535
-0.24234
-0.15920
0.38885
0.29724
0.13918
0.40749
0.44358
0.62351
0.29989
-0.01315
-0.16931
0.00386
0.42663
0.19570
-0.00761
-0.13301
0.24764
0.25538
0.12859
-0.11209
-0.13285
-0.43840
0.34784
-1.13932
-0.11670
0.63702
0.46846
0.43346
-0.09686
0.21442
0.13986
0.17945
-0.07388
0.10180
0.41577
0.47423
0.04805
-0.15062
-0.12573
0.37046
0.23151
0.35038
0.00499
-0.24419
0.39362
-0.80115
-0.13216
-0.11664
-0.68074
-0.18544
-0.38962
0.11164
0.01885
-0.31715
-0.54001
-0.38355
-0.67041
-0.72966
0.76357
-0.65151
-0.63111
-0.93770
-0.30733
-0.87244
-0.84477
0.28333
-0.10499
-0.70378
0.07291
-1.56577
-0.15284
0.22476
0.67106
0.52853
-0.16389
0.06685
-0.25282
0.08069
-0.78598
-0.45791
0.25959
0.01290
0.02912
-0.29885
-0.28144
0.27315
-0.03805
-0.68663
-1.01931
-1.18333
-0.82040
-0.04877
-1.34240
-0.33571
0.50433
-0.33004
0.56638
0.15046
-0.01524
0.44901
-0.86423
-1.67054
-0.11422
-0.31581
0.57998
-0.64826
-0.37792
-0.14209
-0.67920
-1.09585
-0.62907
-0.31621
-0.25845
-0.09654
-0.29527
-0.93341
-0.89435
0.21095
-1.37759
-0.38656
-0.09828
0.18003
-0.08292
-1.16375
0.62994
-0.26602
-0.66552
-0.49336
0.56305
0.00080
0.35967
-0.03030
-0.75122
-0.68097
-0.13257
-0.23934
0.15169
0.71893
0.31232
0.60967
0.17796
0.60170
0.55180
0.59381
-0.15775
-0.22090
-1.02147
-0.39761
-0.00290
-0.19822
-0.36536
-0.16826
0.28291
-0.05373
0.28218
-0.17057
-0.03695
-0.50107
-0.24488
-0.11539
0.15220
-1.01953
0.20460
0.00689
0.27932
0.05102
-0.22000
0.00749
-0.24378
0.41696
0.63207
-0.07844
0.36806
0.24014
0.61711
-0.39342
0.22788
-0.49905
0.29026
0.08421
-0.87963
-0.23546
-0.34324
0.40270
-0.67845
0.34519
0.13836
0.15531
0.06607
0.44996
0.15907
-0.09835
-0.89831
0.06902
0.53670
-0.77416
0.07286
0.64027
-0.12720
0.00302
0.44215
-0.04899
0.05040
0.34882
0.00604
0.56280
-0.57417
0.21954
-0.25860
0.33676
0.19558
0.14408
0.20122
0.56791
-0.76485
0.97149
-0.15425
0.52059
0.20466
-0.03170
0.02237
-0.06068
-0.55085
-0.70802
0.11997
0.25747
0.77147
-0.13284
0.49126
0.04201
0.71562
-0.20640
-0.49376
0.31636
-0.49165
-0.74256
0.09634
-0.26142
0.40401
-0.91828
-0.02722
-0.60886
-0.76249
0.84931
-0.67101
0.05536
-0.01422
0.34721
0.90028
-0.38676
0.21561
0.78269
0.56077
-0.34408
-0.22077
-0.28443
0.14403
0.15458
-0.04903
-0.04418
-0.54625
-0.16621
-0.54689
0.15851
-0.35719
-0.36623
0.14727
-0.17714
0.27100
0.34999
0.19750
0.32230
0.42114
0.02204
0.41772
0.50320
-0.53166
-0.50978
0.41062
-1.42383
-0.95087
-1.10302
-0.28249
0.02836
-0.37511
-0.19147
-0.72890
-0.69591
-0.37479
-0.90120
-1.10138
-1.28655
-0.03971
0.43660
-0.36973
0.45724
0.35208
-0.74709
0.21711
-0.25397
-0.68707
0.34939
-0.19005
-0.50517
0.45516
-0.42719
-0.21468
-1.11496
0.62564
0.15394
-0.21405
-0.53978
-0.21459
0.17616
0.11656
-0.16772
-0.61665
-0.01821
0.14106
-0.47489
-0.04514
-0.73099
0.29057
-0.76744
-0.09985
0.33273
-0.15181
-0.21448
0.34541
0.16793
-0.46562
0.10578
-0.18742
0.06873
-0.53689
-0.37339
-0.60692
-0.10459
0.14055
-0.49269
-1.56358
0.12492
0.42105
-0.19979
-0.75871
-0.13923
0.30533
0.54022
-0.02867
-1.26066
-0.14824
-0.47077
-0.32058
-1.09329
-1.04417
-0.03379
0.13988
-0.20092
0.14367
0.03949
-0.00692
0.40738
-0.15641
-0.49451
-0.73880
-0.80524
-0.02068
0.20793
0.21203
0.09338
0.46097
-0.63334
0.22778
0.05565
0.20978
-0.01801
0.02173
-0.34159
0.00431
0.38859
-0.37484
-0.09681
0.15821
0.17054
-0.09854
0.31140
0.12160
0.31007
0.30060
-0.44610
0.01116
0.15388
0.54872
-0.15563
0.83743
0.16041
-0.18175
-0.83944
-0.18330
-0.18631
-0.52958
-0.22937
0.52845
-0.27703
-0.13154
-0.15873
-0.62186
0.29121
-0.48569
0.58592
-0.30598
0.24500
0.30667
-0.11507
0.37382
0.05284
0.38027
0.44368
-0.15153
0.44314
0.48558
0.12638
-0.47032
-0.05417
-0.81867
0.01083
-0.65312
-0.29428
0.11661
-0.46201
-0.04777
0.03478
0.47971
0.55854
0.56758
0.61031
0.11368
0.29723
-0.76152
-0.85518
0.46681
0.20026
0.24015
-0.03174
-0.12682
0.31752
0.30625
-0.56708
-0.01118
0.03358
-0.11334
-0.84052
-0.89907
-0.36386
0.81199
0.06972
-0.36508
0.62945
0.66490
0.28908
0.19867
0.63527
0.31984
-1.29275
-0.21906
0.10908
-0.02474
-1.01103
-0.35061
0.00848
-0.03394
-0.19512
-0.24350
-0.13809
-0.15946
-0.15801
0.01381
-0.17464
0.17650
0.31374
0.33758
0.38161
-0.53527
-0.27225
-0.60984
-0.12915
-0.19918
-0.14447
-0.63929
0.01626
-0.82368
0.18426
0.12032
-0.28473
-0.29931
0.15447
0.05525
0.51564
0.47840
0.09390
-0.36232
0.82435
0.04196
0.37846
-0.60995
-0.32041
-0.93207
-0.61104
-0.88698
0.34578
-1.13710
0.17918
-0.27784
0.57473
0.41115
-0.13231
0.55226
0.37773
-0.20798
0.19997
0.95977
-1.47818
0.05101
0.47243
-0.46596
0.44239
0.28613
0.49389
0.25328
0.60337
0.75243
-0.05649
0.02230
0.02953
-0.08141
0.35874
0.27507
-0.11528
0.18275
0.47237
-0.39378
-0.73549
-0.20319
-0.79730
0.04273
0.30199
-0.07024
-0.21060
0.54914
0.47484
-1.43783
0.20593
0.00894
-1.23790
0.21983
-0.73564
0.27468
0.04929
0.11115
-0.33647
0.23824
-0.75030
-0.33604
0.23727
0.22007
0.25538
-0.06068
0.04514
0.24912
0.25968
0.47226
-0.80629
-1.45048
-0.52669
-0.69610
-0.37291
-0.75803
-0.65185
0.42686
-0.12082
-0.63345
-0.39373
0.45648
-0.26308
0.12798
-0.51704
-1.16991
-0.33839
-0.10919
0.03317
0.29777
-0.13138
-0.95848
-0.06620
-0.04104
-0.19396
-0.04839
0.60256
-0.03545
0.55347
0.47382
-0.36527
-0.42923
0.11281
-0.42615
-0.08340
-0.21763
0.16778
-1.10024
0.25854
0.07903
0.28128
0.30843
0.23599
0.15712
-0.00636
0.17002
-0.39499
-0.67325
0.43014
-0.91835
0.28538
-1.05837
-0.12711
0.16885
-1.20608
0.04598
-0.21140
0.43355
0.48804
0.02754
0.09604
0.38679
-0.30658
0.45360
-0.33812
-0.27200
0.20626
-0.36365
0.27325
-0.66387
0.24953
0.24278
0.24605
-0.67245
0.58309
-0.69840
-0.20673
-0.49001
0.47478
-1.05374
-0.46520
-0.03433
0.58377
-0.98499
-0.19829
-0.00515
0.24230
0.37520
0.55865
0.51995
-1.51892
0.16415
0.11510
-1.36079
-0.12794
0.26495
-0.35084
0.38787
-1.31979
0.51842
-0.17230
0.44220
0.57766
-0.17081
-0.03315
-0.05061
-0.17350
-0.45026
0.47484
-0.98048
0.53927
0.01772
-0.95980
-0.08641
0.09115
-0.06436
-0.04433
-0.08692
0.67016
-0.13392
-0.07840
0.39570
-0.66247
-0.15071
0.48689
-0.27010
0.18756
-0.10347
0.03217
-0.07453
-1.09778
0.56674
-0.53653
0.37947
0.47802
-0.07129
-1.00807
0.01246
-1.17198
0.24878
0.30339
-1.03938
-0.00968
0.21968
0.46015
-0.12494
0.12847
-0.59814
0.12069
0.59105
0.11963
-0.84830
0.27321
0.22631
-0.14939
0.10304
-0.11120
0.25260
-1.05931
-0.46241
0.49854
-0.41420
0.33139
0.44563
-0.37454
0.42930
-0.39727
0.40939
0.39533
0.41185
-0.39362
0.43256
-0.31398
0.82529
-0.06164
0.11144
0.02014
0.02586
0.21266
-0.37625
0.41035
0.06452
-0.36545
0.61410
0.42171
-0.38432
0.46150
0.54177
0.26913
0.54623
0.39209
0.16071
0.41545
0.60222
-0.09720
0.55855
-0.84311
0.33173
0.21296
-0.10106
-0.10552
0.25241
-0.18092
0.25663
0.64272
0.64302
0.22908
-0.48462
-0.14857
-1.23542
0.24816
-0.84556
0.26826
0.24929
0.26558
-0.15556
-0.07270
-0.26025
-0.12440
-0.52393
0.42135
0.61873
-1.94581
-0.50094
0.24624
0.06175
-0.48940
0.39956
-0.13912
-0.12775
-0.29294
0.61989
0.19316
0.60617
-0.11797
0.19266
0.15272
-0.11069
-0.13715
-0.88819
-0.13824
-0.18693
0.24264
-0.05124
0.44087
0.16129
-0.97253
0.70458
0.26094
-0.78074
-0.17725
-0.12231
0.16542
-0.16503
0.26495
0.09807
-0.39622
-0.48893
0.13373
-0.36442
-0.26616
0.56815
0.14011
-1.41663
-0.37699
0.38247
0.69877
0.08685
0.13579
0.28013
0.44535
0.02209
0.71977
-0.12573
-0.05008
0.03098
-0.18007
-0.21552
0.47194
-0.19388
-0.31905
-0.65122
0.36924
0.64904
-0.40655
-0.49101
-0.09071
-0.86929
0.31673
0.62930
-0.00869
0.42445
-0.52797
0.24801
0.04287
-0.27437
0.09167
0.17441
0.20830
0.30772
-0.90222
0.05631
-0.57675
0.56018
0.38549
-0.47200
0.49831
-0.02798
-0.25281
0.18723
-0.05420
-0.79006
-0.00445
0.16015
-0.02641
-0.09781
-0.71785
0.48382
0.07158
-0.52757
0.17815
0.38811
0.62776
-1.25507
-0.27333
0.13338
0.23319
0.36122
-0.05589
0.32931
0.62264
0.21689
-0.12584
0.10155
-0.06006
-0.22750
0.17313
-1.00805
-0.95992
0.31468
0.36454
0.32320
0.25552
-0.06806
-0.16643
-0.22513
0.47546
0.43614
0.49625
0.48233
0.56751
0.02833
0.33714
0.10778
0.19784
-1.52753
-0.07422
0.43892
-0.06505
-0.02273
0.10440
0.33737
0.48182
-0.18202
-0.60893
-0.51842
0.18917
-0.00587
-1.09498
0.33930
0.00068
0.24377
-0.18572
0.05842
-1.68502
0.37353
-1.20920
-0.10504
0.15586
-1.43943
-0.03303
0.12861
0.49321
0.15533
0.32666
0.40634
0.37061
0.36446
-1.06653
-0.22953
0.09906
-1.02204
0.16335
-0.19643
0.69433
-0.75994
0.10885
0.16713
-0.05394
-0.57628
0.12467
-0.20218
-0.23147
-0.92088
0.31751
0.16994
0.43737
0.11216
0.45909
-0.22620
-0.20949
0.75804
0.83612
0.14972
0.07784
0.12563
-0.15135
-1.62237
0.43915
-0.30866
-0.33074
0.14215
0.11147
0.09984
0.76841
-0.93317
-0.30740
0.11212
-0.47140
-0.23550
0.46139
-0.61422
-0.24179
0.50448
-0.93089
0.10028
-0.18452
-0.23167
-0.04976
-0.57400
-0.95939
-0.18165
-0.94035
0.13504
-0.54763
-0.13696
-0.15667
-0.23552
0.52239
0.43828
0.82707
0.13769
-0.58042
0.81831
-0.21493
0.20828
-0.24263
-0.12128
-0.21993
-0.56318
-0.58364
-0.59795
-0.52839
-0.20853
0.34716
-0.20367
-0.64873
-0.25601
-0.31449
0.45541
0.07903
0.10368
0.62379
0.48880
-0.85109
0.50705
0.49133
-0.99446
0.42847
-0.98079
0.52820
-0.55726
0.43680
0.50294
-0.80300
0.49488
0.46355
0.53365
-0.11495
0.51627
-0.62036
-1.13200
0.21254
0.12805
0.41538
0.48315
0.09005
0.39370
-0.57022
-0.09153
0.44992
-0.05986
-0.04845
0.09308
-0.20962
0.29371
-0.10566
0.07238
-0.02579
-0.04724
0.39716
-0.21951
-0.02581
-0.13097
0.36383
-0.16322
0.13590
-0.09079
-0.06873
0.07625
0.27559
-0.03124
-0.09221
-0.33954
-0.07084
0.15919
-0.04207
-0.09957
0.18206
-0.35170
-0.63959
0.45795
-0.01887
-1.73884
0.39065
-0.26498
-0.34736
-1.02455
0.65215
0.02019
0.47587
-0.01927
0.00103
-0.05341
0.40355
0.41343
0.36676
-1.18655
0.20204
0.53167
-0.02969
0.59191
-0.27930
0.76146
0.28847
0.83159
0.47432
0.56257
-0.18259
0.56361
0.10381
0.71651
0.56385
0.43206
0.21750
0.55522
0.53402
0.53394
0.47083
-0.60197
0.48554
0.33833
-0.80299
0.51256
0.46334
-0.11901
0.10284
0.76832
-0.22689
0.15744
0.14605
-0.53263
-0.19143
-0.23258
0.44022
-0.22429
0.15860
0.15843
-0.23076
-0.19488
-0.18739
0.15987
-0.22285
-0.22225
-0.24533
0.07911
0.12985
-0.18779
-0.49764
-0.19152
-0.57076
0.14755
0.12936
0.13442
-0.25149
0.29058
-0.55865
-0.49341
0.32353
-0.30423
0.22848
0.02546
0.63880
-0.12553
-0.09229
-0.92152
-0.84219
-0.73907
-0.41211
-0.75526
-0.09153
0.05992
0.26956
-0.20383
-0.08760
0.25672
-0.69019
0.50891
-0.99767
-0.69275
0.68733
-0.54329
0.54815
-0.85384
0.70420
-0.31722
-0.85156
-0.36137
-0.33661
-0.26101
0.58027
-0.79336
-0.04549
-0.07696
-0.06745
-0.52205
-0.86195
0.56431
0.34239
0.10150
0.42877
0.15994
0.15310
0.12998
-0.33290
0.39253
0.09717
-0.04400
-0.49490
0.50819
-0.07395
-0.08734
-0.14394
-0.31803
0.57030
0.18643
-0.11141
-0.26696
0.16754
-0.02545
-0.73233
0.35593
-0.38491
-0.10567
-0.98281
0.27448
-0.75174
-0.74923
0.11262
0.34980
-0.57923
-0.73401
0.60303
0.59053
0.13134
-0.50251
0.56499
-0.07167
-0.10263
0.53346
0.38214
0.28029
0.39402
0.20869
-0.19063
-0.13001
-0.37540
0.48348
0.48147
0.38010
0.29969
0.30219
0.53232
0.21813
0.19453
0.77561
-0.88240
-0.69059
0.67290
-0.50160
-0.70440
0.13430
0.46631
0.74552
0.00659
0.04388
0.72727
0.10175
0.25060
-0.64169
0.55171
0.18103
0.53028
0.23626
-0.15157
-0.13758
0.21484
-0.06286
